{"generation": 357, "fitness": 21395128.896540325, "board_size": 10, "snake_size": 3, "input_direction_count": 4, "vision_return_type": "boolean", "network": [{"layer": "dense", "input_size": 16, "output_size": 24, "weights": [[-1.6273869282292595, 0.7621901764327697, -4.377511050390824, 0.7890968137592602, -2.741821378281982, 4.217215923364653, 7.796131267485253, -1.8124405246887092, 0.8383974736115754, -4.545611612294766, 3.181102634377484, -0.18589372637788093, 5.482236788635389, 1.6816075480272095, -0.21716829234585405, 0.8814292428699986], [6.719221518960719, -5.318869281818843, 6.6216322063724675, 1.844199653559964, 4.331305923899419, 3.410205936811459, -3.8539877151541124, 1.369739352596639, 1.0530038458299351, -3.016035369851525, -2.6218985901495557, -1.4932428296577134, -2.787216165062493, -1.4519517909813788, 4.605715982769284, 0.16643722718036602], [4.833162733474124, 4.278527861861597, -2.633945130291756, -6.357557141612245, 5.499104435595929, -5.983357096734017, -6.116977886137792, -3.5597475096631053, -3.3397758399837403, 0.07200370086657248, -7.335231918500491, -1.7860155613242943, -6.814484637967185, -0.9039438759669249, 1.191832622938855, 2.666128157823561], [1.1249384090028887, -0.11382881927917693, 1.5681687402508557, -3.5894491331524923, -1.6996886747029318, -1.1939659772555928, -4.101665128845362, 0.35402244264753147, 0.4091616969888583, -2.998679790588747, -1.491872946095166, 1.2814843860319998, -0.8260834139048014, -0.1666901479084777, 1.0804169235643621, -1.318100294071241], [8.392429436959562, -2.54446652076875, 5.903449091892999, -3.6265351765673133, 0.38641246723825, 3.5301537567165644, -1.8900559901908613, 3.889497708653491, -0.4906335589690838, 0.9729851953928343, 3.4065318601543177, -2.9849996613205114, -5.94255979649732, -7.983564059323864, -8.490726003027763, -0.3752096592315485], [6.697029693316537, 5.684527697140611, -7.578620594751053, -2.8139607366377395, -1.4438477693430085, -1.65517610589196, -3.3356871881897443, 2.2580710508218242, -3.7097991355905835, 4.095695483216719, -2.5277843719415314, -2.8158562493798898, -3.7552680301835712, 4.206286315104738, 3.3334654554988603, -1.551887155678136], [-3.3275576102583857, 2.328046898122206, -2.363029647118411, -1.7566054111987799, 1.009975661332667, 4.237379504652663, -0.07609641828289548, -2.7563023283189567, -1.1055428154582294, -3.5398843605749604, -0.7986598307087034, 3.495029357189453, -6.28783704056324, 3.1363458813454024, 0.7062689958051449, 1.7918862784165954], [-5.746857255930957, 0.31299777301155185, -1.256416443374579, 2.217873967446411, 2.123279240091798, 1.0141420414753832, -0.9228838382663922, 1.701827410458531, 0.05133243548605859, 5.324272186273268, 0.6406476248765688, 3.5545908299754814, 0.06439350435791008, 0.6868976327273956, 3.814281875089822, -1.8177972240176725], [-1.1645818434989743, -3.532386897868703, -0.5726655180041049, -2.017336769318329, 1.4854221653926678, 0.2591190673685225, -1.2385603815238757, -7.49855768719268, -4.184280059756283, -0.07569266318930279, 0.24005510475880693, 1.4364140395694764, -1.435907832951174, -2.415527444421166, 1.7033916834917107, -3.5684786545002103], [-2.694042612504833, 0.975808676588926, -3.9981318323228923, 6.234745806378628, -2.9787439621471474, -0.526441007030889, -6.007969416920722, -1.3309844272156715, 0.317682363626619, 2.371651843290604, -0.4669998837350363, -0.6381167524329976, 1.8196420452749593, 1.3505817380770826, 5.13665754015719, 0.3013410001949963], [-0.6113187759566487, 6.769852212958712, -1.911653299228134, 2.553061497999825, 2.319064175789131, 3.4251984116054444, -3.2268555651595126, 3.3717651397668433, -3.6378897367132565, -5.000900453733781, -3.9633012377346657, -2.830147920314136, 0.600400406741219, -2.2998036161528708, -3.6997859910319737, -0.45489203956107804], [3.7741915723955684, -2.3495319396172616, -5.10766733946473, -2.7387110706752384, -0.12687075403263903, -3.5681486524256565, 0.9227374416063394, 0.9794335230944128, -1.049382601907014, -1.9931760628135995, -1.7991210864822498, 1.1684914482611786, 6.538154242636448, 8.196878369814137, 4.418898193184658, -2.4582885647540085], [3.207022831724197, 1.933330245712197, 7.885278520297288, 0.7909574694402318, 2.859725122385549, 6.670507891342137, -2.74201312540158, 2.409226921370271, 3.0177763321917705, 2.190979248617138, -2.8418933048815056, 7.912239539534762, -0.45402778989077275, -1.157795453946736, 2.482424102182716, -2.512182055640352], [-1.1398343817393837, -3.5298801507495288, 1.7577985113594163, -4.814356254170325, 7.800431206995398, -1.2984191894510129, -3.2853911904690474, -3.3829362370428036, -0.4512775782626577, 6.169422258853151, -2.552004006669606, -1.495563981513593, -8.262298246621476, -0.32855022035697157, 4.086392380602576, 0.9184952265681863], [9.019616629857214, 9.546356252772746, 0.3123708536753065, 3.1577637339377147, 0.810914373797027, -1.92691729675458, 0.3788603811792154, -0.6770575110342595, -0.5350274830486299, 0.11051433936708799, 3.3641044530277506, -0.8591884271542505, 4.185742914572902, -3.1431865050372916, 0.9828770009420335, 4.014868364751552], [-4.100269322212868, 4.663882827519152, -7.030995464443075, 4.037036984524629, -1.0146901894510645, 2.59462020832356, -6.760801508344488, 2.1233264890734667, -1.7395875600717148, -0.16646142501900218, 5.029474621311967, -3.3126543841196296, 0.8118765187244714, 0.12257475286365072, 1.133523085757292, -1.3370084844985006], [-2.7294696372450176, 0.8313836463625555, 1.046047662725306, 7.591219169752388, -3.9403071754873698, -2.879924011849664, 1.0194823922840284, -0.9296468024681636, -0.5496255113804336, 4.6388712613658525, -7.734092514303246, 0.22397437389241287, -0.32361804909024905, 1.1399691810335175, 2.3899190884921278, 0.767387772381322], [2.438419384099051, -2.445011541415524, 4.653752336581793, -2.6090698670753265, -0.16152633915427245, -4.18090190925655, -2.447486719340748, -1.8872557289803613, 3.929459443273461, -1.1683300305029505, -1.0145967591190312, 1.0221084957669424, 0.16707886536489283, 2.385447890054915, 0.44006776151378757, 1.8903438048489871], [-0.13032459337445113, 1.62042168329753, 1.2848179285682164, -0.43320162767441295, -1.0315385368081058, 4.556735843579859, -0.7563571849190572, 2.099059852365694, -1.5424673533030422, 1.1745999856036977, -3.9784938455642562, -2.4718222859295755, -1.4545504509157237, -3.3254961445482714, 5.862777396942614, 3.443776813419962], [2.9402271510278872, 6.150304387086651, 0.3287328804249616, -1.982689894551084, -2.1547494812642065, -2.0176098555923296, -4.423807747290466, 0.7679450131612685, -4.198364654889748, -1.810481623812701, 0.9323102937229051, -4.428434853393679, -1.607396974947254, -0.7198132037216369, 0.319600417005826, 5.843064005181903], [-0.08294374579424635, 1.4976951172333366, -0.9765224273803266, -5.080194401324784, -0.2741437520006107, -4.57168168351658, -1.9507515939851343, 0.0026386957538306055, 2.6517018870417814, 0.563960238598322, -5.503903731931741, -1.650624158556242, -1.720215155758355, 9.4157740151968, -0.5179984862456841, 0.8271672924469745], [-1.1747759046196953, 2.71490890872561, -4.207682795267664, 1.3069697897361028, -6.908628004990552, -0.2369427451079401, 4.4958096079842775, -7.6828010619623095, -2.4652403104006355, 0.210755018077862, -1.5697722593686865, 1.6950640996022692, 2.3134440588507053, -7.342559031270746, -2.654621343578918, 0.7501087339683283], [-3.2202315911950627, 4.3852725017892995, -1.1811076570508878, 3.869863300991001, 1.774529059539541, 0.3830507468941796, 1.786280008859995, -0.8349677255908952, 5.137353743734268, 5.083786076081024, -0.897731552623332, 2.3832542623107487, -1.7766912498010827, -8.93334799342291, -5.672179320353868, -5.011459804432477], [-1.23063219980935, -1.0813638363156108, -1.4127762857001214, -4.566657210183067, 0.496675738266956, 0.9392528247682175, 2.502603923239445, 1.970942520930347, 1.491774291857008, 0.25161332128522884, 3.0582619057369573, -0.8440946797703283, 2.7909856146249314, 1.4089564952158797, -3.2932301843690377, 1.7422198155797914]], "bias": [[0.2487370319163913], [1.3029544048978725], [-3.504025321234143], [-0.12999294180722032], [-2.686258597796185], [2.2532298685500396], [-4.699420504746631], [-0.8164130340941811], [-2.9900458401198398], [-3.125723059987637], [-2.96346770302788], [2.290547536956757], [3.919193357155708], [-1.708931290137267], [6.361636341794466], [2.1539852537124635], [0.9963033864421516], [3.7084718328861035], [7.852503278527804], [-2.99693778501324], [-4.7474591417735645], [-3.3715526619091514], [0.06259149886660784], [0.9913574094156579]]}, {"layer": "activation", "activation": "tanh", "activation_prime": "tanh"}, {"layer": "dense", "input_size": 24, "output_size": 4, "weights": [[4.974881140390675, -3.3801331438707396, -0.8383329001399324, 1.8554119137769636, -0.9484888959218399, 0.20510593434145485, 1.0267274213525122, -1.7943141379746923, 2.415113156882763, -0.01242925751359978, 4.752290353732658, -1.1038234727531355, 2.1537241609775797, -3.613187433132683, -3.346791099389839, -1.7148955354681426, 5.048338564039609, 1.142763896558044, 5.090384044404756, 0.6579476505912135, -2.504165252879717, 3.5456286800011987, 3.1240510398579593, -4.243631895758849], [-9.38798335875482, -5.005905772129783, 0.14941475605087365, -6.233685294753576, 3.106076996404882, 0.024747413568000143, 0.035859118828283076, 2.2835234285788557, 0.0433567400807609, -1.2190454517116434, 1.2952817905163634, -2.143142961714266, 3.6114435425969065, 3.4162676503953096, -2.838644105216371, -1.2012259434709105, 4.448785526126133, 3.168822801896245, -1.3855769267722624, -1.5849071667353525, 4.459080078612309, 0.9841838071239861, 0.5274011222828279, 4.936160099589649], [-3.7170758824070393, 0.8755575200076109, -2.603708212371683, 6.177307540174183, 1.9330991310655246, 0.008123085331714686, 0.03190926907434566, 3.5024391902035013, -3.6700585089483715, 6.13611580830295, -0.47744570772367667, -1.6005808388593048, 0.10489855937005418, -3.316339684704664, -4.57381472639244, -0.09279899684958659, -1.0111869225938854, -1.531053497947747, -2.8062588105523103, -1.4015639241888567, -0.8783701025871921, -6.042127802881617, -0.06110706653681752, -8.863311621891667], [-2.7754830883068573, -0.3910536979200523, 0.3522148337067092, -0.39801189150002014, 0.3069222226556433, -1.8768340967138448, 3.279008351800761, -4.163371941857185, -7.97571497651363, -2.3035407205412906, 1.1759742587024504, -2.990730077824756, -1.0005456716528465, -2.0245920067614236, -0.16489571126453983, 0.29274666846603814, -5.294673536062284, -6.30002153126373, 2.1389162898700516, 3.806332698857491, -0.2314860320416312, -1.3093571480901038, -5.155908417917139, -0.634234199754816]], "bias": [[1.9985586240600666], [-4.422662126834264], [2.068757838998726], [6.296297240815797]]}, {"layer": "activation", "activation": "sigmoid", "activation_prime": "sigmoid"}]}