{"generation": 800, "board_size": 10, "snake_size": 3, "input_direction_count": 4, "apple_return_type": "boolean", "segment_return_type": "boolean", "distance_function": "chebyshev_distance", "network": [{"layer": "dense", "input_size": 14, "output_size": 18, "weights": [[3.500242744765324, -7.638938333666667, 1.708681245165998, 4.449955095768717, 2.4909045858559176, -3.8761754729452322, -1.5907024693027365, 4.328588369978005, -3.8719721299308136, -6.4761619272864674, 0.4803453981592116, -1.290638870134223, 5.4579549936889595, -0.2601717826583177], [0.23608165083070975, -6.94404419682805, -3.8554395635516867, 5.129925723943228, 4.563874202454477, 1.2049316734236335, -1.3030634810749557, 3.853599578935658, 1.3240472954293132, -6.2794846608769035, -3.198108568012302, 0.6775517039272239, 7.49341251848854, 8.489484374117138], [-1.1767635252777326, -4.784534641514673, 2.449474863790827, -0.8214167229805003, -1.7795936819857887, -1.7279015127007142, 0.5248314094570371, -2.534139813171696, -0.019720407750236868, -8.0840070537541, 2.379020432199085, -8.309594838941452, -0.8662563323453887, -0.23610031685360228], [1.7332988242767118, 7.0467887185954385, -1.7126117124805762, 0.4499776467887707, -0.24132958726428644, 1.0945729145779945, 0.3028520716111892, -9.143908957907975, -5.018393990799369, 1.7702899619966164, 0.1179331987065867, 2.2797792879881684, -0.5324308239642719, 6.138438110972644], [-5.180658608660291, -1.3776949973138286, 1.4769850280365102, -4.143085106940527, -6.218461323161633, -3.736635256390694, -3.2969721326482397, 3.8664196361395287, -3.9361054119766323, -2.948964399988707, -12.158147003211734, -10.66353481364492, -6.033795638930883, 10.502901821446443], [5.832573756180176, -6.908358518333651, -0.3114980883840455, -0.9557877544959089, 3.9518161031693673, -8.220287338777984, -7.401142056873731, -8.518104528746699, 0.5974413132917655, 3.3807152667091622, 4.969853154809616, 0.6844901724487079, 7.541845906893305, 3.830999829043262], [-0.05257823819764873, 7.329515659468764, 1.7925364755604587, 5.015060303043302, 4.086181753960844, 5.700619047257299, -13.222131001996097, 6.396646391593564, -6.134922696283909, 5.075225358361911, -5.920645274645889, -2.4533463886784976, -7.940565485053449, -9.243184451926389], [-10.550748076305005, -1.6121183894816817, -0.3419643036316474, -0.09215434949164703, 4.871002616307287, 1.7018341105066426, 2.1978485742152296, 3.179254455851539, -6.780752570962275, 8.285608264582264, 4.705906725961488, 5.697173737920162, -0.9903005865573278, 6.221046393564606], [4.984369878937361, 1.430103914716747, 4.170955832103179, -4.8046957190062605, 0.9109835313622584, -3.671833197246277, 3.0590886687644163, 2.9523356991636946, -5.490282095739377, -0.8794432540437056, -0.46197692151130626, 0.9913772207655996, 3.0934404686518047, -9.085539096498705], [0.27257278207440716, 0.7230028983296588, -4.410202523458888, 2.129580370650651, 3.0665992061471705, -3.2487470514352195, -2.4422085256037587, 11.172178961320421, -1.0042776817145895, 1.2061394826581613, -7.8109063212497825, 6.03097345194969, 3.246750331574491, -3.863736938545743], [3.6851098161660536, 0.10382599114698499, -0.2520098641992368, 9.520633169392582, -1.6005391196091803, -1.0360932738110045, -6.781698325116611, 1.5968963011185315, 3.7568272696413043, -0.5390290769275198, 0.458788828736681, 1.1215295835523764, 0.5132488637891641, -4.302423169694886], [-1.772276425902244, -0.03245369496981294, -2.462451423604359, -0.202321509036004, 1.2502430181350281, -4.26338657466902, -2.0625119252310804, 0.9293874046013167, 0.7991922069265154, 7.148692960403446, -5.000755344488526, -1.017825112736478, -0.29800858334965263, 1.438015716551227], [-3.8960978739583463, -9.137424875867886, -8.431323870486775, -1.312206981006292, 2.6291866272751623, -3.633819569404831, 2.8726506798218012, -2.6952145436672494, 5.668947659844054, -2.2813038474716696, 2.2167081241099424, -1.4468194543453428, -4.02908982475581, -2.1646702270080183], [4.752290802682284, -5.711132448274591, -2.3928824804748974, 3.500285080455942, 2.4411340871693628, -0.21090305494131611, 4.491342447269493, 3.574704468750038, -7.259714315000071, -8.425845258858603, 4.011559255546059, -6.294651064371588, 0.18173519937960853, -3.2516505079894316], [-4.1424880801456485, -0.7470099497863403, 2.1931983098705965, 3.593970739511546, -0.7189641168124927, -0.1359792999939088, 16.330535744162745, -2.999994025673198, 0.9758623531172609, -8.361290793195895, -7.219782129793395, -0.702992239630197, 5.349440275263274, 5.411028834653363], [-3.9134007164420628, 1.3468277864870641, -9.55172555539555, 9.782941354049637, 5.158142829298286, 5.166256129263831, 13.523418594392052, 2.3207702807405832, 0.4413365157199349, 7.474755251070323, -3.3753037991885457, 2.448054749830221, 10.612137332107224, 6.7733033731847545], [-1.7941664220352442, 4.232872135282478, 1.3597838243251132, 7.828320331519143, -1.9270704131500789, -7.653154091784684, -2.2029508881677704, -1.59313104774991, -4.267476479430959, -0.3255185701208493, 3.3001760139393945, 0.5554708559009957, -0.5853209152721592, 5.052592162404387], [-5.311949508070544, 6.233431034693563, -0.5341498804034024, -1.5505583006176793, -1.0181229884385687, 0.7837311552786761, 0.6440038349012358, -11.107064413576305, 1.3240953526735928, -1.6114610959996396, -2.4781780344652766, -1.4776901826043822, -1.9504767866385575, -1.5097338703299874]], "bias": [[-4.98747228936689], [0.2079521838791316], [6.827103530980716], [-1.39526889879694], [-3.629083838437986], [-3.377723389394352], [1.887507496681554], [0.40064036517793516], [2.471462481082016], [4.029463870274794], [1.4462863987380858], [1.9523874040872309], [-2.5490445257614343], [0.22584618368760068], [4.312446925062826], [5.538359513094256], [-2.640214511062192], [10.021543429183984]]}, {"layer": "activation", "activation": "relu", "activation_prime": "relu"}, {"layer": "dense", "input_size": 18, "output_size": 4, "weights": [[-6.191366814278108, -3.7972374651473357, -7.260781319178762, -5.830199639966608, 1.7064942506065142, 2.684401250766206, -0.6237172790297423, 0.8552980998332957, 1.4406136118621078, -2.917134360862666, -0.7848184117918237, 6.310191650551054, 3.1330919538187745, -4.941008504634598, -0.4950155367372444, 0.8548302191134672, -2.135596881658946, 0.23275678051700938], [0.18556089466832282, -0.8579092722370742, 1.3061853540607702, -1.8949148269335945, 1.9065332145995455, 0.6024402785430354, -3.6039332717216217, 1.5745384192921952, 6.323925224719213, -5.781147249747496, -6.926303093554332, -1.3456025148198496, -0.3679707432370394, 0.48033610322424936, -0.13385468818041413, -0.294338349710492, -1.0803114015452122, 0.6944368964555622], [-2.342019702557277, -5.355224722984717, 3.0143722736363783, -8.13555588485927, 5.8140001917824256, 2.453190888911111, 3.5062269988071986, -2.507850829912471, -0.7070592598802835, 3.1694669518758065, 2.172239564921143, 2.053654290030734, 2.3058249863981626, 1.564516325877417, -5.622427764568693, -2.685464072301365, -1.6257041044004525, -1.8182941766974672], [3.3912800886945202, 3.6872741643814364, 4.137216170973458, -2.2089825098308484, 3.8698141921813023, -3.7251240236236307, -1.7798917053401175, 0.25100869100941264, -3.8819937216386893, -4.664723197819649, 0.13087216371833077, -3.4624462732478274, 2.0468137101618185, -1.8543184478210524, 1.6939868982929285, -1.0290925012013177, 1.781633150639905, 3.155506246270857]], "bias": [[-0.6648648946044828], [-3.0907650044466166], [-6.515206052702473], [-3.317781532057166]]}, {"layer": "activation", "activation": "sigmoid", "activation_prime": "sigmoid"}]}