{"generation": 452, "fitness": 1.5845632502852868e+29, "board_size": 10, "snake_size": 3, "input_direction_count": 4, "vision_return_type": "boolean", "network": [{"layer": "dense", "input_size": 16, "output_size": 24, "weights": [[0.36613274892954917, 0.4270277430503142, 3.39652400412022, -9.775122207009314, 0.00033698533456683055, -10.926543133958477, -0.06904723005781806, 3.5630463601460147, -1.4766041320209857, -2.772324856426116, -3.8537709325577136, -1.85080939377722, 1.302474915140945, -12.617242051338202, -0.8184952985012692, -1.1519304938121804], [-4.627626223166003, 1.5856923609609628, -0.8605610547681747, -7.6048780908245135, 5.064892550045069, -0.14891390191935328, -7.612138725255314, -7.153823034305488, -2.4959577706861458, -0.19653822257634845, -6.581736660631528, 8.08486075397199, -1.5504456617927098, 3.001940744018252, -10.27047966993663, -4.720887010187151], [-2.816040701286519, 3.9805718233175695, -0.7653494292422428, 3.1147303489366256, -4.9405692480397585, 0.9504915092429589, -9.100308911840918, -4.120507420949958, -1.9916399143846315, -2.833802008953214, 2.885422502040261, 1.8869960659666958, -0.44366781129510713, 1.8745134036488669, 5.751977332458933, -4.072012323130089], [0.5213490608057261, 1.5568129607101684, 0.23767563322989874, -0.10900158613263455, 1.1061802556178546, -2.014457903171269, -0.9524390028310449, 6.409472088969961, 3.432859661733839, 3.634053281289218, -0.38164774264018925, 0.9811813945867018, -1.279623729950671, 0.28427126692177196, 0.2701828337213983, -1.9438238430146764], [6.05520070899076, 1.61082702314398, 0.5375658849777666, -2.9290725550040255, 6.103062556258331, -4.517273707673837, 0.2300608612591235, -1.9112398877007606, -0.8496796517380583, 0.9601345555130641, 0.6939215262102176, -0.9496121555612691, -1.1362595455303328, -1.233004374638468, 1.8131486669846884, 3.40975091204073], [-2.8796195592119918, 1.2015069456753735, -2.1348516033236455, 3.1494256292345426, -6.696424103946935, -4.5073565844017995, -1.9833999779209843, -1.3462513117983907, 3.0717725449594964, -0.2779794709496925, -0.5866510447009807, 4.474913852068965, -1.9411762843292006, -4.378251821820773, -2.0091249737717387, -2.039350443943956], [-3.378487402298908, 4.659292015554169, 1.0666601661609938, 0.9802640854814226, 0.768718053069303, -7.241653957934087, -2.140463668641564, 0.4748866760786895, 0.9126263066620562, -0.2651703280697646, -6.184525648139767, 1.2121887983653021, -0.7555264229404324, -3.1411949637378966, -0.6953280081971934, -4.337850033360398], [-3.9261449093119998, 1.7381042199507664, -3.3678519984824447, -2.6114249003639256, -1.5153775070739468, -5.3558165058785026, -4.428438587621639, -3.5698647200582756, 6.800047367423453, -5.959188746291636, -1.889495165917963, -0.47162988298874, -2.6510630830628976, 1.1390846235385892, -1.1056630561763026, -1.9859340833679933], [-6.213396702176563, 1.595700975653627, -1.3062658532971798, 1.8276860951475942, 0.7875580050124553, 0.9260706166723118, 4.5381528270143345, -6.849829648013276, -1.9514816682208689, 0.4038407653949543, 1.6204043355727769, -1.6348419145488118, 0.5533248139038062, -3.4442904280287996, 2.2803587477705842, -0.01656817492212248], [-5.809508872923166, 4.740570312269732, -1.3696952491640852, 2.723699903478249, 1.9346333206539166, 2.1182134906444663, 2.93406891006347, -0.9069681529276457, -2.8082501698066133, 0.19899204617646116, -0.29475647824975915, 4.771758189043333, 0.03163393703680262, -3.0354068274176873, 2.990466272458799, -0.678554172374007], [-1.6429177883649622, -0.729346243279849, -0.07447486219978075, -5.402189214854104, -4.182014465475215, -6.870871562225376, 4.616903283231666, -2.915782504639058, -0.5707032715874105, -3.4641371694705616, -8.575808920782759, 0.1663085376839044, 2.6217785469003543, -1.5780969143596009, 2.8625661600632064, 2.190276763093936], [1.6646528253279347, 2.6491822098193607, -1.075991273998505, 0.6862715281648164, -3.6964952584954123, 0.13753503280521373, 11.515832943204831, 1.2996419598983822, -0.14871303937118913, -8.46638795291386, 2.885531720452815, 9.186208985850254, -2.1084378150849563, 1.4540524238954438, -1.0575110180324288, 3.1898660457621784], [-2.0557406347483034, -2.192763041825291, 0.04403082322215951, -4.08193702549456, -0.2103730117157315, 3.215892913909314, -5.25434501709777, -0.20106857950178636, -2.3504800694751093, 9.706235236469281, 0.0497661388064492, 2.8232859129643253, -2.338327905657527, -2.416504840124468, 8.282087712708265, -3.8700476417057588], [0.98328929910743, -0.7870048307930669, 1.464745267373653, -3.5878199014034475, -1.5878893783165418, 1.5560920807332115, -3.71799973130087, -8.092560956096209, -0.9021542791850707, 6.926560590861877, -0.5051477576863165, 1.1068720702031034, -0.3895134633059494, -0.18574817394058496, 3.45037414631139, -3.4839071030868114], [-0.5182533698860011, 4.586745453868959, -4.40583687733713, -2.3623577427529097, -1.5680648858684556, -4.32715834921374, -3.003955213326639, 4.1109539020001105, -0.008285906810267512, -11.628453619231118, 2.2045348194642713, -4.263635874787761, -0.5213286261169614, -4.246188746048143, -2.653954971135724, 0.831429649811605], [-6.9900907005023045, 1.8976855874475769, -1.6546200672330087, 4.876878525543121, -3.8433083490680735, 1.2372611885122544, 2.365328975055771, 0.2280370950245092, -1.006325597676246, 6.375031521782158, -4.788658136420007, -0.8882355357427543, 2.7169516235370517, 1.1158180359867391, -0.11237245054394107, -2.7677848031183543], [-0.28180676149359835, 1.7790192992404508, -4.051344271657274, 1.6482361781362678, 2.470977191627193, 0.8608326850708911, -2.812938875910517, -4.633964434847732, 2.8106703216292592, 1.4569364280708, -4.092795601974492, -1.4014285875089465, -3.0732570448666054, -0.2545002757439653, 1.8972183065563741, 1.0678312410915036], [-0.1637350442904103, -1.1248510043927666, -4.308911133341678, 2.536303808903499, 0.8212709550640003, -0.5452168296138711, -2.564637226549595, 1.7010951077883667, -4.390914782380276, -4.571490018934245, 3.614446297356213, -0.4474397839237796, -3.9054879927420725, -1.9193694601100626, 1.1051263225504013, 4.468086404150677], [4.1019758744228545, -1.7140121932109027, 1.4332068784122636, -6.936224538716204, 4.264977100547027, 2.239209481363697, -8.350632623513844, 1.3924499381793929, 0.4890816185121288, -7.500921736876828, 1.1785406904369595, -2.56974987894404, 1.189648433881975, -4.926533278491936, 0.8915208295418653, -0.27349787989214636], [-0.678777209119215, 4.540533938123714, 2.207701719736474, 0.27297752130280123, -4.337517169449837, 0.4798533971112121, 3.10705414320329, 3.1896521032867318, 0.49831568739682996, 6.517635145619811, 2.579631864991254, 1.9189384879452769, -10.014993656597488, -4.468215535157336, -1.9555285431946432, -0.6824932102873237], [1.343087586399236, 1.5922890769182279, -3.370996435037224, -8.161561478962158, 4.035813205101484, -2.2880054698895487, -1.0180793726131923, -6.586606618365354, 1.9395887532617366, 7.170556698769065, -1.453330456614294, 2.4360844722317845, 2.6930515622350097, -0.36614764021320567, 3.4895496285962917, 1.5835675558568776], [4.811869002268603, 1.79669553546845, 1.5961564517032842, -0.5601625649569713, -0.32439638871328663, 2.2541325673435155, 1.882508403316897, -1.2147991710792296, -1.1707846979522385, 1.07090273218483, -0.972984132484826, 0.6815047914818864, -3.5546621234954703, 3.809399081765751, 0.21871212723107064, 6.377911219989163], [4.168480936866192, -5.407854485604401, -6.249899511275727, 0.8031183209620752, 0.6893246998254845, -7.31623255345978, 0.5063751901848104, -2.3582697278768365, -0.6175613001053029, 0.5478997547362144, 4.234073946581835, -4.777543576531555, -2.5203996523925474, -0.045148219601970796, 5.6248462092573766, 3.9615437322136273], [-1.3064369034595344, 3.6568804857526405, -3.0303729810218574, -2.780897404304022, -6.171856796453792, 2.0164255683563814, -3.554725398402045, 4.401471042638678, -0.9903347434654668, -0.4581788541389292, -0.0945537151137498, -2.0316386225471676, -7.100948678966748, 1.4636194493917243, -0.849873997457315, -3.859026269017401]], "bias": [[-1.0582898008120152], [-2.421978428993424], [-0.8858707961334918], [-3.133095790464286], [1.7117418280559826], [-0.9371281029052455], [1.3648767759957745], [3.955128352413163], [0.4755286201936487], [-0.7476910799872095], [-4.215040760832798], [-3.5795411125182675], [0.8933410381099101], [1.5950305083301763], [-2.9478138567938936], [0.5394137967062201], [-0.20572978535454034], [0.06019328105947486], [3.6690653633581687], [-1.7871276469932467], [-1.988052908385808], [-3.0188951624239797], [1.5821897388183734], [-0.7771200505130409]]}, {"layer": "activation", "activation": "relu", "activation_prime": "relu"}, {"layer": "dense", "input_size": 24, "output_size": 4, "weights": [[4.90842026988568, 3.851682056827747, -1.8367094269746747, 1.6473944581788036, -1.4334440995610844, 0.21391109083588822, -0.778894337201981, -2.9758853134643806, -0.3574150802886796, 2.549136506779869, 7.6781606379951866, -1.0257688214314118, -3.251947969927174, -2.1298518650032823, -6.456089230678655, -3.0448531586983623, -0.15140277836941293, 0.39296459310734366, -2.0931808493287076, -0.23211542310548544, -0.620778901529152, -3.4794181844981162, 2.4543912200917273, -3.8979383766429985], [-5.924547194631315, -1.7147516531552809, -6.814459276457104, 0.251375170427084, 3.9236098677238225, 0.2628947513749508, 0.9440871719262313, -0.6581357300303264, -3.08187255875771, 0.7715476560298201, -1.8235298251037295, -1.5891723661623731, 0.618590983195433, 1.09016453548851, -0.4830641956998273, -1.6729158605175076, -0.05605798115617433, -2.269351220737436, -5.841314273596651, -0.5045356441122957, 2.7949886595638502, -0.4823078915071674, 0.7132330756031104, -0.03101377554858753], [-0.45014266948095394, -2.36043911050941, 4.583455379878588, 6.112281533119104, -0.12838849569001776, 3.4359656979777364, 1.4827461282765748, -1.9016724154585085, -5.275566815011157, -0.12025857587130429, -0.4006213242839891, -3.8135530507290993, 2.029120337582754, 0.3379343595361008, -2.5345996506722277, 2.158483999836716, -1.4466283379375484, 3.9722854541490613, -1.13065855814234, -2.770541530014454, 2.6891508194838543, -0.5125537516769334, -0.10942083762894214, 1.3118923414387538], [2.7253047714359386, -1.0626817035765437, -0.8782214633306946, -5.366360720456813, 4.742318270835317, -4.758534247730847, -0.31620545292891356, 5.379393269669407, -2.0170628316047914, -2.104173716366616, -6.571480458629439, -0.22302243630586022, -5.092089228812395, 1.384738878278792, -2.4878696414697568, -3.081425293887855, -0.5183710581883181, 3.341886712624172, -2.7091148274049077, -1.3726514929100941, 1.7473118790070925, 1.6922027702244489, -1.671906627236139, 0.8158788129643961]], "bias": [[0.31977937409518864], [0.9025693054804298], [-2.002141408098125], [7.845989476508434]]}, {"layer": "activation", "activation": "sigmoid", "activation_prime": "sigmoid"}]}