{"generation": 307, "fitness": 7.922816251426434e+28, "board_size": 10, "snake_size": 3, "input_direction_count": 4, "vision_return_type": "boolean", "network": [{"layer": "dense", "input_size": 16, "output_size": 24, "weights": [[-0.6958260693757744, 0.28311797799128174, -0.3390617216119669, 1.8257509767290439, 0.6654576557544692, 1.3402448552096895, 5.46453376974685, -5.416715437633944, 0.44275747556622475, -4.314061957445867, -0.4779320162368531, -0.7169793206722788, 1.4923654231804042, -2.6524807767980425, -5.266156461037362, 2.4668559071077563], [6.633763102614509, -4.640051245810523, 2.325915331978182, 1.0489122321004642, 4.754973360957909, -0.31308097477075203, -3.7578237442554205, 3.6590737860139613, 1.7781294575205544, -4.005145366843981, 0.7752102612409113, -0.9019978027765824, 1.7971581813785655, 3.582794651220563, -1.3317925919217088, -3.348672954389169], [2.395268188844019, 0.3039839545607276, 6.987708362549028, -2.6144696106213905, 0.13704601193310517, 2.2634356375506655, 0.06545122667645709, 1.5659345633773407, 0.291948598967511, -4.441860423301545, -1.021993926452652, 2.6618031991031024, 1.9848462062347698, -1.2147998756623002, -0.9264014920842799, -3.158215698408347], [-7.297769155240225, 1.7035528560762392, -3.8686918976077984, 2.431869906791387, -1.5785631849937554, 3.080823401610676, 5.743630803053314, -1.6981399985459114, 6.267481164185931, 1.3484833844694768, -0.9100166306375697, 3.6176980323540286, -0.17245775163741184, -1.49620699757683, -1.7342156478252817, -3.4375697484377667], [-1.548962116996453, 2.1661271254265064, 1.6379083109302093, -1.7183147857125598, -0.2582749833554, 2.0366066094616824, -2.217900260789417, -4.00852265347115, 1.963087742364571, -5.727353824126763, 2.0255382042840933, 5.6450229778123875, -0.8045949741142776, -1.081348393083113, -2.0655723045332346, -1.967806275171019], [1.0816857444586705, -3.4968738720759944, -5.021505016414688, 0.6964211960099778, 2.707731035253205, 2.227406818365373, 0.007996754193446476, -1.9620204116377142, -3.54870693183968, 1.0791908874021554, -1.802928783336871, -3.374358503687804, 0.05180195510316765, -2.6689546630456835, -0.507539256732003, -3.466988175723261], [-3.5424725297665622, 9.869932319495911, 4.180755151795568, 0.9051790635302124, -2.041837897382848, -5.841316803639578, 1.0219799578392168, -0.3140040329763263, -3.192289248403325, 1.7660532555232833, -0.5966912936405708, 3.492279346713925, 2.1078155418035176, -4.0940418664090945, 1.9385366065421568, -0.4464747960564228], [-0.13445105048937367, 1.5117265986812307, 1.5965431460787922, 0.8749246760443113, 0.7214931442087943, -1.5777890397127186, 0.6685268531498328, -0.9069311261889381, 0.8225948598687121, -3.2488936263534502, 1.274128056096337, -1.0299213134598237, -0.6360913811635389, -0.4396137178747228, -1.0874276427820433, -0.26318908758127274], [-2.8625109764226875, 1.21497210615946, -4.944655646595065, -3.2956313594072992, 2.6402189066965356, 0.6403378376330829, -3.009972243092778, -0.32554075860494225, -2.9752111010126496, 1.6412431589951695, 5.171956939389999, -3.2373997674559387, -1.4857762309839408, 2.100114915897173, -1.1046186348156737, 0.15806937521195152], [3.1166827244116226, -5.508893341265481, -1.7088866826493148, -1.4961827563405061, 3.4763290327201766, 1.1076041886013925, -1.4553021326085351, -0.39030648740370216, -3.289071226906048, -0.4211036161788857, -5.041537725593196, -0.5508330754421296, 0.4064157210779096, -4.835960691619615, 5.109510479721855, -1.7141798488781967], [-1.9077039862143943, -0.8730838503629138, -2.439886409231282, 8.04329266633486, -1.9427120320046807, -1.0659449981104272, 3.251488681635144, 6.585636686670641, -0.24524025836871327, 3.145695034359534, 0.5787758094003446, 0.5079466451923398, -4.041013655124569, -0.17163689261310344, 4.656595615127024, -6.8187954199440375], [6.183451394377442, -0.26704603275393524, -0.21572754619198914, -1.4100738733180282, -0.9299955279230764, -0.7635659847527073, 4.93064769342419, -1.910088957116652, -0.5921260840160386, -2.207386541646449, 2.850553216017219, -3.4395417269664685, -3.4448703044827824, -2.428586280897087, 0.4674105247436454, 1.6575377272320746], [3.930238457962102, -0.8071454312164315, 1.2937623194983514, 5.537929203345743, -2.513246943891083, -1.4833864957519243, 0.4373474389640311, -1.918574181663214, 3.2735624490971476, 1.329203722039314, -1.9421554171278055, -4.2911093626198245, -2.1527987216629465, -5.840489573767746, 1.1421245749100675, -0.9771716804461619], [1.3805675254505068, -5.092795475541401, 3.0200929905358533, -4.124103059957851, -0.07698749594363363, 2.1125667987449046, -4.404614095791972, 2.0030727736088054, 0.7297008100269256, -2.155659418309174, 2.649744298660754, 1.1232125399905553, 2.7134498993398424, -2.176955230280969, 1.836723136608509, 2.9858861125827207], [0.4358114376520762, 2.632279448851853, 1.3064094256546421, -6.577445839015782, 0.6932462169213187, 0.2993931877391398, 3.454458740765379, 4.447031813405491, -1.430402431070579, -4.530514992679342, 0.2514869362096108, -0.6964886565814106, -7.023138704046745, 1.094712810765402, -1.2991391937360248, 13.322942955417727], [-5.232977816039521, 1.1722766180884825, 4.6396372007479, 1.1265023259083398, -0.9860472464766077, 1.8735014906446723, 2.497882123810817, -5.374256670440547, -0.9438394280222747, 2.1459703654266056, -6.131792340708494, 1.8638545946372853, -5.069005206923415, -3.48838120750173, -4.217723079207674, 3.0936632636329273], [2.107786609866808, 2.0381190415086823, -2.0260298102130063, 1.8028586097589205, -1.9021809105556968, -2.236108148719837, 1.6064298768354366, -4.856458911321391, 5.344125267830094, -3.2861205933878237, -1.737581065812767, -2.611578470246841, 2.6639030483214388, 1.9284576571843808, -5.006707347973103, -3.3958944418292494], [-0.6328606052417904, 3.0817717224939485, 0.9171092498775222, 3.48281749326231, 3.0093986146635876, 0.4672220390711704, 1.8320409192219014, -0.4431720880158688, -1.0783135350227022, 1.9996482824438102, -2.4767930936317817, 3.2900156282799182, -1.621691023137866, -0.4339406743416029, 3.0031517045517333, -5.618670196647891], [-3.773600845913414, -0.31478079542073134, -0.20728767019165484, -1.4532165179464387, 2.661527931817032, 1.948948105775297, -0.12501049921202667, 5.045004665941651, -2.611522289678772, 0.5119502109325185, -1.0720381724943842, 1.3741215906015156, 3.6252121552655363, 3.863510047956108, 0.8453100495869104, -2.99140507306192], [1.7181311624461613, -0.952399622042772, 0.42906697630345003, 1.2398687902701617, -0.5674906169696056, -7.240557690414907, 5.787198140387995, 0.8321539999882677, -0.832989089602984, -0.5828921802145536, 4.926615471566162, -3.911322106205344, 3.316434828215792, 8.066118630161895, 1.9951545696735162, -1.6754228710884251], [1.1859310538918018, -2.725788050981202, 4.27780804510791, -2.3596123927163877, 4.447044135161161, -0.4582860073948736, -5.059203466159879, -3.677842640402443, 0.057217130830022, 6.862986444663823, -0.3299822205565893, -1.768553568602248, 1.8559024835353695, 1.2398207258707514, -3.177823155195279, -0.2616520098200862], [-1.1287917981779112, 3.5024001577354866, -0.24691102521880354, -0.18644555936463605, -2.0661312777067637, -0.40903156335983876, -0.8140031315616466, 1.8758307192664458, 1.0235728217307507, 3.3989820964854087, 3.7319925563462037, 3.725529237036514, -4.246742304611756, -2.5098798580779103, -0.2868138548779199, -0.5529661169383027], [-3.0141326838065643, -2.6257453384361873, 2.8522917884871744, 0.010175906137671886, -2.4081285234752103, 1.3096908392376991, 5.199076303807867, 0.4866316591381197, 2.6083061802476615, -0.38269916686264027, -1.4584017416979853, -0.4768782921710919, -2.190800045430781, -2.2854027199082374, 1.7349213637208234, -0.5235443275561704], [2.3122817397867523, -1.2834782175826698, -0.8210885586056621, 1.8364305621319141, 5.218407788108312, -6.420929091440588, 0.6100081651003953, -2.7267538613276514, 3.704415381796405, -0.47795122521253336, 1.7953676318635141, 1.8990485721975414, 3.411969448015967, 0.9111809845762102, 4.199362574082972, -4.155844132397496]], "bias": [[-1.3218760323535301], [-1.7649504210319962], [-4.735302330098634], [-2.172692448472519], [-2.5880818036356503], [-3.377490707017166], [3.5370881977934956], [2.2099718339267347], [-4.869743248607131], [-1.1649039172413764], [2.7637315915408585], [2.82146006176882], [6.3991834096589635], [1.632460490436658], [-0.17704263562498168], [0.7306911125940334], [5.961541750741025], [1.413834579894533], [0.4528158141961174], [-3.1404690542817995], [-0.9059834693298301], [-0.1508599829079741], [-0.1153829515575529], [0.627233355162994]]}, {"layer": "activation", "activation": "tanh", "activation_prime": "tanh_prime"}, {"layer": "dense", "input_size": 24, "output_size": 4, "weights": [[0.3530333731961616, -1.806891648667762, -0.5319498694554339, 0.377260424915854, 2.4742708326856095, 1.257101402154537, 6.420511036284526, -4.3532688309714915, -1.1440867258510736, -1.1453009932824616, 2.5142596932804793, 3.3500916259848608, 4.561981661827817, -3.4618607818536704, 1.5015626370226798, 2.804962267221851, -0.1479986987827886, 0.78492312733355, -2.049307716426854, -1.015725356125521, 3.471928236886219, 4.809035907872923, -4.465294157634011, -4.031475905225643], [-2.8815605283581, -0.5172129559772416, 2.086261833447323, -4.484851618392734, -3.3638239991802217, -3.7967974068079258, 0.4450627196479935, 0.12809538710977825, -3.0566777065090793, 3.1091094874580776, 1.8760762690980999, -1.3736304573985647, -2.5505178186455257, -5.069533650859975, 7.923480024915651, 0.542003824155505, -0.5074479607036558, -0.7344171737979492, 0.14611599077292836, 4.530198235705803, 1.402197742734312, -1.9555607600102625, 2.9496449209400564, -1.111806460083927], [-2.715953859533839, 4.601088527082983, 4.007642851674944, -3.0654963144165213, -1.4613389251030162, -0.11631312869110755, -2.039906755935094, -1.2870854381300234, 4.772471104446281, 1.5035059047860249, 3.673143003202139, -6.901709269564075, 2.169545304615526, -0.4495720325471047, 0.016952127142035034, -2.425857527032544, -2.938689894749964, 3.0590067955677642, 0.6105814492155981, -2.1048586457887906, -1.155324926843413, 3.1534554380632667, -3.1824723464278044, 3.018018231521014], [9.844583736586685, -1.5063461323305227, -2.9640130553025132, -3.273654458071726, -1.1284944217738244, 1.4735425449008555, -0.22018741603843572, 7.21687158125713, -1.6969870281764803, -1.6717636215669107, 0.6406656429380085, 2.1820576818052446, -1.8503882099733224, 0.504383366036665, -2.5321558883495556, 3.007190857036108, -0.22358583076144534, 0.2616820550350975, -0.48446002415623546, -0.7928929622544109, 2.215904679370735, 0.7594963887893031, 0.8621869883031269, -1.4674967829025318]], "bias": [[-3.3722092217355404], [-5.146948706890725], [6.468734917565398], [0.3089182465616457]]}, {"layer": "activation", "activation": "sigmoid", "activation_prime": "sigmoid_prime"}]}