{"generation": 481, "fitness": 3.961408125713217e+28, "board_size": 10, "snake_size": 3, "input_direction_count": 4, "vision_return_type": "boolean", "network": [{"layer": "dense", "input_size": 16, "output_size": 24, "weights": [[1.7150600592529734, -0.9481331949599265, -7.049411780632566, 1.3360300056269168, -2.7607359376584846, -3.648118887380854, 2.889993627753012, 2.414399862687803, -7.995992168529572, -1.6574356573154652, 6.713321540584526, -12.416571177238232, 8.35443449389911, 6.470514687486398, 11.528959352274645, -4.660260396058925], [-2.7571523006613625, -1.9832309735366203, 5.430236764944658, 11.260687512351824, 7.082345688665955, -3.611579900311018, 0.06651211378763944, 3.9436000111910516, -2.6753710902173466, -0.20016628952212134, -1.0288446992934597, 4.947138416673581, 0.58381637343577, 3.1326448801297087, 1.8833814384131327, -1.1628537577921976], [-9.7955467282185, 1.3478935413089825, 13.864067112844804, -4.448878212118151, -0.40022519526226064, 0.8370603305749515, 7.462645069094348, -4.409423521657938, -4.264109372792676, -1.7380197011755565, -1.56773041025644, -4.364298785769436, -3.7668635537865898, 5.091099494106389, 3.9127030319693654, 4.540575670807425], [3.3906343982860516, -0.30708409352435406, 0.5482852901432552, 0.6985226590317131, -0.6231346701117898, -0.15006963682675598, -1.2562543494628224, 0.302409873586007, 1.3206940806289031, -3.4900237621215227, 7.694830639288077, 1.2992474423969518, -0.7950492604732846, -10.260805239366386, -3.8462853435373745, 1.4591979161434463], [-4.155852211460193, -3.447002407965235, 0.6214846345658025, -2.501791913251906, -3.2515173310806857, 2.712011125042992, 3.3694941910836747, 0.6436508704360197, -0.9632328935113454, -6.699640686238259, 0.08549552316412268, 7.314822118791409, 3.9006510727634223, 0.8575132696252885, -10.005830593191412, 9.26302165620076], [0.30467624814210353, -2.277896199790868, 1.4120523081471024, -1.788104542926336, -5.641054615737975, -4.484162715994122, -3.6822216391551303, 1.9502688923602047, -2.410659777581363, 0.5480345293835862, -8.11043547224053, -6.416489669248971, 1.9737809879224097, -2.7221323361128253, -2.470134822038327, 1.1772679968431605], [1.5047074313542081, 5.789873808670107, -3.227635826811396, 2.7823037949244727, -7.061938888363345, -3.0077826065932203, -7.424026247868108, 3.3276131557113167, -7.6708787460881735, -2.78710561694371, -4.558786774031918, -2.6045946729746654, -0.32612129469825657, -6.646900675545696, 7.730859987107552, 1.380278287485373], [4.055313775802145, -8.699330762709547, 5.952428096906827, 1.0875608456767287, -2.4565930374899554, 4.33488120730889, 8.224246455780818, 6.78490280161708, 4.332721942826405, 7.156177684663635, 1.741449229045425, -1.3089073810877552, 4.552431335720506, 8.31222929514706, -1.8390811116370505, -6.533361820119486], [5.261327307155956, -0.0634274960603074, -0.8176614306147874, 6.873044246262858, -3.0964102013085983, 2.724896750832701, -1.6491400564531202, -6.214803204095002, 1.9025854679835157, 4.189595154525243, -7.0671594670106, 0.7357086477066259, 0.45726917439100767, 0.9919064138282085, -1.115451847045455, 0.4324269618912646], [0.821106520626741, 4.803586582606083, 1.8861016226587144, 0.10089601716178803, -0.7325974476528235, -0.8392130611304033, 0.8883222345842617, 6.96977177318635, -0.547222565349016, -4.361696770101032, -2.3779821151747558, 4.404278167973238, -9.497000079734846, 11.73617826943225, -1.013129965709568, -0.45412288088390307], [1.6641185300274843, 3.383264099771162, -9.077990489243161, -1.742174270416046, 2.238717083952538, -5.112664773209037, -1.8984931269411836, 0.9213666793967894, 2.2471603554803576, -5.750554947836124, 0.07060281842971411, -4.100015001381356, 2.4315626996017765, -4.754272813588568, -0.005395132153581339, -2.4268930108624316], [-3.361597895759642, -8.298633519491233, 4.626389921866776, -3.2330530959052215, 1.9073799812679693, -2.606549231261513, -6.609774099878606, -0.13230295993228774, -11.98867945778764, -3.319198773370937, -1.0768562777498674, -6.33497965471752, 2.381909538561809, -5.263127734090782, -8.203191025805165, -5.149679682063084], [-2.1826451696844016, -6.312805346545674, 2.4660363218236583, -1.6311047301252233, 7.661455816117309, -3.3821729139857095, -1.1539749510903998, -1.833264398795365, -2.5808415398936075, -4.502100399030373, 3.7396955481200855, -3.671927865086516, -3.890950132833158, 1.9843730598599276, 1.5521119271213673, -3.2747073036942598], [3.299098778067388, 2.065426518410121, -2.9200976307187454, 0.8281594755666437, 3.8006093225740747, 8.107375732767489, 7.059247850571424, -5.003517122041851, 3.7333880032049644, 3.469698384387634, 9.449147343267855, 7.106791516038108, -8.019233782825866, 3.4581397433682657, -0.5676063652853272, -7.599459893835311], [-1.8963450112994116, -1.8830149862428962, 4.876945906862436, 0.16834417552231606, -0.7697359661810064, 2.1330485129042396, 10.753067525645614, 3.2542637132162775, 1.5433726349564072, 5.248963160994242, -3.1598737890647532, 1.7790820506533669, 7.932741084838907, -14.505082143248101, -1.499681897335232, 2.045536881103893], [3.6266735523759865, -1.1367637691379011, 0.07609000030303426, 2.7824642389712038, 0.6761134438949843, 1.8304641411702844, -2.2171420560297097, 1.864238915011859, -2.133715197579453, -0.23411159243612722, 1.0316404250134263, -2.2669757174202103, -8.37399060316265, 1.9667671909319868, -1.556112658182887, -2.2713468437726716], [11.834919892291964, 2.436518260560506, 8.736812055513564, 5.54858138593551, 2.3105539563008906, 1.1643187455629151, -0.758946877130924, 4.004571954047094, -0.38110525084136737, 2.961522480380772, 3.1587718898160104, 1.472920361611131, -7.735460826087304, 1.7636013246850075, -0.4413122413205678, 2.2136807254896858], [7.514694819889817, -3.3828772642961145, -0.29809498334982165, 0.12431638990518934, -0.47080910596242775, -4.574204738437056, 5.654528467932822, -2.132831149873231, 6.31089655876822, -4.076348923040295, 8.348602263491726, 3.336545563893863, 1.5971751369978466, -6.601149127012911, -2.268799024056759, -1.953895010350638], [7.106086558664455, 1.3673338875052314, 0.38762490821673057, -1.2241738041766999, -5.78953004755392, 3.763387095784539, -2.836193143139147, -2.4323135331975414, 7.54166671510753, 0.5919950888032204, 0.8738147002499032, 3.4951818676626933, 0.12266744806007757, 1.3275872715173929, -8.103884131784133, 1.5166345735981865], [0.6483888291056952, 6.681268329917326, -3.7556255041389854, -4.04674588548615, 1.931113013742897, -3.704311575401662, 0.8073434421503138, 0.7160731051986367, -1.9535897858585995, 1.6374034707646117, 2.328006493325633, -2.8424760992701787, 0.9173184198320201, 1.8088177792194506, 2.1848785098526715, 0.01542104556325491], [1.0141079629751317, 4.929333468724162, -6.7847654567313675, 1.8853024342918965, 6.039082605377412, 7.263451443410049, 4.4974151391873995, -2.084969426302515, -0.08311313787034567, -1.672050310141242, 5.9960208459270845, 3.4424949380909715, 5.020364288479909, -4.553608562741069, 2.3437677294147656, 8.818223910118672], [0.49050604054933566, 10.462655465241376, -0.7209734410309238, 0.7863964366441465, 3.734653483063201, 3.323804927839427, 8.22154383347342, -0.4599803369450911, 4.211671480068382, 4.104394451930697, 6.311907263819859, 1.0801794122020445, 1.492482072395983, -1.3815587182703757, -6.688929716581118, 5.593877135440463], [-3.975300051992601, 5.742969475991393, 6.849951146045273, -4.50529493717282, 2.3424737224787253, -2.92667570753038, -5.926907055993158, 3.6270944374182905, -1.4328313637462262, 1.2057714568346913, 1.6020784687512475, 1.8227732054592107, -15.329462103548849, -3.544882152810173, 4.500230201265146, 2.065557296386369], [-0.6411685310821973, 1.350956185838041, -3.0823086255497443, -1.8532162681916158, 8.325680117700694, 8.322078614909012, -6.863902379054884, 4.324392058188636, -0.7966149771092369, -5.354146161632848, 1.7634745675711947, -5.213959135681069, 4.432439654386721, 2.097736257003133, 7.730176842111728, -2.4528465485463182]], "bias": [[5.429309030214957], [8.155049131585232], [0.1923380108862887], [-0.9940261180698504], [2.6376236698718847], [0.5295662006586699], [6.7916609217007275], [1.8195403803447814], [4.791526050766356], [-2.289872865874515], [-14.705444686904979], [-1.4571151522014998], [-2.2272950788643953], [-8.866480697935405], [2.5688804919313744], [-1.7023777321497875], [3.5480717566706503], [1.771230383396111], [13.812704528431366], [4.149257209703004], [9.270659594102925], [6.573582307440283], [-3.3165887633486593], [-4.917469819342204]]}, {"layer": "activation", "activation": "tanh", "activation_prime": "tanh_prime"}, {"layer": "dense", "input_size": 24, "output_size": 4, "weights": [[-3.321200632372108, -3.451167369426429, 3.666959114804067, 10.801083958468226, 3.7161644881124585, -3.0134580384340053, -2.8965921583815457, 5.393729857691778, -4.974006850680535, -3.824174909581948, -3.4163278160391513, 5.573762926807585, -2.5431473461406844, 4.36379531465212, -4.315352513828471, -0.1472591537519512, -3.596252253736636, 10.222486083296758, 1.725806438693433, 2.5305156956760086, -4.649314336612233, -7.574049289226162, -0.3713760168539637, 4.000600332270002], [-2.9706519207252504, -6.80227601891818, 0.002969819966618936, -10.380112316012037, 7.3111320227795185, 0.21450099306139148, 6.388360775462774, 6.9110802312603, 4.939527148650344, 3.3805549548293503, -2.9918835509466817, -2.418508580280098, -8.763546054511707, -1.981965718188872, -1.9035906210544362, 7.754900182694107, -1.2419331500500022, -8.25123444306295, -1.871360410404419, -6.406843989363478, 1.3054591303375573, -4.204297774861648, 3.0566618147209113, 6.214492130786225], [-3.703560891035008, -5.519726489860929, 4.4914087645451035, -11.71072806609338, -6.923851924141281, 3.4314016040675686, -0.4645453792638664, -1.2395431622031166, 1.8462926737316623, 4.561243619058319, 1.4988740156604259, 5.915294043242479, -0.4339314098963134, -3.2311597999495, 2.106163232570699, -1.5066674666723578, -1.9497661495493421, -0.4099094330089509, 3.216733187093369, 4.381489566994586, -1.1792428486934923, 3.1856672946832676, 2.0996212906771747, 2.047277237123599], [0.23132733645628523, -5.263199354171672, 5.486056813277092, -5.897446188433131, 5.271648884607899, 3.2056052212927386, -0.21997873600975315, -3.576455550118677, 0.7552896105628275, -1.4497779277872935, -4.727395334249442, -1.4569469579440582, 1.4420509455230008, 2.055704399642193, 3.1118537048026065, -3.872160422226908, -1.8673106636462418, -1.6863883914084177, 3.9875570624620535, -1.7610334273592751, -0.21621258760289752, 7.019398849149877, -7.692391536051354, 3.8147597555007198]], "bias": [[3.71764539136289], [0.5936338484201356], [0.06016252578346554], [-9.953538893094935]]}, {"layer": "activation", "activation": "sigmoid", "activation_prime": "sigmoid_prime"}]}