{"generation": 429, "fitness": 7.922816251426434e+28, "input_direction_count": 4, "vision_return_type": "boolean", "network": [{"layer": "dense", "input_size": 16, "output_size": 24, "weights": [[-2.0746762648150017, -0.04421837608745727, -3.4189785805472654, 0.030872322471988456, -0.0027256265941830726, 1.5733037616111554, -4.063532624916668, -6.426519134002427, 1.2523732008818553, 8.562652810445314, 7.0980988699214755, -3.8828825614552764, -1.0345795564375317, -4.437333271732582, -2.4528298118129346, 1.329237664787089], [-3.8583221149303712, -2.425843650636458, -1.3439777520230507, 0.6299137603300042, -1.3282374628916214, 1.2260298142590054, -5.8587747237913925, 2.803311320540674, 3.824347833589851, 5.404096756680534, 3.6365057610948957, 0.831751517214803, 8.968343096424672, -1.4939508406180277, 0.5012151593908116, 0.1797258351967505], [1.139489466596202, 0.25649505547743534, 10.928245944578618, -0.37805094391509175, -5.238327133436308, 0.2767174927293075, -0.2996993906748171, -2.52807231417315, -6.701222908933211, 13.112252439194169, -0.2805520510595516, -0.5887207797931444, -3.93687133522889, -3.320650838641979, 1.8028801704328794, -3.109759993187332], [-1.5711779089391569, -1.6653807521357424, -4.220259021917735, 10.6687891465599, 5.939911866063024, -2.9342120928316833, -0.018570152630019265, 6.966586885604258, -1.8967920985999167, -6.23413598218427, -0.13933972700876446, -6.729764253397404, -2.618635881901269, 2.0276733060812386, 1.819546503575281, -3.956755549194751], [-3.27050966893537, -5.826724377959664, -2.539253953495709, -13.211099422610681, -10.027887381769085, -2.528971262650261, 3.216979259211882, -0.09985430129038425, -2.0990845277780616, 4.515248524371923, 0.9529071207924544, -3.2236012669297303, -0.22684732261791107, 2.7119685456233293, -0.6184795228053699, -2.602728804905241], [7.732330278377837, 2.532364464179128, 1.5806335024274212, -2.2677443893557108, -2.3097015132567686, 7.695201000697235, 3.5145760365688288, 5.571139201110693, -1.0476607446983637, -9.37181869962046, 2.554732234975299, 1.1821415088062883, 9.942043665619412, -1.9772257680743202, -0.5277581996645382, -4.967865416663164], [3.016686298745074, -5.600794703481778, -0.5833672173812122, -2.7373974937287433, -0.010481762342905876, -0.44924632446380125, 3.69231480013892, 5.979595000181507, 2.1738896461486457, -7.320355320911187, -1.0959112639192523, -9.730447312669584, -4.8601937914733275, -2.3887879560470724, 0.6451481887770569, -1.4780028912392433], [-10.944927530173452, 6.151932024239391, -1.0704007259547668, 2.4693231798605053, -1.2645910646613487, -2.279306483334653, 6.39515343780875, -5.6274723500764505, -6.5818355322014, -2.954781253663986, -2.32199965762066, -0.7616349376162999, -9.071558877051606, 1.4045581317994627, -8.600330148239571, 4.462601853529523], [0.9292559334038935, 2.1504642754847643, -4.3401179429805445, 8.723936125415964, 0.42130100408128585, 1.2721915948204239, 1.717543100178422, 0.7911875478201866, 6.675359300864176, -10.264965838090989, 0.5803809737429295, -1.14158850090604, 3.9420463344649894, -0.40329055764480526, -8.162535649115764, -1.2853033600577373], [-2.3033457577060616, 3.650996030214003, -1.8245995616802992, -5.620313593783435, 1.838688051597858, -0.5749746678705205, 2.9010659077816037, -2.1117607407265058, -1.118169690890574, 3.7283134912378064, -1.2886943705882765, -2.566636835145466, -6.179071693389814, -6.164491802682273, -1.2609805768648044, -1.4560967121103758], [-4.608390374034669, -6.597556739658684, 0.17156415920656043, 5.9528777401228306, 1.0276818651908743, 1.613790779373047, -0.041530377851730416, 7.034752556295721, 2.8377655279824383, 6.5380775608989845, -9.477230982104683, 4.715988623919733, 2.3001551161211156, -2.2749389833767744, -1.7446308500800258, -4.376101040656326], [0.04661274758735878, -8.248591411058564, 1.793363029325321, 5.20602032885987, 0.8682906698106672, -3.0770310191094516, 4.251340787165065, 8.5248448845724, 1.2734623034218, 0.28785600912743114, 16.825606369027625, -0.47242705583433486, 3.738744853322151, 1.7661897684739873, 10.569854285920563, 1.9057756684375071], [-0.8391558448983101, -0.18204282346118994, 0.5824405172240261, -0.5619484886599349, 7.472953190878063, 1.2341129750071116, -1.5790300979530107, 0.6500395919551305, -1.0567475898007672, 3.667752507735579, 7.40455788019485, 1.6902279341423, -0.8883589520707099, -3.5801145771211424, 7.120407006568171, -2.689840147878877], [2.8366051115863895, 9.010652496035885, -2.688814129259654, -1.709990369646554, 2.1491360590752917, 1.605065626684686, -0.2101630512333748, 1.354702976919008, -3.066329757699088, 0.20626503362349236, 2.691602932362328, 3.3233647169704437, -1.1231759411089115, -0.12268987694678146, -6.655386172501769, -0.6808554164631342], [-0.7667791909222241, 0.9886143154468029, 1.6770945082115079, -0.5664789101076309, -1.2754899243453384, 4.2871236728416715, 2.1063630887543785, -3.6015915759233192, 1.8904446589342747, -6.49325045452518, -2.904425517440256, 4.549329615046204, 7.942759345129536, -8.595476908979391, -2.2820706246958977, 0.2862778383243457], [1.5881563358849817, -0.12259508454473644, 2.0710271204305712, 0.8327598917841064, 0.20706415345524481, 7.224211047175056, -2.155170218845293, -0.7781839484227833, -6.226326070231606, -3.6358396098431562, -2.0373749129447942, -2.70934110217184, -2.2238544208736375, -8.26390128254872, 1.8400403375119223, -4.954075551777437], [-0.6936863701421847, 4.778568719307144, -2.7127464382955617, -0.836764587200242, -4.25518470320114, 0.2607406797053785, 4.2286949081229945, -3.1508082478745867, -6.282787994215792, -2.8466200104928436, 2.3732945452572, 0.07913358950547819, 0.3170426372779862, -3.713909229310943, -2.1140875747659456, 3.7013603524811836], [-7.012630178166067, 0.37512793789327203, 3.681652918915322, -4.351470775093182, -0.3714198992673624, 3.929818229417262, 1.3750186686680028, -2.0280431121761024, -7.26869921924088, -0.276215775153295, 4.134130140840005, -1.5914013071140451, -1.4508850264750255, 4.146551470872556, -3.046974916962954, 0.5832850408837731], [3.1871596612984714, 5.3893341461594, 2.1194244565970544, 0.8456803135310542, 0.22736206853959362, -2.572868140132903, -7.457401288688055, 2.8748488360390754, -0.6339857651112967, 0.8837366971132149, -7.451665305031256, -3.535967732726937, -1.0009278097526735, 7.151449199917506, 0.7438710763705192, -2.390665615846432], [4.5955685003446884, 3.449171065429315, 2.2715711562632057, 1.084393460611361, -2.1662810859513115, -2.4606581442843276, 3.0056814481869516, 0.547093067607728, 4.178512430497639, 0.5784043381255595, -0.8755783703558905, 2.018645632002907, 6.05308998019464, 1.4793171153924056, 9.470490117549925, -1.584948466944696], [7.965391452013047, -3.687039183909915, -0.9483185763826886, -4.803014051256254, 3.0846801947824347, -3.82892811556288, 2.7409088273862197, -6.2701288434256695, 7.303259245972077, -8.565010256747392, 0.27912584694459375, 0.5444532605382382, 0.45496684055845743, -5.051257293380044, 2.033848885480264, -3.3806577282586354], [5.806281549033542, -4.5833787163851305, 0.47458682621640413, 1.6747696050529064, 0.8615320493028519, -12.737523782870376, 7.321065799243832, -10.616595233304395, 6.12686268345805, -0.3141496693762602, -6.9653044144739455, -3.4643587828090547, 7.315737858803325, 2.1304281608244753, 1.7013731631377436, -1.7833755263143163], [-0.4435669016586512, 0.36568107450576925, -2.3994518972730794, 2.445380215122606, 7.820500144656, 2.942340074960704, -0.8884730177865623, 4.033524305195634, 2.6507575243889603, -0.2670375567317933, -2.3889540049780695, -1.6041773661826964, 7.265910955526904, -2.754026491224135, 1.1720309732206926, 0.04213573444488036], [3.8951158164146293, 8.874731926527035, 6.009729911952359, 3.680095201888821, 5.54793366008613, 1.1917447457486974, 2.0019549814864903, -1.9761519127896707, -1.1204756085461296, 4.458311743070628, -0.14072584349867068, -1.4457862346071069, 2.636646351790213, 0.6567836220188088, -4.756438996927173, 3.1806403303223423]], "bias": [[-3.4142429942706354], [-2.024853264380024], [-2.3355291254708685], [1.9867698854134783], [4.543795185999668], [-2.4152250952335392], [3.789026505462697], [-4.037938479395308], [1.352511442434957], [1.638762339747411], [-1.4717475298819926], [1.7166315077669654], [6.084866667687099], [-2.0605301155066815], [-9.456276699653559], [0.7627599786142008], [0.07927166964213375], [1.2959362425322318], [-0.23419465655512967], [-0.9852861512704318], [1.0516227249018901], [-2.478070530022333], [-3.4768742367761885], [-5.7395646734813965]]}, {"layer": "activation", "activation": "tanh", "activation_prime": "tanh_prime"}, {"layer": "dense", "input_size": 24, "output_size": 4, "weights": [[-4.35217316656103, 2.4208741154171083, 6.654620593115023, 2.702986506307879, 0.8077178485426719, 6.651069192762428, 6.059239718006403, -1.4399204957464657, 0.8958251603174918, -6.078047454755037, -2.4726490060496182, 2.871459756298653, -0.7021825007198081, -2.813739567608735, 2.406604957075151, 4.221107172406891, 3.8522034379123027, -11.384387479730469, -3.1808800298284523, 3.7112508861520617, 12.920409496006252, 1.1312633610230183, 6.461047136341593, -0.26990203788033107], [-0.5033734139852213, 2.468504591647291, 1.9370364221931429, 4.744051472994998, 1.9111183060313854, -6.686180533856653, -2.929274926416303, -3.0724105640519213, -1.8119764318105887, -2.583049485561227, -1.8162149254961697, 5.239513094917403, -1.3724228556646527, -5.844680335671733, 0.4455736166898394, 0.6539373453810446, -2.2149511110512248, -6.3625414097801425, 11.60894831980134, -4.3201518947824065, -4.359690388465597, -10.73063746140678, 5.831899787860109, -3.0627038703750236], [1.7063396851299868, 1.838433824826851, 3.881880848455782, -2.875663269262663, 4.596309525595211, -1.3398779899969422, -5.446296764444433, -8.413325023572142, 3.8194724261320823, 3.7146307285213664, 6.637899870516415, 9.506271503525221, -0.9373241969256472, 1.873228136605014, -2.245219369666151, 4.946132877818003, -6.2152595628912515, -4.405674020183588, 0.4275215574289408, -5.010266349291035, -2.3942339041681473, 6.2169355788490455, 3.225713952312947, -0.13341604114071437], [3.893733543996988, -7.479821889973427, 1.8262664551730814, 0.32821386391373264, 1.828772189716268, -2.99463481657373, 3.8955031603113923, 4.987994963038343, -1.0506373270031084, 3.201043056751456, -3.8555774953908846, 0.6581294807183153, -3.3798615066659927, -1.5721704475995524, 7.306605836776781, 0.13783348994347389, 3.36619482925921, -1.7638086903109382, 1.1894091491214207, -1.8918168123266264, -2.5161617118849766, 7.883830127628458, 3.2876609977147515, 3.9810798232995426]], "bias": [[-4.045186168477496], [7.762374057390131], [-3.610904161190743], [10.10249691245165]]}, {"layer": "activation", "activation": "sigmoid", "activation_prime": "sigmoid_prime"}]}