{
  "generation": 0,
  "fitness": 2005.9294299347105,
  "board_size": 10,
  "snake_size": 3,
  "input_direction_count": 4,
  "vision_return_type": "boolean",
  "network": [
    {
      "layer": "dense",
      "input_size": 16,
      "output_size": 24,
      "weights": [
        [
          -0.6826275331920224,
          0.5779362654062645,
          -0.3838919171197832,
          0.888399458362398,
          -0.09274761010746357,
          0.25165329182234997,
          0.47345966077913526,
          -0.5326255301254081,
          -0.6109112280253144,
          -0.8678508034794716,
          0.052927253614868164,
          0.1397346319027155,
          -0.3238285629170383,
          0.2278883088218968,
          -0.1608284608164101,
          0.6331338909931943
        ],
        [
          0.8646116532297434,
          -0.6580268200550639,
          -0.381863488058932,
          0.32945503881150673,
          -0.8220861568147835,
          -0.6396023445474794,
          -0.6902649348731587,
          0.40117544175985786,
          0.7991749715217811,
          -0.8482521543317216,
          -0.5668734707887191,
          -0.30505380872718035,
          0.24742260980739283,
          -0.9775353335128696,
          -0.4525360442271349,
          0.9838068758691352
        ],
        [
          0.29277957591755244,
          -0.813504542563463,
          -0.45716550205433637,
          0.25964785037565075,
          0.5550798058463389,
          0.5313276349392753,
          -0.9734190798216678,
          0.637297398096482,
          -0.8196628149554166,
          0.39157087260925416,
          0.22437688558077862,
          -0.5479251867550925,
          -0.9304900459514809,
          0.8430774685040425,
          -0.6738217701340796,
          0.24109895364893275
        ],
        [
          0.24616272668279393,
          -0.7187056368849065,
          0.6584910357204654,
          -0.44746302328760246,
          -0.7299400415158728,
          -0.3183585535660838,
          -0.4098360044519933,
          0.8347144225237664,
          -0.36449129070942843,
          -0.32564799455110616,
          0.24215676596081281,
          -0.7149370485094284,
          0.27121101431526684,
          0.5651731073731197,
          0.6829289105301841,
          0.6913220836558038
        ],
        [
          0.18972957163641402,
          -0.6985429258872884,
          -0.0023469114853174045,
          -0.08128479762859397,
          0.028653117204679557,
          0.35481889146553036,
          0.7109176016691694,
          0.4316784368890345,
          0.42691890845182545,
          0.4308008697073413,
          0.5150822427956177,
          -0.841649950578448,
          0.12512600855445388,
          0.42876346339640636,
          -0.7865347064619554,
          -0.61581343028201
        ],
        [
          -0.3812835304858435,
          -0.7580027366111484,
          0.09788349617495284,
          -0.3310364935780994,
          0.7724893556450074,
          0.818984902378699,
          -0.5197355086344364,
          0.022555605797876188,
          -0.17333890540364094,
          -0.6912522974083368,
          0.2740502731056136,
          0.1491805258130916,
          -0.008684428768910735,
          -0.7681484422240585,
          0.3275253469914603,
          -0.14310638015121935
        ],
        [
          0.5651970587913562,
          0.30150869478949893,
          0.025462761952130375,
          0.34016750012798025,
          -0.5377337965259752,
          -0.7022622595618455,
          0.19885826317257527,
          0.15073394218901726,
          -0.9675496902901861,
          0.08547697725954251,
          0.7575544568511898,
          -0.502824006469544,
          0.010826254085817721,
          0.5214139711658548,
          0.6501925548130336,
          0.5244867329099858
        ],
        [
          -0.7905488860429575,
          -0.15060927236311894,
          0.5972316533161977,
          0.42363418890496707,
          0.5547808128411058,
          -0.627601668938349,
          -0.08916898444677113,
          0.9789082536156568,
          -0.46104168804160506,
          -0.9290643379591292,
          -0.9213326555737966,
          -0.7386215554697926,
          0.2966808101294798,
          0.0521984797541033,
          0.3218262002908565,
          -0.11944811388245435
        ],
        [
          0.12325860643417097,
          -0.534642239833387,
          -0.29753457008331696,
          -0.043338938943738414,
          -0.23507854157360852,
          0.7678227989706239,
          -0.743789985091373,
          0.6856798707835345,
          -0.7042044644462497,
          -0.8536860445106222,
          0.14219605624742804,
          -0.35879022592406073,
          -0.565094882261231,
          -0.1827587941349833,
          0.10490284453577448,
          -0.2973011743488996
        ],
        [
          0.20101110558645208,
          0.08465057135200005,
          0.9635333072407057,
          -0.12754188457737792,
          0.0734507699817355,
          0.6786132641328853,
          0.4730078450977784,
          0.6276782172147695,
          -0.21312930971048782,
          -0.23089129939708752,
          0.41357607327518897,
          0.7599484604660118,
          0.8447379448225192,
          -0.005953032339694131,
          0.40299270541285037,
          -0.5645279760930957
        ],
        [
          -0.5346691595276962,
          -0.9343108328771248,
          0.614807212226314,
          0.5860870575027115,
          -0.14490346369765095,
          0.10582688400483753,
          0.0076570422247936865,
          0.46574951211746973,
          0.610207256691482,
          -0.5979769101125714,
          0.8744378609103913,
          0.02804959284130426,
          -0.0483608482782536,
          0.870770714696371,
          0.3202924207873805,
          0.10618878502672757
        ],
        [
          -0.9704358758120082,
          0.23429544127879032,
          -0.11230509961850266,
          -0.19754892518345324,
          -0.7672836631620605,
          -0.7917318784718548,
          -0.37352155784432717,
          0.778148663311174,
          -0.20169950183772656,
          -0.5904740006758642,
          0.49985512969405543,
          -0.41624670252769835,
          -0.3843033658913553,
          -0.8240319903383404,
          0.30861947548693647,
          -0.7807590340000714
        ],
        [
          -0.8530035780482275,
          0.5471929172325563,
          0.3288152885136679,
          0.5016158652807488,
          -0.30285270109409423,
          0.8945618594832072,
          -0.04648526808465725,
          0.16650665608500015,
          0.3202175818040156,
          0.18607196825963124,
          0.8084531941839048,
          -0.6299778094344657,
          -0.7005518493278791,
          -0.03580311572414829,
          0.09411586027387453,
          0.8933527150545568
        ],
        [
          -0.4788452921783788,
          -0.4418739227131929,
          -0.47400520370988874,
          -0.5354032401984667,
          0.959302560344965,
          0.5514386850741755,
          -0.7129682260832484,
          -0.2695227731850163,
          -0.04171930622768749,
          0.5622915932241399,
          -0.1434081770748301,
          -0.052049389545054225,
          0.9484948182846222,
          0.13331002002036763,
          -0.5522983234726875,
          -0.2497593278320298
        ],
        [
          0.9191687568996059,
          -0.053513203534977016,
          0.11907122800617143,
          0.7637322822414649,
          0.3082396237827676,
          -0.7952078105740259,
          -0.6363639403388035,
          -0.6369683438794744,
          -0.47605464918953744,
          -0.1312695001291848,
          0.593075002428942,
          -0.9385390733616596,
          0.6014769481196995,
          -0.8593973622079891,
          0.7051645876652353,
          0.30604623087839955
        ],
        [
          0.352042928894823,
          0.43556323032129196,
          0.4746222386764638,
          0.4840643144716392,
          -0.6270328786581689,
          0.5996005886904501,
          -0.5390325184733595,
          0.5201016316139384,
          -0.48142648547212774,
          -0.8314837324601854,
          0.5112803265063992,
          0.08575946506890486,
          -0.20115261782044325,
          -0.3953260699407204,
          -0.6539618649252148,
          0.05230906269842217
        ],
        [
          -0.5625055086157937,
          0.09417664310659624,
          -0.9113352650298894,
          0.25472934713890627,
          0.32295670109260133,
          -0.36315860652214305,
          0.17767097703654255,
          -0.3112216171486679,
          0.8112247402036614,
          -0.9366143227523707,
          -0.06518281769271272,
          0.1609318491989291,
          0.3267135691920535,
          -0.7565076341042816,
          -0.8590632611333555,
          -0.8624873955877941
        ],
        [
          0.7964079380629205,
          0.34622494949946936,
          0.21309905592635348,
          0.548985187353886,
          -0.657161335280283,
          0.13848372768040385,
          -0.6986606440218979,
          0.03444634629283905,
          -0.16668375623183795,
          0.9251624664699456,
          -0.3977898988342854,
          0.3585805782207643,
          0.7179678646866112,
          -0.4760996187283357,
          0.47878750205064313,
          -0.4833253887214224
        ],
        [
          -0.6045485985678727,
          0.3493187476870492,
          0.8074779554878684,
          -0.33107933303461,
          0.001578534056208225,
          0.3670203280481057,
          0.19400414652816922,
          -0.7705495504889939,
          0.7738188032796445,
          0.9137149937301257,
          0.3418317914910418,
          -0.4157681982443464,
          0.5350703457899963,
          0.6575612877153705,
          -0.381917075985444,
          -0.48845801448745374
        ],
        [
          -0.5031000350095427,
          -0.42436392352779095,
          0.9927546927449244,
          -0.5318885981063741,
          -0.7195945898905232,
          0.890084597965707,
          0.43969722706757075,
          0.5620428952626544,
          0.8319453212848098,
          0.6513716500504341,
          0.2072217731762085,
          0.07227158185303284,
          0.9381714335549909,
          0.33948434639400427,
          0.6079269932115752,
          -0.8993718423690507
        ],
        [
          -0.1162782981700421,
          0.6667691762890813,
          -0.5355322685849169,
          0.9865357218550934,
          0.011826090303272307,
          -0.7615604179321045,
          0.16759575659672565,
          -0.6071641305939404,
          -0.9312518752936785,
          0.2892344888933225,
          -0.23024031635041164,
          -0.3106209329551115,
          0.8841843112454877,
          0.4459591964018019,
          0.22858716492642084,
          -0.7293612840767589
        ],
        [
          -0.5811765177168982,
          -0.6867598611434809,
          -0.018777065174434115,
          -0.8935454472970417,
          0.07723886948125536,
          -0.5866801931564016,
          -0.46011053845957406,
          -0.05569164071663457,
          -0.20492024906440087,
          -0.11162514023377179,
          0.30103355190443737,
          -0.07537104324591803,
          -0.7507006759306936,
          0.201055062577008,
          0.8212296463621134,
          -0.11046231927921535
        ],
        [
          -0.07536399643390279,
          0.717387663325946,
          -0.9711754361487095,
          -0.5563811007648263,
          0.39169529977226425,
          0.47571156548543536,
          -0.2967266095594847,
          0.6173817443390657,
          0.6015273248550068,
          0.2434894715902165,
          -0.6835325028331074,
          -0.6287931473708932,
          -0.8185637867698972,
          0.6768070206250592,
          -0.402993968670458,
          0.061617253519361315
        ],
        [
          -0.6123250564083063,
          -0.5564100300059132,
          -0.7626512511916452,
          0.5569195915168474,
          -0.8218478251431811,
          0.9071171651273693,
          0.5135258334687134,
          0.7856472859461643,
          -0.7204501394960767,
          0.21885085795742532,
          -0.149295116994409,
          -0.21506448880181894,
          0.3414175072761352,
          -0.8024987613980976,
          0.35530123929455093,
          -0.8362778209445134
        ]
      ],
      "bias": [
        [
          -0.142017950501236
        ],
        [
          -0.93771299755649
        ],
        [
          0.9626974346215014
        ],
        [
          0.20598650287336695
        ],
        [
          0.9709914425769959
        ],
        [
          -0.1287376831065561
        ],
        [
          -0.32415284351292506
        ],
        [
          0.6393679301326138
        ],
        [
          -0.4812457453187524
        ],
        [
          -0.06500515838179477
        ],
        [
          -0.2995326535946079
        ],
        [
          0.6178396026177091
        ],
        [
          -0.548346478983452
        ],
        [
          0.9403763524302555
        ],
        [
          0.009013760271584292
        ],
        [
          0.8019486600681673
        ],
        [
          0.488380893847131
        ],
        [
          -0.4072785082145891
        ],
        [
          -0.620400581335496
        ],
        [
          0.7743695650503677
        ],
        [
          -0.17016315668692994
        ],
        [
          -0.9223427120221486
        ],
        [
          0.6207972070818486
        ],
        [
          0.5968101037039975
        ]
      ]
    },
    {
      "layer": "activation",
      "activation": "tanh",
      "activation_prime": "tanh"
    },
    {
      "layer": "dense",
      "input_size": 24,
      "output_size": 4,
      "weights": [
        [
          0.2712164612071162,
          0.5940663542036995,
          -0.4572459938450424,
          -0.2757822449362477,
          0.9761960222922437,
          -0.17200903326241423,
          0.09859816082549577,
          0.29375861410507276,
          0.9532454009137341,
          -0.36117599925775146,
          0.9630135617757478,
          0.20901064004431213,
          0.7849821798296066,
          0.7658494177572721,
          0.2924013111127781,
          -0.31659629128466027,
          0.3466342200923125,
          -0.19798882233690196,
          -0.5216627435490433,
          -0.15483900642104942,
          0.46587008019386866,
          0.9932052852140003,
          0.38825341669611046,
          0.6141658260224512
        ],
        [
          0.38342524252337706,
          -0.5745652543447246,
          -0.13399173110985418,
          0.2523601473155217,
          0.7229122266027199,
          0.20745702195944915,
          -0.44360251596544975,
          -0.7920398126969415,
          -0.476006356743363,
          0.3099538502257828,
          -0.9555358648757695,
          -0.7464338704879041,
          0.6840993006741705,
          -0.44182068454183465,
          -0.516593182989669,
          0.6761258185971903,
          -0.5655195949169973,
          -0.5080379267161885,
          -0.40903758947925484,
          0.5375039378121338,
          -0.5023011205371442,
          -0.6531428655746372,
          -0.38836382523240576,
          -0.2800515939459223
        ],
        [
          -0.41769527033080833,
          0.15379182990453266,
          -0.3533579197399339,
          -0.5645566012400753,
          0.11318386295420568,
          0.37599695499257035,
          -0.7220697726240672,
          -0.7293771063764345,
          0.5819580875709189,
          0.1748801076675468,
          0.5467213901554484,
          0.6406608095116213,
          0.37690143022620104,
          0.7339885297933604,
          -0.9277316383246563,
          0.20034774762799068,
          0.2604171716598429,
          -0.11695794381770686,
          -0.07052443347540405,
          0.27534736731919285,
          -0.6795368981402425,
          0.4273835855877661,
          -0.8162984785927605,
          -0.6734870249452456
        ],
        [
          -0.7345778949842383,
          0.21591051050409815,
          0.5918767897754993,
          -0.6558044465267374,
          0.33460427876611454,
          -0.15416725336046366,
          0.6520009758025394,
          -0.6205001269295447,
          -0.4442454078780682,
          -0.029685975688743316,
          0.35499714133838656,
          0.09606252746000954,
          0.8972449644938469,
          0.47036634919359566,
          0.6509678382509831,
          0.42983089572948074,
          0.31190573138912203,
          -0.2669537714538157,
          -0.07937076838410961,
          -0.771793506645954,
          -0.8034474137088436,
          -0.9293722891657097,
          -0.3917196678881212,
          -0.07257149882771974
        ]
      ],
      "bias": [
        [
          -0.7174323842283534
        ],
        [
          -0.691129105353419
        ],
        [
          0.8071865759660535
        ],
        [
          -0.11067562678761655
        ]
      ]
    },
    {
      "layer": "activation",
      "activation": "sigmoid",
      "activation_prime": "sigmoid"
    }
  ]
}