{"generation": 0, "fitness": 2006.4420745924067, "board_size": 10, "snake_size": 3, "input_direction_count": 4, "vision_return_type": "boolean", "network": [{"layer": "dense", "input_size": 16, "output_size": 24, "weights": [[-0.6332565798102319, 0.34000559067898917, 0.9211149406406305, 0.966933631186893, -0.9210740044936903, 0.44337730283449095, -0.013552290847908433, 0.4370265081267204, -0.3482399661852049, -0.3754521538335267, 0.9506596204785149, 0.6629129724159297, -0.27035937739185956, -0.6258785113713254, 0.9872692516343451, 0.5590901828930808], [0.7525811778076299, -0.2615280653129648, 0.9632349994324556, 0.4425125704572084, 0.21362215730403045, 0.6001960164040854, 0.7073260989433365, -0.24888758118264454, 0.9614554708365262, -0.11519974722630288, -0.5791040541286032, -0.9234828653737117, 0.4722885432037298, 0.9884041001399235, -0.10147663623738445, -0.9990457047578944], [0.2124138672186846, 0.8892387876728858, 0.593283716991442, -0.17259967135452192, 0.21247267560481609, -0.7668217837836682, 0.5894631761148914, 0.9973988533203657, -0.19833174030954903, -0.9401641185068026, 0.43355575431001414, -0.5372144465223425, 0.8298886224333597, 0.1805264010289369, -0.08664693435601478, -0.4975361227439863], [-0.7926877946832789, 0.7709209602733798, 0.5314689832963535, 0.4884768956527079, 0.48350452330758964, -0.46550742224920705, 0.6427511870884968, -0.9384779459163177, -0.17838871555737001, 0.7469975118353958, 0.6768873804356714, -0.3591632991498366, -0.9378669383791305, -0.9616162552217526, 0.4629763806124645, -0.32618340792468303], [0.08267636749907381, 0.6691729959573256, -0.7017786066769982, 0.31323046826739853, 0.6597972781833574, -0.06294067237535028, 0.719110925614943, -0.6281449696847721, 0.12606722540394721, -0.7582788179220015, -0.24990424910857967, -0.6640270632912049, 0.15365449909123652, 0.1592718290334949, 0.38285282975479684, 0.6745192249476013], [0.4916429744161115, -0.560120677339484, -0.9686014974171397, 0.23573185024283938, -0.6631403867723495, -0.3494284797984417, 0.819015660681504, -0.7694494006165171, 0.744474458638831, 0.8868664106604387, 0.9392277311202237, -0.9682748916196566, -0.8391016973259409, -0.7231704105840384, -0.9664270886366222, 0.39157477553550435], [0.8185038114303993, 0.8146198770034967, 0.6791503701258139, -0.7312936730207966, -0.915036397952268, 0.5971089454966934, 0.6672935023726383, 0.15737093478307806, -0.3681504704828942, 0.5002347177998929, 0.7508638438148862, 0.26385701419860674, -0.3247909063330021, -0.8046193280267753, -0.674514434939997, -0.1380105270443026], [0.9127625283303342, -0.40910600590899837, 0.2208311872891502, 0.013743994265012383, -0.7117182632722094, -0.49785237736894805, 0.029189797016535124, -0.14632507410730344, -0.05295473253374916, -0.8537814456986346, 0.21579881125229905, 0.6315089382671535, 0.07774653750825067, -0.4176503251403896, -0.01719013931214919, 0.30200241677477657], [-0.7811934886075567, -0.8123705127012477, -0.5947212790883889, -0.727408037419806, 0.985761298309136, 0.26211795207983024, -0.9318592998935344, 0.06292340237419403, 0.6849144933980753, -0.3989046236213958, 0.24889541015343997, -0.7017833972929828, 0.09063915987647331, -0.17919870661786885, 0.1873914154380807, 0.22643799990823488], [-0.7739811120134201, -0.020667810145937437, 0.7674782566751435, -0.4029828037431762, -0.6733789663810856, -0.7014550637547685, 0.2277649759401339, 0.47078429366983987, 0.7256045489320535, -0.09269509230453066, 0.6319589502866261, 0.7973742481418504, 0.437247094302478, -0.13704555788807316, -0.9788139180972242, 0.9876350289887614], [0.2479395625290115, 0.13100926807659197, -0.5866562330438887, -0.6869455538095703, 0.7594162628935872, 0.2143824284127951, -0.9000777661480657, 0.9540452316325985, -0.723125785323665, -0.7459952216964569, 0.07016910986973723, -0.754045046724243, 0.2802878750439146, 0.9923799821109043, 0.4334029276765836, -0.8236773926290835], [-0.35758230907153044, 0.6449888162742323, 0.147546181826665, 0.7534142533532688, 0.6277922678274768, -0.9987556020192303, 0.3451055976932704, -0.36988579432961055, 0.11934848578107471, -0.29265588699044187, -0.3470271136648979, 0.04683689326489948, 0.9564067710031905, 0.2989874858981547, 0.9502983462982963, 0.6324135347264368], [-0.5945540773716278, -0.2858216522256216, 0.8974451432708013, 0.18797342168015096, 0.7328073234207477, 0.9779335687715525, -0.040398217809211934, 0.04203603354377394, -0.4599527032401609, -0.9843711192351725, 0.03547351918597297, 0.6376260051353708, -0.5492331074603607, 0.7860478896348462, -0.5459694446197461, 0.8602307066747299], [0.6441032886602283, 0.577580271687145, -0.5625440158043977, 0.1844538110369418, -0.6516284551796983, 0.9697308466326509, 0.9344667115650633, 0.3899138126466244, -0.3271607394311431, 0.834978371149889, 0.16556565992221328, 0.9998393047223242, -0.124917133515275, -0.07518464608052455, 0.9203191210215065, -0.27046655427935073], [0.7394567495705455, -0.08731724252467288, 0.04671576906597741, 0.7426046441340481, -0.37727002976894797, 0.39282218603357566, 0.4386714541339236, 0.7248395743498541, -0.5276509573588486, 0.5473738759095446, -0.7209651706475415, 0.5780816196473668, -0.23563317948463536, -0.12927839626463955, 0.5621614676715807, -0.9541110321955126], [-0.13882287735153032, 0.7742093132909016, -0.6148437512722345, -0.8613965246059982, -0.13914332087837278, 0.42226163231520775, -0.15976421388694484, -0.5707889125159009, -0.4791329978950949, 0.9780602289420768, 0.9393798096740333, 0.4036046014209902, -0.18225689776960863, -0.962425528118569, -0.9328615460766789, 0.27074311954185837], [0.7340060354480937, -0.6234926246931534, -0.65238287486163, -0.12518264560972847, 0.9001646848384119, -0.9342569633629749, 0.8368859698767104, 0.05190390297011427, 0.3873465503390974, 0.7646803984558441, 0.9652033398072533, 0.1250950143840306, 0.9917135021118118, -0.9305220927038436, -0.0997811112060436, 0.4114549556761764], [0.45759745246534456, 0.08975187893437298, 0.6842748283821811, 0.9162091138130619, 0.2011510452110994, -0.43865311164597465, 0.5285831029938717, -0.11577428525869227, -0.5690211972431436, -0.8182409783510902, 0.4135593127962365, -0.04687288604361162, -0.18023084547843404, -0.8573186417871475, 0.20965082015780223, 0.8876486137792758], [0.6852066558314298, -0.9393155876986716, 0.3897979604865207, -0.46553150337176463, -0.7628319847396583, 0.6983394518409898, -0.1475666990711999, -0.23735817355726785, -0.9229474963542015, -0.3476179999474214, 0.4103502429797734, -0.42392766786551217, 0.6747524628387358, -0.6459465615695523, 0.32991970598945786, 0.8298573587920446], [-0.8376485211113769, -0.38032321959534743, 0.703947466922263, -0.12527795178836798, -0.9256186897757059, -0.8073778262272164, 0.4031248878129916, -0.16157539244522212, -0.9203573258303692, -0.7957897493296295, 0.5504213346458982, 0.5997793641706599, 0.587112309649511, -0.2804845288279274, -0.7652034386409281, -0.8036095112194401], [-0.023161380986561397, -0.12252517060066381, 0.20750077320622573, -0.5233899270997715, -0.16105853075647247, -0.4266289918012449, 0.942554197367254, -0.18530526246082224, 0.5556085470012251, 0.867574723434217, 0.23372711833433124, 0.09939030314138941, 0.5881973795228004, -0.5346931799652073, -0.12381602188906737, -0.8554475925848697], [-0.34898639458582337, 0.3003231736748764, 0.8958628734079424, 0.3014609228830756, 0.3899370511709992, -0.19427870675397685, 0.4822172633182389, 0.745430738907437, 0.722754512311816, 0.24604773181898443, -0.7068201435197121, -0.9213479597883136, -0.6107603683187217, 0.3222604735248251, -0.039253608125835227, 0.6540275759871235], [-0.5689340314784095, 0.11297782607123064, 0.31512837053153775, -0.6043393726832105, 0.2938437251485646, 0.709136319612385, -0.3946971462762354, 0.852955521670012, 0.8242488179267176, 0.5443437376141134, 0.26648166579293164, 0.11114625575466563, -0.04749017419843504, -0.7782902419481277, -0.6020547147847226, 0.6543577675790053], [-0.3332096235997726, 0.11976385682402757, -0.564318892729625, 0.5449790530531806, -0.7936479381531993, 0.9539370783948962, 0.5229680798317073, -0.5820007779061287, 0.7670809751308598, 0.8752850457621886, -0.2552685612175418, -0.4300250480834116, 0.8144198122253694, -0.38428010643711374, 0.551714684722934, -0.6483277267455418]], "bias": [[0.7270867240071626], [-0.7582393792248461], [0.44490158709754013], [0.16180831962642328], [0.2956611981647923], [0.9477596231131857], [-0.3256464025074328], [-0.1004639935635836], [-0.018990553729104187], [0.20099901688313748], [0.6084229277137967], [0.5880916441292814], [-0.14950151492992347], [-0.8571880222785946], [0.27663443885477323], [-0.44540569195142043], [0.9150201274940368], [0.9591551674698617], [0.2169407710702096], [-0.7688251151495367], [0.8058841795484137], [0.2651575291592292], [0.06672611387352156], [-0.4425718712648985]]}, {"layer": "activation", "activation": "tanh", "activation_prime": "tanh_prime"}, {"layer": "dense", "input_size": 24, "output_size": 4, "weights": [[0.2010415313867815, -0.37580058097947666, 0.2544253526404825, 0.4595230148553502, -0.9775083283621184, 0.3759019923565339, 0.759604865450265, -0.8209048591370247, 0.21500025191857608, -0.11181632345980996, -0.28851286956632927, 0.6424642459321159, -0.9754004348940952, -0.5365636826003177, 0.5411807671153246, -0.8839606002074982, -0.9807873437859429, -0.6166643686144584, 0.7212810966413403, 0.7442541761151118, -0.826357284946921, 0.2750176114330005, 0.6508628788954212, 0.10481011179738853], [0.5107656930989015, 0.8965875056906283, 0.7426446309549497, 0.41436487340842354, -0.6609763570959257, 0.3926347797552192, 0.7206573838564283, -0.33063602048622776, -0.2854681660330882, -0.3840306946162375, 0.7002170117685254, -0.7096970507672582, 0.9935341039236725, -0.9033825908668889, 0.7074058522276385, -0.6987310217517195, 0.3178525619010084, -0.738675429216268, 0.8766910379137247, 0.4514364688084975, -0.8770898889161942, -0.80159879307358, -0.44187012645083446, -0.649190913193129], [-0.4548874750855738, -0.45401278924752053, -0.5747936804522942, -0.7269551287079024, -0.6073445911892208, 0.019552377697408918, 0.02620462850949279, 0.222187160451204, -0.5551467586737207, 0.37100726355185043, -0.5943561060623248, -0.978445594334207, -0.9226207382534688, -0.7896316192725479, -0.2376435729892188, 0.6408415188140146, 0.5586617298826395, -0.4032354061315726, 0.5433643604731777, -0.3177405074451978, -0.6244402137512424, 0.4213201378621936, 0.046212283914942365, -0.40218556268910444], [-0.9062151783060912, -0.8428626174721652, -0.8172369822757659, 0.5419057362790165, 0.8176069773674923, 0.5999271909705055, 0.336287745670129, 0.8249277478726362, 0.07210294429442943, -0.6442218734865781, 0.35827337411374605, 0.2380306061196531, -0.0221571514725174, -0.9844898206869972, -0.35523471626250447, -0.4466911111230709, -0.4713285758360919, -0.9623114412158407, 0.7111479929237994, 0.4701300653752749, 0.620648991741116, -0.40862410222750634, 0.9108767067131778, -0.6346266703601595]], "bias": [[0.16773558583530224], [0.4113276435651536], [-0.4154864392708013], [-0.8695411691324642]]}, {"layer": "activation", "activation": "sigmoid", "activation_prime": "sigmoid_prime"}]}