{"generation": 321, "fitness": 7.922816251426434e+28, "board_size": 10, "snake_size": 3, "input_direction_count": 4, "vision_return_type": "boolean", "network": [{"layer": "dense", "input_size": 16, "output_size": 24, "weights": [[-3.3702935603565978, -4.877376165116034, 2.472663374770483, 0.22560832028694944, 0.11827773137089614, 8.13398683721451, 0.633513190827741, -6.156460690219675, -3.722729946865788, 3.039139825406746, 3.825078443171149, -1.7435668238560351, 0.16524927537093875, 6.248692759260828, 0.464175586244716, -2.0498239065338253], [3.0671296552019944, 0.5228315656693925, -0.18095819676261993, 3.1910948333629285, 1.2684893934791697, 0.595984221666379, -2.0331341648132284, -4.39226804251879, -2.2573072006469945, 1.285600007558096, 2.5320470741831316, 0.0720194308718104, -2.3214332677878744, 4.382324399127511, 1.9755707385016679, 2.4911884519916625], [2.094799147541157, -6.159787498065411, 1.0453373589200938, -1.9586724581959887, 2.3626918457936936, 4.384715433033166, 1.5084877778340564, -8.911925277452422, -0.631703553942643, -2.673570099402429, 1.4283048536747533, 0.47847970141252705, -2.759546821714421, -0.4189061634794803, 1.9707252499210999, 6.308375177615345], [-6.385015583656989, -1.0437548813254376, 0.45768489208047547, 3.5067484581039143, -3.3605743777619317, 2.0409861109512426, -2.1648447884040256, 0.7245711355740188, 1.1974030589756983, -1.160142160955375, 0.3261417127828692, 0.3140165736947965, -0.6778295714017454, 3.5042736465436457, -4.669951064313503, -3.8300029197086722], [3.183896105742981, 8.759038769972394, -0.7762298698886329, 5.948020972624418, 2.810386550929218, 3.94805396508767, 7.3159160462976525, -4.414843807748415, 1.3312100905215956, -4.552587600927919, -1.1666715372529033, 2.322014021779144, 1.4018482066382256, 0.03730709669528248, -3.554609931073514, -3.1259174075924028], [-8.814136234835768, 0.8895387552298952, 0.09685186653156597, -1.312977364890143, -5.642729345154332, 2.4105729139311545, -0.4629622239023411, -0.7089192486749868, 1.8326321733345574, 2.4463158213549527, -0.07685980044955754, -1.132329725524555, 2.9229531968539053, -3.987210574966288, 9.204294575236778, -2.088054423029774], [2.9630150209615524, 0.22312633969459536, -3.109895136844539, 3.336604444955234, -5.83828830654987, -2.992083533529884, -6.503991196347311, 1.3194642002283483, 1.2671695884954146, 0.31307994744989154, 2.1615569460053043, 1.368852781769649, -0.5386714547416906, 1.3650204495950955, -1.7014148021755013, -0.19053970365505613], [-1.2220396200977024, -4.041657131015048, 2.6863124122683444, 1.5949232009385255, 4.415062982238153, -0.26757312002574607, 3.459369743815393, -0.7155808510064243, 5.0313605288630665, 2.7567973000742416, -4.944254348049399, 0.24260455740286452, -0.29747998577724677, -8.392698583370658, -5.157543694509874, -1.5444439324045667], [-0.17396494919389482, -3.73983109597206, -4.787644918485945, -7.7990042557287795, 7.709464178637498, 7.2355108546761, -3.3981385489108864, -0.946020028375711, -3.1060421614519607, 3.2727415618021594, -2.178277354472984, 0.14195959052406948, 0.28069125900377656, 12.41604970864235, -6.1995161224078235, -5.641887087457395], [3.2319677378123695, -4.983748985082701, 3.2790678910378492, 0.5630726015136562, 1.6204472063006035, -4.0058329860303665, 2.9511174452711257, -2.4605533961643387, 0.4772889939595221, -1.4983805200023643, 1.3779216580664377, 3.416569301324217, -5.131391006657965, -1.6105449805551146, -3.6302609475218537, -0.23707049094495325], [3.6484828420670836, -1.5100349593877591, -1.9573509048507556, -5.688789239117222, 2.451040586089966, 1.2784389238299736, -0.5313515626524075, 0.23228877376419238, 1.5376760702460457, 0.8485114598385474, -4.030004371815093, -0.5317723112019226, -10.127927407238195, -0.4632762940547266, 5.3679246661366395, 4.325043919858792], [-1.8980807644083493, 1.7289984826518163, -5.920572784332867, 0.9544410411175683, 5.602037519359044, -0.4285083472007287, 0.3380569516519777, 0.531510710280181, 2.078116569519725, -0.2224030781438343, -0.5281711563168277, 3.712204563007439, -1.7858714253370143, -0.8341488948409904, 5.37109694860148, 3.0697299627468047], [-5.1088371818216824, 4.697406946023905, -2.2131354174903644, 2.610595897268854, 4.809148189197989, -3.6127696459115906, -1.4315037695926032, 7.100731561241145, 1.7870586413399256, -4.504099899300767, 4.6791246223612974, -3.564634400881929, -2.4520524481490926, -3.0087817476560046, 1.9249338093882427, -1.5671639211484132], [-4.796460977935092, -1.8636731463393699, 1.7700842226661992, -1.8523992712588995, 0.9560693504836202, -0.5664200650680852, 4.795215847474544, -1.4280132390004645, -0.1954028055813053, 5.706699724228351, -1.537458983324436, -0.08272574124840343, 4.147977624689853, -0.9702480917003244, -5.1432575424034725, -2.851527840391506], [8.713483085055849, -4.231106800066178, -2.423241635537957, -8.352215785958302, 6.567831309843529, 0.3279062839146157, -5.803421439249083, 0.9493155331486992, 0.6796184734551879, -0.8727559028405409, 8.898774793612228, -7.169344939263976, -4.691693047885443, 1.9086789270387436, -1.5028043245684348, -0.7069550681453637], [0.24762796583253538, -0.0879426922398241, -4.444267784752028, 11.017987319638248, -2.939119843171933, -0.5047520562567984, -3.5677120806768734, 3.509944422652647, -4.215066156878253, 0.5950244118577357, -6.507715824714693, -0.13069382594402817, -2.2251232593797687, 6.0646932505813735, 4.05921411404073, -6.299324590076455], [-0.8114930892686327, -5.703784904596047, -1.0037303990797277, -1.121263130549199, -4.030601333369035, 2.5256588796756296, 0.8090851787025802, 0.8453425533865454, -2.054319417712085, 0.44916277427735984, -0.23165244337011248, 5.551072343321064, 4.8108295936415315, 3.640896401614765, -2.138392024603351, 2.1632335397553772], [3.374699067422202, 3.7841177088086217, -3.9078756215571655, -1.8785250463122056, 1.7735430272956114, 2.360605163345865, -1.8623951008933477, -5.208382108204291, 6.3975860263139595, 0.3000702821085497, -0.8475942868103178, 1.8769370044154596, 1.429008484613865, -10.067450161514975, 3.3936273131955783, 1.1677684435596838], [-4.070807236268321, 2.822413750792057, -4.473478144905409, 1.0936797557381621, -3.625436700821163, 2.2920182390627177, -0.5923997904838298, -3.6307591527190795, -0.5418249201570512, 3.990685270252558, 2.2232142397116386, 3.5858649180649587, 0.26431448812725167, -6.8884257991223174, -1.943222450444123, -4.401309125853128], [1.8970132281709458, 0.43321127818575067, 15.439292628411653, 7.144668161522383, 5.738567794743154, -4.813301053614494, -4.554749671907572, -6.612465084087027, -3.1257120341696996, 0.46622923157695806, 5.9199736476302505, 2.2542276018327643, -3.2489384656833695, 2.4964473885220606, 3.371468856817527, -2.1224580485907354], [2.426151623114102, -1.3805266815658699, 2.545973345253432, -6.232457618987614, -3.0498867166490458, 0.6423390208587453, 0.3759004971121576, -1.3290052010671456, 5.098628499101389, -1.368752558714846, -2.332914161079961, 0.36011861904234577, 2.014247902621677, -4.878285357772605, -2.542090907469704, -2.9538712637817683], [-4.781739044136017, -4.976221634872076, 0.9666824543976347, -9.650838397818998, 4.438115816691243, 1.502379759216305, 1.1526189733264267, 6.376441052023286, -0.5021008091152981, -0.7821369363853599, -5.0776598251532, -0.5103969656392873, 12.60655197629658, 2.7402183128307223, 4.354564153215417, 2.196518401090486], [9.470201019847282, -2.433669383215064, -5.9938187453857195, -1.4878008635392685, -0.25681907651257685, -4.056188407388145, 3.398836471804908, 9.205877593543207, 2.750835869465384, -0.3558966984482842, -5.672070336184886, 2.4793059547800818, -1.767101994829655, -4.9303827330957315, -3.3638467285946545, -3.01050207596251], [-4.677865779929435, -1.8086080087784115, -4.370846564943424, 5.665585521789551, 1.0879319502406348, 1.9961368111748736, -1.945278554703254, 0.9243094700048587, 3.915073231556517, 0.8411037742040964, 4.7517505673425, -3.35397744789853, 1.6806834946247844, 5.596884994826306, -0.9151797807438287, 0.2425097437366186]], "bias": [[-0.29796402715939974], [4.992529909911587], [-6.201173632723215], [3.507466408626009], [-1.8440379426816373], [0.001982998143400097], [-4.793738150645076], [-1.148908899009077], [-0.4556585956911967], [1.7515520087448093], [1.6906950488848127], [-2.0470435362490496], [-0.7454803074977436], [-0.6269195630108421], [8.470973562348378], [-4.714634316341218], [-2.951377265704636], [-3.278665773608556], [0.20896240370658936], [2.9888274480938275], [3.534816560635753], [6.751859385023981], [-2.5865940224272497], [-7.023666721216723]]}, {"layer": "activation", "activation": "tanh", "activation_prime": "tanh_prime"}, {"layer": "dense", "input_size": 24, "output_size": 4, "weights": [[-6.616144526476129, 0.552570067330953, -0.11155101809371681, 5.427364767724509, -0.20010126152478713, 7.267574758725179, 1.9041331900506924, -0.39081320969222766, -6.61104875214322, -5.01145339057952, 2.184675341720018, 0.9535050283183408, -7.166147765256126, 7.093801996651375, -4.809493836689569, 2.356218328442992, 2.0921768330344457, 1.3419264161851385, 6.170515407037317, -5.174510295374967, -0.30074816732040355, 2.18936795418437, -5.86663433645018, 3.5847601190407703], [-0.5815076206587906, 2.9078615824591334, -2.8628529575386783, -6.70166275674664, 4.962984017786714, 2.9102991298580747, 0.023502251833852683, 3.0996716833108175, 0.5399437741392414, 2.962296039382232, 5.270902152263667, 4.22904244608441, -3.5478844991518246, 0.5196195048530454, 2.271433716645593, -2.9486394694890024, 2.079224382347039, -2.396337204108602, -3.763253864508092, -4.884454648916474, -5.1001862158536335, 1.8256697059405416, -4.4011962343175535, 0.38522338190344246], [-0.8153545158811265, 3.0800610160597857, -2.3272240665636104, -6.702541049604961, -2.520271329491279, -1.2460047594158021, -1.3328705299728416, 5.567924285458943, 0.21717910317499123, 1.3135806004677943, -1.5106586237184683, -2.2702851348406368, -0.8301623166431982, -0.7359892597958745, 2.879613220316565, 5.410513638501659, 3.4726798576554336, -1.7306991795767213, -0.5216511360561835, -1.8626255480808447, 1.7381826587900886, 6.746921174010356, -0.17715692320768994, 1.6039364229187627], [1.0518385316307421, -0.8071397388884798, -0.342037355593648, -0.39069468964022636, 2.3532582161287534, -2.994218009775552, -4.156306120354371, 4.399352229616738, -3.218864596166763, 1.4592158647090676, 2.716328565799559, 2.681446620298345, 2.6688553581191155, 1.4580577988766281, -2.4213931938495317, 2.4162687710867266, 1.014830673663824, 2.754756410602049, -2.619796970033487, -0.5808090413131382, -0.8216737946643946, -1.47245965040289, -6.796125080491492, 2.9753864102737717]], "bias": [[4.608576361123374], [-2.1236642478874295], [-2.311678023322336], [-4.904360260447204]]}, {"layer": "activation", "activation": "sigmoid", "activation_prime": "sigmoid_prime"}]}