{"generation": 28, "board_size": 10, "snake_size": 3, "input_direction_count": 4, "apple_return_type": "boolean", "segment_return_type": "boolean", "distance_function": "chebyshev_distance", "network": [{"layer": "dense", "input_size": 14, "output_size": 18, "weights": [[-0.006299949357596146, -0.28741408681427816, 0.8781020620688582, -0.8856819064820454, 1.5751180814547199, -0.7227104289041572, -1.696264441744078, 0.07581229716868587, 0.16189548042722562, 0.888808324997967, 0.8033394706559527, 1.6284591159669146, 1.2509661759903938, -0.7698018149898687], [-0.17279240547532737, -0.9394968670232826, -0.21800738176357037, 1.9305970725630823, -0.9712943364004856, -0.16549166845653684, -0.21265616043115598, 2.678033855711829, -1.0766702879588494, 0.22398511262814022, 0.9612117682047969, -0.17933687120047237, -0.4649314465128589, -0.7513409281681771], [-0.6906959028370169, 2.2698451846219276, -0.6669476962634127, -1.2491700805270762, 0.778403539340025, -0.5981254925597015, 0.8832380569328013, 0.7256960463758109, -0.08601951886730985, -0.17592675249158718, 0.9276078353290726, -0.9763389925314228, -0.017034258058465035, -0.1957644200776633], [0.07104395775844008, -0.3723243035073398, -2.0456307792156103, 0.13665102298274756, 0.2191773154417742, -0.47777904563091766, 1.83704856151664, -0.4985377862920599, 0.6333368737472791, 0.3074743142943602, 0.10736518594258893, -1.5196751588326318, 1.056724484413523, 0.08723388327024484], [1.8465857889270212, 0.6667152239507055, 0.873996944430146, 0.3608813152638082, -0.7817485167273579, 0.1352714807625146, -0.1492531881546899, -0.05286242033368094, -2.700663997181577, -0.4545045514581926, 0.5413608049543766, -1.0307664571248487, -2.1537779103960615, 0.7823223768003829], [2.2819187074161253, -0.580987209336131, 0.23583759424602424, -1.0132105222515189, -0.5108799419802745, -1.828725817466506, -0.6774669563769838, -2.6507829737298456, -0.6375945638873746, -2.3867872186690224, 0.37833555936450397, 0.746186503704006, -0.06950814213225764, 0.751166740256232], [2.0797243201195434, 0.7357281544549701, 0.9082629079737667, -0.07660216377938212, -0.7223019655947897, 1.195640741646273, -0.6418513178562913, -2.4582800396899986, 0.7706563640610631, 1.1485002544365286, -0.9511733418891513, 0.28840428717369904, 0.24967532129891934, -0.4002131153320041], [-1.0730024308031247, -0.8404984979423321, 0.31875272477072897, -0.15578150529953294, 0.8268099220773253, 0.42991424067659345, 1.040230976582606, 0.034797257678162996, -0.4461988057440136, -1.0742499791851912, 0.2459962013983783, 1.5152299854783386, -0.3366041848008886, 0.13323807030903945], [0.4237864390259406, 1.0211829405514812, 0.33660597140573567, -1.4023148197500093, -2.869642061306187, 1.1267608029730911, -1.5054320215908734, 0.8030689102482509, 4.983204619921102, 0.31121583080648096, 1.7524128033575221, -0.9173041986882826, -0.4584799021532048, -1.7833625895302079], [-2.276749317588072, -0.4649980842565562, -1.3919528037587225, -0.13039853134353457, -0.07720748188598575, 0.037118222531058453, 0.20497851052442917, -1.5111318169294834, -1.3929489836044038, -1.8925709492877605, -1.0488767036467073, 0.9851537697943205, 0.693250359491358, -0.2690044824733526], [-2.0531372411237365, -0.8147847046385688, -0.34380046589987745, -0.1110156343793014, 5.3840695993007985, 0.6558062132468725, 1.4759021053997166, -0.4986054802749169, -0.7145424974013752, -0.3929856911520102, 0.6311330975177025, -0.3620764293382761, 2.6464405868809457, -0.7794397915267146], [0.9926062803116442, -0.1738924031034247, -2.211379570316721, -0.6492850143850819, 0.8574205562977584, -0.14364303191015923, -0.9452054403405235, 0.4032106114403321, 1.7871677420709056, 0.46884756269946193, -0.13449867128319581, -0.09845303525531612, 0.6132881792307087, 2.198214450474007], [-0.8454224712335324, 0.0032473546921393537, -1.6946909172661366, 0.9997877225162837, -0.31177084326492877, 0.5008682165505502, 0.9909748073911708, -0.9911080678989583, -0.7257491203202476, 1.4597822717030031, 0.33187471020828907, -2.70001557217457, 1.822025726890865, -0.17208725888614315], [-0.4741345863920998, 3.871617571986439, 1.161781093903084, -0.8426064501784782, 0.9582348653544219, 0.12890887053529032, -0.027181958931345118, 1.957841881403267, 0.39043047393396924, 0.20757781066378309, -0.7205773244129694, -0.8744987176124301, 1.7909993237554427, -3.003209373276468], [-0.2699067073169069, 2.374280234441521, -0.5505554944784075, 5.531677044599042, 0.8412337194727624, 0.048039159692864875, 0.44293927598714045, -1.0441908846062615, -0.6532774388013043, -2.382979682762088, -0.46597855962773355, -0.732996946812199, -0.39596987213830115, 0.7273752284071526], [1.9852801953289663, -0.9956823569926844, 0.5300267609005578, -1.629421251193952, -0.8101166720456854, -2.4194931840786342, -0.5581999678851726, -0.3229600731810572, 0.6569783557177539, -1.0560855992971512, -0.1769350213004372, 0.13090261425375394, 0.6164577753561202, -0.7658612744946497], [-0.9534387032823406, -2.5223572460735024, 0.18960451094170058, -0.008409301345897124, -2.636860673115252, -0.4333943566397336, -0.8391960334064432, -0.6109907511475436, -1.7788023139569091, -1.0816973568081556, 0.5518758570205575, 1.208100893265564, -0.03474934861155066, -0.6219213444031675], [0.16285456237541807, -1.4592782875262753, -1.9658570449157764, 1.8349201823922312, 1.0679602014920317, -0.5655106781994605, -0.328931362183996, -0.13421410284713509, -1.9413380471901407, -0.505017359236796, -0.7882471107541706, 2.3331752912724606, 0.13404840447166566, -1.6666433978836959]], "bias": [[0.7633341914546575], [-0.058110493997849955], [-0.4658476676967511], [1.7467464750204755], [0.4517832103022681], [3.682727219768451], [-0.4807336232362831], [-0.4266710356065787], [-0.710478635660462], [-0.4550563299321253], [-1.8551405362244702], [0.8306469640648197], [0.8416176328745586], [-0.13467655805376566], [-0.03613989637719495], [1.3694332640369162], [-0.8506189330014365], [-2.0933787461290363]]}, {"layer": "activation", "activation": "relu", "activation_prime": "relu"}, {"layer": "dense", "input_size": 18, "output_size": 4, "weights": [[-0.4672881806069857, -4.8658790611290526, 0.8442082948028375, 0.04413835531095833, 1.2374292552534705, -2.3344483008342176, 2.17808319264463, -3.682488625683416, 2.246035519764565, -0.9002888937496465, -0.6328307621213918, 1.1691667989943786, 1.8225981908733175, 2.4714637463323665, -1.3173683895753516, 0.21188941679359496, 1.2563225679380738, 0.8822354284196894], [0.049870390367420026, -0.41851506523650017, 0.6377445588104591, 0.18305372974544087, -2.2443010930872442, -0.8527204893715049, -0.1123532241072347, -0.21603883324267456, 0.6709328592601387, -0.48719934155199174, 2.2989252378923233, 0.2919268748132786, -0.5490300029044968, -0.608987133644113, -1.8837217686014829, 1.7987953433253794, 0.3622069129727159, 0.927891198793735], [0.5853742892907938, 0.9565456874368921, -2.5056674713630303, -0.54836137222221, 0.3461652538549851, 0.2156930921549074, -0.6093600675402178, -0.281007486758323, 0.8385753113629129, 0.4384953046857383, -0.37824209047214996, -0.3636322183592904, -0.8005792641256585, -0.13974282174618094, -1.774063451988583, 0.3107788029016707, 1.890714396539264, -1.3658516296124101], [-2.2709561863960777, -0.9263256456254376, -0.5191885571521995, -0.4994277777252194, -0.5480316363502791, -0.4622278219352626, -0.7239054825157706, -0.4549249718793553, 0.6219844852347185, -0.6149939262622077, 0.13154035899679983, 0.37179508473936906, 0.6530647036227231, -1.972854685907289, 0.23644493832786184, 0.679413599996816, 1.4928323885420858, 0.5496440924279273]], "bias": [[-1.8449892436386486], [-0.45326427751772563], [0.38194962786530057], [-0.22087533635928103]]}, {"layer": "activation", "activation": "sigmoid", "activation_prime": "sigmoid"}]}