{"generation": 571, "board_size": 10, "snake_size": 3, "input_direction_count": 8, "apple_return_type": "boolean", "segment_return_type": "distance", "network": [{"layer": "dense", "input_size": 26, "output_size": 30, "weights": [[-0.6604305403438682, -0.10214395388666486, 1.9548047056513647, -5.440597246238399, 2.3631877024858055, 4.082218576741424, -4.073514078743722, 4.35667718443868, 6.466966258376335, -2.653461588090057, -5.38686237339612, 4.403297277232738, 1.8691354052665985, 3.8600795044637657, -0.10168254782519714, -5.341510107733806, -0.3381626051152815, 2.7038021691318, 4.2875636919439355, 0.7152864628440893, 0.36127927050246833, 9.705421459683132, 4.88388776568378, -1.853082445973687, -4.920644586478315, -7.65516078707939], [-3.7670841479006523, -2.604395536124934, -2.1887527052823206, 0.9706936759197088, 3.286974607695203, 1.1335485736615678, 2.9983056254746296, 3.779941121779356, 0.7932802072888658, 3.350999513466165, 0.05551645202089367, 5.074470075037737, -5.099804893940911, 2.6638762707805363, 7.554141408502661, -0.44527300653499247, -1.1143490292179525, -3.2048797970195166, 2.2467913411533678, 4.305894747813447, -3.7994814304411335, -4.009279294289888, -0.5455547694727937, 0.9838643940207706, -1.7271825895350474, -0.880165856700114], [-7.01812770444496, 4.8160885480314946, 2.5703217651245422, 3.5970424428540735, 0.4776722544958456, 3.703986993364568, 8.138555282914407, -3.6597895873170803, -0.1317773848529593, -1.8245257857103065, 1.6078663021556971, 3.9269173755641043, 1.0436273421528404, -2.241551555474877, -3.592365246583355, 5.4600701359974595, -5.250280464344415, 4.676729591011572, 1.8301444698149678, 1.7746231337539027, -5.989964326157486, -5.102970770119878, 0.581115370546024, -1.8768318883827444, -6.303978696224252, -7.202897618774262], [1.3505653024691375, 6.529205654625565, 3.1366134065769247, 1.2630887220913496, -2.7937725769804413, 2.5149574532037215, -3.606941547029743, 3.3680562708262523, -3.889818746227303, -2.0684007435881604, -3.631885352041797, 3.6249876742204536, -3.6798043077462084, 5.277368758692347, 11.29833470447031, -1.924273355781885, 3.013007112745542, 3.4252798067840353, -3.5443718305023233, -1.3192875634112855, 0.7327737508040293, 5.435033928206071, -3.2339335876976554, 1.641857441787345, 3.2964794288064674, -1.026396662741475], [10.824484296164039, -2.230575607506422, 5.579157084967911, -0.89239590760728, -1.4856284368662882, 4.161538113963209, -1.7780316945318697, 1.762234617712394, -9.026414442088445, -2.7534449829976237, -7.31027080499448, 1.0675436134429384, 6.901036709534078, -0.7439475732743357, 6.492259948101127, 2.300578694060338, 3.5865907550145293, -1.0438421982207746, 0.5144601158686215, -3.3832986859195118, -1.9235008429529794, 2.571818829748077, 1.879895625898553, 5.085280192933075, -4.51943823934466, 1.5368618555064113], [-0.23636418816282959, 0.24008625122226046, 1.3114498979893385, -0.2623582348553495, 0.12299799389044208, 2.9971542427930995, -8.17839715198291, 6.9587327586985905, -0.5004301846736373, 3.8063255482504936, 2.4381753917110895, 4.801693365700201, 2.4142575461321796, -2.560204437664981, 2.981481600450863, -7.21912241123589, -2.834943053907836, -9.142707306764976, 5.750858152070746, 4.226688357852369, 9.124696210667462, 14.565762425678304, -1.7669321233499695, 5.980759739136441, 2.963755729935519, -1.859323942006464], [3.165588387137465, -0.645725650868155, 1.727144228089763, -4.463430133440346, 1.423842013591707, 5.019154607099861, 3.865616853434672, 7.5604080524062915, -6.0449481425175025, -4.751292863662969, -0.16222205911797832, 0.9663683255405873, 0.4892713998933744, -0.9661893754233933, -2.902567632925015, -3.6937765557625593, -8.51793716681371, -0.7390174576299736, 4.178399462458899, 8.131506382180426, -2.7618660848777488, 1.720076583716051, -1.925431049123106, -3.936230610929478, 5.657434474679432, -3.3803794224489536], [-1.605825954478727, 1.638696434532936, -1.488122076912083, 5.469745345963772, -3.052490555177066, -3.593731818212312, -3.9341580247366017, 2.6756658121642856, -3.2668965906649197, -1.3472088824077497, 3.234325327460872, -1.907032693159761, 4.384354156565524, -3.021924844899003, -2.3822976750035183, -0.38627948592899225, -2.8616303256248172, -9.914293012215225, -4.487411979879254, 5.2122709985417215, 10.52810080144563, 1.3707990902451423, -6.773293831865474, -0.8231228911252332, 0.6739912927617402, -2.546047219298398], [0.2928628283809395, -7.97993243496691, 0.6513068293327134, -4.2488206141234155, -2.8224834254156046, -1.1228002094774439, 2.8126545357334045, 3.1651345939669437, 6.885776123237096, -3.6978770636942215, -5.632705653354588, -4.087167790924957, -2.7165288310637963, -3.89677908483849, 3.4020894091049714, 4.004147873856716, -2.1975396744259617, -0.7639743763208238, -1.8757391193474469, -0.5870559189882542, -6.0469040970416685, 7.509186925095714, -1.8270697517816992, 0.6369492154268914, -2.1912722352738996, -6.574289429181249], [2.082281020744277, -1.176241945412539, 0.6687053300032415, 0.8039751417669987, 2.118202193617992, 1.9403096388226506, 0.1981624762663795, 2.083286258134094, -1.0226454228048119, -4.131904622508124, 5.344232750100924, -6.582706653933006, 2.800499193447897, -5.260866743144129, -0.007396206017408646, 2.4330577341335387, -3.218415446116497, -0.8509959249705064, -0.35511189704760193, 0.1136892120586721, 1.3373510267759245, -4.1642072843526625, 6.516409507403099, -2.38093139025966, 0.9607805955862064, 2.143460255822327], [-8.011736716732964, 0.7872170281895793, 3.03814945074886, -4.17898786765788, -0.4086182145992572, 0.7185596439908881, -2.0145133008939156, -1.4844903476665352, 9.877230494547474, -3.5901981311897107, -6.442580214099912, 4.060258756434856, -2.301504020562646, -3.8339234934805364, 7.977650947304703, -3.3845649340344606, -4.040779612810375, 3.0616714906454012, 6.746275650377934, 4.250996997067178, -2.186155347841327, -4.985586573455338, -3.3031328562078004, -3.748205872136837, 1.3428803029053442, 1.517705336105788], [-1.6718685217141656, -4.174612591134325, 4.736854420724785, 1.1522253087265815, -2.630000809734806, 1.5520698643940132, 6.09769791766034, 2.4600387314075527, -1.2566875643501616, 3.3233610316558067, 6.363126404380119, 2.6585217376247376, -2.6323558638093187, 0.21676733355279088, -0.3013499729575895, 7.150722184638484, 8.440401944059184, -3.9304854172694075, 5.246235312811544, -8.653004251895291, 3.3627420289147563, 1.0038842471761455, 9.901842435434661, 4.946823022998891, 1.5657586478089098, 0.16341448999217667], [4.064792926181084, -0.10120693252517116, 3.3050875295907014, -1.7319928333523003, 1.0578009874781764, -1.7418641147297342, -1.627054102010196, -6.5875061756412725, -2.3910738957777338, -1.8758863029637585, -5.512651157031664, 3.0401818390003976, -3.6713509849597528, 5.260440986550984, 7.15657969716242, 3.5000910003668384, 0.41331318364160563, -3.9636136278263123, 2.1810441221899177, -4.441833198523373, 1.493035754967729, -7.745168136094032, 0.5632348004556554, 0.25040150132145733, 3.520516784426181, -4.635928707531827], [3.0818445139705712, 2.158093330900699, -0.4174130436990889, 3.86340930911641, -8.562623597603377, 0.3521851050982221, -7.105888003708262, -0.06638585262729313, -1.2364556514885103, 1.9573817016498765, -2.1941245439171913, 3.5305806701582525, -2.5701662163627557, 1.1128423499614093, -0.1723969776689207, -0.20992179398206978, -6.513225729219025, 2.96960427931765, 6.799703310299859, 8.000401016143236, -1.3154651967996198, -1.38577636046102, 4.08951840393886, -1.7140470110741228, -4.897903808100253, -2.9473152400234017], [-7.832346873912653, -4.462923588742636, 4.380907286427366, 0.12979683838317668, -1.7513311672815624, 3.2873921309815555, 8.79604853011339, 1.9092895738851552, -8.391796008856105, -7.210577945063599, -0.6225859637443705, -1.485225780427887, -1.6990804098692243, 6.016565821962253, -7.656160556327203, -4.411500125415435, 4.716843751140593, -2.0060305517507784, -5.462480848028577, -0.37934731062059046, 1.858152148990836, 3.2278999205176495, 0.9008245300233889, -2.4042646702593955, 10.02485192407484, -1.3441099720043201], [-1.4907096315692776, 5.725641421579422, 0.386316297241434, 1.1206392785416806, 2.872249475591685, -1.9268356205193125, 5.071519903588437, -0.42403973956790075, 0.223014932662715, 4.348831535947602, -2.739628266703282, -2.6969654631380555, -8.752216632594061, 0.3859327448376011, 1.6073436888624113, -0.2977459116598633, -3.8196409066456876, -1.2904726945467027, 3.640681823699289, 11.446034688015807, -1.8237013913382683, -0.5100697485392023, -1.3210905327137825, 8.348690086770898, -1.2901434881464764, -2.876301946548421], [-0.16057288601933195, -2.3386314129250803, 0.36250870705391997, -3.2129928413667566, -7.207837928189741, -2.802851821583311, -8.777398910152172, -1.2758374514955793, -5.606776109765592, 3.9908241273816665, -2.4968536491770186, -4.961787423383146, 2.9479529496936583, -0.7916709332006144, 5.760493021373943, -3.3549050295538185, 5.996383918023811, -2.5010688740586104, 7.303981121984694, -5.377459285899396, 0.7964872719023572, 5.900666053327241, -12.906272935686891, 2.2008067941508265, 1.487361601988571, -2.889107652954086], [0.07029253205334784, 3.9402234909188203, 1.193444032149781, -4.570861763927832, -0.8030274609666598, 5.833875251399894, -3.155224957851617, -0.5137479966555891, 1.4108919763731305, -7.746834603676655, 5.245656045057078, -2.570665709657389, -1.9132465263844485, -5.139420664129031, 9.072234469841757, 1.8946445389243431, -0.8443774361009941, -2.8034753886786303, 6.7858974052200045, 4.136416738365776, 6.5713586890999585, -2.6751075631531247, -2.2280047788531663, 9.901657177804365, 3.55329963402177, 3.9286478031285457], [1.0178557599881535, -4.131117146143305, 2.62243504603581, -7.175320249773876, -0.3320869456597725, -0.9528823178189374, -5.403161870787319, -2.2682444086608036, -2.305239102937346, -2.8090267528505457, -1.383482538052665, 3.9691724947544405, -0.7813204122399076, 0.5190595498712401, -5.933390627071227, 0.30266067720091727, -1.6469182315861515, -4.166023314672408, 3.822607665041815, 0.22858707115305776, -0.7993225826048184, 4.091326422057262, -5.184155233502935, -5.28861653205861, 0.50667714502603, -3.164747550672879], [-8.54126210581904, -0.862292934505738, -9.114522561095297, -9.720275179008288, -0.6707146263863615, 0.5925415587553671, 1.4739682118842563, -4.311179352310499, -4.085433737368971, 0.22790622100261004, 2.391464042431386, -2.496503332260666, -1.1483676088706074, -8.75658106732931, -0.7041203082244095, 3.4430536010685673, 7.594259652729617, 3.4457827154655707, -12.450137678335588, 12.002626656174156, 7.5813236971729205, -3.270497529317928, 3.428265917929509, -3.590996779123491, 4.590602748503064, -5.136772546564886], [3.8578092063010874, 3.3787066090258366, 3.932048644425294, -0.5680625804131707, -7.141283519443048, -4.312531515735748, -2.8318875918845343, 7.456158682468877, -1.3278334222859833, -3.6958592111184583, -4.607205049484715, -2.2636298160557637, 3.3094223488262458, 10.544517140674987, -9.359853265329587, -7.863761647003141, 2.983487432643363, -4.485764908452205, -0.4052111655325157, -1.4957162651292444, 5.65153085100485, 1.1721461373229776, 5.013325517761915, -4.892375422927535, 1.6437352217845027, -3.854651489350976], [9.03057090752459, -0.14800500559100221, 0.5191812539083305, 7.34285953242019, 2.204583941267306, -4.619962615557727, 1.2823388829158755, 9.833268854216184, 10.76038333105961, 1.616205849343024, 2.162691580367762, -2.095945322966753, 5.700142732670014, 1.737448799197558, 1.5340006215151432, 4.343709932403007, -3.709757345769503, 1.6814663986557186, -5.77224325347263, -0.007831109144294468, 4.151462972608307, -4.8282991389414684, -4.518849673879826, 1.9079122966701272, -3.98083374386547, 0.4455458220407432], [2.1710782039042114, 8.788390918481127, -6.02233988415307, -5.3170649820050935, -1.219478759126087, 5.189522921228591, -3.309579151938175, -1.7272209547703274, 4.185482732693095, -2.4169563265517304, -2.1147074676245436, 3.126094114006225, 3.4757131665185046, 2.87422333123682, 4.40212600155588, -1.306004512345756, 5.727164579189932, -1.0770367331821162, -3.831160804090724, 2.166809653141196, -3.8324955410291732, 6.4940590229216575, 5.865584741728781, -3.1373910245740313, -1.4326748662614999, 3.9170052141485483], [-6.741410496479814, 4.857688544006203, 2.904280103221279, -2.126211861398095, 0.048645380273922734, 4.400895211028205, -2.199743618615139, 2.410798896537652, 1.4955712031274984, 7.844990244846642, 2.4360788442222883, -5.989313574214591, -1.0949607932306527, 6.295140408795758, -0.9262312533804451, 1.295877532598127, 4.42745994286005, 1.2145850729751242, -2.2342631719203068, -1.892236434101835, -3.9961360811348148, 1.7356119240580654, -3.017119887188268, -0.3283509744191122, -1.2457999602487853, -4.684066113658099], [0.8720536287571655, 7.273908709769942, -1.108635462665656, -1.2040199516401586, 10.654166220906188, -2.9438499999145336, 1.7516496128352954, 0.3177157910703606, 13.111711791658742, -6.480204493564516, -0.9453052065089933, 7.848402155440757, 2.3262309016452907, 8.241625151544854, -5.681096306901415, 2.0460573895518257, 5.165607538735411, 0.07687067156390603, 0.7528661921752053, -0.06660192433588136, -1.5910193540929307, -1.092900937064894, 8.578422942544373, -6.0917822756217825, 10.91504316982152, 11.000565948958778], [-1.690082769735262, -1.3281157249098259, 0.13691143726267035, -2.32896017577864, 7.120445174354086, 5.4405650203766065, 0.2634658812120662, 2.8999240597579226, -1.0537932883480194, -1.406770998760667, 2.517224614057337, -3.030232697168163, -0.14680919529804892, 2.2925073894192045, -11.541099286018866, -1.3834579344684137, 2.047566530814927, -2.109356908817654, 0.6194433315408345, -5.062396221348985, 4.046437192879255, 4.196724723748579, -4.559071973159688, -2.2236591645790016, 3.576372886869619, -3.3711534008395367], [-2.9624980576354325, 3.007964801778794, 0.6294715992411293, -9.051764851085572, -1.9943836242811872, 1.9221118742609278, -1.6035299340331597, -5.637756856296855, 1.2376994771583658, 4.49409216357067, -2.8968925406421024, -2.899004787339455, -1.08621468802371, -3.0610735565698217, -0.09287321249040947, 1.5750888825018052, 7.803813918834001, -8.728282429432275, 4.745030406437642, -1.2945501905412187, -3.8472901380105053, 0.8539363084365081, 4.285531725470255, 1.2592058596475404, 1.9492110686467705, -6.3730989575910275], [0.22404047353476908, 3.761090355949391, -5.040339657658722, 7.128361230215185, 2.430613137603758, -7.443728448162165, 1.852509902487114, 1.5510301823631432, -1.923077166405535, 4.105730800084469, 3.1487583546546247, 3.5394982014275485, -2.622890128046672, 7.05531378324323, -1.9917942619280522, 3.2498658155637417, -1.7697615368204747, -0.6277598533437092, 3.95568817056348, 5.373751885703162, -3.617747819266359, 1.606841726983352, -0.7961872934947051, -3.1742715726929087, 1.4642916159915744, 2.251420733240876], [-1.500632408798285, -6.91591918843245, 2.2593424511466838, -5.731447768975724, 1.5365541778390623, -1.7051588178882404, 6.006817489542736, -0.48741642026961907, 1.7326756732437287, -1.9098951002120341, 5.9088355217677755, 4.01919480457628, 2.81372415601828, 12.822553165030234, -3.954423167307927, -5.187308108973488, -3.6468461861015453, -0.9652870509010714, 0.3820175407481216, 2.6133125067508214, -1.169909400415766, 1.3884677593020036, 3.4354586312395625, -4.4406982712261085, -1.5396971337587364, 3.29803822822649], [-6.224011259640529, -2.502028342925222, -1.8438032089238692, -2.4170866712877315, 2.5813215188435024, 6.75327256306668, -0.23263689732517606, -6.657011244763019, 1.4150431225058813, 8.627710054964654, -0.2967700453532508, 4.666417998573362, -3.9348297533734273, -2.5968232050972904, 1.3793434945053735, -5.8871940093906785, 4.473296482797818, 0.912586136238113, -0.822976324826564, -2.2295012752710286, 7.64343162702588, 0.4360772997870883, 2.772510550713995, -1.1681157796443888, 6.6977606580976214, -4.682032943777542]], "bias": [[0.9629160174697586], [-2.164966505598989], [-4.1201027036449105], [2.613568558841923], [1.5164747587023015], [5.331757082490986], [-0.20133827350412953], [2.027948544414837], [-1.2748632361289052], [2.4184851270801193], [5.1574923132976185], [-1.2703859704485971], [-0.1664651132131847], [-5.054606664495834], [0.6907368346157383], [-3.102257201619488], [-1.1681738593872948], [2.8543639809056827], [0.48833268594124546], [4.146893081767597], [-0.5879793309491331], [-1.960900408580474], [1.6102805074499384], [-6.403234965881476], [2.247976821075341], [-9.161058249833612], [3.178599963074954], [4.543960060042024], [-0.8714438392913728], [-5.265607872134718]]}, {"layer": "activation", "activation": "relu", "activation_prime": "relu"}, {"layer": "dense", "input_size": 30, "output_size": 4, "weights": [[-4.5030809842174735, 3.1840529781582125, 3.9756487444597566, -2.1210823391755564, -3.0621605229575963, -11.429780825854202, -8.791330177472862, 3.1677656436484956, 4.175142051479499, -1.4163526797783734, -2.506406418376058, 5.045692401627326, 1.1003422732692782, 2.9581866752720836, -1.29056967383184, 9.705365620752989, -7.6491839110353705, 3.8454325762782733, -3.0723507286377263, -5.500605399440761, 0.5582722478174078, -2.9944232165362017, -3.676397820524738, 1.9474331539374155, -4.817600334021077, -2.4221743583505475, -1.7082124958087122, 0.034464171637926484, 4.857710282203508, -1.1890574340479148], [-2.4547671368877584, 4.163298459868683, 1.2717702680242455, -2.106841718670145, -4.529014759376352, -2.1213301982655697, 0.35584844020954853, -1.5705136040952667, -2.9069641143824563, -8.352197619911495, 2.207194450939242, -0.8848047098779314, 5.720327751530629, -3.9958411324619867, 2.969484321559281, -2.357413158167984, -0.3897448706701616, -7.108085699450642, 4.376391266552522, 2.920491977264761, -2.0119770945973157, 4.029754963851525, 2.7823190486180773, 1.1559186663166814, -0.3610744286075376, -2.256576365815758, 0.9791019813857273, -1.8431144292281056, 1.378337938844011, 0.26212738770414085], [-1.3738835857508083, 1.120562128678853, -3.7246257377121195, 6.3719389685031835, -1.975663383130285, 2.849703221195888, 0.036608142440565095, 0.7231736983666183, 3.6564694089604997, -1.4313224487009253, -4.865826418681768, 0.25380036278324003, -1.4779916439792273, 7.08928053720781, 2.299834669330932, 2.299766810637687, 0.21345080890016055, -5.86782668331184, -2.5342838212087493, -2.884778688210613, 4.642094120815939, 0.529231919380755, -1.8467696324522742, 3.302727951503398, -1.7759605568208072, 3.8609874935583544, -4.20284615738659, -4.278515946397905, 0.37575898356149806, 0.8219907915219768], [-4.863329587122432, -0.5647211107301686, -7.267791418940622, -2.180177247710594, 0.15589428074379186, -6.928920958583294, -1.6041055448840555, -7.083680649668432, -2.19758577239649, 12.450846703336861, 5.844222206728662, -0.864808439046218, 5.063622093841026, -2.2010963152327703, -4.440796487491532, -2.6921473082524807, -0.03270730031266078, 7.019485061509388, 1.150067566291309, 3.7127751296713667, 2.220947998458221, -1.629067073316285, -0.2960537091839346, 4.583730230997004, 1.135498295498833, 5.180351638573334, -0.2011012707957438, -2.405149303716158, 1.5118455180042327, 2.063127208502899]], "bias": [[1.3630130165294934], [-0.15506856073346031], [-7.158971833628671], [1.4748796916953182]]}, {"layer": "activation", "activation": "sigmoid", "activation_prime": "sigmoid"}]}