{"generation": 17, "fitness": 62385.814478633365, "board_size": 10, "snake_size": 3, "input_direction_count": 8, "vision_return_type": "boolean", "network": [{"layer": "dense", "input_size": 28, "output_size": 24, "weights": [[-0.9345566312474097, -0.13013701565301072, -0.08391806861939122, 0.6705351213476825, -0.6140482212365896, 1.4475974323452492, -0.8025155359772089, -0.7646795283732555, 0.39243895539499607, -0.32892192321004554, 0.28124438508943994, 0.014094022645279036, -0.7218924955909132, 0.6273532426150514, -0.36680615484256607, 0.7231939869715702, -1.9250270260304612, -0.4235212082860289, -1.909920462044761, -1.1413817685863767, 0.27570291454397156, 1.4641534131466887, 0.2749193834391117, 0.48414282393050856, -1.2732487651923792, -0.5667802311363446, 1.3334216799790126, 0.6306572713263956], [0.48671954490498737, -1.613113052698775, -1.8964956215510498, 0.5653169895735811, 0.03748611280997305, -0.7556308024329523, 0.1910336422551453, 0.04418664767434466, -1.5273841501934442, 0.11468941726272952, -0.20102487950184833, 0.6521369006228441, -0.3593487178956416, 0.6738938252737513, 0.4769023746781127, 0.6722728642932512, 1.080643148478061, -0.8105519842889062, -0.6869860069459792, -0.18641564541726652, -0.24177881513681587, 0.6723309553054422, 0.5476877120615715, 0.2850357851390488, -0.12450051092714687, 0.45241307212420256, -0.7819793903664329, -0.1573080812856067], [-1.6384438507510741, -0.6392996413887551, 1.0775931696427525, -0.9163584205490642, 0.5932457682637723, -0.15796734359763298, -0.7541870922664189, 2.4524404688837116, -1.3550863535219, -0.7700874232477319, -0.7151506300612358, 0.23012870048912482, 0.5349543772729191, 0.7983356083818349, 0.6036193586213006, -0.8654472622070303, 0.8672782237093493, 0.04633639327146244, 0.3458749959123921, 0.3515507657765793, -0.8778520894083115, -0.3788441153628832, 0.37805288789023717, 0.029196044015215694, 0.798830156811682, 2.709488883823901, 0.9591017587635868, -0.13531492106505982], [-0.09967186866205147, -0.935451273175189, 1.2151069076126848, 0.5377774629235741, 0.11072226654022332, 0.5960626353773442, -0.19342910728801466, 0.3933279159956252, 0.38527695287437247, 0.052009735978389815, 2.07016825323604, -0.30512265884511414, -0.5540029673052015, 0.752774215515768, -0.004166672883641809, -1.4618259606982644, -0.09211581898687715, -0.8091853119812673, -0.037997003741611746, -1.190100162981445, 1.8246788599535515, 0.8050276229943933, 0.5130920671880096, -0.9881123300440504, 0.7331761395854571, -0.7197307484374866, 0.9808736184945182, -0.867307072725537], [0.04894339825703206, -0.8563509281235915, -0.43016976822951897, 0.7552864509067901, -2.1090243068344403, 0.9259943018616926, 0.013896015228747172, 0.2008580043447743, -0.22161796454688898, -0.21708309028951178, -2.5165831174842674, 1.300078169020498, -0.49040725794274875, -0.3347362467446535, 1.059709769915697, 1.0234192257726005, -0.19678532579499974, -2.713668393980261, -0.4165815446352066, 0.8675707211478052, 0.2956389832053352, -0.5530102324446118, -0.6378814228413954, -0.4513617917654493, 2.0548846600740553, 0.6687998722511355, 0.47824605435344814, 0.09129380057582659], [-0.3489434048972542, 0.025159273659162595, 0.05303502439572472, 0.060704137396943914, 0.7751399513499906, 0.8338027295214566, -0.5540396232670457, -1.317111851040844, -0.4224355175277086, 0.011692653481687687, -0.30470108349994574, 1.8233027162026836, -0.8482370737050383, 0.4062306499232346, 0.09019692382505909, -0.05388805193110201, 0.8404712866304381, -0.3232048651190005, -0.295213890469858, 0.6765323903113238, 2.020089398836017, -1.109944628147586, 0.953406807825601, 0.6144930267866295, 0.7057985454416278, -0.3490118030468199, -0.3620465040689148, -1.295242287711286], [-0.5892552475359643, -0.48787432711497314, -0.4955017346225769, 0.20602394498138435, -0.745243746110374, 0.763488111221932, -0.6080407753596511, -1.5957418021871113, -0.11598695018732541, 0.3637418701571169, -0.8664010784081031, 0.8842161682198271, 0.05749454948906174, 0.253743074410797, 1.7177328627682513, 0.6188542507695605, -0.6520403015653831, 3.3801930965910048, 1.2835949531552622, 0.2002615309046144, 0.9256543568911033, 0.06115914891105545, 1.4307776419479166, 0.6017421014881617, 0.439196290717796, -2.288659282958247, -0.3658511855426647, 1.0587092430357583], [-0.6271582967255522, 1.3818212879295002, 0.18768655686871427, -3.467328809326403, -0.5410599549334121, 0.7373249229857779, -0.17109952189689115, 0.928612231924949, 0.8449945110484043, -0.6231466894738056, -0.3005244146626014, 0.49191511756009787, -0.39553004823410476, 1.5718947454024585, -2.041300330991451, -0.38357696141543307, -0.5636283189504603, 1.2105386233897018, 0.7913549636883499, -0.7062261778902699, 0.9635722568564712, 0.9209379326933089, 0.047319288333253315, -1.1174767259004479, 2.6899839022653302, -0.4983330399974693, -0.8451758921567063, -0.9183368392815605], [-0.2747501464512865, 3.1921094551100446, -0.9958513579979695, -0.8643284302157257, 1.5673648499043484, 0.17352715506522953, -0.22652413647306013, -0.4524720426450506, -0.14197274099323276, -0.32936972520752894, -0.19951527494311905, 0.5491806973261819, -0.5552263573593529, -0.8664713279987961, 0.47467728082309457, 0.17102015010864718, -0.881796397775312, 0.16244344968306101, 0.7041413458331192, -0.04099166903242146, 2.1174984463593223, 0.13670274112653702, -1.20309284583666, 0.8389522797340203, 0.940173545156805, -0.7708795454594162, 1.7083207187613305, -0.16260505307689455], [0.9773254836267522, 0.18626839426774894, -0.11400231570184038, -0.9099721359426505, -1.0572435841858256, -2.0973333759969743, 2.177156490808253, 0.3740556345272563, -0.792667597409334, 1.5439394915916826, -0.3537566725560817, 1.3066512762840918, 0.7541997384936712, -0.7416438930631415, 0.38910110751378535, -0.5081471672169633, 2.1603303371725344, -0.9410371233020931, 0.8582927882623783, 0.7609355916607079, 0.08208571222624483, -0.9220402877269611, 0.4223075324125156, 1.0549431360942125, 1.6410856277386707, -0.8696791169587462, 0.7297904622429294, -2.596657456110543], [-0.22183909418891168, 2.0630930977942716, -0.5709575213650444, 0.11307781359109431, -0.5912537614867175, -0.5074696045381324, 0.8806045953049716, 0.5743604972074252, -0.016744600302597945, 0.37439924736259833, 0.13514140722455026, 1.3172587582746342, 0.06554160026047406, -0.4645732455950382, 0.03247425646593638, 1.4107150206517711, 0.46408792717214364, -1.0595365688676368, 1.4854791101619187, 0.8863310244743519, -0.7469651485604698, -0.13344553983866897, 0.8211939265091812, -1.4090959883810794, -0.05221675930470138, -0.3495739743225621, 1.0686883939569514, 1.495829123367609], [0.8057604768856477, -1.1784125670863608, 1.1179269213755205, -0.844737424832896, 0.9162172001282965, -0.7349447675443682, 0.33232306353161656, -0.163834992417631, 0.18591486184681782, 0.05045281941762325, 0.22734936252364735, 0.08700613148042069, -1.6504936939814843, 0.49792260007747124, -0.6380378102502766, 0.8855021079811745, 0.5934633655898021, -0.08581455211253569, 0.8547491523026833, 0.6797087525866892, 0.1177794827720895, -0.46242136610308315, -1.0569933097678648, 0.9112888369372873, -0.3067952793385216, 0.9809119051498252, -0.4675742862533796, -0.049219694149106874], [-1.9795068746734343, -0.5849028029538508, 0.35902112710169104, -2.6154059621188424, 0.3419941711103789, -0.21391029036365405, 0.8236920153271998, 0.4133721390106109, -0.5018129148637007, -0.5689278267205986, 2.747606992247966, -0.7118039814413695, -0.3372037844714708, -0.6117236178155356, 0.2149722823327791, -0.6534184273456454, 0.5390865474756205, 0.6738939467236456, 0.7544890922816756, -0.7856601752907029, 0.015662548873539794, 0.1921718203851448, 0.2816187579068412, -0.3878795032756062, 0.6195077662982413, 1.7713130791818568, 0.17966944200003665, 0.9249956007587516], [-0.17575340922030486, 0.003312521307992755, -1.3207904556670176, -2.1126409386147573, -0.36825169694079407, 0.6082724953681778, 0.5667422340935184, -0.8824059037114491, 0.3983482323359262, 0.16141242754933116, 1.811894949075343, 0.7300643769216026, -0.8578670751766349, 0.16705589492055273, -1.4039855817186508, -0.666614449731562, 0.302858622822453, -1.0744126730645287, -0.28319901995342023, -2.182995712900781, -0.40038764481542377, -0.9597732076726584, 0.7641399156343016, 0.09183106906779592, 1.3964946546203896, 0.8653316714600485, -0.585301494456792, 0.8816800147663835], [-1.0230282949160807, -0.4921796186451928, -0.6769661563359813, -1.4483921911281354, -0.7982619152116057, -0.1410998512560342, -2.324209688802153, 0.8741600074484284, 1.9378928322739017, -2.4170495809978454, -0.06701322340237326, -1.4893999910177342, 0.5026026630542332, -0.5330970695443664, 0.21979860869783696, -0.9727247644754682, 0.17173815223589162, -0.9670198708359641, -1.9015201558829746, 0.10916028475632777, 0.26194790103380317, -0.07446398777141794, -0.211624640754417, 0.566652690518539, 0.1951564581967904, 0.6584396296130659, 0.872572133142332, -0.8144535622912825], [-0.7149609340423828, 0.9248715469950706, -0.7912338499905314, 1.8762968430269005, 0.6922179512714781, 0.5047598045810857, -0.447126783789356, 0.6254750760931242, -0.40491092669745354, 1.221277339211374, -0.7229434417223026, 0.12611186954441167, -0.40209834614317874, 0.08087377787206362, 0.4955187974621231, 1.0641732900649985, 0.4374192314568315, -2.475162984589693, -0.45086054163626166, -0.02123511493673924, -0.11540648471655057, 0.5441172327807489, 0.6615228786704463, 0.3568832342420887, -0.97780110096789, -0.617841064508581, -0.27028286113669475, 0.7145983714967556], [-1.390000460066054, 0.47166168847185497, -0.5668822625716363, -3.362393001147514, 0.7964851622149888, 0.42623184643320416, -0.03659521955905859, 0.5568648885268119, 0.03388570372032307, -1.135928266820923, 1.996065659614613, 0.19618095478682662, -0.8975805164488007, -0.45956299268239564, 0.049584903716326956, -0.7253697306877003, -0.6805636076210242, -0.9140061926542613, -2.2274089312721603, -2.4499802609299337, 0.5930121424572412, -1.2645233840101073, 0.01665416236357209, 0.4997266403139181, 0.14536269193303908, 0.8030613140599187, -1.056549948511214, 0.48678083892658497], [-0.4721825282043159, -0.9924809624958377, -0.3523649928291232, -1.8682206358241045, -0.725424988014816, 2.040756773742605, 0.10406315191054327, 0.2875280672714797, 0.3413003051446978, -0.2378721277268927, 0.921371882286349, -1.10178158566975, 0.9619094792792067, -0.09081465062372729, 0.4281563697254631, -0.17205497458208674, -1.7753364074204965, -0.8230514478522066, 0.682271610983479, -0.5571283252772514, 0.144263909564198, -0.5759739869394269, -1.7418783681692793, -0.012638436339541426, -0.9050131848186417, 0.19358338956199506, -1.2487566899813802, -2.7345497460770947], [0.03479784883298476, -0.5311533698623561, -0.580494898130727, -0.13464394718746353, -0.6526834397766321, -1.6082943845456041, 1.1311163867666216, -0.6359856563214905, 0.6643449826340249, 1.3045639059802732, -0.43887248596584283, -1.5929080000253522, 0.8114367097078348, 0.18302103273499215, -0.8292329917774506, -0.12354524931097899, -0.39384730348208513, 0.2627295493948345, 0.8516258020825604, 0.6351369516856618, 0.10579373129862657, 1.3233274008380085, 0.8798277754527093, 0.861807031862702, 1.8175829649897832, -0.1686243244339407, -0.6534878602873562, 2.661955370951672], [0.5326395775653717, 0.18004924447053527, -1.7477348487821243, 0.9088371678051785, 0.9697214644624323, 0.40988108631609, -0.9748435992856817, -0.08062431045310103, 0.46201869440833665, 2.316292852856044, -1.2349222366110477, 0.8358890309263691, -0.5438851843967577, -0.607097666598995, -3.2781789592959836, -0.9362279211733591, -0.1796679646618513, 3.3181848646445915, -0.02692799951566205, 0.5379809665022661, -0.07985344169373998, -0.16982495597730773, 0.2468629671260414, 0.9033526090776578, 0.3407224350744975, 1.0643834312732856, -0.36223699656744035, 0.4460755663756668], [1.4198205262582673, 0.10649135644223229, -0.5757795720316583, -0.7286443257488994, -1.565323176668201, -0.9522316400237936, 2.0283741846942904, -0.1469643624691921, -0.721447817410499, 0.7011714428109793, -0.7635273711116233, -0.9779122789588741, -1.98833793703698, 2.3334252393957167, -0.076721684079196, -0.7670535171333617, -1.84351073693161, -1.7702043665616314, 0.19379215834259866, 0.12504481828419478, 0.6730334143407153, 0.8333267196623129, 0.31253495012274013, 1.1838754707893446, 0.26756968813865467, 0.673035135293089, 0.38564189543035815, 0.7093278782263488], [0.2993648397507528, 0.9658422038796364, 0.7756419056260198, 0.8187212986944941, -1.7542384538555833, 0.42319195182254404, 0.8765707861545825, 0.6575785547866482, -1.6630212201907144, -0.3620307770852438, -1.6894324412050234, -0.40837134225209937, -0.43308425734563094, 0.6387553353101598, -0.8604379432788303, 1.4334821244216682, 0.5383987846418372, -1.316258904555045, 0.6245300037630093, -0.8640915049175686, 1.2508949122560327, 0.7990521023750965, -0.41925615089200674, 1.881900412836724, -0.6971620430655727, -0.8694291298981589, 0.6157791904159862, 0.4328866154981892], [-0.11039800411486866, -0.28478540851596823, -0.12196727603770867, -0.23720895345371584, 3.320254177445987, -0.7804181068164346, -1.844181690371811, 0.8279324626720346, -0.7488808229505857, -0.4848208017114026, -0.46121634921616395, 0.5277588149750907, -1.5710874011534153, -1.7613641944723764, -0.1339214829480937, -0.7391334346824887, -1.7124768817315563, 0.4859518808024452, 0.9610750893931803, 0.8296082357302952, -1.937844517650358, 0.06856253165432058, -0.4204117067356587, -0.9030720270939907, 2.4436066551734363, -2.4585139087722676, 0.22974742042493754, 0.9588945862355178], [0.06583404423115535, -0.6766066899491538, 0.07156261918909274, 0.3636615812552224, -0.7193251072035601, -0.057897124435187575, -0.8072316600380143, -0.7995448702448078, 2.5412324881368615, -0.47090827638198185, -0.2920589343432316, 0.23478004056303625, -1.1521178141116475, 0.7276526175964494, 0.2508542209688256, -0.937769720684516, -0.8642227518243715, -0.5102692841816567, 0.2651382919299139, -0.6068442030005543, 0.12734884349662923, -0.3243061591771508, 0.2119014400768049, 0.9056514867619505, 0.08465615482892297, 1.5735877567324064, 0.6997361580986938, -0.10170689133586386]], "bias": [[-0.271423369342092], [-1.1748368380228478], [1.151807807265159], [-1.8895310430517656], [1.8535389729461982], [0.3643163290723811], [-0.6489634383626837], [0.42815656451748146], [-0.9822950204539447], [-0.6097032528735763], [0.1265373424349232], [0.6042115811041251], [-2.412884569111634], [0.9321184341234627], [0.009576990195864998], [-0.21275840817178726], [-0.3244762996867443], [-0.8730803914232717], [-2.5171910143293954], [0.07211533021217309], [0.983263716884551], [0.10656700107946349], [0.08550243151957604], [-0.9299503140633543]]}, {"layer": "activation", "activation": "relu", "activation_prime": "relu"}, {"layer": "dense", "input_size": 24, "output_size": 4, "weights": [[-0.9736391962314483, 0.05735954403326948, 0.21615892052996877, 0.9063549965536251, -0.29855990470912297, -0.5940423727160595, -0.446658068866828, -0.02702065215485927, 1.4736764800068145, -1.2774634828679032, 0.34202026084205595, -0.009695674246943842, 0.4718720377414549, -0.7020510159259798, 0.8728065043650388, 0.058394666979739496, -2.15912679474868, 0.08788147223063358, -1.0152236951886433, 0.8291332487518008, 0.3820718193777546, 0.13646317002285846, -0.34927613006145375, 0.1450769798592173], [-0.8451117461047515, 0.12527970119494314, 0.8194153932530728, 0.03419621316081989, -0.8600749815431734, 0.09267577571707147, 0.6588435907469636, -0.6138783158508561, 0.4869905243720297, 0.3025250417155574, 0.10968880692000349, 0.8842317870182295, 0.9428832044598265, -0.3378615084602798, 0.7748279275699856, -0.5568218694362376, -0.9656087341945423, 0.9519414032853859, 1.838502070132379, -0.5283436673531384, -0.6915114878375901, -0.7336484553987218, -0.4824902384911123, 0.7137642130628434], [1.1377357896613929, -0.9167554009105926, -0.18143770526751912, -0.2978540420403408, 0.6982117321917917, -0.0005839800053647481, -1.484736839349834, 0.7376502746629376, -1.8124259201876234, 0.14947977059258144, 0.4922112826315983, 1.0332046028486706, -0.4889918049999352, -0.4243934784619552, 0.6716298379690204, -0.8496330278731193, 1.1093061030687417, -0.12305757463394473, -0.4680127947278553, -1.8810499047891893, -2.2461190797616917, 0.8216202190055462, 0.8018441645402345, -3.166059653144124], [-0.7410245952535284, -1.650877183261251, -0.17146197822458642, 3.0891017694933955, -0.2114440787238081, 0.43049663707651575, 0.9676405188739139, -0.13368754562724536, -1.5486732230098745, -0.960078677968822, -2.177887559414735, -0.8825402275323617, -1.9650092113593531, 2.086779461431461, -0.6850335347416674, 0.79715479391211, 0.19566450825126025, 0.7392986250216118, 1.4611817480853626, -0.4905985622781879, 2.574622313697062, 0.7890748540335233, -0.46724313749424085, -1.245285809788224]], "bias": [[-1.961245429869991], [-0.13275067555005365], [-0.36652136178173356], [0.4561077992702822]]}, {"layer": "activation", "activation": "sigmoid", "activation_prime": "sigmoid"}]}