{"generation": -1, "board_size": 10, "snake_size": 3, "input_direction_count": 4, "apple_return_type": "boolean", "segment_return_type": "distance", "network": [{"layer": "dense", "input_size": 14, "output_size": 18, "weights": [[-7.379757585408521, 0.25142679515147653, -1.8714166733154831, -3.193297317207269, 0.9900502846087796, 9.182731982872582, -1.0491148569283, -2.685160329189927, -1.2074817302192573, 17.20289769917138, -1.676242945452318, -0.8769739045378904, -2.682513806301765, 0.7687200412480771], [-2.9819580056380057, -0.44763952206364577, -0.9882357863657607, -3.6608990099748664, -1.0828602711683868, -1.5889843733198585, -3.3165934709947344, 2.0378093737491105, 1.2828935257275698, 13.27118973477003, 0.23971404549316952, 3.5477438809817268, -3.0635022206039855, -5.517070417830129], [9.116879000990158, -2.127102492357645, 8.237528939871416, -17.477631155037372, -6.047673791703446, 16.88667930759546, -11.930169931617478, -9.911168530086236, -26.589942403903763, -8.301045537685496, -1.1836968119703133, -0.32713333794173755, 4.032367206762546, -2.288440800168808], [5.11384677866165, -0.950119590647733, 2.4505477202663126, -9.344871290350826, 1.4168490630382609, -2.0326464317478834, -6.393288027189874, -3.5919454603487657, 3.192488302461775, 0.8848386433112712, 1.3572372004022348, 1.1034163307621137, 0.1927986970762041, -0.9502555783135479], [8.107656065166195, -0.6928606734158566, 0.07300594578236366, 2.1890714326450826, 0.31129013425640994, 8.058591108640414, -1.7739416145981761, -4.053465335210441, -0.7687670133441102, 15.317917940739568, -0.03288841933759184, -3.949490885547484, -0.0015199871829725863, -2.84042430945501], [-8.95795232044974, 2.416752254420688, 1.2649472657142342, 8.008345219826577, -4.185525870639381, 5.165895110419301, -16.875222342310657, -10.354568138785703, 3.8615303793775766, 32.37128160476997, 0.28909194776833114, -1.325493001256734, 0.6792862674957163, -1.1299817584660354], [-10.59109339147573, 2.874448592056476, -2.7855675108172133, -28.692116626596977, 0.25547206092942903, 4.244640994054839, 21.8408398367728, -8.14735373451818, -6.292140265163033, 32.080852062647295, 0.3562338659279106, -2.2770597169194735, 5.633247434737091, 1.709469371899013], [17.830675601404355, -2.6301499651749944, 9.264391947251772, -11.74747404140613, -1.8606470072875718, 10.308984224207165, 31.65365013668951, 6.240536319414203, 36.01575509087569, -14.24881652597217, -2.1864151640412537, -3.270779827344443, -0.11908649071486133, 2.9421744007442197], [14.15581434471907, 5.0123740739731995, 2.3527338243897806, -24.48882124086546, -3.7748108747112887, 0.7296824494661159, 12.396303931727529, 7.955207467967002, 15.373059322321847, 4.980503524245185, -2.089007809281165, -0.5830762811190987, 1.625011526421389, -7.995775893029701], [-1.6123076753066152, -0.09352892714223576, -2.868732183553236, -0.9445029354264635, 19.477762871983604, -54.73214172154609, 26.62250452294518, 1.6345890550421742, -0.2317977364018219, -5.414172610569385, -8.087478174106321, -1.5600976067609622, 0.5381859300911143, -17.921019546242462], [-0.2942837505472319, 0.04776157072323956, -0.7386665863576151, -0.22961735887118515, 0.16030855196256472, 0.04863949713083034, 0.14631800922186664, 0.8269129619308244, 7.873503608753039, -0.9218122570683759, -0.5750848864267978, 0.606151413843732, -2.3276090288052207, 1.177673148080875], [1.1170696802875049, 1.4598707267960356, -1.481537559420276, 2.5516739069532615, 2.2567485691366684, 0.6457926056686283, -20.27470020466996, 2.937779878201558, -7.53919250314461, 6.387915329618508, 0.3987823345407746, 4.153874817900248, 0.5731868244448909, -6.075822338536712], [2.188414670108506, -1.3751981308307906, 0.8842090882286094, 0.5789629901584568, 1.0077347932308096, -1.4384456152807588, -4.861006348334836, 0.9318061773039144, 4.361393756934794, 0.7916341093192242, -1.938854041442599, 1.7301014587823926, 2.0845255812935997, -0.347149126726677], [4.452518955817423, 1.5642001132662622, -7.121964809203427, -15.399439737415605, -1.9732629672703639, -5.395735601908015, 15.960616857459202, -10.806532618425846, -28.85342264572492, -13.892571247461332, -1.7567142649922536, 6.707398717824946, -0.5810839824767321, -5.414850657435987], [-2.1814084895421604, -1.3661540490483535, 0.22522619021156387, 1.373276199091042, -0.8913830198046322, 0.01644289325919125, 1.1137617447408426, 1.522200367234334, -1.64542356982317, -2.3889971745451417, -0.8176969950575802, -1.8155191588102284, 1.3302735094663412, 0.2971479350372677], [3.5612218328368206, -4.409716973014285, 11.75882220149078, 0.22483472687901288, 0.06454718841394089, 3.3199609889630044, -4.146348594061107, -5.833310691149372, 21.088347065051494, -6.1014243969544335, 0.42756569589919785, 0.35221831452334423, -1.5167010930438967, -0.22613932413309368], [0.6736190308281262, 0.22620976797799586, -0.6988542621696183, 1.315009624639516, 0.15756113023326826, 2.637125301203933, 1.8645680009967203, 1.0115029574959573, -0.2850189096549266, 5.458719284373957, -0.4901460917978279, -1.7330860559102188, 2.194482856409275, 2.664551457581901], [-14.537419691956682, -9.746630847871153, 0.8131994731701829, 23.855194364077157, -5.1030536637750314, -12.006895861435298, 9.483991470245662, -4.297968851849134, 18.03627179112786, -14.97552813775069, 1.1457119392277082, 4.051453935569962, 6.480237744028487, -14.106757887033758]], "bias": [[-6.20263004682755], [-3.363436633272902], [-2.5242511277092765], [5.326313457979815], [-5.55078723497565], [-0.9422525646118961], [1.9154910832988514], [-4.615599852757709], [-5.469352869156525], [13.611392491234556], [-3.897686018916089], [0.9099453786994616], [2.528141583607672], [0.0985273783911847], [-2.6522741906346767], [-2.3454177627665667], [0.33602364103814203], [2.664642231089427]]}, {"layer": "activation", "activation": "tanh", "activation_prime": "tanh_prime"}, {"layer": "dense", "input_size": 18, "output_size": 4, "weights": [[2.996816760363708, 0.013837211759749642, -3.950516577396871, -7.873344544474308, -7.036800336438879, -7.1033282021969955, 6.860642522399212, -1.9558645160918808, -2.907004532816266, -9.231503154199226, 3.8357968202926673, -3.385904521598937, -3.3565654401986738, 4.032846602697142, 3.6932987792708327, -3.60390416180437, 0.5955271284723563, 0.8330238043753173], [12.009677700655027, 10.86695968401678, 9.786008250871749, 13.641272048984112, -5.631719877064959, -8.05606913210056, 10.111619422958537, -11.419239118390399, -9.778156899772958, 7.852953479432525, 14.325454966119462, -8.515804153119802, 7.817518119158012, 12.305417087845239, -0.8826751255144414, 5.028061416608541, -15.81705080509907, -11.478629000983945], [0.42707847899833246, 10.63922592130612, -9.788792822555877, -15.272779390614598, 6.168884314077935, 7.974444010795421, -9.866571498589444, 11.442617057337928, 9.226341192194054, -7.607126683082361, -8.203625323285682, 14.719874388287781, -6.471737613774716, -12.356526837235561, 11.71563416393331, -4.99674525748755, 2.4978033986796224, 11.140877209382444], [-12.477167795320725, -12.40885867336481, 13.584966590882347, 9.743153246333508, -8.338882604187678, -6.862318198198201, 9.085543359331416, -5.379376609618808, -13.233490787877665, -8.61710196403587, 6.501262500712533, -5.169270735742059, 0.16837380808684313, -3.353487650901395, 1.281490553388957, 4.319972136460924, 3.4829216565607997, -6.611436196558247]], "bias": [[-4.447987758628336], [2.6716032986414966], [-12.935692076994458], [-2.591062724163824]]}, {"layer": "activation", "activation": "sigmoid", "activation_prime": "sigmoid_prime"}]}