{"generation": -1, "board_size": 10, "snake_size": 3, "input_direction_count": 4, "apple_return_type": "distance", "segment_return_type": "distance", "network": [{"layer": "dense", "input_size": 14, "output_size": 14, "weights": [[-0.2963311967002742, -0.8159670025175811, -0.347314990550774, -0.5314842513788657, 0.1951112106337479, 0.7207648226452914, -0.8963604940960931, 0.08266486971188355, -1.0650180887132583, -1.0153971610310812, 0.45400947194793145, -0.4086478020849289, 0.021686864970478215, 0.19577202889795356], [0.2686543837514313, -0.05292941301224237, -0.16020195824726516, 4.33486951858764, 0.3734389680271324, 0.8703406620788304, 1.9070449445219813, 0.8924727192686042, -0.5063793218790018, -5.050086436158863, 0.8732365451351558, -2.116658968173896, 0.8374788461430007, 2.1680195976606913], [1.1006312941088285, -0.9628712389179582, 0.7505573075544383, -2.8289864830890834, -0.10109892459786964, -0.38631655846379215, 1.743684468401685, 1.3307408502493379, 3.3400621774007715, -5.946952716618952, 0.23544521292673293, -0.011936975292144051, 1.2213655569011506, 0.9423746432761267], [3.589292910153692, -0.03153620735680781, -0.29646323789203227, -0.7577690194101816, 0.4806539898455142, 0.31262697638986237, -4.362231694308274, 0.8802566538217805, -8.00292126856091, 4.148399201287217, 0.854887582462288, -0.03830317003279253, 0.22992912292752357, -1.6250725937530848], [-0.6636597430048412, -0.5815984388423132, 0.7665201681839979, 1.0941871584620098, -0.04862951304332788, 1.7261144055662243, -3.1490217838399817, 8.763177650344884, -0.8380152789511521, 0.6338191200157882, -0.7334396645351603, -0.599512598808073, -0.4720898976539848, -0.6022787809694283], [-0.1729076404773089, 0.19937590165312974, -0.5023478073274316, 1.6766245328113945, 0.41328792942063086, -1.4759324004965637, 10.648695556879726, 5.680909285913389, -1.1839014068692288, -1.8276215989304199, -0.3749496352692534, -1.552466634335053, 1.5917238051304576, 1.8330120679365751], [-0.20618972773221675, 0.25753082256451765, -0.4584707242472455, -0.9805480075451193, -0.34952871359153237, -0.9219984735960636, 1.6275690657640294, -0.909546642119688, 3.0911363118673343, -4.388281069821296, -0.7588597769316016, 0.31730344652449255, 0.14166230997919588, -0.6069171868321184], [0.6685296369300556, -0.8095377623301426, 0.3518034734099616, 1.159886390758076, 0.8892144685567608, -1.1039782526283908, 1.777740311498297, 0.05221341777787846, 0.11314547931441038, 1.8179970685304012, -0.35519268529810316, 0.5331201004593331, -0.45402739645923634, -1.210082358438054], [-3.887225395202064, -0.015666027526489188, -0.7932707237597199, 4.941990866373043, 0.29020191616223473, 0.5416849769181682, 1.8870857190841308, 3.5429273048267245, -1.4459596111341786, -1.0933367255293496, 0.25534039712961715, -2.0671854098354974, -1.3666059385819087, 0.06543815119767649], [-1.7801734297678948, 0.1421403286134644, -1.4284462764708448, -0.17338513603968078, 0.5770001223875283, 1.1757908039878648, 6.600992821469988, 0.3833524398704168, -0.14789342553823445, -1.319278921486573, -0.9265405707598049, -2.2050139538113434, -2.4524096677667497, 0.6927554495351032], [-0.667293466622128, -0.3432920100023912, -4.230578848871485, 3.9208150473412333, 1.2194046797365246, -0.8622563161242037, -2.786568010099557, -3.6264176906833603, -8.699494806972586, 1.2996610500023162, -1.0530965714337976, 0.1266671368760212, 1.0208854485110457, 2.040517887826654], [0.028432577661539064, 0.6131771594381075, -0.8491479677967181, 3.1821339080116164, -0.9275687762789602, -0.14149428906254458, -2.1958541206837072, -0.22198815612627254, 0.3383623798759187, -1.4337163627121021, 0.3001508718745072, -1.0619980219290674, 1.1003121501142619, -0.41484621777116065], [3.311517320437287, 0.6150369009717529, 3.5477808414953995, -0.6290899956845045, 0.19969635229366667, -0.8307374504377179, -0.3244270912505922, -3.9117467310516014, -2.753751429112417, 4.34082948846321, 0.5828509878637477, -0.3353149765403027, 0.0018219418315610898, 1.7214474480358426], [1.2284463662293221, -1.1283348507074613, -0.10912299392952793, 1.536370360439262, -0.8678075688149304, -0.7123969822506222, -3.0760429462784646, 7.335073649320413, -0.5742399264868255, 0.27032359924024607, -0.5429470378859135, -0.9189302774353528, -0.0706796448518267, -0.7350610521660322]], "bias": [[-1.3579108856081583], [1.0619975718105656], [0.7975282046440293], [-0.14704089359542877], [-1.3632307690687833], [-1.1422936444322738], [-0.9894610404239057], [-1.3851148382926788], [-0.6878193315784872], [-2.3928829625197947], [2.6016300703752306], [-1.4659381464001964], [-1.9518421992538657], [-1.18280196088649]]}, {"layer": "activation", "activation": "tanh", "activation_prime": "tanh_prime"}, {"layer": "dense", "input_size": 14, "output_size": 4, "weights": [[2.3380056083740666, -0.12217893176203057, -2.034282471844294, -3.3874448635626853, 1.0299279963752237, -1.5554934789847132, 0.22284901931618786, -2.4405770426271807, 3.7157981266937075, 4.709337344545933, 0.4298653202810313, -1.1087005299964585, -0.6145828848494505, -1.6307122514130095], [2.199566334480721, -6.171434738028656, 0.6332349561691784, -3.4937885453493913, -4.7136552618193805, -5.445076966529188, 3.4707724267698032, 1.565809891531765, -3.3514263428597806, 5.284108426074478, 5.482193087355312, 2.1587122733370516, 4.974611077427106, -2.1307514932124803], [0.862775969410997, -0.8586416665893275, -3.750293473665974, 3.6464749084406476, 4.483098409457817, 5.956039833031897, 0.13778121222873455, 1.6611257699528386, 2.2344325186978367, -6.485959874799316, -5.6587820099371955, 3.875827995236313, -4.746416065837878, 3.3894288339898884], [1.4219223284051037, 3.4818230839313316, 4.410920371047811, 1.6363183241305428, -0.8090015590862574, 1.097852889963305, 1.5193656374062623, -2.786770780811932, -3.417813052744695, -0.11750734809168474, 0.05042144745765164, 0.7935655000861174, 2.0923463362982133, 0.03694877264150605]], "bias": [[-2.6400998593907326], [-1.3116019320338268], [-0.5140494654350184], [-0.8876494568819665]]}, {"layer": "activation", "activation": "sigmoid", "activation_prime": "sigmoid_prime"}]}