{"generation": -1, "board_size": 10, "snake_size": 3, "input_direction_count": 4, "apple_return_type": "distance", "segment_return_type": "distance", "distance_function": "chebyshev_distance", "network": [{"layer": "dense", "input_size": 14, "output_size": 18, "weights": [[0.7776855608348374, -0.008401999963709716, -0.3884716096402947, 0.23557167947752156, 0.3230154947629744, -0.11180025478176181, -0.6970522301500628, 0.8139573490656589, 0.9151723625896737, 0.877515841992913, -0.8511011899901486, 0.2992855457385628, 0.036088564651869826, 0.18210650164331277], [0.6764272365314714, -0.5782407541565138, -0.17105241503735757, 0.4483547312150451, 0.9657721369609933, 0.07164943705532378, 0.3850167639598434, 0.1494270058437932, -0.3936511392053508, 0.6618316901416705, -0.3963871057607522, -0.90780488185694, 0.31524481880619004, 0.5789713357855961], [0.9105838797998116, -0.3872677490347818, -0.047063127333085784, 0.8148378193291801, 0.44301125987987144, 0.49256752112834046, 0.9173204353440692, 0.45613633737990966, 0.6243993101283218, 0.15501423080496482, -0.8155504752319367, -0.9623971253580785, 0.5630236748211328, -0.5769848561579021], [-0.3434350583810438, 0.2736381365455025, 0.7071204328110055, 0.6178197235498271, -0.9295909237186839, -0.14037658103167217, 1.01555720887499, 0.1839378150744646, 0.8390233969385312, -0.5969887319352348, 0.026790675267457376, 0.7519230417181153, 0.06652291625694587, 0.16413790700853093], [-0.36284869085293536, -0.7681318885010653, -0.4171136783190186, 0.4996869257532135, 0.8629535639925769, -0.6441550832146936, -0.44385639598026483, -0.1933789649846238, 0.8283331199413713, -0.4407982284411147, -0.8974804798398428, 0.1637778675539776, -0.5637973963302714, -0.2598912197077472], [-0.47109179956140523, 0.12366098399890402, -0.7862947554296664, -0.5628663173542483, 0.3414601774778341, -0.7967216336210972, -0.4057944266025695, 0.9417066887863492, 0.8525392820431743, 0.6031242556511023, -0.9600302054161309, -0.9683051367681892, -0.7884885416757563, -0.4429805688307571], [-0.059054686229884176, -0.37168398833577565, 0.7118199969315945, 0.7837130968360179, 0.09059726574727578, -0.9808148587603578, 0.9690774851607519, 0.39872850182886066, -0.7953189673230201, 0.22010616191958926, 0.7530822828136408, 0.6216941611862647, -0.5512760292835105, 0.21833044083529374], [0.3664052852038491, 0.4208473751954227, -0.606558188903868, -0.8857505960599197, -0.7743009293813414, -0.9748443828461768, -0.7149810481981946, 0.4754455944977549, -0.2723352641775254, 0.07695869464753646, -0.5225875567883855, 0.25107336105804023, -0.633163016341763, 0.31208551419153374], [0.30750611892168656, -0.5986422607648849, -0.5511597084635218, 0.7193809418397634, 0.3615755236770095, -0.5174404562047068, -0.8075004958932364, 0.7539103116260397, -0.061382116243086315, -0.7207082990193683, 0.23166583277117025, -0.1551891789265416, 0.5375165535050168, -0.09561386970935892], [-0.5801983706027676, 0.8655649502256397, 0.18891979864802155, -0.28264604139141003, 0.8157574467107951, -0.8256286348076449, -0.2622040952067486, 0.4700722335201979, 0.5813127540718048, 0.586648275360375, 0.3695817753002444, -0.26651667426570635, -0.8618449047324737, 0.6978330012148424], [0.86784553494344, 0.9408245576142404, -0.9155626512940858, -0.4602152726941382, -0.2692363344615174, 0.009036562531508086, -0.08079918578251832, -0.36018804741794663, -0.08289174633596308, -0.07746304210714894, 0.4517920028437794, 0.4360780772025268, 0.0067802371010525775, 0.4709550522375623], [-0.7919453214918866, -0.3241550213142721, -0.4710148561470813, 0.7284532974545157, -0.1992845185354566, 0.16977760178466528, -0.4047044944508824, -0.5651046334307346, -0.2052923214184048, -0.6990378539683715, -0.45061738157733533, -0.11929339806072936, -0.4905821520129092, 0.11728731489921129], [0.35343986914130815, 0.20088953981979274, -0.21549762493177305, 0.5434514671099124, 0.9782593780260778, -0.27377639426307154, 0.8056626171812329, -0.43448461876273003, 0.2870847330092692, 0.5722055138708417, -0.046337935920523377, -0.7746272594359227, 0.7690513288569913, -0.7669958354110462], [-0.5730202201513832, -0.42085099958934746, 0.47626280875540183, 0.9011081288426213, 0.7462971730949479, 0.17744975826396225, -0.5899859939093854, 0.9227129469807924, -0.5994757657643486, -0.8290090263569261, 0.49428362846700424, -0.39751837052391936, 0.461862633081474, -0.439567585131055], [0.9323444819811468, 0.43550467846031093, 0.21539514266955687, -0.17051563117712362, 0.018115103241037822, -0.6455212171346838, -0.4178605039585264, -0.853736948658455, 0.8208420273961634, -0.5888551861854019, -0.5194893741209452, -0.30422675663273235, -0.014796927733929823, -0.2005602687651522], [0.1195348638865883, -0.7575559928808699, 0.28938144934601673, -0.3239289783814856, 0.7138662140617147, 0.12358070883546168, -0.7738093003938049, -0.6670526052038772, 0.884777290137047, -0.8856633098639095, 0.5470384248587228, 0.9892136661970818, -0.6248785435124109, -0.026993741456472486], [-0.47229204373619327, 0.874901296387701, -0.24848020819188688, 0.5628324708796855, -0.9118986444654633, -0.6639939672513633, -0.338232515044933, 0.3361954368934954, 0.6118079849650471, -0.17971413172449835, -0.017016007486218898, 0.29482191345623376, 0.24401316684781627, -0.293112173652202], [0.061514133627681655, -0.05089429201000861, 0.944157288464269, -0.42394312835568715, -0.7379299134890407, -0.4642383729643227, -0.8846196954726384, 0.9836729868334226, 0.5687684682380876, 0.1495508425283707, 0.9677368842691283, 0.2247177149454318, -0.8014749130442134, -0.10666968576696023]], "bias": [[-0.6639309445762056], [-0.26555189364901466], [-0.708469678036199], [0.14335137229224199], [0.16940928205536854], [-0.9754456224787331], [-0.4115926849085361], [-0.8995390499502125], [-0.27094264142778], [0.8945927089804118], [-0.9630127509220772], [0.10044227413141682], [-0.007024615880879094], [-0.4367185773440271], [0.47685373021885463], [-0.7001814567870817], [-0.8306069757835621], [0.3022043798685303]]}, {"layer": "activation", "activation": "relu", "activation_prime": "relu_prime"}, {"layer": "dense", "input_size": 18, "output_size": 4, "weights": [[0.13171244345768907, 0.6236477696965266, -0.512307335509804, -0.27190021807348336, 0.8610703504405168, -0.7032968513545355, 0.5276518077579284, 0.7770751550087167, -0.4205274072196328, 0.9955730778037062, 0.6552001139951757, 0.33782148510655485, -1.1054654234760526, -0.5059926263752299, -0.016490520790120804, 0.17725110804484112, -0.28925035959312284, 0.3388341837731672], [0.9862929660528854, -0.21779025537159016, 0.024576526661458785, -0.5878660565755212, 0.8188735497060715, -0.911155438646079, -0.46312275172611933, -0.09167173735365663, 0.824630592662128, -0.0909142035566799, -0.666331477351459, 0.6248357257335297, 0.232806163516326, -0.2689560548834378, 0.08277904803036878, -0.3975044920713027, 0.08282385288246319, 0.6178635474894241], [0.9106063656741488, -0.22250277684594136, -0.6750657274657222, -0.42881981966847726, 0.946116951231057, -0.97743310926682, -0.675239126941219, -0.2734578550667195, 0.713247945772929, -0.6014153439269343, 0.9775701507520629, 0.8048587184590315, -0.6407271015031547, -0.35229790843013586, -0.2869710751258259, -0.09669485489129226, 0.9205349290552356, -0.2843665290060906], [0.4357084949323673, 0.2808873580559347, 0.41659422170743743, -0.03407191521095237, 0.26997014537897823, -0.36421587055464877, 0.14570503769034668, -0.7778911988358568, 0.9179056458514145, -0.09292592477175154, 0.3092380184440724, 0.21356544806741584, 0.9768999487757433, -0.5176069957341772, 0.4618328986458977, -0.2507331081523163, -0.9413445382719254, -0.7929734165801681]], "bias": [[0.37122190783761494], [0.2550286266938793], [-0.7583828642541204], [-0.3849682350791657]]}, {"layer": "activation", "activation": "sigmoid", "activation_prime": "sigmoid_prime"}]}