{"generation": -1, "board_size": 10, "snake_size": 3, "input_direction_count": 4, "apple_return_type": "distance", "segment_return_type": "distance", "distance_function": "chebyshev_distance", "network": [{"layer": "dense", "input_size": 14, "output_size": 18, "weights": [[-0.5045683572580686, 2.153023217939555, 0.21386271288931444, -0.4488928731457459, 0.7711768799803019, 0.697278303246551, -1.7335761936064933, -0.2914377938847173, 0.04239476420671289, 1.41280252630106, -2.7722907368683143, -0.17017930592737662, 0.08389297422378277, 0.378035778202681], [-1.0238086153993677, 0.6865812575898718, 0.40118937001350136, 0.7815961116765932, 0.5880229710610247, 0.5206113326525239, 0.561213576271417, -0.36880247190117277, -0.5644629131690729, 0.010591404114891187, 0.7721910130274601, -0.40497335064683315, -0.9973453812780284, -0.011259879763247719], [-1.0248634935386618, -0.546214409777838, -0.855761507345008, -0.9362039973572933, 0.5006115619494762, -0.1721571931375312, -0.5666477957369483, -1.0768083909087816, -0.8614111956347029, 0.17183658283383327, 0.958504111055878, -0.6510818801539533, -0.4901179020004731, -0.9331273893210649], [0.7241135566489868, 0.9501773789629037, 0.574294996661124, 0.7628138034629387, 0.8878936834419994, 0.25375037449091814, -0.2116738979884888, -0.5343927734718492, 0.9784549242340512, -0.9250379443326303, 0.3134398544928832, 0.5835172483191458, -0.4835058730091548, 0.6012556128842506], [0.9364739339827177, -2.3587746892667103, 0.5234111924476539, -0.7220986810095544, -0.8121784880778553, 0.5810375549280082, 0.4753992489632688, -0.8121626946964068, 0.7377832222271717, -0.5810826579189159, 3.8328800253049606, 0.7360834280118775, 0.8518574936476369, 0.5318755340388593], [-0.3790271822978273, 0.6768521350981708, 0.28513402454914294, 0.6534939578804427, 0.9385177925172293, 0.6011128483354214, 1.027448821937189, -1.0816343560383557, 0.9028569149017104, 1.4381910144822874, -0.7568557612140844, -0.9526971299239382, 1.1631435990071493, -0.5429471657936668], [-0.20229244425920082, 0.43444848446912715, -0.4167899219996407, -0.3497132573277864, -0.8831260116446515, -0.39159694829761105, 0.5188770611341638, 0.8686105419430438, -0.07020353871811012, -0.5425908030687413, -0.4616733754206786, 0.49707700800564636, 0.10963277561423941, -1.2482830619660619], [0.8318017546101469, -0.8031029662607221, 0.7317778626122348, 0.018223791062928856, -0.4501424876911957, -0.6857251703355721, 0.1259478160264255, 1.5611503409078475, 0.4387270408232101, 0.9352186105583804, 2.3358326043222286, -0.36188348434625217, 0.35728006837520165, -0.777733651506889], [-0.48311585614729846, 0.2789639473994555, -0.735280903604252, -0.13368678294169642, 2.4773157255776197, -0.27135942952763253, 0.0004014798461285042, 0.7995434903657208, 0.03620806510340998, 0.2565614174298004, -1.9166641671696176, -0.006057364830373002, -0.4065831185737688, -0.021399845891325663], [0.8551473754303992, -0.5522992583223378, -0.5644749842340153, -0.9868974837982731, -0.07475279381897362, 0.0367664346267294, -0.6180383576475592, 2.3939913819654244, 0.43066778827420893, 0.8233178008301798, 0.6346822185271535, 0.553349787638453, 0.23438781866477298, -0.2641569081650347], [-0.20224256888649755, 0.7117283153967445, -0.9704237819556734, -0.3948544436226083, 1.0831132587224626, -0.038253355311260534, -0.6534171588396082, 2.1546398576115715, -0.21882524312002077, -0.7748576527788099, 0.22778354129093611, 0.5256824143202756, 0.42759734656115594, -0.7219791376817976], [0.24909173154157327, 1.9168010434405383, -0.19208791321177104, 0.076333049542592, -1.6627730906246443, -0.01533176871733861, -1.307902328664373, -1.6611541143893662, -0.4211156343196313, -0.5319314574751048, 0.06671010209984209, -0.9343110486708899, -0.20564094346626277, 0.33643077833833446], [0.9533121323470369, -1.8141563548714084, -0.234124388239095, 0.3806027930489343, -4.5353430914293815, -0.2624915986291385, 0.4294099490583964, 0.10878662392581129, 0.032928254219369055, -1.7353433128567444, 1.9031564835031223, -0.7101439421051856, 0.4633361349881104, -0.25729348523910595], [-0.48185655439182207, -1.1374849298449006, -0.4652506631912314, 0.3484872950341808, -1.3241176630203064, 0.2080801614029055, 0.6681365181412916, 0.5458457832040735, 0.4176557219796643, 0.4511923901698311, 0.8373765567731117, -0.38690327849278505, 0.1846179792332539, -0.639290200297978], [-0.055169929923185326, -0.12242772894770705, -0.08481189742609778, 0.8863763314119294, -0.5715551600042402, 0.5906381497176506, -0.12619679609614368, -0.8138670446378732, 0.3373223546382939, 0.35269742753098016, 0.48466996639676596, -0.5221287937296186, -0.4532413405598743, -0.3161444238604009], [-0.8452491667264549, 2.7482203485447267, 0.5478834482288629, -0.41293769414757864, 2.3133833403951347, 0.07861020604508134, -0.22090300098303792, -2.609788873748624, 0.5769117087761676, 1.8964165399921091, -3.5053464843598308, -0.2886551100829957, -0.4937168052665933, -0.48952809286961496], [0.7887943869040764, 0.6565597510908949, 0.6354970608123985, 0.8104298401133494, -1.9819256184202239, -0.42540809135791313, 0.14627829489870015, -2.1943586316364287, -0.664025576890014, -1.325977570337438, -0.3589640244378147, -0.8733979446425424, -0.3627234531309966, 0.2901341135072697], [0.8714144799924992, 0.7015041532652198, -0.013366325074095785, -0.84572133182994, -1.33459550803503, 0.4222473928025036, 0.6300440810444645, -0.46717681222247576, -0.26188975102192047, 0.12186684010165696, 1.109506092554216, -0.19789929960976282, 0.3626230990295473, -0.12291460229664164]], "bias": [[2.85177587426665e-05], [-0.47945491103939974], [-0.5879695372000464], [0.3325469192463964], [-0.38455728058932487], [-0.6722354696742616], [-0.402882704664787], [0.31284946804496233], [0.1600571022725887], [-0.43514827872299705], [0.6518929968188865], [0.3342753282858357], [0.3663406687980616], [0.26697190193792747], [0.6682007681250353], [-0.15554242907757906], [0.290354212150816], [-0.44534546074474723]]}, {"layer": "activation", "activation": "tanh", "activation_prime": "tanh_prime"}, {"layer": "dense", "input_size": 18, "output_size": 4, "weights": [[2.3733441755141453, 1.0734569479315668, 0.41072134874521904, -0.9773017149476929, -2.850022873736613, 0.1469869351304222, 0.928088202918251, -3.0189719103038457, 0.8513981695925654, -1.5346073086797598, -1.2349905043715763, 1.849263833489448, -1.2737532956758044, -1.1797609142524055, -0.11537886086845117, 3.4613266046913806, 1.53633839166921, -0.7206803943782742], [0.09429290707544422, -0.7762738669740071, 1.082154568761321, -0.8872343228700713, 0.5927796132315936, 1.4702861080105585, 0.9021276290801283, 0.9823170522714709, 1.1366713786310898, 1.3610367025715007, 0.5062644500118058, -1.6972845376141743, -3.408440812937765, -1.1620427694744913, -1.5993329016321216, 1.435465110803136, -1.9229854280315228, -0.653811446797535], [-0.048887958384278396, -0.40509133555917837, -0.32175664585470043, -1.723650915324433, -1.4899083917654294, -1.0371418128077545, 1.546955700910755, -0.08137078029734236, 0.7068948947336036, 2.043373643139514, 1.838573176501547, -1.3224529977995159, -0.3316229284867934, 0.5238637002458743, -0.01929178746376391, -1.8370621023210398, -1.4901854494051407, -0.6122121976057574], [-2.935270689633742, 0.0367616614348788, 0.8920920843057105, -0.8478838462679441, 3.127909117172375, -0.271194373168642, 0.19205984389248482, 0.5169617149680795, -2.3541055742415966, 0.13969805037121943, -1.0758310767574948, 0.15678038248236215, 3.5451809452225413, 0.8044125544487126, -0.4806636567767706, -3.5524520268416375, 0.9664955327554406, 0.841813508658324]], "bias": [[-0.02108183473736003], [0.028388993676514405], [-0.3432406007555728], [0.4910041435777386]]}, {"layer": "activation", "activation": "sigmoid", "activation_prime": "sigmoid_prime"}]}