{"generation": -1, "board_size": 10, "snake_size": 3, "input_direction_count": 4, "apple_return_type": "distance", "segment_return_type": "distance", "network": [{"layer": "dense", "input_size": 14, "output_size": 18, "weights": [[0.4830989596705164, 0.9306662029233994, -0.08170685996387861, -0.6054066513604535, -0.18414870506176384, 0.4913052806769864, 0.49453887450438855, -0.742105412062894, -0.07954867392612057, -0.20741737398965873, 1.9775380662994937, -0.33657150265718183, -0.47454003277332757, 0.4314024476327033], [0.6287142144416984, 0.9633868268502879, -0.931544401149673, 0.6901107819942268, 0.8776173048184028, -0.037675964572230436, -0.6780000164716797, 0.3241947752914003, -0.4222458030130707, -0.3119253465191358, -0.8083572130668488, 0.9823150980447417, 0.2627960518083332, -0.3963970132540391], [0.26194935851744705, 0.40054593514550585, -0.47754353317987897, -0.9068372876837822, -0.17695703419811504, 0.40067406677765094, -0.3766633842109264, -0.5657176030706486, -0.2584140735674587, 0.243377721356264, -0.3463880787207869, 0.16414466419532436, 0.9082724564132376, -0.12125832511488555], [-0.32528423290637015, 0.678749514142015, 0.645367750693996, 0.08004129238315574, 0.7559059318410126, -0.6716125466583616, 8.63691445167812, -0.16131789284767928, -0.7181672080816379, -8.384458348181756, 1.6658524471048313, -0.11190485388865357, 0.9879948540300693, 0.7938469118663676], [-0.4269851856995601, -0.2575326068523507, -0.14055098969896895, 0.982100936632907, -0.5962940289417427, 0.08971472425149463, 0.8883759830965625, 0.13947548416086364, 0.22956539542955356, -0.8635252027996636, -0.5171180843728951, 0.5222138574936748, -0.940396280074832, -0.21110199538998864], [-0.603442777089109, 0.2882673480724003, 0.887633912876332, -0.2444358320872381, 0.16226718077619795, -0.9214694730064039, -2.8640201380894683, 0.6567405574103558, 0.35304031963779, 3.0149780919811833, 0.6331862304298327, 0.15854450659546981, -0.8279213145268616, 0.5866473485338609], [0.7979665098514928, -0.36464209801174396, 0.5032825827435483, -0.057876836202374236, 0.25745814953914925, -0.48659023359484177, 0.970559310382185, 0.35829697917362746, 0.3633290492690153, -1.896162415978487, -0.8880306414052632, 0.5472691186066598, -0.02658108394640465, -0.8777512854090973], [0.3952268411066717, 0.5760035155951928, -0.16607319853949187, -0.8353392139673566, -0.3875668931260974, -0.6341427528900732, -0.8502160391537954, 0.9383172238196897, -0.2957802386987034, 0.8800393206200174, -0.16497695103904197, 0.023568428083855508, 0.04817103820451263, -0.5484818349199161], [-0.32758692621591956, -0.5252665683417062, -0.5177495567163238, -0.7867304626709294, -0.3589050723075844, 0.47191979570547304, 2.0474768294808317, 0.8166477873006803, -0.5420534600413838, 0.12241170591618425, 0.007724707169693444, -0.5059630937636583, 0.3338729715258101, 0.5948989958538826], [-0.8230142000391939, -0.464537417754471, -0.6631929032950872, -0.6077579499649097, -0.03201300356790493, -0.3946486024925746, 0.358275069409834, -0.6673740827314376, 0.3149866645995492, -0.7377700922905133, 1.5548726178449366, 0.007858683316701809, -0.6353076674057985, -0.08704202477791127], [-0.6896718540364203, -0.2659451208703796, 0.2016698802196797, -0.8203894065901782, 0.4187990304485829, -0.7442933745975568, -2.9105359546071705, -0.23933762967504824, -0.05328613401173708, 3.823921645913773, -1.107829381238446, 0.511898345117487, -0.8082990247197017, 0.3175356612203343], [1.0074038590512717, -0.017365114674855686, 0.5873397293036295, 0.9767361774992329, 0.041736292166591804, -0.4042506119578404, 0.24636478212864474, -0.8472199621910947, -0.10935238965654337, 0.28961587006197104, -0.4931420013954005, 0.8750787470905912, -0.048844606359175126, -0.9824371027475252], [-0.032601222788238716, -0.1353800618885055, -0.7480254403393984, -0.1996926669925277, -0.6271073469525734, 0.7057452178442649, 0.25200974300703377, -0.07954138110754938, -0.8869838754093221, 0.5855482588548531, 0.5056362784132584, -0.819166861373092, -0.31433436049482266, 0.5029126286402346], [0.7805774806150061, 0.8338298108769397, -0.44833355299277505, -0.5933870401157377, -0.24466021988858655, -0.4641408960752158, 0.6433574005490698, -0.6624192868331067, -0.7245046825379491, 0.41214637275148425, -0.8440894648883744, 0.9182904674086161, 0.39749238972253637, -0.3602459195737082], [0.7856036097750156, -0.7978150919749545, -0.23436627472218752, -0.0958547408534105, -0.13747825658544355, 0.6132529475168198, 0.22760443104698846, -0.10908242217251662, -0.776672436418341, -0.056795458444653724, -0.7758907891175966, 0.16388792077765646, 0.43119616503871616, 0.7968121504540089], [-0.5785465733332971, 0.0634488111150957, -0.7769556254425332, -0.7185376457129827, 0.3768716202565765, -0.9100244760342808, 1.153519281792968, -0.8181005441781473, 0.31079659503918683, 0.3419015392795162, 0.7704245000269735, 0.17478503825680547, -0.520639905614293, 0.44345053020839725], [0.09143147340068533, 0.3674682411580501, 0.8057409249192669, -0.6729972628050038, -0.11971495335440441, -0.5998368653173638, -0.7873692538827222, -0.08294747307705963, 0.72410286811366, 0.8782364895348639, 0.7378015026693784, -0.9320575392338373, -0.3449867940007927, -0.8583854254307853], [0.19548084775029273, -0.6038581556323295, -0.6953790991694082, -0.625915025166538, -0.17226708270453606, -0.9710849596922211, 0.47528377622520224, -0.9432632165306436, 0.029403253129625995, 0.14191501641479598, -0.34907893497058784, -0.3933673256476007, -0.9086245589438322, 0.4050804606490246]], "bias": [[-0.42228076668576964], [0.7451386981356894], [-0.6297289911594257], [0.18378453278021603], [-0.5892541102895104], [-0.1559015814000707], [0.5779011731205993], [0.7487558548873436], [0.8684734759862394], [0.07895412920797128], [0.3532573145077761], [-0.31386871375430136], [0.8570144576547191], [0.5980979875274995], [-0.9219244135340234], [0.6645041376298519], [-0.23479066387357778], [-0.5156059736789882]]}, {"layer": "activation", "activation": "relu", "activation_prime": "relu_prime"}, {"layer": "dense", "input_size": 18, "output_size": 4, "weights": [[-0.9952586404112321, 0.699773075925284, 0.45004502521276546, -0.7285017378235675, -0.8311866171569691, 0.04650791098708631, 0.5556106219545017, -0.12361899538798449, -1.040715741268767, 0.5709091340462019, -0.43423482812875125, -0.31635612106306177, -0.4831302899491323, -0.046347126772664275, 0.312405677755369, -1.199224334931892, -0.4420378978186634, 0.7494516186765259], [0.6540812084223865, 0.7592842156881551, -0.36814653668838027, -0.7432355182362779, -0.43477231701732544, -0.510612423464058, -0.32115628375420396, -0.08664672455281486, -1.4832899732545286, 0.5214062829988194, 0.6616596554222229, 0.7654951671697267, -0.6179808152763986, -0.38732706436834874, 0.8496671062431875, -1.9044771701493401, 0.10379801281711414, -0.8159666824807252], [-1.0508479339016366, -0.28577551134791424, -0.22050396729025423, -6.252377589955354, 0.08350358634149968, 1.86383630537701, -1.419933623417654, 0.11759285368801664, -0.03192248075225556, -0.7842366862913404, 2.8568425979556125, -0.6595286964998431, 0.5093945223614372, -0.9464909137254969, -0.24549639434984782, -0.4845488211236735, -0.2547884330186694, -0.41582193917598387], [1.1810374278157638, 0.05160503127139759, -0.352369564932578, 6.290496938965805, -0.2740024414847577, -2.4816131485916033, 0.6918787968543579, 0.13284399125385282, 1.297470014834864, 0.7368871171180624, -2.142737022777185, 0.6447152605684109, 0.2180387763737863, -0.33932017326786573, -0.019181964155740028, 0.0174761394335942, 0.059015043350576564, -0.2641015159850171]], "bias": [[-1.3530738375636837], [-0.10467783233575069], [-0.42643313645644215], [-0.6778353539788511]]}, {"layer": "activation", "activation": "sigmoid", "activation_prime": "sigmoid_prime"}]}