{"generation": -1, "board_size": 10, "snake_size": 3, "input_direction_count": 4, "apple_return_type": "distance", "segment_return_type": "distance", "network": [{"layer": "dense", "input_size": 14, "output_size": 18, "weights": [[-0.7884992135291082, 0.7493567939344534, 0.11309470847904611, -0.48313092236974076, 0.47973138892030276, -0.34435391809747373, 0.18008084055793044, -0.5426948257712166, 0.41190542171994526, -0.6607395950769007, 0.9828975284393267, 0.08205710040494878, 0.4880001634200526, -0.3742340703489787], [-0.4675192289560397, 0.25070748983865015, 0.3247854166733141, 0.7625911804755515, 0.44529463143757453, -0.05998611612685644, 0.1492297117228021, -0.32377334100825444, -0.09960189287926237, -1.0993391523120166, 0.9515210035227546, 0.4315818053987175, -0.3041045042560992, 0.3026546993843766], [0.16642717473040602, -0.22948364474864805, 0.35033794262432344, 0.20418089795706576, -0.8145976510965657, 0.488218685094474, 0.7639560772430507, -0.4411290292105174, 0.5468950346382827, -0.33832270198943404, -0.11907556526827956, -0.11938565541447478, 0.14406565849362934, 0.5653060850300112], [-0.41094995002115703, 0.8737780407947174, -0.9313750114121221, -0.4508814081705909, -0.06059261100805779, 0.588663716966965, 0.24454556778874398, 0.03442152786911756, 0.11719127502480994, -0.15601425763833404, 0.6683274262327803, 1.1530104331324178, -0.40543946083361676, 0.39315527471205114], [0.7190081767805413, -0.009761651926879507, 0.585282282808701, -0.4089475148102299, 0.850436044908295, -0.04073036210722725, 0.1488855425143503, -0.4716554372133255, 0.6002596206012184, -0.9828725916350688, -0.48819361146090223, -0.353045370714575, -0.5801723737145581, -0.5947777518192743], [-0.5534888463413831, -0.6307914870279385, 0.27784854203015963, 0.6106924016696479, -0.7618988778118975, -0.7741212305008986, -0.7411227326440736, 1.2367103679694162, 0.41738066397447016, 0.05925871121510599, 0.4985392456007154, -0.47932239263821025, 0.07899524261592, -0.799754095465411], [-0.12433651160309621, 0.8991711628456971, 0.4841428857608725, -0.229455981520254, 0.0124298682467099, 0.36690899963140877, -0.7023678514450635, 0.6407628781242957, -0.19347066807523475, -1.9615451888737543, -0.5591409609341076, -0.4118397473402029, -0.10648829077578, 0.32340448659085874], [0.06383390193806372, -0.3824594921349584, 0.13056046119668452, -1.8855960007854344, 0.9740439997424057, -0.7252548486658952, -0.004809768040899647, -1.253881099922238, 0.5864006302135782, -0.491333036233967, 0.5303410261438528, 0.528454126905706, 0.4071695121276272, 0.6296131976865642], [-0.8482753466643376, 0.7293091940080128, 0.43693696699386503, -0.026898287363668894, 0.8159360541384941, -0.03317748382458569, -0.05029900070827581, -0.49635724486858845, 0.39833252831092847, -0.7420728436625542, 0.4651708578360636, 0.47473568952656847, 1.1245780903807954, 0.2583475000747542], [0.58665468232613, 0.7183689122623652, 0.27529855020583915, 0.4989343228353612, -0.260543938945631, 0.6700343550269942, 0.09115013453773207, 0.7744372129944151, -1.010717853965436, -0.6581597136597964, -0.040285509159992294, -0.704550032563252, 0.5148213737286931, -1.2956667033924745], [-0.6477312115459207, -0.4703561028921617, 0.2947687512917796, -0.0894519691652131, 0.07162207025079666, 0.6475438132199103, 0.15315972753225826, 0.8530463690227292, -0.8277966800846274, -0.6560527354425116, 0.7978018255007495, 0.19251751107229445, -0.527580285812243, 0.11805726623069666], [-0.11136095212296611, 0.6329504747418617, -1.0664117561657538, 1.2045923751929344, 0.8446314902250199, -0.18999079533597496, -0.42322980723925374, 0.36083770907595103, 0.19493890160116395, -0.09445610911654836, -0.06254054509096219, -0.46324981415414246, 0.8230978782851573, -0.04013630466481186], [-0.409149750101493, -0.6624133468930403, 0.6242640883683437, -0.11887411713545315, 1.0386524247179842, -0.6505081545003587, -0.4004173060537029, 0.9459634578863075, 0.36085374065393416, -0.08409650873041269, 0.7745716520727548, -0.061208397503499254, 0.9648492728818403, -0.26207969232819106], [-0.444020242455604, -0.30182126161176465, -0.8688622760406902, 0.4435815982567739, 0.5055926010267114, 0.5980659612616102, -1.0372686600841252, 0.3985827923498152, 0.6735757492271235, -1.9334494525627388, 0.6768817106683258, -0.5774514403021593, 1.6432128919882816, 0.35165773282806967], [-0.3864218088545192, 0.9597203545595087, 0.27544496585926603, 0.6316067252901448, -0.9372167551222756, 0.41315270031332096, 0.08742082218436292, -0.587518552128752, 0.9118735865189892, -0.5995594819591593, -0.7168112373021851, -0.3559184423278051, 0.27282381399117134, -0.7671314238507212], [0.46850059535535515, -0.8149454756839231, -0.63133134462186, -0.7481485269997937, 0.536659862322312, 0.8089018075751644, -0.36180796736542503, -0.3547812701574372, 0.6889774162760118, 0.9895076592978924, -0.8584876214213188, 0.17946399754537684, 0.9254862191243329, -0.9369830349837053], [0.25658003027950216, -0.045674964049869496, 0.14818876076088364, 1.2827201110307969, 0.929678421699988, 0.7381277273899213, -0.3562912268040688, 0.4735278672267589, -0.46093673029599125, -1.5478042887729406, 0.5908433065704064, -0.7088813850095939, -0.49650232065380856, 0.35809628125564746], [-0.7302652093212528, -0.11634348489840965, 0.08993421857169266, 0.7297272143885958, 0.4406594608212841, -0.6079462243870237, -0.04374538410260694, 0.6466233493870946, 0.05639661784741926, 0.733864806618305, -0.14988284405617525, 0.015381543253159248, -0.34321591641624843, -0.045635190872662205]], "bias": [[-1.0024826183994964], [-0.6516254528734371], [1.0953961295689667], [0.015162630232957344], [-1.079244168245974], [-0.6860410665467985], [1.236406077998508], [1.2111248074507022], [0.875504719812813], [-0.15276193359247858], [-0.6145351231209099], [0.1410396335428336], [-0.03135341391119081], [0.676640557128987], [1.163253192408484], [1.0986576813931048], [0.9060796848170503], [-0.4907204399981637]]}, {"layer": "activation", "activation": "tanh", "activation_prime": "tanh_prime"}, {"layer": "dense", "input_size": 18, "output_size": 4, "weights": [[0.22178901999813722, 1.0807180507211367, -0.1668487067226272, 0.9726405639761704, 0.25317185629971756, -0.399336117503142, 0.02376815600782356, -0.8709351599441529, -0.9739128634478639, 0.6723619452329308, 0.9356078395204954, -0.5201149940218583, -0.6968392865453984, -0.9495546795697332, -0.436375993665804, -0.39503835992379366, 0.6763781613394425, -0.3023152084416606], [0.39079362234256326, -0.7127807536555572, -0.5369818400199954, -0.05785332536467603, 0.36600599622868013, -0.25633207200737873, -1.065401279810228, 1.6051841295813618, 0.07863611408427487, 0.04942048429102282, -1.1262230682066938, -0.9351365635528254, -0.09808695692440036, -1.484579888084985, -0.3919831987226141, -0.7947366117134941, -2.07807422390159, -0.014560698225341673], [0.5741714473991018, 0.48475707180519806, -0.40856786388425026, -1.375591659686615, 0.8351090145725437, 1.4958074569792368, -0.6815738985251535, -1.6435660374396959, -0.47391650138717345, 0.7629929046112011, -0.18435024272347167, 0.7068339320524262, -0.26047688400784264, -0.15452158655600134, 0.16948729939209634, 0.7652584558830609, 0.251202375172295, 1.2194666485914716], [0.2384214098179206, 0.5409726227232049, -0.8795084803026265, -0.4479969379585247, 0.0727863832985971, -0.2720772384252074, 1.5296160648742467, 1.1305729102470417, 0.7474104605632614, -0.6048674588190666, 0.3340262704332096, 0.5413019945590464, 0.512858359008491, 2.082773752164029, -0.36682298357535076, 0.19101560778761634, 0.47521449864990073, -0.9039823600947476]], "bias": [[-0.3054694185803699], [-0.6304124031348358], [-0.9040271964236622], [-0.5788111009925115]]}, {"layer": "activation", "activation": "sigmoid", "activation_prime": "sigmoid_prime"}]}