{"generation": -1, "board_size": 10, "snake_size": 3, "input_direction_count": 4, "apple_return_type": "distance", "segment_return_type": "distance", "network": [{"layer": "dense", "input_size": 14, "output_size": 18, "weights": [[0.412281058569305, -0.028550223832519313, 0.4006316398380987, 0.9395565429721189, 0.16657275378998684, -0.1531409892810675, 0.19539945989926558, 0.10491731574558788, 0.043688997474215494, 0.0956910823363094, -0.23128213980090637, 0.18501253742817597, 0.3484039380017705, -0.4416323321802473], [0.08327231920656594, 0.8061574881583476, 0.8120058730497262, -0.3541553989431092, -0.5904852857578798, 0.9630604927511989, -0.7671476333420466, 0.6612443739064245, -0.37815044011008847, -0.2521240167087611, 0.8903404491608141, 0.7897754562207139, -1.0354238747866316, -0.7588607468207145], [-0.48765853413095306, -0.7415277366979652, -0.8467720672181381, -0.49744483851385124, -0.11762887516486784, 0.7961548758870886, 0.38807508408191665, -0.8266333365057495, -0.5314908365436225, 0.6688948618051569, 0.311300704628499, -0.6632693295115165, 0.6398611041457288, -0.33626053650504223], [0.7099985839333588, 0.38445219338839337, -0.4177396122305491, -0.42908796221453865, -0.10891359038361347, 0.27552043488923916, -0.11023909994342511, -0.8580396071771064, 1.0182656945160375, -0.39394109888975737, -0.39095481450905073, 0.5853968247465866, -0.0526606756696304, -0.5436598481595935], [-0.013374339463166116, 0.40254718930921407, 0.9596455247729151, -0.8163586532620195, 0.43951685026826864, -0.043648441181719566, -0.03980121766169113, 0.5827541842897049, 0.4299379174666898, -0.5290216820231836, 0.648091113756371, -0.12646498259521408, 0.2650398742250013, -1.0339576802894948], [0.4172576535500582, -0.6919776466413832, 0.548007243536073, -0.3291722784649763, -0.3827734766437861, -0.5180318088840723, 0.35996219461497886, 0.876191275899094, 0.03554477468410211, 0.6412037741261084, -0.28443411795777707, 0.6757101285014805, 0.7824103091989218, -1.0342781721391827], [-0.914103981777899, 0.2170508302193647, 0.5675215752447755, 0.18479390045801003, -0.9627726613053449, 0.39991310633158916, 0.803402549298146, 0.2530055957461544, 0.8911974379496327, 0.14632273779943653, -0.3730735745404603, 0.5736066803676575, -0.09309592215454049, -0.13806257750612125], [-0.5616716896276502, 0.6202375054933084, -0.37296186173871293, 0.6197930728618352, 0.6795411245414192, -0.2677853445315738, -0.7658020869597794, 0.0915294041913185, 0.5411312661888573, 0.5230090246596145, -0.8901957943951906, 0.8527294862328586, -0.8575020030905578, 0.8479980791244838], [0.709100751093714, -0.9581169712414084, 0.14029942356805924, -0.932964191466129, 0.3700639997443146, -0.7536371833050429, -0.13889524492838656, -0.1633601841997569, 0.41309176554621574, -0.377153112090149, 0.35087402805172335, -0.6243021598933652, 0.33110863711190736, 0.8657654275599976], [-0.48234947366551706, -0.8407115365829078, 0.22500589832455833, 0.008847112267087735, -0.05171072716090688, 0.1682596441745509, -0.4701998580005129, -0.32570474963261875, 0.03677730823845528, 0.2038449122152997, 0.5405602667215176, -0.09631863179497656, -1.1241468655195004, 0.5754089849532822], [-0.35912062851245696, -0.7231631203708699, -0.3247938271944389, -0.07901553723192024, 0.0825661125391428, 0.3810579849068474, 1.0138071924893606, -0.8813852578916098, -0.49200718836337876, -0.6844654970506783, -0.3254045649585488, 0.49068055461198473, 0.09909382691550139, -0.27972665413521647], [0.4584143011119509, -0.007079885702770398, -0.6707173709749872, -0.7630285847056121, -0.2780708125028477, -0.7695453290776555, 0.0478414340853638, 0.807123588018379, -0.5699255510426517, -0.46545772829889626, -0.3084846938345887, -0.7117310862188957, -0.2604767681760811, 0.6746962692015452], [1.0439878354446845, 0.7452584548724627, 0.6747840717529009, -0.7782303219455141, 0.35611643144854516, 0.4143020561188677, 0.5755130627833823, -1.0122752662993542, 0.7590490942893492, 0.4406219430384803, 0.6034896748613919, -0.407659457361336, 0.7509145582406367, -0.7988582605395838], [-0.23244675595832134, -0.39751492578434244, 0.07802456658156773, 0.6467418788703644, -0.5864681976238846, -0.19936265955092758, 0.05433670990148044, 0.21716871647230374, -0.24129230722027195, 0.2064844175343683, -0.3725054051387102, -0.34081435200157156, 0.21266321007733735, -0.18541767106653698], [-0.7106351017103292, -0.042318971680028634, 0.6164157270041628, -0.09485720168182699, 0.5864382564130186, 0.025189874533758, -0.1894177687426751, 0.23933165526317357, 0.6106981972912292, 1.1507631658183557, -0.6564670643758312, -0.37037236284313446, 0.040499344221235044, -0.9235875016644978], [-0.3473105649152606, 0.11564086668836084, 0.8438715377290141, -0.4128660692664065, -0.3909138982639025, 0.4362829302066036, -0.6311080335593838, -0.6056063572283407, -0.4021606710132845, -0.5584778655655476, -0.9603348203437966, -0.7188151626284384, 0.25501197898686584, -0.23522362286014567], [-0.7948783498488571, -0.5516565296145195, -0.29151321887708415, 0.009675960172539261, -0.49409029307159896, -0.028693607551466837, -0.05806187666753639, 0.0062428079918172286, 0.7833638964112485, 0.5722938692999857, 0.8623183470837888, -0.7949378977188556, 0.8106411332945296, 0.9633659308850611], [-0.6095069937819065, 0.6404311750807905, 0.8494875989147683, 0.34010130825150686, -0.9239326778891784, -0.14653915599428108, -0.47100423681750814, 0.04987795701603847, -0.17115525342524573, -0.42368077032086016, 0.19348529680918727, 0.3025857258098595, 0.23558495215712447, 1.1541398944805803]], "bias": [[-1.1766366309759653], [-0.2901602999619665], [0.14214904293963251], [-0.6802876715372214], [-0.21280591585456166], [-0.9318922540052047], [0.5353844147884456], [-1.0211929089498593], [0.6251193125516847], [-0.05015758569701931], [-0.8477357869186481], [-0.3223304048122454], [-0.6028779284830761], [-0.79222798254234], [-0.5941225928164735], [-0.10336902434874568], [0.2791267424568461], [0.23515684261946504]]}, {"layer": "activation", "activation": "tanh", "activation_prime": "tanh_prime"}, {"layer": "dense", "input_size": 18, "output_size": 4, "weights": [[0.12775167059378795, 0.8642595664684032, 0.9154078999284253, -0.7437482831783134, -0.6637024326270036, -0.526190557192804, -0.3899576096525159, 0.7894599360281735, -0.6113746556730751, 0.4741326214229611, 0.7649488988277593, 1.136716639124027, -0.618770245664398, 0.8303867695197249, -0.7528285840157182, 0.27608717799866384, -0.14490344863537255, 0.32267269397737314], [0.014625522635399325, -0.11973820351750603, 0.7350418974980502, 0.4244089553445495, -0.2789509528810661, 0.6358751925912774, -0.5900495259371621, -0.1750172349622617, 0.3961190430444147, -0.5320821907056802, 0.4684447030843392, 0.7703570812400816, 0.31898765145178615, -0.18230039962439176, 0.38299931436944834, -0.5163513543262528, -0.5192884596260053, -0.06939688374509438], [1.2428799963342776, 0.3962585657968524, -0.7840454076176604, -0.8199204088738626, -0.6278890890227976, 0.9187518891802222, -0.5114657140751803, 0.41769596194542336, -0.47833393843747224, -0.8301231347206702, -0.5787820029856034, 0.580260500494269, -0.16092227654607338, 0.36609398657612097, 0.3784667816165738, 0.715385579157107, -0.04564818034393477, -0.5155739259737661], [0.41735289960665906, -0.7898507537539167, -0.9635069630234443, -0.46095185612587875, 0.2312421656476287, -0.7206612711059365, -1.0457462880306936, -0.5755690867510199, 0.4316647484863011, 0.45894646063818734, -0.9291963504098509, 0.6866892223895403, 0.2554763853308141, 0.5735698976568465, -0.8648737531539031, 0.13782024801964415, -0.14042416856014012, 0.4524012512886612]], "bias": [[0.44060561692890915], [-1.006597082359649], [0.09402762835547088], [-0.549080771138479]]}, {"layer": "activation", "activation": "sigmoid", "activation_prime": "sigmoid_prime"}]}