{"generation": -1, "board_size": 10, "snake_size": 3, "input_direction_count": 4, "apple_return_type": "distance", "segment_return_type": "distance", "network": [{"layer": "dense", "input_size": 14, "output_size": 18, "weights": [[0.016182903970504686, -0.40909021971355286, 1.1328956255829108, -0.8916807348486241, -0.8713207512300072, -0.7027787324197743, 0.17204798827439488, -0.13780168243405044, -0.8941899180238593, 0.08052846143380209, -0.10287881177885667, -0.17518658435911844, 0.5594924208085326, -0.5757562987580361], [0.10194186670185036, -0.7528058940771074, 1.0714381633276635, 0.2237490969913622, -0.8310057884553972, 0.2876641410305502, -0.29785750275998124, 0.44940107180641875, 0.3883844592012124, 0.5743781192180848, 1.375267904022592, 0.578252562297871, -0.3206218727374546, 0.6805341563849607], [0.2499271207956415, 0.9054621021205194, 0.546294611959731, -0.5055177955334879, -0.4054440603424889, 0.8363169654903864, -1.4528529754972277, -0.8629668126736101, 0.6162180516339827, 0.8318609104851226, 3.3157635218241066, 0.9599470083215902, 1.3731169910374559, -1.0995138942788691], [-0.5111087270173025, -0.004526132909780545, -0.6710378209865429, 0.3443851919975558, 0.9639966675097416, -0.012893834994625486, -0.5070541648283331, -0.9045248902642926, 0.33350789723334806, 0.49216773140390213, -0.3054745054161738, -0.6691685080970549, 0.6943133357443596, -0.40095669346829355], [-0.8517601587809702, -0.27682111224188377, -0.8620473221628151, -0.02602976702674009, -0.9682432298321928, 0.5769063447647311, 0.5518414380191412, -0.6563646624764747, -0.6737729504108625, 0.0009322643146443537, 0.6191062533117028, 0.36215896735692626, 0.8378997485820945, -0.8578220924111577], [-0.8601202177749773, 0.4085429161935423, -0.5655625475109514, -0.40433752166409564, 0.9434958556834763, 0.40629797409801943, 0.7657013234296821, 0.05031381256781975, 0.9171434569857965, -0.9770660086945511, 0.28286342208686377, 0.8084538178767162, 0.287766910900134, -1.0579694846122931], [0.41285476149406297, -0.09088785645122055, -0.08039213380976062, -0.5789977491366785, 0.5129544598143072, -0.6126685307724009, -0.5917435910623345, 0.8328513509330309, -0.4699215623751354, -0.9271184559835308, -0.035314469200554255, -0.5492497404465757, -0.4592864101614671, -0.6190765771655862], [0.48421201292770594, -0.02890849306216836, 0.6904158438264919, 0.36637170153559184, 0.635262837452369, -0.05955294598903886, 1.3676578323300717, -0.9583116504357123, 1.2101922133512506, -0.2201539603443166, -0.06385464716530766, 0.6065515501962957, 0.7317437776993572, -0.879554232943172], [-0.613629656681742, -0.22670628525443948, 0.5960172530406487, -0.8269000218070088, 0.35637804368447146, 0.5455391704705588, 0.29183795332672346, 0.6605531041692285, -0.12143626977333111, 0.4645916996301272, -0.7714439925368698, -0.5549412280803852, 1.1673387055188615, -0.1882148773347243], [0.9761121497735548, 0.2620162256168448, 0.2965699875354473, 0.9934492491133268, 0.0727338059938174, 0.13397975833898318, -0.8968026961740239, -0.565708174381599, 0.4268693628370022, -0.18511412062080282, -0.011815617653335497, 0.16205631216429262, 0.04111876131872788, 0.7919675683138185], [0.8292924216422797, 0.7205153350191207, -0.7555132702976051, -0.45972397235207096, -0.03708519773849317, -0.5846063647272117, -0.4888705516374067, 0.32992122577549843, 0.5056316828471648, 0.5496974587011089, -0.08320785799633869, 0.04464417459328174, 0.7928388988803468, 0.5867126939422336], [-0.6526974411735295, 0.7801318244506013, 0.3342650837340441, -0.5199514726718483, -0.30539602845590563, 0.4952902216186932, -0.878039039480738, 0.36919076591637356, 0.053281138442883326, -0.7347571290815316, 2.127606159505223, 0.2838660432098202, 1.16298660831938, -0.24019929410905097], [0.5955917421546686, -0.2267451554171589, 0.03924267701863241, -0.5877024787523036, -0.9118027501774795, 0.5594516134277469, -1.2424743838588121, -0.20499413769572428, -0.20441235868066282, 1.134763047524135, 1.6374194034342175, 0.42127852383707654, 0.3272762845270038, -1.0973569147469024], [-0.7599276150852277, -0.7033416130422698, -0.4677970742780089, 0.9860893535502149, -0.30865826636578597, -0.8904564514359647, -0.8677680015177143, 0.5891769041925456, -0.9965860621716935, 0.9311400694635301, 0.26894168329285884, -0.15798365580338514, 0.6834807919735082, 0.8960030776443599], [-0.021428145664358855, 0.765702834844235, -0.7433029751747672, 0.1727265675901951, 0.8293913385486891, -0.060321968995100374, 1.183145762437281, -0.6887375965653013, -0.39197677962185407, 0.19812263621060422, -0.14293123540029487, -0.07439798419607752, 0.185746364047219, -0.1994010517376541], [-0.3192468386639551, 0.7888916515734374, 0.6782906104684878, -0.4694487741988142, -0.6156497486968819, 0.7676897837548907, 0.4711613458561882, 0.7149655192446658, -0.5092581527893033, 0.4976294455324561, -0.6615918816496912, -0.6985726964818187, -1.4045957419522417, -0.573563963469848], [0.02237571924415065, -0.9008874060011038, -0.23750139452265018, 0.7217955105381829, 0.5439770733185592, -0.7848015836662945, 1.4505515195914167, 0.5751135501138156, 0.7545240553555207, -0.7128624018918499, -1.031759942964501, 0.9670477133980141, 0.25716592556221424, -0.15384290285757443], [-0.26132073329403765, 0.7009607202483508, 1.0773630306323714, 0.5183444861944547, 0.6435613951255681, 0.1767517592413954, 0.3081309165598507, 0.28042181380183595, 1.0413815000070163, -0.6508538217120488, -0.23974952188521867, -0.8512380498872241, 0.6764506029119692, 0.736376782628452]], "bias": [[-0.45740187994097936], [0.052893793207245236], [0.04555707772143464], [-0.230106379235945], [-0.631721846264643], [-0.11994324694013281], [-0.10958693826431687], [0.5012283643000616], [0.2059666965650724], [-0.02543776485646042], [-0.8416115115870844], [0.25193811375537234], [1.238644236557236], [-0.48471345341083416], [-0.38681130917662293], [1.1545533485068524], [0.37023349990968735], [-0.22620008889766696]]}, {"layer": "activation", "activation": "relu", "activation_prime": "relu_prime"}, {"layer": "dense", "input_size": 18, "output_size": 4, "weights": [[0.356353677362575, -0.4808327835293704, -2.629346824373267, 0.19996472647380692, 0.008708897162897793, -0.35530506512220866, 0.7614984181665629, 0.024543510459903346, -0.22415976540278804, -0.2180812395569595, -0.37673741485007417, -0.7205529750686628, -2.4633290010884514, 0.0990722588559807, -0.930256732254044, -1.1941275493225745, 1.5589638839728956, 0.19936609366302407], [-0.7557367364514999, -1.2557908919652816, 0.7016129190871376, -0.28844302045061543, -0.0952039309828346, 0.9017805346249798, -0.30873674312665456, -0.29705527216569305, -0.4225770721256471, -0.8553374072801055, -0.07583843877350427, -0.6953652658396513, 0.5903098198500663, -0.058122344923094094, 0.6776767708167055, -0.8888238381495964, 0.8635295444966169, -0.8697982392247106], [0.527923493756395, -0.08350144397694241, -0.028977207401887067, -0.49666350043266405, 0.14321729894807514, -0.28755820122920156, 0.5596699622491312, -0.854202424841668, -0.709530735078938, -0.8903513839983025, 0.23064855839493056, -0.40387633106332693, 0.783684532784351, -0.595135459399079, -0.7388389015522666, 1.2109228947680293, -0.8332817074513704, -0.9306456738702458], [1.0627705491566963, 1.0638604556495543, 2.712176469153194, 0.6495496933013001, -0.9339658744240555, -0.1959205015200555, -0.28687764751710065, -1.2502462542370734, 1.1408164451363385, 0.33224760517711244, -0.30292294977462947, 2.2017258947863505, 0.8039604051917296, -0.47316417962505897, 0.743684079504999, -1.1002094869012267, -0.6411850229213245, -0.2812356760385387]], "bias": [[0.7558387389311446], [-0.5441658457867389], [-0.7033135403887792], [-0.9276351468446956]]}, {"layer": "activation", "activation": "sigmoid", "activation_prime": "sigmoid_prime"}]}