{"generation": -1, "board_size": 10, "snake_size": 3, "input_direction_count": 4, "apple_return_type": "distance", "segment_return_type": "distance", "network": [{"layer": "dense", "input_size": 14, "output_size": 18, "weights": [[-3.40291811432768, 0.7548884944202462, 1.4290871858949932, 2.832200109239038, 0.37755173892985355, 1.6173427038363162, 0.411726168923036, 1.5926116137086654, -1.0736351282129448, -0.5425151711255084, 0.4709780890932498, 0.46784655009428705, -1.5821596378834193, -0.5109940093781442], [0.04940353528968316, -0.7760675473228215, -1.1452413394097225, 1.130308901398195, -3.212478184310503, 1.2647241857931504, -0.16694190106238896, -0.4813393678928906, 2.817262368013406, 1.7958675471685737, -0.8521986086431758, 0.6025747170896513, 0.10132381267199815, 1.4658776940573341], [0.5898445627386532, 0.11926834586173352, 0.0565338768431207, 0.632744184307026, 1.212708450378871, 0.11126260622339967, -1.3468003911715294, 0.10537960529027521, -0.6020759903785572, 3.749239483678288, -0.6015422152949617, 0.5016655967556681, 0.828360255343991, -1.8540389650610134], [-1.146639698289792, 1.1116048452840843, 2.1453942552489305, 1.2800405985424415, -1.347911016300515, 0.39276737474811585, 0.012019324409309544, 1.740409954975854, -0.8689769770779188, 1.1081634450870286, 0.12200684987927957, 0.48745662448319693, -1.2511738481081824, 1.085554533722322], [-3.3835839991927252, -0.4595506940569309, 2.9142455673164234, -1.2529570692460308, 0.5341870306765393, -1.6530451490467037, -2.0724485224399323, -7.994624537616607, -5.598162285131737, -2.850083612573642, 0.9570974386373019, 1.1243488128401886, -0.08617176368325426, 2.022271999016358], [4.098584780723483, 0.1648663656043997, -0.9800538445457502, -2.1721824609866114, -2.1947939385800446, -3.990901578442175, 0.4752643081767907, -9.170423364478891, 1.8761910308119603, -2.8166613617062852, 0.3852007524390708, -0.6512101081447006, 0.9149242418122404, 1.945306530454809], [11.107976678340789, 0.2945260508304216, -0.7289856405553004, -1.102527171620236, -0.6828375925325075, -2.952377890034994, -4.235477127052529, 4.947651420642676, 4.926667438179866, -0.061667885859831365, -0.19902556728078385, 1.4082656974887646, -1.322725847987415, -1.3596318832409715], [-1.1768811781190938, -0.11336714831846824, 0.10784002758015737, -5.067514913667013, -0.546254124204818, 0.0702915526841327, 1.9654019395493765, -1.6999931029491056, 0.718108560801486, 1.557614311419316, -0.873739710014345, 0.9009869246763749, -0.3968361157942244, -0.7318646897320631], [-0.8404965272013758, -0.7405870472694501, 0.09531031149719471, -0.07438294395372379, -0.9213216511258622, -0.04777002986195103, -0.9059036602800806, 1.3340252747935852, 0.5185628996665479, 0.5899285686146053, -0.19098931323831883, -0.644480971285924, -0.27380650763897757, -0.009051951297837422], [-5.59546509521366, 0.5832435636433414, -0.4394693919149557, 6.3231419317158, 1.3289315253162703, 10.462024728555411, 0.5037290468453385, 1.232479437374405, -2.7598296709873393, -2.1421761871297575, 0.4078107919392598, 1.999654069935182, -1.011283988978077, -3.053421349596517], [0.614147625048848, 1.1325639618247125, 1.5204258247337106, 1.1737640771902729, -2.7037761113129952, 3.959128491269054, -3.7059012602977033, 20.473402817780293, 0.9244993385314618, -1.9459933392303375, 0.4246872672540356, -0.686498440463789, 1.2345376414003824, -0.5564501423938131], [1.4404599380847796, -0.6223769122420738, 0.6322255934284648, -1.3064392594961083, -3.2599478706923746, 1.950997463258097, -1.709007798109398, -0.8534440195144283, -0.02864708100191106, -2.749647492661396, 0.7851512125403495, -0.9360740979880052, -0.1959823304872982, 2.594332902492994], [3.8148760186441493, 1.2273169714969232, 1.8694446280652877, 1.435879736331577, -0.1874621666926795, 1.1550164272853312, -0.9430210499211543, 10.028438679279144, 11.214067965851994, -3.3425779133635594, -0.5403346470849447, -0.1468490740054975, 0.5377581027272038, 0.4606192770382223], [0.46382119347619094, -0.2796101802032964, 0.449242911535258, -0.0908911452584719, 0.6479060633505638, 0.9149260280294464, 0.5723775337729484, -0.037475190162837305, 0.7141324132533159, 0.6247275767042522, 0.16289092601293048, 0.7454895246378324, 0.632526863158597, 0.2313269853701833], [-2.23289405333896, -1.7610649677268237, 0.3236972007707015, -1.7414633926778331, -1.1862918258468096, -0.5742398106530917, -1.122514742607893, -14.748771308878018, -0.08093048514655359, 4.723664310366272, 0.30364103363774364, 2.3715172515937684, -2.3391376483621253, -0.6172899598522426], [0.8522815374893915, 0.6356389827636709, -0.7935981897588499, 0.6390388742747874, 0.4371925929162483, -0.0775345106193223, 0.15559316712386662, 0.6739454954525846, -0.0957757286383804, -1.1908050418546006, 0.19550749506754322, 0.4618096878707385, -0.8322257055902486, 0.4200238287586928], [3.002765534267793, -0.932386625183839, -7.110913689969671, -1.1818426168316636, -2.1203554240530913, 2.592921300654891, 4.101285154163002, -1.6088996616924351, -0.5988887406683818, -2.437890575185672, -0.7592055745206663, 1.146605997185624, -1.045451692608839, -1.445213501498382], [0.4976996623541336, -0.4965088317975819, 0.12701258452211547, -0.5971327635489959, -4.430152695070885, -1.8645160212492016, 0.8533046003597642, 4.5577088011948925, 4.6189904967819, -2.879003618025926, -0.3170316892535237, 1.6918218294195964, 0.20565128772159227, -3.5251106813910815]], "bias": [[-1.4113454367913707], [0.9883722090366803], [-0.7284877047934837], [-0.6040046270666232], [2.2337558680765994], [2.1494786901310596], [0.007004620725953662], [1.2264686752795053], [-0.8742206254582129], [-1.952125444640251], [-2.5057585160811087], [1.7182801128227707], [-1.3267094184780586], [0.8377675662584781], [-0.4927889030487434], [-1.2446417593304129], [-0.3593539018874548], [1.2236974224326869]]}, {"layer": "activation", "activation": "tanh", "activation_prime": "tanh_prime"}, {"layer": "dense", "input_size": 18, "output_size": 4, "weights": [[2.1543428351540976, -0.40731354774141854, -1.3070521798188586, -0.09551006112886488, -0.12724758317915513, -0.5422476159777515, -4.371475004582804, 1.5820614773484236, 1.8663687455903675, 1.4299498524458178, -0.775910622544259, 0.3987887950772003, -2.073182926635533, -1.8849002251650941, -0.7768734457634839, 0.8457216312703815, 1.29026039841964, 0.26444145355793774], [-2.4302500851224367, -2.350658718010166, 2.7956913275452244, -1.635548457928873, 0.9120206477637164, 2.8047081283997, -2.1219177865454766, 3.876430865206467, 1.1975517194604681, -5.927202882193526, -3.8998233231359754, -3.5448994062615147, -3.7780040342043453, -1.4898831281392488, 5.89450453754489, -0.3336055271814062, 5.0019192177645175, -4.023841110711745], [2.092697956459327, -0.5778402657524834, 3.1942455658838718, 0.6972853862724658, -3.520420699322711, -3.1724293028735024, 4.5204767777930295, -4.52844345819945, 1.8704987693894937, 5.247894171414034, 6.104252208787801, -2.4959836619339746, 3.444431434700408, -1.8320068723164609, -2.217080578053916, 1.0642947698153138, -5.492174529694482, 0.019551287521804565], [-1.041096398152133, 3.5131767418444175, -3.2097475030347047, 0.5690961310287262, 4.766232430310413, 2.494832310167156, 1.9102179868560016, -0.09568399208252093, 0.5616499286633625, -3.0876943910118815, 2.118538349698912, 3.344919260321565, -1.0056809253038779, -1.9839026353311264, -2.9517406739228824, 2.6743612763742894, 1.171298629926785, 2.3483691379980587]], "bias": [[-2.072730715989721], [-1.4330012023819996], [-2.111182214707553], [-1.8569077492583825]]}, {"layer": "activation", "activation": "sigmoid", "activation_prime": "sigmoid_prime"}]}