{"generation": -1, "board_size": 10, "snake_size": 3, "input_direction_count": 4, "apple_return_type": "distance", "segment_return_type": "distance", "network": [{"layer": "dense", "input_size": 14, "output_size": 18, "weights": [[-3.446448191230359, 0.8637674358714944, 0.9565198096762733, -0.4579817056514245, -0.4456822864782002, -3.9226817029126178, 5.952877164406694, -1.182485212676244, -0.5830859883835248, 1.313056959796955, 0.3922291149367326, -1.3019056398420343, -0.09244624156949036, 3.520486604903652], [-1.514827540884533, -2.6598138319669125, 0.7741902367583077, -1.3178187479575536, 0.21230675117956846, -0.2217262451409658, -0.605896833726577, 2.219498312104985, 0.16676580550851575, -1.1443481157463726, -0.05312220529224954, -1.212841954752059, 0.660657775811246, 0.559584619878816], [-1.1439907815952282, 4.240993582775396, -1.3824912978682724, 6.202559997540483, 0.3766622118047663, 1.2408211499796962, 4.5393188362029, 6.576713162030896, -0.0010392372655177106, -5.3940598731975635, -0.9451373551542955, -2.7308533385633766, 0.6538070802881996, 2.6008324992900436], [-3.3095214980925935, 2.2553977038982276, -1.099125772681712, -0.31603140554713816, -0.39722662004706594, -1.9335657717468897, -2.1146578782949756, 10.577044336188234, -0.5022013156915728, -1.6619564881677258, -0.25939229849001944, -0.8583743976748947, 2.6818290147832, -0.29265676986073313], [-0.4986798362577271, -1.2090881678671894, -0.3297106024577965, -2.327001016190932, -0.1068026121604351, 0.13819150628080762, 0.37453554853148013, -0.546395192398585, 0.784021554404599, -1.312015309792007, 0.22560773912317547, -0.31091213615257657, -0.6563841979390275, -1.3051549361579384], [-0.14340098113825808, 1.2264704580166816, 0.06615179189237866, -0.1333929940730359, -0.7878450498056978, -0.8324583596715149, 5.235791523627617, -1.5441982029189603, 1.896530973035518, -0.20881478669045836, 0.6179200952772982, 0.004610226911742062, -0.19093364481034256, 1.9658901817280796], [-0.28990755655132006, -0.7304838602551994, 0.9868951790198934, -2.879125406214094, 0.18085024912539058, 0.364234326649954, 0.45066503669798386, -1.1412616616093083, -0.8773725161693219, -4.638789015220441, 0.0147173889605467, -0.4204148935185277, 0.2931688850683108, 2.5959349008479378], [-4.214553875393543, -0.12078716070594872, -1.2812232429672665, 3.0064432717264715, 0.07328275253917076, -9.956533807919596, 1.907668438420526, -0.23391116090253256, 1.9920481561961012, 1.3216436872011466, 0.2689054401961391, 0.6258167288646, 1.3383103260329838, 1.079524029716688], [4.275430174892686, 0.23268979761949315, 1.5064165063851638, 3.803414578367255, 0.2652577929240086, 1.6033220192469064, -3.3697485201526582, 3.468619361717928, 0.09622880459715559, 3.7180654772742927, 0.07428336010656234, -1.314610139463799, 0.8962544283820284, 1.746361227715425], [-3.5074720711757243, -4.823753758264618, -0.3307522777569438, -5.191918446548, 0.1339331032149464, -13.992569938956688, -4.621672024360894, -10.961493421865198, 2.6568841736437867, 1.9933067689919866, 0.12171710037135829, 2.001442257716634, 0.6685411890420347, 1.638180941754272], [5.979597098365541, -0.5969123541919139, 1.2514736685594943, -7.300530952329908, -0.6976376162113012, -3.1508594185265784, -0.4164684560988549, 4.7367521740987035, 3.19146886875796, -1.598483785370279, -0.04544350281484873, -0.8847776304408412, -0.04416313613966404, 1.2086287202585073], [-0.6549668879443654, 1.0256280301401755, 1.795835108464981, 0.8643761314699726, 0.6742968911746834, -1.1027650756393559, -0.7497968011116117, 6.641974156752501, 0.63917545366133, 0.8895079095050206, 0.33517184054308863, -0.2506964589975454, -0.4810773493237643, -0.3276746879547586], [3.4058822182986823, -3.7348130365785956, 4.159321265065865, -9.408933542765274, -0.16939147558431783, 1.9837955619286076, 1.3118048649333849, -7.546251832358436, -0.24861788284830053, -4.41132906987836, 0.46756020043429886, 0.8505210362684014, 2.4582326857656893, -1.7798157979126075], [-0.9286492299585544, -0.9032868739775081, -0.014901298511509311, -0.7765403811730224, -0.03107618942187818, 0.4264660787112315, 1.171912756293858, 1.4164547369228966, 1.7304370024297677, -5.201684228844051, -0.16231686638594112, 1.7571345901616489, 0.7935724124625598, -0.27338162405183547], [-1.4055612287692638, -0.2203652361416256, -2.1870698674765365, -0.5774641445697566, 0.05882981774061828, -4.2689051277688534, 2.3806317293066046, -8.071943632586663, 0.5265609936929585, -0.17938992158916206, -0.4353234855223397, 0.5381564299795577, -1.187257550446155, 0.7808325020362695], [1.3831475078103965, -2.656124076493342, -1.7293682230290737, -7.65360169810445, 0.5818175410144513, -0.0446141320456841, 2.679131119164143, -3.229351767422314, 2.3343944894289064, 2.3604025570187095, -0.08307564532833485, -0.990577543655652, 3.738296477880855, 0.419813834753908], [1.962544404849533, -6.599974233658004, -0.18203870561463426, 6.962505767368519, 0.010192774385544424, -7.501451575820692, -10.103441727996875, -21.28510302332756, 0.565620898423665, 3.803625042352956, 0.1408032313310841, -0.25279167539136865, -1.9362428295890437, 0.2087704481378245], [-0.23556002397086814, 1.2292931762539474, 0.8298348622996748, -0.23703608865965026, 0.08325541232584739, 0.9771576064890657, 0.15609935920099793, -0.8304394796010331, -0.6732227137557969, 1.8777794743280376, 0.7264690642071773, 0.8185591304580327, 0.33299965147531824, -0.7305310160984266]], "bias": [[0.7665035017310035], [-0.26034286291841724], [0.7709404076395909], [0.5983039537582369], [-0.7854733532431194], [-2.031354801838733], [2.462617406983205], [2.971486894910688], [-1.0315594232956173], [4.421904624916338], [-0.36114447475999645], [-2.031831962493757], [-0.7533299975125856], [2.9681954678640854], [2.6152736247126627], [1.339410456201661], [-1.0868958938880058], [1.273306257304176]]}, {"layer": "activation", "activation": "tanh", "activation_prime": "tanh_prime"}, {"layer": "dense", "input_size": 18, "output_size": 4, "weights": [[3.858070271478381, 1.4068102652127257, 0.5249993780058236, -0.8960023708122755, -0.04139135207489958, 2.5013098001471636, -0.096319097580212, -1.6594344788795423, -4.682655728174762, -1.1232288111135271, -1.5561720989492112, 0.4149673567288531, 0.4161184851318709, -1.1831140935500966, 0.4949539624329285, -1.3097101930667896, -0.18607449625370448, -1.7063407417323417], [-0.831128968038347, 0.18589805049091937, -3.9064144279146937, -3.923325828271974, 3.0113831375465856, 1.5290398178199822, -0.9091130936630963, 3.160490143399203, -5.06316906023976, 3.680063528678912, -5.531905219234128, -0.4867759083948732, 6.738251833035429, -5.922415324413004, 1.2756430813380908, 4.949086575961938, 8.156126771776794, -1.8565707436838421], [-5.308706008157285, 0.31794118172242386, 2.180061238752044, 3.2860917092338164, 1.851834958512938, -7.836896074724252, -3.8228956464534614, -2.886345570834023, 3.712086086393315, -3.8127189385754217, 4.785302044679861, 2.509028117315053, -6.506604140857313, -1.217991070200459, -1.8930248647333598, -5.558685908666941, -7.712713257421563, -0.6573394499000971], [-2.1448328248546673, 3.588021152815962, 2.9400352071198776, 2.8970124149781293, -0.1310482888324956, 0.3281001401997076, 5.271219319153165, -1.0716135807271638, 1.9816054153294052, 2.4978787295003526, 1.1139092804711417, -2.1708490625791197, 3.2405648564440015, 2.422512494628233, -0.02423416213172394, 4.271677894835694, 4.613389802612075, -3.4586494199887916]], "bias": [[-3.2129266111943657], [-4.300791767239668], [-1.2139986801504035], [-1.120478262324081]]}, {"layer": "activation", "activation": "sigmoid", "activation_prime": "sigmoid_prime"}]}