{"generation": 432, "board_size": 10, "snake_size": 3, "input_direction_count": 4, "apple_return_type": "boolean", "segment_return_type": "boolean", "distance_function": "chebyshev_distance", "network": [{"layer": "dense", "input_size": 16, "output_size": 24, "weights": [[3.0755868764042202, 0.9523192138052281, 0.5248032552871607, -1.5805852934472107, 3.727670568541479, -5.622635511527798, 0.553902572991558, 1.0656535607639352, -0.5217243184320334, 2.6350739903256937, 0.004895633449149561, 1.7102513925047287, -3.398494771884948, 1.9862749745756203, -0.19273419332856673, -4.5996499103379], [0.6341224288026378, -1.528577375708772, -2.4564187772256414, -1.4451458598242164, 0.9500749949606535, -0.12371150424812563, -5.341609012731361, -6.038796772019228, 2.823974199041303, 2.0429071957636276, -3.1210282846310053, 0.03249343804782667, -0.22123725984488007, 0.4472360309852003, -1.961322936854636, -10.066742947957827], [0.8296725709645764, 1.4675664944510511, -2.703423275269872, -0.5029926790129337, -1.9582639319765947, 4.081186060469011, -0.9397640763972688, -0.08392785342638565, -5.7603072475249935, 4.223203303933499, -2.437063760462984, 2.374019079209321, -2.3070564892495558, 2.3561111148814646, 2.133843580021508, -4.657111587204384], [-0.3505363193751916, -0.8379559675623245, -2.877098551007555, -2.215238500533851, -0.8425658696617475, -0.029059655868958034, -0.30120219275382115, 0.049905000299338864, -5.1520971316379285, 3.522357396078785, -1.6109826879187843, 2.4488462385648155, -0.6630991577039673, 0.014531156858667682, 6.549685577680514, 2.174030399222681], [-0.41233687305899747, 6.052332726346334, 2.582909793203923, 3.639603327838291, -1.3182019837273433, 2.106114811199696, -0.31353571672066266, 0.1557139057161312, -1.3029256012119, -3.758774594098748, 3.237619286984559, -0.3859851823644347, 0.03475691944476056, -1.45943588475282, -3.5453946269306575, -1.99631504305536], [8.569967268312219, -0.15400201007688252, -4.737005248968054, -0.39774702745028234, 3.276143299296505, 0.7235263584716032, 5.459368809365337, 0.9552422477200689, 2.093014244173781, -6.547805659218026, 1.683917414095926, -2.1707178020253868, -4.465089753364394, 1.6862988370878895, -5.331453045835351, -5.020070518330789], [1.0940681499799245, 2.371210934500931, -0.446635503917029, -1.3665434869536544, -1.730037067221366, 2.7301047410804666, 9.173577113690094, -1.9567672741847897, -0.9368380633010566, 0.3418593603465351, 0.3289274614926254, -3.3407617749961216, -1.0933016208003603, -3.957978436618318, 3.524189847520989, 0.5786723505736134], [2.8613711158173567, 0.27517447534769646, 1.317535332476516, 2.086309128476286, -5.962980370502718, -3.3564748377720988, 5.364560373997551, -7.11894556358541, 0.32479450192966974, -2.4123068651217867, -0.8228926556615517, 2.643568224366281, 3.853329543727871, 0.7715937701170488, 1.7402367119586617, 1.1738215483243413], [1.5081042675880925, 2.278156889055426, -4.579455226979078, 0.24017615072196036, -0.4481164944070577, 0.23975335558107785, 5.838915373463083, -1.7514500421136632, 4.823364394461903, -0.21664887506026442, 0.11227554495489378, 2.1951281621691643, -0.8704878329903853, -4.361487772993185, 9.669673527424976, -1.0611962680291231], [1.1063538819129883, 2.1217385218892524, -0.23543234153766346, 2.823572302226098, 0.152785117346244, 1.759020868411362, 7.0813070368578686, -1.2564954006431024, 0.5479474059694084, -3.4798117359963636, 4.201973078038828, -1.757208350322244, 0.422025351792894, -3.0887386495097617, -0.1478942275740777, 1.8195660299556837], [-1.7755147987828304, -4.539743761209799, 0.49109108018029857, 0.0047787905769489936, 0.2163614120967713, -0.6267353425926675, -0.9489336371896689, -2.8707947573989605, 0.7976355313721255, -0.3037356900451778, 7.306304588443533, 4.241165497913588, 2.244902711879222, 1.0206276763450026, 3.690526816576054, -0.2668911764470387], [0.49421379424069894, 3.2950999511400623, 1.0385027142212602, 1.9881318609269205, -0.564902782335146, 0.28840424911034884, -2.065496873398595, 0.4558893252862356, -1.5069401956340769, 7.278091641502236, -3.336730070241235, -0.4034776045353575, 1.5884204364827863, 1.5431895933268949, 3.773643537516775, 0.4209222000331761], [6.3925698658883885, -2.428702345605795, -2.192427255125296, 0.5429320448180932, 0.6961404712466286, 1.489509161345366, -4.65931976058037, -3.941650944272905, -1.6498600490479256, -4.986618221641161, 0.3183970277313115, 0.5555506040577478, 0.3431027309122832, 0.18238446051743606, -2.9660587842191375, 2.469387087385972], [-3.1675642502903743, -0.5745100367564482, 2.272457822233011, -1.6620001023559043, 3.669894340138138, 1.4845417810379398, -2.148764971269932, 1.230129886823261, 0.9147004960026417, -3.2123808787432058, 1.4056413499650153, -2.691122610110369, 0.015279526249766862, -3.334685906409968, -1.953612048546384, -0.22035932463707253], [1.3401712693735146, -1.5457261002279812, -0.5718872648612262, 0.05661489599351616, -0.9109699333386836, -1.4366353815806672, -0.22208300365578992, 0.1669890599237296, 1.497100213915807, 0.4611243598201127, 0.9071822441269414, -2.222619564180432, -1.6438828359085862, -4.2010622273078475, -0.8131249062483509, 1.0606868493041732], [5.147004427116861, -0.10864534025887684, 0.3914389969841725, 1.4240486113450794, -2.0448253456630274, 0.05292169564858229, -2.644013192538191, 0.3337679865391368, 1.5916931157482994, -3.8783860186541994, 0.3379540438552029, -0.622913543784468, 5.58686013347045, -2.2059769532124016, -2.5382167348252955, -1.0746944759267532], [-3.4027811388832685, 4.102844757648842, -0.6813092577997759, -0.710551009618542, 3.212367344650502, -0.17526238051786913, -1.4442379257190328, 0.1051697544836413, -1.4605203862293465, -2.433606872243872, 0.5426136774977972, 1.1933571620312984, -1.0393143419697477, 2.5877343733007834, -1.9813341704823717, -5.343991865074233], [3.8995427832147014, -2.073797752270674, 1.6688277636320066, -0.26890912235171593, 2.470190284094659, 0.9660660067699895, -0.014901963146242814, 1.063572606718191, 0.6345535216220003, -4.511927338256474, 3.4433813108404436, -4.815304186069881, -0.3274407043187086, 2.447572482072502, -2.233294434516995, 0.24714576481958733], [-2.9969051075382214, 3.416242670673211, -8.48712826355064, -1.6519297730131508, 0.026391584256926504, -4.46132926393401, -1.8640631192038706, -1.3427670395054792, 0.3239124241442517, -0.6652295806992994, 0.9631982297321025, -0.05556833204712669, 1.611137608179325, 3.6752068553869432, -3.6816598411706978, -2.8879219753438323], [-0.302822627684913, 2.815550147528282, 1.1656655470633739, -2.4678691329848146, 1.0886129961123505, -1.8351499595732272, -1.7255206487282382, -3.6591646754977294, 0.9731105012340002, 1.8539426408098083, 2.3417654911987507, -0.8323123968562451, -3.621736698495026, -4.567446157474605, -2.294619018130009, 3.6049832340195676], [3.3338351501767534, 0.6961102535611452, 2.3086323236058615, 1.2905598182456837, 1.2081980340532468, 2.6639329566929786, 0.9222278905353916, -1.9278560494479866, 0.40612384878059316, -3.3173660884121476, -1.787908167500088, 5.154968767613609, 5.423166943842219, 4.565314542089727, -0.4975227664842843, 1.0370662470808756], [4.034224386506781, 0.6863257238478817, -2.904345861807875, -4.309732232141428, 0.40755900406141277, -1.8104983793258955, -1.6754852955430652, 0.7165563913081705, -1.2756022330937649, 3.6059067614311777, 3.0637158035114966, -1.7090387672845444, -3.202002382530722, 3.3586705542703217, -0.8081901444653119, 0.2815905410954854], [-3.362118001794351, 1.847693747132087, 0.5147676081831035, 4.104188844360924, -2.752833509830044, 0.548290792868797, -2.135834567069116, 1.6951040774094386, -2.1776025991689845, 1.4950959512277593, -1.432099455442332, -4.107685539100339, 0.9040153337784238, -3.448697948336463, 0.7684976294607359, 0.9282302663123602], [-2.5752507428746485, 0.9951253203876587, 1.0711069445130688, -0.6435245705853433, -2.3861652805898883, -8.520599250696218, 6.1102508414270895, 0.7304834600874871, -1.0616284351566487, 0.09885124070257356, -4.1573956440859865, -3.2419898193684915, 6.128469703956453, 1.9730907104736193, 2.4634018541079046, 2.780997868435249]], "bias": [[0.779175654203789], [0.9536968544996263], [-1.1277178327698905], [-0.6109608312722943], [2.5095653989937006], [0.14464229997960087], [-5.325258989579583], [-0.4413997776908711], [-1.1446230945789493], [0.23852673370192962], [-4.278782609253557], [0.8927381533102506], [0.18984684421079595], [0.37721133134167806], [-1.7365240641648225], [-0.04037722044171255], [4.587776673510772], [-0.325510763127806], [0.12158259369377244], [0.8462932093772038], [1.000594791600597], [-1.55335455493515], [0.6223840535236445], [3.399060901831247]]}, {"layer": "activation", "activation": "relu", "activation_prime": "relu"}, {"layer": "dense", "input_size": 24, "output_size": 4, "weights": [[3.9829684190472054, -2.212929446539339, -4.286471986063338, 2.8692980161274098, -2.686400646137887, 0.8217042133709807, 0.9064227198446047, 0.5758364730236241, 0.8092565785807739, 1.2657388937809786, 1.7784222096691398, 0.7941704093240202, -1.635007126823114, 3.129445079872477, 2.0776351436326927, 0.9144891195236224, -2.3449448067361263, -1.7354880336947378, 8.783570942779402, 1.0588854649237054, -0.2717215876749615, -6.0487244139686105, 1.0058330775068198, -1.0765803873023394], [2.638270220604549, -1.6258350710750202, 0.19594893951675574, 3.1767903603430763, -7.091338109548323, -0.28712357358756735, 0.9418642026568231, -0.40240362118171846, -4.272155399978228, -3.223171585443156, 0.1556309098415335, 1.5444569874717256, 1.6002140406739354, -2.0954420049018276, 2.427267790656519, -1.40574501146076, 1.5947399267026332, 1.9618265227599687, -1.146789945920331, 1.7592468691343386, -2.1021171518083523, 2.11299645687525, -2.746204199835319, 0.9360777111420928], [-0.6462556212779178, -1.3005813474012033, -1.7827925609512065, 4.3432228344934085, 0.19390814691826216, 2.478602130494468, -3.6456743897101367, 0.23197881185354602, 0.1454314389728173, -3.0529823665826754, 6.991571193366378, 1.535728864277566, 0.2606158497156307, 1.4055620790593315, -5.049623663507217, -0.20218256858304703, 1.2718372836066671, -3.9342867640890935, 5.809345105196002, -2.927899404269238, 0.13995483375667137, -4.69240542665185, 5.5416563308097455, -1.5305318961005372], [2.8631003983556003, -2.1238107835080164, 1.825224017219093, -1.8374957627620379, 0.12587384579704605, 3.09712250774219, -5.970782469167639, 1.5676615484236025, 2.0933312048163493, 0.4312054220114238, 3.2655221114742945, -4.429132812966117, 0.19899958595393796, 2.4358172628687895, -0.4740959188955829, 0.14157102473832206, -3.279870871336332, 7.33008952290738, -0.6962395923320213, 0.6530168514623756, 1.0106799443625147, -3.8218399857663, 0.9096219615145216, -0.27776227956337246]], "bias": [[-1.0516306642036546], [-0.49236455029671333], [-3.946208036805963], [-3.051709293541937]]}, {"layer": "activation", "activation": "sigmoid", "activation_prime": "sigmoid"}]}