{"generation": 277, "board_size": 10, "snake_size": 3, "input_direction_count": 4, "apple_return_type": "distance", "segment_return_type": "distance", "distance_function": "chebyshev_distance", "network": [{"layer": "dense", "input_size": 16, "output_size": 24, "weights": [[-1.890580978810801, -3.1891795624935964, -5.715696535264161, 4.671912214745306, -4.417920923807797, -3.0617620315969214, 0.08048450407069063, 1.0330870656774667, 0.7660330861571784, -1.5186627034764104, -3.5059549159243675, 0.5255001993244302, -1.1569222212685157, 5.345690266536405, 1.8358661988805483, 3.092069279827311], [-8.452759203654473, 2.7176961865299307, -1.585859131499907, 0.023740887150438657, -3.7910216476645204, -2.7786707850112986, -0.9487404685017737, 1.781391601987551, 3.260765890444759, 0.8072333756190997, 1.760810696987702, 4.455825448743625, -2.136359780992999, 0.32348212205536714, 2.984636294422617, 3.987447718933999], [-1.770516922244966, -1.438276694723096, -0.1444211149026246, -0.21475123899215076, -1.7550615982310696, 1.4488101060484495, 0.788208874334449, 6.046901732931563, -2.554932358832953, -0.5779041441622319, 7.79132880982317, 0.020493654963773755, 0.919329365722451, -1.8225843304862304, -1.6045091301832097, 2.2103533571962406], [2.008230918622674, -1.0557192064132368, -1.64706219839197, 2.9370897788105546, -2.6436399403169286, 1.3792581006180509, 2.5095457663096505, 1.7603202591285334, -7.628035182192092, 0.49729811058219964, -0.9043431218293003, 0.34964879333686505, 1.119351587724712, -5.85712072076768, 2.8414965474237084, 1.9067399531710962], [1.4417888928968177, -3.812113685781629, 1.9822224005991425, -3.165255365803448, 2.687088668922615, 1.0231947608733023, -2.9165590074681242, -3.86913230211833, -4.680434238116079, 1.6350478239855992, 0.027805560855920564, -2.2985390551878684, 1.41072749812728, 1.7930819227006274, 2.318587969054591, 4.301941027754937], [-0.3330795287995076, 0.2663982383528391, -2.389587912930127, -4.887274575986202, 3.137992835948313, -0.9255250882041643, 6.583261526391224, 1.9910430128673793, 2.9694383906892114, -4.065366858639923, 3.726224671335312, -3.2455866278419805, -1.6547637227838286, 2.11864775466404, 2.397518356944716, -1.9490235180144861], [0.7178138730702858, -1.6528441526467137, 4.242832310205484, 0.2511785390224728, -5.819627154895819, 2.587110397136303, 0.9371210799992944, -0.924992652103022, -2.420082756505994, 1.9539069933377142, 2.866705955763148, -2.1988965672867495, 1.6330174152828862, 0.6792051090731157, 2.515529903488286, 3.454710497721313], [-1.649486257709205, 0.5991940838632817, -2.384851397514617, -1.0913810616927817, -0.2845112581221316, 1.0197646660742206, -3.275325617030485, -4.0106545692101685, -0.7753346930869225, -0.01528129310056392, -0.231723880942327, -4.599561346711052, 3.8032706147354447, 3.2763388094423997, 2.6508454216206605, 1.4878641576095428], [1.6677312752525628, 2.7940369871243704, 0.06468111841172641, 0.706568082131625, 0.8008822849964239, -2.560821099668015, 1.4004692726652752, 0.2913881314163019, 0.46955365281084027, -2.6569931925483856, 1.2439928623954555, -0.39571723244695206, -0.7968354012487638, 2.99291763930617, 1.2215107785495671, -0.04177074345015547], [-0.646048297052366, 3.5018363215292663, 2.0491172547015086, -2.444844281321173, -1.1249165710518554, -4.285354135409005, 5.097627221859076, -0.3656140357956179, -3.2668584553858016, 4.826184988906504, 0.22251096337515036, 1.2469345619974572, -4.660185477281764, 0.66238254969417, 1.5451012598924887, -3.7321156046348873], [-1.1827888465726462, 0.4587097754219155, -1.8969390197049576, -2.778410678413956, 0.19343795566108574, -1.439389146778951, -2.142882334350903, 0.918965768298061, -2.2073257246198565, -3.430655639730475, 0.14423618632372648, -4.970513031703034, 2.960592102366399, 1.8038521630098368, -6.390467940883738, 0.40288734102141527], [-2.2345249478788403, -0.33268205440453613, -3.3636152220704716, 0.45317996894968415, -1.2418666421124094, -2.8005482757021585, -1.8454374499573434, 3.0894595913915106, 1.961321507501783, 1.4064882153829101, 1.6885817802639411, -3.627852302297296, 0.12964816782170807, -2.0078856297495014, -0.2642494034771621, 1.7628856021993224], [1.9300902660406685, 1.7667955130384616, 1.803405044655094, -3.717039272899736, 0.09987884861610008, -0.979210747134259, -1.3604879698910297, 4.324914561244591, -2.2094323385468675, 0.29368149288439604, 1.927688282445419, -0.09062105954491473, 0.6918323994059054, -1.3457987146198014, 1.4069646822249986, -2.5153230130417636], [1.2181923435441702, -0.245426056891773, 1.6289562888287779, 0.08846203456182844, 2.6281190532702947, -1.2728065766645869, -3.5692012338612256, 2.906775823336454, 3.5293811170873735, -4.445191121258363, 2.1845373909007773, 3.84644941086703, 0.6042244893421902, 0.6998778811583823, 1.8694152854812243, 0.33412721168742765], [0.2158573000155512, -4.086692817723766, -4.533608194652105, -4.607757938766779, 1.3716118061217148, 0.7055956492576102, 2.866511371714332, 1.31585656434296, 2.004591467886476, 1.8304541132616834, -1.953812250474852, -2.510660736774903, 4.984235595247649, -2.9074993478808153, 0.06081778168863872, -1.01202696621547], [2.8783569833785063, -2.9506466171937533, 0.21963720559766287, -3.448060993423412, 0.05088821413033617, -1.2996199713593664, 2.480129455565265, 0.468973744503945, -0.9567676914247375, 1.0867306650041006, -1.9325189205399824, -0.06352721247099097, -2.7470010829379703, 3.976473764941935, 0.08222708461107897, 1.172740024281672], [3.20395522710501, 6.178236546975423, -1.2815452991916112, 2.1926222440048955, 0.9673616864975267, -0.9266496323759493, 1.9853737653834487, 3.9139485657399833, -3.884851642285545, 0.40274277566080663, -0.5095270789471348, -3.1228773000937187, -0.45774970900462275, -0.9187551605218931, 0.8992879984560651, -0.5946990785491529], [-0.3704218973461522, -2.454206994735145, -1.1322882710785285, 0.7972477753764042, -3.618514951310437, -1.0299412513755355, 3.6920168588197475, 2.8573864694088185, -0.5816492764438645, 4.783735707804612, 1.3870650299962766, -1.607231305010324, 4.319251559426351, -0.025941024261400186, -1.3250876040980624, -1.0212382966350397], [0.059004135991546525, 2.1963866125048046, 2.2923566364271273, 0.3671763429725896, -1.439678721124793, -2.2800637083558777, -3.055753873163056, 0.23814181570580084, -0.9024962424372693, 5.379204115568985, 0.4203298936852882, 1.1177076106138557, 2.8357625910513424, -1.482137309416009, 4.2524423510056, -1.1180965550249151], [5.751458935154562, 5.561481709228241, -0.23378399541149142, 0.5647209611586546, 0.7081265627821829, -1.9193857787880595, -0.8622472462691473, -2.4932332752737727, 3.1913361174499597, -2.105354125584638, -0.844424497770219, 5.073738143071913, -2.6362470689130415, 1.2000330881454961, -2.7080619755850996, -2.348927717822037], [-1.0342872236620164, -2.224280115844174, -2.520167058400038, -0.023316721806659002, -1.075502444517598, 1.9918408392036955, -1.9376747505739713, -0.40702973690764954, 0.2637141795176146, 0.19623181548699611, 1.8631107489279999, -10.154144895439035, -4.0057560283853, -3.766146394122849, 3.344480260195983, -4.8443407992637315], [-2.1930381841736177, 6.111048443598603, 3.3392583679383887, 0.09620391871107326, -3.0114023945202493, 2.0399003471746693, 0.4478857226237949, -0.7013943630005006, -0.48497085189094347, 1.806051403981337, 0.06507961400862838, -1.005753912847505, 0.7895014299219669, -0.26769401546419763, 0.40532549080653957, 3.7884559754458924], [-4.831007666690247, 2.3410048794815346, -4.300457073700862, -1.7261665128267933, 3.010142053730322, 1.4710293334136193, 4.335886761209292, 1.8315621662955726, 0.20397892487518932, 0.217146116584791, -0.28398571441696896, 0.5482665966819136, 4.152185314851832, 1.3785385315211203, -6.29770018393517, 0.4417877504850196], [-0.30130623774812504, -2.3397523331767527, -4.5966260666535526, 2.812164472469874, -1.1750837163086134, 2.703701226916368, -0.3081608976686556, 4.952238587814023, -0.12658587392947868, 5.799966856967907, -0.8686400305248074, 2.5465926137731927, 2.7790155536589447, -0.09667290440851686, -0.4574061785191885, -0.8838680685962967]], "bias": [[0.461481956506833], [0.13174187112496544], [1.024065507330397], [1.2338174816066558], [-3.338709618781622], [2.48938514667938], [1.8999813743217449], [0.2816291250712467], [-2.162499826719599], [5.036482960588118], [-2.3347627718488067], [-2.9772809389399457], [-1.8682504762119736], [-5.000401263567479], [-3.015403968395035], [1.5522673271165073], [1.331940816577939], [0.5632866119167251], [-1.1230234284325338], [-6.5363960421388745], [-0.9609280817648237], [0.8558691122212965], [-1.2763013589209424], [0.13137136695751578]]}, {"layer": "activation", "activation": "relu", "activation_prime": "relu"}, {"layer": "dense", "input_size": 24, "output_size": 4, "weights": [[-0.8981180532680832, 0.9621189143229567, 0.8461138447478046, -2.2820765101125082, 4.349916082473114, 0.2588700114006375, -0.7794053010703549, 0.9126301258184105, -1.0814946399305738, 1.6415573812275366, 2.4599936125355306, -1.161333583631428, 3.2777580781982816, 1.306449914000737, 1.728534308435767, 0.535139091817815, 0.37540701698478696, 0.6514680493161181, 0.6423733140429735, 0.6072226018305453, -0.1539764793696509, 2.766928991849805, 2.6605338211586513, 0.1950083096837973], [-5.238716332668895, 3.631783284023092, -0.9489411730091997, 2.1715093559232814, -2.0367878972818585, 2.4098651539652587, 1.2121655617274567, 4.145931026211234, -0.07640624296625886, 2.4185571516157256, -0.6334917643438795, -0.7932551089366282, -6.383115020246423, 3.5224693180921522, 0.3130181536646166, 0.9940432931288483, -2.7234298789041462, -3.569661216786963, -0.15726999405846442, -0.8751114745360254, 1.3120445281584268, 2.474761422104372, -4.120138213476973, -4.474694243803206], [0.2308795174506595, -2.204997230156917, -0.6509012566374481, 4.295835757624445, -0.6360133387438816, 1.46645312481764, 0.7615139406347349, -3.251127710939685, 0.3363744049588122, 0.6190169870570825, 2.2609987798871596, -1.3243567665593499, 1.0213071603203283, 2.1378861013403894, -2.961080987931959, -0.8075566053938057, 3.1475218291634492, -0.1008208045902681, 2.0368312477836, 2.7344825758043196, -2.580075808292381, -3.9580212960873036, -8.18315467730179, 2.1591308540103884], [1.668001462888452, -2.9042543515235204, 1.6675230493335687, -3.2428917599061746, 2.683219482801856, -1.055585527795024, 2.9571069828063017, -0.6062407999671954, 6.0580444163127884, 1.1083373743453402, -0.013056292919104706, 0.7939444951884858, 5.8253701196628045, 0.9610147441440462, -2.904792038885984, -3.8180555548146065, -2.949135242477348, 1.83231746705288, -1.6986689101295371, 2.727400673176903, 2.2886602150276225, -0.27418287511513845, -6.011237046945784, -0.06477214779560925]], "bias": [[-2.6557073472760964], [-4.698610067299389], [0.30015609899885076], [1.9947645130245992]]}, {"layer": "activation", "activation": "sigmoid", "activation_prime": "sigmoid"}]}