{"generation": 309, "board_size": 10, "snake_size": 3, "input_direction_count": 4, "apple_return_type": "distance", "segment_return_type": "distance", "distance_function": "chebyshev_distance", "network": [{"layer": "dense", "input_size": 16, "output_size": 24, "weights": [[-1.5689303053976147, -3.09897959188231, -5.503103742018184, 4.671912214745306, -5.860365988918289, -3.2507701548906067, 0.08048450407069063, 0.33927984196214167, 1.5932671392094968, -2.8628142191007084, -3.5059549159243675, 2.6796194513446236, -1.1569222212685157, 4.591706814073014, 1.2427690303934473, 3.743019599423579], [-9.50504751249692, 2.709918743138174, -1.2301615963136494, 0.023740887150438657, -4.467456634892151, -1.4342486618751928, -0.9487404685017737, 1.9016587899109512, 3.1427946129744284, 0.6987458876062662, 1.760810696987702, 2.595505762107278, -0.7759740613290655, 0.32348212205536714, 4.326583288275499, 4.042735821442638], [-2.166302366113949, -2.067994203541285, -3.0632091079038704, 0.4422756463920715, -0.9809343901141173, 1.4488101060484495, 1.3197624965524206, 5.066700726761831, -0.6236109963085217, -1.06289882620886, 6.65315986857334, -1.4059485744865987, 0.7646921898219124, -2.265202782802751, 0.41670274226477366, 2.1247654667384746], [2.0088876535264824, -0.8538345792110948, -2.4659377247032044, 1.7785959848005501, -2.5901967809916315, 1.3692360716734795, 2.5095457663096505, 1.6397208736791373, -7.628035182192092, 0.03348779851076, 0.8279274306211564, 0.5414249307393143, 1.7019930456370544, -5.85712072076768, 2.8414965474237084, 1.344844111383134], [-1.0594250070158688, -5.656202770022759, -0.11857598877545056, -1.944739405824507, 3.4800862892281073, 4.047677998253324, -2.9165590074681242, -3.86913230211833, -4.680434238116079, 1.6350478239855992, 0.027805560855920564, -1.3778349361979143, 1.29630096069284, 1.9025632772710668, 2.629898253941215, 4.806594790546113], [-0.3330795287995076, -0.48741374847420926, -1.6196788485395444, -6.210422953517446, 3.137992835948313, -0.7935850108236804, 6.940638373680801, 3.662003001496453, 2.9694383906892114, -5.284698211056501, 0.5849348465992867, -3.0559943701968892, -0.2955077993054048, 1.1612872213589582, 2.5787764741030803, -1.9490235180144861], [0.025928826715871933, -1.6528441526467137, 4.0771439718144284, 0.2511785390224728, -6.45644003714909, 0.7231116511191751, 2.4574138743792, -0.924992652103022, -2.420082756505994, 1.9539069933377142, 2.8496828734761466, -4.297269918033764, 0.6897813764041665, 1.6675094107365642, 3.6361248537949877, 3.454710497721313], [-1.2073257990788142, -0.05211637979453676, -2.522943380057026, -1.588454853000918, -2.4385777345108512, 1.0197646660742206, -3.275325617030485, -4.449884825969127, -2.7655992422116893, -1.7234204361289018, -0.5947124654840803, -4.599561346711052, 3.8447281514279252, 1.599615125447773, 2.8541739187636446, 1.4117034548899505], [1.6677312752525628, 2.239907801221695, 0.7572546730414835, 1.731027513243511, 1.724019132213598, -2.560821099668015, 1.6572520115886902, 0.5853526798157715, 0.07712539428791731, -2.0819898878105354, 1.2439928623954555, -0.842506118713273, -1.0970086280055409, 2.608748670801742, -0.7682820592432233, -0.5475522999578764], [-0.802869070333477, 3.0766565399918173, 1.7045584109513752, -2.444844281321173, -1.1249165710518554, -4.285354135409005, 4.960092824674147, -0.5281155597534591, -4.618666357227277, 5.439827234613145, 1.1534922764002198, 0.6227787560603233, -5.6820705825414475, 2.674642597166275, 2.2379760951896412, -3.9844943411375873], [1.2698619935174948, -1.629007213741611, -0.8883554720101936, -5.17295809872348, 0.19343795566108574, -1.439389146778951, -2.142882334350903, 1.8981611348841299, -0.8997900895127054, -2.662962081259241, 3.164332066860037, -4.970513031703034, 2.177838171647739, 1.8038521630098368, -6.157256982860249, 0.5436866006436909], [-2.2345249478788403, -1.4536979091632274, -3.3636152220704716, -0.7872501878690603, -1.2418666421124094, -1.8576392107382143, -2.8209172804345166, 4.161558062497657, 1.7243986771851039, 1.3724935110971301, 3.200685917693912, -0.32737117346034506, 0.12964816782170807, -0.9061694364791082, -1.6937639046319282, 1.7628856021993224], [-0.5130461557416888, 1.7667955130384616, 1.2853866196838055, -0.26570152968320593, -0.5972428346645213, -5.148680519562058, -1.3604879698910297, 4.266577025755236, -4.214781308574514, -3.50022382049925, 1.927688282445419, -0.09062105954491473, -0.33719961449795244, -2.342266219573693, 1.4069646822249986, -3.679929529066779], [0.9916346318215689, 0.9363101069909943, -0.29707272221789044, 1.8934328129632176, 4.860147894347277, -3.7884519902261813, -5.429475072247241, 2.573971404791554, 4.733664617819642, -4.375062365310253, -0.2288043480354045, 3.84644941086703, 0.6954031274297829, -2.9066460998086883, 1.8694152854812243, -2.828577746976509], [0.2158573000155512, -3.340416373429002, -4.533608194652105, -2.7535327402334535, 1.1898705183170184, 0.0274814840322746, 2.866511371714332, 1.2426898876414663, 0.2763274584234332, -0.7194211864559616, -1.6654427896582362, -0.754569911017519, 4.2786812193115376, -1.6118943400627654, 0.9478716013342001, -0.7381600013212246], [4.711096299002546, -3.3087164400526294, 1.228239359652844, -4.70195642582973, 0.2926381504160177, -3.26401036389153, 3.8290798286066874, -1.3194244151266128, 0.3050591917510387, 0.10235142886611437, -1.8650247796084785, 0.19177646225996853, -2.7470010829379703, 5.23436139078122, 0.08222708461107897, 1.172740024281672], [2.2689457846949725, 5.984574522854788, -1.2815452991916112, 2.536976932863812, 2.092905997170486, -1.7726955746771644, 2.4296200527328624, 2.382671176777357, -2.67719832296844, -1.401992361213808, -2.301132356790859, -4.226318493243436, -0.2155162907122502, -0.9187551605218931, 1.5210961271328525, -0.5946990785491529], [-1.3755719643858184, -1.9984367677197215, -1.1322882710785285, 0.9041369125837497, -2.5758047357196663, -1.0299412513755355, 2.3692852124888946, 2.8573864694088185, -0.5816492764438645, 4.783735707804612, 1.1670088367568396, -3.1045953305220246, 5.7568940591022155, -0.25700144581393797, -2.388686885515013, 0.4879513192860021], [0.4943402791123953, 2.288239175479422, 0.18780918631584784, 1.3495904998410833, 0.7959954294271587, -2.2800637083558777, -4.957119745718142, 0.23814181570580084, -0.5435292815476089, 6.056657482344611, -1.070921934522242, 1.1177076106138557, 2.96835002379843, -1.4069443606599694, 2.1464090293595235, -2.0740944579144767], [4.319730322864826, 5.39719130397377, -5.243653881672074, -1.8181803054772272, 0.7081265627821829, -2.0608256944972894, -0.8622472462691473, -3.1595674406942305, 1.7443103801322206, -3.479371063783387, -0.844424497770219, 5.073738143071913, -2.6362470689130415, 1.542748115116008, -3.1887444751668386, -0.8983949544846097], [-1.221689166864184, -0.05870893629731297, -2.547166129169411, 0.9777501210041117, -0.705987177905894, 0.856955451202404, -3.1750586486379184, -0.40702973690764954, -0.6177124257726029, -1.3032363323999434, 1.061790806900367, -10.154144895439035, -1.8110348111020178, -4.823872146767954, 4.4769634191654015, -3.4091607198628826], [-3.5358538041786645, 6.111048443598603, 0.6178687723076917, 0.09620391871107326, -5.104580082682375, 2.369823958204827, 0.48324468861379966, -0.8055456209193553, -0.9203013358418103, 1.597595615009395, 0.06507961400862838, -1.005753912847505, 0.7895014299219669, -2.128677312574151, -0.6857062737461839, 3.7884559754458924], [-4.831007666690247, 0.5552264309563189, -4.300457073700862, -1.3029923963365764, 3.010142053730322, 1.4710293334136193, 5.2236731266459735, 2.6394224712896914, -0.41272312951253604, 0.217146116584791, -1.0322613998888688, -0.12562324428411364, 4.2912715240550945, 1.3785385315211203, -6.6517876606936825, 0.17278265107281482], [1.7824832349442077, -2.3594187748610804, -4.511693593026923, 2.812164472469874, -1.596062508598232, 2.703701226916368, -3.1102832665560918, 4.952238587814023, -2.2463579563607396, 8.647415946579386, -1.2310837207059433, 3.9159580229158113, 2.6771859977877654, -2.5329357302880813, -1.6947778568690066, 0.42663271355925403]], "bias": [[0.461481956506833], [0.23309201667470392], [0.26972190311583577], [1.2338174816066558], [-2.6562764389525406], [2.48938514667938], [1.8999813743217449], [-0.19466122796840052], [-2.941128307927031], [3.024535660470003], [-2.12951098620774], [-2.9772809389399457], [-0.828416729463258], [-5.940206635853742], [-3.978971373305733], [1.0567027767266413], [1.331940816577939], [-1.0204806080567617], [-1.4971473149914452], [-7.537030040785334], [-1.913877495475258], [2.173847287748279], [-1.2763013589209424], [0.13817501572786095]]}, {"layer": "activation", "activation": "relu", "activation_prime": "relu"}, {"layer": "dense", "input_size": 24, "output_size": 4, "weights": [[-0.8981180532680832, 0.9621189143229567, 1.1991537464072404, -2.2820765101125082, 3.090635959989754, 0.2588700114006375, -1.1098196934257505, 1.2637064060101206, -0.5946296239576199, 1.6415573812275366, 5.512533200954452, -2.0582860681479547, 3.1612528666387054, 1.6762078046069335, 2.847454675211659, -0.17572470026917264, -1.039313279653985, -0.06985849766049557, 2.1419204044000195, 2.246445664833146, 0.09271820681515486, 2.8138682470960443, 4.802720577703405, 0.1950083096837973], [-4.850443145904038, 3.8258919224567816, -1.4464773478340172, 2.1715093559232814, -2.821226299661325, 2.4528866473788784, 1.2121655617274567, 4.145931026211234, -0.07640624296625886, 2.4185571516157256, -0.008453694180730498, 0.07047524706653319, -6.672239819283541, 4.086966446407425, 0.20677714204779918, 0.9940432931288483, -2.7234298789041462, -5.264788332680174, -2.2891182188351378, -0.8751114745360254, 1.3120445281584268, 2.01733303144099, -3.5726010877389824, -2.8291871539775153], [-1.9735203927440832, -2.204997230156917, -0.6509012566374481, 3.232253847596515, 2.412080289745204, 1.8403769632783331, 0.7615139406347349, -3.9582399965336146, 0.5325454099094031, 0.14363463688494554, 2.1469171104252487, 0.00740852244762405, 0.9998384012729651, 3.5834197458451738, -5.153720462770526, -1.094077967301476, 4.470889010160208, -0.13113470884556572, -0.167820724065314, 3.9244208949978434, -2.4804248293378213, -4.062905808992113, -8.18315467730179, 2.1591308540103884], [1.668001462888452, -2.9042543515235204, 1.1987439797436883, -3.9762519071286753, 3.3000454702197493, -2.0306032009373016, 2.9571069828063017, -0.3415289373248107, 6.902868732547938, 1.1083373743453402, -0.013056292919104706, 0.7939444951884858, 0.38564817427262943, -0.17286680701155466, -1.5813845395113797, -3.590708639736309, -3.316200054660296, 1.4174159536027202, -0.9381036658927776, 3.913414704720056, 2.9227442533121115, -0.27418287511513845, -6.011237046945784, -0.06477214779560925]], "bias": [[-3.0201652401219903], [-4.365677221554332], [0.30015609899885076], [1.9947645130245992]]}, {"layer": "activation", "activation": "sigmoid", "activation_prime": "sigmoid"}]}