{"generation": 275, "board_size": 10, "snake_size": 3, "input_direction_count": 4, "apple_return_type": "distance", "segment_return_type": "distance", "distance_function": "chebyshev_distance", "network": [{"layer": "dense", "input_size": 16, "output_size": 24, "weights": [[-1.890580978810801, -3.1891795624935964, -5.715696535264161, 4.671912214745306, -5.860365988918289, -3.2507701548906067, 0.08048450407069063, 1.0330870656774667, 1.5932671392094968, -1.5186627034764104, -3.5059549159243675, 0.5255001993244302, -1.1569222212685157, 4.591706814073014, 1.2427690303934473, 3.092069279827311], [-8.452759203654473, 2.2655222386668235, -2.188240198277556, 0.023740887150438657, -3.7910216476645204, -2.6069994763401345, -0.9487404685017737, 0.644032101269991, 3.260765890444759, 0.6987458876062662, 1.760810696987702, 3.481973550847168, -0.9212146263582227, 0.32348212205536714, 4.326583288275499, 3.987447718933999], [-1.770516922244966, -2.067994203541285, -0.586576623899555, -0.21475123899215076, -1.7550615982310696, 1.4488101060484495, 0.20799302671456465, 6.046901732931563, -1.5248281955164638, -2.2342857142449257, 6.65315986857334, -0.32585466270406926, 0.919329365722451, -1.8225843304862304, -0.3258506618609246, 2.2103533571962406], [2.147074177938801, -0.8538345792110948, -1.64706219839197, 1.7785959848005501, -2.9128502123628666, 1.3792581006180509, 2.5095457663096505, 1.7603202591285334, -7.628035182192092, 0.03348779851076, -0.9043431218293003, 0.34964879333686505, 1.7019930456370544, -5.85712072076768, 2.8414965474237084, 1.9067399531710962], [1.4417888928968177, -3.812113685781629, -0.11857598877545056, -2.2117984805911197, 1.875746185239822, 2.2958289632861772, -2.9165590074681242, -3.86913230211833, -4.680434238116079, 1.6350478239855992, 0.027805560855920564, -1.240779679393956, 1.41072749812728, 1.7930819227006274, 5.275448771626385, 4.301941027754937], [-0.3330795287995076, 0.4218869313860859, -2.0167241606043125, -5.696432236840012, 3.137992835948313, 0.07886123495007213, 6.583261526391224, 1.9910430128673793, 2.9694383906892114, -4.065366858639923, 0.5849348465992867, -4.483964008645344, -0.24842640024550278, 1.5875863107660648, 2.397518356944716, -1.9490235180144861], [0.025928826715871933, -1.6528441526467137, 4.242832310205484, 0.2511785390224728, -6.45644003714909, 2.587110397136303, 1.9997483079748632, -0.924992652103022, -2.420082756505994, 1.9539069933377142, 2.590933228937491, -4.297269918033764, 0.6897813764041665, 0.6792051090731157, 2.515529903488286, 3.454710497721313], [-1.5091366921938898, -0.05211637979453676, -2.384851397514617, -1.0913810616927817, 0.4871836680947773, 1.0197646660742206, -3.275325617030485, -3.4372388597277577, 0.1917048516659653, -1.7234204361289018, -0.231723880942327, -4.599561346711052, 3.8447281514279252, 3.2763388094423997, 2.6508454216206605, 1.83770455311433], [1.6677312752525628, 2.7940369871243704, -1.2843107373840095, 1.731027513243511, 0.8008822849964239, -2.560821099668015, 1.4004692726652752, 0.5993549254843844, 0.07712539428791731, -3.4122547911393806, 1.2439928623954555, 1.169177619722392, -0.7968354012487638, 2.99291763930617, 0.13317518186135646, -0.5475522999578764], [-0.646048297052366, 2.2735432344931024, 1.7045584109513752, -2.444844281321173, -1.1249165710518554, -4.285354135409005, 5.097627221859076, -0.3656140357956179, -2.8845461841581654, 5.025557238206106, 0.22251096337515036, 0.06313228084371159, -5.6820705825414475, 0.66238254969417, 1.5451012598924887, -3.7321156046348873], [-0.1819390609298001, 0.6264322594808284, 0.9032261350088151, -5.3589147339174765, 0.19343795566108574, -1.439389146778951, -2.142882334350903, 0.918965768298061, -1.8734127703364472, -3.430655639730475, 2.1371354848752304, -4.970513031703034, 2.177838171647739, 1.8038521630098368, -5.027918666887656, 0.2223767610472197], [-2.2345249478788403, 0.7144457512884893, -3.3636152220704716, -0.859724354199326, -1.2418666421124094, -2.8005482757021585, -2.8209172804345166, 3.0894595913915106, 1.7243986771851039, 1.4064882153829101, 3.200685917693912, -3.9020662418199095, 0.12964816782170807, -2.0078856297495014, -1.3743481834464717, 1.7628856021993224], [1.4700434002590501, 1.7667955130384616, 1.803405044655094, -3.32460007424682, 0.3293206698252976, -2.3754346318720825, -0.8795565542879369, 4.324914561244591, -2.2094323385468675, 0.29368149288439604, 1.927688282445419, -0.09062105954491473, 0.6918323994059054, -1.0329612147490668, 1.4069646822249986, -2.5153230130417636], [1.2181923435441702, -0.245426056891773, -0.21651130348047243, 1.3464162109456677, 4.34990754178923, -1.701097205068973, -3.5692012338612256, 2.906775823336454, 3.5293811170873735, -4.445191121258363, 2.1845373909007773, 2.54008782253136, 0.6042244893421902, -1.6556408435295433, 0.23344107088031096, 0.33412721168742765], [0.2158573000155512, -3.340416373429002, -4.533608194652105, -4.607757938766779, 1.3609174345372677, -0.16794343240200704, 2.866511371714332, 1.31585656434296, 0.7844026788155349, 0.5832077735889176, -1.2041614786558648, -2.150542195184989, 4.984235595247649, -3.1211487760433987, 0.06081778168863872, -1.01202696621547], [2.8783569833785063, -2.9506466171937533, 0.9692893376367184, -3.448060993423412, 1.1079447990759757, -1.266161685309467, 5.107277158888039, 0.047595546409377076, -0.9567676914247375, 1.0867306650041006, -1.8650247796084785, -0.06352721247099097, -2.7470010829379703, 3.976473764941935, 0.08222708461107897, 1.172740024281672], [2.2689457846949725, 6.678383263850599, -1.2815452991916112, 2.536976932863812, 2.02779297077357, -1.4919901881303668, 2.4296200527328624, 3.9139485657399833, -3.884851642285545, -1.401992361213808, -1.5911870579410663, -3.217364267655121, -0.2155162907122502, -0.9187551605218931, 0.8992879984560651, -0.5946990785491529], [-0.3704218973461522, -1.9984367677197215, -1.1322882710785285, 0.7972477753764042, -3.618514951310437, -1.0299412513755355, 3.6920168588197475, 2.8573864694088185, -0.5816492764438645, 4.783735707804612, 1.1670088367568396, -1.607231305010324, 4.319251559426351, -0.025941024261400186, -1.3598803794492638, -1.0212382966350397], [1.0143869703496877, 2.288239175479422, -0.04213747475156493, 0.3671763429725896, 0.34795275773787426, -2.2800637083558777, -3.055753873163056, 0.23814181570580084, -0.5435292815476089, 5.379204115568985, 0.4203298936852882, 1.1177076106138557, 2.96835002379843, -1.482137309416009, 2.4108449346727165, -1.044488326168627], [4.319730322864826, 3.642445742388123, -0.7830920505174752, -2.0156153160279464, 0.7081265627821829, -1.9193857787880595, -0.8622472462691473, -2.4932332752737727, 1.7443103801322206, -2.105354125584638, -0.844424497770219, 5.073738143071913, -2.6362470689130415, 1.542748115116008, -2.7080619755850996, -2.348927717822037], [-1.0342872236620164, -0.03090460744627377, -2.520167058400038, -1.173643810716386, -1.075502444517598, 1.9918408392036955, -1.3952103901512967, -0.40702973690764954, 0.2637141795176146, 0.4266651361846683, 0.9353115716621078, -10.154144895439035, -3.094740037360354, -3.688839325178842, 3.344480260195983, -4.8443407992637315], [-2.1930381841736177, 6.111048443598603, 3.3392583679383887, 0.09620391871107326, -3.0114023945202493, 2.0399003471746693, 0.48324468861379966, -1.7117012559425324, -0.21440241563899742, 1.806051403981337, 0.06507961400862838, -1.005753912847505, 0.7895014299219669, -0.26769401546419763, -0.02087928258558769, 3.7884559754458924], [-4.831007666690247, 2.2528247705823876, -4.300457073700862, -1.5833918920074637, 3.010142053730322, 1.4710293334136193, 3.8144215741664063, 2.437711380144627, 0.20397892487518932, 0.217146116584791, 0.08215514972247329, -0.12562324428411364, 4.152185314851832, 1.3785385315211203, -6.29770018393517, 0.17278265107281482], [0.11897130883162563, -2.3397523331767527, -4.511693593026923, 2.812164472469874, -0.9559122368096876, 2.703701226916368, -2.0242530827148837, 4.952238587814023, -2.2463579563607396, 5.799966856967907, -0.14795047817158752, 2.5465926137731927, 2.3217109955096555, -2.5329357302880813, -1.2626429666880488, -0.8838680685962967]], "bias": [[0.461481956506833], [-0.708480432943752], [1.024065507330397], [1.2338174816066558], [-3.338709618781622], [2.48938514667938], [1.8999813743217449], [-0.19466122796840052], [-2.941128307927031], [3.1099162749222193], [-2.12951098620774], [-2.9772809389399457], [-0.828416729463258], [-3.9939555741023383], [-3.015403968395035], [1.0567027767266413], [1.331940816577939], [-0.6792938082911796], [-1.4971473149914452], [-6.489757673934913], [-1.913877495475258], [0.8558691122212965], [-1.2763013589209424], [0.13137136695751578]]}, {"layer": "activation", "activation": "relu", "activation_prime": "relu"}, {"layer": "dense", "input_size": 24, "output_size": 4, "weights": [[-0.8981180532680832, 0.9621189143229567, 1.1481566502891112, -2.2820765101125082, 4.349916082473114, 0.2588700114006375, -0.7794053010703549, 0.9126301258184105, -0.5946296239576199, 1.6415573812275366, 2.4599936125355306, -1.161333583631428, 3.2777580781982816, 1.306449914000737, 1.728534308435767, -0.8363155886432802, -1.039313279653985, 0.6514680493161181, 2.1419204044000195, 0.6072226018305453, 0.09271820681515486, 2.9323352256175257, 3.388998088202403, 0.1950083096837973], [-5.238716332668895, 3.8258919224567816, -2.0259530183021304, 2.1715093559232814, -2.0367878972818585, 2.4098651539652587, 1.2121655617274567, 4.145931026211234, -0.07640624296625886, 2.4185571516157256, -0.6334917643438795, 0.07047524706653319, -6.544681014715095, 3.5224693180921522, 0.4983533533404827, 0.9940432931288483, -2.7234298789041462, -3.569661216786963, -0.15726999405846442, -0.8751114745360254, 1.3120445281584268, 2.01733303144099, -3.5726010877389824, -2.8291871539775153], [-1.9735203927440832, -2.204997230156917, -0.6509012566374481, 5.234189830576468, 0.7211607365449517, 1.46645312481764, 0.7615139406347349, -3.251127710939685, 0.5325454099094031, 0.6190169870570825, 2.2609987798871596, -0.6826484991799521, 1.0213071603203283, 3.144968413032182, -2.961080987931959, -1.094077967301476, 3.1475218291634492, -0.023509998136257898, 1.786381036356037, 2.7344825758043196, -2.4804248293378213, -3.9580212960873036, -8.18315467730179, 2.1591308540103884], [1.668001462888452, -2.9042543515235204, 1.1987439797436883, -3.2428917599061746, 1.7225065549743235, -1.055585527795024, 2.9571069828063017, -1.1191610859084844, 5.577976384160024, 1.1731359658869143, -0.013056292919104706, 0.7939444951884858, 2.663591835823584, -0.17286680701155466, -2.904792038885984, -3.251026831522726, -3.213107688977602, 1.4174159536027202, -1.6986689101295371, 4.365979336963964, 1.5441451040631242, -0.27418287511513845, -6.011237046945784, -0.06477214779560925]], "bias": [[-2.6557073472760964], [-4.698610067299389], [0.30015609899885076], [1.9947645130245992]]}, {"layer": "activation", "activation": "sigmoid", "activation_prime": "sigmoid"}]}