{"generation": 305, "board_size": 10, "snake_size": 3, "input_direction_count": 4, "apple_return_type": "distance", "segment_return_type": "distance", "distance_function": "chebyshev_distance", "network": [{"layer": "dense", "input_size": 16, "output_size": 24, "weights": [[-2.9507204301100733, -3.09897959188231, -5.503103742018184, 6.361168699036786, -6.332647580665765, -3.2507701548906067, 0.08048450407069063, 0.33927984196214167, 1.5932671392094968, -2.0607030858928423, -3.5059549159243675, 1.1416682452282494, -1.2366696897537786, 4.591706814073014, 0.9710449959300024, 3.0445475355071756], [-8.452759203654473, 1.139638139527339, -1.585859131499907, 0.023740887150438657, -6.202191354369299, -1.9187225285879366, -0.9487404685017737, 1.9016587899109512, 3.1427946129744284, 0.6987458876062662, 1.760810696987702, 3.0198087035504377, -4.483409623963155, 0.32348212205536714, 2.702284266229989, 3.987447718933999], [-1.770516922244966, -2.067994203541285, -3.5748456308370784, 0.34164028602267205, -0.8364325194112672, 1.8285330254228562, 1.1948642509756748, 6.046901732931563, -1.5248281955164638, -2.2342857142449257, 6.65315986857334, -1.4059485744865987, 0.7646921898219124, -1.8225843304862304, 0.41670274226477366, 2.635688211985131], [2.40360942593997, -0.8538345792110948, -2.4659377247032044, 1.7785959848005501, -2.9128502123628666, 0.5296280227452164, 2.5095457663096505, 1.3811948607078361, -7.628035182192092, -0.7296537669835435, 0.8279274306211564, 0.34964879333686505, 1.7019930456370544, -3.6729919616845237, 2.8414965474237084, 1.9067399531710962], [-0.6352236690906451, -5.656202770022759, -0.11857598877545056, -2.2117984805911197, 2.687088668922615, 4.921428584481393, -4.395566947351654, -5.583859384421266, -4.680434238116079, 1.6350478239855992, 0.027805560855920564, 2.515207944547548, 1.29630096069284, 2.290785824394228, 2.816149975408794, 5.021450009488149], [-0.3330795287995076, -2.574738462834634, -0.3342035343498202, -5.992676695177445, 3.137992835948313, 0.07886123495007213, 6.583261526391224, 1.606457415905709, 2.9694383906892114, -5.284698211056501, -0.6615702977490756, -3.0559943701968892, -0.6544734350056498, 1.5875863107660648, 4.314443679593025, -1.9490235180144861], [-0.4831647718810771, -1.6528441526467137, 4.189673350820131, 0.33861961592251744, -6.45644003714909, 2.2751792788365424, 3.216874600887529, -0.924992652103022, -2.420082756505994, 1.9539069933377142, 4.820222286653786, -4.297269918033764, 0.6897813764041665, 1.6807544454823378, 2.515529903488286, 3.89418042185341], [-1.4572713866389415, -0.05211637979453676, -1.627753591346142, -0.4268316961837392, 0.4871836680947773, 0.41248189828583537, -3.275325617030485, -3.9180656091708537, -2.5009460841396134, -1.9334367720624204, 1.1600264341216318, -5.650262023726845, 2.4156832688916308, 2.0475191937110018, 2.032713550270465, 1.4117034548899505], [2.3511539282403233, 1.187672218639516, 0.7572546730414835, 1.7138979499217994, 2.7181063967502914, -3.338436207653788, 1.6572520115886902, 0.5993549254843844, 0.07712539428791731, -3.716684084477435, 3.206826225725163, -0.39571723244695206, -0.7968354012487638, 2.608748670801742, 1.6973094164025735, -0.5475522999578764], [-1.871994274663551, 1.8178312829744576, 1.7045584109513752, -1.3635124980739246, -1.2234925702230337, -4.285354135409005, 5.097627221859076, -1.8106195261047358, -3.1535765971183767, 3.6248480994462957, -0.8223451358839418, 0.06313228084371159, -5.6820705825414475, 2.03818675076856, 2.2379760951896412, -3.9844943411375873], [1.0135638569925307, -1.0767241539296155, 3.909329711973318, -4.569890252919765, -0.5249863185622361, -1.439389146778951, -2.142882334350903, 0.918965768298061, -1.8734127703364472, -3.430655639730475, 3.164332066860037, -3.5381372574480396, 2.177838171647739, 2.271499331880446, -6.760038420251494, 0.32389606357809786], [0.9996490769769117, 1.0864916307424544, -3.944550899891657, -0.859724354199326, -1.2418666421124094, -1.5836094824029483, -2.8209172804345166, 3.807013518388557, 2.918145335858432, 1.4064882153829101, 3.200685917693912, -3.231614132117593, 0.12964816782170807, -1.0031460884275434, -1.6937639046319282, 1.7628856021993224], [1.4700434002590501, 1.8536248018543753, 1.803405044655094, -3.32460007424682, -0.5972428346645213, -2.16756106143699, -1.3604879698910297, 4.324914561244591, -2.6842261106282104, -1.4429974170294462, 2.8853336280931434, 0.0628140314055538, 1.4685733045342297, -0.9276173206791856, 1.4069646822249986, -2.5153230130417636], [1.8013913635178305, -0.7437884547562954, 0.21019309708479617, 2.743736343019513, 3.8071224254599074, -1.701097205068973, -3.9770485228606804, 2.573971404791554, 3.5293811170873735, -7.502746279088954, 1.1038348801674758, 3.84644941086703, 0.6042244893421902, -1.7895003513333243, 1.8694152854812243, -1.7942450950894806], [0.2158573000155512, -1.9029359116949613, -3.9012151838696085, -3.7221483528304136, 1.1898705183170184, 0.0274814840322746, 0.8194815757332246, 0.40899094338836384, 1.1619880319036775, 0.5832077735889176, -1.903628116909048, 1.3730841876035778, 4.2786812193115376, -3.1211487760433987, 0.5340703841508374, -0.7381600013212246], [4.711096299002546, -1.452885356156847, 0.9692893376367184, -3.128406391943851, 1.7774704915452735, -3.823449778627311, 5.169682554917425, -0.7876844693944849, -0.9567676914247375, 0.2809540727833146, -1.8650247796084785, 1.782567203106149, -2.7470010829379703, 4.586431287219509, 0.08222708461107897, 2.3939020939078777], [2.4712573893488603, 6.320577005542849, -1.2815452991916112, 2.536976932863812, 1.856471368817644, -2.4590605765497244, 0.7560715913119569, 3.9139485657399833, -2.67719832296844, -1.1852438016375375, -2.301132356790859, -3.217364267655121, -0.2155162907122502, 1.8044582845170005, 1.6507356980557262, -0.5946990785491529], [1.3726815639605723, -1.4718053024012527, -0.9807852592426765, 0.7972477753764042, -3.3340491981060403, -1.3216516971231373, 3.1417604679629103, 3.2191865807913795, -0.5816492764438645, 4.783735707804612, 1.1670088367568396, -1.276480121394731, 6.144488861286443, -0.25700144581393797, -1.3598803794492638, -6.095558804171954], [0.059004135991546525, 2.048524337946968, -0.046196977296376146, 0.3671763429725896, 0.7959954294271587, -2.2800637083558777, -2.6217678940671085, 0.44633783391120296, -0.9979270674079506, 5.379204115568985, -0.009969199059460476, -0.6156681676445621, 2.96835002379843, -0.28278269666829114, 2.4108449346727165, -1.044488326168627], [3.6939593543825326, 1.5956112086435146, -3.845018814315375, -0.7927031707772072, 1.9874661665399815, -1.9193857787880595, 0.7442559937028642, -3.602367063320491, 2.839894666082235, -2.082672905591332, -0.844424497770219, 8.734908095354324, -1.5538528824629285, 0.5972997227538079, -2.7080619755850996, -2.9124564953113645], [-1.0342872236620164, -0.05870893629731297, -2.520167058400038, -1.393722773766781, -0.705987177905894, 1.0120973406400569, -3.3167633810328785, 0.47827670626982477, -1.072558776813212, -0.518749379927895, -0.5569485631670652, -10.154144895439035, -3.094740037360354, -4.080903746762487, 4.126427263170248, -4.8443407992637315], [-2.1930381841736177, 6.111048443598603, 2.270198020934529, 0.44987195012665804, -3.0114023945202493, 1.140271109231365, 0.48324468861379966, -1.776519930779359, -0.21440241563899742, 2.1883417879167157, 0.06507961400862838, -0.8979987157753104, 0.7895014299219669, 0.10526000706411837, 0.5235404164902111, 3.9777144747435487], [-4.831007666690247, 1.8705874055692184, -4.300457073700862, -1.6172007852730272, 2.483297897934726, 0.6826653186925468, 5.147378464418022, 1.6356817279667957, -2.7976500145670893, 2.0185370326346264, 0.08215514972247329, 0.6061424050510819, 4.152185314851832, 2.48733958384688, -6.29770018393517, -1.6504382427108983], [0.528376626911053, -2.3594187748610804, -4.511693593026923, 2.812164472469874, -0.9559122368096876, 2.39321258564573, -3.1102832665560918, 4.952238587814023, -2.2463579563607396, 8.996426234055978, 1.276923229738583, 2.5465926137731927, 3.2840188178497858, -2.713449224827546, -1.833162277965467, -0.9518504539625625]], "bias": [[0.461481956506833], [-0.1326237779465976], [0.26972190311583577], [1.2338174816066558], [-3.338709618781622], [1.3353362876128312], [-0.503681969891902], [-0.19466122796840052], [-2.941128307927031], [3.024535660470003], [-2.12951098620774], [-2.9772809389399457], [-1.0465281342756465], [-8.577815438341034], [-3.015403968395035], [1.0567027767266413], [1.331940816577939], [-1.0204806080567617], [-1.4971473149914452], [-6.489757673934913], [-1.913877495475258], [0.8558691122212965], [-1.2763013589209424], [-0.5502175977312431]]}, {"layer": "activation", "activation": "relu", "activation_prime": "relu"}, {"layer": "dense", "input_size": 24, "output_size": 4, "weights": [[-0.8981180532680832, 0.9621189143229567, 1.1991537464072404, -2.2820765101125082, 2.5093120186664466, -0.02639154899474172, -1.1098196934257505, 1.2637064060101206, -0.2612164755968162, 1.6415573812275366, 3.702979661369562, -1.161333583631428, 3.2777580781982816, 1.7930578050595778, 3.4972707046383444, -0.8363155886432802, -0.9260146756054745, 0.6514680493161181, 2.1419204044000195, -1.2969445272325204, 0.09271820681515486, 1.921103261471758, 6.078678871135381, 0.1950083096837973], [-5.4483680986505565, 3.69236377417778, -1.4464773478340172, 2.1715093559232814, -1.9065217313235014, 2.4098651539652587, 0.3988821408251415, 4.337580644877928, 1.3699008225155003, 2.4185571516157256, 0.02419890703665295, 0.07047524706653319, -6.597395801077097, 3.5224693180921522, 0.4983533533404827, 0.9940432931288483, -3.948713214142506, -3.84497865407159, -0.15726999405846442, -0.8751114745360254, 1.3120445281584268, 2.888172994246175, -3.5726010877389824, -2.8291871539775153], [-1.688915140163001, -2.204997230156917, -2.278018337394462, 5.234189830576468, 4.33276814857338, 1.46645312481764, 0.758977628830468, -1.9351666039175508, -0.9682017378721277, 2.2236110076847586, 2.2609987798871596, 0.6305787795938925, 1.0213071603203283, 4.121800733017487, -3.585936245525285, -1.752326727919955, 4.470889010160208, -1.1144998365632293, 1.786381036356037, 2.2075457578015993, -2.4804248293378213, -4.062905808992113, -8.18315467730179, 2.1591308540103884], [1.668001462888452, -2.9042543515235204, 2.729801785665239, -2.580181729941303, 2.7874604200626547, -0.7872556924712413, 2.6772295247733573, -0.5806350336345412, 6.902868732547938, 1.1083373743453402, -0.013056292919104706, 0.7939444951884858, 2.663591835823584, -0.17286680701155466, -2.904792038885984, -3.590708639736309, -3.316200054660296, 1.4174159536027202, -0.9105532883731463, 3.913414704720056, 4.152010589897989, -0.27418287511513845, -6.011237046945784, -0.1618970818600873]], "bias": [[-3.0201652401219903], [-4.9100424407545775], [0.30015609899885076], [2.510685989193964]]}, {"layer": "activation", "activation": "sigmoid", "activation_prime": "sigmoid"}]}