{"generation": 633, "board_size": 10, "snake_size": 3, "input_direction_count": 4, "apple_return_type": "boolean", "segment_return_type": "distance", "network": [{"layer": "dense", "input_size": 14, "output_size": 18, "weights": [[10.752631924531137, -1.1709087969255383, 1.1140176241453725, 2.471370708490734, -1.045121293347106, -1.6714954975134126, 1.1220587404518534, 1.8500853243250057, -0.7832926088517673, -2.04604233723199, 2.7590915772072844, -0.8959899657026804, -3.288693381282283, 3.865132303362004], [5.84332719481497, 1.1420042921154314, -3.3402170955459285, -4.500944198039939, 3.506920780353751, 4.7613638353813155, -1.5738551054134269, 4.738099496342471, 1.0693745575641258, 2.033092099314003, -9.283098954100408, 4.184890534447538, 2.2828957959447, 1.0610831985366778], [-1.5566452870670247, -5.053864905977001, 0.44944316578162224, -2.125396796787779, -3.2396448647725866, -4.952912786581449, 2.481538233244015, 5.934840814728707, 1.60670505554232, 5.326612179993272, -1.1772090417732044, -1.4935526621444062, -4.458188711912263, -0.761399562823083], [-1.0556413080721452, -4.339659376241819, 4.590776921717912, -7.584851161675855, 0.7520593033430244, -0.8971168168742256, -1.2965506472534598, 0.356746677532799, 0.2892035482326887, -0.6773007081917561, 0.9699423786479037, 2.8161767388889336, 3.986972742805724, -2.729667587256936], [-3.0800139509063174, 7.677150418546669, -0.6357812590872303, 0.8251217594173337, -0.9565507956420589, 5.106759402049168, 3.2070584760864165, -4.729512543600935, 1.2584076681551597, -6.549121879408596, 4.380359102089975, 3.5977818877376517, -2.9730336912382382, -1.4524173124386697], [6.166723281973603, 0.36884410139853896, -0.010780060695437577, -5.4620596853417664, 0.9415241281082183, 1.2312307556530975, 1.0876736594859011, 1.5512268047609088, -2.0703448032179548, -6.813847643851071, 0.7195845260246363, -1.3298614186888538, 0.9336394603042313, 7.573973320322942], [-0.23238091286358975, 9.249441533904646, -1.5355480374841686, 4.472546585175508, -4.9256395802396895, -1.198369090857062, -1.0406496092056023, -0.9383540389713254, 3.860376314093725, -1.278141636734382, -3.0051099011766813, -0.9706099971525142, -3.600267822936867, -1.0693539542085646], [-3.100412094161628, -3.391770086525711, -3.0783968128325556, -0.12731115311157232, 0.5131126383805222, -1.6176147055656993, 9.721658731005245, -7.815686564886959, 2.1978050968140774, -0.02576638941060693, -1.2627173422664262, 0.770488229898613, -0.7497880043397948, -1.9955524036297092], [-1.6341237380820544, 2.4776384962851887, 2.6191313446896958, -1.778694091968181, -1.636752026792636, 4.043977078230779, -1.6276975756932286, -1.9764953497269544, -1.9304855515784776, 2.846270254346857, -1.9071878111312672, -3.4072958014016645, -3.1895680339322254, -1.6815414150966546], [-3.331904242900086, 3.499539878780406, 1.079994747371397, -4.873256452430065, 0.9708541109000568, -3.6151375855133527, -1.927531651074723, -1.6440408228795889, 1.8773057660555872, -3.2938492660453296, -1.264501580145036, -0.43976181971353023, -0.7912177359546785, -2.9238636955454718], [-3.9018120818732793, 0.9492032080178672, -2.0990641479481287, -5.7765703188909185, 0.788376676961569, 4.131439449949756, 0.9922978182420519, 5.963285608324439, -3.0401347453093606, -6.795681224408327, -0.8476317930469963, 0.35595186164649995, 8.702198903023694, -2.3962340132217723], [-2.3028206934701982, -4.673984954608467, -3.3058052720854687, -3.4191440603759946, 0.4492880740782069, -5.2937351943825215, -2.273493142615259, -1.6321976149185138, 8.689919664479898, 3.558625922876912, 0.41154216753610995, 1.3553468969354736, -4.658447170715812, 3.262378368420279], [-3.921139520844575, -3.212894831341476, -4.485201337656681, -2.353842821134642, 1.0197450685078135, -2.8433764485652406, -1.0938076800031313, -4.684609732035823, 3.9916415909318728, -2.8644953084984923, 2.2935520955063775, -3.294080785479424, 3.296749735752175, -2.7054542716751526], [-8.855446322498585, -3.1777143467872557, 5.980977405196213, -0.5825459214105824, -5.2319730011302905, 6.843703495770456, -2.828653088857008, -0.8168792677227493, 3.747766531226234, 4.1762554347627585, 0.9794649791038516, 3.185395061435019, -4.178240252623031, -5.740876808770625], [-0.3142714052559352, -5.473531342201527, -1.5933372208942895, -5.644805648628242, 0.3562372937677517, 4.712395538731127, 3.82570816445358, 7.4690113929536786, 1.2187408890944134, -4.507289859631698, 2.699777211582163, 2.3369526494825976, -1.5720965566567862, 1.454226238157075], [-2.435158942282663, -3.066143362232856, -1.0699855985772002, 8.04902748467186, -0.23681583080917346, 7.562100271084451, 1.1234776852142732, 9.827600566737617, -4.159396030166106, 1.5038389047514178, 4.641416111205794, 4.775348042223497, -0.022027654998749924, 6.787604395463866], [3.7620359984669007, 0.4148631022005642, 5.342190071655823, 1.838490241588245, -8.072469955360203, 3.8681784297941304, 4.276132268228217, -0.1770795838966267, -3.4762097789211546, -3.815774568804914, 0.2408842896287798, 2.9340751031725656, 0.44959463164097996, 3.3192342215609143], [6.910682059783022, -5.7300793387798015, -3.7291450010437455, 4.612768955600611, 0.6454401378492487, 0.8382976755740565, -0.5693902566826965, -0.15736169597859784, -2.0080557141236257, 1.0897631518924682, -2.249623663626022, -1.6452653025979367, -1.0411391403482355, 2.8182446101330685]], "bias": [[-5.348567294106527], [0.365806396506255], [1.1092506047815878], [0.39971858641533276], [-0.28964271586933044], [-1.3321986161731612], [-1.3662738170936368], [-1.8819061325339157], [-0.7884909974339078], [4.5231661893126365], [3.478441797726869], [1.0508596507431394], [1.9032418962371935], [-6.240658516008218], [-0.6225835264422265], [-0.5508932873127041], [3.6723700128728898], [-1.2516672995455496]]}, {"layer": "activation", "activation": "relu", "activation_prime": "relu"}, {"layer": "dense", "input_size": 18, "output_size": 4, "weights": [[0.29351213566745427, 0.617160153969275, 1.3321052813963088, -5.998770305515155, 0.48701144675823493, -0.19520699788058116, 6.301295297258204, 6.895048733692638, -2.661237749242446, 0.14386303228271557, 1.0786808644642985, -0.691636014890676, 7.993424936940974, 3.9284172221173073, 2.193378025276959, -2.0122714376637916, -1.2509383865389148, -2.541303784146781], [0.8885156752133889, 1.563078569313607, 2.639625206322503, 2.405998649702724, -0.49129688786426695, 0.5929741534996233, -4.756725233745303, 0.0016937523318363845, -3.728684917588657, 1.8571731501285005, 6.560192579020644, -1.043641258511217, 3.327633393816164, 0.5041230345820784, -1.0678342370282843, -3.198780846222759, 0.17446398134778895, 2.3133373315554326], [0.6131822259983803, -0.38317511014276995, 1.1395344053475143, -3.3488404409535453, -2.235365667884599, -0.9425792208870909, -2.2749899696482383, -7.5591206715319466, 0.3784126389993615, 0.48077162055170697, 1.9397599361130482, -4.580912948106717, -2.101478785277673, 1.7814331505949839, -0.051457047552560475, -0.4055426017812659, 2.14320487576414, 1.374088244424469], [5.377519472712221, -0.9139202715804724, -5.879879088203111, -4.829718129365782, -4.258096134175728, 4.597455128249342, 4.569955688684704, -1.215233853937231, -3.448735339674921, 0.18488628937993457, 0.6895760617503762, -2.5680189887994342, -1.1822156792358194, -3.191614073025238, 3.2473192856189526, -3.8978733102192207, 0.3392418232304745, 2.974899080391585]], "bias": [[2.48840514404335], [-0.4091786623546634], [-0.29290216786407075], [1.6462514880821593]]}, {"layer": "activation", "activation": "sigmoid", "activation_prime": "sigmoid"}]}