{"generation": 824, "board_size": 10, "snake_size": 3, "input_direction_count": 4, "apple_return_type": "boolean", "segment_return_type": "boolean", "distance_function": "chebyshev_distance", "network": [{"layer": "dense", "input_size": 14, "output_size": 18, "weights": [[-3.6750800785762863, -2.0585377698170504, -4.469123968904878, -0.07799542384642444, 6.141333086856926, 1.0817313226186112, -3.5684288234247035, 1.1057159933265115, -3.00898730970938, 1.2221173101459588, -6.081111506880555, -3.3465921452077287, 0.34310628175239954, -6.1692754402991765], [-2.2929083440861535, 0.3237407256319489, -4.1906834182153405, -1.2037102607671006, 2.1338381424720323, 1.510539643569728, -5.3427942734042855, 2.4500376227943574, 3.441474509207727, -3.2398900972433027, 1.187812498089286, 0.6532226506454223, -5.435307128968877, -1.6717558013865241], [-0.5030922522197648, 0.6158270352718389, -6.8316225737653635, 0.4249177480279427, -4.6242836121004816, -6.335744254544677, 3.2404113118365214, -3.0891094065502145, 6.30799329781903, -11.962548439064967, -1.4758869317777021, 0.6352435217891892, 2.324029167547582, 5.299930819242011], [-6.125606766938096, 4.672518717023676, -0.5704550643082384, 1.335274979696513, -7.871259226568935, 1.51778996918862, -3.372472349267226, -2.860810141562191, -0.2282215540898161, 2.250991853638921, 5.560989666879567, 4.029592456295696, -4.093769470304561, -1.7965392839762535], [-3.4583765914561932, -1.1074384785643399, -3.124094433469519, -3.5078136999439176, 7.210356346774491, -4.904549602578365, 0.3502586949139628, 0.7404458209475466, 1.7178555047533255, 1.915820385842691, 1.376242780909929, 2.3183640346780785, 3.713187569557396, 1.469328700280706], [3.988307473164482, 9.42383371051282, 6.548129432801212, -7.379607919728514, 1.6028061142604955, -0.7099042088600174, 0.3651540594503138, 2.411613009169037, -2.209199247808197, 3.0837503961031807, -9.843197961932146, -1.9176903315881046, 5.366157785819394, 4.866627713973445], [-2.496008663264295, 9.025317411953726, 6.820459227826081, -4.27947460076971, -2.4558781500306814, -4.81254951574539, -0.6187540319500353, -5.673834356827583, -1.0837801406465124, -2.869182542656023, 5.8964876290072, -5.255500181795886, -0.386363654755674, 1.643253720019546], [2.6537102759596936, 6.8506879176134365, -0.8694589938353474, -3.185392518076733, -3.830560899302397, -5.468272300042294, 2.3279613655003866, -0.2214061759222825, -5.364707201454749, 0.9003876832389259, -7.614289169487401, -10.623027155794588, 7.1901473444503505, -0.13422462663891788], [-8.916988049683058, -1.0113636671105954, 5.138979443251937, -6.347984866281598, -2.7183367099801004, -0.4823944473695235, -2.136347165418401, -0.4250833050069529, 3.820889277578016, -4.651373371761034, 0.6740719133255292, 1.5856484640078492, 0.39086487635567096, -5.888083447676137], [2.753551924207452, 8.935874850246863, -0.818592859789649, -1.6427176727023, 0.6146475476615834, -3.7900232137290732, 5.535258398602895, -2.0465166341625904, -0.3451835834499838, -3.8712252140327434, 0.8153087289008939, -2.9120639400564516, -4.337871747533911, -3.1975146562956374], [2.634617933862538, -2.397358004915221, -0.7406130137123422, -6.678426926297029, 2.2952157500407884, 3.998511375501046, -3.0242693756187577, -2.7055441112986487, 0.8517754315159602, -3.5259280242161104, -3.858347285232677, 2.8414974278689193, 0.25601988700120476, -1.8174720092633263], [-1.5858726820958395, -2.5387089792438085, 2.478583448431595, 3.3170492551027726, -0.6837712511954496, -6.698844387337006, -0.5884182276424281, 0.12909118082805218, -3.6657190414211676, 3.432586409245373, -1.7043550141665302, 1.5982010836442289, 8.577986535202717, 3.498674034306105], [4.690055633575766, -1.3726816361210794, -2.546410818267247, -4.589973599694014, -3.333770985570107, 7.154405693471209, 1.9629176862135733, -1.257000910287156, 3.1585546188505202, -3.1338234711470263, 7.3753820445571945, -1.205544320657155, 1.1404772751708796, 3.1124935802860128], [6.254038380464403, 0.9810112343026376, -2.289972575150843, 1.9496379194656965, 4.506185410908564, 0.5168219572254387, 5.2915647055635855, -5.14013851457418, -2.042177879095703, -1.3519647073578822, 1.4194228875307824, 0.24121178930361165, 5.22336219041333, 3.5843597743185995], [-4.522965616461281, 0.7902975611236266, -2.055228364287837, -4.136128369294787, -1.7489355688919073, 1.0927754226631825, -3.6976778188428048, -2.931143731785031, 3.385975820266906, 1.2206879648067843, -3.942397860232586, -3.8076867371445617, 0.9858703898145231, 5.077396186166932], [9.223363033723722, 2.971498261463815, 2.936325965828015, -6.972924100571779, -0.958899047257292, 0.17906966831427962, -2.3329864613270574, -1.5978178078278749, 0.2112374916187187, -0.990094734661418, 2.7535865181864745, -0.27979845534543935, 3.5518872918136024, -2.009324712013057], [-4.587306821541974, 7.401366136062717, -2.984839375601051, 8.957039643384041, -0.3029134525070799, 3.3473300124683694, -1.7092851892335696, 2.271264377362015, 6.184648316001762, 3.7032721483151483, -1.4786850052405534, 0.8035605558022938, -0.4107973133953569, -1.812418542352302], [-2.8953121287593686, -0.7588151055489337, -5.336346990250913, -0.5425418934852881, 2.9037739526801936, -7.099569134746987, -2.882014218302862, 2.274081584572679, -3.7673405815245107, -2.660744750506251, 5.738721420832525, 0.24329891691450778, -6.90513387587099, -5.077745909148815]], "bias": [[1.872744753849134], [2.2887741648609135], [-1.3254593280102092], [3.610014235829037], [1.3153540775044124], [1.9753002868360114], [2.395599193396568], [-1.462028444184782], [1.9707618779268152], [-0.5743449475595109], [-2.659327003904151], [-4.837061069013415], [-1.5500462269084703], [-16.410022971095422], [-1.1782854689356568], [2.3599985631384137], [0.3244575089478535], [-2.627311848964529]]}, {"layer": "activation", "activation": "relu", "activation_prime": "relu"}, {"layer": "dense", "input_size": 18, "output_size": 4, "weights": [[-9.648804529108387, -1.011548209280046, -1.1959679528670675, 3.717552259933206, 3.353915770737369, -0.7089433551322359, -5.14885046169805, 0.02219247966195631, 6.325954804722208, 5.738970209294771, -2.5807853638459846, -7.044288289683116, -1.319918294638599, -2.1774066938878134, -3.1062217592317696, -9.59049800240427, 1.2431386733118537, -2.281127911842663], [2.36967837095947, -1.327124698382855, -0.5440661750715639, -3.9661638313977083, 6.960261042764435, 3.20977088307709, 4.740695171167817, -2.7877897804349128, 8.076771326612349, -3.5241429301520837, -0.4630584328028793, -1.165421376240258, -4.863809732279083, 5.04563207646663, 3.320935535384279, 2.725852619679956, -2.3405142759126756, 0.3555075730689637], [0.6701214831222186, 0.5212382576794241, 3.441373146426111, 1.1950572600566474, -3.1915588972005717, -1.1107198466264574, 3.4917632899687265, 2.6765732873092727, 1.9397282940566338, -4.6959933608052795, -0.707679039472566, -0.2833742840279099, -2.36383978869089, -0.12686816021530725, -7.08109692760544, -0.06372667528133666, 2.4431803506029715, -2.8537938048737224], [-1.9721962531668238, 0.8791540830807376, 8.58398745909907, -2.938311305796786, -0.09246100499422205, 1.9374463051307287, 0.8489690130142253, -2.566720662021645, -1.3809861331337907, -2.4410304269026515, -1.8123740687137941, -2.2472809677712497, 1.3301384965004208, 2.058170146536945, 1.0255146991566413, 0.9455933133153426, -3.900374203329227, -0.6400078662989829]], "bias": [[-0.895071024502072], [-4.696491245893688], [-1.0370465264002338], [-0.5757489935024831]]}, {"layer": "activation", "activation": "sigmoid", "activation_prime": "sigmoid"}]}