{"generation": 84, "board_size": 10, "snake_size": 3, "input_direction_count": 8, "apple_return_type": "boolean", "segment_return_type": "boolean", "distance_function": "manhattan_distance", "network": [{"layer": "dense", "input_size": 26, "output_size": 18, "weights": [[1.1517353498705833, 2.08156695568715, 2.5808900187005612, -1.4946163503787862, -0.11935539982132459, -0.208963548306085, -1.0812053370026689, -0.6917734679820705, -0.31387544406462586, -1.9673713964616546, -5.31960307580683, -1.1259447361640549, -1.3287903381861468, -3.8812070076985243, 1.9272499383506485, 0.3364731734994105, 0.5905194047567057, -3.447759440128912, -1.5223614039942734, -0.1882283074123487, 1.171363277281054, -2.6007552639615295, -0.6542587228211572, -0.830404762421619, -0.3013007217778135, 0.5387893390272791], [-0.5558820750261554, 1.4612000852022269, -1.9343726858913306, -3.275213769925199, -1.815511893576724, -1.9719976396260075, -0.5367519253578821, -0.3611705001018415, -0.6323549443097892, 1.9945971013502277, -4.135647478848974, 0.8943286583227208, -1.544171279583875, -2.250855200007192, 1.125282066032154, 1.7475217226351416, 1.0433330391895606, -1.0129167582158094, -2.003885116881811, 0.2735984958183115, 0.6919291146166563, 1.7763090027027801, -0.821016518929271, -0.4387856243758363, 0.02030461544990536, -3.189341451741547], [-1.1937228489735163, 0.29012246728455426, -2.7925917434955494, 2.8146906015142825, -2.2778870999249783, 2.373250869295256, -0.4072179197871728, -0.36268646601280513, 2.6239367762450883, 2.3049723960622854, 0.15837959370242205, 2.613119270035186, 3.736005287545673, -7.592318125397866, -1.049651058317237, -0.034119603898521644, -3.22614376659838, -0.17828864220974316, 0.4326225737800999, 0.01069184415879576, -4.96311480746312, -2.4045716057025235, 2.792120002367369, 0.22324172684109092, -0.4270850506349061, 0.958250699932208], [0.7401677868293395, -0.2272774859899146, 1.094063646758516, 2.351340482608785, -0.3502102310730868, -0.7391099023052639, -0.6467302648573341, -0.5734359775799331, -0.4374987032631902, -1.7059941170196964, 4.63092730552106, 0.6213390530552729, 1.2983882629038672, 2.4892145389028757, -3.712042129488987, -0.2745549127245742, -2.5585083970999096, -0.34597483314916566, 3.898465210758858, -1.5349094871109843, -0.1010363440609725, -1.9615656261339223, -0.5334978602619393, -2.434998812568104, -0.2477400127700745, 1.4718768835137852], [-0.185151640001034, -4.066686029392521, 1.4564397242696165, 1.6138325367587802, 1.5335755097537414, 2.429833481489128, 2.606178201533549, -1.9458118892239964, 1.425067447785797, 0.937358868986369, 2.8546206399170764, -0.8813048652357054, -1.673608379008079, 1.5697066722793047, 0.5061042753616031, 0.3754089930197026, 1.1618911078174314, -5.765716363353497, -2.5884086568392997, -3.69471462993902, -1.5836265863848111, -0.6271381865458597, 2.942539819709375, 0.5902473122035191, -0.20419244993286023, -0.11388602286661886], [4.867331262097855, 4.210197673308304, 1.2318422304800802, 4.405589931187162, -0.9793777658956803, 4.028897518850217, -1.78101317102622, 3.1675955138897356, -0.3120101984539662, 2.940100868088104, 0.4025498879094198, 0.22061535972963356, -1.5367854706030601, -1.5173329179691928, -3.609578049525583, -0.5741436922826132, -1.9622092839621403, -2.4295155108332076, 0.9362287342021178, -0.12140115382125577, -0.04141141213424028, 3.9972755839920033, -0.5667221370469572, -3.7463798323380293, 3.948354257690695, -0.12693392263408426], [-1.5563307459779685, 0.8635622901805361, 3.1950802988919955, 1.116521950465097, 1.9926297426228339, -0.5381171531352629, 2.39064008729491, -1.874314721956079, 3.3408703949033356, -0.2962060006929595, -2.8933617951745516, -1.9394629441739921, -1.6808008180696505, 1.116965924192846, -1.3444847508401847, 0.033162448627637175, 2.5287243666166406, 2.1835559584969766, -0.2670799390983669, -3.1411411287569533, 1.5589219932611744, 0.003148368446156985, -0.1902984331482156, 0.23322997001149337, 2.3662264798191055, -2.4224437875306406], [-0.4067850078988744, -2.477997511445643, 2.350624306229137, 0.4857038938683888, 0.33765996118710995, 1.025077393267814, -1.8107077637832705, 0.6688506979103428, -1.4817865605756966, -1.2601798368864234, 0.08313329773031669, 1.4992488039593757, -3.86448800492204, -1.7140311434314441, 2.821285914614217, 3.3662523986243365, -0.6218378066495991, 2.0303796945000685, 2.633761244858316, 0.01244493327244478, 1.6821274221240459, 0.3089560229830084, 0.9919111904435929, -3.1513420061021797, 4.835327668194479, 1.2985005294863718], [-0.9337352159680761, -1.0615080763396985, 2.4837792098816527, -1.042297019961708, 0.8023861829291209, -3.823314765712148, -1.5945262714404869, 9.399413903794839, -5.497005872205179, -0.740532920869277, -0.4847599896850855, -0.5879004049964884, -0.8889613843616935, 2.6004992854276985, -1.5309578459941426, 1.3950384022162765, 0.1018974226399445, -0.6709864507841418, -0.301567835007151, 0.6652946660470889, -2.952570724509141, 4.582926872580572, -1.2194049794240391, -0.2803993017349907, 1.6965854534558302, -0.5888325433355474], [1.9607554229899904, -6.074183933089159, -0.03969586532460158, -0.22074940068091875, 1.6247410289850783, -1.8816987757341486, 0.29812984409145915, -0.6522573528808528, 0.813998671444689, -1.0615427593241056, -5.352619519177897, -3.4258516598250326, -1.989902727117719, 2.4921735235750195, 0.7298234631129061, 0.1595965356340191, 4.269625682632355, 0.5920692779870822, -2.0340812162526842, 2.8204324807198162, 1.3243436865847882, 0.21733698079626484, 1.9451191174334734, -0.6334180079264851, -0.12690842657102114, -1.0569464932847488], [-3.8550715838354304, 0.44566676911377046, -0.24168463308298116, 2.8848546360977494, 1.6486056386016403, 4.37916559552567, 1.1665379719358357, 2.013696652427064, 0.8151971620071736, -0.534401978998549, 1.5729126542135488, -1.2309201445180054, -2.9512009039471994, -1.5479425758984893, -0.9850910794951987, 1.915886144661139, -0.2637370452275307, -0.7691446644307753, 2.2032466544896487, -1.390189694355025, 0.5910344930233663, -0.5124536186477568, -1.5833325457711633, -3.6815630149370575, -1.4654680639332018, -1.0582833730809293], [0.9700453459939946, -2.0158021464715383, 2.253624351329301, -3.583612879370641, -1.0117743072024108, 5.805855234632734, 1.495989306935648, 4.54355244477534, -0.33487090740128617, 0.7259941897848267, -0.551238879715793, -0.28621242023804594, 0.5082559277059506, -1.684923553628341, 0.8921691258311629, -1.9199547048369823, -2.793696124010522, 2.540328466375648, 2.15970115029378, -0.9937381965314114, -2.541833630441592, 2.0605792624130483, 2.215926114096552, -3.636794256600449, 1.5852341843268625, -1.925830074098428], [-1.1696771271215674, 0.43298490834263115, -1.6601461976589953, -2.317063343759172, -0.46573104269018517, -1.4079328199794117, 0.5948493366047884, -0.09581554306838791, -1.5978741474268456, -0.5875360266121366, 1.135577973881119, 0.6976802293332032, -0.6064548229739821, -1.847769636634144, -1.000128021990891, -2.6674943336806454, 4.389028400468918, -0.7834234721472774, -1.0178098395958162, -1.4959364935543806, -5.004831047380624, -0.5158990226545168, 1.50776354697418, 0.6391198811568951, -0.8078842181105536, 0.5730047660980775], [4.273820586898449, -0.5702650661419235, -1.0342183663079447, -2.368607904626791, 0.18405258671425462, -1.6309462306361127, -0.7699566198896987, -2.7161777719826974, 2.766700729711914, -0.31469162282422575, -0.9922758085864201, 2.126927107034375, -0.721331315012709, -2.1511414331059124, -1.4883783196050187, -0.08645778613723853, -1.0900699502990563, 0.31317578581693156, -1.5686905070565202, -0.7203614164312777, 3.9196561900054494, -0.8174091159000758, -0.1350474231115853, -5.38778573324796, -0.965415308444796, 5.716417689636848], [-4.522830903459516, 3.778393293105984, -1.0497993823769147, 1.5573426329260798, -0.43657295214067254, -0.597791600905382, 0.09210445860120364, -2.028484799369484, -1.2551441871437947, -1.3825359243442623, 1.389262216356924, -0.2657677581552137, -1.1375564115233001, 3.3731601848632744, 1.2723489825870766, -0.4876240421321695, 2.2233094878978266, 1.8068791098980137, -0.20555960875803514, 1.7693032694625972, -3.1643890310678624, -0.6648920892708159, 0.425550694878185, -0.2865929297136375, -0.5239699910888271, -1.3935414282703356], [0.5770909351862378, -2.249378069014365, -1.7321291015288391, -0.3427069606387708, -2.3240841790574307, 0.6034061918250421, -1.1806678237368748, -0.08680823158786555, -2.8768436307979472, 0.222638742911074, -2.5460725539252564, 2.750796958616461, -0.6203184637051355, 1.1046515947687137, 1.7466315621959325, 0.5855093344804692, 3.8814034882420083, 6.881626819452833, 0.4962399362587814, -0.9739254641988047, 0.897664625724166, 1.1325056734338717, 2.3548289269037133, -0.2167204187833759, 0.2964455719947231, -1.9101753459731607], [-0.8211370148432303, -0.6424087439473737, 3.4399166540764217, -0.7469922948386025, 2.897739286781939, 2.962085484931654, -0.9921640076828508, 3.584169171489127, -2.0766987367910072, -1.499744347177523, 7.983343503877725, -0.7775242885932547, -0.0006155270500298737, -1.6347824658198902, -0.7337262500624933, 2.2341871786686953, -0.970519978203358, -3.9624663112693037, -0.5930010480416941, -0.48773720906226425, -1.149538778880706, 1.4209234578611192, -0.8157298196955596, 0.4617887916043577, 0.4980578644830702, -0.23363963662426485], [1.6161459043223105, 2.4981080047215802, 1.3750423475760438, 6.5606658462657235, -0.22884858670482544, -1.8276647058834814, -0.37466575043045725, 0.7288950831480133, -1.5813386818206716, 0.28766231217417193, 1.9361878413805615, -0.8135742826139644, 0.20834645515838934, 0.13122478021919587, 2.6549640285610803, -3.4769619372114917, 2.0342618279806235, -0.826386179155129, 4.040963918638987, 2.410717691294602, -2.5371061753144457, -0.9823699866843334, -1.3144867581763053, -0.49088413137612696, 0.8205127574085775, 0.8322244474484286]], "bias": [[-3.052192747253314], [1.6692178068233132], [-0.6472082407989848], [1.0476224709394442], [1.8434798474876497], [1.6129448067992813], [-0.8320054289884014], [-0.21083385872295268], [-0.4493706597482723], [1.9934407028367946], [0.3909029993202907], [0.7590297740397094], [0.14393468550466004], [3.4838953198365554], [2.631630107696587], [-3.7397596794730306], [3.093831936871952], [0.22583798935677318]]}, {"layer": "activation", "activation": "relu", "activation_prime": "relu"}, {"layer": "dense", "input_size": 18, "output_size": 4, "weights": [[1.5638961969474008, 2.598144698014288, 4.828236793876567, -4.641328404620384, 0.3584736237866524, 2.0195044566818776, 1.5106457615376456, 1.8916107191233835, -10.540407727739888, 0.718273482404926, 1.0885914529261744, -0.1514340074705507, -2.5368988693393995, 1.3683361917125958, 2.6440547539995243, 0.02260076637422348, -3.131590576180099, -2.5785291431737747], [0.3044375003682498, -1.170813301443788, -4.192619900274822, 0.37544167113809257, -4.176330812823488, -1.583016212518825, -0.3846095516115995, -1.7792364518110526, 2.5757955751371866, -0.356809775661014, -0.29396731450600055, -1.1110550285568066, 0.6018557979650541, 0.9061541205449206, -1.205153299870032, -2.503551580855477, -2.5827948151993683, 0.5143695222224381], [0.5197572722881475, 0.8150458344121623, -1.8782696262886587, -1.695618084326343, -0.23064163833301493, 0.2730303820039283, 0.4895629360359235, -0.004222210333632903, 5.655983605691056, -3.044042633684267, 0.9966368689305712, 1.5862193108483762, -1.1534672619917623, -1.0638829142785133, 1.0214369524911473, -1.3821525472986915, 0.7901061067060271, -0.3922480412741575], [-0.49511829166881727, -0.5501786555834778, -0.6220556986423326, 5.823372766330597, 1.4528532557499299, -0.07022667808091465, 0.7896796226719464, 2.9689221508118138, -2.9329774857301345, -2.4262613829189443, 0.8478191821160217, -1.0327858322914598, -2.6682841574627867, -1.6218002366319566, -0.3201283280014714, 3.0127670539013733, 1.3644402260550177, 1.1527545004889026]], "bias": [[2.8342622800734514], [-0.4944106930725748], [-1.9146888878657289], [-1.6719034813986886]]}, {"layer": "activation", "activation": "sigmoid", "activation_prime": "sigmoid"}]}