{"generation": 453, "board_size": 10, "snake_size": 3, "input_direction_count": 4, "apple_return_type": "boolean", "segment_return_type": "boolean", "distance_function": "chebyshev_distance", "network": [{"layer": "dense", "input_size": 16, "output_size": 24, "weights": [[7.452932645044041, 2.71761352272477, 1.1924624841087024, -2.8044682222202346, -0.9834560103303671, 9.222364595685232, 0.04284969205680711, 7.137199182883319, -7.025802527059738, 0.481577464969445, 0.8476538039409061, -3.7424019044593533, -1.6562643448840322, -3.660237089776502, 9.28157481011409, -2.9176780899963397], [-1.806699423182256, 6.951585927062102, 2.1124395024648472, 3.5672569500635443, 6.59975899919655, 1.7861420736910028, 1.378227043389366, -5.102449028915837, -2.7480372819871217, 4.029129853343931, -0.8066910312483675, 1.3449809352722253, 0.08631113271763602, -5.402467952135404, 2.550695391457472, -1.7549127466164198], [4.908158517905503, 1.6174292622775908, 4.6927601019472975, 4.995974032234699, -2.193666547114595, -1.9986683715868792, -8.150874766512, -11.76622855107983, -0.31373694123963175, -1.6295079664570864, 2.7885766207740277, 1.8933546478923409, 4.403544177136902, -2.560080357086463, -2.4227096947076054, 1.0832053671583393], [2.618327257064935, -0.3116124580079399, 2.8029084886758633, 0.6075090983643832, 8.307941524355652, -1.3893163968941795, 3.8405850604054637, -3.8027602716659104, 0.0031342473924218517, 5.543888470341357, -0.9677974086086527, 0.5524249457933018, 7.041336927944172, 1.129039744132156, -1.615089348817456, -3.4031281442958745], [-0.4877040059355038, 0.1624963465854331, -0.12301094394392698, 0.9820801849772214, -3.672071598965686, 3.9687725012823676, 3.7614164388308984, -0.17575818883724437, 0.3422117562484224, 5.6605540652162905, 4.250168545975514, 2.084799232926758, 1.7095901208956807, 0.23356861107648108, 0.7852965323736076, -2.4577141414126418], [-5.066281981821815, 0.3658407393915063, 2.4724658097604912, 2.9292849003691903, -1.5834832563937953, 2.7526465355258507, 5.509686028308352, 1.5570278527565846, -2.4266717011801204, -0.6147333274547, 0.5846299551295873, 1.366899039665007, 3.010897108185455, 2.3440271918507687, 2.702302200304153, 5.388293126171269], [1.9167061951426567, -2.050371898400162, 4.357153418525545, -2.088580946793235, 1.598043245718521, -1.4644652844017965, 8.391741331510698, -2.5146699064000644, 1.1639916107660344, -0.5963856315104383, 3.4743845605433514, -3.4573874189655434, -2.1068887336645843, -1.8086137769997226, -3.4082139985325908, -1.5485681110429752], [6.511099892545181, -5.034889309374661, 1.7386228002788933, 2.5432939337785188, 1.1298929235286395, -0.33743660005074827, -1.7105499664751398, 3.4699652278945514, 2.1915446166045403, -3.9676175386064956, 0.935637344970812, 3.8744269027494833, -1.7227252155156405, -0.23947333275970428, 0.1562100096506222, -0.1464477738102684], [-9.821181435086734, -4.407330199230618, 10.604124747331515, -5.457366986531019, 2.6311160812138, -1.7576821472360353, 7.641318137058426, 2.4479111727156107, 2.1235926804995016, 1.0843948531882355, 4.114346303603923, -9.04975318089424, -1.3473819517087726, 7.0033720113457045, -1.3228587362201503, -1.1811003387946442], [-2.8634877207838754, -3.663397737365593, 6.394079183114717, 7.22110638931948, -2.7777881568603386, -0.0988481402914051, 2.574385390931193, 1.6185648427056052, 2.205242563922249, -0.5436639969424297, -2.400262209733016, 2.2496899600176974, 6.569894193987698, -2.6633269193371114, -5.953595079693667, -2.6903522910095123], [7.66677194707975, -3.244643957317608, -5.467362921302131, 2.043768628271044, 4.587669687456954, 1.5232482628704411, 7.461573860284075, 3.5473387751736696, -0.17090577854794442, -2.638429694320829, 1.08486153558029, -5.769094777985564, 1.7553754724045976, -4.496296618259179, 1.047233036203263, 3.354942649758299], [8.811430689334394, 1.9892006244624905, -0.9846439178962987, -3.3898090127300335, -5.115810908417925, 0.06752720826040526, -0.4306872038771339, -3.7135595654566536, -3.4153189306984593, -1.7747483759219742, 0.4413337629564603, -2.457520736275313, -1.0077236273430805, -4.636943764417821, -1.088878592114476, -3.6044271779805195], [-1.7670556825131416, 4.525780496673598, -2.990688179095086, 1.4010459955990944, -0.5890128016701162, 0.37827403270381155, -2.540756653053382, -2.4899931643463997, -2.3488076857776408, -1.0159527293308586, 1.6060384378124726, -0.8392315188503598, 3.2450167983337104, -6.10418748119061, -2.9605893065761184, 0.035939013465178915], [6.87006394998988, -7.30709219876261, 1.6964553571205503, 3.523733868172283, 0.4940441354637346, 0.8079465603134224, -0.9642546225196473, 1.8812244353002474, -5.379098470703971, -1.6931212437037313, 2.608410903143366, 1.5041915086472308, 0.7959232140907695, -2.3716927437700326, 1.488318712898804, 0.4168287380068145], [-1.3076807552754786, -5.433141277093193, -2.3958378506191105, 9.542297135341473, -0.830818542642633, 4.231385085388753, -0.9994327763584294, 2.172551505088083, -0.7319553234550313, -0.6181632339568943, 2.506628325412936, -6.1237707776238945, 2.4515090976301748, 5.557915364413265, 0.6547044050610645, 1.8872735807570984], [-3.272215828782544, 3.1752546056773427, 3.815735637520297, 0.563562530067234, -4.30033690970112, -1.5413501034494752, -4.192859974165144, 3.3579478414674377, 3.569671518575717, 4.075376318026264, -0.16396264476069594, -7.9712524351355825, -0.6989724612323149, 2.6531350341699538, -8.622166492774193, 1.5291773647142959], [0.22861791174657387, 3.2004580632609043, 0.7334202962786947, 1.7323770662614135, 1.6748061790979607, 3.3089686106316787, -4.974256820794263, -4.955947578050945, -0.6399026428815756, 5.790270551827431, -2.8544508692206163, 9.86400207120833, 3.3041064270337794, 4.070244161339232, -1.8679952681372767, 4.857738730626989], [-3.091537732389293, -3.3841469989831845, 3.2890662604467185, -5.905636118730676, -1.7783556931977285, 1.8672278612686557, 2.421126714164404, 0.02106620738547238, -1.333304298892592, 5.1907245725442035, 1.389670995626894, -1.2895693828044557, -3.2177904503837462, -6.29026032020144, 0.8671686102010467, 8.308704702798336], [-1.3258707484831536, 0.7610419792827574, 6.56423338585395, -4.366513566420749, 3.1927491435129687, 4.152395998144664, 2.5592403079319976, 4.133374179228143, 4.249979378812875, -6.2916974307120705, 2.585693250570238, 3.899875480297561, -1.3512588111820536, 4.294485619484212, 1.4159080914224265, -7.37206649243133], [-1.9978216462213236, -5.462611897221161, 0.29591122003329917, 0.9911052750310674, -1.7708093330906045, -1.9752231868602432, 1.9155712113650325, 2.449105300918696, -0.37947861013261736, 3.2941729380831477, 2.5750838545231582, 2.4311972208133383, 1.5861930219107758, 7.475450981373832, 3.7856950330798997, -4.9508199489063], [-4.129674730222504, 1.1036833093643548, -0.4625624155891188, -0.38816492265822766, 5.422081497267315, 1.6543228174702607, -0.6372899514372078, -2.7108107012603524, -4.8033986016630035, 2.6105221373481204, -8.03399495378421, -6.314594445087149, 1.7891693517790854, -1.3186611521420493, -3.4784824685913005, -1.663941220424449], [-2.802106569129216, 4.447695228125433, 3.3773322636391807, 4.957237065289169, 2.540800682647492, -4.316821322869392, -1.1024554123168575, 4.38526908113745, 1.6729163612044677, -2.482597945779229, 0.783961541373916, -6.876160385446343, -4.776293821596499, 3.943617533244238, 1.3399684794167372, 3.251398832219863], [-3.0810430326368947, -6.573794207863313, 5.962791900065818, 1.7248019775692063, -4.455871733625119, 0.9638137951043029, 3.4562727884870004, 0.6872992770057732, 5.973421840521987, -5.858912107002876, 7.574552056516455, 6.529765932569431, 0.6869360718038107, 0.2481250716607153, 2.429767092824159, -12.329999970688968], [0.6498218066916572, -2.9864267272837735, -4.5063856707031436, 2.661153344963118, 0.16229332838523525, -1.159467347092321, -4.837213085052115, -3.973135774653587, 2.2515176444074845, 6.935385058282869, -5.562002307652046, -2.933878106382413, 1.563317818446882, -1.1327982725113073, -2.326725473572731, 4.093588061094317]], "bias": [[-0.9244454939141329], [-1.5311052633120732], [-0.9691703590668969], [1.973044610583596], [-1.4014617392657494], [-0.7188403424279963], [-1.9378310933671559], [1.6390803396411813], [-4.722841681132635], [-3.558821196662705], [-1.0583193996811848], [-2.8962924933593728], [-2.777691872219894], [-8.061725834444351], [-4.6938817574939415], [2.5032362267682475], [-1.0408184403055105], [-0.9390017445309345], [6.916178186705355], [4.957724220220101], [1.3992386615615684], [-1.3823857805059978], [-1.2813685579485237], [-5.914894305771722]]}, {"layer": "activation", "activation": "relu", "activation_prime": "relu"}, {"layer": "dense", "input_size": 24, "output_size": 4, "weights": [[-5.553336923259813, 7.750848959529635, 0.22274551468186388, -2.9285101485419607, 1.6982449045682144, 5.67138232397439, 2.7350533109190183, -4.237086932884348, -3.4238861740864146, 2.0025802058668964, -1.055631324420283, 6.030905754795834, 1.9741141899347916, -4.636564126970018, -0.5287491520485708, 1.5620412231422582, 1.0213491112097515, -2.735290071237196, -2.5441311290022237, -2.0978946655241955, 4.328611456216584, -1.6651300347629614, 4.710848627473873, -5.135374471070128], [-2.8659957836473824, 0.9073969089212419, -2.9567314456134146, -1.1715889097310925, -3.7169232755646187, -2.339860242784952, 2.726475351556793, 2.3447196608196244, 5.288720067710126, -3.8116436985566593, -4.091913066930216, -2.2304083714800846, 1.2962560065918252, -3.4868563816977707, 7.212046260543284, -0.901565815512965, 4.288372197537136, 1.8792222845928832, -1.6383981686374653, -0.40717510360079145, 0.6194717536248492, -2.4930031602044096, 3.611221056893986, 6.004058360455711], [0.09942158924565181, 0.10781554400402493, 2.878736488317527, -1.3237899871305678, 2.480355829745191, -2.6723259566479283, 1.7886756989675845, -1.1631776182763163, -1.4694519538926276, 1.6444614377572406, -3.7812562092472364, -2.414554867568634, 0.1359496050884661, 7.719912701941043, 8.46858362706499, -4.353905937661931, 2.305416313669732, -13.318125659228574, -2.9646198086057765, 0.24665728002707143, 4.345903110690495, 6.309867925168139, 1.9763670778304967, 0.0016929992610129618], [-5.676600575988239, -4.171034491349391, 4.692588300439625, -2.161008583123097, -0.31046845190785516, 0.06593573869161944, -3.6288297043409443, 0.6758588631621385, -0.2374209892723488, -6.372227244853938, 7.8013843035567225, -0.6397815606529347, -2.550494988566931, 4.9347671487364835, -2.1119760731753607, -11.362314818802796, 3.180576178900228, -1.1355536252720166, -1.3152421288842366, -7.745011773855495, -2.409943380446699, -0.9132684467681977, 2.5835863673831576, -2.9288675925130905]], "bias": [[1.5599749944840386], [0.4186927585687823], [3.7064418321370685], [9.224270516681207]]}, {"layer": "activation", "activation": "sigmoid", "activation_prime": "sigmoid"}]}