{"generation": 47, "board_size": 10, "snake_size": 3, "input_direction_count": 4, "apple_return_type": "boolean", "segment_return_type": "boolean", "distance_function": "chebyshev_distance", "network": [{"layer": "dense", "input_size": 14, "output_size": 18, "weights": [[0.6478390199527564, -2.073425963130214, 0.1305919197468821, -1.904175137358997, 0.6535741484712156, 0.07742449166686105, 0.14079175316158854, 3.6180056861988756, -1.1986834413778547, 1.0290772281987852, 1.4172104571398505, -0.14632869162578266, -1.9613093440061373, 0.1359576426613313], [-0.6104254486026184, -1.4465310365219761, -0.49926027584915517, 0.977214776663336, 0.5339921714047502, -1.557638387589526, -0.4983093862807092, 1.0315373003937964, 1.7704303496776364, -0.14087106289586138, 0.24465885473739535, -0.9250720901063589, 1.9365677809618806, 0.17544203643128664], [-1.9911714743751876, -2.5736028966056814, 2.543037593143645, 0.7637336836578628, 2.2115617482952374, -3.685556061735597, -0.3385454454802501, 0.08040798440270178, -0.6813438181937341, 0.8363694919278337, -1.701829047655011, 0.31545487655075655, -0.1364270845269936, -0.7659010990695378], [0.050752607557875584, -0.3484076403795111, -3.1812312233120643, 1.0327680107080701, 0.5451463988381218, -1.7141740051993313, 0.5458137206684361, -4.530312114238762, -3.0099829980937933, -2.0718181959424915, 0.5892015467882965, -0.012330972850563393, -1.0288145315940713, -1.9350465300231456], [1.1476857202445405, 0.5628636698660034, 1.0136242963849724, 1.9864884171479287, 0.31476951445613643, 0.45119244061894254, -1.1805702933209812, 1.2807646119119258, -0.5115998893684792, 0.7212435600225564, 0.1520974738025751, -0.711032910409088, 0.1808157861337764, 0.5864501045714551], [-0.008092149702488033, 0.4556258817535835, -0.3806622315723547, -0.16447315830696513, -0.6663049650625794, -0.7099075983206142, 0.8302055534532344, 0.9748227800378833, 1.6007759587720538, -0.5776423663062903, -1.826343961297899, 0.09867470577928295, 0.47651349164889334, 1.027053087377055], [-0.1817204070412497, 0.6199454632419841, 0.5814820927416504, 0.037195342291937106, 1.4324734147137996, -1.542725974115667, -0.7331599553794427, -1.525394552272712, 0.9596313845739866, 0.17926459271573672, 0.3344370398547756, 0.5299839789277575, 0.4710817943460466, 0.9769752985147748], [0.40283471933551324, 0.6681209815413338, -1.0220037300675635, 2.1642885426972542, -0.8560523484802549, 0.17441023912757703, 2.162034877556934, -1.0870615735732747, 2.3949125635277575, -1.7609937971386314, 0.7635297913435188, -2.102309720420614, 0.8543255333247894, -0.026070424702025807], [0.1639708115673837, -0.19903934767909637, 1.2156883179209843, 1.4200233225423475, -1.2744684277314535, -1.9005739789526013, 0.8756578334699392, -1.7724289698767974, -0.8727921686926354, -2.8514398932935348, 0.9679730032816161, -0.6391508091922493, -0.34551173694860504, -0.42663176108220036], [1.3152334245339825, -1.9142391887412546, -1.1995646002840235, 2.5946177880990295, -1.4578879628829704, -1.6139693146195313, 0.7242976811799037, 2.2934030150956346, -0.3065501198613533, -1.8973193986505505, -0.6049185529819185, -0.8004340842799997, -1.8279670101547734, 0.034311333904750774], [-1.7614027478041032, 3.219388631490136, 0.3586970720841989, -0.9404803035018492, 1.8711679275228774, -4.4971741050882725, -1.1424655105662032, -0.12901361003994022, 0.9848873759669321, 2.7464332676220438, -1.8511494755170053, -0.8359246750035779, -0.8766021909654432, 0.43181772865575563], [-3.402394705135598, -1.860886816871834, -2.7056245514865753, 1.1437532141704798, 4.820198281232392, -0.4024232623133499, -2.933633388552586, 0.020611326372889094, 1.0459685861274888, -0.22887416455414789, 1.173650645243965, -0.006940731584323956, 0.1483253356518417, 0.21264167572293557], [2.1476646612247627, -0.010509390443160349, 0.7432526242697166, -1.4335247487459135, 2.5911980876995244, -0.5597986008349191, -0.8904561823978645, 0.20802142216990627, 0.6031484210019133, 0.33859469405958337, -2.0475517204110303, -1.1095432825044638, 0.6455992873470504, -0.6113534258454698], [0.13038150302059248, 0.259105835060067, -0.19491623613754017, -0.1423224660657436, 0.13996459937434125, 0.8974452141829643, -0.24762098098664076, -2.9785295361159845, 0.1806162783384072, -2.39362769569264, 0.6648373226710996, -2.2337913903673137, 1.4053329467290219, -0.5634862373977891], [-2.4870193602265287, -0.04126470320457465, 1.2725732363795934, -0.24025475633032412, 0.9707693232448998, 0.8607256271894563, 3.193804150367792, -3.525589741677566, 4.218078930166765, 0.303076193062914, 1.2054275274615818, -1.565631889986917, -0.7363990141566019, -1.0228535442379627], [2.348517260496953, 0.08316769988668815, 0.2638261358802847, -1.6378261993622352, 0.7798474594402593, 0.7141551440210525, 0.3787388950552065, 0.7549818819792175, -0.5017620288059599, -0.7941221814163151, 1.8354639039831668, -0.6178613704990366, 1.8168045372039094, 1.0681024304648228], [-0.8783668743025727, -2.539633467599498, 0.8803355097633804, -1.3882018941864176, -1.1287627283789718, 0.8802146343762194, -1.7758772835034784, -0.42276661981866515, 1.9985353839636568, -0.8068956258630611, 0.02776478552434236, -0.8174901517321433, -0.7668232644717137, 0.2812736951464181], [-1.5836918435979261, 0.2549611080892087, 0.48119163710566126, 1.541394263362857, 1.3236605424341692, 0.9133279136153947, 0.6312986430144236, 2.322503380431826, 0.75679874626929, -0.4810161982607015, -2.5132591283506316, 1.649434891941025, -0.8335031735854455, -0.7634893251792731]], "bias": [[-0.005027427386806685], [0.4884467633311316], [0.030315295866213177], [0.695310627942674], [-0.08330800218049461], [-1.5322608336991081], [-1.4441691864946171], [1.8774497260213403], [-1.719528600682097], [-1.2460617259387696], [-0.4667977760839097], [-2.0744413573521747], [-0.39539596274320066], [-2.0406367659050986], [0.29770802210514324], [0.6541459009945407], [-1.197914884729931], [-0.14646277924549556]]}, {"layer": "activation", "activation": "relu", "activation_prime": "relu"}, {"layer": "dense", "input_size": 18, "output_size": 4, "weights": [[0.4578931163470824, -2.1956487320767186, -0.2995268855671642, 0.8695340870110162, 0.7169595863483751, 0.6211689688881818, 0.8554833050440622, 0.05437073738366516, -1.2906274395757438, 0.3968336495362068, -0.198484234492099, 0.15645921529528556, 0.18078122353421877, 0.13210199076975637, 2.01389015462372, -0.8344727519113658, -0.9955321717052215, 0.9024845648841093], [0.720453574460409, 0.5508210492102921, 0.09853460194107866, 0.5897414697822942, 0.8363191716995142, -1.1989864132481636, 0.6592184437336103, -0.9210744564248396, -2.7706111276305925, 0.15883628667032834, 1.0149460372073982, -3.5347765212267457, 1.7297451861407325, -0.6132468350159761, 1.4613149811933022, -0.5278493887711527, 0.2802155620992573, -1.4733052678604293], [0.25178345020692106, -0.9099764229169511, 0.5416976880556874, -1.7130701652336158, 0.8648957460575074, -0.37903610685364764, 0.42937673737182025, -0.45572720901617614, -0.15653220361289466, 1.2943287612720278, 2.4834646691414375, -0.5935188365559964, 0.12377791714373576, 0.8103605174123052, -0.754958949391715, 0.11697826981693735, -1.2207068999091066, 1.3650585107698225], [0.135847432470513, -3.9090614287283545, 0.7046405539952802, 0.9905200996630465, 0.5202645298403398, -0.379528799236019, 0.20345047735042499, 0.5150541198760594, 2.1067373359716344, 0.22287135298134686, -0.3330512285020859, 1.2332261559600899, -0.13335732634550457, -0.6433206214544009, 0.7113283110517192, 1.7985648076182228, 0.016216508445313138, -0.9941419977492214]], "bias": [[-0.9337451834444724], [-0.699468363619808], [0.2357455221091378], [0.2574645231253385]]}, {"layer": "activation", "activation": "sigmoid", "activation_prime": "sigmoid"}]}