{"generation": 435, "board_size": 10, "snake_size": 3, "input_direction_count": 4, "apple_return_type": "boolean", "segment_return_type": "boolean", "distance_function": "chebyshev_distance", "network": [{"layer": "dense", "input_size": 16, "output_size": 24, "weights": [[-0.6109249353185322, 1.6926120703056318, -0.5512000646192159, -1.0986024501314304, 2.9188946951990706, -3.553796610584314, -2.427924548990153, 3.8459126519793476, -3.1153227970784125, -1.366458756849301, 0.9650188989125233, 3.904770694607954, -1.6825522751946649, -0.7892509131077248, 0.5168112219227634, 5.6865940501816095], [-0.002982263269213692, -0.6634874994058391, 4.847396746361255, -0.028329174336595875, -3.878024067293876, 0.5503711738423971, -0.5984539093381497, 3.0456566509060363, 0.3768539823477242, -0.34944602159337346, -0.7906482174693105, -1.8333016335868924, -4.40203142239181, -4.277173023100313, -2.3144295651893487, 0.28241439978139526], [0.02791353330606927, -8.027716189036681, -1.0935087173704563, 3.655160607369626, -4.256184181648093, -0.39976792972939335, -0.006206933486148536, -0.9844273729739247, -2.696210532767857, -5.537473691972573, 1.5857492263359394, 2.6540588216758656, 0.04303356914077594, 1.190002446870948, 3.1145247574421866, 0.32024686077671727], [-0.6852691110398992, 0.5206785574892545, 4.850029471283386, 1.4351733468763244, 1.626182388759576, -0.1207858544236513, 3.7942727566053414, -0.1299435183310227, 3.386591434075039, -2.1328891610523475, 4.2040855527765935, -0.5148570193090504, 3.098446700736346, 0.3847919085510463, 0.8999136441386848, 0.23320001844935845], [5.516571966982285, 4.683356137892862, -5.061270998118928, -2.8375060943363715, 2.92904676492776, -2.590701896731085, 3.82737920954583, 1.5998867028509598, -1.0918640989582853, 4.153362692897795, 2.0993798411951907, 1.8830056634098447, -4.218578424296044, -3.798150131363945, 4.420026342275993, -5.705979124040038], [1.9264455400882061, 1.381364282047391, 0.1887818826964468, 5.963098571779195, 6.289670477841668, -2.3216941410052554, -0.9052212732564723, -6.142599390263703, 6.3882536865349575, -0.5300526721038384, -2.1535182211741164, -3.659846076448834, 0.8080150815771928, 9.786128050779364, -3.3936662322367446, -6.2907644525784345], [-4.296366862050121, 0.22873630515024257, -3.5940276647197242, -1.2623862582828185, 1.7758910421487353, -0.9943952995117052, -8.833011744107928, 3.834016114392646, 0.2503892898600386, -1.8866697192565005, -13.398158175057626, 0.053134102908706904, -0.7362320523548487, -4.758962152354584, -0.972072633946704, 2.701467264910811], [-2.542238311517832, 4.004898543590276, 0.10069349840963371, -4.179942989820235, -2.4433958165618574, -2.4564082531550895, 4.120421678384043, -5.6085907649623685, 2.594733178214471, -1.477062478495533, 5.038597284062943, -0.2928690700410001, -2.018504935982872, -3.96433090229574, -4.373154000051853, 0.5044770547363986], [5.317840133935567, -1.1206171362054473, 1.8785086898783112, 2.8525171627891033, -0.33130916708832736, 2.188630946382188, 0.13511193202573146, 4.118495145490514, -4.193049957107474, -3.5931421485602497, 0.7412112412333792, -0.9050057173728893, -0.8331377427469897, -2.760790152089697, -0.8713285919305924, 1.4142459476122968], [-0.6463661831843662, 3.018950291127498, -4.447602248097738, -2.5881921214620807, -1.0641590426114187, 1.81948328384679, -3.495435326261448, -0.9774358020628076, 0.43251632463605527, -2.3597979878858877, -1.5039870836903104, -5.775967797349125, 1.5526787675517961, 4.418344547136894, 3.4371352991132866, -9.321293034907741], [1.543238572255374, 1.9617325746517993, 2.339785008203147, 2.8537189007046884, 1.5647537032778067, 1.1399323090164406, -3.862225118218724, -1.125114498545024, -0.3341410806503271, 2.4940747720246748, -3.811924533406475, -7.078909947649127, -0.9907534157254957, 0.3850247190967777, -1.1646545341809929, -0.027028967163797102], [8.16252897782171, 1.7726210713412638, -1.2351605704023056, 0.8493516811610279, 0.18968901666934732, 2.6840550467100286, 0.27881628998254315, 4.915280341795888, 1.270855073533868, 2.689156437942962, -0.6063089770594758, -2.328623307937924, -0.6283642961805895, -1.6378627007047069, -1.1267723348290244, -1.569660158559401], [3.7331906426496397, -2.7710751907820743, -0.3815168286819679, -0.57635912032408, -0.22865578891839122, -0.8116798734429521, -5.952672833957427, -8.421730877201284, -1.0390842947278258, -0.29999784139295266, 7.479152694870119, -4.738467777979952, -4.516889683184886, 0.11865139328832569, 3.57986667910522, -4.338408774684642], [-7.253399049030455, -1.6180781196098573, -2.9465648436901257, -0.5717251184904071, 2.6474735910914364, 4.485138963652524, -2.7958077060483975, 5.860983075418448, 0.21903837517811253, -0.28416593731623746, 5.642744280201357, 1.8493166153794807, 3.8145677644490985, 2.331639282574141, -2.670520617927434, 7.404585726975775], [-8.28137173938906, 0.08484657932044826, 1.9222644095252566, 1.097937757922053, -3.6148606645013994, 9.607961224838391, 4.4677284601345875, -4.307924027655526, -1.1743234559404916, 0.6365752997613532, -3.7676797121628205, 0.5497231240846832, -6.419794029335524, 1.7861193683347725, 6.0795491080219515, 4.176735638200757], [2.062001835504484, 5.1742493997963255, -2.699975282134981, 0.742548992152965, 0.26693678476288585, -4.244710522728217, -1.7693082259530009, 4.528773099803859, 0.2192816448851571, 0.6855407499893806, -6.900445147045601, -7.152478597865164, 1.0781224395991813, 0.8142339008346047, -8.926665136952638, 1.812481298234482], [-5.0192099623487225, 1.1326095377094265, 0.3034722741490822, 4.2318546296413455, -1.5058420565616373, 1.42646860612511, -6.645505614702449, -3.482027351455539, -2.1901805731914266, 6.870305423632312, 3.856902915243558, 6.029585348165169, -1.9508329140144767, -4.477663534096462, 2.2841418597508287, 0.8178569672667788], [-3.8095577568830183, -1.1269452436141467, 4.610276990175322, -6.791693398094588, 2.6768185885718903, 1.2054994004562143, 2.0759625542698217, 0.9523773182283075, 0.3088937046651943, 6.67507726389847, -0.1632530641603639, 4.590205739104492, -1.4347419034760276, 1.2282046794682069, -1.6135359038484445, 0.1603409333453743], [-3.514296313541538, -0.5955803965653788, -8.535255173560337, 4.294886394670072, -3.0142590677368015, -0.896155806621424, -3.7240119453691864, -8.189449715802976, 3.7324878157162513, -0.21232986506171547, -3.777136806933796, -0.6176336025961818, -4.069518560186753, 2.3504270091044477, -2.8825084412983286, -5.0933504096201245], [5.88257666453787, 2.6655449916466205, -0.8272123833380916, -1.3095041489183488, -0.6624737421303502, 0.9456441635953377, -7.85823876090806, 8.375023915086507, 1.8315493507974094, 3.1291631868359038, -1.5073671297047186, 3.781762596721787, 2.18518369868179, 1.550585013783948, 1.686769376163907, -1.7270087122473186], [-4.506634619351502, -1.257267924573457, -3.944102153198826, -2.4496831233695806, 0.9484395014015794, -0.9152591204230469, -2.84437929011235, 2.7079235992554964, 2.915108264360077, -4.036791495228763, -0.4452054852568992, 0.14749933415488337, -5.200416636412766, -3.110162886903771, 2.6701954784555695, -7.199279716649148], [-0.18468691709522445, -1.3854341262570853, 4.761820858539418, -1.5805116973596545, -1.7350788759116478, -1.4624712259746095, -0.7616311731891674, 1.2976429440216517, -3.0183336133541205, -3.7694666492140936, 4.938327597742272, 3.3558040740521897, -0.9800368678640937, 0.04784105522414761, -3.5071853715950594, -2.808030686402589], [0.592588266415661, 1.9354020543994763, 0.9864975759921789, 3.2999425820923047, 3.777619993637688, 2.1693002614127153, -1.413949312272762, -7.797105769528484, 2.4412411426104645, -1.1611247597979677, 3.564951606880596, -10.351223853430596, -2.2278057254558297, -4.459345633601194, -0.11262457142163051, 3.1873819543212774], [0.7083163657037759, -2.2650447227643715, -5.2066399962643, -7.164440559691049, -1.777490133987855, -1.149786866095492, 2.03899335829842, -3.16219025629091, 0.9304855706183783, 0.6051144255548437, 2.001066699364882, -1.115837496597951, 1.4163395264628769, 2.7122562195331765, 0.8601917665276881, 5.290701634437124]], "bias": [[-0.8840055259799793], [1.734053620834951], [-1.5175302074052377], [1.9330792090088118], [2.3415298967263034], [-0.4224401776459582], [-2.6898530334521285], [0.5990365395191933], [1.326254379776555], [-5.478391966803304], [-1.1203888881002775], [0.19902634641815253], [4.756015930328154], [-0.3378516857626242], [3.9180927549888245], [2.238414664557157], [0.014304148072309064], [2.5065476013090136], [-0.5908575391054907], [-1.075600550583872], [3.1259832888159362], [0.2232566684178675], [4.2325703380089825], [-5.976235282814721]]}, {"layer": "activation", "activation": "relu", "activation_prime": "relu"}, {"layer": "dense", "input_size": 24, "output_size": 4, "weights": [[-0.9151069941592452, 2.66311046295668, -0.18696840854583816, -1.1059504896193229, 2.859404194082991, -0.13250784451206077, -2.084102874365697, -5.327484479479795, -3.196583071443857, 1.158351313947985, 1.0286424631513396, -1.5732744841843689, -0.2589917210172835, 0.6268957556400556, 0.09393491452056013, 2.2712900212179052, 2.0171205238401604, -0.3962598436942055, 0.699579538512121, 0.08494047497578727, -1.2347717320361808, 3.1041010672903315, 0.3913565858094594, -4.673498560421735], [-1.1887754937108181, -4.270244873391202, -0.6370162321037584, -0.21823701805419865, 2.734409705332874, 1.7216731307898185, -0.24116153560828746, -0.33991989973242825, -2.844416339612783, 1.1503999688426851, -3.039242934214463, -0.7947600975960116, -0.7811487217565293, -3.4135735133474205, -0.003060063967750687, -6.801817434644379, -0.29159296067058044, 0.7119789158345509, 1.7339921534977494, -1.7576372852229014, -3.8021104708690436, 1.8241825695333374, -0.4685559479457613, 6.200006106287089], [0.1777858261039995, 0.11208109719553136, 1.384901585867451, 1.0149361191646837, -0.6774165299850344, 1.5960980472810127, -1.999939007195545, -1.602096381971232, 0.3677308122353715, 0.7842458897938595, -1.3926474095040284, -0.09810264792712796, 2.425527585216611, -2.208057721934164, -2.1466970976317934, -4.153609877874118, 4.018649538295475, -0.7394336934195179, 0.5364667118468858, 5.776619999180018, 1.3171378312788433, -1.9486990489632499, -2.0723269374422384, 1.9185608128618652], [-0.20172981148492986, 1.0901316472312557, 1.2413121571403871, 2.04386810108905, -1.0718669134144103, -0.006514728061262187, -2.1009848949670875, 1.5970834838737213, 0.1326347694617222, -3.083279556635789, 1.5092217082941, -0.04748265924485928, -2.1096834094836043, 0.7169282909816386, 0.3014091340402201, -1.3514037947062383, -0.4386360861953583, -2.7351635380328996, -3.196092140371653, -4.243137879913355, -4.662012272770003, -0.8974497907781944, 0.6868086522380029, 1.125130225181309]], "bias": [[-1.6115399549707983], [4.060364366807227], [-2.3521411911536063], [-0.8207666882795503]]}, {"layer": "activation", "activation": "sigmoid", "activation_prime": "sigmoid"}]}