{"generation": 147, "board_size": 10, "snake_size": 3, "input_direction_count": 4, "apple_return_type": "boolean", "segment_return_type": "boolean", "distance_function": "chebyshev_distance", "network": [{"layer": "dense", "input_size": 14, "output_size": 22, "weights": [[-0.5556668431101706, 5.979284678375208, 0.3719112962633093, -2.3310355482980865, -0.4968924402739929, -0.24018375808876086, -0.5359673769778026, 0.643653278770246, -0.16035210095324642, 1.8331959333408614, 2.3221774773784922, 0.6319503121918641, 0.6075704607214232, -0.6432062001737953], [-1.2761045736066354, -0.42491825473306966, 1.5115940482164305, 0.7551025320147793, -1.050445208402927, 1.675052709678634, -2.737217129952441, -1.0451868386539545, 1.2541147798301644, -4.2793416442973715, -0.7291185892695198, -2.5009529818326213, -2.583739136180802, -5.394728782745684], [1.5327779539855744, 0.8016405462619842, -0.5381316200750959, -0.049143196464584205, 1.6369860417175732, 2.385409879609498, 2.17649046553218, -2.11151520510485, -0.04272722072677404, 4.072992278977519, -1.3926663575710172, -0.1725364819065764, 0.3905216241534062, 3.932919787453618], [1.1517795445902346, 2.5850315253811624, 0.8800603054856556, -5.358998827999548, -2.7834005822624786, -1.8890122056628176, -1.1050742105995843, -0.542359124106566, 0.15595439348451945, 3.341741349170265, -1.3262847711367223, -0.6422840957113876, 1.3646707470446244, -0.8829133217098734], [-1.4998182074245867, 1.9236268006429724, -3.707601941097118, -3.105923909575692, 0.9716089966108921, -1.1873983947482278, -0.6226466808687593, -3.167605572064052, -4.901719862679176, -3.123869056602918, -0.664336332826601, 0.45837701144381504, -1.9826383281960926, 2.135950386759019], [4.32737741361553, -1.2290903456338356, -2.117269668225145, -0.3566120306375029, -0.5544080441449861, 2.2119071068808065, -3.7812496593477376, -0.16758147886414868, -0.6336999430727348, -0.456391309647563, 3.907568532987901, 2.6402127097617343, -0.673740353215362, -4.002729001760374], [-1.447366496207312, -2.908314196159893, 3.247563213075625, 6.848965273366943, -1.920334819155765, -3.8576416881835467, -2.6875327026786864, -0.042842134674571986, 0.6164607980393013, 0.942637149399707, -7.437850684424513, 0.3439090914469629, 2.6302919702190155, -0.4052146205903997], [6.227041025465289, -2.1822719068336527, 2.0667896212556474, 7.554310360458002, -2.043474042389982, -1.1013565997064925, 0.7705618512413931, -3.4399720790440202, 0.28848468942812056, 0.5714900762597103, -1.0247108320209075, -3.203527135885428, -3.081848706252834, 2.313183341506336], [0.6077215596876466, 0.8450834077516518, 1.7298808620917452, 0.4732838559588477, -3.018094545970887, 0.30734170804377803, -0.5293971217856988, 2.973665444525578, 2.5965949165106643, 0.6011991788632152, 2.4790087062630306, -0.013665925151225333, -0.41683334996291976, -1.067952418663714], [-0.3941055770751676, 0.4956755543056989, -0.3362651211358306, -2.8936989119305245, 4.903225310668027, 0.27277733471168863, -1.757609127141027, 3.1010883005777803, 0.8906897803232507, 2.743132676625434, 0.22272287892284104, 0.6818648049534519, 0.2819368984459126, -1.759849939685599], [-0.9919736722618844, 3.11802305279432, -0.3901490631239878, 4.828846326078004, -0.5107273000518722, 7.422096263833453, 5.319184614353219, 2.8991150059347697, 1.46955406451919, 2.4041987531913938, 1.7574061153618068, 0.13460584267973408, -3.543045534967008, 4.3531978984494994], [-3.3619109457957848, -0.47346223996687153, 2.1306779261088375, 2.3682052504906994, -1.4783117126127252, 1.9194282789524857, 0.4556133569331396, -1.1660546624048638, -2.8124318961905566, 1.0790868591179845, 1.2522613593606668, 0.7405094745170647, 2.361712015304314, -1.2152211897123883], [-2.224981999343993, 1.1296967428049651, -2.020969079063032, 0.548586459000914, 0.15277323772923623, -0.17031000278814626, -2.3332414889786284, -0.7604321717484883, -0.1108323899259499, -2.989896086285878, 0.6669471745417801, 1.8068992189838977, 0.5152667953096779, -0.596734218210303], [-5.553422756341549, -4.56836578668525, -0.040204704068848685, -1.3719124059339238, -0.4229604982135997, -3.4377739372156046, 4.165549893324993, -2.856009153599843, -0.6818376944585285, 1.7600613784048171, 3.255388676582, -2.5155849518874005, 2.9051593932204227, -1.1684000025111314], [-4.757376579012058, 0.6098026764010751, -3.481729088979097, 1.727088775107858, -0.8404017179737207, 0.34034844054808233, -1.8854392826998423, 2.649942497162244, 1.2851410924536297, -2.32967721752036, 0.5135871823427334, -0.1331742117767034, 0.14261953008960526, -2.115938829660104], [0.6293533250651363, 0.40528887556391135, 1.3282875014115003, -0.6255431719404437, 3.8576450395550435, 0.6084490209331463, -0.4543011084194847, 0.623311419692162, 5.3861638615759375, -2.579468836363794, -3.574079981868165, -0.32592240690970964, -1.2019558755606943, 1.057341665550927], [-3.894713621401767, -0.6668612115545294, -0.6078280561273804, 0.5960898518730324, -1.1524752677082024, -0.5851074053105987, 0.9809778448802604, 1.3034951053529062, -0.9158048465505385, -4.809485499669775, -3.5572953557809868, 0.4171858116678543, 2.704354514155022, 0.015326460527538832], [3.043324322957095, -4.138317240307202, -4.770840263689393, -0.46921184225205015, -1.50956574484552, -0.6516866659510816, -1.5281082657839935, -2.63063329601324, 0.4569548575612506, -0.9572597031229422, 4.914133848600292, 0.49936751304650795, 0.38912495051404816, 1.4906309248478418], [0.44007220380445955, -2.229593497886925, 1.5288547323812944, 4.128270522200783, 2.8316852212986476, -0.9455433938187168, -5.45801065217443, -2.0211066568436205, 0.5971861233281903, 1.8488777097660083, 3.087567317150431, 1.4494312676292802, -2.4426884300164406, 2.61395723166817], [-0.17119861088749194, 0.6008175767215116, -0.6365616217344612, 0.113916506718298, -2.9134847836199986, -0.038846915423499384, -1.652769556182749, -0.6302304473299696, 1.5444634301349263, -3.5379826166491704, -0.570600116264866, -1.3580864721154566, 3.8736142034739727, -0.7567241679935797], [0.46662107094935057, 3.8491136599280624, -1.8717684671035895, 5.0272889978662905, -1.0772206242421754, -0.11242982468901697, 2.698221229283802, 1.4061782086142003, -2.5397648238909807, -0.6044474903408295, 2.018474076762314, 0.6965686718410171, 0.5678201199921961, 1.0356211549336019], [-0.946131494689781, -2.3188178043656458, 1.6548307745397215, 1.9658444772285195, 0.4453355802321086, 0.7231585465763679, 2.5236413313365578, -2.2173233003331156, 0.23117293278384876, -0.6963026991267226, 0.17659968747878207, 1.6522637087985923, -0.6096939833434806, -0.30582945463246375]], "bias": [[-3.4180992187992274], [-3.3398925033542017], [-0.6803225984148806], [-1.6654845932946356], [-1.450856738871367], [-2.426258856349407], [1.656957412158973], [-3.308190450514794], [-1.0630541412753323], [1.360045637537608], [0.5810876389071575], [0.1012101969228234], [2.6133540212087314], [-6.456978494735175], [-2.151568397406595], [-0.5515889603275889], [-5.850754188491422], [2.3935004513139515], [0.41751974024171823], [1.675077506436296], [-4.2657225967428944], [-1.0002662960301585]]}, {"layer": "activation", "activation": "relu", "activation_prime": "relu"}, {"layer": "dense", "input_size": 22, "output_size": 4, "weights": [[1.781022885247514, 1.5069931918596837, -4.745488525799367, 2.100927702007229, -4.150168458571735, 0.62719368394982, -3.9298540134754627, 0.511231443608734, -0.952075107518948, -0.4724220831439352, 1.5147062439289276, 0.008540694028696894, 0.5964431761321562, 1.5590592194377548, -0.5297502961748978, 0.2905956055145289, -3.9660617159851275, 1.129236159167176, 0.02357771903755279, -1.4577128519365499, 2.433011269967886, 3.247894459888819], [-2.103495923720194, -0.9213988690317212, 1.528117854415866, 5.9438134257786315, 4.6683576544160905, 1.1130095971876206, -1.195532288655806, -0.2646382924349149, -3.0158949460483115, 3.331209974296229, -0.5972869075194527, -1.4208896555151929, -3.080235275248758, 0.11183979780441411, 1.0829283554721585, -0.9449956453778744, 1.093748800020357, 0.19029831282277804, -0.737924745587256, -0.17891482757714605, 0.9618039658744257, 1.770068929093815], [0.4611730151260085, 4.406213185389523, -3.1705577812184513, 0.6554648408244206, -4.7249084065246585, 1.3599378254995647, -0.10853337388031775, 0.3159667630801789, 0.7669744599260118, -1.6146321118126834, -0.6072818107868578, 1.168183118469572, 2.124714897996957, -0.020787740250680087, -3.7564796826748053, -1.9101963124130728, 2.720045791530644, 0.9874702206952086, 0.20067527470273228, -1.9588941264585285, 1.272427182683599, -2.0849244214568126], [0.2516755940461348, 2.2225243026406427, -0.37041428128629217, -4.747868025504128, 0.09387338214162744, 2.96319508509635, -3.4739252850304747, 1.062944329195383, -0.6277526691177561, -0.4671631579464818, -0.24976876842045315, -0.3624787091134458, -2.272078061762486, -0.18442466829125226, -0.20963830688319962, -0.5280771610377181, 0.20962459993091653, 3.493371376260073, -2.2091286464984603, 6.830888944591801, 0.3728436309826044, 2.169590213835167]], "bias": [[0.5543573857047643], [-1.9656741840092615], [-0.3976748922707979], [0.04616907619587385]]}, {"layer": "activation", "activation": "sigmoid", "activation_prime": "sigmoid"}]}