{"generation": 817, "board_size": 10, "snake_size": 3, "input_direction_count": 4, "apple_return_type": "boolean", "segment_return_type": "boolean", "distance_function": "chebyshev_distance", "network": [{"layer": "dense", "input_size": 14, "output_size": 18, "weights": [[-3.6750800785762863, -0.17697911180404513, -3.9163918577477066, 1.2169241140114915, 6.141333086856926, 0.975945588575075, -2.980559628648311, 1.1057159933265115, -2.4798093696441548, 0.581954058231174, -6.081111506880555, -2.806761596161968, 1.5599330533842102, -6.882309203400475], [-1.4257638675675848, 2.3783514415162923, -4.1906834182153405, -1.2037102607671006, 2.1338381424720323, 1.510539643569728, -4.60774026386112, 2.4500376227943574, 3.441474509207727, -3.2398900972433027, 1.187812498089286, 0.6532226506454223, -4.969895452584041, -1.0264532354756721], [-1.1116100774163447, 0.6158270352718389, -6.8316225737653635, 0.4249177480279427, -3.9853807606200826, -6.335744254544677, 3.4278219307951874, -3.0891094065502145, 5.073284289955528, -11.962548439064967, -1.4758869317777021, 0.6352435217891892, 2.324029167547582, 5.299930819242011], [-7.054906958460601, 4.672518717023676, 1.1793803400373055, 1.335274979696513, -7.871259226568935, 2.2844967482278307, -3.5878846734115433, -2.860810141562191, -1.48603263252658, 2.617157313280929, 5.572288409976315, 4.288536615989921, -4.093769470304561, -1.7965392839762535], [-2.7362126963343822, -1.1074384785643399, -3.124094433469519, -5.567843376574663, 6.54489130717423, -6.278097682248383, 0.3502586949139628, 0.7404458209475466, 1.7178555047533255, 1.915820385842691, 1.376242780909929, 1.8899271488923848, 3.1782484149094468, 1.469328700280706], [4.341625903111152, 11.048192883042347, 4.610833720107238, -8.010016565994711, -1.4687874007664432, -0.7099042088600174, 0.4816845702906381, 2.411613009169037, -2.209199247808197, 3.704907989049602, -9.843197961932146, -1.9176903315881046, 5.366157785819394, 4.866627713973445], [-2.496008663264295, 9.025317411953726, 6.820459227826081, -2.8109216895593168, -0.8921645810088797, -4.84568613181411, -2.5112904751864216, -5.398159651812833, -4.996518202998524, -5.0627352941782195, 3.9771438525279406, -4.862679645374776, 2.2459985813761203, 4.270036902737334], [2.6537102759596936, 2.958274552062975, -3.1820768444899623, -2.87466074801402, -4.275169309523837, -5.799099943880338, 2.3163762411217106, 0.5758314496350017, -2.7969574754932376, 0.08745912073154982, -8.222534367142773, -8.302955238445804, 9.023701860335754, -0.9694680362682916], [-8.916988049683058, -1.0113636671105954, 5.138979443251937, -7.3521394408956136, -2.7183367099801004, -0.4823944473695235, -2.136347165418401, -0.4250833050069529, 3.2573512182693434, -2.852172775321555, 0.6510224532709797, 1.5856484640078492, 0.39086487635567096, -5.888083447676137], [2.753551924207452, 8.935874850246863, -0.818592859789649, -1.6427176727023, -0.5489959462329467, -3.7900232137290732, 6.265791578592163, -0.648140768838084, -0.3451835834499838, -3.8712252140327434, 0.792703206631566, -2.3933785109618597, -4.337871747533911, -2.22698177927875], [2.634617933862538, -2.397358004915221, -0.7406130137123422, -6.868285025115899, 1.9221922975336656, 4.408385724298414, -2.7959867732815766, -3.1465140997055268, -0.5182429894011533, -3.5259280242161104, -4.63688325771206, 2.8414974278689193, 2.2866494222368567, -2.76832635001193], [-1.5858726820958395, -2.5387089792438085, 2.680519279618715, 3.3170492551027726, -0.007115072338077955, -4.593785425243147, -0.26827227162658096, 0.12909118082805218, -3.6657190414211676, 3.432586409245373, -2.1810083077006346, 1.5982010836442289, 7.517681990217513, 3.498674034306105], [4.690055633575766, -1.3726816361210794, -2.2527266430389505, -4.068544250548293, -3.6093327601347553, 7.601888043372139, 1.9629176862135733, -1.2104581516971527, 2.139291763982231, -3.1338234711470263, 7.3753820445571945, -1.205544320657155, 1.1404772751708796, 3.4642947195573264], [5.0435140811072605, 1.2636865681735232, -0.9620497131022234, 1.6674825789416758, 4.739679726065143, 0.5168219572254387, 5.2915647055635855, -5.14013851457418, -2.042177879095703, -1.3519647073578822, 1.4194228875307824, -1.037481311444563, 5.910462946165042, 3.5843597743185995], [-4.391122159625779, 0.7902975611236266, -0.6963230810289476, -4.529701057513522, -0.12007518570785303, 1.1345396148666809, -4.507965675863369, -2.753036751025946, 3.385975820266906, 1.808547629585801, -2.8765308610994755, -3.8076867371445617, 0.9858703898145231, 5.077396186166932], [7.6254108606858, 2.971498261463815, 2.788377585751897, -6.702981238012039, 1.8950771736004284, 0.7017580724696864, -2.00930024428397, -0.9772565761119238, -0.00046749948422993015, -0.990094734661418, 2.275538002089241, 0.4655065453345053, 3.651572898726322, -0.001758167707162528], [-4.161715409192639, 7.782715535866305, -1.850193392454754, 9.515100755477865, 0.861179453793852, 4.169813961061203, -1.2774697825354875, 3.1801221826335424, 5.8064505802088995, 3.7032721483151483, -2.0667908854476824, 0.11820443531212699, -1.5599049388905173, -1.789099062335655], [-2.2563921168492302, -0.7588151055489337, -5.336346990250913, 0.2866445322318493, 2.9037739526801936, -7.099569134746987, -4.101973095929713, 2.274081584572679, -3.4193350950454264, -3.5602039054351184, 5.738721420832525, 0.2230030299664536, -4.77398548332341, -1.3688115695186625]], "bias": [[1.872744753849134], [2.2887741648609135], [-1.1125594581693412], [4.622305428563587], [1.563789681187333], [-0.5765106312586983], [3.1928452397563403], [-1.462028444184782], [1.986849887715749], [-0.5743449475595109], [-4.830070967662626], [-4.026521693185309], [-0.8529815871750736], [-13.194201035830652], [0.9397103948291322], [2.4828411595635367], [-0.012734173522967351], [-0.43858350530174556]]}, {"layer": "activation", "activation": "relu", "activation_prime": "relu"}, {"layer": "dense", "input_size": 18, "output_size": 4, "weights": [[-9.648804529108387, -1.011548209280046, -1.9153639634041626, 3.717552259933206, 3.353915770737369, 1.1654376555294939, -5.14885046169805, -0.25095791194752604, 5.539954203225011, 5.738970209294771, -1.0694760805678403, -7.044288289683116, -1.319918294638599, 1.0710495517983232, -4.361215700236697, -8.602487095323832, 1.7818410863860177, -3.615041469589068], [2.377674748661054, -1.327124698382855, -0.5440661750715639, -3.9661638313977083, 6.960261042764435, 3.3463498432309455, 3.2795890704087927, -1.8763217343359466, 10.207050941391266, -1.1091980042245837, -1.2739601930281654, 0.05504447335679563, -5.324655421056295, 4.705017146717062, 2.01897696795959, 3.3593646719454755, -3.3045411544627465, 0.3555075730689637], [-0.7210119467466708, 2.407347752260438, 3.7554462521294756, 1.4933984882574314, -2.766567356447072, -1.706156205230283, 2.5561703124114254, 3.833956495137068, 0.39236198949832557, -4.454906860721958, -0.8215838092315565, 1.5918766767900663, -2.36383978869089, 0.41377558505506495, -7.525391639340402, -0.18776552806693003, 2.0118371619997366, -2.590001797582608], [-1.485091624898164, 1.1401967123101966, 7.193718916932477, -2.938311305796786, -0.06523004766480733, 0.2875090832889416, 1.2599837100767428, -3.70633201911982, -4.114346142154085, -1.4479155366355798, -0.503928780753431, -2.2472809677712497, 1.3469672810792739, 2.058170146536945, 1.0277543658200794, 0.9455933133153426, -4.192025418486196, 0.09909118445302317]], "bias": [[-0.40642131741118526], [-5.36609111081855], [-4.317884445937323], [-1.6704890645122523]]}, {"layer": "activation", "activation": "sigmoid", "activation_prime": "sigmoid"}]}