{"generation": 33, "board_size": 10, "snake_size": 3, "input_direction_count": 4, "apple_return_type": "boolean", "segment_return_type": "boolean", "distance_function": "chebyshev_distance", "network": [{"layer": "dense", "input_size": 14, "output_size": 18, "weights": [[0.466627827566096, 0.26629732963197206, -2.002125000621925, -0.6594428272064314, -0.9495983849819183, 0.24074409010063214, -0.08244625594867862, 2.004388403769052, -0.5012311697144896, 1.031256300190183, -1.7168310056920328, 0.0681404814679043, 0.18118709413600032, -0.7256896734377414], [0.9807755795221029, -1.5241866692486874, 0.6514718998848423, -0.5623440410819076, -0.5249383381144592, -0.17403207789778724, -2.0980579608404293, 0.7271429023436556, 0.9093567822873564, -1.4949262346158643, 0.02405026646259678, -0.7215172958919973, 0.6410141823349964, 0.450051019404234], [-0.44016461997445555, 4.048299227942002, -1.8850860166412078, -0.3326234756773898, -0.10489658144047598, -0.6827660184677968, -0.5477833503222718, 0.9686570531479427, 0.3058318145207992, -0.9390135280452654, 0.05938765419474312, 0.8971237560533625, -0.935683296976753, 1.140048803098677], [1.1224016377030357, 0.2884059109845425, -0.9781604871735257, -1.934485468608873, 0.21506608369797475, 1.1218741076845553, 0.29176029907982814, -0.4899774423730272, 0.9359510319088944, -0.5644807235780336, 0.21021794450295972, -0.21474841466578454, 0.9003093163951017, 0.9821631432251887], [-0.643508337320198, -1.6339371213473908, 2.10726613900991, -1.3166314509464734, -0.741048630823811, -0.1606600618223426, 1.4304628134757977, -0.6934983314170234, 1.9627218328390965, -2.885929533585673, -0.635115545457106, 0.969071846273279, -0.4519535500605615, -0.21580783364909095], [-1.2828728050040858, -1.8950235944640421, -0.21592113618152187, 2.7859861521786975, 1.9175429886046467, 1.7435459454793594, -0.7389920749367409, -0.6290448385676929, -0.9594643172930742, -0.44856397144270965, 0.4982708128238953, -0.35378391966020095, -0.8205585794249296, -0.8010733678985245], [0.8029992264817372, 0.6685907781923872, -0.31584078476142047, -0.919243114681435, -2.8843537392122194, 0.44534695894224474, 1.0987055601581235, -0.9149897714413238, 0.7392491365905749, 0.31275314753944006, 0.881937066499394, -3.6510805875490284, -0.7947605117879812, 1.5318232837024766], [3.471124873512112, -1.4644488594934129, 0.42697600584920803, 0.2562115429313473, -3.8019166040462236, -1.3600311837449421, 0.9624095039272298, -3.3024615200029483, -0.3536760226685236, 0.7468797944064909, 0.46507562102694283, -0.3374823218361904, 1.5009358586129342, -1.4716864622142656], [0.8256532815482749, -0.3394873727038945, -0.5106091226964998, -2.8059738769082987, 1.2242364572010218, 1.3788519330683815, 0.3389287729763617, -1.0404492313325904, -0.7529978967650184, -0.7871042947429281, -0.7619238296733557, 0.9070718815811949, 1.2513532445524282, -0.6104963041880602], [-0.09953044396104052, -0.5093022191361503, 1.0916179261632026, -0.24835401604000829, 2.8184720585239273, -0.42070292635363615, -1.465260175819152, -0.2999084417383415, 0.036210367287352274, 0.33957918221192296, -2.752475709311653, -0.2407439619537219, 2.5036435173288254, 0.2932893451105485], [-0.5398923201990173, 1.033246981876189, 0.17726692379803077, 1.9485714430099703, -0.4514675677236217, -2.01061348797445, 1.695709580207268, 0.3409146728898296, 0.2774650777330971, -1.2770690035796926, -2.0096934267049074, -0.020138617092595457, -0.8806571051165304, 1.647540215498731], [-0.7438125226399408, -1.4263990734304648, -0.550664521447998, 0.8050433193519566, -0.43023919397804233, -0.3225093895863025, 1.834305419350946, 0.9587045260205183, -1.0821387121704276, 0.23569272480464865, 2.8653433512310373, -1.745043570215079, -0.8073656251909029, 0.7975044948268537], [0.5766826915823909, -0.304838445911451, -0.5509758218573382, -1.8032203439873689, 1.6175370020023898, -2.982343677130565, 0.8520095900792002, 0.9584410713632743, 1.1388458499801997, 0.1398872777194925, 1.4705735780332927, 1.3426971458002108, 0.250285049485482, -0.962337259238538], [2.160474789893571, 2.3085021818659484, 0.3164379555780703, 0.6558207596215325, -2.3214934040460897, -0.041462989669458494, 0.16131813068446021, -0.19496146613802667, 0.8317049026430476, -3.399320380116434, 0.8344520706830036, -0.17543684145115368, 0.9056856479484616, 0.7832575272883009], [0.175649178045449, -0.5348647528319534, 0.6164945120033477, 0.3784943858034113, -0.39927627588339, 1.2039075136932416, -0.4709200415924635, 1.369015726812713, -0.3072450492024317, -1.115441306553186, -0.010522385550446656, -1.4187675845439174, 0.4940402898913321, -0.051089714004781905], [-0.6913060176425937, -0.10773745893277376, -0.9045339581772132, -2.6639325922754944, -0.5943550586827288, -0.6289537283968716, -0.649325761769739, 0.9542071784037389, -0.4942292409634711, 0.8033912488823487, 0.44053011319101953, 0.7880910406974615, -1.1904326468154278, 0.6702880928473383], [0.08412634110030609, 2.069422862689102, -0.9967535819620652, -0.48713323068073877, 0.040524884569062225, 0.920515779091164, 0.8893149884503956, -1.360910097190098, -0.49338424328939556, 0.7223113779525799, 1.1428943434684278, 2.5551055231054027, 0.8268837357990975, -0.6513578836519922], [0.6388790069461937, 1.0966930086437543, 0.6615296849760082, 0.43537968210890154, 3.774294930927188, 3.5249480452081206, 1.210922995331625, -0.8074637571392652, -0.6302352967129798, 0.38559050402966055, 0.1284107637565226, 0.09067866356725418, -0.30349331354573206, -0.0616752873650277]], "bias": [[0.23066920718084755], [0.8226095758174465], [1.0018343001943748], [-0.2198937130738573], [-0.15043759985191313], [0.7293484183401027], [-0.2852630406336863], [0.0846501977548173], [-0.4682525698769757], [0.6220588047091773], [0.9027842588564992], [-0.16800034770807026], [-0.5560252045739349], [-1.6754533693671214], [0.29125136488680925], [-1.4591943208933214], [-0.6135261156125633], [-0.5357075310843566]]}, {"layer": "activation", "activation": "relu", "activation_prime": "relu"}, {"layer": "dense", "input_size": 18, "output_size": 4, "weights": [[-2.5116551527926205, -0.5987190729688588, 4.144481025356623, 0.6785301421136725, -2.400574172168699, 1.6294406481457329, -1.9115789960455376, 0.07303996681689645, 0.3234559519426662, -0.45030011416797583, -0.3819398430096683, -0.5513439548563814, 0.5161864994562171, 0.020588381793549965, 0.4126437231635456, -0.9927695956614435, 1.7191101730976877, 1.6338374425125108], [1.1381346717480918, 1.52905030233232, -0.2770564997179814, -0.7969846941676939, -0.06710215498321914, -0.1426705994569637, -2.7779917590403036, -0.376803755726567, 0.6547471211492886, 2.1139141250578986, 1.9063958689827134, -0.2156080571770866, -0.29826478509564547, -1.5463465333059023, 2.284217105330546, -0.3127933026441063, 2.365112322852635, 1.2833911399838929], [0.9413478730885811, -0.06121305217461903, 0.9967856626103029, -0.543957318833685, -0.7246137772249648, 0.6106265124307573, -0.37714402680161885, -0.49875618089812646, -1.420949487326816, 0.43853967877789923, 0.13404596233187993, -1.9139845819835224, 0.48025445930800426, 0.9794350636962406, -0.17740759562115033, 0.9756507077976408, -0.7879787141924789, -0.10029290503948946], [1.2120601616624682, 0.4398830076456539, 0.2987385395781188, 0.03716308854914749, 0.12321746768294028, -0.6446120453989543, 0.29002465928235255, 2.5748969212510397, 0.8491722966641531, -0.900574690458076, -0.2834926928875394, 0.28544445293282933, 0.09598813134652606, 0.6277152976093787, 1.3212220322479515, 1.6379566965446173, -0.42156996721338946, 0.7433015280732235]], "bias": [[-0.8090937074804558], [2.1522908626875985], [-0.4291055610328076], [-0.4734360421864845]]}, {"layer": "activation", "activation": "sigmoid", "activation_prime": "sigmoid"}]}