{"generation": 480, "board_size": 10, "snake_size": 3, "input_direction_count": 4, "apple_return_type": "boolean", "segment_return_type": "boolean", "distance_function": "chebyshev_distance", "network": [{"layer": "dense", "input_size": 16, "output_size": 24, "weights": [[7.452932645044041, 2.71761352272477, 1.600744655823563, -1.6644827335069936, -1.1151909226698593, 10.964060660663366, -1.3637730407889932, 4.927723917682011, -6.226191464268593, 1.1052504674073513, -0.3150678271756264, -2.9869018126198874, 0.5573133542168289, -3.660237089776502, 9.28157481011409, -1.1006217451232123], [-1.9505781104997575, 6.859757035613501, 2.1124395024648472, 3.5672569500635443, 7.722865162850365, 3.069745926521289, 0.7857804343537914, -5.102449028915837, -3.0452809838538752, 5.481671971785813, -1.4806499359521015, 2.2073469318429773, 0.08631113271763602, -5.402467952135404, 2.550695391457472, -2.859667740075797], [4.908158517905503, 0.9935678254539658, 4.6927601019472975, 6.665461614283527, -2.193666547114595, -3.072339377600505, -8.150874766512, -12.742029962913753, 1.70436724136103, -1.3384465534478527, 2.7885766207740277, 1.876390639947355, 5.600715498322748, -1.9035530297297645, -2.4227096947076054, 2.9603922440644164], [2.618327257064935, -1.1389171251817156, 2.641535715532265, 2.12068794274934, 7.052129933272982, -0.7958097489564042, 4.193287210061872, -4.798150614793167, 0.0031342473924218517, 6.157056446525248, 0.7750809998357433, 1.3689570954126522, 7.041336927944172, 1.129039744132156, -2.863423099160606, -3.8270834052907756], [-1.493928332751521, 1.6750351700296648, -0.12301094394392698, 0.35526308581123156, -3.9730687749274107, 4.6153132574582845, 3.7614164388308984, -0.17575818883724437, 0.7254076847939581, 5.386804547508532, 3.7658083947111516, 1.6192434422108875, 1.5587820172412747, 0.23356861107648108, 2.5980981753507812, -2.697914909989332], [-1.9752032714147871, 0.3658407393915063, 3.491350727359352, 3.413124340949639, -2.3530947511227795, 1.749577856269908, 5.0309179956033, 0.04928238589008638, -2.4266717011801204, -0.6147333274547, 0.03854074160351639, 1.366899039665007, 2.701823970938906, 2.208939789317987, 1.7551963807982753, 5.388293126171269], [2.8646751272744395, -0.8910151197233246, 4.42386066944114, -2.0976790117821693, 1.6190872843690713, -1.4644652844017965, 8.028432492043546, -2.5146699064000644, 1.1639916107660344, -0.5963856315104383, 3.4743845605433514, -3.6647539073108475, -2.1965470274474055, -1.8655881446165443, -1.4806771441051536, -1.5485681110429752], [7.358905473141533, -5.034889309374661, 3.078788976564331, 1.8838335066454344, -0.3959852260281157, -0.3110442761852022, -1.7105499664751398, 3.619460402986769, 1.627602689858775, -3.9676175386064956, 1.8927685616524448, 3.274974315721915, -2.9681664506521876, 1.0490894391686216, 0.1562100096506222, -0.1464477738102684], [-9.821181435086734, -3.529682548480608, 10.604124747331515, -6.645433860722568, 2.6311160812138, -1.092330486633017, 7.641318137058426, 2.4479111727156107, 2.1217611556139597, -0.7693348522446547, 4.841806124419505, -7.881450962345136, -2.3516768603019753, 6.156467310495215, -2.0711884175625523, -1.1811003387946442], [-3.4190040661343812, -3.663397737365593, 4.9704616081620125, 8.229627146894732, -3.081636253020722, -0.31802245334901946, 3.5208591124855233, 1.6185648427056052, 2.17402162425838, -1.5533770193483127, -2.400262209733016, 4.446801436985703, 8.08914892734516, -2.6633269193371114, -5.953595079693667, -2.6903522910095123], [7.66677194707975, -3.244643957317608, -5.467362921302131, 2.043768628271044, 3.0553979185277864, 3.0691131050190865, 7.461573860284075, 3.5473387751736696, 0.1265024779848432, -2.638429694320829, 1.08486153558029, -5.769094777985564, 2.03177529980216, -4.150086497513868, 1.3003829066310757, 3.354942649758299], [8.811430689334394, 2.562583586826845, -0.9846439178962987, -2.911427604784522, -5.286182521591031, 0.06752720826040526, 0.37244945139164776, -3.7135595654566536, -5.120453602645527, -1.7747483759219742, 0.6517161186231758, -2.457520736275313, -0.02752483776272019, -4.636943764417821, 0.20909911056266095, -3.6044271779805195], [-1.7670556825131416, 4.325077107687562, -3.1829490732292376, 1.2875438291014112, -0.5890128016701162, 0.37827403270381155, -2.4503449770431005, -3.3476166161776026, -2.3488076857776408, 0.8944293826879639, -0.548930756069822, 1.1685865643567444, 4.2719221829704495, -7.954991796504545, -4.472677290904989, -0.19190000623166487], [6.87006394998988, -7.562158708105778, 3.6858978970697827, 3.523733868172283, 0.9566164720552428, 0.8079465603134224, -0.9642546225196473, 1.1308212251959628, -5.202301080256426, -1.6931212437037313, 5.8279351496071365, 1.2357121197760053, 0.5684685896400546, -3.2361850095184255, 0.7640073821598631, 1.2159501490185958], [-1.3076807552754786, -5.433141277093193, -2.3958378506191105, 9.430526783707684, -0.830818542642633, 4.231385085388753, -0.9994327763584294, 0.11962477480465858, -3.6317798808785087, -0.2250376392874286, 2.506628325412936, -6.363115743634187, 3.9402854897993436, 3.181265639789864, 0.8072673913968271, 4.742936930710799], [-2.904863009063796, 3.1752546056773427, 3.815735637520297, 2.3831084765843964, -4.30033690970112, -1.2073105845058802, -4.192859974165144, 3.7726974698001605, 3.6336258383114686, 5.9320072242917625, -0.16396264476069594, -8.317687523011855, -2.0319097961023145, 2.5138869104952164, -8.622166492774193, 2.0159523887067388], [0.3085739841785789, 1.8630830163442895, 0.7334202962786947, 0.6878652611466141, 1.5937482771157303, 3.3089686106316787, -4.974256820794263, -3.492371509819643, -0.6399026428815756, 5.732298355237533, -1.825107260509585, 9.560232387213361, 4.88044146666587, -0.1256478303606856, -1.8679952681372767, 5.447447775773327], [-4.393246912353109, -3.3841469989831845, 3.8402332600417735, -5.905636118730676, -0.5961938362952015, 1.650833813700035, 2.421126714164404, 0.8737783697723753, -0.4890157939438311, 5.873561769472562, 0.5922765222740608, -1.2020153151398003, -1.3049968453073686, -5.6092450184660025, 2.7627133810746027, 7.407236071393689], [-1.3258707484831536, 0.8023571602454206, 5.814231190072897, -3.675382576693318, 4.561715427006312, 5.45734862717699, 4.159234343194227, 4.930696394294335, 4.249979378812875, -6.2916974307120705, 2.685396702149586, 3.899875480297561, -0.8629296067367473, 5.227401105626494, 1.4159080914224265, -8.09157935685045], [-1.9978216462213236, -5.310772160787472, 0.29591122003329917, 1.0784959023940381, -0.6951921559823688, -2.5341263707793966, 1.3383237929348963, 2.449105300918696, 2.2370157904681736, 5.214208067348292, 2.810216362403955, 2.4311972208133383, 1.5861930219107758, 6.917757395819122, 3.7856950330798997, -6.270759704773847], [-4.129674730222504, -0.489879460285277, -0.4625624155891188, -0.1745686724623165, 5.422081497267315, 1.9451362535539154, -1.5508252535712903, -4.240863057257366, -4.923812079894011, 1.9947466954246489, -7.910424731056121, -7.561828800047468, 1.7891693517790854, 1.0031887442055405, -4.204076189482367, -2.982465096711847], [-2.3182606620944513, 4.84360209761688, 3.3773322636391807, 5.172248576129208, 1.4186598715406706, -4.541823029649321, -1.1024554123168575, 4.38526908113745, 1.6729163612044677, -2.423004126146797, 0.4212851463461717, -6.876160385446343, -5.586199913882562, 3.943617533244238, 1.3399684794167372, 5.30852790832246], [-3.0810430326368947, -6.427438980757727, 6.1466385577389495, -3.3533220307569525, -4.5372564353292555, 2.2667809673418597, 4.980401255509809, 0.6872992770057732, 5.689473250438456, -6.823871530613864, 7.574552056516455, 5.935022051682932, 0.9708852733978153, -0.12212023673913641, 2.429767092824159, -11.271656612318319], [1.443691881599391, -3.250177387803538, -4.56948578196231, 5.907915081915826, 0.2308320200897822, -1.159467347092321, -4.837213085052115, -6.031213783447095, 2.2515176444074845, 6.935385058282869, -5.287417975146753, -2.933878106382413, 1.0672092403698616, -2.681115178964265, -2.326725473572731, 5.150175821818404]], "bias": [[-0.8017480316353306], [-1.5311052633120732], [-0.4393767869845405], [1.973044610583596], [-0.05430029615919252], [-0.8314245391233446], [-1.9378310933671559], [1.4493291408987177], [-4.982010688506359], [-4.113737225836107], [-1.0583193996811848], [-2.76817571640899], [-4.4031852459702465], [-8.061725834444351], [-4.881951717686597], [2.5032362267682475], [-1.3035002184991842], [-0.9390017445309345], [6.718434460728175], [3.7554579518313798], [1.0912448373332695], [-1.6649093726161475], [-1.2813685579485237], [-7.890194147627231]]}, {"layer": "activation", "activation": "relu", "activation_prime": "relu"}, {"layer": "dense", "input_size": 24, "output_size": 4, "weights": [[-5.039204538099096, 7.750848959529635, 0.22274551468186388, -2.9285101485419607, 1.6982449045682144, 4.183325429872679, 4.880889866790052, -3.650606479220791, -2.6210628374054714, 2.0025802058668964, -0.2692465980666777, 6.030905754795834, 2.366007033350765, -4.636564126970018, -0.11933959041139375, 1.5620412231422582, 1.0213491112097515, -1.9326760011100546, -2.5441311290022237, -3.1495209846672347, 4.328611456216584, -2.383653059294645, 4.710848627473873, -4.890022232603236], [-2.507696629892649, 0.9073969089212419, -2.9567314456134146, -0.9010945974217367, -5.868973727214932, -2.590008274515004, 3.6908574585890914, 2.3447196608196244, 5.288720067710126, -4.542514893690511, -4.595879519188571, -2.2304083714800846, 1.2962560065918252, -6.483957381044431, 7.212046260543284, -0.20907125343440056, 4.625825491169427, 1.8792222845928832, -1.6383981686374653, 0.15019865794477028, 0.6194717536248492, -2.4930031602044096, 3.611221056893986, 6.469131067275596], [-0.34169868129583514, -1.2332216487468555, 2.7435417682436345, -1.3237899871305678, 2.8068097448208884, -2.673689807152446, 0.3715565234487872, -1.8606915472787264, -1.4694519538926276, 1.2050606650640534, -3.7812562092472364, -2.129329304177813, -1.3443913758758625, 7.73076806320587, 9.117675301105672, -4.353905937661931, 2.305416313669732, -12.380156176496616, -2.9646198086057765, 0.24665728002707143, 4.345903110690495, 7.446997192891159, 1.9763670778304967, 0.0016929992610129618], [-5.676600575988239, -4.71268213349661, 4.239957626893112, -1.2554241545944134, -0.3255195064017349, 0.06593573869161944, -3.8428212347935555, 0.6758588631621385, -0.2374209892723488, -6.372227244853938, 8.00047499833838, 0.9305023967264909, -3.06461540351887, 4.792226927028456, -2.1119760731753607, -11.362314818802796, 3.9900049145989787, -1.1355536252720166, -1.3152421288842366, -7.340911708453432, -1.9658019539284615, -0.9132684467681977, 2.5835863673831576, -1.016881125743039]], "bias": [[1.363359253961311], [0.4186927585687823], [3.7064418321370685], [7.044875546717626]]}, {"layer": "activation", "activation": "sigmoid", "activation_prime": "sigmoid"}]}