{"generation": 74, "board_size": 10, "snake_size": 3, "input_direction_count": 4, "apple_return_type": "boolean", "segment_return_type": "boolean", "distance_function": "chebyshev_distance", "network": [{"layer": "dense", "input_size": 14, "output_size": 18, "weights": [[0.409407266759652, 1.0628032327433496, -3.473245403759769, 0.374176352779989, -0.8275451434316937, 1.7198088834186043, 0.9367857502023424, 0.7552597493005234, -3.7289897596997585, -0.16599068501295156, 3.4259148105394948, 0.5528715001325843, -0.6545042275005926, -0.4375823672204197], [-1.463973426926009, 2.0830825996666738, -0.17024972569555197, 0.16885208848709066, -1.3044970824462985, 1.267520998177808, -1.3395677230823457, -1.9818264935392595, -2.875486584288724, 3.760503342006058, -2.6354744483170625, 2.046583232081279, -0.12180191569818788, 2.4167546728120772], [-2.0554300677841164, 3.4930643155308334, -1.608291023937277, 2.697317414051935, -1.0304177708912103, 0.5235975057448674, -0.9327847585160202, 0.4438858536777093, -0.9158809786961496, 1.1687457753265487, -0.009578963701264515, -0.3985625434797895, -0.4819414653499647, -2.671823151250849], [-2.227471107555119, 1.1223472063803757, 0.8335397658951562, 0.07734297705217308, -0.17007101164734073, -2.871694075418101, -2.840897575890285, 2.1511343472480933, -0.3879961281992498, -1.174505468687709, -1.5701302489805298, -2.9787301881410153, 0.7239865655016328, 0.9933418048526912], [-0.32768246226849274, 2.1917396420860262, 0.20363503828550722, 0.16759037394093745, -0.9082702788578345, -0.905759063655613, 3.215621081771901, -0.10513707280132767, 2.0051467632994524, -1.7639030662370256, -1.2226002725057186, 1.8281784419162321, -5.058901313333682, 1.081056103480191], [0.1368534946209461, -0.08868690943520108, -1.119735356445959, -0.8454556458987804, 1.7666337299275783, -0.2370215577370718, -2.080770132558561, -1.0704899659778553, -0.8693821811079837, -1.7559635244198863, -0.30125662712135665, -1.1444772058771226, 2.654216517317917, -3.83283533258515], [-0.6291113363791456, -3.779738704591607, -7.763880839361375, -0.3997222923445731, -0.47154966464873205, -0.7135721829888583, 0.7213363155122503, 0.6511720916805583, -1.4628516045961693, 2.144370508024955, 2.1921672934632155, -0.3979085869202907, 0.20119501883534913, -0.6922725815001377], [-2.1620706813045634, 1.3129227592308679, -1.0924896679446157, 0.7322915246479225, 1.9933864779837138, -0.6819562961582121, 5.36979375337634, -2.079415835259763, 1.368233367376759, 2.5227830062875314, -0.9476150456192162, 2.307333289137572, -2.2132738212959797, 1.2882263910242138], [-1.1667748029980296, -0.6350372758475681, -0.857601375384136, -0.2505599693876673, 1.5872960285011297, 1.0174914378014885, -4.316011204060317, 2.425237349661455, 0.7775723087058797, -1.406181450481394, -1.8999446735646095, -2.775402458300694, 1.4470751791995653, -0.9546646003761889], [-0.3027343069210317, -1.8087756750629749, 0.06166979431612102, -0.5541037604609695, 2.0412925279868386, 2.479400475014865, 0.5591208504033722, -1.277286390110788, 0.05615082474950725, -1.952509699432636, 2.3445511921150715, 2.8252900972793507, 2.21708088809532, -0.06058230003419163], [3.858038452533823, -1.6944513403074417, 0.04581062980909395, -0.04293284053315327, -1.1776722500078038, -0.6758898739823993, 0.16501040622126784, 0.12147420059078001, 1.783928374060677, -2.5839602799751753, -0.9584940769057939, -0.45011126459661643, -2.9066627224128205, 0.036183575460616346], [1.279905847571254, 1.6814448222210727, -1.741610382958101, -0.42162740818816485, 0.005948898451109019, 1.6783759564985201, 1.2679361637528133, 5.138554705786035, -0.2070911615213803, 0.30599073937028054, -2.5224501289154144, 4.778778410329098, -0.6250346404081637, 0.48355672483163653], [-2.0953552874529273, -1.5020147594728541, -0.8359530943035187, -0.47814249597375774, 0.1540258577195495, -1.3630156610771291, 1.008401835329714, 0.04132949134286734, -3.1722760896305493, 2.3922820168642325, -1.5273845688339878, -1.5551113627400124, 0.402560691580095, -5.537915285172293], [1.8209611336827893, -0.7192261574591983, 0.670346573495239, 0.4369541525444993, -2.459155122828423, 0.7938703500703546, -0.4572086719957926, -0.7710557060599303, 3.8150341204865246, -1.5419061471372342, -0.8405731375010601, -0.32349641385662276, 3.001917370002193, -3.060501821471085], [2.3228135603007, 0.011844971777884572, 0.4154275668322387, -1.6545230257333716, 0.1844114354578647, -0.9505457424172479, -2.317032243953784, 4.475930504148662, -3.7184833520890805, 0.8664718261332198, -0.00041461079763760456, -2.5251651908420385, 0.11321754389361693, -0.598120374650642], [2.60771103670222, 0.4561350087002005, 6.26035521142961, 1.5967411914360348, -0.0924147557735906, -1.5109052954477944, 0.6257067855212253, -1.2296946265550732, -1.2424394286616185, -2.7216207452348042, 2.425673382984593, -0.8270849094856062, -0.007182098139068005, 2.3592984792693574], [-0.41249340002744816, -0.9388562611378202, 0.22257514314365467, -0.9970364693303193, 0.2752103093524614, 1.1070870521606733, 3.0326582191803326, -0.05341463796481438, 0.646777293991303, 3.3711034450467596, 0.8214959576061435, 2.020357524321617, -0.2184833793809135, -2.867593639498757], [-0.508772380267857, -0.3238430492541767, 1.4191323797578723, 0.5505179359120244, 0.4678768276810837, 3.1401338106544956, -1.9125481460892972, -2.132256513567653, -0.21575322324191393, 0.3981335747315752, -3.1191010589832424, 1.2759324295836498, -0.9442643830035271, -0.2011338642354481]], "bias": [[0.7549065187421969], [0.9176280178353062], [3.184259373733219], [-0.7804798725947231], [0.19648688779442414], [-2.151305939526553], [0.6176077628757468], [1.6039717624287069], [-0.11078903108137111], [1.5455006957362272], [-0.9937335498772539], [-0.6871565082152233], [2.9259539493925097], [-0.4779317269731178], [3.3428213258290445], [1.924725748999589], [-0.7012643674670647], [0.4041780667457246]]}, {"layer": "activation", "activation": "relu", "activation_prime": "relu"}, {"layer": "dense", "input_size": 18, "output_size": 4, "weights": [[-1.1839485923976056, -0.2371823647871495, -0.7896663214670273, 0.11568989629833128, 2.238330832644825, 1.7958946410328798, 0.42731925574700025, 1.2263175664716253, 1.4919499781198828, 1.367843850993391, -2.545361451862374, -1.315225110545712, 0.8821750042996239, 0.30366931322922575, -2.3786501161199505, -1.0797839304599162, -0.5010084117169993, -0.08905710028792901], [-2.075792640240867, 2.5960012991714088, -1.1095255662557038, -2.3900341663968216, -2.032322832316458, -2.951610792441701, 2.678335060263309, 1.454932159618418, -1.4461561448580602, 0.24804493684414236, -0.6143080807888788, -0.7523108951289486, -1.0657312847068208, -1.179114100363529, 0.9922777166780625, -1.3368699874642684, 1.9465846303941, -0.19731906545971717], [0.9266195428710172, -1.5321816884939428, 1.2310750208305372, -0.37243074672051524, -2.4330592696230493, -2.865303445304442, -1.0174948744462549, -3.0299556941025, 0.2596037032480061, -2.3800431551061667, 0.790257546274916, 0.8033362099871089, 2.6821620301544176, -0.20561932862980714, 1.3819678259317754, -1.1981526408507732, 0.6650121934441111, 1.9414236145022685], [5.291134110295478, 0.14013619320811943, -1.88119812828859, 0.7057703114083784, -0.6565115523304768, -0.3339886553266326, 2.031912224314602, -1.4672842173403953, 0.0008941044965806721, 1.567089675982412, 1.6509065461615844, -3.091175154167892, -2.325159743370457, -1.7099707504831834, -0.11083073700259682, 2.8160576053306907, -2.8858486932489082, -0.3118414442498265]], "bias": [[-4.0778992939490015], [-1.7670968842266848], [-2.8006876134046204], [-2.5986624674458083]]}, {"layer": "activation", "activation": "sigmoid", "activation_prime": "sigmoid"}]}