{"generation": 73, "board_size": 10, "snake_size": 3, "input_direction_count": 4, "apple_return_type": "boolean", "segment_return_type": "boolean", "distance_function": "chebyshev_distance", "network": [{"layer": "dense", "input_size": 14, "output_size": 18, "weights": [[-0.9609012966414383, 0.2095200403514339, 2.9600810878635393, -1.02325028647259, 0.1992514254297877, -0.32055106969108055, -2.725276347407089, -0.6299299720041858, -0.17940820878639818, 0.5227292248489981, -2.1668318098468444, 1.9738060192569267, -1.0661705131648789, -0.34982971643487665], [0.9076149159305914, -4.364624248051286, -1.5589384484210789, 1.953282182165382, -0.291574603012626, -0.17403207789778724, -0.5670228639890497, 1.1114973359791724, 0.8652349560026721, 0.0848699742969729, 0.326455933313999, -4.611015847285876, 0.7837282933280865, -0.8337449069162913], [-1.1445699396691442, 4.1945936727654205, -2.193961983282772, 0.17689200694220952, -1.0909609484860885, -0.01945691164227853, 0.41749118226012116, 0.9686570531479427, 0.3588839000510765, -0.5771475989921873, 1.0396170432752223, 0.7715234936238646, 0.048487486448055006, -0.5835634831641189], [-0.4947108123938242, 0.11343876900490807, -2.1656065526654515, 0.7882785152988783, -0.7397426456126662, 0.843417019364642, 0.29176029907982814, -0.6457136558961883, 0.9359510319088944, -0.7478985198296106, 0.21021794450295972, -0.25138399098302316, 0.9003093163951017, 0.47998508507315985], [4.409666800541109, 1.0655227292844922, 0.09590274704935375, -0.0461596386498786, -0.5298923776460227, 1.0052524894341623, 0.5993058271746338, -0.2234165423297102, 1.0909847050687178, 1.9703144921267037, -6.1559142883166755, 3.0491440580468585, -1.3619598618252378, 0.4731228350556804], [-1.1723917214476773, 2.024085655038161, 0.7437806223095216, 0.945250719952976, 2.0848560173556367, -1.636923997400285, 2.9897183446480318, -1.0485996602944943, -0.904471622813019, -1.2522618737506908, -0.2281978055898254, 1.6784396053011972, -0.15647408474329083, -0.4709957604416083], [0.8029992264817372, 0.7085495645802261, -0.1729759299820397, 1.9745757102650754, -3.397980503361807, 0.14820891014671767, 2.6594314497363643, -1.827144931787347, 0.13795194693883917, -2.5559444220137664, -1.0146631596681526, -5.267649912229189, -3.389795362699238, 1.2277362520948443], [1.2998065435833315, -2.213993338921089, 3.6006632295200798, 0.15025021010444584, -2.27522199418601, -1.1720377224706087, 1.290894565160934, -5.006041778820828, 0.5089898147966898, 0.7468797944064909, 0.051143304480854024, -0.7507962917747371, 1.2574706187877427, -0.13960729901560123], [3.81617414726965, 0.2071546644520259, -0.8765615812336334, -2.7714496407340934, 1.318074480873244, -0.8268684274580028, 1.2066317441620376, -1.168977701993834, -0.7529978967650184, -0.7871042947429281, -1.5303877047870713, -0.2804806030926308, 0.243773953863088, -1.9250501629513952], [1.5006874373035188, -0.2082555387317811, -1.2302408993548253, -0.7709888040789263, -0.6184869184630923, -2.07802711827923, -1.450442856768814, -1.1247565283394132, -3.336647630094497, 0.6871516661228685, -1.3467152714457267, 1.8821869290122273, -0.05684519051996895, -0.5788644104750538], [1.559550902557047, -0.2188331909968133, 0.25825214448953315, 0.6181804227334023, 0.20649144669672836, -1.6687310504769353, 1.1530057006015717, -1.031272297486372, 0.599913093901231, -0.34467832633289397, -1.4568037074749833, 0.741179129320492, 0.9387927611206204, 0.285459443400322], [1.8266961935360666, 0.06752248717095899, -1.1088877239575041, 2.6602890610892644, -0.43023919397804233, 0.6691466654300314, 1.6300019400885393, 0.514805143712484, -1.5747849285513957, -2.284628265936593, -0.2737560131715331, -0.6674109005436895, 2.7441243342729367, 0.8292307984377364], [-0.17272929570157286, 1.046781146767058, 2.2526423213504456, -2.9335162375248967, -0.7969038337588091, -0.1931233914330543, -0.9114209044484358, 0.07914372146450499, 0.12438006427727455, -1.2329133177531095, 0.06556782142477752, 1.1300812720027402, 1.8655444631594214, 4.920909687057258], [0.22488383549823288, -0.7370142615217626, 0.8390930298995333, 1.4385406209298772, -3.346950162129736, 1.055752883277989, -3.0114190243963432, 1.850504353891386, 0.30660038728171696, -1.490084362453476, 1.749168044087746, 2.6370761524184045, 0.4847385501043538, -2.3822718955371194], [2.8430207335963527, -1.982124662362752, -2.624426802539174, -0.12188558454022425, 0.5717508665894588, 1.2320367083053734, -0.7272419321321051, 1.7915636475538712, 0.6394405470707448, -1.5505058659223088, -0.010522385550446656, -0.27915697499814307, -0.44198888350054055, -0.051089714004781905], [-1.1300356905711315, -3.3739326371148737, -0.9462334636739017, -2.6505546285574937, -0.5943550586827288, 0.14657256532972163, 3.473887346530918, 2.725952954477, 0.6471673873226408, 0.9511802914388123, 0.17058844369664777, -0.5218940136509205, -1.7995431809045264, 2.028138718649244], [-0.7365125864047815, -0.5418990081809979, 4.0301204924808145, -0.7475307133715277, -0.06498181646318235, 0.920515779091164, 0.03560629968909956, -1.5948189681239162, -1.759304707525588, -1.3374342723955779, 2.24755404754966, 1.0149702631815292, 0.6198757625967669, -0.295960712730411], [2.41542983761643, -1.2799440625481058, 2.8103031015448314, 2.0221666380890735, -0.12119914294032985, 0.41085635615537486, -0.7607972628174837, 0.5933921428303626, 0.35134950777093854, -2.346856660755267, -4.590093815916246, -1.1635038139094867, -0.5165412995616787, 0.17377202884430898]], "bias": [[1.4612858475829165], [2.1133936847222494], [-0.15976235390027904], [-0.7158142828386488], [0.7081156701219324], [0.7293484183401027], [1.3608028362960443], [0.6279219699355686], [-0.21060305055868833], [-0.4829072816649782], [1.3086652122596774], [-0.2057913714599186], [0.0743033492711005], [-0.42214408989617297], [0.29125136488680925], [0.45654322130112623], [-2.4246447488392344], [-0.18958969279049864]]}, {"layer": "activation", "activation": "relu", "activation_prime": "relu"}, {"layer": "dense", "input_size": 18, "output_size": 4, "weights": [[-0.3727808968281874, -3.282950597809233, 4.556146184278854, 1.9206550938180675, 2.3241953510322615, 0.36144222665899617, 2.481268513717915, -1.850618943542665, 0.39589488783747706, -0.3267019885539066, -0.3819398430096683, -0.9453348765074348, -0.8811812054610343, -0.5448002577652383, -0.7672229000909765, 0.24222083352860735, 1.3068191488695329, 0.5025654252549614], [-0.2903151410687195, 1.1196032355893266, -0.2770564997179814, 0.7409107553452919, 0.6933350847382395, -0.1426705994569637, -2.7779917590403036, -0.382779253908774, 1.9468498323441485, 1.565163885179115, 3.2504556448446746, -2.530395807145246, -0.29826478509564547, -1.922917202894068, 0.466061934867807, -0.5623297832655829, 0.6017238919638737, -1.142163546668045], [0.9413478730885811, -1.4066088991575547, -0.7748369954380031, -0.06645346548359288, 1.7432257098668125, -0.8945309084648492, -0.8981342962351136, 0.023743470785851817, -1.0944520412440222, 0.24270066304188004, 0.490043320390407, 0.8250552080465745, -3.0538673537045886, 2.4694066122720377, 1.6241759160656115, 0.9756507077976408, -1.0712154923580512, 0.9562227798393736], [-0.06554229310685444, -0.758980943223988, -0.4476460410927845, 0.8854247518689286, 0.12321746768294028, -2.0404963934010754, 1.527610167378469, 0.7809892598475274, 1.5037363745805559, 2.5694505919585304, -0.7423134693523288, -0.5972756037330085, -0.35154875033024197, 1.1778521632234131, 4.8769214020833145, 0.25854706659014903, -0.10251448542451347, 3.339827012688398]], "bias": [[0.5101779950301747], [-1.9192631970091696], [-1.406305087818421], [-4.694101735895659]]}, {"layer": "activation", "activation": "sigmoid", "activation_prime": "sigmoid"}]}