{"generation": 491, "board_size": 10, "snake_size": 3, "input_direction_count": 4, "apple_return_type": "boolean", "segment_return_type": "boolean", "distance_function": "chebyshev_distance", "network": [{"layer": "dense", "input_size": 16, "output_size": 24, "weights": [[8.320245321676689, 3.566068778876819, 1.600744655823563, -2.8044682222202346, -1.1151909226698593, 9.222364595685232, -1.3637730407889932, 4.927723917682011, -6.320907726683935, 1.1052504674073513, -0.6269377986023095, -2.9869018126198874, -0.6143600222236438, -3.660237089776502, 9.28157481011409, -1.1006217451232123], [-1.7501585291659958, 6.859757035613501, 2.1124395024648472, 3.5672569500635443, 7.722865162850365, 3.069745926521289, 1.378227043389366, -5.102449028915837, -3.0452809838538752, 5.481671971785813, -1.4806499359521015, 1.3449809352722253, 0.08631113271763602, -5.904020188552525, 2.214864815282567, -1.3195006955915465], [4.908158517905503, 0.9935678254539658, 4.6927601019472975, 6.665461614283527, -2.193666547114595, -2.6707339287921146, -8.150874766512, -12.742029962913753, 1.70436724136103, -1.3384465534478527, 2.8236820526415496, 1.854354421521774, 6.482388399061401, -2.560080357086463, -2.4227096947076054, 2.7149719088763558], [2.618327257064935, -1.1389171251817156, 2.641535715532265, 2.7091597098664595, 7.052129933272982, -0.7616211606173519, 4.193287210061872, -4.798150614793167, 0.0031342473924218517, 5.659650136435491, 0.7750809998357433, 1.3689570954126522, 7.041336927944172, 1.129039744132156, -2.863423099160606, -3.8270834052907756], [0.19483677495646035, 0.547872580659289, -0.12301094394392698, 0.35526308581123156, -3.672071598965686, 5.5166525913075235, 3.7614164388308984, -0.17575818883724437, 0.7254076847939581, 3.8707005304902347, 2.893282203147837, 1.6192434422108875, 1.5587820172412747, 0.23356861107648108, -0.6337454600889887, -2.697914909989332], [-1.9752032714147871, 0.3658407393915063, 3.491350727359352, 3.413124340949639, -2.968462346021163, 1.749577856269908, 5.509686028308352, 0.04928238589008638, -2.4266717011801204, -0.6147333274547, 0.7252197508974608, 0.8088074394328699, 2.701823970938906, 1.4932712597413338, 1.7551963807982753, 5.388293126171269], [1.9167061951426567, -0.3076442146903473, 4.29797588876439, -2.0976790117821693, 1.6190872843690713, -1.4620840586320585, 8.028432492043546, -2.5146699064000644, 1.1639916107660344, 0.05857947857371071, 3.985801187838047, -3.6647539073108475, -1.97928672370209, -1.8655881446165443, -3.166690640606393, -1.5485681110429752], [6.94743989526384, -6.170487272847855, 3.078788976564331, 1.8838335066454344, -2.2350435623840443, -0.3110442761852022, -1.7377484656658078, 3.619460402986769, 2.1915446166045403, -3.9676175386064956, 1.8927685616524448, 3.274974315721915, -2.9681664506521876, 1.0490894391686216, 0.1562100096506222, -0.1464477738102684], [-9.821181435086734, -3.529682548480608, 10.604124747331515, -7.529363268253444, 2.6311160812138, -1.092330486633017, 6.89072037517278, 2.4479111727156107, 2.1217611556139597, -0.22637123066604792, 4.841806124419505, -7.881450962345136, -1.3473819517087726, 7.586045867993469, -4.69786715888705, -1.1811003387946442], [-3.4190040661343812, -3.663397737365593, 3.522088893219385, 8.229627146894732, -3.081636253020722, -0.5087861872930515, 3.5208591124855233, 1.6185648427056052, 3.2334646156180256, -1.5533770193483127, -2.400262209733016, 7.3472332288008975, 8.08914892734516, -2.6633269193371114, -5.58959079173613, -2.6903522910095123], [8.462044418761787, -3.244643957317608, -3.875253520669989, 2.0043701761776833, 3.0553979185277864, 3.0691131050190865, 7.461573860284075, 3.5473387751736696, 0.1265024779848432, -2.638429694320829, 1.08486153558029, -5.769094777985564, 2.03177529980216, -4.496296618259179, 0.2918818863174526, 3.354942649758299], [9.064458187782197, 2.562583586826845, -0.10445271981893389, -2.911427604784522, -5.286182521591031, 0.06752720826040526, 0.17287743915333664, -3.7135595654566536, -5.120453602645527, -1.7747483759219742, 0.2982348055466687, -2.457520736275313, -0.02752483776272019, -3.7445944745362523, 0.20909911056266095, -3.6044271779805195], [-1.7670556825131416, 4.325077107687562, -2.5578071312208235, 1.4010459955990944, -0.5890128016701162, 0.37827403270381155, -2.4503449770431005, -3.3476166161776026, -2.3488076857776408, 2.4490270379735612, -0.8671135021157026, -0.1593061702902312, 2.395432209742287, -7.954991796504545, -4.472677290904989, -0.6883739699439322], [6.87006394998988, -7.376232727881247, 3.6858978970697827, 1.3739867812894406, 0.9566164720552428, 0.8079465603134224, 0.2353707071776896, 1.1308212251959628, -5.202301080256426, -1.6931212437037313, 5.830951100071388, 1.2357121197760053, 0.30010256383928496, -3.2361850095184255, 1.488318712898804, 1.132435668162839], [-1.3076807552754786, -5.433141277093193, -2.3958378506191105, 9.430526783707684, -0.830818542642633, 4.231385085388753, -0.9994327763584294, 0.11962477480465858, -4.957998792346663, -0.6181632339568943, 2.506628325412936, -6.363115743634187, 3.1004643594135715, 3.181265639789864, 0.8072673913968271, 4.742936930710799], [-2.149417092056118, 3.1752546056773427, 3.815735637520297, 2.3831084765843964, -3.7862895090673208, -1.0823968326170403, -6.223196582269987, 3.180352512007757, 3.6336258383114686, 5.9320072242917625, -0.16396264476069594, -8.317687523011855, -2.0319097961023145, 2.5138869104952164, -9.508871560455981, 2.0159523887067388], [0.3085739841785789, 1.8630830163442895, 2.314422462441512, -0.3907699802530633, 1.5937482771157303, 3.3089686106316787, -3.629005118876764, -4.955947578050945, -0.6399026428815756, 5.732298355237533, -1.825107260509585, 9.560232387213361, 4.88044146666587, -0.1256478303606856, -1.8679952681372767, 5.447447775773327], [-4.393246912353109, -3.3841469989831845, 3.2890662604467185, -5.905636118730676, -0.6149787171424256, 1.8672278612686557, 2.421126714164404, 0.8737783697723753, -0.4890157939438311, 5.873561769472562, 1.1967709491357867, -1.2020153151398003, -0.7373630827236207, -6.29026032020144, 2.7627133810746027, 8.308704702798336], [-1.3258707484831536, 0.8023571602454206, 5.814231190072897, -3.675382576693318, 4.561715427006312, 3.573627751916188, 4.159234343194227, 4.930696394294335, 4.249979378812875, -6.2916974307120705, 2.685396702149586, 3.899875480297561, -0.8629296067367473, 5.227401105626494, 1.4159080914224265, -8.09157935685045], [-0.6745780208168011, -5.310772160787472, 0.29591122003329917, 1.0784959023940381, -0.6951921559823688, -2.5341263707793966, 0.4308299818307981, 3.1722305023464212, 2.2370157904681736, 4.9929111012332195, 2.818169765439943, 2.4311972208133383, 1.5861930219107758, 7.475450981373832, 3.07000634097293, -6.270759704773847], [-4.129674730222504, -0.41228596630127434, -0.4625624155891188, -0.1745686724623165, 5.422081497267315, 0.6383267489911493, -0.6372899514372078, -4.240863057257366, -4.923812079894011, 1.9947466954246489, -9.938618728271168, -7.561828800047468, 1.7891693517790854, 0.3978212574924683, -4.15821304963912, -1.910355798114953], [-2.3182606620944513, 2.520568879012689, 3.3773322636391807, 5.514869721603601, 1.669199080732512, -2.8695796370223228, -2.435769978438069, 4.38526908113745, 1.6729163612044677, -2.423004126146797, 0.4212851463461717, -7.003416842610895, -4.776293821596499, 3.943617533244238, 1.3399684794167372, 4.649589458009877], [-3.0810430326368947, -6.427438980757727, 6.1466385577389495, -0.7126004569267049, -3.460377990148978, 2.007719674726639, 3.4562727884870004, 0.6872992770057732, 5.689473250438456, -6.823871530613864, 8.315233129421427, 6.529765932569431, 0.9708852733978153, -0.12212023673913641, 2.429767092824159, -11.271656612318319], [1.443691881599391, -4.145673980195846, -3.905359088458175, 5.907915081915826, 0.2308320200897822, 0.37209313422142776, -4.837213085052115, -6.031213783447095, 2.539878756987107, 6.935385058282869, -5.773024739592688, -2.933878106382413, 1.0672092403698616, -2.681115178964265, -2.326725473572731, 4.250561437674634]], "bias": [[-0.8017480316353306], [-1.5311052633120732], [-0.4393767869845405], [1.973044610583596], [-0.05430029615919252], [-0.8314245391233446], [-1.9378310933671559], [2.046498981715502], [-4.982010688506359], [-2.5349188289143827], [-1.0583193996811848], [-2.96990928722229], [-4.4031852459702465], [-8.061725834444351], [-4.881951717686597], [2.5032362267682475], [-0.3052684003326357], [-0.9390017445309345], [6.718434460728175], [3.7554579518313798], [1.0912448373332695], [-1.6649093726161475], [-1.2813685579485237], [-7.596664506564995]]}, {"layer": "activation", "activation": "relu", "activation_prime": "relu"}, {"layer": "dense", "input_size": 24, "output_size": 4, "weights": [[-5.039204538099096, 7.750848959529635, 0.22274551468186388, -2.9285101485419607, 1.6982449045682144, 4.183325429872679, 3.219809778541998, -3.650606479220791, -2.6210628374054714, 2.0025802058668964, 0.3203205129442348, 6.030905754795834, 2.366007033350765, -4.636564126970018, -0.11933959041139375, 1.5620412231422582, 1.0213491112097515, -2.735290071237196, -2.5441311290022237, -3.1495209846672347, 4.328611456216584, -2.383653059294645, 4.710848627473873, -4.890022232603236], [-2.8659957836473824, 0.9073969089212419, -2.9567314456134146, -0.9010945974217367, -5.868973727214932, -2.590008274515004, 3.416491285613424, 2.3447196608196244, 6.370256067798327, -4.542514893690511, -4.091913066930216, -2.2304083714800846, 1.2962560065918252, -6.483957381044431, 7.092343048410491, -0.20907125343440056, 4.625825491169427, 1.8792222845928832, -1.74198396770283, 0.15019865794477028, 0.6194717536248492, -2.4930031602044096, 3.9815408933923133, 6.469131067275596], [-0.34169868129583514, -1.6634350815852192, 2.7435417682436345, -1.3237899871305678, 2.8068097448208884, -2.673689807152446, 0.3715565234487872, -1.8606915472787264, -1.4694519538926276, 1.4900776809128469, -4.750669386533494, -2.129329304177813, -1.3443913758758625, 7.73076806320587, 10.590605110501052, -4.353905937661931, 2.305416313669732, -12.380156176496616, -2.9646198086057765, 0.24665728002707143, 5.1984137267452875, 8.960902692381673, 1.9763670778304967, 0.0016929992610129618], [-5.676600575988239, -4.71268213349661, 3.2572866361843307, -1.2554241545944134, -0.3255195064017349, 0.06593573869161944, -2.661780152629826, 0.6758588631621385, -0.2374209892723488, -6.372227244853938, 8.00047499833838, 0.9327103641084971, -3.06461540351887, 4.792226927028456, -2.1119760731753607, -11.68370380985988, 3.9900049145989787, -0.8070312079181068, -1.3152421288842366, -8.067036590006097, -1.9658019539284615, -0.9132684467681977, 1.9239669483936415, -1.2631524948423731]], "bias": [[1.363359253961311], [0.4186927585687823], [3.931184579128262], [7.316328605439448]]}, {"layer": "activation", "activation": "sigmoid", "activation_prime": "sigmoid"}]}