{"generation": 31, "board_size": 10, "snake_size": 3, "input_direction_count": 4, "apple_return_type": "boolean", "segment_return_type": "boolean", "distance_function": "chebyshev_distance", "network": [{"layer": "dense", "input_size": 14, "output_size": 18, "weights": [[0.6478390199527564, -1.1913689301705463, 0.1305919197468821, -1.104330857029124, 0.6535741484712156, 0.07742449166686105, -1.9549721552673753, 3.6180056861988756, -0.7391606375592079, 0.8886341527619499, 0.5626619251918628, -0.14632869162578266, -1.5272518556533707, -0.30414266954871005], [-0.6104254486026184, -1.4465310365219761, -0.49926027584915517, -0.0011088073938107148, 0.5339921714047502, -1.557638387589526, -0.22407965848537748, 1.0315373003937964, 1.7704303496776364, -0.14087106289586138, 0.24465885473739535, -0.9250720901063589, 0.46817631156908535, 0.17544203643128664], [-1.9911714743751876, 0.08421142391640524, -1.0797997177951508, 0.5773630998760968, 0.3171648721913465, -0.541976673830574, -0.3385454454802501, -0.04583813213508603, -0.19101016956130534, 0.8491182395116778, -0.13277444932502497, 0.4759561803791971, -1.0204329006024395, -0.5226955197300485], [0.050752607557875584, -0.3484076403795111, -2.850130420953124, 1.4321844201435618, 0.7053042798937669, -1.227617793565968, 0.7720005035794264, -3.1225090649610445, -3.5637268580186885, -0.890230448560688, 0.9262427097381964, 0.8264332380648283, 0.6982982667203268, -0.20468148659513385], [0.3852008017762767, -0.03664274228280073, -0.9487683618494087, -1.248004275131619, 0.31476951445613643, -1.8285048027882393, -0.8841839274224346, 1.4508270173879954, 0.5768998046664251, -0.7206752425346489, 0.9710856389227404, -0.711032910409088, 1.0041541069948692, -0.1156554117155324], [-0.008092149702488033, -0.18278534415585035, 0.9646162262692599, 0.12157411255788553, -0.6663049650625794, -0.7099075983206142, 0.8302055534532344, 0.9748227800378833, 0.25861483117844386, -2.2031190291856317, 0.25602571579962174, 0.09867470577928295, -0.9805734259564545, 1.027053087377055], [-0.1817204070412497, 0.058054817106384826, 0.12293441213432033, 0.037195342291937106, 1.836137514038343, 0.9005664085006526, -0.7331599553794427, -1.525394552272712, -0.2732644041885529, 0.2130107219871314, -0.3844588209520503, -0.9235395774403645, 0.4710817943460466, 0.050582896261232024], [0.21288332341158456, -1.8329654531153505, -0.44213859130543187, 0.7799399896060895, -3.7505471699578217, -0.6372205812435254, 1.884161715254278, -0.27196920513509526, 2.896395445087304, -0.7780281027502853, 2.5359381043191873, -0.20720045500013293, 0.8365325619261315, 0.32152358791333047], [0.1639708115673837, 3.3935103579445536, -0.9689490640536071, 0.9099142654806092, 0.30108249538432064, -1.9005739789526013, 0.5257813873452966, -0.9869567115208782, -1.611258226189817, -0.8093358720894119, -0.7375726319060016, -0.6391508091922493, -0.016903830859151814, 1.1194778398216982], [-0.7190432977031489, -0.0721108107185019, 1.20538930104314, -1.8413196576187476, -1.1338215180436668, -1.6139693146195313, -0.8579386741023669, 3.230309187381529, -0.8292527380399863, -1.3504244083862489, 0.09503564263589559, 2.272681547801974, 3.3009858567426473, -0.5662748486041507], [0.3400292679510535, 0.35154299809119416, 0.778787329706845, -1.4179791154885413, 0.7644756932207035, -0.8443789896178293, -1.1511414725007476, 0.9259055593279906, -0.096274962564349, 1.9266327900350002, -0.5253476236952535, -0.4478048973720199, 0.3981358970474631, 0.43181772865575563], [-0.9103120490422452, 2.3873254451887975, -1.195687116355748, 0.4989629237446028, -0.06540502190038466, 0.61648260136781, -1.9365319464029394, -1.0085833992130409, 1.0459685861274888, 1.7139048294276302, 1.6485315820010304, -0.006940731584323956, -0.5929402898675404, -0.22938189644645868], [-0.46752617092971493, 1.1828029362499535, 0.7432526242697166, -1.3425908379695972, 2.9789302415557732, 0.07409216060132473, -0.07989261900468803, -0.6171497833675013, 1.0988486878242671, 0.6722770134008351, -2.0475517204110303, -0.5617556294887294, 1.2649118814204852, 0.9899396768805089], [0.13038150302059248, 0.7942874712942439, -0.7719711831125993, -0.1423224660657436, 0.13996459937434125, 0.8974452141829643, -0.24762098098664076, -1.2511522324116804, -0.08911176192804682, -1.3777217098626462, 0.6648373226710996, -2.2337913903673137, 0.3759620344157657, -0.5634862373977891], [-2.4870193602265287, 0.6108147796383734, 1.2725732363795934, -0.24025475633032412, 0.9707693232448998, 0.8607256271894563, 2.24776471936054, -3.525589741677566, 4.218078930166765, 0.303076193062914, 1.2054275274615818, -0.8286221563543287, -0.7363990141566019, -0.36208751730800826], [2.3329079301144944, 0.08316769988668815, 0.3052187818838956, -0.06352478895580638, 1.0291356212464176, 0.7141551440210525, -0.6159863288646206, -1.201911685575443, -0.5017620288059599, -0.4626398783771969, 1.0255722891093182, 0.05242844509689992, 0.5526840259224555, 1.2353235167490548], [0.6861092271877239, -2.539633467599498, 0.37947079159462316, -0.03202228112515493, -0.13938538284949387, 1.292270200896595, 0.06395236014475908, -1.0016096415549065, 2.8511467497299443, 0.5053660516488412, -0.934541501957168, -1.5515334906045612, -0.7668232644717137, -1.1400475525652147], [-1.5836918435979261, 0.2549611080892087, -0.528738079826631, 1.541394263362857, 1.3908038638867293, 0.9133279136153947, 0.9420343448369645, 2.246701871186797, 0.75679874626929, 1.6391569650132451, -2.0114935613636447, 2.5302270116864185, -0.7611742434904999, -1.219250935770868]], "bias": [[-0.005027427386806685], [0.4884467633311316], [-0.28916925191519793], [2.0674054419066987], [1.2602528539441078], [-2.284919283061928], [-0.2752355011459693], [1.8774497260213403], [-1.8686409712313423], [0.735726244388383], [-0.41083953041377685], [-0.9433393100723562], [0.6158182126627416], [-1.9814735699629897], [0.29770802210514324], [0.4097784282610615], [-0.08692873763612274], [-0.14646277924549556]]}, {"layer": "activation", "activation": "relu", "activation_prime": "relu"}, {"layer": "dense", "input_size": 18, "output_size": 4, "weights": [[0.4578931163470824, -0.9463967103772102, -0.2995268855671642, 0.8695340870110162, 0.7169595863483751, 0.21015233900646413, 1.1172597473147738, 0.05437073738366516, -0.9515328737050324, 0.3968336495362068, -0.4662632754660949, -0.04385105549951529, 0.18078122353421877, 0.13210199076975637, 2.01389015462372, -0.06934570145255403, -0.9955321717052215, 0.3128050220968914], [0.720453574460409, 0.5508210492102921, 0.09853460194107866, 0.5897414697822942, 0.8363191716995142, 0.06648218893114155, 1.3175338815027802, -0.9210744564248396, -2.7706111276305925, 0.15883628667032834, 1.0149460372073982, -2.355154165741639, 1.7297451861407325, -0.6132468350159761, 1.6521180638778914, -0.5278493887711527, 0.2527179481633709, -0.4875442033624968], [0.6065773346293868, -0.9099764229169511, 0.16278052415154665, -0.6245386254328354, 0.8648957460575074, -0.37903610685364764, 0.42937673737182025, -0.45572720901617614, -0.15653220361289466, 1.6342107908674814, 2.4834646691414375, -0.5935188365559964, 0.12377791714373576, 0.8103605174123052, -0.754958949391715, -1.2526120006946861, 0.47688363927600874, 1.9674019041493824], [0.2440850168917134, -2.188619415371519, 0.7046405539952802, 0.9905200996630465, 0.29845774987765084, 0.9233627196250964, 0.20345047735042499, 0.5150541198760594, -0.22801800315441878, 0.22287135298134686, -1.6615613532166527, 0.7253052942262127, 1.4250965537913867, -0.6433206214544009, 0.7113283110517192, 0.6593647005055936, 0.016216508445313138, -0.9941419977492214]], "bias": [[-0.9337451834444724], [-0.9529261458044693], [0.0075098765254687505], [0.2574645231253385]]}, {"layer": "activation", "activation": "sigmoid", "activation_prime": "sigmoid"}]}