{"generation": 52, "board_size": 10, "snake_size": 3, "input_direction_count": 4, "apple_return_type": "boolean", "segment_return_type": "boolean", "distance_function": "chebyshev_distance", "network": [{"layer": "dense", "input_size": 14, "output_size": 18, "weights": [[0.5692715488283318, -1.1525629699856808, -3.473245403759769, 0.374176352779989, -0.4192401774292695, -1.1850432134256734, 0.9367857502023424, 1.4974325964663264, -2.846766839147499, -0.16599068501295156, 3.4259148105394948, 0.5528715001325843, -0.6545042275005926, -0.7240117404563202], [-1.463973426926009, 2.0830825996666738, -0.06608698483209685, -0.2813105179981651, -1.5038667835802628, 1.267520998177808, -0.8576791671813455, -1.9818264935392595, -1.746168317878892, 4.870973776459655, -2.2496240801604372, 2.046583232081279, 0.27083953376283965, 2.4167546728120772], [-2.2764438114842287, 1.4789774901649082, -2.592255045758523, 0.5967167190940325, -1.0304177708912103, 1.0512166520149338, -0.9327847585160202, 0.6409786386962021, -0.2964232430315762, 1.1687457753265487, 0.8387415027250893, -0.3985625434797895, -0.4819414653499647, -2.671823151250849], [-0.7781856978683259, 1.1223472063803757, -0.48210058063891803, 0.07734297705217308, -0.17007101164734073, -1.401375449197115, -2.840897575890285, 2.1511343472480933, 0.030042775198977467, -0.8752199336712486, 0.1171215680215747, -0.9005267993402508, 0.7215453540364839, 0.9933418048526912], [-0.3259147268509576, 1.3407285506497675, 0.20363503828550722, 0.16759037394093745, -2.204100243057809, -0.4187112780037954, 2.764328030416264, -1.4388910247052054, 2.0051467632994524, -0.5879685715355868, -1.2226002725057186, 1.8281784419162321, -4.805621786248013, 1.3464884035107791], [-1.0642795946350536, 0.1574173340025959, -1.119735356445959, -1.052235945578834, 1.7666337299275783, -0.2370215577370718, -0.47981848379914993, -0.6356349888940458, -0.8693821811079837, -0.9475940858093914, 0.15831578843276772, -0.9854492169796392, 2.8068592754065653, -0.8327842232238444], [0.9188219432270319, -3.779738704591607, -8.09947545256763, -0.3997222923445731, -0.47154966464873205, 0.19382086528030174, 0.7213363155122503, -0.7862310886601133, -1.207484473180916, 2.144370508024955, 2.1921672934632155, -0.3979085869202907, 0.20119501883534913, -1.7831912108464234], [-2.1620706813045634, 1.3129227592308679, -0.15914438571418238, -0.07316548510536092, 1.9933864779837138, -0.06662107350347979, 4.500081735951818, -2.079415835259763, 1.368233367376759, 2.5227830062875314, -1.0748296316860255, 0.6942997582172672, -0.411471999118574, 0.9964217506020783], [-1.1667748029980296, 0.25662216060098064, -0.857601375384136, 0.14363808279662155, 0.9682911049901477, 1.0174914378014885, -4.284301728603731, 2.425237349661455, 1.1802150493169368, -0.8782360804475633, 2.0229253205567472, -2.741466363089662, 1.4470751791995653, -0.9546646003761889], [-0.3027343069210317, -1.8087756750629749, 0.06166979431612102, -0.5541037604609695, 0.68759428329432, 0.38931799287845936, 0.4089150657643219, -1.277286390110788, 0.05615082474950725, -1.952509699432636, 2.3445511921150715, 2.8252900972793507, 0.6452374987181835, -0.06058230003419163], [3.858038452533823, -0.18424988128945846, -0.3776293027423946, -0.04293284053315327, -1.2699460346186684, -0.6758898739823993, 0.16501040622126784, 0.12147420059078001, 1.536063974935882, -2.5839602799751753, -0.9584940769057939, -0.45011126459661643, -2.9066627224128205, 0.036183575460616346], [0.7683526132798848, 1.4972794344542724, -1.6149954109773292, 0.40278757743848975, 0.005948898451109019, 1.6783759564985201, 0.47193784073519096, 3.803505599592654, -0.5509916492508827, 0.30599073937028054, -2.5224501289154144, 4.778778410329098, -0.6250346404081637, 0.48355672483163653], [-0.9737137142585143, -1.9098553684343018, -0.8359530943035187, -0.47814249597375774, -0.05713537946879299, -0.6133223475099777, -0.11088281519549581, 0.04132949134286734, -2.424851685750984, 2.3922820168642325, -1.5273845688339878, -1.5551113627400124, 0.7063343042863568, -6.0540215236796495], [1.9548333248361391, -0.7192261574591983, 0.35219917819272006, 0.3560455341237032, -2.459155122828423, 1.219252206556318, -0.4572086719957926, -0.8518720681315702, 2.4401150142787422, -1.5419061471372342, -0.6834188499442753, -2.0572344429802216, 1.104073489816623, -3.060501821471085], [3.2579054498976303, -0.4922988956151513, 0.4154275668322387, -1.6545230257333716, 0.2341842704348927, -0.9505457424172479, 0.153869583797694, 4.475930504148662, -0.360560433137876, -1.5033159709749246, 0.8576861856064271, -0.9564575309886623, 0.11321754389361693, -0.4937933047658294], [2.60771103670222, -0.2991840352044899, 6.26035521142961, 1.5967411914360348, -1.2576760199210395, -1.3326861581150689, 0.6257067855212253, -0.8701676330105645, -1.2424394286616185, -3.0740540255438753, 2.2477009771591288, 0.34167545542161, -1.3591048390146756, 1.3150106569000455], [-0.39297295111590147, -0.7362066448976171, 1.6441795250357807, -0.9970364693303193, 0.2752103093524614, 1.1070870521606733, 3.0326582191803326, -1.226193247705151, 1.209743436299458, 3.3711034450467596, 0.8214959576061435, 2.781631982963986, -1.103460342578067, -1.9861722305848022], [-0.508772380267857, -0.3238430492541767, 1.0680501347474922, 0.5505179359120244, 0.4678768276810837, 2.6126890537217413, -1.9125481460892972, -0.6804974328016236, 1.2589654181415701, 0.3981335747315752, -3.0912242197720587, 1.6264265423891657, -0.9442643830035271, -0.2948363101912886]], "bias": [[0.1068137629319168], [0.19164542735045376], [1.5091879997713795], [-0.7804798725947231], [0.19648688779442414], [-1.0714866167979018], [0.6176077628757468], [1.6039717624287069], [-0.11078903108137111], [2.431316210767812], [-0.9937335498772539], [-0.6871565082152233], [1.9857048427070176], [0.01213395818535512], [3.3428213258290445], [0.8393339192389003], [-0.7012643674670647], [0.06273897187285171]]}, {"layer": "activation", "activation": "relu", "activation_prime": "relu"}, {"layer": "dense", "input_size": 18, "output_size": 4, "weights": [[-1.2566987124490705, -0.2371823647871495, 0.7181165783379998, 0.024190327398327494, 2.238330832644825, 1.7958946410328798, 0.42731925574700025, 1.2263175664716253, 0.3948526516288778, -0.21598205075672405, -2.545361451862374, -1.315225110545712, 0.8821750042996239, 0.7826992236886696, -2.3786501161199505, -1.0797839304599162, -0.08509031381967569, 0.7477191707727389], [-2.075792640240867, 2.5960012991714088, -2.8795637175917115, -1.6885091387214128, -2.1388067746329043, -2.951610792441701, 1.289171687267069, 1.454932159618418, -1.2252775174500674, -0.10604927797284858, -0.6143080807888788, -0.7523108951289486, -1.0657312847068208, -1.179114100363529, -0.44468528798361784, -1.6246532821397952, 1.9465846303941, -0.8281085256197923], [0.9266195428710172, -1.5321816884939428, 1.2310750208305372, -0.37243074672051524, -2.4330592696230493, -2.865303445304442, 0.007894562277030781, -3.0743348664863897, 0.2596037032480061, -0.40394742604612904, -0.18845593798025095, -0.18842435193796042, 2.3356023169022686, 0.8948179220221422, 0.662340891062493, -1.1981526408507732, 0.6650121934441111, 1.2598699578190269], [3.810814809180779, 0.14013619320811943, -1.88119812828859, -1.1443421545162713, -0.6565115523304768, -0.3339886553266326, 2.031912224314602, -2.02454504191651, 0.0008941044965806721, 0.052283943123568655, 2.041269852714526, -2.7243534790129056, -2.1973317876130634, -0.8525370291304661, 0.2670587162684677, 2.8160576053306907, -1.9143079518405108, -0.3118414442498265]], "bias": [[-4.0778992939490015], [-1.7670968842266848], [-1.2446290453226845], [-0.3473935505214445]]}, {"layer": "activation", "activation": "sigmoid", "activation_prime": "sigmoid"}]}