{"generation": 52, "board_size": 10, "snake_size": 3, "input_direction_count": 4, "apple_return_type": "boolean", "segment_return_type": "boolean", "distance_function": "chebyshev_distance", "network": [{"layer": "dense", "input_size": 14, "output_size": 18, "weights": [[0.6478390199527564, -1.757915497759122, 0.1305919197468821, -1.904175137358997, 0.6535741484712156, 0.07742449166686105, -0.6895547844678436, 3.1047537910586156, -0.7391606375592079, 0.2937957876096491, 1.4172104571398505, 0.5572489263997532, -1.9613093440061373, -0.30414266954871005], [-0.6104254486026184, -2.518440485386096, -1.0792110313480332, -0.0011088073938107148, 0.5339921714047502, -1.557638387589526, -0.22407965848537748, 1.0315373003937964, 1.7704303496776364, -0.14087106289586138, 0.24465885473739535, -1.4664517019864682, 1.9365677809618806, 0.7994339872979428], [-1.9911714743751876, -3.838926426618814, 1.0839219619108116, 0.6543303568275053, 1.8496016073913695, -3.685556061735597, 0.43604052205525257, 0.8532044674093541, -0.4521531161001323, 0.8363694919278337, -1.701829047655011, -0.6690056198843533, -0.1364270845269936, -0.7659010990695378], [0.050752607557875584, -0.3484076403795111, -3.1812312233120643, 2.0112130526151306, 0.1399045987355777, -2.477878429418077, 0.5458137206684361, -4.633795007225896, -2.692985120603828, -2.24336719964682, -0.6220308557753961, -0.6679279669314282, -1.0288145315940713, -1.9350465300231456], [0.9490135667970845, 1.2874917280674714, 1.0136242963849724, 1.9864884171479287, 0.31476951445613643, -0.24743025992195772, -1.1805702933209812, 1.2291886981723361, -0.7319425898732823, 0.9437024895604513, 0.1520974738025751, -0.711032910409088, 0.16832758244102874, 0.5864501045714551], [0.8960965412213974, 0.4556258817535835, -0.3806622315723547, -0.16447315830696513, -0.6663049650625794, -0.7099075983206142, 0.2861279307804838, 0.9748227800378833, -0.5419104603603246, -0.5776423663062903, -1.826343961297899, 0.09867470577928295, 0.4520597139677984, 1.027053087377055], [-0.1817204070412497, 1.0876480712145924, 0.5814820927416504, 0.037195342291937106, 3.515740636570035, -1.024667641481091, -1.3784482635636799, -1.525394552272712, 0.9596313845739866, -0.03498086859483773, -0.19727153739517359, 0.5299839789277575, 0.4710817943460466, 2.4090658632606745], [2.6640309046075714, 0.6681209815413338, -0.44213859130543187, 2.056884905968063, -0.8560523484802549, -0.18171727372315044, 1.7046804017840578, -1.0870615735732747, 2.3949125635277575, -1.5475778610568331, 0.9921644991505487, -2.102309720420614, 0.8543255333247894, -0.026070424702025807], [0.1639708115673837, -0.19903934767909637, 1.2156883179209843, -0.9170100580224061, 0.049191626904122904, 0.2442692504240429, 1.0064152387405851, -4.091611188131079, -1.270981756314356, -0.27661800352339766, -0.06968225712584997, -0.6391508091922493, 0.9992468991320588, -0.42663176108220036], [-0.7190432977031489, -1.870134835898221, -0.6907139531927268, 3.767233054378692, -2.0870278032309244, -1.6139693146195313, 0.7242976811799037, 2.0007735889062372, -2.2114571248688484, -1.8973193986505505, -0.6049185529819185, -1.0422318949372542, -1.464950687904964, 0.034311333904750774], [-1.366296683657275, 3.292721827244605, -1.0813251377569957, 0.3800264078696066, 1.5853945419505362, -4.668581721765565, -1.1424655105662032, 1.4481938192064863, 0.9848873759669321, 2.3321100357311266, -2.2582111470525175, -1.8273368412501645, -0.8766021909654432, 0.43181772865575563], [-2.7544989017267802, -1.860886816871834, -0.6265892370838706, 2.482084479800263, 1.0968479723889455, -0.4024232623133499, -1.4039199420363648, 1.4304347859955606, 1.0459685861274888, -0.22887416455414789, 1.0074651931365348, -0.789598467677953, -2.34044330085735, 0.21264167572293557], [1.961074884488213, -0.010509390443160349, 0.7432526242697166, -2.630167364528355, 2.5911980876995244, -0.5597986008349191, -0.8904561823978645, -0.6171497833675013, 0.8739904096004761, 0.39748198337288376, -3.2775334645087906, -1.1095432825044638, 1.8494125225252815, -0.6113534258454698], [-0.007739214055925481, 0.259105835060067, -0.19491623613754017, -0.1423224660657436, 0.13996459937434125, 1.5111978803379, -0.24762098098664076, -2.9785295361159845, 0.15257767646790704, -2.39362769569264, -0.8416970999724506, -0.5242929465690143, 0.3759620344157657, -0.4548252625152097], [-2.4870193602265287, 1.1165899587019257, 1.2725732363795934, -0.24025475633032412, 0.9707693232448998, 0.8607256271894563, 3.2054671110106114, -3.525589741677566, 4.218078930166765, 0.303076193062914, 1.2054275274615818, -1.565631889986917, -0.7363990141566019, 1.668859306166573], [2.348517260496953, 0.08316769988668815, 0.42798575197163824, -1.6378261993622352, 0.7798474594402593, 0.7141551440210525, 0.464700958381963, 0.7549818819792175, -0.10808575445583296, -0.4626398783771969, 3.927028480117322, -1.52151593719976, 1.8168045372039094, 1.0681024304648228], [-1.7789781865912895, -2.539633467599498, 0.8803355097633804, -1.1401581105891476, -1.1287627283789718, 0.8802146343762194, -1.7758772835034784, -0.42276661981866515, 0.5885784744547988, -0.2881290031121865, 0.5164770159352974, -0.7942135698532694, -0.7668232644717137, 0.2812736951464181], [-2.2962986913679018, 0.2549611080892087, 0.48119163710566126, 1.541394263362857, 1.3236605424341692, 0.845000686203249, 0.6312986430144236, 2.322503380431826, 0.75679874626929, -0.21190285790375013, -2.0894846472321045, 1.1517244679268046, -0.8335031735854455, 0.07177215768154321]], "bias": [[-0.005027427386806685], [0.4884467633311316], [0.35292901211760475], [0.2682380190217202], [-0.08330800218049461], [-1.5322608336991081], [-1.4441691864946171], [1.8774497260213403], [-1.8946787676151355], [-1.2460617259387696], [-0.4667977760839097], [-0.9433393100723562], [0.10764046223196339], [-2.0406367659050986], [0.29285871789826556], [0.6541459009945407], [-1.197914884729931], [0.8391998756963682]]}, {"layer": "activation", "activation": "relu", "activation_prime": "relu"}, {"layer": "dense", "input_size": 18, "output_size": 4, "weights": [[0.03016759375597372, -0.9463967103772102, -0.19702543338260656, 0.8695340870110162, 0.7169595863483751, 1.9505598919943428, 1.2449615040503261, 0.05437073738366516, -1.2906274395757438, 0.3968336495362068, -0.198484234492099, -0.12466785376166593, 0.18078122353421877, 0.13210199076975637, 2.01389015462372, -0.8344727519113658, -0.9955321717052215, 1.024261741597569], [1.2353182880503288, 0.5508210492102921, 0.09853460194107866, 0.5897414697822942, 0.8363191716995142, -1.1989864132481636, 1.3175338815027802, -0.9210744564248396, -2.7706111276305925, 0.15883628667032834, 1.0149460372073982, -2.6986195586917954, 1.7297451861407325, -0.03062241112717312, 1.9486777922783514, -0.5278493887711527, 0.2802155620992573, -0.4875442033624968], [0.25178345020692106, -0.9099764229169511, 0.681797263177971, -1.7358200092653748, 1.974746651537779, -0.37903610685364764, 0.8144743105750833, -0.45572720901617614, -1.0113149100540988, 0.1975504868060014, -1.9482394564026282, -1.3547267978935345, 0.12377791714373576, 0.9966846734321688, -0.754958949391715, -2.9507511010114325, -1.0649814800079, 1.4511112049901111], [0.135847432470513, -3.956855150134827, -1.131868731605637, 0.9905200996630465, 0.5202645298403398, -0.379528799236019, -0.2687103327940701, 0.5150541198760594, 2.1067373359716344, 0.22287135298134686, -0.3330512285020859, 0.9907609243142699, -0.13335732634550457, -2.617979684962249, 1.3388547252751437, 1.7985648076182228, 0.016216508445313138, -0.9941419977492214]], "bias": [[-0.9337451834444724], [-1.0914981385634777], [0.2357455221091378], [0.8969083769986046]]}, {"layer": "activation", "activation": "sigmoid", "activation_prime": "sigmoid"}]}