{"generation": 790, "board_size": 10, "snake_size": 3, "input_direction_count": 4, "apple_return_type": "boolean", "segment_return_type": "boolean", "distance_function": "chebyshev_distance", "network": [{"layer": "dense", "input_size": 14, "output_size": 18, "weights": [[-3.6750800785762863, -2.0585377698170504, -4.469123968904878, 1.2169241140114915, 6.141333086856926, -0.18807319568197495, -3.3125345865880904, 1.1057159933265115, -3.00898730970938, 2.2528045740917473, -2.9291329185753328, -3.5974094476839307, 0.34310628175239954, -6.882309203400475], [-1.4257638675675848, 2.0244683991820884, -4.1906834182153405, -1.2037102607671006, 2.3518893334135282, 1.510539643569728, -4.60774026386112, 2.192920997988669, 3.441474509207727, -3.2398900972433027, 1.2959047281813079, 0.6532226506454223, -4.969895452584041, -0.8794236339331059], [-2.124831415748476, 1.9917730923863743, -7.259929406584545, 0.4249177480279427, -4.6242836121004816, -6.335744254544677, 3.2404113118365214, -3.0891094065502145, 6.296578932547351, -12.959759014558193, -2.94911089144837, 0.6352435217891892, 2.324029167547582, 5.299930819242011], [-5.830846976465029, 4.715573798132136, -0.5704550643082384, 1.335274979696513, -9.262152456095473, 2.055638286939908, -2.150359607530248, -3.3930145840046504, -0.049278099538063946, 1.9286106282580406, 7.109478016232885, 3.0184056995074124, -5.428922877176812, -4.868974802273003], [-2.10708111153929, -0.457270824747412, -3.124094433469519, -5.567843376574663, 8.151842521716311, -6.085230723012939, -0.4877863022105645, 0.6878373280341241, 2.600194894452479, 1.8311830182026516, 0.6439854553395852, 0.15386726094636627, 3.6741305369161923, 1.2097347344368532], [3.8565839718850854, 9.42383371051282, 4.958427906993136, -9.688917941855886, 0.9780932686595112, -0.7099042088600174, 1.1122518150048657, 2.411613009169037, -2.209199247808197, 0.6012052604284964, -9.74840808360416, -3.3937913570992286, 5.8209131322108565, 2.998541857199145], [-4.0444569258014385, 6.6158523319678615, 5.827319269725577, -4.27947460076971, -1.294458198070867, -4.81254951574539, -0.6187540319500353, -7.022742471256387, -2.4030535067175793, -4.044294790899171, 4.792327746345068, -6.583523005410489, 1.3842458850442694, 1.643253720019546], [2.6537102759596936, 6.060455747821071, -1.2905178631014227, -2.119888267881611, -3.830560899302397, -5.468272300042294, 3.3164024481034775, 0.70497727759185, -2.7969574754932376, 1.9743522389766657, -6.911744421327232, -9.363075294077607, 8.69893251885475, -1.9778284226437028], [-9.089201052954234, -2.0449918227914523, 5.138979443251937, -7.8223793996554125, -5.330807000352058, -1.3280268724272681, -1.2668876427757403, 0.6528315276804553, 3.6830135748867048, -4.370524548674072, 1.4494595103296577, 1.5406714144194664, 0.9748410867196784, -5.532885053454107], [1.1266769898933986, 8.959207289560505, -0.818592859789649, -1.7447455365025897, 0.2941968726915414, -3.7900232137290732, 4.665760242341569, -0.648140768838084, -1.6915958732284646, -1.3742171646248225, 0.62482554971045, -1.2928713157666991, -3.94046574788368, -1.2555650597413504], [-2.2371069082772257, -0.33985947378794296, -1.0054918474358094, -3.9400783908573573, 3.7252701297435014, 2.8608111804646854, -2.678371283231762, -1.67265775814951, -0.6118103810789832, -3.5259280242161104, -6.124465901401839, 1.3489384419464492, 3.4030994099343963, -2.2059957328711084], [-2.0482166564140063, -4.020560538636008, 3.052801769537653, 2.7713195357442273, -2.3819326620845147, -6.175389075772366, -3.545808826107609, 1.0475601655208924, -2.2962024340315166, 2.6453426788429044, -3.6806329807123843, -1.1648214281397433, 7.124787510730791, 4.218534785159049], [3.9854430660487146, -2.104638639316284, -0.2786148377968814, -3.1633945739583034, -3.9849688660032703, 8.323770650683425, 3.4857552077921765, -2.6397472765462, 2.3390137918394274, -4.472674324037854, 8.823628393115127, -1.2240389401918625, 3.3339115141420193, 1.3063536292998887], [6.099977439734655, 0.5222778826355645, -1.9534596780147626, 1.6889872782001722, 1.985941271068911, 0.8291873544141342, 4.003044096191985, -6.458416655725173, -0.6726820432275618, -2.029722422793526, 1.4182593645934978, 0.6495939445864065, 2.846937588582817, 2.0642611377933027], [-5.732364144917088, 0.7902975611236266, 2.4327984193073062, -3.328555932700331, -1.0806961643837438, 0.323106852216889, -4.507965675863369, -2.753036751025946, 2.817791612948021, 1.2206879648067843, -2.073781972584051, -3.077685823647384, 0.9858703898145231, 5.077396186166932], [8.130782342688367, 1.7894100972717863, 2.936325965828015, -6.702981238012039, 1.8950771736004284, 0.7017580724696864, -2.00930024428397, -1.5978178078278749, -0.04455134215002343, -0.990094734661418, 3.569067212603867, -0.27979845534543935, 2.986148737273482, -1.481016371711346], [-4.881102809571961, 7.0998844049243655, -4.05641376950483, 9.969273639057036, 2.827542881926984, 3.743990478507795, -1.7040917779322804, 3.1801221826335424, 5.782190419239827, 4.048026153817808, 1.1472394534463695, -0.8761074581429006, -0.9876012913423493, -1.812418542352302], [-3.3662237775545454, -0.6054298293493408, -7.067707182029673, -1.3797850860493734, 2.31379859485178, -7.473698370554973, -4.101973095929713, 2.274081584572679, -4.026633590343129, -1.9781368364961516, 5.545294113788161, 0.5290198712289215, -4.77398548332341, -4.691213533447466]], "bias": [[1.755678081810408], [2.092863403278443], [-2.0794155457086907], [3.81860631771833], [0.45307524804247573], [0.6553905718640252], [3.1928452397563403], [-1.462028444184782], [2.184707000793796], [-0.5743449475595109], [-2.2355928244719463], [-2.9445850869250205], [-0.8529815871750736], [-14.11977209692506], [-1.1503453889009236], [2.3296858653783423], [0.3244575089478535], [-0.43858350530174556]]}, {"layer": "activation", "activation": "relu", "activation_prime": "relu"}, {"layer": "dense", "input_size": 18, "output_size": 4, "weights": [[-9.648804529108387, -1.011548209280046, -1.1959679528670675, 3.717552259933206, 3.353915770737369, 2.5847419051038925, -4.379917423853301, 0.02219247966195631, 5.539954203225011, 5.738970209294771, -1.9029600557500168, -7.044288289683116, -1.3784706936562332, 0.350052668894821, -2.3876319585259123, -8.766796230629888, 1.7818410863860177, -2.1296394897142235], [4.682222083405118, -1.6271714526547623, 1.634520803229531, -1.7883116020801593, 6.962489619673202, 3.3463498432309455, 0.9891164403383892, -1.8763217343359466, 8.076771326612349, -3.0686959754715013, -1.2739601930281654, 0.05504447335679563, -6.016572316027807, 4.809158636759059, 1.391421378339756, 2.725852619679956, -2.1099963879709893, 0.3555075730689637], [0.8465228420364509, 1.928633548587511, 5.573041160903802, 1.4933984882574314, -0.6069667946833404, -2.677283914227928, 1.831341775309958, 4.13920580080883, 0.45348793725948155, -6.826725394546005, -2.2764052967768946, -0.2833742840279099, -2.8509173046963694, -0.7761224079085454, -6.3832863373025095, -0.06372667528133666, 2.0118371619997366, -2.590001797582608], [-1.485091624898164, 0.8972215849207144, 8.193475898986783, -3.7745761171893775, 1.6918307270580268, 2.270862660195315, 0.49421963335434893, -0.9531066240247905, -2.1080353166166415, -0.2937408547041006, -3.0974653326000334, -1.9087280665378226, 1.7475522581814222, -0.20721614755987705, 1.7757260527492624, 0.9455933133153426, -4.192025418486196, -0.8901762955237118]], "bias": [[-0.8744010681192148], [-4.696491245893688], [-2.75712451163044], [-0.9155907521742827]]}, {"layer": "activation", "activation": "sigmoid", "activation_prime": "sigmoid"}]}