{"generation": 200, "board_size": 10, "snake_size": 3, "input_direction_count": 4, "apple_return_type": "boolean", "segment_return_type": "boolean", "distance_function": "chebyshev_distance", "network": [{"layer": "dense", "input_size": 14, "output_size": 18, "weights": [[-5.483588241482647, 7.104105154607408, -3.092306202982705, -2.551448920013741, -0.667493262379289, 3.1470948419354032, -1.4499108015349575, 0.9318843656876521, 1.8087557503739817, 2.2992524343528986, 1.668681251222467, 0.8833947660108519, -0.8286814533960319, 0.046101623967900296], [-1.038495659855514, -4.442174477768436, -5.019582500781709, 4.43566392067356, 0.46632036828945, -2.7064281526284644, 0.30515146118826186, 1.004796646063522, -4.430185546614426, 1.2716230637503732, -1.2190828415309913, -1.4956715225019215, 0.12755493367245285, 2.528981717040896], [3.2258708375284004, -0.06196827755018042, -0.18489453561640468, -1.426174099520337, 2.642832277852856, -2.4414754090993758, -3.577034705187696, -1.2666834609286943, 1.1354839616619659, 0.43629741732602567, 3.196391724778694, -1.3341456322593106, -0.5746013723177964, 0.4896402172317976], [-1.7548699564165926, -0.37458597194860865, -5.9076405463572605, -0.22256745579958448, -3.5425077623577863, -0.8880109349164429, 0.2397155147418934, 0.3664828152387657, 4.1509997305616295, -3.5609706360658198, 1.0800888914623195, -2.113599201786266, -1.597130296998189, -0.548692764946779], [2.396560675022937, 3.6575173635092644, 1.344829939788096, -1.5221742138151129, 4.200612649685062, 1.9385325612703315, 0.886229730800995, 2.104957190449243, -0.09190960602405918, -3.720942617712122, 6.94447940200145, 1.8757615632455646, -0.13838542850932115, 2.5556000213431], [4.8135094478511835, -1.308815750739289, -3.5320337068285568, -2.276093240112828, -5.6852055875692304, 1.5760489440232859, 0.9655653470571182, 0.8409619855536324, 0.762287085184242, -1.0174248433340831, -3.9323957000457046, -0.6134321242062729, -0.12007904148395099, -2.8957479337167453], [-0.5049167464298538, -0.03253719889648021, -6.640999116236824, 0.4145885953642442, -2.543904608272384, 1.4888690303048417, -1.8051982836016454, -0.7553399740759371, -1.396595321580343, -1.4648511515629306, -0.31034292093553884, -1.3782871911626131, -1.3790934895172517, 0.09503099735554521], [-2.4906377968436297, 0.7655395900996016, 0.6507785341026779, 3.496323988545294, -0.3458280133732863, -1.268549273641697, 4.4953530770644665, 1.7189292581160744, 2.6876652348826457, 0.9590404273333426, 1.9978810664451137, -0.6158323167088873, -1.1405199138405469, 2.8894949626393913], [4.159860121829321, -6.9901015498166155, -0.21056476776264754, 1.9083383546796526, -0.6719308944468544, 2.5820434895183095, 0.18072459068388858, -0.6894293907668523, -0.12486981923764107, -0.9840427274254308, -2.0185254072116106, -0.11534310985148072, 1.7223502913200703, 2.274699372519059], [2.0837808897414907, 1.6213784327315748, 1.188895494986325, -0.7262802123251169, 4.376104808329408, -0.0490514990742239, -4.2989579386053, -0.399338907005253, -2.611941033022136, -1.133946327496352, -1.483428213717994, -0.6212306527528535, -0.5558771822632849, 1.8765500845105887], [-2.9508848257930427, -0.6667872003328885, 0.2395032044754326, 1.8508502964402544, 2.713481990941234, 2.3836164071268566, 0.4686212559166709, -2.261710957952611, 2.9894020175403586, 3.7024203363516435, 2.723419485335498, -1.8918520709149194, -3.0307537144426027, -3.1082136011132047], [-0.2820873666507601, 2.1712919740172754, 0.07800842949601366, 4.042808537755397, -0.027920596354368138, 0.30669647638665953, -1.456043492694759, 3.7825571450260065, 0.41990897960443774, -1.2899244684713442, 1.570547433803652, -0.6432627514125778, -1.4865978596917562, 0.631346281734086], [-0.2518863425788993, 0.6294980511480714, -2.325272614186555, 1.5705087955226218, 0.2961174417287109, 0.8303257813327323, 2.325177497272789, -4.804891286666685, -0.7422564505972793, 1.3074413647047665, 0.11829019771454202, -0.6531411120133256, -4.441698244404994, 1.4914481014198666], [3.9964423311999586, 0.4403878427989542, 2.7326953315718954, -2.182934493957778, -1.5875693222875797, -0.36188402928745056, 0.4645224651773039, 2.4761495760649597, -4.584377043972458, 8.588824156684003, 3.1446975091297906, -4.064573170641725, -5.221255343465876, -1.5692621780031344], [0.5732322024437113, -1.782491441645702, 0.6518728415398173, -0.6150014870531253, 2.7892440442578037, 1.478122539089346, -4.033348084139344, 0.7368077050543143, 1.2067826153271162, -0.5544151227374176, 1.8586012187254415, -0.12534584141111482, 1.3634502296568518, -4.058750493987435], [3.3714924431350366, -0.5734522378110979, -0.9099143113774466, 3.8104499928435764, 0.19399681536512192, -0.6209591748327794, 0.017065377776505408, -1.8420368046506426, 0.8987692354163366, 4.01650091966991, 1.9617950089088922, 0.21513736403476535, -1.131914373086746, 2.1404710555378004], [4.367474144286023, -1.3976708909495432, 1.2499566041227301, -1.1557281961774708, 2.333802598139773, -0.44283389478731006, -1.4317656189142953, -0.6980627358325807, -1.4596340379131436, 1.2655087989086353, -0.6057980568284655, -0.8739647916938711, 0.321090542024975, 3.0836443033592804], [2.479121299802672, -0.1674814193821097, -1.4246817437426282, -2.7775711356752892, -0.49158723736341076, -0.49831423834767125, -1.8196849064407692, 2.8908474024981063, -1.879975988013994, 4.759743108682742, -1.077603654091129, 4.960487278044492, -0.08644413108403676, 1.7504849391700097]], "bias": [[0.8090871405072152], [-0.09777355421205214], [2.0115623795395976], [0.46218750295113603], [-3.800271121791484], [0.44863885095963596], [2.3524022578929973], [3.356840018827369], [1.9246367171791756], [-2.2158847827825916], [-1.7876678480334247], [1.1486187751928385], [-1.650941627386396], [-3.183076922800558], [1.5703794426401412], [0.11625138581401817], [0.3942338456009465], [-0.06034334076230696]]}, {"layer": "activation", "activation": "relu", "activation_prime": "relu"}, {"layer": "dense", "input_size": 18, "output_size": 4, "weights": [[3.5800799373521723, 0.9709741440914381, -0.8157262827378573, -4.831212908993738, -1.7203203013147075, -1.0015815915730484, 2.681581575401722, -0.38633636887916956, -1.7817737312754642, -0.23450263355866718, 1.4372734937455622, 1.0723139486488844, 2.474008761890947, -0.9523201689800629, -2.2932623364682283, 0.2158976477344161, -0.21818370463299236, 1.2738420022223305], [-0.7149212016490007, -0.4042220371655761, 1.04000784434899, 1.0532582905420544, -0.30225165981251184, 1.483775569409048, -3.8210041591085826, 0.22186299942768545, -1.9371747506323034, 0.8045536444305685, 0.5970133602516207, -0.5206361321179201, -1.6896544157207036, -0.14000887506770376, 1.3090911825636478, -1.0656932217249189, -0.14247801533376336, 2.094426096034084], [-1.2992476372347905, 5.947554995730671, 1.1003219131504354, 3.410870003413198, -3.1251704143121177, 1.2195298770242338, 2.6922526245070184, -4.843325366394824, -0.3218883974699655, 0.033431162721892574, 1.508831027009658, -3.026052808379369, 0.758049843344792, 0.747568424557104, 0.9556627152650823, -1.0188269561216012, -0.7186111747142669, 4.1196614969248095], [-1.1089506695435125, 2.0806494475164934, 0.2569621386704323, 1.6403134853600938, 0.38165884383176646, 0.47171838809906863, -2.732121429500978, -1.6155831221157917, 0.931434961560456, 2.153040899823315, 1.4900545870349382, 0.8328899075624776, 2.8227791947833687, -0.29081848675050276, 1.1030235254070506, 0.4288857083038832, -2.45663998736425, -0.8353453440259333]], "bias": [[0.89331005126252], [0.3059185378716736], [-0.7636845643415534], [-0.8793142283194624]]}, {"layer": "activation", "activation": "sigmoid", "activation_prime": "sigmoid"}]}