{"generation": 425, "board_size": 10, "snake_size": 3, "input_direction_count": 4, "apple_return_type": "boolean", "segment_return_type": "boolean", "distance_function": "chebyshev_distance", "network": [{"layer": "dense", "input_size": 14, "output_size": 16, "weights": [[2.2982022618720928, -1.7184630292706442, 1.2769123353731064, -2.3782532727299843, -0.13254209697331276, -3.8862261659657618, 0.7673284685247606, 0.20845379239946393, 0.572060434481992, 0.6453654983156107, 1.7568940350743378, 2.1910554859751965, -1.897871106403083, -1.5567270562799893], [-7.095429270894657, -1.159703820486962, -1.341869678683787, -0.4069800755741566, 2.311056758853822, 3.694412392916111, -0.5754889255335065, -3.5373335658830904, 0.7805131867718225, -2.8827100871540376, 0.3707024484057979, -0.38163614675240365, -4.294854102980458, 2.2369218698162356], [-3.490319407508871, 4.788914708690167, -2.7019363104557095, -2.6312650828164856, 3.643689795712649, 3.1722277865261868, 0.27695125446806074, 0.9241691752570697, 0.648605337339502, 11.468613367286725, -0.37642442707950974, -6.8297947807197765, -2.792278858440117, -0.29549199592591235], [-0.19761545776156633, 2.332891096771566, -5.093404017436612, 0.11675034652887661, 2.3070468568304845, 0.8135704785812216, 2.2069330866971515, -2.994660981354306, 1.638817846202551, 1.1431672441526965, -0.8717552594552274, -2.2117156632314074, 1.5957003902074587, 1.7404708441359666], [2.0985355660111735, 2.0020151900652414, -0.8011991428926648, 0.7732942258787348, 0.3609511720894173, 1.02594818231307, -7.98776981449202, 1.3135222681091585, 0.27929443255310366, -2.193716129110438, -0.46654049953822696, -0.27244395664504206, -2.2797889355249614, -4.950770577047146], [-1.2952024968561902, 0.059916739410142306, 1.0107054355909275, 9.296647031933581, 0.5657007326313694, 2.0065489349304624, 1.1647179434501533, 1.3437818975214872, -0.3669540443687439, -2.9589483458548735, -0.1754662387290269, 1.1344577942614258, -0.8848697813385051, 1.1286174167641345], [-3.3441880544155813, 5.031135844457707, 2.515353211813602, 1.8809937184688061, 1.3978324449224044, -1.832343613922857, 0.8352597611666246, -0.15104560119879773, 0.8019388966665086, -4.186406395241829, -0.24221578534785004, -0.5498174029623223, -4.643376252046229, -1.4310630664107171], [-2.5548170419183895, 0.353987992784423, 0.8130846158468188, -0.6271154438047375, 1.2676692589933993, 1.4395551612193662, 0.12723261485934664, -0.2367348693334883, 1.1946492280447754, -6.014269302847657, 0.4567668272959714, -2.999396987946028, -6.956633862404273, -1.68561616435242], [-2.04709056288257, 8.093197477637542, -0.004042200686421138, -3.4943095170564424, -1.9514490543459373, -2.2104336775713374, -1.2473712191905229, -0.9716681983342179, -0.6598485322552781, 0.7543663862752668, -0.7992078278742625, -1.7678795892638268, -3.5135009384551124, 4.064834502545491], [2.9037461149962933, -2.041114252320836, 2.1108412285322453, -2.405395800127411, 5.770255867761501, -1.9170729630101868, 4.695738782338911, -2.01050111347861, -0.8292395708908517, -0.8300181616746645, -1.346949379343867, -1.3536740178095619, 0.8924205163688078, -1.0215332172026075], [-0.7328464199168692, 1.6058846431223213, -5.789395361633696, 0.22523637828727006, 0.9003488851590741, -0.097923205200517, -2.5444866492349734, 1.1494001235707834, 2.288729614731883, -1.1785653002407805, -1.0003950909847041, -1.7733197427490546, 1.7758614413304732, -0.7685916084952584], [-0.7637092362646836, 1.9707043436600313, -0.6195190644374726, -2.24117481615934, -3.412487762319801, -1.2653955899924336, 2.159693164566186, -0.5381224791475796, 3.669955648686775, -3.604108990504039, 0.2473800416156084, 1.6156322944600683, 2.104758412200655, 0.9744906863745779], [-3.005681681258614, 1.1020218058322655, -3.669084089306371, 0.15815027227120038, -1.2507533486867413, 2.7333658230581475, 0.6262928683723943, 2.0160809393646115, 0.7837262891784325, -1.4876030511249145, -0.45159741981591184, 1.2002211788283936, -0.231494277721203, 1.540315946717244], [8.337961538786846, -5.140379027036789, -1.278049384537103, -0.8026134165650562, -0.6215577659000728, 4.515003324851117, -2.106382198580509, 2.4855318993822513, 2.235857953502938, -1.8451365112135587, 2.266309768575544, -1.7715973774460128, 4.779184674022363, -0.1024128838352445], [-5.333097324913276, -4.942734607463271, 2.168917025571801, 6.1528629771499155, 3.383948301943028, 4.077224129136742, -2.2481884949365947, 6.798713359896295, 8.233890890652457, 1.7559241795359015, -0.030123468827146782, 4.662828800733372, -0.9346309019519944, 2.7255357260661843], [3.343471968163693, 1.8966203109264996, 0.11735291564008876, 1.7139634013927298, 1.240139817054954, -4.981715606810122, 3.732184254430637, -7.113923327284029, 2.5729076948120864, -3.451699627928012, 1.0785504542859488, -1.4582142112094294, -6.702584452203511, 4.9359944426150735]], "bias": [[-4.347636979130958], [3.882800652021812], [-2.115436872358317], [1.0138338245678233], [2.7091355320527932], [-1.599542251211371], [-3.7623433268698894], [1.9003980980133488], [3.823630584277807], [2.4539375039508413], [-3.6378769826914987], [-0.27663458788294015], [-3.0000326084103692], [2.8826884990889505], [-0.34336808962123067], [-2.1445754827852177]]}, {"layer": "activation", "activation": "relu", "activation_prime": "relu"}, {"layer": "dense", "input_size": 16, "output_size": 4, "weights": [[2.9019474534210987, 2.1718817446386414, 3.0913368182663437, -2.8715241007106065, -0.1320279536437191, 1.5562014919083782, 4.2703278354017415, 0.9307898593405095, 0.7774059202638467, -1.9631685290706071, 5.894807178415396, 0.5998972284822398, 2.900357240017173, -2.756235733701934, 1.083146560447351, 0.521031960103942], [-3.4747318238788383, -1.389423813303639, -0.031660912328451085, 0.8336920280428101, -1.3442307983018131, -1.4678526502718237, -0.14172571080702284, -0.009205376687846406, -2.3185494580893686, 2.751251193490129, 2.42397472388062, 2.737176737801412, 2.726146168714722, 0.8476473436210814, 0.756739122853642, 0.9673935511262235], [-0.9707594242828277, -4.355023976294218, 0.1227071521415776, 0.2906284544821165, 3.129910111384255, -3.09721140820279, -1.400235680399111, 1.3876976734700501, 0.7701692712032145, 0.8276051338443913, 0.01400026851488723, -0.6420985262189336, -2.3403285213587854, 1.0594584758063508, 0.2581656993090336, 1.0536112189321254], [-0.11313728386186517, 0.1330665157113529, -1.8803329918143745, 3.0379237827031433, 0.3566548300146322, 2.7401820319210075, -3.881308329888319, 3.8743727733767144, 0.7106663151341941, -0.2986966207436304, -3.5581830771343164, 0.14631354596471574, 2.5959087162500882, -0.10175662590153389, 0.9419793500920763, -0.9130498549950952]], "bias": [[3.864873381869729], [3.592568231847962], [-0.9355587661534783], [-2.2816208809152316]]}, {"layer": "activation", "activation": "sigmoid", "activation_prime": "sigmoid"}]}