{"generation": 428, "board_size": 10, "snake_size": 3, "input_direction_count": 4, "apple_return_type": "boolean", "segment_return_type": "boolean", "distance_function": "chebyshev_distance", "network": [{"layer": "dense", "input_size": 14, "output_size": 16, "weights": [[1.7402721925155582, -1.7184630292706442, 0.6046013964387627, -2.3782532727299843, -0.29735784489789685, -3.8862261659657618, 1.6037394446561675, -1.1541815057288338, -0.1933846059487622, 0.5972297445124857, 0.22955027327472743, 2.839113718340142, -0.7400192081826509, -3.143971978932859], [-6.0373693771738335, -1.159703820486962, -1.341869678683787, 1.4590435771846963, 2.3520216040111213, 2.2194404995244392, -3.900339849839136, -2.233411534142854, 0.7390603401367317, -2.8827100871540376, -0.15145481439646102, 0.976582142820281, -3.4522098344187793, 3.7181557192437453], [-3.490319407508871, 4.410637032777655, -2.8191504046533105, -2.6312650828164856, 3.643689795712649, 3.1722277865261868, 0.34509881667298403, 0.9241691752570697, 0.648605337339502, 10.913389027158138, -0.37642442707950974, -7.502680844547167, -2.792278858440117, -0.9029698291219551], [-0.19761545776156633, 2.598871114069148, -5.093404017436612, -1.2288788875464558, 2.3070468568304845, 0.49882126386393766, 2.2069330866971515, -2.994660981354306, 1.638817846202551, 2.365796418385747, -1.937380947755571, -2.2117156632314074, 1.055314253511454, 1.7404708441359666], [2.0985355660111735, 2.0020151900652414, -0.6312159659136526, 2.6032737232521863, 0.3609511720894173, 1.02594818231307, -5.203245240515851, 0.8480274366535252, -0.17561234644644813, -1.6450769775690224, 0.4721531735570943, -0.27244395664504206, -3.1784645750015645, -3.08250848093102], [-0.23786872685039, 1.282009743368968, 1.0107054355909275, 9.84107402680186, 0.5657007326313694, 2.4156079718409442, 0.6384565973447289, 0.8012249042040777, -0.34003469012732623, -1.7245857309402985, 1.0720789862779512, -1.4320135128797191, -0.004423591737029581, 0.2673789204694732], [-3.233977694720354, 5.031135844457707, 1.9419041859345612, 1.6025527653693388, 4.003400245364926, -1.832343613922857, 0.23515081824323855, -0.33584527445809487, 2.170855386947016, -4.851192344829366, -0.24221578534785004, -0.5498174029623223, -3.925956697447731, -1.4310630664107171], [-2.5548170419183895, 1.3899115381365053, 2.475999460200845, -0.6271154438047375, 2.5084883818758703, 1.4395551612193662, 0.9278902338390433, -0.2367348693334883, 1.1946492280447754, -6.014269302847657, 0.4567668272959714, -2.999396987946028, -6.956633862404273, -1.68561616435242], [-4.343001831257087, 8.093197477637542, -0.004042200686421138, -3.4943095170564424, -2.7584874857684882, -1.8737401216886753, -0.4309258155048358, -0.9716681983342179, -0.6598485322552781, 0.7543663862752668, -0.5438969695346194, -1.7678795892638268, -3.5135009384551124, 1.4399089550342858], [2.9037461149962933, -3.39112738139432, 1.8683698197568517, -2.405395800127411, 4.628619022815858, -0.463072394339604, 5.378907743994338, -2.01050111347861, -0.8292395708908517, -0.8300181616746645, -1.346949379343867, -1.3536740178095619, 0.8924205163688078, 0.4685068358695849], [-0.7328464199168692, 0.5131433304291484, -5.789395361633696, 0.22523637828727006, 0.9003488851590741, 1.1721939355993447, -2.969640610796593, 1.1494001235707834, 1.5296672126394861, -1.1785653002407805, -0.32882861370031724, -1.7733197427490546, 1.7758614413304732, -0.7685916084952584], [2.190171160156861, 1.9707043436600313, -1.7233659022102372, -2.24117481615934, -3.412487762319801, -2.4746194115884474, -0.09924382273585097, -0.1284856460364895, 3.669955648686775, -3.604108990504039, 1.5980781713023338, 1.6156322944600683, 1.9180032661792354, 0.22761181977497597], [-1.1986880707405727, 1.1020218058322655, -4.436794718112076, 0.15815027227120038, -1.2507533486867413, 2.7333658230581475, 0.6262928683723943, 2.253917524262703, 0.7837262891784325, -1.4876030511249145, -0.9915101088341239, 1.2002211788283936, -0.231494277721203, 1.7839111805623316], [8.337961538786846, -4.53823994090914, -1.829840899022556, -0.8026134165650562, -1.0854347704133593, 3.6108295946997035, -2.106382198580509, 1.3449173405021602, 2.235857953502938, -1.9461912111389965, 1.0419678501743403, -1.7715973774460128, 4.779184674022363, -1.2622577686162388], [-5.333097324913276, -4.942734607463271, 1.9486452887576677, 3.680107058366433, 2.0384079762406384, 4.892101049020624, -2.2481884949365947, 3.842024556763554, 9.576186561808806, 1.5362097055224044, -0.6463195027675954, 3.811779973541763, -0.8453069648505436, 2.3800624125453744], [2.5346593642047943, 1.8966203109264996, 0.11735291564008876, 1.191993360109526, 1.8310380694015806, -4.50358370906165, 3.8776993096040626, -7.113923327284029, 2.7391396532891896, -3.451699627928012, 1.0785504542859488, 2.1383747553140946, -6.014098506273498, 4.414976978081298]], "bias": [[-4.347636979130958], [3.882800652021812], [-2.115436872358317], [1.0138338245678233], [2.2222954959097936], [-1.7207036437366545], [-3.2456828969032974], [1.9003980980133488], [6.4008675252029406], [3.1173213027583637], [-1.9506842562083029], [-0.7823870296127416], [-4.862430385403163], [2.8826884990889505], [-0.34336808962123067], [-2.0143803985908844]]}, {"layer": "activation", "activation": "relu", "activation_prime": "relu"}, {"layer": "dense", "input_size": 16, "output_size": 4, "weights": [[1.6695496431257462, 1.8733530427507987, 3.0913368182663437, -1.4919851801553754, 0.4282290219726026, 1.5562014919083782, 4.2703278354017415, 0.4040601674742559, 1.0411849147768513, -1.9631685290706071, 5.353574474338089, 0.5998972284822398, 2.900357240017173, -2.756235733701934, 1.0904745994912872, 0.521031960103942], [-3.249635682858072, -2.1810749301587107, -0.6154175329827807, 0.8336920280428101, -1.3442307983018131, -1.2263766322308187, 0.4460253744508355, 0.14349441703423121, -1.6207391001593061, 2.751251193490129, 2.0469921630409624, 2.5061069723781597, -2.633396109875566, 0.8476473436210814, 0.756739122853642, 0.9673935511262235], [-0.9707594242828277, -4.355023976294218, 0.1227071521415776, 0.2906284544821165, 3.129910111384255, -2.6391706269892037, -1.400235680399111, 1.757849447174848, 0.7701692712032145, 0.8276051338443913, 0.01400026851488723, -0.6420985262189336, -2.3403285213587854, 1.1085578721822027, -0.7419273039679986, 2.5937160713715626], [-0.11313728386186517, -0.0383984167901428, -2.331197682415453, 3.0379237827031433, -0.20255483903905047, 3.726946918557784, -5.240874120328019, 4.104908085249751, 0.488997870257075, -0.3819955463536603, -4.314903062237241, -0.07953794700746489, 1.0782588937208537, 0.1565125347714807, 0.8373455531038062, -0.9635687627851212]], "bias": [[2.793117873272788], [3.3829756247965483], [-0.9355587661534783], [-0.09912343197303708]]}, {"layer": "activation", "activation": "sigmoid", "activation_prime": "sigmoid"}]}