{"generation": 450, "board_size": 10, "snake_size": 3, "input_direction_count": 4, "apple_return_type": "boolean", "segment_return_type": "boolean", "distance_function": "chebyshev_distance", "network": [{"layer": "dense", "input_size": 14, "output_size": 16, "weights": [[1.0704074249770794, -1.7184630292706442, 1.5087581813802418, -2.011570789250909, -0.34267751328066115, -2.1033097052691025, -0.8002475650998551, 1.648375261638197, -0.1933846059487622, 1.3695429867626476, -0.5823036971077991, 2.1910554859751965, -0.896277986842479, -2.7912633086496585], [-7.095429270894657, -2.059588592432034, -1.341869678683787, 0.49020314060048387, 2.311056758853822, 3.694412392916111, -2.6687282309862583, -2.233411534142854, 2.499502837706432, -2.8827100871540376, 1.4604816796446531, -0.3390926433429501, -4.294854102980458, 3.0385569194021653], [-2.4699158788208453, 3.4742204941171737, -2.8191504046533105, -2.328493293823777, 3.643689795712649, 3.1722277865261868, 0.34509881667298403, 0.9241691752570697, 0.648605337339502, 10.758833746360704, -0.37642442707950974, -7.502680844547167, -2.792278858440117, -0.29549199592591235], [-0.2742143691701489, 2.318084590561368, -5.093404017436612, -1.2288788875464558, 1.4494216019829762, 0.727587937649117, 2.2069330866971515, -4.254616884883032, 1.638817846202551, 1.1431672441526965, -2.223638618540898, -2.2117156632314074, 2.2822379974746716, 2.536653594166249], [2.456891189220583, 2.0020151900652414, -0.12210232209921124, 0.7732942258787348, 0.3609511720894173, 0.27544263006179104, -5.769487260163892, 1.447394873913522, -1.0997771726545291, -2.917850815332063, 0.4721531735570943, -0.27244395664504206, -3.1784645750015645, -3.9215078167233264], [0.6895682334740063, 1.282009743368968, 0.04660575745123896, 10.497726609419884, 0.5657007326313694, 2.4156079718409442, 1.1647179434501533, 0.8012249042040777, -0.34003469012732623, -4.02868283599513, 1.0720789862779512, -0.1383626540813523, 0.08925318956862327, -0.5196772278473029], [-3.3441880544155813, 4.270681701383026, 2.515353211813602, 1.6025527653693388, 2.1474391187941126, -3.0542091973888894, 0.23515081824323855, 1.2855609509599324, 2.170855386947016, -5.696471397226062, -0.24221578534785004, -0.5498174029623223, -2.767599411648597, -1.4310630664107171], [-1.2634701430457418, 0.4917410092923111, 3.6029524798666697, 0.2734174336269368, 2.5084883818758703, 3.3034104045079196, 0.5777346658479081, -0.2367348693334883, 1.1946492280447754, -6.014269302847657, 0.4567668272959714, -2.229218612686684, -7.448947348934008, -2.670441046158192], [-4.903151529847118, 8.093197477637542, 1.8757636985225261, -4.578945920749835, -0.38362201946727137, -2.2104336775713374, -0.405304699848592, -0.5018150578319167, -0.00022427496124677315, 0.7543663862752668, -1.2974384097009946, -1.7678795892638268, -3.5135009384551124, 0.13105934804248265], [2.9037461149962933, -3.1436044016210625, 1.8683698197568517, -0.19518450752610916, 5.584149048071808, -0.463072394339604, 4.4144143627671415, -3.4913961008533314, -0.6579547146336733, -1.2003739693941977, -1.7623164948176997, -2.475884877676975, 0.8924205163688078, 0.2621382552344], [-0.6985955515732528, 0.1558293787416356, -4.576548255821248, -0.27806839407942063, 0.12314563210367135, 0.02163808445722984, -2.969640610796593, 2.516945854666975, 0.39037568491267094, -1.1785653002407805, 0.704126932609956, -3.8867192554246883, 1.7758614413304732, -1.2039669800149442], [1.4481148632551089, 2.9078679826977094, -1.9976137341869162, -1.8258624132463035, -5.182740360724179, -1.2653955899924336, 1.5492366546223622, -1.410997853825892, 3.6867909373758296, -2.3159217262486798, 1.7163246843318645, 2.1872965044512447, 2.301575539834725, 1.5352070340570678], [-3.836364894650689, 3.0404414761521914, -4.436794718112076, 1.4388924803546765, -1.2507533486867413, 3.2172963214718924, 2.17070798159929, -1.3184412530857341, 0.7837262891784325, -1.8612823366727294, 0.9973328915698467, 1.0879038676659458, -0.231494277721203, 3.086568901547996], [7.6187036399849255, -3.5040825556685644, -1.829840899022556, -0.8026134165650562, -0.43143974446066824, 3.3738973471266407, -2.3192170147322306, 1.3449173405021602, 2.235857953502938, -3.2079951730897904, 2.336755173999844, -1.7715973774460128, 4.779184674022363, -1.2622577686162388], [-5.333097324913276, -4.942734607463271, 1.6498318768791633, 5.098166747401691, 2.0384079762406384, 4.077224129136742, -2.2481884949365947, 3.842024556763554, 8.233890890652457, 1.5362097055224044, 0.2766105023968274, 2.7265575422808794, -0.8453069648505436, 2.3800624125453744], [1.9495762776647965, 1.8966203109264996, 0.09184664291669407, 1.191993360109526, 1.8310380694015806, -4.50358370906165, 3.8776993096040626, -7.513123158004664, 2.7391396532891896, -3.451699627928012, 1.0785504542859488, 2.1383747553140946, -6.144261281518444, 4.414976978081298]], "bias": [[-4.149369239383059], [3.8226658704914462], [-2.115436872358317], [1.0138338245678233], [2.7091355320527932], [-1.599542251211371], [-3.7623433268698894], [2.1852001780081807], [3.823630584277807], [3.1173213027583637], [-1.9506842562083029], [0.37096050449516726], [-4.837790517646028], [2.433473753270199], [-1.6783481808499647], [-2.0143803985908844]]}, {"layer": "activation", "activation": "relu", "activation_prime": "relu"}, {"layer": "dense", "input_size": 16, "output_size": 4, "weights": [[-0.8763431032533067, 1.8733530427507987, 3.0913368182663437, -1.6754982816217596, 0.4282290219726026, 1.0374360415061452, 3.5906172536168226, 0.4040601674742559, 1.2793671987478934, -2.8467237548473765, 2.2958298095821936, 0.5998972284822398, 3.133004946953895, -3.7664569496332403, 1.083146560447351, 0.521031960103942], [-1.2667823607852688, -0.837305296344929, -0.5067001342098185, 0.5742854196148823, -1.332119371219291, -0.79567789656571, -0.14172571080702284, 0.9970248075029997, -3.223651236640996, 2.5396395615634284, 2.562411835056481, 2.282007054896176, 0.6910885975781383, 0.9517724463715176, 0.29089656332524805, 0.9673935511262235], [-2.9786081580293446, -3.521707711537531, 0.2653906812889713, 0.2906284544821165, 4.104639889857419, -2.3118283175650265, -3.615831416213897, 1.757849447174848, -0.7135871602364375, 0.8276051338443913, 0.01400026851488723, -0.6420985262189336, -2.3403285213587854, 1.0594584758063508, 0.2581656993090336, 0.06516526564301228], [-0.11313728386186517, 0.1330665157113529, -2.052801195194913, 2.7903317789348643, -0.20255483903905047, 3.726946918557784, -5.240874120328019, 4.104908085249751, -1.2245045184215724, -0.2986966207436304, -4.314903062237241, -0.07953794700746489, 1.9029788250346635, 0.1565125347714807, 0.5754133776791845, -0.9635687627851212]], "bias": [[2.793117873272788], [3.754195776570681], [-0.24364999068449655], [-0.09912343197303708]]}, {"layer": "activation", "activation": "sigmoid", "activation_prime": "sigmoid"}]}