{"generation": -1, "fitness": -1, "board_size": 10, "snake_size": 3, "input_direction_count": 4, "vision_return_type": "boolean", "network": [{"layer": "dense", "input_size": 16, "output_size": 24, "weights": [[0.3702803910028556, -0.3412101346786611, -0.16256758337546762, -0.2988020437263137, 0.1809009373422128, 0.5614422060919961, -0.04315568035079753, 0.5815574737116829, -0.21992574911699814, -0.5072020526378846, 0.7076204857956647, 0.33650263848326256, -0.20054275391220044, -0.9222866612567646, -0.3079436329089429, 0.4483881599655335], [0.08952984084347874, 1.1093362623560852, -0.7712803540734761, -0.23029034175417967, 0.17520900390481842, 0.6170570150364074, -0.6155905673475228, 0.35407057257728325, 0.9175802842027942, -0.3352049115470051, -0.5853584550776791, 0.6768418098961915, -0.07365884033440051, -0.172246875764285, -0.36076641057249326, 0.3766907552130243], [0.9253468346710002, -0.9240056562551713, 0.33931110579535817, 0.509809417539595, 0.8176680866078379, -0.9289118238734311, -0.7878751103728235, 0.05042133205445487, -0.38972026540885674, -0.9814017537948857, -0.7897796943846875, -0.5689487527536754, -0.8966593531168177, 0.09754632522869419, -0.3586815460282615, -0.2248202269705497], [0.8604258405498785, 1.4947765175046495, 0.22979999721982985, 0.776415482796053, 0.4325351665268464, 0.2852825104957315, -0.9688216191208378, -0.10685862292817361, 0.6854181579796047, 0.32225198307042296, -0.41643838721896453, -0.49967279859495584, 0.2933344495263437, -0.055730719068167345, 0.7697921173590041, 0.7027711599973989], [-0.7081296202079432, 2.2145156669036075, 0.43431118439621397, 0.8346895625671965, -0.49867551711283786, 0.9099992885417652, 0.002014577736484921, 0.5468377551654444, -0.14494395103575974, 0.633443791437372, 0.41195181761187794, -0.9004558843396948, -0.5381202109521535, -0.3955291817358102, 0.6945434199897793, 0.4071489629507199], [0.728273394905747, -0.72922968734217, 0.4175271104240416, 0.8384612415851675, -0.7872507842750494, 0.8603838338437657, 0.29509451507213513, -0.2379636093747397, -0.36373848884156235, 0.8548038812225538, 0.9217665673226594, -0.32208125897602513, 0.41139538701631295, 0.5364966881599255, -0.3479515380389946, 0.16757523822845224], [0.25181082395794535, 0.278913090447528, 0.7821617764853303, -0.5760211213597484, -0.42016850810529105, 0.6356466420525893, -0.23927777007217532, -0.7917855483486775, 0.04152482976632304, 0.24325293024622746, -0.47319561702613133, 0.6456740756384816, -0.33394250674350023, -0.44051963293108026, 0.3632168051878939, -0.41476680753520645], [-0.5493830426465025, -1.038866303712756, -0.898722283564173, 1.018715328866747, -0.5023297329751273, -0.1341266667766461, -0.5927335612658852, -0.5341797550390706, 0.6780061674124769, -0.40326948562333903, -0.6755800259750904, -0.811896654142964, 0.6468872220947397, -0.405529545443462, 0.4621684627048579, 0.17295496249424883], [-0.1783318698809034, 0.4179432218539268, 0.6604011313052278, -0.14580592865484815, 0.06882891149733794, -0.9620385481490288, 0.40034384374593507, -0.49342827612318985, -0.1124544585590624, 0.32650320296414964, -0.47313631817946566, 0.7255434004716639, 0.4252091814029406, 1.141171563324794, 0.23650865546128452, -0.3964693654216147], [-0.8582057135921617, 0.1635292133477373, 0.3920450875452912, -0.0729934660809557, 0.39710768177625355, 0.9823222158299854, -0.2888239684452467, -0.505352154534173, 0.8467742418533954, -0.2596036321641888, 0.37279595272084887, 0.10435240648951183, -0.7635623896146955, 0.9940468441270618, 0.36072186621752533, -0.17863835597625388], [0.21376596140960036, -0.990405863419102, -0.46455847090118785, -0.6541576842062009, -0.2681202455114804, -0.25583672454979256, 0.546502824569479, 0.30339404247041357, 0.26306880383831577, -0.11177979227439527, 0.7144390118788304, -0.9842041531466996, 0.6171848009084584, -0.15552491590914452, -0.2704178929760699, -0.04980194427486473], [-0.014597091976330598, 0.35929129658040654, -0.8943630414739827, 0.3436760636565879, 0.22378188699609347, 0.7484798893746445, -0.05247107425667001, -0.12020928688255128, 0.6101803290295762, -0.6971898715480769, -0.052240352456901284, -0.5217942616569735, 0.28332526971126315, -0.7928959244325684, 0.777462167685476, -0.20262129151332364], [0.6038844271559352, -1.4662350115928233, 0.04229157915228911, 0.04252317698102069, -0.2779759455181987, -0.25510937579366866, 0.39338797095078787, -0.7850319743197172, 0.9835985603595652, 0.32138604098328843, 0.8460152641336753, -0.686947230199753, -0.29137427857617215, 1.0456509417791886, -0.060328762939567904, 1.3712477449734473], [0.3211396360129797, 0.3053526788197569, 0.5641236201000138, 0.6280571336794493, 0.5347821031350892, -0.73751067371623, 0.31416616750736004, 0.7044353626334361, -0.3136707561859571, -0.6494921425499001, 0.6767208056653591, -0.6553717563774777, 0.963351501431027, 0.47991746150297077, 0.46369570462006804, 0.01672622367219212], [-0.7506489969969583, -0.24357870251270275, -0.2613502287087597, -0.8471567571434264, 0.8472248934919546, 0.23211875401955107, -0.043698431676691074, 0.28846468061240915, -0.7147953272570831, -0.3006638035020779, 0.9400195458935465, -0.4109818175377844, -0.8689418951782797, 0.21689944472381884, 0.4510812514178979, -0.9005579737446605], [0.1493750537813041, 0.3166500876706911, -0.40577227538573646, -0.47751618698405635, 0.7751661795588103, -0.4788468067075613, 0.41318150998560815, 0.17636934651374303, 0.6206995378106201, 0.6320406601429928, -0.18260479038859279, -0.5641913516430888, -0.5141515174085152, -0.7367087872795322, -0.21781672453917045, -0.16342339648513615], [-0.1703650603676723, -0.4520360074206926, 0.2634829802557299, -0.13167667529554583, 0.9338253395124068, -0.5894555890036135, 0.3441990030300819, -0.06457274401494928, 0.389023225679922, -0.9922296943926323, -0.8496619150503049, 0.9539254061194473, -0.2908864343196915, -0.9187476040178404, 0.6226241019240708, -0.3969642636272077], [0.8575668460251021, -0.8489642030326328, 0.5103872298694024, 0.2656175789923694, -0.10456976986500743, 0.8734750689121678, 0.10622034776006142, -0.8129722659449785, -0.6884608857477956, -0.1697210684325621, -0.7008653556670938, 0.07056587290393068, -0.491050029933914, 0.4521802805943307, -0.19521050294075204, -0.0888390041023035], [-0.54539153963784, -0.053191172545208554, 0.3632232259071743, -0.07493918257831172, 0.17870346946140048, -0.6456489459273924, 0.48974695304780996, -0.40117637891086155, 0.2715524488215797, -0.04582602823925426, 0.8614215179258515, -0.16932959169474593, -0.9814391240638043, -0.6206392336527997, 0.9326397872045302, -0.5069169833344926], [-0.02249932063346059, -0.8099946784114163, 0.9266520379321497, 0.2346146463769105, 0.08246426298844178, 0.31299588292668523, 0.43789650155575727, -0.6407197151653592, 0.1578454842794397, 0.7783767077679794, -0.8218391263253324, -0.6402381114892728, 0.8581195200524325, 0.11502464846704023, 0.06128914321725021, 1.0578139100360386], [0.5995974088872648, 0.34026946236455435, 0.7037775994626118, 0.699693307125202, 0.6340548402549324, -0.7323757440700549, 0.6402398864660263, 0.22871091441471503, -1.1414265907232646, -0.3599996575616345, 0.03186640105235794, 0.04622558447058056, 0.99257477362106, 0.4354978241085318, -0.8894566758665292, 0.4723061094967134], [0.8368588051505024, -0.4969831611779023, -0.6481167345631791, -0.862031800782354, 0.7296104705959554, 0.4939103461668377, 0.1988502958417655, 0.5995264136132841, -0.3263670243579022, -0.7601230989871017, 0.38309242288537604, -0.34022174866585053, 0.9952514690832248, 0.2490942411246182, -0.13612999919039126, 0.005560465954610683], [0.5581645457256097, -0.3114141010808762, -0.029590234029253315, -0.21867885526106878, -0.7919120637929185, 0.5041559964251183, -0.9475439756303783, -0.35786064731185685, 0.32208056517598993, -0.3944401456509845, -0.29096570651841014, 0.9626217898794829, 0.5745973163204123, -0.5256786896415593, 0.8543912298222418, -0.2821860283427071], [-0.4085939554598739, 0.3510001828583885, 0.5375801051425144, 0.03837365328857655, 0.3273518173969443, 0.9127086018588733, 0.3852364220402519, 0.5269471797721874, 0.2336852906303542, 0.4447931031710903, 0.8930314819576148, -0.4186125955254525, -0.11597869195756827, 0.1912706713115471, -0.6313194970516449, -0.6825151019437851]], "bias": [[-0.9522852772988115], [0.22295796654274394], [0.05441194138369178], [-0.13415588560585645], [1.400917901718907], [0.7612323395370647], [0.6792625646932147], [0.40216143288434536], [0.27544684823606297], [-0.9434860239966163], [-0.0007888359616252671], [-0.9300140999583135], [0.6617399630030592], [-1.35459222686429], [0.5237315073272217], [0.8488715723406537], [-0.2818932752045826], [-0.1070406456729682], [-0.1954663267281343], [0.05284272545999909], [-0.333834376358405], [-0.8480319791749757], [0.41139438358646596], [0.07061263101893876]]}, {"layer": "activation", "activation": "relu", "activation_prime": "relu"}, {"layer": "dense", "input_size": 24, "output_size": 4, "weights": [[-0.663938219542678, -0.09839473782944988, 0.533482818984746, 0.8489534624025091, 1.0111167020613756, -1.068944417421373, -0.9841667011232574, -0.7824509325023938, 0.35651264751676154, 0.7224535295679417, -0.8509897222277649, -0.08600910505665116, -0.8225093697850179, 0.32948066785538654, 0.14607134423657953, 0.8352025450295445, -0.35320085530989975, 0.6156622052807448, 0.06819236096836767, -0.9807813927260857, -0.7323480970386725, -0.13527214996262416, 0.16492604182614445, -0.6769146711137342], [0.6384517239746774, -0.4239059751320918, -0.05104120538283067, 0.1000728107083721, -0.8166521674297006, -0.9356139880145193, 0.994780727232011, -0.15355951820716607, -0.7853452050308601, 0.3071768741138261, -0.27860233691388725, 0.5011730877161381, 0.4228686443316573, 0.43136859396003924, 0.20475186798244271, -0.6850317480050034, 0.1797285115139473, -0.6041477113212647, 0.22224551035932652, -0.09519194802484503, -0.8895120481571633, 0.1588030881170326, -0.5143370617886707, -0.06525106008798363], [0.9575701310230822, 0.19555394989609934, 0.06932632835146595, 0.0912931347377297, -1.1022346284619147, -0.12799268972691938, 0.6744900232675274, -0.9208919136513872, -0.879571393301023, 0.8210791859853539, 0.32713830295390145, -0.07199074594433023, -0.21581512905572306, -0.24807439350329624, -0.3780964314968891, 0.6906859543210492, 0.41485222188909865, -0.580416549020608, 0.6639266936024943, -1.0938519803896232, -0.8620557883469825, 0.1901793413802546, 0.3811043282275166, -0.1936464466474823], [-0.9377555440347622, -0.897014124179844, -0.29199093754419114, -0.6393621445492964, -0.6637751972770559, 1.2026502692161367, -0.04195815792508722, 0.5328501722804359, 0.517953078450577, 0.9572428940261861, 0.46962461909381026, 0.20433962580033715, 1.3516054484743485, 0.9860882826735649, -0.0603608472713848, 0.3155212650636733, 0.43103388969116696, 0.41055821319709307, -0.45406402064712736, 0.3154874005637245, 0.14647306748847558, 0.7438061842196919, -0.6562771286327422, 0.04106599102645743]], "bias": [[0.476705569845754], [-0.18482338168373166], [0.2452049630884001], [-0.002883333221695714]]}, {"layer": "activation", "activation": "sigmoid", "activation_prime": "sigmoid"}]}