{"generation": -1, "fitness": -1, "board_size": 10, "snake_size": 3, "input_direction_count": 4, "vision_return_type": "boolean", "network": [{"layer": "dense", "input_size": 16, "output_size": 24, "weights": [[0.928317206865242, -0.44081494849148317, -0.16826382908310045, 0.06313815174201935, -0.7572701846403342, 0.21653282052334033, -0.7736176457487854, -0.11298868136998363, 0.9184939956074467, 0.6493213391426781, -0.05856132441739792, -0.7996021675319421, -0.2702002174754663, -0.5625443305303962, 0.7873919199558839, 0.36312951770482926], [-0.8295967613966093, -0.4468454872229104, 0.975612153999488, -0.7978135315461262, -0.004954983954422287, -0.955156020645088, -0.8632978316404171, 0.21627063222615583, 0.40037884972998783, 0.05896145884995318, 0.33850162748135104, 0.8349855288422242, -0.7133848235694658, 0.2277736209719358, -0.29233054555548477, 0.17907838120618114], [0.9540663238042615, 0.1676797546099975, -0.21742277056992543, -0.6969436979533654, 0.8811180470353082, -0.3769467554081072, 0.03748784199405067, 0.7324570818774043, 0.7515125042939788, 0.03835928130034546, 0.20720305775316117, 0.29990006730558444, 0.7088599765359933, 0.022525513015163943, -0.06858315956002148, -0.9442460165841275], [-0.49076488737748913, 0.570579536474715, -0.8992986958708589, -0.7370824743419454, -0.3323425613139792, -0.6506589002359591, 0.5315134437951671, -0.7458594894773931, -0.1735287168185362, 0.29700989154431945, 0.044620162111015826, -0.2720152753485347, -0.7964080133619647, -0.8106418687891542, 0.6752044080517063, 0.47003738397111183], [0.3159609549336525, 0.26656927866833846, -0.9734109254182315, 0.3124667438139216, -0.6732390055112947, 0.685556665188602, 0.5899612883562637, -0.7251799536118793, -0.3611457216655598, -0.7613854215506494, -0.6252057597149121, -0.39835030892321177, 0.6765480123754426, -0.2514634897911451, -0.40384744833594355, 0.043038903095957926], [0.8034400996522676, 0.9639333889349526, 0.35705286739812303, 0.17273847741253773, -0.3484230425035799, 0.8999694249276484, 0.9556191985886495, -0.7736194936848917, -0.6308369479822049, 0.8485019417849579, -0.6141257341298427, 0.382050925658071, -0.9191879549438016, 0.9404894975866673, -0.6645042682190581, 0.8330151335481579], [0.6741080873067978, -0.5810901253133052, -0.49134014064249354, -0.21320865604275652, -0.8615667664372166, -0.24238350618951765, -0.8701433512979702, -0.8292779308219147, -0.864849487689874, -0.7518221491295444, 0.5450243229882781, -0.888336016594764, -0.5326224196874891, -0.6783828334522075, 0.048621468287484815, -0.014458144486584557], [-0.0705596485736005, 0.06951085909440535, 0.9993198069306193, -0.03730098014702358, 0.6865365762649456, -0.3553862877102747, -0.8001752281860998, -0.4094925142659822, 0.09508955685383125, 0.7559725017583436, 0.5297294152096252, -0.16040188266555613, 0.9877160267468215, 0.8391506854189902, -0.8366679535845591, 0.11088296754183236], [0.6091635613740038, 0.9532748143516221, -0.3833105447382896, -0.0789923166409439, -0.8870996991230646, -0.7245021188334368, -0.22265741981871304, -0.47959679976357816, 0.1737559702335134, 0.49408456728596317, -0.8519556259807324, 0.18498973225599166, 0.5253212061096562, 0.334879704743948, -0.46284845924081175, -0.7698096016297851], [0.8551195048645192, -0.3132426964720283, 0.3699036257562409, 0.1270048374704738, 0.5347328401924074, -0.3948420579124521, 0.8183649759253391, -0.7389522523162981, 0.6258153574251208, -0.2584603935939704, 0.8854164924380394, 0.13353324381610948, 0.0970663497594848, 0.15047100242752648, -0.7328909406394568, -0.6824841098794352], [0.626005728503801, 0.039340987752086054, -0.6674382112324937, 0.3350907734210138, -0.15130063745998457, 0.7908413858428713, -0.7146024730400694, 0.8097014027499203, -0.4085328477383945, 0.0263502822668209, -0.09869534131300828, 1.0621288445344608, 0.40140650985970705, -0.8890787589319721, 0.9102665571718542, 0.7148149417407885], [0.9494644771881301, 0.6631864880946994, 0.20832191046871995, 0.05166034685444636, 0.4068364701472691, -0.1534201722995192, 0.40199140113042375, -0.29797123166946227, 0.9901283528256077, -0.5791261733212992, 0.183130367700733, -0.2008062505045591, 0.2867170024214727, -0.13147418625153426, -0.7270076020305982, 0.5048257311539226], [0.18029259914981186, -0.950566124461238, -0.5557192555271375, 0.8409341998639271, 0.1242901974711792, 0.6979971628272672, 0.39825333428457643, 0.1839161639675213, -0.41192478793685083, 0.6296663334167331, -0.6861508949550035, 0.5870222457004936, -0.054395195263507556, -0.6800243427890432, 0.40042182480511346, 0.03889728270416537], [-0.5799133625590287, -0.8860184028927762, -0.7981139948647342, -0.49895088906163465, -0.3629638313845647, 0.4390535094964856, 0.5216130602008852, -0.20630876033157142, -0.686987022630738, -0.3277805005046566, 0.2616141852332141, 0.392099968667735, 0.10713191398830113, -1.0414662771577683, -0.3439406210515348, -0.28521040963121425], [-0.7525214808303758, 0.7368494724053971, 0.34834293748522427, -0.3693735285113138, 0.1808850852786188, -0.059568714023972014, -0.6093006985723481, -0.15449319164324438, 0.04484112800322215, -0.7897338625868114, 0.22056914249746362, 0.5017355144364464, -0.6051216125288155, 0.6442712755686966, -0.5917763115242571, 0.758138841445182], [0.9749930543346952, -0.07161449809997822, -0.8764038495258832, 0.20622265795280317, -0.14367490082366396, -0.5389367694454954, -0.8048089647450575, 0.6808770470679859, 0.9863310097839186, 0.7611153788811496, -0.6846893561358887, 0.15146371581694887, -0.9472857427937822, -0.4629357203333207, -0.030031424082428204, -0.5311924770068559], [0.8621821246147107, -0.16251408182990512, -0.13330447934709988, 0.10988423820778005, 0.8873366817898793, -0.5833086492094581, 0.3346109035341777, -0.8448289581148323, 0.192576504654556, -0.807011838306331, 0.005657111595170017, -0.07882262503910063, -0.5530318293353527, 0.944187980077196, 0.7458121706611982, -0.8723066994378101], [0.46012382679032576, 0.3135257238487028, 0.6330895357006312, -0.1114914203215964, 0.5650633512682304, -0.8236739180315986, -0.8902795055601689, 0.7850850660445232, 0.9505769626359164, -0.6238149548112699, 0.7476885449738133, -0.4054771196293947, 0.08541511497602183, -0.8798854551920892, -0.011924681260434111, -0.3798488029075002], [-0.050455597662944315, -0.6157775979480433, -0.5682368998444918, -0.298186162946842, -0.9952117092866368, -0.2409964747614366, 0.8123416349298539, -0.4595310786690525, -0.6989286138738344, -0.3547361893439193, -0.5562507974741588, -0.5586764739395212, 0.26915930254049947, -0.1510118309124708, -0.19248355339404766, 0.19123628420650118], [0.9820935995978304, -0.6054588034783874, -0.052481522247112444, -0.957945342220935, 0.7918246235147888, -0.3391024984111415, -0.12022766509629611, -0.5615386447784141, -0.44941958521925773, -0.2933109836975866, -0.28253758795611317, -0.3104855913439829, 0.4640032734631052, 0.718177844474885, -0.9730621812884204, 0.5369940603314294], [-0.536964212653589, 0.6363822775476184, -0.4925208820436062, 0.7294580774288313, 0.44100062905776327, 0.9961133344151221, 0.9176393343170797, -0.25252506105475914, 0.8820677769666052, 0.938078569173791, -0.11712328746898626, 0.3657913072928968, 0.8224750515748498, -0.1683009579722473, 0.6895378941660595, 0.9237710239341659], [0.10863969217226516, -0.2785631584348811, -0.1648201890655867, 0.8591726778548904, -0.07620680079155129, -0.3865998911912958, 0.8660848474667414, -0.1876084485267564, 0.6347189823045805, 0.7250322956907747, -0.6737675971788086, -0.6893471693645533, 0.35190774762366583, -0.39268623542725045, 0.9303793912823985, -0.1934525290946596], [0.6489558216323104, -0.49310369772421403, 0.5913459776112762, -0.1923900022875576, -0.3241126516626158, -0.8232370759571963, -0.7424250950196809, 0.7263851004691708, 0.6932395711958901, 0.9864052651221884, -0.7960192392945813, -0.46620712299311257, 0.2988538236992917, -0.5536536975459128, -0.651206583023737, 0.5775847094926814], [-0.5861594757362601, 0.4431328204832734, 0.8241462415262826, -0.6995322402768984, -0.33077545427302346, 0.6432920609403212, 0.22739008246692508, 0.05255978861285304, 0.070240711785863, -0.7439535334783677, -0.5341863242896285, -0.6841737645616173, 0.3166262795289996, -0.11647314464037621, -0.9027894498131777, -0.8558656989684863]], "bias": [[-0.14313901119189082], [0.8508759822605839], [-0.9366077175209508], [0.8063838014710613], [-0.7459430290067446], [0.3330573334082757], [-0.4860962704581921], [-0.08683587317324407], [-0.4568893530248468], [0.06592983391171856], [0.5150889461996634], [-0.7822985507875451], [-0.6692219896204724], [0.41655175128372457], [-0.04584437475974036], [-0.6462939382369409], [-0.26125389441071795], [-0.9069403171693606], [0.3452458539626409], [-0.02936116739089756], [0.5847624988055182], [-0.6943780669139586], [0.7076859945024241], [0.4955477631943094]]}, {"layer": "activation", "activation": "tanh", "activation_prime": "tanh_prime"}, {"layer": "dense", "input_size": 24, "output_size": 4, "weights": [[0.8574088643223644, -0.5608096051058739, 0.8323743769331318, 0.18036909860699468, 0.4794936428021027, 0.7323952604545515, 0.6776258157218031, 0.7645758532730951, 0.24933333843724978, -0.1857110909095673, -0.5465196082982394, 0.33234120771591513, 0.6789103751552983, -0.8602501742283745, -0.15215881270460602, -0.36829118029226243, -0.7889719497457337, 0.4089451969576771, 0.8937789132790013, -0.31280476687011477, -0.8431415623777602, 0.7101100763190372, -0.6629563957963864, -0.5955020993832517], [0.2816775473197697, 0.4122949024347265, 0.7708861597688402, 0.0860040239433651, -0.23908235131651795, -0.3405153980579167, 0.6605625959200075, 0.9786598252858549, 0.5400682393212582, 0.43112566333604424, -0.9896049869551741, 0.8657676818532903, -0.90360322113929, 0.7468657166432149, 0.23961793091610806, 0.06278875671055996, -0.42409092191853726, -0.669375931340862, 0.7838666739703837, 0.21836341088176056, 0.3267045588544873, 0.24446893401989223, -0.2799211435326252, 0.018978017205877964], [0.3587137514929052, -0.8427458535367789, -0.5206911330419506, 0.67206798560236, 0.01919468313986369, 0.7706386099891528, 0.4441163669752348, -0.5514050827138801, 0.6686721883954656, 0.891608553868768, -0.1417746652041987, -0.10208628775135631, -0.3797129325506741, 0.6721014983940876, -0.6380378633156402, 0.8270306983477732, 0.5057246521816087, -0.25831414023379906, -0.1374560821624801, 0.9751760524918643, -0.9567133615439433, 0.7210835214762256, -0.7132467811548187, 0.6775567124919312], [-0.1364108321342811, 0.5313506482901911, -0.06394933192797478, 0.2918948796946257, 0.21427989909227904, 0.6394187174803668, -0.1637042415688123, 0.5866521554463082, -0.39939783322961503, 0.9333205725854853, -0.6408129525954988, -0.7339332875204314, -0.18156746136160729, -0.3818286719162801, -0.44783326424166137, -0.8873334259750595, 0.898575619451612, 0.29723846140675914, 0.03321488421399183, -0.7053689347917982, 0.12029720592437272, 0.08546603592514253, -0.6201510404882499, 0.7484351463346499]], "bias": [[0.016619896252030617], [0.046529796663260105], [-0.9947495542796776], [0.1934192808969108]]}, {"layer": "activation", "activation": "sigmoid", "activation_prime": "sigmoid_prime"}]}