{"generation": -1, "fitness": -1, "board_size": 10, "snake_size": 3, "input_direction_count": 4, "vision_return_type": "boolean", "network": [{"layer": "dense", "input_size": 16, "output_size": 24, "weights": [[-0.6538517362144279, 1.1219443589331073, -0.1331627338348229, 0.9287269570152185, -0.23212830975136134, -0.5101149379018981, 0.35027691010862294, 0.5882600383244245, -0.3589667273915036, 0.19964407589090477, 0.36594119268591974, 0.867112319187112, -0.27354732882148136, 0.7211667432387728, 0.9682005688689883, 0.21537830590256452], [0.560530275117735, 1.0361703589895719, -0.02090985029398208, 0.24346417745133941, 0.5903237195175266, -0.752073765444877, 0.5900071902742077, 0.9766559829748984, 0.3160517790385701, 0.18285675042544214, 0.00786522013517077, -0.8670780975919679, -0.45291345630489044, -0.5598891614545538, -0.7669615331307413, 0.7144522082407282], [-0.7373050346620638, 0.02802085671758521, 1.0078151076184783, 0.731705943380083, 0.5924733237376136, 0.2094276740990384, -0.35730197443563333, -0.9998940697160765, 0.4490395820812801, -0.13445965015818465, 0.6628630097677022, -0.1921817301080404, 0.8483011740784454, -0.5088235629267931, -0.040737916443371214, -1.0136253010045269], [-0.28861821385203423, -0.7416850092147423, 0.3814824666281278, 0.029350259075511167, -0.7691892381507948, -0.9938324225506605, -0.5995702665800487, 0.9869976799997024, 1.0279048066752843, -0.9611450842724055, -0.026677477310910636, -0.3141677032725656, 0.5206831687013231, -0.7550782057608683, 0.621352626953138, -0.26350903566912937], [-0.4278833382017946, 0.18495724787766665, 0.12236660065561189, -0.8723245715871548, -0.3262859503075317, -0.28095393703910765, 0.22584706061064752, 0.48799859625681297, -0.6330101710411835, -0.4737077904031244, -0.40146839079640584, -0.964009978715636, 0.9378077759340262, -0.22476532157854745, -0.4089458610304064, -0.2154808307281908], [-0.15939706114892496, 1.30399226775788, 0.4870772874903092, -0.789471478840482, 0.9357526129664437, -0.9487026973323749, -0.16572559780139354, -0.3114280087790773, 0.19708212574688383, 0.6409676590526968, 0.25698434490720246, -0.9760703247731033, -0.016651062726491306, 0.04072554964493254, -0.44558122891428975, 0.9457759179185454], [0.19821729415869857, -0.6308628155454886, -0.4254780986628308, 0.4715642151258884, 0.5378184020232275, 0.13489012167009262, 0.5481995836967629, 0.9524173466238053, 0.8565976413500261, -0.7333473753505123, 0.30760199076883343, -0.013518388484682342, 0.44418476528743334, -0.9278056563002766, -0.07424576611832401, 0.02346170242164316], [0.7137460455949004, 1.2616974327024593, 0.04174134849800559, -0.5068912419043766, 0.7218145957868276, 0.0036042637906834596, -0.41424367638782883, 0.9914455106260114, 1.0906507671044565, 0.8044656329645514, 0.24027400085846495, 0.8551485038013544, -0.2957213124258242, 0.2364221833049687, 0.7446817081353612, -0.3508323777878166], [0.09738817694055309, 0.32442050039967585, -0.7691547485656316, -0.9630386743118248, 0.7927690759205341, 0.43238206568797355, 0.07082369053828264, -0.3892139575049802, -0.1458158546924435, 0.8747708662549474, -0.037324950862402506, -0.7499432675579087, 0.22684177789293036, 0.6273468953431671, -0.36467162075622106, 0.5869487587439052], [1.0181472149991575, -0.802583806398117, 0.37953216572478904, -0.608174418395666, -0.5907167141120675, -0.09416126078287923, 0.46570489822699557, 0.9860385574638038, 0.95398937940891, -0.29068335267194134, 0.19395193720234483, 0.44345498510394243, -0.4684786411060118, 0.810100013921634, -0.452200119500217, 0.37443534381317917], [-0.6850242917444045, -0.1098143130279976, 0.13110263545790712, -0.15020122306716133, -0.8615070483302478, 0.3425678330869564, -0.798180642606423, 0.9839488078243692, 0.5418585546135968, -0.8807653054532278, -0.5919876245207019, 0.6565184845206207, 0.7289400252382368, 0.7260826352474948, -0.7777630245479081, -0.3504798931355111], [0.32743428163063837, -0.6475369950315599, 0.4890729674968559, -0.3532953237002603, 0.2701249667364307, 0.47082913808376436, -0.47844631636540824, -0.6628445195552037, -0.3016791962082981, 0.8132089369522697, 0.4336730366490371, 0.3561798372172158, 0.9051519840622086, -0.3652035376406644, 0.7779153372088057, -0.8263697888350188], [-0.45853323935558166, -0.08788899402983552, -0.30623469888012345, -0.9912684198608159, 0.1436409855286458, -0.7306399316338645, 0.3593850740195301, -0.9586976492003432, 0.19801800442564832, 0.19805758848661115, 0.21275817213118442, 0.8477104723935411, 0.7234207092703311, -0.6134600142146911, -0.46212308139236025, 0.799080912307093], [0.5306860025674776, -0.026388028312287638, -0.39948989228915305, 0.6568120951966903, -0.9000284983030158, -0.016123879392436757, -0.3137287894252317, -0.9737724206429568, -0.631248339921135, 0.8696929028324876, 0.21729837575477284, 0.1493828914612454, -0.805589580084757, 0.81880148939822, 0.46275695506607395, -0.5903139443918974], [-0.7942302249026503, 1.3400871358641966, -0.568910280951048, 0.22455604405681898, -0.19945665457224337, 0.8848783698503235, -0.05591508569416485, -0.40215319862035037, 0.9830992849710449, 0.22901942706165365, 0.06276759059350945, 0.9837378645014183, -0.06319662468535236, -0.8326718780717113, -0.2988592439876314, -0.08670080274313266], [0.8034459257173215, -2.203536769482549, 0.9316138649917307, 1.6174715602285266, -0.566912444551184, 0.6961632906214534, 0.12794507382004636, -0.0614180558603854, 1.4438957908361378, 0.13266496265104685, -0.19789638072373195, -0.4531328847246281, -0.4897960062993483, 0.1204175275565976, 0.06942201759172839, 0.10381868294168461], [-0.421518042631858, -0.2174281881588192, -0.7811993292427386, 0.43535066326492017, -0.044441416917791576, 0.9237746976537546, -0.08233186729474933, -0.7539153873339397, 0.06272063446869347, -0.7145967688520605, 0.27649393755468155, 0.666079763068917, 0.45245945717365443, 0.12323586818747057, -0.5310320878767156, 0.8854061356074399], [-0.2931539011403717, -0.18933926359191178, 0.7573554031641274, -0.37571700268337377, 0.921098978998413, -0.9703413972382604, 0.7271577898572268, 0.5115919948309462, -0.8028533175759811, 0.9332227408775172, 0.2504099497394212, 0.9377241441088502, 0.42374525084472614, 0.12489682120049825, 0.3956836559199357, -0.6794233515960815], [-0.346693346817039, -0.4953748838743026, -0.37190221605830587, -0.6253103166382006, 0.404722377877373, 0.4334040977660649, 0.7847031517961491, 0.8104468603677193, -0.7016480741854918, 0.43359331763766207, 0.3911986801399081, -0.5550434739675669, 0.8939612832305697, 0.07604124820020375, 0.8056561158910163, 0.057736424344459136], [-0.5422229952694333, -0.29177620557710515, -0.16997183566827734, -0.41177225304535314, -0.5334470121850821, -0.33253354329821194, -0.06651239641938966, 0.579517847796275, -0.1147836867932186, 0.818022170460768, 0.9982366100576512, -0.889824755540197, 0.36187691985074233, -0.7348866049290799, 0.3267757141795622, 0.2644380374006854], [-0.947188577008838, -0.4438944992106697, 0.6665226041136608, 0.4535713359542369, -0.20995983250127725, -0.23609122308272568, 0.22486364688261984, 0.6998049520409078, -0.22546798817626978, 0.30345276415813005, 0.212354222656445, 0.03130949908646019, -0.28288520355274205, 0.9492774054708207, -0.4829011678016424, -0.17316484894697348], [-0.4278351075029104, 0.684383811627695, 0.7063590019584562, -0.1595457753003194, 0.6587775892934311, -0.029733835572560263, -0.6090954224624696, 0.7843732709842437, -0.8172654704753879, 0.8498999970811747, 0.9328832409677192, 0.925895628550089, 0.3251365138548048, 0.4183912789391989, -0.0951095054471387, -0.7068087077234939], [0.4010117622253757, -0.7840082161140007, -0.03226388473824378, 0.9013989735346339, -0.015269666051905606, 0.6740861309880486, 0.35939314336995526, 0.18391023475349377, -0.4964599047576612, 0.31453012331501706, 0.7049444411281918, -0.3796369297390476, -0.5762049709408519, -0.8243370616656573, 0.13203128237882056, -0.8402411318890397], [-0.3289780770963473, 0.398352211374443, 0.11919234141185715, 0.10053335510243865, 0.5188000115419105, 0.6801829259644194, 0.5757924672830812, -0.4661848426908104, 0.3805835992046224, -0.9309883676598315, 0.48983416469225594, 0.2209684135482033, 0.7318606809284929, -0.3267436433796575, -0.967645877505624, 0.4166568995370647]], "bias": [[-0.3487912216466749], [-0.06907253989038067], [0.21993543271224], [0.4768205404328261], [-0.8038061837168071], [0.7675203552762802], [0.039173489761048404], [1.1172209547548817], [0.8438429672783677], [0.6315101932748023], [0.2571889988959772], [-0.3798998177303212], [-0.18661883035987548], [0.6979620792583288], [0.4738605351462151], [1.5225939381005464], [-0.7156137699531726], [0.5304974154708015], [-0.4516547102938395], [-0.7399174246415658], [-0.20136194739901575], [0.28330430569294396], [-0.4698187691334688], [0.5165844702467935]]}, {"layer": "activation", "activation": "relu", "activation_prime": "relu"}, {"layer": "dense", "input_size": 24, "output_size": 4, "weights": [[0.9108151809762689, -0.015057738590652925, -0.3647592402301734, -0.42262192997137354, 0.5094098733414649, -0.141025560560509, -0.07669298105159152, 0.832709625351997, 0.4891982812618336, -0.8353627378194793, 0.6422380857961187, -0.9484484780897122, 0.28030211409465333, 0.056725955342354674, 1.020430480680939, -0.947608657140458, -0.3068070860008796, -0.6182509879052914, -0.42910107498506544, 0.1984906717572743, -0.9022175891872762, -0.0445760852402586, 0.17147597038100323, 0.4148686057954804], [0.22753387670066746, -0.0036883503472088385, 0.4633207236000609, 0.4990232032135045, 0.2803454912172487, 0.32693631115410865, 0.38966763290638695, -0.4478622620049966, -0.8164468878683666, -1.1773006468084122, -0.8490663569577259, -0.595723832488575, 0.9901115055501599, -0.489639220265404, -0.5090643198262398, -0.414181793337617, -0.9766236358360587, -0.5708902189692473, 0.2758217427189351, -0.7101537764897896, 0.8041563169785901, -0.7691477538731102, 0.726378241172937, -0.6186020518445434], [-0.7827330417716066, -0.9873286736816594, -0.21783810085764024, 0.35202277951317473, 0.9309546726128626, 0.42404984812839125, 0.25736533802903533, 0.2806247255806025, -0.509685415185042, -0.6817010054080144, -0.20660541240723826, -0.37338286379103613, -0.5196747126200778, -0.1930588374912817, 0.0735655547994372, -0.18237704858021667, -0.20172024506202524, -0.5654835640350555, 0.7303574767006733, -0.23052408992045215, 0.4715223155973619, -0.09778528567213779, 0.3120410784524378, -0.5789911811037833], [-0.024356565161585478, -0.8850285457590789, 0.12702078094959984, 0.4486803404803359, 0.814399410018871, -1.091752084361886, 1.0905529678789836, -0.4656126359806253, 0.2385231541130542, -0.17297528360294057, -0.9744417459909097, -0.7633705565182587, 0.7957638898895554, 0.5627239906274274, -0.6629242198003631, 1.2117964831063308, 0.8966691961583064, -0.312800733892105, 0.5533277869555198, -0.8578017954650836, 0.7293887103356209, -0.19787025963400204, -0.9472867008039652, 0.09838677740670215]], "bias": [[0.4453587805373399], [0.23669218844597925], [-0.31156070013788295], [0.8565398722789547]]}, {"layer": "activation", "activation": "sigmoid", "activation_prime": "sigmoid"}]}