{"generation": -1, "fitness": -1, "board_size": 10, "snake_size": 3, "input_direction_count": 4, "vision_return_type": "boolean", "network": [{"layer": "dense", "input_size": 16, "output_size": 24, "weights": [[-0.06973511454619022, -0.7755397785013864, -0.6447252421785055, 0.6320626648844154, 0.8363900734926604, -0.7715627918012744, -0.2288263887218301, 0.7199219842010669, 0.7468159291965986, 0.5760959656940504, -0.6192825268709816, 0.5088391434437138, 0.7832202982314806, -0.47481066413027173, 0.029054956955736122, 0.8620042722624215], [0.15440346526629548, 0.27624303838637987, -0.041872437663291295, -0.19061142865829495, -0.6858298332769417, 0.3163721191354125, 0.5950141792639985, -0.9351703058807741, -0.5461807874041371, 0.09333772279487255, 0.9593038578835125, -0.20446365732441873, 0.9502533126572861, -0.3647540386169767, 0.4733584467943954, 0.2629240642164965], [-0.9343034347205185, 0.5557135062133858, 0.5550092793895107, 0.9480259429697292, -0.17339486880570965, 0.616494306670464, -0.41233823283824156, 0.8302957186426263, 0.05294969436656283, 0.6942196217555753, 0.48007198834194953, 0.967938823535781, 0.10124969381760907, -0.17474448421776564, -0.1549269562448481, -0.06009220523836545], [-0.15181145764086199, -0.7580946949904246, 0.5459774706405203, -0.37943450010884894, 0.7084657077036192, -0.299412893882681, 0.5851469236351557, -0.08612534081706125, -0.9655458532103998, -0.2879803137963468, -0.14043135839027987, -0.8744290454814335, 0.6519924716502348, 0.993431338175749, -0.8166223864181714, -0.16303238541980702], [-0.956862325734201, -0.9941899370314919, 0.00178964207175758, -0.5128020473130629, 0.5252628829109249, 0.7051901033453527, 0.7627745330738659, 0.030398249545853462, -0.14100941786234622, 0.5083421054049235, 0.5515640104610036, -0.6315697310973011, 0.16450072972364804, -0.7682962316588425, 0.8982124821939068, 0.18177442370737462], [-0.2614105414714208, 0.5198304222926231, -0.3353446776288731, -0.3486712982418959, 0.44006852660727414, -0.49238739920230823, -0.6748149574325751, 0.4986159199744322, -0.9552968741772172, 0.20914568155458502, -0.38193584121529534, 0.21467521726959257, -0.529275230968751, -0.8180452724734583, -0.8806078221388909, -0.20417540451569316], [-0.5309838880766251, 0.5679016449988186, 0.9821514153027275, 0.39880611315933495, 0.6459434031812519, -0.590000825523346, -0.33992672123238604, 0.905896831006914, 0.40152368847078024, -0.6607580913582791, -0.9881706809712982, 0.20106369087634715, -0.8772823226247424, -0.5768871881823057, -0.5007926991083396, -0.6457967971847254], [-0.7159183621407705, -0.4797233804471972, -0.7365415448505652, -0.022631248278666246, 0.4703079503859804, -0.2839153956451026, -0.29820558714660794, 0.9339686597194317, -0.7244806001834545, 0.888873750383312, -0.35377746122769005, -0.36503684214974264, 0.27733740192021084, -0.8995583486113256, -0.6544797972610414, 0.8651625936181686], [0.12412094763131183, 0.27162051152206024, 0.2411387983931952, -0.6463052978180791, -0.03969158471086964, 0.8216587529164794, -0.3047136300805263, 0.17710975665350404, -0.24429530470505023, 0.939162925652701, 0.5869144983927153, 0.5461585538405643, -0.8512323558591126, 0.5706780016503176, -0.7063159008907371, -0.24459799832322848], [0.3713720124644501, -0.9194280506786596, 0.3118861665896808, 0.5526169347246672, -0.6658206089201935, -0.7557670631469808, -0.19242753601373855, -0.7891441401283281, 0.7075540351683616, 0.6204081842496957, -0.7454061988695497, 0.7836617805242996, -0.3479727635210075, -0.3842635188582993, 0.744469977834836, 0.4943282895027161], [0.05183206920528634, 0.430462287874007, -0.021288196762963674, 0.7453356676936501, -0.25189205361113864, 0.8002326505601884, -0.9603157592040069, 0.9315256065686568, 0.7229333265812798, 0.7908007819716453, -0.4838805544124636, -0.738791810470823, -0.7172901911252347, -0.18559107917530004, 0.8993542204903808, -0.7085175401960981], [-0.5411776656620034, -0.6360332645425681, 0.6184224070448809, -0.832106668710617, 0.9006168968128694, 0.4303786752772534, -0.3915372908089002, 0.2382954311321115, 0.8493676185279253, -0.9816720287237614, 0.285372359361002, 0.37158830412732924, -0.22998721412207224, 0.050281742529855705, -0.036596508538871086, -0.5447609495810812], [0.06265267513956145, 0.5275448471167217, 0.19369597299765173, 0.46972319860813727, -0.523784221497662, 0.9525141977946945, 0.9356980903717961, 0.1249331035669412, -0.16294663499072315, -0.05229629703829682, 0.3168377752427167, 0.8043339017476795, -0.7916242501330184, -0.6416600735794015, -0.5880512580464137, -0.04310327116867452], [0.14788851288379584, 0.9610735281338434, -0.567922948868163, 0.06259246059366606, -0.9798581131754531, 0.15346472562319113, -0.969282273869568, 0.2987750310844599, -0.2529639634778178, 0.3716859386386781, -0.08684908265697477, 0.38644987620789806, -0.9775249018127787, 0.08612425413328959, 0.18326896832418016, 0.07089382775887976], [0.9110557543251696, -0.6152286147292299, 0.21187381894438317, 0.3814168458744912, -0.5353957409101009, 0.09570129803530336, 0.3587293620184192, -0.5640617285978506, 0.039908417211984126, 0.19241966236652458, -0.13817427231462864, 0.1268903051348009, 0.14190207573439406, 0.42266405696237486, 0.7040957067669971, -0.7331239058150958], [0.54738593187088, 0.34099196794824005, -0.02631721947763732, -0.24419276850750016, 0.5807751441399931, 0.8560433700551549, 0.14725420825539748, -0.43780655436111715, -0.561964329373773, 0.39010652676155455, 0.5521318064482461, -0.8946252687690047, 0.43437692842739506, -0.6997761906179797, 0.6100190125995963, -0.9818562949104406], [0.5289485418662032, -0.49519668371079684, 0.7078424444125808, -0.7880197287148736, 0.1043165627742999, 0.19621214558984157, -0.127805903010118, -0.5328276084320756, -0.6697536096042183, -0.5628281716097143, -0.2945559118554171, -0.10205044975300931, -0.5597215190044793, 0.5172028175198926, 0.4875998913126278, -0.5124724684461182], [-0.4955602700670348, 0.7718454162709627, -0.9937627357605634, -0.11059100007044466, 0.9346355738190428, 0.12777790602232142, 0.08275077765151638, -0.4588266656264679, 0.35185136093758884, 0.6483668679407494, 0.4873654552711324, -0.9701456765275375, 0.9407963769962926, 0.8000282150198103, 0.7511022772526537, 0.40991425062263964], [0.4066529910221068, 0.5330434204745509, -0.6382398635111846, -0.7571560348143028, 0.9475346342277955, 0.5657110216871573, 0.782349091160985, -0.7255199486428967, 0.9798320185494975, -0.9225131617074595, -0.7055479015247819, -0.17035573298782994, 0.5561074487758475, -0.4056107955068476, 0.5176731022596315, -0.9267883718931644], [0.45767572773715764, 0.9543903106519502, 0.46452600836506486, 0.43202180391304545, -0.5724646206755557, -0.2756606258077259, -0.265040454862382, -0.47534149123147085, 0.2771512119987054, 0.13184787139600315, -0.8375776588999959, 0.4477183075187572, -0.01814121165543292, 0.2850495790007146, 0.5413569937273504, -0.28993121370562425], [0.7863737397419001, -0.2789270233041079, -0.719436973937909, -0.633328220708533, -0.11242236974020381, -0.9040482300895047, -0.8301377436888472, -0.9665920375244434, 0.7213702689462815, -0.5245158361805674, 0.3853760111413096, 0.7694407280685825, -0.9952908294631118, 0.5076279874115042, 0.8572557840945756, 0.05016073603236704], [0.49143720608467184, -0.4930304272333461, -0.19178058170317192, -0.40337435561554935, 0.91816788823859, 0.341659002100853, -0.1297550309154075, -0.2581453983013049, 0.6369229481728595, -0.8703599305382141, -0.2629395155245231, 0.5695999991022341, 0.7137713815738045, -0.7890778019028893, 0.002272286574814153, 0.46144480583348635], [-0.7389099232653261, -0.9437856487110641, -0.03005928778251965, 0.9504552604568614, 0.6817118295542168, 0.3963458647114695, -0.014537067834744311, -0.118920876351712, -0.10017639174839998, 0.3492113245312853, -0.9256064249883793, -0.9992538292218366, 0.6617101444192404, 0.5367956835008235, 0.24593308248316403, 0.026787140730634817], [-0.031829206230057035, -0.8509980534407118, 0.7625516132170338, -0.7345147280152856, 0.5243238673955108, -0.523531244160927, -0.5772855205755106, -0.6532630592947712, 0.9007909422802352, -0.7264179349389739, 0.31020303838432395, 0.13249716833121913, -0.9235502264685727, 0.5056398529716101, 0.7958538108301356, 0.4943942200502196]], "bias": [[-0.5187441890992168], [0.44889506451132016], [-0.7502251684011053], [-0.5915944628479811], [-0.4089024503938065], [-0.08230565237037017], [-0.7348098728571011], [-0.5822919438844844], [0.6907160131298914], [0.6946875052760364], [-0.5551216277148713], [-0.6112664538564349], [0.040192591084106194], [-0.5876268121669758], [0.9247043772517287], [0.3012928726103948], [0.723801531546292], [0.430366012567386], [0.6880536590649574], [-0.57207517104475], [-0.6386459175520608], [0.4937332271686965], [0.6185834249385432], [0.5938980399131958]]}, {"layer": "activation", "activation": "tanh", "activation_prime": "tanh_prime"}, {"layer": "dense", "input_size": 24, "output_size": 4, "weights": [[0.6027300151878978, -0.056201974902484644, 0.8181431953902919, 0.584410835010435, -0.4458875420323149, 0.8277941502308622, 1.0087191046241633, 0.5415379124030132, -0.6338447344115478, -0.9476202590235978, 1.0030481687999617, -0.384912537912, -0.11582667242429917, -0.8588853006490157, -0.16855896471514126, -0.4709704646873898, 0.9326214600062103, 0.23928814202536441, -0.4625025958309508, -0.9367370482689842, -0.6826031861586783, 0.6296079929643695, -0.6821400447968667, -0.5715379775585543], [0.6372721042137106, -0.6888322986645108, -0.9252207643430284, 0.9735448920509064, -0.4868648568525731, 0.13660730268752275, 0.8667950007355588, 0.0662551855319065, -1.0229348096479267, -0.9334588011817713, -0.15443306953802835, 1.0302701638599583, -0.800869765323299, -0.44394181061023175, 0.2390596024104689, -0.041234069751351805, 0.12500671204857036, -0.030065339761440383, 0.710996229068222, 0.8017962312978926, -0.8272418961338162, 0.8381117543082328, 0.7225099477974907, -0.14057107501342966], [-0.9506894585576077, 0.065272165442477, -0.004999176000886334, -0.92871064844325, 0.8139468768035033, 0.7341778688870625, 0.15467224100921195, 0.9843582822859039, 0.26295371909622, -0.2907051930030845, 0.20472698303823209, 0.06601194293089997, -0.4218466337755083, 0.6490026502994987, 0.8932187868025353, 0.4707712422845369, 0.0018539240942853073, 0.144924744848233, 0.8123562505007034, 0.6940973946631174, 0.3966905356636005, -0.771073323919603, 0.9293532719284417, -0.7359790666724008], [-0.08068926863499284, 0.30316380176013974, -0.2496521012200893, 0.280968056712225, -0.6592608126946459, 0.18252934707110216, 0.39011447635597624, -0.17008748407846785, -0.30514385533083455, 0.9020250009872497, -0.5215337759436288, -0.9674848168127741, -0.0712217087090375, 0.5739331024080192, 0.7134068452296743, -0.8551140177166551, -0.0737682965118753, 0.46694707346857, -0.07017956422341852, -0.9463254348524724, -0.25047702047875153, -0.8927674454772518, 0.6616968167625256, 0.46762579512648006]], "bias": [[0.6627805703292733], [0.5295268349170725], [-0.28485795795855107], [0.6750831624599939]]}, {"layer": "activation", "activation": "sigmoid", "activation_prime": "sigmoid_prime"}]}