{"generation": -1, "board_size": 10, "snake_size": 3, "input_direction_count": 4, "apple_return_type": "boolean", "segment_return_type": "boolean", "distance_function": "chebyshev_distance", "network": [{"layer": "dense", "input_size": 16, "output_size": 24, "weights": [[-0.1996641176582759, 0.6025759943429628, -0.14168033931454604, 0.9653261278031686, 0.2977453398103984, -0.8756928620748002, 0.2601440866985039, -0.9405517962952588, -0.31307241656833634, 0.9483268576213029, -0.8799972879946891, 0.014917550593766427, -0.8759052215945166, -0.8159024085091766, 0.8406925638185467, 0.17831130197303796], [0.8499852917147891, 1.1220121468095523, -0.23278354897633377, -0.9231599320248189, -0.4952779395181037, 0.40954266827785035, 0.2288901272603415, 0.7383738435845739, -0.3281907653268649, 0.38777800140344704, -0.15932680877097494, -0.41653502540457343, 0.29487252258281893, -0.15053991970923658, -0.40176451790960144, 0.4447687183777403], [-0.9437055768143255, 0.4977644264036284, 1.0049743015897836, -0.2254619310863692, -0.2609839238104803, -0.21084211318175877, 0.3884416213275971, -0.8085338670535775, 0.8588993385240398, -0.2819463358558418, -0.011863236691043166, 0.2138553037030384, 0.4224528462894938, 0.11921790236217365, -0.08003136951036804, 0.9967140314488858], [-1.864547487138836, -0.2831028622021221, 1.0429834870727004, -0.5019648481630558, 0.466523587895596, 0.21666285907506916, -0.2726366277953698, -0.4529210110982693, 0.23322059693346373, 0.7205388493808753, -0.14478928781431666, -0.9254312487785419, 0.06245875822594884, -0.004954611438750189, -0.4808243319587442, 0.6042066609590432], [0.667749446505302, 0.3097232850314367, 0.17219183772293697, -0.13747669016620523, 0.12472027942378183, 0.24857420731763646, 0.8803746182628149, 0.47310221544813835, -0.19478318534356026, 0.2941488894569437, -0.9188876239978745, -0.898188868562136, -0.08357389047446599, -0.6823713543542952, 0.7121587871415165, -0.6445688317232422], [-0.3264319370938118, -1.85470829069522, 0.6989458481718622, -0.44583934390810975, 0.4802023249535876, -0.9498056888378054, -0.17407292596246876, 0.47141999603048546, 1.2184527618413488, 0.5051757926183478, -0.01284603122979977, -0.29513530658662535, -0.43903532368642045, 1.0969856608848008, 0.9973070029341085, -0.17287315442466678], [0.18277867627851796, 0.8558000881590083, 0.03314333923821946, 0.2547259772111453, -0.982317442964002, -0.10101693967783079, -0.8712638159807037, -0.6191061247628531, -0.3483713274752907, 0.18205437348821443, -0.3316791857959218, 0.7229261456096685, -0.7591471705948458, 0.605136287910278, -0.886329029547426, 0.04168462898101899], [-0.18290700737764568, 0.25004068916776506, -0.020746230130162312, 0.2949603133261938, 0.5678428827623476, -0.8540109116958295, -0.9988922061735659, 0.7820396285069446, 0.42154078053667365, -0.6577908636173597, 0.06092302243895453, 0.7049212252788128, 0.23657410771816018, 0.8342409299869308, -0.8566245106809125, -0.6385658832981003], [-0.6429412209184132, 0.06224475480985915, 0.9831689296433874, 0.03032078514684031, -0.17464743702188334, -0.20906722300130234, -0.14496287557736087, 0.6202998200573664, -0.17166011039717988, 1.0225291177839055, -0.15733954338553513, -0.6337049758978885, 0.1317751494879845, -0.7724032640917731, 0.14217117027795068, 0.2574007278722986], [0.0888620527165268, -0.7707579853311769, 0.8220474321655985, 0.4747790796778893, 0.24548222338846215, -0.6922327456303721, 0.9319926340779677, -0.2572384765218978, 0.8777615212640961, -0.3239819739999391, 0.10087138866815071, -0.2653707640035965, 0.657710450790433, -0.11660881647269444, -0.1318980905903422, -0.5766229126850402], [-1.6031067924632505, -0.013851881043147989, 0.07763038991571602, -0.748888695765059, 0.26838322206096676, 0.9781038907202918, 0.6038420015356131, 0.5082213289181639, -0.14238527973189133, 0.7846228908296883, 0.9103733711041353, 0.3377480444141947, 0.14819189115426676, -0.5356727559929193, 0.06356426341538302, 0.18666293080589144], [0.7245141590887039, -1.4130575797144032, -0.703472423950184, 0.10243465993826803, -0.08295985355395885, 0.4263248607954318, -0.452162139746, -0.8768092744855356, 0.24872601434215386, -0.21274391780759502, 0.7416482428469826, -0.2012067451621935, -0.6200179657743508, 1.2421284529289773, 0.7108623723912368, 0.28352122106563676], [0.7171576544670695, 0.8303488968467938, -0.484055704638303, -0.5360746724411876, 0.03886669580702917, 0.21762248078946808, 0.26452185510167614, -0.6611503311510356, -0.6208596279715113, -0.5100190689662594, -0.9924042011772631, -0.5903975601663385, 0.46894083820249516, 0.6348114919104372, 0.1588549084281461, 0.6684190209877348], [0.10066196290291843, 0.28116620011914145, 0.6394938586720437, 0.06075046498485743, -0.5986847761506333, 0.15734120953393108, 0.46544293558874406, -0.9116570027509134, -0.25444623548138173, 0.06573915338073606, 0.34456317789521185, -0.6482036293388482, 0.9832826348380141, 0.277090633543016, -0.4435549351895145, 0.13863868998820228], [-0.8289426349830309, 0.8437653535869282, -0.005671740423096103, 0.29899465711621853, -0.330684453620262, 0.8443251119997, 0.2863689573901564, -0.18035107454044108, 0.6497958625961502, -0.6971126193190327, -0.7630790763742532, 0.14773035762246267, 0.43527366420050634, 0.8033778760655313, 0.3148711065856733, -0.22162332422241565], [0.8205669400488992, 0.41785923822440924, 1.1056474973788828, 0.4764284478268719, -0.19002898860835127, -0.23268241587751354, -0.2719830538919951, -0.9336488078282805, 0.9641309690637412, 0.1580784533619963, 0.20942615088197436, 0.729862179648493, -0.7088899091569755, -0.7699990900751228, -0.32522029397024266, 0.7338352931565211], [0.746431528617925, -0.42742303564697587, -0.13484723881956265, 0.8328356188013922, 0.9669155152719651, -0.1741220898454675, -0.46706539802869346, -0.2889868965377351, -0.5375182830894524, 0.46762589456607284, -0.31682269749326086, -0.18318813504690312, -0.6101233789334156, -0.6748153599446907, -0.5474351235739889, 0.7704190527059976], [0.20304989793629913, -0.2255194380043891, -0.4655895954684254, -0.6649645792276958, 0.7464030089793992, -0.2405156752148133, -0.9059873933386398, -0.38852257260703693, -0.04133319859427109, -0.4356378862299132, -0.7627925593662022, 0.6413239305746683, 0.3043445026634875, 0.14877622892704043, -0.7066993577097351, -0.05900968981729052], [-0.8818733538513154, 0.1140851929342162, 0.9312790071338474, -0.2806270395530949, 0.3429533918137342, 0.41847377859209334, 0.178520355317824, -0.763121556999973, -0.010319031981451619, 0.6463791324489095, 0.7063711380757587, 0.4619803353071661, -0.4498852614946631, 0.18640577528261756, -0.9582424072772422, 0.28538961120748335], [-0.7043180666129453, 0.9617584021149496, -0.947932176253378, -0.10098154026160193, -0.7201114691856638, 0.009435630997404465, 0.6396249067295979, 0.16570386766702105, 0.00019965037103573778, -0.02479224528544363, -0.578462861258715, -0.828929708251521, 0.26352222391117625, 0.006001522704011097, -0.13897628051233513, -0.745489307388474], [-0.004756702456664601, 1.0276649562395608, -0.8692172118719406, 0.4616383731305837, -0.8862417464933403, -0.501734423545713, -1.019436547907463, -0.5718419215973398, 0.10505883805149431, -0.003482483336094828, -0.7318987037120803, 0.449181370904256, 0.8543829901796407, -0.5031773138808178, 0.06660498159906902, 0.235830003284688], [0.19575897840509957, 0.6499961100269751, 0.5398381709372279, 0.923726016124737, 0.8453464653565588, -0.38026777271967344, 0.20801766157725002, 0.4258099076264854, 0.6466453904208355, 0.9463332411955973, -0.023568195825181215, 0.10597330350678202, -0.6198684524305151, 0.30415737803498005, 0.36692556054282277, 0.07412078336555233], [1.8041724574561584, -0.27686124532313616, -0.19391346621623967, -0.6184787169459656, 0.2296380670460647, 0.4518398474113104, -0.6676856700214977, -0.9417563844059222, 0.7586584924540768, 0.30899852875572653, 0.5034748527400994, -0.6132701762349804, -0.4962974605657397, 0.5756118757509987, -0.8218679648249003, -0.9860358737039644], [-0.4701503706486643, 0.06951024160011944, 0.6684315162100095, 0.3107789551981166, -0.33711848058401017, 0.7147534634200493, -0.5782915175854727, -0.632218149578474, -0.4718393127547542, -0.8749606056150064, -0.8339138382382341, -0.27241100253740314, -0.6328424160238418, 0.4807125289440169, 0.08831283392420275, -0.8243491297179772]], "bias": [[0.642578469954347], [0.7394982608148198], [0.23327988074529968], [0.9656064913813551], [0.012632125276169566], [0.2232735403757094], [-0.35947236437456864], [0.36628662003214985], [-0.7285258815302773], [-0.946796038599487], [-0.302852145578527], [0.019833906071021444], [-0.2055351718060377], [0.0688998194133217], [0.0407933380257287], [0.5589769894579236], [0.6012269494690385], [-0.5797633880769075], [0.4945555919616636], [0.20422598344782275], [-0.9258488867229984], [-0.5749448696910753], [-1.0658056573956196], [-0.9038013682835864]]}, {"layer": "activation", "activation": "tanh", "activation_prime": "tanh_prime"}, {"layer": "dense", "input_size": 24, "output_size": 4, "weights": [[0.2210888977097694, 0.9670230287258283, 0.1350427286607053, 1.3619852756193351, -0.580261693071242, -1.521730861906445, 0.20212456889967406, 0.3295088560551035, 0.7175580027863321, -0.5768634610543446, 1.4770629863508578, -1.325970230564628, 0.75779613778422, -0.23975817465822374, 0.3401768258584539, -0.9446218702676712, -0.7877324084365831, -0.3326114006169009, 0.42526207188707127, 1.052803699115157, 0.22034090604419257, -0.5270285168570912, -1.05311364283835, -0.0934574397198319], [-0.49992372272692814, -0.8929978000000587, -0.40392197337792374, 0.7913667871204939, -0.08098879819747194, 0.4085202833781219, 0.2641827793580673, 0.6498652593215128, 1.153837168548834, 0.6499704418129207, 0.9804162867228557, 0.10292986516690518, 0.3934764466954473, -0.7429237349958555, -1.1685700742574088, -0.7008636689735045, -0.3828408223327413, 0.40224583881132503, -0.23554381683957634, -0.8075933704371979, 0.745484076413424, -0.38280112611210576, -0.20934601502375005, 0.2840618009809362], [0.06247040614202192, -0.9584785244419969, -1.3497397027384537, -1.6432378965749919, -0.32535339044300937, 0.42315573817575924, 0.29358364361440226, -0.721774213387052, -0.8152958637788261, -0.08532048741606432, -0.5947266493907717, 0.43573003615820466, 1.0451197265765968, -0.37438790895444857, -0.7279539151703407, 0.22846000461506977, -0.056282720463169525, -0.2556179034672996, -0.9711868044476444, -0.5196049749922766, -0.3522662328084421, 0.10430474251860906, 1.7491069561998132, -0.15062818984389068], [0.34965085514184857, -0.49575150921310923, 0.9128890074100818, 0.7660265967884552, -0.014731790930873588, 1.9587485856276345, -0.32429311483525464, -0.216625097421141, 0.6760925491750746, 0.45001632638846717, 0.5127948494233445, 1.1478310617355674, -0.15777541132360384, -0.3212372654131855, -0.7434753008451482, 1.0413379900621604, -0.07324755480353029, 0.38633343543757276, 0.05680498949193331, -0.1470987454435414, -0.8409050106201844, 0.735881811159378, 0.2545430799906264, 0.010383588257282732]], "bias": [[-0.8781527345694328], [-0.012647540566612176], [-0.6526014428246187], [-0.5963724540754372]]}, {"layer": "activation", "activation": "sigmoid", "activation_prime": "sigmoid_prime"}]}