{"generation": -1, "fitness": -1, "input_direction_count": 4, "vision_return_type": "boolean", "network": [{"layer": "dense", "input_size": 16, "output_size": 24, "weights": [[0.5596823594021036, 0.8769929616011454, 0.5553738660745392, -0.7538895641303339, 0.6927122330189646, -0.6979769744636123, -0.5463070876531994, 0.7863980259599059, 0.286810284211886, -0.6260850884636521, 0.37312225141708955, 0.24440872038685313, -0.637160689735963, -0.208451901330084, -1.2035993138751981, 0.011698761539117261], [-0.827702270285985, 0.8132446141856404, -0.6434746127244859, -0.8328955161207304, 0.06798700452115813, 0.07103757203605848, -0.6944019432217958, -0.8863654395461604, -0.8788420293507067, 0.809371123652356, -1.374604444812956, -0.01529382897414754, -0.08279230694846834, 0.8869581849227484, -0.6408173832868691, 0.8606714353009881], [-0.2257396001565194, -0.6530484884765646, -0.8276504057461557, 1.25760281695697, 0.4861855502498318, 0.8305188749045918, 0.12021339804650802, 0.6303348836926126, 0.37941941116184746, -0.40297717733888416, -0.25384995159148116, -0.2790148864726643, 0.9059965867066958, 0.873070875242887, -0.19044156446792931, -0.2947005203638462], [0.12383542463988632, 0.9794265617211029, -0.22629738855814896, -0.26370484776762854, 0.9536377253846153, -0.31317029835075527, 0.106175806021188, 0.24456367224068254, 0.07838901957800543, -0.37691932875753936, 0.7825414738237442, 0.23073560012234848, 0.6906785795205334, 0.07243404736254506, 1.1551653456112916, 0.30070848363587604], [-0.354513805791312, -0.23245991541799538, 0.5755212447951543, -0.7594994375801842, 0.10827958405697125, 0.9875370943173117, 0.3692163382194335, 0.4944518095425643, -0.8963457819359858, -0.67764228588137, -0.2974414484729765, 0.6202716941251777, -0.15963182145901988, 0.9113575901632548, -0.9312803713724738, -0.655057071412657], [-0.30909661214714274, 0.22636095439455883, 0.3714839035850535, -0.9063544184276129, 0.4737782000968893, -0.6780509314077209, -0.8747589154991664, 0.9226519801369317, 0.23543252601107245, -0.4494326194863893, 0.29439354394753237, 0.6378993424913804, 0.1219383367588315, -0.28989813945824533, 0.7136650311086126, 0.6295513220111263], [0.42574819795463636, 0.794358558557015, -0.31839592869705236, 0.31703464431485484, -0.8683840423277074, -0.08544965438654785, 0.47080292424920633, -0.5140155275039509, 0.10280715410027048, -0.9235335285616483, 0.7523166660845657, -1.0952649201420734, -0.4428362134023237, -0.6506492713242787, -0.08458128375808795, -1.2593824004977034], [0.7189754350458414, 0.5050647271180875, 0.631211106087525, -0.8094404420295439, 0.321007259425685, -0.5700568481471674, 0.2614942243337217, 0.7438038660106872, 0.946120755680897, -1.1960569973238664, -0.4706598704028112, 0.5322213820138811, -0.24279337274343032, -0.7734443464562389, 0.16812058628750087, -0.07357939762340009], [0.41070172517902437, 0.770850109581473, 0.4889573847476651, -0.33623815616926567, -0.8076573374206935, -0.8501917299598173, -0.4462026248972122, -0.27000722319091763, 0.4838836066797867, -1.1075992870983193, -0.6202940569428599, -0.8167275547573948, -0.7396116472298855, -0.25759597591883954, 0.02679586587864638, -0.15240996557047687], [0.3030562566079854, -0.5627980748818135, 0.5312048117358978, 1.0787492424326888, 0.4994241678976239, 0.9207222788965628, 0.8757252329665152, 0.9103453111584618, -0.7114908659275642, -0.3827546666095083, 0.12526657761059734, -0.3202939673017713, 0.3178086461935833, -0.42276787046847675, -0.7326144939741156, 0.8441779453738931], [0.9465911907705932, 0.2949558428103263, 0.08081681765040247, -1.929888468102297, -0.04899085944166082, -0.4173890828995785, -0.39104959723777877, 0.5011005986467982, -0.7123959958545869, 2.0303216413170913, 0.08720542372042397, -0.5623782650098852, 0.2202314878070372, -0.5716584367524076, -0.21365602114809645, 0.9281231797949057], [-0.9822519500759809, 0.22401383013115939, -0.6698941327158938, -0.6990939328307666, 0.4112407675430507, 0.6421128714420499, 0.8480674327478644, 0.23782782851123496, -0.8350148575043111, -1.045028800918967, 0.6695959676043048, 0.8804720629113689, -0.5490557641047035, 0.7945591588133141, 0.23994132846537164, 0.441945550803301], [0.6854955208772291, 0.6091303772382379, -0.7901669439962777, 1.0418328925346616, -0.08624200893685385, -0.02832864473949965, -0.0006400039844767369, 0.0570581751955348, -0.804414055437646, -0.24328088857343516, 1.0949088517609993, -0.10147264453294488, 0.38781146321107746, -1.0502762509496062, 1.0250040378744585, -0.6007766324418106], [-0.644315133631768, -0.8944669818062863, 0.4867659030929509, 0.5728748440133801, -0.862018213086847, -0.14978352820277957, -0.4878522304600989, 0.6309826549190063, -0.4730642599363423, 0.6619287665262691, 0.7063953696204563, -0.6574534959398735, 0.18549456569274062, 0.2882454752549369, -0.41302284729040173, -0.3380193659251219], [-0.9590761927640898, -0.2275898368820235, -0.6524911578008975, 2.275839544904752, -0.6417082209698113, -0.4366154603995922, 0.050365220906150907, -0.29668834448700365, 0.34718114221190954, -1.2517599434370168, 0.7061131348806371, 0.5765792586530363, 0.311291094959375, 0.004982213266424149, 0.5645958377206938, 0.5264050916489385], [-0.19062993136977655, -0.1340005221026619, 0.2610557654009256, -0.5317192905042442, 0.5160425777489215, 0.40042103577453264, 1.0676095990792804, 0.9565781081402285, -0.07391792552511349, -0.12901600885309072, 0.8539836932665645, 0.14969698688932218, -0.6461639676910915, 0.0017362219711526382, -0.3548727547992994, -0.3178447984896718], [-0.07223183876411556, -0.7430229119420733, 0.7499446530274805, -0.6953059937097207, -0.9033731405976244, -0.9893312088913476, -0.43558566527697146, -0.3391942888137478, -0.519094359301909, -0.510831755863194, -0.6756439046489968, -0.8273455876605565, -0.49406108342691873, -0.2891600491557687, 0.2351336483682828, -0.7911324865844657], [0.3581600845235707, -0.09906787907666592, 0.4178117392115116, 0.8890082953509854, 0.9730287942675664, -0.7770790107282582, -0.14632330131775212, 0.2948690978651407, 0.36996086142682255, -0.011797375835895792, 0.37270351180944405, 0.11840137552850197, -1.0876718217313566, -0.1239327199428812, 0.598824311110088, -0.9503276151991434], [0.5580602105007677, 0.9262505910081293, -0.008493954263828868, -0.9050177178623974, 0.3527810689101387, -0.4029857052719708, -0.5676864792793975, 0.06681301005082751, 0.3381626997539151, -0.45219183235492594, 1.7062774777506637, -0.8554177560413477, 0.3357112991241191, 0.25098643397801407, 0.4569784915316177, -0.017242308979374343], [-0.19935073437983716, -0.16934875686678885, 0.21972698057168505, -0.07707232643518476, 0.4920961630062417, 0.5425023616980021, 0.7572417666474578, -0.10960583837293059, -0.43638463214598266, 1.1678751525339017, -1.2559150829860863, 0.45297303036883824, -0.6325162945574331, 0.10328549640970049, 0.6844520225650208, -1.059323537089675], [0.15600151287742275, 0.9120883154685522, 0.5534342170397064, -0.03800768370013629, -0.06443954217434245, 0.7333486129138103, -0.01344725079303849, -0.48068160194145926, -0.3581703687588992, 1.3030680858777666, -0.7902530440822882, -0.932270686514742, -0.6163043551901579, 0.2829967781726763, -0.2066808943883985, -0.6419980915814592], [0.2891072725292163, 0.26600520143130835, 0.9905380617649513, -0.818674834537284, -0.21998263789357542, -0.7320097215220904, 0.28684791226490053, -0.6183736885893005, -0.5572852161703034, 0.8100212700572024, -0.53756866472865, 0.4253333546702584, -0.6950616185838118, -0.879693982423237, 1.0030544446012877, -0.06447476347569117], [-0.0681621962220159, -0.7308228809936852, -0.31311005057930535, -0.9551236570549722, 0.1952141211332019, -0.4549036571853338, 0.5626088767510712, 0.14962246748141905, 0.212251819447747, -0.5399596152997704, -0.6243801709966906, -0.029688024861918613, 0.2881358659860126, -0.4123916763184002, -0.2115602491871624, 0.6115504226546692], [0.5653362755134886, 0.9681924261217625, 0.80072339876297, -0.2974725936661323, -0.9966026851775198, 0.47130474964087243, -0.6228310806511144, -0.6108697275296686, 0.5051606494587281, 1.5853448902997533, -0.4753895225744346, -0.9262405231099504, -1.2441895773957552, -0.6891708880356571, -0.8005840563649813, -0.575009185926935]], "bias": [[-0.2840475884339102], [0.8621760730239306], [0.7897445092810231], [-0.029206814854400194], [0.7937419781243791], [-1.430378692581691], [0.42933689612370557], [-0.32828432738894026], [-0.877348655966178], [0.20358640040983794], [-0.6197142001723597], [0.0984771499813947], [-0.5023387433398397], [0.8878981106511565], [-0.15789887017371626], [0.38097957171510954], [-0.2731803106642266], [-1.423159179721211], [0.41775417039630763], [0.19906176964758904], [0.05419174230843547], [-0.11498544603416681], [-0.8259363217833049], [-0.3422999688233888]]}, {"layer": "activation", "activation": "tanh", "activation_prime": "tanh_prime"}, {"layer": "dense", "input_size": 24, "output_size": 4, "weights": [[0.2289492141565473, -0.8205185104745285, -0.359741433777682, 0.15791480107108657, -0.23517384025790905, -0.3686948514193101, 1.7113786169665706, 0.516818477657424, -0.5843531701893457, -0.8366842821849111, -1.2020031313302877, -0.6291784978009368, 0.22297474056401423, 0.08873494562549088, 0.29850692877786517, -0.18866861916900357, 0.9521709122254045, -0.24819808074270386, 1.7744854123539904, -1.730166945961575, -1.1615573127961132, -0.07292486843096273, 1.017138236883005, -1.5397489551357337], [0.835154364605831, -0.943279795688058, 0.9107522875657365, -0.8699649902593822, -0.9229234368941188, 0.8786485258012161, 0.5985589713773484, -0.050115872420625075, 0.6578244836662512, 0.7085124067928062, -1.064716771518071, 0.2968843651597781, 0.8504842569023624, -0.5537516131482202, 1.4885591879525903, -0.5495372425404458, -0.22038617540804448, 1.4555612453758404, -0.3713200150776531, 0.7753616633230888, 0.7711262740609058, 1.230900683252246, 0.8781924282882553, 0.35929034914122454], [-0.20597714985760499, 0.4628063340409103, -0.8819395633895935, -0.646816876111262, -0.6370455837233577, 1.0734703737857907, 0.13475727052020883, -0.5071199689048324, -0.6481329821013623, -0.7087990823175356, 2.1399639614154906, 0.39252358368932405, -0.6160762052803448, 0.7913996150682563, -1.9819127208369214, -0.22751193600980846, 0.9868233053335277, -0.9036858000580039, 0.7132995265132598, 0.4035679679228887, 0.8667484960837111, 0.11597953283252696, -0.1709048481655771, 1.2847926142991368], [0.06499443196427893, 1.1632827790849194, -0.6423064044830216, -1.1812533210551928, 1.1244702810021563, 0.6315286030189536, 0.2745939177638183, 0.186827502039018, 0.0909940314541111, -0.9334343520158436, -1.1422630005177061, 0.8478419382343071, -1.08640189945923, -0.8423882818041865, 0.1294027670134225, 0.6563276093508905, -0.5909557957056926, 0.5086381032783278, -1.6322946190430203, 0.853974343102025, -0.03903334066537895, -0.15098080074445583, 0.5463457643756925, -0.1729154481236569]], "bias": [[0.4309290852404885], [-1.1148157587388967], [-1.1777498293043225], [0.20325268994960455]]}, {"layer": "activation", "activation": "sigmoid", "activation_prime": "sigmoid_prime"}]}