{"generation": -1, "fitness": -1, "board_size": 10, "snake_size": 3, "input_direction_count": 4, "vision_return_type": "boolean", "network": [{"layer": "dense", "input_size": 16, "output_size": 24, "weights": [[-0.765133822399533, 0.7613161210139519, 0.8558502158820467, -0.46437747290044545, -0.7998419392010485, -0.026957370178596948, 0.5244943080432815, 0.1813388244762133, -0.18349849316170672, -0.1923767360869613, 0.8898791356998652, 0.6042641873702987, -0.7217508050212778, -0.1647940275620315, -0.27932472063546, 0.9220512814798325], [-0.33252099558300635, 0.8386545140438273, -0.6491120137793069, 1.5440509020807196, -0.4214340088972164, -0.39877020137281716, 0.7420615804251571, -0.6523880159929534, -0.6339984047461731, 0.20247231004665822, 0.13453306396577036, 0.33203511333534347, -0.9809209551347531, 0.9634402137009955, -0.18451935743256595, 0.3593606770131714], [-0.0056207104242111455, 0.49220896121941027, 0.7369639890220043, 2.0980355633321603, -0.5236235766943322, 0.7802787957660833, 0.11933618229375015, 0.2434198008479569, -0.6321941621505701, -1.7370133189736117, -0.4292910992351692, 0.7720409500066644, 0.67529453699779, 0.43585863463847835, -1.018170650469316, 0.349511217411115], [-0.9426069026311746, -0.286177578966317, 0.5235143886738223, 0.7094957851719467, -0.5237877137359039, 0.39200240495902344, 0.20713192931158672, -0.6213325912864096, 0.8921732417885762, 0.9087431122539819, -0.11404488749768196, 0.41350358894774014, 0.4024915769361413, 0.008043570846612062, -0.5800927636527861, 0.8002909690213222], [-0.8413433030397123, -0.5593024376624431, -0.49950409981672184, -0.4977344970757869, -0.031763481016898965, -0.5321660874609181, 0.9551838495671529, 0.006977250825002335, -0.12347385302206848, 0.6852424028786362, -0.4428228506458279, 0.09138006067981962, 0.938485921843144, 0.5617208388106049, 1.0967394275675961, 0.029046908563893758], [1.0012510693341237, -0.20744460966612244, -0.5391563154831699, 0.8911101083179815, 0.010750142207543334, -0.03344025068398505, -1.0929071856785186, 0.8170925457707883, 0.7130660916887813, 0.24621469509329635, 1.8267353722348911, -1.1888086279465395, -0.13099208598798512, 0.5690637769985826, -0.32308229019326135, -0.6552090475967117], [0.6719584933486046, -0.3473799509854931, -0.46152289703615773, 1.3100287649160507, 0.6936594236387035, 0.45089332161052736, 0.9476239460759449, 0.739380081049865, 0.8780856060303376, -0.39511093953602355, -0.5027976908432673, -0.007654618746672678, -0.4871642741806563, -0.36959068666067824, -0.7729608507826322, 0.5265181481344451], [-0.8935252623220271, 0.8135472319250299, -0.5715008888461611, 0.5145523262012502, -0.5615172876221757, -0.3300135008224837, -1.3875342381718876, 0.6946968336946868, 0.27684283748068, -0.5152908679620738, 0.0796299559073418, 0.581752329775605, -0.8154666171227174, 0.2628641452866216, 0.830626395020012, 0.2612362952345745], [-0.00031557540866664606, 0.30110231350104155, 0.8447629497784543, -0.88141514363536, 0.042962610236327414, -0.7244055735478748, -0.8818899962408655, 0.644761914706341, 0.0857931697427884, 1.5691412550166364, -0.010006558727369132, 0.9160849586229008, -1.0447502129832902, -0.37236744388047605, -0.3426021409602233, -0.5503376287129197], [0.9477504607623323, 0.20728481853921643, 0.218022122347443, -0.17747403109340742, -0.3276922552435686, -0.9622948736985786, 0.4725447899080838, -0.9238183686955004, 0.7465351738069623, -0.09084686105274802, 0.016630860594955506, -0.050815307046635685, -0.6653581346610016, 0.2945413969068991, -0.8114146004098045, -0.590903460855227], [-0.29768513816980186, 0.22423142668428242, -0.8882722141297518, 0.29923914030103094, 0.7864213714429429, -0.2946653423673116, 0.6954675145620641, 0.5348320874390848, -0.3114121664349063, -0.957260119087091, -0.21537996550657698, -0.688940652507193, 0.42397292519905716, 0.6261387561468226, 0.32170834170219437, 0.7183306926275741], [-0.13146532485597553, -0.2826092607296953, 0.2624520339705266, -1.0158965159459974, -0.6366712524237117, 0.33802372703792716, 0.5426760985669017, 0.7938274217855636, 0.2641939034355546, -0.8937633474525898, -0.6386138653524477, 0.0758103673381242, -0.39041028904246944, -0.7804964203801087, -0.43187823105531614, -0.5861531768605003], [-0.17088941669812563, -0.7311510079353813, -0.4603104919900047, -0.06710416832678706, -0.8064954920216787, -0.9870418087708646, -1.1647788352840442, 0.16605575029957742, 0.7786208033459814, -0.8377481285879441, -0.38404786447956923, -0.2720299622132157, 0.32358829330657085, 0.5488637249159378, -0.4540157082992233, -0.13120750310942259], [0.9133510306028622, -0.06188475238819646, -0.3364965842920841, -1.9597324027257252, 0.27836833055611665, 0.30186908250656874, 0.670384119689202, -0.18097547186783847, -0.2876485999374221, 0.9224656761683326, -0.5014653613067763, 0.6079546504799695, -0.29870470832989615, 0.5725088154915299, -0.1333194993288877, 0.44782229204589863], [1.0032451458008518, -0.739611195964093, 0.1320403494402354, -0.8734898808388766, 0.2364578521308076, 0.24562719519666046, -0.261794681079905, -0.24979084468841894, 0.7086377995662153, -1.0818641438561516, 0.3454823110580624, -0.3503972597506411, 0.3678904211137417, 0.17956258347845336, -0.06878785744524678, 0.14775997167484725], [0.30717036711350876, 0.2612422889759851, -0.49828921595561804, -0.917609458393294, 0.7648455043182398, 0.5129127404418731, 0.09630384186912126, 0.39672922135341615, -0.9453807972679689, 0.07075882048434831, -0.5993297615522168, 0.6986508196583217, -0.6736023315416977, -0.9651501435286323, -0.17815951738096888, -0.41077732064896544], [0.987415722694878, 0.4825305981371397, -0.8189829356831221, -0.6013802048410063, 0.4057776903824737, 0.4336807601421833, -0.8965859755855033, -0.5651323215045576, 0.39827310976510394, -0.6344647342725843, 0.06020414131153186, -0.10800524759598651, 0.24858405732381778, -0.9080411302101463, 0.7281895610191528, -0.10972272657657783], [-0.34357226709381194, 0.1465514821909255, -0.32526784634171824, 0.41884448700809274, -0.9622508102242844, 0.09093841162030966, -0.2732264241863491, -0.9254538075779528, 0.6817355500943084, -1.2576394792251793, -0.9246752072694211, 0.44557786527953214, -0.5136635354383038, 0.1764341393756679, 0.30279956544631614, 0.32057846336681833], [0.5234356873991663, 0.6385130091430034, 0.8787559301380086, -0.18435873531215102, 0.20816490493603812, -0.8184064271560038, 0.19057366056918826, 0.00199414497503958, -0.9112086473384229, 1.484726444992487, -1.83028482745443, 0.1357885060639379, -0.5398687307724629, 0.755687395057069, 0.11697714088563106, 0.88614391204332], [-0.6515591885871594, 0.40661003616375946, 0.7712474022778397, -1.1778595496772795, -0.5895997428634303, 0.9149937329465524, 1.4114279632952829, -0.2713941250746019, -0.1011728262041317, -0.42665764835013614, -0.6778825874771062, -0.00675034659443208, -0.14964342695552935, -0.5435919558518892, -0.8183853833683117, 0.2369693196719786], [1.0026891951267098, 0.0011224186952361048, 0.9520217451968847, -0.31770379584461184, 0.8475218698059532, 0.8862937600730563, -0.6728924195830543, -0.17452551523180881, 0.44791470884312135, -0.6436631487680048, 0.9713153297403353, 0.13378749913102728, 0.5262900131442076, 0.8864607050397495, 0.41186716154270014, 0.11606220226792346], [0.5290025330146204, -0.9230097903748631, -0.17863829174724594, 0.4534113274000801, 0.4011804334451039, -0.47087397940691006, -0.7803667341692624, -0.36032565217684476, 1.038993756701189, -0.009237582752690975, 0.34838959399534547, -0.26740758752723104, -0.03673758892535361, -0.7043748006066196, 1.2701475803006885, -0.7767657078892873], [0.48881919896405296, -0.19608390817999766, 0.3408589939156948, -0.056961026199383286, 0.0656691533308118, -0.7693785455487647, -1.2719344803546448, 0.07455296476797102, -0.8156038606232812, 1.7358646934605344, 0.40816194150799096, -0.4307566238946249, 0.14201679338558929, 0.6465689201032155, 0.5544948557032704, -0.1671827827430113], [-0.8322967896724508, 0.22307613588327602, -0.4708192935530225, 0.3231055335583492, 0.3817367254380015, -0.19689164490011662, 0.24496264218408134, -0.06801927143108566, 0.49321108137434033, -1.1006390498959269, -1.1356112291941982, 0.14592113390669312, -0.8922854726688509, 0.38941087920332945, -0.7639848177302923, 0.9291769498025003]], "bias": [[0.5731185699404683], [-0.42162696208023964], [0.6055870905518568], [0.49936257073663604], [0.8466310405905908], [0.4163926369715101], [0.72792059593811], [-0.46774884116255133], [0.1914846967524979], [-0.7898085208964993], [0.3664710958704324], [-0.9101552660361821], [0.09940405070905921], [0.7237790468434542], [-0.44676449362229653], [-0.9262637191195792], [-0.8270820564612182], [0.5145347762739491], [0.44233087367196133], [1.0931737872418086], [-0.7873482439671778], [0.16384448346850986], [-0.41517473850883363], [-0.3373459524987716]]}, {"layer": "activation", "activation": "tanh", "activation_prime": "tanh_prime"}, {"layer": "dense", "input_size": 24, "output_size": 4, "weights": [[0.13942121181000855, 0.5186981685573974, -0.002633857024651187, -0.6682386863452298, 0.4599404901564985, 0.5560500453407959, -0.1777012894065526, -0.2980947234488919, -0.9894131412899136, 0.16733524137063574, 1.0742448930691992, -0.08808502953349184, 1.297180810451703, -1.0080448032217497, 1.4657695487019042, -0.8307494439589848, 1.201375982910938, 0.03893076121927818, -2.5402141641899076, 0.31928019345417574, 1.1666574764975337, 0.7638795508748405, -0.8909553670840503, -0.6390368670910529], [-0.3837107237660025, 1.070927891391797, 1.3475084117911504, -0.33133086246082266, 0.14439841936937062, 0.4364164432823103, 0.8519371656983918, 1.7330342569833983, 0.9289892767030232, -0.02467699657547333, 0.25510466482174987, 1.0074899981141467, -0.13533556094829557, -1.9569954294782395, -0.01319411087303681, 0.7897899083911042, 0.9258910587518338, 0.17096635135593954, 0.38114369556652294, -1.3649012165352454, -0.1765775385055543, -0.49132904234051755, 1.4548996376414833, -0.1939765321591081], [-0.40234034299347415, -1.1526206383778643, -2.45765627200016, 0.17245974965942534, -0.8424786360078564, -1.0171979264137103, -0.9610130545259952, 0.6613176734236828, 1.2831713059121304, 0.9340572771214853, 0.09407057804255134, 1.1131337963043846, 0.5076073042290078, 1.5664417450268966, -0.43336042032985495, -0.580796297605323, 0.15394218453482272, -0.8505830197241172, 0.9915339710771565, 0.5606162069120086, -0.2120533344179564, 0.4121367009628756, 1.4789738285553873, 0.10951955224000054], [-0.24315942708709554, 0.8382801700327736, -0.8441157766682156, 0.2283264635394896, 0.5946187979711403, -2.205418520364229, -0.6698561824874745, -0.03774019791492921, -0.33434497347219205, 1.2547718813471347, 0.30442930971715065, 0.9308565574277802, -0.6904602303308446, -0.9010993930698948, 0.34914315118508954, -0.12836350115795309, 0.37782255467271075, 1.3213824084321288, 0.32270290336469676, 1.4452200404860032, -0.31313113316646096, -0.8755782918346885, -0.16165995380562512, 1.5405984918319515]], "bias": [[0.16825997485403976], [0.505149850298286], [-0.01781878446203397], [0.2013279746220322]]}, {"layer": "activation", "activation": "sigmoid", "activation_prime": "sigmoid_prime"}]}