{"generation": -1, "fitness": -1, "board_size": 10, "snake_size": 3, "input_direction_count": 4, "vision_return_type": "boolean", "network": [{"layer": "dense", "input_size": 16, "output_size": 24, "weights": [[0.330183559612085, -0.2462667068904183, -0.08519988334434281, -0.1519801180045406, 0.3741031027079387, -0.6420726186990195, -0.7899542187901668, 0.5813195883198532, 0.45301334084862166, -0.5959978909373256, 0.680604013707628, 0.22885393655138425, -1.1037374786961152, 0.8852054337856077, 0.7822925528054776, -0.06676389008025296], [0.6549638641602403, -0.5886689423956959, -0.6891184416162117, 0.8220961261100374, 0.1852094710945862, -0.13801427662030769, 0.26254403959918476, 0.9407042257049869, -0.3939442330973849, -0.5557738359554986, 0.6828187500882955, 0.1650047315673129, -0.13287564229472854, 0.20877321308444155, 0.5000270133972702, 0.6668846069941089], [0.34183861833214985, 0.9360014878710201, 0.9155348552342382, 0.961405135879515, -0.7344987263578748, 0.8701665307737403, 0.751644091649375, -0.942629624191595, 0.7236929988492078, -0.5184863516951516, 0.7618201630781398, -0.8727626313946997, -0.2659412472958903, 0.6414060758091051, -0.647302806788203, -0.9067602656664957], [0.23145066560688454, 0.02501575998855987, -0.8043915924542866, -0.35232122825946355, -0.014713960395090542, 0.4469388804777564, -0.8796208418435582, 0.6842647918882216, 0.003623309545869607, 0.02258332490927998, -0.726886134424153, -0.31567348735664463, -0.45666109346677564, 0.7273289473836991, -0.08881282623575282, -0.6591054003271377], [-0.31693992921286124, -0.06523688169125919, 0.3295246090344195, -0.4430651191499951, -0.9892618585988677, 0.40076057016177796, 0.821867054409382, 0.9856848224610915, -0.03501549668177434, 0.1865270347188343, -0.11987849892869633, 0.5425555230744786, -0.49065909443940225, -0.18311730164060216, -0.5459878611868787, 1.026362044650403], [0.7088351478932428, 0.7188161867333818, 0.6573963299752941, -0.1339522534742445, -0.4407585888937069, 0.8049334394960492, 0.6513750580996007, 0.03476219353465515, -0.6140798114814031, 0.2543475564038866, 0.8889303302608562, -0.23591004802140317, -0.8215443220990518, -0.04122886345895396, -0.639822710113024, -0.8980904978904956], [0.6696463761218616, 0.6144996138361272, 0.1292586026256013, 0.14141566824641533, -0.6346908144038264, -0.3488695227114335, -0.5298912081592098, 0.9947193667175842, 0.7336822620470137, -0.7374730111069382, -0.8601349013326914, 0.03232968964203752, -0.7608606992504726, -0.2056109771798854, -0.6557326770311214, 0.12924466037138102], [-0.16921155154366005, 0.06266564665942242, -0.22709470209175153, -0.6732066164086087, -0.521738668729083, -0.38994466399688255, -0.4749321869337721, 0.5153781838453153, -0.12219653373984987, 0.5624223997481792, 1.157329216038702, 0.24873501752529004, 0.7222910971220664, -0.10516601746172073, 0.9275867067075456, -0.07461833074356752], [0.47866978591482706, -0.7941597282635247, -0.8860274785523377, -0.7902835473965211, 0.9732894004236623, 0.5106812398711431, 0.09331108275860012, -0.17358353422021744, -0.9255631174019536, 0.7888876782997181, 1.0288727186212825, 0.8172764180495629, -0.10412872912830241, -0.052240287846733444, -0.3907058592640773, -0.44087665847106977], [0.05789419153215171, 0.22579573080288284, 0.018245210115269028, 0.0909125549396095, 0.08289929485242098, 0.40699178102153305, -0.6894706609421208, -0.11379857116805914, 0.35073410468364025, 0.5082202452180561, 0.20159640579219293, -0.1456117829751674, -0.7303212421824408, 0.42308990744687547, 0.9065772724800616, -0.8973030130190027], [-0.9888776143684825, 0.8205492784854442, 0.03620083195646773, -0.854885120015276, -0.8102814597350614, -0.14462530227699488, -0.7945865130322096, 0.5157228121946711, -0.2052501804973005, 0.9499447959411528, 0.6946297531651596, 0.612480335101406, 0.5182384208252488, -0.25216113127995343, 0.8826415868073256, -0.8901876480158111], [-0.7543760630324029, -0.7086761239011687, 0.4692847382423264, 0.762059272465908, -0.47648806678664624, -0.3640575553086595, -0.6697779233791289, 0.2538942765332126, -0.8788857571345694, -0.865793682408083, 1.12809394496895, 0.40201141002718993, 0.15384872410482558, 0.9114798344329125, -0.6369109998766369, 0.3378056086258682], [-0.2564015006463597, 0.021313628525276407, -0.7644443857620391, 0.23474157402853615, -0.8264815622551862, -0.6376669984999056, 0.3614650562769775, -0.8214732039345218, 0.23892368555048776, -0.05943909430166889, 0.5272005701164599, 0.3302673472681046, -0.16120955463892683, 0.25461669616223614, 0.9079271153748054, -0.2303629488850745], [-0.7071809506152775, 0.6677654807854565, 0.3171645382438264, -0.6128677421421848, -0.8727150303378974, 0.8985965821434508, -0.8203228821619997, 0.4633312915199681, -0.11681325426175569, -0.46990098502362526, 1.5725783878845294, 0.5609204231949654, 0.665495993199471, -0.5150005345463332, 0.4827520807221326, -0.030467536025315604], [-1.0140922311626446, -0.009568417517692884, 0.8612559030714682, -0.3810425311507412, 0.17315117047931716, -0.22635920380053906, -0.4900987682378096, -0.8446204997172468, -0.9820057154636388, -0.48639753232815014, 0.44348479563292015, -0.39320656852317637, -0.3979114576878828, 0.647846521317316, -0.609278358991953, 0.7258404696805433], [0.8666342536457738, -0.10773712308102135, -0.7674728278808449, 0.14194979780510972, -0.4775050179934892, -0.25690159598192563, 0.07929630778006401, -0.35024455885884587, 0.018612047236849817, -0.18454746735470323, -0.5266081228854514, -0.6090410886098147, 0.9066330503386786, 0.194142018159612, 0.7193933244875983, 0.7965034670706383], [-0.5355680901936378, 0.39789109716105786, 0.03302775741273711, 0.6412019159558631, -0.8944415380761137, 0.14060024794830908, 0.3113092296609798, 0.2582107614541429, -0.4870994896199938, -0.7716633293285269, -0.4082250399237872, -0.8187534888013203, 0.5690080697381145, -0.5342396929740104, -0.7802290152659819, -0.20949591156912703], [0.1397203559376067, -0.7509775132704053, -0.326491300410622, -0.657013244382646, 0.04479037810308939, 0.790587070269426, 0.6512981074576661, -0.24174911426420387, -0.9857998128660843, -0.2715829334406085, 0.52721129062935, -0.5305183048327827, -0.7035693437534707, 0.09646436448034512, 0.46489521377138554, -0.9365530269823326], [-0.32625942431093147, 0.7805022184038193, -0.9701021681516149, -0.6476672590874928, -0.6352242904392189, 0.6363588550794109, 0.06660944494235173, 0.8274000883490877, -0.6865819466088954, 0.5698376420857008, 0.9298113846696967, 0.7177452473580396, 0.2625873318503959, 0.516311801019076, 0.8090431211533518, 0.9326950091055272], [-0.44805731950696226, 0.4244855335836606, 0.7811749555658394, 0.24574694361196842, -0.9091699302211877, 0.8724546923925834, 0.16102851320036707, 0.6714874091128216, 0.4512895511181967, 0.5650118432048103, 0.026428822565778692, -1.012410890821984, -0.053616028680846445, -0.6917139654157425, 0.00944021017386687, -0.44425619242517156], [0.6865377123735547, 0.5021434636167246, -0.5584453869238806, -0.9723923333218178, -0.7316795981375095, 0.1034911639794706, 0.4035954230453768, -0.6548123361739273, -1.0422544231945141, -0.7251065561422593, 0.3307358073081241, 0.7635065599858922, 0.5568196500467323, 0.22549381314268144, -0.7126461656490595, -0.3506356695300116], [0.4623360074485354, 0.3500469971820539, -0.32571766001730595, 0.29187058794313747, 0.44635860206466416, 0.870765967126895, 0.42237881917948444, 0.03288805612072876, -0.9928506201862048, 0.6618125773272499, -0.4224702433616371, -0.7271289321070109, 0.5516025142069413, 0.0996365312913277, 0.6890956553767613, -0.3529968402055309], [0.24552883749417717, 0.830313371686167, -0.42076791531006896, -0.6732334362972678, 0.6558812873256603, -0.6712427046309755, 0.34171693148238796, 0.25048839655570654, 1.1479498484588997, 1.004797561989912, -0.23550461299018494, 0.7301618323094167, -0.6181180382450179, -0.8479646617156599, 0.5019105109130502, -0.17651006801821528], [-0.8113947040266526, -0.9133039761924624, -0.0970330115405722, 0.45525732887592074, -0.23803384615913892, 0.8296308778620415, -1.1576628673373066, -0.04524577857697332, -1.0261458538957493, -0.33682138600111156, -0.15300298383361788, -0.09568127360849862, -0.39902321959899617, 0.25602824093488247, -0.8012417605063384, -0.7716180062576196]], "bias": [[-0.10141198828764772], [1.2048748411285373], [-0.4344044726370013], [0.10308018655965856], [-0.8065178904191103], [-1.049643478905661], [-0.691576038689419], [0.6786197389306197], [-0.5300240064483343], [-0.8917831227508725], [-0.3689617121016], [0.16057505713915424], [0.46040019353490014], [-0.4583544061932721], [-0.06585967462564368], [-0.6200791902896974], [0.0004976684404760627], [-0.04432584583111189], [0.7392324509613188], [-0.29224082412182006], [0.2042226380974944], [0.673198517295202], [-0.032552165349708714], [0.43625564983245596]]}, {"layer": "activation", "activation": "tanh", "activation_prime": "tanh_prime"}, {"layer": "dense", "input_size": 24, "output_size": 4, "weights": [[0.7792077949752328, -1.2239974973254777, 0.04979876633691982, -0.7448981212707946, 0.6212229717746668, -0.1453562936866037, -0.44274623301270677, 0.7179435038793427, 1.3550261129198475, 0.42208849466060094, 0.5056934099839521, 0.4169692094518366, -0.12937194547467962, 1.0289918604393047, 0.8377818228857898, -0.35831754094262164, -0.33324298334054625, 1.4148767768956756, 0.10428319902308059, 0.7629212282053047, 0.3567005969536605, 0.7605513064718855, 0.04259710602693678, 0.6956344722943678], [0.5212023214332431, -1.2309509749826386, 0.21204024512517117, 0.11267946544050919, 0.009695335673329296, 0.7867540378924597, -0.1365798621014101, -0.23412782589329795, -0.5834464892064187, 0.4985925076601953, -0.6292949330344324, 0.8127630784751525, -0.5425689199140891, 0.8349188927224531, 0.6285977955411979, -0.5760906073780648, -0.31332559752957295, -0.5997849718309695, -1.286024371935124, 0.5292138843162102, -0.3022942285190403, -1.236872852142452, -0.21679864358372988, 1.0028416527055084], [0.524775479921152, -0.43610330483228094, -0.6078839998501593, 0.8701403086862888, 0.15982842221100013, -0.15030948847673745, -0.0908870824428936, 0.2328317408966236, 0.08283311164033967, 1.0038216946438712, 0.9573381629694838, -0.6322828102493641, -0.3717534610657124, 0.14305125146792969, 0.9870588764631485, 0.15666229686027905, 0.8466907317672118, -0.6424976135229198, -0.5845701232355363, -0.8041026345582742, -0.09353754760697387, 0.3908711780224129, -0.08394488591350985, 0.7730393495159998], [0.5162526748687183, 0.5132552413943335, 0.10499327724323236, -0.8476951404473848, -0.7298668508746675, -1.4497462031019013, -0.925362821856354, -0.5041409781031705, -0.29564586536728704, -0.5091670118180966, 0.017243373210324018, -0.7809424611588967, 0.3952383286982846, -1.5220607289071857, -0.10546840731655119, 0.41913057872694776, -0.014008973359074759, -0.5593048236924194, -0.41201453388290554, 0.2915078474335317, -0.6162688733716721, 0.8388705868356724, 1.022529396575584, 0.9180937246362214]], "bias": [[-0.6519030849564795], [0.419204635521853], [0.5740321920960254], [0.05864426471499823]]}, {"layer": "activation", "activation": "sigmoid", "activation_prime": "sigmoid_prime"}]}