{"generation": -1, "fitness": -1, "network": [{"layer": "dense", "input_size": 16, "output_size": 24, "weights": [[-0.4803797891336698, -0.9494848024233999, -0.9935655940789674, -0.4264760470690438, -0.6496581515342363, 0.8848739245509124, -0.7812862818797988, 0.04553835987420762, -0.8721713440972247, -0.6322326953522907, -0.1390705303499154, -0.2510737889607116, -0.19984845824750685, -0.09830839701345712, -0.28820384058071236, 0.7601510756406712], [0.5917345647852285, 0.6603897980509137, -0.7607686762100268, 0.6423917106114155, 0.3567822430833718, 0.4958122759039056, -0.05944292324723039, -0.10890417166090782, 0.202531851158388, 0.2209767622782737, 0.6580708643410851, 0.4208850464960221, -0.6873543155510919, -0.47981878995881533, -0.6818461775998743, 0.4212095609227951], [0.5718598335364756, 0.197346098234237, 0.8887178108483049, 0.7113770979727029, 0.16464518207292378, 0.8382422754539096, 0.39201036413199564, 0.8464746174258588, 0.8612328398714244, 0.14061031870544358, 0.5923646517159468, 0.9745163129234546, -0.643293702824739, 0.40145150019534204, -0.9962304633389771, -0.18343584913249317], [0.29235003152408395, 0.534730159587254, -0.03285736289065544, -0.7279231299618543, 0.35276803226940645, 0.7704717256347642, -0.9020359701136837, -0.321312802704101, 0.49999835550146665, -0.8074152845797471, -0.03498989808793961, -0.7020420588951652, 0.473289553955494, -0.9018898762694514, 0.12408164037567526, 0.3066148185385042], [-0.18472310774298908, -0.6896771921533036, 0.8009333756091193, 0.023421540975435966, -0.48452826697091833, 0.8470406524405578, -0.8546973482574659, 0.20596518747492065, 0.11633092120737532, -0.292468771714206, 0.5114871310376782, 0.7249337476285672, 0.904550098288093, 0.6312487973340947, 0.15023750333516084, 0.4993313546243075], [0.5263670075884612, -0.0985484215032304, -0.04414698254144089, 0.05684182357250731, 0.055319408831073114, 0.012892374659751809, 0.29819156978885963, -0.3051344772827622, -0.45244902069978976, -0.90223961998035, -0.09704993765750888, 0.5186132735151047, 0.2025315846674598, 0.43345807871228603, -0.2808587804088096, -0.8459061102066404], [0.3496382268104229, -0.30163049263276864, -0.804285017410606, -0.817413506182129, -0.45795216696327534, 0.5286495677617236, 0.6500456316031287, 0.9441198533830046, -0.8545830797635146, -0.015264073894428059, -1.0491807524266836, -0.3287330165783135, 0.3926448365426367, 0.46887599818593056, -0.7700187103121057, -0.8215732246546154], [-0.8271292473099648, -0.31130673105890216, 0.4589134413666436, 0.9280060816934641, 0.9583147941820618, -0.2979218390744767, 0.4497010021181798, -0.27695181223345755, -0.027252109459908525, 0.20772872492704164, 0.19712637100385716, 0.2671616475698187, -0.9498349574396865, 0.5132224292194852, -0.7243417349509962, -0.14220490487555396], [0.08499171237497083, 0.020378348521169265, -0.44402237735088534, 1.0759248039778722, 0.9285481801948885, 0.7314725902339195, -0.46354569563516845, -0.5482860566941063, 0.5167405830993843, -0.03882199664652531, 0.44460412587477405, 0.6751234747918585, -0.09662538112516339, 0.787656259136896, 0.5909876025753633, 0.41663931896077533], [-0.18484022959765867, -0.6114438540586475, 0.4944463834665509, -0.4129803324940887, -0.28955475325851143, 0.6259863038487635, -0.3526153262221042, -0.9990365593977604, -0.04734639431522014, -0.40969411345145, 0.5230785090166289, 0.18369286019046377, -0.53895879544024, 0.2828287703025516, -0.048787706301261835, 0.9112922426829538], [0.08644002453890627, 0.7234145822059568, 0.5870707439762495, -0.7900074658772577, -0.9719389999365695, 0.26181143810811014, -1.0529641839390746, 0.20111541373394548, -0.9118403185811388, 0.6391082200239134, 0.8935978217505696, -0.821730616431905, -0.13050577629159443, 0.8137150611139984, 0.5618235807376661, 0.48780891975341323], [-0.9448688726562916, 0.8902379565618734, 0.6185138322126538, 0.7329493887750358, 0.6004018651122691, 0.3001808549303464, 1.0319290933828702, -0.14931092721958228, -0.6704664268317837, 0.029856427720668037, -0.15253794358431938, 0.7179769863537485, 0.10509143707418778, 0.9657822437176372, 0.277310588745038, -0.7041694631208726], [0.467313824024356, 0.009784451152235363, -0.37802497708333505, 0.14126820726055106, 0.15068824562721272, 0.17722811521411833, -0.8496443879385869, -0.2468222604175696, 0.2586474857540757, 0.1487295050011891, 1.3100416552772693, 0.5972574080598335, -0.4509798296721008, 0.5895578947822581, -0.12231971831036259, 0.5924605602565827], [0.4543010010030836, 0.16578411682538574, 0.8190813857522155, 0.8922495745794944, 0.24228208558291642, 0.3940510352500776, 0.9962973915609613, 0.6516030990366546, 0.7297376581085335, 0.8931324885643164, 0.9445159916839928, -0.5421053993117989, -0.731094303085331, 0.23344745933896302, 0.016242157315841776, -0.252834525635761], [0.8712119113678415, -0.7755811274426547, -0.8082866141744562, -0.11741310685438519, -0.983224468801188, 0.3428577465698793, -0.4965949118166022, -0.7290623196185404, -0.37473080014662674, -0.797414269515903, 0.4120004284697097, 0.6739372190534794, -0.22799056592790778, 0.7475286391655243, -0.2620067429479216, -0.2791182815900832], [0.8071324050670481, -0.8064961599344924, 0.31444494411111457, 0.561813396576494, -0.4370122849939517, 0.5705630398141371, -0.6915193752908391, -0.6023144768755353, 0.24228451378963012, -0.5626272789618232, 0.9132390727621242, -0.7911733231189338, 0.21188473243794848, -0.965188729109376, 0.8562764402103349, 0.8676785592643533], [-0.4009462403711003, -0.21530924279618757, -0.21608164820950493, -0.4773926164628992, 0.6466046428788834, -0.8048712416401874, -0.38041026478287365, -0.34960926373487533, -0.07735841023217715, -0.5927524857010789, 0.37568281725397246, 0.2358349809869992, 0.3620629828074642, 0.3507085519207868, -0.8708315249313183, -0.8251194262899032], [0.7937228841216764, -0.028185826452236995, -0.8181384047166174, -0.34853722729243203, -0.4666195801596007, 0.015361006689836717, 1.0027255274288023, -0.20959735539521818, 0.4188950238002709, -0.6040152479877033, 0.9620477384281618, -0.4667743169967543, 0.02726146531347795, -0.28885617064398417, -0.938333664988594, 0.3912642751669715], [0.37688752605445797, -0.2821412524962299, 0.40004263776361393, -0.30682823432471645, 0.04013574507188489, -0.40238998735143217, -0.5495437244538066, 0.940282496200666, -0.2723083843321663, -0.04156362518402092, 1.718322360735715, -0.04234812269096252, 0.19180548434506406, -0.2997588983176978, 0.9551768097128313, 0.756895959958846], [-0.22043998919051888, -0.12473012009423612, -0.14131866743480503, -0.5656578693726857, 0.15987729995652766, -0.28585446043339147, -0.1329021345512546, -0.4867640934717632, 0.6240196538787623, -0.00578803281102192, 0.5368047597393739, -0.4882481354344083, 0.08608221041450492, -0.3679261685590044, 0.3495097504073448, -0.457422310554041], [-0.1412621567992448, 0.5370832332131241, -0.25983220463381906, 0.7466850588270706, 0.6386171277614463, 0.018573478138463235, -0.10366340425717042, -0.9571800645904796, -0.6988309248082287, -0.2775469207459033, 0.5700298468623494, 0.32283012227380126, -0.7835710522303143, 0.5349002948463168, 0.05388453399534887, 0.6509847471489161], [0.25577821398557304, 0.9499624046692428, 0.5045352634785873, 0.27758636353380933, -0.4484471094446265, 0.09744803024854945, -0.5151404667975374, -0.030816890765627436, 0.8565527697781461, -0.16211085871741798, 0.8415333429711395, 0.9039379232745468, -0.14243888700040852, -0.5010481248214043, 0.032760274192574546, 0.4087019795612386], [-0.02466669707414137, 0.7214603589264863, 0.23532011862768298, 0.6718403004531689, -0.5532089840333978, 0.40534425713119304, -0.10135363343829444, -0.7177569881534867, 0.26930476189286834, -0.39379376849154357, 1.1302394881723052, -0.24933793657362557, 0.5943900798720649, -0.5383668187982632, -0.01787806523604263, -0.6230929780585249], [-0.2158892239026311, -0.9087662801106959, 0.11727461706396247, 0.027566973296355112, -0.6049727595572272, -0.5953945652815213, 0.6475609533572996, 0.8928711700371881, -0.6189178156298321, 0.5980169549028402, -0.3641085592286579, 0.22184904213035792, -0.7331466036256908, 0.5432260121931537, -0.4896227176665009, -0.6666185159517988]], "bias": [[0.8434653589204881], [0.569351602239079], [-0.6849034304805566], [-0.2430757493975151], [-0.10796030788550098], [-0.46747832005081336], [0.5510404401934609], [0.4581990991785801], [-0.07399529069148215], [0.8602407481350568], [-0.012352376149092828], [0.7279550699941587], [-0.851578828338569], [0.02780994238456913], [-0.39225801196047994], [0.626687357663837], [-0.6450452438171005], [-0.6877927205359896], [-0.6386348334748628], [0.6537575352533226], [0.2888966799516041], [-0.759631797972149], [-0.43921788583429755], [-0.011030276821760618]]}, {"layer": "activation", "activation": "tanh", "activation_prime": "tanh_prime"}, {"layer": "dense", "input_size": 24, "output_size": 4, "weights": [[0.9884785998998635, -0.3510031240281525, 0.334141069143254, 0.2308028732161565, 0.8539919828263314, 0.05499766141973546, -0.8204021188043986, 0.4117932664725685, -0.4374556157567081, -0.23834546735614323, 0.8178935135629709, 0.6854870797818343, 0.39986450388086653, 0.03379349907073436, 0.4078346916969519, -0.7220896344874849, 0.34577953346102924, -0.251216619303543, 1.1959801810053912, 0.2906190625049705, -0.11625575424737801, 0.7779274349277009, 0.6242299655066368, -1.0546715366293524], [-0.021972422409398163, -0.6716528999001764, 0.6415808684888563, -0.7149672335664394, -0.34152601215598466, 0.6397411628576938, -0.28025444260637233, -0.7546199139535528, -1.0568936981376982, -0.4034351733195645, 0.11788456050884552, -0.9544890292366682, 0.401642273661058, 0.7443306523191016, -0.8602262240395072, -0.2824229713669551, 0.8031173884631739, 0.3195849866769551, 1.0106000564019377, -0.7197989334601684, 0.0888868234484469, 0.5383269488391473, -0.11625719193877604, 0.13906818812174962], [0.4407199213164674, 0.04589259390461424, -0.3306059483976636, -0.45513894861665716, 0.015384095315390027, -0.39193445840265906, -0.9811819549290166, 0.27891790560665797, -0.28031431116711886, -0.8450480080164486, 1.0072635306277888, -1.1280250672573198, 0.8382129174589665, -0.41507646456006553, 0.411173401563267, -0.24569127106351857, 0.5652383018578768, -0.778720759736246, 0.2662591468142151, -0.703792703490846, -1.079503611996016, -0.9362513543501301, -0.38586902556369557, -0.2640268374272316], [-0.1989541421699309, -0.9079388876098774, 0.5068282120375203, 0.4792883193940207, -0.25233001245458736, -0.34931563999012183, 0.18920614662243732, 0.7305878426898136, 0.4223635204766471, -0.3889851566573225, -0.8534591286698695, 0.3903843398438831, -1.151247860024556, 0.4609729595057872, 0.1469922562924627, 0.5796833688792559, -0.8320818186291844, -0.3056909468411487, -1.454648579813294, 0.06115185042543102, -0.8607479142188069, 0.27394346298963873, -0.8177185517339376, 0.7781990663080243]], "bias": [[-0.36601317523104177], [-0.9542915381333457], [0.061087116373389996], [-0.20493474766648498]]}, {"layer": "activation", "activation": "sigmoid", "activation_prime": "sigmoid_prime"}]}