{"generation": -1, "fitness": -1, "network": [{"layer": "dense", "input_size": 16, "output_size": 24, "weights": [[-2.355508634436538, 0.8299799131068619, 0.2067826291063697, 3.967893738891234, -0.9032742880587175, 0.21632528835524434, -0.06009187374822815, 0.8187352707194111, -0.7116100077026606, 0.17270676062372464, -0.9028843615485842, 0.9190219857758701, 0.4963670764885415, 0.5451209580157259, -0.06129648981544089, -0.8695172168676336], [1.278075640490941, 0.49857083759095455, 0.39417187744589843, -0.25970644795834225, 0.6902787077123267, 0.2787982964298787, 0.4430798042947699, -0.77373521780953, -0.27924284237671637, 0.9328195358231413, 0.87572401714242, -0.29738801921431357, -0.6902439701173659, 0.5442872514708279, 0.5156173036364509, -0.2971656086932081], [0.06377737522254745, -0.5647895018501439, 0.014584839613051459, -0.6087809726200166, 0.4858727522131612, -0.09512078113474202, -0.26483187958752924, 0.3336674377058708, 0.5670060348956836, -0.3552177076281817, 0.11853578722335992, -0.6042051136258061, -0.1612753381275709, 1.0718901108220515, -0.46424288393584323, 0.8455033869741824], [1.5639525009656896, -0.668422468758403, -0.659351559512662, -2.860230661740702, -0.6375954628230311, -0.2846648941478819, 0.46907586985563754, 0.24221577580586806, 0.38176481738714574, 0.4959690085065118, 0.40992323669887576, -0.44191356347841665, -0.5776532404348316, -0.3051439855310037, -0.4042083266954488, 0.2790500301112995], [-0.6735987460216356, -0.7239246966293593, 0.6854580849208296, 0.6520164632662565, -0.44842419805087186, -0.17660636116564576, -0.21090060229835342, -0.6396223352211008, -0.8033455348779612, 0.1504849340785372, 0.2083382935744832, 0.5770885752314877, -0.5277942471224544, -0.48141526483556296, -0.9416507372145866, -0.16649461291508894], [-2.1601954961788183, 0.2681787924450161, -0.5071508129177507, 3.3204085717230623, -0.8595896113447263, 0.9037024187010494, -0.2338217901613536, -0.7699704648243864, -0.02167615081717944, -0.7484504897705895, -0.036326026740881596, -0.09610291117444072, 0.44132050999857664, 0.8887444415762137, -0.45143198965137254, -0.1836366873555207], [0.2948328432428053, 0.3824376653060002, -0.886442795020324, -0.2943762219975526, 0.40529828747599117, -0.9978354181566508, -0.2736812621957019, 0.7944584802242147, 0.28896607964876586, 0.7400168275935265, 0.28916297295267823, 0.25846732765608127, 0.6464518806591606, 0.23319675032061418, -0.4973384543056083, -0.012952453192625798], [1.0149562889166712, -0.8987282010735425, 0.12917950772874054, -2.958971921093118, 0.5326437090962297, 0.32585271367533347, 0.8772951786741654, 0.30743522332735496, 0.11119985903471741, 0.02700105226681724, 0.2549237965822884, -0.6127071889358059, 0.821868083869947, 0.511576261039547, -0.7111676384441021, -0.2807298784533781], [0.2818623952176913, 0.8748783754178482, -0.130157912698472, -0.4576298198200997, -0.6897801382371505, 0.1855589860334263, -0.29874053057587213, -0.3712944257606505, 0.6559433887530055, 0.6376517641466266, 0.3289687333418359, -0.20040645527607076, -0.5048826521472332, 0.13851607964413265, -0.42855061123324223, 0.12555527270502165], [-1.0519337028055926, 0.9400221891851019, -0.4998658371092899, 0.6731091742679807, 0.7074685057789507, 0.14094146080456155, 0.506464772843574, -0.12864165207758282, -0.9443012309362788, -0.0676834811584016, 0.5300323509456271, 0.4216863573319694, 0.8632928157454813, -0.33561292657757286, -0.784500587842726, -0.5915061539245485], [-1.1012458476763134, 0.445284738070711, 0.01342942217591414, 2.683494203617916, -0.37321728350339156, -0.770204365986421, -0.18065549236779124, -0.8566827324569402, 0.7067913289442187, 0.796837047608735, -0.6216444718528724, -0.8934346955379645, 0.04840557458871131, 0.6058681818281068, 0.8761267180016776, -0.07155496037013058], [-0.48261706657595294, -0.944006251699455, -0.910358919913298, 0.05870983447126957, -0.15564449213582954, 0.8105040957374445, 0.5727968045496418, -0.20856269285075557, 0.9738037543889413, 0.8945691543518464, -0.09623351397072365, 0.9486337730422755, -0.9830290602630192, 0.6431271208954757, 0.5926031190316812, 0.789409657026475], [-0.25758379431314493, -0.2649664530097269, 0.2952875870545044, -0.8498882305988132, -0.14433403825680746, -0.8280924421004359, 0.8963381431087823, -0.688979829467089, 0.4294034670557081, 0.04739685593185959, 0.25368725433110334, -0.34462161896920107, -0.22491982014038503, -0.7406265157132529, 0.3934929661451836, 0.9286366646121562], [-0.12454297404766591, -0.35615010528852165, -0.5155842771732109, 0.1535475095167115, 0.6990692163296823, -0.457261635407297, 0.018234273933034274, 0.23125506347134372, -0.8179794041487982, -0.14171015441691143, 0.6485471568271765, -0.8440475142544602, -0.12515070456498512, -0.7987916556412057, -0.30506545171874433, -0.5878903340211538], [-1.386954387499619, -0.9964914766275088, 0.3580274492061679, 1.3271930160608205, -0.1090816828518868, 0.513302559776609, -1.1874906762012394, -0.5839892880723621, -0.39225430891949875, 0.5150637486488056, -0.7635619233325648, -0.5635805145498358, 0.8845057803938816, 0.30744310313418766, -0.7892075375059351, 0.609388609083986], [0.3775775543354103, -0.5426165902532083, -0.5759892223470795, 0.3151838441960431, -0.8055603931273336, 0.4666070510123915, -0.5099976675315502, 0.8283963056377874, -0.9048700013371012, -0.8486574277085752, 0.8901810286470576, 0.41939223850808627, 0.6174834673136116, 0.0043297900338220485, 0.049586492640194324, -0.7329179378969481], [-0.9985279157854255, 0.5205618643686372, -0.5522293501350044, 0.6650719465287407, -0.18022090933522827, -0.8795633010885444, 0.8604323152140467, -0.028781978687955068, -0.45754906643612436, -0.7579190014728381, 0.9571697861509082, 0.07386029535714739, 0.9859909478283841, 0.7717784086559493, 0.22246323141451607, 0.36992577693807877], [0.9701643588382652, -0.8901328919403646, 0.09559557409642494, -0.8274585752319384, 0.7703151035387237, 0.1167061262132235, 0.583917579565506, -0.9781688089831309, 0.4993849895536133, 0.8235141634904191, 0.5952700673271805, -0.11174588035080957, -0.3118014872114301, -0.5812804402864826, 0.6836845674871534, 0.06266781740670284], [0.7904240452029655, -0.8552887561452525, 0.2285461654637746, -1.346874532736501, 0.7196842822479197, 0.7204264485030171, -0.20235591064083785, -0.021597331683483656, -0.694782127513069, 0.9496726476278484, 0.8684543006615375, -0.24352058058839687, -0.46536941665244647, -0.7330101606087006, 0.9493227860540088, -0.8004353332688247], [-0.8387023585984937, -0.13671731332710335, -0.7418042001185361, 1.1376754409126757, -0.4136245973435766, 0.383312810212142, 0.7102289745047056, -0.6857996869943117, -0.30779795121497355, -0.28023611690170186, -0.9721916434745991, -0.36301281802397045, -0.25519667280860303, -0.08396134995089376, 0.6460666436359976, -0.7189106617820205], [0.1730783715803037, -0.04892382554006702, 0.025948962141723486, -0.13282102589335362, 0.18765221650523634, 0.5302016190582406, -0.10767860689000938, -0.4607906626740055, -0.9598594344403242, -0.2697810453528988, 0.6992306250804915, 0.08080809546421058, -0.30484030134424733, 0.09777589228307453, 0.6663089129558892, -0.3454644809270689], [0.24478379375438564, -0.4681189967779311, 0.059303785472675896, -0.14551877952416234, -0.025051817740153304, -0.7330289510446518, -0.3265283042363456, 0.6472884725414292, 0.7685549853763709, 0.7208974868292277, -0.8605550030499599, -0.5722613399316112, 0.5204883058897904, 0.5566361254349352, 0.21631076903556634, 0.4682407614445879], [1.099788127038073, -0.43126570768590966, 0.4237678077659932, -3.750039498831176, 0.48201068082250864, 0.20608348014557393, 0.37388889933483044, -0.03292201330458755, 0.014287751822652517, -0.10837532660327076, 0.8253750652249767, -0.5377055040309934, -0.7321959333920829, 0.46343738297464526, 0.6907504154954656, -0.690769564440608], [-1.920402910964685, 0.9162534465760084, -0.3021975919651272, 4.0437626692046775, 0.25461914086349213, 0.22648573400811708, 0.2321839478838801, -0.9559223865961164, -0.06706756116991741, -0.7031232748294814, -0.34945392981994683, 0.9147140425586766, 0.6097913054027755, 0.1382430927137869, -0.2778184967433448, -0.30929230246174144]], "bias": [[0.2676391877310376], [-0.24360644948558377], [0.7670151924210394], [-0.2044887482008597], [-0.7916995600806712], [-0.7063293976825947], [-1.0603870145206322], [-0.4939676708263275], [0.4983421339345838], [0.25729097493592906], [0.5953175779025804], [0.8068428458966791], [-0.8659606240272809], [-0.7102007507461221], [0.039805219637087524], [-0.6995278574165534], [-0.22974819276084826], [-0.7310401568592264], [0.46043171034743197], [-0.4903847241303187], [-0.7670748644625599], [0.5102015740148538], [0.7174837131398512], [-0.625557678760784]]}, {"layer": "activation", "activation": "tanh", "activation_prime": "tanh_prime"}, {"layer": "dense", "input_size": 24, "output_size": 4, "weights": [[-2.2051426216497014, 0.4535155324554139, -0.15433970884205395, 1.045486345655899, 0.09735111841722253, -1.061983949392299, 0.37521279766118404, 1.5101062136484862, -0.24484956869285132, -0.7582736098079126, -1.3672622009852267, 0.8573205460558421, -0.27344246143279044, -0.6623521346761299, -1.4151559940509144, 0.5633281090491645, -0.8230308413637083, 0.7400577983200001, 1.20461701748678, -0.347789644528535, 0.46445089258237005, 0.3226726965097428, 1.2725342789959073, -2.2348663482956885], [-0.7985826076197492, -0.4766457351025679, -1.032034098758296, 0.289784553345024, -0.6316703749473674, -0.8815112146623552, 0.5191391953873562, -0.08294956547538751, 0.20910022479405496, -0.993115001012996, -1.0500054518357023, -0.7794667063582873, 0.3485906175255331, 1.1739794149269749, 0.11629193149017554, 0.5224499820139752, -0.6272283019624082, -0.28866794986459354, -0.8652145628685498, 0.654596503813783, 0.4109713063003696, -0.7751895901855049, 0.12486690976912429, 0.5334562182179203], [-0.2780900584217161, -1.382705035780812, -0.5553078947762218, 0.6706035416863174, -0.07256745981826006, -0.8378027860491802, 1.5404296467769496, 0.708496676474242, -1.2906179099294073, -0.5187455576870904, 0.011369218326432532, 0.08905914262016101, -0.12041996042458607, 0.6396271780497732, -0.8871383785101403, 0.2210475082711233, 0.24120284672240672, -0.2098411957347702, -0.06746016165192627, -0.3478826632398409, 0.48483504155873003, 0.6967077358199756, 0.4543381024205198, 0.21093514282206022], [1.7870333812587174, -0.4854248301560406, -0.3814249168745476, -1.7504809173704043, 0.22530479833705602, 2.284859697900359, 0.6634153585116128, -1.0947469509064327, -0.7730968025324363, 0.17883273801137334, 1.0953392246145166, 0.9486088096069557, -0.7485054823933179, -0.24273409448986044, 0.199753287824861, -0.03428465431397911, 0.013347399555335973, -0.33493253170795856, -0.20015121013803908, 0.8612732721610803, 0.1290780232756655, 0.1298593877111504, -1.970100299257312, 1.6008545313155076]], "bias": [[0.029034551688529996], [-0.4614785251580963], [-0.29919444350543745], [0.3398021641104743]]}, {"layer": "activation", "activation": "sigmoid", "activation_prime": "sigmoid_prime"}]}