{"generation": -1, "fitness": -1, "network": [{"layer": "dense", "input_size": 16, "output_size": 24, "weights": [[0.5014995653495805, -0.35450218806718664, 0.34812254856407365, 0.25026872052266, 0.3980933658993535, 0.6534432781454207, -1.0358433723018323, -0.535342201093143, -0.45816192979948994, 0.8546915938571205, -0.7380610365933026, -1.021591509491847, 0.963194733953835, -0.7840873478735296, 0.7654815923639692, -1.0281859139659482], [-0.8481671233290198, 0.2604990573742554, 0.5289375969734903, -1.4494436680515392, 0.942667530956729, -0.3849255830348361, -0.5005738808979554, 0.25110596737363955, 0.753592609473887, -0.09904682640504318, -0.046333811247773055, -0.2803928339627732, 0.710337581122975, -0.9104188069173608, 0.395286058539561, -0.7048173929615682], [-0.24665028340766412, -0.9364085678639958, 0.23268826635227796, -0.4321312674086357, 0.792176008742407, -0.5145640549608915, -0.38373060524155467, -0.3908752142624423, -0.5513953230363593, 0.7017034042558665, 0.8943519193551076, 0.0300734928597672, -1.0020558089401799, 0.6650253010928956, -0.06978038555550024, -0.28503191630568075], [0.5716852032401603, -0.8978267908793771, 0.37767706409927887, -0.686908257554013, -0.7059260122796465, -0.689246932509475, 0.1540972443337448, 0.8723151813728351, -0.5182351610345708, -1.070208914679556, 0.6840034378776092, -1.0209749205898095, -0.2007050737053069, -0.03503811871529118, 0.7976958808453211, 0.6688412839162582], [-0.36049955005037937, 0.704465299783608, -0.6675222436071054, 0.5588191403785913, -0.8730055626431046, 0.8526987826040602, -0.1244468772779215, -0.9678869472644571, 0.4257198229088611, 0.9274953972305653, -0.9088741578490983, -0.5842780965630401, -0.24318753661175643, 0.8588814625320556, 0.9340005664552539, -0.6031235739269247], [-0.4558439595646621, -0.5547497296866788, 0.07178052268214108, 0.410372691640945, -0.5265017605282161, -0.5972783334635793, -0.6854469342248559, 0.8928279386038738, -0.010283334428271859, 1.3466073076703715, 0.45230075542100867, -0.024546950038629903, -0.06966210868311695, 0.10136182989566353, -0.5933692100734053, 1.1225822818830222], [-0.13019217297330588, -0.47654407632871193, 0.8276569915579898, -0.1345521252728288, 0.8237308226995541, -0.5512256988207572, 1.5997146889897236, 0.026660174785258395, 0.7726993079459431, -0.9200883549806859, 0.8006494120347095, 0.7040630654990683, -0.24000540458832806, -1.001019289404006, -0.47080280287515497, -0.03308184890002051], [0.75742596123891, 1.0048544905319723, 0.16010265595607528, 0.1224053452165409, 0.46049194512545477, -1.1728895207735843, 0.5801765751605932, 0.24252436188449344, -0.2507091333226962, -0.06821270578105475, 1.2727405220094063, 0.814976060927229, -0.12753871725544116, 0.75178670534259, 0.534397825161809, -0.7645825228959932], [0.5026747056134094, -0.003898551853279778, 0.8311356182498197, -0.6716956875948075, 0.5197129150971924, 0.05519448585846928, -0.7089928938546696, -0.7037763091602656, 0.6525890779027681, -1.823555623901715, 1.3037211891195972, 0.406764279784918, 0.9401305446426875, -0.922409010017272, -0.7030035242253687, 0.3572952436263228], [-0.10661853900308313, 0.3181147429767506, -0.15082809714418166, 1.3720992841086368, 0.2917552258025211, 0.09435971071083796, 0.6895924873026484, -0.5705123234455527, -0.880235400674132, -0.836316541934255, -1.0374896863804643, -0.5242356766391684, 0.3927056784637648, -0.5016276807407373, 0.07233752998843786, -0.15918556759264899], [0.273888431859103, -0.8227068740733752, -0.9643143096769022, -0.3467391337235213, -0.07533272626694454, -0.2714116895035399, 0.08108193522180084, 0.5244953732434492, 0.33556199663907427, 0.6126578031807515, -0.9534874077197939, -0.2758155986897463, -0.5514837484038171, 0.8440203306676091, 0.308192959079584, -0.6877857260846898], [-0.4910906902670513, -0.19864268163134025, -0.6625173555110827, -0.9801475430718743, 0.9873557464995741, -0.5492651293197499, 0.7342566991235484, -0.8678780580185175, 0.6414645713330642, 0.07476337603341202, -0.5202479573180366, 0.0704756683430228, 0.37776042792995007, -0.17584038985890693, 0.3951134979187572, -0.6560438850551316], [-0.628507731809718, -0.14704879371872417, 0.4568178457836361, -0.02350318903530572, 0.5753419323430644, -0.5997611976156276, -0.6406315101747085, 0.7164484441352519, 0.9428568997394899, 0.005459829170858892, -0.35971820851371544, -0.2714912992754296, 0.17016779415636474, -0.12303229848274412, -0.9280417974801751, 0.32092668384718964], [-0.3159637200301182, -0.3230419440363441, -0.895973955150737, -0.7305194563662951, -0.9316914327465238, -0.48256063514665243, -0.41264402901526426, 0.8353726782625908, 0.3290060229408896, -1.0762434857670904, -0.08572949739158792, -0.7846609823199246, -0.5006799175214871, -0.10983253045328796, -0.05783727144893788, -0.34067993327948276], [0.020619331266846612, 0.8872668407180567, -0.21099633641383192, -0.13941286641561967, 0.9233550851228194, -0.6908745627830659, -0.24819670099633379, 0.7365417192084802, 0.9603306320573483, 0.39054314491781683, -0.08344903797947166, 0.4264846003843079, 0.8280995198186701, 0.4848972342566177, -0.9476026006610209, -0.4025510991110876], [0.8961747257882933, -0.8858756059991332, -0.17350489632921287, -0.3594265627700844, -0.4005552688461791, -0.16075215727718944, -0.8763849018098642, -0.47214690109267243, -0.536317462897444, 1.1199653516824029, 0.35843246199423123, 0.675705854264643, -0.0687257834968553, -0.8953957870097438, -0.7563283364435973, -0.37808630033209706], [-0.30584974681689003, -0.993751203013712, 1.0164492946778965, 0.16267630432956076, -0.3826887666978487, -0.42266811435556356, 0.885702427835144, -0.05108541072684192, -0.3310647956965006, -0.2655131591341339, -0.9441664360508732, -0.8661631779766205, 0.8182138986602846, 0.08605901214633244, 0.1616063742352162, -0.3977611164056108], [0.6912266571768458, -0.7229998795543154, 1.0029224441036406, 0.39211600162908544, -0.13742368006564187, -0.9642159251469048, -0.5329694315379315, 0.40173785124806827, 0.35354777596430703, 0.6880442080316878, 0.08450747727799542, -0.5965926686926207, 0.004878161428909323, -0.4242701672631235, 0.9889114199688387, -0.6062411078521107], [0.30959326846707363, 0.6847322296072342, 0.3637340758930523, -1.0651667326660663, -0.48103231461713314, -0.02791862607928152, 0.3174455598370543, 0.6098310608747406, -0.13482775658220048, -0.34144190812730507, 0.46119989226238345, -0.5593898708473615, -0.49919100890020335, -0.7879609104506169, -0.5055128179519248, 1.0753257153316835], [-0.05714371311302571, -0.17710182155742607, 0.12031770582564827, -1.6814785304650253, 0.17671492584758353, 0.9927249485911415, 0.035917687707200815, -0.9865533611662392, -0.5513695996299272, -0.5124827433298825, -0.43019887436163606, -0.20171482090700638, -0.1336558502663471, 0.8949250633315518, 0.6947077343550387, 0.6809729007721587], [-0.04245468486856553, -0.1660641695543119, -0.23536224968014063, -2.5812153042246173, 0.8206983520504962, -0.7098545967954808, 0.5455390637500314, 0.9403004010751224, -1.0657761172813396, 2.2854924561660006, -0.3328104091967225, -0.6143697141452656, 0.6259084396993753, 0.8699479792150807, 0.5095186887728769, -0.09683211163794515], [-0.15064569468353498, -0.260198444907722, 0.4003581358436978, 0.18644770284106435, 0.881950597657672, -0.0802884331899326, -1.0645026051592297, 0.0034358232254612098, 0.1791855719760543, 0.9459432534723757, -0.7448946636103073, -0.43881841444629593, -0.9470653163725371, 0.07883965563363904, 0.5006146502309445, 0.39745760396168905], [-0.09436750048867452, -0.6145371488897007, -0.9640900488265859, -0.29556943837772715, -0.9287008105622669, 0.10940337877325487, -0.8640546200021993, -0.07807381647987466, 0.4319605752975864, -0.9892670933308961, 0.9135679714256918, -0.08844417335330039, 0.6504192178303828, -0.5234555047789838, -0.21069935064831083, 0.49345510861795716], [0.3236580434288896, -0.8334256954671623, 0.4900367136374748, -0.4946040017212468, 0.2935039022099173, 0.6054391832924312, -0.9502474297493302, 0.5377693647683746, 0.2070425052139263, 0.6421898539995938, 1.0262338740046923, 0.8419589804601497, 1.1274851675199127, -0.5685358669678181, 0.5828958866713068, -0.7761072014136561]], "bias": [[-0.3000218488245891], [0.2996552085588451], [-0.5836158812459836], [-0.10726323652382791], [0.4763862677829678], [-0.5525050662626863], [-0.055581492076054465], [0.8555774306716396], [-0.19776251114342505], [-0.18288630672996992], [-0.3144892673888917], [0.7103699266529725], [-0.42696860857147034], [0.5353133247321457], [-0.014171222602299976], [-0.62934704720149], [0.4914424452249988], [-0.7538404779374078], [1.0766748528208145], [0.9052401787954963], [-0.7606982652657135], [0.3183623835565729], [0.04824697311955111], [0.5764018807827024]]}, {"layer": "activation", "activation": "tanh", "activation_prime": "tanh_prime"}, {"layer": "dense", "input_size": 24, "output_size": 4, "weights": [[0.5488900091591825, 0.4079999135933419, 0.8664633030492769, 0.5793060782383612, -1.1382880410964529, -0.6434399374907669, 0.46284577300231783, 0.4658109454119994, 2.3856774696332406, -0.5682844643344734, -0.4751367653760163, 0.6832260053832578, 0.556312127633217, 1.5119845196227963, 1.0049246895228388, -0.3208085430259766, -0.6833440882543401, -0.5580010888556809, 0.2707848987282898, 0.479869108001679, -1.2720433584561768, -0.7997533755663173, 0.8888665091249581, 0.42710474782786945], [-0.22961253632446474, -1.0929124147716385, 0.2587557659248078, 0.2640043933903221, -0.3487485889825369, 0.8098528360317109, -1.5780456445603441, -0.9188342691013145, 0.6511660306044377, 0.4788273119355524, 0.2657468284735599, -1.5675489131808584, -0.22797980789391364, 0.7576501772948446, 0.03303728062827687, 0.47114411049426036, -0.3946176685258572, 0.437632397666961, -1.4580780582815829, -1.7689410589064893, -1.3178811021804908, 1.3299020636689205, -0.525908431471607, 0.35344086031108424], [0.6976961145715846, 1.109710464680461, 0.326496206440301, 0.831799966646041, -0.6613143757687665, 0.45642472159871406, -1.0702662862189807, 0.05753666812943932, -0.15976522361061, -1.115863494438176, 0.8314000681884923, 0.2469622662134559, 0.4927221498329446, 0.20539769993576043, 0.04269298599955882, 0.7456897586795564, 0.28039488317512473, 0.34003565154951393, -0.19088627410828116, 0.27716940536704276, 3.117958364330004, 1.1143392020783243, -0.6451857338411385, -0.8958987434508764], [-0.12965727639980973, -0.5510509508716331, 0.03243812546750933, -0.15118847667680607, -0.05763121390188812, -0.9662557971814687, 0.7314437371973564, -1.6445355298334456, -0.5789853964532323, 1.4851522854648835, 0.8664567870619077, 0.4919558527826213, -0.4487907502544462, 0.7361970940701287, 0.09681950532621378, 0.8467427443072304, 0.9615139455569343, -0.7061811772699395, 0.5917755673143048, -0.04822356863267973, 0.5822037564307119, -0.6738718529694651, -1.0720040530377817, -1.6707012854509597]], "bias": [[0.5727539142100732], [-0.9007012135459623], [-0.24137304175099322], [-0.15970226521271963]]}, {"layer": "activation", "activation": "sigmoid", "activation_prime": "sigmoid_prime"}]}