{"generation": 328, "board_size": 10, "snake_size": 3, "input_direction_count": 4, "apple_return_type": "boolean", "segment_return_type": "boolean", "distance_function": "chebyshev_distance", "network": [{"layer": "dense", "input_size": 14, "output_size": 18, "weights": [[-3.7191319442197384, 2.0249870070213505, -0.26685324350920425, 5.07254983791886, 4.119992409271015, -4.557499691817169, 0.9283433506457017, -5.493853111323849, 0.11151259953719397, 3.8556716333853798, -4.485706241875535, 0.921380362654163, 0.14569123230392322, 0.4637388388226852], [-1.1439189700266024, -2.3809436058128393, -0.24736532583911874, -0.8152608042338089, 4.136186448844067, 2.042076807147052, -4.783377970675332, 10.540167002493739, 2.416723022616821, 5.506521549223244, -5.4291356523268846, -1.704415797689925, 0.8756035685377018, 2.0522786128678243], [-5.040885912564548, 0.7694311618295107, -1.1694644357837336, -0.8162662001790821, 0.08417422538389727, 1.8127958715928063, -0.32355603636617036, 2.8573680218836053, -0.11666915913148035, -1.8985366345258372, -0.21580436401407, 0.7479188052516123, -1.1039497906557758, -1.3663982723019166], [-2.407808186012402, -2.745048249826234, 3.2037368129698187, -2.883691922016565, 3.2788576970081484, -4.608291486910472, 0.06377611574178244, -0.9301843922086837, -1.8423859310743467, 2.211707459858103, 3.3871048516624436, -4.099016290371883, 4.535671492517755, 3.109030447458826], [1.2600464383188235, -0.15473408610635397, -3.117581085324491, 5.18530197532324, -2.8050033550468725, 2.104405282835231, 5.591800736342276, -5.108914324821521, 6.63169601710922, -1.244267834610966, -0.035265243550995355, -0.1295352660907696, -2.6275329299489973, -1.6723781555634998], [-3.3741348237848534, -1.4330457574444346, -3.3105031912200147, -0.567570189326595, -3.7278940302473496, 0.10372139295083316, 0.07832956089707332, 0.3811137401558251, -0.0928912247463779, 5.087487841744703, 2.225089568197703, -2.0345274137587266, -1.883856139139581, -3.815209179888174], [2.9937831425381227, -3.9814188812437292, -2.75377128606943, -1.4167259919343769, 3.8418228903300546, 1.6553967069136695, 5.456775697685108, -0.371794188414466, 2.891040177882352, 0.6691323785425274, 4.904192740329625, -0.04269548525928468, 4.021754511279173, 0.1995090980117814], [0.2772878256524162, -0.997405561371257, 1.0790476294868263, -4.192735838703191, -2.561383832062533, -2.451226497165229, -1.586644603052105, -1.992481910799163, -1.0649738069360595, -2.7492241095100565, 4.552179572422488, 2.5245034665159265, 2.16369687706906, 0.7243026503665951], [2.749606707747052, -3.878337178420737, -2.4176201797093917, -0.8459443254504646, -1.95673785076725, 2.182052007256697, -1.1853012128256477, 3.171508454304943, -1.374211853098759, 1.0153916631734048, -2.754690234181924, 1.265091473585215, -0.9788121091958406, -3.338150273470939], [1.5347029165097634, 0.30116686023146366, -1.9251943109448368, -1.2281546481506131, 7.038102717505707, 0.6355481826566479, 1.6815052800610772, 2.0632628394513155, 3.709712537202601, 0.9999919172413924, 1.4065303936190203, 4.74886117603155, 3.216852509151117, 4.463734711340523], [-0.22918529739062088, -2.218254124627971, 2.4510892984366164, 0.42743610932123755, 3.5004411803367828, 2.4579216259852714, 1.9163167768559703, 2.207491026506199, 0.976308653107705, 0.9363081130532, -2.4707993385436517, -4.5577930094315295, 0.23514005415206563, 3.455052781629215], [1.7691841787816651, 1.6552328912487377, 4.798077268023888, 0.5026457339481739, -2.3224033460649016, -2.164280277343593, 6.1689082364054375, 3.497411588111063, 5.283507992605233, -1.0410970645842967, -0.536449599869792, -5.898782037827021, -3.5973911786712827, 0.5088593317412147], [0.7532664436052606, 3.05319082097187, -1.2183689642018871, -4.6850898874960665, -3.213725667629432, -1.6968876596151283, 2.9921916824731816, -1.1999908717439762, -6.501502881654971, 4.31260832323245, 0.061998375684392926, -1.5475635862363664, 1.0751824516369402, 1.4467143485236087], [1.2215706497435175, 2.494192853767342, -0.2079151317713973, 6.681591138882925, -2.766335477761168, -0.2601940722783146, -2.206353709396007, -0.4829361472025575, 0.8924773145506641, 1.9507315317403497, -0.8583037840600726, 1.0424570646023823, 1.8168488797527962, -1.1173808072453202], [-3.1561352340499824, -3.463944994505919, 1.799145733908271, 2.0871466509846544, 0.8325909758775747, 1.0385800206337512, 1.804191419986417, 1.5335591543580098, -0.7144007711049798, 3.3862175867428865, -2.5880674480625716, -2.467098508533195, 0.8362308665135249, -0.6715867154341507], [0.5795325840242435, -5.012892100851631, 0.4592490080254629, -1.5883614494433398, 0.44975914165164693, 2.5215620756021413, 1.472571060111092, -3.4562457263628024, -4.187977338724456, -2.0086023322145885, 1.3598807096464938, -0.9454786705096849, -3.5883726210652, -1.2596455756230314], [3.3447382497674454, -1.4869098568059982, 2.563248436872057, -2.816633562411024, 3.601539785943796, 5.135836238114676, 1.6520701733560674, 0.1724825638205405, -3.613924303927161, 3.023246947741879, -1.1527853576306903, 4.721200569839719, 1.6073496301947112, -0.0035238647575134285], [4.131616909102598, -0.07214792471773131, 0.19814335794996818, 0.11110928197396283, -2.9627455226657546, 2.295932075923762, 0.19277066485997818, -1.2382290061705294, 2.4008610764701306, 0.8190137405282139, -6.332414970161631, -3.294110594563117, 1.157713682010068, 3.4353545960983807]], "bias": [[-0.3442790217594607], [-3.7485251392160825], [3.2865831945518753], [0.5345125128712643], [0.7958088388661227], [-2.5184482099023566], [-3.172553690195204], [-6.069174128164641], [0.44792844733256626], [-4.261744047162717], [-0.805458776871514], [-1.2621076932487294], [-1.1918895394277536], [-2.3158759831107574], [-0.7836506690172088], [-2.2039470267388963], [-1.837305336208571], [2.051688842973846]]}, {"layer": "activation", "activation": "relu", "activation_prime": "relu"}, {"layer": "dense", "input_size": 18, "output_size": 4, "weights": [[0.5047921784832656, -3.885300772216005, 5.149014160034776, -0.8452704206661932, 2.8018832111520364, 1.3956610645280911, -3.240648010146873, -0.8070567404917125, -2.4656800777241585, -0.4834714943562618, 0.12642461509290137, 0.3835029108367536, -3.150419120319714, -2.093771105387483, -1.3447714479932154, -0.488526860661108, -2.067985134615043, 0.23606865728952503], [2.856924273922946, 1.203075629246178, -6.401582513410086, -0.04869460862676833, -0.8856296144641084, 2.032944289210201, -0.8965991916406812, 6.482684139252179, -3.93520273042471, 0.1791927046614532, -1.5108034148962117, 0.9914678741197254, 2.4315565392902996, -2.839993824559702, 2.2186710255029523, -2.68786057564253, 3.6609015433129497, 0.22935911927307473], [1.663632625697217, 1.7747707915796114, -5.6347790049390225, -0.5550910396479293, 0.525339295315109, -8.040510360452233, -4.000801575765177, 10.531511180670408, 3.978567042555124, 0.3335917701823009, 2.598929945486368, -2.0011360057982825, -0.035611179820202565, 5.347430150389068, -1.3171119478142925, -2.1155479895921374, -2.4823234776978538, -4.787264515177783], [-0.4765944485819015, -6.900107297532902, -2.0002254439380325, -0.8702082477473693, 0.4911368395252965, -1.741874493905581, 1.7106005577420809, -0.09918816929483187, 1.788284687958988, -2.488647110388885, -3.003764532058821, 0.49783657583482877, -3.358671733704832, 1.0769473318033782, -0.6069285727239939, -0.5190821736842209, -0.9993760927378907, 2.468629576459157]], "bias": [[-2.465910448635946], [-3.4708774297745952], [1.8200306503561388], [3.159977486514081]]}, {"layer": "activation", "activation": "sigmoid", "activation_prime": "sigmoid"}]}