{"generation": 446, "board_size": 10, "snake_size": 3, "input_direction_count": 4, "apple_return_type": "boolean", "segment_return_type": "boolean", "distance_function": "chebyshev_distance", "network": [{"layer": "dense", "input_size": 16, "output_size": 24, "weights": [[-0.8675631470208401, 0.4586575922646656, -0.5512000646192159, -0.7300666345813509, 3.269210680252608, -3.5411905715080954, -2.427924548990153, 2.6150828397966324, -3.1153227970784125, -1.1900302821597766, 0.9650188989125233, 1.9760895457648142, -1.6825522751946649, 0.7983654815750223, 1.696871122348756, 4.156836676766183], [-0.002982263269213692, -0.10880417991289215, 2.415308085344777, 3.378295714625247, -5.432466884366377, 1.8276092850198247, -0.25236304575870344, 2.8230929663021627, 0.664779286333224, -0.5662257832734012, -0.7906482174693105, -1.7698177227151533, -4.37272933218209, -4.277173023100313, -2.3144295651893487, 0.28241439978139526], [-1.298407406797017, -10.030819928082996, -1.199055608526462, 3.48388291493177, -3.6142557277910234, -1.4582013589581542, 1.720347299905059, 1.8727707575934738, -1.5923163582868474, -2.704779244692332, 3.0178633884526227, 4.018813905019684, -0.618513666436962, 4.35789831759481, 3.8712468705344065, -0.22884989383123444], [-0.6852691110398992, 0.8646850786158851, 4.850029471283386, 1.6090785462751995, 1.626182388759576, 0.14392661765732273, 3.7942727566053414, -0.1299435183310227, 3.386591434075039, -0.13004514871097228, 4.461147764727119, -1.6488200718233192, 3.098446700736346, 2.4205991352080867, -1.3381158086461218, 0.017564652832251337], [7.118768653156653, 4.683356137892862, -5.061270998118928, -2.8375060943363715, 2.052053929462195, -1.64886788821293, 5.3368456655571395, 1.097100604116613, -1.8541178608429243, 6.621848789674579, 2.0993798411951907, 1.777229222898096, -4.46750458655266, -2.791074928767555, 3.1934464627103436, -5.216527496381994], [1.0665232773352753, 1.825554643360212, 0.1887818826964468, 5.667740493853774, 6.5873289311479875, -3.2478207258951635, -2.8221020248789017, -5.144172510542774, 6.3882536865349575, -0.15904118291300096, -1.162663355727739, -3.659846076448834, 1.983415467322398, 9.549100212918752, -4.448048925894568, -6.957842363446426], [-4.3767095634628115, -0.5878665617652956, -4.941481300520581, -2.0731662898105534, 1.7758910421487353, -0.6466089563102992, -8.833011744107928, 5.027453351062725, 1.247218867148605, -1.5675247052184769, -16.78513466114489, 0.5749718347750197, 3.605449973869228, -6.128401521650589, -1.8984447855935696, 2.4760443391406155], [-2.542238311517832, 3.680608389683106, 0.8687723293001881, -4.179942989820235, -2.1764279048880333, -2.4564082531550895, 5.250217452475006, -4.557070072275567, 1.5997993352702824, 0.57625081499841, 3.7808458498535247, -0.2928690700410001, -2.018504935982872, -4.402708041122842, -4.373154000051853, 1.3666176360231717], [4.662804638879383, -1.8618352210794944, 2.0680159421249322, 4.483899170051023, -1.776664830257121, 2.125620080750651, -0.3430511075076084, 3.5047495632056798, -4.710342922182755, -3.5931421485602497, 1.5096457020321385, -2.5068215917481242, -1.2525886814637968, -3.933936829584478, -0.8713285919305924, 2.178326610489659], [-0.6463661831843662, 3.4252461952279494, -4.361884948202839, -3.8721919542905967, -3.489597689642674, 2.278635612900043, -3.495435326261448, -1.2764391597575453, 0.6523482805584913, -1.882611326376355, -1.7167754114416955, -5.775967797349125, 2.0057321288720584, 3.154404970380982, 3.6852221448486473, -8.281452616655804], [3.1683262395660594, 2.890957481112742, -0.3839642098529138, 3.8286118745555897, 1.1496301278524035, 1.1399323090164406, -4.159944718095324, 0.94027446727918, -2.053187864693533, 4.462311443408909, -1.8207807158613052, -7.078909947649127, -1.424549684585194, 0.666845838311416, -1.1646545341809929, 2.1881373236636255], [7.3614465052477716, 1.9641642676643971, -0.8920107921923027, 1.332396147874266, 0.9501802106568082, 2.6556367734648627, 0.266598689926777, 4.508697636900387, 1.270855073533868, 2.1763623193295736, -0.5599683698611105, -2.328623307937924, 0.5638855647998728, -1.6378627007047069, -1.1267723348290244, -1.569660158559401], [3.3238191514939825, -2.7710751907820743, -0.3815168286819679, -1.0856481808364165, -3.0425002549607294, 0.23487795739808714, -3.8475111906030226, -6.906425822996126, -1.1977774566584536, -0.33340477199688123, 6.875911457846008, -5.516458117193138, -4.784167790657444, 1.3501443259234662, 3.57986667910522, -4.338408774684642], [-8.10909230122466, -2.420145314270135, -3.0702635721000053, -0.5717251184904071, 2.6474735910914364, 6.045415810354848, -2.7958077060483975, 5.738592338259391, 0.2067990288591214, -0.28416593731623746, 5.5687373291911895, 1.8493166153794807, 5.437776783377555, 1.4802759563978702, -2.670520617927434, 7.740718129780597], [-6.294969362287658, 0.08484657932044826, 1.9222644095252566, 2.0851912620307003, -6.170928320585085, 10.182979909514295, 3.9467638078522955, -4.307924027655526, -0.3546562682868921, -1.464364029243022, -4.693599590372248, -0.03371404159831193, -4.924031364352311, 1.7861193683347725, 7.419705892465973, 3.8447690420421394], [1.6120003193224235, 6.341556045428363, -2.5981847997448533, 0.6582417070942925, 2.376095287070066, -5.632499634568161, -2.0337200679306933, 3.0145789178767632, -0.9586174871058724, 0.6855407499893806, -4.043141250181666, -7.109516775805879, 0.8279363489231568, 0.8142339008346047, -8.926665136952638, 1.812481298234482], [-5.066664588080134, 1.4569389359668405, 2.223819016929532, 4.70829692531606, -1.5058420565616373, 2.0120715684146715, -6.972227538633567, -3.482027351455539, -2.9813659663340375, 8.60397810369528, 3.5210351308872903, 4.663962744157676, -2.4250984786064866, -2.7751164509938286, 2.879577913108837, 0.8719634384375687], [-4.249130943057729, 0.8491336069821351, 4.905455848610534, -6.791693398094588, 2.858119616476949, 1.2054994004562143, 0.8204467590193762, 2.505287351643073, -0.5915448439149495, 6.67507726389847, 1.2782083091197647, 4.866774129018324, -2.7428416559566346, 0.8126907911182841, -1.8773207552939475, 0.2671764457221567], [-2.266761544505378, -0.941536372221317, -10.515843046119393, 3.7486623448110152, -0.5581433135870637, -0.42665904147396444, -3.842083951542119, -8.189449715802976, 3.5784387265634336, -0.23851053736038108, -2.1604744890218104, 1.8229728049290739, -6.8740616256255835, 3.566591435340633, -1.9926581677245938, -5.419139151480497], [5.896273788830215, 1.5997822365977996, -0.8272123833380916, -0.2629761610488468, -0.5461626210708506, 0.9198021712404206, -8.39543096036181, 7.32169900052773, 3.3108586489823355, 5.292125427707661, -2.2701709958101275, 3.781762596721787, 2.1889375500089683, 1.4805865428221174, 1.6985508234161255, -2.567739159021677], [-3.7520146501912404, 0.06560918673461769, -1.8806350354836536, -2.4496831233695806, 2.525686987709267, -0.9152591204230469, -3.4761840938159896, 2.336790167933615, 1.7281042566327605, -4.036791495228763, -0.4452054852568992, 0.7105358638665119, -5.95429821690545, -2.68379255136268, 2.6701954784555695, -4.388661753211572], [0.5306356326729593, -2.4581879244316944, 5.9818463410263805, -3.363353018969697, -1.4429295199541547, -1.4624712259746095, -0.7616311731891674, 0.5004489619080617, -3.676004064581745, -4.290564468384271, 4.938327597742272, 2.1190731748011027, -2.2334410202139896, 0.04784105522414761, -4.583104503450057, -2.808030686402589], [-0.5426920092981604, 1.984031475104544, 2.8648119400923036, 4.022828847863874, 4.025863275993146, 1.555060712314, 1.2655036842186145, -7.746454079439966, 1.011241116318122, 1.0525098930577848, 3.552411670167091, -8.93901358783201, -2.2278057254558297, -4.805551119236592, 0.6602116529373816, 5.914683159424024], [2.1747693555969225, -2.2650447227643715, -6.244273462516807, -6.695689660318268, 0.8179973586183424, 1.4040333939454759, 2.9650235625367016, 0.1870530147718985, 1.104110837441374, -3.423770829780745, 2.001066699364882, -2.513256393768511, -1.16327913745942, 2.7122562195331765, 0.8601917665276881, 5.8654325083267125]], "bias": [[0.19916299349008293], [2.8142441110818073], [-1.5175302074052377], [1.4945740326328567], [1.90041776296337], [0.7364068744129774], [-2.6898530334521285], [0.5605435533076136], [1.1839068104985744], [-5.478391966803304], [-1.3678800649988903], [0.6365283538339717], [4.933848742591237], [-0.9774221362718529], [4.1551977645632014], [2.3760161227151206], [-1.1899829886461646], [1.3999935638916507], [1.0509956275127001], [-1.075600550583872], [3.1259832888159362], [0.75521556803123], [6.377616354857348], [-6.193759400618472]]}, {"layer": "activation", "activation": "relu", "activation_prime": "relu"}, {"layer": "dense", "input_size": 24, "output_size": 4, "weights": [[-1.348008900350803, 1.4912528679494288, -0.6469741528712026, -1.3126782677722812, 2.859404194082991, -0.13250784451206077, -2.084102874365697, -5.327484479479795, -4.77635011362095, -0.24549712317662986, 0.09199288158229024, -3.0642285424973625, -1.762359131090184, 0.11540529278934619, 0.09393491452056013, 2.2712900212179052, 2.0171205238401604, -0.3962598436942055, 0.42111272801091926, 0.08494047497578727, -1.378205776985152, 3.761633701389828, 0.8933012315631599, -5.9377948454882175], [-1.4764094133883137, -4.270244873391202, -0.6370162321037584, -0.21823701805419865, 2.734409705332874, 3.3697801437777404, -0.8939232621759294, -1.5735962381599817, -2.918041228754409, 2.241009405788021, -4.2417552144922706, -1.1441315984893499, -0.7811487217565293, -3.734382168192936, -0.003060063967750687, -6.4133573902982395, -0.21259499706873833, 0.7119789158345509, 0.46762387129343796, -1.7576372852229014, -4.075432570089949, 2.462979340044831, -0.7562619098770027, 5.941893431357423], [0.1777858261039995, -0.5969631206652991, -0.036826500619833835, 1.0149361191646837, -0.4101302685993633, 1.7043865092134602, -1.999939007195545, -1.602096381971232, 2.288611861915278, 0.6685139443168331, -2.085457215740786, -0.09465100648885899, 0.9469878889555321, -2.500640184429235, -1.9873544755047508, -4.153609877874118, 4.018649538295475, -0.7394336934195179, 0.4304552535235393, 5.776619999180018, 2.6376478276449413, -3.5269254337827594, -2.0723269374422384, 0.5476431354853388], [-0.32584857878408685, 1.0901316472312557, 1.2413121571403871, 2.04386810108905, -1.5893019927511034, -0.006514728061262187, -2.1009848949670875, 1.5074748776032147, -0.5775750335750212, -3.277580114424947, -0.4031692562982885, -0.04748265924485928, -1.6093090109716295, 0.41580998549368264, 0.3014091340402201, 0.32141446120647976, -0.4386360861953583, -2.7351635380328996, -2.9588484444018337, -2.557498542718463, -5.727677496256395, -0.8974497907781944, -0.0790396649015348, 1.3966841778463617]], "bias": [[-0.5960376472477558], [3.572276766980865], [-1.7347458318516704], [-2.3831687592758994]]}, {"layer": "activation", "activation": "sigmoid", "activation_prime": "sigmoid"}]}