{"generation": 479, "board_size": 10, "snake_size": 3, "input_direction_count": 4, "apple_return_type": "boolean", "segment_return_type": "boolean", "distance_function": "chebyshev_distance", "network": [{"layer": "dense", "input_size": 16, "output_size": 24, "weights": [[-0.8675631470208401, -0.6379425312844587, -0.1267321687370584, 0.43632894551883283, 1.8423702409851521, -5.592760817129689, -2.251995715170634, 3.7770622367470734, -3.1153227970784125, -0.8553708667246894, 2.4365158775571416, 1.4740777657588195, 0.29671431608984444, 2.093875923095339, 2.055845229690217, 4.100535944034419], [2.2368084356715427, -0.6727760571607944, 5.429562022470187, -1.8169498355750955, -7.073693752941485, 1.859150338953513, -0.9363298954753922, 3.863429628670879, -1.112791356348278, -0.6853962850595504, -0.7906482174693105, -1.7698177227151533, -4.960883611022824, -5.115928531370234, -2.3144295651893487, -0.19225040323486742], [2.227377797894216, -8.45144814608793, -1.0935087173704563, 3.48388291493177, -5.047035686832908, -0.46316240375801776, 3.1391531868651628, 0.2772185095650307, -3.2601953159547272, -1.6545515468579568, 3.704546647275198, 2.2552452340572433, 0.04303356914077594, 4.089284070690799, 3.4854420878603594, 0.30002531431178314], [-0.6852691110398992, 1.873787821472622, 4.850029471283386, 2.1882794358471784, 1.8760550051614886, -0.1207858544236513, 2.888294808006045, 1.903539931243359, 2.8506366495876216, -1.7347394401103287, 3.2568134810979403, -0.47976143163527496, 2.2345738360098477, 1.020414056814374, -3.4707991619998118, 0.23320001844935845], [5.516571966982285, 3.287365619710108, -5.061270998118928, -3.636074821551785, 2.052053929462195, -2.590701896731085, 4.058867386086964, 0.8034059334562813, -1.8541178608429243, 9.709921106370004, 4.089707036624375, 1.8830056634098447, -4.46750458655266, -3.10634314416419, 3.3802724974396217, -5.705979124040038], [1.0487477752247438, 0.47511608479593176, 0.1887818826964468, 5.667740493853774, 7.921519143217523, -1.7462885477097772, -0.6304251562132903, -6.621997107946788, 6.284322808311597, 0.5055031151411667, -3.7904402908798667, -3.2900925853540683, 0.5520309137681696, 9.549100212918752, -4.448048925894568, -6.957842363446426], [-2.044358596282174, -0.30528380366567875, -3.5902674509964023, -2.0731662898105534, 1.3179260032226887, -0.6466089563102992, -7.689806693193314, 5.027453351062725, 1.247218867148605, -1.8866697192565005, -16.672096358725696, 0.5749718347750197, 2.8079343224502726, -4.987620490336992, -3.2937429690265363, 2.701467264910811], [-2.737119198199424, 3.148911217912475, 0.10069349840963371, -4.179942989820235, -2.4433958165618574, -2.4564082531550895, 6.046771706272226, -5.6085907649623685, 2.610737051347215, -2.8336633034674312, 3.7808458498535247, -0.5358018464481951, -2.6177682686891814, -3.5857402565940095, -2.156027539008733, 2.1808746577083684], [3.4933258860799947, -1.5243216687983614, 1.8785086898783112, 3.9583151228069577, 3.894342460409638, 2.92890574236438, -0.5670660180624073, 4.32274307468968, -4.677724765644162, -2.9996901656068973, 0.7412112412333792, -2.5068215917481242, -2.644040811385656, -6.30722339994156, -1.1923782119798614, 0.43318029896030363], [-1.7365164982047208, 4.593563753789829, -5.950578812182663, -2.9305356561957248, -1.3418730262509302, 3.3016266995701384, -1.0680753850736344, -0.36826553790986927, -0.498807015894424, -2.3597979878858877, -3.78139632302471, -6.950357321090224, 1.9561139123779123, 3.154404970380982, 4.100164422596797, -7.767243213192325], [3.1683262395660594, 3.8038483624434147, 0.7014070947938464, 5.160903002007402, 0.7628598936014552, 1.1176674155225261, -3.0088041292458283, 0.6495533951766551, -0.6485942122138653, 3.2309207024602378, -0.5046788098946129, -7.141791943769185, -2.4103386921114125, 2.2118624937298246, -2.729146935112532, 3.0886593382260337], [7.3614465052477716, 2.8488480610033897, -0.06261868865902132, 0.7653449789272198, 0.18968901666934732, 2.6556367734648627, 1.4823406746759684, 4.915280341795888, 3.9486129126153924, 1.8369008912621563, -0.5599683698611105, -3.8208213708635954, -0.0888118107789041, -3.115888794471325, -0.29347401481366364, -2.168427075732453], [3.2869481385714794, -2.7710751907820743, 1.386979069840174, -2.2491976297229535, 0.3652441628820223, -0.39291369720636055, -5.952672833957427, -7.871396668074321, -2.473626620760073, -1.6060127331108864, 6.875911457846008, -5.946930281573323, -3.2090244855858905, 1.8411999500905527, 3.57986667910522, -1.6840958248118767], [-6.3728867871740995, -4.304085841881984, -5.171455140220469, -0.0003251071582576204, 2.6474735910914364, 6.183802165079389, -2.3577861945813288, 4.910984634810929, -0.8979717548598825, -0.28416593731623746, 5.884656524102901, 1.3225577937793553, 4.926667948337332, 3.4725846090058834, -2.670520617927434, 7.404585726975775], [-6.046058803699662, 0.7473665420418373, 4.400039523839684, 2.686501774868674, -6.159920644770358, 11.924340075358169, 3.059323450117557, -2.592367604128939, -1.1743234559404916, -0.7568086998860978, -4.843379849315536, 1.2823806806081763, -6.51621046427909, 1.7861193683347725, 5.884897507708841, 3.8447690420421394], [1.6120003193224235, 5.306161239500587, -4.1300740845463775, -1.7016179567325644, 1.149320052860332, -4.416750197211541, -0.8192545005513016, 1.6733790079202766, -1.5544156798787883, 0.6855407499893806, -7.912677792389576, -5.300108078387341, 0.970154830880252, 1.3393825121151974, -8.926665136952638, 1.812481298234482], [-5.416741581961085, 0.5932408383779482, 2.223819016929532, 4.289421364543772, -1.5058420565616373, 1.2001427775078317, -6.972227538633567, -3.482027351455539, -1.9448414501056863, 9.800684923356997, 3.5210351308872903, 6.029585348165169, -2.4250984786064866, -2.7751164509938286, 2.879577913108837, 2.09960584179122], [-3.513886218519552, 1.4787952193090885, 3.442196865078578, -6.791693398094588, 3.141110975133073, 1.5718513013988815, 0.11225336899272398, 1.9143063101049536, -0.5915448439149495, 6.67507726389847, -0.874054948385923, 4.2767212861106625, -1.706962255132259, 0.5044362688364133, -2.528179984297849, -0.43585456375772524], [-3.514296313541538, -0.5955803965653788, -11.462765329836996, 2.5107339867086655, 0.6844490492089363, -0.896155806621424, -3.9130795516011645, -6.736810759439733, 3.5188948842425303, -0.8521137052604405, -2.711405051779212, -0.07621295326104238, -3.3600040293116216, 3.4326417120951938, -2.69227981024687, -5.419139151480497], [5.917595694538395, 2.6655449916466205, -0.8897429288340821, -0.21408034486469846, 0.16113542863642927, 0.9456441635953377, -7.85823876090806, 8.001719842003062, 1.8315493507974094, 3.230221994210086, -2.0631111448979293, 3.781762596721787, 1.4270973787472006, 1.4805865428221174, 1.686769376163907, -3.8583592567139835], [-3.7520146501912404, -2.5710794112334483, -2.160408441882092, -2.4496831233695806, 3.4166978335094447, -1.142364280279914, -5.016872655903299, 3.991380506096041, 1.7281042566327605, -4.036791495228763, 0.2774596122962161, 0.14749933415488337, -5.95429821690545, -3.110162886903771, 2.8752599957352434, -6.283403780095782], [0.5306356326729593, -2.4581879244316944, 4.754349547919438, -1.2859119163133892, -2.3768326011098737, -3.3468733938505473, -0.7616311731891674, 1.0670127639457236, -1.6014309470900263, -3.7415959127102285, 4.938327597742272, 3.2808247267257347, -1.2198571792204052, 0.04784105522414761, -3.5071853715950594, -4.343524983357449], [0.592588266415661, 1.984031475104544, 2.4011937669761774, 2.5229017097548048, 3.125980977446711, 0.9881696095109863, 1.1116261133058607, -7.800875639737393, 1.011241116318122, 0.7248313759369978, 3.127071593155852, -8.93901358783201, 0.1633366183476146, -4.758359414268199, 1.0511160364745287, 5.305786364389398], [2.1747693555969225, -2.2650447227643715, -5.197854221886451, -5.858189499327281, 0.4323461497252439, -0.5969462612191863, 1.7823581220364821, -0.5585349297555828, 1.104110837441374, -2.9476099316790676, 2.001066699364882, -1.115837496597951, -2.128587479045901, 2.7122562195331765, 0.8601917665276881, 5.290701634437124]], "bias": [[-0.7099869712621913], [0.05416827964345128], [-1.6047303030010642], [1.4945740326328567], [2.8393419605305414], [2.9505043020364354], [-1.9552904445544848], [-0.8931688444603749], [2.102229638626346], [-5.478391966803304], [-1.0028159290658791], [0.4136426237323827], [5.584254564477169], [-2.517337263174463], [5.626688804336452], [2.238414664557157], [-1.1899829886461646], [2.4011412333379476], [-1.679885567560054], [-1.341596825241169], [4.857790235345623], [0.2232566684178675], [8.661234036153099], [-5.2516592920218645]]}, {"layer": "activation", "activation": "relu", "activation_prime": "relu"}, {"layer": "dense", "input_size": 24, "output_size": 4, "weights": [[-3.3592983372947582, 1.4120087230928953, -1.0460842300440818, -1.3126782677722812, 2.859404194082991, -0.330453688693195, -2.084102874365697, -5.189192870315373, -4.77635011362095, 1.3209578967294462, 0.5758024803140742, -3.6405277081118608, -1.762359131090184, 0.39285992356471944, 0.33687105534242345, 2.6918720114870167, 2.016028539143311, -1.0216704332616158, 0.3315548825242947, 0.08494047497578727, -0.9415338483669344, 3.7282293216631572, 0.40503280362385924, -5.125161694580976], [-0.7750980344638461, -3.901016581917935, -0.6370162321037584, -0.21823701805419865, 2.734409705332874, 1.7216731307898185, -0.24116153560828746, -1.3497272520432186, -2.918041228754409, 2.0933672722347505, -4.2417552144922706, -1.7184671396692146, -0.7811487217565293, -2.7801864730642745, -0.003060063967750687, -4.907701092070276, -0.7433487803336342, 0.7119789158345509, -0.6885550249899637, -2.912248194343986, -3.8021104708690436, 2.9081312533479045, -0.03381234708200348, 5.016876455962178], [0.3314766759716313, 0.11208109719553136, 1.384901585867451, 1.0846342976470253, -0.4101302685993633, 1.5960980472810127, -1.0250606235405755, -1.602096381971232, 1.1876017043541285, -0.09949379669400771, -2.731056625386032, -0.09465100648885899, 3.1430625704159314, -2.208057721934164, -2.1466970976317934, -6.869849920800469, 4.473800395693553, -0.7394336934195179, 0.774838675307937, 5.776619999180018, 3.269967488807537, -3.284044536235265, -2.8095172368178467, 0.1409178347342186], [1.302247579447347, 1.0901316472312557, 1.5044817580836314, 2.04386810108905, -1.7729944446704522, 0.2512532769928921, -2.5613748521962014, 2.65345846710469, -0.46675287977195173, -3.083279556635789, -0.4031692562982885, -0.04748265924485928, -1.6093090109716295, 0.41580998549368264, 0.028304834484388308, 0.8286078549803133, -0.4386360861953583, -2.7469784213506507, -2.9693455381522647, -2.7243624667505073, -4.6704397024157736, -1.3018895730378977, -0.03083535048249246, -0.09457031546657624]], "bias": [[-0.6128363072740883], [4.147826353327525], [-2.379381303739676], [-1.2958927061028802]]}, {"layer": "activation", "activation": "sigmoid", "activation_prime": "sigmoid"}]}