{"generation": 519, "board_size": 10, "snake_size": 3, "input_direction_count": 4, "apple_return_type": "boolean", "segment_return_type": "boolean", "network": [{"layer": "dense", "input_size": 14, "output_size": 18, "weights": [[-6.603399866229699, 7.463299773956091, 1.015108746808925, 0.8894360841038151, -4.066318415380613, -0.27509179505957687, 3.1211855921339584, 2.4647706712772735, 2.8956966300982208, 11.465996042355384, -5.7131720098679475, -1.652713830982075, -3.1021757044643987, 1.7929955268649815], [-1.558909645146881, 4.105924608815827, 7.149823397086239, -15.770540808851718, 3.6463478136599106, -6.0119526817172675, 0.6416642764392166, 0.4362659683096201, 3.898901385815872, 1.2646637856376566, 1.1324233863043724, 3.8556220264188745, 7.3226936727554754, 2.41632646681495], [4.922427486286417, -10.179597354132055, -2.3497562074238107, 0.1432747902064675, -4.6878946866199485, 0.9581271998863776, 5.094074141590041, -1.1517433114679212, 2.970691313266541, -6.648819198717676, 1.3000770666969004, -4.617207429277584, -3.8890908788919285, 2.1983276798470572], [1.5977314892920398, -2.32231994761952, 1.7414195135320074, 3.094856715087795, 1.7142203959921787, 1.6510479898999895, 12.207913187269243, 2.5185135445014653, 2.359188499188038, -2.851454835600683, 6.31948934832109, -6.680009220441258, 9.356181503756261, -2.8258728777678765], [10.565696577343097, -11.065579349562409, -6.602452202478325, 4.489563823201198, 3.275620998504913, 0.5092145946459901, -5.6986310415541155, -3.8283083651103036, -7.192824548441342, 2.741050854088143, 2.734969682604948, 1.8471472533336, 4.347172845070773, 7.439278832788291], [-1.8125254228940229, 2.421613520456974, -2.166708799430941, 0.0690761518966927, -1.474507222929539, -2.9335181241336614, -8.960984028241262, 0.032211736588652506, -2.7841065453031084, 5.773756941375911, 0.4145925714733212, 4.383352602431461, 0.6440538720755347, -3.7081798181994836], [14.78422579648894, -6.086153216862831, -0.6536713405813682, -0.6534044069752278, 1.8672439564969867, 1.8877003846867177, -9.528521930908866, -2.572753299479224, -1.5647905448111117, 0.7472796575844383, -4.14660041347164, 2.6979979174067834, 0.1680848996232809, -4.343017369280487], [3.2116100926006075, -6.01067657635207, -7.246124010743964, -3.9044595751262863, -0.650169811234107, 2.0816895047706345, 4.573926060088883, 0.9951270553143817, -0.6689488107002346, 2.763863770997715, -1.830462507827385, -2.35434227778188, 1.632341698609073, -7.35351196647078], [0.454253817844682, -2.758821300280055, -5.44316801006013, 5.085541662034146, 0.5711275629417484, -0.5632607515651447, -4.811381269792886, 3.4442566309920095, 1.6548588948273204, -3.795054766001913, 1.1735416718521796, -0.30086121494471385, 6.157179063902753, 0.5334388093646978], [12.244077539734159, -2.505569661454308, 3.1192406069193526, -6.60210650600524, -2.5695156857689088, -5.020815499092158, 3.2896936660568077, -0.6435580406126744, 2.6033810196360236, -0.8973377162939966, -4.001316435707459, -1.7317740156724926, 2.9540427330689516, 1.2680084345983913], [5.748303806796927, 6.846790388864525, -6.527265777731251, 4.534356180165223, -0.5617739668624152, 0.24883577310925498, -5.941569916223832, 6.002896694340529, 0.5209509825690786, 3.3743229642916033, 0.4853679450101813, -2.227351661460127, -2.7562494403893636, -3.623567736686827], [1.6205884271071394, 2.313128630955159, 3.8448504859878327, 12.42225561296719, -3.7512559623177024, 4.510567915473058, -6.661597196890647, 2.6279406951506075, -5.295294854593794, -1.2617689580826696, -0.7925058015424608, -0.28235225061817454, -4.296470016263038, -4.676570906275412], [0.3372112224918754, -9.416084927818051, -3.41748674623873, -2.5188368415125035, -0.6896448502718632, 2.3024157363840594, 10.62564231960223, 1.0952726718411365, 2.1051295630000078, 1.5265609913997638, -3.6158662420255014, -7.1416425421354734, 4.927319042767364, -2.8473857011403414], [1.1807320348748471, 6.4815512623541975, -0.4049989723919096, -4.517379801852513, 3.518928953407816, -3.800840913963592, 6.045287884463617, 1.2906603142137683, -4.050511540973318, 0.7169551071712934, 5.53358015077196, -0.5561545660492732, 1.8177340385697844, 0.02496703277375245], [-9.552346243146733, 15.873418727296915, 0.5591775664964832, 4.485119884352673, 2.8564514250560875, 2.485366160892261, 2.9874346533420786, -0.9199043998804253, -1.5404031362615842, 3.908397570089327, -5.162913148671239, 7.621819429863226, -4.5763953551804395, 3.6612452137518154], [3.6514819095787203, 2.3397972557883406, -2.528867283703068, -6.25731097029459, 0.18698354169424802, -1.609691914847447, 10.156659028318494, -3.146991744417914, 2.275717322939472, -1.5235501058951537, 8.037943012147393, -2.345495781665982, 3.6704918029047318, -7.530698024266334], [-2.644482085764746, 1.8583929324165864, 10.698223965091552, 2.2471051017243515, -7.424658072899341, 0.4537108509293494, -5.710001317367635, 0.17257146730356454, -2.615220874629499, 6.273980140361658, 2.76570649960576, -2.9746124592991507, -0.8759963569009248, 8.798068207478181], [1.2177008275678949, 0.4646771771633829, -9.732345415276692, -3.2893733321833305, 5.852327949569041, -0.5032420030077733, -4.1540663704394225, 4.4574145672208125, 4.184024029746235, 3.8551603479444587, -1.130878642027735, 0.6656039548619286, 2.8537418962264214, -4.8736345433263875]], "bias": [[-5.80431950499064], [1.5076464637399458], [-0.5776199770892254], [-0.8013820130752531], [-7.422039511709631], [-2.9748997099797148], [-2.602151500029695], [-13.748467834464222], [-7.397277622146393], [0.8353011883821679], [-5.070149274051399], [0.9855435801407941], [-3.3909615501569466], [-6.534749337958946], [2.989603351189686], [-3.1343910172477027], [-2.4768785618529874], [6.20897225671185]]}, {"layer": "activation", "activation": "relu", "activation_prime": "relu"}, {"layer": "dense", "input_size": 18, "output_size": 4, "weights": [[8.585014439548193, -4.498706277544864, -4.3139846134491, -6.384395383392038, 1.60542176270694, 1.114854640203214, -7.476838330444376, -3.2706658659701793, -1.0180704377904637, -4.286250900241697, -1.0413490763302684, 0.1679123644469342, -2.9494027133578093, -1.3942736381476433, 6.492620561018134, 0.39693572963511614, 1.7913561872657204, 0.6971860265582006], [-1.7505767939061347, 7.047120576498274, -0.2647838321506889, -0.3138006760183729, -1.5447285478689738, -4.133302334304048, -2.0714596195522725, 0.6571170682163507, -2.3862105691452458, 2.7305703675707456, -5.222262438328702, -17.115316659567554, 2.128796595952443, -1.0982995437101892, -1.9234312926235932, 2.9406351947613283, 0.15139641373695856, -4.2120943099889745], [-5.036643369768746, -1.4250549767398062, -3.1755426657836825, -7.734697369242327, 1.4956231815231589, -3.562425721473271, 7.865609764821204, -1.2748551279447444, -7.095673638758092, 0.03734927047447156, 9.831181874632835, -0.17249759257905173, -4.312859370342399, -0.47448183505520136, -12.97251085711404, -8.375404584451468, -3.069714369659972, -0.630713480573497], [-1.4463151409117354, -7.818062042331723, 3.666852576280523, 4.352566420533502, 10.432852627528646, 2.0989563515186993, -7.645547271782536, 1.3483294826355845, 5.801767751389955, -6.428063555003248, -10.56599120833587, 3.4229210749638592, -3.317535977488342, 1.1912054398608662, 6.98950874420216, -3.6935555197627723, -1.958828907100416, -2.9238933142579673]], "bias": [[-10.617626507177105], [-2.118030655126172], [-4.39757621636493], [2.774338699195775]]}, {"layer": "activation", "activation": "sigmoid", "activation_prime": "sigmoid"}]}