{"generation": 522, "board_size": 10, "snake_size": 3, "input_direction_count": 4, "apple_return_type": "boolean", "segment_return_type": "boolean", "network": [{"layer": "dense", "input_size": 14, "output_size": 18, "weights": [[-4.405938494333588, 6.817505061059811, 0.9844601623467695, 0.6079027730526347, -4.44070822024889, -0.15408030032056663, 4.753608266299945, 0.20053805777261988, 2.8956966300982208, 10.473194927155863, -4.6397282995523135, -1.9605810998568067, -1.7888651488554965, 3.8183048464345406], [-2.3698702131853264, 4.105924608815827, 6.388628678843052, -16.088211730689846, 5.020734358263658, -5.833702152453533, 1.8720581522648891, 1.04239169077261, 1.3506670346865979, -1.5500749139503203, 1.388214182967897, 6.232644195035477, 9.641644385086703, -0.3788363899031657], [4.396386203366341, -10.759725982988623, -2.3497562074238107, -0.05596653599183818, -4.6878946866199485, -1.8752452987004704, 7.187178336201373, -0.5355094931249151, 2.4012362311872697, -7.047027895758567, 1.4443180880611304, -4.250361245811116, -4.944246739849408, 1.5388891147728443], [2.5477307820957114, -1.196687969330604, 1.7414195135320074, 5.373437268425646, 2.914931240003002, 3.672547674696194, 10.630960887941985, -0.5041327103835229, 2.2604424981872975, -1.9894614765532028, 4.845688868093951, -9.03575373238757, 10.691943299133134, -2.8258728777678765], [9.782465008522653, -10.427666917344814, -4.142003423518115, 5.5756165399787845, 1.4565931341696317, -0.6978209678259062, -5.427820764394867, -4.744659964821905, -6.77486275248944, 1.9070381817829847, 0.3662333111204533, -1.2062526215795402, 3.0282359073284226, 0.6909571624439446], [-1.8681895985881503, 0.2283357686721329, -1.1606232635839158, 1.8665845297012604, -3.721173402617355, -0.9458156530966656, -7.7043456292106915, -1.1677842809928398, -2.172739085368095, 4.629930554621371, -0.9269115542393072, 2.926829771168258, 1.9684723048208639, -3.7081798181994836], [13.826411782431187, -3.977718374870673, -0.6536713405813682, -0.8477505237465927, 1.1327842892537276, -0.7673690833607041, -7.314898719569017, -3.7740868526120512, 0.293824637451626, 2.510264335396778, -2.879446530789992, 4.603741457892354, 0.505744889161439, -5.124239799733281], [3.8482181511001294, -6.898730074911919, -4.378150614963331, -2.6641105966340977, -0.4320039909141433, -2.0291532443451112, 2.8997542867297375, 0.6082069659425922, -0.011059668603476291, 0.853622829817551, -0.5851446799676558, 0.14548328523353357, 2.2043552320902595, -3.0367832652889777], [-1.3499509257581312, -3.111224990053445, -5.020694831857441, 5.204888170797389, 1.0758402900635124, -1.0780902349360464, -3.4708255009598483, 2.775458749929232, -0.23783755490051584, -6.78622301920147, -3.426112359485896, 0.6960838341343094, 4.520725397505851, 3.366820891298324], [12.528773857318562, -1.2081259896486023, 1.2810489183788658, -6.875290769221924, -2.855371221838073, -2.219984546697704, 0.45404476420765383, 0.519678966742416, 2.2157841721717775, -2.652020638171446, -7.532199618487074, 0.6309991638119546, 3.7835593418021123, 6.035771464029385], [4.563659548150835, 8.754757808975082, -1.2914927804192664, 7.011566719023963, -0.20420400014548212, -0.7926322801657979, -3.884736003008834, 1.642145123585875, -0.3754941079982592, 4.0066462886942285, 3.0637583328827027, -0.6994698295949789, -3.1091511770557574, -6.694775915825795], [3.0737804296317472, 2.5942409540440345, 4.17787530609829, 15.15514261171124, -1.3465008292783938, 2.468647308794036, -7.3835508991707455, 2.018924639972846, -4.935724705613951, -1.752088386315633, 0.8425015737212804, -1.2264811727988705, -5.145162351992143, -1.960752461021055], [3.4128716224999742, -7.642449436238813, -5.290565338817472, -3.211743774843011, -0.3135706842011008, 2.3024157363840594, 8.510655945643098, 0.8105902377976567, -1.7470693047876567, 2.393160208163276, -3.03213055110919, -4.34580611981602, 6.532944495142325, -4.023815881771345], [3.273279353145301, 4.571907293753254, -0.972240214891726, -4.507209149573104, 1.8187961758261832, -2.7312854253381116, 0.32767836974798437, -1.2321573399197967, -6.2905286397904945, 3.140809085314692, 5.144169485790476, -0.9202139615521008, 5.015217949715722, -0.9032139822844302], [-10.589665644982258, 16.993806636689758, 0.611116681207283, 7.174119830997054, 3.4816144290732494, 2.485366160892261, 1.7908369980198628, 1.5021990108319703, -0.9708237948391436, 3.401931571215085, -4.125025800374661, 8.704699727560493, -3.031461555936786, 4.046210033807954], [3.0788176220462704, 0.2150943987524916, -1.704253593332084, -6.369257572655169, -0.43963824823321795, -2.7140996323196687, 9.501776655301127, -3.146991744417914, 0.4287216567253189, -0.6573767676978707, 8.903217100942777, -1.9635300622700547, 1.803840813347501, -4.856749124633356], [-1.5756893604825093, 0.5480241268069748, 10.80006879374772, 2.8262665087200896, -6.092040555536037, -2.437283871527403, -6.341980604289513, 0.17257146730356454, -2.615220874629499, 6.273980140361658, 2.8338278594380286, -2.2029588433783376, -2.006460238576148, 6.503404982086116], [-0.17254011949705483, 0.8525674815724997, -4.135498785184294, -3.7737353643938008, 5.467794027075489, -4.029130685678849, -10.092986271647506, -2.503360450033779, -1.2772179795357597, 13.373882077007627, -2.5873971367512603, 5.464102589445565, 1.3959171513566453, -1.81947670816283]], "bias": [[-6.629150314466526], [2.565501698579173], [2.268179147080559], [-2.5278995347100683], [-7.476744093642867], [-1.0111685600696827], [-2.2661411313459183], [-5.361668065408287], [-9.456195745951526], [1.1929324830094505], [-9.256179542194992], [0.9855435801407941], [-3.3909615501569466], [-5.535082542287273], [3.687409226323403], [-2.0369649320706307], [-2.4768785618529874], [0.7303421057754815]]}, {"layer": "activation", "activation": "relu", "activation_prime": "relu"}, {"layer": "dense", "input_size": 18, "output_size": 4, "weights": [[7.566935844542152, -3.6957994811134056, -5.6946211456458675, -6.7083027454678925, 2.0131195637055797, 0.16287907417180877, -7.56505083030908, -1.9064502506522514, 0.08524284163187001, -7.233173985275036, -0.7381871262720822, -0.5964612039408808, -3.5926835025913197, -4.327125601479249, 7.312726180133568, 0.9638573690434149, 0.7722297350748992, 2.164557136213327], [-1.6811194024047307, 8.499023354812412, -0.9250256623911179, 0.9617058965832235, -2.2664323145465435, -4.133302334304048, -2.0714596195522725, 0.11049634540111841, 1.6687813964373015, 3.785664856766542, -5.520403703650728, -14.83930559091284, 2.1105627080457063, -3.804940536995762, -1.570829226996759, 2.7828416296312106, -2.636686221299671, -5.739478150094392], [-6.047669011723101, -0.6249252595340282, -3.3498769324975926, -6.590117960641314, 5.8966098845368595, -3.312817358836018, 7.596121546878823, 0.050364285732773295, -2.604835598226666, -0.09001933700026088, 13.497160948980666, 3.0284562209403534, -3.6418182913752335, -0.9541810789844059, -12.662114352072953, -8.375404584451468, -1.8772126782022187, 0.6615340534811504], [-3.1766938502975886, -5.997769050155761, 1.4920472166147574, 3.4597192502713283, -2.0917356816406696, -2.193451114381317, -8.139609762155963, 1.4376899882783452, 3.7640671665471586, -4.536697644060795, -8.801128122262519, 3.4529358853454353, -6.612859332718235, -0.9567304470380471, 5.96464249804832, -2.800049173925278, -3.022285000646937, -3.126751013941158]], "bias": [[-7.184872097300696], [-0.6115194187351651], [3.554426932270384], [3.627210686050122]]}, {"layer": "activation", "activation": "sigmoid", "activation_prime": "sigmoid"}]}