{"generation": 223, "board_size": 10, "snake_size": 3, "input_direction_count": 4, "apple_return_type": "boolean", "segment_return_type": "boolean", "distance_function": "chebyshev_distance", "network": [{"layer": "dense", "input_size": 14, "output_size": 18, "weights": [[-5.220760227036711, 5.9378828244124495, 0.2667651600929335, 3.6052790016669167, -0.5459909077824655, -0.46282006547539134, -1.620829159660597, -0.7683708731718122, -0.8336212675073289, 2.5219005917805437, -6.721461830844735, 1.2882864690941191, -4.596707736654602, -2.2822660031885666], [-1.6993352186878656, 1.8504835928194574, -2.9635166165480444, 2.280609106914204, -0.9360148829566655, 5.909160143605545, -3.9325927445016613, -2.811252442076494, -0.5538067964121561, -4.301782218179033, 1.0015176601474125, 1.7614669761947148, 0.9111532072297508, 4.459199266287193], [-1.4177340333376802, 2.98776465980841, 2.3069487666234743, -1.588480188128645, -0.4428771525895298, 1.3896634967153472, -2.469702973891703, 2.1548248851310805, 2.132717225909921, 3.823208924497304, -3.0020671476102736, -2.7539652394671803, 2.9327884987935735, -2.8702025977087713], [-1.1607628171904505, -2.757294378246174, 4.070267005296414, -0.4660220034430069, 4.308585906412387, -1.7304945752569756, -0.8877275014665278, 1.1177807539210431, -3.239036733306765, -0.7290013648412207, 3.9208991108295512, 4.054374301435344, 0.5619146284893216, -0.8780761249937097], [2.7024820754469796, 0.44168436319790444, 4.220587587909291, -0.0689241172293601, -4.454054059137669, 5.618144709897987, -3.8424742720930274, -2.2913009204338577, 0.28482155951891314, -0.8687351618717756, 0.057390714027686585, 1.9902495451778426, 0.8329340039665429, -1.421985607323866], [3.7339956966942536, -0.8234099559650401, -0.24208889830077363, -4.11346924115348, 3.65085631702841, -2.341309989209968, 0.2792264990988451, -5.448879714366535, -1.0131446163527773, 2.458734441256133, 1.9818921119721458, 6.673318639646698, -5.121947092269905, 4.090649679191465], [-2.6596675483058596, -0.5490183037581842, 2.5971861692607408, -6.756198750245759, 5.439590571663704, 2.8892617124673388, -1.5162275250783646, 1.1172442114391334, 3.316939273389478, -0.8423880072444838, -4.369919008062695, 1.8647560290619762, 3.613956387423222, -1.0256785285583883], [-1.0818663898331753, -2.0386567224310155, -2.789733871510369, 1.7305598680508898, -2.881858316815163, 0.9036819276794863, 0.11653799229798012, 2.3449433109735427, 0.7258566848993806, 3.545569478155386, 2.0821106917937646, 3.002874111359648, 2.118278137851688, -2.627921319376721], [-1.8001364454571331, -0.28791107783909275, -1.5172801694540392, -3.5374841139750983, 3.1848972776898687, 4.247295381176446, -6.41173370932491, -2.8786531323830107, -4.201912078996867, -0.2352991012140353, 2.4634947063577437, -1.0488720629014163, 0.14066374277814644, 0.4781248579894442], [-0.9568759618989773, 3.8775708452169795, 0.5049549194834648, -3.0321444649344373, 5.50339480740713, 1.384268980623001, 2.6667784704879764, 0.3268714715563437, 1.6444867415163975, 5.016064342350399, -6.611187876578851, -2.6535874059949007, 0.047226706482313974, 0.383526083256735], [3.2634555512867296, 3.238008286417449, 0.325778168632221, -2.4674874543092864, 0.24064888111554028, 1.5035108605760594, -1.955026215298442, -0.8406245638205563, -2.2643542411691215, -3.954645654981668, 0.15468408968735203, -5.327225423769559, -0.36102065979435816, -0.2853809273077175], [-2.508593801705617, -4.3616599223688395, -2.5721225153438234, 2.712534498135872, -3.028585097439491, -4.206042065335007, -1.7323962627798406, 6.549717165656129, 3.3552177412314865, -1.4710626536194933, -4.940979618313223, -2.94541850879142, -0.27194097365845693, 1.2191907970554448], [-0.2792825213511969, 3.9602230407132994, 0.7717320868631725, -0.8565794626376095, -1.8659774080022333, 1.4709082040998611, 1.1910208976920764, 1.7011998252278135, -1.4237157076252656, 0.2853144036720274, -1.2113775602845167, 2.8568692769182054, -0.6333738715724605, -2.370576688421184], [-6.220236884419852, 4.389261125717562, -2.0792013178060706, -1.4757326071523194, 0.5684650636930593, 1.1385192845606553, 0.8218164793946536, 0.7827200762179068, 2.8983227895385317, -1.1399551284112908, -1.0311769104676314, 1.4483764102211951, -3.614718279544536, 0.6458376883386227], [-1.4312196677745408, 4.1306209714930295, -2.126183920779984, -2.299178039298905, 1.2325238636645908, -2.115874006593908, -1.7251262159104497, 4.637951560744921, 2.2853393161825117, -1.2710074937360516, -5.799784488247016, -0.17180196177220802, -2.904178401112592, -0.5387174305451218], [-1.6952699786819623, -3.304084017244908, 1.1111801422568277, -0.26855348206074026, 1.7738262383378218, 1.2775846532187756, 1.7744047195348864, 6.458129785551503, -2.0547075138052184, -1.017531400253035, 2.0483093782656114, -0.4012640523400739, -1.4964624979252727, -5.04033334316035], [-3.678787959877046, -1.7325575627273637, -3.1386169735549863, 0.5905032719901884, 2.217325650488893, 1.4011013042540963, 7.075374837566455, 0.31125796756217694, -5.82375672649444, 2.458208544270332, -4.38578362697301, 4.56383264826335, -0.4752016312742582, 3.8668091367484894], [0.7621278262674485, 0.28641665466120836, 6.390730085515875, -0.3959395299904911, -2.6848550602069308, 4.576429458424922, 1.0102089706294513, 0.7996423575491558, -1.6870373094212057, -3.946608915737567, 5.346133166503159, -1.116019933630486, -2.5215258121194326, 3.564774907167655]], "bias": [[1.8522811640852186], [-0.7610075907511389], [3.450926933306163], [0.9923324832658509], [1.5021181803337005], [-4.9748069301717175], [0.9689459260160579], [1.4716871564577125], [0.07633394832869822], [2.9304667215129987], [-5.200152718949353], [-0.2892187498958394], [-3.1081833501639187], [0.26654601024953095], [-0.05068539651830245], [-4.896876798496834], [2.5436388604879228], [2.4356593436680156]]}, {"layer": "activation", "activation": "relu", "activation_prime": "relu"}, {"layer": "dense", "input_size": 18, "output_size": 4, "weights": [[4.073137245856727, 1.5035932097369733, -5.883033767273897, -3.609388593472095, -1.2758653640466628, -0.24332282997460108, -3.75581395083339, -3.759705218087563, -3.7766781822195052, 1.5996926988810225, 0.20874482424367258, 1.71464439707302, -0.3150277993931929, 6.542882083064616, 0.9903851693576533, 0.3812242270201201, 2.9882958300383526, -2.091607983617412], [-0.775522204738623, -2.2400299484050215, -1.4851418051509806, 1.0395269054586613, -2.506274377576691, 1.4352357800011708, 7.498649716910903, -0.7263426793356876, 1.0225361406715288, 4.752060341764295, -0.6611125646473338, 0.6534856433592471, -4.406623739726657, -4.771088009374339, 1.1182219111966443, -4.201947010370284, -2.975215750327245, -3.895632738849121], [5.33363085909893, 0.8850361877823509, 2.8796926753499714, -1.426895238738613, 2.5050723003770576, -0.16612860474126767, -2.613153017586275, 2.4097753288492436, -0.7067631073993713, -5.909372233042813, 1.383452175343705, -1.633948479993209, -2.672679121160425, -0.8370006423754677, -5.944697432438226, 4.54728881513453, -5.702659645205181, -3.7366894081749207], [-5.105622497665632, 2.5418546430387354, -1.8007354447892585, 1.0635698398813318, 1.7025628906613515, -3.54234740769603, 1.034235177699313, -6.223977176295614, 4.731987851651163, -4.523737463009438, -5.828844872648063, 1.0946602086815955, 4.4708910648822116, -9.882489347463554, -5.077573362163285, -3.929979379629523, -0.8740708182824961, 5.346576558640174]], "bias": [[-5.7900461535261725], [-2.177195454537051], [0.9127511996162534], [2.9810606487660682]]}, {"layer": "activation", "activation": "sigmoid", "activation_prime": "sigmoid"}]}