{"generation": 427, "board_size": 10, "snake_size": 3, "input_direction_count": 16, "apple_return_type": "boolean", "segment_return_type": "distance", "network": [{"layer": "dense", "input_size": 50, "output_size": 50, "weights": [[4.141010800795495, 1.3424893811158514, 7.118436758605815, -8.570114031049455, 2.1378037555815204, -1.4914544698526053, -0.014280813605003884, 4.501296338254269, -0.9076955082290631, -1.9688121360318254, 2.588543748097234, 2.4773655399299463, 6.189152883271072, -1.2038131986137406, -4.349232838844349, 5.578126774982857, -3.2872240200076197, -0.9302343871785625, 1.72439474414688, 4.408026440798179, 3.7842418175880583, 4.498905140769667, 6.653084366296479, -0.48005146285528344, 2.7039502743852126, -2.8111186032243087, -2.526068876672816, -2.2845550831086205, 1.0558209973384947, 3.5442431632122458, -0.4740182895012251, 3.78211533917076, 0.10042514576359673, 1.2127039310633803, 1.9118658484189566, -2.5092302259129102, 6.0594022524894005, 6.395391442128929, -6.542563157663851, -2.786042982643324, -0.30786025887883905, 3.890916860734409, -0.31925289696090886, -3.6237312477558747, -2.325962633361581, -3.0454581821838995, -4.347255022634138, -2.6226144038716583, -3.2191083428853515, -1.8019087257204212], [-3.1107966380963745, -2.9581622269073575, -4.099523350770119, -4.805204012243365, -0.4209450964414838, -1.5414450696100106, -0.4717276099121786, -5.6388492172294615, 4.055016863052383, 1.5515993769108332, -4.175554712017592, -4.072429449444327, -3.565497128920354, 3.2270471836106793, -8.113209659862635, -13.287704800312877, 3.0581495743568836, 6.3899088692661445, -0.41816966804222044, 0.1370081011440742, 10.924414934588897, -1.9778330425431512, 2.6661439462101084, -9.49186624106826, -3.604723730300572, -0.13283690526691616, -4.669704590891161, -5.440084350688888, -3.1423735129755244, 3.561024213934526, -1.9751292511252456, -1.541801908733361, 1.70023517400428, 8.130244381837898, -0.3685076178962797, -4.393301361442222, -2.978014784068626, 6.664109321651704, -0.09882956118831746, -1.65067710773331, -3.7693494942317587, -2.499955867850478, -3.876438353448556, -4.471234783046718, 5.181522670830484, -0.27723320147550634, 2.4866585344917054, 0.42715067717334565, 1.4882735110222272, 0.22412488234284034], [2.1271896583868357, -2.19141261944569, 1.7403121913261872, -0.6722577646746544, 2.726233320424732, -1.7479602354460941, 0.03667619676362177, 0.6579485518567905, -1.2316820360165424, -2.8409632189697236, 3.0296282061669713, -1.1835301918768466, -7.987249517540762, 4.664607911313622, 1.5088923884877394, -2.25676181679727, -4.520388756722206, 4.381693476799121, 0.6110187485771043, 9.521892949966011, 3.536805853672289, -12.621304115871709, 3.972329975379963, -6.349256455457768, 2.1678965770880305, 6.911119776271537, 3.606536455920498, -3.0676707147918205, -1.7797650289306306, -1.7918244776100445, -2.1546082553198938, -0.8186485263599215, -1.8093948616576934, -1.328705641670596, -1.0888400820111177, -0.8721979564475713, 1.5065678433489116, -6.3278472648586765, 0.7717501078660414, 1.2893444514342953, 1.8231733142715263, 0.43766249169519333, 4.386381994283551, 2.6747153223826836, 0.342419873849366, 6.105218878952426, 1.545864420930024, -1.0344981113293668, -1.7275111925112383, 2.6275902991982796], [3.045710095700222, -1.497686300428124, -3.874310622397675, -0.7970379604011131, 3.332371200057091, 2.954124778654219, 7.546982853552235, -5.431914708048512, 1.4152480153478333, -5.828573057239933, 0.21564206785388906, -1.548920125359302, -0.16622973125887533, 1.0292270691078043, 5.613313135564024, 10.784685708207164, -1.9526044876430126, -4.220890081096825, 5.083269050182819, -0.20370716292552216, -4.274646397441397, -0.5576069249057125, -4.779141649272701, 1.2789323736231606, 11.024514023508793, 9.19116001460837, -6.659752584558078, -1.7618060075907676, -0.9440229309875492, -1.8292074498029287, 3.9754946240588804, -6.3858866563687355, 6.009253956517103, -1.4917085887840482, 3.0082023773658078, 0.7892913980954701, -4.4910258245319215, 1.9599960450751084, -7.304620399943836, 1.2741165609480942, 0.6706676954305953, -2.8709553701836845, -1.8539699831541525, 6.288247972838983, -1.836903281821547, 3.6619233603450922, 0.8257962236161536, 4.938567619661914, 0.9581355859108512, 6.645925948625891], [-3.7866039168774392, -0.8833101224909925, 2.0372502922882716, 3.538356242438186, 1.2866172395696904, 1.6286718293575004, 0.5517495952869925, -1.074329631729025, -1.0121285443539998, 2.7147571871267835, 6.333176068043966, 0.8177495763925631, 6.352500060713796, 0.7215549567478221, -3.171814610547922, -4.017481848417352, -1.4548579998941684, 1.327997971309517, 4.155053428381306, -0.21193742611424937, 5.861778855344504, -1.338190809208794, 0.382800470291439, 0.2942891746793757, -0.8333654572707467, 1.1964420062407084, 1.0258405458840305, -1.7527098117794344, -0.4549199129522403, -4.153550243805484, 0.19158889164451204, -1.624879610641995, -2.230016254195589, -0.06468387152455168, 5.025117236725116, -3.625765164213441, 4.5398363184944825, 6.129087770496322, 3.657853118397512, 7.362205200862733, -0.45053047365361737, 0.4426334119891637, 3.6207362655476723, 7.276360815455263, 0.090033979807569, -4.52967500082842, 0.9834455975577855, -2.7425985424388077, -4.530059930105002, 1.5966872530460365], [-4.051352893560603, 13.49666291470001, -6.730520334928654, 3.6383473052402744, 3.0853414934409615, 0.22739112227914826, 4.389315065388927, 1.8971884895817028, 2.647637493971815, 4.6868847553207, 1.8429356526200371, -4.448182492910886, -9.456397652015264, -2.3889643512159644, -3.467607467191064, -4.1524089797900725, 4.3701474012114545, 1.147906180339697, 3.38780114005289, 1.2873297930523795, -2.7397206472058313, 2.36312628774541, 9.134076827944076, 8.026584159416707, -2.7149600555195814, -3.093679070961062, 0.674381008666301, 0.11939967757279313, -1.7435624823491351, 7.798908400293326, -5.760413780159177, 4.579204760163976, -1.9188466150567765, -1.6154098802099, -1.3324826723666447, -3.2392254137949155, -5.142123396341531, -0.6048375191808466, -0.13849990866525386, -0.8013718598461659, 0.942651928738545, 0.5995202229696929, 0.6972699762116119, 1.3636579606132742, -2.4033531877718133, 5.898809978410226, -4.650629026163817, 0.6172646057551713, -2.3369648940353596, -2.0800582832041563], [0.27552404246675755, 6.876136048281705, -0.6889679496151111, -1.2078467420726848, 4.208439229954809, 6.1395292367466485, 7.08239566488472, -5.0305185542504764, 2.3528397715245695, -0.008990246065272989, 4.6781627421862195, -5.67157668837693, -8.888798565137268, 1.1464094613905216, 1.243243680271198, 2.0280895086414077, -1.70372699583019, -0.9818239012835892, 3.977173703071778, 4.016983425559403, -1.3889274746290363, -1.2895571182691403, -5.794892786536296, 3.552569714862925, -2.313313284878476, -0.8511608914520363, 8.090578562153402, -1.6573326641647856, 3.141444528820476, -9.454634319615904, -1.5382552602895256, 0.025790710369474557, 3.6711264695868415, 0.11875388697820677, -3.9886947821914465, 2.9364711784875657, 4.604960543247746, 0.7014479856357536, -1.848224836280035, -2.0506663648015224, 4.265571973271821, -1.5497395119999005, -6.016248102951313, -1.2204801960983984, 9.24374278928641, -2.6745690707175984, 6.4974426188790435, -1.7990776651404334, -3.02349451048057, 8.95689883309222], [1.7360601718134139, 1.579636896307783, 3.0299882869767174, -5.036322961887366, 2.6341190003411494, -1.646826553909606, 8.843498272944242, 1.3753434083242908, 1.3667614217127306, -0.617025534099962, 3.3861224465476605, 1.1297370010244792, -4.246264650608832, -1.4410233352710842, -5.132764413523078, 8.054143292157415, 3.262016206768432, -2.4211573119196927, -6.778698010651274, -8.6726412168139, -0.9195499131180881, -4.284914595332438, -1.231406125731786, 1.6132569395406378, -1.2153509281259542, -0.8821558414483465, -3.3751977197979697, -5.524410936905753, 3.5494649047207365, 8.997343510019356, 15.086299986779968, -4.323752454010022, -1.7733543917503334, 2.0325032670251613, -0.8407210031478335, 7.4828503649670575, -7.931295600348726, -0.7463402490745015, 1.393493011916988, -2.4231801882641504, -1.055786687384256, -5.749247905518322, -1.8337591061502572, -3.2490832957474716, -4.670350925894983, 3.858444331079421, 2.2005005118572223, 0.8262258296935013, 3.7021316889127767, 1.935771387528408], [1.2237769362529591, 0.8144757878333108, -0.5216123530387731, -5.696007521127948, 4.433815064345207, -6.6395127488367995, 5.358779339547151, 2.388091602085472, 4.114738380120625, 9.310892920812655, -3.955889473290436, -3.108919203190041, 0.1553387829023245, -4.4181102019182665, -1.2859787066721462, 2.073370781652056, 1.2783073793042026, 6.186474833871946, -6.444026184319891, 1.38489954280327, -0.1563593145649418, 3.601073563351035, -6.187775412327741, 6.14477628936295, -3.8617265732377763, 0.14571558990231603, -2.581681007343483, -2.850259015847442, -8.292639492720527, -3.9878507666557916, 0.8213686581340736, -0.26392103613965445, -1.0507826544019707, -4.21462460810757, 3.305402223904368, 4.783879158720747, -2.406068312314696, 3.8169436882228815, -3.592607196071512, 8.862192265960045, 1.463804002850796, -0.6483812659758642, 6.383905075906583, -0.2536342316487559, 9.120436681032656, -7.095976473102857, -3.79083717342052, -0.12391406065401722, 9.103129681231708, -2.8754167094436673], [-4.673332512914119, 11.000853355188049, -3.8173836910640437, 0.8383466483417419, -6.444738309985608, -2.3040732556160552, 9.145545693720193, 2.726000965689321, 5.972225226045238, 0.6517351686988433, -0.880615315096036, 8.949573163522473, -2.1764492766788948, 3.65090466479396, -2.782651236050544, 2.249106596737001, -0.9652962787254018, 5.699158697637795, -2.9545833020368497, -1.846015901332715, 2.4537341534363994, -1.3737128422923588, 1.960102607555955, 1.238809002233067, 1.0651179666920054, 7.854981729664146, -3.954723686347592, 2.056255756632501, 2.1493075529550874, -2.264043221850617, -7.2623413447516, 3.930206963893079, 3.201632504825673, 2.783493607899932, -0.8651944423242877, -0.35539278042850553, -9.765186000416943, -5.78655780499975, -1.766500061124347, 5.067639175188462, -0.26695101915210384, 2.1569512165847677, -7.678393434956502, 1.100994266920461, 5.380151175721968, 0.7905026836384158, -0.3895529748779055, -3.2564961357904303, 2.144708276278647, -2.1589335607831734], [-2.308051798862935, -5.285539236431004, 0.9133688720991278, -6.5500613330458926, 2.3507690966144414, 1.6089946200550331, 4.9572083130042195, -2.9738096257804187, 2.756421973958947, 1.1974091635730697, 6.203455070865308, 3.979873169447806, -0.013210142973434369, 2.7029882598861423, 7.988263091549554, 0.05746224474747552, -2.875710289023357, 3.632630746852058, -2.2638442996783974, -1.238875358832571, -3.2322889682449425, 1.0614921471762782, 0.15622306486321436, 2.4928052565282792, 4.32470924134747, 1.4404854155805031, -3.6690636693906056, 3.156723794345628, -2.9016609633130095, 4.895678166083703, -5.270031926141876, -3.824478393763222, 7.030345757596535, -5.017809308350203, -1.237764970919208, 3.2697694190924973, 2.5725867051402926, -1.2548184215343783, -4.103703010340878, 1.8169248657488621, 3.212702271442498, -2.4932778066116152, -0.06111271152299391, -2.7682091366137342, 0.3906789764863341, -1.822542852666205, 4.253829630820774, -0.59743732806034, 3.365976114000653, -2.7462028204475013], [-4.19660240206319, -2.7973662843703275, -1.5217807214968602, 1.4403583516647045, 2.828620509281378, 0.1803445005810248, -0.04434661874774792, 3.3736762276002596, -0.7973752121251889, -3.779982710085929, 4.3282634433067795, 0.7500190252723791, -9.738975177196036, 4.599836135922682, 0.0328208017453972, 2.845442745445694, -2.3255523085244523, 4.137460215912336, 2.0258196921534126, -1.9340903895354413, -1.6848208169457803, 0.3703401650126055, -5.509044315325021, -5.299155024555875, -7.04256451091308, -4.232750712070426, -1.6447846130807928, -6.413924229162537, 2.036696663847903, -4.254302290031506, 0.8141100781752331, 1.5102506026986942, 4.508207483776973, 1.2319679886177748, -6.561024006708107, 11.084714341749484, 4.662448989990049, 0.4684264187985141, 4.919401529400333, -0.4302284490747001, -3.935347731725497, 1.700415347037747, -1.1208759685523986, -6.203256281609323, 0.40505042183922924, 0.3587977494521748, -3.7745461931343414, -1.8087284579977718, 2.0749624565651157, -0.11705834304737528], [-1.5644491490956223, 0.41179492917446736, 4.734052621677186, -0.21037748780588383, 6.647678511295107, 2.6981256506642963, -1.0933007927145553, 0.9111390819752474, -5.849792274932712, 0.8400498089279407, 1.2580856370970737, -2.1767798715788658, -3.0378756944411283, 6.440438128280444, -1.7347266809881734, 3.2135578977040025, -2.056189142242, -2.907353562695368, 9.166980549992022, 7.353902305004146, -3.546003121141803, 0.5673751377264808, 2.6367063394965213, 0.955505069921755, 1.2636216288861142, 3.476956436576165, -1.569869698350216, -4.341605832000261, -4.954841933665222, -3.4605933749984996, 3.869504586628101, -1.7754038656808322, 1.6368554501543187, 5.135349357989438, 1.911437940476004, -1.1977948200774344, 4.328075434263391, -3.4465114134844406, -3.7092364591959006, -14.4271517096843, 1.8569923616321686, 4.275591218191382, 4.08894655270363, 3.4690660408801057, -1.8670224615641378, 11.281863854065815, 3.350088281999151, -1.2150020701083022, -1.0296287801193118, 3.994218364274459], [2.243701810532844, -0.530435565125366, -8.183715420701365, -0.8089515691046361, -0.436933200620467, -1.6847415785524154, -4.10223347308875, 0.5186973144213125, -6.34698224626983, -1.2745248497163117, -5.439679207369889, -4.556562903705447, 2.6238766735985513, 4.382829621918493, 2.5723404429199404, -7.393048548273658, 6.180919004693958, -3.0413162084250884, -1.401445721606695, -3.6433466523928155, -8.862177347557575, 5.487236387208083, 0.6407977347044342, -8.698071209723812, 0.043564862126747816, -4.438692814004507, 2.495040359619011, -0.2985910971195218, 0.5850279739823692, 4.7683001634091475, 1.7167306782380334, 2.217514575032992, -1.1658367804318877, -2.986470423038136, 5.039899839713551, 1.773530006221957, 2.8288111753275276, -0.7548011329604649, -3.4576759710150116, 6.479595012221405, 9.17142417073596, -0.7225833952163241, -2.221971736874455, 6.309327945738865, 6.103061121356431, -1.5654104524212782, -1.0982474821262025, 4.560821900589376, 2.7248196838690073, -4.812816297367669], [2.6601791869028926, -1.7311974059711726, -0.28336828492100996, -15.588487450916826, -2.3975288304509816, 5.146715862913991, -1.8096617757127689, 6.350885805285669, 3.9447997307221154, 3.3524386754159, 1.6184169670442679, -10.839926625162676, -1.414170266596359, -0.8524947663510642, -3.7376500759492464, 1.5551127026128861, -2.4729956732647764, 1.454914433077283, -2.0106070501946642, -2.401228036893703, 6.315714435608046, 4.595213034174202, 0.377701628093979, 0.12963651545421884, 5.155533690163485, -0.18962340836941477, 0.7403009701300327, -0.14883596994969434, -2.696708950553978, -2.203504653088463, 0.48914663308015593, 3.212053500938458, 6.473378484807074, 4.502567678361539, 2.811365068528049, -2.3634566974655744, 0.8802622656814406, -9.026764845541571, 2.1634641233180174, -3.530656204053269, -1.5759213367434008, -9.472772997630903, 1.713622855262253, -8.110932795783327, 3.787702826500646, 2.830815779153406, 6.804968927035088, 7.625419074043986, 5.98111581864041, -6.104963937170902], [-6.76976153191093, 6.507098228543987, -7.079994849613822, 2.882330070130333, -4.106107648232658, 4.341579988655215, 2.0545508594758353, -2.982849194546609, -1.4604471169738595, 13.608495369872413, -1.0821225636696876, 2.757833172375124, -0.7038266886152963, -2.2898858517541614, 1.542289304283964, -1.9260319259128926, -3.4882936006185625, -2.2884781732756427, -3.570376631058808, 1.4268469043318066, -3.817072643254924, 6.401324884252327, -6.364448671928785, 3.5278642216890783, -7.065405669242037, -12.915214338927294, 2.3868687641595474, 1.7760439733357154, 0.10689508335157161, 2.3457967621951648, 5.784349967608971, 0.7453460233979512, 1.6737408545461538, -1.1887486604057562, -0.584587457506414, 3.9002707102312204, 2.0015818688161437, -0.9194306640121317, 0.9052130007691539, -0.12653086081743536, 4.27790195286524, 4.009542873072051, -1.137063549342007, 3.211566345710322, 8.966389210808744, -4.9171746848146665, 0.1252769227453254, -6.257055963682205, 2.1519838862636744, 0.9160055352990373], [4.7552653778809315, 2.208623712722684, 1.1757686012762278, 1.790481995769051, -4.325176049455963, 0.45454243462395505, -2.3747579547350046, 1.4436716520593214, 0.08935294859701726, -2.1892632330217694, -9.009208203691172, -0.41802930595834176, -1.6776141143406242, 0.27906977363165986, -4.0381169994964266, 3.5283272518110396, -3.794030036937351, -1.022924702116572, 1.703737237991739, 1.1361906560390436, 6.689410294243796, 1.194763295762906, -8.136411860273718, -0.7915650724366067, 4.494849474828988, -0.24333255755074146, -1.9627613120947678, 1.2058974753273402, 2.4576558774158306, -2.4396660345821597, 2.716406371846128, 5.922590041173057, 6.39099512656041, 2.2356382067737517, -2.8252180541464496, 0.9954541779692108, 7.736989270791465, -2.577730370197586, -4.385223354570142, 2.9557783752180553, 0.673011647120225, -4.211145593521688, -4.370912666101762, -2.8672336435391026, 0.7286441351839388, 1.052420499240259, 0.3520253592304309, -4.977992394582344, 0.2918385492025213, 1.729271325709484], [5.503134113106341, -0.5069844965905379, 0.41547258200676296, -1.0658722179092301, -2.52437180904766, 5.185178576398992, -3.5058540558649813, 5.391590105040859, 0.8687151449825211, -3.3759564606916492, 1.6376598867038537, -6.29020667525463, -2.76884436751321, -3.9493710566255444, -0.5726558011475866, 1.334689219120703, 1.632999871072939, -0.39305942780036185, 3.0830231921657196, 5.349134765363376, 1.7454159086292966, -8.272135384490992, -2.1983956200881667, -9.351165217917492, 7.6556982919156695, -3.1437392958059567, -4.013749863423485, -4.103187111425165, 1.4110271900565396, 2.9375461076292497, 3.873869960351096, 1.3845796978894427, -7.210939007793043, -1.439270365365396, 8.142890342808117, -3.226079956046818, -1.3290481680679962, -0.8633697273634235, -3.5195960280492704, -2.4330622567606515, -3.0673055197630945, -1.5405035506440077, -9.119188741673142, -0.10353676586773741, 0.9178694399698564, 6.203986050490269, -4.6624391065049595, -5.248720078371779, 3.346458451569213, 1.7043118424621366], [4.6794648995557555, 0.367337619715741, 6.100329342576968, -1.2821341442062457, -0.2641883718828968, 0.914832006935896, 5.072272562481155, -2.6965590328948816, 2.1511718472192065, -9.785289439360747, 7.482465148094706, -5.257082864866418, 2.0130743792674037, 8.174442710660212, -6.69980516496552, 1.750306913226063, -0.018825279011143836, 2.6003305737089804, 1.4279031996145077, 3.697469619617792, -1.6447806297533805, 0.5426655133299958, -1.2320345087748916, -1.1943492239306153, 0.027819719464230896, 1.0387461330853456, -0.04787793806472007, -1.9763999813424384, -6.292958190712966, -0.0727923861775226, -3.914411939146296, 6.916665962213002, 2.7315501370221686, -3.007562786123593, -2.2097108374481103, 4.843724597763722, -1.6976636568752181, 1.5469496500424023, 1.9995392807478785, -0.8509356670033198, 1.193337708488354, -0.5122979338830663, 0.30876637454158345, -14.519926002566695, -1.9863807252984558, -2.6266541906678054, -5.5550524932678975, 5.355228901965016, -3.129987004737348, 6.41688317396467], [-1.6094296503796581, 5.770309329443879, -0.06347733226943486, 3.4582553902125004, 2.671292881942224, -3.6184520267274287, 4.743067155434984, -4.719354414358751, 0.09463984240923129, 1.6490658633439195, -0.24904461109391562, 1.1957772853096078, -2.8428194148944432, -0.17578510564471422, -4.160652951509285, -10.203088981241965, 0.20902350276203924, 3.004411505016451, 4.138177537196843, -4.510546953349066, 5.412351369952479, 3.9348496084676796, 6.928517608249448, -1.8141703469991228, 3.0681902863424506, 7.839416177383248, -0.38756434103413007, -2.166123426650899, 5.0537942602421095, 4.062103734040807, -0.7033326326671147, -1.5399795763213247, 0.3918276466840551, 1.2651128391791668, -6.807136163281905, -0.5038784848033564, -5.317377841862988, -4.347741507692367, 2.4045277780758565, 3.2354364333629375, 5.507950202540062, -3.9197663086215266, -1.2265383994726187, 0.3408335092121062, -3.880619761101789, 6.206686571026183, 1.677583599042729, -0.9109011767131735, -7.940868544238852, 3.2240172177871416], [-3.8504342346840548, -0.7233181970902126, 6.03130265499681, -4.583750617345908, -2.0364721770956837, 2.914433838439717, -3.7040296964822246, -4.546113648699475, -5.701979308403833, -0.20993034048433867, 0.02722613216902281, 5.025920517155254, 5.288423730531587, 6.7084031257467505, -8.60361883216615, 8.15802798146147, -0.18359600385133618, 4.728529843525403, -3.0912130254795014, 5.060884478488253, -0.006366440609617496, 5.296544151630947, -5.3680867881000855, 2.9538530099562, 0.05767868371511589, 1.54308981658931, -2.8032402298201187, 1.4866042179798704, -5.929780965422836, 0.9399565853099332, -1.7506638876504124, 1.668862305496487, 0.1902128820282607, -5.809426244651182, -2.2862705982877873, -5.780908050424074, -3.349661451106509, -1.0149956837666474, 1.3864299754558815, 1.4334499570296275, 1.8430500888129087, 0.9918763821152281, -2.4596734763527586, 4.440088703382046, -0.2871984875967595, 5.3840318691149545, 4.637275664542917, -1.1952123862366786, 2.655314599456571, -0.04507209861919961], [4.953078276763864, 0.7458789040992775, 7.205320705216291, -8.054159421578444, -10.359329652195854, -1.593111775275132, -2.753576903467721, 0.9416639685859005, -2.2120167152098613, -2.399040909125596, 2.886640582996627, 4.597720089375243, 2.163481606519785, 1.253213471392073, 1.854025835014809, 6.850209725021218, -4.898219949446044, 1.6763424542394694, 1.5005093623303871, -3.009018432984346, -3.5466751173772817, -0.6466008372137948, -3.0862827459541426, -1.8702163779679664, 7.175499773927644, 0.6323889819176478, -2.483558352462662, 2.1714948276959585, 2.957614108038192, -0.10972372324969926, -2.2799689984678073, -0.4877277032201417, -3.6356254534057557, 6.030294177613613, 3.3748152973622862, -2.1136900139725654, -11.078851264453911, 3.8359726014227946, -4.004837814865608, 2.222203354001272, 0.4081125578263869, 1.2152698155859238, -1.555622593782821, 1.9614544317216978, 0.5506260891785768, -1.229577875547524, -3.65427389590754, 0.7361676608507195, -0.3867846503970098, 5.670972209540797], [-6.886246860441123, 0.9260787623772276, 0.8813263802974374, -3.3975783763280614, -0.48324407071770614, -3.7568693224064185, -0.7600662072613149, 0.6214721650480929, -3.0881225071480007, -2.3926641611016612, 3.4532916852259445, -3.3972725023467962, -5.764349545327311, 1.6810416109452295, -0.6846238220190843, 4.0292764844873465, -2.4489210507849455, 6.096527738319242, 1.986097689343021, -4.169157119156246, -1.3129900582972676, 0.18673352836640195, -2.5419525618109042, -6.473746853173966, -0.6726849712885512, -3.3947752024101594, -0.6240303797252287, -0.04185088232224077, 3.1262087043630578, 3.1555765672839757, -6.1036466802429015, -5.922273849634753, 1.7285356534214205, 13.716899448614484, 0.7686307020701117, 2.078258367337232, -3.911310029117382, -5.559425000280068, -2.5984177502839794, 0.015008139223282424, -2.8236595469543513, 0.2832991810256802, 3.847079463227783, -1.651411224132814, 2.0795401878835396, 1.5373641018801123, -10.003395230849614, -3.209109448772346, 4.2784156519275625, -7.223976944142966], [-3.869393400324974, 3.271103619797314, 1.6906689195412004, 5.6460246900412345, -1.9518164397753852, -0.9851797121360768, -3.019373962061131, 0.7151378935434004, 5.850110903674817, -0.713066837922134, 3.883876163039753, 0.5276494913330148, 1.3493196633652254, 2.372652712372317, 2.744544101312643, -5.42861598894529, 0.6372791009938239, 2.8818841148321424, -1.0077967669886505, -1.1611142401870467, -1.124395743347178, -6.011440967999494, 1.1650855246300313, -1.8315557655411117, -3.0308526867041183, 2.4941886854693163, -14.343918196795162, 7.318996795545046, 0.5236703514540308, 0.9608244810093356, -2.248236127808609, -3.7958920212749967, 9.358960297671182, 1.9870722095300577, -1.5323190271267069, 0.7249086180744546, -6.434091489070626, 7.5339767857999185, -2.182536765976849, -1.4067871597838233, -2.438336947573202, -1.1569527952882521, -2.7195189223339766, -5.910714500856881, 4.480820477849997, -2.3780568904047845, -2.0281459151072556, -6.01303120866201, -8.10683359628282, -4.948276522723044], [1.817082304625665, 7.275249168364892, -3.7652332943267623, -3.5343114498175643, -2.054016869832157, -2.9908991295563823, 2.8297983856840014, -9.663991612234963, -9.34127284708804, 7.5874159430710675, 2.372617430295906, 1.6875537616501641, 3.0193179856903445, -0.29272699975522937, -1.0315018889348506, -1.3729839750810287, 1.4947149547288974, 0.3089942993018209, 3.5351722476018876, 1.141546721919589, 1.4387410863487273, -2.2954149447321788, -2.2808903770715636, -0.7631434512101407, -1.393971360564266, -4.493453069059291, -2.3394584742534104, -1.7691830924498826, 2.7061410216818587, -1.846906141173747, 2.109866889830224, -1.4814017960883854, -3.95984419918479, 1.9036906788088617, -2.284672443821918, -1.6636023636562514, 1.9571989750289296, -2.4773955990099434, -3.1113813852903336, 4.7203259383697915, 1.5481010014985865, 5.247737381971278, 5.557581850994354, -2.7840821828655367, 3.295841736941302, 2.5687811773136966, 7.923203767920924, 3.600852684933144, 4.5411863304921045, -4.96321975570183], [-4.718853392990496, -1.4790774976278622, -5.055599620363414, -1.4662354012238068, -3.8592940420330244, 5.034192381589001, -2.6541139348234477, 3.6111428776436028, 2.52737341985598, -4.7269209449128, 2.8400621246391067, -1.6501285384613298, -1.3976990664299223, -3.9017931161577275, 2.107825571888598, -1.5390860361242096, -3.295505254174211, 5.496797177215546, -3.846834004877015, 1.090485405900516, 2.3644677153851834, 2.0997390213628138, -3.125350337650022, -3.039663488188297, -6.083906251238193, -4.618970173232219, 0.8572295976631394, -3.5618760640589113, 0.8106441993501237, -1.9013498992058286, -2.260723108588614, 0.7970471886022097, 2.0433532974975166, -2.169344303668516, 2.9205386793472425, -6.200779283880692, 0.9922679399466084, 1.5863979616883568, -4.5779485246603775, 2.112588302390205, -6.228863202787527, -2.7209721364680393, 7.287544905825181, -1.7877791740075997, 4.372031617192679, -1.2554915191135851, 6.717303339062724, -4.955178835284498, -3.6864608185404464, 2.9095352832769166], [2.462878494932509, 0.39183159550986946, 0.08300051717531354, -3.6178590666722563, -4.376394642461209, -10.546539891874643, -2.486795942613332, 5.892030774808994, -1.3268730390596786, -1.0526289435029317, 0.1527673350643297, 11.11739216066342, 5.559416868754797, 3.5343045176746486, 3.0458404123744494, -0.4715465699337247, 2.9856113312145434, -4.557098968209025, 3.4715728443010794, 0.7944185431284312, -3.4711054279594125, -1.8616943656062013, -0.16341184276787474, -6.649023216409458, -12.527195843281545, 6.507497570028435, -0.5814902651841478, 4.948805287280114, -0.8459305333722762, 1.1204097415620229, 6.560509800332224, -9.1573473451053, -6.2033458424630465, 3.0885947668978413, -2.7074538583141203, -0.22724396535418667, -6.523289479270628, -1.5623803160143956, -5.024779074176795, -2.42864974256136, 0.7061113601859139, -3.4609153829928943, -1.9373508173971676, 1.1286269454563385, 0.004496743571861472, -1.6237093910098683, -1.6135492775616962, -1.9587336561057236, 3.0505593576973196, -8.590359803750259], [-2.2370999978029675, 4.509615009844834, -6.22058078138573, 4.225752179982996, 0.4471402613305726, -1.8222917718122118, 2.1865286467368947, 1.1163411167752846, 6.669233829677375, -1.6031113014580278, -3.8265460097446935, 2.6307682179604583, -1.1489089866627946, -1.978231686522438, -1.8607146025352062, -0.3881152434762516, -8.34660091790477, -0.3139121394484701, 2.9311946162190914, -0.3543666532072884, 6.794292239118683, 1.9092286779068617, 3.4379707457007167, -2.478449841408904, 0.8483024057038897, -3.881862834116964, 5.739288955729541, -2.5967549929589615, 1.5070289840260025, 0.010426149756874392, 2.9287671444630847, -0.485030317548636, 4.253405638700237, -1.9275607027751793, 0.26919500134339513, -0.21032015928599324, -4.726711558507358, 2.6085665613861333, 0.6124549552208086, 0.6603283812353509, 2.5841568550975613, 2.0440006571217926, -3.589501864920631, -7.120065398936726, -0.6631132729029001, -5.173283096277236, -0.25243293186163396, -0.2403085652445653, -8.908043820739746, 0.3699317648771345], [-3.4261378208065683, 2.862441131748346, -3.826573186777021, -7.734141246342802, 2.6110947046675577, 0.25149129762428946, 3.074433308431465, -5.4919655235816975, 1.2346316326828903, -2.6978806969770956, -2.2510250688686657, 0.21907619641938564, 5.672506921794794, 0.09824603571372958, -0.7451859632585158, 1.029917311013609, -1.9004376796263407, -5.690111731812672, -1.094660193644603, -1.3588185038396465, 0.13772610219842674, 2.312128989375794, -5.886738063120954, -2.33130628498714, 8.515686946712801, 0.06882358170199088, -6.642820576382964, -5.362032744214385, -2.7606307198855884, -4.0432455717448805, -1.1130538095354363, 6.567507352230582, 8.23129217005057, -4.568413239932604, 2.615351392313471, 2.98712505728997, -2.8870058917834824, -6.309573558645317, -2.8407254448233816, -2.411701889084136, 4.1206333918373215, -6.58444206460282, 0.27492821557732794, 0.6489069915049304, -1.6917696840822891, -3.3036020631647287, -0.43889335345821373, -0.04729503729911011, -3.143193867114396, -0.1558586722233608], [-3.2269211187947495, 1.3450900040737683, 1.7315030675218996, 5.639042369003648, 1.0962257337844736, 2.5550799281348784, -1.3580707713820137, -0.9079977860184597, -3.6153436994666084, -1.0937845218918616, -4.7620181137555235, 5.077718441163384, 6.472911291323744, 3.0533392503451253, -4.696147343832687, -7.3609432298495205, 0.4428944457369195, 0.061494573504888544, 0.18135126600739326, -9.839353006788667, 6.184899254311226, -3.9495644454368284, -5.438036890503895, 2.281630180641598, 11.399970241298188, 6.453731136516268, -0.06822608186699708, -2.3142287865413924, -0.8860799933372543, 0.4039137085769319, -4.920133917932184, 4.839824760327787, 0.08950243934856772, 4.354223613291397, -4.0376476428964985, -1.6399806172387787, 3.172915420073288, -3.70544152046712, -3.7064670880098367, 3.524600675182688, 1.0329021086041912, -0.8870569543528826, 0.7533626679369132, 2.7250711829127527, 0.7531066442408952, 5.575624731621741, 2.585708972348195, -2.6137758187856424, 3.244933328626545, -0.43066494697187135], [-9.986227282107548, -0.35833939420637445, 3.7756246121376047, 4.739995721858337, -1.1456701059794114, 3.7158302289021945, -2.378734496127858, -2.2122829260156482, -4.74858865807739, 2.7181040117565045, -1.4021061529401828, 1.6439626306009276, 2.405819492360988, -1.1866937757053864, 5.17598590712545, -1.9448183743361518, -0.09975139697994972, -2.0287696890843305, -2.2287672851004445, 2.4643104395844, 3.642888107407389, -4.648332142654721, -4.711000028082409, -0.6036024389889181, -0.7811760157904124, 4.766236147877266, 5.548257697518338, -3.2922163916861704, 2.714285065695493, -3.219837457653845, 1.5683572820497749, -5.5229249362330615, -2.06216258225273, -0.12415017385045657, -12.353791120007948, 5.6474890780501585, -1.5521981104696199, 1.2551101482794316, 5.039044205163007, -1.7294166104124726, 1.966339008540848, 2.33397467322482, -0.20748837992507196, -0.34154699489161855, 0.14916598373782047, 2.573426079531468, -2.216475766989032, 14.153765290311355, 3.6804279125430526, -1.0362541350221157], [-10.355969353117331, 7.905480071230238, -7.697418123436943, 3.6384257347252116, -5.830264645033438, -1.6910601224499326, 6.528907404623982, -3.350365337169592, 6.6171720948252055, -1.9528809892040169, -2.2052703005762786, -1.0153726716224423, -0.8536274957782378, -6.485547783547141, -5.897114900495758, 2.6851321930280916, -2.447886967884513, -3.6527123926411003, 1.8953541050607596, -0.22726616929271332, 1.3083687661683479, -1.9853377761444895, -2.2364400718055863, -0.5100441155579846, -2.1344580470600136, -1.222625688643514, -2.1825243676730155, 0.33998578605543495, -1.0813419243518505, -1.4957371861719697, 0.6854636060324825, -4.280119187273837, 7.344116379739158, 2.580699417637853, -11.405223461438567, 2.2415188123114254, 3.7948743358493333, 3.274187256472581, -1.887957867248546, 9.380466272838355, -2.5525442860460603, -1.076734383595063, -0.3406163786677546, 7.466352605856615, -1.0911465745464384, -5.9785351351077445, -3.5815665811088118, 1.4216771864803464, -2.4719814632622024, -0.6774839418838217], [-3.6799576543194332, -11.699111903511701, -1.3862569460933492, 5.554775912220448, -6.059846162978501, -1.262469868787325, -2.926958201212555, 5.143060160170625, -0.9844316454003241, 0.40161081396245385, -9.26997330677931, -0.2274963305855331, -1.9179458084879533, 9.444446246975767, -0.4623394508350822, -2.840029829697091, 0.36642929412692815, -1.833185171774864, 3.75836456834027, -6.7542503345402265, 8.974019816316753, -2.217025430603472, 3.043666885155814, 2.2933755988376068, -4.840834878901956, 3.6551010371358488, -3.866282661407188, -2.00137194960034, -2.7611174562610237, 3.3257239385275907, 8.943496175025198, -2.565428851373031, -0.503383406523427, -2.079841029992744, 4.91389097953586, -1.391794516257696, -2.321599214683836, 0.6790141476209064, 5.437392632056836, 2.9798067308299614, -3.0218276056777182, 9.246279775369125, 8.276149297470443, -1.5890697328610361, 6.178338897248116, -5.307258462075136, -5.896319164999918, -9.330149267785933, 0.47352138333003213, -1.9306967844633578], [1.4369858445286006, -3.600406747950202, -1.9834512912434226, -11.606955542804453, -0.7428754732597788, -5.957680991212862, 0.5722645349738629, 1.8104043498514488, 4.497004230634971, 4.0979605324666855, 3.517101552256066, 6.764648426645371, -6.214043628114813, 1.1988067695905387, -2.863029264519875, 4.753757777968613, -0.2188270224524601, 8.078786584022632, -7.199822433261584, 1.2746557882329996, -0.10225083880500652, 3.601756452426942, 2.5320622060208713, -5.354511962295886, 4.648796062117668, 1.905549206779778, 1.3939671453768823, 3.346831600845597, -0.6689126235193342, -1.6287722719087774, -3.396216944036351, 0.9547034153880627, 2.391984397502891, 6.458833312612509, 0.29720352299346087, 1.4970467227383983, -2.3404515004065334, -4.199503919141495, -1.6515935241124038, 3.19199593842575, 6.318407988996922, -1.0314971348680597, 7.600563119723343, -0.5303153916667711, 5.375065377967368, 0.04505757628485901, -1.8593571659601136, 1.6194663595994103, 7.6322788706142894, -1.8053880530744393], [-2.2740723140280745, -8.007802332066603, 7.021769736698657, 1.0214368654846406, -14.109992574433855, 0.3406072212821023, -4.999218801690093, -4.011847789037325, -3.453480721519064, 2.322561408223288, -0.2590706607837632, 5.742496950073802, -3.4198890686569614, -2.332145024331565, 6.562916545677989, 0.6845336493750234, 0.31767964150236466, 6.0756166613289775, -2.4643646419552363, 1.3937658406098483, -8.938090528627162, 0.8418363497632935, 0.6902392924737928, -2.4148224778191665, -1.5056502203399322, 5.85210996083171, 3.5787792074857876, 8.094990741339736, -2.8326066079202223, 6.0954445312104895, -4.605023069671422, 3.1668087594220045, 0.8142153036222746, -2.7307853921579, -6.462945421614071, 5.407568917947753, 3.1369080899981006, -0.9513425934176054, -1.8892523907139291, 7.912563715905058, 0.8411578474167589, 2.544209918559913, 5.164260029194531, -6.457137502139615, 3.60321298346056, 2.073290718438243, 1.9116028892413888, 2.3799375041612256, -1.0081238804755936, -0.5579313557531977], [2.4149964243747593, -0.23513328462859961, -1.588187322337193, -9.338268177366828, 3.6305124362414376, 1.3121631116082022, 0.6081385859833476, 2.963661331994401, -2.0993210675903144, 4.493561283840181, 2.461187061428327, 1.0232257151519315, -0.2189770928239202, -4.451113216942822, -0.57166878696843, -4.736117524603589, 0.3569263587859719, -3.449654029771557, 3.1582261034012955, -4.897678557092526, 2.0267846062321273, -2.3793302824869795, 4.518259672325635, 0.6244756053793852, 0.5983341790589212, 2.7559806605335586, -8.35093290447696, -1.1163477823366645, -1.302629205336505, -0.13419327389328406, -5.303128361876427, -1.679601837038061, 5.33186157450113, 6.610356871848551, -3.6622162548179324, -6.64369850148782, 0.38235263155384536, -3.633032518109834, 6.190602536425189, -4.434749120785862, 2.277739501030515, 0.7270696781676409, 3.3324569988974693, -4.624265144131081, 3.7351865163336857, -4.588191744050882, 1.7954410780057084, -5.838227676437613, 1.431804703000276, -0.7618619935299584], [3.298371625275174, -1.3355390894179067, 3.4719651311848314, -3.4498524417204424, 1.7873257199369832, 2.3155246520894854, -4.1859981548258105, -4.298863457235727, -2.771658573674375, 2.950011469112607, -1.7633430833947772, 2.16241386829355, -0.35235297121215736, 7.595342201187192, -3.8536483667391632, 0.2478087145243374, -4.313030911464982, 0.2837421968869611, 2.9473012301128314, -4.401353359848988, -1.0372117737246582, -0.8276238356350076, -0.4741633654778681, -1.9510097813658078, -3.783417564851658, 1.4308579653730118, -3.079034478000844, 2.340888242620016, -0.6556920666318591, -1.38460519925508, -1.3464849393634253, 0.5225070601790804, -1.1473152557524309, 5.196173111747289, -4.898805989283746, -0.70636998107964, -1.784389148206859, 5.646754881543821, 6.808951778098973, -0.5810304704739906, -8.377841845237961, 5.867296212883707, -4.522859631271466, -0.7140972669317622, -3.772814300635577, -1.1407299070582706, 11.53394104454624, -4.532522400805998, -2.0266893283936986, 2.5182378778513748], [2.6503566831469, 2.1631931515702782, 2.1824115546157667, 4.390259278216425, 2.401419691213349, -0.002533054288806791, -4.588573308176839, 3.291328989291312, 5.988488564201559, -2.9783315706074385, 6.90605596737336, -1.3267198098960884, -4.425290779439927, -4.111734431686392, 3.2221918499150686, 0.6684227336349733, 3.348202582152167, 0.05357647578802255, -2.447249573321987, 7.816067805538218, 3.0275003481839486, 10.678853531152422, -0.9198864610970325, -9.854579490781681, -7.492941155922057, -8.327036124221138, 1.757116443280413, 3.3329531702930657, -0.7482143459582922, -8.128926867183893, -7.01921287645148, -5.047808750540858, 5.580396847113418, -5.209030718678324, -2.899283780351076, -5.469428922419079, -3.749304766327187, -0.8648928388815609, 2.647774204405385, 5.090244658332588, 4.723911966680954, 4.4555234255432055, -5.046736416978403, 6.800936810936256, 1.4167704071744118, 7.205464012181864, 0.3814440942818669, -3.8285537050912297, 0.889335234262644, -7.082373897274212], [-3.964736706122888, -2.80993680765399, 4.628629695643604, -10.01404595911551, 1.5506690958317475, -8.558512468636131, -2.1763372872893374, -3.573934161199266, 3.508826348442994, 5.186038483633592, 1.9186451228288863, 6.0641236257375795, 0.9229249266378118, -0.29014097924113824, 5.1580697529351065, 4.729645230569819, -3.0227392394663246, -4.526137762700421, -7.930238421652625, 7.805061134129908, -3.162969909130579, -5.13891033241149, -2.4252176900385427, 0.24435056931352067, -1.2269346710026194, -1.1781912631473102, -0.8779179467303795, 0.763395091178588, -0.13632319984735497, -7.60160338300885, -1.2017409439674618, -2.3831986412093658, 1.4518947475742663, 1.648763828161944, 3.431747421774962, 4.898825924465637, -3.9591993472662432, -0.4391488130147918, 1.7767869244020744, 2.8779338431607924, -2.763791477823286, 1.3311768053126012, 0.5961676862820917, -4.881732591941647, 0.38620253082032996, 1.784944154954602, 1.413217620569263, -4.284176507808484, 5.513826562849703, -3.806301806833468], [1.669945015570662, 1.9042166361485666, -1.372969800092693, -0.10061919534081376, -0.9397118393435572, -1.8217408459475113, 1.81802162632463, -5.055479390824927, -2.8668480921120314, 0.410521522416083, 0.8513737542197122, -3.944690184972401, 0.4849035769329109, -3.500321943878526, -0.4194505574051126, -3.014772359117163, 0.6159050711973441, 1.4684773601922843, 4.343509632391665, 5.201134657191635, -1.4267634719581617, -0.4207730934943041, 3.5655816369035467, 0.2551249883081873, 3.080300921935355, 0.5475957928797887, -2.0235876271108304, 0.29600950366241313, 0.6606611382515162, -7.725277522482673, -1.9113785324817183, -5.021764661270779, 2.6528397006644417, -1.5123672515613338, 0.23422513537959333, 0.4768870278924212, -6.920505539006608, 5.7903408867247155, -2.4165480846281673, 3.826046188500831, 0.5403903235307133, -2.93605286900193, -3.2629548106867685, 3.6161916529997122, -2.737138667405552, 4.854734789044391, 2.332398732616813, 1.430946082473258, 2.083788376605092, 1.7866115575612933], [-0.7865550092033492, -2.4979316475124507, -6.9864395078234915, -1.2523116004353096, 4.09538866787774, -2.9649596245093095, -5.190308177699577, -1.8867578764558441, 0.7126427305375765, 3.5771085083420804, -8.022704132282186, -0.024671939214575764, -1.117555633992003, -2.3034065105579513, 3.0662615410146907, -1.1854377898540551, 2.330348084602499, -1.4711453413515043, 1.7460957186617274, -3.0323435497063294, -3.9275495773129907, 1.9664659638969821, -1.617754155467746, -1.772930626396493, -4.65277798533891, 3.079693945942051, -1.6677354265664108, -2.212134344596728, 0.36990632891203956, 1.062359204291823, -5.165546996341199, -6.799658402117887, -2.5620255284559206, 10.670645756944879, -2.2535570554786797, 7.440587202808134, 8.768903771359348, 6.99564975400715, 1.7448574567144584, -2.8128818949688577, -0.9290615305173289, -9.12394127888318, 1.9643220469457312, 2.272353894940997, 2.272968824491474, -8.64103277106695, 2.0305279228765034, 4.86438261497838, -1.3761774135961493, -2.7616514268620302], [-4.439832621405748, -4.4424858752914655, 8.769989486646779, -3.998561789095804, 2.2378322541144264, -3.3670775939733995, -2.4373468632693225, -1.1866217966417145, -6.75731983008257, 1.1412301548133512, 2.6918360381659108, -1.2907648654283712, -2.6645650012224924, 6.676864433664249, 0.9218963116380483, -13.463817123307944, 1.3294692802880783, -1.3845730194343693, -3.05723093178372, 2.5462127240452914, -4.521938775191117, 5.897581534387136, -1.791179707833351, -0.8020880279085356, -6.767053279979488, -4.0269150983586535, -0.30596716393531886, -1.7953820496749648, 1.6820219888461407, -6.3788912262671, 3.4841394043106697, -4.651501798627628, 1.5054226535318198, -1.0296596708892305, 2.04490492431139, -13.541807721258024, -0.2995757316442667, 2.0422059671986643, -3.1402262406212333, -2.552462055685792, -1.650234659140252, 4.355253748352215, 4.731022647960877, -2.7950047859348097, 1.8243585506927738, -2.247752803736156, -0.8082963110857743, -2.3934514923184107, 0.10383046534016249, 3.080622823986116], [-1.9320038906982409, -3.374604534586189, 1.7063047709786812, 10.102230702690132, 1.8644813217915548, 6.459479359917577, -7.263605138035663, 1.2610808985788489, -2.4901896069974114, 9.52281905814075, -1.0203419284450512, 4.5840424043044, -6.773331965252567, -0.020939995161210923, 3.0786346897599906, 6.789622132330528, -2.822876327247852, 6.200608695152772, 1.160637985912345, 3.187973796519073, 1.9665294878332624, -3.3902023516482993, 5.232634615782945, -0.36679744266770964, -5.4714724979970315, 0.48069306138983386, -0.3437701209975189, -2.806789576623104, 1.686627751673507, 3.211632203918491, -2.5030427451778263, -1.4147530871512561, 0.10041370375657821, -0.03875067634991092, -0.3980371838960288, -0.22981919834993558, 6.027834421500206, 5.5564927615700626, -3.71575173753508, -6.823327210166827, -4.731659014318396, 2.634216709068742, -0.9591746085928743, 1.355030998866126, 1.715019169556649, -0.5684506604674003, 3.1859722219284805, -3.1392198382950625, -1.7374115672100243, -4.171502575718992], [1.2135261984927832, -2.365540117069579, 4.697303121898405, 1.537050886758463, 0.8842032506508579, -2.886576175128999, -3.4956274998286605, -2.2023144278863316, -1.7003437015945695, -3.4933512452013282, -1.7913026710784496, -6.227094582189811, -2.075193368960617, -0.10403829328530578, -3.8306738838814702, -2.2517198198259587, 0.7019537167810894, -4.423524373868154, -1.050416016588027, 4.648406714491644, 3.049591014134884, 4.509399865786923, -2.8092384487039728, -0.9208587035242267, 0.5883018882541879, 0.8575313173290193, -6.67513353082999, -0.9560624530954169, 1.0458811165563646, 0.37816706455945964, 6.359556437063485, -0.8763391688875809, 3.6756139281551183, -3.806984956437941, 2.130673005163252, 2.9578198473289743, -2.1262727320715755, 1.8547147034385363, 4.255561006752632, -0.812844348281412, 0.4430256707482485, 0.6173087145591826, 1.6061617333654599, -2.9530030665491758, -8.791995322975328, -2.5201878819089782, -1.234652592843864, 0.18369962565923986, -1.8608505384921856, 3.6471494473595687], [11.24329864399269, 1.4563676084951038, -1.2117777893919062, -1.5663023167141001, -5.433025445784251, -2.2782902221768127, 1.285368842410095, 5.486475414090621, 0.15602053956310757, -0.9222032058201164, -1.561996892498997, 2.32379420664472, -0.5427899796591907, 1.0900931428701512, 5.564290994073281, -0.6921914055891711, 0.06935347682303583, 0.820226919385836, -1.6644191380743398, 3.274924571798149, 7.316835279607523, -9.303630697148085, 0.9646811603342067, -1.2959496707004214, -2.7295677156695426, -1.8114610657618293, 6.246613829645888, -3.926987666527936, -0.654383277636799, 2.2597683504422275, -0.0038284731544850903, -6.523186190695098, -1.7420982199557862, 3.7231693714783534, -4.114914895710925, 0.9491867460548723, -2.971531934642177, 6.773362594667555, -1.7597567750605925, -3.8722077739593987, -1.1360471860135812, 0.27283353378076647, -7.642284083461898, 1.440365116410414, 1.6313262869327694, -2.522598759206351, 1.5149724592235683, -1.334216213775529, -1.0467020632121364, 1.2979217659805196], [-3.3971220866127343, -6.135964118671158, 0.8006335863872209, -2.0361995411270284, 5.3672299361220075, -0.7111916522897072, 2.018932014099333, -2.7778108151063927, -3.0506310804378023, 1.9253035450937475, 3.954101919522585, -0.5555718574375749, -2.3936999143202726, -3.674993639222564, 0.6080211513481164, 0.9173001397659672, -4.8234548306535165, 1.3367500397115122, 4.153540474847068, 0.5764706259088317, -5.498068754232249, 1.4625262708106637, 6.830556781992509, -2.0025807950049272, 4.403662012225744, -2.6597419462473066, 1.9311501492318053, -1.257998996131869, -2.2228986504468473, 3.676812522797815, -4.352430890964097, 0.7857437066411781, 1.9515835671445532, -7.168087166035055, -1.0346792327363104, 1.219713496122201, -7.703133800495369, -1.1403027253419986, -13.7552785779236, 1.4426090573829606, -5.336890739026218, -1.2500855702491758, 2.2017252872656314, 1.5562120401513115, 4.434479931395636, 3.7358513594038785, 5.391471207614292, 0.5648489298942547, -3.8926621971421778, -2.6923167207311964], [-6.808944413317148, 1.548234112739096, 2.212497911802088, -0.7129622267757922, -1.2424043847329396, 0.13648916516478715, 4.700592801725141, -0.16857098278100482, -1.5572098653133455, -0.11759311836473474, -3.8517248799242996, -2.4480748953690914, -3.061662299511758, 2.468972620012656, -1.1103422721304406, 1.592179722629941, 1.9128294351930446, 2.3484524810864493, 5.151191360236998, -2.284903446236147, 4.866054308855373, 3.1244785758985842, -2.4718070104492122, -3.6484947467306807, -8.331802983267215, 0.02623629901410099, -11.26735885440958, -1.2740838132604608, -2.7936561595620537, 1.8918872031989478, -0.6132636077048509, -1.9661997993794444, 7.811179642036282, 0.7346305404576036, 2.4689078681345302, 7.0056724150833425, -6.5871787248453915, -6.1275404185076585, 5.01846324622238, 2.29156180416107, 3.3097798795997404, 0.29257891653596513, -0.899511185222696, -6.395913439445654, -2.3516290373349458, 6.025465599206078, 0.9540517118176056, 0.9254663014640606, -0.22200865705410056, -1.6778773172869406], [7.283665197409502, -1.2366277839399955, -2.8887929434319197, -0.3987703888197287, 1.9499041597133742, -1.1087821843896288, -0.7044459971086843, -0.5602320810396859, 3.826162398833309, 0.7812012580840451, 0.4272627908577948, -9.814029899253313, 2.782095269243008, 0.22513743758648047, 0.4499907247594782, 4.299306429280732, -1.732163099708477, -1.1579914034537262, 2.5490395385151685, -7.798742653794379, -3.021326986575672, -5.6224393271198645, 2.0661908165650362, 1.3677839481539327, 10.02992794996504, -0.5284021856041548, 3.819477663952101, -0.2947938231450774, -1.7558338084444263, 3.317506560932144, 2.193022701136254, -1.3460392373614276, -1.0355748423130335, 5.152420662515672, -2.3840225754119393, -5.70694838320163, -0.7888090424397238, 2.6005247543675614, -1.3091664293040384, 1.570967358896981, 0.3688860138984107, 1.3602423027250268, -2.2419112189735935, 0.8251945061135679, 1.321131998426439, 1.8685393959059629, 0.3364511037231791, 6.308601357105192, 3.597274132047907, 5.484241467591876], [6.508993847006117, -5.106421227563652, -0.9138296873456583, 2.801371439229767, 0.22223243075308707, 1.9085073170639726, 4.44110521027072, 1.137226946104663, 1.176169335458136, -4.686453915349132, 0.7036473117636743, 0.6035538893896878, 3.8353032845864963, -1.0492751747352689, -2.9842923239849486, -6.385934852394358, -3.1392817262463066, -3.4705905213873396, -10.403089092760872, -6.8511165320366665, 4.26055544606663, -0.4993075305081534, 2.1664890560025016, -3.144774855688565, 7.9912546406955585, 0.24329288230968202, 1.2107129961058631, -4.153197899328743, -0.5332868565769469, -4.807579718525935, -2.3660191814949867, 4.038439051315503, 0.4022121901474282, 7.029723572037339, 3.510713230041723, -6.564129085319081, 2.093125922331818, -5.004544294730993, -0.7773434236408019, 2.534250114132848, 7.15719047857411, -5.166389340150872, -2.9104832556631464, 1.7187479353617787, -3.0953632005302123, 5.9985739953729365, 1.6581425188759633, 0.862846167092474, -5.950077270742268, 2.1238319488438098], [0.07876907610474398, 0.03057131249522177, -3.713243217243888, -1.3520459412144823, 3.6555734936834705, -1.8537088160401791, 2.2171099880516922, -1.78633072126824, -0.24598557769822516, 0.19613766717885273, 1.100130286567294, 3.165250019303969, 2.5482146539626176, -2.6368293813216797, -2.97153513653769, -1.894827150834752, 0.7051198895324717, -1.872784187811565, 4.339289283383697, 3.3984737246494943, 4.657643552824792, -1.7184946551662117, 2.2637781793869842, 0.17201139818765876, -0.25454644139041316, -4.372992834344807, -7.361246935882231, -1.7277518517419228, 1.223917385686724, -1.3901810401097152, 0.8359700680658082, -4.756729979240952, -0.48374540268110455, -0.009480946177043759, -2.525587001022363, 2.1283635169307766, -1.6217412484965439, 1.116986519355301, -3.4724987519778305, 3.0409238403430363, -3.1296961135363524, -2.1813414324444307, -2.016393873711423, -10.231055003851166, -3.5029783427864, 3.7006158371814353, 0.7221458245491, 3.3874146324358065, -2.8173527668791056, 2.350357410532971]], "bias": [[5.004380867192642], [1.0232005506691926], [2.3293718915804065], [-8.523781273006675], [-4.755358669979324], [5.456701846000877], [-4.215343466348672], [-10.713897464416993], [4.486119639730736], [2.035710605442158], [0.6160140352556759], [-4.158108582569017], [3.5418220902692905], [1.8342114683267898], [-0.12594459069631309], [3.4709595569166187], [-0.9311907657590902], [-0.6637274740334935], [-0.04315394004462775], [-2.3907671144081655], [0.6786542466293661], [-6.096676036992413], [-6.652774139224326], [5.890554910741139], [0.10893955331701755], [-7.459942069893917], [-0.5773586259058827], [-0.9219877900417062], [-6.479909504379361], [3.522144644757295], [6.709061493986606], [3.6052896050504937], [-3.8990263635539257], [2.370253808660484], [7.5366225971274305], [-6.4449964393388495], [-4.68750653928702], [3.7181709565598084], [4.695673602184334], [-5.090417910625848], [-0.12152490484030132], [-3.7461363479143333], [-4.296942179706047], [-1.5413009053018034], [-3.3913832794088328], [3.4693448736826142], [0.04823128216412398], [-0.7914231187486984], [1.7825612134938094], [-5.940204481318181]]}, {"layer": "activation", "activation": "relu", "activation_prime": "relu"}, {"layer": "dense", "input_size": 50, "output_size": 4, "weights": [[-6.592550704304263, -0.1592170103461218, -0.6569716704665062, 0.9870985647780272, 1.5055023348357917, 4.9314331385220775, 2.28861873453228, 2.40513096547403, -4.132224588674184, 9.928782252343423, 5.641030607814876, -4.640009931193552, -6.391165718104371, -6.526303470663673, -11.326422775923474, 1.4747933586185704, 2.706304826388234, 1.3305810749447258, -1.3473369858263258, 0.773108642895173, 2.3694385480200717, -5.105016584446644, 0.9739470117305364, 5.454313402103242, -2.096909448527787, -5.727013712462443, -1.6037310103378999, 6.306780935111361, -9.161857716254243, -5.385436599934527, -1.20140121226152, 3.357366921191272, -5.994935146697703, -3.403507237345214, -1.0230857472938055, 1.4293690297408885, 0.49017269743088665, -4.193315126502889, -2.039013377967173, 3.0354933706748333, -7.425680097158884, 2.8016054214805695, -0.1984317654176463, -1.3222253689299486, -5.460139047315128, 3.3300989852367646, 1.8032304331276148, -6.385524273439691, -9.18374030295806, 3.779249397088626], [0.22433088901012788, -1.1636282732036012, 3.683546380675825, -9.150872232443131, -2.4831455358823384, 1.526298309629841, -2.9543653045192007, 4.790850334714019, 5.420418055175138, 0.6711136531223119, 7.120521664192173, 0.4033056822935891, -6.865175462987397, 2.0669497467580555, 4.558834049808028, -2.2052809642904636, -0.815738983628556, -2.345072835782655, -3.9149901231881623, -2.664231370792897, -0.2384990004848516, 0.9640599809245329, -2.131890858688622, -1.4687607613422107, 3.151971400804375, 3.3396328708624927, 3.3365623421298, -4.711843654057394, 6.600729107894909, -1.2458561492026554, 0.016012335915564474, -0.7903740717005088, 3.2564884488265076, 12.3002065487442, -1.2932347145298113, 0.7423787837702632, -2.0176237939397463, -5.705842797987154, 4.474782181667022, -0.525618181302411, 3.2193279489411175, 2.0222407591106224, 1.0353466176336776, 2.601140786486518, 1.6556904578328688, 1.1748723025306989, -2.544393456955738, -2.0625414674508082, -5.309536330115073, -3.263668013225895], [-4.983701706951544, -0.5795282935360333, 0.7593788167519451, -5.778733392731068, -4.275348485566133, -2.464656033684721, 2.885603076025196, -5.623296448537465, -0.7411228402277272, -4.420912073239949, 4.685214171835083, 4.970786511381222, 3.2187996995895247, 1.7011056333538639, -0.5754807033150903, -1.02894117887399, -1.7846879259928397, -3.0470840063525984, -2.5480797696228805, 1.6551726385766048, 4.48886162731664, 4.573156707420608, -4.79177508073195, 4.379003935271611, 5.932160738234361, 1.0849927511048483, 2.936841803744244, -6.800367809462637, 2.010113701185258, 2.4162784275268328, 3.423332380837854, -2.998053984143206, -13.533697795780332, -0.895527244801057, 11.37428259773879, -2.7238411518967642, -6.402898750101983, -7.196862764853979, -3.227826039019619, 0.30940344399175757, 8.370977883053591, 5.040284915325186, 4.957350730676093, 0.7422031374400793, 4.190895215627414, -5.184814057078259, -4.673652549906407, -4.999719357204516, -2.931537335322453, -1.8245375986740735], [0.26433716611419966, 4.063082529780061, 3.2422604822342613, -0.15566104463734587, -3.9814108624907885, -10.6780299194073, -0.19873092740607534, -0.8685918179422094, -5.648864164950859, -4.855766876698552, -4.3805165919476, -2.6255928660988115, 0.6021569441281882, -1.4132602449162188, -6.364844735044171, -9.227015916783161, -8.009222040273288, 6.837016434081544, 7.072764055318695, 0.2659271237355568, 3.196972422863923, -2.646775665934154, -1.7343864943613112, 1.0822177007257676, -4.448821063298754, 4.867735529703829, -5.246349644328031, 0.637477510287243, 2.0767888744452616, -1.7509892515331968, -5.468559132532859, -0.9019667425646298, -0.40423081075389733, -2.3353291867305215, -7.691273568299947, -3.5135846734225518, 3.522983368331965, 1.4840686358601203, -10.872739486181802, 5.70565039471111, -4.390539748778641, -5.81328048325012, -0.17637135829467715, 0.01332210874103179, -2.936313930608234, -1.8709447477495775, -4.759775008354998, 6.369098644062574, 4.44198345253877, -5.521502566470354]], "bias": [[2.335925066336767], [-2.4082454284553356], [4.089145533697378], [-1.3250353868922162]]}, {"layer": "activation", "activation": "sigmoid", "activation_prime": "sigmoid"}]}