{"generation": 40, "board_size": 10, "snake_size": 3, "input_direction_count": 4, "apple_return_type": "boolean", "segment_return_type": "boolean", "distance_function": "chebyshev_distance", "network": [{"layer": "dense", "input_size": 14, "output_size": 18, "weights": [[-1.1829722200048303, -0.001086837727306611, -0.6508091109667206, 0.7447568698295612, -0.6325389172860456, -1.4440976014449753, 2.5941218045682306, -4.022603449891603, -0.27008193431322025, -0.3133759542266128, 1.01077803171734, -0.2655188809305242, 0.6167747078113652, 0.07872412289563732], [0.015339431524538288, -2.783128010781681, 0.1543471622795249, 1.8455493601540351, 1.2862969601776801, 2.139212129953423, -0.6864175209524845, 0.9531524406343503, -0.18362929463194844, -2.967849009568645, 3.1064660425300206, -3.615533331422487, -1.161327448458819, -0.3921956024985199], [0.2868467922898868, -1.4707126825933816, 1.435945576575837, -0.10737566874486426, 0.7297454592807499, -0.5022801511064521, 1.3829244750064484, 0.1651649684045992, -2.92494530698189, 2.4582127768405435, 0.6257170827570528, 2.787839886731116, -1.289121463684189, -1.6735664040213254], [-2.1793643040911976, -0.5209799390684717, -2.3869273973234653, 0.7726566579061742, 1.151006469492825, 0.6022160149515051, 1.9393729165606088, -0.06131336775858415, -2.655893124606418, 1.0215568254765808, 0.2666318162751926, 1.0055386892694251, -0.876718559615609, 2.064667512124561], [0.1624604864722048, 1.1897767118297946, -0.9855679182416182, 0.2221790751699857, 0.12443572635808131, -0.41061359861307223, -1.1205967688422154, 0.4262224159147726, -0.8005297437720396, 0.7405485705561821, -1.633097348306373, 0.9343700497351359, -0.8245277509409239, -1.7069820929104782], [1.634674128699546, 1.1896638335887344, -0.8789033820223447, 0.12809789659040227, -5.851527691382169, 1.285064748381724, -0.5973726794860336, 1.1021994375465918, -1.9726064898663977, 0.11336608503745271, -0.08968889982105677, 2.7703459964592017, 0.3811923362532933, -1.0765049199063272], [-0.24522793439254617, 1.9279260139656014, 0.03507618363972148, -1.685727744194633, -1.158626816257704, -0.10507565288377707, -0.3505208877382183, -0.9630996299396749, 0.2101450337210622, -0.1391003526150818, 0.2468705215823907, -0.3725753553027624, 0.4565922384181236, -0.5973472840739565], [0.023009935872070564, 0.777594416420772, -0.25377950349276734, -1.9985692161799125, -0.6677455087594957, 0.7857657512159568, 1.1094200197385136, -0.43095085973463654, -0.3789911510517818, 0.04978457774633149, -0.9690406911532428, 0.746409124652379, -0.6356549960903092, -0.005882164259059575], [2.502751236983885, 1.599236112435124, -1.3329731668914768, -0.751808834799355, -2.1163766200233134, -0.7232436389130327, -0.2664291912645247, -0.2905545787204817, 0.12892946571831243, 0.41899185220085244, 0.5581037857433908, -0.8095469207783762, -0.6451467883735593, 1.3366056577337382], [-1.9588858782767287, 0.5230592013065966, 1.5707688672307651, 0.6999372692915661, -1.5168332034903562, -0.33292904243824334, 1.4859594764654183, 2.33871340667283, 0.9753864702105813, 0.9773064995705425, 0.46433346543862986, -1.1775088139947076, -1.8940381608066537, -1.606637554467711], [-1.0128172329178167, -0.7857367001301965, 1.2818101890806817, -1.18535743532273, 0.16718106341610384, -0.2866545462314922, 1.0200817745391249, 2.2850496574962484, 0.18195743976814727, 2.528738496832241, -0.842758773569328, -0.22558307147182333, -0.6037638576666629, -0.3048436661428391], [-0.9672629075107912, -3.0810293550246195, 0.7213329825549079, -2.1199145986131076, 0.12392084509599871, -5.220294167769048, 0.04421677834518256, 1.3885025514036726, -0.3681027916283128, -1.0705325789394853, 1.1023577611960462, 0.4797624986069666, -0.8818676632339719, -0.7761674345972356], [1.9437726956706443, 0.4531849569478268, -0.1427008385769717, -4.784510325785121, -0.27687794581112846, 0.2828219270359993, -0.9213812097746229, 4.123475226916753, 0.9010086359421827, 1.9594930533823445, -0.056328449774055045, 0.5698218658971392, 0.17827261598729205, 0.2920973038408118], [-0.5796363718684214, 2.2562292853418247, -0.22237023221062543, -0.38639703323237784, -0.07120535618733448, 2.364170625109119, 0.47985231589346133, -1.5296682514258748, 2.7121126538389517, 2.243942677025508, 0.15426101950027754, 1.9873883305783904, 1.1774600304988425, -0.3542671858140377], [-0.6985437485841048, -0.09566886723225221, 1.419615518655506, -0.47352280639113886, -0.6470562208554616, 0.1388381880087799, -0.6601958274506105, 2.8543134089912847, 3.230806538124925, -0.15696350708445528, -0.4262394025407594, 0.3819050288253719, 2.492906764078273, 3.859538204037438], [-3.084190993339509, -2.5247243467650238, 0.9898215157271166, -1.399843912548994, 0.6794287136119299, 1.0409145344640678, -0.9608963478787466, -0.07749434498548374, 0.7326406186019572, 1.39759219576463, -2.439233276381351, 4.909957312598402, -0.637506326328134, -0.024471571827740513], [-0.05663608306754553, 1.382095581641643, 3.006139206823369, 4.953700258167455, -0.7922885673827786, -0.7753573275039265, -0.44528041525998696, -3.971399844329694, 0.4360452827827656, 0.9442283181402804, -0.8165022292934233, -0.11300703132554524, 0.8851091570644872, 0.9318022936494864], [-1.4581613042696795, -0.2339777714771893, 0.3431206963289749, 1.4649625802077444, 0.1365198885833535, 1.3820472342815742, 2.3606410366996267, -0.1895064969849914, 0.5540364543546303, -0.49700902359797616, -2.245684922802844, 1.1541625876797363, 0.9666817420282663, -0.7398803071271265]], "bias": [[-0.55986789906183], [-1.8537163391100377], [-0.5415413864180088], [0.8466031581599198], [0.8423591051973902], [1.699173144057061], [-0.15368321804555451], [-0.5093134124548961], [-1.1576914805310683], [0.24934074661827466], [0.26158133545122675], [2.608124527515542], [0.9737596921280935], [0.15629691251364886], [-0.7762416056310824], [0.4070826271265192], [0.03639835818557002], [2.3200546497251557]]}, {"layer": "activation", "activation": "relu", "activation_prime": "relu"}, {"layer": "dense", "input_size": 18, "output_size": 4, "weights": [[-1.9757663026550887, 0.5393368031857664, -0.4856655435782091, 0.5389749582816736, 0.6033454856675049, -0.21696125286647905, -0.3836118406421971, -0.9712011615806855, -2.12079132241409, 0.04216041614067112, 0.5950753685461585, 0.6277283274043179, -0.47019221950993706, 2.986072465293662, -0.9147473883500634, 0.7216824306554801, 0.22360036237625136, -0.5825776408887414], [-1.0699332498347913, 0.5403235766619392, 2.919028918423444, -0.1842885535635852, -3.3240272716581964, 1.7859926572013183, 1.9043203529786599, 1.4259964614645355, 0.4599830902726423, -0.748074685263054, 0.9921328605138586, 1.0753266282223186, -0.43563772822258673, -0.1621422821583709, 1.5810339372500848, -2.435423797918405, -1.2821838713737528, 1.7631557673101164], [0.17977626447057493, 0.062068464869117546, 0.7439922570122851, 1.7889144229576575, 1.324303324810053, 0.6483129603105676, -1.852875931052745, 0.1798852618914235, 0.15135779576860675, -1.9005571914026262, -0.23807524896306148, 0.5907564782357471, 3.006255580784672, -0.27626683418493314, 1.9838501018507273, -0.44313542069582756, -1.0922660776208115, -0.5234767285274979], [-1.9317495906793705, 1.2633847981867585, 0.7899331140006469, -1.2621928885258134, 0.8753489807720709, 0.21439003614818075, -2.624154414307873, -1.2964219716818355, -1.003872979645196, -0.10518244298480206, -2.869453024058835, -1.103054632640817, -0.22554158211464714, -0.4100264594164498, 0.3132790025979926, 0.911459100943284, 1.437840854253006, 0.435602094303823]], "bias": [[1.0847408102442917], [-3.2790553634258517], [0.012591246668211875], [1.345034799975097]]}, {"layer": "activation", "activation": "sigmoid", "activation_prime": "sigmoid"}]}