{"generation": 490, "board_size": 10, "snake_size": 3, "input_direction_count": 4, "apple_return_type": "boolean", "segment_return_type": "boolean", "network": [{"layer": "dense", "input_size": 14, "output_size": 18, "weights": [[-14.540416913675893, 5.81864344090851, -2.041995376888364, 9.287655227071012, -0.30322070798285783, 5.636016331723533, 0.5911352690903637, 1.2646763275735429, 0.9893056189017677, 4.035543959757083, 3.621296570097445, 3.735280860302735, -5.135085077087708, 1.8314966011673068], [-7.327016916817672, -4.161054077161122, -4.649915788903625, 8.71176175146623, -3.1561020812321354, 4.668511831657689, 5.027907814111574, 0.17819377660423197, 0.641896140427225, -2.085158953221181, 3.541496897743211, -10.683315643984383, 1.2734709992478574, 0.8089518442087473], [-1.6330918439761262, -0.3154341340880596, 2.2145816257750544, -6.921519534919579, 3.142518550552118, -1.4762004870162333, 4.6078612594659125, -1.040246633464407, 4.7481233524748765, -1.2036551811267409, 2.030485365008901, 1.3641975687899806, 4.4225202973952555, 1.9142052141716641], [-0.949537995996449, 1.7325272564741725, 2.7926590072737048, -0.03508838342425369, -2.0631395085736104, -1.510701369338884, -1.6103330629419488, -0.2601227421714767, 1.6265459303797576, -0.35812537559145874, 2.4441796313495647, 0.5156321985684306, 1.1900054984344965, -1.4950792885160216], [-1.8659987322418068, 6.054798918449472, 0.7591963213196805, 3.370805977304342, 6.401827616901116, -1.6669005266210835, -6.895283032233883, 0.7041407358940621, -1.702391485030575, -1.7970432419457092, 0.9852560688661559, -0.36915999544376754, 2.776438928264, -0.28930892295089683], [-1.882400351544082, -2.5184602069916107, -0.8583220254638608, -1.4896560554012521, -5.952640149714377, 5.102864074326071, -4.170960223985122, 4.898202601452495, -0.7408892890145794, -0.20017182005375167, 8.421498000224489, 0.1583566123522937, 4.279720511149034, 1.983863650190209], [-2.3135414818249185, 0.43008201236075894, -3.709436150605863, -4.0981226688338745, -1.520435706923396, 0.6245395817248065, -12.304837938558663, -0.7127972257416044, -3.72995289032462, 0.2526166044479706, -0.7056065308331617, 7.29333299917564, 3.010822745075332, 0.7708996062366329], [-4.240329681336522, 8.405598679639818, -6.965695385723143, -0.810956018238642, -3.9724544462541083, -5.895745669486968, -4.202664028390874, -2.3467449819653208, 4.747075830592644, 9.416803742567776, -10.53744602163328, 2.5316019606178193, -4.414119448460278, 1.2113245779972903], [6.20763332535661, 0.9553251872864506, -0.9721454967343081, -1.2403495841927825, -5.623936644195392, 2.903572563742122, -4.800418654163019, 2.1675067183577794, 1.7904606372563734, -2.5021156546103986, 0.3613050524512678, 3.9351158306073324, -0.1754367271623325, 2.88910638499012], [1.989944481958303, 1.1468737636504582, 2.4974369315696743, -14.21825654942712, 0.09383285666519414, -1.653909903486143, 7.2004390903311455, -1.6496867042454777, 3.959867076381194, -5.575765156744046, 2.2964706139338817, -1.5316172802957935, 7.195755859600665, 3.445007669364909], [1.5493112697115499, 0.2593066527486101, 0.17812800941369156, -3.3795577316092844, 1.861221757419742, -1.495639153091557, 0.9266689631897873, -2.8541754924341793, 0.1718696710368549, -1.7937529584064618, -0.788952425023413, 1.3836923755578536, 3.3528219718000156, -2.6667981832493006], [0.36615692259400856, -3.5063410748071244, -6.2768543481858465, -8.469729999619332, 1.9674729677405673, 0.17407859541824, 2.1256098252279974, -1.470770364901382, 2.58506808172303, 0.3572530086475721, 8.766830698196067, 7.881051973119821, 5.374737523075098, -0.10554392571860427], [2.577828349601415, 0.9173554986101062, -3.1156559208423538, 0.23797280932010223, 3.6124028575608707, 1.6923284679428872, -3.942561347497055, -5.624075543562644, -1.1530022896105205, -2.508135206949031, -4.479195124341469, 0.666550226372766, -0.013869805465385299, -0.05561076625638969], [11.293695794079795, 0.0372517784366711, 5.59981922031316, -7.435260904964527, -5.682649777541694, -0.47635564582330325, 6.544019095027259, 2.483184994408639, -4.215361264974378, -2.9465658918360256, -5.448633070836367, 1.8002447530511605, 3.4693786472657204, 6.9172391820081245], [4.302933885912804, -6.4592614526848156, 1.4877282561319778, 4.529858850115226, -1.79768129227771, 9.175005325153634, -0.7516845586448884, -5.428722689724912, 0.42494379587326236, -8.294309525270588, 8.844176774867512, -6.616095558091166, 5.2481194630082415, 2.726379589447088], [0.5604288152889549, 0.5061014383003515, -11.146001822610025, -0.5091514736661005, -1.4279550950515163, 8.359995600851544, 5.035628614891564, -5.755211773545767, -2.6347244801822116, -1.4188727876279559, 5.888483139706215, 0.567595448111417, 0.6159611450770961, -0.3905587560138116], [-2.9493488825575698, 11.56431563820845, -0.8040856605997175, -1.3675058834648182, -1.429599208066528, -2.4075980173758538, -3.193784421072472, 1.0473444465991304, 2.617673373682347, 5.975911777639906, 2.7422750791118458, -0.92016837520788, -1.5647509982097187, -0.799258464537342], [12.821491003420983, -3.943201263551413, 1.7118235152262438, -0.5933538953859745, -0.7187208967213286, 0.7276659379882328, -12.105935081178194, 1.9616651001901944, 2.1338952177132047, 7.356495532996109, -0.5975780078344519, 1.671946701759306, 1.6090086046415117, -4.250039062948966]], "bias": [[-0.33427611182177], [-2.147038660719492], [-1.1850761730115547], [-4.810323903254642], [-7.420108729510933], [-9.334871302927297], [-2.628918163488443], [-1.2454029831977345], [-2.287876978304878], [0.2867446996693996], [-1.3472515190845602], [-3.977515258143114], [-1.5492013741291923], [-4.238153195224407], [2.460293799016125], [-9.25229604308696], [-3.1717972658555267], [-5.543314429347337]]}, {"layer": "activation", "activation": "relu", "activation_prime": "relu"}, {"layer": "dense", "input_size": 18, "output_size": 4, "weights": [[6.778744536656178, -5.057063407284146, 2.68193200353013, -1.4246740272397633, 3.5841670799874725, -2.8167367168175517, 1.383745636000723, 4.837321431144375, -0.1503615601737912, -0.042267868290979616, -2.8682058413758353, -1.2295272577692713, -0.8946616351924581, -1.1414864179416253, -5.195889180384673, 0.3720533439416839, 0.9015597874947311, -2.111402716659608], [-6.88887096878249, -7.326823165320514, 3.364142131447104, 2.668094796253621, -3.863844005811443, 1.4780840821487573, -0.3595040763128998, -4.5434204712731745, -0.8863748824582061, 9.824168570064483, 2.471318725464836, 3.418604326758597, -2.0460464982048214, 3.9667632873129026, -1.3149784509442175, 4.701464187013913, -3.397923301495551, -3.3480578065803606], [-9.227399882673687, -4.287951956404397, 1.656828915392025, 0.5808411519441986, 1.2776776066803635, 2.726853607402038, 4.324706769624488, -0.5645502384508317, -0.2506038179280382, -11.562584052648585, -4.758253429552564, -2.8870977869904086, 1.9794614976889482, -0.048866531771281085, 1.2020012840867615, -3.5411957044538798, -7.6128793341889756, 8.677117542100905], [4.222622856483662, -1.8911497918271993, -0.14962009731582182, 7.219866394626216, -0.7001857434282135, -9.114037043235998, 5.073222847174668, -4.127002233404942, 8.12494121358387, -0.02921699557033519, -5.403321572952335, -6.737900292677511, -0.33644003917899123, 3.691102944012712, 8.439277560866927, -0.6201925680798686, -6.574774478260538, -9.624046580134017]], "bias": [[-1.3222681575734216], [-2.255059334241805], [-4.988137431154394], [1.8158115162866342]]}, {"layer": "activation", "activation": "sigmoid", "activation_prime": "sigmoid"}]}