{"generation": 46, "board_size": 10, "snake_size": 3, "input_direction_count": 4, "apple_return_type": "boolean", "segment_return_type": "boolean", "distance_function": "chebyshev_distance", "network": [{"layer": "dense", "input_size": 14, "output_size": 18, "weights": [[-1.1829722200048303, -0.8794920379387476, -0.6508091109667206, 0.4986083113395629, -0.6325389172860456, -1.4440976014449753, 2.118885616895268, -3.540823431792333, -0.27008193431322025, -0.43213606017178874, 1.01077803171734, -0.2655188809305242, 0.6167747078113652, 0.07872412289563732], [0.015339431524538288, -2.783128010781681, 0.1543471622795249, 1.8455493601540351, 1.2862969601776801, 2.221792986937254, -0.6864175209524845, 0.9531524406343503, 0.4800464589902578, -2.967849009568645, 2.254385303381648, -3.615533331422487, -1.161327448458819, -0.3921956024985199], [0.2868467922898868, -1.4707126825933816, 1.435945576575837, 0.06142493063949209, 1.2425467420841696, -1.9884648027461567, 2.3512614808222185, 0.1651649684045992, -2.92494530698189, 2.4582127768405435, -0.09001560806445552, 2.787839886731116, -1.289121463684189, -1.6735664040213254], [-1.606608045997418, -0.5209799390684717, -1.380867453279853, -0.5169264146371442, 1.151006469492825, 0.5772177233266079, 1.9393729165606088, -0.06131336775858415, -0.5820259547334543, 1.0215568254765808, 0.2666318162751926, 0.41006164354383196, -0.443647245246101, 2.064667512124561], [1.5806630787231248, 1.1897767118297946, -0.9253971585882752, 0.2221790751699857, 0.12443572635808131, -0.41061359861307223, -1.1205967688422154, 0.7482776904165881, -1.393191358933691, 0.08063988538326711, -1.633097348306373, -0.06920194124391982, -1.521457936925457, -2.285824274200663], [1.634674128699546, 3.640617465439578, -0.08139150365742162, 2.0834183436099503, -5.851527691382169, 1.285064748381724, -0.5973726794860336, 2.408429722018935, -1.9726064898663977, 0.11336608503745271, -0.08968889982105677, 2.7703459964592017, 0.3811923362532933, -1.0765049199063272], [0.1817598836338299, 0.43388860888347114, 0.03507618363972148, -2.4157950052752826, -2.8755698474805174, -0.10507565288377707, 0.8387301540418889, -0.9630996299396749, 0.2101450337210622, -0.5830115238885234, 0.5333720589617232, -0.5648479207478575, -0.016010578439889622, -0.5973472840739565], [0.023009935872070564, -0.31284813487504404, 0.45162223222527687, -1.0856599472850679, 0.2523999174091416, -1.285444903096394, 1.1094200197385136, -0.19412315979174666, -0.3789911510517818, 0.04978457774633149, -0.3971028551497351, 0.746409124652379, -0.6356549960903092, -0.005882164259059575], [2.502751236983885, 1.599236112435124, -1.3329731668914768, -0.9437402584950597, -1.922721904225487, -1.1243688128920908, -0.2664291912645247, -1.903425967245083, 0.12892946571831243, 0.41899185220085244, 0.5581037857433908, -0.9831843382415999, 0.45375122495969644, 1.597557579782831], [-1.9588858782767287, -0.32633841614453096, 1.5707688672307651, 0.6999372692915661, -1.5168332034903562, -1.2176070336717117, 1.9973946365822908, 3.251451496923571, 0.8348518894512187, -0.5838918477489163, 0.46433346543862986, -1.1775088139947076, -1.8940381608066537, -1.9225629530857944], [-1.0128172329178167, -0.7857367001301965, 1.2818101890806817, -1.18535743532273, 0.14304020268576192, -1.3493384895257434, 1.0200817745391249, -0.05378463037083214, 0.18195743976814727, 2.528738496832241, -0.842758773569328, 0.973678825702334, 0.2624120365134994, -0.3048436661428391], [-0.9672629075107912, -3.263926533937087, -0.4263369081899028, -2.1199145986131076, 0.12392084509599871, -5.149231178932136, 0.9219158881308104, 1.3885025514036726, -2.343790801256695, -1.0705325789394853, 1.4062672069875657, 0.2863680533435008, -0.8818676632339719, -0.7761674345972356], [1.4841174613156876, 0.4531849569478268, -0.1427008385769717, -4.065235557691605, -0.27687794581112846, 0.2828219270359993, -1.7863787315720818, 4.123475226916753, 0.9010086359421827, 1.9594930533823445, -0.056328449774055045, 0.5698218658971392, 0.17827261598729205, 0.2920973038408118], [-0.7834329407899356, 2.72228600043988, -2.218521311282715, 1.402697768290515, -0.07120535618733448, 2.364170625109119, 0.46927468102403075, -1.5296682514258748, 1.457560021662058, 2.243942677025508, -0.8117969080920879, 1.8248091297853195, 0.5369651872719767, 0.6317181922441528], [-0.6985437485841048, -0.09566886723225221, 1.419615518655506, -0.47352280639113886, -0.6470562208554616, 1.1709546409519884, -0.8452423867354815, 2.321138518559734, 3.1548155398637694, -0.5767383787960487, -0.4262394025407594, 0.3819050288253719, 2.492906764078273, 3.859538204037438], [-3.084190993339509, -1.7426793347351421, 1.9512034489612506, -1.1664117961572273, 0.6794287136119299, 1.816641102135958, -0.5327977982562606, -1.1400124986838374, 5.094419561979372, 2.34080665055554, -2.439233276381351, 4.909957312598402, -0.637506326328134, -0.0609301886428028], [0.8035189613657482, 0.11187174626358609, 3.006139206823369, 4.844477186905651, -0.7922885673827786, 0.9361169966169638, 0.9748863917009724, -2.3484260101102783, 0.4360452827827656, 0.9442283181402804, -0.8165022292934233, -0.11300703132554524, 0.8851091570644872, 1.7822125597578742], [-1.4581613042696795, -0.2339777714771893, 0.7051012991450036, 1.0504627430336986, 0.1365198885833535, 0.46598327107219606, 2.3606410366996267, -0.1895064969849914, 0.19582145819031416, 0.5019272330751574, -2.245684922802844, 0.46686286273375277, -0.08614889345579524, -1.3946265999701581]], "bias": [[-0.55986789906183], [-1.8537163391100377], [-0.5415413864180088], [-0.2043334310292486], [0.8423591051973902], [1.5904969374189695], [-0.15368321804555451], [-0.5093134124548961], [-1.1576914805310683], [1.0083023303611358], [0.5340122806021357], [2.546056957789527], [0.9737596921280935], [0.15629691251364886], [-0.7762416056310824], [0.4070826271265192], [0.03639835818557002], [3.8317309209918005]]}, {"layer": "activation", "activation": "relu", "activation_prime": "relu"}, {"layer": "dense", "input_size": 18, "output_size": 4, "weights": [[-1.9757663026550887, 0.9522410159621875, -0.4856655435782091, 2.772960229856169, 0.6033454856675049, -0.21696125286647905, -0.3836118406421971, -2.834929853211609, -0.953673121508481, 0.04216041614067112, 0.5950753685461585, 0.6277283274043179, -0.25149190101307484, 2.986072465293662, -0.9147473883500634, 0.7216824306554801, -0.6139616391898197, -0.5825776408887414], [-1.8558801486100918, 0.5403235766619392, 3.0654306759656693, -0.1842885535635852, -3.3240272716581964, 1.7859926572013183, 1.7509068018176626, 1.4259964614645355, 0.4599830902726423, -0.748074685263054, 0.155847619361772, 1.0677842573881464, -0.787894984406592, -0.1621422821583709, 1.166127461478564, -2.435423797918405, -1.2821838713737528, 1.7631557673101164], [0.020394370782772425, -0.3084272298866489, -1.702671299608979, 1.2493601930460612, 1.324303324810053, 0.6483129603105676, -1.852875931052745, 0.1798852618914235, 0.15135779576860675, -2.429211758134289, -0.23807524896306148, 0.5907564782357471, 3.006255580784672, -0.27626683418493314, 1.9838501018507273, 0.512976041624928, -1.0922660776208115, -0.5234767285274979], [-0.33096154128783195, 1.2633847981867585, 0.7899331140006469, -0.561093818990106, -0.5513066615041028, 0.21439003614818075, -1.7163429521783122, -1.2964219716818355, -1.3071645071498643, -0.10518244298480206, -2.925360870213272, -1.103054632640817, 0.03586940443450359, -0.4100264594164498, 0.3536611282338681, 0.911459100943284, 1.437840854253006, -0.3967261088915076]], "bias": [[1.0847408102442917], [-3.4896970589503007], [1.4270646789780286], [1.345034799975097]]}, {"layer": "activation", "activation": "sigmoid", "activation_prime": "sigmoid"}]}