{"generation": 460, "board_size": 10, "snake_size": 3, "input_direction_count": 4, "apple_return_type": "boolean", "segment_return_type": "boolean", "network": [{"layer": "dense", "input_size": 14, "output_size": 18, "weights": [[-13.58937143897762, 4.262323773260091, -0.8947976435793015, 9.484178632672466, -1.165892480709641, 5.636016331723533, 2.0654803461435556, 0.5818522850164976, -1.0308415470803776, 4.798582340262351, 4.8977441882747765, 6.983603629678278, -3.551458997163933, 2.8945660056829685], [-4.899315705471132, -3.4725384727208395, -3.5533799790989438, 8.311437815649308, -2.228504111348971, 5.830617838334466, 4.09704532184111, -0.41272847846008176, 0.7903029565089644, -0.997922920785044, 2.9510899048669623, -9.261254285590434, -0.027297192073475918, 0.8134356241234943], [-1.6837146247027301, 0.843079621230295, 2.678068407830563, -4.652116303259571, 3.307171778265568, -1.8603316782457586, 0.6392109592167867, -7.2944165152472, 4.248056818361437, -1.2036551811267409, -0.16492649922911767, -2.494220567314761, 0.5395948295179718, 2.295108617723812], [-8.586890448763823, -1.1524462773674689, -0.8745186684912986, 2.462434850507377, -0.4067373677663113, -3.6291363312512606, -1.7572931489154564, -2.627564891339347, -5.505850896908989, -4.710986668314544, -3.2593374867354434, -4.5211370128688735, 3.379551546444169, -1.7478374116283901], [2.3913032990802012, -1.989849495506574, 2.268134493910457, -2.36566682543522, 4.757889090643883, -5.905772162780646, -5.758968349590964, 2.02934934429375, -2.248455372507004, 5.535598885809951, -6.952434973250671, -5.3799190328919035, 1.9787120447849949, -0.9046923747570512], [-1.2784723296613183, -0.2279617455169618, 1.3105212713772159, 0.7034467656758034, -1.6936603294611285, 3.668885147219987, -2.5972198209124153, 2.7385774723861225, -0.6849692351849364, -2.7305131370088245, 6.526452442961849, -4.728288649798294, 3.9452498130523, 2.2011556949374533], [-4.894598248465348, -1.2601709014854272, 0.19137775803700863, -4.442016433919489, -1.611239542980964, -0.4063553352787844, -6.487834383189675, -0.5806212967328435, -1.465237328859672, 4.257411797158668, 1.5179067119015381, 7.406460433281983, 1.5564057242558502, 0.8849759667374755], [-5.093674142619583, 9.25824066456428, -6.115615204821479, -0.7613310185943594, -3.875555156078204, -6.14975015694214, -4.607194521981347, 0.10872531478394912, 4.7037098630693235, 11.177386565412963, -9.116267490139135, 4.264573417117924, -2.78792940287436, -0.669655822812663], [6.607166388318333, 3.69850270548882, -0.4677913881815511, -0.8258490088694347, -6.969212319888176, -1.2923205908560633, -3.905348496270988, 2.240141505470051, 1.6698672966218882, -3.0456487814101707, 0.3613050524512678, 3.5948216991491684, -0.9202071947022041, 2.705282539334172], [1.989944481958303, 0.26735963976519095, 3.738203518879864, -15.115158469325575, -1.0112209071619558, -1.9342638384489197, 7.838514582422227, -0.1183712945157942, 3.232533168688569, -6.234045249552961, 2.1157537345442874, 1.2927738593477809, 6.563651353977671, 3.6234687846316316], [-4.893424956291257, 1.6253554611157237, -5.919112542254268, -3.5712110712793645, 2.751815456517, 1.3835397899215978, -0.6433351860584563, -5.1939839756737225, -2.05033872764175, -3.423216856703413, 0.0919207255720576, 0.8824736145714978, 1.8682241931670032, 1.1757296922018665], [-3.2905937658834272, -5.0363899318731145, 0.3915251162847784, -11.855059042655698, 7.36625511136512, 0.15903408641367717, 0.8852950686147458, -1.4817166633426087, 1.1073749911860495, 2.578057564284645, 6.912126784464369, 9.059512313425698, 5.883081422464632, -0.493258107187184], [-2.206891995080144, 0.8842142407700421, -4.353561882993546, -2.0521216746899538, -1.298391444942082, 0.2842070469567888, -4.326796320748847, -4.4340246675900445, 0.5637144530503571, -2.619421717201944, -8.100642114302644, 2.70890339433761, -1.0191174715488078, 0.5427875242935405], [8.11971392967187, -2.1082076424892815, 6.368024154405522, -8.889828337958921, -7.245472550092298, -0.1214710248532061, 0.5832990161415996, -3.036836068327025, -2.861470194344749, -0.6182181438717357, -4.558635027892422, 0.6564643127888771, 2.7758731379303283, 4.717009530485433], [3.5469922363479123, -5.456301871766449, 2.0116475718701317, 8.509095955008348, -1.4039398018127422, 7.743129868596201, 1.6639722107709387, -3.860228400738962, 1.0202530480583936, -8.26296207568326, 5.782700662041849, -4.864933736979391, 3.113792617854897, -0.6251790433907012], [-0.27619842715717136, -1.6825233669262911, -9.367064444911628, -3.215567521568003, -3.660103956930838, 7.27773944984839, 7.235610322433982, -6.067205723517073, -4.71047597145135, 0.28431706946420654, 7.860884316665162, -1.908552967608601, 0.9802848572412055, -1.3798602178842336], [-2.0749682610650084, 15.225847956977866, 0.15243844147296132, -2.484458159152001, -1.4886720219437255, -4.207890773420968, -0.3677649396925037, 2.2830901803188515, 2.6442262519823783, 5.568955286416075, 2.7422750791118458, 2.9276860252291965, -3.3141882488441357, 1.0971388541257352], [12.871505961828358, -4.685624981380315, 1.2265102685974956, 0.4444722924585373, -1.8617370470965338, 2.710008472191345, -9.179001526844214, 2.9050005325495185, -0.3215831246634673, 7.488985622059469, -1.7538906316938323, 1.671946701759306, 2.9062888282743096, -3.4180000205467245]], "bias": [[-0.7039193824041952], [-3.21382335354359], [-0.3494042049427336], [-3.34117717312294], [-9.738979131797967], [-8.307633508026452], [-0.8925234704505318], [-1.840689577081772], [-0.9842685713407429], [0.8818705444110743], [-3.856656956819954], [-4.7496832169006815], [-4.801730376455151], [-5.0514710078261], [3.2410601919936046], [-1.8856512808996186], [-2.371031800158979], [-4.396763538297415]]}, {"layer": "activation", "activation": "relu", "activation_prime": "relu"}, {"layer": "dense", "input_size": 18, "output_size": 4, "weights": [[7.546366156095005, -4.665297139469475, 0.8244860742493946, 1.9008201980290669, 1.8877740968355665, -5.381931634178374, 4.305365304465248, 2.2253426672688685, -0.7258042030092482, -1.0603987583606331, -1.638602876913581, -0.4060563849656126, 0.23083905206166544, 0.9569189368662223, -5.491371467327066, -1.069413011479453, 1.6830164466960107, -2.0832348226591977], [-6.4675838072979905, -5.524118066756184, -0.3492068939746109, 2.5084457248087437, -4.364199554101697, 2.6566429742305235, -3.026795631137025, -4.862535863599158, -0.3657173818264777, 8.640945134251378, -1.6669998995946633, 3.3026153368433713, -2.1062965087745193, 3.604154819510949, 0.4459339634192403, 1.4515536769052542, -2.08413392354966, -2.971477196350472], [-8.39838415332332, -6.630121725475984, -3.0054560601790765, -1.9163323007720472, -1.481315777499867, -3.2149873051173397, 6.287695288005755, -2.750939720880376, 1.5857703616248426, -8.815542390835853, -1.0032372556253004, -2.2702399726335565, 2.4295794771262935, -0.048866531771281085, 1.2020012840867615, -5.858014159728267, -7.6128793341889756, 8.677117542100905], [4.222622856483662, -1.8911497918271993, -1.172064063511495, 4.967011404294828, -0.7001857434282135, -8.211990892837457, 4.219365404326805, -1.4143496986568571, 7.11775313724814, -2.1596400640393467, -5.90103439384138, -9.112694528299622, 1.0004681545513925, 0.1467721174821779, 5.576898548287347, -1.8414498098683394, -0.2787858993132557, -8.35106704737764]], "bias": [[-4.428557683687791], [1.4859495379325662], [1.9690456725013274], [1.2269722065356612]]}, {"layer": "activation", "activation": "sigmoid", "activation_prime": "sigmoid"}]}