{"generation": 457, "board_size": 10, "snake_size": 3, "input_direction_count": 4, "apple_return_type": "boolean", "segment_return_type": "boolean", "network": [{"layer": "dense", "input_size": 14, "output_size": 18, "weights": [[-14.419807193168568, 5.388682399438769, -1.1087459872075884, 9.484178632672466, -0.30322070798285783, 5.35564824750979, 3.2840180031899404, 1.0451198510016178, 0.053094071290117145, 5.532561767707363, 4.1917780546849395, 5.497061573679994, -4.322940383431966, 2.6371987998584165], [-6.432276196522369, -4.861886662052901, -3.0462283226136613, 10.311433399011314, -3.7514491870924243, 5.830617838334466, 2.9484234822294244, 2.2456016071618543, 0.4607215600685639, -3.474577270480472, 4.052588473723107, -7.679840756501165, -1.3907582309400912, -0.7279987530012828], [0.9453934520559011, -0.852898531221747, 3.077105875205654, -3.730168731663341, -2.05828337100065, -0.42171236806857726, 0.1375270569482947, -0.8843134517347929, 1.7910524935847734, -1.2832986357659353, -0.5429950605361371, 0.33688747779910905, 1.9209921252911086, 1.4184210772983201], [-3.719832416050946, 0.04341572216498024, 3.068673340674544, -2.1761905275735547, 1.3806461732222814, 0.8224301266833538, -3.935837899609326, 2.9242474155916005, -0.013360662371709076, -4.865283758566635, 2.050052641142483, 1.5590277106708492, 1.544087161061672, -0.8210027583960604], [-1.2272759067969272, 4.169443615506251, -0.45494713753801863, 3.131982316384698, 1.2795652212245248, 0.20980581762786998, -7.8112860372278385, -1.5477527239519255, -1.2602126386573265, -2.4981415635425233, 0.7284579170620362, 1.022850088646551, 4.3246141058362735, -2.433943952286251], [-4.097861502062733, 1.3393841671910012, 1.0607885666012344, -1.0620756583516735, -3.8498282844021223, 3.668885147219987, -4.620646803763278, 4.989950571399831, -0.3453455977895291, -1.010602384284994, 4.828420246162963, -2.192112142754819, 4.50458564132967, 0.7963668967051334], [-6.434771569491552, -2.2900296015263155, -1.130064782531827, -7.128575550202225, -2.2423627138626188, 0.6164237009355085, -7.496216181704506, 0.20912133960971732, -1.694685067855164, 0.37566803934050597, -1.4161469357554948, 5.797097551146486, 0.24702686781029382, -0.5836223999473409], [-6.6644452039407955, 9.281410674186729, -5.218953357886565, -4.277328408179889, -0.2853695983840956, -6.700346204318864, -5.481053615515384, -1.861409628739917, 1.0520061761016846, 11.5722213244975, -10.832008020356653, 2.9347839928641504, -2.2024001369234165, 2.5296046106524814], [4.81372558311096, -0.1273291173836697, -1.0970228335971057, 0.021035989869617078, -3.62381205701309, 1.9535406465742362, -4.83913777818533, 0.2495791661567306, 1.5837757916548758, -3.7694875274952033, 1.2523791016131567, 4.235587043018167, 0.17278410854259846, 3.303640255084682], [1.938178119776173, -0.7006704280538912, 3.7108368280791613, -16.22592733304253, -1.1672942128488484, -1.9342638384489197, 8.483810166375253, -1.1887406194655896, 4.6863778023251195, -5.334266962597463, 1.2976686000873907, 0.8808732679523832, 5.8032371929078375, 3.1426026506777465], [-2.3899121050239716, -4.895407061199682, 0.021702979294625446, -4.2974698365576725, 0.5563641938408781, -2.8103170930195445, -2.627091456537414, -3.406689377676928, -1.538710985576306, -3.2205925122684573, 1.7639458486194817, -0.6552811150812574, 3.5770471327273583, -1.2260199659235202], [-2.129355114463349, -2.7379429490931266, -3.2157362985991966, -11.521095079465772, -0.5429097596056964, 1.5849089429501582, 3.3112565638125284, -2.358403758714567, 2.0335286119675287, 4.011928209904995, 6.921447333879081, 7.387377029379595, 5.883081422464632, 0.027616330593095942], [-0.2001541798570834, 3.012590669439633, -3.374935059381865, 1.0621916603901111, 1.2076651883679426, 1.6923284679428872, -4.326796320748847, -1.5229931285996405, -3.3550850736337607, -6.002120003742194, -1.0587738524064456, 2.609427079821003, 0.32434980648724854, 1.7926184710333288], [11.022131071065923, 0.6682967787963954, 5.154047914645718, -7.272534203347943, -4.461261884460944, -0.8337853070191936, 5.305765367261697, 0.5033869523975216, -0.8576630597814741, -1.865137832268862, -5.5335825342459115, -1.2766320175334573, 3.34388675819668, 6.243714567199925], [3.28941778234592, -5.456301871766449, 1.703096227980629, 6.867960160488277, -1.0810279450619622, 8.726892618190615, 0.47671357723089125, -6.666211738909057, 0.3629667967107302, -8.560449818588722, 7.111767006730113, -6.025143404235495, 5.3974001351689305, 2.207939451343034], [1.2756938209225117, 0.5061014383003515, -10.04632374860426, -4.461167122377571, -3.660103956930838, 8.261194525323795, 5.884921705285768, -0.7312204420872113, -3.9984774072882727, -0.2706289760082229, 3.461590183748381, 0.9020988260078444, 2.194431666297775, -1.496980179010352], [-3.845084802673068, 11.491574276444576, 0.15243844147296132, -2.484458159152001, -1.3639772969515778, -3.867290586056206, -0.7956338412202539, 2.3616757597960887, 3.651276268689263, 5.975911777639906, 2.808912822644267, 2.4733924410485506, 0.22058692342803932, 2.0090493414277066], [14.15279156492871, -4.390055939210047, 2.680087610380804, 1.3632769468300519, -0.1755385305494741, 0.836324073487939, -10.409924687447793, 3.1868822849875107, -0.6843810811795916, 7.222634454599713, -3.8447130255127075, 1.7264128800034262, 2.9433812731247, -3.242648289107611]], "bias": [[-0.7039193824041952], [-4.034476401346401], [-1.6975644100909042], [-4.810323903254642], [-7.420108729510933], [-4.386188801785442], [-4.533401254667014], [-1.1177194371920056], [-4.5414519716531565], [1.726161310645261], [-4.062850674797572], [-4.369400064189439], [-4.339865777657978], [-3.783038171659103], [3.410150148563088], [-5.657584002781629], [-2.371031800158979], [-5.438051393807061]]}, {"layer": "activation", "activation": "relu", "activation_prime": "relu"}, {"layer": "dense", "input_size": 18, "output_size": 4, "weights": [[7.606660231378344, -4.665297139469475, 0.6390236989588232, -0.02001064822096632, 1.4984736986115976, -3.9997480311790876, 0.7081266982202616, 3.1149296474809542, -0.6265001795587127, -0.8997375011379762, -3.722491550758021, 0.6565208017722712, -1.4963842722104785, -1.3996337098307507, -6.160139120682506, -0.14613148356175643, 2.8736787879848444, -5.88417414785746], [-5.609879506515952, -4.557979811419786, 2.328698754544168, 2.962548980369911, -1.732309483104135, 1.4246035301527855, -3.1516274937795545, -4.146704362808161, -0.663340259303084, 11.614990309828373, 1.3099934772068682, 3.1071003514488797, -0.33634579788077623, 2.1295396342870334, -0.40270646306688307, 2.7154154499995378, -3.087854083305681, -3.2666293414482412], [-6.710542252875811, -4.406962054738907, -2.129437165688484, -0.8712452850576984, -1.6405964132197144, 4.797187755068155, 6.321519973739028, -0.4010636255258382, 0.9250245602422331, -8.627685467717809, 0.8299116723031668, -2.1852877411972664, 5.092413935499152, 2.2807371336385582, 1.2047089102365265, -4.053834338898864, -4.449778046558355, 7.342386092116961], [6.873102296728979, 1.9033421238427681, 2.869479714388124, 5.096309510959239, -4.570416897501849, 3.4624188277123067, 1.294686857650316, -1.6730311089779062, 7.202343544035006, -0.02921699557033519, -5.514733904899533, -4.740227846201262, 0.17650600984828646, 1.4032096924175415, 6.677143684904131, -0.6201925680798686, -2.863731478383503, -10.726963118923242]], "bias": [[-3.521566029101177], [-0.7230891694872973], [-2.264756701939584], [3.3232691446232776]]}, {"layer": "activation", "activation": "sigmoid", "activation_prime": "sigmoid"}]}