{"generation": 787, "board_size": 10, "snake_size": 3, "input_direction_count": 4, "apple_return_type": "boolean", "segment_return_type": "boolean", "distance_function": "chebyshev_distance", "network": [{"layer": "dense", "input_size": 14, "output_size": 18, "weights": [[-4.189010087647884, -2.4662698259260045, -4.501778220813961, 0.5578333922814808, 8.4902678444785, -0.27652222739303506, -1.9870021737632793, 1.1057159933265115, -2.6313607854690018, 4.0477451850079955, -3.22838545692891, -5.15629743661119, 0.9595839689557907, -6.882309203400475], [-0.9153591315883733, 2.0244683991820884, -4.1906834182153405, -1.2037102607671006, 0.3707946203120871, 1.510539643569728, -3.915250736614821, 1.8833960690737728, 1.3110934481257, -3.2398900972433027, -1.4774243049471798, -0.21589838220913316, -2.9919160482800207, -0.8794236339331059], [-2.124831415748476, 2.185713723792741, -7.259929406584545, 0.8673476634642738, -5.290397648307115, -8.467908737989504, 3.9281291933166056, -3.9599508375462804, 6.296578932547351, -12.959759014558193, -1.4980412142728743, 1.5376628613050771, 2.622131650723683, 5.299930819242011], [-6.125606766938096, 5.41985338680972, 0.8945676175164732, 1.6736717125114309, -8.96320765218772, 0.2262990301703489, -4.711846210850306, -3.8280567963101504, -0.049278099538063946, 1.2306409222572683, 6.111824953541773, 3.0184056995074124, -5.625194349527543, -4.868974802273003], [-2.9250979334177494, -1.4575855590663704, -4.3141973053781095, -5.567843376574663, 7.610174236348535, -6.085230723012939, -1.134581654119819, -1.5583854876766878, 3.337268098548324, 2.7503243271957056, 0.16083066288913944, -0.7997221563708512, 3.0107326790879947, 0.0693645350822728], [1.829076033962485, 8.745780120996935, 5.369673939667629, -9.688917941855886, 2.821004934128281, -1.6857469760066164, -1.0384648000161913, 2.411613009169037, -2.596986099200182, 0.36776007412392, -9.74840808360416, -3.3937913570992286, 6.283037367002113, 2.998541857199145], [-4.0444569258014385, 8.142261828877462, 5.827319269725577, -4.27947460076971, -1.294458198070867, -4.81254951574539, -1.5519276696850062, -7.022742471256387, -2.4030535067175793, -4.044294790899171, 4.792327746345068, -7.78586322149149, 1.3842458850442694, 1.643253720019546], [2.6537102759596936, 4.303244648294631, -1.2905178631014227, -2.119888267881611, -3.830560899302397, -5.468272300042294, 3.3164024481034775, 1.6564738477647558, -2.7969574754932376, 0.8918223933073569, -6.911744421327232, -9.363075294077607, 8.69893251885475, -1.9778284226437028], [-9.089201052954234, -2.0449918227914523, 5.138979443251937, -7.8223793996554125, -5.317272920371726, -1.3280268724272681, -1.2668876427757403, 0.6528315276804553, 3.6830135748867048, -4.370524548674072, 2.864187583167354, 0.9063621662873212, 0.9748410867196784, -5.532885053454107], [1.1266769898933986, 8.47699407085477, -1.3261668705220353, -1.7447455365025897, 0.2941968726915414, -5.525741602877886, 4.389706398921149, -0.648140768838084, -1.6915958732284646, -1.5572272650578793, 0.62482554971045, -1.2928713157666991, -3.94046574788368, -0.33181162503524897], [-2.2371069082772257, -0.33985947378794296, -1.0054918474358094, -3.9400783908573573, 3.7252701297435014, 2.8608111804646854, -2.678371283231762, -0.8336574273331644, -0.24542486801971353, -3.5259280242161104, -6.124465901401839, 1.3489384419464492, 2.9036333400953724, -2.5107923613463736], [-2.0482166564140063, -4.020560538636008, 3.052801769537653, 1.8737089693312052, -2.3819326620845147, -6.175389075772366, -1.304671314457415, 1.0475601655208924, -1.4553837808136216, 2.975790539458048, -3.6806329807123843, -1.1648214281397433, 7.124787510730791, 4.218534785159049], [4.645557392139868, -2.104638639316284, 0.15350610560853756, -2.943144089300059, -3.704548270947853, 8.323770650683425, 2.5582710739875805, -2.6397472765462, 2.3390137918394274, -4.472674324037854, 7.827112337631817, -1.2240389401918625, 3.3339115141420193, 1.3063536292998887], [6.099977439734655, 0.5222778826355645, -1.9534596780147626, 1.6889872782001722, 1.985941271068911, 0.8291873544141342, 4.451625253006051, -6.458416655725173, 0.7693687280710955, -2.029722422793526, 1.6275081944585175, 0.6495939445864065, 3.6929731032585607, 2.0642611377933027], [-4.416904301991047, 1.2048220613905047, 0.14076860955034715, -4.2851082571527135, -1.0806961643837438, 0.323106852216889, -3.663616560745786, -2.120218404711804, 3.1619091700198907, 1.7226665221834243, -2.0482947852077746, -0.48813757958320636, -0.8267227452046064, 5.478752181897368], [7.685168415231349, 2.4242213652552698, 2.936325965828015, -6.852016266803364, 0.8352468037671059, 0.7017580724696864, -3.8497049833584307, -1.5978178078278749, -0.04455134215002343, -0.990094734661418, 3.569067212603867, -0.27979845534543935, 2.986148737273482, -1.537075372218846], [-4.587306821541974, 7.873023474070674, -3.3933114805938303, 9.96937826500806, 1.1072187889322513, 3.7404335333013066, -2.614683340918203, 3.1801221826335424, 3.9750325252990963, 3.9496448780807665, 1.1472394534463695, -0.8761074581429006, -0.4107973133953569, -1.812418542352302], [-3.3662237775545454, -0.8895955590041382, -6.135860164851305, -2.130286360215858, 2.31379859485178, -7.473698370554973, -4.101973095929713, 2.274081584572679, -3.5664196866023015, -1.9781368364961516, 3.020508862838351, 0.5290198712289215, -4.77398548332341, -3.9119199334465584]], "bias": [[1.755678081810408], [2.9687328954344063], [-0.2445944408137497], [2.8130559106288002], [1.563789681187333], [0.6553905718640252], [1.7136288014689993], [-6.920559360359079], [1.3552332963805405], [-0.5743449475595109], [-4.014701125980494], [-3.331992411642714], [-0.8529815871750736], [-14.11977209692506], [-1.6987814283439207], [2.3296858653783423], [0.3244575089478535], [-0.43858350530174556]]}, {"layer": "activation", "activation": "relu", "activation_prime": "relu"}, {"layer": "dense", "input_size": 18, "output_size": 4, "weights": [[-8.853567669035913, -1.011548209280046, -0.6182812277891488, 3.717552259933206, 4.647395218353286, 3.354689490931709, -4.557812892094662, -1.3135848017878464, 4.828165811719234, 5.738970209294771, -1.9029600557500168, -7.5872596801516785, -1.3784706936562332, 0.350052668894821, -1.6441314233758049, -8.766796230629888, 1.7818410863860177, -2.281127911842663], [1.6400609262590131, 0.4719561159259628, 1.634520803229531, -0.7542257926896954, 6.649725777052221, 3.124235906800536, 0.9891164403383892, -3.9346026268217447, 8.049434835021993, -4.0112742590198724, -1.4222801981202688, 0.05504447335679563, -6.976907928631525, 4.809158636759059, 1.5087241816824069, 3.2872969592164347, -2.1099963879709893, 0.3555075730689637], [0.8465228420364509, 1.928633548587511, 5.573041160903802, 1.4933984882574314, -0.6069667946833404, -2.5107640565717104, 1.831341775309958, 4.13920580080883, 0.45348793725948155, -6.826725394546005, -2.2764052967768946, -0.2833742840279099, -2.36383978869089, -0.08749334908905759, -6.3832863373025095, -0.06372667528133666, 2.0118371619997366, -2.590001797582608], [-1.485091624898164, 0.8791540830807376, 6.617229045299188, -3.7745761171893775, 1.1491647045434896, 1.1684707762546782, 0.49421963335434893, -2.566720662021645, -2.1080353166166415, -0.2937408547041006, -3.0974653326000334, -1.9087280665378226, 1.7276323177688155, -0.20721614755987705, 1.0255146991566413, 0.9455933133153426, -4.192025418486196, -1.6238045525462155]], "bias": [[-1.5900240697307158], [-4.696491245893688], [-2.75712451163044], [-0.9155907521742827]]}, {"layer": "activation", "activation": "sigmoid", "activation_prime": "sigmoid"}]}