{"generation": 18, "board_size": 10, "snake_size": 3, "input_direction_count": 4, "apple_return_type": "boolean", "segment_return_type": "boolean", "distance_function": "chebyshev_distance", "network": [{"layer": "dense", "input_size": 14, "output_size": 18, "weights": [[-0.6986445779509698, 0.46100641438764467, 1.2936925060243236, -0.707304062187676, 0.7589038618272204, -0.5048036651213735, 0.4260684448662148, -1.4493092559067404, 0.03466278811824488, -0.05450605417835419, 1.9198093375846104, 0.04371571463372015, 0.16132056234489212, 1.7306246169758441], [0.9865098522267612, 0.07245196735745996, -0.15573397980357528, 0.4800535836262003, -0.06493510803635516, -0.9419600357034781, -0.4004641141052563, -1.158604588763129, -0.19249854830126578, 0.46351458895510766, 0.32980885003964155, 0.8753524194092593, -0.868614627691807, -0.036488420864816795], [0.9192597290432942, -0.14662118205082653, 0.2242656015958917, -0.05985805128521915, -3.3948008384620865, 3.5660017646015794, -0.667536685040172, 2.6258469021776767, -0.7530665480493449, 0.09272906149555626, -1.4303441823293022, 0.7311969954673322, -0.32011241930877277, 0.7735882595148187], [-1.0361720640866683, -2.4050650667081217, 0.5021026603506713, -0.6080112376427911, -1.3057963968841535, -2.6720627286705567, 0.1024318465601679, -0.8952342329141931, 0.29012040784505766, -1.9448056602438974, -0.484109375712457, -0.25760644448316805, 0.43627580243853203, -0.6410747783207569], [-3.100041161452052, 0.9672108124519825, -0.7103872672970053, 0.32574982820103116, -2.0848015999432303, -0.4821996181109329, -0.5471187969232942, 1.9396028270056138, -0.1996102388411367, -0.9909302716544344, -0.9993662365569798, 0.8091190348375161, -0.428833890512341, -0.19731784105050043], [-0.5701733916921434, -0.874314035175701, -0.8776399363278291, 0.7187059516564045, -0.5718009689538293, -1.9164394826043096, -1.8485776638064693, 1.0833462841632346, -0.9611134841617266, 0.8289965394484742, 0.371810643557845, -0.864128800829967, 0.43335044891908603, -0.8769961255302594], [-1.8340736668842723, 0.07824439069535472, 1.6117838435321266, 0.2592576730706533, 0.5747716770434717, -0.7566623576167377, 0.4766423555220305, 1.0777362211410713, -0.43782108953401466, -0.5854963020184154, -0.9801984499923451, 0.9161433916569408, 0.6538905152563783, 0.16347632786220512], [-0.7205249579908926, 0.016808032091963743, 2.116885583016231, -0.29759827997760646, 0.7903929276038, -1.3242504441628937, 0.5054698461435145, -0.07763791119103547, 0.15369191282606898, 0.5390172871047181, -0.565799789317432, -1.0914851273887796, -0.05631129453493322, 0.30630155533892367], [0.025185235007333606, -0.795415670080778, 0.8931178043202657, -1.5750898530317545, -1.5863149627505824, -0.34839947979797237, 0.3569665162437739, 0.5461409165983491, -0.045371925099762844, -0.10797131155649775, -0.06395762498524715, 2.0984342286195865, 1.5720378696147848, 0.17841128166126152], [3.6890677779716072, 1.4432613053272585, 1.6883886593533814, -0.6059381616318849, -0.9503128801765848, -0.509369164741015, 1.3639991035377015, 0.994108250778613, 0.36299974805542856, -0.6427625223970048, 0.6457111285946331, 0.8113870743801181, -2.6473977738348227, 0.7021879804448452], [-0.07405010698395387, -0.4326840061174779, 0.07664953365173632, 1.6867597148040145, 1.773762312505713, -0.048885643353753894, 0.11651745767535782, 0.6787352113716116, -0.36902159222466824, 0.085063799992951, 0.841975432711072, -0.7883542513196868, -0.8408090697026785, 3.542709573407631], [0.9073988733625182, 0.423865422344756, -1.122340680998394, 0.8730206727616774, -0.415731215073857, -0.5018956380482271, -0.48330548254229755, -0.10384710488051918, -3.2634110440761828, -0.9562780045372916, -0.9621063692266987, 0.9386729064767081, -0.3163236666537237, -1.1732786794520187], [0.5789754128624907, -0.24527892545369703, 0.6296158150191605, 0.0721889044631947, 3.3307153306654187, 1.583464799978368, 0.4738528531665622, 0.5001301535015663, -0.8852674700561456, -1.0944909275930046, 2.687219327559625, -0.8469325616084487, 0.525896083222843, 0.7745175163373774], [0.061940390856069616, 0.215812712815587, -0.8910449492925996, -0.2628673516121829, 1.4443186285126062, -0.12174208682483911, 0.34926748411299013, 0.3304103915167689, 0.4757769690284468, -1.4017991560493601, 0.09968512983617384, -0.5350734659976581, 0.08705343084953698, 0.9608780288700203], [-0.43367244702410795, -0.47523723804009355, 0.22476727887323722, -1.5477853557095447, -0.45478034417154334, 0.2710756245853494, 0.5436792256294398, 1.4837683083716051, -0.6601274421399825, 0.9023820965520593, 0.6153066104292397, -0.8794297693069568, 2.155605430777065, -0.15568945720224647], [-0.15940817562273746, -1.8440997640702383, 0.9688748112604442, 0.38324102080973144, 0.5496469682469542, -1.6994802634052335, 0.9215982038125671, 3.928650342994526, 0.9248034354778332, -0.3126274153447738, -0.40137184835228645, 0.42754860065702444, -0.27037710782170277, 1.4187668892066005], [1.032394331842469, -0.3502299200635987, -1.3136507721755875, 0.2154350868540833, 0.13777720353423728, 0.874234573524715, -0.9417528099935701, -0.8379717096166123, -0.6765469178547643, -0.05933063813586126, -0.9419345877261828, 0.16193687522840428, -1.2820790728898046, 0.1635028401835681], [-2.2035131123889418, 0.3262106404364611, 0.5596937607457905, 0.14963060022596125, -0.5705671943590376, -0.24930744687877904, 0.13396562776252496, -0.909165386035375, -0.8589349620604745, -0.008194453461648266, -0.5439824066643395, 0.44259924332595474, -0.3138242344317358, -0.7444921987547075]], "bias": [[-1.6535753266048183], [-0.08560738690130776], [0.2864568307878379], [-0.9846863281198235], [0.36996641221824356], [0.3922559680609803], [-0.33179577279371536], [-0.44952816340399226], [0.508902855721294], [0.4117425072256786], [-1.1052609490018659], [-0.11722178564311769], [0.27761453502070693], [0.7764662193722619], [0.12009678044174205], [-0.8592232015054218], [-0.7623688279020119], [-0.48328236661989854]]}, {"layer": "activation", "activation": "relu", "activation_prime": "relu"}, {"layer": "dense", "input_size": 18, "output_size": 4, "weights": [[-1.317575980291144, 1.1791925586021392, -0.8204092006047496, 0.16625703788092205, 0.9467510992126773, 0.017944379564179602, -0.15970379038358296, 0.37748465407174225, -0.8240110389466722, 0.9010182875884425, 0.6960955459867078, 0.0600563192318635, -0.3056506452585492, -0.06220910856749723, 0.61861318893576, 0.2974220433905985, -1.5488717000612293, -0.8173005989908868], [-1.25904874479066, 1.4203500588107814, -0.010071728139700031, -0.8541913702248389, -0.8400469212631437, 0.04050355466450406, 0.707147988948041, -0.25764563953135866, -0.716187178920527, -0.7090962156999889, 1.8033442314793506, 0.21100094780699807, -0.0849741308382802, 3.298781242761857, -0.5928788191263341, 0.6931116415595113, -0.649180240682792, 0.24141634325733574], [-1.054408726512707, -0.5621588954023335, -0.5198337423603412, 1.6946557129549704, -0.8324012262500191, 0.061030760614368074, -0.6789898452358964, -0.6668861824877912, -4.363637197859162, -0.3819481575727381, -1.1962628626109715, -0.010979230268239326, 0.8761509910058907, 0.22812290054793616, 0.19219063282374504, 0.3940274132581114, -1.9251364760792788, -0.04428778938801958], [-0.20798793382433745, 1.372527234313939, 0.34777276351182684, 0.678004615428301, 3.403735369327465, 1.1254969526863494, 0.43093107976501943, 3.090196331164563, 0.7023075049544154, -0.7022602680425389, 0.02349256257803667, -0.42146423392170207, -2.461467066399714, 0.607340823960713, -0.5218488358826776, 1.1188798070602957, 0.1790763469323602, 1.8689949214810964]], "bias": [[0.7428310494991054], [-0.07813122406690143], [-0.37906591575580695], [0.8460247454363969]]}, {"layer": "activation", "activation": "sigmoid", "activation_prime": "sigmoid"}]}