{"generation": 497, "board_size": 10, "snake_size": 3, "input_direction_count": 4, "apple_return_type": "boolean", "segment_return_type": "boolean", "network": [{"layer": "dense", "input_size": 14, "output_size": 18, "weights": [[-4.489051313794516, 2.5705531303812714, -0.9530848319994787, 2.211173488039718, 1.7294032518605067, 4.147213297476688, -9.877159064885804, 6.301570491089235, 0.42400735857524696, 10.647569262478047, -3.234881158239162, 2.6625886782115975, 0.8263151214746081, -4.236933705510659], [-7.118653555014786, -2.467658071615829, 1.4396825060952674, -18.469067174695436, 0.9344422543384299, -1.7534361296330807, 7.593020887801972, -6.853271696887919, -2.8047983717856106, 1.502654157337682, 2.535328629906921, 0.9512089829898825, 7.031069702172812, -0.5173792322871378], [-4.6972868746039484, 0.22117944801480705, -4.262088526351805, -2.4322454882415885, 3.7307237713878343, -2.2403327833244644, -3.7652745380520427, 1.1426198463301334, 6.775613271378448, -6.069995716059122, -2.2735619461223955, 0.5653742683241185, -3.010145496644606, -0.3023416638705151], [0.8931282285724983, 0.739186530237436, -4.949302800663271, -4.141949849766736, -5.17692558418209, -6.2669538890907175, 3.188747692649706, 4.5072872431071, 1.4437768510848141, -0.45124266224548437, -5.498997600068579, -1.7779942207857204, 5.711602126970701, 1.8265264841752034], [0.01140031354506732, 3.736765152643654, -1.6204781536188042, 7.1568092328969755, -0.07304535691070191, 5.700504054282371, 1.4920773077510543, -1.400058108986658, 1.8831221123679651, -11.616486130566413, 4.648788790387141, 2.03353765586992, -1.0072047162829172, 6.898586267474283], [-0.8857447973854442, 0.45442291345559505, -1.8191949931162283, 0.2950598144947229, -1.3024902294942429, 1.8539798641743572, -8.72625784969131, 3.4716446258355895, -2.3213423134773707, 15.499436563707343, 3.7397040917711784, 7.023780025456462, 1.8811210161476133, -3.534831776564509], [3.277101514374488, -2.146863531160501, -0.45045691796355036, -7.850458247804706, -4.483834838810691, -0.07465265009407185, -2.1639523780650523, 8.017887241377615, 5.797691212902109, 0.8042913957760334, -1.1622311719941627, 2.010173009578282, -2.8476306695584888, -2.814508932653138], [9.801457022312762, -6.70848451575033, 2.39455813229682, -3.0433678701552282, 0.08125727928122112, 0.7842006706018751, -11.710876486968596, 14.01551008907507, 0.05587302102207503, 1.2561688509551616, 1.6443413496988721, -3.1840899247796663, -1.3576453824458456, -5.051033415936722], [0.9888207564162339, 1.9374553552155789, -4.099327944541496, -4.574881732897184, -0.6124095516615049, -7.448660563912419, -5.184564172582064, -6.010197114886104, 0.507586548998114, -10.897231870407092, 5.0320662934082305, -1.8908222786990185, 0.2341772108579836, -2.5833982931776163], [-4.886247908312879, -4.369259841442802, 0.6405483158930907, 0.24527827892514042, 1.3761457718028571, 1.1182780402963934, -5.452138561336234, -4.192994665636088, -5.19838657020696, -2.997063713423707, 2.380450786384717, -1.6526627292398235, 7.872204976189317, -0.7640302186673552], [-1.1953065482636656, -3.7325207087354237, -3.679145550285197, 0.5695132915739062, 2.6365787688270226, 0.3678738564816064, -0.011208513390181363, -0.46352202586193364, -6.879160359209314, -4.705173349212336, -0.8139490716616439, 2.9681311386807026, -7.3669241586086915, 5.817276742278194], [-1.0406924023206638, -3.356879585198817, 2.406200109536597, -1.8640905180802223, 4.887402163244726, -11.188824160372796, 1.536796064313475, 0.14652984035666738, 0.6195654657477438, 2.129150708494631, 2.2274997155632947, -0.4774620362049604, 3.7763511664501817, 2.9157516873178264], [-2.7491917228297362, 0.388432124518993, 1.5505599792777711, 10.962576813690045, 1.481875024908898, 2.9948481702086998, 1.0986530793649616, -1.7279253165467057, 5.562798491868994, -2.0212360338912014, 4.981341141778821, -1.2140397192283112, -5.120157098431653, 7.361260662921699], [0.9430822084652851, -3.8297929806884747, 1.4612009788001996, -6.560157938674593, 0.6024890829762856, 1.3105540038092722, 11.020304689881359, -1.2164381016242065, -6.5063454460459, -9.36221203076178, -2.1464833356586954, -0.1555409825062597, -1.2923128695975858, -0.9723617698313878], [7.676904129272813, -10.58658072305655, 1.1043933078554464, -2.167678225780028, -0.5243099343235514, -1.3384466275532563, -11.029993772387806, 4.45766873084244, -2.4638916097018515, 6.926625531543172, 2.576115259082688, -4.70138525045747, -3.020936361121896, -1.4580867594687712], [11.81151889111621, -3.827386706517591, 1.8818183498071757, 2.762040667472914, 2.7337854355338504, 0.022054586780051344, -3.390411053964609, -2.147871913316538, 2.895659305081593, -3.6109284674826494, 4.9174471138322655, -5.372762759825414, 1.7375413635185835, 2.1064027616632526], [-4.604719845559994, -1.1943198001350395, -4.253297544203472, -0.7487180018431201, -0.7321618916462231, -6.934408543956369, -0.31239451998225487, -2.374974447604356, -0.215169968549483, 6.3025104915884205, -1.8904576980250463, -0.19386519174529926, 1.5787039249459545, 6.466435374148446], [-5.75842588887272, 1.8604443635078711, 1.9810001087104296, -7.6569836342397295, -0.9117322797914439, 3.539494664802605, 8.86781248158238, 0.6947941461276759, 5.239809940333804, -1.1061229321257238, 1.1739205907306915, 3.621848849355474, 1.8632365515077345, 0.7846034850303361]], "bias": [[2.113920522410994], [0.47353324771982597], [-2.721416362407217], [0.011281769052990276], [-2.8470899089264923], [1.2661616444504502], [-5.092574681269548], [1.1347823010648361], [-6.167207862437667], [-6.429452116165972], [-3.3650017068744758], [-4.420173981989804], [-1.9762840646423112], [-3.667187423446361], [4.527939132539951], [-0.8088367380446833], [-9.420289253639261], [1.3907229385069297]]}, {"layer": "activation", "activation": "relu", "activation_prime": "relu"}, {"layer": "dense", "input_size": 18, "output_size": 4, "weights": [[2.6715582191732525, 0.024674474707895744, -2.7356134883041525, -0.9184646780535524, -3.7154464279987223, 3.7685620993310427, -2.866115206281198, -15.479231121739641, -2.00473691204691, -2.5486720700530325, 1.4385780008498528, 6.448264658010201, -0.2353027095313672, -0.3247494433723591, -1.11611774786043, -3.0600841685770748, 3.0556950913319443, -0.8032077327041776], [-6.005116269694506, 11.840154778376936, -4.105175143181689, -7.516927243421711, -1.0346007322270454, -8.918008158055692, -0.6711140641341223, -2.2722800993413035, -2.826272207334037, -3.3039948272289186, 0.7100036094166244, 1.8851411882532623, -4.649203137236345, 5.80467017980353, -3.521025697775015, 0.7565318900136977, 0.5263512840025388, 4.5991390588868715], [1.9255040587785557, -8.739395077521309, -1.6077857040583596, -0.06818114162932304, -2.872516042468754, 2.0334573514289405, 0.5068636941338823, 11.039176797971724, 4.439899769136571, -2.621642103563225, -0.24677175045871308, -1.5411385619819136, -11.087086038337349, -0.715019048965738, 4.95793554012523, 3.975352820756261, -5.004305336538386, -5.826022163469322], [-4.893197120978373, -5.395741619530867, 0.010209780372101629, -2.552864961542117, 3.9394930963074706, -8.00928506675261, -2.246663765713096, -3.6368893311280983, -10.592974268247488, -0.2940431396011224, -1.2895833237735512, 0.9069978712721922, 4.990332908038261, 5.09118154736253, -5.330195793058202, 1.1930309665477292, 3.833147560041567, 0.07731262933157966]], "bias": [[-4.887451061826507], [-2.1501718324450367], [-5.064994018054717], [3.972172394773689]]}, {"layer": "activation", "activation": "sigmoid", "activation_prime": "sigmoid"}]}