{"generation": 436, "board_size": 10, "snake_size": 3, "input_direction_count": 16, "apple_return_type": "boolean", "segment_return_type": "distance", "network": [{"layer": "dense", "input_size": 50, "output_size": 50, "weights": [[4.040744709800858, 0.11805765509553523, 8.849060552622273, -7.768662212205755, 1.7861610693949117, -3.1977676523003993, -2.0246114280951915, 4.501296338254269, 2.6194791221964557, -0.7407110773291061, -0.7318021253557199, 2.6402460682886977, 8.1966238093274, 1.1847481381412273, -8.218144557588069, 4.0495505683564375, -3.6166373020285754, -5.659174569646883, -0.7496891237836121, 0.3166299098539549, -3.860646428907284, -0.049272224897406514, 9.230067410076494, -0.3219510779836593, 1.8305767219689246, -1.7332061466983986, -7.000767818384165, 0.3553661982529124, 2.3244642720208057, -5.974459108586365, 1.749074822016044, -2.5247887934334416, 0.5033818839031793, -2.9568495286600305, -0.004258407403163189, -0.5062623410515578, 2.764077545334933, 7.635271950646245, -8.822326173336766, -3.687524128896854, -0.816065144216805, 0.8701481947095764, -1.3009011956859817, -3.535918194107291, -1.948743537356148, -2.7952932459117377, -4.839158335798439, -2.7021120104855996, -2.8631740399329555, -1.098218717421307], [-4.648763170695523, -2.5331236905923094, -4.246528453450706, 0.11020649867446253, 0.6336488520313094, -2.1034124581124054, -0.12815460559063463, -5.6388492172294615, 3.660539016653784, 2.131843921999818, -5.231533004212506, -4.254046718184913, -3.8861427944311844, -2.7222810145989254, -5.596592618338499, -9.602909106517862, -3.682565422439036, 1.361413423659684, -0.13804475232468194, -2.572020079532266, 8.392598612117391, -4.06019235385549, -2.4486859435141364, -1.7361284898078533, -5.74312258345586, 5.088865574710201, -2.4302571919733484, -11.243609376885557, -2.2407122501228853, 1.628669289084469, 0.1802708869111668, -4.325221474293885, -0.10554753438137965, 0.6959087253226566, 1.4813671090742995, -5.3778609378622075, 2.127141802512649, 2.0381534266063737, -1.5141429478666588, -3.046404014649297, -9.803417443812291, 8.46025506034068, 2.1288772506119114, -6.141082415946394, 9.70525472927834, -3.8481338825951754, 3.184591072673866, -0.8170665541152315, -1.51762785741467, 4.6320236022444865], [1.3623851221100327, 0.8176871437011553, -0.41790812385674425, -3.0883269055236355, 2.040331513757321, -2.0916990974711984, 0.3281067628777866, -10.226485024050008, -3.374541025705605, -2.594186346416215, 3.953779672828297, -0.6916819934174225, -6.453906855409858, 4.664607911313622, 3.245111773987152, -1.344922191593119, 0.11044223124635755, 0.8983404470422415, -1.2331915098070985, 8.115227038231401, 1.9405095119860891, -15.061394340534346, 4.986509452234893, -6.349256455457768, 3.4550451802199174, 7.852058482230931, 4.240208620151257, -1.097954939304564, -1.1076675614965419, -1.7918244776100445, -1.5843881368850283, 0.7550023219438506, -2.8291066468653288, -0.037981238984005294, -2.5219025091036698, 0.28753838055278486, 0.15089442848898482, -7.148854350848336, 1.7878544526372346, -1.737828770076145, 1.73571742154899, -0.5070812866403271, 5.304713991904159, 1.416565563556349, -1.1772286453948064, 4.6859691366593506, 2.3238900497560846, -0.8869245649731142, -0.0864881660379313, 2.6275902991982796], [1.248293894162528, 3.608018087445757, -4.049913697893172, -1.759021254596829, 3.2659698848978134, 5.1105499016289535, 4.610223607544763, -10.965450446042906, 2.1846652248134557, -5.2011448935081575, -1.719214973347376, -2.3263546624521463, -1.2706084399647974, 4.264354068077554, 5.920818569971285, 11.84684196515748, -2.0417231373510596, -5.68613077137284, 3.2981724412515256, 1.9006179573160202, -5.483632462143925, -4.938100327675146, -5.433271364493868, 3.661743924878248, 12.55266226766547, 9.19116001460837, -4.914004087975566, -2.4316824503085606, 0.20344392740791062, -4.4478687086187545, 6.867008784124263, -5.6950928494077, 6.337321645139665, -2.797390192281585, 1.640283957149807, 3.1834579451664053, -4.5794855873222104, 1.4108471368648245, -9.09586678876082, -3.633253026679302, 2.493336534657111, -2.775752960961206, -1.71593609023964, 6.5004558113479955, -1.321029162102859, 3.111078116386135, 2.3241534803382455, 3.8303721467917775, 2.5783912815646524, 7.047082166705703], [-3.3608368220093987, -1.045116933860175, 1.8587904554619903, 2.8810132925925322, -5.3585372395099595, 8.021233387724966, 8.121439185292665, -2.810526153195017, -1.1477435445250717, 4.352297270882988, 3.4230265783333693, 0.625690288521569, -0.01871452061900475, -1.613007997771084, -1.139472119472519, -0.8998403553299537, -1.38401731517368, 2.6875010021634917, 0.6427244801174021, 2.3154093458755893, 4.678164678066214, -1.8794572453073457, -0.9381890916556792, 1.4208182026351286, 0.14014917407496397, -1.9028075661887025, 5.6761393059192935, -3.149110125874796, -0.8129497591360014, -7.087780774630877, -0.9140419160835738, 3.3173822105522652, 1.1047565389178409, -2.5430771133040317, 3.1884949575533326, -1.7968210855199305, 4.1405126125504985, 5.018401370292099, 5.927538924495723, 0.6897422570318299, -0.027338193425036184, -0.5750489737570801, 4.952187583074119, -1.2111079788565369, -2.51690563820087, -3.6914006368881975, -2.228002043501153, -6.881734560593149, 1.3360148672242502, 4.5608442878554225], [-7.39140740133301, 13.697717817111434, -2.231713349161544, 2.4380738007194607, 1.0347464890047138, 3.8213894853388015, -0.25657946518180186, 0.9987552481398421, 3.6578974101094723, 2.2776760785322563, -0.12493134205970358, -2.7042494930562113, -4.903078548813007, -1.002612511296143, 1.8270309675877279, -0.045588388277563535, 4.085663660958367, -2.191038693195531, -0.24157608781144457, 1.4116360401206554, -1.8417869814612882, 2.499583557874211, 1.9752380600488255, 3.1161104579477077, 2.4260130665290163, 0.015334067228065074, 5.105116817592909, -1.4291439298110842, -4.3988121298753295, -2.170992340299156, 0.7064657310065617, -1.6271222353165804, -7.4837782453919095, 0.6299763995082942, -0.2044424781973287, -5.46380250584583, -3.1810271440935933, -2.7716822659362688, -1.7934399740740703, 2.493893348624413, 3.7892203415033334, -0.42139903746761975, 3.862406820613659, 2.6448678220962965, 3.2185364002044308, 6.470345958663215, -1.508364977367378, -3.3349930438685544, -5.375539358671207, -3.7187457287487224], [-3.1396029205862295, 8.946158969830844, 5.5485573742181025, -7.691969082469991, 4.675367122295343, -0.06150968392411907, 6.236388017932706, -0.06345557694297699, 1.838528532746434, -6.083483964661885, 4.754481895720551, -8.235742314211489, -7.77178386422124, 1.6991335521232536, 3.725982061462504, 0.7903282365310554, 2.382481560306431, -7.456878059769297, -1.5230430462375386, -0.6188967283695916, 6.7438963691026075, -2.721225189895407, -5.025086989246536, 2.135314863434103, -0.6055398891503159, -0.49431414114445194, 1.1481456600271798, 0.05187940118181067, -0.9777123563849788, -5.800073053580045, -0.6439034850270364, 4.3135131593823814, 1.7332336225807723, -2.4116664601020608, -2.0882169563626434, 2.0924557374534256, 3.8574458595944123, -1.7718707959798725, -2.468228628311235, -2.1866533178344816, 2.2991142837566607, -0.49965935257552396, -4.218583848780489, -0.08586769216005496, 10.804258186203137, 1.2354681384868036, 6.087203462919271, -1.7990776651404334, -2.7327778750585496, 9.897234825951761], [2.7044671505256765, 1.4049609372032663, 3.54918051938459, -0.08907668150588588, 1.6911165870415354, -5.012040287789484, 6.283239943714363, -0.10055653682599586, 1.9916768493345394, -0.7767254171162042, 2.8432689435733756, 4.598073818328481, -7.412252324749509, -1.622516002984029, -7.51704803490878, 10.208274357284106, 1.8684589606282778, -1.677841211436491, -7.314870154135459, -2.7551145637461527, -2.9725801113240973, -0.076204850563096, -9.836849619342578, -2.161886085072286, 0.9986147518721395, -0.9947186120143969, -2.734262477858456, -1.0474140073581522, 3.568789324745489, 3.9440835238129215, 8.413224631005084, -2.3030825472553613, -4.860058255225013, 4.099581532861704, -0.10287080300748797, 9.787082990193174, -4.342656612349003, -4.174975788820279, 1.0704973219438976, -1.8388153635156672, -1.055786687384256, -6.356513438493802, -2.3388272827566823, -3.6913686913533676, -6.766847082273234, 3.858444331079421, 1.5471651928437762, -0.7718510788756473, 4.002768160015175, 1.935771387528408], [2.2364937392150295, -0.9238297906867565, -2.071029137919292, -6.257583331893261, 3.4953507166626925, -9.145183571289268, 6.482478849123291, 1.6388005161020212, 5.726220948064122, 6.255943429058934, -4.92702403465286, -2.1659179018150323, -1.0440410490546859, -3.9891688938926317, -1.7361009988261933, 3.9246572484763544, 5.135329059879604, 3.883398857665791, -3.461945989696185, -1.2233537311345974, -3.5336757347112258, 3.601073563351035, -8.789603391596545, 5.468400627997033, -4.323543003984669, -1.6927700525500673, -3.792181980442213, -2.8844739897711893, -10.345958154261677, -4.8970916611919675, 0.09457618888808628, 0.2901307417303658, -1.0507826544019707, -5.7071921918007344, 3.486845853986261, 0.043723665854150884, -3.546516074765449, 3.012311395471295, -4.429686246922847, 8.326057061043606, 0.671253214459053, -0.26167173764463453, 8.481097748486858, 0.37606752601415394, 7.296701631391658, -6.657723055781308, -2.947027869324656, 1.0215016807626507, 8.55597727673114, -2.617742520432239], [-6.49168101943914, 12.34118025949275, -4.415334334258003, 0.7397809916164282, -5.434111624500636, -0.7223152638921257, 7.651975880605284, 3.2550005760693863, 4.885640991457399, 1.399265622446818, -0.7029498225982092, 9.40802940128225, -2.071144585155309, 3.2717346148529804, -2.782651236050544, 1.5070623729851282, -1.6469959902257167, 3.670573776385577, -1.0748613417234132, -1.7496356437252267, 2.6938618211065988, -0.5265117907134534, 0.4588977184602836, -0.8298521916982387, 1.2367792128293318, 6.9835577629553205, -4.4530122092659274, 0.8551587622673449, 1.3112593195439548, -2.863543014711076, -5.449932472598036, 4.66602845525393, 0.8931349400099313, 2.5055734943021157, -1.0057754379610917, 2.3538507039817884, -9.764831332599211, -8.201082278357871, -0.44453236989544764, 5.067639175188462, 0.6581081830116046, 4.540043166770673, -7.566668170830596, 1.1116426662517251, 2.7707749490544042, 0.06615729500161682, 0.4991923127224225, -2.949261906141781, 2.080879454799078, -1.0395093667084947], [-3.1440413962068696, -4.487773841693479, 1.1679043787249148, -3.7039651371697007, 3.0191854305106753, 0.7558519231979023, 5.4201005610314, -1.6447223637629906, 7.275444671205543, 1.164827210660238, 6.203455070865308, 4.515505212282454, 0.05788717441934624, 3.1785408915079874, 8.782721607926367, 1.1078404697365287, -3.358922457135403, 5.810572514363744, -1.8372965231622502, 0.6731174557737973, -1.38869984377776, -0.22281155384550522, 1.8406588344768073, 4.263509302336164, 5.810153282166748, 3.3619360017965416, -4.071597166564211, -2.409648416213214, -3.2602812641386967, 1.4248208908367264, -2.510181375526348, -4.139432317557692, 5.6227527936553665, -7.165649114832433, 2.7374969727125062, 2.442504934881647, 2.5725867051402926, -1.2548184215343783, -4.103703010340878, 3.0163464771310258, 3.212702271442498, -4.626520182856557, -0.06111271152299391, -3.1459469465642274, 0.010214404147296713, -3.9889363945715943, 3.385821416492443, -1.155975357446301, 2.2703506214928644, -2.446456201054146], [-5.968291670288836, -3.108180425539595, -1.5217807214968602, 0.7110390999426313, 2.6215450226608716, 0.1803445005810248, -0.04434661874774792, 3.3736762276002596, -0.7973752121251889, -4.536556680574881, 4.938961180373561, 0.7500190252723791, -8.651433290826592, 6.76068674073633, 0.0328208017453972, 2.6619667792022086, -2.3255523085244523, 4.137460215912336, 2.0689104753974, -0.19946401064785624, -3.3535128112906953, -0.2003979354357941, -6.020448395268737, -3.0627053184028465, -9.56033585148636, -2.800074581822817, -2.0571647594224483, -6.413924229162537, 1.0936075796974345, -4.254302290031506, 0.4624109863637157, 1.6205181592571576, 3.755288584573056, -0.05432225762687182, -6.522860491183486, 8.58274679176758, 4.662448989990049, -0.34687608740236553, 5.008166132756982, 0.29790660750333664, -3.935347731725497, 3.2373468531305933, -0.8458659269168962, -6.203256281609323, 0.4672660781427446, 0.3587977494521748, -4.950752824911864, -2.0243501704661178, 2.0749624565651157, -0.11705834304737528], [-1.5644491490956223, 1.3913191694391533, 4.734052621677186, -0.21037748780588383, 5.31839809893161, 2.6981256506642963, -1.0933007927145553, 0.9111390819752474, -5.849792274932712, 0.8400498089279407, -0.9300139384391715, -2.1767798715788658, -3.8419677625229296, 8.919751242551719, -1.7347266809881734, 3.2135578977040025, -1.8448651773758649, -2.8528191846766005, 9.166980549992022, 9.269366131890473, -3.546003121141803, 0.5673751377264808, 0.7511499726718789, 0.955505069921755, 1.2636216288861142, 3.476956436576165, -0.12028327817900508, -4.341605832000261, -4.954841933665222, -3.1309122472947797, 3.869504586628101, -3.468256288177293, 2.0439227691685318, 4.116539406804884, 1.911437940476004, 0.5169860065678278, 4.328075434263391, -3.4465114134844406, -4.4656707123911605, -15.652701408344358, 3.4661539715567824, 3.3073418910585293, 4.08894655270363, 3.4690660408801057, -1.8670224615641378, 7.950129251221206, 2.4493882030272465, -0.6872846872927316, -1.881983200077691, 7.904652203554988], [1.980200164209989, 0.6215827775244367, -8.486517804982, 1.0316388344665284, 0.41352603623744844, -2.4115339051549824, -2.698264230840944, 1.5643074010564884, -6.34698224626983, 3.1595566768201477, -4.878770619475676, -2.8635744421431557, -3.3441506261971634, 5.37550138682903, 1.6006577729373381, -7.918002053643931, 6.034580322513016, -2.592347900600151, -2.1983690812278383, -3.1409556739906974, -8.862177347557575, 0.4596681389480038, 4.061751439358574, -9.359224835663918, -3.86082731643927, -2.421948193669941, -0.37654028486698443, 2.0477787570833077, -0.6595173104634229, 7.258370798896531, 2.1678913878605117, 5.10543289404659, 6.516189872887925, -0.7815703027844116, 4.531853219671291, 0.6578255143508571, 6.699077125220352, -0.9280298648833575, 0.24089044153543046, 4.757160495645531, 10.168002496366311, 2.81004742692072, -2.8143069784674983, -0.8983252572956231, 2.5654680235039162, -2.13134265724731, -2.733667069960058, 2.960240848505948, 5.711857013193768, -1.1110670267109977], [7.620892998506106, -2.6264836349356506, 4.499750396136058, -9.58597600844899, 1.3118365562129255, 5.4866642411568884, -6.122230636632444, 1.416755793341976, 1.4038913644063702, 4.334172676344706, 1.0638641058974316, -5.803409865913048, 2.650642325124962, 5.730661445081232, -3.4139528589048935, -0.4293007360132063, -0.705888046594151, 4.478087473662367, -3.2556160577816495, -2.2890380006820683, 1.5898745478369471, 3.48652017489644, -0.053405884153886474, -0.03846199599814326, 7.685403708193227, -1.2101823441724702, -0.896300845259157, -0.019989943278242134, -2.449056693270195, -2.2468881823978872, -1.146469538134607, 6.504900978887482, 8.89889716016161, 3.7370057495301268, 3.4109891923064417, -1.4480129980077128, 0.6366718132111975, -4.559075601981674, 2.136839148224671, -3.4900911580709213, 0.10648516620365778, -9.022815989948297, 0.7058015656113714, -6.494761387244944, 3.2616944489217263, 4.662279756501224, 7.818467538344812, 4.708697885345129, 5.044098030159393, -4.2299867372033235], [-7.407516789814557, 7.981443550567882, -4.067242826393664, 3.324654100484493, -3.7818156998027996, 3.92713106885102, 1.1132081627919446, -4.613896893745526, 0.41934325987522425, 13.288361482818157, -2.1959477702077463, 2.391857279224579, -0.025878966483762915, -2.2898858517541614, 1.1131279740153694, -1.6691084372021832, -4.189534739462365, -2.5631697471525383, -4.161652148621859, 1.510607959078515, -5.572541145761429, 8.856725925394262, -6.052296148284827, 6.89108052832827, -7.500923742341734, -13.764454536187575, 2.877496690859314, 3.1025583438118836, -1.8100026081073897, 0.8770429519106724, 6.1665801053080305, -1.779566414669365, 1.2090326122636574, 1.0129427042424393, 1.2419271838893828, 3.773505976679235, 3.9293640290083545, -3.751625468535778, 0.587167275929336, 1.1510509240055513, 5.316867057675859, 3.3517030264992282, 0.2597578669402243, 3.4671990441523035, 5.265011937170648, -4.091876148550491, 1.7818671465113847, -3.393072863444626, 1.6781500504616464, -0.4290405383502143], [4.348765243131921, 1.9127961651464442, 1.7436262077699012, 4.716504818569126, -3.747804764865378, 0.9863876828062368, -1.1922132561545293, 2.8953757629854886, 1.0163252065207569, -0.08975579325107086, -12.109811599570257, 4.545970056029223, -2.311950594887374, 1.3855316368895874, -4.404105650352054, 6.049900975787479, -5.994619050007777, -0.8841902769844797, 1.697202020382924, 4.404541980206465, 7.113468037631689, -1.4552603892455154, -5.969213888803189, -0.8422919617714071, 5.3352266681626865, -0.3485101944016217, 1.3697652860135743, 1.8322632445715499, 1.5989639865084375, -5.140821127808734, 0.2712858321712739, 9.024589213766983, 6.441013194038077, -0.42442883075583326, -4.936736562668025, 3.962917083170397, 6.980606750281604, -2.8800982024233175, -3.610413521633437, 7.033835131063658, -1.18321756718429, -3.82886741093903, -3.5722749687192623, -3.570879438651507, 0.41743359240964595, -0.6776816373170761, -0.039079751660157536, -5.775138527828062, 1.6467178641076534, 1.8384892257943573], [6.858762949900655, 1.292837227508188, 1.152714134486044, -2.1320381423818224, -1.4701563678345928, 3.0892341954505946, -3.178163514684416, 4.07693738230046, 3.096504086675306, -4.218619706073417, 2.259088260248006, -7.0775258335380755, 0.12778055299086316, -5.275074947322328, -1.336385515717668, 1.3719915504949391, 1.553838974057927, 2.2205865417354698, 2.074883949639718, 1.5862050756539718, 1.4722382594524215, -8.3583083420733, 1.2329959235706172, -11.59365441536626, 7.624208246683032, 0.4865111333937271, -6.011819080114975, -3.6625477182834336, 5.57086248575378, -1.8116915226346615, 4.704084836967843, 3.9604487165342217, -3.9637149006991237, -0.9228251056081213, 6.286553398787779, 0.14229927805631104, 2.4189177521371406, 0.6076156575465264, -3.5195960280492704, -2.4330622567606515, -3.052919572328876, -1.5405035506440077, -7.048532682642028, -0.31291803830616716, 0.9178694399698564, 6.248170214487965, -4.6624391065049595, -5.248720078371779, 3.346458451569213, 1.3464356413367364], [3.480020474812566, -0.4438669148814433, 6.484351141872082, -1.2821341442062457, -0.2641883718828968, 0.914832006935896, 5.424705171473178, -3.4459908567634967, 2.7524153095496833, -9.785289439360747, 7.482465148094706, -5.16444239609808, 2.0130743792674037, 8.440630626904161, -7.391860184467561, 0.5228298288061424, -0.018825279011143836, 2.6003305737089804, 0.25842299984457107, 2.2439027285538575, -2.3125492404168972, 2.410542796178796, -2.147785527923779, -1.1943492239306153, -0.5976525365267817, 2.495903672000193, -0.04787793806472007, -3.2226197559630814, -5.822675920678811, 2.4586147883709066, -4.053710780681412, 6.916665962213002, 2.08042731585574, -4.639336590468367, -2.2097108374481103, 4.843724597763722, -1.2905513235100976, 1.5469496500424023, 1.9995392807478785, -0.5980570079618015, 0.1979841873975421, -0.5122979338830663, -3.0841305598737603, -14.508296522589708, -1.2185427210699673, -3.4249820924794303, -6.472361118708336, 5.716038200548122, -3.0964231772175026, 5.615003731967162], [-1.6094296503796581, 5.770309329443879, -0.06347733226943486, 3.4582553902125004, 3.311228979408951, -3.6184520267274287, 4.525151627720452, -4.719354414358751, 0.04728238683395672, 3.5535370957167265, -0.24904461109391562, 1.1957772853096078, -2.7485121842683986, -0.17578510564471422, -3.7685182267364725, -8.004782029080975, 0.20902350276203924, 3.004411505016451, 4.138177537196843, -4.510546953349066, 5.412351369952479, 3.9348496084676796, 6.928517608249448, -2.315984918443047, 5.155067659933647, 7.839416177383248, -0.38756434103413007, -2.5418010952460164, 5.0537942602421095, 4.626462192640576, 0.4899448300805567, -1.3825689956199771, -0.15018534168699593, 0.497741633361783, -6.807136163281905, -0.5038784848033564, -5.317377841862988, -4.328225508015688, 2.591898412174737, 3.031819742107415, 7.029669906022846, -3.9197663086215266, -1.2265383994726187, 0.3408335092121062, -3.880619761101789, 6.206686571026183, 1.0554713381608019, -1.470751794424713, -7.940868544238852, 3.2240172177871416], [-3.8504342346840548, -0.7233181970902126, 6.03130265499681, -2.1319029304105004, -2.0364721770956837, 3.0575274099209935, -3.7040296964822246, -4.546113648699475, -4.762199402747947, -2.410159536416364, 0.02722613216902281, 4.691087604758283, 5.917218081832553, 6.234292138127013, -8.60361883216615, 10.156888144358037, -0.18359600385133618, 3.099014455685191, -3.0912130254795014, 4.66963074949301, -1.8671438233550044, 6.302360575101053, -5.298796198431583, 2.9538530099562, 0.05767868371511589, 1.54308981658931, -2.8032402298201187, -0.5830540040791101, -3.8658483514025876, -0.6214116054921519, -2.3853234298089734, 0.3088359951868498, -0.668991432682758, -5.059910343049621, -2.2862705982877873, -5.780908050424074, -1.5947614408974027, -1.0149956837666474, 1.3864299754558815, 1.2957741110101133, 1.8430500888129087, 0.09956274695405609, -2.4596734763527586, 4.225141565936721, -0.2871984875967595, 5.3840318691149545, 4.637275664542917, -1.3901579187921018, 2.655314599456571, -0.04507209861919961], [3.628802025263441, 0.7458789040992775, 7.205320705216291, -8.109568651387463, -11.679247193790737, -1.593111775275132, -2.753576903467721, 0.9416639685859005, -2.48685666440811, -1.2715466868716356, 2.886640582996627, 4.597720089375243, 2.163481606519785, 1.253213471392073, 1.854025835014809, 7.025600650163763, -4.898219949446044, 1.6763424542394694, 1.5005093623303871, -3.4437022819111966, -3.540966897466434, -0.6466008372137948, -3.0862827459541426, -1.8702163779679664, 5.367891287854887, 2.230861961699639, -2.483558352462662, 2.5854434792358196, 2.957614108038192, -0.2659742311733678, -2.2799689984678073, -0.4877277032201417, -4.428697194433516, 6.030294177613613, 3.3748152973622862, 0.3493384114506676, -10.014893881240804, 3.644609896184588, -4.004837814865608, 2.511057636319388, 0.20566531888353434, 1.3163036582513676, -1.2150198918155222, 1.9614544317216978, -0.2449459273668666, -1.229577875547524, -2.4129880899909875, 0.7361676608507195, -0.3867846503970098, 6.009450890853015], [-6.886246860441123, -0.32056153580261537, 0.8813263802974374, -3.830715953858865, -0.48324407071770614, -3.7568693224064185, -0.7600662072613149, 0.6214721650480929, -4.1534717208705025, -2.3926641611016612, 3.4532916852259445, -2.4236224380276057, -5.764349545327311, 3.2288376902789, -0.6846238220190843, 3.3122947866349257, -2.4489210507849455, 6.096527738319242, 1.8161876530387615, -4.169157119156246, -1.3129900582972676, 1.6089644859853416, -2.5419525618109042, -6.473746853173966, -0.6726849712885512, -3.3947752024101594, -0.6240303797252287, -0.04185088232224077, 3.5120933766958715, 3.759819640069444, -6.1036466802429015, -5.922273849634753, 2.786031014224888, 13.716899448614484, 0.7686307020701117, -0.6985918901771337, -3.911310029117382, -5.40738308103527, -2.0764856081365286, -0.13767553126484627, -2.8236595469543513, 0.2832991810256802, 2.754988588996249, -1.651411224132814, 2.034909219558525, 1.5373641018801123, -10.003395230849614, -3.209109448772346, 4.823017010204962, -7.223976944142966], [-3.6097477704665453, 4.10410587308375, 1.7594547235248168, 5.113846666224444, -2.8070971302224894, -0.9861221338697082, -3.019373962061131, 0.38857997456505305, 2.5714820646379657, -0.713066837922134, 3.883876163039753, 0.5276494913330148, 1.9343743443657346, 2.372652712372317, 3.0594352780562355, -5.42861598894529, 0.6372791009938239, 2.4803875492990914, -1.2865962623798863, -1.1611142401870467, -1.124395743347178, -5.012243420773877, 1.1650855246300313, -1.928861672211888, -2.987960877233217, 3.5477840203840887, -13.73282470164802, 7.318996795545046, 0.6407931919829274, 0.9608244810093356, -2.248236127808609, -3.7958920212749967, 9.358960297671182, 1.8552167845744783, -1.5323190271267069, 0.7249086180744546, -7.742902195712744, 7.5339767857999185, -1.0387810567139377, -1.3833115515293, -2.438336947573202, -1.1569527952882521, -2.495151283546018, -5.910714500856881, 3.5070240992217143, -0.6425260554907631, -2.0281459151072556, -5.0981073885555475, -8.02499352766108, -4.948276522723044], [1.9779817550996426, 7.275249168364892, -3.141715263378024, -3.5343114498175643, -1.0677841818555063, -2.9908991295563823, 2.8297983856840014, -9.663991612234963, -9.34127284708804, 7.5874159430710675, 2.372617430295906, 1.6875537616501641, 3.0193179856903445, -0.29272699975522937, -1.0315018889348506, -1.3729839750810287, -0.424830013232843, 0.028605050416158517, 3.5351722476018876, 2.862042814166272, 1.4387410863487273, -2.2954149447321788, -3.925799503727327, -0.11053934586534164, -1.393971360564266, -4.493453069059291, -2.3394584742534104, -1.7691830924498826, 5.085565206534077, -1.846906141173747, 1.6749912025476361, -1.4814017960883854, -3.95984419918479, 1.9036906788088617, -3.6071162879561074, -1.6636023636562514, 1.9571989750289296, -1.549255258807817, -0.8524755811023295, 5.215250523801535, 4.666165551668568, 5.247737381971278, 6.364399107108381, -2.7840821828655367, 3.295841736941302, 5.880178740999127, 8.011886307038154, 3.600852684933144, 4.5411863304921045, -4.96321975570183], [-5.716431749314793, -1.0342174462851863, -5.055599620363414, -2.4856288549099803, -2.499349512436262, 5.034192381589001, -2.125765253217304, 3.6111428776436028, 1.2654308109395547, -4.7269209449128, 2.8400621246391067, -1.6501285384613298, -1.3976990664299223, -3.9017931161577275, 2.107825571888598, -1.5390860361242096, -3.295505254174211, 5.496797177215546, -3.846834004877015, -0.07785104318653957, 4.025773077167352, 1.3722208360662882, -7.464550386145259, -4.102516736535666, -6.860878646437912, -4.341678697291463, 2.2434633380923605, -4.31449272059826, 0.8774678513816835, 4.215329129992012, -1.8839341365741882, 3.536957550669734, 0.6110259184591094, -4.117098692264737, 5.285867503441757, -5.138171800976867, 1.2557124051588984, 0.08725368228668601, -10.37095226473039, 1.0628836952936047, -5.544732520162209, -3.7177904254199494, 6.053708698046298, -1.5600445259146178, 5.169828194233042, -4.1666975240661355, 5.6644771551534365, -6.916751378442887, -0.36411188428776997, 5.174720076929056], [1.5998594560429376, -1.7634920484710448, 1.0991937140989432, -1.3618407711924154, -3.0892032936560567, -10.20415217321483, -3.5253751738750876, 4.359608524573138, -1.5127364839977815, -2.208721565424485, 1.4242666070494767, 9.896547359879012, 2.3351088545331358, -0.7611273869383662, 4.64512143970876, -0.9472210649014132, 0.022026991436372656, -3.0016791921913426, 1.9760043895628645, -0.782579229966065, -3.6038005408318066, -1.1274695117757088, -0.24736960541550673, -5.521984401677168, -15.102585118293309, 7.1908020282177345, -1.2170387164790397, 6.344591335194572, 0.6826699576026656, 4.959901629447195, 8.406555434888359, -6.573157754510324, -7.799750054833073, 2.0542334969410936, -1.5409206632301655, 2.328601912404321, 4.663123893324746, -3.1064145449828153, -0.6592692731535856, -6.7927323892622695, -2.8407883626630066, 0.06431977685595314, -1.1234578617179394, -9.381198100189458, 0.020024260742075195, -13.81432591714333, 0.4931883456942143, -3.0664275412004636, 0.562669247938461, -7.455728376668634], [-0.16719075905779845, 4.206415914310246, -7.038730399225994, 5.151767813547194, 0.2907143810649425, -1.3001989376349345, 1.182962071493056, -5.909561257397666, 10.551492116652819, 2.512089722934293, -3.013835525222403, 6.252359175644463, -4.469130717443083, -0.5389495565449123, -2.7957560240352426, 2.3467363801980166, -1.545408674731718, 1.6480775130294973, 1.7424974593146731, 0.4812338783960157, 0.12964118839321168, -0.026761071187107133, 1.1993431882085428, -2.541673240866789, 1.6423576782155442, -7.748751171442102, 5.293425227819238, -0.21681343497970706, -4.515505133131893, 0.7157018688773262, -1.0674588332791006, 0.6138763293909348, 5.379942832984752, -0.8826308514521148, 1.4435610288072316, -1.7154835207920343, -6.521189339697964, 2.47319521594463, 0.9164317213806921, 0.7300876127270445, 1.7775203479459338, -1.253361043383728, 4.9686211557567015, -6.441333274747133, -0.03328355823775053, -6.899203810400032, 3.304123647771785, 1.899644451112243, -8.996377824038817, -1.4056727354146605], [-2.9946889085595916, 2.6860366793317376, 2.624105189024503, -5.574874469384763, -4.475695889900911, -3.1826491626699736, -3.497207119424995, 0.365977861219081, -1.8822629541808966, 0.1369503050684968, -3.032754536520625, -1.8353800121231438, -3.893002320952627, -3.2586857141622962, -0.3318215986386879, -4.272472435407064, -5.713712991514932, -1.6590217740327584, 3.371951137044884, -8.053534916578949, -0.5653791031584925, -0.46977974474254103, -5.38757766310884, -9.08050165575343, 7.9949058117141405, -3.0915163271674215, -7.982617800658936, -2.7234475778133542, -4.953413635881146, -0.09086039178595867, -3.0232973980200897, 9.293046118131917, 5.822909094947398, -3.5248933369306563, 0.77934231889691, 4.509510698755852, -5.51194493719058, -6.591806557304244, 2.4235447385072586, 0.3292462951792965, -0.18791022038453664, -3.1076142317001434, 0.6760406018010855, 2.964168445026002, 1.2705156272694218, -3.383194635267048, 0.4498026197406633, 3.907048191526122, -2.9116340372004963, 6.033952392322687], [-3.5601413291560706, 0.9544255547284366, 3.332991923533084, 5.367339457361724, -2.692445516752501, 3.571875829027254, -5.323001367114112, 3.5511784509174706, -4.273794938647737, 1.9966884891434002, -4.78242053509647, 8.186347818989987, 6.077477982035329, -2.287405979420975, -6.896200475929836, -1.6130726604185277, 2.733001383118558, 3.352731084432641, 1.9900110299605405, -7.541753751324384, 0.5054112212136737, 0.2841725689912791, -6.085983375265565, -2.1213816198067525, 2.7067223524167625, 1.5383369535571134, -2.2473685821080256, 1.1412623604703194, -5.6955248249374195, 5.196371441947749, -3.7310216162456578, 11.483126902887001, -2.33880389348271, 0.7958493752189313, 0.4874069166004217, -5.5048076415269955, 0.623550191581451, -3.247080592537915, -1.7118296697744797, 1.7394947343255558, -4.846256061083999, -0.925558753726065, -0.7980184776959045, 2.632173813182783, -3.4976233723676056, 3.546858331437255, 2.4607192958176465, 0.8850849636823376, 1.3619957719122064, 0.0909692085922762], [-7.854273721985988, 2.3843132927952038, 4.001279594912348, 3.3269537224113384, -0.6194135564649619, 1.5780992845793043, -3.18572675973018, -1.8326174772181552, -3.56055123245411, 0.6776708841073533, -0.7406544182526711, 2.4040824064725124, 3.449878452862096, -2.1778222285867037, 2.903319334228584, -1.0180032016720622, -4.074977312008206, -1.3219739452962807, -1.3466394638723547, 1.2900539919607077, 2.6606724316735435, -4.660939494042758, -3.506435616169415, -3.7325055344861826, 2.152635254009397, 5.477921221607314, 4.429960814536332, -3.4740691597206808, -0.7817465714735797, -3.299483501593789, 3.53081498335277, -3.1062540953093114, -1.5689842005895003, -0.779316248680359, -13.232266916124775, 5.093599503461295, 0.6884154576906625, 0.7120447102342533, 1.5825833207090323, 1.243364595878174, 1.5924480889032715, -1.7894901685135827, -0.20748837992507196, -0.44687390202873734, -2.187204795430563, 0.44113243691491855, -1.515310052375197, 15.194720729070601, -1.2159833198667147, 0.794940977764145], [-9.356747778090368, 11.290587813194703, -5.738035216285668, 3.973256937063926, -11.702750664274799, -0.7863780344020571, 3.997564933049954, -6.807598072304228, 4.8685512186568785, 0.3556414271013669, -0.34492676726762594, 4.411065698362605, -0.5825511472705472, -8.611622810235286, -8.387657906505657, 1.2392630306674535, -2.781608375356662, 2.457154277016902, 4.0273578893453355, 0.9252785544273812, -0.269457637452476, -2.2554644134151287, 2.4312435143170292, 1.3432870764027411, -0.7688368008951908, -6.846250316992679, -2.3171219650902, 0.010759995071653261, -0.5527095632235539, -1.7633250341230329, -0.6466752573281063, -7.99111706345847, 8.656854748229602, 2.7646941006933563, -9.996558426791822, -0.5690884860851929, 4.542793618791234, 2.6488901099705897, 0.35897789977461847, 8.149542195959409, -2.385940649911121, -0.25558852225469186, 2.35583555705599, 6.4786052571009565, 0.02274868820966003, -6.912500553894822, -2.7205580990459857, 3.1007569467390135, 0.38232160725868536, -0.6172843046630482], [-7.5097486752474145, -10.077605228335504, -5.579583901971594, 4.2427972327602745, -2.824180323190025, -2.5380172360873727, -3.4682343383789394, 3.658506280252153, -0.19572317458328392, 0.9540231091653077, -12.86660777936931, -1.9742701154835158, -1.475424998870857, 7.093642315359604, 1.2374276754126012, -3.645050731448941, -0.8821532010125527, -0.8396613207343294, 4.961680501020842, -5.540621587454568, 5.418043592965432, -3.542644802567919, 2.552748539605372, 1.0862118813907164, -4.6754271072853015, 3.1393766877561857, -2.682849818745381, 1.4388682491927862, -2.1537004132238278, 2.8196102927865274, 9.79440011897392, -2.677787726299431, -3.3194977575382723, 2.0232296085451735, 6.626553960081149, -2.4064090193069965, -3.852688673840621, -1.0390835912074374, 5.458938805777424, 0.5092032125681727, -4.640836666283372, 8.5429331942991, 10.129631402361019, -0.11660976372637982, 6.305622867786848, -5.298905490681701, -4.201293191085068, -7.125334761391913, -1.5802989945130523, -2.9812330486513297], [1.7558001632594396, -5.84337749027422, -1.779694174805591, -12.648323141373258, 1.0232666613850658, -5.087651094294416, -2.0808411915678415, 2.6351170804967645, 3.0240720537109693, 4.603232075560681, 3.5754596088022472, 4.550752370883087, -6.601818880135624, -0.9817451531854426, 0.22236678660009668, 5.712113961660099, -0.2188270224524601, 7.125820789596732, -4.789365217616624, 0.9008689380267023, 1.5976762548092776, 3.179921043903356, 1.165279664012631, -6.0644124500736085, 2.7178748908537673, 0.631138128673518, 2.0389231317389784, 2.284671534904359, -0.2287297551461902, 1.1725557092109369, -4.936201740713071, -1.665683836789084, 1.694699163074445, 6.93380407693869, 1.2554480790088585, 0.43936302075249484, -2.808469865223133, -4.742918085846744, -3.667607346927116, 3.3449144901842205, 6.436924252742421, -0.4979924608442494, 7.0911362271884375, -2.1125995394946466, 6.5017189991879425, 0.034515379291109816, -2.5823343661672555, 2.0537956743689567, 9.69649582924591, -3.005165362950644], [0.1469239899411447, -8.458968808751019, 4.446327226695093, 2.686380144165073, -10.471184442286997, 0.3406072212821023, -8.176829939012714, -2.1285545936914745, -5.834792992710964, 2.258288789319203, 1.6835687533957069, 5.934185493121332, -5.744542165907321, -1.3612414310598488, 4.506492240376331, -0.9921407862711304, 0.8171523385564958, 6.0155822636764045, 0.3014778845399568, -0.6821765175487113, -5.632209114658597, -0.17179416898743005, -2.838271964886637, 1.6548770892486664, -3.202296186775782, -1.5501620033917705, 6.027336502776057, 5.397336529819187, -5.8232869870604205, -0.8199227357715486, -3.4857837496966435, 1.8947331249753177, -3.158214249668881, 1.852502522935474, 0.5119864424413525, -0.7214756065077905, 2.928151620616889, -4.930078084541394, -2.4065755877752086, 3.3773402821681078, 2.3911897911022657, 3.6878003189174393, 2.367367643932254, 0.45805392689566854, 1.9626180597905147, -0.37983838483973487, -5.030121341574792, -6.184881260423298, -1.2790541420795598, -1.6849524599016457], [-2.2328980634927014, 2.5734581502357146, -4.097900194014423, -4.36231725636733, 0.031498601497634615, 5.288236081421958, -7.163688643302847, 0.4942956554721074, -0.2438745587060545, -0.1767677183124192, -8.929381110940174, -5.553457540050207, -1.2094099278705852, -0.3011208636475375, 1.521528280316334, -2.2414197409173826, 3.720130921272507, 3.9646010911875518, 3.539643749849948, -0.050531807670606055, -1.5276802945149972, -0.9999715515756353, 0.7052723842706337, 1.3263383568287563, 6.115358503813204, 4.283087117263262, -5.838801352095965, 1.6930854837946814, 1.9069976227594363, 1.6781756237896746, -1.4997858967546238, -3.055498151256238, 5.593909556726382, 3.5387519732302697, -5.939921996413849, -6.054673618370541, 5.449251490559542, -3.5569068781400732, 2.048279383520537, -5.2345623569231705, 2.7802125197435665, -0.5585387020619605, -0.7524115645793096, -6.565779440834528, -0.8983539647182349, -3.7506532884237616, 5.621403655454802, 0.9650633772123491, 3.713659604864316, 5.6885082940849445], [-3.7620189115018414, 0.603500110677276, 6.805435447334171, -5.010354683305119, -3.992282901576357, 1.5401026083349145, -0.6375762006286023, 7.287497539254567, 1.999026573629044, -5.568256280745024, 2.088941342537022, -0.5565243320521527, -4.157365643201239, 2.351937850632308, -6.103200915254301, -3.675177146442057, 1.317258668168487, 0.7506436137087329, 3.3962016042517473, -4.704465275906086, 1.0634549979131813, 0.1288812295505941, -2.2950926840329906, 2.6386946835490903, -3.7033820688264596, -2.6271220286406685, -2.212699565989654, 1.8291806779999398, -1.2879893326920229, -2.763600695527618, -0.11191688121504983, -3.262682772078376, -2.4835101022352553, 3.3135259902357186, -7.136318989726634, -0.24429212908076342, -1.7155609401860765, 5.083747789599288, 4.5181652864512625, -0.33461049526312153, -4.3079012170643995, 3.7128409178262514, 9.389030429160448, -1.0699704667698047, -2.834761339545641, 5.183300103812478, 6.194855967057372, -6.512047955020293, -1.9329730359664077, 0.2531341817194075], [-0.12314676592475954, 4.352796692251891, 4.654166178535855, 8.472449733243355, 7.566007795435205, 3.9018471884597687, -1.3166150140725974, 0.008214675572197905, 1.998303198440155, -8.471232758600957, 1.9900786565885065, -2.992534845392827, -1.73763941533903, -2.6934983107238004, -4.127159254861798, 4.299120093564136, 6.779320462302776, -0.5465234775650676, -1.6813339413052864, 5.94511204260617, 5.222986195547261, 4.648729875734033, -0.39983504222272503, -6.295675884404577, -8.934580185585048, -8.560828259467753, -3.325598099430936, -1.4593838373956096, 3.3542790943144842, -9.592225862345641, -4.774047078241029, -1.626773338103065, -0.18408136032353084, -0.006151937416587788, -5.353675469404342, -3.1957499599640204, -1.7926832212315966, -0.3583210786864581, -0.8316469962302706, -5.6893094990510455, -6.572280521120291, 0.6806711043091889, -4.707964413874938, 9.775787558504822, -0.681487107031308, 2.6343737888484893, -1.3320216793302995, -1.1980263898389247, 0.3985080693134033, -0.7747324912347258], [-0.16232059578723146, -0.19624015678743262, 4.546711068408982, -9.719089164793719, 1.0405069153635162, -8.93163372758287, -1.3253894435150284, -3.695318221784932, 5.439048207990679, 6.23042605105848, 1.791409603229983, 7.864418133340216, -2.6906193050333695, 1.2792765180638215, 9.475847826998267, -1.4554393462499378, -2.2593191148819303, -3.550566612203258, -5.555954815118821, 5.977904190028535, -4.821704386448039, -1.5885848188558838, -3.679526685658688, 1.8817708066242338, -3.211067731778823, -0.4481591286935353, -5.218462707378767, 1.500326577761629, -0.26625969931701876, -7.102245095544575, -3.1576564659238753, 3.0349914972989223, 5.137318591843147, 1.9591107772617962, 6.761716143594543, 6.401462761093847, -4.002648624672214, -1.5299682557410637, -0.41357195302048266, -0.6126224741558859, -0.27240990509395635, -4.54367354793238, 0.9992661559109026, -5.69211629616894, 0.6781260677296592, 0.7261368476364065, 0.9426572538068595, -5.464399744857722, 5.955606579074358, -3.085505118372238], [1.3012401494459374, -0.09662611713884994, -3.7340724327081043, 0.8632621072764604, 0.0602004591706502, -2.6528550530721784, -0.650711296832936, -5.408800571607654, 0.7580343798960363, 0.12137839030714306, -0.7023232633873572, -2.2891693029831215, -5.637641821302112, 2.6478183284146817, -4.191381298546918, 1.8342186932344084, -1.2198601526233237, 4.456066788512414, 7.068307091419289, 3.7805128507209305, 7.141053814858794, -1.7936685323400665, -1.5901874438345744, -2.0232910930950254, 3.3587598302280917, 2.3000066327043323, -0.04736535521362395, 1.146938154694885, -3.6314008068274797, -4.918635580578154, -9.115951603397182, -4.659075021667003, 0.035557596134287106, -3.0937422425463215, 3.3979879813083196, -2.3095027848915515, 1.1221345830174165, 0.8517763605625426, -2.514283047770601, 3.6850223493452487, 2.6836131913975967, 0.8808257848830332, 2.4194822739051633, 6.93608262826812, -4.872663681870062, 0.24800458449149287, -8.368634343547862, -3.824971386161091, -7.6195627726794175, -0.1500971475172066], [-2.8490608004692684, 3.028190644193123, -9.14274486272214, -4.04406525202894, 5.64310244980705, -5.632781480842006, -6.103773197235588, 0.6989241609535588, -1.83101392920669, 1.2773062937977688, -3.2703590109552825, 4.3605302127714625, -1.488082361860856, -3.1685658003281425, 1.6768630268662166, -2.5085119556724087, 0.6533358101811076, -9.723503911777511, -2.453382276927438, -1.7895799601999238, -3.7838371886294806, 4.234366008765221, -4.705392299296115, 1.3852428889045376, -2.058560042115668, -2.8195034722559864, -1.0545032609546738, -2.836685032557277, 3.8454740331466404, 1.584139211935079, -0.1345607489674775, -3.9750769355424715, -1.209664951830958, 8.10876002572013, 0.6859659105554083, 3.883240179398623, 6.108744525510931, 3.093682145528428, 0.4548879640087838, -0.5121734093674704, -1.7840760860625537, -3.1215728137282266, -2.695303785639701, -3.8108830716418742, 0.49780921272898815, -12.494758428849696, 3.4616707509652103, 8.136403609478384, -5.540999955209996, -1.428112600589766], [-2.4545639055306894, -8.610596403321992, 4.232257269100609, -4.391164744724202, -0.05618469012369498, -3.3335431238672397, 1.4814253938012147, -0.1141011151785658, -7.937349356807957, 2.715310197431285, 1.1372650686292676, -5.3253122181207, 3.527131092769681, 7.20363379657838, 7.858504006642377, -10.728924033498926, 1.0062450635901297, -6.487868998631512, 1.6067454737972426, 4.781695916494332, -0.3615390126950732, 5.656750006335899, -1.7259763012549414, -7.438603819432031, -1.0081225776146807, -2.2525471427186137, 4.032188100197934, -6.01076862541026, -1.3891463832021764, 3.1474242457791037, 0.5103290932512807, 3.1142449409948756, 1.17727382134317, -10.329282743557673, 5.827201779091624, -10.509565865895736, -2.0331717655735186, -2.4623322805194046, -5.4551598678069215, -5.291319245353069, -0.40439265439611605, 2.030305030552277, 1.9773335823391072, 0.8422533871484377, 4.616589915244361, -4.6771547039009915, -2.988780579177564, 2.130798538153986, 2.888821909534357, -0.5856373815720153], [-5.441413277779141, -3.8204061995707157, 2.5096984779684894, 9.023382392817318, -3.397940423692368, 10.560900695894231, -5.274799730520403, 0.9455323021662954, -3.7343751523594433, 1.802780313949076, -2.2759257469386887, 4.141966183370381, -2.5974744817308335, 1.4790222944265865, -1.823640333193322, -0.9863428660939966, 4.2621334746090405, -3.2852965246518773, 4.446125552272927, -1.885495586180285, -0.7675848219980832, -4.432879193050364, 0.9343857364535325, -2.2022355875652986, 2.8949361679954673, 2.732205763868307, -1.652084874183108, -1.443827604299693, -1.877224599925838, -1.9614919607532466, -0.6314828210045502, -1.0848644524948832, -1.8849525233738502, -2.824232655497271, 6.272379694453797, -1.4792747163857667, 3.685843405668598, 5.4358388119332615, -7.072202385993841, -10.935443455639463, -4.353811415205034, 1.8852486109880175, -1.3523158724350184, -1.5506158637547407, -2.4130840106454063, 6.5902822314726714, 0.7598989236045388, -3.382895142987643, -0.3748659577055951, -5.324396812399939], [-0.6265671786440166, -0.42147934739934056, 2.3027698703464785, -0.5929040572601185, 3.330652031662596, -0.8369355586808125, 0.9480292880397173, 2.4594908090290906, -6.226522744222474, -2.327337872289279, -0.5805046568403618, -6.947872017209581, -2.383940096888658, 4.202443619670923, -5.06356661117247, -0.040339972156776094, 0.05230350091854946, -6.568678509150784, -0.5944256688169474, 6.02011664478162, 0.1786586659374989, -4.581005471405177, -1.4018886082730484, -1.74271338213266, 4.919282594950394, -0.8306449099723292, -4.09365136278002, 0.603988336760993, -0.8804911441082833, 0.6919972572861683, 4.717880274767865, -2.5466065698212805, 4.693564456341217, -5.444508370574082, 2.1890121335081822, -0.06894250875907038, -2.007186808199572, 4.653147328622174, 0.9677515182748893, -3.7986122167705165, 2.6171242196002633, 4.384288848197129, -0.833755445130394, 0.11594567397631017, -2.602750272694747, -1.718568530025733, 1.7184143363034505, -0.5545779668358373, 2.046944031327495, 2.117969480350893], [5.974185400620694, -4.836398005907449, 0.6303351266203794, -0.32652189319464076, -0.358286750677694, -1.4752467475786917, -1.664810917143388, 5.7990182157126515, -2.147287728249733, 0.728391465381375, 0.42100322880509194, 0.23826724004541944, -4.4009171085529815, 3.3885165216233646, 3.2967341398401144, -6.7816601117220845, -0.46979605353654197, -1.9621762917885448, 1.605991413316422, 4.286386847405967, -0.24795415857347047, -7.813496566116987, 2.017763614629252, 1.6129574948825058, -5.478453941210521, 1.9282710936990606, 8.33810758015997, -9.864441307685686, 3.7354708448207234, 0.35560108345006847, -0.7374548953998199, -10.882029777076394, -2.6600578557318766, 1.6546789130147266, -3.7867701753377703, 1.150755173629565, 2.432817479681975, 4.592166754606693, -4.261016094297292, -1.9114734565278457, 1.254789482204937, -0.787155697234192, -2.144218983170143, 3.2274546832340136, -0.32740266507446175, -1.321128526474402, 1.1508807838036446, 1.7162401770430697, -0.3102049690543419, -1.8563842494072311], [-3.6734354060861683, -6.130305912536431, 0.14673541923676292, -1.1238591057825014, 0.16102079130162855, -3.8650267973312893, 3.1473667953487454, 3.943331821882864, 1.5872904938318761, -2.40495627813984, 2.4409887934193457, -0.4095041918841532, -0.1220255023330333, 1.1423355070334096, -0.9631905520313069, -1.9828867150746252, -3.6627699168465515, 2.0974608814441873, -2.382059106339797, -2.6607265638546598, -4.86244180902648, 0.9740603424755068, 5.292139641939612, 0.5340950237856958, 2.4346733503461606, 2.2142823690793834, 4.102538610055956, 1.323463860495926, -3.560169202090864, 2.2644426339021964, -2.9370342917543724, 0.30518083303989063, -1.665173091959173, -5.360717065334992, -5.103565524709361, -0.1833394482230422, -8.097743858584154, 1.0729153700724947, -15.101124767078268, 7.997593573901127, -1.9904043653342944, -3.1703885315940186, 5.619843019879678, 1.6876240996482537, 4.693255313992386, -2.5316738865958, 5.719074270226759, -1.411108390816619, 0.8235158317603972, -3.6440440725831276], [-2.76659055469359, 5.945187062257536, 0.7377009973525275, -3.269040432391255, -3.9917237545643234, 1.4354415123319573, 7.1072326610195855, -1.908240727959064, -5.3546307128538775, -4.778124057569528, -2.5298057482106078, -1.672120211929494, 1.201389432810967, 1.8829962456987914, 0.012744872831788823, -3.986560142704482, 5.696437645193681, 0.19060378013460566, 4.559941260145374, -2.7323464330662226, 4.584878759279814, 6.885404337437596, 0.8642455268841229, -4.5894875937159325, -4.3544375052504, -0.038946496940242686, -6.764674855267663, -6.773920906725389, -1.614956102211359, -0.776618649404959, -1.427986707980584, 2.1063884096249024, 8.547678255934185, -3.1001367449203094, -1.8846939030568521, 0.46303779458136185, -1.815954695260672, -7.573492046588345, 2.829228967675393, 5.078602581447716, 0.2729392649911353, -4.09268444728427, 3.7390999143439148, -0.38055577257921125, -6.843095572729013, 2.077051119584713, 6.14782715198573, 2.2409198099235037, -1.9182857476352744, -5.860327260672292], [5.8274537540469655, 1.4635834445244131, -3.586339695998404, -1.3845718448310322, -0.5166445887367623, -2.863861493080412, 4.164090856873146, 1.3990747553327845, 8.230504157508037, -7.2485119183754305, -1.0633612200884546, -6.009083988002163, 2.1260328114935714, 0.8593294301135408, 0.6008662656353683, 0.9755724571766302, 0.0531459390542417, -2.142993240877261, 3.4052246426321, -9.065477711228775, -4.058887406738431, -6.3924826938848565, 2.956835120839224, 2.5583646331205636, 9.557767398810102, -3.4445161444177765, 3.9944347035757675, -0.3573638835023021, -2.031846946555299, 0.7086617763603686, 3.412027114134669, 1.1965282136364306, 1.9240343385185423, 3.7717242248476843, -0.06261402923555412, -4.459468061948402, -2.084042409392345, 0.8175508526009783, -3.585123535910924, -1.4134052184643129, -1.920574712157664, 2.748815692164711, -5.56142300975434, 0.806068627553518, 1.1291119830181333, 1.7825601458594562, 1.6901401214278051, 3.275466095897183, 5.057638356593354, 6.754095397438058], [8.68508413202575, -4.8091327749575195, -0.9138296873456583, 0.3663398106261982, -0.518255919162586, 2.715313673352708, 2.7898380312317252, -0.41013065741943255, -4.022789550060438, -6.446791972346993, -0.13991446962485588, 3.1333857049173734, 2.7284453708096184, -0.8651699041866727, -1.1625607077800122, -6.575448039854984, -2.2543185786678372, -3.147905990991293, -10.280644417481929, -7.220963916632088, 3.534535065983452, -1.8778423663615298, 3.0748674459490832, -3.2051968029116975, 7.538017388004311, 0.3483039372963268, 1.859868873080979, -2.249139058250073, -2.5615281083116828, -4.346078501059431, -2.9888504109066143, 3.956267630829526, 0.09014660523732615, 7.1630331981383675, 3.4894376084693657, -4.206931685174945, -1.7889318124927207, -4.072889398762789, 0.7635560238840278, 0.776197497650181, 9.494287702160152, -1.7009694134816835, -1.7029818381148885, -1.078642617062717, -3.526784943621216, 2.903522803690785, 0.45708145401411293, 0.7659305019600404, -7.44110520150998, 2.41074677830679], [4.906807363369071, -0.7900557907764874, -0.9604686810454057, -0.3663460052268469, 3.678473538620096, 1.402030936823187, 2.7334897122654738, -2.0763309229996696, -0.930931810062622, 2.6479005870071544, -1.1978087376930784, 1.044222865449993, 1.0595508415349646, -4.445729801309551, -1.913817901485004, 3.1255181242130816, 0.7051198895324717, -0.7922011030598599, -4.474946273406328, 4.389915044143825, 5.280200502730413, 3.7649764146350577, 4.008610564111408, 1.1364969946333738, 0.5266466307730351, -4.441636887647347, -2.7313271547994766, -2.019345612646886, 1.5948707445863164, -1.5957524308494762, 1.6536820757507347, -3.034125404755695, 1.1013452534913108, -0.4963432152861613, -3.3637206961959114, 1.1441530381080152, -0.7676158326246003, 1.215959327029588, -3.028677284715017, 1.8543833582093696, 0.7121026590901209, 1.2375573848704269, 1.1508396426457899, -10.131549170254148, -1.1460609713939445, 6.514955740371988, -0.1903476993113491, 3.1518341940797687, -3.893121347890209, 1.2386423064788483]], "bias": [[5.953148194652357], [1.2761505805868363], [-5.307953107489513], [-2.4983894600262615], [-2.48742773484296], [5.039916616487241], [-2.3240944048746672], [-4.444373757493737], [3.7900049164816596], [0.9358884739610055], [3.3739171579466447], [-1.0924268907548684], [6.59559851245681], [0.014345688389694106], [0.9503911219679729], [4.0927050905447055], [-2.3926762523270275], [-1.8775674856885993], [0.6572733892145733], [0.6317592305500369], [-1.9291253510155686], [-2.9546835943019225], [-9.932327894978776], [3.7826693526877695], [4.054011111176746], [-6.343843273178697], [-3.1456084694416893], [0.17213485505966608], [-9.76095113580016], [7.967314597389521], [1.6547826855711212], [0.43282059999063993], [-5.454722010119145], [3.030650864533521], [9.074806941035117], [-2.9145847221768197], [4.6889004866238775], [4.811525745626544], [5.408164333104229], [-2.4988259911251296], [2.5853872216964353], [-3.205121603347134], [-4.237557883609738], [-2.4010754786037256], [-1.4405481739323975], [-1.5368808353394936], [-5.828763947047916], [-1.733519756170461], [-1.9978107757688957], [-8.435637926646653]]}, {"layer": "activation", "activation": "relu", "activation_prime": "relu"}, {"layer": "dense", "input_size": 50, "output_size": 4, "weights": [[-4.735637467273216, -0.9313151902624711, -2.3725027405618633, 1.919853775839156, 1.1899638192042716, 5.186726153952689, 3.1740449563540363, 8.023639431963794, -5.4138577162492725, 7.595255627486751, 5.265568609597741, -2.5026399897972746, -6.607704888208282, -12.5452239197216, -10.26545179887387, 0.15535384998577184, -1.0810574212005108, 1.701833865892358, -0.2894720208871674, 3.1748008144189903, 1.986673051466679, -7.628063401560342, 1.2404620032194362, 5.434514832282499, -1.4190356575188128, -0.4667182051948273, -2.71722794121027, 8.497852630342384, -8.347319903220916, -2.575641944841289, 1.3394111681915746, 3.6458471186567234, -7.1251702894396844, -4.939858356386805, -2.4065593510252428, 1.0633552307312564, 1.346048841399731, -4.493465230927861, -2.039013377967173, 4.1417214732727, -3.955926625759304, 2.4185992928055295, -0.5337167453580577, 0.13739782971279157, -4.665970309667761, 2.892830018720816, 1.6711578354340022, -7.018953340267767, -9.18374030295806, 0.8854690759337196], [1.5661854417379395, -1.1636282732036012, 3.2487282429321507, -9.150872232443131, -1.5582699363042611, -0.040115788273529684, -2.9543653045192007, 2.5333770455091, 8.005788788499006, 0.5107335661038449, 5.127505674467488, -0.32992303154550756, -7.998776081532463, 2.3455682585537696, 2.4729079179259132, -1.9285499744495067, -1.759627997717927, -9.924420815589787, -3.7382066626731607, -1.8795896092860862, 0.0055262690888053245, -0.47364551116885995, -2.6924712212973385, 0.9222658316930423, 1.9276195358182022, 0.05679090025487277, 7.134463386735771, -2.1228266496990056, 7.35532553735264, -6.984478095127934, 0.8873862527457699, -0.09404154529584052, 6.0107385943164395, 15.63639333200882, 0.007226078264172736, 0.037372370208196615, 1.7536529567637398, -9.147753031814425, -0.3134185742806732, 3.151755288490588, -0.5816974856446033, 4.808030226495249, -2.8143451010769853, 1.2075620118904165, -1.555164923973876, -1.0965123584349414, -3.2377276943234445, -4.153054892556971, -2.3266460398364393, 1.4005269421909317], [-1.1143909810533015, -4.924604468140747, 4.6555541499771875, -10.137961004028703, -0.6097550782137415, 4.880241545059715, -1.229150500132302, -5.360512526510866, 2.419832020289948, -3.141885030865762, 1.459577007158245, 3.909151960021714, 2.7352988698216256, 5.30421989199913, -4.885622477003462, 2.4331508295503674, -1.3945886229321298, -1.8601413011020078, -6.519964179386105, -1.4458514425873978, 3.331459483337416, 1.262805408557151, -1.0067528440183313, 1.1214673181687438, -1.6275714383038464, -0.5297440152063834, 1.643557560457967, -6.616236018616821, -0.2699821404570385, 8.823884539078296, 2.6411407115787586, -2.998053984143206, -13.39341337870914, -1.0474658535875832, 14.867047714392955, -0.9281313457283988, -6.613064756630271, -5.729689738070487, -0.30724034939351785, 3.302475342579897, 5.523380181459997, 5.3028271473812545, 5.995115767662423, 1.4351339768492892, 4.773388969487324, -5.17356972749147, -8.03242948135385, -7.244388437424273, -6.365444005333493, -3.229698544191325], [-0.3915066342488758, 5.948015924619316, 0.3541040645725574, 1.290451918709518, 0.15273175978852094, -7.088912592835006, 1.6751887351131352, -2.6663974478573356, -7.3167040425270695, -4.485551609959128, -4.087132807138185, -1.0346690369878757, 2.069169708802313, 0.25862892408884086, -0.8057387637092314, -8.541060820754524, -1.8644280373514877, 5.813393024157757, 4.685197877944268, 2.4390121988256865, -3.39490659624288, 1.8207644734538164, -6.065478165798896, 1.7908095117955811, -4.704932073921743, 4.966119566521082, -2.974585298459422, -1.7670112818155501, -2.6068011745059474, -3.667291824238759, -6.933679637315777, -2.475678547715537, -2.9265943506592005, 0.24267366427240555, -8.907408826893013, 8.170080730303537, -1.393801874583265, -9.491786599690533, -6.983389172247313, 3.2680547777604643, -4.4964843394088465, -4.050084692382084, -0.7380490615813091, -1.9542892252511788, -2.0132240869036306, -2.8516437631893905, -8.579702407917855, 6.921838832889981, 7.15985063816991, -7.939778951706312]], "bias": [[1.1997331280354004], [-0.9927407624504608], [1.913511065005197], [-0.525465244695279]]}, {"layer": "activation", "activation": "sigmoid", "activation_prime": "sigmoid"}]}