{"generation": 33, "board_size": 10, "snake_size": 3, "input_direction_count": 4, "apple_return_type": "boolean", "segment_return_type": "boolean", "distance_function": "chebyshev_distance", "network": [{"layer": "dense", "input_size": 14, "output_size": 18, "weights": [[0.5281452019231789, -1.447166506867553, 0.19151421021964465, -1.8779494163322425, 0.7278983080269843, 2.465009164362646, 0.46046142121449635, 1.8022821625333627, -0.7245589145429585, -0.4803359105712355, -0.22645963364780786, -2.385823642768001, -1.070398752323582, -1.100425386956893], [2.0369397693305853, -0.6285818254399489, 1.1157652678696057, -3.4932722304146147, -1.2914285375994776, -0.019108006624283608, 0.11373639754233378, -0.1837149249442176, -1.0578353589787608, 0.1548313959235319, -0.938685843783697, -0.28828269953546903, -1.7851650438605529, -0.7701272376479932], [-1.4057771754608628, 1.803446698288718, -2.992175038950693, -0.5622929184214774, 0.7928142144988353, 0.6321217229085214, 0.5193743040326309, -1.0937292624206638, 0.2183320599054166, 0.7919278962751795, -0.21300344126738208, 0.9653990106965027, 0.04621233095841785, -0.09396540696954037], [0.8795727299059046, -0.6161623212498197, 0.44016890056610625, 0.6785962847786742, 0.5010256820709323, -0.778537355171104, -0.3112861312781483, -1.2524475934905233, -0.7756893407696435, -1.1038150873059052, -1.6826319848621676, 0.675138777267771, -1.4384702534109284, -1.8835901649339006], [1.1508011061489953, -1.339842339472096, 0.4333403613980753, -2.3568270267646523, -1.4053468325225613, -1.2150061081381984, -0.6906098237555727, 1.5146367407259504, 0.7986600714246888, 0.34937873047942825, -1.198758672518075, -0.6498347780340399, 0.29428355516278454, -0.8266152425128752], [-2.0234973888246084, 0.9913839563301826, -0.550451822778672, 4.916785180194376, -0.990403836725505, 0.9371665014809405, 1.750484157816773, 0.8156543382177539, 0.06513320448592297, -0.37728976079627063, -2.0778643406773023, -0.04379061078890789, 0.2736567902164124, -0.1724614616541237], [0.8628040514703867, 0.0607677057373035, 1.4152130022664422, 0.8213512746949051, -1.6670864902348252, -3.86518853434186, 2.2480700414385772, -1.8274856166860964, 0.48788871810338447, -1.0976555163153519, 0.05161359826306544, 0.7903447358249457, -0.026969352559054638, -0.7367816372288334], [0.7233625233704142, -1.7318208613243646, -1.7504082042021494, -0.006256086914489589, 0.5276428917122911, -0.35461596295989295, -0.28767674881570604, 1.906472313536969, -0.7570108706227452, -1.8927512761181913, -0.9772596576263641, 0.32419818412399026, 0.8460945338757109, 0.6693623295842148], [-1.2498454356600281, -0.7401979295366767, -0.5815106290216601, -0.5193466065277867, 1.5115523430389395, 0.09158248207534969, 1.4807346449230856, 0.6575772340691324, 0.12577840426555947, -0.7240831138028796, -0.19770829764256415, 1.7757007847779815, 1.4742775972934519, 0.22555570314931894], [0.7192416747017842, -0.07685118159093651, -0.2630225852295824, 0.5423209700625521, -1.5299943797832636, -0.5113461702840297, -0.4967233455850589, 1.607250496472112, 1.0749260679649093, 1.0798985873411764, -1.0838101395728637, 0.6226775578235233, 0.3688674494911107, 0.08253865807044854], [0.24855919240576885, -0.4472907710773515, 0.039082778502743665, -3.076900278746512, -1.1481682943607923, 0.9894073778744832, -0.14015868068456405, 0.8840279999680274, -0.814524361235204, -0.15715802348378394, -1.2283835533900969, -0.6017825231551116, -1.215303610140079, 0.30068176355755893], [-0.6840093085722887, 0.2824379208680954, -0.5371845061541496, -0.4859899183605545, -0.19820714714570853, -0.630158646443413, -0.4034604260831651, 2.0692140946963233, -0.3857303959068138, 1.3498905455789565, 0.6252563664531254, -1.453318172327635, 0.974802765916476, -3.2930994985854536], [-0.04448575558079493, 0.263982382759691, -0.36795138858172904, 0.33769587080800667, 4.603447011286336, -0.9136063164725061, -0.7233516068079474, -1.2025703020401985, -0.22886844291182107, -0.26232540475708993, 0.8766124240554968, 1.1769117063981265, -0.3989714089214682, -0.2713621351139941], [0.6716422784706528, 0.8033262078114833, 0.16464425797220028, 0.8064589244779489, -0.6148192461522753, -1.3874017406278116, 0.009607805207618725, 0.8726581680137176, -0.7386820311520006, 0.6384201885260088, 0.7120092131696821, 1.7772682114070306, 0.7626411361020726, -0.43207734596538194], [-2.337715818060986, -0.45508127500712203, -0.23004000333296182, -0.32671798152595344, -0.42338140481841124, -0.05654877951012294, 1.475969554473283, -0.4119318913572996, -0.17271959739782083, 0.9882658891546605, -0.006196797187651093, -0.7137955331523911, -1.495319493559033, -0.7341004677617939], [0.904469647150165, -1.4590583926614569, -0.3326180761320279, -2.273630861495519, 0.3971695449732109, 0.6943071676122758, 0.36341676277297297, -0.6069661074667576, 0.7339405798429641, -0.6441852493897877, 0.6626654068098625, 1.6817452994714568, -1.2523291834475923, -0.1434220206144623], [-3.1005342090515273, 1.3596793390692121, 0.8801292240576102, 0.5136464975585415, 0.8506991531523042, 0.07913881306206803, -0.8232528780267252, -0.27351353214570895, -0.016344851083169187, 0.897103960147581, 0.888739163366578, -0.21159470957715387, -0.9333182120869948, -1.0276177091626089], [-2.166005117817125, 0.5323001926876059, -0.7445977883506467, 0.07887948406393125, 1.3574707937465504, 0.9996414841852664, 0.5252059709351842, -1.8483038525936546, -0.11925450444981534, -0.6220074625368635, -0.164446714661308, -0.3659142016755149, -0.47128317491404315, 0.7883977547527132]], "bias": [[-0.548134158907462], [-0.5078323968711742], [0.06075185466755295], [-1.6276653748079426], [1.2439508515300017], [-0.40674101241621774], [0.46439639987063475], [-0.6295975106171514], [0.6954913340365867], [1.9245028578536714], [1.2914200324053715], [-0.9992123361456862], [-0.19548641821307938], [0.8807592001980245], [0.8067877245303858], [1.0752001170655259], [-1.3529770127429601], [1.4674816246410574]]}, {"layer": "activation", "activation": "relu", "activation_prime": "relu"}, {"layer": "dense", "input_size": 18, "output_size": 4, "weights": [[0.2909757861293675, -1.2994820009112034, 4.378909398241353, -0.4508860652911184, -0.7565287304858059, 0.50220530438675, -1.311264203340723, 1.579172977033207, 0.13970066425399075, 0.5218166917079639, 1.9026876652348845, -0.4955767969961493, -0.6946584507901887, -0.6783730199997688, -0.9004926488458809, -0.21866457190749433, 0.17025951467617395, 0.9227833075163048], [-0.9137918265072091, -0.35540460118683703, 0.6346692296038192, 4.037433309218301, -1.052760450704563, -1.5483280405257436, 0.8643312879104006, -3.6197443790583073, 2.8737143506319147, 0.6175227273069437, -0.8697953251739889, 0.5718109526462136, 2.57884983197416, -2.26467781287206, 0.5640198480809959, -0.08160608920575985, -0.06282671085137953, -0.9566350070272891], [0.4000349514176016, 0.4685457088336391, 0.08559305140875151, 1.3586249209117345, 0.7771057230778291, -0.704593263679711, 0.19242785253420625, 0.3244041330133618, 0.8936437999382147, -0.4941678204083532, 2.145118781735954, 0.7834064245507422, -1.5731413264466345, -0.7779940463184798, -2.054253189714401, -0.21721588499543437, -0.11810382272148479, -1.2634107909137253], [0.24989255421403778, -0.32799124391826173, -0.6921132420326763, 0.4468272123947247, -2.26939747659941, 0.7237906786761104, -0.1297632607357948, 0.15636135229122416, -0.4214114382807371, 0.5009328817023542, -0.5628694225509105, -0.10519467619946131, -1.6595228925870142, 0.20325394838359245, -1.6766199021287953, -1.5077894423362848, -1.408175775737683, 0.2060041866554273]], "bias": [[-0.4487610776016562], [0.06842474324529368], [2.317554630765274], [-0.22324988997092277]]}, {"layer": "activation", "activation": "sigmoid", "activation_prime": "sigmoid"}]}