{"generation": 433, "board_size": 10, "snake_size": 3, "input_direction_count": 8, "apple_return_type": "boolean", "segment_return_type": "distance", "network": [{"layer": "dense", "input_size": 26, "output_size": 26, "weights": [[-2.9628091891027504, 5.4098772530458685, -1.2488381712023477, 2.5406624777329263, -2.791110868685436, -1.33522943406152, 1.7770505824562688, -6.157940284846195, -0.744085196993618, 2.7287834333032377, -5.3899448137864105, -6.14364425386446, -3.186326863405185, 6.984847685385391, 5.0796086501322355, -0.19754560962300188, -0.7044336132723593, -9.79641253473077, 1.7793418064389983, 0.8857456849918097, 0.8529689348653169, 0.10953327456379094, 2.5383676324699365, 6.862085242551536, -2.935082079702585, -5.9722042098752155], [6.781310064123186, 5.39179316934081, -1.5631398214990688, -5.285086449595068, 6.262024242858891, -1.22511478061092, -4.936376666631367, 4.2190512104348805, -6.441037072416576, 2.0596986083811513, -1.6974406297054494, 0.37113756190430863, -1.0141555490224414, -1.6278720876318196, 9.918988598115345, -0.9073451851798017, 1.612232222847657, 3.394851049032185, -0.7220496974101528, 5.693235010750553, -6.495888584315352, -1.7632147445273565, -10.426951384142875, -4.310293955021823, 4.662830964274608, 3.3619879628908107], [0.7648755480319693, 3.3174213008275415, 3.5610812570090364, -1.2400419319431273, 13.045568999323558, -7.119149861777943, -11.443665008520126, -1.1911654727683794, 1.2174240437227148, 5.692830247801155, -6.813499058693915, 3.855781427320728, 5.267155217247927, 3.022216251723298, 9.40439348107597, -6.862483353757925, 1.5680177476955328, -1.0009936806703528, -1.3704192614739956, 4.967888483455175, 2.2564387094097125, 2.556297927815705, 1.7463478273220518, -5.226563116483179, 7.497440683368958, -3.7795432154014654], [-4.100529154283003, -0.4999705765957623, 3.5811030828460364, -8.848492873635008, 1.178723705746863, 1.3788431026518275, 0.9701813963668031, -4.212830576583604, 1.8431268227160995, 6.908704643930338, 2.1252123563695022, 5.069184828187893, -1.028516060478185, 3.060100308845911, 0.9770496630261575, -0.37863978958893096, 1.8489292577752277, -3.638828778637459, -3.981166774927645, -1.5656245797609432, 2.1521111093890735, -4.153612252334433, 2.6549440344709763, 2.7539289217347025, -1.2592965155945015, -1.6806709365694785], [-1.896784743717951, 1.8434714202911033, 0.26240846163570386, -9.987184862377788, -3.136343411874214, 0.33461220433817895, -5.280876350572271, -8.661519857861691, 7.989313393024061, -0.5254285036731188, 3.636602761346085, -4.5839736743466055, 0.644072333549221, -1.4413459496398613, 3.4402008039392054, -2.8584239962019575, 1.831472304736116, 1.9459368472778111, -11.429407119418805, 0.708643530263861, -1.1464823757389968, 4.24658922869371, -3.628861870626616, -7.633287026717383, -0.6098160023525248, 0.19498124814873607], [0.38168314696900096, -3.5745420306525877, 0.5658064143747343, 6.022380410976677, -0.8195051386430428, 7.845206971401862, -2.777129339427671, 4.685051870932602, 2.4741588707311344, -3.7752142588480337, 5.76652205003382, -7.773448196098362, -1.8135497816333772, 4.363824656850946, 0.7349561629906434, 6.139483646470238, 6.940674219479647, 5.1645372748100264, 2.80747007255024, 2.6080317074496633, 0.420051358441937, -1.554947865025389, 1.693235917061642, -2.7763120215172794, 4.448209811815582, 4.392560449914523], [3.206330758908625, -2.726342708761283, 1.7493959378655015, -16.302381205999776, 0.6059027989771999, -5.374687482174144, -3.7030711178024145, -2.432663634832207, 3.659093298540962, 6.474525381823703, -8.081471006890341, 4.52848518004286, 2.945598901842431, -2.8294424949927977, 1.0633956532900233, 1.4242507173957373, 2.7794932179360714, 0.433002475922053, 12.308446695942049, 4.3902737240392815, 2.7892400623671114, -2.6422641990330913, 3.0298813599178205, -0.24484773350111189, 5.137840554902171, 3.7598288097786545], [-4.462936843022166, 0.9262448854705012, -2.575540769054877, -1.7167352082009715, 1.5017598061743962, 3.7896828970165037, 5.009775743281397, 0.37365148707789986, 6.375067071437301, -5.711801012884139, 0.6028040515808276, -1.003268458022025, -4.361493314092073, 1.0384697399792668, -2.8225830593578802, -5.644802030123891, -6.951600140348889, 8.328352395134075, -7.550814970451035, 2.537272807654107, 1.1832568754128867, -3.3605720206846246, 2.411759830102598, -2.167772194854804, -1.5487977044386312, -5.753447385005852], [8.085397603829245, -3.101897928688017, 0.4972212118114284, -11.199158940115646, 5.0191641206875595, 1.8156025196839063, 6.186739765476165, -1.757216188543029, 0.42157156333978096, -6.434763715355046, 5.037928029341351, 8.024036149257569, 4.885391431566356, -2.747425505268744, 0.5557594687140879, 3.860946039834192, 2.568660780853721, -3.2813840946069006, 0.9205927212331368, -0.13227666783529524, -1.8440564000761857, -0.06318195359316459, -2.2545180586866245, -3.6674081202191617, 5.543353060223325, 2.066310445943908], [1.595962769552749, 3.2840759908825756, 6.326758134243088, -1.1164836644905103, 8.645013398693903, -7.063348648397236, -3.8872540716395965, 3.075899997509227, 0.43395450066947583, -1.5142516965005393, -3.8018180387869984, 11.468626358324903, -2.1172763236046346, -0.15935429133430862, 1.941412018663262, 1.8690743041436044, -1.037638439222422, -2.920158219187328, -4.377443410421167, 1.8241800900037082, 5.433926983964622, -9.211398419700597, 0.928667362891877, 4.143641792855512, 4.557221518956606, -1.3667255066993818], [6.9644366801647255, 2.3254377626812572, -0.5564174132330292, 2.2436682236965777, -0.6855646514008479, 1.5758942539407468, -6.607704504056109, -5.054977105683318, 0.5790365278912684, -5.484953965052004, -0.7524989774624112, -7.460370925114433, 3.8288104968607235, -2.417642526613445, -1.9807502614071282, 5.080374704779239, 5.590730084083671, -2.6889476539285937, -1.7135183305091752, -0.15720808039484258, -2.622177779269418, 2.6116341399091487, 6.212971875380748, -1.6359875853985975, 5.074031192798404, -3.831097599490183], [-12.95168855729794, 10.517806658209178, -19.600528012541275, 5.931293586819152, -1.267915191384715, 3.260799682871008, 9.587303176693815, -1.8033636905837047, 7.700834251425561, -4.842990130119118, -0.3876273850045304, -1.1821945751602598, -1.0453590959600625, 8.458227496016647, 0.496675172458771, -7.557104828281712, -6.220479924913294, 6.12680993969564, -0.33811521308583115, -2.6364665941342116, -3.1145303422133397, -2.488627204458477, -3.616312245041432, 3.617046542736013, -4.133794863907159, 9.824089641852007], [-7.731203310837375, 0.07575761204213594, 1.0360644976972857, -5.295050736074663, -4.443924463745732, 3.735934735606274, 3.6106997457693177, 1.3633308078282507, 7.437640833858464, -3.5526529478573314, -9.5063609669892, 8.366456570598022, -0.5441877993587728, -11.245418636908541, 2.1123124502014643, 4.523281803724938, -3.0122841209522835, 3.3732488713799174, -4.451526464319835, 4.555294332708079, -0.8829459500628776, -2.7168423154148442, -2.4454900737544514, -5.7498317690390355, 5.03176957721941, 7.520851281734408], [-1.7131009010285334, -3.669048908965763, -3.559805740241528, 7.937496498909159, -0.05958422910856376, 0.9052349917085867, -8.18285977056626, -0.7044696310074056, -7.305903572981979, 0.6936153023756408, -0.5222619284879519, 2.688656812827595, -3.1319374169918985, -6.194341554338915, 2.841276266210377, -1.4581883590343576, -0.5409128290761596, -4.511614576802912, 7.7746462985009, -0.8443881461406982, -0.39339381632192066, 5.768568971827866, 0.5693789615089291, 1.8289203755051044, 0.48357308367395924, -4.433167625568962], [-4.6988377798273255, 6.670032480701521, -5.132714702141321, 2.876448090997551, -6.47986358857208, -0.8405137760532447, 7.022164134789002, -3.5513588208394538, 3.7323849692424647, 3.722816367838395, 0.500531289152541, 1.0054076734358983, -4.81978675436302, 8.583592462431808, -0.24428465163885688, -2.819191757377917, 6.466851584967048, -3.146043434218801, 2.387362580014317, 1.5564511143996373, 5.563895557035756, -4.238041320018849, 2.721600003270913, 0.33707530711237, -2.5511381602926906, -1.772014066286281], [-3.336713502427684, -7.099287210279368, 2.305308917446905, -2.648370057455159, -0.26857913246166176, 10.027071118594197, -1.7571718564149208, 1.616185394446069, 1.3964391146211637, -6.611340136729142, 8.912557649802508, 1.1735628935736608, 1.6288057897324861, -3.5983412259982517, 1.8709484191028118, -5.305147154483466, -2.8177634676754035, 1.9385869442242256, -0.060729373071043535, 1.6743606961759792, -1.5616817498831002, -0.6504007019488831, 0.1248306116140725, 0.29696613193139326, 3.4453907636663317, 4.843722573390551], [-3.80506775027481, 1.0092277772426432, 2.3312142827758153, -11.651656309168674, -7.810239918715575, 4.310767133482373, 2.7155995127842627, -5.6710219713609415, -1.3241164238467371, 1.265748729192406, 4.865415024873581, -7.413291297669064, 4.3030004550262575, 0.6087974015586639, 9.112869919160978, -2.8719425386410613, -1.003890258235891, -7.220614497271847, 2.1760121411966646, -0.5602898824941163, 8.955281445219871, -0.808508679321196, -4.556486604253294, -2.0234062137175, -0.57983332856598, -2.702498372791161], [3.829278802344622, -3.3371360073391343, -0.6928860698421855, -4.104818491835317, 7.538140100905868, -8.352827051475256, 3.5965914202345184, 2.588836768785171, 1.0690607293245027, 6.085921910966741, 0.01626689644741164, 0.3440979872369967, 3.5337768129189335, -10.161501634914606, 3.756494123797331, -2.8029190203583325, 0.7200074707564053, 0.12175473407557169, -0.33330479269296565, -2.0479157637657295, 2.9209810395002047, 4.435994220573402, 3.8589022354530664, -1.3696006322100667, -2.43598290057181, -2.3394867156328867], [-7.32762749415347, 2.0306136141565894, -0.4973168570513016, 10.110435967865309, 0.3238684817938967, 1.1895704900660458, 0.7874646339164637, 0.6275030222858504, -8.69909402800759, 6.01581161590968, 2.3804335647528454, 2.8388909695677023, -0.310369534562716, 4.700907452199813, 6.069412402596788, -5.904598535803348, 1.7730427167503509, 6.1707271338203125, 7.8805608476905995, -4.5188086001584065, -2.4890920863716426, 0.691159933774999, 0.44855550757109414, -4.855497164785529, 3.03458673919668, 0.6798529049462773], [-10.281034218782741, 0.48165569974476585, -10.36508088821603, -0.5276748244592598, 1.245857137801707, -1.1924006707597028, 11.054337289649052, -2.1075907047215496, -3.6855596328833102, -7.83188556729868, 2.894727455426912, -0.757117462198974, -5.056256761597537, -7.394488109772674, 0.16159930596848682, 2.6255874284810714, -2.915135316779004, 0.01066938035278675, -2.571081095476221, 0.08002735071808109, 1.7737853054505248, 2.454285356649958, -4.357097844027368, 2.6654991098182776, -5.549588594178112, -0.5453408866320821], [3.8778644918706466, 1.6894415685813167, 0.7641242814167136, -1.8932249549948237, 0.024815779005698313, -0.2599804398361471, 3.8053657208383633, -4.110998935272251, 0.8911457453295093, 3.3430698620948007, -7.819941423257308, 0.4243589685342295, -1.8546375440317535, -9.797466134521011, -6.954950837974227, -0.5928177262144494, 2.400952423449613, 1.5358048739318648, -2.0915746299275346, -0.09825395201829218, -13.781310518396191, -5.4744199726084135, 6.45502561290158, 8.045620664636537, -1.178068866437953, -3.595388993641574], [3.696585810350129, 5.786266222032273, -1.1791416050273438, -1.189733906134034, -8.743271515933074, -1.388951849683901, -0.7261508729337347, 4.360793528550136, 0.1814478177886154, -1.355905894412269, 7.056850263126497, 0.12743740720982888, 0.24380164504333668, -1.7121684338675487, -5.010308440801717, 0.3630177223401556, 1.7150918402681876, 4.94692981001352, -0.5721894344091032, 2.2849334960036485, -0.2843290698418298, 4.46227314179211, -1.9261352414171875, 0.30865986968669223, -3.3464620135445706, -0.6069472399253809], [-2.3830652012781206, -0.16646352055638647, -0.8443271139970286, 4.25699967946713, 8.882554107375999, -7.2519882602109815, -5.824901053438726, -1.9490531731376657, 5.165051938853475, 0.8263981037859164, 1.4217205322362783, -4.128855613623927, 5.2767443225325605, -3.6403854740538435, 4.18279970969733, 4.22644751889862, -4.196024620226904, -1.9962473215606082, 5.845020109546502, -1.071885005811696, -0.9684251735146747, 4.113407619713724, 4.233421284258471, -5.442561001836235, 0.3406477929625505, -2.394875421310804], [0.8617098474811765, 4.470595155838952, -2.985232032628349, 3.666658038247445, 5.1381181067404835, -3.644063416928934, -0.22548924643807866, -2.1742077742897115, 1.344492569923032, 2.37084824245692, 3.8617096098906885, 0.6410029990467736, 4.933433745590736, -0.3307525383269012, -5.199091972989677, -0.5493811181131061, -1.2748970788926013, -2.1067724142007993, 5.580910874530714, 5.35157339662103, 0.19884940908172244, -2.9847938481025773, -0.7304282619619809, -4.698436209827067, -0.35403251429235294, -7.310214659007879], [3.582277385308768, 3.755744087118382, -6.886142254021166, 9.769155465975757, -0.2105578238377782, -3.2025349634505145, -5.58726033776226, 3.1493426198797208, -4.040789006352699, 3.9188353927933703, 0.17204532887518142, -0.34296556377377174, 4.514602611062289, 0.13111416212573862, 1.1059221489299478, 0.11892116703660202, 3.0354425434997574, -5.912910327913131, 5.151805627946317, 5.965979896952784, 4.239191527964234, -2.333551188062394, -4.179174714783928, -3.0187300700929685, 0.6784474095976722, 0.9558254501271132], [0.07100630336880953, 1.651840832529111, 10.657773624449579, 6.8110713304485895, -2.069146009325042, 4.856162623421177, 0.5234108748796439, -0.4655513549063904, 1.7696380801353162, -7.818191884405142, -4.355669204196296, -10.722678630771899, 3.7799955185065706, 1.0876432689968178, -3.0728323625535516, -4.6827423909330745, -2.4569404833797885, -2.0180601406204657, -2.1480158351147614, -4.381475282732477, -0.18260505706332752, 0.13456842984235107, 7.120641411454176, 9.493077202861638, -4.397425235323775, -3.353282143520083]], "bias": [[1.22493007794901], [1.0801485752633309], [1.5834518961603103], [-1.6873215789616918], [-6.0684435543104325], [1.424579119846833], [3.0627014677562068], [0.06191981078402442], [-5.354793758130091], [-1.4113313359502624], [1.857591557418231], [2.7654753318771763], [3.4614348966180786], [4.084464038613928], [-0.7997036698517398], [2.67738778732463], [3.9408536496672424], [-0.41403676334900663], [-0.6866234544693351], [-2.050372178932573], [-2.821940819787107], [0.9118444919096096], [-2.9347004872146227], [-0.48564494051153195], [-6.193866648476933], [3.2998486405642047]]}, {"layer": "activation", "activation": "relu", "activation_prime": "relu"}, {"layer": "dense", "input_size": 26, "output_size": 4, "weights": [[5.063563645284162, -5.596032031771273, -15.494950317432028, 3.2776792375058177, -6.39596388708173, -2.0639005846675573, -8.948997781216363, 6.726061270111192, -3.538631176927617, -11.166992969130499, -8.611186148754143, 10.386501491934224, -0.11820237842932801, 5.033618892339746, 7.4801280480960965, 3.6862559833909123, -1.9055659504853457, -6.034790342289345, -2.111458945515765, 7.651961222044674, 0.5006231478484481, -3.40398303228699, -0.9544522675150311, -1.270117609405563, -7.879938998910365, 0.9718869262021423], [-3.6952407782852204, 0.7102272276982381, 8.583856901472943, 6.931889682151268, -6.653101136616696, -6.716257214189535, 6.685995097641153, -2.0839259433311472, 2.806282652711627, 6.7499452674129605, -0.13942098721854412, 1.726423331366883, -0.8783575329526245, -8.753250689229219, -4.116470273253204, -1.0563164051429463, 0.8584092757685466, 1.8096870485221543, -3.483167358276811, -4.9298781688559075, 3.625885047783787, -2.94894788150373, -2.5404590527556272, 0.8620368509174686, -0.37715033859874747, -7.500852084047314], [-0.8885251358913029, 1.0410206810423088, -1.954118345599115, -4.414270276785111, -6.052417946209607, -2.8884870155701297, -3.356746420026588, 1.3800810626539435, -0.26502481913077647, -0.9949230698496785, 1.123269483399941, -1.6529987539554263, -11.015607515229915, 2.808743351683153, -0.18066111942304774, -7.838347539097707, -0.21626561073483713, -5.226931260027758, 1.5281274884670675, -10.797333808238736, -0.2921470800489049, 0.5325477532637364, 0.5644691469443412, -0.35629919490052303, 5.998238709618243, -2.2366739348755447], [-7.909805442753658, 2.289105928294812, -3.350504119780813, -3.092744814773278, 1.6243803409620001, 2.3979794031116, -4.228251972759355, 2.680344600156009, -2.5119487119515425, -1.0978239675038537, 6.289040165396815, -8.121283041859467, 0.4084049074865712, -0.5897284242544558, -2.5183515975540685, 0.9953197958757833, 6.052996793334688, -0.11823803072842165, -11.184233243804325, 6.282906062034064, 3.2331768551570623, 0.4172447160993965, -1.1242898888223452, -4.298166351553005, -5.2208057785104955, 5.527139654657235]], "bias": [[-5.4316603042387595], [3.7433860564352757], [0.4115504423568478], [-1.6079092115144977]]}, {"layer": "activation", "activation": "sigmoid", "activation_prime": "sigmoid"}]}