{"generation": 459, "board_size": 10, "snake_size": 3, "input_direction_count": 8, "apple_return_type": "boolean", "segment_return_type": "distance", "network": [{"layer": "dense", "input_size": 26, "output_size": 26, "weights": [[-7.085267807218525, 5.735734369135345, -2.972865752754079, 6.475843171722079, 7.193590419354972, -3.3976216120733733, 3.480511852112154, -6.157940284846195, -0.744085196993618, 4.272706979841976, -5.3899448137864105, -6.14364425386446, -0.8026819315660259, 3.4629365218972445, 3.0168054839149225, -0.5462059902997027, -1.3145079312407288, -9.79641253473077, 1.31110120547418, 0.8857456849918097, 0.8687742750936955, 0.10953327456379094, 1.6353925641747336, 6.862085242551536, -2.5591207211713476, -1.9678803446036204], [2.1229296282652705, 0.3468738266754363, 4.308178544309668, -5.025229080619468, 4.117734731327585, 4.148091997210387, -0.7383032429248665, -0.6715252749755203, 0.07493851804142282, -3.4574777966674093, -1.5662700638042293, 4.5617276941411635, 2.720606562882158, -2.020938042877601, 7.027821478916039, -1.0690705912605802, 2.906291651866101, 4.347964507464591, 0.23328872481198026, 5.256085906899003, -8.950918809657946, -0.7778286427774908, -10.043112353476728, -2.129890204236282, 5.176204582082838, 5.561722390196984], [-0.0064780177644231385, 5.199128425822175, 1.909292135009524, 0.2521941658931383, 11.687038433179056, -5.684648191387185, -13.502557508498214, -2.292615468261255, 1.730176100448337, 4.40549866924776, -4.9217399417805545, 3.478681286725491, 3.512857979865177, 0.6563305207237036, 6.062293636716937, -0.39701539973353783, -0.9833135677202547, -1.8323520792513557, -0.4719095490497275, 6.531125743389733, 0.029412082665739137, 2.504772393855208, 1.2200088240689069, -2.1998853680883568, 5.0509805220975785, -2.7719572119467695], [-1.6005594968935961, -5.1873812996444055, -3.655017716485901, -2.944416151892799, 3.0439926899113035, -0.749952942548272, -2.5273964608797472, 1.8620642905959677, 2.1980188601158, 0.29567123234229364, -2.7945070355352493, 3.918337515069851, -2.8676210971091924, 0.9746897878274702, -1.2388752677745405, 1.565301351729816, -3.248512331114897, -3.922300308803731, 6.079071455368194, -4.501878151624609, 0.6251680784046956, -0.42080936935403235, -3.8570163201133885, 4.5825938443669765, -2.600736250774623, 5.575754698689428], [1.423774741567936, -3.740815828593635, 5.251135737968182, -0.5738789384990448, -4.374976124498739, -0.3983379936385661, -8.026513447656221, -6.660983194198165, 1.1116355855128077, -2.0392414881543135, 5.694511801008096, -3.6926364008253207, -1.2775912361742958, -4.904784468913485, 6.395860575569556, -2.2541195968572914, 1.3067458672890793, 2.4514749752853415, -6.809989127360766, 0.447945846089858, 1.3168097686818576, 5.686537709524043, -3.262460858878247, -7.633287026717383, -2.149777568786846, -3.39332198672718], [3.443801448843362, -3.474768196707275, 0.7055881847089811, 5.6951700962086385, 1.7849885451818812, 7.115846790679689, 0.9717862742418761, 4.685051870932602, -0.2329526812046665, -2.9618171290918487, 5.26768021858957, -7.532292750834158, -4.203629465035865, 2.8161708056222645, 0.40417913297705055, 8.620784960503713, 2.6781282274707836, 3.1766175185633143, -1.9427080085589055, 2.364116375814476, -0.024424125755851747, -5.231501904654069, -0.8595201818858886, -2.812079871571628, 3.1451727728513417, 2.2781698549159373], [0.9977975031988647, -2.4117422689184083, 3.287361167190764, -15.843678201552667, 1.0240146905401333, -5.2324579115664305, 0.05700211087426127, -1.9298696829776856, 4.311597322335764, 6.679350409165616, -6.10071818735466, 4.400399681144466, 0.18640100583671176, -4.11529394667865, 1.1635214333470696, 0.36559122753579765, 2.007265892366177, 4.406897370875855, 12.308446695942049, 5.274610829071539, 2.29924401960685, -2.253924821420936, 2.773728995913274, -1.4301155451919743, 3.2871329283849495, -2.187043153122458], [-5.57510441904002, -1.4429881114874734, -1.3883001294014126, 1.3707372123238355, 1.1880727169672567, 4.784147951956724, 4.4107384315768865, 2.66199347305347, 5.184401794216599, -6.1682947034177085, 2.4053027290796267, -3.1705432201685038, -3.823147538043097, 0.19583870851915638, -0.12648050271886435, -7.387810160658822, -1.3618708564097821, 2.27256864135416, 2.902267964394935, 7.812807071534535, -1.9299410117978095, -1.0344562909743404, 4.926087826135974, -4.196436431512502, -2.142660421529488, -0.40081569348164525], [6.4235016622745995, -5.064729949398877, -3.0841644218657422, -6.179060456485227, 6.596819967995184, -3.3904690668625106, 4.07083347803703, 1.6985493552499689, 1.8386623722946003, -0.8828524210156415, 6.541226973006232, 5.3069617602280355, 6.77195290966633, 1.7556360039047416, 0.7924344889436454, 4.698344204704074, 1.5061632845096788, 1.7469436362759654, 6.473576201428216, -9.107442611901416, -2.727690155213865, 3.6615314279773283, -0.18320461167291868, 5.037922805315365, 3.0406916798413826, 1.8357971536211428], [-3.3274721427898335, 1.3592691167371909, 5.588361630382062, 2.517026202465912, 5.403121292754189, -6.685786106282739, -3.3745670126509486, 2.0547353843241978, -1.5299022746436366, -1.7204860405586873, -0.6175538515345493, 6.744314778728092, -3.5649901268399153, -0.22282147515115314, 3.4190263079936654, 1.3711049282757655, -2.7920150942528106, -1.3775955513248637, -5.880665886924625, 2.4467967803635786, 4.027936522667676, -9.491778017412972, -2.098518766749714, 1.9438526109578271, 5.667663503437916, -1.3515108054946474], [5.83921101060642, 0.6478854319926065, 0.43892609728687915, 6.153959834266231, -5.943512047831316, 1.7745882044003758, -2.5426613165457743, -3.104732116749104, -1.433522325567622, -5.927504955547543, -2.520431949799428, -8.686357789198436, 2.9902727880101807, -2.715419034564176, -2.2089005894640037, 6.700791727958311, -0.007730415399276991, -2.9491325115120137, -2.557496466106216, -0.04766600329060955, -0.5475169543373797, 4.326704108922328, 5.91223547619127, -0.16892613225707434, 4.529932866150183, 1.5800380458674868], [-12.082844654843313, 14.494899548525169, -22.896347923269207, 6.947320120712177, -6.980622483917831, 3.9999900878804877, 4.388717520915303, -3.6270626174989085, 8.740774062021273, -3.452478514821343, -1.0774175788370342, -1.637259814891904, -1.5488184725372744, 8.582147300164934, 6.531093331128589, -10.476894103214812, -0.7060489499769366, 5.109992264720478, -4.916329341911584, 1.4140215492568506, -0.6414249180513456, -2.0425408111745, -0.8617545959071187, 0.809294489221724, -6.328493700674223, 9.751836549293683], [-6.510364693458525, 0.4300857770981812, -0.591153963570384, -2.7340815143911996, -1.1248932863721555, 3.5244198259856407, -3.0408739001251304, -7.805667903263387, -0.9982509345069491, 0.5074770158898518, -9.178734038859083, 4.757121282937284, 4.818680438780168, -8.4711772273885, 3.707746649922026, 0.5186812067785769, -3.009760678965331, 0.13225680218399782, -5.102486733585255, 5.079217436493524, -3.1041722021794844, 2.4905421451257146, -0.8370601270398396, 3.12609060597172, 0.5848652635949102, 4.1658925224948975], [-3.192735207249357, -2.480179900442012, -6.754516902633389, 13.098865827259624, -4.587772560257021, 1.9448354983810952, -5.389835897017364, 3.1372042594828407, -5.778361100053818, 0.772621129339472, 2.6607750137923096, 3.3182107438017563, -2.514870896671659, -2.8566019506555342, 5.913682433025846, 4.391814220764027, 0.5550355805352769, -1.2338827299938053, 4.531165751553125, 3.3373426606581202, 1.2450836277790618, 4.104463841541679, -0.6933323846317201, -0.0980071830192164, -1.562917322292933, -3.23829134656407], [-9.24572847205156, 2.199332498099077, -7.454781983934827, 4.281245375376823, -6.375644037882255, -3.9859919537755992, 12.037075350993922, -1.9519243499655214, 3.601790051776887, 1.418801802268479, 0.9967084447741811, 1.6363817981368491, -4.818746423972147, 8.865575800999137, -2.6531843634588923, -3.2193687215281925, 1.5983672156018356, 1.6697940327248464, -0.29016948125157027, -0.2035828716921939, 4.158981628964912, -5.202854013860776, -1.3328968278907514, -2.3586233630321867, -5.986670805257345, 0.6668432521834916], [-0.21048466134772692, -5.988590778229691, 3.6545501868477683, -5.577388441025037, -1.1961647389530339, -0.19164374402417528, 0.29739361407511866, 0.6589064199899375, -0.013820752890738142, -4.658926207352415, 4.471222707577454, 7.624790284516245, 3.495979965946147, -5.660865584074891, -0.8383200364247542, -6.295503105210832, -2.1196778948711987, 1.8135040708635457, -0.5096254704106963, -1.3199478298546272, -2.6089273299352196, -1.4798716884712466, -0.11170160945679264, -0.24676682404296157, 2.558980495640886, 4.288415713664333], [-1.4290197517871153, -1.8711249050530494, 0.3062436865675564, -6.3745345469493815, -2.2044225664036103, 5.562570572039722, 2.837678657738931, -2.154334410746942, -3.3910256827808345, 1.5169313728276617, 2.7844726534947997, -6.321965396601171, 1.695775945995416, -2.423060337823159, 6.52609961087224, -2.625105108007151, 0.04051833092298507, -4.4184240237166135, 2.717089616882869, 0.377682634762984, 6.7015981321822, -0.6943674969398708, -3.9041917906173738, -1.7450065835280226, 1.5846919633233174, -1.8182279185144117], [5.1055130200328405, -4.479090175831949, -2.0256747846890732, -1.690633794523097, 8.963042533108089, -7.704286128448066, 2.654855531602493, 4.216990698126994, 0.8517144934354409, 6.881593417160169, 0.9424524952428691, 1.397789125238727, 7.043088238147448, -9.184464852524192, -2.678908346824735, -1.357846782246774, 1.1116005523949277, -1.2634241421439265, 1.7894690051041366, 2.9000005943467886, 0.07664960231827433, 5.379397674466729, 5.702471570326949, 4.4963835899377305, -0.4290179419683873, -0.9373113771090005], [-7.858593890474741, 1.915867543502066, -1.2554058069989202, 5.279570647750612, 0.6611090302010638, 1.6536746380342449, 0.8803453782075348, -0.22193352609595496, -10.538387621126278, 6.240809293985546, 2.4549883704937097, 1.7677968363946523, -1.240697602999036, 1.6022581044883926, 3.7863033659423264, -5.757952908158152, 3.255537261981252, 1.3219185345406372, 6.555413121686717, -6.310502296364991, 0.7701462135161208, 1.8996317991422083, -0.8046927794568144, 0.8562252207221032, -0.000591069032715108, -0.8402010583280026], [-8.590447829888525, 1.017857465567317, -7.027893669653137, -1.7785993629727572, 1.4132199527910028, 0.38047357325583125, 11.518383774431914, -3.5649050133633944, -3.792434054079469, -8.077337331536222, 4.1422553854175135, -0.5342094805438959, -8.324601272291453, -7.34113877706049, 0.5960656942347773, 6.150746143608626, -3.929200182958227, 0.9062219429268505, -2.5078860777266496, -1.698930084505189, 1.5258722965540938, 3.7118575384155266, -1.1557180483709004, 2.9507634398488856, -4.271159969456403, -1.7130828539918252], [4.93015715299784, 0.8974447474667568, 0.17122326901090112, -4.110201039072636, 0.4448077512575934, -3.5486015820801375, -1.8180724326829683, -7.57392276273352, -1.3532097611843446, -0.04737657953735552, 2.6307791130647296, -0.9646825645433806, 1.5157616434156984, -15.48250554434984, -2.278399572312353, 1.3883477011412186, 2.400952423449613, 2.3609566532014297, -1.6152784373729845, -0.09825395201829218, -13.781310518396191, -4.620478349320529, 6.45502561290158, 7.4247620602220135, -2.642656403254761, -4.634378715889361], [4.680843242636345, 4.541999242177451, -1.711607065759903, 0.057280156098631796, -8.137211150198546, -1.0251476537107596, -1.6824196476663564, 8.342217527866472, 1.0401423897210016, 0.08596606239870352, 8.638339486557973, -0.2178022906788234, 1.4188578154880838, -0.56094253317781, -5.010308440801717, 0.4723983780921106, 2.9524702631879682, 4.94692981001352, -1.4169636122456062, 1.3265613146665585, -0.895628402898932, 4.46227314179211, -3.8107531196724156, -1.581645091824837, -2.0870213916989786, 0.9645117377311022], [-1.6260177852868378, -0.3846703492750806, -2.994487396137839, 3.5006045257014806, 6.145682902620823, 0.10204538950990982, -5.632262098514607, -1.5533395197944992, 3.199096460376412, 3.6164635913475918, 2.349514677056642, -4.076957876243732, 3.96976560453511, -2.345530567630745, 2.670774565747564, 3.448672630145154, -7.439810026762087, -1.7461247366798491, 4.741797293977048, -1.6527682094059843, 0.6134361052696713, 1.1706054700166124, 2.0624725910720496, -4.78464219291511, -1.5843159680012362, -2.873798459570509], [-2.3309076068812407, 5.053390948010385, -1.0260155595115639, 0.8341773780058028, 2.618510757412484, -4.094855416948299, -1.2975931002559418, 0.5316724539100157, 2.619769771743535, 1.9663440220646813, 1.0972217817685157, 4.402104182816255, 3.9432177341011605, -1.2664782047841137, -7.790239306844441, 3.8591193688736647, 1.713542346866095, 5.601422012143359, -1.7021144600281366, -1.315463477226167, -3.7359546474614214, -1.5633643352703268, 0.5299586448540478, 4.775225724030263, -1.5607570621342, -4.770981849873425], [3.6636788559773774, 4.769656719385143, -1.3614228446045513, 9.07940931406462, -2.3118952232708696, -5.746143667373102, -5.202699335541425, 3.3992132643916273, -3.7356773454793433, 3.691475766739848, -0.443725979290035, 2.7772774477981272, 3.2899263974468775, -1.836362831921947, 4.069754665046958, 1.3281272867526548, 3.9380178431319672, -6.069080041297997, 6.411222931384246, 5.0367503806276535, 2.609066566788024, -2.4243755459466687, -5.227109688564827, -4.629095556211037, 1.6405973401641323, 0.9558254501271132], [2.221227145624902, 3.5044186534760495, 9.240889459001771, 7.695912836894532, -0.7699718135519464, 1.705294617029824, 1.0879346045791918, -1.2547777024061475, 2.2516305729239026, -11.648861786068624, -8.326747410517171, -9.526075599931167, 3.348200224256127, 2.135213612487858, -3.3688106588305815, -0.6667125437339071, -2.0834683369105393, -2.578207977613096, -0.9453257747328476, -2.85095407702478, -1.681588198437746, -1.7435456924054515, 4.802080887029534, 6.062370274493502, -4.683346478697521, -2.154129591810478]], "bias": [[-0.5693547873393567], [1.548222473046117], [2.4507998202515267], [1.5916663711363064], [2.2384493430082384], [5.908180559208492], [1.0593231698802392], [-4.006633699648663], [-5.166300261106933], [-4.473037542228549], [-1.0789785260124822], [4.560994761612804], [-1.0544438944838856], [0.3944136642946616], [-1.8115524124965812], [6.476338171552779], [3.187085179701028], [-2.7622333537750956], [-1.9329488535384738], [-2.246805760940952], [3.268093154867599], [-1.2600875649101935], [-0.6197851296464371], [-11.976903463944064], [-3.7739468666443896], [5.384015165708593]]}, {"layer": "activation", "activation": "relu", "activation_prime": "relu"}, {"layer": "dense", "input_size": 26, "output_size": 4, "weights": [[3.8721820771509603, -2.7040589810868645, -13.95641260293093, 0.8963902294072552, -0.8370389863745157, -2.9435896396987538, -9.083337947587818, 5.145209477695683, -4.432406728708869, -6.313988245611551, -3.2406526096030728, 7.622244454386453, -0.7105337088127253, 0.8785131358063372, 6.9888144480904915, 2.580363746119354, 0.9943230748720402, -6.071719617719196, -1.516111854245024, 13.15747661125088, -0.6691767034596032, -3.242734086761846, -0.9963082078467517, -1.2936276026640656, -4.3752404450361135, -3.1196645450821747], [-0.6327386181654309, -0.12633564474253925, 7.31251953462012, 2.2219772049942397, -4.994372755635991, -8.004639276015611, 10.062457751739872, -0.13544216633434591, 4.324780584112914, 7.5105822992593145, -4.176932132328973, 1.242668608215309, 0.3021388435017931, -8.786331772094412, -5.313764043014418, -3.7737244873330105, 1.7781523049340626, 3.0664368445306813, -8.746297485224177, 1.3591053966185278, 1.6763542908628475, -5.8762552715315355, -1.837454673575185, -4.430379766512151, -1.3471647803774796, -8.927726965587446], [3.5956687359801633, -2.118297896582475, -1.954118345599115, -3.6223335606097415, -4.755128953969603, -0.7684016230689028, -3.8768098677822045, -1.1591247537925453, -1.4319441183368862, -5.112057346371323, -0.3077476427841042, -2.7275030459806087, -4.923009351607548, 2.5958362371191583, -3.72194544204331, -11.712201781610675, -4.984368262317077, 0.1276489981439487, 4.536000034211917, -8.105358123627667, -2.61749530961687, -1.4402786848465057, 5.062152070406993, -0.35629919490052303, 4.186029144220226, -1.444537003873189], [0.5360414642438063, -2.8836673783770204, -2.7242998230833044, -6.004543262767092, 1.768615163984846, 1.8766556393958458, -4.216079958230264, 0.4490839367621975, -3.004173422416385, -2.3528142723984713, 5.161463609530488, -6.2716365324891425, -1.9395010118240035, -5.401019650547477, -7.369813961797146, -0.7283468636157311, 5.057204120604913, -2.8971772675871956, -5.119885734746495, 0.5151410523996164, 2.31344164372205, -0.10622271440897313, 0.281901784219228, -5.391680335436961, -10.062168932011865, 5.028490025050348]], "bias": [[-1.9536002777384076], [1.5714845422068215], [2.084637285420415], [1.5752841027290323]]}, {"layer": "activation", "activation": "sigmoid", "activation_prime": "sigmoid"}]}