{"generation": 504, "fitness": 1.5845632502852868e+29, "board_size": 10, "snake_size": 3, "input_direction_count": 4, "vision_return_type": "boolean", "network": [{"layer": "dense", "input_size": 16, "output_size": 24, "weights": [[-3.632160721866333, -1.1815784857026572, -5.890271360367406, 1.654553413320511, 5.034492526197119, -2.8754990300016674, -2.9552647863980535, -3.637305763738526, 1.7424605360900354, 6.340074403396691, 3.259527262935129, -2.546378183936054, 2.260794312326517, -0.12549665788127395, -2.8738122670674398, -2.657830786931561], [1.6848199315754593, 0.09784593859231716, 5.46592813597586, -2.072276270765901, 2.8197777162997406, 0.7250118979436977, -1.3751875263194742, -1.3825658384718087, 2.525854703960331, 3.537017059328649, -0.2973225805581299, -5.128866737248385, 5.387841328165814, 1.0201151897977103, -1.6907969904608926, -0.3074258979194051], [0.49661527482008094, 0.9088256673913085, -0.7412270316744515, 3.4079672333990643, -3.7921765967059207, -5.0533695010750135, -8.834131671876602, 2.471898513213093, 1.7031684235774376, -0.6949981772628084, -4.550858446649569, 0.2616894860574842, -0.6102234437145703, -2.766466768267887, 3.892921666493748, -0.3107905096446537], [-2.522245020000569, 3.3686522642152865, 3.161536060774717, 2.2351309854632646, -3.8190824671143053, 1.588294659904113, -4.8278351373326185, 1.3195642849549785, 0.14945777420289197, -4.920888448123701, -1.9274939277324687, 2.2688119229897876, 1.1615776845897148, -6.360317771630543, 0.5809728310353603, 3.1503903606469423], [6.167786346941061, 1.099795417486627, 0.1628061709957283, -2.3862357685239295, 0.991602399907187, 4.024952197600394, -8.457973631880254, 0.1702369433127755, 0.3633667439725752, 1.2860507248517004, -3.7982347001215473, 4.58705369607909, -2.9177125909656603, 4.2037739843062365, 0.6687182316026116, -4.023463877406791], [3.105280082596426, 4.872119691465805, 2.622016965231792, 7.5200062019250575, -4.828216228838335, -4.411495876375446, 0.68692114553438, -6.806783106568893, -1.1144499632375964, 1.0261943132072782, -3.470140580145983, 1.2467062301018657, 7.665144803179448, -1.8064596283471124, -2.1769669483925744, 0.6278727344340532], [1.0161676095029446, -11.793010612699618, -2.578025222051326, 1.4181309680744483, 0.32749698780138603, -5.555769856955047, -1.4970686238052249, -4.82139447565887, 3.4106295798088744, 8.804514489531792, -0.7078605088944852, 1.8672212833957658, 2.898202799962985, 4.4223592924207935, -3.661962848652153, -4.089307576222339], [-1.8287275076412643, 2.8501036416919323, 1.4564007533122962, -1.1189350575692956, 1.5666833391970547, -0.5518750032165616, -1.0611985277592748, 1.0983677738102113, -1.5736670316584636, -0.09544128172970384, -0.6068890021674467, -2.892048780399626, -3.3513986247477647, 2.033239857382848, 2.4870187368636993, 0.6500604846953929], [-0.10590864869327127, 3.407519733831888, -2.843367777693524, 0.994497424830178, -0.02338323430552234, -1.9931703813253243, 4.252302462879436, -2.55346299943786, -1.2431513110978372, -0.6862749170082303, 7.047852727349237, 2.24711330594645, -0.6779709873142833, 0.3062099818804125, 2.713025098601066, -0.8880520919807147], [2.208075813867824, 1.2470731989621429, 8.959990585569129, -8.702748889341656, 1.625703983307511, 1.3361517256204638, 1.570345640326022, -2.8731076108945612, -1.169893433961282, 1.169188593103601, 0.6376593991265006, -0.36358484954004255, -3.8648996205591857, 0.6892386711856445, 1.2731986943959384, -1.742579272997096], [6.301638580467077, 2.836157012336165, -0.15841245444345775, 3.3227533696392517, -0.47566082459854, 1.5729419220126546, -1.104889950949295, 3.405771792556442, -3.6736793915382973, -4.927935365822971, -4.083972667165659, -1.7786258477900376, 4.574820571111701, -5.287746520760703, -2.1460567226342917, -2.0965029660869763], [1.3044677780279776, 1.7147509466161266, 1.1216817654971996, 1.2437396172853674, -0.6763405847722816, -1.1888082239201025, 4.346530288806523, -4.012237684571788, -0.7153628557797787, 2.652916362216869, -4.057918201123781, -1.931003497691719, 0.8151354926965775, 0.5637600612679685, 2.8326518988248393, 5.778224387730278], [4.227332455984324, -7.4403518387474, -6.6730847447963395, -0.6478332031564432, -0.568353901384713, -1.1476509151940304, 2.5529726772227206, 0.9501660041888048, -5.984241797174325, 1.6919686405878198, -4.364952976521765, 3.017470428239957, 1.9664768656586533, -0.3524464213941546, 2.9820168010102988, -0.7439702212570656], [0.0503872303385291, 2.901238029067976, -2.2377372506880135, 1.1671529289005136, -4.460546290394153, 0.7746752167704565, -2.5299397425991224, -1.301734083703589, -8.061994548298026, 0.9054641223810468, -2.9147882809128958, -2.0288583177230994, 3.831335757865814, 2.984284241407358, -1.4888491567593563, 4.2259287168331525], [-5.01183523972082, -5.577338750209286, -0.021679053960429295, 8.522844545952147, -0.13947340876889894, 1.948091054238815, -4.442671775140404, 7.161210751710195, -3.865568515731042, -1.0240901412410153, -0.6526181120336787, -7.889043561246892, -4.989712668298112, 1.9015731934672886, 1.3441267559259886, 0.2254093751356175], [-4.737109317265637, 4.201991098514754, -1.9018840761322087, 0.6605539890482717, 1.91418665949181, 1.318328744771079, -1.1671944127701281, -3.130747363573525, 2.4327164119534, 8.252299549849809, -6.520751711924547, -3.4381503974103733, -1.06181022939742, 0.04153670383481556, 0.0900261393736086, -3.214826682966408], [-0.01107612247943468, -2.809657264376454, 3.2468882598850994, 0.9024496565949796, -2.1347139410826297, -3.2793044811161454, -0.15999010112600864, -4.724728752827672, 0.26820585391702634, -6.890462143169733, 0.9273732502389983, 3.3140625969517004, -3.957615199787327, -3.3651182778992803, -0.5477896025721418, 1.7153959855962717], [11.117180313352426, 3.015803689446177, -5.318264498242018, -1.6244585297490874, -6.167146166242859, 0.7782452267194958, 4.241505957541023, -3.399598256368144, -2.4734508830754964, 1.131684570268555, 3.1852734533632043, -1.533324327697073, -2.579682990450649, 7.314830432002096, 0.20695908265024476, 0.7214590129882732], [1.5273576917300005, 2.11069293531259, 0.41176247987810355, -10.01518059765838, -0.42653582166332815, 4.728431494260975, -5.981425121629611, -2.508899658299579, -6.706858203416506, 1.4860687326154598, 4.651664920776637, 0.6241259519060447, -3.703622952886058, -0.20185994288949347, -3.1055208892557005, -1.5917838587934359], [-3.447096978960119, -1.7771505918726143, 0.9306786995792469, -0.8207928549884747, -0.21635801443289268, -1.1875805440174272, -5.712259706562055, -1.5818267885497423, 6.519259520701075, -4.775144392648491, -0.6158238195795942, -1.3927058472120046, -2.9750592816658497, -2.539484537799857, -3.53346460323667, 0.7676304164060288], [-0.4011509279625245, 1.639656494950716, 2.823925378756989, 0.6154897307285787, -1.2557883849634288, 0.3355445074350974, -1.4792599196355014, -2.350951421690641, 1.5305067735858167, -1.1363497616782596, -1.6859399142072236, 6.641336805563786, -3.570932690080749, 0.17015208680646088, -11.854561473660862, 2.2579460013439467], [6.65118070927223, -13.702302408021117, -5.540584670044894, 2.484150908693035, -1.0265615500106269, -1.3582023307256086, -3.0164304569950224, 3.687030211324671, -2.1728651590270123, 1.7046364719075475, -6.584188773892419, 6.2048546908832165, 0.9950276091445139, -0.1437068246953958, -0.6705903078377718, 0.7777513328915703], [-5.768204126516036, 0.6392510554658577, -0.79193099871174, -4.652326007758436, -2.325597185722898, 4.860830086403092, -0.42310404460294215, -4.730811868878411, 6.3033802211923575, 5.618656523386981, -0.47686567020929904, 3.4835919154796082, -3.2201009453574017, -2.32190078290454, 2.7317595383912634, -0.7542699567562612], [3.220008474495055, -1.5196541102560852, 0.5321416297706683, 2.0520089401985824, 4.306699861222097, 0.4359246634678515, 1.41482342833885, -1.4415601790964672, -6.094327770772343, 2.456697211145281, -0.0003121651735629172, -1.4642812985559575, 2.8841206965995365, 0.5129966311472335, 0.2541964526489643, -0.05528988373541177]], "bias": [[-4.758332043340442], [4.478495251993227], [-1.6801166266426744], [-0.15834731666513913], [-1.3836471582876966], [2.135427103989886], [-3.7746778030405346], [0.0646032790482865], [-0.8408166302243936], [0.2697816506062528], [0.3332678399482917], [-0.7391631452616906], [-4.817029836648449], [-3.7277002684033778], [-11.810517486539277], [2.0301262115946463], [-3.7797091056260275], [0.524944897796003], [-7.398791456898925], [1.0996424369642344], [-1.8081786513272955], [-2.323306564604467], [0.7537936309644161], [-3.3084420183052705]]}, {"layer": "activation", "activation": "relu", "activation_prime": "relu"}, {"layer": "dense", "input_size": 24, "output_size": 4, "weights": [[2.6179112948533394, -1.5855092418901673, 2.4783202652384175, 10.169821271057002, -3.193719495540515, 0.7647785596277457, 2.675453125629657, -1.3533417558222278, 0.32173465626757836, 1.382783323340469, 1.868458106760316, -0.9450740797819778, 0.8935230776564761, 2.309125481700294, -1.811616858042009, 2.9168437831576473, 2.207942341192709, -3.3491516040281955, -3.8886858527424373, 0.11990799986977907, -5.790133288581582, -1.0331575487187958, 1.3622812407614264, -1.1572631520058603], [0.2087166291066973, -0.8941019287754064, 2.1907577125500186, 0.03138550347887403, 1.9292047608081382, -3.5971529511568847, 3.5842585873326334, -0.523058456350367, -1.8059525756408792, 7.890649669820256, -0.9601438552576418, 1.0358260603140383, 2.560613724362451, 0.23259913581063324, -0.9385876656625044, -0.2471258386074381, 2.157499476949901, -0.999734157182955, 0.2138081477331062, 6.764785934093144, 0.24500362875642656, -2.172617839029096, -2.431989731142299, -2.938754789271271], [0.013527846362422657, -3.9409634434696166, -3.231072889943309, -0.1446335088294457, 7.227718496287407, 1.3768989430880731, -0.40574200020392537, 3.99135132783449, -1.6220425098295568, 0.000898173607799313, 2.219950339081435, -3.071634340005615, -3.305300430464785, -1.7098875558892592, -0.9700746519231735, -5.103379903266905, 2.6771959105393637, 1.452654707655579, 6.1124351464156055, 3.401264443162709, -7.836433764889925, -0.6220180933313478, 1.7882136349437106, 4.91282701632438], [4.705076717939596, 2.2535085590180035, 4.424454950509278, -2.592024262166791, 2.8670528998331113, 1.2637063562554216, 1.7743825806029094, 0.5714059817416676, 3.1321578211825174, -0.8218883830502188, 2.6803359167817464, 1.5134791497254276, -0.6360603005322949, -6.012817287309247, -2.372842391234485, -5.405335384886977, -0.6231340382197352, -2.969062572052697, -2.6569476382043367, -5.883239358090358, -3.0548230058710844, -6.247541189335295, -1.8176375966837237, -5.844806402651316]], "bias": [[2.216821790513093], [3.325959232094737], [-2.5631816473147566], [3.7451300164371815]]}, {"layer": "activation", "activation": "sigmoid", "activation_prime": "sigmoid"}]}