{"generation": 443, "board_size": 10, "snake_size": 3, "input_direction_count": 8, "apple_return_type": "boolean", "segment_return_type": "distance", "network": [{"layer": "dense", "input_size": 26, "output_size": 26, "weights": [[0.921153088805143, -2.696386762679647, -0.08733288714802212, -0.7766749799022299, 1.1205457622710038, 0.622989345444371, 3.311543550519396, -7.10339910158903, -0.5335642300128314, -0.6746322567194336, 6.962141884750658, -4.884873892938032, -4.221090181279227, 0.9939644902111154, 2.3485946918444625, 9.568462628689263, 2.116697692227798, 3.113061494794716, 2.9247433048230578, 3.172483997238017, -1.0616287968850049, -3.5160459881780692, 4.857535044943721, 0.44585675048350304, 0.9202190997331482, 1.7936652950778313], [-7.598769908066455, 2.7598352282238063, -4.869977974610889, -1.8345823743435608, 0.9847376582688867, 9.413422588034683, 2.560512343051874, 4.71267960515077, -1.2875516145570103, -1.8235297682396001, -0.9871362855732517, 2.0895949415577677, 1.8347730337889896, 4.51471811602183, -0.6483928532524129, 4.65056607339147, 4.107687283297382, -3.84607605514089, 1.2694100835866093, -2.311844770641896, 1.1555665191946962, -4.097391378388197, 2.780367800617082, 3.2387620986933783, 0.2452124525805576, -2.7462643156300466], [-3.663832169437903, 4.921297115986983, -3.3157690780241906, 0.21519124778609588, -5.221430253801114, -5.821088469939513, 1.3313338809132143, 5.727650842044289, -0.2791456986842513, -8.357556895426063, 5.615604749876137, 1.47580052487072, -6.842444204645314, 2.8156453690046814, 0.8428059919483625, 1.716404417857014, -6.5899575298520725, -4.697068711543412, 3.812621136416667, 0.5236492245614592, -0.12814759323397723, 1.7538642469138825, 2.9118549254959447, -0.23637406402287886, -4.054649607661616, -3.3167797835496087], [-0.8506701217856303, -3.866662255018807, 10.303069539071947, 0.5138983704755471, 3.3177309018988206, -2.5582336254512037, 3.3726083996362464, -2.4933115961388275, -3.900378387189442, -2.2238936951104935, 7.60541368051006, -4.4987511114859355, -4.654017411302866, -6.609812904830708, -1.3732282050301168, 0.059084140821391684, -1.8403397114872122, 6.426512662741052, 1.3970471017950468, -2.7306526463258387, 3.270972355119211, 0.8255747351986812, -5.012893943563738, 1.7143083985345422, 0.25222805238919643, 1.7594164518125868], [-7.189816681673085, -6.716719546492023, -1.5128532528929521, -2.4797098439812646, 0.6980518461541577, -1.844724558863708, 0.6516702927328586, -0.35646552577270996, -2.2309866117167685, -3.4296177390582256, 2.0237097445694094, 3.1891249705394635, 5.017292878675222, 2.807421714517699, -1.039547039782828, 4.757486207223713, 2.002053889541968, -1.8646869434459055, -1.2718097139751323, 0.052395385254447854, -1.5493661932299818, 2.905248038259324, -4.470949120625524, -0.7083954990031789, 1.2558447270518938, 0.9669027435108377], [-1.8744821440084083, -4.4432967769230896, -2.514988968834972, 6.943398069432353, 2.345879961410001, -0.64486980286181, 2.668877873196698, -0.6762110504376614, 7.309657324376133, -1.1881509336050102, 1.5697952431261293, 2.258121436065215, -0.7912215253374164, -2.1418777662825033, -1.1970791831754726, 3.9478656533229524, 7.967028517319639, -0.9748604905725186, 2.8321795663468485, -0.8255224827403433, 2.7340660470519316, -2.7843736245702617, 1.5085101509423078, -4.166910325039891, -3.7415695192230087, -1.2123127635176256], [0.995336636074345, -0.3397492223423315, -2.358428751324788, 6.454859120911044, -4.474638563410681, 4.069921097846817, -0.6336588655523727, -3.062573114783178, 2.6510226447133567, 2.771030969707977, -4.743874459993832, -0.9271081747056135, 0.42147943304358004, -2.5868741041552092, -0.6964990468770422, 2.510230610878314, -2.3613313571462586, -2.5630846244039134, 1.863762658714453, -1.052775593989038, -3.3246570075757105, 1.6063479680800081, -2.626983432730864, -5.628785464947859, 4.520222462246249, -2.656096177633561], [-3.1859936823058166, 0.5260114989286415, -0.39382201230087377, -0.585777653407341, -4.6184501521756225, 2.910749989457006, -1.7903455350815682, 7.230214009058072, -1.8090969146776614, 6.271568894614448, 4.411383185781022, 0.9575292565003811, 3.4413471287409423, 4.224593348609302, -1.81083664156229, 4.3652762096241755, 3.874462484148127, 1.7926525650200391, -0.8378267445668961, -4.012203708473552, -4.9738891581157105, 2.116941068695259, 6.343079910151266, -1.7486886207166648, -0.9143164893534734, -2.629086328594761], [1.830957566770481, -4.939060666172204, 5.439784197696954, 0.5097191313012516, -9.944152599111264, 2.4456903539144004, -0.6577962990181487, 3.48603680218124, -0.8436941091906673, 1.620778270065846, -1.5891668325026296, -2.7565006850516163, 1.9337679149917242, -0.022252718145931882, 0.7588902330258045, -4.574067786457096, -0.8703547813562096, 0.4580485335990372, -7.425037918862715, -1.9173786249254565, -3.5762896175880696, -1.9734700309958901, -0.9700070368572105, 3.429196027446063, -1.7560418191566927, -1.0674916034072823], [-7.573611688042048, 1.6329896635861896, -0.7847260459591641, 4.334098255564772, 2.687804818840238, -6.145034652188037, 2.024285524815967, -7.725655229665573, 6.541611824728211, -2.9329041397310784, -4.894820609038959, 4.822425120234147, 8.438405215484238, -10.428655205207425, -3.988989145883097, 2.559246373717402, 2.2017429694973782, -0.8355516552917632, 1.0550188741509219, -5.280573212301527, -2.853957592342778, -12.153794751654676, 4.792826670313664, 0.2508776999173674, -0.12692282505062957, -0.16655483950967437], [-5.315941016419131, 0.7150441554048651, 2.609843716445874, 5.905658832858939, 1.7066495715741377, 3.3681594953093104, 0.08638731515793152, -4.0937765161477415, -7.062287084629105, -0.26360561642429026, -2.0710369776680144, 2.3253619353816086, 3.1796458606984657, 3.8960235209750627, -1.279587476956523, 2.241059575122946, 8.975050677121773, 4.0493760607811256, -0.4425420622696796, 0.023659050309371682, 6.361765250663501, 1.6257779520110303, 0.9290796583981777, -1.4797464715930253, 3.083562968864593, -2.3858279858186036], [-3.9247858515264955, -0.9286834362181333, 3.9255443867992943, -2.2392439234412382, 2.8296508430311365, 0.07093702971271743, 3.7232368471441135, -0.383973872585575, -2.069443164106543, -1.1948724644939555, 1.9837211785827253, 9.161311259839604, 5.924233868576595, 9.126083329640633, -3.883735869733568, -3.9214332162794827, 1.3199054501345462, 1.1686163605829158, -5.343541816148349, 1.7255070374800159, 4.899055925140008, 0.4401876170661343, -2.729433568259254, -7.696600815156781, -0.5215849048339309, 0.8086564327849276], [4.732099992644137, -5.157665379190133, -3.7107056240606178, 0.8260104917109401, -7.459316302536175, -0.42904749568158473, 0.5974739196766339, -4.1381492805582845, 3.876891601397986, -3.1611518150321256, 2.9071075024186674, -9.831113483383113, 11.533453767028025, -0.42568173417808497, -9.42829475175822, -5.236376947229707, 0.5921396219284134, 0.011795994054941916, 2.936298849372422, 6.047305661461501, -5.5600651909453696, -2.6587525159057326, 5.65728569745958, -3.964037566457905, 0.8530684014514447, -2.267884052025024], [6.971809686360017, 0.8631681149505677, 3.0323237334117907, -2.6893648549532143, -1.2356823151916416, 1.5854030160058659, 0.2106168658384, -7.249893868139799, -3.5861543979054686, -2.466715629096276, -1.3955337184426726, -4.646732437449737, 2.1074175607988375, -3.113540506580286, -1.3986822359730868, 0.375345657797273, -11.62903368651213, 1.906392446745742, -0.18187941943183572, -4.851252210275072, -3.5058673474136186, 7.615249446420162, 4.714444525885115, -0.28077054002364754, -1.4555245692415522, -1.7028714128658855], [-5.2804642617156095, 3.2201380507409785, 2.602437011690567, 3.2399929198138047, 4.959835084379874, 2.3033559193294497, -0.047505946260599785, -0.35589948483344785, -0.12204108525232127, 1.6181569111070608, -0.148228116686006, -0.34214762732471504, 3.908367652881909, -3.5971346386585568, -4.218449348735881, 0.558380354020628, 8.776287191065556, -1.0329630479802754, -3.3015909790756606, -6.147878740820584, -0.9873932921692654, 1.3383331132586456, -0.540691954807385, 0.043782463244904535, -3.4110052100579478, 3.0358152595701076], [1.070112839018811, -3.4974358453460153, 5.7764638870651535, -0.8633271610468202, -2.1501018895966135, 0.8937270276539507, -3.9629532282009574, -0.4216833240065625, 2.371860547297788, 0.06516084330531301, 0.5754924378536521, 1.2594821960750122, 9.489542359791471, -1.008281357029097, 3.373993008155224, -2.4583696693218284, 0.6303164518274551, 2.341779973726823, 4.4594389933592975, 1.70513272448822, -2.601021650194066, 9.223426563572437, -1.1532662739273645, 3.3322179625226216, 6.131479010789693, -6.393244643104777], [-5.175730641093124, 3.887214624608627, -1.1685908278841102, -4.480834347199633, -2.8175572658302817, -0.28443487024888753, -2.4740579287811766, 3.235542595718006, 1.135412812356144, -3.4323224651035265, 5.6798658568355505, 2.9988424002154788, -3.413681945357951, -5.68027470932104, -1.9242948739019732, -1.8456303911442904, 4.852717832207506, -3.371719870568362, 4.457382119347265, -6.568839852523064, -3.8435576685777537, 4.665305976956095, -0.7699000919791494, 0.7897558742889643, 3.6613903708419357, -2.5599111946073285], [-0.021656601367369077, 3.5072516998446908, 2.2085210101082136, 2.902999619365459, 0.7870502665421188, -0.20977460344522536, 2.3582803871233144, 4.511752170246847, 4.2123319107790005, -1.9554478521343077, 1.733212345790692, -5.934906986678523, -0.5794003916275876, 1.1726370896803913, -0.48825366121709346, 0.7994220040164723, 2.1953949248624545, 5.586725002102565, 3.2134048503203596, 0.23641378426939874, 3.8497089401997706, 1.334967557347156, 2.188305160474242, 0.03614143059262917, 3.451441474200086, 1.0243460136950455], [2.1090073578391575, 1.4509818927076599, -5.766743286687315, -0.3322613500509081, -0.17881599152500838, -1.3535082510696548, -1.7145519651760814, -5.380699600846478, -7.424892311053117, 4.957262758809277, -8.630095398083974, 5.113997407266547, 2.8975288758813518, 10.756193277107394, 3.1144967277015074, -2.6996358714033324, -3.5810487729005565, 1.130754149402554, 1.322263065973819, 1.9728808113808558, -7.6524269496460295, 0.04228395958150699, 4.3427815598632415, -3.0775144689227756, 2.261249721204419, 1.8262345281748773], [-2.7162642302393873, -3.2993840285766147, 2.3294862153247893, 3.159611014249622, 2.04386540254455, 2.7921524654929852, -0.4151819769560605, -7.019093064636547, -1.6091322013304952, -3.295603562383477, -0.9158062726260616, -2.701501560708654, -1.1696491465190761, -4.231978736346358, 0.29277487443756245, -1.7139562500983527, 5.3016051001447115, -3.9922972110179367, 2.5599052856203044, -1.9523553726363925, 1.117977507512978, -1.122760752041398, -0.6404335256253186, 2.9092031766807067, -4.549800676286188, -0.7420722898641114], [1.813969669885668, 1.0137001151143659, 1.7251847790596675, 0.09640616064538807, -0.10036130838869894, 6.758358746944779, -3.8473320430569444, 1.9827205933060486, -0.5156622028657206, -2.4344860534033064, -3.8373437075067685, 0.0018492829884165785, -7.057183702758985, 4.535959302211516, 7.818490352224663, -1.9924445607455825, -3.29921399193545, 0.7109961241734613, 8.055569738474608, 1.1631027892846406, 3.2507246557188707, -0.4435636795827258, 1.2988166992428023, 6.245935952511197, -0.8855126841016903, -3.1831647959586915], [2.8231069011373493, -3.197628102543225, -2.5089405244375724, 5.754589156235297, -5.488449802569322, 0.8138990928066958, 4.023573159236596, 1.2476031280764481, -4.726520703805185, 2.652608246047633, 2.536826486416304, -2.341663311510646, -5.280017914476356, -0.3504121015474202, 0.4070963901485524, -5.711281837029887, -6.2500688673483715, 2.64391306898322, 3.8203664579336034, -0.2678788985292193, 2.110480358401971, 0.568493231370564, -1.1715252044047821, -0.2583144107194187, 2.6160979331485272, -1.1443959788757447], [-0.5762388747160914, 5.016326705195337, -0.4096526332260936, -0.18730292048863018, 4.609030394188435, 6.111383268883835, -14.020874795800744, -7.022911643309295, -0.01322474240895799, 1.5497273457328073, 0.39176572866918846, 0.32883407686325744, -0.610195744291957, 0.6519545145699902, -0.7030652323720257, -0.5119434246263076, -1.200331695280925, 0.2307880316323263, -0.3245785135512125, 0.006798834211501063, -0.2432488063417144, 5.497018762911819, -0.10125146111980987, 1.7138136462556657, -1.348319931703503, 6.617996336055935], [-0.5054727663460992, 2.022308803706769, 1.2503571877512218, -2.03234142294462, -1.2031194225856918, -6.35676734944556, -2.299656668297527, 3.5374069430740827, -6.943620243339519, 5.019860746207857, 2.695987963001975, 8.189100123278942, -3.0244011272158335, 0.5091306350385417, 3.8742148368013147, -1.0278449446034592, 4.480921573593453, 0.7810687597810181, 2.0095736591438804, -1.9509082617731557, -0.6943663843830371, -0.1147214654458153, -2.5618834385250495, -1.653511958295415, -2.4651286770213066, -0.5138023487834136], [5.101448720371521, 2.956071054923529, 4.617821546796034, 2.986616221742393, -0.6830414494963037, 2.4994703593324283, -1.166451735044684, 0.23950027637040805, 6.088308371926186, -1.5147481488206964, 1.1546125375527945, 3.4717154932648437, -0.7051200594173737, 4.488731659383902, -0.8979186256989289, -1.8957229889296718, 1.8549293854809386, 4.066937712762064, -8.231040008021951, -2.911751692865047, 6.784213863138034, 0.06404928906374024, -0.8794611019322651, 0.24535341610956973, 0.060670682603030546, 1.7848417613993495], [-3.554257444918526, 3.5296831318772752, 1.4980807289503881, -5.56349903585099, -6.925792198433524, -9.670567366059068, -4.162692500553413, -1.8560616611820873, 8.834605418982001, 1.0968931011367848, 0.8564852535640948, -0.9351848038767814, -0.9978280926971614, -1.055849848432238, 5.3305312653670835, 0.03499099651509974, 4.709452330875248, -4.110972379757398, 6.646110533433322, -5.3184195719609715, 6.272316192347611, 1.1580241756421583, 1.4513137266307417, 1.8564458037630192, 0.16514537518952743, -2.274157602544446]], "bias": [[4.290070596378208], [1.0104025235295533], [0.5836447644835792], [5.53213378096232], [-0.5185103474733258], [-3.5926460296316316], [-4.19519225244093], [5.134000260212444], [3.875107495956884], [4.634064771453009], [-1.0726046091656576], [1.0115516329913268], [-3.324521190803634], [-1.561403443543182], [6.406754459233497], [3.7158465850588085], [2.2806647050463367], [-6.668255190909701], [-2.8450621663248534], [-3.074909159074932], [0.799489239236202], [1.4537275672477494], [-3.751125786554508], [-5.936507148270305], [0.4195202040383259], [-1.767913704558422]]}, {"layer": "activation", "activation": "relu", "activation_prime": "relu"}, {"layer": "dense", "input_size": 26, "output_size": 4, "weights": [[-0.3802364789192465, 0.6123401365972231, 4.461641682474305, 3.117720986674817, -1.5771636226739074, 5.063676073298503, 4.073869919662083, -2.4598229262207214, -3.921746208611286, -0.20366337472762108, -4.427003562521411, 2.5902619401349263, -0.035951278055126046, -5.1379315489050965, -0.8887725070115778, -6.7390404681402725, -4.648031232650549, 7.8264602182870275, -2.341719597538676, -2.3982745863315342, 2.163666368047247, 4.415156118511928, -1.1026593915399947, -5.221615182897153, -6.794180887508644, -0.25084649301703554], [-2.2506540467310563, -7.875124532831152, -4.225014384705805, -4.961214473310322, -1.1661120042737867, 0.7990288196735889, -6.637705342243873, -4.145639498812609, -0.010653666017025443, 5.815258664269808, -6.594903834741311, 5.120900128901679, 4.436460770279725, -3.999588604502246, 3.356927895851014, 5.189883183714325, -10.208646388493172, -0.2057856686159022, 3.6968155739295847, 1.553496272467819, -3.580929253005851, -1.0259868207957512, 0.03696685144285339, 2.029613096204225, -5.690679391651639, 5.9056500543177854], [-10.3353891308334, -4.173923454375679, -9.669282574629545, -3.4396824964228268, 0.9818463921695111, -2.694773095531405, -0.8049068933477159, 4.542129865563476, -1.639930198249091, -3.3038042725508907, 5.491785115272278, -3.063060120663194, 2.3785933321910417, -1.167591416014243, -7.467332731962909, 1.9667603222558672, 5.08327094781398, -0.2224854591518125, -0.8537099539089404, 3.401219327019122, 5.102733144744408, 1.75174718661854, -0.6918168778254619, 0.9823348473333358, -2.1382750619317914, -5.585256536476512], [3.5244650345051936, -3.042777217774834, 0.35493228783264186, 1.7246179016373087, -3.6317047965165727, 1.493620687968189, -3.908436233059108, -8.77474610679682, 4.948747853060759, 4.39286324892457, -4.507359283347123, -3.8947159776334117, 4.597141690121675, 0.5214243320766466, -0.07878276639096926, -1.4107460911501868, -4.970395482946431, 2.5097865472183827, 1.6311374447816187, -4.286724167014764, -2.8243896358666665, 2.3212172756987157, -6.129123044681011, 0.8295410384574254, -0.11814501063143613, 3.1346837650823463]], "bias": [[-0.646424656191268], [3.0370246620613797], [2.2783442005377683], [-4.514088115715337]]}, {"layer": "activation", "activation": "sigmoid", "activation_prime": "sigmoid"}]}