{"generation": 576, "board_size": 10, "snake_size": 3, "input_direction_count": 8, "apple_return_type": "boolean", "segment_return_type": "distance", "network": [{"layer": "dense", "input_size": 26, "output_size": 30, "weights": [[-0.6604305403438682, 0.5234213057284581, 2.7417991008743625, -7.297144533776823, 2.8072374720575883, 3.9416321338270617, -3.820723382267562, 2.491479631711528, 5.652750843270434, -0.8293956038082566, -5.901984157014657, 4.403297277232738, 0.8342490875563943, 6.414252286002737, -0.5442606430977117, -4.725128674070137, 1.3769669737834629, 2.218965698628095, 4.587129344962273, 1.8221010442585945, 0.8800183342815918, 12.792515140361367, 5.649379517127944, -1.8009758799488544, -5.226095826792573, -7.474079086800891], [-1.8845147791406625, -1.6280541260214096, -1.3477798116032942, -0.30244534416561397, 2.7898630421671076, -0.6802721144132007, 2.9983056254746296, 4.337883538653865, 0.8848988077106685, 3.1178572239928637, -0.45907871813834983, 4.002378951366721, -1.4623614735366508, 2.7214458440322575, 7.554141408502661, -0.2724336634240707, -0.49129629363413, -0.7162392003800367, 0.0885324311767578, 3.5703275678243624, -2.3210711232497516, -4.009279294289888, -0.9015159915911805, 1.5182740377776556, -4.0681453113915245, -0.18755310314946616], [-6.921372750721779, 4.733572018318987, 3.019629079550384, 4.353001281385309, -2.8384944379286527, 3.3713770413976922, 8.118512618518935, -3.781328288437259, 6.516106294980897, -2.6360302186680675, 3.102481997545936, 2.4946508474405205, 0.2503606311782459, -2.241551555474877, -4.241419187895525, 5.121198363671609, -5.0781704005794985, 3.9756128840977083, 2.1805116079874614, -2.886005149295289, -5.989964326157486, -6.047975447049648, 2.008672854753524, -1.8768318883827444, -7.0833870942813, -6.701270761993719], [4.045011046118652, 5.409129744037398, 2.0072240325887725, 0.3116149415390468, -3.1524034136452537, 3.4792980326649943, -5.9600696608509605, 3.88661995738143, -2.571425927907999, -3.8481970258171527, -4.18427120125442, 5.0945355819340925, -4.662179999519572, 6.232711057596145, 11.29833470447031, -1.6020264853123227, 4.022281781361546, 3.4252798067840353, -4.363992736185876, -2.410648017242493, 1.6308302716581713, 5.435033928206071, -3.2339335876976554, 1.641857441787345, 4.059179148087288, -0.16168792609875604], [11.18498428443398, 0.34877627855273907, 5.579157084967911, -0.9457177814439364, -3.8952144425699897, 4.0197584694863915, -1.2522287525701385, 1.6469586166649677, -8.268513481300063, -2.7534449829976237, -6.002941106133136, 1.3543951575154354, 6.901036709534078, -0.6158358143766811, 6.242855131643143, 1.5542356807693203, 1.8830481942987678, -0.970387393069453, 0.5144601158686215, -3.6577403836816824, -1.9235008429529794, 2.848687643038957, 2.0551916884835353, 5.085280192933075, -5.72584319687327, 1.5431085685517945], [0.514851355982421, 0.24008625122226046, 1.0230486779805137, -1.6518111334566667, 1.564730430784919, 3.472496324449582, -6.362800318336284, 4.6018920549377915, -2.042494590324929, 7.037113630642878, -0.08909662486751257, 4.083031193296077, 2.757472020142112, -1.2906093803040661, 3.1404519124521, -6.70149717813066, -2.834943053907836, -9.492720970929307, 4.159065336966076, 4.226688357852369, 9.124696210667462, 14.565762425678304, -1.3586715051792018, 6.5483819984489395, 1.422752318099145, -1.066711389774126], [4.3156024968585225, -2.1471488410641237, 4.012283983777141, -4.463430133440346, 3.381120642288198, 2.27602045240413, 2.644208489341232, 9.620710688281498, -6.0449481425175025, -4.824499884379737, 1.5692925809083857, 0.1890024093623936, -0.5779529975963889, -0.43266643892844847, -0.747027677146461, -5.028427476762075, -4.837312112129699, -1.7052812809048823, 6.665202335166835, 8.454708148576756, -3.0066235068851053, 0.20548043265212323, -1.271438849398468, -5.544128310418846, 5.422876836813112, -3.294404557192509], [-2.3681010366814523, 4.4013372759762, -2.634246996971073, 6.728846196993987, -3.052490555177066, -4.341865197491393, -3.9341580247366017, 2.6756658121642856, -1.8328522504192304, -2.67485300582272, 3.00192775388947, -4.104640527998119, 4.114090734983887, -3.9988524046382516, -2.3822976750035183, 0.06270145806611915, -4.156985995430363, -8.67005288353854, -2.382209537093452, 5.868806606821871, 11.035242618824626, 1.0496304276848225, -6.875773032797445, -1.8279120192096507, 3.264174510134349, -2.546047219298398], [-0.113286178289706, -7.660204933771486, -1.5388034148926473, -4.23798907985608, -2.185322546423345, -1.5602630570195868, 4.712695285461966, 1.252693854215973, 6.885776123237096, -3.7270840812492327, -5.632705653354588, -4.764417977918408, -2.7165288310637963, -5.21777633463894, 3.4020894091049714, 4.004147873856716, -2.1975396744259617, -0.7639743763208238, -3.808048406237862, -0.44838044982835235, -6.0469040970416685, 8.27907933691537, -1.8270697517816992, 0.5533826146961272, -2.1912722352738996, -6.574289429181249], [2.082281020744277, -1.3360819779778317, 1.9768882384662714, -0.21491811192931554, 2.118202193617992, 1.107758744606839, -0.7911537745014613, 0.356535459850869, -0.8977733793544639, -5.493703310359423, 5.344232750100924, -6.12098034377417, 2.800499193447897, -5.260866743144129, -0.007396206017408646, 3.320502158489358, -3.218415446116497, -0.8509959249705064, 1.9224302903850874, 0.1136892120586721, 1.3373510267759245, -4.1642072843526625, 6.516409507403099, -2.38093139025966, 0.9607805955862064, 2.143460255822327], [-8.011736716732964, 0.7872170281895793, 3.03814945074886, -4.17898786765788, -0.4086182145992572, 0.7185596439908881, -2.0145133008939156, -1.4844903476665352, 9.877230494547474, -3.5901981311897107, -4.86050173447053, 4.984010570176537, -0.8876557764144553, -3.8339234934805364, 8.133642692337016, -3.7960765841079316, -5.568512230375352, 3.0616714906454012, 6.746275650377934, 3.732630747288395, -1.267516964233604, -4.716222741004916, -3.3031328562078004, -3.5031540164651305, 1.3428803029053442, 1.517705336105788], [-0.8978022613493959, -4.174612591134325, 4.736854420724785, 1.1522253087265815, -2.630000809734806, 1.5520698643940132, 6.09769791766034, 2.4600387314075527, 0.8214302910668421, 3.4024941310310033, 4.260194099371121, 2.6585217376247376, -2.6323558638093187, 0.21676733355279088, -0.3013499729575895, 7.150722184638484, 8.440401944059184, -2.963124265512696, 5.246235312811544, -8.653004251895291, 3.3627420289147563, 1.0252083605245326, 9.901842435434661, 4.946823022998891, 1.5657586478089098, 0.46496697478411697], [4.064792926181084, -0.10120693252517116, 2.218771372970849, -0.7148069131147596, -0.03266144697920714, -1.7418641147297342, -0.9936574282673929, -6.5875061756412725, -2.3910738957777338, -1.8758863029637585, -7.057336896435543, 3.0401818390003976, -3.6713509849597528, 5.260440986550984, 6.843472594136293, 4.573099267799448, 0.41331318364160563, -3.9636136278263123, 3.1491749734031806, -5.522741084708081, 1.493035754967729, -7.745168136094032, 0.5632348004556554, 0.2912027781027718, 3.520516784426181, -4.635928707531827], [3.0818445139705712, 2.158093330900699, -0.4174130436990889, 3.86340930911641, -8.794753916174285, 0.5205072858109923, -7.105888003708262, -1.116234201839181, 0.13630704203325883, 1.9573817016498765, -2.1941245439171913, 3.5305806701582525, -2.5701662163627557, 0.9998625901117028, -0.1723969776689207, -0.20992179398206978, -6.967058293055752, 2.816322986629162, 7.346474980524651, 8.000401016143236, -2.9670132113573082, -0.8864878077147467, 3.3726753946342636, -1.1334387274574902, -4.897903808100253, -2.9473152400234017], [-8.156765635767343, -3.2135994688329332, 4.380907286427366, 0.12979683838317668, -1.7513311672815624, 3.3130196780039403, 8.79604853011339, 2.290905229835093, -7.801789086623409, -6.806579639434393, -0.6225859637443705, -3.2659431058359165, -1.6990804098692243, 6.016565821962253, -7.656160556327203, -4.411500125415435, 4.80540629409018, -1.695268055914075, -6.20762250025368, -0.37934731062059046, 1.858152148990836, 3.7416082265334367, 0.9008245300233889, -1.5645051568550077, 10.02485192407484, -1.3441099720043201], [-2.270479694810588, 5.636826797902616, 0.386316297241434, 1.1206392785416806, 2.872249475591685, -1.9268356205193125, 5.071519903588437, -2.104720324095603, 0.223014932662715, 3.3830404651139285, -3.2600977816590055, -2.6969654631380555, -8.752216632594061, 0.09714778106749977, 1.6073436888624113, -0.2977459116598633, -3.8196409066456876, -1.2904726945467027, 3.640681823699289, 10.286740060666467, -1.8237013913382683, -2.367823049400088, -1.3210905327137825, 9.060884870245092, -1.2901434881464764, -2.5175501162992098], [-0.16057288601933195, -2.3386314129250803, -0.0015365102362483452, -3.365225821770606, -7.207837928189741, -2.802851821583311, -8.777398910152172, -1.2758374514955793, -7.051291520933187, 4.538012422145156, -1.7821139917768818, -4.961787423383146, 3.8509002458713355, -0.7916709332006144, 7.2980230658598355, -3.3549050295538185, 6.011804473523734, 0.2854346212583485, 6.063649945020878, -5.377459285899396, 2.0602365402820957, 5.113242674476948, -12.906272935686891, 2.2008067941508265, 3.4242503513585083, -4.268543874090565], [0.07029253205334784, 3.9402234909188203, 0.9608107623888, -5.386988018822074, -1.0832230220819328, 5.833875251399894, -2.297540233999245, -0.014548828734770425, 2.4661267840675345, -7.823693425827493, 3.4959050270111756, -3.407924881093158, -3.0841827184847137, -5.312061615114649, 6.947789728311631, 1.9119124924144177, -0.8443774361009941, -3.674366459769909, 6.7858974052200045, 5.965639329096286, 5.106943828550769, -0.8716762450641565, -1.1710251457902583, 9.901657177804365, 5.148767165384712, 3.9286478031285457], [1.040174365802246, -6.038876967188593, 0.41337707484103126, -7.332790606975697, -3.09566483937851, -1.7361586899793486, -3.068415060807431, -0.10279337359149743, -2.807230876066663, -4.291142238510769, 0.04517578959775492, 4.011042723116305, -1.4464911737256574, -0.39217223333546436, -6.091515388349114, -0.3703192101323062, -0.22576901910934288, -10.66542084597503, 3.751438313432145, 1.668119296260176, -1.9687317573956618, 0.16281196457227576, -2.6131487173062933, -6.290808673933598, -1.277932345406657, -4.37408570567622], [-6.9638684068129955, 1.0253858466187045, -7.753147724968991, -10.586847647135578, -1.2250465475681513, 4.900586187134784, 2.384329037958564, -5.860304667656669, -4.544537142960879, -0.09573137496100736, 2.758700791956323, -3.628330427487705, 0.16072400374444262, -10.483862581863002, -0.7041203082244095, 3.4430536010685673, 7.594259652729617, 3.4457827154655707, -12.450137678335588, 12.002626656174156, 7.5813236971729205, -1.802320451922058, 4.220291346861459, -3.590996779123491, 4.590602748503064, -5.136772546564886], [3.8578092063010874, 3.687020342639618, 4.217614557317352, -0.15197483073386936, -7.141283519443048, -4.715217696316074, -3.2823447924734235, 7.456158682468877, -1.773444316906273, -4.72359302597641, -4.694661811671451, -2.386402838766088, 3.3094223488262458, 10.113508545272804, -9.822604644389738, -7.7445074812069326, 3.58385860264268, -4.485764908452205, -0.9396602501260823, -1.4957162651292444, 4.398640227732887, 1.3354781216705716, 5.013325517761915, -4.1591165423112155, 2.2472569332028804, -5.387345531548538], [8.027590590445207, -0.14800500559100221, 0.5191812539083305, 6.390378590093639, 2.204583941267306, -4.619962615557727, 0.31603486467882214, 9.833268854216184, 11.977644668861405, 2.9841307933867895, 1.2678531743377088, -2.23103144854612, 6.912093376908224, 1.3271131224163317, 1.7905665570244031, 4.343709932403007, -3.33346059878952, 1.1765694900370236, -6.320737768222259, -0.007831109144294468, 3.271310662250089, -3.9404449582245658, -4.518849673879826, 1.0134252169389308, -5.0724302984980385, 0.4455458220407432], [3.0441750664622704, 9.790430159551493, -5.806472996582143, -5.3170649820050935, -0.9102423541747261, 3.7631281531694962, -3.129656352698023, -3.899638099602445, 4.185482732693095, -2.4169563265517304, -2.1147074676245436, 0.9744214406744391, 3.4757131665185046, 4.580018581690262, 3.9974500674887636, -1.306004512345756, 6.75439083818368, -1.0770367331821162, -3.192331494929138, 2.166809653141196, -3.3766731608941236, 5.37796905494963, 5.2255145732848085, -2.305971624178677, -1.883739681475853, 3.8136527260000053], [-7.7827154988042615, 5.291059808041649, 2.3965718341291735, -2.126211861398095, 1.5717458842383003, 4.3169194754756886, -2.9457549081142327, 1.6246856591483554, 1.4955712031274984, 7.844990244846642, 2.4360788442222883, -6.719037444867195, -0.22564675994118688, 6.295140408795758, 1.9402141830424955, 1.295877532598127, 4.42745994286005, 1.2145850729751242, -2.2342631719203068, -1.892236434101835, -3.772348499872012, 0.5600588753367328, -3.669891837953634, 0.8931508031402894, -1.7239317088261634, -4.97685106817717], [0.8720536287571655, 6.623232044817793, -2.0669640291071127, -1.2040199516401586, 9.663337546249137, -2.9438499999145336, 1.7516496128352954, 0.3177157910703606, 11.269794270485024, -6.480204493564516, -2.844584171670148, 7.848402155440757, 5.179691110624444, 7.611203268122916, -5.681096306901415, -0.9098969747875185, 5.165607538735411, 0.07687067156390603, 2.1422188955833605, 0.03626044425295118, -0.14013571559484306, 0.14777845861474415, 8.578422942544373, -6.0917822756217825, 10.605122142944268, 11.293242532189193], [-1.3458215686044237, -2.6161464420168734, 0.13691143726267035, -2.32896017577864, 5.710061405695344, 6.933825249788487, 0.01831403544115945, 2.8999240597579226, -1.0537932883480194, -1.406770998760667, 2.517224614057337, -2.079523283184942, -1.7392940027164037, -0.10805381119202728, -11.312247013236208, -1.442225871129168, 2.047566530814927, -2.257436349061913, 0.6194433315408345, -5.062396221348985, 2.702907650513115, 4.196724723748579, -4.559071973159688, -2.2236591645790016, 2.954960465140926, -4.068431222022774], [-1.0505837693203093, 1.8768217149461806, 0.6294715992411293, -10.0421694411586, -1.2789313782147773, 1.9221118742609278, -1.6818052486796011, -5.935768326511984, 1.2055160239050582, 3.194241392118489, -3.176290944484163, -2.899004787339455, -0.8068293622878522, -3.1046455425981456, -0.09287321249040947, 0.7063046305662976, 7.803813918834001, -8.767378061874844, 4.745030406437642, 1.2653484379805926, -5.838272052895336, 3.619129683357575, 4.285531725470255, 1.2592058596475404, 2.1457554462725477, -6.3730989575910275], [0.2017898426111947, 3.761090355949391, -2.7916926389776826, 7.128361230215185, 1.492825259118192, -7.1397233195627985, 2.7873674001120494, 1.602945131400412, -1.923077166405535, 4.105730800084469, 3.59112249414485, 4.172149514444948, -2.622890128046672, 7.05531378324323, -2.9038556981810606, 4.0727215716040615, -1.7697615368204747, 0.6875393083704833, 3.95568817056348, 6.072425097601572, -3.617747819266359, 1.606841726983352, 0.15666403399487494, -2.9892019519724484, 1.5351685795146226, 2.251420733240876], [0.037838179720087295, -6.472315698373684, 3.656125756161093, -4.257827268163912, 2.896920706465666, -1.7051588178882404, 6.006817489542736, -0.48741642026961907, 1.8800967580845693, -3.7283800811992824, 7.2352574292758645, 4.01919480457628, 2.81372415601828, 12.822553165030234, -3.4962062688212194, -5.789741281381777, -3.6468461861015453, -0.9652870509010714, 1.55385954444405, 1.9445835529731506, -1.169909400415766, 0.7435988033487144, 3.4354586312395625, -4.4406982712261085, -1.5396971337587364, 3.29803822822649], [-5.641385009898153, -3.2068799898745635, -1.8438032089238692, -2.4170866712877315, 0.7417163567119183, 6.212820838183881, 0.7328508907997375, -4.5841645260657735, 1.4150431225058813, 8.627710054964654, -0.8066271685484165, 4.666417998573362, -3.9348297533734273, -2.5968232050972904, -1.2527864919454228, -5.8871940093906785, 4.473296482797818, 0.912586136238113, -0.822976324826564, -2.2295012752710286, 7.64343162702588, -0.8955053165332709, 4.532134931621911, -2.012083260693411, 7.713361541361157, -5.822122769236423]], "bias": [[2.347777876316562], [-3.670789352561399], [-4.372324011693692], [2.4148072515013643], [1.5550407370447759], [5.331757082490986], [-0.20133827350412953], [2.027948544414837], [-1.2748632361289052], [2.4184851270801193], [6.6765414953082916], [-1.2703859704485971], [-0.025564662536048333], [-5.054606664495834], [0.36822142199764846], [-3.720490021547832], [-1.1681738593872948], [2.089515854591318], [0.08931658897129685], [2.760120646171359], [-1.9862038602585528], [-3.773992676679423], [2.1643354205664456], [-5.5622178573945495], [2.247976821075341], [-8.217072358055905], [3.178599963074954], [4.110644020075545], [0.6493217638331581], [-6.640397142719966]]}, {"layer": "activation", "activation": "relu", "activation_prime": "relu"}, {"layer": "dense", "input_size": 30, "output_size": 4, "weights": [[-3.080182205632621, 2.0157382149413783, 5.224705381724205, -2.447246472801541, -2.5829668640484864, -11.537514619478168, -7.099902836636036, 2.4589281473075864, 3.7193996918110432, -0.6456236209518855, -5.630786179177628, 4.201668191930864, 5.744609541293855, 2.9581866752720836, -0.8814670091009251, 10.599968106526896, -7.362535660241114, 0.5377262723676586, 0.007657712230651481, -6.255361390106704, -1.0635340818960883, -3.1941176203707613, -4.123246088074011, 0.08653255792498413, -3.2677524620848057, -0.8887414898123966, -1.7165983218512972, 0.034464171637926484, 1.0364351392849995, 1.539015071330327], [-1.3072460478886634, 3.332253032628345, 1.5011789598213783, -1.309824753620339, -4.529014759376352, -1.2389815358760563, 0.35584844020954853, 0.051262863976068496, -1.1692117999652962, -7.773373945586529, 0.14691404963854526, -0.8848047098779314, 5.720327751530629, -3.4976852774929355, 2.339620741065135, -2.357413158167984, -0.3897448706701616, -5.730136549519699, 4.376391266552522, 2.920491977264761, 0.22766280647141013, 4.029754963851525, 2.555928946029121, 0.6916802789903642, -0.3610744286075376, -3.352519630114877, -0.91233905312479, -2.1941041983947334, 0.07291789081317956, 0.26212738770414085], [2.707242502501703, -0.38804950749248446, -3.7246257377121195, 6.6332085451215965, -1.8899836471779983, 2.849703221195888, 0.20889799297287423, 2.1787975471960506, -0.5715710351591938, -1.3525606066132463, -4.865826418681768, 0.3068172476100804, -2.9958735796643663, 8.042901295679183, 2.7625342202841914, 1.5110511394199793, 0.059214515828518555, -6.635972252727034, -1.369509327537513, -0.8473373829868445, 4.629141424546508, 1.5684262749810332, -6.639649690540139, 2.430009231116319, -2.6085981468145363, 3.4739190810340017, -5.484587126020369, -3.911666984602911, -0.560163309274845, 0.8219907915219768], [-4.575469782645383, -0.5647211107301686, -7.267791418940622, -2.180177247710594, 0.15589428074379186, -7.684842532639357, -1.6041055448840555, -7.767260907696295, 0.2781501164108322, 15.108287859080603, 5.844222206728662, -0.23271926401756615, 5.094570027374028, -3.0782964176326266, -5.419695190009137, -5.589318937024108, -0.9118322124451623, 7.628984705256322, 2.2888535595288895, 3.851916629227136, 2.9506591368579738, -2.546270253927907, 1.3561514061895334, 6.087315247325849, 0.9142105182546143, 5.180351638573334, -1.2377668582418015, -2.8791215002267063, 1.5118455180042327, -0.932832015846675]], "bias": [[-0.05215523761997287], [-0.6049831399088341], [-3.1731178172717867], [-2.218907053671023]]}, {"layer": "activation", "activation": "sigmoid", "activation_prime": "sigmoid"}]}