{"generation": 358, "board_size": 10, "snake_size": 3, "input_direction_count": 4, "apple_return_type": "boolean", "segment_return_type": "distance", "network": [{"layer": "dense", "input_size": 14, "output_size": 18, "weights": [[4.566227977768512, -2.327879348563764, -3.0530392554483208, -0.13055200951026802, -0.2766597748736701, 0.43867646298041174, 0.9777999940782545, -3.0589300207089516, -2.934523930068283, -7.671668952869855, -6.992572489761397, -3.9737580065177065, 3.467924449102529, 2.9151980492621545], [0.2373933914237124, 6.2080463417909355, 0.4155797025541461, -4.66678327028065, 0.325984703844985, -10.311088634636814, 2.6301665608433575, -2.113447406639872, 4.966373446116878, 10.998550131995541, -3.1530205427953484, 2.8021786950880387, -0.014374361316989742, 0.22199937700388958], [5.205135821455675, -3.251789539518767, -4.080777843885211, 2.978597690171931, 2.0218798673511404, -0.10996950290697871, -2.9751427304593387, 2.393310187702258, -2.5103469463861816, 2.0177366912513746, 2.8018632750459034, -3.6919005611976514, -0.09689083088012933, -0.18752862685914806], [2.7227348216899485, 1.7379003798475228, 1.502979094066833, 3.264151312042945, -0.5450767633181057, 1.7201792297335745, -13.546668279411637, 10.517542716883675, -2.575721960972762, 0.8154050307474169, 3.456404062205221, 0.9182882947664216, 1.5263826173005999, -5.684323448628513], [-0.8851365789922888, 6.663400492238179, -0.24800842830490422, -1.6341154311469963, 0.9841209905925982, -0.5303574598232206, 5.1563724028514, 3.094717848447127, -2.610856339111305, 0.33751799532382, -6.588211073818271, -2.0582317627571514, -0.5628431400297679, 1.7517598380513801], [-4.735969601412326, -1.2722071731005422, 1.5387883090527803, -3.311244686451075, 0.6436249576735824, 7.182011008921821, 1.4219204024596084, -0.8888063193170926, -4.366010852854056, -6.104045833624191, 7.453674116125995, -3.237882329962435, 2.2743662362883112, 0.7583541364237019], [-0.7900908178725436, 0.8503223806811917, -4.7120766318266, -1.5665945320066008, 0.2861719738668501, -3.6814815116418225, -4.889251226328314, -3.7659214651835353, 2.7833581330127495, -4.223892139223152, -1.1929798534482254, 5.567827743453772, -1.1231415825463793, -2.9832036573582608], [1.814711829710461, 2.856123811985687, 0.06533067114470104, 11.184857775028888, 0.20866152900467116, -1.3084270676394398, -0.8351738823441391, 4.009277647806437, -0.06944683062957147, -0.5916923372763121, -3.1534485498483322, 0.7197976089275907, -3.417982947577378, -0.40605809385551805], [-1.7379900153376588, 1.6973277058249863, 6.107938004710274, -6.4454478816196765, -1.4674392553515159, 0.5157021271294047, -1.099307811435652, 1.3672308904589567, -2.4676346188738316, -1.7534976384334093, 2.0784276118842864, -1.7840051728799766, 3.603635966740232, 3.084332756890009], [1.4371051200214227, 0.2835032291851094, -1.5146480568901182, -7.803353219389872, 2.1200889398876512, -6.004483890967314, -3.6528009453700174, 1.9092051724445067, -2.775010316640587, -3.80643381978512, -1.1459576613903717, -3.9801486762928597, -0.29305854871563275, -3.815694955572912], [1.025078134834627, 0.8964319438254413, 1.1549284275001839, 6.3694934745270455, -2.0907280389991176, 3.6883715344388475, -10.739565241074176, 6.578895371398039, 2.4967849928729997, 4.041235240369675, -2.0033835178565926, -1.9470660516312153, -0.8075708591913493, -6.675271135812642], [2.428605403643103, 0.46159266007266964, 0.3520148758640127, 3.2529925579034473, -4.997803961797269, -3.863921899355973, 4.28886460176493, -1.4842363588573435, 5.395783791317244, -5.704997055683196, -1.0760893645470047, -6.364248718535541, -2.237340569157975, 3.668708877420979], [2.1611466655115645, -0.8025840061580509, -4.714551361013549, -2.452523744328221, 3.313137681832314, 0.63707642201147, -2.6189944357037316, 2.5662369024953993, -0.057611678469677685, 0.018359366037592972, -0.7372776930415611, -5.144122273575137, -3.761842974747255, -5.273890635410012], [1.7830553826084392, 5.001350014979587, 0.9543989562446173, 0.22175506697625058, 2.377382980686171, -1.6776686949326205, -3.1415359213079714, 6.224057913291056, -3.1556123720703257, -2.7234210061202946, -2.0519289302525516, 0.5700179659117353, 2.7919314081013686, -1.0829290895029557], [-0.41546169200730515, -1.0014068151593338, 1.7614777213577053, -3.5261079088726843, 0.6505368800940147, 1.4843040150084743, -2.7193398182643875, -5.727221171120162, 1.229898434033096, 0.2609798203137135, 1.9118142850338447, 4.171129331161535, -1.3394678016445862, -0.011185341520697528], [-0.009982884817188564, -2.7962309365678006, -1.4323837598398246, -2.3940038823503182, 6.311050091024173, -1.3324812674048157, -0.7464579011281727, 3.4165241231319077, -8.384521802324345, -1.4741807411625099, -1.1969832876178867, -2.687182581880127, -1.2006933613135558, -0.2182825585165642], [-15.161721117580687, 3.056812611561817, -2.155238774131697, 3.248900349876147, 1.6234073621712521, 5.934003162242408, 8.710037203972949, -6.118348367864155, -5.157008396952385, 3.731220405139159, -0.36747324942518983, -0.007657757225098871, -1.4581803110169202, -2.0099080091544104], [4.111220771315167, 1.7447189035800226, 0.8517589249909856, -1.8781724590465507, -0.5474327808502606, 0.9930365910616221, -1.4915699443121027, 1.1240309276935214, 3.2464589291806116, -12.096099550686619, 1.708988251292183, -6.231845628500169, 0.36362674102044545, 5.758489099956035]], "bias": [[2.5583968377519897], [-0.24062583353874617], [-2.4311942141266516], [2.2631169815220256], [-2.5897613818447947], [-4.391232393385618], [-0.9067485886113291], [-3.88346428017853], [-5.208581275001369], [-4.272797429061588], [-1.248310922514443], [-9.151776026111426], [-4.426877817720418], [-2.9008373330919337], [-0.06828245124040061], [-5.647008161867161], [-0.6816287575177203], [4.495484954294817]]}, {"layer": "activation", "activation": "relu", "activation_prime": "relu"}, {"layer": "dense", "input_size": 18, "output_size": 4, "weights": [[-0.12612533403484577, -1.078696994121574, -9.490038816706742, -9.189758878624204, 0.644211987832899, 0.2290361104802323, 0.2799933038482487, 2.7184462211734512, 0.7000250542385866, 3.4666947969732336, -5.805292339615101, -0.6500114051966015, 0.8437832815580275, -2.0879864150129515, 0.2947407322544644, -0.463132201991455, 7.321009166750243, -2.623589676767147], [-3.5416374305032576, 6.278673633023331, 1.5534375174616757, -3.7209900131528837, -0.030828109183965058, -2.0964168208494205, 6.339926404588176, -4.35307383620854, -4.132392893124102, 3.4474849566452264, 2.500762178980681, 1.6872778948352056, 2.772624825116776, -2.1699593795212806, 0.10764027362260009, 1.0204000177561936, -0.2737331252872482, -8.484817916476208], [0.3090517604076515, -5.7625381707048575, -0.16931139619812563, 6.565542133879017, 1.0185053374084667, 0.6658833665667934, 3.433621570730258, 3.8450893594371087, -0.07206656564787073, -1.2005523108719414, 4.517782149194533, 0.12451536616506975, -0.2906884129277011, 1.037305639680345, -3.681679308274013, -1.0570096687310153, 0.35945892319760264, -5.790502431216496], [2.1669764724506444, -1.1851732414344724, 1.778310404552205, -2.9322203131428206, -2.7635769582861527, 2.578334909727868, -5.105677380788694, -0.001044566545544967, 3.46055042571414, 2.802067148142866, -1.1973656748155164, -6.27827067642333, 0.35684966644763727, 2.543536611351597, -0.7215878792189261, -3.2958436749800137, -2.6743602805686644, 4.068563775308784]], "bias": [[-0.8122370846723741], [0.9844229461252872], [-4.566040551083984], [5.363405890871819]]}, {"layer": "activation", "activation": "sigmoid", "activation_prime": "sigmoid"}]}