{"generation": 354, "board_size": 10, "snake_size": 3, "input_direction_count": 4, "apple_return_type": "boolean", "segment_return_type": "distance", "network": [{"layer": "dense", "input_size": 14, "output_size": 18, "weights": [[5.839540145879508, -0.5144878150243944, -3.483379726727685, -0.07088606664628369, 2.2283127621163334, -2.7613557908133033, 1.8298374124166963, -6.53119242128343, -2.2925197935380583, -6.676635368569906, -11.615883811791994, -0.8431988022005561, 3.5833377106388165, 4.49390911852968], [0.19267933203660914, 4.9339838582918185, 1.082844409317759, -3.793067452338839, 0.9003653067153952, -8.821741235850649, 0.12150297113834935, -1.3972835799003063, 2.037871795151282, 9.40863856766292, 0.4060232617719081, 3.135034444666971, 0.04967723563478607, 0.7771979144835122], [3.0536715800391936, -0.5307409992374752, -7.035316444221911, 3.426065303072791, 0.4014600593455922, 1.5255479849222633, -3.150630404915721, 3.0270151047749625, -1.9260979433616767, 4.16018144154046, 1.3012724692829964, -3.67994739642082, -0.7754103130563558, 0.8593742290090269], [1.062125588689472, 4.319861616256741, -0.44175756553730383, 5.205332416417638, -0.16354986063518062, 2.200711439719032, -14.264356290010946, 10.693685177672064, -2.508560269657237, 2.4520861609529474, 2.6556570481197994, 0.9182882947664216, 2.766516000309453, -5.684323448628513], [0.19965064317262451, 7.821455664693755, 0.7063116131935918, 1.321038886147161, 1.4007781029499635, 2.2368068121251663, 5.096065754735495, 3.094717848447127, -2.610856339111305, -0.3396514326038471, -5.209666530283768, -2.597619456777026, -0.3889108614321679, 0.8813722895020022], [-3.949377360592779, -1.2722071731005422, 2.1907732162762885, -2.382197159590415, -0.38842530787154383, 0.888876092407146, -2.1786749752674974, 0.4355488572083651, -3.38444340302596, -4.794163272358161, 9.598396960407321, 0.04845742607247916, 3.1473863444302532, 0.033775855861841286], [0.03273052594622994, 1.6080421979083723, -4.053986299416347, -2.6300705295471722, -1.4285101746703033, -5.100599236234768, -3.905112025180134, -2.882618107501657, 0.7116248618169101, -3.046681855598596, -0.5932861744603479, 6.643436278816749, 2.8876403135552415, -0.22680139808580946], [-4.165751385334104, 3.5841977076635936, -0.516035677684077, 8.232634376183515, 0.06276322599884421, 0.7870555654607503, -1.1950167532500973, 0.26746890497969283, -4.189405697048534, -0.00817678803392119, 2.4049172791154847, -4.984484980180166, -0.8393841168137568, 0.8413566022319476], [2.14978607014756, -1.0026841374297475, -0.039476298510039975, -10.763247188614006, -1.2518657952722891, 1.113575234502957, -3.0591040861452994, -5.554682429122797, -2.303252808949867, -2.9021873232553843, 1.976141272822598, 3.277493454073352, -5.604627318695805, 2.104017506564721], [3.9051421901169725, -2.824439491975546, -2.8329121930991197, -1.9344486277087225, -3.4031740394497416, 0.7806793815564022, -2.887600932048895, 1.5505842546631534, 5.978387095092909, -2.7500851174561527, -6.808280459551341, 3.1287424178078873, -0.45002888368492955, -1.8935468107404192], [3.3882020662070644, -0.5237516040779928, 6.281368583958469, 5.095680148403594, -1.257264145076292, 2.9880594214747815, -9.066171079840709, -0.38560803816013256, -1.4090112454445238, -0.9990688155104629, -1.3182584047935146, -3.585317757850288, -0.23609090247025732, -5.001225198563213], [-0.12373602587528854, 0.47169893530184837, 0.3523669257895632, -4.126058476812429, -7.196435003929296, -0.3636531734229418, 0.48797958124097307, -0.6559530776954013, 4.236763879399593, -5.704997055683196, 0.08156258726532684, -1.0889603756531343, 0.15221019886962472, -0.5233274399048504], [5.707503590229686, -9.835017851120924, -7.936950258679572, -0.2086640601776968, 4.220285113373121, -2.0237121716321984, -7.151900471015356, -3.493052227978778, 2.6994667955372806, -4.85589616500927, -2.4246013198549905, -4.140015066177788, -0.9082645729018745, 1.2152047856614223], [3.496613629038121, 1.7806024883752507, -1.399424104992766, -1.2603199301057455, 1.025424615305422, -2.075844187987375, -5.165601631613797, -0.641489731141959, 0.4423802666533808, 1.9920294212856424, 0.6712899161714063, 3.345475314545111, -1.5475597492708804, 1.376345661874958], [-1.0235390005333322, -1.2511480618723028, 1.695302017555291, -3.2757565931504473, 1.2867348976473498, 1.4843040150084743, -2.8325564416698366, -7.809369245998775, 0.6542160206933929, -1.6124033703217555, 4.446101334056078, 3.147786109266425, -0.6324542802247775, -2.9737587194588166], [0.5863077588082408, -0.4799233188702873, -1.6995388641205684, -1.617282268529404, 1.1386656263032817, -0.7778430379347414, 0.6588659945321269, 1.8952070164492907, -4.779950453038634, -6.925050643899394, -2.2212576690084496, -3.143909798300073, 2.163174787064637, 4.768460429869656], [-16.075615142767333, 3.325716710074514, -3.479218231671161, 3.248900349876147, 2.0732540520904967, 5.934003162242408, 8.036628693465705, -7.4638845052469724, -4.0073748527517985, 2.1978697726990233, 0.022170276965470248, -1.7814008161618187, -1.9058123660221833, -3.121000971576643], [2.0794510062787297, -1.373774503257254, 2.5025486109231925, -3.278298980612802, 0.7220978802659781, -0.15945418963316338, 1.850287015252091, 2.440466404647483, 1.5971861320435126, -12.825149223867696, 0.5826446635777529, -2.085982266937878, 1.199007399497757, 5.384970405043143]], "bias": [[-1.7343914027812957], [-0.24062583353874617], [-0.9062779249427513], [2.612148420014882], [-5.22330313948585], [-3.0330130178431807], [-3.4208825968931], [-2.3351885916819843], [-7.309811536151313], [-3.0628311124969234], [1.9538614280496918], [-8.621217580159248], [-4.785870861357758], [-2.5125076117376617], [-1.1063064782241314], [-6.468443324787506], [-2.430145524771416], [4.485166130689851]]}, {"layer": "activation", "activation": "relu", "activation_prime": "relu"}, {"layer": "dense", "input_size": 18, "output_size": 4, "weights": [[1.5447242100681238, -2.3516611791056925, -9.04906438520479, -9.141261132572506, 4.358317081938752, 3.1855721441171374, -2.7246822227724192, -1.60273302536712, -4.56571330347514, -1.6279638920985529, -3.2563107290388476, 3.8314993973728892, -3.839431481265763, 3.2559327175478363, -0.10111835736054631, 3.2488240285574648, 9.273503432009308, -1.3031868195595193], [-3.2646205578639145, 6.040874113134132, 2.469348358274911, -4.206028317304501, -3.8289564889351357, -1.7127209635899159, 4.01996683242034, -6.877762917401439, -3.6622763624050325, 2.8736060121473415, 2.500762178980681, 3.1044805686155783, 1.6673032489438753, -0.27836098394441855, 0.25824613228388416, 2.6880532467804166, -1.018720814071306, -6.703133238376563], [1.6051591463581245, -3.9778177945019904, -0.16785712158421673, 6.059704243255796, 1.8530566355589912, 0.6658833665667934, 0.5234619677226049, 5.516368491306359, -2.04892047266084, 1.0789071511360029, 2.5079927218259748, 1.9442101531191511, -0.671361778154054, 3.4964659792230535, -3.8258348753256683, -0.14168621601692194, 1.2672695320228708, -4.696439571199365], [5.339441098689466, 0.3201080250356507, 0.20623476620927006, -5.413413457102733, -0.6563563010118496, 4.177489860952361, -1.3565849211681484, -0.6106902007874648, -0.4935483305822745, 1.66633782629212, -0.38733485561253833, -6.27827067642333, 1.058975692972318, -0.22960500256035707, -3.595719748171806, -6.683645170811964, -8.24257555328994, 5.573073384088904]], "bias": [[0.3278552048006974], [3.268066124104246], [-1.5188495632054932], [3.739588419740718]]}, {"layer": "activation", "activation": "sigmoid", "activation_prime": "sigmoid"}]}