{"generation": 440, "board_size": 10, "snake_size": 3, "input_direction_count": 4, "apple_return_type": "boolean", "segment_return_type": "boolean", "distance_function": "chebyshev_distance", "network": [{"layer": "dense", "input_size": 14, "output_size": 18, "weights": [[-2.8587829726514387, 3.2719753747122233, 1.4843510399163786, -0.7112183717833909, -2.7535834573041145, -0.30950782565804585, 2.616670702006991, -6.014242786875884, -2.0159152100007613, -2.2002560397628246, -0.013731577945923112, 0.907866448577455, -1.5104492788844257, -2.88178027812525], [-3.901452631098791, -0.2539396029410954, -0.18304748768369328, -4.85837579521603, 0.24658166646628432, -0.6347541449810166, -3.256722339390725, 2.5135500709842997, -3.1828523473781334, 3.805276055104067, 1.3033576899247092, 1.6800952891565795, -2.0668172646754717, 3.693984190189651], [0.9493320108988333, -0.5027455177195189, -2.8413182682344775, 5.416003308907057, 1.9702664066766693, 5.2760813158312185, -4.941252757896944, -1.766421632438388, -3.8923844066146422, 4.370231731303795, 2.9330206215489607, -3.0539025280720087, 0.6164543531547757, -0.7118244049396838], [-5.193306532533619, 1.621104546670146, 0.8594363770129727, 1.9651939096422308, 0.5360784401572041, 3.212912142335133, 1.4407754068836962, 8.292618914840713, -2.5900227625483287, 4.372658951691613, -2.5515099168871562, -0.9675104653222708, -1.8580361020332892, -1.8204772442281556], [-0.4663368790303213, -0.7060511289468792, 1.8290213495602201, 5.299414171932883, -0.47600052866234643, 1.5119238769345562, 1.7627621044305517, 0.3409361768835847, -0.996424587615709, -5.484598931989783, 6.692971134489037, 0.3276876594807239, 1.0958051678608474, 1.438553112349069], [9.89062392604518, 0.2667832720855712, 1.5755027838593783, -1.6459125977845988, -5.740222458652989, 1.036993036498108, -4.790157371188831, 0.9040598897150065, -1.5291948137435365, -2.9548251788731563, -1.7244751237039937, -0.892069578414359, 1.7189339376425827, -3.6902487912703905], [-0.005850052269777084, -3.2429973795321287, 1.8527008757130472, -2.6297400662699766, -0.05735056186957427, 1.3621295917021632, -3.3970556634092746, -2.2045326964640077, -0.6772778105801028, 2.2475927572543783, -5.720684828408905, -0.455868934670964, 5.116045371398353, -0.5511138393215604], [3.2013424327910744, -6.466517934763577, -0.43623018633871485, 2.8319977788009805, 9.495109629561538, -6.467646531735392, -0.9875979615306344, 3.634475895036811, 3.649001601131335, 0.3625083648503793, 1.7754585453449545, -3.254647385967317, 6.6191776680262135, -7.97541881106053], [2.064537262132021, -1.932391860226725, 2.133094468985093, 2.5793399264094807, -2.113408976957312, -0.008171822198191458, 0.8953861938147533, -1.6831349501954316, 1.9488379959419881, -0.32974376076095335, -2.1865970593709276, 0.08103755104181753, -3.9923264746409037, -5.810033767394644], [-4.385945064517342, -1.2669875781066418, -5.780264159546354, -2.3766456665091353, 4.399302598152843, 2.3244020519834567, -0.5551503062934939, 5.039200470363167, -5.393737231433399, -3.6867535636728976, -1.4413130566236938, 0.9409616968273845, 1.8238947283884968, -3.060482576841807], [-0.7145888592180759, 0.4584572218925105, 2.312668832245376, -0.2812880824789188, -6.512475273311581, -2.544538062344275, -1.237334595574018, 2.19236160526172, -2.8266421598507008, -1.061939111425229, 8.858307817472912, -0.6970789261798216, -5.083861014915221, -4.780261407257459], [1.5099189162444202, -5.259017007729764, 1.40074874375674, 1.7209682433438491, -1.7542616153112196, 2.076480952988013, 2.658352144918908, 5.680679150306363, -3.217332364455783, -2.945908932795464, -2.299671463033926, 0.9760406421770216, 0.3081875402268459, 2.8261890812672315], [3.013818134350812, 2.6938134130911817, -0.5585430448223336, 2.6787047526369374, -3.972068219700512, 2.7303609201800234, 3.7749311770207994, 0.6411567449526441, 3.131275130971882, -7.146686171308449, 0.015558333422088844, -0.1779752422827131, 2.877078317582038, -1.2228158588017464], [-3.9603984252979663, 0.8527220836354039, 4.326836481617662, -5.536352615547844, 2.4249888163065747, -1.9737977199446215, 3.2848231917410122, 1.4386621359918073, 2.623674216438564, -0.7426377696764082, 2.0213084921992444, 1.477083729486166, 3.047302516580382, 0.5801805093482563], [-0.22034470633486825, 2.783124388975555, 0.12609826739207342, 4.121149923981865, 0.5811183286132475, -2.8781765168758024, -3.6396627983356167, 2.0832367386640955, -4.122020484657092, -2.0571778480358516, 3.7173759888124636, -1.6550677405493266, 1.4126531907061475, 0.5217457498417157], [-0.8883714138300973, 0.6450861303657287, 0.37349176449674515, -2.516924523615454, -0.34319470842477606, -0.157481420852647, -4.411192938745539, 2.1448531842062253, -5.0488090697652686, -2.229634934579771, -4.227928455718722, 5.617998680833386, 3.134331006855505, -0.02612108838933136], [-5.195327864566456, 4.969966488086353, 2.237257776257288, -3.8352193496416844, 1.3361996515999537, -4.3046671131417344, 0.12520004540615626, -1.4180791809454245, -4.671232504966132, -3.9071796850427045, 1.5891446229198334, -0.43054306221890953, -1.556474272070646, -2.3269733224978397], [5.196903789138284, 1.965842406015597, 1.7846436659589022, -5.413269226205385, 3.222040531890275, -4.009688137049804, -0.525614892202747, 1.7505239963762982, -4.703185182730531, -3.1643578615542025, -0.09737227840965079, -1.957922368870591, 1.9567955027646131, -3.1772665104364726]], "bias": [[1.4567561900006643], [-5.297486792869407], [-2.084612681381678], [1.2289191821500318], [0.03711382347550507], [2.6741168191458917], [0.8664963672735717], [-0.2454394583308918], [2.9061308298591837], [-0.522247183968384], [-1.5045859191046496], [1.6042816422774528], [1.4447308012358724], [-0.966166203097059], [-2.983313854913175], [1.912659439308495], [-4.368113303861869], [4.6583323923907365]]}, {"layer": "activation", "activation": "relu", "activation_prime": "relu"}, {"layer": "dense", "input_size": 18, "output_size": 4, "weights": [[-1.2487155532666538, -1.4513936135692451, 2.082651938712471, 2.9707580941184655, -1.543816507906775, -5.470643719928841, 0.3893553458824077, -0.013107114921241753, 3.4043829622855215, -5.567314862890105, -3.12522355402688, -0.862911972509097, -7.998353103746211, -4.352938693945936, -2.5130664936769063, -0.22529533019960923, -0.00893536993593691, -3.817616155722408], [6.907131287379248, 3.6775839218629605, -6.1148254204236165, -1.6079962409790811, -5.506795832797711, -0.46331931581201485, 2.519997155274221, -0.07266181976876313, -0.4511267028873797, 3.713354003259104, -0.6171822467774457, 4.450938491947006, -1.0330445999544569, -0.0579144237144234, 2.061591575442323, -11.81481092499007, 0.7891382823076181, 3.1907049301361865], [2.8572240791896455, 5.789536720060578, 2.232135302007755, -0.4399228597453875, 1.935811982175443, 2.0594859105670067, 1.9623637788935269, -0.004211890904710636, 1.56333604338864, 2.0169988025499617, -1.5716091998808672, 0.16125174601261927, -5.804312362707739, -3.259029083030839, 6.0561633229164755, 3.1240140401917627, -0.461635522957442, 1.0878787384344073], [0.8681500426177241, -6.410035893519766, -5.300932584084203, -4.486804734199142, 2.6172506200271726, -2.595569227478419, -2.0654568119152628, -0.6216027305331738, -1.951198981097658, 0.5924186424279563, -3.990377958920154, 2.4494221135582928, 1.0808082212381687, -1.5583324704764467, 8.699279556352717, -0.60710278378552, 1.3960563284893066, 1.0020993356150123]], "bias": [[-1.3909232320008322], [1.0261731221827013], [-6.240942275725353], [0.2872887701232689]]}, {"layer": "activation", "activation": "sigmoid", "activation_prime": "sigmoid"}]}