{"generation": 428, "board_size": 10, "snake_size": 3, "input_direction_count": 4, "apple_return_type": "boolean", "segment_return_type": "boolean", "network": [{"layer": "dense", "input_size": 14, "output_size": 18, "weights": [[-0.2979482961892028, 1.4851411197544258, -5.557543269572552, 0.24237531132528278, -2.503010559556823, 2.5664542031999673, -1.2354409807172697, -4.834784670566525, -1.5373543209116272, -0.23789105829597634, -1.303076817763681, 3.5590607420383957, 6.909695912683176, -2.375520725449617], [-0.6519534009586605, -2.405156734887378, -0.5966153350506137, -2.278748026011173, 6.925691645552502, -3.693883404736158, 4.071931180894582, 2.9508572089241403, -2.522418365042223, 8.223225258630132, -4.367196755166139, -1.4193198439206687, 2.9972181829161784, 4.065154274823583], [0.2842141820857109, -1.6875073157674305, -1.2057956824449625, -1.68970003321449, -5.509080788705772, -7.409989076060178, -3.3780557310019685, -4.340779622514538, 0.1319718368162367, -6.96037025088661, -4.814591760931995, 5.430449138849397, 4.112152086662078, -0.18446847713447823], [-1.6170389552131925, -5.160853956028861, 0.7524837275906118, 12.416039724232304, -3.5269677614562385, 0.7418785671393653, 2.5803950491613463, -2.0694136202626727, 0.72277221087541, -3.153569140299562, -1.6198845468932106, 0.479194085249083, -1.1748511344359232, -1.9192568430551058], [0.2698280941680662, 0.9516502374576354, -0.7986509662894422, -2.5680998202529137, -4.636742054691783, -0.07021698519541081, 3.9294826353814685, 0.3295778370517177, 2.9330818620445984, 0.1850341587906929, -1.6993362866725241, -0.2726434719605698, 2.9331880795402734, 0.5365925295208607], [2.397253633489513, 3.058935941468876, -2.515423121238669, 9.09588627388255, -0.0096079340174412, 1.8876973589438977, 1.635751332441648, 2.224523985033965, 3.3043941283566305, -0.09084701013236783, 0.6094375815746286, -1.7139430248108587, 1.6200187762128708, -5.098692219631855], [2.601983865644768, -1.558466958153492, 0.35724141120570385, -1.3393948060772802, 2.95563653895611, -1.666215682513435, -2.481750516239615, -5.498424598859636, 0.09556530694948862, 3.6634906963470915, -5.2940201858313936, 0.6365176717897987, -0.12041658084409418, -2.3260796546318705], [5.161100713316846, -4.016350681620778, 1.6726129855567777, -6.648931381058477, 1.6630441350517704, 0.013528506682608854, 4.030818359499005, 3.0231669245984607, 4.459261136744627, 1.6065261346487627, 5.818474275399627, 1.59720499385342, -1.704246047030353, 8.26903146567511], [-0.09331089474095355, 0.3566778403542452, -3.498543231356639, -1.7041123917808467, -3.6020502100243967, 4.489942197875226, -2.882627646369357, 0.7030757201785216, -0.8230677606620818, -2.931730881097056, -2.634787356416757, -0.8981549654608187, -3.4133719225064243, -0.09359074280766189], [-7.8022456498057995, 4.936695998086444, -2.0785079203066417, 0.9214679412989463, -5.544155316687023, -0.44788589710876847, 1.4776331884472695, -1.4642663347047025, 3.3009292279249474, 0.9723279562644381, 2.077102104896509, 1.2151401993956488, -4.408858638119515, 0.962187750118039], [6.024009640468192, -2.347744839984506, 2.8898969907861014, 0.6513970634796238, -3.3688782110851383, -6.107300658190587, -1.5382328178683469, -0.7315591793608385, -0.3307497748469532, -2.069033833495193, 2.427828323225089, -1.1906448357330213, -0.10284517211067945, -0.2763301213103346], [1.6686525658402152, -2.6095954570725057, 4.187807948761792, -5.315537728798941, 5.227467103609009, 2.258872650650166, -2.010424052484721, -0.6555634849328703, 3.280993130328965, -3.157822620934743, -3.080510753740385, -0.5106473915449626, 5.045120366361144, 1.4237997588803084], [0.7454028081963404, -0.12428533348724782, -2.5798085948763827, 0.8935383621588383, -0.7173691854092702, -1.5280853615040906, 1.6663734883314343, -1.354098957814141, 0.6488262265457871, 0.033529397861933874, 5.451349642006223, -0.7178254603285728, -1.0440825244146312, 0.7174555738258965], [-3.695989291912442, -1.0010027960616883, -0.7657931328938572, -2.6666166424189277, 1.9523872522927876, 1.7473227881766524, 2.0560197472406947, -2.6978416635072127, 2.2783582475465285, 1.3313186219857076, -0.852161072096861, -0.902434101732098, 1.293213912794474, 4.8489534997908414], [-3.3135232357980184, 5.579863070243664, 2.700457183250445, -3.9260264574113375, 4.484216917697603, -1.8810965617359552, -1.2382741971951792, -3.3561103956542926, 1.0446823878863778, 1.5111753730049637, 5.600210855932439, -2.6830429000332496, -0.009289244894034598, -2.305692557749464], [-7.660912735555963, -2.617738444018187, -0.32611639090495104, 4.203378286966103, 0.09516961575638894, -0.38648375642414257, 2.3660058433700972, -1.785659578832882, -0.7917067399949068, -1.9969128524998525, -0.20977562212293432, -3.04348856985295, -3.4939525375098732, -0.4534391565014809], [-1.6663415435146145, 1.3116914692970478, -1.9669588310795236, 2.8509312844148216, 2.104570594799771, -2.9316365756786844, -8.76739612678264, 2.857501559166763, -0.05553204724448704, 8.068979824082469, -3.2992512604494006, 1.9320223431034922, 0.36833048690026543, -3.034368246686006], [5.077651758391037, 0.10149074952724935, -4.139364923422478, -2.4288260799258787, -0.9079193365276128, 4.09728622781545, -0.8968884191033331, -1.88005406277484, -7.4972199461207305, -2.1753627673992484, -0.2015496832312227, 0.32556927641661004, 9.761532494977107, -3.612823126748644]], "bias": [[0.24240726187175896], [-2.666772319359789], [-1.169431070109529], [-2.7303889845764613], [3.3963452180780194], [-1.7383559829491726], [-2.008461429636374], [1.875983808256067], [-0.15758982402508925], [1.4822633464367152], [-7.900150814972904], [-0.13033239622837334], [-1.7314117750099296], [2.435057174341531], [-1.6935981437156409], [3.8074006686492217], [0.024561385641983596], [-2.7376154367615646]]}, {"layer": "activation", "activation": "relu", "activation_prime": "relu"}, {"layer": "dense", "input_size": 18, "output_size": 4, "weights": [[0.4103044420195813, -0.8843132673373196, -1.3847047120703624, 1.3215642591110224, 0.23661371106645573, 0.007117358168275495, 0.06934203464462518, 0.4535333672955909, 0.7377194305470387, 4.235553221366742, 3.4296046815348884, -2.8799571696394795, -0.8749982203493052, 1.5645384130384916, -0.3108508884993326, 3.110075788095618, -3.1708986069394642, 1.7561513172468657], [1.3258127620249005, 2.4351031691681246, 1.5208778583707518, -6.503901354668561, 2.2942002609215906, -1.3562340096124785, 0.44495050180620016, 1.4554832610012562, 0.3708641425517182, -4.038178602168722, 0.3371343244918393, 1.932640194729058, -0.2235096027347263, 2.335403933236173, 0.56956248681103, -3.9844242358731012, 0.1513892317047537, 2.296233376221257], [-3.1730046374263945, 2.0876447773074553, -2.6358152795763132, 9.730856266431596, -7.60956972366149, 2.8153183595156492, -0.5348108102043166, -3.8434031436421066, 1.4444302902275403, -1.516681787826438, -1.568179475552938, -5.8905880287124095, 4.110245953073646, 2.0808790330955382, -4.1590077190132995, 0.019380986967976188, 4.132777859691362, -0.8192468064793881], [-1.4417319324269195, 1.6802508172266328, -0.039835141542203134, -1.4740419520964596, 0.6385148794972867, 1.8137203519936007, -2.6049115251183403, 3.469657434793241, 1.239036590842706, -8.132747385333484, -1.6823842743611486, 6.449872758186644, 1.1427598006808033, -4.64308234999082, 5.492480214967027, 2.060503235995014, -4.187252750179574, 4.366155530756549]], "bias": [[-2.644897568014502], [1.2682930200325864], [4.300595156315085], [5.412060509670745]]}, {"layer": "activation", "activation": "sigmoid", "activation_prime": "sigmoid"}]}