{"generation": 245, "board_size": 10, "snake_size": 3, "input_direction_count": 4, "apple_return_type": "boolean", "segment_return_type": "boolean", "distance_function": "chebyshev_distance", "network": [{"layer": "dense", "input_size": 16, "output_size": 24, "weights": [[-0.9319490536414452, 1.683925992024764, -0.2754009933542979, 0.5353334581251149, 0.24373150256160037, -0.7147751772340367, 1.7894021042540305, 2.675487604031082, 0.55624873793227, 3.380296608922251, -1.3606819029342985, -2.7692270564510775, -0.03816552088926373, -2.9600207674364767, -3.015355221165489, -0.28330109683030874], [-2.002819777135442, -1.2279208804917887, 0.9354890724407505, 0.683988262019017, 0.16828486476504056, 0.024969348738163144, 0.1333051560041978, 2.970306528978574, 1.859338683830332, -0.11558630426988298, 1.0121898655009556, -0.5181470910850609, 2.55469791365645, 0.757878011282918, 0.7627886958729855, -0.6156859014445218], [-4.423649257814789, 1.7415106495408548, 2.47180908789495, -1.2624051741599709, 0.6700676431309474, -0.2172876854071526, -3.6136829400877293, -3.162124184137758, -1.3245278871997996, 0.4523916357333406, 1.9431953712603436, -0.06804060980354984, -3.7362197024820123, -0.4959395651454601, -0.16113389939058384, 0.9348332559223396], [-0.3752268558402704, -0.9474373324323744, 0.7356962861201504, 1.7416266139662742, -1.3675492773058018, -2.242728248760116, -3.7075949035826596, 0.22875915783498213, -1.6974070131155907, 1.0736738809906314, -1.6101379801392168, -2.449472280031241, -0.8965927125469122, 2.1034648509370886, -1.0551212609427925, -1.3331603802095433], [-1.6346008185024703, 0.23991264379615918, 1.5963019744055682, -4.470920600328869, -0.13512421502288657, -0.355952362312017, -1.2670413008673622, -0.06347473283617933, 0.022435367338549006, 1.6006262149068755, -1.0564843188667612, 0.9710457679283943, 0.1706901153021692, 1.9410234872878385, 0.05486206723989073, -0.05146184547806501], [3.197078580347857, -0.5807512051843389, 0.3427746923147962, -1.5180151650304663, 1.771902321054117, 2.4348137894668938, 2.800736194855672, -1.3606510876388958, 0.2486829574786466, -3.710974693042874, 1.1405578786076949, -1.2089813827862785, -0.2647647891011722, 1.442864211779849, 1.181000507251672, 4.5374510422840135], [1.2515432716781483, -0.8815598570270018, -0.8751074970358701, -1.2065257260742799, -5.832372662544152, -5.104627263172162, -0.4047167488072745, -1.9112247692173012, -1.4911895982711019, -0.3911905314558106, -0.7215508950819334, 0.2697892147071115, -0.5077780871119615, 0.9698443951995321, -0.08941013535702157, -0.00990677093786721], [1.5586992851080006, -1.313170466160685, -2.1020364953840676, 5.630202157526082, 0.5732508614493006, 1.6525212456129679, -1.6405721386596652, 2.8217072807816757, 0.1891282713702621, 0.8831684545237106, 0.9573922600001543, -2.7877980347230835, 2.5843943045838134, -0.6561396359024434, 0.9322609234791454, -1.3255382610182218], [1.3935058439703216, 0.4681601250955727, -0.3516430922060193, 2.4916884111566775, -0.944910046096297, 0.6794888624482738, -1.7249800314648307, 1.0754334044656102, 0.3614225646900633, 1.0812623710979214, 0.3411148515248641, 0.2987129332217792, 0.9467811958400727, 0.3910334847026585, -0.565484865580494, -1.8025658603428871], [-1.712900960732071, 0.015673041250704067, -0.8502561090606546, -4.312450315711595, 1.585585293453215, 0.1610892170962499, 2.8944575203737815, 0.5347522661775553, -2.0161268797548875, 0.36658617648110775, 0.2158362493985381, 1.4409532810248218, -0.4741930386953297, -3.560334633169883, -0.5100070491254984, 1.414771248098222], [-0.002063900854223935, -0.13407245570740578, -0.18980161652248917, 0.1856833037359002, 1.1435916293561976, 1.779934020511475, -1.0392551118647206, 0.1565781277695023, 1.9246822962534882, 0.7383080330671433, -1.499129113223856, 1.8548957945510605, 0.6216758471808664, 1.9997033957338954, 0.953747003313654, -1.6200826583340602], [-1.0969653512425421, 0.04073040381846538, -0.7948125497606815, -3.568802662945899, 0.22853579169591098, 1.8098748620796399, -0.6407619375773612, 1.0265731968120226, -3.275805863931258, -2.994934398907462, -0.2842872411664711, -0.663814394094558, -0.7375367022354796, 0.6323110567344727, 0.10452907732189275, 1.1420552417838747], [-2.607725286098624, 2.0935512590711656, 0.40741217609201125, 3.545126872584703, -2.57772087754948, -1.3696763509994057, -0.006758488159814835, -0.34224494789063203, -0.7898251796225068, -4.222763361638544, 0.41287074240882504, -0.9088658754984325, 3.2508467228323914, 1.1073946112364068, -2.2788559820115895, 0.7415813822132142], [-1.261441098820848, -0.7916877805893971, -1.5420876827152468, 1.2000144906994579, 1.150361197617449, -0.8970058358004833, 0.12352584787027499, 0.973349426295984, 0.7793822578319547, 0.49698094941419596, -3.0672213429874886, -0.6705976677262414, -0.779168598912134, 1.1840857489286907, 0.8050066183636986, 3.4186551119731923], [1.8421134937050392, -1.0631518512992815, 0.9751871531677085, -2.045993651194548, 1.6917351814149633, 2.3732916037199026, -1.179837430046861, 3.9672522151452094, -0.13911038514432839, -0.24209386033246516, 0.3621493371756783, -0.49884828576276385, -3.355866819212972, 1.3193083966878194, -0.5295391418448495, -1.0100650598208571], [2.0021658808793164, -1.065118858327947, 0.15747381296535126, 0.2936119921381017, 2.5759091444276128, 1.4296334088505915, -0.33025143518768996, 0.37950427044943047, -1.6536457409073064, 0.6310122136327054, -1.7670973742527312, 0.22354687061762235, 3.6204524510619622, 0.4676725044079853, -0.1012385377332721, -1.5481852911890677], [-0.7343976662364093, -2.6041915575751715, -0.5323994628234558, -0.8608150686332603, 0.43723614853120063, 1.6645463177691473, -0.9620157634654727, 3.6670686215509436, -0.4074752026840663, -0.04293467010425561, 1.7174838690006167, -4.119341683134212, 0.5018747321155657, -0.7592357173599309, 1.5051186143414637, -1.7417689033999582], [4.3016401392375645, 1.741598497394732, -3.534121798059431, -2.5962302738392107, 0.10991073645431915, -0.7523806051333517, -0.10863820284601938, 0.588989682652855, 0.21197772576134388, 0.7124915349054821, -0.9028270515649042, 1.2105777960370838, 0.9983440352512118, -0.2952600452344589, 0.0023094162563856713, 2.094076584411791], [-0.43292249833541785, 1.6346066299962172, -3.2556025784995017, 0.08479197995890064, -0.6650776059890231, 2.0787718796984, 2.0034080525161158, 0.2644599034119212, -2.3017705652298974, -0.4486336900013053, -0.9351250224269182, 0.4608447263497495, 4.332074236001569, -1.4126132697225413, 0.9051155846169583, -0.06357828976575447], [2.0479046836878783, -1.426600855113567, 0.309877812328034, 0.6997228627670263, 2.3359615431940943, 0.4605316709367236, -1.9015721612863088, -1.3829331054811103, -0.8053085408036431, -3.771979110650277, -1.064814047089315, -0.2797746106299617, 1.8643904512038405, -2.3233000822645518, -4.394549548935887, -0.46454250346093484], [0.2560944647510476, -1.5754574973937037, -0.25411891072322584, 0.38032988162541126, 0.07511548186719896, -2.145655014959695, -2.1839497850200336, -0.44340305984530426, 0.4169908636660265, 0.27055040767345895, -0.31185474956317766, -0.6849019092257527, 3.0537831038453116, -0.04558626341200256, 1.2269836182665061, 0.2835523314394247], [-2.3145529916634593, 2.8998241026733744, -0.2658865363443722, 2.2007954526654063, 0.16896414331270304, 0.1643753134155822, -0.26086015606457913, 3.9088240649241253, -0.18845467370654434, -2.275283696751361, 1.4345798722589018, -0.30821359375843865, 1.7433644943676556, -0.17071318993445717, 1.279283202964769, -0.007384996009552114], [-0.6572117413247546, -0.6193644896379258, 0.09576961975559259, -4.621467990447064, 0.0631995743358443, -1.681742004131133, -0.8464459536386311, 5.600059137670367, 0.4686699795870976, -0.0016647083797545204, 0.6032313839456751, -0.6019097542488289, 0.9482945118859974, 3.0687675941917316, -3.4513484431185004, 0.11267216043532224], [0.7975579511119013, -0.4401911636403699, 1.276891734148291, -0.674075888766523, 0.046967512038952774, -0.5680643470604904, 0.6327552154598116, 0.4105346066483854, 2.3666072483481524, 0.40033134466686104, 0.6903001408136231, -1.6318420935149147, -1.3754128556665857, -0.475309340620369, -3.4914759859782967, -1.9545194145107312]], "bias": [[0.14396960688840188], [0.6922552016195288], [-1.8749931166948584], [-0.3879571956603067], [1.0747261928306762], [1.8856922971014893], [-2.1060574322426766], [1.82770565274523], [-0.5842014906583747], [-0.7100409084794458], [1.2863143304779603], [1.7616063829053237], [-0.45120904395416256], [-0.9398988069881509], [-0.9253527907676087], [8.092604254944513e-05], [-1.5363400748705827], [-0.12117506952228929], [-1.7317822222157706], [-0.08642519135669713], [1.2433007887252743], [0.2791351396858751], [0.9893134482060745], [1.1042433823691105]]}, {"layer": "activation", "activation": "relu", "activation_prime": "relu"}, {"layer": "dense", "input_size": 24, "output_size": 4, "weights": [[-1.0460720324551693, 2.409171136988088, -2.7298952396518645, -0.6313021352100852, -2.102298610738594, 0.40059967518273365, 0.5904398530183308, 0.7198888288054986, -1.139729642792317, 2.0018011597480405, -1.447601028718622, 0.25939670811783333, -0.17904146731316994, -0.5850717244812165, -1.4908004105313228, -0.2860729864497729, 0.6060513164719963, -0.7910529366248336, 1.7012228927755524, -1.762332613630404, -1.8084276991264212, -0.1302288074388105, -2.802114467318299, -2.172504268983103], [4.100956235512075, -0.5427381205011867, 0.18006294474687823, 0.7720810721072054, 0.05023866355134232, -1.0175248374824095, -0.940810073284262, -0.06917229897389998, -2.739728387733573, -1.9776104501489482, 0.9620558377987426, -1.1902060427436039, -2.0203614412712696, -2.8451363501877847, 0.7876806886159798, 0.5884473056767491, -4.420797496585494, 0.7538011333453998, -1.7044099045405714, 0.010558756071742614, 0.4617346625304075, 1.464170709753914, -0.7340304332122245, 1.2622438786495742], [-0.4853325860092672, 2.526610728169414, -0.6179472952875024, 0.28489239664859434, 1.952704326286546, -2.4036654314848973, -0.04864726073105252, 1.3050374085793317, 1.83787056256987, 0.3922627519857034, -0.012892636967323845, -1.4016415698064209, 2.96840027874121, -1.6300174065271302, 5.315689229581627, -0.9686891950265828, 3.7402558103383887, -1.6436986148241757, -3.7800619832367013, -1.358686446572515, -3.028850764556539, 1.0487285635230352, -1.7070791672129046, -3.536531040553777], [-1.0678739946131368, 1.5706752360696232, -3.7614682378120685, 0.6336600911359005, -1.9425297464885438, 0.8419172774009074, 0.26626393815124955, -0.4134626099934814, 0.9122459574871227, -0.8435659334592416, -1.3243182591388951, 0.3372727390059751, -1.0175577894939245, -0.08814333595892543, -0.39105468652225756, 0.04692039406746129, -1.4053480801829608, 0.015522895218902905, 1.0409714283383922, -1.4818559244758698, -0.33736590144359213, -0.08563566892130993, 1.0948149722004756, 2.4836195654530244]], "bias": [[-0.6945613784030207], [-0.29574404332235255], [-2.416459413183195], [-0.9127072398805651]]}, {"layer": "activation", "activation": "sigmoid", "activation_prime": "sigmoid"}]}