{"generation": 519, "board_size": 10, "snake_size": 3, "input_direction_count": 8, "apple_return_type": "boolean", "segment_return_type": "boolean", "network": [{"layer": "dense", "input_size": 26, "output_size": 30, "weights": [[6.755301597244457, 0.9593619995203367, -1.7993063885387643, 1.5743132730355425, 4.60881662933624, 2.634072036496452, 2.5578531478559157, 3.2118329790213376, 5.107945674993523, -3.913514786410039, 5.6517473506850475, 0.43293671458229577, -1.0682617075573873, 0.8736762317259008, 2.3137656737409196, -6.237416918850116, 1.748560176286905, -2.2148842337379655, 3.109462358300652, -4.50688429004326, 0.3043959141701156, -1.9254640672910939, -5.585714004721003, 1.213770660639029, -6.45363443716163, 7.651244458921327], [0.9721656357581426, 2.413485131740611, 2.7604326279949873, 1.4666440819738513, -4.858560798683596, 1.3275604346812868, 1.9718129229014594, -5.7963756249695555, -3.6650494144161607, 7.471122690392686, -3.2792559432818917, -2.267233307892103, 3.544869044911844, -1.0079076588976439, -3.38074708441522, -0.3204395626172887, -0.053928185734964273, 1.5190090653218538, 5.256005687743199, -2.774729057156018, -0.5993809293282539, 0.7478127510058937, -7.767044830514821, 4.876832574758675, 4.76122466002138, 8.098133043745477], [3.9417802196538148, 1.1053733750340569, 4.743559280892042, -2.039112876188695, 7.010077337809483, -4.456736612342383, -0.2884925016074762, -2.9243962594907345, 5.642816913450419, -5.691698867920922, -5.576266065317058, -7.17165821340173, 0.022581072778340205, -6.600317796027902, -1.7856871955240752, 0.5360618953502753, -1.8036360296168257, 1.0046680465320665, 1.9505360019235694, 0.2081929669946449, -2.6859442438339522, -4.659549196689527, -2.2554168530224037, -0.43799875358745133, -3.9344100665986215, -0.4722455818453395], [-2.390376833019292, 0.4354928682336002, 6.7594261794935955, -7.283192249888557, 0.5828025125188858, -1.7120753739047938, -2.379344442018668, 3.131511684618471, 0.7970156207428082, 1.111403317028758, 1.0163298744612972, -0.9900423078673108, 0.6191035236715468, -1.7223108080367668, -1.257212338274418, -2.902390546030267, 0.5479707908133369, 4.234401419733404, -4.412282055069375, -1.0542765669225131, 3.0226776033486606, -1.1487999196830134, -1.948160394472875, 2.8517438040408822, -3.14619785666296, -6.206041961984178], [6.622357881398463, -2.9717892072899845, 0.5967825287285007, 0.6755681423124245, -5.004843386938709, -1.7610431493369414, 5.661322097393487, -1.1828885436531695, -3.625436935986414, -2.15835128461328, 2.719606574248365, 3.183579813970595, -0.7427710325519026, 0.7110558489369622, -2.6548661775566336, 4.258004258071517, 4.067408001431295, -0.03473310510504787, 5.552883481902753, 4.36672539515459, -4.3510404012575385, -3.0056682534799855, -1.6203393419522336, 1.1315158213718544, -2.6381651118785676, 2.619025178844091], [1.9600622335548148, 0.009450291421329249, 0.06187340002823538, -5.991195730344266, -0.07088160250949027, 0.017955901117223005, -6.47108173213935, -1.3023154993429196, -0.47224302524361417, 2.9029965518662646, -3.680474045240633, -2.0038587788161197, -1.45830797710546, -1.0197330854449844, -0.5577647657612315, -3.336670126218329, -3.5330720192861484, -8.998230335839983, 0.6284523938831444, -0.9123539120163209, -0.14228485176205452, -2.150098905478799, -5.6919200610261935, 0.032261653132054535, -1.2412980627654544, 3.1195142349995493], [-2.9082714773124905, -2.287868929583306, -3.4118835895601736, -7.34371907383079, 2.8550242416369627, -2.6349355214107097, 2.606782259071628, -6.121725158079173, -1.3647414123510044, 0.7566355020178042, -0.9931443601031752, 1.933127807196601, 2.9663478008751936, 1.7270024171225253, -0.6236083192397474, -5.228589307091759, -3.900613034772503, -0.6901880459964673, 1.4139965169223085, 2.218099901807845, -2.8427560666092444, -4.6889081055609605, 3.9080757624654203, 6.510075894177296, 1.7769388132923776, 0.12337962269220232], [0.1563838940681812, 3.7543329065830138, -2.497533335048693, 3.5392681881282995, 5.114437644659332, 3.908315554490219, 2.2550630926479616, -8.516775260826046, -5.03504718860623, -4.968924110281313, -4.40892527389698, -4.290972319569461, 0.5641730960389462, -1.694782447828918, 1.2409921127668722, 0.016679379206065548, -2.0050018284216, -9.559459906917562, 2.648543585790299, 1.2681178709201468, -3.9595768784133805, 1.109834531648739, -0.20685079196356826, -1.4229674642749446, 3.7178078193225987, -6.173948591666332], [-0.4705472905735847, 1.1724075276976902, -2.329775909000519, 4.317152689503633, 2.500630402498832, 1.4697047592294246, 3.5682781486093464, -0.4083981373842458, 4.885930981295719, -2.2784331979426127, -5.466595494983329, 1.5624773248008232, 5.830852235481977, 3.376620880317481, -1.3907062493916185, 0.3201672629140969, -4.102374424988863, 2.710271730897274, 4.192283901354471, -0.16326560967693404, -0.9157828274615798, 3.1675290335605957, -0.845354562452207, 2.219567079170681, -2.0883286040317146, -5.043322493305785], [-4.305554752518725, -3.152060969646851, 3.77404815255716, 1.0496652769022465, 1.6624992063053088, -1.5793083753486683, -3.0487557021876888, 0.1480870412625373, -2.3258421560252893, 0.7901736143152385, 1.6238244128288182, -0.4267221677898081, 0.7348221491987518, -0.37840558301052485, -4.697255103366324, 0.12726418571998077, 4.611098521981963, 5.7975972821948885, 1.6589049127778899, 3.4425007317522214, -1.558138152130939, 2.3011519137551417, -3.7739129124064155, -4.39595225239446, -3.6439465528300174, -1.5845448559453248], [7.581787490795707, -5.986067164011052, -3.164967574477703, -5.718466027948016, -1.7541598237321232, 1.7709323527408873, -3.267398464916262, 4.500527256311204, -3.931918291902064, 0.6337714139779894, 2.373444598633366, 3.797867665646758, 4.297478074557775, 0.6855472528466668, 0.5523186754666634, 3.0972704507531628, 1.100925289691078, 1.7443620167381864, -0.5394293948816398, 4.353083190512795, 2.183065846701077, 3.346440583435736, -1.1021567423412, -3.772861288298176, 1.1887438650116036, -2.262651880712225], [-1.1824321688168657, 2.739611571467376, -0.8232198883159247, 3.7909612686993874, 0.43014288334293727, -3.741806051760729, -3.4587824478490714, 1.7788371066351742, -6.319398170070601, -2.973005800957749, -0.9003464136380072, 0.836779904222628, -9.479797787713437, 3.518578719075926, -3.9956112247026674, -0.5251754126332046, 8.313002922625289, -1.6946012796658834, -1.1912366635782758, 2.768332797394853, 6.587414778280325, 3.9662957768460947, 3.222308604802152, -1.3944378982426595, 0.7450575756672391, -1.2416807244024746], [0.8716400801763378, 2.462256410618381, -1.9500703652773002, -0.161442715013226, 0.6682894195595541, -0.2298445264125928, 3.1926659650041107, 5.9075761234777175, 2.8926399862281533, -8.695600424288074, 3.300056855409183, 1.7144134044061796, -2.3521735226522615, 3.1742412963567426, -0.3688613595780884, 1.5171044695209366, -1.866599561232585, 2.5270882438424755, -1.0390399709298803, -1.5556287498106105, 4.937120031537549, 0.3878227985419638, -6.740282614001771, 3.9488861884574793, -4.208951696824803, 1.338408689711766], [-3.290969901804272, 1.820384083697074, 4.653660763567068, -4.277696113205415, -8.269388898332874, 1.9702791527446082, 11.010492033097218, 3.982692153072264, 3.260578980296895, 2.286420375894586, 2.660918986927964, -4.526467668118154, 1.2172441286786888, -0.3871938946026625, -1.7114218386310298, 0.8599441858575504, -4.3250804596378565, 4.0908064355979645, 1.9011043996676382, 5.025759000787611, 4.239804270079869, 2.630361528831061, -1.7502952999193087, -0.9546655025487336, -4.200201821979039, -6.321684621537159], [2.1701587056394276, -2.182173253290193, -0.25325602017957327, -0.12881811229843687, 3.0002331419554342, 0.7842042037039264, 0.5243522927137646, 3.1211206035451573, 0.3254518830560188, 2.3108301734199768, 1.0453804238297004, -4.3972667057999, -5.788177859000474, -0.8176177742952893, 1.1490301495377269, 6.1070747493253155, 2.501923300152472, -2.1296863925861818, -1.3803534722988529, 5.767654449377433, 0.023702962257675153, -1.0493770179631698, -1.8061555108053926, -1.6747624175069604, -0.26293114216553803, -3.98177172010886], [2.9627884775065514, 4.282000950406502, -2.753252163450252, -3.136453329622522, 2.1380934138053185, -1.9131985667440436, -2.254576971154799, -2.8406464800034588, -4.267538790967617, 3.3809633986615664, 5.32933030186405, 3.8837606437297607, 2.2680336309848803, -7.947500447844545, 2.0572174779834937, -7.206197082557964, -2.815018448513102, 1.5691873365682978, -0.2590486209586629, -1.920263384619974, 2.283853150619081, -2.0278694968799793, -3.6248092542055295, -1.8636818141358358, 5.65779624751765, 4.295861618022553], [0.5206234422906109, 4.7943560273642944, -3.7881359128408083, 0.408514865981238, -2.5245667635508946, -3.2219125487202884, -0.5848403663049947, 4.353684157660604, -4.83892813062827, 3.5727635838975678, 0.7394647189238049, -3.0652128204997773, 0.20965050756931836, -2.7020484449180886, 0.6175704910873715, -0.4582525670850419, 8.992664874434137, 2.2931402212146774, -5.972682513477492, 2.4132963184621596, -2.3112491678746343, 2.4109165263969956, -1.9083876857722422, 5.40342036654569, 2.56658341919891, -3.0937880588628066], [-3.4504193364013394, -1.907536855808311, -0.5013915156248142, 1.5678996086631192, 2.5826706013932563, 1.2576451327999143, 0.4654714247686985, -5.079409280004169, -4.783561531237248, -7.905775189479002, -0.06804054846547186, -4.075640809330246, -2.4234554505981114, 1.4481771600738211, -7.638368541498364, -7.356766282584193, 2.158974657929379, 2.1019460099582004, 4.020366680992824, 3.659700331859591, 0.04996305289754033, 3.6592190687007853, -1.9264129024331609, 5.504898252989229, -4.46010718253295, -2.4039316473706527], [1.352052411041028, -2.6777898782807825, 4.741461572584485, 0.14642448465522506, 1.1501382507142215, 5.338821285031619, -0.8632963968908859, -0.4957159911196838, 1.2751046383433415, -0.19958234182866832, -3.9326935811125687, 1.5546662924177967, 1.3068068367543122, 1.6323563553309648, -4.009165758332332, -4.5479844669725455, -5.243149443398393, -0.7737386065266931, 3.0736910468580807, 2.703245234352274, 0.7295806000389157, -1.6691504678341618, 1.5382838748383432, 1.5054252472262348, -4.723325148878665, 1.6424739674135092], [-10.035524323215819, -0.8572040490301589, -4.182335770952547, -2.3964192844275765, -0.5885039711058933, -0.02274786337928536, 0.7543208415748437, -2.406681509569971, 2.5847272132510954, 2.514122559194532, 0.5670053126900995, -1.3396489401872886, 2.3248325006883945, -2.9558054653724612, -1.838602186053095, -1.7038037938305033, 2.3797368555305627, 3.8393492905431117, -1.9496062641153105, -1.3185303682577196, -4.810697167225218, 1.941796861559454, -0.12866014860931307, -0.1483417465246828, 0.9213252994652946, -5.440427498112571], [0.4793123365343806, 4.028797525192769, -0.7761617444450364, -0.25848276666743664, -0.8361099986683254, -0.33454151052331216, 1.8740169027881846, -0.9845712116016065, 5.974279120382462, -4.295273131037299, 6.150687097577796, 0.5168425677208063, 4.142214285331971, -0.21040946448661657, 2.3807811321599233, -3.592578986111699, 0.8691657071094592, 3.9055946153341567, 5.1287285746759705, -2.9745448378010475, -3.7712257392537762, -10.342973376602757, 3.454700929087914, 2.0313272173867714, -2.464052579514884, 0.09744032189019383], [-1.8896045549478226, 1.148708807936428, 1.8041860388397812, -1.7557524553524892, 1.5069566232632927, -1.2131541789076612, 1.1641423114707563, 1.8220475957548765, -3.171038494686444, 7.275417870512924, 1.6923587436304541, -2.6350619121368153, 1.7223670507985558, -0.02619398521528149, 1.241521787564312, -1.6791790540389628, 0.2797081838281197, 0.898202495239729, 1.4956559519403188, 1.2750084845929666, -1.294515401601753, 4.758755600068725, -5.921946011384097, -2.207393233268886, -1.5584641454441464, 0.12576578469739086], [-0.2427842383386516, 4.322618717790567, -4.619760235783197, -1.0897443678027827, 2.807075928777089, -1.218478398574527, -2.9873274061042894, -0.5962075038034026, 5.145649513290794, 0.09495619835713642, -0.13515160255779224, -7.034591742305535, -2.74895381172536, -0.5130812374172053, 1.024525610150055, -0.17584505859943134, 2.907004851916944, -2.29238389302131, -2.552235820558317, -3.509294844353246, -0.4586840178369289, 10.079696041846633, -6.084661818486998, 0.16460380512332629, 3.281082813007787, 1.823571141646845], [-7.3487838134749435, -3.459036159065934, -7.877878841355037, 1.6291496598002044, 2.0875273482474137, -5.5120885027054145, -0.13977177354291626, -2.111655100447263, -2.168365797201712, -1.4307183793009766, -0.2973641407934448, 6.99993627820038, 5.085491727242821, -1.1808924068354543, -2.3382262242224545, -4.077200315903963, -2.109376897586647, 1.6480170791608129, -1.9259588515257169, -4.609187131216878, 2.399050786623764, 8.089715828111947, 1.759594663643028, -2.100612810253599, -0.2595219958433193, -0.41764426873792715], [1.7394531381607963, -1.1095826503685604, -3.9589150352729865, 4.425848083199912, 5.315469055315859, -3.5656792745574455, -0.2865846958578504, 0.7032469130136565, 2.1071831873495706, 3.916396644617496, 6.177761486418937, 2.6467955220499486, -0.47100493358373163, -4.553752857038227, 0.1682123157342728, 2.42972261569178, -5.066980144216823, 2.090561219972694, -3.0912086012672524, -3.4356324853996707, 1.9250822406751777, -1.006873529745109, -0.7246457371372131, -0.6267956319770545, -1.3559299429149514, 3.5962299342442403], [-3.003992406807098, -2.362548351533222, -9.15395264456042, -4.356126570635704, -1.7514123469650158, -0.5467695731092217, 1.3341200872067949, 2.4735336623677875, 2.8376377430485755, 4.911768572173789, 2.609363199338141, 0.5336703891014566, -1.1263584496972163, -3.311778749329927, 0.23974001919025856, 2.528991396271069, -0.5127587393861786, 3.164444062456283, 0.29531165552773664, -6.055979156535756, 0.8023802473528643, -2.675650276674517, -3.348159220015502, -2.8798815046315993, 1.2359613525634525, -2.489183657186202], [-6.007588246517262, -0.08698732831334444, 0.7535264571797808, -8.939091312988905, 3.963010898415695, -3.5478921741634837, -2.2453556706539413, -4.257764520363076, 0.24532750869498487, 9.970934617880783, -6.008705383685982, -2.0158528865827288, -2.733360644901547, 1.2276632401155785, 1.7103977921435223, 1.754060138511512, -0.19748012222627465, 4.726858519760656, -1.1098580470489752, 2.2606878145541645, 0.08597907329939614, 5.038878009209813, -2.8789670729843713, 2.054971596023523, 3.163216119296296, 6.026255579273438], [9.782351841406062, -4.115716473568941, -2.409264892844079, -7.558706073903292, 2.281858299999604, -2.0932035058535376, -4.463894099273355, -4.362113679319304, 4.087953552449758, 6.813702709703482, -3.053561151391016, -1.8947894716412954, -3.9171009171502678, 1.3603348999303522, -2.2619996957307316, 6.08152186091908, 1.8882504861203544, 1.8102584992395798, 3.256454014069888, 2.061695528120188, -7.788129245379169, 3.02753840874255, -3.430041843940232, 5.538980963274132, -0.1937436289520008, 1.1662369750171295], [1.1782095582052177, 3.7230556499677965, -3.6933597035717116, -2.7630150478671043, -4.92201383560193, 5.689700909588869, 4.100304482488262, 2.43017840177744, -6.282699921442564, 1.2230776860616952, 0.5424536177303202, 2.378918312715383, 2.314468296106168, -0.7808587706845234, -0.2123426748654903, -0.43649814395049547, 5.383077938453735, -1.0531652641902396, 3.977969560485356, -10.543179458019871, -2.3692618779778796, 1.6195705333989612, 2.7897785235025307, 3.713737091987862, 2.9515513434945433, -1.538319186175177], [-7.39044927221227, -4.038032681538549, -0.6864973538707089, -6.611242317656156, 4.275390622407702, -0.22403251642949473, -5.593430905302537, -1.1374445875671462, -2.2631529874199456, -1.3209871827061372, 1.1172575921050958, 5.959441539961945, -0.06518157341641259, -1.0371318910440879, 1.1913114187100617, -8.015447926966793, -1.8214871583740906, -1.3798834285398938, -4.338355236982032, -1.6288105106957143, 1.2876637662193788, -2.2482611829759755, -3.433901013161991, -5.290118865819189, -0.09527533216221795, -1.6120763470782649]], "bias": [[1.1772789236548982], [-2.537132695496352], [0.016594666563257976], [5.332151489268704], [3.120537715031638], [-2.003748551677107], [-1.1732387376945175], [-2.928843924843664], [1.5044007772802255], [1.9722344737335837], [2.1685425992577616], [-4.025564581129005], [-8.24673926164838], [1.4173700565752303], [0.3008334748044775], [-7.982742476287942], [3.4014089393540585], [-5.450312068216307], [3.546816338950525], [-2.7659862206867554], [-1.6330135107143], [1.3435333733686818], [-1.4855514614170455], [-4.823385179459508], [2.073248181170937], [-4.566137650098118], [2.4524616800075547], [-4.027372715123782], [1.0765882893532814], [0.22745003410186238]]}, {"layer": "activation", "activation": "relu", "activation_prime": "relu"}, {"layer": "dense", "input_size": 30, "output_size": 4, "weights": [[1.177903576660104, 0.17582560593367336, -1.358545524427165, -2.291307123080722, 0.5110203650104554, 0.47166432615186493, 6.662277040959008, 1.9621995795414235, 2.2516685836677746, -1.179048363231821, -1.4327953394695667, 0.2906404813108597, -5.105099192093437, 0.6554648387127248, 3.4824415764778456, -1.4603930180207005, -1.5685622191346407, 2.355213627888763, -1.4938213059160321, 0.8884169182740139, -3.916674347250604, -1.9016367476693468, -0.385824161225631, 2.353567397205174, -0.19685730085400943, 1.2541533238204843, 1.8296127936565791, -4.7768286148688865, -0.49030266997273486, 1.8582767591649252], [-4.674253533126309, 0.4472310387040568, -3.6472739857537286, -0.11859307401469765, -9.429018998549951, 1.8414311066605833, -1.9023668940840492, 0.47177555971632873, -4.559555926191415, -1.151200716468669, 4.9431871915802805, -0.4423568815963268, -3.263540722320503, -1.0511277997463728, 3.8737199745202977, 0.8475509913753176, -0.6300011151886858, -2.374302184135947, -0.0039109082154751285, 0.20184500807599703, -0.4533102501565266, 3.567123546849824, -0.28213596912312955, -1.0015422267582488, -1.6618873746680238, -0.9064737965567238, 5.027561892554279, 6.507748042461551, -2.722103163285204, 0.027535692000567602], [-0.21031643697397218, -0.9890976649488396, -0.7805127888956496, 3.922144742094079, -3.4235077701683974, 0.9377777686404809, 1.1977748341028929, -0.5254303619283573, 3.407532161165397, 6.333488138349316, 0.1762322837928143, -1.2976288763374442, 0.2409035589904749, -1.296851025053739, -2.411622094338213, -0.24254725333518679, 1.4651566168056507, 2.3894634861066564, -0.4075066609728528, 2.723376706618686, -6.186872143561735, 3.434053897779458, 0.08512695783085689, 1.8395636165954294, -1.1917018360399245, 3.3407145591497356, -4.48786553406905, -0.38853845702001566, -0.885620816341239, 0.29752119662581344], [1.1861564724278149, -1.090271735099389, -0.2361115016111901, -0.7676410486035414, 5.516771134945101, 0.4844781661217367, 1.8597028577921044, -5.831534772632979, -2.397697319189126, 0.9993366485816694, 0.5080244942180231, -0.7129768991499432, 3.6237182212265067, -3.6112644306105666, 3.465534825787712, -2.59272863634258, -3.7698318694613318, -1.0570672509376111, 2.591481082127254, -1.198545350473479, 3.8525438022550604, 0.04618263395887101, -4.276110800403697, 0.3255242207553535, 1.4303351907913724, 2.8010090677378727, -4.880494517135222, 3.0106833545270675, -5.446907646942029, -1.9526600155205955]], "bias": [[0.08849598033146333], [-6.671776945362929], [0.07169831248234056], [4.529401004415672]]}, {"layer": "activation", "activation": "sigmoid", "activation_prime": "sigmoid"}]}