{"generation": 100, "fitness": 8590661952.914263, "network": [{"layer": "dense", "input_size": 16, "output_size": 24, "weights": [[2.1253876023964167, 0.3259542590791555, -1.603109919050669, 0.25170032759211025, -1.473302417441818, -0.7276189354877515, -0.8970961656387941, 1.6458917657970238, -0.21452456605607517, 5.971218599076729, -6.855288802215337, -0.20457258739697726, -4.01257901456267, -5.320251049268405, 1.3260338085541747, -0.28754289057344806], [4.217417160712297, -2.151135047304855, 0.6076509186268323, 2.2210688802791054, -2.0105473267173766, 2.3936939542650046, -1.3669036641141112, 7.205420956152752, 1.8961124573296293, -0.0188098179825118, -1.5317893008575647, -4.280954157104767, -1.2951817053038566, 1.0476098474166355, 1.3147123784217463, -1.1084942480359383], [-1.2060333575049134, -2.2069335280690687, -2.7523510958061905, 0.80056525776551, -1.6867075196215837, 0.4304667059254923, 0.19162739767673898, 3.318856917399062, -0.42115460430265494, 2.2548937617014166, -2.146862139285698, 1.0318785370706172, 2.416217034452747, 3.1362190987595975, -3.4718031261394433, -0.6425924734914924], [-0.7321889927345004, 2.5866787354267937, -1.7151806079520056, -1.8375986120261214, 4.414415428247791, 2.4627971543720975, 1.1469608112778398, 0.6226566018206069, 0.2087095677608184, -0.6597464413712365, 3.9921545444105284, -2.4190993842018296, -6.291744476706769, 1.3566934287539816, 0.08374545155608237, -3.4939901016034205], [1.8158194005572583, 3.449758214415259, 5.10711742361391, 1.8343600712443202, 1.681030680807398, 1.7967189892192827, -0.08200466978216471, 1.5260384915035736, -1.4654802363737085, 0.9183470648725433, 0.2302005621877265, 0.17226630610252597, -0.5548148248264982, 0.6861284034448814, -5.324706778012712, -2.0758092918703266], [0.7656716675546578, 3.7048389716866703, 1.7788249551164448, 2.0118583752937047, -0.00246183137196776, 0.5827295857677539, -0.018606538941720707, -1.5155347491121007, -0.7985084336833552, -3.9411924195147083, 2.376318462934167, 0.38682857204585375, 0.5160285389776016, -4.885343547841097, -0.735236393409771, -0.28531193502522234], [-1.9257083707442075, -0.2236158851792001, 1.2428632618721882, 0.637685093140845, 4.375834141701486, 4.31253372940779, -0.4922345515780896, 1.938912776258911, 3.5092960686421746, 0.8629361825222516, -3.446002189761183, 3.4989787321861843, -3.07864481012239, -6.654072019179223, 5.600024418839397, 0.7813740546544714], [-3.874236388010618, -0.6772858932478572, -0.48711166451699506, -1.2368025967337464, 0.17111529684091037, 2.2234010521365173, -0.38862149838603766, -4.179796154080226, 1.6227753428361649, -0.39662000932577124, -0.13322537668793621, 0.04662254680279715, 0.5818684205382946, -3.182444712991444, 2.8265029717742483, 1.6726736002711968], [0.9513542065720498, 0.6592952117205113, -2.970819187776035, -2.1369277831425766, -0.24915757765292898, -4.569722305438436, 1.1211311437236007, 3.0058868399771526, 0.5158772094906325, -0.3403008544537563, -0.9254678580004893, -1.143727485470049, -4.780176134962367, 2.664306120042252, -2.689950535148828, -0.5567409941547754], [1.0615595844570884, -1.813736455883585, 3.8297137554857192, -3.408822472852178, -2.038392071107781, -0.44316627941267944, 1.65863458840246, 2.691561295454518, -4.145640907148798, -1.3132116161153924, 0.6473114531833113, -1.4394455851985462, -0.8695189155045555, -0.13637483236498787, 5.1247120034678835, -1.6551889499836578], [2.2576630603924848, -1.9872192461610858, -0.6332422582455786, 0.6486914428011297, -2.077282032247849, 1.2983775568470186, 0.12314444448754885, -5.259543374907739, -0.5924623505338824, -0.6897745979601269, -1.1539257443784803, -0.7264398358228381, 0.6448840933131854, 0.537406356080813, -3.379387188108218, 3.5212937542171585], [3.0314682039863947, 0.2879341450707542, -3.1594992694754636, -0.763752249026243, 2.023362465648461, -1.4775923708184198, -1.1916582406876393, 1.558403745860525, -3.524473925851007, 1.6735324348476526, 0.282163410385071, 0.1169817111256567, 1.679157661459219, 0.6696589124467637, -1.9131367691539447, 5.998526028800962], [-1.4796737338748072, -1.6845210099301189, -5.0663974175994575, 3.49427836115618, -0.9907873736155361, 3.06724401231622, 3.292601647377194, 2.1089849269805576, 1.2422537198164065, -2.2365978064375476, 3.1377729589463907, 1.6972517805108593, -1.0789950899757073, 5.151737856048281, 1.2234564185926724, 0.2975291330139438], [-1.2079018053940358, -2.784747911849811, -0.6522276339091478, -5.0910711991150475, 1.317284172004362, -1.3491784174152124, 5.16016870117733, 2.985045251439661, -0.4903743116499697, -0.707798340515057, 1.196570337957006, 3.201247064196439, 0.5697666845051946, 0.16908892726725594, 1.4093587325373418, 3.916076834725055], [1.600602108034769, 4.4658497866571425, -3.025176222481975, -0.4959177512056543, -0.5580541718666345, 1.0603064360062713, -0.9619319461622947, -0.46244797760222683, 1.6982855110626436, 4.275421631410501, -4.996256511673099, -1.4249198964347884, 3.6347050693115373, 0.20572077347695764, 1.3396248355466205, 0.06444809936799872], [1.6228567474999227, 1.0701518884535337, -0.19471632978837794, -0.6967197709839996, 1.850792942148347, 1.3766280729589515, 2.2900061819380784, -2.495802979439937, -0.8863850885918438, -0.5916968152873407, 0.265581616587815, -0.954157173827388, 0.5090441437732047, -0.8544144698472051, 0.30264736104572565, 3.1644059101848403], [3.47537020806432, -2.8771670073034956, 0.2823262108352585, -2.4885985724710493, -0.33996921294293436, -2.0937907024925972, -1.159894237946977, 2.4173968034805604, -1.6140208669623533, 1.823299750692559, -4.1478594946023755, 0.987517559365057, -1.7422951325500082, -0.14990485967467748, -1.214005784985669, -4.639000296111238], [0.7102730504807434, 1.0408999927888263, -0.162874999952815, 2.7520483983106416, 1.2091819216158501, -1.3164010941919955, 1.7757013872609668, -1.719074080078962, 1.1800248139766853, 1.3312269061021293, 4.917854091544614, -0.34253810741794366, 1.2559147985311916, -1.5534180296171751, 4.239061176415348, 0.6402040881488873], [-2.940620803292126, 2.37662553617921, -0.666995220011552, -0.9034359834018443, -2.0139151699213476, 4.375969371804683, 0.44739233460100125, -5.55068331905164, -1.8199232164742802, -0.4784792553812366, 0.44603322208708823, -0.4069278445760518, -0.09257200251249553, 0.8339832631612656, 1.460556122520322, 1.3963319717638232], [0.5351571571493139, 2.323357809594433, 1.0464805545437987, -3.4826561843088784, 0.5535562158340095, 0.49692701881288015, 0.3402098737787262, -2.0911551940671704, 0.8469467249692223, 1.5845659264594394, 0.881701830211225, -1.7224960781898848, 0.8672100415548019, -0.9886678377050484, 1.5912375774167293, 2.6340795596103614], [4.797761101373378, 1.6175273174409281, -2.586564196353459, -4.343052273013653, -0.9782689719853446, 2.8867065308200823, -0.9570077541498319, 1.7547846037888843, 2.1190275145536273, -0.33607273657325853, -2.6598652223856076, -0.31605954173354955, 3.2423742366758455, 3.762523841201741, 0.911570088070081, -0.9585224854278642], [0.2993833449991734, -0.728382671177142, -5.129680099795813, 1.1709669374626475, -0.2883798598968865, 1.2340254253905567, -0.8270801552024456, -1.2635069667997891, -0.465962859364054, 1.5322906071793243, 1.1097509412323474, -3.054878749737919, 3.1610365335978443, -1.182284443630674, 2.4404691896291393, -0.6821958074518599], [0.9350452109304892, 0.2737516239514291, 0.5615979101355025, 1.3851577454074016, 0.018123954086695315, 0.1307845244783551, 0.4047004432306205, 0.004845037448748785, -0.7158497347249468, 1.8120604946057854, -1.071882801596216, 0.9797341119385179, 0.8462814004724152, 0.4302864429804303, -2.488101752683268, 5.2018226567355885], [-0.5131205297707496, 0.5574124743612268, 1.9963343535880387, -3.2680876433450834, -1.0372072094583493, 1.742241564023064, -0.4760750649381448, -1.2273608122715376, 0.9510898420890552, -0.24310421184115816, 2.991768658827411, -2.4459438422624955, -2.291180647061446, -1.4140872793016737, -0.3914253255493587, 0.19311990064209805]], "bias": [[-1.0942537626831794], [-4.039153245256102], [-0.17402951332433125], [-0.8973547506161067], [-3.5150360579201108], [1.2763720910969487], [-0.7406428136509056], [-1.1303670471060003], [1.1491822353404708], [-1.3508719411420103], [-1.2645325114518262], [-3.0805353394290855], [0.06472207890520687], [-2.461303107598929], [1.226506681757948], [-0.47969798923996093], [0.04064649397648079], [-0.22240623527179892], [3.375997149309845], [-1.6330850103320584], [-1.2400001749309815], [-5.499463532362737], [-0.4104909299740456], [-0.6250848804589598]]}, {"layer": "activation", "activation": "tanh", "activation_prime": "tanh_prime"}, {"layer": "dense", "input_size": 24, "output_size": 4, "weights": [[-1.8657932107861215, 0.4115346284592263, -0.6362689719446474, 1.1520553759577061, -1.4988558621642003, 3.6102593624665795, 0.6853557763484962, -2.224416842743372, -2.5732861813474197, -1.1633862884303534, -0.7885986033454075, -0.773770633092923, 2.1115047017015707, 0.6895554907946654, -2.0170448491921076, -0.07064368085618122, -1.861625202237112, -2.735184456075839, 0.6083065979676019, -0.4855689942290713, 4.166453036129907, 0.11375631916880957, -0.4190265652496675, 1.733933799045106], [0.22922353034041554, 1.157845042807237, -2.1668069807646253, -0.09035794915987383, 3.410358094722991, -1.3877910959431985, 2.582438619905435, 1.3757250450204777, -2.6300741499088924, -0.7705997312628436, -1.1462878598600383, 0.21177342095018536, 3.770047264253595, 1.2702309792937168, 2.287966566923106, -4.450113401412441, -0.15314570511248266, -6.441791977964709, 0.872299773092677, -3.997729864070059, -0.014397312582408617, -1.4171298399522674, 0.7665396331406648, 0.4404700877320289], [-1.6825957473589706, 2.846636660904306, 0.6168881769961392, 1.0710735045687207, 0.500911828731432, -2.7359510530882254, 2.0813802334070273, 0.45803061945722123, 0.5853624389529479, -0.2921045845987229, -2.7744347627104315, -0.7329845907022757, 1.6555551245100029, 1.3175225379044218, 3.5890341654158777, -1.0364918698484962, 1.9773477998448366, -0.23543543078750817, 3.07139479124172, 1.5969940821331705, -0.42987543289333147, -0.43071373152406267, -2.146486444864191, -1.0392709676096392], [-2.321408709030874, -0.34268639900096465, -0.6024836584179348, -0.31768390634138854, 0.6600158381126892, 2.7547544002947886, -0.6079614881769397, 1.4638893677190965, 4.771829154409871, 0.055827855788760206, -1.1916469893846569, 1.3000927559599798, 4.035798721236908, -0.6111904027647884, 1.2849479131315151, -0.19696980700543057, -0.11483583074322024, 1.17991416109967, 2.713808500741897, 0.15700057891944263, 0.5352211814590382, -0.20052637258515948, 2.574218618714667, 2.2333867493502586]], "bias": [[-1.0829907838583988], [1.0210715277504068], [-1.4353255277540122], [0.7755650167992842]]}, {"layer": "activation", "activation": "sigmoid", "activation_prime": "sigmoid_prime"}]}