{"generation": 106, "fitness": 17180641016.768063, "network": [{"layer": "dense", "input_size": 16, "output_size": 24, "weights": [[3.1607539745082325, 1.0695279991721904, -1.5632705780408291, 3.1521784657888294, 0.9667262772447973, -2.022748432554205, -1.480529695292872, -1.1246114401181684, -1.9700371849384388, 3.134394573611281, 1.0986574284059616, 1.0126336527339972, -0.02874335108314563, 4.155697609292611, -1.8616679071981546, 4.40795346454547], [0.15293480313060281, -2.4899050244116885, 1.3108469192953935, 1.484857768801343, 1.4442335060432734, 2.96070837912725, -1.5623062908739997, -3.8002913957887667, -5.601889533605915, 0.8605701271785663, -4.527250252288969, 1.2310110366225326, -1.6646815645185908, 1.3973086498684588, -2.961229517860419, 4.292004285388909], [1.5039948506993284, 1.8143220659324661, -0.7362252893789392, -1.9566147368715276, -0.9850112175965373, 3.345360896399207, -0.9911716921324771, -0.7390348152238448, 4.543200231142249, -1.4389754601546134, 5.973866787651863, 1.05377129470715, -3.426503048953351, 1.8626815688188345, 4.751167020968085, -2.690044407775565], [0.44238249089612147, 0.4812292959012405, 2.495102241726491, -1.8097066119809173, 0.46664465932889676, -4.525420451791247, 0.18332394291115628, 1.0996361988372911, 1.3316138512084896, -0.356937491562908, 1.3517713053151108, -0.1811060012440524, -3.6851039923120075, -0.2262590763281631, -3.613313632081764, -3.3192751080695775], [-2.120541155936723, 2.599311850287603, 2.6574771570372313, 2.51113106110824, 1.9856314065092726, -0.20265208721724737, 1.9529416523303753, -0.14042658947973297, -0.7946455272110009, -1.9737425428733881, 1.1234470720920937, -0.11663972168846048, -1.217628494060652, 0.13994550328180824, -0.03786940829773249, -2.794456338711033], [-1.7019806433656761, 4.021851869342562, 1.287852957741511, -0.34897137854386606, 1.4994277483609193, -2.880361518146557, 0.4664096734908221, -4.078557094124407, -1.1931560011805467, 3.426998883284112, -2.879469269637389, -1.1576649140175348, -0.5015188899017726, 1.5531296855765486, -1.0508857915415224, 0.3712747448862993], [2.586763756134774, -0.21370957613530295, 0.16650806767557202, 1.6089085283630078, 1.3105159822013452, -1.0130110785528452, -1.7734635687274132, -1.8094039384016898, -0.23655327396936665, -4.036900688150766, 3.552326497580636, 1.4809597936660583, -0.14264888248972052, -5.774979571351188, 1.9056110627053864, -3.430656746908397], [2.915415412552736, -1.1669167967952137, 2.837543768140199, -1.9082674764264025, 1.191433792380653, 1.2244547176771454, 2.599004384127678, -2.8885240311878455, -4.776731798835217, 2.262372674004072, -0.45064736527158983, 2.9301121591806734, 0.15704904785792861, -1.1881996503726486, 0.3425553358828654, -2.213975742942036], [-2.8700156806437267, 0.05160883881190872, 0.6619631050509068, 0.22765162789389537, -0.00019060334248255373, -0.0030901109060695875, -1.916301792857152, -0.1982145621852317, 2.169326994229328, -0.003271930187728006, 0.2465067154686907, -3.5715129524451865, -2.3306691969817304, 1.7417979736749984, 1.8555992484549995, 1.8136619217189396], [-0.9831225762548766, 3.2769229023336806, 0.5949956045847011, 2.6587064270638443, -3.6350048039581937, 0.81399354845353, -2.804168913698452, 2.785881827537853, -1.7093466822640697, -1.3449378687722997, -2.5131823906646287, -0.8967634453792306, 0.8570557012541227, -2.352244679020915, -1.7658876260340075, -1.4894943619303571], [-2.0742214773127188, 2.1139613924046925, 0.6623845320616664, -3.1627905295809864, -0.7364974050592172, 0.3539454103393553, 1.8403126116923771, -1.2169358039837768, 0.15896900178936768, 0.8021602428042988, -3.9710251659718523, 0.9684452268535476, -5.281832327209728, -0.4782908045914959, -0.7971918694761808, -5.572863228707536], [-1.1707801925958248, 1.4377475637993626, 2.083238623656749, 0.40797940057074844, 0.8584723051051744, -1.472151563174721, 3.1773651416700432, 0.3216218008840078, 0.0028004939187308564, -1.1980160279376884, 3.0123056015685896, 1.2897544704569828, 2.0978522852741577, -2.7102205029088826, 4.876395718934043, 2.8122831154916854], [-1.1434585020028938, -0.7299568722167113, 5.599768728336269, -0.9498857804291655, 1.495905352825602, -0.7223519866290552, 0.7650671851906315, 0.3190997951435244, 0.018899517992945203, 1.835071814436047, 2.252216449111522, 2.5405288084403224, 0.46414222791635007, 1.9507626482351341, 0.627664826592206, -1.2519056111443896], [-1.439535096153942, -0.1125540913294466, 0.7237006878789447, -3.3482217763224544, 1.3874786457361792, 0.05930164414080921, 1.166486305661652, 1.5205154502567715, 0.34064622709183134, 2.2716544490794623, -9.257475758410116, 0.7779865020162761, -0.06982521524874286, -1.9808203841926515, -3.227249881306253, 3.020983958620764], [-0.5663034676733265, 0.8585217020456126, 1.6600065615466737, 0.48910010269853144, -1.7489021033577041, -4.9244819051888316, 1.4095747916528814, 0.04485607055481933, 0.02848819444990852, 0.4375202160395445, 6.089055579512873, 0.18260079139166496, -0.23888970794594344, 0.14836690716015216, -2.3339957831650593, 0.11125498862854283], [6.249717906275453, -0.9447223691443475, -1.0178189017124781, -0.09385063802446747, -3.3354782008776858, -4.258935789872141, -1.1303134906606696, -1.0374822788235218, -0.34112198797594245, -2.126268495046155, -1.3097083568666186, -2.1761563249369993, -5.560900902016094, 2.478772422561245, 1.7399727183867675, 3.5378817253058825], [2.3063298918615276, 2.709844462878813, 0.7648206717108236, 1.3267227828693768, -1.2680454489213222, -0.3477867068106181, -2.45374690906488, -2.533359405299344, -0.3036479104233354, -4.915479182744329, 3.4164534868141887, 0.49558149823955083, 3.4290207237082626, -1.6720960640986413, 3.038160050854616, -0.29348424899377623], [4.5958797048610815, 3.9351728255997407, 1.2913960631955583, 3.6669541323569406, 0.41014284770502407, -1.0276624358694892, 2.0297138850412653, -1.461279248844189, -2.036448895209613, -0.38637981796458765, 2.5156215176130408, 3.935317469570707, -2.9113910738600204, 0.7963533905434875, 0.20067209616548665, 0.6208082968927227], [-3.631958189802769, -1.5055697210638908, 3.000029005443552, -0.8448688838395196, 1.009535124000232, -1.385573532916182, -2.051255196464779, 4.73429224710847, -0.8135568516433498, -0.5720220751975885, 1.7573890481058951, 5.5392834103155835, -0.9243608070301104, 0.1492666821473436, 0.8107909967580857, 2.7128229147521274], [6.260684287907643, 2.733918455508996, -0.7589815472379441, 0.2767012320987696, 3.113109591285906, 1.658159999459872, 2.500770616616599, 1.390905544561688, -6.9296884056296, -5.711244076055538, -0.824377821890395, 0.43285504715822865, 5.878497194471087, 0.47895146692175694, -4.703027450747503, -0.11184069522262896], [0.1416477782403207, -0.07872961238955067, -0.025471445079928823, 1.3407545092728799, 2.9490807150056, 2.1030480995420655, -2.3177323191097896, -0.038971368146074825, 0.6256280444782945, -0.19737072286351193, 1.6733730785173444, 0.5843284877949194, -1.3183805113781968, 0.6403317516682245, -0.5416671543333899, -0.9075807847234044], [0.5318644115942578, -2.016503106041469, 3.5159000434934953, 0.9121352588618168, -0.7839057619931762, 2.893923830755562, 1.4741976788825495, 1.9795123530108638, 1.1774914803766223, 1.4444438851903696, 1.3955915760198894, 0.49750368086918373, -0.7717566337811074, -0.7437024310419805, -0.6812076987013607, 2.9507764058456836], [1.8190891615174032, 0.6325411837626881, -1.225364118617026, 2.752770103618648, -3.065391439547106, 1.8569403247823835, 0.5901760374001177, 2.5158558923321115, 1.900332356708566, 2.50217313610854, -0.04155192819343301, -2.89083931435573, -0.7317107785166048, -1.5743089797646181, -1.706381451888814, -0.738697511780098], [0.10850557714124354, 2.9055529406525813, -2.131816942062898, 1.1648861069146625, 1.8241992894227144, -1.1413557985851401, 0.4086641573478528, -5.307597778825754, 1.348492283768617, -0.7394770759474635, -0.4356300709537445, 0.9922776978695587, 3.951607727456812, 0.8560356819930777, 0.15435413390603459, -0.5782098927323049]], "bias": [[0.007617851008028476], [2.454435391224246], [-0.8207816113189017], [1.6682312326811035], [3.5532160588938098], [-1.6010437993566988], [1.1487278131623748], [0.7359205417850256], [-3.0132083218655197], [-11.122328559658], [0.1390343216160831], [0.44855405646375834], [-0.6898810723864146], [1.3693173730318378], [-0.7185901663951864], [-1.1966706350928387], [1.7942059571620301], [-2.137179408077561], [-0.8254060739809317], [1.6243239231361364], [0.3407440547542031], [-2.3891804746898604], [-0.8166695751326972], [0.7809492857634632]]}, {"layer": "activation", "activation": "tanh", "activation_prime": "tanh_prime"}, {"layer": "dense", "input_size": 24, "output_size": 4, "weights": [[0.14660584564656332, -0.12349558468728206, 0.8116943536604366, 0.02393715381757816, 3.0661336131524184, 1.2162741044695347, 2.7350204478394144, -1.3539503643840616, 0.45734817871457695, 0.8813180521617533, -0.033773640037134456, 0.1944095952465742, -0.49006460312196887, -2.455007951956217, 2.018599228848934, -2.394643556182447, 2.721624475990555, -0.6897991777226244, 0.79643902651485, 0.37468794079389856, -1.2691863646335892, -0.2919227465128268, 1.2835302593247486, 2.7945551926910737], [1.7503931827196515, 2.463731034403863, -0.8830122899871584, -4.39205797940509, 1.864090442202861, 1.4352966488852643, 4.293750604481011, -0.5431479330605655, -3.7714452077165874, -0.7468588883422785, -1.4537076694566045, -6.0776158421038895, -0.6201572095480519, 1.078943700131027, 0.3789410717190782, 3.884192899806662, 1.7458887672139556, 1.2158186212150355, 1.929045579814464, 2.6463792354055444, -1.375970128478196, -0.9400656375273916, 0.4580577344684553, -0.03145566046502603], [0.39602987111843546, -0.030514516149642512, -0.22531346822665665, 2.6683013253094496, 2.298800733448528, -0.7933278723540678, 3.547584629116342, 1.2013474568524625, 0.9770128379160483, 0.20104842075441628, 5.920885851047645, 0.9196114622101894, 1.7565800033897423, 0.4918422187741037, -1.8135697076897657, 0.711323429858119, 0.619855749266192, -2.2019343185890534, -0.2727148843400824, 0.515241814992881, 0.06456695532456291, 0.08412217422347246, 1.1166566123376556, 2.8848233990220233], [1.3564846163589768, -1.3599631151248768, -1.9519707923547736, -3.845484403758367, 0.7435693748355658, 2.2538409987566523, 0.5349995938706387, -0.40345088911616694, 0.38875901619901115, -0.9481154447359923, 2.717476654109749, 0.7146319157510658, -0.6037430389774018, 1.9864346723920305, 2.066509895693355, -2.31241381253985, -0.677356722197092, 0.8806471384005152, -0.7319765016454185, -1.0612632566260174, -3.260032914214938, 0.4991130137927835, 0.9469141942490412, -1.491146042326237]], "bias": [[-1.0687779193671085], [-3.2753497650142807], [3.0715679533265368], [2.047678659190824]]}, {"layer": "activation", "activation": "sigmoid", "activation_prime": "sigmoid_prime"}]}