{"generation": 108, "fitness": 17180652882.19527, "network": [{"layer": "dense", "input_size": 16, "output_size": 24, "weights": [[3.1607539745082325, 1.0695279991721904, -1.5833258424087326, 2.817221744409062, 2.3074126311086722, -2.022748432554205, -0.6053512418948064, -1.8546577675019558, -1.9700371849384388, 3.134394573611281, 1.0986574284059616, 1.0126336527339972, 0.8286756339412753, 4.155697609292611, -1.8616679071981546, 4.40795346454547], [0.15293480313060281, -2.4899050244116885, 1.4827398631516464, 1.484857768801343, 1.693465441529798, 1.9108300535614746, -1.5623062908739997, -3.8002913957887667, -5.601889533605915, 0.8605701271785663, -4.346933792316726, 1.2310110366225326, -1.6646815645185908, 1.3973086498684588, -2.961229517860419, 2.579667917726116], [2.6317380219136943, 1.8143220659324661, -0.7362252893789392, -3.1140096405229585, -0.9850112175965373, 3.345360896399207, -0.264926373926503, -0.04162244761721312, 4.543200231142249, -1.4389754601546134, 5.162680863412774, 1.05377129470715, -4.711837484137209, 1.8626815688188345, 4.751167020968085, -2.690044407775565], [-0.5910807562470205, 0.4812292959012405, 2.495102241726491, -1.7756549328256557, 0.46664465932889676, -4.525420451791247, -0.839945913200358, 1.8366270867189622, 1.7482953308190763, -0.356937491562908, 1.3517713053151108, -0.1811060012440524, -3.6851039923120075, -0.2262590763281631, -3.2888538858146945, -3.3192751080695775], [-0.854630099576914, 2.599311850287603, 2.6574771570372313, 2.51113106110824, 0.9046990366304581, -0.509808225878651, 1.9529416523303753, -0.14042658947973297, -1.2043731265673037, -1.9737425428733881, 0.693735618138489, -0.11663972168846048, -1.217628494060652, 0.13994550328180824, -0.03236454721418297, -2.794456338711033], [-1.7019806433656761, 4.021851869342562, 1.287852957741511, 0.9810570653945677, 1.4994277483609193, -2.880361518146557, 0.27041626321048384, -4.078557094124407, -1.1931560011805467, 3.426998883284112, -2.879469269637389, -1.1576649140175348, -0.5015188899017726, 2.470663178174595, -1.0508857915415224, 0.3712747448862993], [2.3225954942459213, -0.7905797029565879, 0.63792717110878, 0.9988024277467233, 3.0583495809873247, -1.0130110785528452, -1.7734635687274132, -1.8094039384016898, -0.23655327396936665, -3.804297995522851, 4.020656362878666, 1.4809597936660583, -0.14264888248972052, -5.774979571351188, 1.9056110627053864, -3.430656746908397], [2.915415412552736, -2.179399084432373, 2.837543768140199, -0.48453328628577197, 1.191433792380653, 1.2244547176771454, 2.599004384127678, -1.7646464103550348, -5.737710899582336, 2.262372674004072, -0.8325423509748541, 2.9301121591806734, 0.15704904785792861, -1.1881996503726486, -3.378361567232179, -1.5688075532294055], [-2.8700156806437267, -0.8856261273692821, -0.2211916406863167, 0.22765162789389537, -2.172275436461584, -0.0030901109060695875, -1.916301792857152, -0.1982145621852317, 0.41845676141432464, -0.003271930187728006, 0.2465067154686907, -2.5129393042480803, -2.3306691969817304, 0.9916662452134342, 1.454179460780257, 1.8136619217189396], [-0.9831225762548766, 1.9041705226252232, 1.3104796175943616, 2.847830184797273, -3.682263072836281, 0.81399354845353, -4.084664833980108, 2.785881827537853, -1.7093466822640697, -1.3449378687722997, -2.5131823906646287, -1.1785177471353425, 1.5769569623481297, -3.272825424255468, -1.7658876260340075, -2.5242414935133892], [-1.5317024591673767, 2.1139613924046925, 0.6623845320616664, -3.1627905295809864, -0.7364974050592172, 0.3539454103393553, 1.8403126116923771, -1.2169358039837768, 0.15896900178936768, 0.8021602428042988, -3.9710251659718523, 0.9684452268535476, -5.281832327209728, -0.4782908045914959, -0.7971918694761808, -5.572863228707536], [-1.1707801925958248, 1.8685637838295985, 2.083238623656749, 0.40797940057074844, 0.8584723051051744, -1.472151563174721, 1.8309255086183172, 0.3216218008840078, -0.9366953524110527, -1.1980160279376884, 3.0123056015685896, 1.2897544704569828, 2.0978522852741577, -2.7102205029088826, 5.021740271735792, 2.8122831154916854], [-1.1434585020028938, -0.7299568722167113, 5.599768728336269, -0.9498857804291655, 0.7377978133208839, -0.7223519866290552, 0.7650671851906315, 0.3190997951435244, 0.018899517992945203, 1.835071814436047, 1.557269394003667, 2.606539394356831, 0.46414222791635007, 1.1606867104346603, 0.627664826592206, -1.2519056111443896], [-1.439535096153942, -0.1125540913294466, 0.7237006878789447, -3.3482217763224544, 1.3874786457361792, -0.7913310711906618, 1.166486305661652, 1.5205154502567715, 0.34064622709183134, 2.2716544490794623, -9.257475758410116, 0.7779865020162761, -0.06982521524874286, -1.9808203841926515, -3.227249881306253, 3.020983958620764], [-0.5663034676733265, -0.4341151126880869, 1.6600065615466737, 0.48910010269853144, -1.5957799505507537, -4.9244819051888316, 1.4095747916528814, -0.3717448816163389, 0.02848819444990852, 0.4375202160395445, 6.089055579512873, -0.08362038200309652, -0.23888970794594344, 0.14836690716015216, -2.3339957831650593, 0.11125498862854283], [4.4000468879363455, -0.9447223691443475, -1.0178189017124781, -0.09385063802446747, -2.8993817160168707, -4.258935789872141, -1.1303134906606696, -1.0374822788235218, -0.34112198797594245, -2.126268495046155, -0.964928391032932, -2.1761563249369993, -5.560900902016094, 2.478772422561245, 1.7399727183867675, 3.5378817253058825], [2.3063298918615276, 2.709844462878813, 0.7648206717108236, 1.3584263063858475, -1.4641875529397208, -0.3477867068106181, -2.45374690906488, -3.2581875981340973, 0.8719442252685762, -4.915479182744329, 3.4164534868141887, 0.49558149823955083, 3.4290207237082626, -1.6720960640986413, 3.6919123026046297, -0.29348424899377623], [4.5958797048610815, 3.9351728255997407, 1.3342764333421053, 3.6669541323569406, 0.41014284770502407, -1.0276624358694892, 2.0297138850412653, -1.461279248844189, -0.8965008723406598, -0.4979373841017867, 2.5156215176130408, 4.428526624630788, -2.9113910738600204, -0.5898469562691363, 0.20067209616548665, -0.1157447784275023], [-4.293997241520067, -1.5055697210638908, 3.000029005443552, -0.8448688838395196, 1.009535124000232, -1.385573532916182, -1.0734020165031812, 6.247781275882957, 1.7447878111338024, -0.5720220751975885, 1.7573890481058951, 5.5392834103155835, -0.9243608070301104, 0.1492666821473436, 0.8107909967580857, 1.3575379629024007], [6.260684287907643, 2.733918455508996, -0.7589815472379441, 0.2767012320987696, 3.113109591285906, 0.9300010630749608, 2.500770616616599, 3.1773271374616443, -6.9296884056296, -5.711244076055538, -0.824377821890395, 0.43285504715822865, 5.878497194471087, 0.47895146692175694, -4.703027450747503, -1.7523240200461454], [0.1416477782403207, 2.9421134267256175, 0.826657541696901, 1.3407545092728799, 2.9490807150056, 3.186207808499571, -2.3177323191097896, -0.038971368146074825, 0.39797040402893863, -0.6416405917166532, 2.0799232954923603, 1.9025038036095379, -0.12181472077194244, 0.6403317516682245, -0.5416671543333899, -0.9075807847234044], [0.5318644115942578, -2.016503106041469, 3.986726417756079, -0.05866399533219335, -0.7839057619931762, 2.893923830755562, 3.3112923277033546, 1.0095750558199215, 1.1774914803766223, 1.4631730496009907, 1.3955915760198894, 0.49750368086918373, -0.7717566337811074, -0.7437024310419805, -1.1863695023596597, 2.9507764058456836], [1.8190891615174032, 0.6325411837626881, -1.225364118617026, 2.752770103618648, -3.065391439547106, 1.8569403247823835, 0.5901760374001177, 1.5916856027859987, 3.573082010079767, 2.50217313610854, -0.09970678880673467, -2.89083931435573, -0.7317107785166048, -1.54535737978222, -1.706381451888814, -0.738697511780098], [0.10850557714124354, 2.1585195712684073, -2.131816942062898, 1.1648861069146625, 2.0640789495715777, -1.8070743925810793, 0.4086641573478528, -4.67558568854871, 1.348492283768617, -0.7394770759474635, 1.6178065346484671, 0.9922776978695587, 3.951607727456812, 0.8560356819930777, 0.15435413390603459, -0.5782098927323049]], "bias": [[0.007617851008028476], [2.454435391224246], [-0.8207816113189017], [1.853989397095348], [3.5532160588938098], [-1.6010437993566988], [1.99417597694947], [0.7359205417850256], [-1.3599749956414244], [-11.122328559658], [0.1390343216160831], [0.44855405646375834], [-0.9564437716236659], [1.3693173730318378], [-0.7185901663951864], [-1.1966706350928387], [1.1632333337241423], [-2.137179408077561], [-1.2164894662917802], [1.6243239231361364], [0.3407440547542031], [-2.3891804746898604], [0.9572420928308789], [0.7809492857634632]]}, {"layer": "activation", "activation": "tanh", "activation_prime": "tanh_prime"}, {"layer": "dense", "input_size": 24, "output_size": 4, "weights": [[0.14660584564656332, 0.05837955445640558, 0.8116943536604366, 0.02393715381757816, 3.0661336131524184, 1.2162741044695347, 2.7350204478394144, -1.3539503643840616, 0.45734817871457695, 0.8813180521617533, -0.033773640037134456, 0.1944095952465742, -0.49006460312196887, -2.455007951956217, 2.018599228848934, -2.394643556182447, 2.2856781783718567, -0.6897991777226244, -0.49512161542083466, 0.37468794079389856, -1.2691863646335892, -0.2919227465128268, 1.2835302593247486, 2.7945551926910737], [1.7503931827196515, 2.463731034403863, -0.06458167819288552, -4.39205797940509, 1.864090442202861, 1.4352966488852643, 3.9944945660145303, -0.5431479330605655, -3.3609423174828166, -1.4543197343686771, -1.4537076694566045, -6.0776158421038895, -0.6201572095480519, 1.078943700131027, 0.3789410717190782, 3.884192899806662, 1.7458887672139556, 1.6609917884972685, 1.9140783311183083, 2.6463792354055444, -1.375970128478196, -1.2585647249675216, 0.4580577344684553, 0.4529666569486005], [0.39602987111843546, 0.8850429622885772, -0.22531346822665665, 2.6683013253094496, 1.895053572239528, -0.7933278723540678, 3.547584629116342, 1.2013474568524625, 0.9770128379160483, 0.20104842075441628, 6.799624518552915, 0.9196114622101894, 1.7565800033897423, 0.6581388553532963, -1.8135697076897657, 0.711323429858119, 0.2512083132518927, -2.2019343185890534, -0.2727148843400824, 0.21736146976794532, 0.06456695532456291, 0.08412217422347246, 1.1166566123376556, 2.8848233990220233], [1.3564846163589768, -1.3599631151248768, -2.7294816234748702, -3.1290833335547115, 0.7435693748355658, 2.2538409987566523, -0.659666242334376, -0.40345088911616694, 1.388153121073945, -0.9481154447359923, 2.717476654109749, 0.7146319157510658, -0.6037430389774018, 1.9864346723920305, 2.27346833021552, -2.31241381253985, 0.2969801995372954, 0.8806471384005152, -0.7319765016454185, -1.145604044979296, -2.5320286033117587, 0.4991130137927835, 0.9469141942490412, -1.491146042326237]], "bias": [[-1.0687779193671085], [-3.2753497650142807], [3.0715679533265368], [2.6038235429698413]]}, {"layer": "activation", "activation": "sigmoid", "activation_prime": "sigmoid_prime"}]}