{"generation": 109, "fitness": 8590661759.879961, "network": [{"layer": "dense", "input_size": 16, "output_size": 24, "weights": [[2.1253876023964167, 1.1025110648307885, -1.603109919050669, 0.25170032759211025, -0.9597269991056933, -0.7276189354877515, -0.8970961656387941, 1.6458917657970238, -0.21452456605607517, 5.821419209443939, -6.855288802215337, -0.20457258739697726, -4.01257901456267, -5.320251049268405, 1.3260338085541747, -0.28754289057344806], [4.217417160712297, -1.029387894696334, 0.6076509186268323, 2.2210688802791054, -2.0105473267173766, 2.3936939542650046, -1.3669036641141112, 8.302597879497947, 1.8961124573296293, -1.4882837827524682, -1.309971493257376, -4.141044823457512, -1.2951817053038566, 1.0476098474166355, 1.3147123784217463, -2.126833739230528], [-1.2060333575049134, -2.2069335280690687, -3.13380433481797, 0.80056525776551, -3.028578417046286, 0.13175731791877976, 0.19162739767673898, 3.318856917399062, -0.42115460430265494, 2.968622010107085, -2.146862139285698, 0.5055299771719434, 2.416217034452747, 3.1362190987595975, -3.4718031261394433, -0.867201676857752], [-0.7321889927345004, 2.5866787354267937, -1.7151806079520056, -1.649849526879243, 3.6005108753159627, 2.4627971543720975, -0.22431339076557166, 1.9333485329851392, 0.2087095677608184, 0.07028722917908137, 4.955945425679871, -3.4652281367398223, -6.291744476706769, 1.3566934287539816, 0.08374545155608237, -3.4939901016034205], [1.8158194005572583, 3.449758214415259, 5.10711742361391, 1.8343600712443202, 1.681030680807398, 2.390211376646561, -0.08200466978216471, 1.5260384915035736, -1.4654802363737085, -0.8611261706923553, 0.2302005621877265, 0.9129313092094571, -0.5548148248264982, 0.6861284034448814, -5.324706778012712, -2.0758092918703266], [0.7656716675546578, 3.4302381737236782, 1.7788249551164448, 2.285954290671323, -0.00246183137196776, 0.5827295857677539, -1.2025032318714277, -1.5155347491121007, -0.7985084336833552, -3.9411924195147083, 2.376318462934167, 2.107422123467672, 0.5160285389776016, -4.885343547841097, -0.735236393409771, 0.6606024818870507], [-2.783076940386642, -0.2236158851792001, -0.45857419893664497, 0.637685093140845, 4.375834141701486, 4.715171044831879, -0.4922345515780896, 1.938912776258911, 3.5092960686421746, 0.7758530288231066, -5.342993059278307, 3.584245048160243, -2.428818330315874, -8.132113423561483, 6.5473494070731375, 0.7813740546544714], [-3.874236388010618, -0.6772858932478572, -0.48711166451699506, -0.8982529236164549, 0.17111529684091037, 2.2234010521365173, -0.38862149838603766, -3.999453901892544, 1.6227753428361649, -0.494660549376188, -0.13322537668793621, -0.49814285099763794, 0.5818684205382946, -3.182444712991444, 2.763978440224924, 1.6726736002711968], [0.6004632199888896, 1.8081965259874537, -2.970819187776035, -2.1369277831425766, -0.24915757765292898, -4.569722305438436, 1.1211311437236007, 3.0058868399771526, 0.3041725043778206, 1.1455422706790925, -1.2016916250925092, -1.143727485470049, -4.780176134962367, 2.664306120042252, -2.689950535148828, -0.5567409941547754], [1.0615595844570884, -1.813736455883585, 3.8297137554857192, -5.6790124048523225, -2.038392071107781, -0.21320888419705106, 1.65863458840246, 2.691561295454518, -4.145640907148798, -1.8350243510339326, 0.6473114531833113, -1.4394455851985462, -0.8695189155045555, -0.9753827814599925, 3.5685980484740276, -1.6551889499836578], [2.2576630603924848, -1.9872192461610858, -0.6332422582455786, 0.6486914428011297, -2.077282032247849, 1.2983775568470186, 0.12314444448754885, -5.259543374907739, -0.5924623505338824, -0.6897745979601269, -2.394204782468756, -0.7264398358228381, 0.6448840933131854, -0.2643348545068406, -4.5373881167800745, 2.6732179962164997], [3.0314682039863947, 0.2879341450707542, -3.1594992694754636, -0.763752249026243, 2.023362465648461, -1.4775923708184198, -1.1916582406876393, 1.558403745860525, -6.4183659618368365, 1.6735324348476526, 2.2511796699483133, -0.5717476253658318, 0.9130947698694288, 1.4079905941731021, -1.9131367691539447, 5.998526028800962], [-1.4796737338748072, -1.6437900645506345, -3.1966538230359185, 3.49427836115618, 0.1157980386077484, 3.06724401231622, 3.292601647377194, 2.1089849269805576, 1.2422537198164065, -3.438230013126562, 3.1377729589463907, 2.8103957940355495, -1.0789950899757073, 5.554830327168682, 1.2234564185926724, 0.2975291330139438], [-1.2079018053940358, -2.784747911849811, -1.276069342535149, -5.0910711991150475, 0.6733200812525527, -1.3491784174152124, 5.16016870117733, 2.668312423972138, -0.4903743116499697, -0.707798340515057, 1.196570337957006, 3.201247064196439, 0.7092434324688218, 0.16908892726725594, 1.708726030008342, 3.916076834725055], [1.600602108034769, 5.393459773071935, -3.025176222481975, -0.4959177512056543, -0.5580541718666345, 1.6869627720223908, -1.0485391056691726, -0.6953547157916173, 1.6982855110626436, 6.089013673285307, -4.071291574453469, -1.4249198964347884, 3.6347050693115373, 0.20572077347695764, 1.9465487721958366, 0.06444809936799872], [2.8206739613434157, 1.0701518884535337, -0.19471632978837794, -0.6967197709839996, 1.8318405868438177, 1.3766280729589515, 2.006960432492934, -2.495802979439937, -0.8863850885918438, -0.5916968152873407, 0.265581616587815, -0.954157173827388, -0.38909995452108326, -0.8544144698472051, 0.30264736104572565, 3.1644059101848403], [3.47537020806432, -2.129100128067832, 0.8303294923123052, -3.3711990648463694, -0.33996921294293436, -2.0937907024925972, -1.159894237946977, 2.4173968034805604, -1.6140208669623533, 1.823299750692559, -4.1478594946023755, 0.987517559365057, -1.7422951325500082, -0.14990485967467748, -1.214005784985669, -4.639000296111238], [0.7102730504807434, 1.1235011847098149, -0.162874999952815, 2.7520483983106416, 2.0844952362449574, -1.3164010941919955, 1.1751500476577355, -1.719074080078962, 1.1800248139766853, 1.3312269061021293, 6.6924498189843, -0.34253810741794366, 1.2559147985311916, -1.5534180296171751, 4.550353204810533, 0.6402040881488873], [-2.940620803292126, 2.37662553617921, -0.666995220011552, -0.9034359834018443, -2.0139151699213476, 4.375969371804683, 0.6111034577154644, -5.55068331905164, -1.2704230420047915, -0.4784792553812366, 0.44603322208708823, -0.4069278445760518, -0.09257200251249553, 0.8339832631612656, 1.460556122520322, 2.1286778688753274], [0.5351571571493139, 1.7977622561576077, 1.0464805545437987, -4.274920039050236, 0.5535562158340095, 0.49692701881288015, 0.3402098737787262, -2.0911551940671704, 0.8469467249692223, 1.6831103067357194, 0.32688701959915734, -3.1317562972685855, 0.8672100415548019, -1.6671551471079815, 1.5912375774167293, 2.6340795596103614], [5.211011992586706, 1.6175273174409281, -1.2887662361202645, -4.343052273013653, -0.9782689719853446, 2.8867065308200823, -0.9570077541498319, 1.7547846037888843, 2.1190275145536273, -0.33607273657325853, -2.2829899231837834, -0.31605954173354955, 3.2423742366758455, 3.762523841201741, 0.911570088070081, -2.8473258726684145], [0.5673702625476977, -2.0488937016869464, -3.9450986165847324, 2.2827135912215994, -0.2754352414833201, 1.2340254253905567, -0.8270801552024456, -1.1782652722767553, -0.465962859364054, 2.153082080483465, 2.228306095157561, -2.751531165272908, 3.1610365335978443, -1.182284443630674, 2.4404691896291393, -0.6821958074518599], [0.9350452109304892, 0.8600522060365561, 0.5615979101355025, 1.3851577454074016, 0.018123954086695315, 0.1307845244783551, 0.4047004432306205, 0.9168394415654681, -0.7158497347249468, 1.8120604946057854, -1.071882801596216, 1.3752880314710159, 0.8462814004724152, 1.0630275270473408, -2.488101752683268, 6.138533759331192], [-0.5131205297707496, 0.7789480725516174, 1.9963343535880387, -3.2680876433450834, -1.0132994834497082, 1.742241564023064, -0.4760750649381448, -1.2273608122715376, 0.9510898420890552, -0.24310421184115816, 2.991768658827411, -2.3989229767955615, -1.8251096759779766, -0.6279973748724688, -0.3914253255493587, 0.6560482706154744]], "bias": [[-1.0942537626831794], [-4.039153245256102], [-0.17402951332433125], [-0.8973547506161067], [-3.5150360579201108], [1.7464226789865225], [-0.7406428136509056], [-1.1303670471060003], [1.9930283909047106], [-1.3508719411420103], [-0.2294650417390145], [-3.0805353394290855], [0.06472207890520687], [-2.461303107598929], [1.226506681757948], [-0.47969798923996093], [0.04064649397648079], [-0.22240623527179892], [3.375997149309845], [-1.9019949272158168], [-2.049266482191169], [-5.499463532362737], [-0.5008470996473233], [-0.6250848804589598]]}, {"layer": "activation", "activation": "tanh", "activation_prime": "tanh_prime"}, {"layer": "dense", "input_size": 24, "output_size": 4, "weights": [[-1.8657932107861215, 0.4115346284592263, -0.6362689719446474, 1.1520553759577061, -1.4988558621642003, 4.061521313891535, 0.6853557763484962, -2.224416842743372, -2.5732861813474197, -1.1633862884303534, -0.7885986033454075, -0.773770633092923, 2.1115047017015707, 1.2434641347131072, -2.0170448491921076, 0.7065648689326177, -1.861625202237112, -2.735184456075839, 0.6083065979676019, -0.4855689942290713, 3.2003717165383163, 0.11375631916880957, -0.4190265652496675, 2.7535821618178815], [0.9926627682157819, 1.157845042807237, -1.9159415599872451, -0.09035794915987383, 3.410358094722991, -1.3877910959431985, 2.582438619905435, 1.3757250450204777, -1.6706247432069017, -2.5456698984760777, -1.1462878598600383, -0.34587801789505423, 3.770047264253595, 1.2702309792937168, 3.3053402946594717, -5.730749301548768, -0.15314570511248266, -8.334619189045574, 0.872299773092677, -3.997729864070059, -0.014397312582408617, -1.4171298399522674, 0.7665396331406648, 0.4404700877320289], [-1.6825957473589706, 2.846636660904306, 0.6168881769961392, 1.0710735045687207, -0.13794319534931432, -2.7359510530882254, 2.0813802334070273, 0.45803061945722123, 0.5853624389529479, -0.2921045845987229, -2.3919198583296235, -0.7329845907022757, 1.6555551245100029, 1.816626596975072, 3.5890341654158777, -1.0364918698484962, 1.6580285080096693, -0.23543543078750817, 1.9610308018492841, 1.2739273700105462, -1.3909415988503346, -0.43071373152406267, -2.146486444864191, 0.04281464595759488], [-2.321408709030874, -0.806324078921008, -0.6024836584179348, -0.31768390634138854, 0.6600158381126892, 2.7547544002947886, -0.6079614881769397, 3.9100888214246443, 4.771829154409871, 0.055827855788760206, -1.5207704895208174, 1.3000927559599798, 4.035798721236908, -0.6111904027647884, 1.2849479131315151, -0.19696980700543057, -0.11483583074322024, 1.17991416109967, 1.6061220182374252, 0.15700057891944263, 0.5352211814590382, -1.34119743665895, 2.9129367197741773, 2.2333867493502586]], "bias": [[-1.0829907838583988], [1.3180181846383292], [-1.4353255277540122], [0.7755650167992842]]}, {"layer": "activation", "activation": "sigmoid", "activation_prime": "sigmoid_prime"}]}