{"generation": 10, "fitness": 5023.038198361497, "network": [{"layer": "dense", "input_size": 16, "output_size": 24, "weights": [[0.5297487207900196, -0.042058622497682, -0.9562299018905205, 0.6330424975056832, 0.29858083721519524, -2.1540944824413453, 0.207591928000383, -1.871445068104125, 0.8309451111139827, 0.4265822964967849, 1.0168224004424384, -0.6051573758534392, 0.2853147790691335, 0.37030498975109105, -0.5639744149079737, 1.5629424764337554], [-0.9254018874133876, -0.5770310400507463, 0.9470051414724995, 0.44732966452039347, 0.6793398446828052, 0.43876727408508476, 0.3449530110537302, -1.3706503288219116, -0.8581446172650768, 0.5046332737310337, -0.6842263209075441, 0.956527660580734, 0.5472675318343618, 0.14252759073710597, -0.2029445610377163, 0.7689008077695569], [0.8007815759826686, 1.0638664028778009, -0.37722101319128765, -0.13037674932510868, -1.2862587471551605, 2.1122323128769036, 0.7688605269237281, 0.822475347220289, 0.3033238337752433, -0.18225801315489312, 0.28041476029412915, -0.1936253898371203, -0.8901280112226713, 0.152736783177726, -0.005819269783850833, -0.7714894174491009], [0.2580109711896428, 0.8445679619706017, 0.7443083069168941, -0.9138620106009248, 0.6850556254221118, -0.9259429349376778, -0.9556847936566726, -0.007723827370471836, 0.10041957309751348, 0.06171977046519084, -0.763920617410234, -0.44650290324857966, -0.9957827139494508, -0.9058115035836845, 1.1804912796356462, -0.9062379368115261], [-0.6580535357399011, -1.7930017919302264, 0.35987808712263925, -0.12940066120611093, 0.9269305083126642, -0.734719841546384, 0.3746354859170784, 0.46141441665731775, -0.2466940283193686, 0.8391010273328567, -0.5442298637731768, -0.3651315195683589, -0.17839082442803234, 0.5010594893204865, 0.4356105856491763, 0.2650829281358971], [0.8782443959347987, 3.905183008903989, -0.63538401453999, -0.8592294473620143, -0.7136044639875254, 1.0110676375693568, 0.40722670268680217, -0.9727992617287462, 1.3328557540291985, 0.5371512310539435, -1.5648571523339538, -0.4947458323574274, 0.23436276873055645, 0.5479464910809833, -0.9488009062162379, 1.1681460689464709], [1.904697592543444, 0.4428737629694117, -0.6259120568017787, -0.6844783225033484, -0.581191747608857, -0.6712872395250502, -0.7291089867775433, -0.5470230965661761, -0.018533556593111067, -0.20796596737058293, 0.5129080034424989, -0.1899891096118731, 0.49107682297854627, -0.3040800247544564, 0.5392342222745157, 1.1991438218491894], [-0.49094768226856544, -0.4518299119089719, 0.7238410074053216, 0.7204431310345109, 0.09227432511223443, -1.0199494852847564, 0.09527859430189367, -0.15029694405798488, 0.1119820045659583, -0.9287074077735791, 0.24748217323653687, -0.5406982884436098, 0.8380559460658877, 0.10967352017327348, 0.03920290495378853, 0.03396279271498037], [-0.6504654253967945, 1.5035396060135509, 0.42736294501055827, -1.3692510377397802, -0.09695223272913145, 0.061808866334885915, -0.3730973629486274, -0.5043635629628158, -0.1343552747844441, 0.19548479053781048, 0.4850750057289728, -2.822254469383665, -1.0233519618642508, 0.16293723684708983, -1.4447347019986214, -0.737879253395761], [-0.3095587319415485, 0.6699922317435092, 0.05206013225646566, -0.36948341454401645, -0.919368428044891, 0.5794165299674472, 0.04033610344564349, 0.4168094192203933, 0.7984993246826337, -0.6250079550097567, 1.3376533550794063, -0.5119520076703836, -0.2026787334855673, -0.8015133802869905, -0.39267433118000494, -0.5781935809982299], [-0.6682399177052594, 0.8941440679475303, 2.125018116792943, -0.8386268994399726, -0.4339074910638061, -0.8677529911963131, -0.08337448320868468, 0.8826829189787161, 0.7414199790179777, 0.1746992406893637, -0.87455187061772, 0.30317835874750787, -0.7098789673731789, 0.0013268846880860607, -0.5934464815023026, 0.20449949830914194], [-0.5310576660209179, 0.741829785763708, -0.2293324732211104, -0.4378551948023546, -1.0287724575991088, 0.42065429120389486, -1.2245436330921942, -0.5056519440760425, 1.8655900300844865, 0.46209314789260825, 0.03770793573271303, -0.5757148367817979, 2.1659588368621305, -0.13724565023394097, 2.2642756753991926, 0.5719850108296876], [-0.09293931935567423, -0.6473372196463334, 2.124681785735826, -0.9916293101125819, -0.11174650577000422, 0.7240828953723131, 0.13253469304985943, -0.7611063284412443, 0.17061636490850351, 0.5203744259221923, 0.39178431246066303, -0.1250444679400089, 0.708981683260745, 2.806668947219636, -0.24959078379787325, 0.07753942547864345], [-0.9590555516649814, 0.8722502960731964, 0.6420816834191121, -1.0017611871447103, 0.9487867888331881, -1.1021058072123036, 0.4259898363181458, 0.8177981734395761, -0.8767930030520441, -0.7402791081809774, -0.3097261893310195, 0.7106008067895078, 0.9653748809268261, 0.8731625124065925, -1.1115666672661138, 0.669866251136938], [-0.492207314556379, 0.03770340163531749, -1.3051311612130256, 0.5898668245890366, 0.5179387601685874, 1.3991334392941388, -2.0804206020932865, -2.571166909682754, -0.9404513836208193, 0.22817043757813482, 0.44260822328927407, -0.08151772070835395, 0.0899701943498954, 0.7014274037583508, 0.01930344894600844, -0.7127511915893623], [3.0537372667309794, -0.14630791580052716, 0.7404315455498987, -0.04970221557327781, -0.6160974217774258, -0.9025768590894037, 1.2234725109312603, -0.12800045753965672, -0.981639646234135, -0.35200064412904153, 0.4826111785289011, -0.6212243208048496, -1.4960638035083647, 0.13849096648461412, -0.13662635067337758, -0.22112337671510685], [-0.7937860777996824, -0.20483606799727094, -0.21448371614385325, 0.7671381412290426, 0.036079723324569546, 0.2845964170694293, 0.6439025360236366, -0.15466041383820317, 1.4007584921615353, -1.334037059865528, 0.09440921942470948, 0.611819387005049, 0.7772085106773934, 0.6351086556674612, -0.6707152342941007, -0.7259591320395984], [-0.6726942173050003, -0.9366335307619376, 1.4720760546552834, 0.34558657272538507, 2.5308143269313033, -0.7277795941814036, -0.3204580368433416, 0.3844708096216438, -0.44564406602038376, 0.41587157997071067, -0.6630661434628202, 1.4388566525757427, -3.3611949115025155, 0.6062217421220413, -1.4625868761121545, -1.2340634772772108], [-0.8854079169736437, -1.7165009805049183, 0.7514437934217439, -1.1162417383423913, 2.3987053829473943, 0.4531788686855167, -0.24527802043909297, 0.7273019870419739, 1.2892603329550305, -3.30293129334021, 0.2845552608213249, 1.0382950856377209, -0.3861038794102556, 2.2874185451550675, 0.47293479100292846, -0.12592550066317476], [0.28861081422981943, 1.3840998959638866, 0.053549377027360734, 0.6542639381899682, 0.08427098007641542, 0.7338957484614987, 0.6878566029742497, 0.26243965214565224, -0.682681808337984, -0.2583697932098554, -0.1368598684483141, 0.4277916594335105, 0.1677722785558624, 0.6428818497935204, 0.6811630830232807, -0.7583673830651536], [-0.08316468827177595, -0.3020607320464912, 0.1121963760366822, 0.2178088032893673, 0.2135538782669837, 0.5585955669156052, 0.21589898136545937, -1.318030154456952, 1.5525568062358266, 0.44878693120543045, -0.1497351828653218, 0.21179861553706503, -0.24641662748855742, -0.7863971207431955, 1.054618136101454, 0.4922632284364601], [0.7716292404616432, 0.5815275951875489, -1.2171537352106339, 1.225230224233967, 0.4650184221377267, -0.8562330257282289, -0.13458935668740502, 0.09280794894772582, 0.209611748641777, -1.6577325669930039, -0.30846047420984, 0.3526904355014213, 0.48368286642021074, 0.8515639620563284, -0.2104404654911578, 0.7520690192053545], [0.05024921306137098, -0.12221865856111624, 0.6315773596875611, 0.4372504778824471, -0.7485096994370013, 0.6347443268389039, 0.1839036620923944, 0.33825258643997036, 0.4458798751390909, -0.09921353705370417, 0.7367676939638266, -0.9717087324079865, -0.3796079282425504, -0.5288776430548979, -0.6049989833180822, 0.17406345751165664], [-0.15489481766738222, 0.9846936955697957, 1.2850849132876736, -0.2027898786022333, -0.5135226412980405, 0.5311689795180037, -0.916419553493105, -0.7582962145996184, 2.071420604949167, -0.14398836027081297, -0.6320980820410389, -0.7613346888388501, -0.16620672473260206, 0.7378614588276816, 0.3787321035597522, -0.2812403989557877]], "bias": [[-0.38960885745098106], [0.8762786840772137], [0.36031899915631516], [0.9487042704482505], [-2.2322435406002628], [0.49138752830111243], [0.2727937315027471], [0.4223280004460934], [0.08791783591980495], [-0.5730918408653478], [1.157959166044928], [-0.33224570191193226], [-0.43751056642925445], [0.08080645375732387], [-0.6054343943664537], [-2.1269503227980766], [-0.5713913571694562], [0.05799351365186367], [0.7442395015276861], [0.2771203245906271], [0.2593506937755323], [0.9136149742754066], [-0.31947502800599437], [0.9448567876157676]]}, {"layer": "activation", "activation": "tanh", "activation_prime": "tanh_prime"}, {"layer": "dense", "input_size": 24, "output_size": 4, "weights": [[-0.6900727518006119, 0.04938340252603468, -0.4803598443579771, -0.12830807329913885, 0.08529222629420552, -0.20338038872420938, 0.42083737675321853, -0.9044542155817337, 0.20856153847669567, 0.7596380341928763, 0.8109415133680693, 0.48581845806915713, -0.28562333077829816, -0.8011303180955551, 0.3735641598529207, -0.1524014980735548, 0.4703606428944953, 0.18841537443426404, 0.009880241073402768, -0.3863504484563387, 0.20585631272069604, -0.977442982208828, 0.4227923894673263, 0.5357055448263208], [-0.6487997552516802, -0.9277358819154025, 0.1856232754834699, 0.30098281946255856, -0.281105034481133, -0.4658782059440525, 0.16121378879043607, 1.7888615641190597, -0.08464436935477493, -0.6786454501887009, -0.8981296516064774, 0.33291686104274854, -0.6201572095480519, 0.6773877237798986, 0.18672819039298383, 0.6540732549623673, 0.7344696606163685, -0.57849350401158, 0.23465570304906858, 0.15684202567840266, -0.9719532645931936, 0.3704825173628743, -0.38125234170781946, -1.560100976504458], [0.6100588421386217, -2.319007195716849, -0.2682455769028138, 0.9532752258236579, 0.9330004680545649, 0.008216306697339304, -0.7836891768513267, 0.23093505783098478, 0.29685047652649343, 0.6823588207213436, 3.3772356132182884, -0.27991659360374666, 0.05232152462784678, 0.1349030827200166, 1.9119260327288345, 0.01299185805576697, 0.11079326734769146, 0.20530558282038647, 0.6153109963545549, 0.1022402890436358, 0.8802783852576221, 0.13236079482265528, -0.5888193799420605, 0.7748483151584278], [0.7947371585571694, -0.6979080523663894, 0.3391806074762028, 0.004939728182924652, -0.7898085580260681, -0.1724129508754185, 1.8935747124927482, 0.561122555440595, 0.9026358287251264, 0.6914714302962295, -0.9281187688551515, 0.694275248426503, -3.348338033267484, 2.1865956160991757, 0.011415711921999527, 0.6502687826822802, -1.7978443722535866, 0.6757107997201393, -1.668475018711734, -0.3779728491489944, -1.2517328462336024, 0.9821890805006048, -0.30987245416046294, 0.378527448139268]], "bias": [[-0.8217299069035451], [-0.9399382251478776], [-0.5342225074484885], [-0.8907711053399552]]}, {"layer": "activation", "activation": "sigmoid", "activation_prime": "sigmoid_prime"}]}