{"generation": 10, "fitness": 9187.962811309775, "network": [{"layer": "dense", "input_size": 16, "output_size": 24, "weights": [[0.017346088260614234, -0.24630190647607875, -0.36851314808915236, -0.17879716967457138, -0.8657850843587203, 1.4198999072139875, 0.8233748851859257, -0.8454437076089301, 0.3908286214955856, 1.7092632663973828, -0.30489268655493773, 1.9138113680376319, -0.3142089430184634, -0.4935566888341085, 0.44878102584996915, 0.7481891710100728], [-0.4168311667670095, -0.7027473952402217, 0.20727341580942626, 0.6656617638244784, -1.0667091110313003, 0.18169270191475584, -0.69838959276404, -0.4778702500091834, 1.3492674197024708, -0.14837817624698646, -0.0024587028722748427, -0.6273553194670072, 0.8074656181015178, -0.640832039428713, -0.13365153408300667, 0.3382074781381066], [0.388256869470262, -0.16717661749933277, 0.4796114910858562, 1.549452646834458, -0.4623274365671777, -0.8501588051001989, 0.5244385666545357, -0.5947481028149972, -0.04693321947155216, 0.15834584984091093, 0.9276755936774286, 0.6419333844146475, -0.734259894576571, -0.6434676968140075, 0.6236155222584707, -0.06889648138006743], [-0.5647635745016513, 1.6278202200834704, -0.796272261252567, 0.08849840905972794, -1.9146702782222877, 1.6259005892542593, -0.9231866018803145, -2.5005598957843915, 1.081349701286722, -0.5289277633969633, -0.1587251618512333, -0.7919406826268556, 0.4280901514491766, -0.8016722214956213, -0.3292363374125214, 0.6474523526839787], [-0.21643474375184568, -0.9908793232993924, -0.3282018366989039, -0.027060844002768647, 0.14853494123799882, -0.08070263913581766, -0.15972870313212284, 0.4588862096133439, -0.058558522229744885, 0.8809191119806141, -0.30873065965662927, -0.7540055882166603, -0.8780715160782875, 0.5133486959562299, 0.6747842277630962, 0.8237813399771909], [-0.7531141161843017, 0.249347482089124, -0.8973389093614679, -2.1001060264566713, 0.040064920859515185, -0.30174057806595056, -0.718729504087213, -0.03490919731886044, 1.6843565284897433, 0.8736858146059698, -0.6775369118229346, 1.2990359177722375, -0.4199038042643174, 1.0042541714433544, 0.11065305561796102, 0.5956359432507754], [0.601525765122708, -0.293705880800208, 0.45451574189270505, -0.3402821698855203, -0.6699897339572167, -1.705429390212471, 0.6330863696522031, 0.9341497317365488, 0.03584449596953743, -0.10409160304671339, -0.7781923893185985, -0.726743195792714, -0.33799565642061147, -0.5639603691237933, 1.4117431320262326, 0.2607832757967392], [-2.1035599069823583, -0.0822015514479606, 0.5893758734260184, 0.2625645156554377, 0.4897822116509094, 0.6174861142547392, 0.6661286961613326, -0.13054258701008026, -0.9204809230198463, -0.8697901136316657, 0.591873775989896, -1.1044520622643805, 0.6190505179434813, 0.9586118734534823, -1.6867714468981212, -0.834049406712849], [0.21311553648261783, -0.5334482194726311, -0.5959595594125664, -0.12689558400918433, 0.6543692694036045, 1.4255355467788866, -0.9701510605519403, -0.6927936240728976, -0.38383081985692, -1.520730728825891, -0.07482232448437243, -0.14822020697617494, -0.7536844794455757, -0.0764920709006609, -0.9545123049425995, -1.6095010808410128], [-0.006832625361131051, -0.6531743489570798, 0.5767769122500883, -0.7553505139109638, -0.44791309378306665, -1.6424942613828057, 0.6091363081526933, -1.1805824570066983, 0.273353838037518, 0.3848209560167777, 0.6739907373449738, -0.8104894355497536, -0.46665747186691764, -0.40830459033919153, -0.5826452360358287, -0.2869865762199122], [0.4276109259211922, -0.7263594890655531, 0.2830416692406852, 0.3568439020790024, -0.23849759070238785, -0.5802136273235874, 0.763132578810021, -0.5182983480976324, -0.5856957492734176, -0.1561262560699328, -1.678028916095308, 0.0755782115868393, 0.8362821262603732, -0.16585076740660054, -0.9310717172804555, 0.725299471882243], [-0.2582093454673329, -0.904900841040573, 0.83722172143833, -0.08953194069951464, 0.9741817444290165, 0.7737771819662362, -0.9076058171462817, 0.4221803464507552, 0.8240786064110706, 0.8664167862431926, -0.009646149431629336, 0.2745487905071282, -0.7628566268492576, 0.05850111708088934, -0.26649446469370663, 0.7306240293340306], [-0.479581703588254, -0.17619586015004063, 1.0475251017440037, 1.7322148705347025, -0.24348829557537233, -0.9955665745912201, 0.5039570003849205, -0.7966805022057579, -0.6970940188808035, 0.6635192134436645, -1.5101664188327542, -0.9790205566377256, 0.599234458905459, 0.9420740111302925, 2.6327462275438127, 0.23255784678997582], [0.529331741806774, 0.016858997252535257, -0.12919065299602317, 1.5228723466640333, -0.2199556351653298, -0.8510736445438161, -0.8966394571369, 0.8181548879067937, 0.5427116401050027, -0.13355472696088871, 0.2421840958515038, -0.7136463055506119, -0.7706769643543996, -0.008661483631347222, 0.8764140920688861, 0.9611882271125678], [-0.8406160629226904, 0.23836789461487262, -0.30153237098137087, -0.09340445401696874, -1.9335155480320239, 0.2601269460983425, 0.07496735737180793, -1.6405411252619004, -0.1990461224495753, 0.6921390259294344, 0.6714506323673688, 0.41514119538668304, -0.6561103470919321, -0.25403836324888335, -0.10227151429121228, -0.39891109345755243], [0.9437789129091589, 0.4515015689858035, 0.07398620081079699, -0.9846514425779564, -1.1405935503128293, 0.5296503471630454, -0.04197984393467191, -0.34052332302258326, -0.3832267270521317, -0.7587691270321681, 1.0151978619280433, -0.13731784068746156, 0.7853438467782703, 0.34737347847089173, 0.7290206738978338, -0.4942135812769944], [1.691965529428402, 0.2936014114673464, -0.8998046185068049, 1.7897357700789334, -2.5874396302276965, -0.0480319072726072, -1.6841395166797577, -1.416457870648515, 0.4027352220730096, 0.49527954338471414, 0.9478152155389858, -0.31591764584292736, -0.03431605666644533, 0.2753372033340149, 0.33104118723555503, -0.8914093160053667], [0.1425426658068767, 0.42768347095534587, -0.062203253134410774, -1.9897207867567024, 0.7018683722650152, -0.707709184182703, -1.1121124094595487, -0.3822254373354428, 0.5198322357616989, -0.16221532649941972, 0.9218283643722329, 0.3535556017271273, 0.4545623131215921, -0.9407156397143044, -3.452908873770398, -0.9222095238274644], [0.11680371680307666, -0.6470560002194845, 0.9199677947319099, -0.5863742924999411, 0.6287123313505214, 0.7914500012154657, -0.08931837922768415, -0.27079309306303756, 0.7260425754060091, -0.3440206555461627, 0.14892881310114126, 0.5083004658774639, 0.236256220264073, -0.3369092306401471, 2.405004072119393, 0.27158457711383766], [-0.7940400011330417, -0.6249572502495186, 0.07898079902538813, -0.3420045090756276, -0.9679607293272043, -0.9311978553194822, 0.41897430557223325, 0.11457730449134806, 1.6008873864783342, 0.11647770502338839, -0.4779159346618769, 0.64572219382879, 0.440482307751217, 0.3092472312014547, 0.9600590367454799, 0.1189953607890255], [-1.0789134507960148, 0.24940741512285447, -0.4930729705960015, -0.4214001732295418, 0.503350473153001, -0.1387320347633887, -0.7671854703968166, 0.01611031904122595, 0.9270045597739645, 3.281724223160949, -0.06743992258996953, 0.45537755696959636, 0.28847555262956837, -0.4312611242060549, -0.805173839417159, -1.7314601916343797], [1.2722645141881155, -0.2407774408305141, 0.6154050288516721, -1.2286586608798462, 0.4285497454525373, 0.821485083319544, 1.9238478099458187, 0.954941116768742, -0.7299462633190779, -1.3325556121914037, -0.7829439182400539, 0.875841022025758, -0.21837954408051874, -0.06299713667239226, 0.26033540132001587, -0.070873135250483], [-0.5881330269277241, 0.8720970063152427, -1.8063575787938637, -0.8201444359665211, -0.00892618495277131, -0.3629208727761237, -0.3035796594066946, 0.1315957465463471, -0.6006258353031075, -0.4925831589390264, -1.3457299589080935, 0.9866028614685085, -0.6986318237497153, 0.7388752835657193, -0.6950291555799439, 0.00011905553929025814], [-0.3908111713150939, 0.9564549030997715, -0.8985253378042095, -0.456635266081898, 0.40243842012698616, 0.644079849689474, -0.4423713804617102, -1.5641080720665972, 0.5008031119342709, -0.3190803703524834, 0.1766631885007136, -0.5954682044548623, 1.148005482032221, -1.0739323141899564, 0.0308426363931098, -0.17514926764498595]], "bias": [[0.3148277786071443], [1.150232094653744], [-0.026778186835505036], [-0.23272776919529992], [-0.14794903199204223], [-2.439700057589257], [0.02186059828655007], [1.3041431248713589], [-1.1972568236932584], [0.6252524186197794], [0.48266112863712385], [0.34003836131243514], [0.78800480887917], [0.9227988443116275], [0.5791446720255666], [0.2096813116691736], [0.11542426694544171], [-0.25853079728679207], [-0.9133663697343173], [-0.47943563887396734], [-1.187995856067894], [-0.4825911942190162], [0.960154273196471], [-0.9092941234672098]]}, {"layer": "activation", "activation": "tanh", "activation_prime": "tanh_prime"}, {"layer": "dense", "input_size": 24, "output_size": 4, "weights": [[1.3093929603433458, -0.6644858072015234, -0.17484056125175407, -1.2277801423903503, -1.0551770338962336, -0.061319377039405376, -0.4717191840902548, -0.326706515033528, -1.581123996562527, 0.7163718895338664, 0.23171820404208732, 0.792724803739586, -1.0962209527722815, 3.207189194203491, -0.3555920911690358, 0.9304876711708401, -0.9190161786935553, 0.6593828643528056, -0.6628952908879359, 0.11699326110961228, -1.618447754780386, -0.9199739474387973, -0.8290797664511331, 0.2540198017395201], [0.6346116805242441, -0.2076746034155923, 0.35497294870038654, -0.6976906123078948, 0.32769190582735663, 0.9584583037244729, -3.234695633935446, -0.6643412022665656, -2.6368367944806366, 0.28682367454363367, -0.14313349369986472, 0.16326275916110944, -2.0649096183745126, 0.28273324578147463, 1.1341329611833775, 0.26458059309976, -0.36899182709693895, 0.8285280482156328, -0.2703910080046614, -0.49408511967691593, 0.8845853579401106, -0.1088604845032024, 0.23160942451206834, 0.665874513455178], [-0.9686603431388074, 0.48680154545245036, -0.22277383993654443, -0.6351729042397123, -0.1878356872922694, 2.051874060079765, 0.963940487433897, 1.4962430963845614, -0.5407111408476535, -0.7071647121744284, 0.0708964853259344, -0.5472857116338361, 0.40089572436224286, -1.3091687714483327, -0.0925194265697849, -0.15920323641355338, 0.7441537776769911, -0.4102661729071182, -0.8143471521026904, -0.6108975356694897, -0.6943190060943476, 0.7655977601807868, 0.016128192783168682, -0.23580554900324574], [0.9737849039261892, 0.8965910314521188, -0.8944762721273003, -0.17063795373770585, 0.23747420252618556, -1.8651407849968986, -0.2838103640197458, 0.8550194048307369, 0.47358031752919216, 0.07855866537654532, -0.040001124009544364, -0.2746543939489586, 2.1699629967646596, 0.33766698719175614, 0.9763194047056084, -0.462134456325747, 0.8951913583333415, 0.06148036846590155, -3.383168129275752, -0.9471633204832755, 0.3184357911293596, 0.09706943556793313, 0.5527418027929971, -1.476419615040085]], "bias": [[-0.31773064823439934], [-0.22956910756416593], [0.450639012761787], [-1.0048336020525848]]}, {"layer": "activation", "activation": "sigmoid", "activation_prime": "sigmoid_prime"}]}