{"generation": 115, "fitness": 34360552501.07095, "network": [{"layer": "dense", "input_size": 16, "output_size": 24, "weights": [[1.719526150941987, 0.19297117313545975, -1.5833258424087326, 3.0280391426171755, 2.188014910133498, -2.2116102357818623, -0.4685479397314398, -1.8337158879485878, -3.8366781508538086, 3.134394573611281, 2.246713157788886, 0.8933814556952572, 1.2289108635545853, 4.746162034858128, -1.3346785998900867, 4.40795346454547], [0.15293480313060281, -4.516244408555363, 0.8234436155006306, -0.09148995223983822, 1.7999759499656598, 2.292267576342905, -1.278654031799877, -2.997133628736279, -6.5760649064021335, 2.7044683544572736, -2.7231062256722347, 1.222239922489904, 0.717602876405957, 0.4411738312748632, -2.961229517860419, 3.7844611370678063], [-0.1276690075798219, 0.053359160474347134, 1.480088148828576, -2.157379371251766, -1.427067403449587, 3.345360896399207, 0.47456208561482144, 0.4367872757154986, 5.951833473621184, -2.1546745932166758, 4.670686418636337, 2.342575868493991, -1.9007709630399294, 2.9446167175799127, 3.7705712418478408, -3.035253341812548], [1.3542788492780624, -0.5703090746039863, 3.2947840843525613, -3.3098503422850265, 1.2394221830548755, -5.224372413712642, -0.08641513539967138, 1.6733808064944784, 3.0068824550671676, -3.3505341521669645, 2.16139387335947, -1.6555375678214796, -3.6851039923120075, -0.2262590763281631, -5.932236360303919, 0.1044125707639797], [-1.903184252807348, 1.8165000478352051, 2.0433262793262004, 2.95873764929163, 0.05344497237648094, -0.20265208721724737, 1.6784226626816765, 0.40578977064494415, -1.1521745062747883, -1.9737425428733881, 1.1234470720920937, 0.7067212359246836, -2.5532607177113107, -0.04411276017591692, -0.03236454721418297, -1.5926732820773561], [-1.9395995207601935, 2.4108252809889885, 0.2729367196047142, 1.3024802268897075, 0.2519708944135499, -2.880361518146557, 0.4664096734908221, -4.982132472982463, -1.1931560011805467, 3.95744768113334, -1.4820456071169732, -1.2233943932018558, -1.2286884289398394, 1.3724289958147828, -2.2300295134993924, 3.465958838188997], [1.255823073957748, -0.21370957613530295, 0.63792717110878, 0.7920850189272365, 1.3105159822013452, -1.0130110785528452, -0.09042965069829245, -1.916911205501723, -0.7043085720065481, -4.117964775843307, 4.1659142268845075, 2.1935607056071507, 0.36916916592463855, -5.604506366215174, 2.2806068722276587, -8.172249520138775], [2.744167427973137, -1.000007793444467, 3.0834902084121123, -1.4788341461688208, 1.191433792380653, 1.1415170753702728, 2.3699932726429442, -3.722242711665947, -5.354900072889885, 3.8817092315069766, 0.164251621793501, 3.4674889657293084, -0.695719981478601, -0.13210667911625468, -3.247985364648624, -1.1589963242716061], [-2.932520976704315, 0.24920632934821657, -0.8247393811452288, 1.3937658540185285, -2.476745407183243, 0.35374499936391607, -2.7312910211171917, -0.1982145621852317, 3.097645504066829, -2.214280443271556, 0.3231381044512629, -3.9755890779106706, -2.3306691969817304, 0.6148945571168162, 2.2775050335226057, 1.914209740377084], [0.10540626138335663, 2.585632550474996, -0.17212002892503542, 2.3449669220445784, -3.682263072836281, -0.6889249812141488, -0.8121471232465078, 2.13155667307484, -1.2104725271278287, -2.3153150865543894, -5.5863688401037574, -1.1462285722573318, -1.8011145029985642, -2.2902001643985863, -1.660944956420643, -0.31641025412594836], [-2.0742214773127188, 1.158430721967722, 0.6623845320616664, -3.752996725311219, -0.405881449749027, 0.4771617577416661, 1.8403126116923771, -0.6562317600389933, -0.14986375627164944, 0.8021602428042988, -3.3995451531689653, 0.9684452268535476, -6.415392678780483, -0.4782908045914959, -0.7971918694761808, -5.572863228707536], [-1.1707801925958248, 3.920537995540953, 1.3966472097341327, -0.5426338431538891, 0.6153468550428031, -0.8480191649523979, 1.8309255086183172, 1.0684689893264412, 1.4796454653724682, -2.3589412541813015, 2.00195094743891, 1.753795623645265, 1.8034445371029668, -3.00160306655963, 2.23573429559718, 2.8122831154916854], [-1.1434585020028938, -0.7299568722167113, 6.651843093163082, -0.9916293101125819, 0.7377978133208839, -0.7223519866290552, 0.7650671851906315, 0.4116178178353649, -1.637861158935805, 2.11031322961993, 2.730779527430345, 2.5405288084403224, 0.8274775264906441, 1.9507626482351341, 0.627664826592206, -2.417009643232223], [-1.439535096153942, 0.6706562771296845, 0.7237006878789447, -3.3558455718887856, 2.106406110477428, 0.10760258156867447, 0.7192405199463414, -2.8360265249024517, -0.06912333356700229, 2.2716544490794623, -5.919262343822885, 0.7779865020162761, -0.06982521524874286, -1.4780649123798781, -3.5411159357587625, 3.020983958620764], [-0.3211694112009039, -0.06833727576030935, -1.0540727023811376, -0.6483444612684964, -2.0811843598617727, -4.816886626553842, 1.4095747916528814, 1.4387776605518188, -0.49405244353570155, 2.0240219072879855, 4.37284098791947, -0.43913148771667154, -1.0850049536431003, 1.5668753128283484, -2.3968331978662714, -0.4587560733300827], [4.931290642414298, -0.5168187456644593, 0.4442476345415516, -0.642846963676854, -1.3338777554721304, -3.0222542225748548, -1.2028607939333988, 0.42638857854687817, 0.6817104368413391, -2.7299417632269103, -2.1382335385836466, -3.0297169943881164, -5.805111295384211, 1.291329353158924, 0.5258805963610065, 4.146131558330972], [2.3063298918615276, 2.06157649294659, 0.2697513518369534, -1.5661312809977015, -0.005741349875700705, -0.12637575713631588, -2.869183875397557, -2.533359405299344, 1.4385060004837569, -2.1135780476925983, 3.8582591635953425, 1.077992365838246, 1.5546616016694983, -1.2917489229829902, 2.992715458801231, -0.7057626911019819], [6.568598274435265, 3.9604636312878965, 0.39004675438394143, 1.261309273854994, 3.2172883235179675, 1.4553135000480544, 0.7675145199633184, -1.628821533944222, -0.9640304942331288, 0.44958348012539373, 1.4692514244245278, 2.715757327516641, -1.9601207369380333, 0.46356599551664457, -1.2192427836345137, 0.8891189097463059], [-3.271579481725952, -3.6700744650276267, 3.000029005443552, 1.913097463472773, 0.9793366212053507, -2.092531927011163, -1.2858326984823112, 9.356136710443392, -0.8135568516433498, -0.5720220751975885, 1.7573890481058951, 5.5392834103155835, -0.21385744488459857, -0.010545706967959229, 0.8107909967580857, 1.9346667807423312], [6.38907258880663, 4.487689537198325, -0.9117227940723294, 0.2767012320987696, 3.9922438539904075, 1.658159999459872, 1.556688561416721, 1.4444324779754005, -5.205364187429302, -3.4251271322929373, 0.4671028372991346, -1.0898989299776412, 6.6189613637413185, 0.43820327023395994, -2.919985908893559, 2.574441229490559], [-1.0008492183157898, 2.095644952830245, 0.9681032243321911, 1.6119146059093916, 2.3217495167848394, 5.022245068156267, -1.0051852637667396, -0.4683050057012077, 2.0183679240412356, 3.17339683344333, 1.536799218402702, 2.252985720880775, -0.254967137160083, -2.7465611096470948, -0.7417751414982684, -0.18249474245584096], [1.4158982076508237, -4.094591850866783, 2.5225062015462667, 1.5634313251959266, -0.3039048614684916, 2.0973240528987556, 3.463143553775227, 1.0095750558199215, -0.001033595889789074, 1.2634076129360101, 0.7124851412867885, 0.49750368086918373, -1.5892878920752647, 0.7065832024648065, -0.5419930911020338, 3.3459694999856837], [1.8190891615174032, -0.5327090914376198, -0.36885591116976374, 4.457169684302992, -4.231341374028034, 1.846092707138666, 1.5549362023546855, -0.9258752373776693, 3.1929642586333387, 1.6025081871095266, 0.8373856823021697, -2.89083931435573, -0.929697143748623, -1.54535737978222, -1.706381451888814, -1.1611652353730593], [1.918012523198147, 3.4826734595365276, -1.6883700974403666, 1.1648861069146625, 1.8241992894227144, 0.24783560221227663, 0.026648508556201378, -4.508460034163811, 0.1516467240027961, -0.5439862868702676, -0.4356300709537445, 0.9922776978695587, -0.012908173211508611, 0.0867077960303092, 0.5395772013637986, -0.5782098927323049]], "bias": [[0.007617851008028476], [2.3038867119816437], [1.1417969611964025], [1.6682312326811035], [3.1836503708634325], [-1.6010437993566988], [1.306707271453063], [-0.2999719489616224], [-1.3889172035633595], [-11.047349015160192], [0.1390343216160831], [0.44855405646375834], [-0.6898810723864146], [1.7855615903894901], [-1.4466642329590973], [-1.5879555956456526], [1.2560483606205828], [-2.5543643781198884], [-1.2040465469767747], [0.5741258271136874], [-0.8394734506225929], [-1.9579129161316862], [0.1670246575521045], [0.7809492857634632]]}, {"layer": "activation", "activation": "tanh", "activation_prime": "tanh_prime"}, {"layer": "dense", "input_size": 24, "output_size": 4, "weights": [[1.7988250580589782, -0.1457149524071718, 1.8598091070224556, 0.02393715381757816, 1.3947645260918982, 0.8596655623658687, 3.0883611268498328, -1.5708818886854439, 0.7610163502253781, -0.5662190362549312, -0.08801484520870059, 0.48581845806915713, -0.06747543401053946, -1.2017432767109926, 1.3703408979558749, 0.02312906290136363, 1.7114160055863668, -0.7844272798501892, 0.79643902651485, 1.1041926645027753, -1.176713775321437, -0.19178783057593174, 2.191128443280647, 1.854748641381967], [1.7503931827196515, 2.9937814919051258, -1.380451910284285, -3.031910091543004, 2.136466724602604, -0.9602777404056351, 5.78454362836493, -3.373975372142035, -3.231803080145887, -0.7468588883422785, -2.3302336341396033, -6.907235308333953, -0.7615933667578143, 1.078943700131027, 1.043229253783813, 4.381719761059077, 1.7458887672139556, 1.2158186212150355, 0.7445581185743975, 2.2396242572536065, -0.7689037478408812, 0.07992013752982852, 0.39296227505195586, 0.7412855995972161], [0.39602987111843546, 0.8850429622885772, -0.22531346822665665, 1.9979456675777651, 1.8765537282660876, -0.11153170501303356, 2.515854758719774, 1.852210972440719, 1.3619410906096168, -1.3251845137285003, 5.932958817460136, 0.9196114622101894, 3.2690267256654812, 0.4918422187741037, -1.0047274197061553, -0.007662678199334125, 2.008400793396438, -1.9722739889739367, -0.02168581654916138, 0.21736146976794532, -2.0168062158858664, -2.0153615446561943, 0.7291128397766276, 0.8943869424473192], [2.7458668564488162, -0.8733272485810168, -1.590832692592701, -1.554562369103659, -1.0476218361136718, 1.086343779650396, -0.6912696159472618, -0.960498972982132, 1.990872077234479, -0.9481154447359923, 1.1585368715666577, 1.8335803210424344, 0.28754980165958166, 1.9864346723920305, 1.5182503932605376, -2.31241381253985, -0.9461453827080055, 0.8806471384005152, -0.5071896352877179, -1.145604044979296, 0.22519272383993294, 0.4991130137927835, 1.3470781408348504, -0.8056778311116654]], "bias": [[-1.0687779193671085], [-3.407126744855396], [3.0715679533265368], [2.3064932005311256]]}, {"layer": "activation", "activation": "sigmoid", "activation_prime": "sigmoid_prime"}]}