{"generation": 123, "fitness": 4295646765.04216, "network": [{"layer": "dense", "input_size": 16, "output_size": 24, "weights": [[2.1253876023964167, 1.4450760244704781, -2.206564980293446, 0.25170032759211025, 1.5257742794108484, -0.7276189354877515, -0.8970961656387941, 0.653273604111275, -0.21452456605607517, 5.460938501451889, -6.855288802215337, -0.4751845361831668, -4.01257901456267, -3.363193008029916, 1.9822098793802183, -0.28754289057344806], [4.812531458943999, -0.5837512609979616, 0.6813833543987493, 2.2210688802791054, -3.071635015768869, 2.3936939542650046, -0.19938958624231118, 8.302597879497947, 2.70700059366329, -0.9456251845271874, -2.4369289564939507, -5.720411850364696, -0.7808199556738472, -0.19843319166395368, 1.734787087073837, -1.3119966596190449], [-1.2060333575049134, -0.5422007971763085, -3.13380433481797, 0.80056525776551, -5.432052544381172, -1.4230707076587388, -0.5376976445805084, 2.043107231416608, -1.295190175650856, 2.2548937617014166, -2.381194251597027, 0.5055299771719434, 2.416217034452747, 3.1362190987595975, -3.4718031261394433, -0.867201676857752], [-0.7321889927345004, 0.4407158474555266, -2.12848418969111, -0.9575760756430128, 3.8869798885846314, 2.1292369768175696, -0.22431339076557166, 1.9333485329851392, 0.2087095677608184, 0.07028722917908137, 4.464948795805826, -2.8437818738059404, -6.291744476706769, 1.3566934287539816, -0.7554249146420275, -2.809522916389791], [2.507245316800484, 3.449758214415259, 6.7258518338743745, 1.8343600712443202, 1.681030680807398, 2.8516516537090646, 0.7108650929147612, 0.6127438910904188, -1.2810117915834938, -0.8611261706923553, 0.4243184952585142, 0.9129313092094571, -0.12398993147616433, 0.27246086541021847, -5.324706778012712, -3.3772593745855817], [0.7656716675546578, 3.4302381737236782, 1.7788249551164448, 2.285954290671323, -0.00246183137196776, 0.5827295857677539, -1.2025032318714277, -2.737595645847305, -0.4599937667233032, -3.9411924195147083, 2.376318462934167, 2.107422123467672, 0.5160285389776016, -6.483367073023637, -0.735236393409771, 0.6606024818870507], [-3.3242057216035006, -0.2236158851792001, -0.1908894358337483, 0.637685093140845, 4.248808570668125, 6.593049418321542, -2.5674093945092458, 1.938912776258911, 3.5092960686421746, -0.7368498376985265, -4.005867515582263, 3.935777634285172, -1.9025512847648682, -8.132113423561483, 6.531768021481197, 0.7813740546544714], [-3.874236388010618, 2.7870854184457663, -0.48711166451699506, -0.8982529236164549, 0.5808749249218041, 2.2234010521365173, -0.38862149838603766, -5.242861455887283, 1.51576751369854, -0.494660549376188, -0.5376631617410861, -0.37892700391799783, 0.656115785938221, -3.8786349090514127, 1.1870262502843476, 1.6726736002711968], [-2.331157125654747, 1.5840275003867768, -0.9850014944439276, -1.8465833565218859, -0.24915757765292898, -4.569722305438436, 1.1211311437236007, 3.0058868399771526, 1.2441777213334646, -0.3403008544537563, -0.9254678580004893, -0.7434986169332222, -4.564265367274366, 2.664306120042252, -3.0517079646868766, -0.5567409941547754], [-0.23535631992745998, 0.4827757851717438, 3.8297137554857192, -6.5092208636472195, -2.038392071107781, 0.5907339311828648, 1.9832938457241074, 3.402123293367954, -3.7105422709171396, -1.8350243510339326, -1.2042701630328314, -1.4394455851985462, -0.8695189155045555, -0.9753827814599925, 3.5685980484740276, -2.025356700553868], [1.4515116813511295, -1.9872192461610858, -0.8324356367661838, 0.6486914428011297, -3.3068058711297934, 1.2983775568470186, 0.12314444448754885, -5.259543374907739, -0.5924623505338824, -0.6897745979601269, -2.1462458929669648, -2.330092489921728, 0.6448840933131854, -0.6985087366372581, -6.366037065943273, 2.9334870241608355], [3.3869799117528445, 0.6840316805474371, -3.1594992694754636, -0.763752249026243, 1.764129538937118, -1.4775923708184198, -1.1916582406876393, 1.558403745860525, -6.4183659618368365, 1.6735324348476526, 2.2511796699483133, 0.8658132043125053, 1.3325546141940534, 1.3160594176773248, -1.9131367691539447, 4.971520205694819], [-1.4796737338748072, -1.6437900645506345, -3.568905802883734, 4.4850468566603485, 0.1157980386077484, 3.06724401231622, 2.2182416093280963, 2.5549869123301634, 1.2422537198164065, -3.438230013126562, 1.8193568309307335, 5.5314870246812955, -1.951262410262708, 4.914763329289986, -1.6624173237112887, 0.2975291330139438], [-1.2079018053940358, -2.784747911849811, -1.276069342535149, -5.0910711991150475, 1.2492874537712968, -1.3491784174152124, 5.16016870117733, 1.9701504750333205, -1.1569900298967781, -1.5129661559258203, 1.641303468461672, 4.854714934176787, 0.5113429274052864, 4.1138918786959024, 2.4489415222948985, 4.077576375189998], [1.600602108034769, 4.112733030815859, -3.025176222481975, -1.7788016992804017, -0.5580541718666345, 1.873665450330833, -0.9619319461622947, -0.10378323194782435, 2.094489135300718, 5.3494119900846915, -4.708592259889601, -1.9312800476848109, 3.6347050693115373, -0.3230759114705333, 2.3444262242542533, 0.06444809936799872], [3.337131892782959, 1.8843150416484824, 0.10773640399375461, -1.9468631770392644, 3.923950515836621, 2.3083454443106417, 2.006960432492934, -1.7404718400169539, -0.8863850885918438, -0.5916968152873407, 0.8195153318053905, -0.954157173827388, -0.4256867493348634, -0.8544144698472051, 0.5306124209113208, 2.823587910272545], [2.4011155474350288, -2.129100128067832, 0.26699241062572465, -3.275831511309521, -0.33996921294293436, -2.0937907024925972, -0.7275861612481092, 2.6295622406786157, -2.473099412610541, 0.8885293035497139, -4.1478594946023755, 0.987517559365057, -1.6009936079046525, 0.04893417773440603, -3.0213083431682692, -5.476153928611641], [0.7102730504807434, 1.1235011847098149, -0.162874999952815, 3.284922551521261, 1.2091819216158501, -1.3164010941919955, 2.034681955823407, -1.719074080078962, -0.8010196800064077, 0.2765266490248681, 5.275717035487321, -0.5927947417308469, 2.068663361291545, -1.5534180296171751, 3.4270968757571145, 0.6684320780398336], [-3.1162149822182528, 2.37662553617921, -0.666995220011552, -0.9034359834018443, -2.0139151699213476, 4.375969371804683, 0.6111034577154644, -5.55068331905164, -1.2704230420047915, -0.10490982424293016, 0.44603322208708823, -1.5769178230888068, -0.09257200251249553, 0.7016027750791975, 1.460556122520322, 2.883346025069596], [0.5351571571493139, 1.7977622561576077, 1.119721854929867, -2.6019105072080992, 2.0788096736150896, 0.49692701881288015, 0.9166496787525421, -2.0911551940671704, 0.8469467249692223, 1.5845659264594394, 0.32688701959915734, -3.1317562972685855, 1.4105005552586993, -1.6671551471079815, 1.2408998506088378, 2.6340795596103614], [5.491171598495355, 1.9439227898888425, -1.9876477342982748, -5.2514699149153605, -0.9782689719853446, 2.8867065308200823, -0.9570077541498319, 1.5495124487599627, 1.3913881416777296, -0.6273889206536907, -2.2829899231837834, 1.323003410494926, 4.894674783628103, 3.762523841201741, 1.580563420106361, -2.8473258726684145], [-0.9282530566895213, -0.4953454958808067, -5.6163587404171125, 1.1709669374626475, -0.6838233600991884, 3.5771401847989344, -0.8270801552024456, -0.875551778396318, -1.1593140232666048, 2.153082080483465, 2.346634459700454, -2.751531165272908, 3.1610365335978443, -1.182284443630674, 3.32377578489821, -0.8583331900963787], [0.6099876548080039, 0.8600522060365561, 0.5615979101355025, 2.421964617732607, 0.018123954086695315, -0.5768016868917882, 0.5414338975473838, 2.1889045228314425, -2.145053588768474, 2.013336547593644, 0.014928259131149035, 1.3752880314710159, 0.8462814004724152, 1.0630275270473408, -2.488101752683268, 6.138533759331192], [-0.5131205297707496, 0.968953417462903, 2.0019052097253445, -3.2680876433450834, 0.22434472210678802, 1.742241564023064, -0.4760750649381448, -2.4869622933340825, 1.5222329415818219, -3.974841723734893, 2.991768658827411, -1.9240506226574414, -1.1120210899753227, 1.672442178547482, -0.440192262572222, -1.7722949353153794]], "bias": [[-1.3562269768127675], [-4.645286412418686], [-0.17402951332433125], [-0.0940752902925921], [-5.320176147759115], [1.7464226789865225], [-0.7406428136509056], [-1.1303670471060003], [2.6304100682621008], [-0.720340155748435], [0.8495846738283126], [-3.9706800665297424], [-0.43715880529273177], [-2.461303107598929], [1.226506681757948], [-0.47969798923996093], [0.04064649397648079], [-0.22240623527179892], [3.375997149309845], [-1.9019949272158168], [-2.049266482191169], [-5.151495250467689], [-0.5008470996473233], [0.4985881912825849]]}, {"layer": "activation", "activation": "tanh", "activation_prime": "tanh_prime"}, {"layer": "dense", "input_size": 24, "output_size": 4, "weights": [[-1.8657932107861215, 1.070930298540881, -0.6362689719446474, 1.1520553759577061, -1.4988558621642003, 4.515433443948963, 0.6853557763484962, -2.6963576204925896, -2.3642158641171975, -1.5514003887972116, -2.846262903205674, -0.773770633092923, 3.1507329345756707, 2.0723401804568127, -1.7880470350481446, 0.7065648689326177, -1.861625202237112, -2.735184456075839, 0.7874215706027091, -0.4855689942290713, 2.9710886491550257, 0.11375631916880957, -0.15135351717047713, 2.7535821618178815], [0.9926627682157819, 1.0138556353531214, -1.9159415599872451, -0.09035794915987383, 3.410358094722991, -1.3877910959431985, 2.582438619905435, 1.3757250450204777, -1.6706247432069017, -2.5456698984760777, -1.1462878598600383, -0.34587801789505423, 4.521349935023275, 2.1882446170371965, 3.3053402946594717, -4.436797630247224, 0.34531200696712405, -8.81690089039414, 0.872299773092677, -3.997729864070059, -1.4547576269419855, 0.3463276512563027, 0.7665396331406648, 0.4404700877320289], [-1.8153770533031792, 2.846636660904306, 0.9190555211096307, 1.6703618728633276, -0.13794319534931432, -3.564113918931337, 2.0813802334070273, 0.9382550573898736, 0.5853624389529479, -0.2921045845987229, -2.8434278752885565, -0.7329845907022757, 2.96486356440062, 1.1016932366567165, 6.556569633063576, -1.0364918698484962, 2.4160764434983495, -2.225427864774365, 1.9610308018492841, 1.2739273700105462, -0.9441024094218182, -1.0251750152776629, -2.146486444864191, 0.17451410222521685], [-3.739688207478303, -1.2748628018687795, -0.6024836584179348, -0.31768390634138854, 1.2783329991315875, 2.952943639769618, -0.6079614881769397, 4.3279419082853705, 4.771829154409871, 0.055827855788760206, -0.5583796702501717, 2.3501507925566774, 4.527049985781319, -0.6111904027647884, 1.2849479131315151, -0.19696980700543057, -0.11483583074322024, 1.17991416109967, 1.9703193173610678, 0.15700057891944263, 0.5618277409852706, -1.34119743665895, 2.9129367197741773, 3.4222149925642698]], "bias": [[-3.382185181032311], [1.3180181846383292], [-1.4353255277540122], [-0.5571192639982072]]}, {"layer": "activation", "activation": "sigmoid", "activation_prime": "sigmoid_prime"}]}