{"generation": 128, "fitness": 17180635760.19399, "network": [{"layer": "dense", "input_size": 16, "output_size": 24, "weights": [[2.1253876023964167, 1.4450760244704781, -1.603109919050669, 0.25170032759211025, 1.5257742794108484, -0.7276189354877515, -0.8970961656387941, 0.653273604111275, -0.6350802877967539, 5.460938501451889, -6.855288802215337, -0.4751845361831668, -4.01257901456267, -2.537853136550039, 1.9822098793802183, -0.28754289057344806], [5.171292592687991, -0.5203386734904317, 0.6813833543987493, 2.2210688802791054, -3.071635015768869, 3.2048056084602687, -0.19938958624231118, 8.302597879497947, 2.70700059366329, -0.9456251845271874, -2.4369289564939507, -4.141044823457512, -0.7808199556738472, -0.19843319166395368, 1.734787087073837, -1.3119966596190449], [-1.364823706975362, -0.5422007971763085, -3.13380433481797, 0.80056525776551, -3.708263952423989, -2.595585267543755, -0.5376976445805084, 2.0797630183382445, -1.295190175650856, 2.2548937617014166, -2.381194251597027, 0.33310506673234475, 2.416217034452747, 3.9444974691924775, -3.4718031261394433, -0.867201676857752], [-1.0061087917203153, 0.4407158474555266, -2.12848418969111, -1.5500573273835347, 3.6005108753159627, 2.4627971543720975, -0.43824101888245826, 1.9333485329851392, -1.221501707698629, 0.07028722917908137, 4.464948795805826, -2.8437818738059404, -6.748845949518568, 1.9504521547094122, -0.7554249146420275, -1.5346082572716944], [2.507245316800484, 3.245045592089693, 5.171107066530457, 1.8343600712443202, 1.681030680807398, 2.8516516537090646, 0.7108650929147612, -1.283681799443311, -3.4207132760698897, -0.8611261706923553, 0.4243184952585142, 0.9129313092094571, -0.5548148248264982, 0.27246086541021847, -5.324706778012712, -3.3772593745855817], [0.7656716675546578, 3.4302381737236782, 2.449990020644187, 2.285954290671323, -0.00246183137196776, 0.1555110355650567, -1.2025032318714277, -2.3742023461871917, -0.4599937667233032, -3.479033685046087, 2.376318462934167, 0.8692267880384406, -0.44004577405735645, -6.937662867459918, -0.735236393409771, 0.6606024818870507], [-3.660186455516487, -0.2236158851792001, -0.1908894358337483, 0.637685093140845, 4.248808570668125, 6.593049418321542, -2.5674093945092458, 1.938912776258911, 3.5092960686421746, -0.7368498376985265, -4.005867515582263, 3.935777634285172, -1.9025512847648682, -5.8862814066325555, 6.531768021481197, 0.7813740546544714], [-3.874236388010618, 2.7870854184457663, -0.48711166451699506, -0.8982529236164549, 0.5808749249218041, 2.2234010521365173, -0.38862149838603766, -5.242861455887283, 1.51576751369854, -1.7903092738580497, -0.39753708268812504, -0.37892700391799783, 0.656115785938221, -3.8786349090514127, 0.7440368215460639, 1.6726736002711968], [-2.6934880384451128, 1.5840275003867768, -0.9850014944439276, -2.541961843330896, -0.24915757765292898, -4.569722305438436, 1.1211311437236007, 3.0058868399771526, -0.47299246858363575, -0.3403008544537563, -0.9254678580004893, -0.7434986169332222, -3.38267902911268, 2.664306120042252, -2.801140984429962, -0.5567409941547754], [-0.23535631992745998, 0.11079335110472277, 3.8297137554857192, -6.5092208636472195, -2.038392071107781, 0.5907339311828648, 1.9832938457241074, 2.4908650672059913, -3.7105422709171396, -1.9143560301198979, -1.123465285130662, -1.4394455851985462, -0.8695189155045555, -0.9753827814599925, 3.5685980484740276, -2.025356700553868], [1.4515116813511295, -1.9872192461610858, -0.8324356367661838, 0.6486914428011297, -4.663096004168245, 1.2983775568470186, 0.12314444448754885, -5.259543374907739, -0.5924623505338824, -2.601197551297909, -2.1462458929669648, -2.0702688027013116, 0.6448840933131854, -2.1363263969409005, -6.188223636324197, 2.9334870241608355], [3.3869799117528445, 0.6840316805474371, -3.1656263889278273, -0.763752249026243, 1.764129538937118, -1.4775923708184198, -1.1916582406876393, 0.8594707187176152, -7.0270176912447955, 1.6735324348476526, 2.2511796699483133, 0.8658132043125053, 1.3325546141940534, 1.3160594176773248, -1.9131367691539447, 4.971520205694819], [-2.5177051009836693, -1.6437900645506345, -2.63924645058526, 4.4850468566603485, 0.1157980386077484, 3.06724401231622, 2.2182416093280963, 2.5549869123301634, 1.2422537198164065, -3.647472881200693, 1.8193568309307335, 5.5314870246812955, -1.951262410262708, 4.914763329289986, -1.6624173237112887, 0.2975291330139438], [-1.2079018053940358, -2.8700815082919977, -1.276069342535149, -3.374451006489719, 1.2492874537712968, -1.3491784174152124, 5.16016870117733, 2.668312423972138, -1.1569900298967781, -1.5129661559258203, 1.641303468461672, 4.854714934176787, 0.5113429274052864, 2.9675104983618845, 3.824021388859772, 4.077576375189998], [1.600602108034769, 4.112733030815859, -3.025176222481975, -1.7788016992804017, -0.5580541718666345, 1.873665450330833, -0.9619319461622947, -0.10378323194782435, 2.3060729971093523, 5.3494119900846915, -4.708592259889601, -1.4249198964347884, 3.6347050693115373, -0.3230759114705333, 2.3444262242542533, 0.06444809936799872], [4.024997444561608, 1.8843150416484824, 0.10773640399375461, -1.9468631770392644, 1.850792942148347, 2.3871280859202297, 2.006960432492934, -3.0990189092174782, -0.8863850885918438, -0.5916968152873407, 0.8195153318053905, -0.5434422198273174, -0.4256867493348634, -2.4285110718890914, 1.4646561567757703, 2.823587910272545], [1.8758030408506652, -2.129100128067832, 0.26699241062572465, -3.275831511309521, -0.33996921294293436, -2.0937907024925972, -1.1990494908510638, 2.6295622406786157, -1.6140208669623533, 0.8885293035497139, -4.1478594946023755, 0.987517559365057, -1.2051924510423209, 0.04893417773440603, -3.0213083431682692, -5.476153928611641], [0.7880903087956743, 1.1235011847098149, -0.162874999952815, 2.6021228892921346, 1.2091819216158501, -1.3164010941919955, 2.034681955823407, -1.719074080078962, -0.8010196800064077, 0.2765266490248681, 5.275717035487321, -0.5927947417308469, 2.068663361291545, -1.5534180296171751, 4.437844190521725, 0.6684320780398336], [-3.1162149822182528, 2.37662553617921, -0.666995220011552, 0.2998707399857422, -2.448802157208635, 4.375969371804683, 0.6111034577154644, -5.55068331905164, -1.2704230420047915, -0.10490982424293016, 0.44603322208708823, -0.4069278445760518, -0.09257200251249553, 0.7016027750791975, 1.460556122520322, 1.0225986517449062], [0.5351571571493139, 1.7977622561576077, 1.1827271551556533, -2.6019105072080992, 0.5416342300523009, 0.49692701881288015, 0.9166496787525421, -2.0911551940671704, 0.8469467249692223, 1.5845659264594394, 0.32688701959915734, -2.531400898888979, 1.4105005552586993, -1.6671551471079815, 1.5912375774167293, 2.1042723311794975], [5.491171598495355, 2.513220702474072, -1.2887662361202645, -6.085923788114872, -0.9782689719853446, 2.8867065308200823, -0.9570077541498319, 2.3341118543849677, 1.022487953561653, -0.6273889206536907, -2.2829899231837834, 0.9301397208580111, 4.894674783628103, 3.762523841201741, 0.911570088070081, -2.8473258726684145], [-0.9282530566895213, -0.4953454958808067, -5.476863483165228, 1.1709669374626475, -1.4356964368915186, 3.5771401847989344, 0.47410347998699387, -0.875551778396318, -1.1593140232666048, 2.0738159430159295, 3.438230443793833, -2.751531165272908, 3.1610365335978443, -1.182284443630674, 4.360389865154321, -0.8583331900963787], [0.6099876548080039, 1.8093285446050777, -1.4018918826469204, 2.421964617732607, 0.018123954086695315, -0.5768016868917882, 0.5414338975473838, 2.1889045228314425, -1.8588544294981735, 2.013336547593644, 0.014928259131149035, 1.3752880314710159, 0.8462814004724152, 1.0630275270473408, -2.488101752683268, 6.138533759331192], [-0.6571726744227159, 1.4504781312781758, 2.0019052097253445, -3.2680876433450834, 0.7645103585660846, 1.742241564023064, -0.4760750649381448, -2.9272669704301677, 1.5491139492832444, -4.314582543682475, 2.991768658827411, -1.9240506226574414, -1.1120210899753227, 0.8340776354586561, -0.440192262572222, -1.7722949353153794]], "bias": [[-1.0005174018075724], [-4.645286412418686], [-0.17402951332433125], [-0.0940752902925921], [-5.160007674253626], [1.7464226789865225], [-0.7406428136509056], [-1.1303670471060003], [2.6304100682621008], [-0.720340155748435], [-0.20335992788665758], [-3.9706800665297424], [-0.43715880529273177], [-2.461303107598929], [1.226506681757948], [-0.47969798923996093], [0.04064649397648079], [-0.22240623527179892], [3.375997149309845], [-1.8293759523810524], [-2.049266482191169], [-5.151495250467689], [-1.0007334987997687], [0.29036545766968413]]}, {"layer": "activation", "activation": "tanh", "activation_prime": "tanh_prime"}, {"layer": "dense", "input_size": 24, "output_size": 4, "weights": [[-2.313859615235013, 1.070930298540881, -0.6362689719446474, 1.1520553759577061, -1.4988558621642003, 4.515433443948963, 0.6853557763484962, -2.6963576204925896, -2.3642158641171975, -1.1633862884303534, -2.846262903205674, -0.773770633092923, 3.1507329345756707, 1.5098114754060163, -2.667613344369418, 0.7065648689326177, -0.9791083277709038, -2.735184456075839, 0.7874215706027091, -0.4855689942290713, 2.9710886491550257, 1.0094723106307062, -0.15135351717047713, 2.7535821618178815], [0.9926627682157819, 1.0138556353531214, -1.9159415599872451, -0.09035794915987383, 2.5954322311448648, -1.3877910959431985, 2.582438619905435, 1.3757250450204777, -1.6706247432069017, -2.5456698984760777, -1.1462878598600383, -0.34587801789505423, 4.114014361715007, 2.1882446170371965, 3.3053402946594717, -4.436797630247224, -0.8066027993612388, -8.81690089039414, 0.872299773092677, -3.997729864070059, -1.4547576269419855, -0.18527753210301978, 0.7665396331406648, 0.4404700877320289], [-1.8153770533031792, 2.846636660904306, 0.9190555211096307, 1.6703618728633276, -0.13794319534931432, -3.564113918931337, 2.0813802334070273, 0.9382550573898736, 1.3147468757270815, -0.2921045845987229, -1.6472351836453234, -0.7329845907022757, 2.96486356440062, 1.816626596975072, 6.556569633063576, -1.0364918698484962, 2.4160764434983495, -2.816887801156324, 1.9610308018492841, 2.1883055723835176, 0.059788583349222435, -0.11867000652875093, -2.296781287836275, 0.17451410222521685], [-3.159009103382287, -1.0387886058582159, -0.6024836584179348, -0.31768390634138854, 1.2783329991315875, 2.727165507834243, -0.6079614881769397, 4.3279419082853705, 4.771829154409871, 0.055827855788760206, -0.5583796702501717, 2.3501507925566774, 4.527049985781319, -0.6111904027647884, 1.2849479131315151, -0.19696980700543057, -0.11483583074322024, 0.09348092236098848, 1.9703193173610678, 0.15700057891944263, -0.8397279903328094, -1.34119743665895, 2.9129367197741773, 2.5459317603106952]], "bias": [[-3.382185181032311], [1.3180181846383292], [-1.4353255277540122], [-0.5571192639982072]]}, {"layer": "activation", "activation": "sigmoid", "activation_prime": "sigmoid_prime"}]}