{"generation": 13, "fitness": 5029.352235031539, "network": [{"layer": "dense", "input_size": 16, "output_size": 24, "weights": [[0.5297487207900196, 0.565108473078436, -0.9562299018905205, 0.48570779242968576, 0.29858083721519524, -2.1540944824413453, 0.9785946133813772, -1.7747981305271103, 0.23320741284523816, 2.2893645255772928, 0.4374924415885475, -0.6051573758534392, 0.2853147790691335, 0.37030498975109105, -2.242621701158665, 0.860544636787977], [-0.9254018874133876, -0.04648497418550679, 0.6579277404121644, 0.15822354716076054, 0.6793398446828052, 0.6166747867907372, 0.3449530110537302, 0.7382866024806798, -0.8581446172650768, 0.30803880127248706, -0.6842263209075441, 2.6013940155070148, 0.5472675318343618, 0.19126493997773225, -0.2029445610377163, 0.9382834062299085], [-0.16598512991104397, 0.42883086989560315, 0.22126901817268851, -0.230118722212033, -0.5473303785209009, 2.1122323128769036, -0.3011477022243296, 0.822475347220289, 0.3033238337752433, -0.37869227023416396, -0.6212370650009409, -0.1936253898371203, -0.8901280112226713, 0.152736783177726, 0.07450928538925364, -1.6853607399110957], [-0.01630275448492169, 0.8445679619706017, 1.4813687773412325, -0.9138620106009248, 0.31213142706246566, -0.9259429349376778, -1.7359544912703315, -0.007723827370471836, 0.10041957309751348, 0.06171977046519084, -0.7340879197602612, 0.0690935237953404, -0.9957827139494508, -0.9058115035836845, 1.0574611215152248, -0.14547332311197292], [-0.6580535357399011, 0.3357695237228883, -1.2607459862472084, -0.12940066120611093, 1.4563194093235898, -1.5003113909584789, 0.3746354859170784, 0.9444946113891094, 0.7427704954960768, 1.333871299116612, 1.8820108708131347, -0.3651315195683589, -0.5938179027714006, 0.6493677714902586, 0.4356105856491763, 0.5612056659372799], [0.09421085026983556, 2.462397684935638, -0.63538401453999, -2.7754564725804034, -0.7136044639875254, 1.0110676375693568, 0.40722670268680217, -1.6399142245814748, -0.5101995435946117, 2.5923965064468177, -0.6632433161420217, -1.2294817930725195, 0.3952444772429402, 0.904220178057483, -1.7593688925107158, 1.1681460689464709], [0.7853094119494362, 0.4428737629694117, -0.9428247143337349, -0.6844783225033484, 0.10722091344929074, -0.6712872395250502, -1.8544626176571661, -0.5470230965661761, -0.018533556593111067, -0.20796596737058293, -0.016736654126854655, 0.18870254345215332, 0.49107682297854627, 0.31557481967498646, -0.9808002677253023, 1.1991438218491894], [-0.49094768226856544, -0.5648069335951865, 0.7238410074053216, 0.7204431310345109, 1.870378735057459, 0.4451816389845382, 0.09527859430189367, -0.6388360479255736, 0.1119820045659583, 0.7438423648091878, 0.24748217323653687, -0.5406982884436098, 0.8914608128602766, 0.10967352017327348, 0.03920290495378853, 1.8977739536402805], [-0.6504654253967945, 0.5664360547217921, 0.42736294501055827, 0.36724631206534186, -0.09695223272913145, 0.061808866334885915, -0.3730973629486274, -0.5043635629628158, -0.1343552747844441, -0.03978941211889031, 0.4850750057289728, -0.8399765174145881, -1.0233519618642508, -2.5552562700916903, -1.4447347019986214, -1.3938513077129708], [1.012117013398056, 0.05612378064381773, 0.05206013225646566, -0.36948341454401645, -4.7473999791269215, 0.5794165299674472, 0.5705459727135368, 0.4168094192203933, 0.7984993246826337, -0.6250079550097567, 1.3376533550794063, -0.5119520076703836, -0.2026787334855673, -0.8015133802869905, -1.1621447586683735, 0.8513442250270788], [-0.5842968710815428, 0.8941440679475303, 2.125018116792943, 0.3853518283159574, -0.4339074910638061, -0.8677529911963131, -0.08337448320868468, -0.7876902792072171, -0.7765987231373795, 0.1746992406893637, -0.87455187061772, 0.30317835874750787, -0.3227983503738772, 0.0013268846880860607, -0.5934464815023026, 0.20449949830914194], [-0.4383746682515508, 0.741829785763708, -1.1485829033847978, -0.4378551948023546, -0.09523501167071857, -0.003725752068722832, 0.4151952400596307, -1.2685081683749413, 0.8276932690830487, 0.46209314789260825, 0.906328436418311, -0.5757148367817979, 0.1241114920743347, -1.2902283970563369, 0.9138597704383502, 0.9136466981542397], [-0.09293931935567423, -0.23446437825251143, 2.715388211089149, -0.9916293101125819, -0.5756922160216442, -0.6479795983068706, 0.13253469304985943, -3.924973563640191, 0.17061636490850351, 1.1773981826941848, 1.2736819913989696, 1.0685901519235257, 0.708981683260745, 0.9587148619710979, -0.24959078379787325, -0.12832225411784226], [-0.6820117350614325, 2.5832030632733374, 0.6420816834191121, -1.0017611871447103, 0.9487867888331881, -1.1021058072123036, 0.4259898363181458, -0.03023117000103448, -0.6435064892626803, -0.7402791081809774, -0.1349864809466741, -1.3794847427529369, 0.9653748809268261, 2.1631395472088624, -1.1115666672661138, 0.669866251136938], [-0.492207314556379, 0.03770340163531749, 0.7063240053160851, 0.5898668245890366, -0.503462960611702, -0.5482886846737451, 0.7520307913048163, 2.3378892420331607, -0.9404513836208193, 0.22817043757813482, 0.011618193659922782, -0.08151772070835395, -1.3922927314869795, 0.9109406050257218, 0.01930344894600844, -0.7127511915893623], [1.8420626849275417, -1.363218322934146, 0.7404315455498987, -0.04970221557327781, -0.6160974217774258, -1.7730029703058106, -0.3160242549690393, 1.663568290203333, -0.981639646234135, -0.26240181422465025, 0.6663584835516864, 0.06688848963192606, -1.824234608268882, 0.13849096648461412, -0.13662635067337758, 0.9516204643431916], [-2.0945103948823833, -0.20483606799727094, 0.6154468957305868, -0.6861812337882018, 0.036079723324569546, 0.2845964170694293, 0.6439025360236366, -0.15466041383820317, 0.039037957967281045, -1.334037059865528, 0.38047081606834254, 0.611819387005049, 0.7772085106773934, 0.6351086556674612, -0.6707152342941007, -0.7259591320395984], [-0.6726942173050003, -1.6342688992878043, 1.4720760546552834, 0.34558657272538507, 2.005726469332815, -0.758810330322356, -0.3204580368433416, 0.3844708096216438, 1.6774848809081726, -0.5864289162895469, -0.6630661434628202, 0.8859993611450045, -0.3608841591152818, -0.024779884243837813, -0.7283502766428362, -1.2340634772772108], [-0.8854079169736437, -3.045208275796713, 0.7514437934217439, -0.9688748015003847, 0.9602097275033563, 0.6401839353415312, -0.24527802043909297, 0.7273019870419739, 0.9818198322344971, -0.5106042075945794, -1.3717477707200074, 1.089738707720608, -0.3861038794102556, 0.46414047882320575, -1.659698679717087, -0.12592550066317476], [0.28861081422981943, -0.17772979165299185, 1.098821373095316, 0.6542639381899682, 0.6899656935402468, 0.7338957484614987, 0.3194855068254195, 0.9483671041271526, 0.258656793583388, -0.2583697932098554, -0.1368598684483141, 0.4277916594335105, 0.7701564347198198, 0.6428818497935204, 0.6811630830232807, -0.575694745731093], [0.6014413573988632, -0.9815710651205644, 0.7055915905965415, -1.1559967027214173, -1.2956423712411156, 0.12177168600629273, 0.40212136273245913, -0.14851699488432435, 0.5636463170549448, 0.5893003804145736, 0.0606181417901592, 0.5483677643963509, 0.5138439371497097, -1.9286294026919273, -0.796256837617531, 0.4922632284364601], [3.37352890119944, 0.8717708709849135, -0.40212876919086615, 0.6972895195505702, 0.4650184221377267, -0.8562330257282289, 2.0980891316687917, 2.1594212866628393, 0.4790236906878092, -1.8094009612635182, -0.30846047420984, 0.3526904355014213, 1.1802071427242118, 0.9336115338635806, -0.2104404654911578, 0.7520690192053545], [0.20515302421956694, -0.581617917336718, 0.6315773596875611, 0.44348977730497824, -1.130558392043998, 0.6347443268389039, -0.3693394051502827, 0.33825258643997036, 0.6638234102738201, -0.09921353705370417, 0.46507969567153384, -1.6277549248640906, -0.3796079282425504, 0.007932464599509748, -0.6049989833180822, 0.17406345751165664], [-0.7280208974446392, -0.3383713289378163, -0.27800065266110185, -0.2027898786022333, -0.5135226412980405, 0.5311689795180037, -0.916419553493105, -0.7028760754268161, 0.8423028027252405, -0.14398836027081297, -0.6320980820410389, -1.2173547555721416, 0.9821754494004273, 1.7153903243016964, 0.3787321035597522, -0.2812403989557877]], "bias": [[-0.38960885745098106], [0.9712770227567205], [0.36031899915631516], [-0.262365063500001], [-0.36103294038097067], [0.49138752830111243], [-1.1284329146412875], [0.5517433276354347], [0.08791783591980495], [-2.3381954234066953], [1.2982268993186281], [-0.3648792013511836], [0.7531640250676654], [-0.1570191031629974], [-0.6054343943664537], [0.2648073387503986], [-0.5713913571694562], [0.05799351365186367], [0.27181334633404], [0.2771203245906271], [-0.6610495844196939], [0.023297446193915272], [0.4975723450858994], [0.7603731362810148]]}, {"layer": "activation", "activation": "tanh", "activation_prime": "tanh_prime"}, {"layer": "dense", "input_size": 24, "output_size": 4, "weights": [[-0.6798874403134798, 0.04938340252603468, -0.4803598443579771, 0.7169343618209014, 0.08529222629420552, -0.20338038872420938, 0.42083737675321853, -0.9044542155817337, 0.20856153847669567, 0.9173353019541778, 0.8109415133680693, 0.33287227769173966, -0.6836907354787545, -0.8011303180955551, 0.3735641598529207, -0.5219963867723245, 0.4703606428944953, 0.18841537443426404, 0.18693990219203438, 0.8910356022456141, -0.1690054958238898, -0.3725013322640601, -0.03287167328020635, -1.4493674861147205], [-0.6487997552516802, 0.3607826142693271, 0.0237558969842446, 0.1994395145612162, -0.26147329481450376, -0.4658782059440525, -0.06233251426153841, -0.23219801159402187, -1.8623072814744048, -0.6786454501887009, -0.8981296516064774, -0.900822147050268, -0.6201572095480519, -0.9618252568385113, -0.13128324423327561, 0.6540732549623673, 0.7344696606163685, -0.57849350401158, 0.23465570304906858, 0.15684202567840266, -0.9719532645931936, 0.3704825173628743, 0.20822941572437867, -1.3017898166416748], [0.6100588421386217, -2.319007195716849, -2.0330933656312986, 0.9532752258236579, 0.9330004680545649, 0.008216306697339304, -0.7836891768513267, 0.23093505783098478, 0.29685047652649343, 0.6823588207213436, 0.7425984969897772, -0.27991659360374666, 0.05232152462784678, 1.600990458471307, -0.15860132358750167, 0.01299185805576697, 0.11079326734769146, -0.492471362647361, 1.8383943799114808, 0.1022402890436358, 0.8802783852576221, 0.13236079482265528, -1.6528974941718604, -0.3451050538768846], [-0.7497627245686556, -0.2979581700312608, 0.7439549137446558, -0.7608427473449051, -0.7898085580260681, 0.9513572938963825, 0.4139417055568886, -0.3920383361505607, -0.4166895205457761, 1.3926214827111223, -0.9281187688551515, -0.1179075746292002, 0.155123588009485, 0.5562829758573979, 0.011415711921999527, 0.6502687826822802, 1.506349021868035, 0.6757107997201393, -1.668475018711734, 0.7990167054621786, -0.8515589854187207, 2.9442788911611286, -0.30987245416046294, -1.4873011582233862]], "bias": [[-0.8217299069035451], [-0.9399382251478776], [-0.5342225074484885], [-1.7963090820583534]]}, {"layer": "activation", "activation": "sigmoid", "activation_prime": "sigmoid_prime"}]}