{"generation": 141, "fitness": 34360560321.66076, "network": [{"layer": "dense", "input_size": 16, "output_size": 24, "weights": [[2.1253876023964167, 1.4450760244704781, -1.7916781002845048, 0.25170032759211025, 1.5257742794108484, -0.7276189354877515, -0.8970961656387941, 0.653273604111275, -1.418963358354128, 6.768914342680586, -5.666065178893552, -0.4751845361831668, -4.01257901456267, -3.363193008029916, 1.8893996647364821, -0.28754289057344806], [4.217417160712297, -1.1349614247057072, 0.23829259058712232, 0.4324792917011697, -2.803104924169534, 2.9086185995393095, -0.8404644141058025, 8.052487183757574, 2.242904655832032, 1.0134797778974662, -3.234215160163527, -4.141044823457512, -1.1392254291734218, 3.5491318289219453, 1.6101915988986892, -1.8944936491336666], [0.7080444095365437, -0.5422007971763085, -3.13380433481797, 0.80056525776551, -3.708263952423989, -3.135011218046106, -0.5376976445805084, 2.0797630183382445, -2.079976688080502, 1.1304926025871154, -2.712042522612487, 0.33310506673234475, 3.3218940898211837, 4.246134172786676, -3.4718031261394433, -0.7967377795886318], [-1.0061087917203153, 1.77849875409024, -2.12848418969111, -1.5500573273835347, 3.6005108753159627, 2.4627971543720975, -1.6123318524623738, 2.840179836445665, -0.9074714097856369, -1.4823099784672975, 2.716107850033344, -2.8437818738059404, -6.291744476706769, 1.9504521547094122, -0.6668239572735484, -2.0681274255676243], [2.3575969088096453, 3.525666224379043, 8.543984443674276, 1.8343600712443202, 2.2010778326767664, 3.695511710671352, 1.655915764690568, -2.03158498430021, -2.6523094907088316, -0.8611261706923553, 0.4243184952585142, 0.9129313092094571, -0.8104045248047809, 0.09060688644185028, -5.324706778012712, -4.038647909367248], [0.7656716675546578, 3.0807573600248963, 2.524441725763483, 2.285954290671323, -0.00246183137196776, 0.5827295857677539, -1.6784613200596885, -4.053321198585908, -0.4599937667233032, -3.9411924195147083, 3.624516902772427, 0.834075892985506, 0.5160285389776016, -6.99124807246017, -0.735236393409771, -0.33958667094098394], [-2.5041252858397054, -0.42080940409738643, -0.3779000892819845, 0.8937545721747886, 3.067395348223012, 6.593049418321542, -2.831594809297071, 1.092630738524078, 2.1065158898411154, -0.7368498376985265, -3.1817739640656977, 4.61659807318559, -1.9025512847648682, -5.8862814066325555, 6.531768021481197, 0.7813740546544714], [-3.9642153457695266, 3.7568266596167765, -0.48711166451699506, -0.5592207475697508, -0.8011549204915256, 2.2234010521365173, 0.2133152467772078, -5.242861455887283, 1.3045441505538007, -0.8337032467893188, 0.013173568848144912, -0.8806347839515074, 1.0922086365569366, -3.8786349090514127, 0.7638334612494786, 2.231021775433054], [-2.6934880384451128, 2.0905270949199783, -1.172296317002879, -2.541961843330896, -0.24915757765292898, -7.086497725786903, 1.7847810733242189, 2.6886519640156736, 1.2441777213334646, 0.25397766159327656, -0.9254678580004893, 0.21677269622146778, -3.38267902911268, 0.5128015544543509, -2.801140984429962, -0.5567409941547754], [0.005207003622628076, 0.11079335110472277, 2.9510958127543656, -5.843988594397685, -2.038392071107781, 0.5182034920414553, 1.9832938457241074, 2.253726912279036, -3.7105422709171396, -1.8350243510339326, -1.123465285130662, -1.4394455851985462, 0.021138411620940767, -1.3277025893515235, 5.610446411397355, -2.243532266733795], [1.4515116813511295, -1.9872192461610858, -2.1204072796580427, 0.6486914428011297, -4.663096004168245, 1.2983775568470186, 0.30255233371143253, -4.984645848998321, -0.7641248843307594, -0.6897745979601269, -2.1462458929669648, -2.330092489921728, 0.8165546062794526, -1.7052719041632765, -6.366037065943273, 2.9334870241608355], [2.9822118160725855, 0.6840316805474371, -3.1594992694754636, -1.5517661836476357, 0.5772175773154828, -0.882459030977978, -1.5229393954653516, 1.2710929928918828, -7.0270176912447955, 1.6735324348476526, 2.3926815202764877, 0.8658132043125053, 0.5617312994405248, 1.3160594176773248, -1.9131367691539447, 3.640958847422673], [-1.4796737338748072, -3.1526813224097086, -1.40435067507329, 3.9258509933890684, 0.5351571996246891, 3.06724401231622, 3.4677241400479395, 0.6709258503529487, 1.6907738626578004, -3.3369849252950776, 1.917340896279647, 6.72413679548198, -1.951262410262708, 4.914763329289986, -1.6624173237112887, 0.2975291330139438], [-0.9284330893672662, -2.8700815082919977, -1.276069342535149, -7.474265669344722, 1.2492874537712968, -1.3468487307214527, 5.16016870117733, 2.982015104794713, -1.1569900298967781, -1.553430072946115, 1.641303468461672, 4.9105455831589, 0.5198676071811195, 2.8929955178950615, 2.4489415222948985, 2.7229465907243244], [1.600602108034769, 4.123704517728366, -1.2822981125830608, -1.4544750882900062, 1.9123906203925474, 1.873665450330833, 1.3503093329801015, -0.39359695433150754, 3.4774595270740623, 4.938262147641295, -6.010029952348263, -1.86803765224709, 3.6347050693115373, -0.5053937282203907, 2.3444262242542533, 0.566503789543541], [4.024997444561608, 1.8843150416484824, 0.7314749604061781, -1.9468631770392644, -1.1787071749628268, 4.07970547383324, 3.545909604730321, -1.7404718400169539, -0.5551212994304704, -0.5916968152873407, 1.709898172920779, -0.4174615863380291, -0.4256867493348634, -1.630803260081837, 1.4646561567757703, 2.823587910272545], [1.8077418513593582, -2.235779262106095, 0.26699241062572465, -3.275831511309521, -0.527793570499438, -2.0937907024925972, -1.3112187574090286, 2.6295622406786157, -1.544015740713146, 5.476561523332718, -4.743000883683445, 0.01837870062465219, -1.2051924510423209, 0.04893417773440603, -3.0213083431682692, -5.476153928611641], [0.7102730504807434, 1.7860947797937192, -0.162874999952815, 3.284922551521261, 1.2091819216158501, -2.0712183545346927, 2.034681955823407, -1.6708450219488, -0.8010196800064077, 0.2765266490248681, 4.6104583722750005, -0.7876962650883026, 1.7544612052294215, -1.455478601814061, 5.849582833788322, 1.8690394220102442], [-4.240323252321264, 3.1149200228381013, 0.15824301495796633, 1.5080942919616458, -2.448802157208635, 4.375969371804683, 0.9162387710410059, -6.469451787215545, -0.7744424184448906, -0.10490982424293016, 0.44603322208708823, -1.1844187373745967, -0.09257200251249553, 2.690914873118656, 0.48341228742462594, 0.5117861096503037], [-0.7551336248918525, 2.854566722118279, 1.119721854929867, -2.8755258795508714, 0.5416342300523009, 0.49692701881288015, 1.0823363155701646, -1.8920433797115703, 0.3190864162077782, 1.914933963404584, 0.32688701959915734, -1.845771994134584, 1.1899251759160092, -1.6671551471079815, 1.5912375774167293, 2.6340795596103614], [6.028114276813766, 2.513220702474072, -1.2887662361202645, -3.463087096240672, -0.7106613043265095, 2.835909704396071, -0.9570077541498319, 0.6286727379367547, 1.3913881416777296, -1.5030168754119093, -2.2829899231837834, 0.9301397208580111, 4.894674783628103, 4.554605458468167, 0.911570088070081, -2.8473258726684145], [-0.5711762644704013, -0.4953454958808067, -5.6163587404171125, 1.1709669374626475, -0.7625930254802181, 4.880391060882506, -2.046262234456142, -0.875551778396318, -1.1593140232666048, 2.2159531082645016, 2.615736953941156, -2.751531165272908, 1.976650794870813, -1.182284443630674, 5.581386078039463, 0.32064711659889644], [0.6099876548080039, 1.7012440999110754, 0.5615979101355025, 2.341560147937261, 0.018123954086695315, 0.9567321393558146, 1.7120526454066638, 3.5357945971671185, -1.8588544294981735, 2.183624681739212, -0.6761138101673413, 1.3752880314710159, 0.6925058768755182, 1.0630275270473408, -1.3762396287525025, 5.413019988647668], [0.6385632941753158, 1.4504781312781758, 2.880659087825607, -2.6261570413429824, 0.38650971435451087, 1.742241564023064, -0.4760750649381448, -2.4869622933340825, 1.5491139492832444, -4.314582543682475, 3.4438422009046326, -2.026190857255429, -1.1120210899753227, 0.8340776354586561, -0.440192262572222, -1.5526394032052968]], "bias": [[-1.0005174018075724], [-4.645286412418686], [0.648306206007868], [-0.0940752902925921], [-5.160007674253626], [1.8236611753131768], [0.9478758242275835], [-1.1303670471060003], [2.6304100682621008], [-0.720340155748435], [0.5369483733639064], [-3.9706800665297424], [-0.4013631129168909], [-1.6693782950502414], [1.226506681757948], [0.24446397099001155], [0.04064649397648079], [-0.22240623527179892], [3.375997149309845], [-1.9019949272158168], [-2.0287409980155187], [-4.6903809733412585], [-0.8311688869877969], [-1.4163037482489649]]}, {"layer": "activation", "activation": "tanh", "activation_prime": "tanh_prime"}, {"layer": "dense", "input_size": 24, "output_size": 4, "weights": [[-2.313859615235013, 0.25130981147350606, -0.6362689719446474, 1.1520553759577061, -0.7841979003799797, 5.239601302350398, 0.4559065309387145, -2.017360024235863, -2.3642158641171975, -1.1633862884303534, -2.0361785182982612, -1.463458395852849, 5.009306344637332, 2.0723401804568127, -2.0953955209567168, 1.8456839897925987, -2.41660025662647, -2.982852440816188, 0.023506924103604887, -0.4855689942290713, 2.9710886491550257, 1.0094723106307062, -0.9791730956140225, 2.6309421896714147], [1.2607342246176527, 1.398247496838655, -2.2062776034095277, -0.09035794915987383, 1.5902839176508463, -1.3877910959431985, 1.5865259303085475, 1.3757250450204777, -2.099219089573444, -1.4525926703971677, -1.3229195778236884, -0.35608557366050514, 5.380329277626393, 2.1882446170371965, 2.7176770111349895, -4.436797630247224, -1.3446425454732982, -8.938080376252941, 0.872299773092677, -3.997729864070059, -1.9068437185109504, -0.5301758309753319, 0.9495278032081814, 0.13658470081250218], [-2.6514842502172566, 2.166401321027984, 0.7153518984610665, 1.6703618728633276, -0.13794319534931432, -4.3879001614500925, 1.87126617493804, 2.18673358255489, 0.5853624389529479, 0.38414781767818307, -2.8434278752885565, 0.807339642978078, 2.96486356440062, -0.018174101963896405, 5.795607242887777, -1.160710478854663, 2.4160764434983495, -2.816887801156324, 1.9610308018492841, 2.1883055723835176, 0.059788583349222435, -0.11867000652875093, -2.563560419822369, 0.8210421409961255], [-3.739688207478303, -1.7815155594225969, -0.2331282236810558, 1.4530689391162865, -0.24917124339046604, 2.7128300488094244, -1.0615587694755013, 5.479999615145751, 4.771829154409871, -1.0657876150042374, -0.5583796702501717, 2.3501507925566774, 4.527049985781319, -0.6111904027647884, 0.4091149094214006, -0.19696980700543057, -0.11483583074322024, 1.17991416109967, 2.559919201030945, -0.5498867324760154, -0.8397279903328094, -1.4457658636598758, 2.9598014289094614, 1.7804866665073398]], "bias": [[-3.382185181032311], [1.8801888647138143], [-1.4353255277540122], [-1.4148210552209135]]}, {"layer": "activation", "activation": "sigmoid", "activation_prime": "sigmoid_prime"}]}