{"generation": 158, "fitness": 35184373454043.0, "network": [{"layer": "dense", "input_size": 16, "output_size": 24, "weights": [[1.73960636179244, 2.7644997014127295, -3.9338133706073006, 2.4850959887807282, 1.7951922735380772, -0.9410044422438856, -1.0584026762026686, -0.5478360984612525, -1.9700371849384388, 4.968910503297389, 2.8040649965292177, 1.3732519132830925, 0.9270794812719869, 3.450452541848112, -0.9999192395584464, 5.188937801002989], [-1.2092392906574894, -5.25090772211971, -0.2623220044184351, 1.2574998819384529, 1.0404849759697938, 2.5931111943047926, -0.584921248121339, -3.3266556941263836, -5.412362628325716, 1.2884994640665353, -6.671399744896742, -0.27726618003295833, -0.5087276266572216, 3.209898476849064, 0.21495598362786578, 5.146722367813753], [1.1585604330825685, 1.0755938076486262, -0.20870903992416884, -2.579185249674727, -2.6591902541678607, 3.7229615130662834, -0.9167423672930259, 1.260783350368938, 4.168755990672502, -1.4389754601546134, 5.017158483572478, 0.14257420300229695, -2.9210281413124, 1.144763078131501, 5.602701526561697, -2.4360389727524985], [2.434213586170475, 0.4812292959012405, 1.780876723207138, -1.8417649627155326, -0.1707936292531601, -4.741940573982747, 1.5198418792581943, -1.111406136315957, 1.7482953308190763, -1.1770502725226728, -1.8356718135553893, 0.03192300836364326, -2.963774680888176, -1.296338704636299, -4.8009145105215945, -4.3242033244915765], [-0.9251958385181338, 1.3521505019878506, 3.746968467014238, 2.51113106110824, 3.796535238978297, -1.844950083352849, 1.7696394989105304, -4.874354881106854, -1.1084562346289377, -0.2869093536991192, 1.0539492171839495, -0.9550421740739417, -2.007258373091317, -5.241038202839217, -0.9702602481469762, -4.455409914589831], [-4.197396242426036, 4.839156956370472, 3.894081007645339, 2.472950312190095, 1.4010528808015519, -4.189729472657236, 0.9381266716404821, -5.308403548001675, -3.7571033191650205, 2.353691184324093, -1.416868153078722, -0.7001625835606392, -1.4629142650534281, 1.785073758075018, -1.0508857915415224, -2.4204625418879475], [1.97476226114347, -0.9529052401664373, 3.0965917342407723, 1.1879500457147936, 1.0866761237398737, 1.130522711885943, -4.435698555967595, -0.7068799120436622, -1.0662959631751214, -4.457266287148696, -0.9550987253415539, 0.45949547441466276, -0.14264888248972052, -0.8957205656803547, 2.4438544009805114, -1.2772036896898034], [2.961673076891781, -0.7917824142541796, 2.837543768140199, -1.308593157138036, 0.01978174850021841, 1.1045777103015857, -0.03697465791811255, -5.8948258191829055, -4.40812538191172, 0.9986119283253344, 1.7695822221632351, 4.2579094662499894, -0.6629084422541989, -0.669135387196499, 1.3632943020140542, -3.5059704561660325], [-3.6449955153843168, 0.21513641073001388, -1.2124185991427026, 0.22765162789389537, -2.172275436461584, 0.5577556384190541, -2.708295313776914, -1.6134137203484982, 0.8777096957016267, 1.3071422070288197, 1.4501460158491, -1.520414093490609, -4.566064770064726, 2.5338991753456863, 1.503731828982385, 0.10861804311837497], [-2.9559373996007077, 0.20994692430199535, 1.6882310831879008, 4.474550645952042, -3.7373504201922274, 3.3309785297616887, -2.5096329030060707, -2.087677601758392, -0.02577422029207188, -2.9939230685578835, -1.835781871372221, 2.0411724973812824, 0.9607745239154597, -3.2608587722194917, 0.39436651084874763, -1.7577589962356999], [-2.0742214773127188, 1.430052769638721, -1.3921649817602555, -3.1627905295809864, -0.013861301509114798, 0.3539454103393553, 3.200565827734673, -0.5766725289035982, -0.2850328201890439, 1.233046232348792, -2.779395688337217, 0.9193635856878665, -9.793507475780755, -0.7151459011736409, -1.115407549760014, -5.565092005447571], [-1.2944968304688333, 1.8685637838295985, 2.083238623656749, 2.4815297965690024, 1.988902212517152, -2.763292385366364, 1.5552464963947477, 0.5087444709866261, 0.5694647090842431, -0.8636161535540461, 1.1633427420592415, 0.8024008019370161, 2.0978522852741577, -3.880365794146397, 6.663926277654941, 2.13450879889318], [-4.22867066872242, -2.0323244902831643, 7.504178157698219, -0.8647238862794822, -0.31347345192064646, -0.527156402432934, 0.7650671851906315, -0.6042822201042332, 0.7433696174560274, 2.231251722831657, 3.2751476648611453, 2.459801193644484, -1.1015000625322222, 3.3188542506524437, 0.9736282478448925, 0.3606667713452912], [-1.0474220122761901, -0.5148069681250701, 2.6030467377475883, -3.076756713521776, 2.3018905849606, -1.0167089265078664, 0.6846369189909068, -1.4286500013199501, -0.5876433705963886, 1.8931413976075295, -10.540926534276737, 0.12151068782876162, -0.15641839679949243, 1.6883539028901364, -1.3548667349678847, 2.8892642220657123], [-0.5663034676733265, 0.7415386554468015, 1.6600065615466737, -0.3470626429141501, -2.2324278931529826, -4.9244819051888316, 3.282657310703076, -0.3717448816163389, -1.4404970015620535, 0.20233755531051145, 6.221812954366664, 0.18260079139166496, 0.3785074735052857, 0.36766105711421326, -1.111892888329607, 0.42986862005184057], [9.405790412981426, -0.6068204242045454, -0.16954495258058583, 0.824815265492113, -1.5865037856865691, -5.017009189694177, -2.7274794722826847, -1.2985013107713417, 0.7583084387649145, -5.458325663477314, -4.386653886148687, -0.7624577772148717, -6.359209422263504, 3.1249602499394644, -0.22112298055803148, 3.4886828613074483], [3.4309432865557143, 3.2360765348916063, -1.808660132464593, 0.8162174801250891, 0.236509182130467, -1.2896014991936262, -2.6723658942970188, -3.3275509440255906, -0.1862069430197863, -5.88402680069669, 2.6181515813134144, -0.7037886920985094, 3.5024492055536873, -5.233292985074263, 2.870476822567043, 0.8773198644076472], [2.0600973892996306, 1.391175153622085, 0.5822424315433704, 0.28536647164930073, 0.7442795719620957, -0.08397793725418623, -0.7427025117650392, -2.224797413313181, -4.21781075476177, -0.4576375868643213, 0.6865325384781815, 4.586859922961959, -2.4506350396145486, -0.2147503180064388, -1.6564668696703833, 1.2478647927256346], [-3.1851415479581418, -1.5055697210638908, 3.115063814613447, -0.7531629983823851, 3.361864034898164, 0.15378354757639912, -2.645344778016643, 7.3875509782040805, -0.6353513823234191, -1.1232172786326982, 1.7573890481058951, 5.68885786286491, -4.884807023262126, -0.05740339531443739, 1.1031836853794719, 2.5916111647481945], [5.550819971307016, -1.5060689808991836, -0.7839526066860049, 0.634261309949186, 1.994124333400435, 1.1585118717270866, 0.646527573053316, 3.5043703549408445, -4.510644437213301, -5.344834102902523, -2.180481025434658, -1.4018512247543555, 5.82746412301161, 2.1484372540802372, -2.705903899793446, -5.165432647884209], [0.7498927304929548, 1.1505300466778254, -0.12480422654767998, 5.062950195437775, -0.38695467121592747, 5.53208307301793, -0.7821741807250228, -2.087231660667517, 2.9476095078409728, -0.9520329641176553, 0.8218097017410473, 4.118170692008461, 0.45323498994727185, 1.056064137648675, -0.07982796068174214, -0.14455385975632337], [0.5318644115942578, 2.1436517189386897, 2.5570778905730176, 0.3803779876003378, 0.49912664054188394, 3.69224585947315, 2.948967585871099, 1.1673484790423905, 1.6948069900825473, 0.8787415397879783, 2.8218838390427257, 0.7770018954225201, -2.179308802457973, -1.8016530694798791, -1.167566535769784, 1.3969119389421154], [-0.4173610738267637, -0.8906713080927835, -1.3104228280110641, 4.06796692840761, -3.8415913242030935, 2.293057537927712, 0.16102517520218168, 1.6688165417406304, 2.249808319084961, 3.486915286826806, -1.5847049270708458, -2.89083931435573, -0.5919885513336327, -0.48074232243377435, 1.9338091122212357, -3.8001589171523187], [0.23428742073218023, 3.1622804990056506, -1.829366520438889, 1.7612564410318852, 0.18571401141524518, -2.691644782874435, 2.3727160878471345, -3.3114519227436174, -0.3443131836286015, -2.948274327474673, -0.5911706437438942, -0.348927310543397, 6.538749204445966, 0.2173508240616373, -0.43466828143255365, -1.139180159275878]], "bias": [[-1.26991375165521], [2.868349926418224], [-1.7460087531668012], [2.375093680130154], [2.7402400670126195], [-2.4930378627523173], [4.242899602434475], [-0.6111594404461584], [-1.9773591021844008], [-10.581695224669074], [0.4110660434500363], [0.7941341161409086], [3.556331195806715], [0.3933031388614666], [-0.39028747215054516], [-0.5546317511087487], [3.826161825113828], [-2.365435183536294], [-0.6307842248504856], [2.4627296297928845], [2.9958739511449615], [-1.2773773312750163], [1.356140421430925], [2.705996265142395]]}, {"layer": "activation", "activation": "tanh", "activation_prime": "tanh_prime"}, {"layer": "dense", "input_size": 24, "output_size": 4, "weights": [[0.34044047884988715, -1.5947039971222383, 2.05532555426349, -1.3604598381696582, 2.4739511179748725, 2.749434046302386, 4.734514673225268, -0.5570337466592652, 0.16457842752118113, 1.138360536599489, -0.033773640037134456, 1.5645783750031859, -2.661123025812998, -3.432037731823805, 4.199463494745266, -4.978979267075713, 0.8100814088972009, -0.6897991777226244, 1.6130660535577581, 0.8906443604806255, -2.0386639061766436, -1.8962638891096373, 1.2835302593247486, 2.7945551926910737], [3.136846764750316, 2.7729333264862595, -1.8288705460890915, -4.39205797940509, 2.7410872878133965, 1.0583613542900978, 6.544665767137385, 0.4105518721047462, -3.3609423174828166, -2.455850199475628, -2.0517347019223213, -5.609782883587632, 0.9014974569954728, 2.330786296064418, 1.924154732790477, 4.280212753991764, 1.7458887672139556, 1.5321070449170984, 1.627719234702139, 0.15706520620485107, 1.0152041057771655, -3.193563453245904, 1.1805216430144116, 0.012343521617577471], [0.39602987111843546, 2.962432553728431, 0.8257604422961973, 3.218072796890459, 0.7317410637639455, -1.5534077465182494, 3.704659951187558, 1.00582793455553, 2.1168347776017797, 0.20104842075441628, 6.112720002184881, 0.9852120996021931, 1.5938142793474002, 1.626555021384045, -1.8135697076897657, 1.7094080456064433, 0.9338245908833809, -3.1763145487755855, 1.2125904687122286, 1.7372990844022258, -0.18517142627661887, -0.5483509665979747, 0.7892889810876373, 4.772637996996859], [1.5394465975866816, -3.450786020785286, -3.5064147307344675, -2.912634914607059, 0.8612394029860378, 3.8148751734986868, -0.5933684305811429, -2.757645104669421, 0.2653539349332451, -0.23426864207587528, 0.9142728106260377, -0.7121898877314471, -0.9882553880736917, 2.7556633151761827, 2.396230391073957, -4.352339847961165, -0.677356722197092, 1.061041107232237, -0.6333220727490324, -2.0095871427131553, -3.670411984351823, 0.7958951343150218, 2.5682396626659556, -3.2858657707129693]], "bias": [[-1.0904511568574797], [-3.4266515584833663], [2.6878619561005346], [4.656618889321589]]}, {"layer": "activation", "activation": "sigmoid", "activation_prime": "sigmoid_prime"}]}