{"generation": 160, "fitness": 281474978228639.4, "network": [{"layer": "dense", "input_size": 16, "output_size": 24, "weights": [[1.73960636179244, 2.7644997014127295, -3.9338133706073006, 2.4850959887807282, 1.7951922735380772, -0.9410044422438856, -1.0584026762026686, -0.7847638557002846, -1.8800628804427308, 4.968910503297389, 2.8040649965292177, 2.5535314919669694, 0.9270794812719869, 3.450452541848112, -0.9999192395584464, 4.095155217319846], [-2.458570725365868, -4.403243968789475, -0.2623220044184351, 1.2574998819384529, 1.0404849759697938, 2.4507104356307123, -3.16246545578663, -3.3266556941263836, -5.412362628325716, 1.0982737688832112, -7.509697790022791, -0.27726618003295833, -0.5087276266572216, 3.209898476849064, 0.21495598362786578, 4.292004285388909], [2.5743369474787023, 1.0755938076486262, 0.29045330511020173, -2.579185249674727, -2.361238884139071, 4.460022822605093, -0.12654117453785135, 1.260783350368938, 4.168755990672502, -1.4389754601546134, 5.017158483572478, 0.49538198161631863, -2.9210281413124, 1.144763078131501, 5.602701526561697, -2.4360389727524985], [1.0824362486228434, 0.4812292959012405, 1.6475437671842683, -1.8417649627155326, -0.1707936292531601, -4.8667237137998205, 1.5198418792581943, -1.111406136315957, 1.7482953308190763, -0.5094154886623676, -1.8356718135553893, 0.03192300836364326, -2.963774680888176, -1.296338704636299, -4.8009145105215945, -4.3242033244915765], [-0.9251958385181338, 1.3521505019878506, 3.746968467014238, 3.5714031804330117, 3.4577699262911326, -1.844950083352849, 0.8445340875949711, -4.924357922759003, -2.6870333280450533, -0.2869093536991192, 1.0539492171839495, -1.2794368623963048, -2.007258373091317, -4.826022754310811, -0.9702602481469762, -4.455409914589831], [-5.1648550940471, 4.839156956370472, 3.894081007645339, 2.472950312190095, 1.4010528808015519, -4.189729472657236, 2.0215537252241655, -5.308403548001675, -3.7571033191650205, 2.353691184324093, -1.416868153078722, -2.1604834952699683, -1.4629142650534281, 1.5531296855765486, -1.0508857915415224, -2.8849727103995164], [1.856532906628151, -1.5863254873461423, 5.452780327007203, 1.1879500457147936, 1.0866761237398737, 1.130522711885943, -4.435698555967595, -0.7068799120436622, -0.7998915468139725, -4.8286625114859705, -0.9550987253415539, 1.2069518824012735, -0.14264888248972052, -2.6025832556146398, 4.19340269796506, -1.2772036896898034], [2.961673076891781, -2.212205178564652, 2.837543768140199, -1.8140691177152706, 0.01978174850021841, 1.1045777103015857, 0.1544387062122994, -5.4791797379444676, -4.40812538191172, 0.9986119283253344, 1.6745323106149148, 4.2579094662499894, 0.5049048865646943, -0.669135387196499, 1.3632943020140542, -4.428529027220501], [-5.343200508494181, 0.21513641073001388, -1.2124185991427026, 1.1751113896564207, -2.172275436461584, 0.20039334620227928, -2.708295313776914, -0.2769404315488253, 2.3605622852067625, 0.5785396497311632, 2.288764237557105, -1.520414093490609, -4.566064770064726, 2.9604350287365033, 1.503731828982385, 0.10861804311837497], [-1.7653002098721167, -0.24199792580255075, 1.6882310831879008, 4.474550645952042, -2.824842398974445, 1.7437863758471768, -1.851742793902176, -2.087677601758392, -0.25197970674036463, -2.9939230685578835, -1.7732650496979783, 0.23202564183965735, 1.4255175583829724, -3.2608587722194917, 0.39436651084874763, -1.7577589962356999], [-2.0742214773127188, 1.2010071748488682, -1.3921649817602555, -3.9153393511129844, -1.1591374018895566, 0.3539454103393553, 3.200565827734673, -0.7498083426292597, -0.2850328201890439, 1.233046232348792, -2.779395688337217, 0.9193635856878665, -9.793507475780755, -0.7151459011736409, -1.115407549760014, -5.565092005447571], [-1.3405789695359327, 1.8685637838295985, 2.404895566977544, 1.6777430623487253, 1.988902212517152, -2.763292385366364, 1.5552464963947477, 0.5087444709866261, 0.5694647090842431, -0.8636161535540461, 2.2933352899758024, 2.0768624833334637, 2.0978522852741577, -3.880365794146397, 6.663926277654941, 2.13450879889318], [-4.22867066872242, -2.0323244902831643, 7.504178157698219, -0.8647238862794822, -0.31347345192064646, -0.2374874840484063, 0.7650671851906315, -0.6042822201042332, 0.7433696174560274, 2.231251722831657, 3.2751476648611453, 2.5405288084403224, -1.1015000625322222, 3.3188542506524437, 0.9736282478448925, 0.3606667713452912], [-1.0474220122761901, -0.5148069681250701, 2.6030467377475883, -3.076756713521776, 2.409585700979148, -1.0167089265078664, 0.6846369189909068, -2.3391948179052724, -0.5876433705963886, 1.8993380016350057, -10.540926534276737, -2.0930770760028974, -0.15641839679949243, 1.139541113049011, -1.4032546231136453, 2.8892642220657123], [-0.5663034676733265, 0.7415386554468015, 1.6600065615466737, -0.3470626429141501, -2.2324278931529826, -4.8296110561720536, 2.49955677342844, -1.026122647375716, -1.4404970015620535, 0.20233755531051145, 6.592692896989459, 0.18260079139166496, 0.5165305211659883, 0.36766105711421326, -1.111892888329607, 1.6947692409004829], [9.405790412981426, -0.6068204242045454, -0.6637745980469744, 0.824815265492113, -1.5865037856865691, -5.017009189694177, -2.7274794722826847, -1.2985013107713417, 0.18338590841246816, -5.458325663477314, -4.386653886148687, -0.7624577772148717, -6.359209422263504, 3.1249602499394644, -0.22112298055803148, 3.4886828613074483], [3.4309432865557143, 3.2360765348916063, -1.9235399074395125, -0.052718533487492, 0.236509182130467, -1.2896014991936262, -2.3068485420233356, -3.3275509440255906, -0.1862069430197863, -3.4887704298304376, 2.6181515813134144, -0.5871525207241413, 3.5024492055536873, -3.0816106816501128, 2.870476822567043, 0.8773198644076472], [2.676402773291593, 2.4586526882753645, 0.6403207922107175, 0.28536647164930073, 0.7442795719620957, -0.08397793725418623, -0.7427025117650392, -2.224797413313181, -4.21781075476177, -0.4576375868643213, 0.6865325384781815, 4.586859922961959, -4.608150523276156, -0.2147503180064388, -1.7875374879389183, 1.2478647927256346], [-3.1851415479581418, -1.5055697210638908, 2.798798435570176, -0.26977787177742285, 3.361864034898164, 0.15378354757639912, -3.728241349313002, 7.3875509782040805, -0.6353513823234191, -1.1232172786326982, 1.7573890481058951, 5.68885786286491, -5.08621870150837, -0.14804108615132539, 1.1031836853794719, 2.5916111647481945], [5.06013801709466, 0.2154284044841806, -1.3802618092789893, 1.4435962987630455, 1.994124333400435, 1.1654584397179053, 0.646527573053316, 4.0874373838796645, -1.8220492886917403, -5.344834102902523, -2.180481025434658, 0.7381802770054635, 5.82746412301161, 2.1484372540802372, -2.705903899793446, -2.959635218168427], [0.7498927304929548, 1.1505300466778254, -0.12480422654767998, 5.062950195437775, -0.38695467121592747, 5.53208307301793, -1.612664581094828, -2.087231660667517, 1.52945621340729, -0.9520329641176553, 0.8218097017410473, 2.728838817968307, 0.568499315560418, 2.3265216588970334, -0.07982796068174214, -0.14455385975632337], [0.5318644115942578, 2.1436517189386897, 2.5570778905730176, 0.3803779876003378, 0.49912664054188394, 3.519839689619945, 3.814820288042715, 1.1673484790423905, 0.5996668782147649, 0.8787415397879783, 2.512895185457128, 0.7770018954225201, -3.1843560880357016, -2.705487281934521, -1.167566535769784, 1.3969119389421154], [3.0152371732916246, -0.8906713080927835, -1.2597017321092432, 4.06796692840761, -3.8415913242030935, 2.293057537927712, -0.08526286498428126, 1.6688165417406304, 1.351716230676145, 3.486915286826806, -0.9652178667162963, -2.89083931435573, 0.09421078933418192, -1.6743097289302626, 1.9338091122212357, -3.8001589171523187], [0.23428742073218023, 3.1622804990056506, -1.829366520438889, 1.7612564410318852, 0.18571401141524518, -2.485089151691433, 2.359004537263603, -3.3114519227436174, -0.3443131836286015, -2.948274327474673, -1.7193632642628167, -0.348927310543397, 6.538749204445966, 0.2173508240616373, -0.43466828143255365, -1.139180159275878]], "bias": [[-2.4902769883918565], [2.868349926418224], [-1.7460087531668012], [2.375093680130154], [2.07157611886207], [-2.4930378627523173], [4.242899602434475], [-0.954420772775112], [-1.9773591021844008], [-11.152676249711991], [0.4110660434500363], [0.7941341161409086], [3.03110351084681], [0.3933031388614666], [-0.8292418351172273], [-1.4365476992497386], [1.5039391162153897], [-2.365435183536294], [-0.43875755331080635], [2.4627296297928845], [2.9958739511449615], [-2.63950570423398], [1.356140421430925], [2.705996265142395]]}, {"layer": "activation", "activation": "tanh", "activation_prime": "tanh_prime"}, {"layer": "dense", "input_size": 24, "output_size": 4, "weights": [[0.34044047884988715, -1.5947039971222383, 2.05532555426349, -0.24699930774743006, 2.4739511179748725, 2.749434046302386, 4.734514673225268, -1.7121669680541443, 0.16457842752118113, 1.138360536599489, -0.033773640037134456, 1.5645783750031859, -2.661123025812998, -3.432037731823805, 4.167593693836405, -4.978979267075713, 0.8100814088972009, -0.6897991777226244, 1.6130660535577581, 0.8906443604806255, -2.0386639061766436, -1.8962638891096373, 1.2835302593247486, 2.7945551926910737], [3.136846764750316, 2.7729333264862595, -1.8288705460890915, -4.39205797940509, 3.548170153553424, 1.0583613542900978, 6.544665767137385, 0.4105518721047462, -3.3609423174828166, -2.455850199475628, -2.1141498736624413, -5.609782883587632, 0.9014974569954728, 1.078943700131027, 1.924154732790477, 4.280212753991764, 1.7458887672139556, 1.5321070449170984, 1.627719234702139, 0.15706520620485107, 0.5311743048386354, -2.938220392967728, 1.1805216430144116, 0.012343521617577471], [0.39602987111843546, 2.763037814307938, -0.1528491465762042, 3.218072796890459, 0.7317410637639455, -1.5534077465182494, 3.947353544376466, 1.00582793455553, 2.1168347776017797, 0.20104842075441628, 6.112720002184881, 0.8633398328628814, 1.5938142793474002, 1.626555021384045, -1.8135697076897657, 2.8430530094477504, 0.9338245908833809, -3.1763145487755855, -0.6289163934283298, 1.7372990844022258, -0.18517142627661887, -0.5483509665979747, 0.7892889810876373, 4.772637996996859], [1.5394465975866816, -2.9318833439905356, -3.5064147307344675, -2.912634914607059, 0.8612394029860378, 3.8148751734986868, -0.5933684305811429, -2.757645104669421, 0.2653539349332451, -0.23426864207587528, 0.9142728106260377, -0.7121898877314471, -2.051161674567058, 1.9864346723920305, 1.5916894637073575, -5.433236886360761, -0.20414286985294455, 0.4496110545620341, -0.6333220727490324, -0.9489291438886559, -3.670411984351823, 0.7958951343150218, 2.5682396626659556, -1.6106579893387216]], "bias": [[-1.0904511568574797], [-3.6286639350685514], [2.6878619561005346], [3.3422820907882507]]}, {"layer": "activation", "activation": "sigmoid", "activation_prime": "sigmoid_prime"}]}