{"generation": 171, "fitness": 68720352636.84698, "network": [{"layer": "dense", "input_size": 16, "output_size": 24, "weights": [[1.6279230316921285, 2.2608983545753594, -1.5661522839389268, 0.5127789646187997, 3.520520460472235, -2.0337530011591465, -1.8933779284144043, -0.11146282804886587, -1.418963358354128, 6.581219650272124, -5.666065178893552, -0.4910475390047932, -3.1929497569553686, -3.6080407687775318, 2.761608564588862, -1.200261299866468], [2.7232491505057164, -2.826914591926338, 0.23829259058712232, 0.34869900235680135, -2.994745392941641, 3.9290694364911585, -0.8404644141058025, 7.105159823011391, 0.05210283096314283, 1.6835128083439188, -3.234215160163527, -4.094014671800235, -1.1392254291734218, 3.5491318289219453, 0.06465038439510074, -1.6811835882855737], [0.7080444095365437, 2.405172602494558, -3.13380433481797, -1.2943558514284992, -3.708263952423989, -4.249189815227731, -2.011966519321171, 0.9846269304759194, -2.079976688080502, 1.1304926025871154, -2.712042522612487, 0.33310506673234475, 3.12554672184899, 3.8361974951439595, -1.7377883439910424, -2.1553233646596537], [-1.2199371459908064, 2.2635714800009845, -2.12848418969111, -2.393677109097406, 4.3853137461594995, 2.4627971543720975, -1.6123318524623738, 2.16008690931363, -1.8578646650774393, -0.7978764996299894, 2.5440501870480223, -2.653527895569084, -4.453263693294293, 3.906183051829835, -0.6403588919371738, -2.029203968110206], [1.6827225733312932, 3.525666224379043, 8.339601502562815, 1.8343600712443202, -1.052289785151832, 3.695511710671352, 0.27269068776173544, -1.712351493749591, -4.135256521890136, -0.8611261706923553, 2.3765843715652224, 2.4516184130786547, 1.5584697391456164, 0.09060688644185028, -5.815945529719921, -4.038647909367248], [1.1987158509604954, 3.9016137075850486, 1.9089786916592513, 2.285954290671323, 1.1183884186953534, 0.44014651114933295, -0.5575706559847556, -4.053321198585908, -0.4599937667233032, -3.8489843547481346, 4.020723487758878, -1.8121422603240325, -0.7279628139462035, -8.362056395725928, -0.6079189866337071, 0.6258554647822845], [-2.132739725790092, -0.17783351794311653, -0.875287360841329, 3.5281496613253065, 3.0175845519293873, 6.3873277396587955, -3.649778250892411, 2.169031813578967, 2.340361404760914, -2.7631944401109374, -4.7039813067330245, 5.159823610765615, -1.9025512847648682, -6.71413876774509, 9.575582698449114, 3.6041980819508694], [-3.9642153457695266, 3.7568266596167765, -0.48711166451699506, -0.5592207475697508, -0.06266324662495115, 2.205978111677445, 0.2133152467772078, -5.855291703427202, 1.4105756318466611, -0.05089789363855757, -0.7803456021052487, -0.8806347839515074, 1.0922086365569366, -2.536392550696516, -0.8627062880425689, 1.3936281973709157], [-3.969763141594773, 2.0905270949199783, -0.32467268223416745, -2.9398408990116285, -0.3125691738305459, -6.9997067392361165, 1.7847810733242189, 1.260587330578894, 2.2878446251941025, 0.25397766159327656, -1.8054998253810033, -3.181315730548422, -3.38267902911268, 1.4384361772844474, -3.1810966589044707, -0.3121331492782162], [-3.7670766080738076, -0.06930147420941402, 2.490360268765114, -4.4552423676354405, -2.038392071107781, 0.21966123054435782, 0.6200707986731084, 2.194415329717581, -3.5469629411457424, -2.948475616814755, 0.0405149323754348, -1.7467614232173045, -0.16371845777376737, -0.844644790956542, 6.9522530485893395, -2.243532266733795], [1.3606170668214588, -1.227233903252859, -3.8933685636697435, 0.47794457480298835, -5.920132460946335, 2.3835180676346117, -1.0047934228496995, -5.334539409866217, 0.44319460958687207, -0.6897745979601269, -3.0471558298239536, -1.8275658526073313, -0.07916656548783874, -1.8404949690616172, -6.366037065943273, 4.1613024146649105], [2.335771372876845, 1.8496236346024932, -3.1594992694754636, 1.1735132791416958, -0.4191364460805487, -0.882459030977978, -1.616826964166139, 0.26439585562485357, -7.024459617590214, 2.344208110971472, 2.3926815202764877, -0.5474099601771771, 2.208313783062299, 0.997175120169044, -0.7340443357845782, 4.184952308495087], [2.3706687866273883, -3.13958967520985, -2.5451325437263885, 5.005037774620256, 2.997041090583882, 2.6969268246005043, 3.52393133819841, 0.6709258503529487, 1.6907738626578004, -1.9033636811245638, 4.439846976020159, 6.72413679548198, -1.951262410262708, 4.914763329289986, -2.1109080393605253, 1.1575834121479183], [-2.025801147134417, -3.5983010648435814, 0.5307314314147279, -7.474265669344722, 1.2492874537712968, -2.734395810958886, 5.16016870117733, 2.982015104794713, -1.7005128620863095, -2.2662295724134167, 0.8221604271132446, 7.397915927314814, 0.30580261011087606, 2.3580633747239457, 1.0955870425511292, 2.4497419218749448], [1.600602108034769, 1.8006341947464488, -1.2822981125830608, -3.0200573818855236, 2.1614281834729363, -0.5710133795195935, 1.7392819612604744, 1.1929646129995186, 4.71930193449745, 4.827882171244938, -6.010029952348263, -1.86803765224709, 2.9895016951310063, -0.3344723758232637, 1.6271464324899239, 0.5196954959913395], [3.878996677107217, 1.9249340952627747, 1.2286831543301964, -2.48449041394737, -2.3410127665530274, 4.07970547383324, 3.782559064155535, -0.39970179454485955, 0.46697251597626965, -1.4120371703328911, 1.7158634694260182, 0.8011021918407896, -0.4256867493348634, -1.0366458355671835, 1.765884829564285, 2.9887325038471944], [1.8077418513593582, -2.235779262106095, 1.752641321827339, -3.5934989350780215, -0.527793570499438, -2.0937907024925972, -1.2907771479786836, 2.1662612163116064, -2.2056221675375274, 5.476561523332718, -4.11273665628812, 0.32006805544262684, -1.2051924510423209, 0.7394831772343364, -3.120624269667133, -4.877907198294728], [1.6480178016697873, 3.0967191516931134, 0.17669636844065134, 2.404234258037565, 1.2091819216158501, -2.0712183545346927, 2.034681955823407, -1.6708450219488, -1.1291911665766101, 0.7133462225801656, 2.836944945005683, -0.8696311381362944, 4.015081363455582, -1.4457376888974536, 6.129951394017175, 2.3565671329049325], [-4.208191013823355, 3.1149200228381013, 0.6688746428022265, 0.5993731966169479, -2.448802157208635, 4.05136038433354, -0.5588434380114466, -4.563561396635042, -0.7744424184448906, 2.157232566937512, -0.7454703745215279, -1.5774743499948947, 1.011108087974304, 4.46253630102625, 1.1867230358352927, 0.9037163148459045], [0.19993722733654218, 1.857285066448711, 1.119721854929867, -3.361423918864009, -0.3212289204577534, 2.540714618234385, 2.9757287232719145, -1.9798766043365095, 0.4498569488256207, 1.5291812022872955, -0.46506370770323224, -1.845771994134584, 1.1899251759160092, -2.008382947835183, 1.5912375774167293, 1.9161863600323121], [6.028114276813766, 2.677881769949454, -2.3721401531761384, -5.003970219452496, -0.7106613043265095, 2.2327629447805744, -2.445078043611086, -0.0019368065386243805, -0.20193811378989546, -2.624555633228556, -3.3772178083046502, 2.297611769607798, 3.463484524631875, 4.497484144580429, 1.9013170299427422, -2.8473258726684145], [-1.3444072754685399, -0.4953454958808067, -7.385749751244996, 1.6346229692765601, -0.23314665990389088, 4.163313887739049, -2.046262234456142, -1.5036443360649356, -0.3812736302993032, 2.2159531082645016, 3.295596029152911, -3.6254092967655143, 1.2997657599804646, -0.4469430116784521, 5.581386078039463, 1.0227474688880056], [0.6099876548080039, 2.3811263239287443, -0.46798284518415545, 3.8534737797154217, 0.5122780038924316, 1.387203708151653, -1.8395074923212413, 4.136789416816725, 0.2645479763264895, 0.8886399303782062, -0.8765048814705514, 3.297383922223127, 1.6576123577973711, 1.868662173066192, -1.3762396287525025, 5.413019988647668], [0.6385632941753158, 2.293567199797396, 3.939000960501276, -2.903930495111257, -0.8003957340365023, 2.8289826288799587, 0.297559457112502, -2.4869622933340825, 1.255659966183997, -4.231667926540808, 4.7409718307796584, -3.063215203102592, -0.9715814842177645, -2.317685742099365, -0.440192262572222, -0.8886465799724043]], "bias": [[-2.108061581998676], [-5.236029595920748], [0.511901687297826], [1.556053724647423], [-5.827226501260652], [1.8236611753131768], [4.259694020990878], [-1.1303670471060003], [3.592531604631608], [-0.720340155748435], [0.6779412211479305], [-3.769363172643797], [-1.3213910844044974], [-1.6693782950502414], [1.3716516128291878], [0.33308910540078696], [-1.7703356553680802], [-0.22240623527179892], [2.6762935703944906], [-0.4408076340950564], [-2.4987386003730223], [-5.331241121333469], [-0.22211605770661025], [-1.4163037482489649]]}, {"layer": "activation", "activation": "tanh", "activation_prime": "tanh_prime"}, {"layer": "dense", "input_size": 24, "output_size": 4, "weights": [[-2.354566547097309, 0.25130981147350606, -0.6362689719446474, 1.6264796222404194, -0.7841979003799797, 5.079873631913864, 0.4181850333066386, -2.9879978964054286, -2.7875714314145994, -0.3833951939688802, -0.3102796848174134, -3.139706898667356, 5.6106092660996225, 1.2774306670776627, -1.5337365307186426, 1.8456839897925987, -2.8342121080529745, -1.4523525621850761, -2.073038807483318, 0.4921322029046602, 1.7807534481377252, -0.5464429597819517, -2.3743604506013494, 7.723121558914716], [0.7948469344748104, 1.398247496838655, -3.171955856022074, -0.9798546198735731, 1.305070511717466, -0.7037041001038112, 0.1967219113308185, 1.1548254107995453, -2.099219089573444, -1.4525926703971677, -1.3229195778236884, -0.36254494529061543, 5.1729781659759, 2.2859018385244814, 2.7176770111349895, -2.5123543348870236, -1.3797749154976522, -9.319732039464965, 1.7486183462943559, -3.997729864070059, -0.9838961768501382, -1.1457020591069011, 0.9495278032081814, 0.13658470081250218], [-1.178801562181582, 0.20185042991240632, -1.2581228833489662, 0.9356114153420138, -0.13794319534931432, -4.300439748818991, 1.9527259953803744, 1.808477840134966, 0.4659109992174961, 0.3062240754237001, -1.445319392856038, 0.807339642978078, 1.3658224210357932, -1.2890551447206153, 4.828527594915359, -1.0561967282114866, 2.4160764434983495, -3.369837097332807, 1.9610308018492841, 2.072279833629884, 0.059788583349222435, -1.024290755606356, -2.563560419822369, 3.1519872027254197], [-4.200705816491271, -3.3958723877357433, -0.2331282236810558, 2.7020857856799796, 0.10723500918294848, 2.8013909677677047, -1.1134148597837656, 7.5188485524476665, 7.024036339413658, -1.7244784264125843, -0.5208618698337101, 1.340256065092222, 5.204218443676368, -0.017169448068782733, 0.4091149094214006, -1.0725625834867287, 0.8173663242577841, 1.17991416109967, 0.9512327218039485, 0.10947782397712673, -0.4475597125286452, -2.3253285149253804, 3.4625677276641453, 0.1268446103811891]], "bias": [[-3.382185181032311], [1.770905518352524], [-2.011472853705965], [-0.20536365180636829]]}, {"layer": "activation", "activation": "sigmoid", "activation_prime": "sigmoid_prime"}]}