{"generation": 175, "fitness": 34360557245.354935, "network": [{"layer": "dense", "input_size": 16, "output_size": 24, "weights": [[1.6279230316921285, 2.2608983545753594, -1.2445581147856384, 0.041810296523258295, 3.520520460472235, -2.0337530011591465, -1.8933779284144043, 0.04790216973235914, -1.9662638934252157, 6.769396706928228, -6.989493995162861, -0.4910475390047932, -4.01257901456267, -3.6080407687775318, 1.8523328910085286, -1.200261299866468], [2.7232491505057164, -2.5135045641972926, -0.529917440748813, -0.7745012518242843, -2.994745392941641, 3.9290694364911585, -0.8404644141058025, 7.007330496327799, 0.05210283096314283, 1.6835128083439188, -3.234215160163527, -4.094014671800235, -2.2586435358583175, 3.5491318289219453, 0.06465038439510074, -0.29749998926469257], [0.8532553900251683, 2.405172602494558, -3.13380433481797, -1.2943558514284992, -3.708263952423989, -4.19813669383649, -1.0551252011798404, 0.9846269304759194, -2.079976688080502, -0.35202601016333807, -2.712042522612487, 0.33310506673234475, 3.993506853871995, 4.246134172786676, -2.801345329921317, -3.4528300326732357], [-1.2199371459908064, 2.2635714800009845, -2.12848418969111, -2.393677109097406, 4.3853137461594995, 2.4627971543720975, -1.6123318524623738, 2.16008690931363, -2.298118747216985, -1.7658335876479954, 4.776417887200254, -2.40826673439978, -4.453263693294293, 1.8290755986585305, -0.6403588919371738, -2.0681274255676243], [1.6827225733312932, 3.525666224379043, 8.339601502562815, 1.8343600712443202, -1.052289785151832, 3.695511710671352, 0.27269068776173544, -2.392684996597432, -4.135256521890136, -0.8611261706923553, 2.3765843715652224, 3.8957246123662257, 0.6743132409950474, -0.5312664580198314, -5.603129204763987, -4.038647909367248], [1.1987158509604954, 3.9016137075850486, 1.9089786916592513, 2.640722726879239, 1.1183884186953534, 0.44014651114933295, -0.5575706559847556, -2.466641710414028, -0.4599937667233032, -3.8489843547481346, 2.043204762595427, -1.8121422603240325, -0.6063275267187467, -8.362056395725928, -0.41668327076810335, 1.0343277512270537], [-2.132739725790092, -0.17783351794311653, -1.2594900759135963, 3.5281496613253065, 2.8413897578534324, 6.3873277396587955, -3.649778250892411, 0.637859527786687, 2.340361404760914, -2.5714187819668, -4.7039813067330245, 5.159823610765615, -1.9025512847648682, -5.404439426077644, 9.575582698449114, 3.8843432798550213], [-3.9642153457695266, 3.7568266596167765, -0.48711166451699506, -0.5592207475697508, -0.8011549204915256, 2.2611645677263765, 0.2133152467772078, -5.855291703427202, 1.4677627568354132, -0.05089789363855757, -0.5734329236258049, -0.8806347839515074, 0.5190120168731372, -2.536392550696516, -0.8627062880425689, 1.6079901626875581], [-3.969763141594773, 2.0905270949199783, -1.3072567806650621, -2.9398408990116285, -1.0426826563690381, -6.9997067392361165, 1.7847810733242189, 1.260587330578894, 2.2878446251941025, -0.4205851042372432, -1.8054998253810033, -1.8061764809374758, -3.2491452889011616, 1.3492344341256115, -3.1810966589044707, -2.0985990008234605], [-3.7670766080738076, -0.06930147420941402, 3.48457280784343, -4.4552423676354405, -2.038392071107781, -0.6174577401350043, 0.6200707986731084, 2.194415329717581, -3.0294532008965955, -2.948475616814755, 1.145615747551058, -2.3030077176758423, 0.45797871944551216, -0.844644790956542, 6.9522530485893395, -2.243532266733795], [1.3606170668214588, -1.227233903252859, -6.514220776369182, -1.5428042500391435, -5.920132460946335, 2.3835180676346117, -1.0047934228496995, -5.334539409866217, 0.44319460958687207, -0.6897745979601269, -3.0471558298239536, -1.8275658526073313, -0.07916656548783874, -1.8404949690616172, -6.366037065943273, 4.1613024146649105], [2.335771372876845, 2.4570754133871757, -3.1594992694754636, 1.1735132791416958, -0.9265047290076396, -1.5192208377894276, -1.2548268501981072, -0.6287460696843981, -7.024459617590214, 2.344208110971472, 2.3926815202764877, -0.1687190262244489, 2.208313783062299, 0.997175120169044, -0.7340443357845782, 4.184952308495087], [2.3706687866273883, -3.13958967520985, -1.4597363852204754, 2.8237842449943953, 0.867664051634617, 2.6969268246005043, 4.242538703255359, 0.6709258503529487, -0.8139458331449951, -1.9033636811245638, 4.439846976020159, 5.740200024407898, -1.951262410262708, 4.914763329289986, -2.1109080393605253, 1.1575834121479183], [-2.6291969272971683, -2.3706939888584944, 0.5307314314147279, -8.21617701394727, 1.2492874537712968, -2.734395810958886, 4.27788511242944, 2.591969120084843, -1.7005128620863095, -2.2662295724134167, 1.566194261682994, 7.397915927314814, 1.4049792768209635, 2.3580633747239457, 1.0968493189335886, 0.8565977962903326], [0.43931986170717374, 1.8006341947464488, -1.2822981125830608, -3.4848536344886147, 2.1614281834729363, -0.5710133795195935, 1.7392819612604744, 1.1929646129995186, 4.71930193449745, 4.61647184003688, -6.010029952348263, -2.200847002196104, 2.9895016951310063, -0.3344723758232637, 1.6271464324899239, 0.5196954959913395], [3.878996677107217, 1.7842976997506648, 1.2286831543301964, -2.48449041394737, -2.232667315500387, 4.07970547383324, 3.782559064155535, -0.39970179454485955, 0.46697251597626965, -1.4120371703328911, 1.4961949691146912, 0.8011021918407896, -0.4256867493348634, -1.630803260081837, 1.765884829564285, 2.9887325038471944], [1.8077418513593582, -2.235779262106095, 1.752641321827339, -3.470086241325466, -0.527793570499438, -2.0937907024925972, -1.2907771479786836, 4.220025189383046, -2.2056221675375274, 6.387428556706009, -4.11273665628812, 0.01837870062465219, -1.2648771271427806, 0.7394831772343364, -3.120624269667133, -4.877907198294728], [0.997179101445589, 3.0967191516931134, -0.8053123762429109, 2.404234258037565, 1.2091819216158501, -2.0712183545346927, 2.034681955823407, -1.7270568986625567, -1.1291911665766101, 2.2117952439753115, 2.836944945005683, -0.8696311381362944, 4.015081363455582, -1.4457376888974536, 6.129951394017175, 2.3565671329049325], [-4.208191013823355, 3.1149200228381013, 0.6688746428022265, -0.588680849240964, -1.9810387864999517, 3.784620829267096, -0.07151252538769315, -5.185522972485808, -0.7744424184448906, 2.6629811862113923, -0.7454703745215279, -0.5789829704188797, 1.423532563383988, 4.46253630102625, 1.1867230358352927, 0.9037163148459045], [0.19993722733654218, 4.001203368775655, 1.119721854929867, -4.201160439277142, -0.3212289204577534, 2.3716744736644624, 2.2533245402156856, -1.9798766043365095, 0.4498569488256207, 1.5291812022872955, -0.46506370770323224, -1.845771994134584, 1.1899251759160092, -2.008382947835183, 1.5912375774167293, 3.4344536033440773], [6.028114276813766, 2.1865975423086335, -2.3721401531761384, -5.003970219452496, -0.7106613043265095, 2.826135915829867, -2.445078043611086, -0.0019368065386243805, -0.20193811378989546, -2.624555633228556, -3.3772178083046502, 2.297611769607798, 3.463484524631875, 4.497484144580429, 1.9013170299427422, -2.8473258726684145], [-1.3444072754685399, -0.4953454958808067, -7.385749751244996, -0.030407169449378157, -0.23314665990389088, 4.163313887739049, -3.892819395345329, -1.5036443360649356, -0.8133829754014328, 2.2159531082645016, 3.295596029152911, -3.6254092967655143, 1.2997657599804646, -0.4469430116784521, 5.006458951907287, 1.0227474688880056], [-0.5786033431808992, 2.3811263239287443, -0.46798284518415545, 3.8534737797154217, 0.9011219039495925, 0.04955329329807645, -1.8395074923212413, 4.136789416816725, -1.074628640552927, 0.8886399303782062, 1.5532946477938379, 2.541085471565431, 1.8851771537110336, 1.868662173066192, -1.3762396287525025, 5.413019988647668], [0.6385632941753158, 2.293567199797396, 3.939000960501276, -3.332087378394653, -0.8003957340365023, 2.5242090488827955, 0.297559457112502, -2.4869622933340825, 1.255659966183997, -4.0134405676642375, 4.7409718307796584, -3.8808611451718464, -0.9715814842177645, -0.4369245029261833, -0.440192262572222, -0.8886465799724043]], "bias": [[-2.5521229021553036], [-4.210862846696083], [0.511901687297826], [1.556053724647423], [-6.651715019872771], [1.8236611753131768], [3.098482685010369], [-1.1303670471060003], [2.6304100682621008], [-0.720340155748435], [1.8580160990292047], [-3.796842658941464], [-1.3213910844044974], [-1.6225870409107694], [2.4840085840712174], [0.33308910540078696], [-2.466760440485304], [-0.3229500156442827], [1.669173205792209], [-1.900370117805465], [-2.1711635260014974], [-4.6903809733412585], [-1.596281308559702], [-1.4163037482489649]]}, {"layer": "activation", "activation": "tanh", "activation_prime": "tanh_prime"}, {"layer": "dense", "input_size": 24, "output_size": 4, "weights": [[-2.354566547097309, 0.25130981147350606, 2.370149667765037, 1.6264796222404194, -0.5748600969363257, 5.039908839204106, 0.5242574861730291, -2.9879978964054286, -2.7875714314145994, -0.3833951939688802, -0.3102796848174134, -1.5995213087212319, 5.6106092660996225, 1.7486029106532928, -1.5337365307186426, -0.19754273342116624, -3.500488831889074, 0.05984026200037973, -2.073038807483318, -0.18588604228768202, 2.9710886491550257, -0.9366826652781886, -2.3743604506013494, 5.5929073335074095], [0.7948469344748104, 2.6490833399977003, -3.171955856022074, -0.9798546198735731, 1.305070511717466, -0.7037041001038112, 0.1967219113308185, 2.691586061417272, -2.099219089573444, -1.4525926703971677, -1.3229195778236884, 0.6978604963225657, 5.1729781659759, 1.9533821088544192, 1.8215412061705978, -3.442153755581017, -0.4550207979280443, -9.319732039464965, 1.7486183462943559, -3.997729864070059, -0.9838961768501382, -1.1457020591069011, 0.9495278032081814, 0.13658470081250218], [-1.178801562181582, 0.23852374299300805, -1.2581228833489662, 0.9356114153420138, -0.13794319534931432, -4.300439748818991, 1.9527259953803744, 1.808477840134966, 0.4659109992174961, 0.3062240754237001, -1.445319392856038, 0.807339642978078, 1.3658224210357932, -1.2890551447206153, 4.828527594915359, -1.0561967282114866, 1.3983464006239663, -3.369837097332807, 1.1036360362310096, 2.072279833629884, 0.059788583349222435, -1.0445553186705174, -2.563560419822369, 3.1519872027254197], [-4.200705816491271, -1.841226667613512, -0.2331282236810558, 2.260361204966954, 0.10723500918294848, 2.8013909677677047, -2.329186275736877, 6.022268910349539, 8.04676430015327, -2.8530301750687905, -0.5208618698337101, 1.340256065092222, 5.204218443676368, -0.017169448068782733, 0.4091149094214006, -1.52312065131235, 0.8173663242577841, 1.17991416109967, 0.3250343668006962, 0.10947782397712673, -0.4475597125286452, -2.3253285149253804, 3.4625677276641453, 0.1268446103811891]], "bias": [[-3.382185181032311], [0.7539384047878948], [-2.011472853705965], [-0.20536365180636829]]}, {"layer": "activation", "activation": "sigmoid", "activation_prime": "sigmoid_prime"}]}