{"generation": 18, "fitness": 21539.411137906813, "network": [{"layer": "dense", "input_size": 16, "output_size": 24, "weights": [[0.5297487207900196, -0.051664642414684714, -0.5403940878596175, 0.07764924133959783, 0.29858083721519524, -2.7670309450089476, 0.20618170838985062, -2.002197575492884, 1.6040646639807103, 2.336781332954167, -1.5058130274232948, -0.6051573758534392, -1.4144146073253785, 0.02087529122283216, -2.1698054259621484, 0.860544636787977], [-0.9254018874133876, -0.04648497418550679, 0.6579277404121644, 1.3049876930731645, 0.6793398446828052, 0.43876727408508476, -0.7099663748784655, -0.6702595032443592, 0.9521988321191097, 0.5046332737310337, -1.6235586787900675, 0.956527660580734, 0.5472675318343618, 0.19126493997773225, -0.2029445610377163, 0.7689008077695569], [2.6354753624513805, 0.42883086989560315, -0.37722101319128765, 1.601797347036893, -0.5473303785209009, 2.1122323128769036, -0.9474654121123984, 0.822475347220289, 0.21736752677075483, 1.267230757797908, 0.3111394839248023, 0.34009902976787965, 0.35965753837578784, 0.152736783177726, 0.07450928538925364, -2.9485958222139668], [1.0943960485263282, 0.48311472367264935, 1.067876406464688, -0.9138620106009248, 2.983214875372785, -2.5385711482124123, -0.8359852876814876, -0.007723827370471836, 1.553871468670115, 0.06171977046519084, -0.7340879197602612, -0.44650290324857966, -0.9957827139494508, -0.9058115035836845, 1.0574611215152248, -0.9062379368115261], [-0.6580535357399011, 0.10450069984264942, 0.35987808712263925, -0.12940066120611093, 1.4770514865081412, -0.734719841546384, 0.3746354859170784, 0.506185106562843, 0.004231197034516576, -0.31040326029674126, 0.939725669205439, -1.3759729773265426, -0.5938179027714006, 1.0701189101604984, 0.4356105856491763, -1.1603748208075773], [0.8782443959347987, 2.462397684935638, -0.63538401453999, -0.5590608388227937, -0.7136044639875254, 1.0110676375693568, 0.40722670268680217, -1.3464014402145044, -0.5101995435946117, 1.5358652945538456, 1.9339736359682045, -0.4947458323574274, 0.3952444772429402, 0.5479464910809833, -2.570817635333205, 2.1827646937328313], [0.7853094119494362, 1.8976179971419054, -0.05955631655372218, -0.6844783225033484, -1.0649894188183961, -0.6712872395250502, -0.433779618974939, -0.5470230965661761, -0.018533556593111067, -0.20796596737058293, 1.9744203403548584, 2.7016523862431003, 0.49107682297854627, 1.1529043822879435, 0.5392342222745157, 1.1546932188504837], [-0.49094768226856544, 0.28773638781363375, 0.7238410074053216, 1.473519560291849, 0.6981490814571115, 1.129030482943451, 0.09527859430189367, -0.15029694405798488, -0.045549562432853255, -0.7745615177907778, 2.467369864100755, -0.9994727375564676, 0.8914608128602766, 0.10967352017327348, -0.49779509366993646, 0.960391501147559], [-0.6504654253967945, 0.5664360547217921, -0.36322642973971564, 1.4237189667613204, 2.086159210567974, 0.061808866334885915, -0.3730973629486274, -0.5043635629628158, -0.12134551388459308, 0.08812421238657639, 0.4850750057289728, -0.8399765174145881, -1.0233519618642508, -2.5552562700916903, -1.134847528019513, -0.737879253395761], [2.774542996596586, 0.05612378064381773, -1.967771558019686, -0.36948341454401645, -1.6663164502061807, -0.006100580178536541, 0.13276957875825857, 1.4206995029553047, 0.7984993246826337, -0.6250079550097567, -0.8445485688296195, -0.5119520076703836, -1.287085640919348, -1.4276274090137924, -0.6005904851684776, 0.883224069871272], [-0.5842968710815428, 0.8941440679475303, 3.247663887268155, 0.3853518283159574, -0.4339074910638061, -0.8677529911963131, -0.08337448320868468, -2.5111487896333005, -2.2964425189541275, -1.5745626940125397, 0.18130758567463023, 0.30317835874750787, -0.6122423863580702, 0.0013268846880860607, -0.5934464815023026, 1.7764493315716918], [0.04303276714151438, 0.741829785763708, -0.2293324732211104, 0.7998329166453715, -1.4366110705677704, -0.003725752068722832, 0.27800859988167165, -0.9386525481537012, -0.8502316772147362, 0.46209314789260825, 0.03770793573271303, -0.5757148367817979, 0.2142833444008571, -2.1592123034639434, 0.9138597704383502, 0.9136466981542397], [-0.09293931935567423, -1.1035483325316342, 2.124681785735826, -0.6017199065835899, -0.11174650577000422, 0.22446941677360155, 0.5822746332871751, -0.7611063284412443, 0.17061636490850351, 0.5203744259221923, 0.39178431246066303, 0.32819180326990305, 0.708981683260745, 2.0210005120798877, -2.5252492920819565, 0.07753942547864345], [-1.5596099791035107, 0.8722502960731964, 0.6420816834191121, -0.7958939396137841, 0.9487867888331881, -1.1021058072123036, 0.4259898363181458, 0.8177981734395761, -2.8934608056762547, -0.7402791081809774, 0.689784091506763, -0.8434752444013156, 0.5807891288846045, 0.8731625124065925, -1.1115666672661138, 0.669866251136938], [1.8515699578948634, -0.5595119615055781, 0.7063240053160851, 0.5898668245890366, 0.9475959412333775, -0.5482886846737451, -0.49996768887903853, 2.1698653087837076, -0.9404513836208193, 0.22817043757813482, 0.028334257013786446, -0.08151772070835395, -0.026582751357317316, 0.9109406050257218, -0.45201504664906306, 0.7593287149917662], [5.83497603273605, 1.7023825233994772, -1.2771229363170482, -0.04970221557327781, -1.2256610991585535, 0.17111730274763626, -1.290481773193745, -0.8082825456430296, -0.981639646234135, -0.26240181422465025, 0.4826111785289011, 0.06688848963192606, -0.4832477030555933, 0.13849096648461412, -0.13662635067337758, 0.9516204643431916], [-0.7937860777996824, -0.4397044371006908, -0.8792340771373088, 0.2975495334355161, 0.036079723324569546, 0.2845964170694293, 0.6439025360236366, -0.15466041383820317, 0.039037957967281045, -1.334037059865528, 0.38047081606834254, -1.1384419872849472, 1.3913878967985518, 0.6351086556674612, 0.9022110626118205, -0.7259591320395984], [-1.1485717839671212, -0.9366335307619376, 1.4720760546552834, 0.34558657272538507, 2.5308143269313033, -1.1567173675563958, -0.3204580368433416, -1.1225229493378084, -0.1394907751358032, -0.7849090012374693, 0.07997885548181494, 3.2908187478076685, -1.2636549091960418, -0.024779884243837813, -0.7283502766428362, -1.8594825347019932], [-0.8854079169736437, -3.671456332710256, -0.21385225775927497, -0.9688748015003847, 0.4696875049249889, 0.4531788686855167, -0.24527802043909297, 1.2956335556562966, -1.8772238921174587, -0.5106042075945794, -1.3717477707200074, 1.5612463661935565, -0.3861038794102556, 0.8364688984154387, 1.0504107018666324, -0.12592550066317476], [-1.5135681867791304, -2.046508870992562, 0.053549377027360734, 0.6542639381899682, 0.08427098007641542, 1.8517431640261481, 0.29451231500609265, -0.5466785651263617, -1.659325805026335, -0.2583697932098554, -0.1368598684483141, 2.0914040981642787, 0.7701564347198198, 0.976834753901527, 0.34014129162209555, -0.575694745731093], [0.6014413573988632, -0.7075989760730472, 0.7055915905965415, 0.9104134704509368, 0.2135538782669837, 0.12177168600629273, 0.40212136273245913, -0.9777995848528864, 1.433282966406997, 0.3603882060359311, -0.402275897680352, 0.5483677643963509, 0.5138439371497097, -1.7618009552994247, -0.796256837617531, 0.506381628422576], [0.7716292404616432, 0.8717708709849135, -0.40212876919086615, 0.6972895195505702, 0.39630976567713205, -0.8562330257282289, -0.3424590707520061, 0.07776601122561569, 1.9855781684045288, -1.8094009612635182, 0.8728526185090539, 0.685860187784954, -0.3491010094755096, 0.8515639620563284, -0.7185690489744878, 0.7035321726439386], [0.20515302421956694, 1.2370417557743352, 1.6347845695842331, 0.4372504778824471, -0.18950958420377517, 0.6347443268389039, -1.3616279097330635, 0.33825258643997036, 0.6638234102738201, 0.5252968112557399, 0.7367676939638266, -0.9717087324079865, -0.3796079282425504, 0.25871104501674425, 0.8056620584435901, -0.8559608349639813], [0.18826559829156708, -1.1623681017247591, 2.254831298024574, -0.2027898786022333, -0.5135226412980405, 0.2041747203028909, -0.916419553493105, -0.7582962145996184, 3.092595513060953, -0.9494808567398955, -3.042136939995308, -0.7986026160123576, -0.16620672473260206, 3.5422508820365652, -0.5626439393725979, -0.2812403989557877]], "bias": [[0.8346142454987036], [1.0990909920735044], [0.36031899915631516], [0.9487042704482505], [2.6026746215995926], [0.49138752830111243], [-1.1284329146412875], [0.4223280004460934], [0.08791783591980495], [-0.5730918408653478], [0.8362209152084117], [-0.981359986820715], [0.9460715499109278], [0.08080645375732387], [-1.75311566722242], [-0.587900777942681], [-0.5713913571694562], [-0.0009184146823891723], [0.27181334633404], [0.2771203245906271], [0.2593506937755323], [0.2892104305246094], [-0.6939766291454701], [0.9337664466681161]]}, {"layer": "activation", "activation": "tanh", "activation_prime": "tanh_prime"}, {"layer": "dense", "input_size": 24, "output_size": 4, "weights": [[1.1496536783232123, 0.04938340252603468, -0.4803598443579771, -0.9578742222713896, 0.08529222629420552, 0.5015884065149188, 0.7477222458174855, -0.32053013799894314, 0.08740386464278571, 1.1507582949489756, 0.42960603459604124, -0.9267666488715858, -0.6836907354787545, -0.8011303180955551, 0.3735641598529207, -0.5219963867723245, 0.4703606428944953, 0.18841537443426404, 0.18693990219203438, -0.7216614424078871, -0.1690054958238898, 0.39588300027637113, -0.03287167328020635, -2.2354080671257464], [-0.6487997552516802, 2.9051184183958894, 0.1856232754834699, 0.1994395145612162, -1.9103059452860462, -0.4658782059440525, -0.8992332527575269, 0.5234805706797889, 0.03387986202215153, -0.1900447968370504, -0.8981296516064774, -0.27712244168360334, -0.12002784785409804, -1.0561918053059987, -0.6245766418610873, 0.6540732549623673, 0.27673650401425565, -0.57849350401158, 1.5913353695999788, 0.15684202567840266, -0.9719532645931936, 0.3704825173628743, 0.006100172564194706, -1.3017898166416748], [0.4166306569453623, -2.33274860985118, -0.9708565782106968, 3.9924090368836724, 1.7300177189341146, 0.008216306697339304, -0.7836891768513267, 0.23093505783098478, 0.29685047652649343, 0.6823588207213436, 0.7425984969897772, -0.27991659360374666, 0.05232152462784678, 0.1349030827200166, -1.2126201153250293, -0.050526190194326026, 0.6495359681541312, 1.1383505132102516, 0.6153109963545549, 1.5260140125602955, 0.8802783852576221, 0.13236079482265528, -0.5455629250250464, 0.7748483151584278], [-0.7497627245686556, -1.2249009672561069, 0.7439549137446558, -0.7608427473449051, 0.7075767102961701, 0.9513572938963825, 0.4139417055568886, -0.043266669645731226, -0.4166895205457761, 0.6914714302962295, -0.9281187688551515, 0.8981542178947548, 0.4841137167943298, 0.5562829758573979, -0.8682801567822065, 0.14142751504323525, 0.1062278292863289, 0.6757107997201393, -1.668475018711734, -0.3779728491489944, -0.8515589854187207, 1.5259934912445658, -0.30987245416046294, -2.298467476727461]], "bias": [[-1.8713999246404565], [0.25809501172538707], [-0.5640384042760583], [-0.5136787552194368]]}, {"layer": "activation", "activation": "sigmoid", "activation_prime": "sigmoid_prime"}]}