{"generation": 192, "fitness": 68720358276.56372, "network": [{"layer": "dense", "input_size": 16, "output_size": 24, "weights": [[0.16013133325664075, 4.1623309927157885, -2.7798320066325335, 0.0019400263541070745, 1.9396827971754704, -2.0337530011591465, -1.8933779284144043, -1.5280379945895175, -3.063550712187274, 7.939985731160786, -5.098394022782014, -0.4910475390047932, -3.9364707204987597, -3.8910122869401076, 2.1716382474656015, -2.6912818785476116], [2.7232491505057164, -0.9044966198297275, 1.3500101124953798, -0.7853717893175857, -2.994745392941641, 3.4965995982676326, 1.2509449068946132, 7.007330496327799, 0.05210283096314283, 1.6835128083439188, -3.2420311063728704, -3.5127728867297003, -3.0662001349841796, 3.5491318289219453, -0.6028261875478342, -2.5082638686507117], [0.7080444095365437, 4.980738775489268, -3.13380433481797, -1.2943558514284992, -3.708263952423989, -5.064273353326035, -2.371962916765571, 2.6085455091553995, -2.079976688080502, -0.35202601016333807, -1.2215579927394988, 0.33310506673234475, 4.283116125056755, 7.006359305722276, -2.1411541513142813, -0.9577681582112053], [-0.509491918690492, 2.2635714800009845, -2.12848418969111, -2.7982183240683085, 4.806196007114687, 3.7114832749040287, -1.6123318524623738, 1.6962728755123109, -1.6621356736260844, -0.7978764996299894, 5.1317135767630235, -2.5470025640691443, -5.660417886028514, 2.4160395227916416, -0.6403588919371738, -0.9622732689531497], [2.0662147216431834, 3.525666224379043, 8.339601502562815, -0.2872703466358165, -0.2193508083596314, 4.426748791305998, 1.601019137730086, -1.712351493749591, -4.135256521890136, -2.230706169385339, 0.8362370574386333, 3.8957246123662257, 0.6743132409950474, 0.720510573217165, -4.169398527657622, -4.038647909367248], [1.0903536676171917, 3.9016137075850486, 1.9089786916592513, 4.678435483069308, 1.2299613282068418, 0.05404275812404663, -0.5575706559847556, -3.2005591671168268, -0.4599937667233032, -3.8489843547481346, 4.020723487758878, -2.326878113040953, -0.5976837021655387, -7.656700658043296, -0.41668327076810335, 1.0343277512270537], [-3.559530111751614, 2.8198186839546233, -2.7765575712541115, 3.5281496613253065, 2.8413897578534324, 8.802659628167739, -3.649778250892411, 1.1379740256133162, 1.1945520551245414, -2.7631944401109374, -2.7916144025368075, 5.159823610765615, -1.9025512847648682, -6.71413876774509, 9.632678472692808, 3.3310290389762867], [-4.305901752407409, 3.7568266596167765, -0.48711166451699506, 2.231552489119627, -0.8011549204915256, 2.205978111677445, 0.2133152467772078, -6.114944216158483, 1.4403223072508797, -0.05089789363855757, -0.7803456021052487, -0.8806347839515074, -1.475723112013712, -3.0977722810423374, -2.0442857924399442, 1.184509117853382], [-3.969763141594773, 4.374160691469141, -0.7171550472190801, -2.9398408990116285, -1.0426826563690381, -6.9997067392361165, 2.3726332461099986, -0.013004073486834411, 2.206346790621147, -3.291763725000816, -1.5814387508655554, -1.8061764809374758, -2.69943035877802, 0.7364544220393354, -3.262373253069549, -0.7125362337471266], [-1.4517156499417498, -0.06930147420941402, 4.128480883296433, -4.4552423676354405, -2.038392071107781, -0.6174577401350043, 3.0925123954035723, 2.194415329717581, -2.6707560496830083, -4.284438048271067, -0.547221166413699, -3.170493059162774, 0.6094127727266284, -1.2619986390616003, 6.9522530485893395, -2.9216141985144644], [1.3079448681342054, -1.3678856015693244, -4.4087113005393, 0.6389988567331925, -4.578006121273342, -0.7815637149713552, -1.269836308303129, -3.8535746331331135, 0.44319460958687207, -0.7547626337533155, -2.3198711377545473, -3.309653139628175, -0.07916656548783874, -1.5096957780235136, -5.398466006330847, 7.305649590183118], [3.407387520521439, 1.8454612014098057, -3.867217828244187, 2.449749546152055, 0.3118163260954173, -1.5192208377894276, -5.017994818492895, -1.8838961144469635, -7.024459617590214, 3.2198262883684396, 2.3926815202764877, 3.3673936045052413, 2.208313783062299, 2.091461725986, -0.7907081395106953, 2.7201211238771505], [2.3706687866273883, -1.597945088730015, -3.272094269197878, 3.103984559340146, -2.0983843726417852, 2.6969268246005043, 1.8479330305285409, 2.665448715790475, 2.569497294650412, -4.076412028970801, 3.452391715623386, 5.740200024407898, -3.0585101764441824, 6.709632617707445, -2.1109080393605253, 1.1575834121479183], [-1.7714953652171812, -3.1019720277540466, 0.7801717935623357, -8.21617701394727, 1.449053215501996, -0.9774567822574187, 4.570997475292367, 4.054405658703617, -2.783329570322123, -2.2662295724134167, 3.001031182522321, 6.58169610574423, 0.30580261011087606, 0.8980269921940003, 2.333705448288712, 0.8565977962903326], [0.5945015895552213, 1.8006341947464488, -0.4415968377227298, -3.0200573818855236, 2.1614281834729363, -0.5710133795195935, 1.7392819612604744, 1.5767083054541022, 4.71930193449745, 2.0387670275634404, -6.010029952348263, -2.2232202162318475, 2.9895016951310063, -0.3344723758232637, 1.7098169660695448, 0.5196954959913395], [3.6470114467802515, 2.452903463217749, 1.148513191939597, -2.48449041394737, -0.03733003977120464, 3.2818075559227182, 4.516539502771591, -0.17141931935640684, 1.260453663923259, -1.4120371703328911, 1.777973256434302, 0.39720026990210755, -0.6619225676647895, -1.630803260081837, 1.1493999609538301, 4.316335055568775], [-0.21261187270409643, -2.235779262106095, 3.858975083336749, -3.341464787161146, 0.416675472867987, -1.238884530123105, -0.7228707171414182, 3.102653238242895, -2.2056221675375274, 5.901569445223502, -4.026583097507349, 0.6574838818334837, -0.3600394512819959, 1.539554656969412, -3.120624269667133, -6.884969904326697], [0.997179101445589, 3.3209507567294807, -0.38740814382019967, 0.5171529926700187, 1.0865985716385864, -2.0712183545346927, 2.034681955823407, -1.6708450219488, -1.1291911665766101, 2.2117952439753115, 2.836944945005683, -0.919131406299409, 3.9482712486435045, -0.8328964614175158, 3.566745389668997, 1.9081332716993367], [-4.208191013823355, 3.1149200228381013, -0.2983168760125432, 0.19041146619976734, -2.448802157208635, 4.05136038433354, 0.7126069154939815, -5.185522972485808, -0.1333275578859725, 4.337255575750241, 0.31029763847565417, -0.7330676487193062, 1.423532563383988, 4.46253630102625, 0.24805436167882877, 0.5159201043600274], [0.19993722733654218, 4.001203368775655, 2.6082481471156043, -4.201160439277142, -0.724451210313964, 2.2523324069469792, 4.438804068730562, -3.403608602527241, 2.3775979850402975, 1.5943315304348944, -1.2805254974462974, -1.845771994134584, 1.768202170893741, -2.008382947835183, 1.5912375774167293, 1.9161863600323121], [6.821935493034592, 2.1865975423086335, -1.4407237522743839, -3.7447119376886864, -0.7106613043265095, 1.7973475030448056, -4.015454988139702, -0.0019368065386243805, 0.9701996881158297, -3.6407952076420402, -4.384036604930704, 1.53573854279557, 3.690663771696685, 2.6602377195423292, 1.0755271892064386, -2.8473258726684145], [-1.470620768834476, -1.578503470610595, -8.828518938277137, 0.6005024543917348, 0.1129489541355993, 4.163313887739049, -3.1711946382571004, 0.8881156225438929, -0.8133829754014328, 1.1378502248013231, 1.0868441342799944, -3.2207997400298485, 1.832966450791679, -0.3840276088659538, 5.581386078039463, 2.0531285619180752], [0.12466954735087948, 2.3811263239287443, -0.46798284518415545, 2.4815077241194468, 0.8805889140313232, -0.2676781378823976, -3.3618682186557094, 5.124040283161779, -1.1842363305080887, 0.6988359983575321, -0.03933348792047686, 1.7367740927714062, 1.6576123577973711, 1.868662173066192, -1.3762396287525025, 4.936905845782171], [0.6385632941753158, 2.2208022992071172, 3.939000960501276, -2.775901912388404, -0.8003957340365023, 3.516862418063329, 0.297559457112502, -1.3418246710521855, 2.138304117827101, -5.711994176542335, 4.7409718307796584, -4.879348116629306, -1.6408365753290255, 1.1359443465645627, -1.1246647581325515, -0.8886465799724043]], "bias": [[-1.4247423348306911], [-5.236029595920748], [1.2647807280914127], [1.314112269738286], [-7.538448285979539], [1.8236611753131768], [3.439825072070228], [-0.5048386447326698], [2.6304100682621008], [-0.720340155748435], [0.08447539943881033], [-3.612549693573131], [-2.906192822222779], [-1.2735838469875858], [2.4840085840712174], [0.33308910540078696], [-1.0918836324617236], [-0.22240623527179892], [3.295174283648266], [-2.6886284238703], [-2.0750619085338076], [-4.615775720546415], [-0.22211605770661025], [-1.4163037482489649]]}, {"layer": "activation", "activation": "tanh", "activation_prime": "tanh_prime"}, {"layer": "dense", "input_size": 24, "output_size": 4, "weights": [[-3.1324986792397187, 1.9818358707729904, 3.471313596702095, 1.6264796222404194, -0.6388216004459086, 5.055131505247076, 0.5242574861730291, -3.9384637579380097, -1.9818598640253007, -0.3833951939688802, -0.3102796848174134, -2.410447222044338, 5.6106092660996225, 1.2774306670776627, -1.5337365307186426, 1.8456839897925987, -5.159463986904721, -1.9085031389094127, -1.587585658485149, -1.12965110347214, 2.8731969328591904, -0.9366826652781886, -2.225263588190451, 5.5929073335074095], [0.9604623273242433, 1.6878386707217465, -3.171955856022074, -0.4614244511156056, 0.9305786009032965, -0.21519931966176015, -0.8392362719298102, 1.1548254107995453, -2.099219089573444, -1.9599287141177273, 0.10976155449267022, 0.44945318192780137, 3.4919224058074927, 1.9533821088544192, 1.8215412061705978, -3.999508801217333, -2.0094049219927195, -7.28516043393274, 0.9484845095280005, -3.997729864070059, -3.327898099242002, -1.1457020591069011, 0.9495278032081814, -2.1542378859846085], [-2.4298910736745016, 0.23852374299300805, -0.19763281122938658, 2.638977301207092, 0.5865633434288067, -2.4828510402128643, 1.9527259953803744, -0.16498954966866175, 2.83054339277058, 0.32656876258727946, -0.7744013940061841, 0.807339642978078, 0.31581022204164516, -1.2890551447206153, 3.8279587006586473, -2.237561650511481, 2.9504241591172886, -3.529761893691642, 1.9610308018492841, 2.4691535306143115, 0.059788583349222435, -1.0911529611167397, -0.9303526629113466, 4.928910570041459], [-3.449745366331555, -3.3958723877357433, -0.2331282236810558, 2.141234578787455, 0.10723500918294848, 2.850764158588713, -2.329186275736877, 7.155856502142824, 9.378428053527001, -1.578854882014681, -0.5208618698337101, 0.17147504227206078, 3.649443058248131, 0.09667814691989171, 0.4091149094214006, -0.43328786119617607, 0.8837401224846331, 1.17991416109967, -0.4333943734620766, 0.10947782397712673, -1.3471838461184507, -1.6246445633387128, 3.4625677276641453, 0.9462894250012374]], "bias": [[-5.173815895690893], [1.2729375368358868], [-2.962853101573307], [0.6145891311405248]]}, {"layer": "activation", "activation": "sigmoid", "activation_prime": "sigmoid_prime"}]}