{"generation": 195, "fitness": 68720352960.10555, "network": [{"layer": "dense", "input_size": 16, "output_size": 24, "weights": [[0.16013133325664075, 4.1623309927157885, -0.9003594567691497, 0.0019400263541070745, 1.9396827971754704, -2.4334177441117135, -1.8933779284144043, -0.11146282804886587, -2.0022999045624985, 10.038691471982293, -3.9841719735860206, -0.4910475390047932, -3.843744506702138, -3.8910122869401076, 1.6053090898996627, -2.6912818785476116], [1.2411458632665662, -3.9971340904334274, 0.3766708710685416, -0.7853717893175857, -2.994745392941641, 3.4965995982676326, -0.027041236496230414, 7.007330496327799, 0.05210283096314283, 1.204738033569782, -4.0364452470101675, -2.045608896031976, -3.6273469988761198, 3.5491318289219453, -1.4447149899569394, -2.5082638686507117], [0.7080444095365437, 4.980738775489268, -2.903908866878994, -1.2943558514284992, -0.9573594366186103, -5.064273353326035, -1.4142316371120736, 3.194212418974847, -2.079976688080502, -0.35202601016333807, -2.712042522612487, -0.5430934606145447, 4.827696447178075, 5.598868113210442, -3.150824247422442, -2.2577985918931014], [0.21390291043274634, 2.2635714800009845, -2.12848418969111, -2.7982183240683085, 4.806196007114687, 2.4627971543720975, -1.6123318524623738, 2.16008690931363, -1.0631490658333744, 0.19469051163741424, 4.776417887200254, -1.0427920815675238, -5.660417886028514, -1.2908967284856265, -0.6403588919371738, -1.0293215196823282], [1.7903008617748553, 3.525666224379043, 8.339601502562815, -1.002560348042954, -0.2193508083596314, 4.1434622679150355, 1.601019137730086, -1.712351493749591, -4.135256521890136, -2.8295891432914484, 0.8362370574386333, 3.8957246123662257, 0.6743132409950474, 0.720510573217165, -4.169398527657622, -4.038647909367248], [1.0903536676171917, 3.9016137075850486, 1.9089786916592513, 5.6913291816709926, 1.2299613282068418, 1.3451430260631634, -0.5575706559847556, -4.053321198585908, -0.4599937667233032, -3.8489843547481346, 4.020723487758878, -2.326878113040953, -0.5428920385696862, -7.656700658043296, -0.41668327076810335, 1.0343277512270537], [-3.453529506567334, 2.8198186839546233, -1.8414357188244281, 3.5281496613253065, 2.8413897578534324, 7.339373731923899, -3.649778250892411, 0.9994824617770591, 1.1945520551245414, -2.7631944401109374, -4.7039813067330245, 5.445050041317606, -1.9025512847648682, -6.71413876774509, 9.632678472692808, 3.371803270490693], [-4.748483379090462, 3.7568266596167765, -1.1598801736543976, 1.8252769808232805, -2.8361464107933827, 2.205978111677445, 0.7042152502449482, -6.114944216158483, 1.4403223072508797, -0.05089789363855757, -0.7803456021052487, -0.8806347839515074, 0.17632963414843694, -2.2473924283658535, -1.0694167539429997, 1.184509117853382], [-3.969763141594773, 3.093414746660275, 1.53161461300642, -2.9398408990116285, -1.9619615175892233, -6.9997067392361165, 2.3726332461099986, -0.08020695918243108, 2.206346790621147, -3.291763725000816, -1.8054998253810033, -1.8061764809374758, -3.2491452889011616, 1.1178984724142929, -3.262373253069549, -0.4058188913035447], [-1.4517156499417498, -0.06930147420941402, 6.633428048491425, -4.4552423676354405, -3.3325363501081613, -1.148938285117051, 2.5061254306363976, 2.194415329717581, -3.110917864282724, -4.284438048271067, -0.547221166413699, -2.3030077176758423, 1.883188483181642, 0.4135419439491459, 6.9522530485893395, -0.5441336529469243], [1.3079448681342054, -0.8848881946641761, -3.2323689552151746, -2.4209655685980027, -4.5988527122126825, 1.5279196686522756, -2.6418568581556596, -4.702715939577352, 0.44319460958687207, 1.9511038650142938, -3.0471558298239536, -2.77197806934457, -0.07916656548783874, -1.5096957780235136, -6.249736844400252, 5.3802766443151215], [2.335771372876845, 1.4058666074836617, -4.5777520580235445, 2.449749546152055, 0.3118163260954173, -1.5192208377894276, -4.922628169760006, -1.4889951112696087, -7.024459617590214, 2.195919753671376, 2.3926815202764877, 3.620658774113051, 6.279931015276697, 0.997175120169044, -0.11362860451566548, 2.7201211238771505], [2.3706687866273883, -1.597945088730015, -3.552207849751531, 2.4952492986242154, -2.0983843726417852, 2.6969268246005043, 1.8479330305285409, 2.665448715790475, 2.569497294650412, -1.9033636811245638, 3.117817567239752, 6.424299950251777, -3.009589983695034, 6.858170834851148, -4.017960085267942, 2.6276018300789388], [-1.0500981098674589, -4.14311809123368, 1.2424732524601265, -7.429541309297444, 1.449053215501996, -2.143126295410409, 4.27788511242944, 2.982015104794713, -4.582910003933471, -2.278961943055448, 2.9146600271903527, 6.497269718981479, 0.37325127644263056, 0.8980269921940003, 4.9374484006037935, 0.7063443090951897], [0.5945015895552213, 1.2965542159356311, 1.5471506391554257, -3.320613806633116, 2.1614281834729363, -0.5710133795195935, 1.7392819612604744, 1.1929646129995186, 4.71930193449745, 2.8039119566920934, -6.010029952348263, -2.159750264609652, 2.9895016951310063, -0.3344723758232637, 0.8336411429232884, 0.5196954959913395], [3.196330466965214, 3.2615243599097923, -0.38346930280772107, -2.48449041394737, -1.5099609691110671, 5.503529475734263, 4.516539502771591, -0.17141931935640684, 1.260453663923259, -1.4120371703328911, 1.777973256434302, 0.39720026990210755, 0.3564413810017411, -1.630803260081837, 1.2495384359705703, 2.8066605992725564], [1.0437088096936584, -2.235779262106095, 3.858975083336749, -3.2853145382169444, 0.7552163075739832, -2.0937907024925972, -0.7228707171414182, 3.102653238242895, -2.2056221675375274, 5.385527962727656, -4.11273665628812, 0.01837870062465219, -0.22705019031403226, -0.8248415075769815, -3.3839316526335184, -6.884969904326697], [0.030053694040152457, 4.344242912989623, -0.8053123762429109, 1.490626660612626, 0.6815993662088546, -2.02909937417805, 2.034681955823407, -1.6708450219488, -1.0710936766290526, 1.4052507811646175, 2.836944945005683, -0.919131406299409, 4.882620638025279, -0.8328964614175158, 3.566745389668997, 2.3565671329049325], [-4.208191013823355, 3.1149200228381013, -0.2983168760125432, -2.0179573438805085, -2.448802157208635, 4.05136038433354, 0.7126069154939815, -5.185522972485808, -0.8479701137021901, 4.319200599656306, -1.172756667644374, -0.681204331701338, 1.423532563383988, 4.46253630102625, 0.24805436167882877, 0.19442616750863018], [0.19993722733654218, 4.001203368775655, 2.6082481471156043, -4.201160439277142, -0.724451210313964, 2.542361963645917, 4.518696753698984, -3.403608602527241, 2.3775979850402975, 1.5943315304348944, -1.2805254974462974, -1.845771994134584, 1.768202170893741, -2.008382947835183, 1.0090397171380436, 1.9161863600323121], [6.821935493034592, 2.1865975423086335, -0.706101248551167, -2.639189629971984, -0.6016287125548209, 1.7973475030448056, -1.7758522741789875, -0.0019368065386243805, -1.3878437201179588, -4.149241465962083, -4.410835532324827, 2.291924373901285, 4.0639256256958385, 3.5373237615692292, 1.0755271892064386, -2.8473258726684145], [-1.337760488267625, -1.578503470610595, -8.828518938277137, 0.6005024543917348, -0.23314665990389088, 4.163313887739049, -3.1711946382571004, 0.79266482700099, -0.8133829754014328, 1.1378502248013231, 1.1712590782595975, -3.854732959563772, 2.5630195871813832, -0.4469430116784521, 5.581386078039463, -0.8075850006480371], [0.12466954735087948, 2.3811263239287443, -0.46798284518415545, 2.4815077241194468, 0.9011219039495925, -0.3443430520743715, -2.7367443488377656, 4.922247216432426, -1.074628640552927, 0.6988359983575321, -0.03933348792047686, 2.3245167070622137, 1.6576123577973711, 1.868662173066192, -2.2659050682925366, 5.413019988647668], [0.6385632941753158, 1.163516216768118, 3.114696291179988, -2.775901912388404, -0.8003957340365023, 3.516862418063329, 0.297559457112502, -2.5108954537066075, 2.138304117827101, -3.8661558849336695, 4.7409718307796584, -3.2465285238529393, -1.6408365753290255, 1.9611049053683312, -1.1246647581325515, -3.0278290846111604]], "bias": [[-1.4247423348306911], [-5.248720236701884], [1.8847430279338422], [1.314112269738286], [-7.538448285979539], [1.8236611753131768], [3.439825072070228], [-1.1303670471060003], [2.6304100682621008], [-0.720340155748435], [0.265876224230004], [-5.707894901639262], [-2.906192822222779], [-2.157194200853508], [2.3288247782670273], [-0.5158974209190932], [-1.8581125093905424], [-0.018468056809037348], [3.295174283648266], [-2.6886284238703], [-2.0750619085338076], [-4.6682935357496325], [-0.22211605770661025], [-1.4163037482489649]]}, {"layer": "activation", "activation": "tanh", "activation_prime": "tanh_prime"}, {"layer": "dense", "input_size": 24, "output_size": 4, "weights": [[-3.941340596275184, 1.9461339295215545, 3.471313596702095, 1.6264796222404194, -0.38818752053472205, 5.055131505247076, 0.5242574861730291, -3.6933838659504095, -1.278348482003624, 0.9781166182627015, -0.3102796848174134, -2.410447222044338, 5.631801008015245, 1.2774306670776627, -1.5337365307186426, 1.8456839897925987, -4.598348220538354, -1.4523525621850761, -1.587585658485149, 0.991598192208299, 2.8731969328591904, -0.9366826652781886, -2.225263588190451, 5.5929073335074095], [0.9604623273242433, 1.0762717346964412, -3.171955856022074, -0.9798546198735731, 0.9305786009032965, -0.9613721376084505, -1.0339878587587605, 1.1548254107995453, -2.099219089573444, -1.4525926703971677, -0.938250553367346, 0.44945318192780137, 4.551093549936368, 1.8476436100424094, 1.071202789172534, -3.999508801217333, -2.0094049219927195, -9.319732039464965, 2.332915070561296, -3.970037356948494, -0.4083896400157312, -1.1457020591069011, 0.9495278032081814, -2.1542378859846085], [-2.4298910736745016, 0.23852374299300805, -1.6494893282712875, 0.9540065114729938, -1.2115286651754817, -4.200020260862675, 2.2029665044726694, -1.0748191352161827, 2.4794857232968726, 0.32656876258727946, -0.4222730555547001, 1.4270345696332256, 0.31581022204164516, -1.2890551447206153, 5.27278683803585, -2.237561650511481, 2.9504241591172886, -2.7509365956779903, 1.9610308018492841, 0.6521560183376136, 0.059788583349222435, -1.0911529611167397, -1.9200932905921837, 4.634978653024161], [-5.088189537913206, -3.3958723877357433, -0.08682910998426674, 2.141234578787455, 0.10723500918294848, 3.4800421156626293, -3.1390099667555997, 6.768604160874506, 8.04676430015327, -1.479461407930314, -0.7549826713123755, 0.17147504227206078, 3.6851508627340244, 0.09667814691989171, 0.6537706582750289, -0.43328786119617607, 0.8173663242577841, 0.3433551869742847, 0.874160572772398, 0.10947782397712673, -0.935827938729999, -1.6246445633387128, 3.4625677276641453, -0.6566214099610709]], "bias": [[-5.173815895690893], [1.4811025158823834], [-2.962853101573307], [0.6145891311405248]]}, {"layer": "activation", "activation": "sigmoid", "activation_prime": "sigmoid_prime"}]}