{"generation": 196, "fitness": 137439862982.9412, "network": [{"layer": "dense", "input_size": 16, "output_size": 24, "weights": [[0.5961533331528079, 4.2547250521881175, -4.217433181274779, 0.0019400263541070745, 1.9396827971754704, -2.0337530011591465, -1.8933779284144043, 0.3087202156816876, -2.1979793434532455, 8.623180964291866, -6.336943463034617, -0.7044515851891245, -3.9364707204987597, -3.8910122869401076, 1.6053090898996627, -1.8932602284112277], [2.7232491505057164, -3.0629890062872436, 1.3500101124953798, -1.766512595075671, -2.5212433066289988, 3.4965995982676326, -0.027041236496230414, 7.170294354293732, 0.05210283096314283, 1.6835128083439188, -4.264305435827229, -3.2851779475118406, -1.548375390629618, 3.5491318289219453, -1.4566914633878203, -2.5082638686507117], [0.7080444095365437, 4.980738775489268, -3.13380433481797, -1.2943558514284992, -3.708263952423989, -5.064273353326035, -1.3952624376480416, 2.0247990906585196, -2.079976688080502, -0.12853705611904556, -1.3646886049218883, 0.33310506673234475, 4.683095509825484, 7.006359305722276, -2.1411541513142813, -0.9577681582112053], [-0.509491918690492, 2.2635714800009845, -0.35103095923339334, -2.7982183240683085, 4.806196007114687, 2.4627971543720975, -1.6123318524623738, 2.16008690931363, -4.281755270109127, -0.7978764996299894, 4.776417887200254, -3.5735211727645666, -4.295841602594969, 3.6553776410174263, -0.6403588919371738, -0.17806862441715487], [1.7903008617748553, 3.525666224379043, 8.339601502562815, -0.2872703466358165, 0.8948590511798216, 3.695511710671352, 1.601019137730086, -1.712351493749591, -4.135256521890136, -2.938629548194003, 0.5006940097819925, 3.8957246123662257, 0.6743132409950474, 0.720510573217165, -2.869975129138341, -4.038647909367248], [1.0903536676171917, 3.9016137075850486, 1.9089786916592513, 3.987036398259373, 1.2299613282068418, 0.05404275812404663, -0.5575706559847556, -2.8945552497624503, -0.4599937667233032, -3.3600852742494784, 4.020723487758878, -2.326878113040953, 0.22389477049186235, -7.656700658043296, -0.41668327076810335, 0.3967134120786728], [-1.7440634971492535, 2.8198186839546233, -2.890667727140513, 3.4178278042528834, 1.6497311535333559, 6.496723626967476, -3.649778250892411, 0.9372185365791459, 1.356927971488906, -2.034405124126364, -4.7039813067330245, 6.2653545014094, -1.9025512847648682, -6.71413876774509, 9.632678472692808, 3.3310290389762867], [-4.305901752407409, 3.212185242100388, -0.48711166451699506, 3.5440651057658954, -0.8011549204915256, 2.205978111677445, 0.2133152467772078, -5.133943002656439, 1.4403223072508797, -0.05089789363855757, -0.7803456021052487, -0.8806347839515074, 0.17632963414843694, -2.0232950025688012, -1.912241295916696, 1.3243942394216877], [-3.969763141594773, 2.714669468178499, -1.165984992294037, -3.0234971759194633, -1.7548316899630754, -6.9997067392361165, 2.3726332461099986, -0.013004073486834411, 2.206346790621147, -1.1345761047311127, -1.8054998253810033, -1.8061764809374758, -2.6797954964856108, 1.3835481763769684, -2.0074426381170567, -0.7125362337471266], [-1.4955721012835508, 0.030197068504443425, 4.128480883296433, -5.470085686975841, -2.038392071107781, -0.6174577401350043, 2.5061254306363976, 2.735248683564264, -3.0399966443746633, -4.342253970135253, -0.547221166413699, -2.9360295055667325, 0.6094127727266284, -1.407723886084202, 6.9522530485893395, -2.9216141985144644], [1.3079448681342054, -1.3678856015693244, -5.574738713058121, 0.6389988567331925, -5.648813700541201, 1.5279196686522756, -1.269836308303129, -4.702715939577352, -0.674127503328305, -2.225831755128268, -2.2001130656486336, -2.75009476279076, -2.0239702335556147, -1.5096957780235136, -4.019341450476039, 5.468688821258102], [2.335771372876845, 1.6643793823144815, -3.5510622731216634, 2.449749546152055, 0.3118163260954173, -1.5192208377894276, -4.563048245039148, -1.4357250675093114, -7.024459617590214, 2.3064530322754533, 4.423342581695618, 1.4165922535214355, 2.208313783062299, 0.997175120169044, -0.8617374625301665, 2.7201211238771505], [2.3706687866273883, -0.42984861783879125, -3.14066908964794, 3.103984559340146, -2.9059761104704234, 2.6969268246005043, 3.6604349258098328, 2.665448715790475, 2.569497294650412, 0.6558867010756078, 3.452391715623386, 5.740200024407898, -3.0585101764441824, 6.709632617707445, -2.1109080393605253, 1.1575834121479183], [-1.7714953652171812, -3.7613930229027797, 0.7801717935623357, -8.21617701394727, 1.449053215501996, -2.657876568640005, 4.27788511242944, 0.5718041666052112, -2.624423852370314, -2.2610934269919363, 1.566194261682994, 6.58169610574423, 0.30580261011087606, -0.09463389251179566, 3.684871585137497, 1.0738049910492415], [-0.4689967002279032, 1.0048687791250472, 0.26017978809561, -3.4517411438470122, 2.1614281834729363, -1.001586445033087, 1.2251250179375202, 1.1929646129995186, 4.71930193449745, 2.8039119566920934, -6.010029952348263, -2.200847002196104, 2.9895016951310063, -0.3344723758232637, 0.8336411429232884, 1.2853026537590866], [3.6470114467802515, 2.452903463217749, 2.030627745194855, -2.3842407027484733, -1.430110826858995, 2.057655275558266, 4.516539502771591, -0.17141931935640684, 1.260453663923259, -1.4120371703328911, 1.7745594648427727, 0.39720026990210755, -0.6619225676647895, -1.5337981117666803, 1.1493999609538301, 2.7514382742311687], [-0.21261187270409643, -2.235779262106095, 3.858975083336749, -3.341464787161146, 0.416675472867987, -0.9095248330126693, -0.6132666964926495, 3.102653238242895, -2.2056221675375274, 5.3639541940995805, -4.11273665628812, 0.6574838818334837, 0.9622385861596784, 1.539554656969412, -3.120624269667133, -9.478805858391713], [0.997179101445589, 3.3209507567294807, -0.8053123762429109, 0.7349942246300191, 1.0865985716385864, -2.0712183545346927, 2.0016674129258947, -1.6708450219488, -1.1291911665766101, 3.413665767843615, 2.836944945005683, -0.919131406299409, 3.9482712486435045, -0.8328964614175158, 3.566745389668997, 2.3565671329049325], [-5.868028830359095, 3.1149200228381013, -0.2983168760125432, 0.6639634985738041, -2.448802157208635, 4.05136038433354, 0.780200826031778, -5.185522972485808, -0.1333275578859725, 4.358292900881552, -1.4671559745170883, 3.340580351955917, 1.423532563383988, 3.363405767849293, 0.24805436167882877, 1.3710642002412556], [0.19993722733654218, 4.001203368775655, 2.6427679301620355, -4.201160439277142, 0.9904472940003647, 2.2523324069469792, 4.438804068730562, -3.403608602527241, 2.3775979850402975, 1.5943315304348944, -1.2805254974462974, -2.5115150393893684, 1.768202170893741, -2.6175079946078963, 1.5912375774167293, 1.9161863600323121], [6.821935493034592, 2.1865975423086335, -1.4407237522743839, -3.264896254918519, -0.7106613043265095, 2.2130662395669822, -2.1928955633442335, -0.0019368065386243805, -2.433377355094868, -1.2209831962926092, -4.410835532324827, 1.53573854279557, 4.0639256256958385, 3.5373237615692292, 1.0755271892064386, -2.8473258726684145], [-1.337760488267625, -1.578503470610595, -8.946075504050755, 0.6005024543917348, -0.27469078476644715, 2.4397767710599245, -3.1711946382571004, 0.79266482700099, -0.8133829754014328, 1.331542093793598, 1.1712590782595975, -3.777145864220258, 2.5630195871813832, -0.9372817183194313, 5.118316414976216, 0.7648313973410474], [0.12466954735087948, 2.3811263239287443, -0.46798284518415545, 2.4815077241194468, 0.9011219039495925, -0.2676781378823976, -3.3618682186557094, 5.124040283161779, -1.920116621395577, 0.9695587591808215, -0.03933348792047686, 1.7367740927714062, 1.6576123577973711, 1.868662173066192, -1.3762396287525025, 5.65118597947477], [0.6385632941753158, 1.6857974195474075, 3.939000960501276, -1.5965314514888513, -0.8003957340365023, 3.516862418063329, 0.297559457112502, -2.4869622933340825, 2.138304117827101, -6.894285268914379, 4.7409718307796584, -4.521472273109259, -1.6408365753290255, 1.1359443465645627, -3.4316339153242166, -0.8886465799724043]], "bias": [[-1.4247423348306911], [-5.461995568279482], [1.8847430279338422], [1.314112269738286], [-7.538448285979539], [1.8236611753131768], [4.837375601197436], [-1.1303670471060003], [2.6304100682621008], [-1.2640868497473938], [0.08447539943881033], [-3.612549693573131], [-2.906192822222779], [-1.0200171683133936], [2.4840085840712174], [-0.35168596489805826], [-1.4857079445668866], [-0.22240623527179892], [3.295174283648266], [-2.6886284238703], [-0.6571442308912803], [-4.237292897070255], [-0.22211605770661025], [-1.4163037482489649]]}, {"layer": "activation", "activation": "tanh", "activation_prime": "tanh_prime"}, {"layer": "dense", "input_size": 24, "output_size": 4, "weights": [[-2.4642726620308553, 2.8523700183703307, 4.972454952051864, 3.089139766595073, -0.3594864708308006, 5.688497233519437, 0.5242574861730291, -3.5784714365270944, -2.068760342049104, -0.3833951939688802, -0.3102796848174134, -1.9204895240477056, 6.232958351027297, 1.2774306670776627, -1.5337365307186426, 2.3523610740028067, -3.4702299785027604, -1.4523525621850761, -1.587585658485149, -1.12965110347214, 2.8731969328591904, -0.9366826652781886, -2.225263588190451, 4.459294873683731], [0.07962872173344315, 1.6878386707217465, -1.4794510763089532, -2.9660105443012608, 1.1499486708102993, -0.21519931966176015, -1.0339878587587605, 1.1548254107995453, -3.0861129332833483, -1.4525926703971677, -0.938250553367346, -0.04983838720629008, 4.551093549936368, 1.9533821088544192, 1.8215412061705978, -5.2038847066591245, -2.0094049219927195, -9.333083034174226, 0.9484845095280005, -4.420439780405766, -3.327898099242002, -1.1457020591069011, 0.9495278032081814, -1.3403758472322398], [-2.4298910736745016, 0.23852374299300805, -0.9006313851927674, 0.831386974298896, -0.40768483962800783, -4.200020260862675, 1.9527259953803744, -0.16498954966866175, 2.4794857232968726, 0.32656876258727946, -0.7744013940061841, 0.41622575247643495, -0.05803732890750685, -1.1785441958761358, 5.27278683803585, -2.237561650511481, 2.9504241591172886, -2.861674724056302, 2.0680080817224575, 1.455494591585712, 0.059788583349222435, -1.2731150353609535, -0.9303526629113466, 2.696651984367878], [-4.006358429776782, -3.3958723877357433, -0.2331282236810558, 2.4719101515581627, 0.10723500918294848, 2.850764158588713, -2.329186275736877, 7.155856502142824, 8.54570562398438, -1.578854882014681, 0.6081263766084498, 0.17147504227206078, 5.015246678240467, 0.09667814691989171, -0.8546052293419972, 0.582619418963847, 0.8173663242577841, 1.17991416109967, -0.4333943734620766, 0.10947782397712673, -0.935827938729999, -1.6246445633387128, 3.4625677276641453, 0.9462894250012374]], "bias": [[-4.340782254879385], [2.118936746573974], [-3.361201253854636], [0.6145891311405248]]}, {"layer": "activation", "activation": "sigmoid", "activation_prime": "sigmoid_prime"}]}