{"generation": 201, "fitness": 34360572790.09049, "network": [{"layer": "dense", "input_size": 16, "output_size": 24, "weights": [[0.16013133325664075, 4.1623309927157885, -2.7798320066325335, 0.0019400263541070745, 1.9396827971754704, -4.147254487125879, -0.36435691040645946, -1.5280379945895175, -3.650402866147312, 7.939985731160786, -5.96250985979073, -0.4910475390047932, -3.9364707204987597, -4.054593041769964, 1.622541204340835, -2.6912818785476116], [2.7232491505057164, -0.6853611624270751, 1.3146141592689233, -0.7853717893175857, -4.738093553139011, 3.4965995982676326, 1.2509449068946132, 7.9216222611207225, 0.05210283096314283, 1.6835128083439188, -3.2420311063728704, -6.581068536351032, -3.0662001349841796, 2.1613865534922727, -0.6028261875478342, -3.1923692348984334], [1.2311194171556221, 4.980738775489268, -3.13380433481797, -1.2943558514284992, -3.708263952423989, -5.064273353326035, -2.371962916765571, 4.012886457114728, -2.079976688080502, -0.35202601016333807, -1.238039267266596, 0.33310506673234475, 4.283116125056755, 7.006359305722276, -2.1411541513142813, -0.9577681582112053], [-1.9609976372169688, 2.2635714800009845, -0.9911365895707882, -2.7982183240683085, 4.0885599759551265, 3.7114832749040287, -1.6123318524623738, 1.6962728755123109, -1.6621356736260844, -0.17619400327584023, 4.138560195898992, -2.5470025640691443, -6.392883293504626, 0.6268466987881185, -2.478366075311102, -0.9622732689531497], [2.0662147216431834, 1.519922880075645, 8.339601502562815, -0.2872703466358165, -1.0872582245463978, 4.426748791305998, 1.601019137730086, -1.712351493749591, -4.181272646620024, -2.230706169385339, 0.8362370574386333, 3.8957246123662257, 0.6743132409950474, 0.720510573217165, -3.3081161335818585, -4.038647909367248], [1.0903536676171917, 3.057771278154209, 1.6446924103539917, 5.612523108626582, 1.2299613282068418, 1.3571093565321097, -1.7414876922921128, -2.5214055385117025, -0.4599937667233032, -3.8489843547481346, 2.912981539463604, -2.326878113040953, -0.5976837021655387, -7.656700658043296, -0.41668327076810335, 1.0343277512270537], [-3.7402509398270496, 2.8198186839546233, -3.339688724693584, 3.5281496613253065, 2.8413897578534324, 8.802659628167739, -3.649778250892411, 1.1379740256133162, 1.1945520551245414, -2.7631944401109374, -2.7775862514661522, 5.159823610765615, -1.9025512847648682, -6.71413876774509, 9.129129328344522, 3.3310290389762867], [-5.537262673836418, 4.877442326553693, -0.48711166451699506, 3.5664863810279868, -0.8011549204915256, 2.205978111677445, 0.2133152467772078, -6.114944216158483, 1.4403223072508797, -0.05089789363855757, -1.8747906773484946, -0.8806347839515074, -1.475723112013712, 0.9546956702458693, -0.9250707954383302, 0.2603034024861417], [-3.969763141594773, 4.374160691469141, -1.0031559271155857, -2.9398408990116285, -1.0426826563690381, -7.93697126791771, 2.3726332461099986, -0.9392438310926056, 1.7656245746261359, -3.291763725000816, -1.5814387508655554, -1.8061764809374758, -2.69943035877802, 1.4612050123794735, -3.262373253069549, 0.5435879831694417], [-1.4517156499417498, -0.06930147420941402, 4.643442624468709, -4.4552423676354405, -2.454206435610172, -0.6174577401350043, 3.0925123954035723, 2.194415329717581, -2.6707560496830083, -4.284438048271067, -1.3457297950640732, -3.170493059162774, 0.6094127727266284, -0.1870635431640404, 6.970291575271674, -2.9216141985144644], [1.3079448681342054, -2.291780170625444, -4.4087113005393, 0.6389988567331925, -4.578006121273342, -0.7815637149713552, -1.269836308303129, -3.8535746331331135, 0.44319460958687207, -1.5431913171051495, -2.3198711377545473, -3.269017025520376, -0.19814148244247803, -1.5096957780235136, -5.398466006330847, 7.305649590183118], [3.407387520521439, 3.4270609978235616, -3.867217828244187, 2.449749546152055, 0.3118163260954173, 0.428075253187419, -6.125997907389522, -1.8838961144469635, -7.024459617590214, 3.2198262883684396, 1.920348921087928, 2.5504586914299177, 4.848623986505835, 4.075475425605576, -0.7907081395106953, 3.016393110424162], [4.471740801929554, -1.597945088730015, -3.272094269197878, 3.103984559340146, -2.197880007906237, 1.9312801396834305, 1.8479330305285409, 2.665448715790475, 2.569497294650412, -4.076412028970801, 3.452391715623386, 5.740200024407898, -3.0585101764441824, 5.989152034367281, -1.8275922837214489, 1.5916297190309328], [-1.7714953652171812, -1.148418545716541, 0.7801717935623357, -8.21617701394727, 1.449053215501996, -0.9774567822574187, 4.413508290934746, 3.4078258829889387, -3.347179704654977, -2.2662295724134167, 1.8307970368639632, 5.771362101665257, 0.30580261011087606, 0.8980269921940003, 1.2579304777249338, 1.3585132307144696], [0.5945015895552213, 1.8006341947464488, -0.9707681022717538, -2.8247031150011974, 2.1614281834729363, 0.6999765907532494, 1.7392819612604744, 1.5767083054541022, 4.71930193449745, 2.0387670275634404, -6.010029952348263, -2.403007356850382, 2.9895016951310063, -0.05168642305754462, 1.3917435337416546, 0.5196954959913395], [3.6470114467802515, 1.1734683824367498, 1.148513191939597, -3.4362472150811234, -0.9402648300060599, 3.9390854534975963, 4.656795175480633, -0.17141931935640684, 0.592491433561255, -1.4120371703328911, 1.777973256434302, 0.39720026990210755, -0.6619225676647895, -1.513494221090694, 1.1493999609538301, 4.316335055568775], [-1.3528666852522706, -1.906313358182011, 3.858975083336749, -3.341464787161146, -1.1191862792467044, 0.5337938189044369, -2.303569387430831, 2.7982172331679025, -2.2999684513832803, 5.901569445223502, -3.647225720073667, 0.6574838818334837, -1.031192882742022, 1.539554656969412, -2.124741776793438, -6.884969904326697], [0.997179101445589, 3.3209507567294807, -0.38740814382019967, 0.5981845525515987, 2.5910651922201886, -2.0712183545346927, 2.286002910842549, -1.6708450219488, -1.1291911665766101, 2.2117952439753115, 3.567146036930675, -0.919131406299409, 3.9482712486435045, -0.8328964614175158, 3.566745389668997, 1.9081332716993367], [-3.0691477517690475, 3.1149200228381013, -1.2187246095899598, -0.07393928600971456, -2.448802157208635, 4.05136038433354, 0.7126069154939815, -4.716572788071484, 0.7717768120187599, 4.337255575750241, 0.31029763847565417, -0.7330676487193062, -0.27122776521547753, 6.486382551894906, -0.3621056902704172, 0.5159201043600274], [0.5272608024674139, 4.001203368775655, 2.6082481471156043, -4.494427854472599, -0.724451210313964, 2.1126022406385063, 3.9936364306221552, -3.403608602527241, 1.831848890203184, 1.5943315304348944, -1.218476498401767, -1.845771994134584, 0.7788363765619295, -2.008382947835183, 1.5912375774167293, 1.9161863600323121], [6.821935493034592, 2.1865975423086335, -2.352017217766508, -1.6177167701797353, -1.8806497731262244, 3.9078025989897323, -4.015454988139702, 0.3819857946412625, 0.9701996881158297, -3.6407952076420402, -4.384036604930704, 1.53573854279557, 3.690663771696685, 3.0301176125587954, 1.763179602361268, -2.8473258726684145], [-1.1614114736024472, -1.578503470610595, -8.828518938277137, 0.6005024543917348, 0.1129489541355993, 3.4282839647517904, -3.1711946382571004, -0.516424667337736, -1.2856274105783698, 0.3474359818722462, 1.0868441342799944, -3.2207997400298485, 1.832966450791679, -0.3840276088659538, 5.581386078039463, 2.0531285619180752], [0.12466954735087948, 2.770566617254353, -0.46798284518415545, 2.4815077241194468, 0.8805889140313232, -0.2676781378823976, -3.3618682186557094, 4.579989250929673, -1.1842363305080887, 0.6988359983575321, 0.2956800389137436, 1.7367740927714062, 1.6576123577973711, 1.868662173066192, -1.3762396287525025, 5.468184880794289], [0.6385632941753158, 3.285119422768937, 3.939000960501276, -2.775901912388404, -2.851450222341402, 3.1155440178701967, -0.08753909555356332, -1.3418246710521855, 2.5326997714767514, -5.711994176542335, 4.7409718307796584, -5.890221889615315, -1.6408365753290255, -0.6516250085602622, -1.1246647581325515, -1.9506451083718859]], "bias": [[-2.80808198731291], [-5.236029595920748], [1.2647807280914127], [1.314112269738286], [-7.538448285979539], [1.8236611753131768], [3.439825072070228], [-0.5048386447326698], [1.4924541989527103], [-0.720340155748435], [0.863934875977177], [-3.612549693573131], [-1.0809439301204447], [-1.2735838469875858], [2.4840085840712174], [0.33308910540078696], [-1.0918836324617236], [-0.22240623527179892], [3.126034299206206], [-2.6886284238703], [-2.0750619085338076], [-4.615775720546415], [-0.22211605770661025], [-1.4163037482489649]]}, {"layer": "activation", "activation": "tanh", "activation_prime": "tanh_prime"}, {"layer": "dense", "input_size": 24, "output_size": 4, "weights": [[-3.0771270080836857, 1.9818358707729904, 3.471313596702095, 1.6264796222404194, -0.027023387922528452, 5.055131505247076, 0.9936888962146961, -3.9384637579380097, -1.9818598640253007, -0.3833951939688802, 0.019467112664140862, -2.410447222044338, 6.62562000885637, 1.2774306670776627, -1.5337365307186426, 1.8456839897925987, -5.159463986904721, -1.9085031389094127, -2.451270799874614, -1.12965110347214, 1.22650406418133, -0.07905697805085554, -3.3425930073318506, 5.5929073335074095], [0.9604623273242433, 1.6878386707217465, -3.171955856022074, -0.4614244511156056, 1.1615596054270023, -0.7522776163523652, -0.8392362719298102, 1.6249618070119625, -2.099219089573444, -0.8933473723281151, 0.10976155449267022, 1.6799064525702827, 3.4919224058074927, 1.9533821088544192, 0.5432386469111377, -3.999508801217333, -1.3318924679587556, -7.28516043393274, 0.9484845095280005, -3.997729864070059, -3.327898099242002, -0.7435795697552754, 1.6489805254861667, -2.1542378859846085], [-2.4298910736745016, 0.23852374299300805, -0.3257142322997436, 2.638977301207092, 0.5865633434288067, -2.4828510402128643, 1.9527259953803744, -2.879658439278203, 1.316832558901512, 0.5873005024640741, -0.7744013940061841, 2.375337089972586, 0.31581022204164516, -1.2890551447206153, 3.8279587006586473, -2.237561650511481, 2.9504241591172886, -3.529761893691642, 1.9610308018492841, 2.4691535306143115, 0.059788583349222435, -1.3770262446941914, -1.0114008093118245, 5.461957266868071], [-3.450302553339984, -2.9224537709808396, -0.2331282236810558, 2.141234578787455, 0.10723500918294848, 2.850764158588713, -3.4317592536534223, 7.155856502142824, 9.378428053527001, -1.578854882014681, -0.5208618698337101, 0.17147504227206078, 3.8967860561866745, 0.09667814691989171, 0.4091149094214006, -0.43328786119617607, 0.8837401224846331, 1.17991416109967, -0.4333943734620766, 0.10947782397712673, -1.3471838461184507, -1.6246445633387128, 3.4625677276641453, 1.84444284047432]], "bias": [[-5.173815895690893], [1.2729375368358868], [-2.962853101573307], [0.6145891311405248]]}, {"layer": "activation", "activation": "sigmoid", "activation_prime": "sigmoid_prime"}]}