{"generation": 206, "fitness": 68720353175.34758, "network": [{"layer": "dense", "input_size": 16, "output_size": 24, "weights": [[1.00046264607471, 4.2547250521881175, -4.217433181274779, -0.39034525223303224, 1.9396827971754704, -2.0337530011591465, -0.885993768539773, 0.3087202156816876, -2.1979793434532455, 9.345239015532082, -6.336943463034617, -0.7044515851891245, -1.022746748278068, -3.8910122869401076, 1.6053090898996627, -1.8932602284112277], [2.9520270052696835, -3.0629890062872436, 1.3500101124953798, -1.766512595075671, -1.6656941462279917, 3.4965995982676326, -0.027041236496230414, 6.988410127593709, 0.21654947562544516, 1.6835128083439188, -4.264305435827229, -3.2851779475118406, -1.548375390629618, 2.8536687866162502, -3.7574726667365903, -5.494092689497482], [0.16104107705549608, 4.980738775489268, -3.13380433481797, -1.2943558514284992, -3.004235771886683, -4.539867923506091, -1.4669448639975753, 2.0247990906585196, -2.079976688080502, -0.12853705611904556, -0.9844936377522072, 0.33310506673234475, 4.683095509825484, 7.006359305722276, -2.1411541513142813, -0.9577681582112053], [-0.13120569496664142, 2.2635714800009845, -0.35103095923339334, -2.7982183240683085, 4.301501909290772, 3.5400100892865063, -1.6123318524623738, 1.77633971732229, -4.718830335945636, 0.36028414088654626, 4.776417887200254, -3.9727185550568764, -4.295841602594969, 3.6553776410174263, -0.6403588919371738, -2.12256039468167], [1.7903008617748553, 3.525666224379043, 8.339601502562815, 2.36754120751969, 0.8200620493160401, 3.695511710671352, 2.098697892669613, -2.58387347618268, -4.135256521890136, -2.938629548194003, 0.5006940097819925, 3.8957246123662257, 0.6743132409950474, 2.436277513087899, -2.869317539272742, -4.4471904454287685], [1.0903536676171917, 5.201007634215497, 1.9089786916592513, 5.689663431769529, 1.2299613282068418, 0.13129227679962535, -0.5575706559847556, -2.8945552497624503, -0.4599937667233032, -4.819761193247605, 4.228200927553181, -2.326878113040953, 0.5488401283517823, -7.656700658043296, -0.19561901818019564, 0.5084636078220391], [-1.7440634971492535, 3.041074552329036, -3.6409850219914968, 5.715737929643729, 0.7017221345382845, 4.464985663986198, -3.8291536621895217, 0.9372185365791459, 1.356927971488906, -1.524242310988057, -3.4591383357240195, 6.246866347037116, -0.7997862662155912, -6.71413876774509, 8.731582621677301, 3.3310290389762867], [-4.305901752407409, 4.767823645658712, -0.05233981125161524, 3.224296905932327, -2.808994907725417, 2.205978111677445, 0.2133152467772078, -6.323044800193031, 1.9186095241574201, 0.4573810415631576, -0.27309895304455756, -1.7253342357788228, 0.17632963414843694, -2.0232950025688012, -1.912241295916696, 0.9112651534332903], [-3.8909669256459996, 2.714669468178499, -0.805485115573937, -2.615773968614904, -1.440390923436235, -7.313462442295235, 2.1256617349694165, 2.3368159703525704, 2.130902721735547, -1.5488386843300468, -0.6696217097923087, -1.8061764809374758, -2.4177332712537605, 1.3835481763769684, -2.0074426381170567, -0.7125362337471266], [-1.4955721012835508, 0.030197068504443425, 4.128480883296433, -5.573761990944349, -2.038392071107781, -1.3774769563692302, 2.5061254306363976, 2.735248683564264, -3.0399966443746633, -3.9890946482599166, -0.547221166413699, -2.9360295055667325, 0.4232587708023374, -1.407723886084202, 6.9522530485893395, -2.9216141985144644], [1.3079448681342054, -2.182236030659174, -2.3082721643838333, 0.6389988567331925, -5.648813700541201, 2.1668649158052506, -1.5488608460159419, -4.702715939577352, -0.6866953239987338, -1.7202505451680805, -2.2001130656486336, -2.75009476279076, -2.4213035086947876, -1.5096957780235136, -4.019341450476039, 5.468688821258102], [2.335771372876845, 1.6643793823144815, -1.960857473142993, 2.9315114466129577, 2.1296558944469397, -1.5192208377894276, -5.404240180090263, -1.4357250675093114, -5.903529953067249, 2.3064530322754533, 2.7882478580691994, 1.9561908275429425, 2.208313783062299, 0.997175120169044, -1.9941999654263438, 2.3780067182642566], [2.3706687866273883, 0.17347478149419493, -3.953988323857101, 3.103984559340146, -3.386476281959092, 3.6102670131574266, 3.6604349258098328, 2.665448715790475, 2.569497294650412, 0.7356497408740431, 3.452391715623386, 5.740200024407898, -2.137823942799912, 6.15335295011257, -2.1109080393605253, 1.1575834121479183], [-0.9163802155979319, -3.7613930229027797, 0.7801717935623357, -8.32979866782483, 2.8610530009133486, -2.657876568640005, 4.27788511242944, 0.5042189994652378, -2.786515888061006, -2.2610934269919363, 1.566194261682994, 6.58169610574423, 0.30580261011087606, -0.9654345795745862, 3.182720836668019, 1.0738049910492415], [-0.16952677523788356, 1.0048687791250472, 0.2005091474396492, -3.4517411438470122, 2.1614281834729363, -2.646867526800936, 1.2251250179375202, 1.793978008619264, 4.71930193449745, 2.8039119566920934, -6.010029952348263, -2.200847002196104, 2.9895016951310063, -0.3344723758232637, -0.40056648389731575, 1.2853026537590866], [3.6470114467802515, 2.452903463217749, 2.030627745194855, -2.3842407027484733, -1.430110826858995, 2.1622398514191423, 3.449398029818421, -0.2410997034836685, 1.260453663923259, -1.4120371703328911, 1.7745594648427727, 0.39720026990210755, -0.6884785682528839, -1.5337981117666803, 0.5469778402491873, 2.7514382742311687], [-0.21261187270409643, -2.235779262106095, 2.554999248080837, -3.341464787161146, 0.416675472867987, -0.9095248330126693, -0.6132666964926495, 3.102653238242895, -1.604232326290369, 5.3639541940995805, -4.11273665628812, 0.6574838818334837, 0.9622385861596784, 1.539554656969412, -3.120624269667133, -9.478805858391713], [0.997179101445589, 3.3209507567294807, -0.8053123762429109, 1.4016355624144183, -0.32213894523796816, -2.338994893895337, 2.0016674129258947, -1.6708450219488, -1.1291911665766101, 2.2655715084032515, 2.836944945005683, -0.919131406299409, 3.9482712486435045, -1.0456132952683928, 3.566745389668997, 2.3565671329049325], [-7.097321519182729, 3.1149200228381013, -0.2983168760125432, 0.6639634985738041, -2.448802157208635, 4.2015402194987415, 1.1404852183412215, -5.185522972485808, 2.3673050004343423, 4.358292900881552, -1.4671559745170883, 3.730881145466758, 2.4593523079158652, 3.363405767849293, -0.5235846532991804, 1.3710642002412556], [0.641320828460755, 4.001203368775655, 1.101250995281612, -4.201160439277142, 0.9904472940003647, 2.2523324069469792, 4.438804068730562, -3.403608602527241, 2.3775979850402975, 1.5943315304348944, -1.2805254974462974, -2.5115150393893684, 1.768202170893741, -2.6175079946078963, 1.5912375774167293, 1.9161863600323121], [6.821935493034592, 3.435930057489517, -1.4407237522743839, -3.127035246208347, -0.45187269688364795, 2.2130662395669822, -2.1928955633442335, -0.3886637405096718, -1.8552188975861506, -1.2209831962926092, -4.1315671818178, 1.0055988311603616, 4.840003026978067, 3.418833759449788, 1.0755271892064386, -2.8473258726684145], [-1.337760488267625, -1.578503470610595, -8.292554183235469, 0.9665326436404637, -0.27469078476644715, -0.3733123080796872, -3.1711946382571004, 0.79266482700099, -3.188134200845181, 1.331542093793598, 0.05681446277933011, -4.588940552651154, 5.013135558706855, -0.9372817183194313, 5.118316414976216, 0.7648313973410474], [0.12466954735087948, 2.3811263239287443, -0.3837791668554582, 2.4815077241194468, 0.9011219039495925, -0.2676781378823976, -1.2508681547015086, 5.124040283161779, -3.6219705921531062, 0.9695587591808215, -0.03933348792047686, 1.0012531402635103, 1.6576123577973711, 1.9479920764328307, -1.8851829767767947, 5.65118597947477], [1.2666885990400387, 1.6857974195474075, 3.455979176115486, -1.0423395736648897, -0.8003957340365023, 3.516862418063329, 0.297559457112502, -2.4869622933340825, 3.614182671520668, -7.687914025760924, 4.7409718307796584, -4.521472273109259, -1.1713847835135245, 2.37925946227307, -4.200274996284871, -0.8886465799724043]], "bias": [[-1.4247423348306911], [-5.461995568279482], [1.8847430279338422], [1.2180424916003372], [-7.731096056882953], [1.8236611753131768], [4.837375601197436], [-1.1303670471060003], [2.6304100682621008], [-0.7210295113051068], [0.08447539943881033], [-2.0022213768832424], [-2.906192822222779], [-1.0200171683133936], [2.4840085840712174], [-0.35168596489805826], [-1.4857079445668866], [-0.22240623527179892], [5.046798835241493], [-2.6886284238703], [-0.6571442308912803], [-5.915410874279374], [-0.22211605770661025], [-0.842605468284346]]}, {"layer": "activation", "activation": "tanh", "activation_prime": "tanh_prime"}, {"layer": "dense", "input_size": 24, "output_size": 4, "weights": [[-4.39466618704007, 3.7923087429685913, 3.8553178194793762, 3.089139766595073, -0.3594864708308006, 5.688497233519437, 0.5242574861730291, -3.5784714365270944, -3.132709034513577, 0.9348436530760922, -0.3102796848174134, -2.191726238479954, 5.717302692659267, -0.16277549121282875, -1.210208590484481, 2.3523610740028067, -3.582600533432603, -2.1063450867684907, -1.6769971256170297, -1.12965110347214, 2.8731969328591904, -0.6223491640125369, -2.8498560448612915, 3.631611325728794], [0.07962872173344315, 1.6878386707217465, -3.26339162243408, -2.9660105443012608, 1.1499486708102993, -0.21519931966176015, -1.0339878587587605, 1.1548254107995453, -3.0861129332833483, -1.4525926703971677, -3.9352535426594892, 0.1536451721775878, 4.990723624120015, 1.9533821088544192, 1.8215412061705978, -5.2038847066591245, -2.1067129144756405, -9.907129949800572, 0.9484845095280005, -4.420439780405766, -3.327898099242002, -2.6986359794437784, 0.9495278032081814, -0.40140111374542675], [-2.4298910736745016, 0.4022154733014168, -0.9006313851927674, 2.9122600908904004, -0.40768483962800783, -4.6088532250230205, 1.9527259953803744, -1.0392072565713808, 1.8628719246839947, 0.32656876258727946, -0.7744013940061841, -0.8063578232733941, -0.05803732890750685, -1.1785441958761358, 4.207577790950664, -2.237561650511481, 2.9504241591172886, -2.550807834949325, 2.0680080817224575, 1.455494591585712, 0.059788583349222435, -1.2731150353609535, -2.842324510169722, 2.696651984367878], [-4.60466571755803, -3.3958723877357433, -0.7504976913711887, 2.4719101515581627, 0.10723500918294848, 1.5835666637174641, -2.329186275736877, 7.155856502142824, 8.484964261869957, -1.578854882014681, -0.20241273344234142, 0.17147504227206078, 5.955875691070651, 0.09667814691989171, -0.8546052293419972, 1.135105315713247, 1.7265784025407607, 1.17991416109967, -0.4333943734620766, 0.10947782397712673, -0.935827938729999, -1.7319220452521282, 3.4625677276641453, 1.564036063210582]], "bias": [[-4.780608832452401], [0.524142631171969], [-3.361201253854636], [1.4246436306870578]]}, {"layer": "activation", "activation": "sigmoid", "activation_prime": "sigmoid_prime"}]}