{"generation": 212, "fitness": 274878869524.6569, "network": [{"layer": "dense", "input_size": 16, "output_size": 24, "weights": [[0.5961533331528079, 5.030314729450274, -4.217433181274779, -0.4632652928972897, 1.9396827971754704, -3.0195859584101967, -1.7314382141098759, 0.3087202156816876, -2.1979793434532455, 8.623180964291866, -6.336943463034617, -0.7044515851891245, -1.022746748278068, -2.7420967520486244, 2.271963058204032, -1.8932602284112277], [3.6809186875672215, -3.0629890062872436, 1.3500101124953798, -1.766512595075671, -2.5212433066289988, 3.4965995982676326, -2.136240578013643, 7.62249555088623, 0.05210283096314283, 0.8871601008061811, -3.4709447969688547, -3.2851779475118406, -1.1707347810539663, 3.5491318289219453, -3.6521944499641514, -2.8822427258701957], [0.13026165243339233, 4.980738775489268, -2.911536041366834, -1.2943558514284992, -2.819844697912897, -5.064273353326035, -1.69081508870736, 1.5632488362646648, -2.079976688080502, 0.817674294308056, -1.3646886049218883, 2.2731411754421913, 4.683095509825484, 7.340077058125987, -3.0910891785270596, -0.9577681582112053], [-0.509491918690492, 2.2635714800009845, -0.4085614787229589, -2.778968633559572, 4.301501909290772, 3.3397013628801315, -1.6123318524623738, 1.77633971732229, -3.6914850855557986, 0.36028414088654626, 3.3861954897704343, -4.294059976252878, -3.6031501667454338, 0.585829288268743, -0.47879685175334374, -1.0495180566994495], [-0.005461419086739708, 2.937048810922013, 8.339601502562815, 2.36754120751969, 0.8200620493160401, 3.695511710671352, 1.601019137730086, -1.712351493749591, -5.497650737360909, -2.938629548194003, 0.5006940097819925, 2.1878428214069277, 0.6743132409950474, 2.436277513087899, -2.40675220666599, -4.038647909367248], [0.9089063783558706, 5.201007634215497, -0.7108788226020142, 3.987036398259373, 1.7498758485911834, 0.13129227679962535, 0.7286713468425435, -4.129708452133106, -0.4599937667233032, -4.819761193247605, 5.635184214723893, -2.3284323701641796, 0.5488401283517823, -7.871991908382382, -0.41668327076810335, 0.6594571952200963], [-1.7440634971492535, 2.8198186839546233, -3.6409850219914968, 2.816400705306144, 1.6497311535333559, 6.78862078830174, -4.223689247754116, 0.9372185365791459, 2.804374270474396, -4.17828067433739, -4.7039813067330245, 6.1108713002924375, -1.9025512847648682, -6.71413876774509, 10.085818927962011, 5.082360099159338], [-5.09826817268415, 3.3832259929221253, -0.05233981125161524, 3.224296905932327, -0.8011549204915256, 2.205978111677445, 0.2133152467772078, -5.133943002656439, 1.9186095241574201, 0.4031620785768367, 0.7472048949056123, -0.677792893334386, -1.619893141566837, -2.0232950025688012, -1.912241295916696, 1.3243942394216877], [-4.450026182401171, 2.714669468178499, -1.165984992294037, -2.482482433910584, -1.7548316899630754, -8.967718668641513, 2.1256617349694165, 1.964530874413832, 3.4119106322182744, -3.286399081602305, -2.169398119192064, -1.8061764809374758, -2.6797954964856108, 1.3835481763769684, -2.0074426381170567, -1.0141856564507477], [-1.4955721012835508, 0.030197068504443425, 4.128480883296433, -5.470085686975841, -2.038392071107781, -1.136856811029141, 3.58795546242644, 3.83231113884171, -3.7140732549277167, -4.886886546591, 0.5096631355653343, -2.9360295055667325, 0.6094127727266284, -1.407723886084202, 6.9522530485893395, -2.9216141985144644], [0.85598772060912, -1.3527874266046147, -3.360978613062458, 0.328394530884678, -5.648813700541201, -1.3563615896418049, -1.269836308303129, -4.538645847238937, -0.6866953239987338, -0.16133044988746537, -2.2001130656486336, -2.775983421490902, -2.4213035086947876, -1.5096957780235136, -4.019341450476039, 5.468688821258102], [2.335771372876845, 1.6643793823144815, -1.960857473142993, 4.535493852168067, 0.3118163260954173, -1.5192208377894276, -4.220168817386883, -1.4357250675093114, -7.024459617590214, 3.383301660209196, 2.7882478580691994, 1.7200720229116269, 3.3488973229804744, 0.997175120169044, -0.8617374625301665, 2.12339956621455], [2.3706687866273883, 0.17347478149419493, -3.14066908964794, 3.103984559340146, -2.9059761104704234, 2.645304641118112, 3.505426545036593, 2.692006860552764, 2.569497294650412, 0.6558867010756078, 5.384232757395883, 5.0187087217969735, -3.0585101764441824, 4.892931859106385, -2.1109080393605253, 1.1575834121479183], [-0.9163802155979319, -4.271102715924212, 0.7801717935623357, -8.227905631861775, 0.9873638834548766, -0.24946013321461669, 2.844162583251272, 0.5042189994652378, -2.086770452087007, -2.2610934269919363, 1.566194261682994, 6.58169610574423, 0.30580261011087606, -0.09463389251179566, 1.862029541399786, 1.0738049910492415], [-0.5198929745916558, 1.0048687791250472, 0.1408936438803301, -2.690454123271837, 2.1614281834729363, -1.2857519106239765, 1.2251250179375202, 1.793978008619264, 4.71930193449745, 2.8039119566920934, -6.368759852916652, -2.188306061424773, 2.9895016951310063, -0.22968170585176356, -0.40056648389731575, 1.2853026537590866], [5.388402291943374, 2.812841808379957, 1.2174232224283166, -2.556658252546512, -1.430110826858995, 1.767733687283416, 4.515956787254036, -0.2410997034836685, 1.260453663923259, -1.4120371703328911, 1.7745594648427727, 0.39720026990210755, -1.5729755185408951, -0.4229372292397735, 1.177235607931154, 2.7514382742311687], [-0.21261187270409643, -3.8791000481617144, 3.2085043398650566, -3.341464787161146, 0.9452503917414665, -0.9588142944286152, -0.6132666964926495, 2.3658133391236085, -2.2056221675375274, 6.788570760712264, -4.172196050809568, 0.9115965858067283, 0.9622385861596784, 1.539554656969412, -3.120624269667133, -9.478805858391713], [-0.04992300960963236, 3.3209507567294807, -0.8053123762429109, 1.4016355624144183, -0.6298047417315882, -2.0712183545346927, 2.0016674129258947, -2.787220705408381, -1.1291911665766101, 2.2655715084032515, 2.836944945005683, -0.919131406299409, 3.9482712486435045, -0.8328964614175158, 3.566745389668997, 2.3565671329049325], [-5.868028830359095, 3.994927982392618, -0.2983168760125432, 0.6639634985738041, -1.7001176443336994, 4.2015402194987415, 0.9332650622135512, -5.185522972485808, -0.1333275578859725, 4.358292900881552, -0.9154475944831677, 3.730881145466758, 2.4593523079158652, 3.885218419360354, 0.24805436167882877, 0.6667237838951854], [0.641320828460755, 4.001203368775655, 3.043174393809007, -4.506578281610298, 0.9904472940003647, 1.4876947968089398, 4.438804068730562, -3.1534894696958387, 3.8275199886505074, 2.0924728690756784, -2.4284555571702615, -2.5115150393893684, 1.768202170893741, -3.017401779223969, 1.788437639121398, 1.9161863600323121], [6.821935493034592, 3.435930057489517, -1.4407237522743839, -5.605907528935047, -0.34132980222247095, 2.2130662395669822, -0.5062545000455052, -0.0019368065386243805, -2.433377355094868, -1.2209831962926092, -4.410835532324827, 1.0055988311603616, 4.3417654257952, 3.418833759449788, 1.8719222460995257, -2.8473258726684145], [-1.337760488267625, -2.366724530222127, -6.518680723851369, -0.3594156367560827, 0.5741989322319132, -0.483832387207901, -3.1711946382571004, 0.79266482700099, -3.188134200845181, 1.331542093793598, 1.1712590782595975, -3.777145864220258, 6.339228143066524, -0.9372817183194313, 4.507864917201809, 1.7407793590989986], [0.12466954735087948, 2.3811263239287443, -0.46798284518415545, 2.4815077241194468, 0.9011219039495925, -0.2676781378823976, -3.3618682186557094, 5.124040283161779, -3.6219705921531062, 0.9695587591808215, 0.785546326903274, 1.7367740927714062, 1.6576123577973711, 1.9479920764328307, -1.3762396287525025, 3.9582617765999304], [0.6385632941753158, 1.6857974195474075, 1.419713800886663, 0.4815178562800436, -0.46261145105785023, 4.349945140335714, 0.16112640769117068, -4.433724146137758, 2.138304117827101, -6.894285268914379, 4.7409718307796584, -2.7499895018239098, -1.6666132220644976, 1.1359443465645627, -4.200274996284871, -1.523144224021693]], "bias": [[-1.1305195841648752], [-6.1614699919681515], [1.8847430279338422], [2.258157105566317], [-8.64870449882033], [1.8236611753131768], [4.427362978242301], [-1.1303670471060003], [2.6304100682621008], [-0.8458786182616788], [0.030387807039121584], [-3.612549693573131], [-2.906192822222779], [-1.0200171683133936], [3.853977904522451], [-0.35168596489805826], [-1.4857079445668866], [0.15452408787101898], [4.615606775655181], [-2.6886284238703], [-1.4485698864835568], [-4.237292897070255], [-0.22211605770661025], [-1.971215129843796]]}, {"layer": "activation", "activation": "tanh", "activation_prime": "tanh_prime"}, {"layer": "dense", "input_size": 24, "output_size": 4, "weights": [[-2.4642726620308553, 3.7923087429685913, 3.8553178194793762, 3.089139766595073, 0.07791256670737656, 5.688497233519437, 0.2565062405607964, -3.5784714365270944, -3.151792255903661, -0.3833951939688802, -0.3102796848174134, -1.9204895240477056, 5.717302692659267, 1.2774306670776627, -1.5337365307186426, 2.3523610740028067, -3.4702299785027604, -0.579636363241274, -3.1963310854827847, -1.12965110347214, 2.8731969328591904, -1.1180287807784806, -3.673226263846522, 4.748932730139613], [3.379082003116329, 1.6878386707217465, -3.26339162243408, -1.5697922561900404, 1.1499486708102993, -0.21519931966176015, 0.06214017882829559, 1.1548254107995453, -3.7257318525043868, -1.4525926703971677, -3.4992354980220712, 0.1536451721775878, 3.3508596180166115, 1.9533821088544192, 2.572837171045113, -5.2038847066591245, -2.0094049219927195, -9.333083034174226, 0.9484845095280005, -4.420439780405766, -3.548961859259017, -2.252887508916564, 0.9495278032081814, -0.40140111374542675], [-2.4298910736745016, 0.5358325494306677, -0.9006313851927674, 3.0088156994997983, -0.02770149386455084, -4.6088532250230205, 1.9527259953803744, 0.35964122434011425, 1.8628719246839947, 0.32656876258727946, -0.7744013940061841, 0.41622575247643495, -0.7048419141604583, -1.1785441958761358, 4.207577790950664, -2.237561650511481, 2.9504241591172886, -2.550807834949325, 2.0680080817224575, 2.522645982194442, 0.059788583349222435, -2.2563222244340437, -2.0513140596521438, 3.2094032422346497], [-4.006358429776782, -3.3958723877357433, 1.6124733520108303, 2.4719101515581627, 0.10723500918294848, 1.5835666637174641, -3.0674663762521943, 7.155856502142824, 5.583110757996021, -1.8598243928182532, 0.14122684691622653, -0.7222743569388337, 5.243584422953871, 0.09667814691989171, 0.016695425367588612, 0.582619418963847, 0.8173663242577841, 1.17991416109967, -2.1373199195890784, 0.10947782397712673, -0.935827938729999, -1.5225683826813043, 3.4625677276641453, 1.8097156969429533]], "bias": [[-4.340782254879385], [2.118936746573974], [-3.8036944928334693], [-1.1987045917351238]]}, {"layer": "activation", "activation": "sigmoid", "activation_prime": "sigmoid_prime"}]}