{"generation": 22, "fitness": 473185.67122024985, "network": [{"layer": "dense", "input_size": 16, "output_size": 24, "weights": [[-3.7189136517045336, 0.41636690117599406, -0.34967500809305574, 0.6970717507814899, 1.1820683690662581, -0.4096508503555756, -0.7034942790258101, -0.6329060082813704, 0.4337804850120115, 0.6501430854459623, 0.22648070039877888, 0.7253847671206284, -0.39239341657281956, -0.4049398999285355, -0.032314306851403574, -1.0854538196680532], [1.2934010941339813, -0.418151570243646, 0.04751278609956722, -0.3295997737801839, 0.12181812371014633, -0.9766843497795128, -1.755852798563266, 5.087483789749765, -0.012993204574549555, 0.5269213804378954, -0.32548592165599155, -0.885376603542519, -1.317968471408879, -0.10715539724247608, 0.9360364670103594, 0.30281081357025363], [-0.7551435590816429, -0.8300949697645834, -3.4897218651934065, 0.5928346942021434, -0.8105090132304171, -1.2742242835306707, 0.9039555424834711, -0.07255117847476955, -0.3335055071140922, 3.134802860395376, -1.0092281372017529, 0.1962898101551358, -3.0971713038576096, -0.15456091092746638, 0.3298878512324205, 0.763723424757797], [1.2035411565829457, 2.0156480671148307, -0.035146439380706274, -1.2040272747737903, 4.459399973221316, 0.9534223151649444, 0.6812181430813202, 0.6689514916277703, 0.5122651143306773, 2.4067510493935647, 0.7797854411749527, -1.338338128504803, -1.368979255520618, -0.8413822605781928, 3.2460546829866708, 3.3360403656263387], [-0.8174561046914162, 0.8864836448851656, 1.272365619741299, 0.49478792373887875, 0.4916676256617154, -0.12981440361307817, -0.36790745753533993, -2.0241222121251763, -0.7842048484226259, 0.4246899620046094, 0.3014356114327581, 0.10961675403932869, -0.17049545265667687, 1.729313008751283, -0.3081051147646741, -1.678749527365955], [-0.1552469789641293, -0.05884487093655984, -0.5996006922981258, -0.6403175632827773, -1.093237822918558, 1.4394674149318014, 0.2915403043290137, -1.8326157598106685, -0.9250641912742072, -0.4344383009297028, 1.9963850215876089, 0.8855215084874344, 0.14651116411962029, -0.3683082036094536, -0.35632859640899595, -0.8425507045936126], [-0.15242878293453627, -0.8144322272422013, 0.4352291463056285, 0.8894899589826638, 0.6495389653329555, 1.1207253125977152, -0.42070588442714296, 2.2711233107337048, 2.730391901929817, 0.8259706277486767, -0.033539959595536795, 2.438292128080913, -0.5952348926726871, -1.4338578479793853, 2.6991943756656016, 0.8263463274725288], [-0.6538903593393738, -0.7863162825342127, 0.5855285634547571, -1.3110155467439883, -0.9581503386620638, 0.29519494601608276, -0.30155169878036125, -0.22636295110670468, 0.451270947816526, -0.43055696486471506, 0.3224173158664698, -0.5081192120117694, 0.3530849281582382, 1.58145294138762, 0.4431350375649592, 0.9186285361562923], [-1.5186167713933079, -0.7388949809029697, -0.7262793322214103, -0.7293474063830929, -0.012323633690905667, 1.6057213004085997, 0.7066384702372699, -0.15367525662779086, -0.04735828114628937, -0.5245187593926408, -0.8536649506653742, -0.2999024071862547, -0.18306775244493578, -2.1878267474226756, -0.46781003791944786, 0.2217072614143829], [0.9003091552736362, -0.2621310685347171, -0.5033313302754563, -2.577474957987036, -1.5939843119187833, -0.5915378706860082, 2.3125934334619505, -1.1415252714774957, -0.6575282324331764, -0.49816515200108447, 0.6473114531833113, -0.9363174117706277, 0.19538319004091764, 2.390151191667452, 0.3497846566721967, -0.9297239763298039], [0.34885078278482895, 0.4715781333565259, -0.6176330996610045, 1.4652867442564683, -0.5745294499656792, 0.26548300839880756, 0.12181213595282753, -2.322575310183539, -0.24822569812307993, -1.148482095899695, -2.2265832383706017, 0.0284890027858698, -0.1426829337776141, 2.188816140524904, -0.68553942331615, 0.19691969911712398], [1.988606113138058, 0.3443119178839096, -2.7519833921598797, 0.1580505670837118, 4.285181991375895, -0.23044809240600783, -3.867235823237821, 0.6332549475958024, -0.9208865304485001, -0.3826399918309922, -0.13803671099199658, 0.9452104040414295, -0.5615972289100144, -0.48564621442740585, -0.7981950038657455, 4.8799972421114735], [-0.02211888804545481, 0.36952728065151774, 0.37841517038080197, -0.962063999779512, 1.7870023539746016, 0.736360934986056, 1.8127982859286036, 1.8987734058168977, 0.5614860827831063, 2.011350545670423, 1.0336129006235115, 2.5313209494889803, 1.5855407729732027, 0.21151330296921533, -1.4451824641521471, 1.2209387487005863], [-0.21836968507985755, -1.227564233832962, -0.370880465082857, -1.5923631331895547, 0.3896145173680259, -0.7963381384650534, -0.8041662640971037, -0.5351231716525111, 0.5445115501049935, -0.04503607396919028, -0.26904547554958547, 0.9660480786793686, -0.045756489569578895, -0.5800762156107622, 0.9684946890434325, -0.8646820268112608], [-0.17155695623904604, -1.172074362676333, -0.8013285812190403, -0.4959177512056543, 0.5731747044462374, 1.5102874564400839, 0.02002677640065076, 0.3439751373875056, -0.07598248295521315, 1.6477103667208215, -3.055509400978436, 0.24454321555589775, 0.7317604777811852, -0.555560081580668, -0.9512382156548539, 2.0280862476478667], [0.8844744122575702, 0.20584526298374928, 0.5612087479164006, 1.3858933418134896, 0.8651494677005205, 0.8800206848021268, 0.6697496763649178, -0.4376451358107081, -0.8863850885918438, -0.7249291318000931, -0.19692150818017806, -0.24315476488601395, 2.347613521198679, 0.7905400810201294, 0.7775923441759018, 0.11459592554755882], [-0.5261629884045974, 0.32903331328902574, 0.3491110866134851, 0.7348068647987227, -0.36583008390902905, -0.6096671098734763, 0.18580963521473315, -0.20379487304426003, -0.5069927830922158, -0.1788600082787113, 0.9961350879822155, 0.46118767654415616, -1.110485506229905, 0.2602229435264731, 0.6584403463414654, -0.34619377278771135], [-1.0408812282922502, 1.6716992764534169, 0.45179967828891554, 0.5507277912633997, 0.11276157940997633, -0.6981627531778627, -0.3935640365306928, -4.242334402128204, 0.23167308772076345, 0.6073530522269905, 0.414621688514465, 1.4164179599383213, 0.6298981075674337, -0.5082979339928841, 1.175098216987101, 0.7457999334946552], [-0.38784866103449445, 0.5025481787961812, -0.666995220011552, -0.48471390498469047, -0.9661896789191846, 1.803594560964589, 0.7886512526554339, -3.068837858356657, -0.6145483355032828, 0.159725754901338, 0.44603322208708823, -1.2908597815105516, -0.7748120275196986, 1.449355482739854, 0.9010243229868216, 0.6377145127494692], [1.7535222215632844, 0.14356676629796195, 0.19488226961613592, -2.528232307475999, 0.4709051186450305, -0.5754821673255064, 0.19474823857642615, 0.5013658831401, 0.4086768391080051, 0.4308849403339521, 0.6086945280252585, -1.302593165977915, -0.6894242078449648, 0.24102163349943528, 2.0832920245902073, 0.35826922057264204], [2.460077018302093, 0.25959016690258796, -2.035902198381331, 0.3373172296922875, -0.30420205755812035, -0.288885386038424, 0.4113061069943551, 0.08161977892127587, 0.5948714722400276, -0.07527750332774408, -4.065215341370852, -0.8829602003297021, 2.7530923318906946, 4.3003086608206536, -1.4824585368191698, -0.47678982884726917], [-0.48896254770013803, 0.5986322931052592, -0.9279757931343915, 1.6345697015972882, -2.4975898864662254, -0.7341639414760706, -0.6610669255754318, 0.10423622789428744, -0.3311829138235114, -1.8743458023334336, -0.5890814259575519, -0.317746451903744, -1.059999490190548, -1.638447427899385, 2.2490427170270744, 0.9946839480858809], [0.3373076101962271, 0.3646518227565967, -0.13895464160097237, 0.5924042090335215, -0.5950029772134613, 0.2212113247395261, 0.9230721982374095, 0.9777912109347644, 0.2518066177762903, 0.5802667677823748, -0.4731341941114737, 1.6526539250759376, 0.8803368775799425, 0.581745714457925, -2.2561046877515025, 2.08624941210228], [0.5448729262057205, 0.15895339746885595, 1.0543849335475461, -0.7140998040690267, -0.2604855993942423, 2.64498481076259, -0.709877168287969, -0.6355440647256603, -0.4238181496289062, -0.3327097672797952, 0.517382481775566, -0.020515090827645244, -0.700865416792108, 0.7712509854905063, 0.9098186094703672, 1.1295118996130529]], "bias": [[-0.23650921478557752], [0.09866718903037952], [0.13578606165408336], [0.7378838146437927], [-2.0433286457376205], [-0.003366500589045973], [0.5699101732293841], [-0.2916049506008993], [-0.27088078721911657], [-0.1223333507489972], [-1.0474578923379472], [-0.44665543011917785], [0.06472207890520687], [0.3680113618684213], [2.3010126147167664], [-0.47969798923996093], [0.29201113302506787], [0.5825344777481998], [0.7444287433927821], [-1.1613645901253713], [-0.13669985934045922], [-0.8454810025959707], [-0.2748027334913159], [-0.4806980076775359]]}, {"layer": "activation", "activation": "tanh", "activation_prime": "tanh_prime"}, {"layer": "dense", "input_size": 24, "output_size": 4, "weights": [[-1.5114530473896501, -0.46248998810051234, 0.13190254095947918, 2.8703099106591967, 0.9247583002168827, 1.437885686869903, -0.0816766432126883, -0.07178554577469165, -0.47980829914279177, -1.0989272302835915, -0.18906342915664842, 0.5934432149802362, 0.2376625908667619, -0.3456219801361003, -1.2706045604085732, 0.775310657395119, 0.17824839184830754, -0.10784659962713805, -1.2864533432984682, 0.5380627597511616, 2.8510849173102253, -1.5395258763334956, -2.121032803511686, 1.463125359916975], [-0.2736295568097572, 0.930617092568724, -0.018885199328003033, 0.9085904766966922, -0.7013578639354408, -0.9902087244427238, -0.7515014143855586, 0.1765117921845767, 0.05660061045850662, -1.4422166728551225, -1.0184355659568, -0.5661500175225953, 0.315496062204337, 1.1146452278569166, -0.4693651352236273, -2.2976369187022687, 0.2215239221505676, -4.240757804579119, 0.2396937522987701, 0.34427804829806186, 0.795244989022913, -0.9749317583638124, -0.9454214335079549, -0.37342756584317593], [-1.2222128380125072, -0.005101942411853688, 0.6168881769961392, 0.8974296222951739, -0.10208141779370883, -2.2671834822541808, -1.3738459194108894, 0.9222856734582727, 0.4694573116578433, 0.5843849643723344, -0.8781658409088944, -0.296323593658302, 0.8637809310731746, -0.6711532385294752, 0.5281646838353934, 0.41453705843675115, 0.7528335125144345, 1.3414539182663, -0.7220621460537902, 1.3226542792697131, -0.22954583412115395, 0.1311151878040694, 0.05827144858638844, -0.15992353053883313], [0.06757036875128208, -0.5373692695891212, 0.16241477451582154, -0.6843118066848857, 0.701095549482539, 0.2852729441237063, -1.7717175187832481, -1.6708524037929895, 1.3910878963550934, -0.5444200410350624, 0.8852974251785235, 0.9904828633909362, 4.431468249147299, -0.5479035191079957, 0.8262084955359414, -1.2306830594074991, -1.206451666361362, 2.682725895791692, 0.8843741766042188, -0.049591205710095565, -0.3351702233065892, 0.34449616237187675, 0.2765502291678813, -0.34657115831402807]], "bias": [[-0.5226330858732176], [0.8410069675377281], [-1.0764434001256489], [0.08645361629632797]]}, {"layer": "activation", "activation": "sigmoid", "activation_prime": "sigmoid_prime"}]}