{"generation": 24, "fitness": 63140.66030726172, "network": [{"layer": "dense", "input_size": 16, "output_size": 24, "weights": [[0.5297487207900196, 1.3402931532686226, -1.8289809755846884, 0.30592160946138547, 1.207439197225289, -3.8367623167207947, 0.207591928000383, -2.1099982815651184, 0.23320741284523816, 1.6129920736501406, 0.2861493569830045, -0.6051573758534392, -0.40218779361582646, 1.633301033293321, -0.837839319947709, 0.47560482151753214], [-0.9254018874133876, 1.3510120425332193, 0.20544472756608317, 0.4978679419406369, 0.6793398446828052, 0.7658095584626329, 0.6736878229579197, 0.9744208087464122, -1.0308228313771968, -0.29112314137136774, -2.1942556989555055, 3.301541405797638, -3.1517645360029976, 0.14252759073710597, -0.2029445610377163, 3.255766140226993], [0.8007815759826686, 2.0955345054434407, 0.12163890607858735, -2.001500521656873, -0.5990116027394595, 2.722090091923676, -0.3011477022243296, 0.822475347220289, 3.0317500122581276, -0.8115418204348641, 2.26319435335135, -0.1936253898371203, -0.8901280112226713, 0.07034213216365208, 0.5332103515744843, -0.7714894174491009], [0.4986370404835454, 0.5758256051568615, 2.495102241726491, -0.9772081671131326, 0.7549991575475632, -2.2765387924272273, -0.9556847936566726, 0.847289427130387, 0.10041957309751348, -0.7027323074807219, -0.6955829572358099, -0.44650290324857966, -0.9957827139494508, -0.9058115035836845, -0.7238508524444138, -1.2454394261159223], [-0.19900626433618204, -0.9776358873328561, 0.35987808712263925, 1.0566321373299694, 2.7671040698216727, -1.9203851914325079, 0.31843017208328245, 0.6309085327875398, -0.8697490517952164, -0.14802684581817538, 0.7115258994876013, -0.34040848259952716, -0.15446131206019117, 0.5010594893204865, -1.0632269693671308, 0.5612056659372799], [1.2196548208902915, 2.462397684935638, -0.3101294880707127, -1.4153258190211635, -0.22282458469971578, -0.9813744103312146, 1.3609293787162544, -0.9727992617287462, -0.8123766577857704, 2.0591882672327926, -1.5306769266260218, -0.3985345332695339, 0.3952444772429402, 1.4165938789974655, -0.9488009062162379, 1.7258555110938816], [0.7853094119494362, -0.10455741625290726, -1.002725694227816, -0.6844783225033484, 0.10722091344929074, -0.41241481230470833, -2.402840332429156, -1.2534174625473593, -0.6666269812489465, -0.20796596737058293, 0.913115772256484, 0.13934438290945372, 0.9928079744226413, -0.3040800247544564, 0.5392342222745157, -1.2225720003095732], [-1.4276258140572187, -0.4518299119089719, 1.246972709607023, 0.5376855221405386, 1.712658339820449, -0.09078973905944698, 0.09527859430189367, -1.2982649202665748, -2.5895521960946946, -0.8395353205259908, 0.24748217323653687, -0.5406982884436098, 0.8914608128602766, 0.10967352017327348, 0.18011369105722544, -0.45017723004900106], [-1.391225561791715, 0.5664360547217921, 0.38847719764243105, -0.107263366358062, 1.460373602218994, 0.061808866334885915, -0.3730973629486274, 1.5814435143787682, 2.4499008494728147, 1.6541030934206273, 0.5992093344903656, -1.749215064357501, -1.0443180421853246, -1.2763273093683036, -0.2042138156244493, -0.2633388154162236], [1.012117013398056, 0.15131287712805563, -0.2874339904193552, -0.36482773740973684, -1.4436320307840318, 0.5794165299674472, 0.13276957875825857, 0.9112495110709515, 0.7984993246826337, -1.9177457899578405, -1.356592282655579, -2.7811772649621807, -0.06368033021965744, -2.58981142797408, -0.39267433118000494, 1.269309742179432], [-1.304752217624575, 0.8941440679475303, 2.125018116792943, -0.573200929337903, 0.12952103295546158, -0.8677529911963131, 2.32973958094024, -1.3467641873605436, -1.5933228490772358, -1.3060159293218427, -1.6111901024179471, 2.559502483614052, 0.5191313633940069, -0.46754571959382374, -0.5934464815023026, -2.044115474622015], [-0.6352173918201188, -0.024016143435409087, 0.7087214541060263, -2.762161227330729, -1.0287724575991088, -0.003725752068722832, 0.38283967547947817, -0.8612674438287897, 0.8276932690830487, 0.46209314789260825, 1.81801541972844, -0.6203266660977118, -0.4069393893196538, -2.801984398610653, 0.9138597704383502, 0.8715112815314325], [-1.118347384359576, -1.221153255019797, 3.5107503290191557, -1.4199243962629717, -0.31689482814534753, -0.6479795983068706, 0.7650671851906315, -2.4912297144039184, 0.8715993864993286, 0.5203744259221923, 0.39178431246066303, 0.7545479001778319, 0.708981683260745, 0.7868626993838723, -0.24959078379787325, -0.29628390671434235], [-0.9590555516649814, 0.8722502960731964, 0.6420816834191121, -1.0017611871447103, 0.9487867888331881, -0.7666375973098777, 1.5315283487336995, 1.9341301107845075, -1.1802485210216023, -0.7402791081809774, 0.4225061159571989, 0.5648542599817905, 0.7586116890901488, -0.4276350469292616, -1.6361752229363618, 0.669866251136938], [-0.492207314556379, 0.6969065718055809, 0.9800121501080827, 0.5898668245890366, -2.5917557248805316, -3.077680236690367, -0.49996768887903853, -1.4793443477971109, -0.9404513836208193, 0.3603327135144615, 2.002368350718842, -0.26912355515254605, 0.0899701943498954, 1.0561035665104956, -0.5561223642297749, -1.9014890464522995], [1.8420626849275417, -0.4188446045411454, -2.7651783404176493, -1.1073496707388082, -3.18936510928997, -0.9025768590894037, -0.3160242549690393, -1.1769993011184086, -3.0275348204312733, -0.1577129744348736, 0.48863188442011973, -0.6212243208048496, -1.7353999814412706, 0.13849096648461412, -0.8556453152794272, 2.708246922617206], [0.35748856995872547, -0.20483606799727094, 2.8321941011764222, 0.7671381412290426, 0.036079723324569546, 0.2845964170694293, -1.4376183505749462, 1.2387946347946448, 0.6323846465152134, -1.334037059865528, 0.38047081606834254, 0.2270422922042314, 3.611505445246687, 0.6351086556674612, -0.6061588956966862, -1.6492765362061188], [0.3464457740631741, -0.9366335307619376, 1.4720760546552834, 0.34558657272538507, 1.6361491039987832, -0.7277795941814036, 1.261177051034281, 0.3844708096216438, 0.33892354450119777, 0.41587157997071067, 0.9319961464768161, 2.9487776287228766, -2.1921282196592857, 0.4433736444182671, -0.3094243597978321, -1.1321426254078883], [-0.8854079169736437, -1.7165009805049183, 0.7514437934217439, -1.8318328611224106, 0.945649018045037, 0.6732187516351852, 0.9795344677042797, 0.7273019870419739, 0.4693965695318154, -0.9238420444896953, 0.2845552608213249, 2.3563483537804433, -0.3861038794102556, 0.06825197370954461, 1.0170610949118466, -0.12592550066317476], [3.302328893815765, 0.7965789148927874, 2.554756813217635, 0.6542639381899682, 0.8543568728541272, 0.7338957484614987, 1.1389079336193464, 0.26243965214565224, -3.266265465029792, -1.7427793362522603, -0.1368598684483141, -1.7011948104488457, 2.27857215943577, 0.6428818497935204, -0.5617546184856888, -0.575694745731093], [-0.2667248236180795, -0.3020607320464912, 0.1121963760366822, 1.0236339368284106, 0.19080032319476115, 0.12177168600629273, 1.785591873523398, -0.03225150555983569, 0.5636463170549448, 1.5733044762716986, -0.11044737527593197, -1.1387599222278537, 0.5138439371497097, -1.335319938348632, -0.796256837617531, 0.23075948907983934], [1.019215005523407, 0.24369083902557542, -0.40212876919086615, 0.9159122303488193, 0.4650184221377267, 1.1344891343155963, -0.0007987344786510864, -0.30852761177584, -0.001033595889789074, -0.9885545142106877, 0.7082836283813292, -0.27030673713543285, 0.9821089129809557, 0.8515639620563284, -0.6731085162593147, 0.7520690192053545], [1.6851024268550368, 1.533540550934955, -0.502813415203559, 0.9657474130104367, -1.8398241090353162, -0.20521926561329307, -0.3965347898935154, 0.33825258643997036, 1.461987895816007, 1.8238527767630328, 0.7367676939638266, -2.368854718321545, 0.26976859010786747, 0.25871104501674425, -0.22599992795157964, 0.9731269803908853], [-1.6903670683508958, 0.6375540067936316, -0.7656906312043743, 0.9682073350786632, 0.31284658260444903, 0.7489317899766742, -1.0870185683642566, -1.9146378195772658, 2.1965726104497874, 0.8176349344933356, -0.884602301542857, -0.8126228538582067, -0.16620672473260206, 0.8560356819930777, 0.5931567389015885, -0.2812403989557877]], "bias": [[-0.38960885745098106], [1.055543048510384], [1.5464103177979098], [0.3304486660346009], [0.0452784007941574], [0.49138752830111243], [1.0160078198518243], [0.4223280004460934], [0.08791783591980495], [-1.9846218292413158], [0.13191608924182585], [-0.33224570191193226], [-0.831250893934093], [0.08080645375732387], [-3.227063090772787], [0.2648073387503986], [0.3371510816540749], [0.05799351365186367], [0.27181334633404], [0.2771203245906271], [0.2593506937755323], [3.4610959479212973], [-0.31947502800599437], [0.7428481984122337]]}, {"layer": "activation", "activation": "tanh", "activation_prime": "tanh_prime"}, {"layer": "dense", "input_size": 24, "output_size": 4, "weights": [[-0.6798874403134798, 0.43867225488312556, -0.3057171956966214, -0.776991459871561, 1.5141014577059007, -0.20338038872420938, 0.32146240799295933, -0.9044542155817337, 0.20856153847669567, 0.12813617438188485, 0.8109415133680693, 0.48581845806915713, -0.9812255058982589, -0.8011303180955551, -0.5156659745209986, -0.8523503516399666, 2.1025436033982565, 0.18841537443426404, 1.6429559268463347, -0.588100124191115, -0.5765624681324552, 0.39588300027637113, 1.5312223244420453, -0.21012450945018157], [-0.7948410749154434, 1.4628563340609468, -0.22667553388630152, -0.13876307344557914, 0.567230440787536, 0.39992510974560497, 1.222846813191795, -0.26769136785170156, -0.08464436935477493, -0.6786454501887009, -0.8981296516064774, -2.6111873285000957, -0.6201572095480519, 1.388456099632138, 1.2643033992076655, 2.5833233863659806, 0.7344696606163685, 1.84424535800167, 0.23465570304906858, -0.622292412940946, -0.9719532645931936, 1.9526983423825697, 0.006100172564194706, -0.8771153641297309], [2.9882885710027405, 0.5770753034374314, -0.2682455769028138, 1.2899061457921328, 2.7149542042900245, 0.008216306697339304, 2.0547827541656076, 0.23093505783098478, -0.08178275156365783, 0.6823588207213436, 3.1841071751339287, -0.27991659360374666, -0.1542229956280929, 1.6612285768079518, 0.47259302883825316, 0.01299185805576697, 0.000952389372740059, 0.20530558282038647, 2.2118715468783146, 0.5694292590581793, 0.8802783852576221, 0.5754055902935491, -0.5888193799420605, 1.6086579920824204], [0.7947371585571694, -0.6979080523663894, 0.07291821380751962, -1.7819275253422322, -0.15515556486747328, 1.823661976270662, 0.4139417055568886, 0.45785026433625026, 0.9997884682144418, -0.31598767439266107, -0.9281187688551515, -0.1179075746292002, -0.37408705963140265, 0.4066350547708556, 0.011415711921999527, 0.6502687826822802, -0.4346753258724134, 0.8704783304097297, -1.659716376376498, -2.77074582324005, -1.4006569645347737, 1.83591516681154, -0.6922855582787948, 0.378527448139268]], "bias": [[-0.054146872747731556], [-0.9399382251478776], [-0.5342225074484885], [-0.614576944532737]]}, {"layer": "activation", "activation": "sigmoid", "activation_prime": "sigmoid_prime"}]}