{"generation": 256, "fitness": 4503599629238118.0, "network": [{"layer": "dense", "input_size": 16, "output_size": 24, "weights": [[-1.5755190943779898, 3.151455188928596, -4.217433181274779, 2.3409819880798297, -0.06052249143743427, -1.3142079413560903, -2.118978990687051, 0.9427314719045818, -1.9324517687367926, 7.740313727241219, -7.668805741893719, -0.19061003755354244, -1.022746748278068, -2.7420967520486244, 3.9410778436508402, 1.1924828514663712], [2.0812207804932434, -3.012923881033344, 0.412955891638796, -0.2429715954966123, -2.7497410991768816, 5.691539617497981, 0.18685819776250434, 7.72394450723755, 0.3570774416809648, 2.997326762353747, -3.4709447969688547, -5.991579376443853, 0.27492825509291097, 2.3878320706200347, -1.7889672986249592, -2.8822427258701957], [0.07250456256153455, 5.266949849162875, -3.4206121355754098, -1.2047773653996525, -1.931797695632626, -6.196472270082675, -0.976659026917027, 2.828728577061362, 0.13590534502138735, 0.8896669547499091, -1.219609843758297, 2.8495330795559703, 6.814478088405665, 6.666327061016945, -3.534925887570613, 0.4988592499979134], [-1.2301995138187434, 5.337723650047074, 1.227114533598793, -2.778968633559572, 4.954717983325311, 1.0284791853771968, -3.8453878824019303, 1.0215465127374943, -3.5894955545774017, 2.737292964701636, 2.001824862588677, -3.8108298166531864, -3.1534793982848743, 4.5520060831983855, -1.1542241798291433, -0.05325986959553575], [1.742489238624171, 5.234090089947776, 9.19136054952382, 1.9477262801340336, 0.7919614142868524, 1.2329732619749787, 2.008200317581053, -3.3299926718402553, -5.497650737360909, -2.938629548194003, 1.7712075225606734, 3.9506223053406355, 5.530794343256358, 4.31259714662837, -2.7984109152463637, -3.5205876256852218], [1.082184616515217, 1.2655877367525532, -0.16937801475328995, 3.987036398259373, 0.32416337485014424, -0.6267976917757616, -0.3045669564277969, -2.955033567223258, -0.5078110611906221, -3.1426167963255676, 6.39770310416657, -2.3284323701641796, -0.7400787265975035, -12.699333646605577, -1.1355951247181695, 0.3967134120786728], [-1.624331089153045, 1.692271538950986, -3.454939995163901, 1.9781369965061573, 0.14891953157425403, 7.398986613083218, -3.477478067111422, 3.0114806743731064, 0.11275143543587252, -2.034405124126364, -3.828599694371082, 8.174189453479114, -3.765299278016561, -2.2780723922336636, 10.284179425177648, 5.008734280443813], [-5.809746184234445, 3.759803400193513, -0.05233981125161524, 4.325572753995498, -0.8011549204915256, 2.205978111677445, 0.7351222772485493, -5.093792092197622, -0.2046219420951464, -0.05089789363855757, -0.09471010357540033, -0.8435558706225346, -1.3588292443271213, -2.0232950025688012, -0.16718050134151385, 1.5368099065835854], [-3.9648140460716244, 2.8070456706199067, -1.943151639197386, -2.8518230009125767, -1.1982760540816566, -6.535295667656861, 3.507245301875902, 3.5082541116026222, 4.089925067249162, -2.3803588984473487, -3.0350992384613202, -2.3331485015523348, -2.702097996255647, 0.22471390911234934, -2.186103438346317, -0.9017442288421846], [1.0882811284321006, -2.1752817760664027, 4.955895460333209, -7.82519574685141, -2.552733772186702, -1.2017435563030447, 1.0991925401646583, 2.334351500241659, -1.9904594403245746, -5.725735578249672, -2.5168514094317174, -5.054733576223196, 0.6094127727266284, -0.5785277261735662, 7.400816377809917, -2.0752792575022996], [5.879892028113719, -5.3208878019754025, 0.268187902046192, -2.0705219089557567, -5.876807790304057, 2.2825153759339516, -0.3590155399314543, -3.8238209268031227, -2.408642492980562, -1.735132529416927, -4.068593393573506, -3.6942491088893004, -2.4213035086947876, -1.999339321298425, -6.253192501236062, 6.780081200751354], [1.5002452346965593, 4.360766991964054, -1.3665298311343606, 6.530032180502856, -1.2793787300209467, -3.154102635036286, -4.220168817386883, 0.030402980645021893, -7.024459617590214, 3.2274527799296484, 0.7676821386236395, 2.8842296058967394, 3.1473395940327515, 0.12103135808092347, 2.2521577431310704, 3.1375108471083855], [2.945851724278824, -1.5244835438349131, -5.4972997292519254, 3.5893830545995296, -1.8308531522240337, 3.444386764179475, 2.54977644515015, 1.8809813983213737, -1.173734320517702, 0.9084285563257124, 4.2602330479570165, 5.803136972395437, -3.0585101764441824, 3.3550211008820114, -1.3634837117903504, 0.4433137344636586], [-0.921862754126387, -3.2921591591648065, 1.2717524231968724, -9.97585699754029, 1.241784538542276, -3.3713012978763137, 1.8307339068220128, -0.10779167318239746, -5.975409275705587, -0.4899788333435885, -0.05079223839052155, 6.58169610574423, 2.4194707276069067, 0.568772368442153, 4.47228030296642, 1.4159697677947782], [-1.0931712210752842, -0.7716702191712745, 1.3749339059851167, -2.272520862357036, 0.24338493060480865, -1.2721906323980599, -0.9191295740807526, 4.107019555749966, 5.392487450322712, 1.8009052121213003, -4.75708317281696, -2.262674026057977, 1.451140290366076, 1.11479031053879, -1.1283679571735319, 1.2853026537590866], [3.816892906421551, 0.9819894208859767, 1.2609323711570897, -4.428719629922935, -1.8936779814586067, 1.767733687283416, 3.7052151271460274, -0.024589326905000597, 2.2951770753077145, -1.8225021665605217, -0.7949755702042309, 0.8062672822579617, -1.6926773911825577, -1.3701029161625486, 3.4586735347579056, 0.4420729273698367], [-0.21261187270409643, -2.235779262106095, 3.858975083336749, -2.2274875292782106, -0.04095351951518917, -1.1224430897919584, -2.7769107526938535, 1.8149134478119624, -3.511263024968725, 5.59777731926746, -2.400944257880413, 1.7407259252187164, -1.3529715917070442, 2.368659620296812, -3.3261444174336328, -10.475079823916548], [-0.765016170710354, 6.9123926937734215, -0.8053123762429109, 2.4704691789277846, 1.2017054813077612, -2.0712183545346927, 2.2489799094033485, -2.9085695953456554, -0.3326455093948686, 3.186453319093599, 4.899885513720368, -0.919131406299409, 5.019023324452395, -1.6517970619092077, 2.5712816734540755, 2.410373890020807], [-4.4848055656204275, 6.341942094313907, -0.7323613878581903, 0.6639634985738041, -1.9744879889064206, 4.443093494373734, 2.4334298244575145, -4.229471242437986, 0.2842466504278668, 6.78514514748025, -0.466618388162199, 5.289961017818849, -0.0668853822359442, 3.638994417743411, -0.924445997986676, 2.4300431059956713], [-0.9405615579822216, 3.804064214455348, -0.09866487523390921, -5.7528894081981115, 0.8407182206213818, 2.515691019467131, 4.178569813262885, -3.403608602527241, 3.649823502320663, 2.1961478800348964, -1.2805254974462974, -3.0321221549456645, 1.7137804655702147, 1.3860485013012651, -0.22389831413163952, 1.8797440698566075], [6.59916085045512, 0.7812938397598335, -0.35745236707971295, -4.331470860282767, 0.03914471105122552, 0.43722018874900914, -1.7394917486133747, 0.677463315985642, -1.9427012633157354, -1.2209831962926092, -4.410835532324827, 1.0177624532331766, 4.800802281366391, 3.418833759449788, 1.9599496253304118, -2.0633300807242434], [-0.15775217356259863, -2.366724530222127, -9.315326153968272, -0.08525320438143785, 0.5741989322319132, 0.37259190640885975, -1.1855868370540181, 0.8901989975526725, -3.629831315903862, 3.9600560879660467, -0.6589046626095827, -3.9750213852747596, 4.659212471114282, -1.6490868396055838, 1.8829911043396543, 2.385863172990547], [-0.550243180059939, 3.2129537305441813, -0.5410612038171487, 3.464502358304104, -2.936107755576576, -0.2676781378823976, -2.2618863091365378, 5.007608249536979, -4.675764823905864, 3.699031739158981, 0.7476927771424833, 3.14853086834702, 1.6576123577973711, 2.5588469785191843, -3.2086176466114598, 6.364810494579812], [2.061629033439042, 1.1854680217143838, 3.0956482537858645, 3.050926895065534, -2.6552565608449608, 5.004609289240231, -1.1946625808988471, -4.433724146137758, 2.8862143628283516, -8.06568656348301, 5.765913885102246, -3.3807044741392627, -2.9332994405603907, 2.177248532503291, -7.303322800325398, -1.1873410471167705]], "bias": [[-0.639813196901757], [-4.479426824274859], [2.57655486803566], [2.2400850243811394], [-4.557160986060244], [0.40026292041660816], [4.986271777847635], [0.04101356313307267], [2.6304100682621008], [-1.2631290347814208], [0.47491521745689746], [-2.642795386347675], [-2.972745165327625], [0.6100195301454339], [7.819911754039232], [1.1816834984455502], [1.210407850116307], [0.1221690200037376], [5.285957234292663], [-2.6886284238703], [-1.3495509443688063], [-4.675193926981997], [0.13950565238244267], [-0.34210213848307225]]}, {"layer": "activation", "activation": "tanh", "activation_prime": "tanh_prime"}, {"layer": "dense", "input_size": 24, "output_size": 4, "weights": [[-4.28832112176446, 4.061269063816654, 1.0553044075096254, 2.740392762485581, 0.3423730981771126, 6.321311243611097, -0.2590958863026971, -5.6966571079772415, -3.2475132349570295, -0.5324296568358922, -1.5628405275805406, -1.4443999870199096, 4.899006470135906, 2.453704029327373, 0.20112144039869118, 1.3000783779299245, -7.745257085767847, -0.9795407526159436, -0.29821840743144223, 0.16412996106954814, 3.5683505831551225, 1.1500897142558935, -3.4300638047926113, 4.899982850636863], [2.279774874852399, 4.122879645334464, -4.3881688989273515, -2.3555416991166833, 2.226243587206903, -1.300318320489398, 0.502747658434883, 4.4396570667128215, -2.8305552033264645, -0.4006368305513547, -3.477622717791692, 0.022058087092238443, 4.344800724603612, 0.8264373112568255, 3.070747520666157, -4.787515496608779, -3.403362848828505, -7.351873754754271, 1.0348543295561465, -4.496951419987903, -2.3926291933983688, -0.08379261250632397, 2.9272061101799713, -1.23335724427756], [-0.9282251260306754, 1.3661818542403386, 0.7200446557460709, 2.0859765863306654, -0.12858957787073855, -5.653383575353185, 0.9547712073073091, -0.9462856191247062, 0.5023941916300252, -0.1661426837379149, -1.7043706657619795, -0.9650563860004873, 2.0869309524529083, 2.335440085712116, 4.468469101114543, -2.237561650511481, 4.468977046428724, -4.807022393719202, 2.0680080817224575, 0.5409185014809739, -0.27687128248951953, -2.7254437639715356, -3.095827603056071, 2.80240401401978], [-4.147532236968283, -4.435036799373694, 1.1420932510765622, 1.2379882212641338, 0.4049517976519217, 0.8681455572542939, -0.5234460463477024, 10.820251085827865, 9.150850275509278, -1.3615292455220118, -1.1250207453203172, 0.7067307622643141, 7.291129743098321, 0.9568147619772293, 0.03268836451678836, 0.21775672557887205, 0.3004430476492969, 0.8255086096910502, -2.97032061982189, 0.1854545000946905, 0.2794486069116561, -2.237200244437486, 3.352531545164025, 0.7434274445682912]], "bias": [[-4.964181858176151], [2.2150362727859836], [-4.175580610516334], [0.36778097627569173]]}, {"layer": "activation", "activation": "sigmoid", "activation_prime": "sigmoid_prime"}]}