{"generation": 27, "fitness": 178097.49030150237, "network": [{"layer": "dense", "input_size": 16, "output_size": 24, "weights": [[-3.7189136517045336, 0.41636690117599406, 0.4393388786916741, 0.6970717507814899, -0.3686130540285537, -0.4753871461160377, -1.092828482154467, -0.8512724374593478, 0.43731683952872397, 0.6501430854459623, -0.5457647004401955, -0.18707998688376615, 1.2803623069276495, -1.6120734377440595, -0.032314306851403574, -0.3475089732130529], [1.2934010941339813, -0.418151570243646, 0.04751278609956722, -0.3295997737801839, 0.12181812371014633, -1.6974213958955287, -1.1154435766207087, 3.4068491380646497, -0.012993204574549555, 0.5269213804378954, -0.32548592165599155, -0.885376603542519, -1.5296481887057598, -0.4687239438596146, 0.9360364670103594, 0.09493499071034336], [-1.1100130120125449, -0.8300949697645834, -3.4897218651934065, -0.4607488871421006, -0.8105090132304171, 0.09557348138696442, 0.9039555424834711, 1.2056797162445565, 0.9582031882415147, 1.2524960991606857, -2.403682310081228, 0.1962898101551358, -3.192649313869035, -0.15456091092746638, 0.3298878512324205, 0.763723424757797], [3.309767355459002, 2.851568251644599, -0.035146439380706274, -2.554781390703761, 4.459399973221316, 1.1537045837510664, 0.6812181430813202, 0.9367584756458456, 0.6885408919918826, 1.486312014764804, 0.7797854411749527, -1.471115626381053, -1.368979255520618, -1.3961140778123193, 2.13949644503355, 0.7064200096425641], [0.22904141722959775, 0.8864836448851656, 1.272365619741299, -0.2551971103803588, 1.5172327717277507, -0.12981440361307817, -0.36790745753533993, -2.0241222121251763, -0.5257641181649226, 0.8446568272116195, 0.3014356114327581, 0.6245657109271718, -0.17049545265667687, 0.33567384996370814, -0.3081051147646741, -1.3091335871784477], [-1.037393014747114, 0.06279621022825427, -1.0062759428165102, -0.6403175632827773, -1.410143441392783, 1.0666378195835584, 0.2915403043290137, -1.8326157598106685, -0.4334954465932507, -0.31885309915372695, 2.778105773145698, 0.8855215084874344, 0.14651116411962029, -0.3683082036094536, -0.390868065041881, -0.8425507045936126], [-0.15242878293453627, -2.121288912766528, 0.4352291463056285, 0.8894899589826638, 0.6495389653329555, -0.11441518804700102, -0.42070588442714296, 2.2711233107337048, 1.1697686613976872, 1.69045832483941, -0.033539959595536795, 1.540026702345559, -0.5952348926726871, -1.4819642745312105, 2.0679039337403875, 0.8263463274725288], [0.2194244759455406, 0.3076448226249586, 0.5855285634547571, -0.8099449337583737, -0.9581503386620638, 0.29519494601608276, -0.30155169878036125, -0.22636295110670468, 0.09718490195955107, -1.0300887554272888, -1.185173725585783, -0.5081192120117694, 0.3660350381731313, 2.4819872592002765, 0.4431350375649592, 0.9186285361562923], [-1.8879225911259885, -0.7388949809029697, -0.7262793322214103, -0.6154158061032715, -0.291497346693198, 1.6057213004085997, -0.02085980151769329, -0.27616210387113305, 0.47115535883355586, -1.9842039951839232, 0.19771586196647606, -0.013939494375387385, -1.6586991664420097, -2.1878267474226756, -0.46781003791944786, 0.2217072614143829], [2.101953981105874, -0.2621310685347171, -0.5033313302754563, -2.577474957987036, -1.5939843119187833, -0.5915378706860082, 2.3125934334619505, -2.147642725289705, -0.6575282324331764, -0.49816515200108447, 0.6473114531833113, -0.41635942734976883, 0.19538319004091764, 1.948759228000367, 0.3497846566721967, -0.9297239763298039], [0.34885078278482895, 0.4715781333565259, -1.0496491275049302, 2.569828629187327, -0.5745294499656792, -1.4848785584737842, 0.12181213595282753, -2.322575310183539, -0.24822569812307993, -1.148482095899695, -3.252584699165069, -0.74794113919911, -0.1426829337776141, 4.248886177802669, -0.68553942331615, 0.19691969911712398], [1.988606113138058, 0.3443119178839096, -2.3751950737849272, 0.1580505670837118, 3.2336722766009958, 0.5206176022870822, -2.435963452383679, -0.3166482127923971, -0.9208865304485001, -0.3826399918309922, 0.2969590725101042, 0.9452104040414295, -0.5615972289100144, -1.1208460783222365, -0.7274715795277111, 5.180363916900908], [-0.02211888804545481, 0.36952728065151774, 0.9795425520196528, 0.36113566340085335, -1.6408384043274318, 0.736360934986056, 1.8127982859286036, 1.8987734058168977, 1.1645617124887264, 1.2916576037256788, 0.8298244607378229, 2.5313209494889803, 1.5855407729732027, 0.21151330296921533, -1.6185290774098782, 0.973710407381603], [-1.0404458906842509, -0.9014534606192296, -3.4095924029227307, 0.37991146951282684, 0.3896145173680259, -0.7963381384650534, -0.8041662640971037, 0.05826953248665079, 0.5445115501049935, 0.8095897594675742, 1.200846649415537, 1.2067259454312023, -0.045756489569578895, -0.5800762156107622, 0.9684946890434325, -0.8646820268112608], [-0.17155695623904604, 0.11717997724006968, -1.4220031199925272, -0.4959177512056543, 0.5396357564049687, 1.5102874564400839, 0.02002677640065076, 0.3439751373875056, -0.07598248295521315, 1.6477103667208215, -5.0275719002694155, 0.24454321555589775, -1.9994000555958173, -1.1434992775241588, 0.08796653361641721, 0.7632651378837825], [0.8844744122575702, 0.20584526298374928, 0.5612087479164006, 1.3765345633938428, 0.8651494677005205, 1.596510491158798, 0.6697496763649178, -1.3061199967426866, 0.3931160245448755, -0.7249291318000931, 0.7356260865641923, -1.2626030061905287, 2.347613521198679, 0.33373616403401574, 0.7775923441759018, 0.11459592554755882], [-0.5261629884045974, 0.32903331328902574, 0.3491110866134851, 0.7348068647987227, -0.39138224301511365, -1.3826948583466332, 0.18580963521473315, -0.20379487304426003, -0.5069927830922158, -0.3125312195159957, 0.9961350879822155, 0.17228611261177879, -0.37532494152183205, 0.2602229435264731, 0.6584403463414654, -1.6396071258727234], [0.14967696178582313, 1.6814998563662755, 0.45179967828891554, 0.971441751012434, 1.587992181423909, -0.6981627531778627, -1.3264150103079824, -6.27025593180235, -0.5421155765004251, 0.6073530522269905, 0.9725401425541988, 1.4164179599383213, 0.6298981075674337, -0.5082979339928841, 1.175098216987101, 0.7457999334946552], [0.08976187840115168, -1.8042950951484182, -0.666995220011552, -0.48471390498469047, -0.9661896789191846, 1.803594560964589, 0.7886512526554339, -3.1887152734412703, -0.6145483355032828, 0.159725754901338, 0.44603322208708823, -0.7442853131859657, -0.7748120275196986, 1.449355482739854, 0.9010243229868216, 0.1532097187154296], [2.3687753318254963, 0.14356676629796195, 0.29568940533931043, -2.681246871563903, 0.4709051186450305, -0.5754821673255064, -0.28140897506636176, 0.5013658831401, 0.4086768391080051, 0.9266290076228636, 0.6086945280252585, -1.133723922837597, -0.5204972229345431, 0.24102163349943528, 0.492997363160103, 1.5402593990615674], [2.2861923488745313, 0.25959016690258796, -2.970976728939904, -0.44292396997966876, -1.3359983040902188, 0.06344923880124237, 0.4113061069943551, 0.08161977892127587, 0.5948714722400276, -0.4398869121555884, -1.6606325185996542, -0.8829602003297021, 2.7530923318906946, 4.3003086608206536, -1.9588639069129794, -0.9836560644208143], [-0.48896254770013803, 0.7141810349639226, -0.9279757931343915, 2.2312336301196716, -2.4975898864662254, -1.4724726818839908, -2.0384374446576308, 0.10423622789428744, -0.3311829138235114, -1.3748780167054495, -1.84939427786187, -0.317746451903744, -1.8211783287336223, -1.638447427899385, 1.8250741309319265, 0.9946839480858809], [0.3373076101962271, 3.604616568134679, -0.13895464160097237, 0.5924042090335215, -0.5950029772134613, -0.43617502018626386, 0.9230721982374095, 0.21820226420885253, 0.2518066177762903, -0.10517881731896872, -0.4731341941114737, 1.7052666835942745, 0.8803368775799425, 0.581745714457925, -2.2561046877515025, 2.08624941210228], [0.9013581961216364, 0.15895339746885595, 0.8373442045978295, -0.7140998040690267, -0.2604855993942423, 2.64498481076259, 0.6753311235342536, -0.04743540082859324, -0.898823173032637, -0.3327097672797952, 0.517382481775566, -0.020515090827645244, -1.102793252993046, 0.7712509854905063, 0.9098186094703672, -0.021536392646892777]], "bias": [[0.12298345100957542], [-1.1588735500686742], [0.13578606165408336], [0.39646741899830773], [-2.0433286457376205], [0.06013570632393808], [0.5430134013170776], [1.0871975820381425], [0.8554144889193966], [-0.1223333507489972], [0.3121264582722695], [-2.1889064197901735], [1.1389247967400935], [0.3680113618684213], [1.2070964791798], [0.3088389889138514], [-0.5615370603083237], [0.5825344777481998], [0.7444287433927821], [-1.1613645901253713], [-0.13669985934045922], [-0.08216025151048967], [-2.401094538104553], [0.09064221925685967]]}, {"layer": "activation", "activation": "tanh", "activation_prime": "tanh_prime"}, {"layer": "dense", "input_size": 24, "output_size": 4, "weights": [[-1.5114530473896501, 0.3428389812527152, -1.0543477213892245, 2.8703099106591967, 0.40062445770666016, 1.437885686869903, 0.1476478285692195, -0.07178554577469165, -0.47980829914279177, -0.23354547800540243, -0.3116912736559344, 1.3270925280635002, 0.2376625908667619, -0.3456219801361003, -1.2706045604085732, 0.775310657395119, 1.3426360811653317, -0.7147908684509878, -1.2864533432984682, 0.5380627597511616, 2.8510849173102253, -1.5395258763334956, -2.121032803511686, 1.7189208335913186], [-0.7669344271520695, 0.930617092568724, -0.018885199328003033, 2.5252617162578956, 1.282733521319512, -0.8211974962083772, 1.3333522674537908, 0.6809451860481344, 0.05660061045850662, -0.8341767480573411, -2.873093281167811, -1.4093825252444625, -1.9901822983203725, -0.22639951530633895, -0.4693651352236273, -2.2976369187022687, 1.7388081304608136, -4.240757804579119, 0.2396937522987701, 1.3959792455261857, 0.795244989022913, -0.9749317583638124, -0.9454214335079549, -0.049813023869695106], [-0.3365859119521866, -0.005101942411853688, 0.6168881769961392, 2.8629701516196215, -0.10208141779370883, -2.0233967947462195, -0.6594812059902802, 0.9730788920503796, 0.4694573116578433, 0.5843849643723344, -0.8781658409088944, -1.6797579613175078, 0.6978733321178324, -0.6711532385294752, 0.5281646838353934, -1.0646856935821574, -0.38016052191373617, -0.2376616971079668, -0.7220621460537902, 1.3226542792697131, -0.22954583412115395, 0.1311151878040694, -0.5473412610192638, -0.15992353053883313], [0.20804882429687493, -2.1204679094849705, 0.7627436783730558, -1.5127793637556244, 0.701095549482539, -0.24172230703525777, -1.8721454536878128, -0.21959537614616242, 1.3910878963550934, -0.5444200410350624, 0.8852974251785235, 0.3273603243424207, 4.035798721236908, 1.290708885116581, 0.8262084955359414, -0.42437354604379207, -1.206451666361362, 1.9791848598905966, 0.8843741766042188, 1.4535831354630295, -1.1757562001752317, 0.34449616237187675, 1.0968167924771275, -0.6303339142447664]], "bias": [[-1.1749644394275576], [0.8410069675377281], [-0.2063149012447133], [0.08645361629632797]]}, {"layer": "activation", "activation": "sigmoid", "activation_prime": "sigmoid_prime"}]}