{"generation": 282, "fitness": 70368745623206.53, "network": [{"layer": "dense", "input_size": 16, "output_size": 24, "weights": [[0.7498950892129115, 2.072791221081629, -6.56741255333852, 4.013864904668214, -0.06052249143743427, 0.08662421596377401, -2.118978990687051, 1.0654329439967352, -1.3402441143447192, 7.094836167626951, -9.564707200015256, -0.40417483188239534, -1.022746748278068, -0.10214953476969235, 3.9410778436508402, 1.1924828514663712], [0.21271116293218162, -5.575396276595812, 3.7831793652494556, 1.2587108367332085, -2.7497410991768816, 5.9291730127394215, -0.22505755095047547, 8.559364435802634, 0.4304974781889694, 1.8306194770279545, -4.833605841306672, -5.991579376443853, -0.2927823606913721, 2.065268515217611, -1.573624582573193, -2.8822427258701957], [-1.4840219159155654, 4.812269750807414, -2.5289804547762156, -1.2047773653996525, -1.5134981313176648, -6.235841592385648, -1.1130817076614938, 3.6360987124266977, 1.5216132875985937, 0.8896669547499091, 0.22991164298247302, 1.8958924417130514, 6.867784026589326, 5.76049863025689, -3.937884630604622, -0.9645169319237048], [-1.7433447608621393, 4.4605020575120715, -0.12416846401736287, -2.778968633559572, 3.5908783397052306, 1.999409645596684, -2.8704504896468066, -0.11960383925239482, -3.2492986913458024, 2.266268077920077, 3.1797161138725016, -3.8108298166531864, -3.1534793982848743, 3.0603662250974777, -1.1560892969475889, 0.02468490151829325], [1.742489238624171, 5.8559924764055875, 9.19136054952382, 0.8566342587577451, 1.6339216301545425, 1.0581768228001625, 2.008200317581053, -2.09548030721421, -5.544112658752241, -2.938629548194003, -2.761910585783287, 3.99055194936371, 7.347281933642362, 4.389819298889791, -1.1152225844644303, -3.2326253669666554], [1.072425610112778, 0.5203930600352097, -0.5643083130560657, 2.7952595949449486, 0.32416337485014424, -0.8314659025378996, -0.24316842268854041, -3.0085772961305755, 0.9294085333032764, -4.361048668835675, 5.9465120473849815, -0.3888668375602311, 0.036085576768302485, -11.04668044130849, -1.2361157366299613, 0.3967134120786728], [-0.4630344876312018, 1.7119422417760088, -3.366073957144245, 0.6092564566101955, -0.36605340805762393, 7.264158030233572, -3.477478067111422, 3.0114806743731064, -0.29163745400762514, -2.034405124126364, -2.135476042438076, 8.174189453479114, -3.9961505436629237, -3.660703898044201, 10.461897094099086, 5.5226906147821895], [-5.809746184234445, 3.759803400193513, -0.05233981125161524, 3.2758958185450506, -0.8011549204915256, 2.205978111677445, 0.7351222772485493, -5.093792092197622, 0.5062623474029931, -0.05089789363855757, -0.09471010357540033, -0.6597349106926507, -1.3588292443271213, -1.396880039156244, -0.6336622439645193, 1.0285950821293852], [-5.121239889937051, 2.9071039959958465, -0.8646385821017017, -2.8518230009125767, -2.5839503067991116, -5.440502407692799, 3.1506148796380185, 3.846423188738266, 4.089925067249162, -2.3803588984473487, -2.340087224783673, -2.6052415208250643, -3.0024950803165127, 0.22471390911234934, -4.540174686709351, -1.735782876446377], [-0.2802191336571085, -1.5747732249664768, 2.2429225131809094, -8.312161473837424, 0.5601239786510874, -1.6851656126079768, 1.004792223707844, 3.479851213354581, -1.9904594403245746, -4.924799554111816, -1.3867253600582292, -6.094288536159893, 2.452174983748529, 1.2727223490272859, 7.400816377809917, -2.739068619623433], [4.077393652446204, -6.363859257224686, 0.268187902046192, -0.2141363269471939, -4.866436843166992, 2.524897774220323, -1.485332490409236, -3.8238209268031227, -2.408642492980562, -1.735132529416927, -5.229187251654844, -3.7229975241291804, -1.7031540939863912, -1.999339321298425, -7.579162179215155, 6.780081200751354], [1.5002452346965593, 3.6014707789502576, -3.2910573791511606, 6.530032180502856, -0.5054608399304795, -3.154102635036286, -4.811161740941377, 0.8894147924697865, -7.024459617590214, 3.7786282576410883, 0.02072356949090337, 2.9864475590163004, 3.805894984823287, 1.1864839294826792, 1.5288899788250019, 2.6583561315746786], [2.9686097688487423, -1.9012179942394, -4.468904804607163, 3.5893830545995296, -1.8308531522240337, 4.732364448859308, 4.555784337814156, 1.9064307498163495, -1.173734320517702, 0.9084285563257124, 5.242118385103173, 5.803136972395437, -3.156989013185868, 2.7470570466524737, -1.3634837117903504, 0.9936165385841748], [-3.5828317758759494, -3.2921591591648065, 1.5974222157616385, -10.328209140333731, 1.9045216892207313, -3.859742803874708, 1.0295950632031583, -0.8381266125627647, -5.2821330040247485, -2.2056481520093425, 3.132342285715844, 6.58169610574423, 2.797703441422815, 0.568772368442153, 4.261943050608172, 0.8005304223457104], [-1.7142024152895003, -0.23472319990188856, 2.499449437937072, -2.272520862357036, 0.24338493060480865, -0.18042074817821896, -0.9191295740807526, 4.107019555749966, 5.392487450322712, -1.1383157626488463, -4.75708317281696, -2.9194294042511264, 1.6935890394318418, -1.3721107885109864, -1.1996676021336197, 0.6419652971121079], [4.958265495450687, 1.6877242155929029, 1.2609323711570897, -3.3310831141836266, -3.5076847981110606, 2.321225276000875, 3.7052151271460274, -1.1441430232315233, 0.8228004964059488, -2.4272449240543166, -1.0230636521691192, 0.8909234732615557, -0.5715391636127045, -1.3701029161625486, 3.6791087482590195, 0.09847106857644145], [1.045979906491259, -5.037507017741677, 4.161053249423869, -2.1042336523776184, -0.04095351951518917, 0.4635505218739082, -1.7708862604619857, 1.8149134478119624, -4.581327680508806, 5.922644731294864, -2.7491949675819383, 1.928850265226061, -1.2349825447437208, 3.398737660608356, -3.3261444174336328, -10.475079823916548], [-0.36281121458845694, 7.1699337158349525, -0.8840167018177936, 2.0739127789583325, 1.1658864429562024, -2.241516321062729, 3.5147686135838, -2.959301025092552, -0.3326455093948686, 2.244391573012559, 3.4125320334590956, -0.919131406299409, 4.587093640101717, -1.6517970619092077, 3.1213539446959837, 2.410373890020807], [-4.4848055656204275, 6.341942094313907, -2.19468436538532, 0.6639634985738041, -1.8039474221064968, 6.760545426964452, 2.985628770774278, 0.6348930361218996, 4.654974116983318, 6.412870597055003, -0.5593824266554044, 5.289961017818849, -0.04146039734056477, 3.260604673901049, -2.356428146391098, 2.446596672851388], [-0.7885674360069759, 5.6522043598649505, -0.09866487523390921, -6.718007380926228, 1.2370080684834377, 3.730093621586583, 5.442538060868028, -4.128389641002191, 3.649823502320663, 2.1961478800348964, -1.1363110431810304, -3.0321221549456645, 1.7137804655702147, 2.403600267625561, -0.41290705385342863, 1.8797440698566075], [6.59916085045512, 1.3078833797513, -1.7186013980421024, -5.101556046235423, 0.6501793049463938, 0.43722018874900914, 0.6170553312967566, 0.677463315985642, -2.4384942811190866, -1.2209831962926092, -5.4442648796268545, 1.0177624532331766, 5.767106945271589, 0.5879870204692109, 2.699170419180982, -2.0633300807242434], [-1.5669634511596033, -4.393641089439226, -9.315326153968272, -0.08525320438143785, 0.5741989322319132, -1.6337426158532935, -1.3923075560660485, -0.5843818411092707, -0.9254826914383322, 3.9600560879660467, -0.6589046626095827, -5.141480230302395, 4.8076288132069145, -3.970870197872518, 0.25152174478595724, 2.385863172990547], [-1.081061750358741, 2.412381774411796, -0.7844579171085209, 4.407089386259594, -2.936107755576576, 0.6217038775985966, -2.2618863091365378, 6.0881835851454476, -6.2794801076496265, 3.480463485644613, 1.3986464818307915, 2.949446773727651, 0.18048442961509292, 1.324652064106478, -4.313235784920324, 8.388983683807176], [2.061629033439042, 2.0921318018742796, 2.0539586259446367, 3.050926895065534, -1.9213805928533856, 4.9008233180222955, -0.6510099551110353, -5.270686183521423, 2.642227734289867, -6.3988169799023495, 4.224521498530966, -3.3807044741392627, -3.2943096191755843, 2.756199914101896, -6.566339823519339, -1.1873410471167705]], "bias": [[-1.9715874207225903], [-4.479426824274859], [2.57655486803566], [2.5862417985228734], [-5.8420640435054425], [0.6459843699651504], [6.639751059297156], [0.40401069975686255], [3.7872600533698364], [-1.954562832828998], [0.47491521745689746], [-4.349119311120337], [-2.972745165327625], [1.1463313872584977], [8.919253280668663], [2.481265342106759], [1.1749409483231668], [0.1221690200037376], [5.04403526164709], [-3.923900692746957], [-1.1187194208607778], [-4.428930033274569], [0.13950565238244267], [-0.34210213848307225]]}, {"layer": "activation", "activation": "tanh", "activation_prime": "tanh_prime"}, {"layer": "dense", "input_size": 24, "output_size": 4, "weights": [[-2.4793613677206654, 4.317468281035936, 1.0553044075096254, 2.740392762485581, 1.4338382328481574, 6.321311243611097, -0.2590958863026971, -4.874537287344015, -2.2250438246341204, 2.5908114851631083, 0.4114600464593695, 0.8543089720346466, 5.400622288184508, 2.453704029327373, -0.9085868961574506, 0.9170961351049545, -6.053551433398253, -0.9795407526159436, 0.9021377114351623, 0.2086834555411311, 3.5683505831551225, 1.1500897142558935, -3.0543902594333665, 3.788596131773212], [2.1700915302917294, 3.7780234393816174, -6.325717960932325, -2.379650730723821, 2.7006464526197367, -1.5673839844436988, 0.502747658434883, 4.394427414562421, -2.855928496727266, -0.4006368305513547, -3.477622717791692, 0.5811778562669745, 4.114792328663902, 0.8264373112568255, 3.103224611089119, -6.413128495137144, -3.2753827688168853, -8.39843763117076, 0.22468015935863894, -4.496951419987903, -2.3926291933983688, -0.08379261250632397, 2.9272061101799713, -1.23335724427756], [0.964117334986322, 3.0789150024955183, 0.08448967763511506, 2.0859765863306654, 0.5097464307204971, -5.134825103470286, 4.0718678919674645, -0.14192164129476725, 1.353942891394254, 1.5645720892910828, -0.5043643276226283, -0.8608742316930698, 1.721308470480466, 1.963935310761925, 4.468469101114543, -5.145245303857527, 4.176229493068263, -3.7118196924385893, 2.0680080817224575, 0.2708048765355161, -2.7683764892120557, -4.123102372105142, -2.3435051494358814, 2.7587385255625163], [-4.90355093509339, -4.537507401253074, 2.0683553999798425, 1.2379882212641338, -1.3188851748560468, -1.0287880216065786, -0.5234460463477024, 10.820251085827865, 9.44714621838015, -1.3615292455220118, -1.3422099726488503, 1.2295910028672206, 6.667672112516043, 2.740476101691693, 0.03268836451678836, 0.21775672557887205, 0.3004430476492969, 0.44013244450721545, -2.97032061982189, 2.4076662939927873, 0.2794486069116561, -2.237200244437486, 3.0250642577372338, 1.3335020168014378]], "bias": [[-5.74262752321429], [3.1790190195301156], [-4.175580610516334], [0.07506135878713716]]}, {"layer": "activation", "activation": "sigmoid", "activation_prime": "sigmoid_prime"}]}