{"generation": 296, "fitness": 9007199256679604.0, "network": [{"layer": "dense", "input_size": 16, "output_size": 24, "weights": [[2.6154397454350646, 1.1700472958228327, -5.2724021818513425, 4.1651357347405735, -0.06052249143743427, 0.08662421596377401, -2.118978990687051, 1.1235619016121918, -1.3402441143447192, 8.70970721867126, -9.564707200015256, -0.19061003755354244, -1.022746748278068, 0.7765257101919638, 4.203643319220959, 1.949219863969244], [0.10827188874792591, -3.283531319794557, 1.5298351737730824, 1.0889249393385043, -3.507295416511584, 5.657201222747831, 1.0353830947032068, 8.9018047883711, 0.4304974781889694, 1.8306194770279545, -4.18699461516429, -5.701524521115431, -1.0164710586403816, 2.065268515217611, -0.18374216357167406, -3.8487065584624], [-1.262301270374761, 5.691481885371442, -2.365590571782378, -1.2047773653996525, -1.5134981313176648, -7.631367971130089, -1.1130817076614938, 2.8341639351923003, 3.6658247440650658, 1.1560317246942826, -1.219609843758297, 2.2177769511677874, 8.674512589429485, 5.76049863025689, -4.643244850561801, -1.0857369410583515], [-2.3286871631279595, 3.8455853840104464, -0.12416846401736287, -2.8598110853902465, 4.099947388954147, 1.999409645596684, -2.8704504896468066, -1.3678814753873716, -3.2492986913458024, 2.637051921124865, 2.619151282452369, -3.8108298166531864, -3.1534793982848743, 2.69108423841728, -0.6924870572988862, -1.0516502883223782], [2.153937567066959, 4.740165029626159, 10.1277708601045, 2.061277074928294, 0.9169290985713303, 2.365566228653858, 2.008200317581053, -0.590462339291751, -4.221549389926453, -2.938629548194003, -2.761910585783287, 3.99055194936371, 7.00497731792362, 4.389819298889791, -1.9546025771071809, -3.8318529819743468], [1.072425610112778, 0.5203930600352097, -0.16937801475328995, 2.6002349541805985, 0.32416337485014424, -0.8314659025378996, -1.6663046730094153, -3.0085772961305755, 0.9294085333032764, -3.7432143384973853, 5.572640954441248, -0.9794966465722788, -0.7400787265975035, -12.400142537636551, -1.6148508154170556, 0.3967134120786728], [2.8423497248433245, 1.7119422417760088, -2.5415164826094254, 0.6092564566101955, 0.6908100785724414, 8.602116998940183, -4.631049612574923, 6.000104554978125, -0.4185301645877617, -4.200836792326497, -2.1198501903087346, 7.362255436094358, -3.3733966396779005, -3.660703898044201, 10.782083059133852, 3.720961507508507], [-6.496251260411033, 3.759803400193513, -0.05233981125161524, 3.2758958185450506, -0.8011549204915256, 2.205978111677445, 0.13170357681186873, -5.908121028433162, 0.5062623474029931, -0.8525083921305673, -0.09471010357540033, -1.2674237072704937, -1.3588292443271213, -1.396880039156244, -0.6336622439645193, 1.0285950821293852], [-2.7006985993007975, 2.8619980319970115, -1.5567210134242637, -2.8518230009125767, -3.0599016073497403, -5.912007307920655, 5.176355475617715, 3.940097956550475, 4.089925067249162, -2.617981609002546, -2.340087224783673, -2.6052415208250643, -3.0024950803165127, -0.525448509929725, -4.207359524714512, -2.9742626772793073], [-2.503484424552101, -3.4858054566775456, 1.5402207712941434, -8.526325979035283, -0.7932699208641751, -1.0201483062801588, 1.0991925401646583, 0.6229099730665104, -1.9742210390129007, -5.051508264996376, -1.7176136787494873, -5.054733576223196, 2.452174983748529, 2.8266549287746017, 7.400816377809917, -3.5398013157442634], [5.971862439494171, -6.690949737604451, 0.268187902046192, -1.0382185779344608, -2.957023659485354, 3.3053078713449264, -0.16857687425699186, -3.8238209268031227, -2.8728230706256106, -1.735132529416927, -5.229187251654844, -3.7229975241291804, -2.8092396607770023, -1.999339321298425, -10.355911340006232, 7.910468452914626], [1.5002452346965593, 5.5260070605131, -3.150378002781238, 5.387691241376333, -0.8931028563786559, -3.154102635036286, -4.4902685627185885, 1.7687272014803077, -7.024459617590214, 4.84606390251879, 0.02072356949090337, 2.9864475590163004, 4.636840828692086, -0.14481733905627547, 3.9017778368030083, 1.5625773821121847], [2.9686097688487423, -1.731401312257597, -4.385644094628941, 2.403258341230673, -1.6022028413999938, 4.784511789131808, 5.710932139746516, 0.8706468308048014, -2.126697570144348, 1.2790066688219754, 5.242118385103173, 3.6828136793190356, -3.156989013185868, 2.7470570466524737, -3.98061632902523, 0.9936165385841748], [-3.5828317758759494, -4.506370488352812, 1.5974222157616385, -10.514395775658983, 1.8319771215553895, -4.940318058253917, 1.0295950632031583, -0.10779167318239746, -5.424091879213229, -2.5926144984316704, 2.1487327006698735, 7.6325585943061665, 2.099330892845075, 0.568772368442153, 1.2543163977310248, 1.5705646036365133], [-1.7142024152895003, -0.23472319990188856, 2.560086810525032, -0.8662984852952986, 0.41458287656935977, -0.18042074817821896, -1.2038728351168309, 3.75680307068745, 4.531387178788598, -0.13484517326848433, -4.75708317281696, -2.9194294042511264, 3.127380830079289, -1.3721107885109864, -2.2152501625092498, 0.6419652971121079], [4.332884711552122, 1.3457723632416978, 0.237169247616983, -3.6170653009962543, -3.4990769636592525, 2.536031066547262, 3.7052151271460274, -0.22109966086522576, 0.8228004964059488, -2.4272449240543166, -1.0230636521691192, 2.2378106510593248, -0.5715391636127045, -1.3701029161625486, 3.5211733868515944, 0.4420729273698367], [-0.21261187270409643, -3.069405248820434, 4.161053249423869, -2.1042336523776184, -0.04095351951518917, 0.17807419642697075, -2.000021233199003, 3.3932898201191763, -4.361446469084646, 5.771714675448478, -3.9747817610242624, 1.5761639437322095, -1.2349825447437208, 3.9858622981742537, -2.9822372669371306, -10.475079823916548], [-1.9410943514896324, 5.841491920130188, -0.8840167018177936, 2.4704691789277846, 1.1658864429562024, -1.7649220735949356, 4.283128311837324, -3.7451728008401455, -0.3326455093948686, 5.164068320224906, 3.4125320334590956, -0.919131406299409, 4.588681807306545, -2.0423897742329067, 5.514038827158982, 1.9020024728235874], [-4.571510916119053, 6.84037252292226, -0.7323613878581903, 0.6639634985738041, -1.7027656638237352, 5.235054423594278, 4.609698118739156, -3.699790560344846, 4.654974116983318, 6.204453699230086, 0.8136919825296225, 5.289961017818849, -0.13420863296594226, 3.4470091275252446, -3.328479605672741, 2.446596672851388], [0.08736052130669669, 3.804064214455348, -0.09866487523390921, -6.718007380926228, 1.2963188786566322, 4.3147187662521445, 5.442538060868028, -3.3652819372376674, 3.649823502320663, 2.916890887581586, -0.19704192636390888, -3.0321221549456645, 2.6796849830069718, 2.403600267625561, -1.08186063094671, 1.8797440698566075], [6.59916085045512, 1.8225032330366036, -3.2379254610059607, -5.101556046235423, 0.6501793049463938, 0.43722018874900914, -1.7394917486133747, 2.349084252329107, -1.1645253606912456, -2.2119280033285613, -4.902652367066936, 1.0177624532331766, 7.029441552631615, 0.5879870204692109, 2.0836033518411132, -2.475451505500586], [-1.5669634511596033, -5.257626679303386, -7.213054376480381, -2.012988876160883, 0.5741989322319132, -1.6337426158532935, -1.4385173081857134, -0.4875447517889575, -1.3498447597689116, 4.557707397287514, -0.772507197673114, -5.141480230302395, 4.8076288132069145, -3.970870197872518, 0.25152174478595724, 2.385863172990547], [-1.5123068005146192, 2.412381774411796, -0.5410612038171487, 4.78603334657762, -2.6493016895644854, -0.338325723157474, -2.9597843371777386, 5.474012889000615, -4.649252064799525, 3.832494447604336, 3.382072488477996, 3.14853086834702, 0.18048442961509292, 2.0427073196888603, -4.642037653045667, 8.388983683807176], [2.448044878421249, 1.9546392223491325, 3.6751372026978943, 3.050926895065534, -1.09427161967478, 4.9008233180222955, -1.1345013003645052, -3.9150043146711933, 2.642227734289867, -6.58173356225902, 4.253461441538319, -3.168084375583406, -3.2943096191755843, 3.202040908037408, -6.566339823519339, -0.4643578058380859]], "bias": [[-2.346501085516643], [-4.212478107316919], [2.559465257504893], [1.2451054675179996], [-6.261683236606218], [0.6459843699651504], [6.639751059297156], [0.9763970212263342], [2.37680391365309], [0.7553307448117669], [0.47491521745689746], [-3.7669461124415604], [-2.972745165327625], [-0.3630268025496678], [9.864656822504895], [3.56176588202188], [1.5123453021111157], [0.1221690200037376], [5.04403526164709], [-3.923900692746957], [-1.2387617696523883], [-4.888442187071014], [0.7190043057896516], [-0.34210213848307225]]}, {"layer": "activation", "activation": "tanh", "activation_prime": "tanh_prime"}, {"layer": "dense", "input_size": 24, "output_size": 4, "weights": [[-2.4251076048609703, 4.317468281035936, 2.981720051365797, 4.874783531134499, 0.4790218786229242, 6.321311243611097, -0.2590958863026971, -5.997371528798944, -0.6040251610771148, 1.3144654775095617, 2.06423219748601, 0.7325906363441651, 7.174272262822811, 2.453704029327373, -0.9085868961574506, 1.067621433308554, -4.799652803831669, -0.03615666587423838, 1.2991422114128155, 0.16412996106954814, 5.177645101729942, 1.1500897142558935, -3.169063069316279, 5.481640936882206], [2.1700915302917294, 4.122879645334464, -5.424152695261422, -0.652232766339303, 3.3513786961107668, -1.5673839844436988, 0.502747658434883, 4.394427414562421, -2.855928496727266, -1.6379890803319035, -3.477622717791692, -0.35862719298340184, 4.491698196784593, 0.8264373112568255, 2.804623016093799, -7.269950577984455, -3.7716294190970077, -8.23531308886959, -0.4976046322431711, -4.496951419987903, -2.531324371597003, -1.4274362401913814, 3.842052795471721, -2.1426317928040874], [0.964117334986322, 1.1611333369949832, 0.08448967763511506, 2.0859765863306654, 0.30807906822333886, -6.698402524215315, 1.704976764573194, 0.5477215217976363, 1.353942891394254, 1.3517246031904628, -0.5043643276226283, -1.5056929776477057, 2.8722963354798727, 2.335440085712116, 4.098197822478458, -6.280056049182809, 5.576023425047609, -3.7118196924385893, 2.0680080817224575, -0.7215884229330904, -2.7683764892120557, -3.7639576265102668, -2.6214115363469856, 1.6649047986059453], [-4.90355093509339, -3.8299374406571465, 2.0683553999798425, 1.2379882212641338, 0.8442441548440416, -2.566962047028956, -0.9281338106735659, 9.652211590652819, 9.44714621838015, -2.2139394390218143, -0.8859274285710237, -0.09066183866954447, 6.667672112516043, 1.823510542384192, 1.4661572584538693, 0.6366480660885597, 0.3004430476492969, 0.21445415867375184, -2.97032061982189, 1.2631656190739426, 0.39973409375644076, -1.2939165370530759, 3.352531545164025, -0.0665590779132082]], "bias": [[-5.232317902205879], [3.6530363737059903], [-4.78478476731329], [0.07506135878713716]]}, {"layer": "activation", "activation": "sigmoid", "activation_prime": "sigmoid_prime"}]}