{"generation": 31, "fitness": 1308632.9633667956, "network": [{"layer": "dense", "input_size": 16, "output_size": 24, "weights": [[0.5297487207900196, 1.3402931532686226, -1.8289809755846884, -0.2812833359499646, 2.5832305405821256, -2.074409551815164, 0.207591928000383, -2.1099982815651184, -0.5419287475964809, 1.6129920736501406, 1.923776725695419, -0.6051573758534392, -0.40218779361582646, 3.0075204720902633, -0.837839319947709, 0.860544636787977], [-0.9254018874133876, 1.3510120425332193, 0.20544472756608317, 0.10695566580163923, 1.2949251761947551, 0.7658095584626329, 0.6736878229579197, -2.0157106764770107, -2.6857908787586666, 0.5046332737310337, -2.1942556989555055, 0.956527660580734, -0.8747232299299053, 0.14252759073710597, 0.005652499852536741, 3.255766140226993], [1.8285216495164962, 2.0955345054434407, 1.1413542072414464, -1.1772660533889028, -2.104873891149015, 1.9498269546046367, -0.3011477022243296, 0.822475347220289, 3.482852950680338, -0.8115418204348641, 3.0576671025580433, -0.22312025143462866, -1.000727463079607, 0.07034213216365208, 1.7827736729232424, -0.7714894174491009], [1.3542788492780624, 2.1643599668322286, 2.495102241726491, -0.3570614401107878, -0.05541048034327012, -2.94082685830856, -0.9556847936566726, 0.847289427130387, 0.10041957309751348, -0.36984485169221337, -0.6955829572358099, -0.3454487136366531, -0.9957827139494508, -0.9058115035836845, -1.065903422345763, -0.9062379368115261], [-0.11276133112652681, -0.7757076559146365, 0.35987808712263925, 1.0566321373299694, 2.7671040698216727, -1.8375781613109219, -0.5643062037951927, 1.2574996673152259, -0.8697490517952164, -0.14802684581817538, 0.939725669205439, -0.34040848259952716, -0.15446131206019117, 0.5010594893204865, -1.0632269693671308, 0.5612056659372799], [-0.9257532271761479, 2.462397684935638, 0.7619545215293413, -1.4153258190211635, -0.7136044639875254, -0.9813744103312146, 1.3609293787162544, -0.9727992617287462, -0.8123766577857704, 2.612596718148453, -1.5306769266260218, -0.06686710123977557, 0.3952444772429402, 1.4165938789974655, -1.858127885346387, 1.7258555110938816], [0.7853094119494362, -0.10455741625290726, -0.07629632814998821, -0.6844783225033484, 0.10722091344929074, -0.41241481230470833, -2.402840332429156, -1.2534174625473593, -0.6666269812489465, -0.20796596737058293, 2.8597100298820948, 0.13934438290945372, 0.9928079744226413, -1.9145940973084845, 0.5392342222745157, -2.090902646053107], [-0.2477281840434974, -0.4518299119089719, 0.8252891431609044, 0.5376855221405386, 1.191433792380653, -0.09078973905944698, 1.5737783510743533, -2.1808010903609856, -2.5895521960946946, -0.1689706011831582, 0.24748217323653687, -0.5406982884436098, 1.4867715938588626, 0.10967352017327348, 0.18011369105722544, 0.03396279271498037], [-2.61815795026551, 0.5664360547217921, 0.5022930577893874, -0.107263366358062, 0.5338892232781716, 0.061808866334885915, -0.3730973629486274, 1.5814435143787682, 2.4499008494728147, 0.1516182203992158, 0.5992093344903656, -1.749215064357501, -0.7937272721781112, -1.73506057564456, -0.2042138156244493, -0.2633388154162236], [-0.6145343757192069, 0.15131287712805563, -0.2874339904193552, -0.36482773740973684, -1.4436320307840318, 0.262443275248985, 0.13276957875825857, 0.7464683010767268, -0.13479994482215396, -2.210905425901622, -1.356592282655579, -1.7047634216321101, -0.06368033021965744, -2.58981142797408, -0.29936668935451777, 0.4392477668924587], [-1.304752217624575, 1.4231347714307314, 2.125018116792943, -3.323007000815193, 0.7263405087846979, -0.004049211547774156, 1.9372790560174205, -3.209369179255425, 0.5788728669919888, -1.0960346773611243, -3.9851752647159895, 2.559502483614052, -1.4607658789540445, -1.2143197579158955, -0.5934464815023026, -1.2877818231698404], [-0.771660505224593, -0.4053085620399013, 1.7104735941771834, -0.535503625101442, -1.0287724575991088, -1.278887488534928, 0.7404468159533762, -1.3389555257469656, 1.6750564065023357, 0.3826214732468022, 2.214595894347452, -0.5268340545659722, 1.2164757220915645, -2.054870049561377, 1.755819750774479, 0.8715112815314325], [-1.4496031003078307, -1.221153255019797, 4.618177857749023, -0.9916293101125819, -0.31689482814534753, -0.6479795983068706, 0.7650671851906315, -2.0535005236386423, -0.22010518951134617, 0.5203744259221923, 0.34427669335853883, -0.11578896454631682, 0.708981683260745, 0.9587148619710979, -0.24959078379787325, -0.29628390671434235], [-0.5776711034209593, 0.8722502960731964, -0.48951960319986876, -2.148321734185161, 0.5009499505726775, -0.7666375973098777, 1.5315283487336995, 2.1071034136777063, -0.6931102414092574, 1.4923775936842474, -0.3097261893310195, 0.7779865020162761, 0.7214393142844776, 0.8731625124065925, -2.1777802931007653, 0.669866251136938], [-0.492207314556379, -0.0608085289366586, 0.9800121501080827, 0.5898668245890366, 0.35700976922457883, -4.049081019237583, 1.2193602609562815, -1.4793443477971109, -0.9404513836208193, 0.3603327135144615, 2.002368350718842, 0.8908357774321044, 0.6103991148395359, 1.0561035665104956, -0.5561223642297749, -1.019182809118695], [2.4455154517807496, -1.9714925125651424, -1.6688977118184032, -0.9563811034913057, -2.5339678408296056, -2.4265075046007243, -1.1303134906606696, 0.5636935898348767, -3.698864958030804, -0.1577129744348736, 0.48863188442011973, -0.6212243208048496, -1.824234608268882, 0.13849096648461412, -0.8556453152794272, 2.708246922617206], [0.35748856995872547, -0.20483606799727094, 2.8321941011764222, 0.7671381412290426, 0.036079723324569546, 0.2845964170694293, -1.4376183505749462, 1.2387946347946448, 0.6323846465152134, -1.9075077798972075, 0.38047081606834254, 1.8785986050640582, 3.611505445246687, 0.6351086556674612, 1.3387502666720277, -0.7259591320395984], [0.7712964721560311, -0.9366335307619376, 1.4720760546552834, -0.0723194184441519, 1.6361491039987832, -0.7277795941814036, 1.1063415061810662, 0.3844708096216438, 1.2669728899112638, 0.41587157997071067, 0.3762749471944538, 2.9487776287228766, -2.3990015621368275, -0.040490271698632174, 0.549772262686757, 0.34653857608867755], [-0.8854079169736437, -1.7165009805049183, 0.7514437934217439, -1.8318328611224106, 0.42679568554653, 0.6732187516351852, 0.9795344677042797, 0.7273019870419739, 0.09280495629341201, -0.9238420444896953, 0.2845552608213249, 2.3350924206287216, -0.3861038794102556, -0.10011030383362252, 2.062513468717275, -2.087954900237449], [3.302328893815765, 2.213380029584039, -0.23588773845804534, 0.6542639381899682, 0.8543568728541272, 0.7338957484614987, 1.4385390346757665, 2.3241205749006904, -2.882841034012881, -1.7427793362522603, -1.5895493439451216, -0.7285198571078848, 2.27857215943577, 0.6428818497935204, -0.5617546184856888, -0.575694745731093], [0.14258902474975482, -0.3020607320464912, 0.1121963760366822, -0.9156349177220973, 0.38367168326153567, 0.12177168600629273, 0.40212136273245913, -0.9777995848528864, 0.5636463170549448, 1.5733044762716986, -0.11044737527593197, -0.10832231116567725, 0.5138439371497097, -1.335319938348632, -0.796256837617531, 0.20279955957425144], [1.019215005523407, 0.23074969727628333, -0.40212876919086615, 1.5311714413286581, 0.4650184221377267, 2.4263829278698035, -0.0007987344786510864, 3.537756454641479, -0.001033595889789074, -0.9077673847706229, 0.7082836283813292, -0.27030673713543285, -0.04891032027028325, 0.08335764800040968, -0.6731085162593147, 0.7520690192053545], [1.6851024268550368, -0.12221865856111624, 0.6315773596875611, 1.970705614621939, -3.747919058382595, 1.3704170080123763, -0.3965347898935154, 0.33825258643997036, 2.358211240856373, 2.461021528238121, 0.7796007173667321, -2.368854718321545, 0.7197567641253162, -0.37859492282242585, -0.22599992795157964, 0.42351821390003663], [-1.6903670683508958, 0.6375540067936316, 0.4835272523230232, -0.2027898786022333, 0.31284658260444903, 1.697056986038156, -0.7856316730366434, -1.9146378195772658, 2.1965726104497874, 0.8176349344933356, -0.884602301542857, -1.5480572980684628, 1.0278259683529378, 0.8560356819930777, 0.5931567389015885, -0.2812403989557877]], "bias": [[0.03912769236974034], [1.055543048510384], [0.9630312943576075], [1.64884746650038], [0.0452784007941574], [0.21881497578933795], [1.0160078198518243], [0.4223280004460934], [0.0308171314324341], [-5.437649843846215], [0.13191608924182585], [-0.33224570191193226], [-0.831250893934093], [0.08080645375732387], [-2.584966196853022], [-1.1966706350928387], [1.10281551043486], [0.05799351365186367], [0.27181334633404], [0.7452603747287785], [0.436593562096962], [-1.6618875937197746], [-0.31947502800599437], [0.7428481984122337]]}, {"layer": "activation", "activation": "tanh", "activation_prime": "tanh_prime"}, {"layer": "dense", "input_size": 24, "output_size": 4, "weights": [[-0.6798874403134798, 0.757934276446969, 0.4847778235643039, -0.776991459871561, 3.431554835447261, -0.20338038872420938, 0.32146240799295933, -0.9044542155817337, 0.20856153847669567, 0.17524610138390717, 1.5671702456457868, 0.48581845806915713, -1.7646759494350612, -1.4091771314155963, 0.9579750472363362, -2.1890811603444043, 1.3295949568348684, 0.6322551078243013, 1.6429559268463347, -0.3863504484563387, 0.20585631272069604, 0.39588300027637113, 1.9954783558464746, 0.5357055448263208], [-0.7948410749154434, 1.4628563340609468, 0.1856232754834699, -1.4545686472175798, 0.7352573385842239, 0.601838347456515, 1.222846813191795, -1.5048102424445065, 0.8344639338960463, -0.6786454501887009, -1.71978872270815, -2.6111873285000957, -0.6201572095480519, 1.388456099632138, 1.2643033992076655, 2.5833233863659806, 2.606302355428919, 1.3551014473817002, 1.704622817855664, 1.415113085317105, -1.115508581513986, 1.51094403801079, 0.006100172564194706, -0.538441646403693], [-0.09052930666500159, 2.5524197652345233, -1.8464462554541268, 1.2899061457921328, 2.7149542042900245, 0.008216306697339304, 2.0547827541656076, 0.4991238776200772, -1.2616636130018204, 0.6823588207213436, 3.1841071751339287, -0.27991659360374666, 1.5416778765237207, 1.6612285768079518, 0.40560616696224044, -0.4880374708751798, 0.30290743058783254, 0.20530558282038647, 0.8850945266688237, 0.5694292590581793, 0.6754138652257717, 0.20580796395450576, -0.5888193799420605, 1.6086579920824204], [0.7947371585571694, -0.6979080523663894, -0.05343319173649186, -1.7761782313862928, -0.7898085580260681, 1.268016291679753, 0.4139417055568886, 0.45785026433625026, 0.9997884682144418, 0.647121816633858, -1.6042055395826944, -0.1179075746292002, -0.37408705963140265, 0.07124358757881566, 0.011415711921999527, 0.027707427520020533, -0.4346753258724134, 0.03610607605279681, -2.0278545094602003, -2.2396497966139908, -1.4006569645347737, 1.9200919645551826, -0.6922855582787948, 0.378527448139268]], "bias": [[-2.1718835492466617], [-0.9399382251478776], [1.3042225956673936], [-0.614576944532737]]}, {"layer": "activation", "activation": "sigmoid", "activation_prime": "sigmoid_prime"}]}