{"generation": 323, "fitness": 1.152921504609331e+18, "network": [{"layer": "dense", "input_size": 16, "output_size": 24, "weights": [[2.3103966757482173, 1.456216834422021, -5.671666803934691, 4.1651357347405735, -0.6264665702085207, 0.5081329379899872, -2.9783408581889272, -0.38376240369718695, -0.716959920694582, 8.79837183625783, -11.41417405798677, -1.3940367206889632, -1.661731447669263, 0.6550651354224112, 4.301426929159664, 1.042528894169401], [-0.36190462087643277, -2.715785809508295, 1.670634726663094, 0.9047481091187607, -4.885511060716456, 5.657201222747831, 0.27026011732862054, 8.384399650632044, 0.4304974781889694, 2.4135065155430184, -2.973622292724375, -5.701524521115431, -0.27860299882504413, 4.681286886526362, -0.18374216357167406, -3.388314520730561], [-0.5592029446699976, 4.069677663327632, -2.2256777011695252, -1.2047773653996525, -1.584497605212198, -7.631367971130089, -0.5094350913117145, 2.8341639351923003, 2.7884413894806217, 1.34800708664471, -0.8218342300423365, 2.2177769511677874, 7.9067818043108185, 5.76049863025689, -3.6618957174163387, 1.0807286734977088], [0.1364729500384776, 3.888320414104045, -0.12416846401736287, -2.810843213174833, 4.099947388954147, 0.4221992199285538, -1.7294485066081917, -1.3678814753873716, -3.2492986913458024, 2.637051921124865, 3.725217842953465, -3.8108298166531864, -3.1534793982848743, 4.965174026699064, -0.6924870572988862, -0.37641158314310796], [0.37761764809394655, 4.740165029626159, 10.763711628729435, 2.061277074928294, -0.7587704657208334, 1.756111072261045, 2.601311056330087, 0.18173073947753593, -4.221549389926453, -2.938629548194003, -2.5592355580257946, 5.880924649307465, 4.71483439102175, 4.114251590019548, -1.9546025771071809, -2.601135275878394], [0.7715676472573411, 0.5203930600352097, -2.039024253979944, 1.878835053519967, 0.7295995416050096, -2.833933836041601, -1.3430670599404007, -3.0085772961305755, 0.9603079238401735, -3.7432143384973853, 5.572640954441248, -1.1532532794870574, -0.7400787265975035, -14.071470177366106, 0.7108911619476226, 0.11062183320654972], [2.277951904139795, 1.27083686124959, -1.3330860203575299, 0.4738464111697641, 0.03196789011490675, 8.602116998940183, -4.612294463672942, 6.438937558235293, 1.676292989462349, -3.7819603191903712, -2.5113928216226755, 5.156730360592618, -3.4730057396058553, -3.660703898044201, 8.77705202550849, 4.170019674901451], [-6.496251260411033, 3.759803400193513, -0.5233965090367632, 3.3368562354112736, -0.8011549204915256, 2.205978111677445, -0.13987886722413534, -3.830056492224423, 0.7590036898865926, -0.8525083921305673, 0.3628614761404205, -1.2674237072704937, -0.48631905135039233, -1.396880039156244, -0.6336622439645193, 0.042701176005404795], [-2.7006985993007975, 3.8594480770901054, -0.932581747151361, -6.4037610985309, -3.0599016073497403, -5.912007307920655, 5.59967480634514, 3.940097956550475, 3.9691230436483154, -2.617981609002546, -3.181518441866405, -2.6052415208250643, -1.2868793638584073, -0.525448509929725, -6.078531970216366, -4.093224219797531], [0.38160799655927846, -3.5229876585009086, 2.331336452002894, -6.283417206688381, -0.7932699208641751, -0.5384062329041623, 3.1025785887622295, 0.5567358308982884, 3.338125668282923, -3.9011006758869007, -1.7176136787494873, -3.5123716039754695, 2.0567696217479208, 2.2069910052084305, 7.400816377809917, -3.5398013157442634], [5.765435237566383, -6.690949737604451, 0.268187902046192, -0.42680972141328627, -2.3550678399040983, 5.350910061778495, 0.2776751634298322, -3.570176627252809, -2.8728230706256106, -2.3474078150538427, -5.665057128877219, -3.7229975241291804, -1.8120401178256667, -1.9376380010452148, -8.218561770372569, 6.171901643376808], [2.5241149865862798, 6.450581000686974, -3.150378002781238, 7.113295293653878, -0.5207440756121855, -2.720743649058423, -4.269407282174287, 1.7687272014803077, -6.613885009573353, 3.714009844906993, 1.4714042299844712, 6.091988963985269, 3.653645000414011, -0.9725815978962109, 3.9017778368030083, 1.423591315288077], [1.109970407700535, -1.731401312257597, -4.385644094628941, 3.642167254301334, -1.6022028413999938, 5.262166768285515, 5.101368928594394, 0.2600643703180159, -2.9298902942968237, -2.0478803595551054, 5.242118385103173, 3.1249830437687978, -2.8926632363147275, 2.014086458527818, -4.3861358525062535, 0.9936165385841748], [-3.5828317758759494, -4.59031765834823, 1.5974222157616385, -10.514395775658983, 1.8690976701433208, -5.4830519204410315, 2.8612382223945683, 1.8584353918457448, -5.424091879213229, -2.5926144984316704, 2.1487327006698735, 6.925253967777225, 2.099330892845075, 0.568772368442153, 0.08586883477183066, 1.5705646036365133], [-1.7289084069842238, -0.6158364697232889, 3.6629425384859404, -1.6924490688058862, -0.8063783223262522, -0.04382985763416747, -2.4694429986940385, 4.295578005541858, 5.368601872337814, -0.13484517326848433, -2.7382156430176967, -1.5782319792114246, 2.104008514000971, -1.1626889667007796, -4.62878852217754, 1.2965645089597948], [4.332884711552122, 0.8521180285259444, 0.8389029329207398, -2.014497768393719, -1.290841451955997, 2.536031066547262, 3.7052151271460274, -0.2753038042338742, 3.701223190613702, -5.380617150963284, -0.4914444886171171, 4.999605362286702, -0.48714644230424786, -0.1025636558561723, 2.371762053745218, 1.7113183556302671], [-0.39063425824460607, -2.1394451241109946, 4.161053249423869, -2.1042336523776184, -0.6332948777145613, 1.2794245880524615, -2.000021233199003, 3.3932898201191763, -4.361446469084646, 6.814477042075901, -3.9747817610242624, 1.5761639437322095, -2.16450619536354, 2.1829061922734345, -3.968319592135521, -12.46341900881388], [-3.296665848142558, 4.7740301120520945, 1.2520934277868263, 2.0079246734476204, -2.8001325732877618, -1.932330994275058, 3.9760836689222137, -4.266349165378189, -0.3326455093948686, 3.6337577667290066, 3.202594222245707, -0.919131406299409, 4.282757495814341, -1.602632936591507, 5.514038827158982, 2.073969953575789], [-4.571510916119053, 6.999389738818953, -0.7323613878581903, 1.1290470875680114, -2.014538210485802, 5.235054423594278, 4.520909867527867, -3.8625730054094487, 3.985740961049913, 6.582676422183382, -0.004085825348388306, 6.787051174617051, -1.2052433946578118, 3.4470091275252446, -3.328479605672741, -0.3980489726517257], [-0.7497610568851079, 3.804064214455348, -0.09866487523390921, -8.440305399473583, 1.7532256111696904, 4.041355029175181, 5.5418289171070665, -3.3652819372376674, 3.4928854516100576, 2.0993558698699113, -1.008444899767214, -3.4915278548692963, 1.9584134955440888, 2.784105483754489, -0.6712262866074277, 0.7822431827093942], [6.59916085045512, 2.868673396527729, -1.8754960394447848, -3.982027156007635, 0.6501793049463938, 0.4025010048118506, -1.7394917486133747, 2.349084252329107, -4.476311812019005, -4.749489909714301, -4.860572795221744, 1.0177624532331766, 7.029441552631615, -0.8047173679801605, 2.0836033518411132, -2.475451505500586], [-2.671773427617371, -7.894344583779746, -8.943991261902, -1.4558261120700653, -0.3026069841236524, -0.09880300718496682, -0.16734754105585692, -0.4875447517889575, -0.974095475275863, 2.9781409728985206, 0.5044563254801375, -5.2351982012386, 4.10048376169925, -3.3683434253267057, -2.1528714821689525, 2.385863172990547], [-1.6080064731167256, 0.7096267463561601, 0.874953665622938, 5.1140299357198495, -2.6493016895644854, 0.8046416028565505, -1.7527034814942724, 5.330507924669014, -4.649252064799525, 3.832494447604336, 3.382072488477996, 3.2316033418548016, 0.8632086328800296, 2.0427073196888603, -5.451928894437207, 7.272311734887777], [3.1605578312387186, 0.7351093830599171, 3.6751372026978943, 3.858736383151814, -1.09427161967478, 4.7715803861401636, 3.053878237937443, -3.495548795038451, 2.127524149574515, -6.58173356225902, 4.72606964198985, -0.36208580107355903, -2.8884710974490626, 3.6551323600712418, -7.038399390198537, 2.4564309686124988]], "bias": [[-2.346501085516643], [-4.212478107316919], [2.559465257504893], [-0.5046999210309695], [-6.895341238843337], [0.6459843699651504], [6.639751059297156], [0.7918740159241018], [1.6148868999925652], [0.7553307448117669], [0.15514657342766258], [-3.186329715703107], [-2.6593553018229388], [-1.1858267581134168], [8.806548115826534], [3.56176588202188], [1.766620333086515], [0.6845172983146233], [5.507336234987335], [-4.2879689249934705], [-1.2387617696523883], [-4.806257936624154], [2.4203894476186862], [-2.75770178462879]]}, {"layer": "activation", "activation": "tanh", "activation_prime": "tanh_prime"}, {"layer": "dense", "input_size": 24, "output_size": 4, "weights": [[-2.4251076048609703, 4.317468281035936, 1.0366238780722314, 5.038794374062709, 0.90379146018026, 2.844770302088394, -0.33096116045254675, -6.1377093240768685, -2.2219889662259704, -0.14661732536661276, 2.06423219748601, -0.4113484410334233, 7.1040717627050265, 0.9500069151323601, -0.6736369384354417, 1.1817154630828441, -4.799652803831669, -4.2019803996088765, 0.5210104963065112, 0.16412996106954814, 5.125565993308232, -0.10420742916437065, -3.732433635817698, 3.2441610833911287], [3.814552719968028, 4.122879645334464, -5.884527441347143, -0.652232766339303, 3.3513786961107668, -1.1249003565191766, 0.3808475330796392, 4.0150095482384, -3.9162654834031496, -0.46102623973846146, -3.563531265684292, 1.0026534253581394, 4.308293244685162, 0.9255173498743073, 2.3314946643624044, -6.658246205446897, -4.111596094786254, -8.23531308886959, -1.6019395742571727, -5.1925056549581825, -2.531324371597003, -0.5035611264284171, 4.117419771227952, -1.923148976180102], [2.4750542717134794, 0.696187542655494, -0.4934807241714164, 2.0859765863306654, 0.30452896530941664, -7.390204347289847, -0.5973880079681174, 1.0392290260000911, 0.6993938218883167, 2.166871839033025, -0.5043643276226283, -1.5056929776477057, 3.2057551248902714, 4.4312951274388634, 4.098197822478458, -6.280056049182809, 7.2679785874340235, -3.937165840078652, 0.3709319804106084, -2.0327819912949274, -2.7683764892120557, -6.884382212350986, -4.125336492119207, 0.8314638283102342], [-5.148663727043023, -3.8299374406571465, 2.766251057668396, 1.0603772741746733, 0.8442441548440416, -2.566962047028956, 0.23267925963602099, 10.788462525460535, 10.276224186125235, -3.0124922024304706, -2.352439867133939, 0.46954832455302475, 6.667672112516043, 1.823510542384192, 2.554333164662931, 0.6366480660885597, 0.3004430476492969, 0.21445415867375184, -4.553327068664194, -0.25294907600390437, 1.78893177821092, -1.9820954242721858, 3.352531545164025, 0.6533341453674986]], "bias": [[-5.232317902205879], [3.6530363737059903], [-4.78478476731329], [0.07506135878713716]]}, {"layer": "activation", "activation": "sigmoid", "activation_prime": "sigmoid_prime"}]}