{"generation": 354, "fitness": 7.378697629484122e+19, "network": [{"layer": "dense", "input_size": 16, "output_size": 24, "weights": [[2.7824233284173183, 2.320578908962342, -4.775895503351696, 2.389721214615276, -1.5171575816097875, 0.03731491324220021, -3.3285982167988952, 0.2580109319807271, -3.1227694599761655, 10.64042590255046, -13.324046539866266, -1.3940367206889632, -3.038292859792488, 0.38341151837954973, 4.301426929159664, 1.9171786244183453], [-1.8346984562360862, -3.3469332005918124, 2.7473048923691463, 0.9258823991968615, -4.885511060716456, 8.80328402590068, 0.46244066856461175, 9.37170589497081, 0.24967590515278504, -0.06226083509212943, -3.639144484976872, -5.522301474364606, 3.0750022232938017, 4.681286886526362, -0.9628943856618871, -3.388314520730561], [-3.4091596793134316, 4.069677663327632, -2.2256777011695252, -2.8919193439421047, -0.533404884182912, -7.631367971130089, 0.7253766919303245, 1.9655897479045208, 1.734469529447174, 1.6804040592996132, -1.2241462744462657, 2.8106129872675423, 7.497279708385635, 4.844765787272443, -3.523411434174866, 1.0807286734977088], [2.5318884166605575, 3.095894605626459, 1.9062473793434183, -2.1432140420121297, 3.750639842343352, 0.4221992199285538, -0.3963916689275037, 0.44639399511619904, -1.7563267051429217, 2.1747439734225624, 1.514081061701519, -4.297388977330898, -6.276747389692324, 3.4754338685889, -2.2729226825008406, -2.866873248263063], [1.607720214172039, 4.740165029626159, 10.735172267833361, 1.0442054507024272, -0.6460657733406585, 2.2879023268401544, 1.7461849837142565, 0.813232348511211, -5.33528647100515, -2.938629548194003, -3.7275306926709115, 5.872344377524535, 6.737942692108255, 3.0797572091097654, -1.6921183110481248, -2.7289624269131587], [0.016289265985840684, 0.5203930600352097, -2.4145338911819576, 1.878835053519967, -0.3738379330221111, -0.5460621436693114, -1.839887001287193, -4.803510491824934, 3.4027598863184427, -3.8874731226434975, 5.9064306787739, -0.5580258260169346, -1.1466118546745347, -14.071470177366106, 0.7108911619476226, -0.09476638682073676], [4.234926887708653, 1.9105119769188321, -1.202673858063334, 0.7703797197765495, -0.3244671381527584, 8.602116998940183, -5.64979813707028, 7.920319999523265, 1.6391091440784058, -4.200836792326497, -2.9557937235060616, 6.902450245334518, -3.2129959486401543, -3.209017895990538, 6.49607257059576, 4.170019674901451], [-6.072191646577005, 3.4163422376718535, -0.7448764813665807, 1.4153975673675427, 0.061010808627870894, 2.205978111677445, 0.23479945891032808, -3.830056492224423, 0.7590036898865926, -1.161471996531931, 0.3628614761404205, -1.2674237072704937, 0.29430662153249004, -0.8955611163916896, -0.6336622439645193, 1.7902040392148866], [-1.5396050880891796, 4.9682295722038905, -1.4430242048826147, -7.893371946744115, -2.8211416262291653, -4.824204991801071, 6.125487568657689, 3.9224935860794474, 3.1790961125786716, -2.6488298821875906, -4.849784608873296, -2.6052415208250643, -3.6243603795088877, -0.525448509929725, -5.17989868513814, -4.777049802516024], [0.38160799655927846, -4.145352475431174, 2.805290378253541, -4.083759977449896, -1.975315421063454, -0.43243083003444305, 2.2827909307512706, 0.9523649276277559, 3.338125668282923, -5.142925464329741, -1.7106704074116696, -3.188621984775649, 2.4420902770861943, 2.2069910052084305, 6.177533477345342, -3.4007420998687823], [6.578105555120389, -6.690949737604451, 0.0019216716251636567, -0.1192317467357859, -2.933142655492381, 5.808056064232713, 0.15814422850834964, -1.3476952138719493, -0.872712121946891, -1.6479419560126791, -5.665057128877219, -2.71757564359019, -1.4525369270554176, -3.0939729095571202, -8.218561770372569, 7.508882793106868], [2.4374207121276488, 4.978144039791778, -2.9086031497708085, 4.535588287301829, -0.3273718721290707, -2.720743649058423, -4.524400613808989, 2.2864159805827726, -5.677271115632961, 7.722207731594695, -1.0188755683724229, 6.091988963985269, 3.653645000414011, 1.3089824479499497, 5.463990220827155, 1.423591315288077], [1.109970407700535, -2.296611444564065, -4.385644094628941, 2.558418746956243, -1.6022028413999938, 5.901386564438225, 4.856336181175966, 0.39487108106112756, -3.0323050621607095, -2.7906947533937894, 5.780329196295617, 3.575712750616096, -3.561167045566145, 2.592202154706183, -3.6635856513263962, 1.2326478383701618], [-4.408550780263719, -3.1271191732340977, 1.8061848599173527, -10.514395775658983, 2.1071653636342007, -6.279937323093041, 1.1348528704714937, 1.8584353918457448, -4.8111790900578795, 0.3543145586136618, 2.6122705895484795, 7.309986140982649, 1.8225478382397804, -0.3775053413760224, -0.48233632642150676, 1.221317700558336], [-1.7289084069842238, -0.9673418043825313, 3.043328155189605, -2.9425833760699174, -1.8644080337704765, -1.7805138216052419, -2.396969530624393, 2.759035670775837, 6.376525191189052, 0.20946467274502922, -2.1449841952443283, -1.5782319792114246, 1.5768513014919514, 0.39567771939926216, -3.3183738417646635, 1.2965645089597948], [4.380272657529786, 2.235515674706803, 1.3005500660987248, -2.014497768393719, -3.0523762804853494, 2.2677634921631484, 5.412026790788217, -0.011371221596229275, 2.468448616069646, -5.495824525364449, -1.087227813317781, 4.365273915230144, -0.7931071026536368, -2.376134976962794, 1.6021160609429685, 1.7113183556302671], [-1.4691276465836096, -2.9774065222733825, 4.23396124491814, -0.1896933099421414, 0.7513132496109757, 1.2794245880524615, -4.692754703584656, 1.8539476469185803, -3.36901230551525, 7.608734522707076, -3.4588702812907224, 3.228612285684801, -2.863239502727581, 1.513014577817844, -3.3560272029822724, -12.46341900881388], [-3.0034870729026255, 8.304452309229035, 1.800732226480152, 2.0079246734476204, -2.9784149679390346, -1.9833478400208313, 4.200346157241839, -5.185539214114075, -0.3326455093948686, 2.0605443826269596, 2.6389477824475644, -2.934341962098538, 4.208746068226069, -1.602632936591507, 5.805050197370691, 2.073969953575789], [-1.0615024074139179, 6.106935466170808, -1.0795187926405694, 1.1290470875680114, -1.2467059254838728, 7.698389933693782, 2.7863553523647933, -5.0722549360799265, 6.137093580915328, 4.440714420469584, 4.491726899397158, 6.777969803018818, -0.8391836154261743, 4.282661641721489, -3.4704230953992394, -0.502348074112771], [-1.070230698760925, 4.368863932870771, 1.2994358869573928, -8.440305399473583, 4.134445451247003, 3.0540079777610014, 6.389105809179074, -4.183300343356142, 3.510395752718854, 3.337582939767849, 0.5011323525666505, -2.974086893186568, 4.404986339893036, 2.6639545268493214, 0.00482527528633625, 0.7822431827093942], [9.098160434554579, 0.49915120861535156, -1.8754960394447848, -3.982027156007635, 1.4593168502562142, -0.6665520072704721, -1.6957082046671312, 1.0574947258465413, -4.731289417273334, -5.003572577891583, -5.152320818048717, -3.2643053973140153, 7.931277089985212, -2.6902292641921375, 2.0695534169450838, -2.2277555529608724], [-2.953561478394303, -6.165937652422498, -9.570545356551554, -0.8229750446971813, -0.3026069841236524, -2.3157688937615983, 0.6579778941731398, 1.1122121576093094, -0.974095475275863, 2.9781409728985206, 0.5044563254801375, -4.293615283801481, 3.4745111219926916, -2.248370041544548, -5.678364051551048, 2.385863172990547], [-2.840911371153886, 2.003470804749262, 0.874953665622938, 5.030961018084681, -1.487337425357358, 2.2355711258426556, -1.7550679810266117, 5.826785939096876, -4.649252064799525, 3.355240808719022, 3.8417487531681096, 3.2316033418548016, 1.9142668789043826, 2.0427073196888603, -5.497388447295441, 5.170773562029738], [3.374166491970797, 2.182974540153685, 3.204178445174637, 3.6835652456904016, -3.141466783076202, 4.7715803861401636, 3.558325038484374, 0.6921345909713964, 2.127524149574515, -8.102888630012483, 5.337638866537218, -0.9506547168636835, -4.704659381272378, 3.824876747036101, -7.607990826032408, 2.8346715090599344]], "bias": [[-3.2674559948271673], [-5.211883753470159], [2.6350610209690135], [-0.5046999210309695], [-6.895341238843337], [0.6459843699651504], [6.632534335497005], [1.07247577330881], [1.8720434703668336], [0.7553307448117669], [1.2145188287410518], [-3.340606850596638], [-3.9766657827337584], [-1.6463968979109511], [7.190453133118929], [2.7262010368973817], [1.9290359956099918], [0.5927429932197356], [5.507336234987335], [-4.198184686747653], [-3.0439925739730347], [-5.091570307666909], [2.1348614972055278], [-0.1707265537887519]]}, {"layer": "activation", "activation": "tanh", "activation_prime": "tanh_prime"}, {"layer": "dense", "input_size": 24, "output_size": 4, "weights": [[-2.1062913800543934, 3.661734989467679, -0.1462989209844292, 5.447846621259004, 0.90379146018026, 2.4728369157557095, -2.689887468870927, -6.03362738302492, -2.467968786421185, 1.0041766411056492, 2.06423219748601, 0.02806809357604223, 7.981652907690996, 0.3020531522516523, -2.2390876610804598, 0.8013775766185272, -4.799652803831669, -3.534253524883774, 1.4335810246920206, -0.9696747909563105, 3.8371029273563724, 2.2399220536293467, -2.5122966343270177, 5.8692576183557525], [4.6569878835365035, 2.31619378757501, -5.884527441347143, 0.3463703525955112, 2.7427629598260985, -1.1921193716275402, 0.3808475330796392, 4.4501385328646945, -4.2828050256812995, -0.46102623973846146, -3.8042541946742143, 0.6302321221355169, 5.276942432824172, 1.6890174132511873, 3.5012752872084154, -8.009636149927541, -4.527545146485447, -8.217447422807066, -1.7201529757966587, -5.1925056549581825, -1.5090583335009562, -1.0006330739049498, 4.117419771227952, -1.923148976180102], [2.6283748526803565, -0.11765616651775501, -0.5522040150286827, 1.675183202953419, 0.30452896530941664, -7.390204347289847, -1.9609317078766533, 0.39869837530945196, 1.7924801076416694, 1.2048730430507337, -1.9447130148758425, -2.6766449250959696, 3.004964834393024, 7.097487268875584, 2.9113271370425826, -6.280056049182809, 7.2679785874340235, -3.7334845209402228, 0.3709319804106084, -0.804759224351238, -4.374450109576589, -7.693907228833701, -4.125336492119207, 0.8314638283102342], [-4.519188031219907, -4.996710399966957, 2.6944447722474014, 1.201323825808851, 1.735592853797551, -3.0592610978889443, 0.23267925963602099, 10.478237898295697, 9.885649785764267, -3.0124922024304706, -2.352439867133939, 0.46954832455302475, 6.667672112516043, 0.5256953826851207, 5.2817698433401254, 0.6366480660885597, 1.8774491755075868, 1.1826491341807701, -4.553327068664194, 0.37461565206230574, 1.8243110531079982, -0.4945325356656316, 4.787396355559316, -2.2530941024317563]], "bias": [[-4.120977286658428], [3.6981974684894414], [-4.399345271457378], [0.9994122880112863]]}, {"layer": "activation", "activation": "sigmoid", "activation_prime": "sigmoid_prime"}]}