{"generation": 361, "fitness": 2.4178516392292583e+24, "network": [{"layer": "dense", "input_size": 16, "output_size": 24, "weights": [[3.1011704757532206, 0.2961588203953971, -4.479702710097129, 2.389721214615276, -1.5171575816097875, 0.03731491324220021, -2.803885821806035, 0.2580109319807271, -3.1227694599761655, 10.462354069919513, -14.095238116311636, -1.3940367206889632, -3.876791094544742, 0.38341151837954973, 4.301426929159664, 1.9171786244183453], [-1.0729594215300036, -3.3469332005918124, 2.7473048923691463, 0.9258823991968615, -4.885511060716456, 8.80328402590068, 0.46244066856461175, 8.703390619028113, 0.24967590515278504, 0.05671117280751195, -3.639144484976872, -4.827124019781963, 3.0750022232938017, 5.778058420105864, -0.9628943856618871, -3.388314520730561], [-3.4091596793134316, 4.069677663327632, -2.2256777011695252, -2.8919193439421047, -0.533404884182912, -7.631367971130089, 0.7253766919303245, 1.6804786315727696, 1.734469529447174, 1.6804040592996132, 0.8686942464397449, 3.1626141810290993, 7.497279708385635, 4.844765787272443, -3.523411434174866, 1.0807286734977088], [2.5318884166605575, 3.888320414104045, 1.9062473793434183, -1.4012843389573293, 3.750639842343352, 0.4221992199285538, -1.9082969619072077, 0.44639399511619904, -1.7563267051429217, 2.1747439734225624, 2.3930446153381464, -4.550539188784505, -6.119734586263001, 3.4754338685889, -2.2729226825008406, -1.0233658300436699], [-0.6240608686819116, 4.740165029626159, 10.735172267833361, 0.6495043477490363, -0.6460657733406585, 2.2879023268401544, 1.7461849837142565, 0.8228306546615951, -5.33528647100515, -2.938629548194003, -3.7275306926709115, 5.872344377524535, 6.737942692108255, 1.915338591072069, -1.6921183110481248, -2.7289624269131587], [0.016289265985840684, 2.138664005105347, -2.4145338911819576, 1.878835053519967, -0.3738379330221111, -0.5460621436693114, -1.839887001287193, -4.803510491824934, 3.4027598863184427, -3.9815703644992553, 4.512167752065438, -0.5580258260169346, -1.1466118546745347, -14.071470177366106, 0.7108911619476226, -0.09476638682073676], [3.9028551377593796, 1.9105119769188321, -1.202673858063334, 0.7703797197765495, -0.3244671381527584, 3.6234408881288562, -4.711923128881354, 6.438937558235293, 1.6391091440784058, -4.200836792326497, -2.9557937235060616, 6.902450245334518, -3.2129959486401543, -3.209017895990538, 6.49607257059576, 4.170019674901451], [-6.072191646577005, 3.4163422376718535, -0.7448764813665807, 1.4153975673675427, 0.6158006284396846, 2.205978111677445, 0.23479945891032808, -3.830056492224423, 0.7590036898865926, -1.161471996531931, 0.3628614761404205, -1.2674237072704937, 0.29430662153249004, -0.8955611163916896, -0.6336622439645193, 1.5754170278471327], [-1.5396050880891796, 6.091327917312747, -1.4430242048826147, -7.893371946744115, -2.8211416262291653, -4.824204991801071, 6.125487568657689, 1.3586389543573743, 3.1790961125786716, -2.6488298821875906, -4.858833872181926, -2.6052415208250643, -3.6243603795088877, -0.525448509929725, -4.062847829175274, -4.777049802516024], [0.7537707132528559, -4.145352475431174, 2.331336452002894, -6.283417206688381, -1.1461580723455633, -0.43243083003444305, 3.4313758441896347, 1.826725250634943, 3.5341381499922724, -5.759669247904852, 0.09836024700053692, -2.568237149829129, 2.1185532575057273, 2.2069910052084305, 7.400816377809917, -3.4007420998687823], [6.578105555120389, -6.704292638844978, 0.25700205489658523, -0.1192317467357859, -2.933142655492381, 5.808056064232713, 0.15814422850834964, -2.3648609454856855, -1.98833887949892, -1.6479419560126791, -7.026423280350892, -3.3572603480200733, -0.7287790695372727, -3.0939729095571202, -8.218561770372569, 5.257816946498098], [2.452241721973226, 4.978144039791778, -3.2636565931907406, 4.535588287301829, -0.3273718721290707, -2.7751368111835437, -4.524400613808989, 2.2864159805827726, -5.677271115632961, 7.685302858681216, -1.0188755683724229, 6.091988963985269, 5.270537497378431, 1.3089824479499497, 5.463990220827155, 1.423591315288077], [1.109970407700535, -2.296611444564065, -4.385644094628941, 2.558418746956243, -1.5045957579814473, 5.901386564438225, 3.5390761479904684, 0.39487108106112756, -3.0323050621607095, -2.7906947533937894, 5.780329196295617, 3.575712750616096, -3.561167045566145, 2.13735100550791, -3.6635856513263962, 3.2569804485856917], [-4.408550780263719, -3.010782968070572, 2.2611636193717786, -10.514395775658983, 1.49410292507776, -6.7142835458598285, 0.430193665719913, 1.8584353918457448, -4.8111790900578795, 0.3543145586136618, 2.6122705895484795, 7.309986140982649, 1.3081929338908376, -0.3775053413760224, -0.48233632642150676, 1.4039212838328543], [-1.7289084069842238, -0.9673418043825313, 3.043328155189605, -2.9425833760699174, -1.8644080337704765, -0.34507545974597614, -2.396969530624393, 3.586699364000447, 5.368601872337814, 0.20946467274502922, -2.1449841952443283, -1.963113042355576, 1.5319911374468245, 0.39567771939926216, -3.3183738417646635, 1.2965645089597948], [5.885678814986157, 2.235515674706803, 1.3005500660987248, -2.014497768393719, -3.0523762804853494, 2.761884265467178, 5.412026790788217, -0.011371221596229275, 2.468448616069646, -5.495824525364449, -1.087227813317781, 4.097316338760679, -0.7931071026536368, -2.376134976962794, 2.427431613931957, 1.7113183556302671], [-1.4691276465836096, -2.550029939335533, 4.23396124491814, -0.9009305252901376, 0.5224521562251276, 1.2794245880524615, -4.692754703584656, 1.8539476469185803, -3.36901230551525, 7.608734522707076, -1.6811844315096904, 3.228612285684801, -3.421089323019536, 2.317024038058372, -3.3560272029822724, -12.46341900881388], [-3.0034870729026255, 8.304452309229035, 1.800732226480152, 2.0079246734476204, -2.9784149679390346, -1.9833478400208313, 4.200346157241839, -5.185539214114075, -0.3326455093948686, 2.0605443826269596, 1.8622845246695143, -2.46310947498266, 4.208746068226069, -1.602632936591507, 6.27990786910461, 2.073969953575789], [-1.4485701710026475, 6.106935466170808, -1.0795187926405694, 1.1290470875680114, -1.2467059254838728, 7.698389933693782, 2.7863553523647933, -5.0722549360799265, 6.137093580915328, 4.333126033588742, 4.491726899397158, 6.777969803018818, -0.8391836154261743, 4.282661641721489, -3.4704230953992394, -0.502348074112771], [-2.1572903993140073, 3.3535309136206113, 1.2994358869573928, -8.440305399473583, 4.247894282571392, 3.0540079777610014, 6.389105809179074, -3.7243908596673467, 3.510395752718854, 3.1316681462813927, 0.5379191192594222, -3.0046083805860873, 4.404986339893036, 2.6639545268493214, 0.00482527528633625, 1.111858157929646], [9.098160434554579, 0.49915120861535156, -1.9796904749758493, -3.982027156007635, 1.4593168502562142, -0.6665520072704721, -1.6957082046671312, 1.0574947258465413, -4.731289417273334, -3.3429640900827797, -7.4241361221191955, -3.3281822825739855, 7.931277089985212, -2.6902292641921375, 1.7614285481183622, -1.822093854366356], [-2.953561478394303, -7.216783370706878, -9.570545356551554, -0.8229750446971813, 0.16325498840672192, -2.506889639875387, -0.279859852311638, 1.1122121576093094, -0.974095475275863, 2.9781409728985206, 0.5044563254801375, -2.9629050197810867, 3.4745111219926916, -2.248370041544548, -5.678364051551048, 2.385863172990547], [-2.840911371153886, 1.7517703034345535, 0.874953665622938, 5.607092182479926, -1.487337425357358, 2.2355711258426556, -2.3853217061277205, 5.826785939096876, -4.649252064799525, 3.355240808719022, 4.358238803155597, 3.2316033418548016, 1.9142668789043826, 2.0427073196888603, -7.1440142080763165, 5.170773562029738], [3.374166491970797, 0.4988030498187088, 3.204178445174637, 3.6835652456904016, -3.141466783076202, 4.7715803861401636, 3.558325038484374, 0.12469842736950298, 1.0739639283207454, -8.109408310919866, 5.337638866537218, -0.9506547168636835, -4.800697601909345, 3.824876747036101, -7.607990826032408, 2.8346715090599344]], "bias": [[-3.2674559948271673], [-6.985060672974696], [2.6350610209690135], [0.7748884969765226], [-7.029912489352234], [0.5367958124029932], [6.089345157918355], [1.07247577330881], [1.8720434703668336], [0.7553307448117669], [0.9174262687745562], [-3.836398401321937], [-3.9766657827337584], [-1.6463968979109511], [6.648755704177813], [2.7262010368973817], [2.526098884989369], [0.5927429932197356], [5.507336234987335], [-4.198184686747653], [-3.0439925739730347], [-5.091570307666909], [2.1348614972055278], [-0.07649338688306632]]}, {"layer": "activation", "activation": "tanh", "activation_prime": "tanh_prime"}, {"layer": "dense", "input_size": 24, "output_size": 4, "weights": [[-2.1062913800543934, 3.661734989467679, -0.1462989209844292, 5.961553915166295, 0.90379146018026, 2.4728369157557095, -2.635467672514611, -6.338627837542143, -2.467968786421185, 1.6397063963177518, 2.06423219748601, -0.6637403283988044, 7.981652907690996, -0.08013734338936523, -2.2390876610804598, 0.014258134743919015, -4.799652803831669, -3.534253524883774, 1.4335810246920206, -0.9696747909563105, 3.9600880036003554, 2.2399220536293467, -2.5122966343270177, 8.104745437376325], [4.6569878835365035, 3.6446405930735497, -5.446464336593572, 0.3463703525955112, 4.478361710866276, -1.1921193716275402, 0.3808475330796392, 4.4501385328646945, -3.4738203205240987, -0.46102623973846146, -3.8042541946742143, 0.6302321221355169, 4.78779788856667, 1.6890174132511873, 2.513769394511394, -8.009636149927541, -4.527545146485447, -8.217447422807066, -1.7201529757966587, -5.1925056549581825, -4.23055294101804, -1.0006330739049498, 4.117419771227952, -1.923148976180102], [2.6283748526803565, -0.11765616651775501, 0.16457190865396665, 1.2414609069161977, 0.30452896530941664, -7.326907694553746, -1.9609317078766533, 0.8261881123413299, 1.8647701242219112, 1.6433463208304184, -1.9447130148758425, -2.6766449250959696, 4.117341842837444, 7.097487268875584, 2.9113271370425826, -6.280056049182809, 7.2679785874340235, -3.7334845209402228, 0.3709319804106084, -0.804759224351238, -4.374450109576589, -7.983051185973139, -4.125336492119207, 0.8314638283102342], [-4.519188031219907, -6.617255040521069, 2.6944447722474014, 1.201323825808851, 1.735592853797551, -3.0592610978889443, 0.23267925963602099, 11.43648693974656, 10.276224186125235, -2.5967395387205054, -2.352439867133939, 0.46954832455302475, 6.667672112516043, 1.4979555485545732, 5.2817698433401254, 0.6366480660885597, 1.5359009346655192, 1.1826491341807701, -4.553327068664194, 0.37461565206230574, 1.8243110531079982, -0.4945325356656316, 4.395055798204155, -2.507328969004877]], "bias": [[-4.120977286658428], [3.6981974684894414], [-4.399345271457378], [0.9994122880112863]]}, {"layer": "activation", "activation": "sigmoid", "activation_prime": "sigmoid_prime"}]}