{"generation": 366, "fitness": 5.902958103587089e+20, "network": [{"layer": "dense", "input_size": 16, "output_size": 24, "weights": [[1.6162820429412965, 0.2961588203953971, -4.479702710097129, 2.389721214615276, -1.5171575816097875, 0.03731491324220021, -2.803885821806035, 0.2580109319807271, -3.635863936049941, 10.462354069919513, -14.061253874041794, -1.3940367206889632, -3.876791094544742, 0.38341151837954973, 4.301426929159664, 1.9171786244183453], [-1.0729594215300036, -3.3469332005918124, 2.7473048923691463, 0.9258823991968615, -6.867772300346768, 9.349407085482078, 0.46244066856461175, 8.592810783124708, 0.24967590515278504, 0.05671117280751195, -3.639144484976872, -4.827124019781963, 3.0750022232938017, 5.778058420105864, -0.9628943856618871, -3.388314520730561], [-3.4091596793134316, 4.069677663327632, -2.2256777011695252, -2.8919193439421047, -0.533404884182912, -7.631367971130089, 0.7253766919303245, 1.6804786315727696, 1.734469529447174, 1.6804040592996132, 0.8686942464397449, 3.1626141810290993, 7.497279708385635, 4.844765787272443, -3.523411434174866, 1.0807286734977088], [2.5318884166605575, 3.888320414104045, 0.3660938930301636, -3.19064314166405, 3.866124008752878, 2.467725232186017, -1.9082969619072077, 2.261200147485048, -1.7563267051429217, 2.1747439734225624, 2.3930446153381464, -5.949957223432449, -6.119734586263001, 3.4754338685889, -2.2729226825008406, -1.0233658300436699], [-0.6240608686819116, 4.740165029626159, 10.735172267833361, 0.6495043477490363, -0.6460657733406585, 2.2879023268401544, 3.2675476818344618, 0.8228306546615951, -5.33528647100515, -2.938629548194003, -3.7746768223441753, 5.872344377524535, 6.737942692108255, 1.915338591072069, -1.6921183110481248, -2.7289624269131587], [0.016289265985840684, 2.138664005105347, -2.4145338911819576, 1.878835053519967, -0.3738379330221111, -0.5460621436693114, -1.839887001287193, -4.631960953854153, 3.4027598863184427, -4.4901778884299315, 4.512167752065438, -0.5580258260169346, -1.1466118546745347, -14.071470177366106, 0.7108911619476226, -0.09476638682073676], [3.9028551377593796, 1.9105119769188321, -1.202673858063334, 1.5000357822239117, 0.017315124763712803, 3.6234408881288562, -4.711923128881354, 6.438937558235293, 1.6391091440784058, -3.7373590615080596, -2.9557937235060616, 6.902450245334518, -3.2129959486401543, -3.209017895990538, 6.49607257059576, 4.170019674901451], [-7.231704495895927, 3.4163422376718535, -0.7448764813665807, 1.4153975673675427, 0.9486898162976098, 2.205978111677445, 0.23479945891032808, -2.4285169336236763, 0.7590036898865926, -1.161471996531931, 0.3628614761404205, -1.2674237072704937, 0.29430662153249004, -0.8955611163916896, -0.8203937103106734, 1.5754170278471327], [-1.5396050880891796, 6.091327917312747, -1.948695918130515, -7.893371946744115, -2.8211416262291653, -4.824204991801071, 6.125487568657689, 1.3586389543573743, 3.1790961125786716, -2.6488298821875906, -4.858833872181926, -2.6052415208250643, -5.449944484623585, -1.4338026570154279, -4.062847829175274, -4.777049802516024], [0.7537707132528559, -3.5773922064701407, 2.331336452002894, -6.283417206688381, -1.1461580723455633, -0.43243083003444305, 3.4313758441896347, 1.826725250634943, 3.5341381499922724, -5.759669247904852, 0.09836024700053692, -2.568237149829129, 2.1185532575057273, 2.2069910052084305, 7.248415567099696, -3.4080419208715926], [6.578105555120389, -6.704292638844978, 0.25700205489658523, -0.22006793160301996, -2.933142655492381, 5.808056064232713, 0.15814422850834964, -2.3648609454856855, -1.98833887949892, -1.6479419560126791, -7.026423280350892, -3.3572603480200733, -0.7287790695372727, -1.4150193760091185, -9.310966580883884, 5.257816946498098], [2.452241721973226, 4.978144039791778, -3.53065523447471, 5.136328517945437, -0.3273718721290707, -2.7751368111835437, -4.524400613808989, 2.2864159805827726, -5.677271115632961, 8.976630872866465, -1.0188755683724229, 6.091988963985269, 5.270537497378431, 1.3089824479499497, 5.463990220827155, 1.423591315288077], [1.109970407700535, -2.296611444564065, -4.385644094628941, 2.558418746956243, -1.5045957579814473, 5.901386564438225, 3.5390761479904684, 0.39487108106112756, -3.0323050621607095, -2.7906947533937894, 7.05373339478898, 4.570908943529786, -5.846327256021182, 2.13735100550791, -3.6635856513263962, 3.2569804485856917], [-4.408550780263719, -3.010782968070572, 2.2611636193717786, -10.514395775658983, 1.49410292507776, -6.7142835458598285, 1.194647205500761, 2.604257902493604, -4.8111790900578795, 0.3543145586136618, 2.6122705895484795, 7.309986140982649, 3.0569037253409324, -0.3775053413760224, -0.48233632642150676, 0.5947120681550174], [-1.7289084069842238, -0.9673418043825313, 1.7274710817471797, -2.9425833760699174, -0.2310761409598734, -0.34507545974597614, -2.396969530624393, 3.586699364000447, 5.368601872337814, 0.20946467274502922, -1.650257535948998, -1.963113042355576, 1.5319911374468245, 0.39567771939926216, -3.3183738417646635, 0.8240004530267234], [5.885678814986157, 2.235515674706803, 1.3005500660987248, -1.7723356139354085, -3.0523762804853494, 2.761884265467178, 5.412026790788217, 0.3220453739225236, 2.2363481071006905, -5.495824525364449, -1.087227813317781, 4.097316338760679, -0.7931071026536368, -4.372481484758274, 2.427431613931957, 2.682314427465468], [-0.43917605271536875, -2.7008031722860473, 4.23396124491814, -1.9993074615119788, 0.210528891690832, 1.2794245880524615, -4.692754703584656, 1.8539476469185803, -3.36901230551525, 7.608734522707076, -1.6811844315096904, 3.228612285684801, -3.421089323019536, 2.317024038058372, -2.4673308944844905, -12.46341900881388], [-3.3806841466702053, 8.304452309229035, 1.800732226480152, 2.0079246734476204, -2.9784149679390346, -1.9833478400208313, 4.645901291872893, -5.185539214114075, -0.3326455093948686, 1.982292810822154, 1.8622845246695143, -2.46310947498266, 4.208746068226069, -1.602632936591507, 6.27990786910461, 2.073969953575789], [-1.4485701710026475, 6.106935466170808, -1.0795187926405694, -0.6637108161118555, -1.2467059254838728, 7.698389933693782, 2.7863553523647933, -5.0722549360799265, 6.137093580915328, 5.334593801816306, 4.491726899397158, 6.777969803018818, -0.8391836154261743, 4.282661641721489, -3.4704230953992394, -0.502348074112771], [-2.1572903993140073, 3.3535309136206113, 1.2994358869573928, -8.440305399473583, 4.247894282571392, 3.0540079777610014, 5.821111990594973, -3.7243908596673467, 3.510395752718854, 1.8479060287630116, 0.5379191192594222, -3.0046083805860873, 4.404986339893036, 2.6639545268493214, 0.00482527528633625, 1.111858157929646], [9.098160434554579, 0.49915120861535156, -1.4980873995729382, -3.543727233876884, 1.4593168502562142, -1.500785403340252, -1.6957082046671312, 1.0574947258465413, -3.68639857736202, -3.3429640900827797, -9.607059647208562, -3.3281822825739855, 5.7972069404788105, -2.6902292641921375, 1.7614285481183622, 0.03195656537953662], [-3.4711843048561466, -7.216783370706878, -9.570545356551554, -0.8229750446971813, 0.16325498840672192, -2.506889639875387, -0.279859852311638, 1.1122121576093094, -0.974095475275863, 2.9781409728985206, 2.1346379405753426, -3.1555129772950155, 3.4745111219926916, -2.248370041544548, -5.678364051551048, 2.385863172990547], [-3.6838850709170634, 1.7517703034345535, 0.874953665622938, 5.607092182479926, -0.36156442574222303, 2.2355711258426556, -2.3853217061277205, 5.553271750706672, -4.649252064799525, 3.355240808719022, 4.358238803155597, 4.137907660223186, 1.9142668789043826, 2.0427073196888603, -7.1440142080763165, 5.170773562029738], [3.374166491970797, 0.4988030498187088, 3.7888503641201274, 3.6835652456904016, -6.245075922903654, 6.251393502372947, 3.558325038484374, 0.12469842736950298, 1.0739639283207454, -8.109408310919866, 5.337638866537218, -1.0068012426807844, -4.800697601909345, 3.824876747036101, -7.607990826032408, 2.8346715090599344]], "bias": [[-3.2674559948271673], [-6.985060672974696], [2.6350610209690135], [0.7748884969765226], [-7.029912489352234], [1.635015670241057], [6.089345157918355], [1.07247577330881], [1.8720434703668336], [0.7553307448117669], [0.9174262687745562], [-3.836398401321937], [-3.9766657827337584], [-0.9238424944728139], [7.476625363978522], [2.7262010368973817], [2.526098884989369], [0.6254019400831993], [5.507336234987335], [-4.198184686747653], [-3.0439925739730347], [-5.091570307666909], [2.1348614972055278], [-0.07649338688306632]]}, {"layer": "activation", "activation": "tanh", "activation_prime": "tanh_prime"}, {"layer": "dense", "input_size": 24, "output_size": 4, "weights": [[-2.1062913800543934, 3.661734989467679, -0.1462989209844292, 5.961553915166295, 0.90379146018026, 2.4728369157557095, -2.635467672514611, -6.338627837542143, -2.467968786421185, 1.6397063963177518, 2.06423219748601, -0.6637403283988044, 7.981652907690996, -0.08013734338936523, -2.2390876610804598, -0.6571158436346497, -5.019122780489024, -3.534253524883774, 1.1772061902027224, -0.9696747909563105, 3.970993504485168, 2.962004101396709, -2.5122966343270177, 8.104745437376325], [4.6569878835365035, 3.6446405930735497, -5.446464336593572, 0.3463703525955112, 4.478361710866276, -1.1921193716275402, 0.3808475330796392, 4.4501385328646945, -3.888283381739219, -0.46102623973846146, -3.8042541946742143, 0.9271843139787692, 4.78779788856667, 2.2258070128918943, 2.513769394511394, -8.009636149927541, -4.527545146485447, -8.556247326103877, -1.7201529757966587, -5.1925056549581825, -4.23055294101804, -1.0006330739049498, 4.117419771227952, -0.9789551592638395], [1.0322699934673891, -0.11765616651775501, 0.16457190865396665, 1.8707620995024898, 0.30452896530941664, -8.130468082751038, -1.9609317078766533, 0.8261881123413299, 1.8647701242219112, 1.6433463208304184, -1.9447130148758425, -2.6766449250959696, 4.117341842837444, 7.097487268875584, 1.766579424457622, -6.280056049182809, 7.2679785874340235, -3.7334845209402228, 0.3709319804106084, -1.3040135516789704, -4.374450109576589, -8.65541294330735, -4.125336492119207, -0.1162448563952605], [-5.306384964403972, -6.296869653289431, 2.6944447722474014, 0.7120373591648084, 1.0170536535888965, -3.357039672814648, 0.23267925963602099, 12.553991586323974, 10.276224186125235, -2.5967395387205054, -2.352439867133939, 1.8727516527501453, 6.667672112516043, 1.2347433597557502, 5.2817698433401254, 0.6366480660885597, 1.5359009346655192, 1.1826491341807701, -4.553327068664194, 0.37461565206230574, 1.8243110531079982, -0.4945325356656316, 4.395055798204155, -2.507328969004877]], "bias": [[-4.120977286658428], [3.6981974684894414], [-4.955999333986207], [0.9994122880112863]]}, {"layer": "activation", "activation": "sigmoid", "activation_prime": "sigmoid_prime"}]}