{"generation": 40, "fitness": 759995.7682843817, "network": [{"layer": "dense", "input_size": 16, "output_size": 24, "weights": [[-0.5069389301151392, 0.2772857813196757, 0.22244858790532096, 0.9003480158733972, -1.85864597998751, -0.18431841559132123, -1.307951843933275, -0.18534391545985934, 0.7991650694495331, 0.6501430854459623, -1.6042937721654362, 2.44533312534434, -0.431649316344816, -0.4049398999285355, -0.032314306851403574, -1.429425177698652], [2.000742826969267, -1.3573697127149194, 0.04751278609956722, 0.6646581514006196, -0.40580450609330015, -0.5507154966056899, -1.755852798563266, 4.283158411184299, -0.012993204574549555, 0.5269213804378954, 0.4548473048322063, -2.63941028580009, 0.6742785202110679, -1.6398219055964667, 0.935857778098296, -0.5257776600484335], [-1.2060333575049134, -0.8300949697645834, -3.4897218651934065, 0.80056525776551, -1.3022344835015822, 2.66958077586733, 0.3860600416297021, -0.8301439246607349, -0.5721677589183073, 0.7848163369970385, -1.0092281372017529, 0.1962898101551358, 0.12069974741757461, -0.04424785350875139, 0.3298878512324205, 0.763723424757797], [1.2739936478011757, 0.821848610167548, 2.833951124627371, -1.3799822990358623, 3.797662102062751, 0.8002287099715535, 2.075192042350128, 0.6689514916277703, 0.6885408919918826, -0.07248706444637365, 2.9693503524766376, -1.2961174639350326, -2.532878909020928, -1.1518272778008587, 2.13949644503355, 0.27346706139742327], [0.16461935636425543, 0.3728490096467266, 3.507187758756519, 2.2473186469338593, 0.4916676256617154, 2.050756586563539, -3.3802839267923783, 0.5519476651894697, -0.7842048484226259, 0.25624751076183194, -0.11384396375786587, 0.17226630610252597, -0.2198208202143651, 0.6663581448362472, -2.201757102568258, -2.5171033149715756], [0.00882472424022751, 0.3667953086713085, -1.0062759428165102, -0.08028250529840608, 2.046059293883479, 0.9032007197347975, -0.3576105721770262, -4.416907820876161, -2.182464832576312, -1.3121652427844972, 1.683381050007571, 0.8855215084874344, 0.14651116411962029, -0.3470218322513894, 0.24711564261092533, -0.5658767374175222], [-0.15242878293453627, 0.19095904564400934, -1.3255145153003693, -0.6585209224401317, 1.0000765434929986, 1.2967328122585682, -0.42070588442714296, 2.2711233107337048, 1.5405260607779487, 0.7851605215524836, -2.5542626315144448, 0.5086998162356493, -1.0942488192580695, -1.7699612088054066, 4.105324734106118, 2.188390838957237], [-1.5167333918159351, -1.9370964226815495, 0.5855285634547571, -1.26038841123257, -2.7506713154559477, 0.06224204904274885, -0.30155169878036125, -2.126720182634248, 0.451270947816526, -1.4086599594280618, 0.3224173158664698, -0.7482563069143477, 0.3821322638517265, 1.58145294138762, 2.758740848563552, 1.7215638293262674], [0.3358436570698564, -0.7388949809029697, 0.5533841980461468, -0.7293474063830929, 0.5265201776267958, -2.6841312110007154, 0.7066384702372699, 2.7910452419971077, 1.2812295402568283, -0.5245187593926408, -0.5427228020503354, -3.8802436880055313, -1.7862087298060838, -2.172421996944828, -1.5987585249473035, -0.3307905608598724], [0.9003091552736362, -0.2621310685347171, 1.6194616964372257, -2.5449814872365346, -2.4204321679565237, -0.5659579624298867, 3.3305424776909565, -1.1415252714774957, -3.051553836624033, -1.714629922474387, 0.6473114531833113, 0.5417524278212421, -1.0165919436369089, 1.37543754837001, 1.6309425092993584, -0.9764352397934775], [0.34885078278482895, -0.9770452479218666, -0.4664942793092677, 1.4652867442564683, -1.2370055243697347, 0.26548300839880756, 0.3668949558245562, -2.5902984668409945, 1.978924035266346, -0.6219276162089349, 0.5916727265915842, -1.2571350191561925, 0.26062591842713534, 2.2077725498438077, -0.68553942331615, 3.230669194598249], [1.579596352929173, 0.3443119178839096, -2.1016593576537406, 0.1580505670837118, 2.3642089737533594, -0.23044809240600783, -2.331734241817305, 0.6002678494916966, -2.514934305491275, 2.4690590122503506, -0.13803671099199658, 0.38557113336301363, 0.2881438366613518, -0.6786819155385551, -0.7274715795277111, 4.8799972421114735], [-0.3826724090465898, -1.083931028764047, -1.2078154957682783, 0.03399657350644253, -1.0420638233659782, 0.736360934986056, 1.8127982859286036, 2.6409053453394833, -0.26571384426186684, 0.6876212306385499, 0.08612542476603302, 2.6231952175362254, 1.5855407729732027, -0.62056492949714, -1.8549662473522868, 1.353387398226106], [-0.9392088843615127, -1.8687225633139612, -0.6522276339091478, -2.20785602678106, 0.3896145173680259, -0.23054708734058182, -0.0920853824574448, -0.09085004125970353, 0.5445115501049935, -0.21368974519021333, 0.4838527394275769, 0.9660480786793686, -0.16813025409138657, 0.17626696544402598, 0.9684946890434325, -1.1584514232809875], [-0.17155695623904604, 2.345355687046254, -1.8960817505595324, 2.0750190611192174, 0.4019997911084467, 2.2243153560452416, 0.20170910172042172, 0.3439751373875056, -0.07598248295521315, 1.6477103667208215, -3.3161117807002913, 0.24454321555589775, 0.07811977146027693, -0.555560081580668, 0.11726410665516131, 0.12191277972885628], [0.9949534878602625, 0.33111780202368957, 0.04150572954494719, -2.2945245006403385, 0.8651494677005205, 0.517126909665724, 1.907903781609827, -1.2383114554061943, -3.1447268779101423, -0.5916968152873407, -0.6579473949404406, -0.48390958710768756, 0.9246665890926404, 0.9420467646549432, 1.5325605515690799, 0.6808479026685603], [3.009685190948116, -0.8861479204745679, 0.3491110866134851, 0.5475077738885954, -0.35547258373155655, -0.5069867847919474, 0.18580963521473315, -2.7705747775878025, -0.5069927830922158, 1.194004694485188, 2.0877240281287888, -0.9162186291333791, -1.516675010022553, 0.1865271365732809, 0.6584403463414654, -0.562436352651141], [-0.546717498620817, -0.5061878208680595, 1.1853570223072118, 1.8880916233407927, 0.11276157940997633, -1.5516848732882003, 1.8001318863759905, -6.344639966929402, -0.7074260085363712, 0.6073530522269905, 3.3793269967205832, 1.878149749980678, 1.9176495736855592, -0.2051801471497735, -0.1622686109330338, 0.7457999334946552], [-2.3244171986894386, 1.7835770768173278, -0.666995220011552, 0.14383330810440875, -0.9661896789191846, 2.2465878405137887, 0.7886512526554339, -3.929167543055931, -0.7247325501457808, 0.159725754901338, 2.129608060536136, -0.36955485797799037, -0.7748120275196986, 0.771644664896568, 2.47938009572716, 0.6377145127494692], [1.7120747628524466, 0.14356676629796195, 0.29568940533931043, -2.7992499388318266, -0.5812585340705921, -1.1115679511282743, -0.0729294541646219, 0.07695079579877634, 0.33950123601248117, -0.11698435388394895, -0.5770888861447181, -0.19093507623213835, 0.4416851952101052, -0.5861475287323559, 0.2314516633768482, 0.5758369101301899], [3.579266778120576, 0.25959016690258796, -1.7891821312768208, -0.44292396997966876, -0.30420205755812035, 0.2603016178698398, -0.22370860179832752, 2.1662002983046085, 0.7757417741651417, -0.6442237910441793, -2.1563792213133444, -0.8829602003297021, 3.6233773933820643, 4.032732811124979, 0.532006309037099, 0.1536135562031149], [-1.5577530626127059, 0.7141810349639226, -1.145861976385321, 1.6916824731982854, -0.6404371237252385, -1.5484713684422249, -0.13488690101957979, -0.09677519238511667, -0.3311829138235114, -0.4164242158698328, 1.0204109980943865, -0.5355676100996116, -1.8211783287336223, 0.09045638100873857, 1.7372449453807266, 0.008205567009455406], [0.3373076101962271, 1.091778761000015, 0.024221874660163456, 0.5924042090335215, 0.2762219183915958, -0.43617502018626386, -0.07425594376904532, 0.004845037448748785, 0.2518066177762903, 1.4287638616136529, -2.821852525307553, 1.6526539250759376, 0.2747159727968691, 0.581745714457925, -2.7527880036339205, 2.778790823737224], [1.035305837324844, 0.15895339746885595, 0.039730303165558256, -1.5684370849440104, -1.1294292107855062, 1.6803860028998716, -1.142679692148918, -0.04117331273820074, -0.4238181496289062, -0.3327097672797952, 0.39063027657868576, -4.577950108967861, -2.360907720340566, 0.21766180672939284, -0.02012303186285358, -0.021536392646892777]], "bias": [[-0.20382341975212812], [0.09866718903037952], [-0.582170221056427], [1.211907748743509], [-2.0433286457376205], [1.5204309419864575], [0.7421615490326124], [-1.1129589271212454], [-0.27088078721911657], [-0.6658337882026722], [0.6148235700390805], [-1.940055411823014], [0.06472207890520687], [-0.9076812980931697], [1.0783556493346649], [0.29000292959020596], [0.29201113302506787], [0.5825344777481998], [2.6455396705900656], [0.3660644647329523], [-1.5078098515907874], [-0.8454810025959707], [1.6559269341409208], [-0.4806980076775359]]}, {"layer": "activation", "activation": "tanh", "activation_prime": "tanh_prime"}, {"layer": "dense", "input_size": 24, "output_size": 4, "weights": [[-1.6707751181938515, 0.4115346284592263, 0.13190254095947918, 3.3742243570406654, -0.7867856641675111, 1.9160637737915365, 0.07424248812460243, -0.07178554577469165, -1.0840667974026055, 0.7237872663171955, 0.2908326141148585, -2.7105415144495337, -0.07210321039553391, -0.2627033171439449, -1.7494975884686035, -0.7624164029095053, 0.17824839184830754, -1.0282498225566181, -0.8562599194246684, 0.5380627597511616, 3.9728818369561596, -1.755344576033404, -2.6775879295289036, 2.7543059530369893], [-0.7669344271520695, 0.7732575288653166, -1.6778841237771727, -0.09035794915987383, 2.2809300408829745, -0.7933702312431649, 1.5085761078547262, 1.3757250450204777, 0.05660061045850662, 0.16948236074338635, -3.3242292745106568, -0.5661500175225953, 1.965951369602454, -0.10709723083265224, 1.2679456629146153, -2.7404914019882405, 0.5485230921816057, -4.702018206863248, 0.2396937522987701, 0.34427804829806186, 1.6436312213964148, 0.7076439950320204, 1.358781071933995, -0.6876649285216518], [-1.0774860622096674, 1.4765239049905738, 0.4272882820069054, 1.0710735045687207, 1.2629686455156461, -2.977659010370774, 0.5900077262340857, 1.603161938181493, -0.6547551714043063, -1.183448396127051, -1.8798720461311236, -0.3465956202070357, 0.5086828938289474, 1.0645268999915676, 1.5899990109314035, 0.7585178201816234, 0.3899449190542459, -0.4611980029547791, 0.6439018176445195, 1.3226542792697131, 0.30183863217744555, 0.46917124491743395, -0.45024664019519367, -1.3285219442743086], [-1.6396098635318956, -2.659193543142628, 1.5987991507361, -0.49223904042550626, 1.0438998614633637, -0.1973183950848697, -1.7366724765844423, -0.3789758373481378, 1.8521137340443348, -0.9020023693074053, -0.12800094872173529, 1.5666187600786454, 4.035798721236908, 3.4588541170942113, 0.9395733984367102, 0.9829225022288881, -1.206451666361362, 4.036884145262164, 1.5177615612087711, -1.2206889821229319, -0.23111043687695837, -0.20052637258515948, 0.39338116903106213, -0.2051230037635383]], "bias": [[-0.5226330858732176], [0.8410069675377281], [-0.2063149012447133], [0.8248204085932949]]}, {"layer": "activation", "activation": "sigmoid", "activation_prime": "sigmoid_prime"}]}