{"generation": 41, "fitness": 1311524.66530545, "network": [{"layer": "dense", "input_size": 16, "output_size": 24, "weights": [[-1.0988768458442202, 0.7210468424897593, 0.10213263375738568, 0.9003480158733972, -2.382770318099209, -0.18431841559132123, -1.307951843933275, 1.2111851345129883, -0.020337016303834998, 0.6501430854459623, -1.6042937721654362, 0.8105546598960975, -0.431649316344816, -0.4049398999285355, -0.032314306851403574, 0.5046512380664907], [1.5719576537897004, -0.418151570243646, 0.04751278609956722, -0.3295997737801839, -2.5140453805718965, -1.1281539023433425, -1.755852798563266, 4.283158411184299, -0.012993204574549555, 0.5269213804378954, 0.4548473048322063, -2.63941028580009, 0.7859307810307549, 0.9895796064660546, 1.0677813169731032, -0.5257776600484335], [-1.2060333575049134, -0.8300949697645834, -3.4897218651934065, 0.80056525776551, -1.3022344835015822, 2.66958077586733, 0.7267363803913306, -0.8301439246607349, -0.11176334953145817, 0.7848163369970385, -1.0092281372017529, 0.1962898101551358, 0.12069974741757461, 1.392656371439059, 1.0116522208802923, 0.763723424757797], [1.2739936478011757, 1.9739291166921153, -0.3748520769385308, -1.8375986120261214, 1.9907728831045577, 0.8002287099715535, 2.075192042350128, 0.6689514916277703, 0.6885408919918826, -0.013219547291410831, 4.469613408687027, -1.2961174639350326, -2.532878909020928, -0.22858794421563491, 0.9397360905212615, 0.27346706139742327], [-0.9112520313256282, 0.3728490096467266, 1.3406889392214434, 2.3121115588530388, 0.9341638102178106, 1.7967189892192827, 0.8570751553420455, 1.38565028331758, -0.9258777115399298, 0.25624751076183194, 0.3014356114327581, 0.17226630610252597, 0.7762283324193797, 0.6663581448362472, -1.2833548722175183, -2.2180432781648083], [0.00882472424022751, 0.3667953086713085, 0.618352746998835, -0.08028250529840608, 0.7416008526549414, 0.5827295857677539, 1.3293302724079696, -4.416907820876161, -0.9250641912742072, -2.480384990873653, 1.1529464698977416, 0.8855215084874344, 0.14651116411962029, -1.7560325091173625, 0.16522763501205817, -0.8425507045936126], [-0.15242878293453627, 0.19095904564400934, -0.4138709924994901, 0.3768425643943688, 2.5484814642094236, 1.2967328122585682, -0.42070588442714296, 1.938912776258911, 1.1697686613976872, -0.010807985002958098, -1.758695086968602, 0.23891601792413913, -1.0942488192580695, -1.7699612088054066, 5.134365617361731, 0.8263463274725288], [-1.5295094945982313, -1.9370964226815495, 0.5855285634547571, -0.5523162425993859, -1.448417425307499, 0.06224204904274885, -0.30155169878036125, -2.126720182634248, 0.451270947816526, -1.4086599594280618, -0.4571402487503847, 0.04662254680279715, 0.3821322638517265, 1.58145294138762, 2.1730454817888143, 1.7215638293262674], [0.3358436570698564, -0.7388949809029697, -2.535777940396844, -0.7293474063830929, 0.5265201776267958, -2.9305913091395133, 2.1972440400566313, 2.7910452419971077, -0.5044179802096761, -0.5245187593926408, -0.5427228020503354, -2.1976177731490707, -1.7862087298060838, -2.172421996944828, -1.5987585249473035, -1.0876895664632706], [0.9632317875551653, -1.3670814747359474, 0.7507473318081116, -2.5449814872365346, -2.8213526281010504, -0.5659579624298867, 1.9857855389865193, -1.1415252714774957, -4.029860611388848, -0.7551167545428294, 0.6473114531833113, -0.3384927605582928, -1.1838042342639028, 2.309484731803148, 0.6525212856478377, -0.9764352397934775], [0.34885078278482895, -0.2699174423238032, -0.09767198753122897, 1.4652867442564683, -1.2370055243697347, 0.26548300839880756, 0.6823131294460411, -2.322575310183539, 1.0219936678761434, -2.2104389305311827, 0.017022510308226213, -1.2660147278254825, 0.26062591842713534, 2.273936526964147, -0.3534288942493628, 0.9859511586261733], [1.579596352929173, 0.3443119178839096, -2.1016593576537406, 0.1580505670837118, 2.3642089737533594, -0.23044809240600783, -2.331734241817305, 0.2826413555782865, 0.3881939622223771, 0.3185069432543348, -0.13803671099199658, 0.9452104040414295, 0.2881438366613518, -0.6786819155385551, -1.0868358556220576, 4.8799972421114735], [-0.3826724090465898, -1.083931028764047, -3.3007988377260027, 0.03399657350644253, -0.4633588352580891, 0.736360934986056, 3.6348601843045136, 2.6409053453394833, -0.26571384426186684, -0.27852337955205164, 2.090491463512655, 3.022964163692981, 1.5855407729732027, 4.084941796376537, -0.19359629065027906, 0.2975291330139438], [-0.9392088843615127, -1.8687225633139612, -0.6522276339091478, -3.1568386848083643, 0.3896145173680259, -0.23054708734058182, -0.8041662640971037, -0.09085004125970353, 0.5445115501049935, -0.21368974519021333, -0.26904547554958547, 3.708714514658772, -0.16813025409138657, 0.17626696544402598, 0.9684946890434325, -0.8646820268112608], [-0.17155695623904604, 2.345355687046254, -2.7996847410855548, -0.4959177512056543, -0.14594791125649076, 2.2243153560452416, 0.20170910172042172, 1.3957868878511868, -0.07598248295521315, 1.6477103667208215, -3.3161117807002913, 0.3468746588451055, 0.07811977146027693, -0.555560081580668, 1.3396248355466205, 0.12191277972885628], [0.9949534878602625, 0.7506422471346734, 0.04150572954494719, -2.2945245006403385, 0.36378206843445804, 0.517126909665724, 0.2985618741027075, -1.2383114554061943, -0.8863850885918438, -0.5916968152873407, -0.19692150818017806, -0.8962644379011767, 1.2440305679021662, 0.646768812970943, 1.5325605515690799, 0.6808479026685603], [1.9067554641212727, -0.30656109437446155, 0.3491110866134851, 0.18963454738297358, -0.4649150358840099, -1.3328082605241227, 0.18580963521473315, -1.4662262174216676, -0.5069927830922158, 1.194004694485188, 2.0877240281287888, 0.2875096021006882, -1.516675010022553, 0.6171936018817885, 0.6584403463414654, -1.5015472502839744], [-0.719741643850944, -0.5061878208680595, 0.45179967828891554, 1.6178865633089088, 0.11276157940997633, -0.6981627531778627, 2.1088474542646187, -4.1914227085237545, -0.7074260085363712, 0.6073530522269905, 3.3793269967205832, 1.878149749980678, 1.9176495736855592, -0.5082979339928841, 2.2368268344595252, 0.7457999334946552], [-2.313679139701569, 1.5998413235464077, -0.666995220011552, -0.34976293855675267, -1.4576267064592785, 2.062925007486822, 0.7886512526554339, -3.5761485860804867, -1.5644136955238561, 0.159725754901338, 0.44603322208708823, -0.36955485797799037, -0.5057062093077309, 0.6292817749143067, 2.47938009572716, 0.6377145127494692], [2.3687753318254963, 0.14356676629796195, 0.8553397889055588, -2.7992499388318266, -0.6669241656068705, 0.3795614176470512, -0.28140897506636176, -1.1488202456928787, 0.4086768391080051, 0.453643916646846, -0.5770888861447181, -1.0594878721963354, 0.16019667093507928, -0.9436450736903442, 0.2314516633768482, 2.822409530558528], [3.4073410637521655, -1.5781580164618536, -1.7891821312768208, -0.5585878698779024, -0.30420205755812035, 0.06859348661260081, -0.22370860179832752, 0.08161977892127587, 1.4455293083424468, -0.42542602575723065, -2.1563792213133444, -0.9668956723492147, 3.6233773933820643, 4.5383051705409345, 0.532006309037099, 0.1536135562031149], [-1.5577530626127059, 0.7141810349639226, -1.145861976385321, 1.5125468817852867, 0.8667865253684441, 0.45998299131116727, -0.8046823079396077, -0.09677519238511667, -0.3311829138235114, 1.1364997902375757, 1.0204109980943865, -3.054878749737919, -1.8211783287336223, -0.02632600131368079, 1.8250741309319265, 0.12252472066489369], [0.3373076101962271, 0.9690375344498586, -0.13895464160097237, 0.8104810339843788, 0.2762219183915958, -0.43617502018626386, -0.07425594376904532, 0.004845037448748785, 0.2518066177762903, 1.4287638616136529, -2.821852525307553, 1.6526539250759376, 1.1078632407983344, 0.581745714457925, -2.4095018455886104, 2.08624941210228], [0.5448729262057205, 1.1755268703063038, 0.039730303165558256, -1.5684370849440104, 1.1100021878879796, 2.64498481076259, -0.8205740361041971, -0.1626825362205672, -0.4238181496289062, -0.3327097672797952, 0.39063027657868576, -2.5416141422370337, -2.360907720340566, 0.21766180672939284, -0.02012303186285358, -0.021536392646892777]], "bias": [[-0.20382341975212812], [-0.5855642559667417], [-0.6357224084023441], [0.6523590817498436], [-2.0433286457376205], [0.9664263614639191], [0.9596280282941559], [-0.2916049506008993], [1.1491822353404708], [-0.13606540034917924], [0.6148235700390805], [-2.2304101390565623], [0.06472207890520687], [-0.9076812980931697], [0.3988513877172204], [-0.47969798923996093], [0.29201113302506787], [0.5825344777481998], [2.6455396705900656], [0.11941563063361182], [-1.5078098515907874], [-0.8454810025959707], [-1.742959942452716], [-0.4806980076775359]]}, {"layer": "activation", "activation": "tanh", "activation_prime": "tanh_prime"}, {"layer": "dense", "input_size": 24, "output_size": 4, "weights": [[-1.6707751181938515, 0.4115346284592263, 0.46508981314695924, 3.3742243570406654, -1.5266834712549051, 2.1638123166791696, 0.07424248812460243, -0.07178554577469165, -1.0840667974026055, 0.03509858542605335, -0.18906342915664842, -0.6830761306535249, -0.07210321039553391, 0.21164393851316904, -1.2973460087748256, -0.07064368085618122, 0.17824839184830754, -1.0282498225566181, -0.14992269389075785, 0.5380627597511616, 2.666524912876365, 0.11375631916880957, -0.9930877046677606, 2.7543059530369893], [-0.48061484975488133, 0.7732575288653166, -1.6778841237771727, -0.09035794915987383, 0.8188541033138427, -1.5371169549538921, 2.91002458877886, 1.3757250450204777, 0.4467053714811196, -0.7868765591932946, -2.639756714355057, -0.5661500175225953, 3.1005960300259576, -0.10709723083265224, 0.5580419824845916, -2.7404914019882405, 0.2215239221505676, -4.4992289553830105, 0.2396937522987701, 0.2981115604793498, 1.6436312213964148, 0.7076439950320204, 1.358781071933995, -0.6876649285216518], [-2.341678513516481, 1.4765239049905738, 0.6168881769961392, 1.0710735045687207, 0.10920256123685324, -2.977659010370774, 1.355190939307035, 1.603161938181493, 0.4694573116578433, -1.183448396127051, -4.276767588383894, -0.6776480936609164, 2.1178953637967206, 0.8399191950864501, 1.5899990109314035, 0.7585178201816234, 0.04806115906612385, 0.0006541498268010093, 0.6439018176445195, 1.3226542792697131, 0.30183863217744555, 0.37938070362817483, 0.6760454598712997, -1.3285219442743086], [-2.321408709030874, -0.5373692695891212, 1.5987991507361, -0.49223904042550626, 0.701095549482539, -0.1973183950848697, -1.7366724765844423, -0.21959537614616242, 3.6779067941060966, -0.2199226131922779, 0.8852974251785235, 1.3000927559599798, 4.035798721236908, 0.814331622808537, 0.8262084955359414, -0.7307275489759489, -1.206451666361362, 3.2171816952224344, 0.8843741766042188, -1.5800813133321354, -0.23111043687695837, -0.20052637258515948, 0.08377654068337453, -0.34657115831402807]], "bias": [[-0.5226330858732176], [0.8410069675377281], [-0.2063149012447133], [1.541052869147432]]}, {"layer": "activation", "activation": "sigmoid", "activation_prime": "sigmoid_prime"}]}