{"generation": 43, "fitness": 8739421.655269254, "network": [{"layer": "dense", "input_size": 16, "output_size": 24, "weights": [[1.5110243082720873, 2.739511745581722, -0.6128983857010837, -0.2812833359499646, 2.5832305405821256, -2.074409551815164, 0.207591928000383, -2.212122152076027, -0.5419287475964809, 1.3961618449269366, 0.27561776794463033, -0.6051573758534392, -0.40218779361582646, 3.0075204720902633, -1.0762501162082616, 1.5197356715848915], [-0.9254018874133876, -1.165896573741598, 0.20544472756608317, 0.10695566580163923, 1.5145001471856887, 2.8896982945112986, 0.6736878229579197, -2.0157106764770107, -5.682353611215021, 0.44598794822243576, -2.9489818954698857, 0.956527660580734, -1.2277979261221188, 1.7519601064491068, 1.8555484544227203, 3.255766140226993], [2.738296972452544, 2.0955345054434407, 1.8082819857074033, 1.1813358955647193, -1.0473234085243666, 3.1282295389944537, -0.3011477022243296, -0.7687788204048487, 3.699544324285756, -1.2459008791920818, 2.6519949630519672, -0.22312025143462866, -1.000727463079607, 1.296570149800031, 1.7827736729232424, -0.07384907841226701], [1.3542788492780624, 2.9195190168165848, 2.495102241726491, -0.3570614401107878, 0.19369680960465527, -4.525420451791247, -0.9556847936566726, 0.847289427130387, 0.10041957309751348, -0.5618420241013599, -0.05709707160798905, -0.3454487136366531, -0.42499101401551587, -0.8770014946383254, -2.9443442597254457, -0.9062379368115261], [-1.037104415090862, 0.46283499990146404, 0.35987808712263925, 2.970224587374602, 2.432912999413349, -1.4578994884113365, 0.698174813945655, 0.6945750875099873, -0.8697490517952164, -0.14802684581817538, 0.939725669205439, -0.34040848259952716, 0.597946751717897, 0.5010594893204865, -2.1463865783881513, -1.504001957566776], [-0.9257532271761479, 2.462397684935638, 0.7619545215293413, -1.4153258190211635, -0.46590508576448375, -2.421412221905994, 1.3609293787162544, -0.24537939084981164, -0.8123766577857704, 2.612596718148453, -3.126238880704474, -1.011796897825381, 0.08713707743585625, 1.4165938789974655, -1.858127885346387, 1.7258555110938816], [0.7853094119494362, -0.10455741625290726, 1.3222962722783533, -0.6844783225033484, 0.10722091344929074, -2.236297905339821, -2.402840332429156, -0.31896154909733265, -0.6666269812489465, -1.912742715811625, 2.8597100298820948, 1.0553357892690318, 1.2767137509781683, -1.9145940973084845, 0.5392342222745157, -4.415679837118417], [0.14664265740436444, -1.9564527653019281, 0.8252891431609044, 0.5376855221405386, 1.191433792380653, -0.09078973905944698, 2.2000138794753905, -2.1808010903609856, -2.041298034638259, 0.7814373339138638, 0.24748217323653687, -0.5406982884436098, 0.9122772819589634, -1.3213011646045107, 0.18011369105722544, 0.03396279271498037], [-2.704899895990921, 0.42427118184674584, 0.5022930577893874, 0.12506971975851924, -1.2806247470308747, -0.26632599088734854, 0.21490952147561815, 1.5814435143787682, 2.4499008494728147, 0.1516182203992158, 0.5992093344903656, -1.749215064357501, 0.9946777995677231, -0.877543407671314, 0.9694036780299302, -0.2633388154162236], [-1.2541073481282163, 0.15131287712805563, 0.14330321392215906, -0.02219750489703426, -3.9863422999483067, -0.1876666023839867, -1.5717391895713855, 0.7464683010767268, 0.7984993246826337, -2.210905425901622, -2.1635887109190475, -1.7047634216321101, 1.0152706746045208, -2.58981142797408, 0.8499868758602334, 0.4392477668924587], [-1.304752217624575, 1.4231347714307314, 1.654790897155489, -3.323007000815193, 1.6223389974279683, -0.004049211547774156, 2.419386955554656, -3.209369179255425, 0.796713577920681, -1.0960346773611243, -3.9851752647159895, 1.1900666137698903, -1.4607658789540445, -0.4782908045914959, -0.5934464815023026, -1.994843298490268], [-0.771660505224593, 1.2831062962193605, 1.7104735941771834, -0.535503625101442, -1.0287724575991088, -1.278887488534928, 2.093722337653898, -1.3389555257469656, 1.769607943162036, 0.3826214732468022, 2.214595894347452, -0.5268340545659722, 2.1345253564063347, -2.054870049561377, 1.755819750774479, 2.3535614724248255], [-0.3937003919334494, -1.9256823278644275, 4.618177857749023, -0.9916293101125819, 1.6886396095624652, -0.6479795983068706, 0.7650671851906315, -2.0535005236386423, -0.22010518951134617, 0.5203744259221923, 0.5709040270400609, -0.11578896454631682, 0.708981683260745, 1.0387167044157868, -0.061185512662434854, -0.29628390671434235], [-0.7655606771711568, 0.8722502960731964, -1.8659172495077472, -1.3797729164847805, 0.5059205028517297, 0.07814981475462113, 1.5315283487336995, 2.1071034136777063, -0.6931102414092574, 2.357472154622013, -0.3097261893310195, 0.7779865020162761, -1.5966452366474535, 0.518412940399318, -3.9833174284580886, 2.6486168436538726], [-0.492207314556379, -0.0608085289366586, 1.1594846496727649, 0.5898668245890366, -0.4594950722196969, -4.049081019237583, 1.2193602609562815, -1.4793443477971109, -1.3993995072031897, -0.6625284487241593, 3.330629164630569, 0.8908357774321044, 0.6103991148395359, 1.0561035665104956, -0.5561223642297749, -1.019182809118695], [5.102768548348433, -1.9714925125651424, -1.6688977118184032, -0.9563811034913057, -2.5339678408296056, -3.9201690002547838, -0.5638431182801854, 1.2505435596078232, -1.805173040598167, -0.1577129744348736, 0.3325640887864928, -3.3756135285018996, -5.560900902016094, 1.291329353158924, -0.7057525882871014, 2.9774695949394223], [0.792247123941521, -0.8161550871364655, 3.180395847255009, 1.2516954030902585, -0.7423703790214478, 0.2845964170694293, -1.8680387049723182, -1.7709067093383861, 2.0912444545820685, -1.9075077798972075, 0.38047081606834254, 0.7752279619149883, 3.611505445246687, -1.6720960640986413, 0.4397708050137482, 2.8327351101280316], [1.3976508661143252, 1.159483944731297, 1.4720760546552834, 2.755864374738495, 2.1724977042336695, -0.7277795941814036, 1.1063415061810662, 0.3844708096216438, 1.463496502656417, -0.2576928089551993, -0.3074847154837151, 2.9487776287228766, -3.0680273642539024, -0.040490271698632174, 1.2941713588960195, -0.3510885651208263], [-0.8854079169736437, -1.4602072913803443, 1.1456019663852448, -1.597998304962553, 1.025786065799016, -0.2254830630366721, 0.9795344677042797, 0.7273019870419739, -0.8135568516433498, -0.9393265498529382, 0.2845552608213249, 2.3350924206287216, 0.9779431397052163, -0.10011030383362252, 2.062513468717275, -0.6213724356002504], [3.302328893815765, 2.213380029584039, 0.21940084062447562, 0.6542639381899682, 0.8543568728541272, 0.6048837698207958, 2.2749489175715327, 2.3241205749006904, -4.234530516462007, -3.9646400257014562, -2.5300692203346626, -0.7285198571078848, 2.27857215943577, -0.14786803431274603, -1.5145744995939079, -1.1153323563672481], [0.14258902474975482, 2.2956853150715535, 0.1121963760366822, -0.9156349177220973, 0.38367168326153567, 0.3108494336537647, 0.40212136273245913, -0.6907060637319371, 0.5636463170549448, 1.5733044762716986, -0.11044737527593197, -0.10832231116567725, 0.738099072295834, -1.335319938348632, -0.03512202767577699, -1.6514204366178973], [2.693482188311445, -2.0695438708570966, -0.40212876919086615, 0.9159122303488193, 1.600021351536727, 2.4263829278698035, -0.0007987344786510864, 3.0885413969512987, -0.001033595889789074, 1.2556193659310637, 1.4016286859082898, -0.27030673713543285, -0.04891032027028325, 0.08335764800040968, -0.6730542909696399, 1.3104199037765063], [1.6851024268550368, -1.0149210511068396, 0.6315773596875611, 0.9657474130104367, -3.747919058382595, -0.20222907344386543, -1.6352430468802874, -0.42251019603058615, 2.358211240856373, 2.461021528238121, 1.0323608148824568, -2.368854718321545, 0.7197567641253162, -0.4788634778229415, -0.22599992795157964, 0.30290179556425006], [-1.6903670683508958, 0.14574473648653907, -0.7656906312043743, -0.2027898786022333, 0.31284658260444903, 0.08149401599525441, -0.6129837190545513, -1.9146378195772658, 2.1965726104497874, -0.2033275821954057, -0.6051908774493682, -0.8003497012356775, 1.0278259683529378, 0.8560356819930777, 0.5931567389015885, 0.1345279099120138]], "bias": [[-0.38960885745098106], [2.3351257574209203], [1.9814066977801557], [1.64884746650038], [0.0452784007941574], [0.21881497578933795], [0.2519051937193093], [0.4223280004460934], [0.0308171314324341], [-5.437649843846215], [0.13191608924182585], [-0.33224570191193226], [-0.831250893934093], [0.08080645375732387], [-3.227063090772787], [-1.1966706350928387], [1.2560483606205828], [0.05799351365186367], [-0.3240529866059173], [0.7452603747287785], [0.436593562096962], [-2.3442319240211678], [-0.31947502800599437], [0.7428481984122337]]}, {"layer": "activation", "activation": "tanh", "activation_prime": "tanh_prime"}, {"layer": "dense", "input_size": 24, "output_size": 4, "weights": [[-0.6798874403134798, 1.6923897027726849, -0.0544442718692163, -0.776991459871561, 3.431554835447261, 0.8596655623658687, -0.15130248785770223, -0.9044542155817337, -0.013640043743560482, 0.17524610138390717, 1.5671702456457868, 0.48581845806915713, -1.7646759494350612, -1.4091771314155963, 0.9579750472363362, -2.932500323820176, 1.6567472007113584, 0.6322551078243013, 1.2470128077367286, -0.3863504484563387, 0.20585631272069604, 0.39588300027637113, 2.4550016320374124, 0.5357055448263208], [0.9632764892188457, 1.4628563340609468, 0.36611250435000964, -1.1275572539981344, 0.7352573385842239, 0.601838347456515, 1.222846813191795, -1.5048102424445065, 0.6455338545485518, -2.5273942469961046, -0.3068285094736922, -2.2385881832324546, -0.6201572095480519, 2.018884718015626, 1.2643033992076655, 2.5833233863659806, 2.606302355428919, 0.8372071454950981, 1.704622817855664, 1.4308376576712958, -1.115508581513986, 1.9239833192605478, 0.3079697695945174, -0.2790426684325213], [-0.09052930666500159, 2.5524197652345233, -1.8464462554541268, 1.2899061457921328, 2.9519944728310965, 0.008216306697339304, 2.147181692996025, 0.4991238776200772, -1.2616636130018204, 1.1169670338926392, 3.1841071751339287, -1.314795793294444, 3.4351283372731842, 1.5603833559369698, 0.40560616696224044, -0.007662678199334125, 0.30290743058783254, 0.20530558282038647, 0.8850945266688237, 1.4472278519723694, 0.6754138652257717, -0.9517253307093388, -0.5888193799420605, 1.6086579920824204], [-0.20195503517475388, -0.6979080523663894, -1.1444521115785486, -0.7329246983696445, 1.1654687585400396, 2.628687442440741, 0.390989175812034, 0.45785026433625026, 0.9997884682144418, -0.45553068741496033, -1.6806593179036762, -0.1179075746292002, -0.9577560922862706, 0.5327005471413477, 1.2211187400567778, 0.027707427520020533, -0.4346753258724134, 0.5011967282044925, -2.745225802515521, -1.8617397172218395, -1.779677454435621, 1.9200919645551826, -0.6922855582787948, 0.919230809906164]], "bias": [[-1.5079858483161297], [-0.9399382251478776], [1.3042225956673936], [0.7265465802853515]]}, {"layer": "activation", "activation": "sigmoid", "activation_prime": "sigmoid_prime"}]}