{"generation": 48, "fitness": 315947.9518368237, "network": [{"layer": "dense", "input_size": 16, "output_size": 24, "weights": [[-0.7510955282944901, 0.7385969503191654, -0.3963258100665654, -0.20411402091209996, -2.382770318099209, -0.8231768301340534, -1.307951843933275, 0.45640649593911775, -1.0825405683163403, 0.6501430854459623, -1.9587366595518425, 0.8105546598960975, -0.431649316344816, -0.4049398999285355, -0.032314306851403574, 0.5046512380664907], [1.9411368864247351, -0.418151570243646, 0.04751278609956722, -0.3295997737801839, -2.5140453805718965, -1.1281539023433425, -1.755852798563266, 4.283158411184299, -0.012993204574549555, 0.5269213804378954, 0.4548473048322063, -2.63941028580009, 0.7859307810307549, 0.9895796064660546, 1.0677813169731032, -0.5257776600484335], [-1.2060333575049134, -1.2789155753535688, -3.4897218651934065, 0.80056525776551, -1.3022344835015822, 2.66958077586733, 0.7267363803913306, -0.8301439246607349, -0.11176334953145817, 0.7848163369970385, -1.0092281372017529, 0.1962898101551358, -0.03872478022368428, 2.469637051783711, 0.22551810301557185, 0.763723424757797], [1.1503107485668824, 1.9739291166921153, -0.3748520769385308, -1.8375986120261214, 1.9907728831045577, 2.901494616915893, 2.075192042350128, 0.6689514916277703, -0.2598167957326727, -0.013219547291410831, 4.831639331196227, -2.2312518404681057, -2.532878909020928, 1.2111296927150546, -0.7046638160816106, -1.1424925532454502], [-0.9112520313256282, 0.3728490096467266, 1.3406889392214434, 2.0975252193688716, 0.9341638102178106, 3.4883687983492377, -1.4960274682249326, 1.38565028331758, -0.9258777115399298, 0.25624751076183194, 0.3014356114327581, 0.17226630610252597, 0.7762283324193797, 0.6663581448362472, -0.5512295537330231, -2.0758092918703266], [-0.019643294102606134, 2.038949719261961, 0.618352746998835, -0.08028250529840608, 0.7416008526549414, 0.5827295857677539, 1.3293302724079696, -4.416907820876161, -0.7438135049834509, -2.480384990873653, 1.1529464698977416, 0.8855215084874344, 0.5989862896439325, -1.7560325091173625, 0.16522763501205817, -0.8425507045936126], [-0.15242878293453627, 0.19095904564400934, -0.4138709924994901, 0.3768425643943688, 3.7378536735440466, 1.2967328122585682, -0.42070588442714296, 1.938912776258911, 2.026422185527434, -0.010807985002958098, -1.758695086968602, 0.23891601792413913, -0.12964917900684592, -1.7699612088054066, 5.134365617361731, 0.4378625627291198], [-1.5295094945982313, -3.5186517889056557, -1.4818892389182534, -0.5523162425993859, -1.448417425307499, 0.06224204904274885, -0.30155169878036125, -2.126720182634248, 0.451270947816526, -2.365824173237855, -0.4571402487503847, 0.018121735607765154, 0.3821322638517265, 1.58145294138762, 3.7577611301752665, 1.7215638293262674], [0.3358436570698564, -1.590756578545613, -2.535777940396844, -0.1484675505672023, 0.5265201776267958, -2.9305913091395133, 2.1972440400566313, 2.7910452419971077, 1.0653581397133354, -0.5245187593926408, -1.1508308817190347, -2.1976177731490707, -3.7559455947891296, -2.172421996944828, -1.880778120753965, -1.0876895664632706], [0.1147477223778568, -1.3670814747359474, 1.6903768305678168, -2.0162397828122174, -2.8213526281010504, -0.5659579624298867, 1.9857855389865193, -1.5860055547155916, -3.8293674833379843, -0.7551167545428294, 0.6473114531833113, 0.3745393626171274, -1.3054891105561042, 2.309484731803148, 0.6525212856478377, -0.9764352397934775], [0.34885078278482895, -0.2699174423238032, -0.09767198753122897, 1.4652867442564683, -1.2370055243697347, 0.26548300839880756, 0.6823131294460411, -2.322575310183539, 1.0219936678761434, -2.2104389305311827, -0.9644836852755194, -1.2660147278254825, 0.26062591842713534, 2.273936526964147, -0.3534288942493628, 0.9859511586261733], [1.579596352929173, 0.3443119178839096, -2.1016593576537406, 1.3986643002906383, 3.0206104567815157, -0.23044809240600783, -2.331734241817305, 1.154353543979338, 0.3881939622223771, 0.8443508409827085, 0.605070704397128, 0.7836102004897009, 0.2881438366613518, -0.6786819155385551, -1.0868358556220576, 5.214023196423729], [-0.3826724090465898, -1.083931028764047, -3.3007988377260027, 0.03399657350644253, -1.5025113627908167, 0.736360934986056, 3.6348601843045136, 2.6409053453394833, -0.26571384426186684, -1.1246733334712924, 0.8400470791496035, 3.022964163692981, 1.5855407729732027, 4.084941796376537, -0.19359629065027906, 0.2975291330139438], [-0.9392088843615127, -1.8687225633139612, -0.6522276339091478, -3.1568386848083643, 0.3896145173680259, -0.23054708734058182, -0.47467711771168486, -0.5099985198491944, 0.5445115501049935, -0.21368974519021333, -0.26904547554958547, 3.708714514658772, -0.16813025409138657, 0.17626696544402598, 0.9684946890434325, -0.8646820268112608], [-1.129249068031679, 2.46343372672372, -2.7996847410855548, -0.4959177512056543, -0.14594791125649076, 1.7773001499905057, 0.20170910172042172, 1.3957868878511868, -0.07598248295521315, 1.6477103667208215, -3.3161117807002913, 0.4268816162463449, 0.2838798562643455, -0.555560081580668, 1.3396248355466205, -0.487242425822483], [0.9949534878602625, 1.3130280010660904, -0.03774213850686507, -2.2945245006403385, 1.323914040184266, 0.517126909665724, 1.9095387021461083, -1.2383114554061943, -0.8863850885918438, -0.5916968152873407, 0.265581616587815, -0.8962644379011767, 1.2440305679021662, 0.646768812970943, 0.5673997949429103, 0.6808479026685603], [2.25283073780607, -0.7938625695145313, 0.3491110866134851, 0.18963454738297358, -1.3386718023415145, -1.4164902749033783, 0.18580963521473315, -1.759535915236844, -0.5069927830922158, 1.194004694485188, 1.7465436358112847, 0.2875096021006882, -1.516675010022553, 0.6171936018817885, 0.6584403463414654, -2.7101251224906484], [-0.719741643850944, -0.34194275138024455, -0.0730904480959621, 1.6178865633089088, -0.39593068763585804, -0.6981627531778627, 2.4856760686456663, -4.1914227085237545, -0.14563020010588046, 0.6073530522269905, 3.3793269967205832, 1.878149749980678, 1.9176495736855592, -0.034377288302090137, 2.2368268344595252, 1.9526336769795598], [-2.313679139701569, 1.5998413235464077, -0.666995220011552, -0.6759076270167387, -1.6693517061937109, 2.062925007486822, 0.7886512526554339, -3.5761485860804867, -1.5644136955238561, 0.159725754901338, 0.44603322208708823, -0.36955485797799037, -0.5057062093077309, 0.6292817749143067, 2.47938009572716, 0.6377145127494692], [2.6847640452842856, 0.14356676629796195, 0.8507550768347549, -2.7329236908278447, -0.6669241656068705, 0.3795614176470512, -0.28140897506636176, -1.1488202456928787, 0.7252878513961047, 0.453643916646846, -0.3012904953821073, -1.0594878721963354, 0.5418935768441493, -2.136673981507679, 1.0692937299114191, 3.4779258660713155], [3.4073410637521655, -1.5781580164618536, -1.7891821312768208, -2.0292982884776714, -0.30420205755812035, 0.06859348661260081, -0.22370860179832752, 0.08161977892127587, 1.4455293083424468, -0.42542602575723065, -2.6598652223856076, -0.9668956723492147, 3.6233773933820643, 4.5383051705409345, 0.532006309037099, -0.46083013003203355], [-1.5577530626127059, 0.7141810349639226, -1.145861976385321, 1.5125468817852867, 0.8667865253684441, 0.45998299131116727, -0.8046823079396077, -0.09677519238511667, -0.3311829138235114, 1.1364997902375757, 1.0204109980943865, -3.054878749737919, -1.8313674229860444, -0.02632600131368079, 1.8250741309319265, 0.12252472066489369], [0.3373076101962271, 0.3311203385088624, -0.13895464160097237, 0.8104810339843788, 0.2762219183915958, -1.1324050448903622, -0.9602120462264154, -0.5101289366538464, -0.8493539328787666, 1.7662860010300623, -2.821852525307553, 1.6526539250759376, 0.8462814004724152, 0.581745714457925, -2.4095018455886104, 2.08624941210228], [0.5448729262057205, 1.1755268703063038, 0.039730303165558256, -1.5684370849440104, 1.1100021878879796, 2.204551773578446, -1.1875570450327027, -0.1626825362205672, -0.4238181496289062, -0.24310421184115816, 0.4689131866227755, -2.5416141422370337, -2.360907720340566, 0.21766180672939284, -0.02012303186285358, 0.3408058186787689]], "bias": [[-0.4364737377131017], [-0.6746163045690191], [-0.6357224084023441], [0.6523590817498436], [-2.0433286457376205], [0.9664263614639191], [0.9596280282941559], [-0.2916049506008993], [0.7906896185477568], [-0.13606540034917924], [1.1653078244998658], [-2.2304101390565623], [1.3293954030311168], [-0.9076812980931697], [0.3988513877172204], [-0.47969798923996093], [0.29201113302506787], [-0.22240623527179892], [2.6455396705900656], [0.11941563063361182], [-1.2400001749309815], [-0.8454810025959707], [-1.742959942452716], [-0.4806980076775359]]}, {"layer": "activation", "activation": "tanh", "activation_prime": "tanh_prime"}, {"layer": "dense", "input_size": 24, "output_size": 4, "weights": [[-1.6707751181938515, 0.4115346284592263, 0.46508981314695924, 3.312871449128121, -1.5266834712549051, 2.1638123166791696, 0.07424248812460243, -1.1526932776710466, -1.0840667974026055, 0.03509858542605335, -0.18906342915664842, -0.6830761306535249, -0.07210321039553391, -0.8439572809015399, -0.6352965833557761, -0.07064368085618122, -0.8942563056384092, -1.9916107548281434, -0.14992269389075785, 0.5380627597511616, 2.666524912876365, -1.8796646182716856, -0.9930877046677606, 2.7239730247193013], [-1.0958427980088965, 0.7732575288653166, 0.16983178759130402, -0.09035794915987383, 1.7211458803473427, -1.5371169549538921, 1.9714409782191327, 1.3757250450204777, 0.4467053714811196, -0.4620847719664998, -2.639756714355057, -0.5661500175225953, 3.1005960300259576, -0.10709723083265224, 0.5580419824845916, -2.7404914019882405, 0.2215239221505676, -4.088131017833631, 0.38535266041680194, 0.2981115604793498, 1.6436312213964148, 0.7076439950320204, 1.3796576772151097, -0.6876649285216518], [-2.341678513516481, 1.4765239049905738, 0.6168881769961392, 1.0710735045687207, 0.10920256123685324, -2.977659010370774, -0.05584625220150907, 1.7162452302243718, 0.4694573116578433, -1.183448396127051, -4.276767588383894, -0.6776480936609164, 2.1178953637967206, 0.8399191950864501, 2.1973704744644293, 0.7585178201816234, 0.04806115906612385, 0.7124839567053356, 0.6439018176445195, 1.3226542792697131, 0.30183863217744555, 0.37938070362817483, -0.06693582266352627, -0.8698637369798041], [-2.321408709030874, -1.4479479748720294, 1.5987991507361, -0.49223904042550626, 0.701095549482539, -0.1973183950848697, -3.7546224561029122, -0.21959537614616242, 3.6779067941060966, -0.2199226131922779, 0.6268080770626511, 1.3000927559599798, 3.1204506384593014, -0.9263434091103754, 0.8262084955359414, -0.7307275489759489, -1.206451666361362, 3.2171816952224344, 0.8843741766042188, -1.5800813133321354, -0.23111043687695837, -0.20052637258515948, 0.08377654068337453, -0.34657115831402807]], "bias": [[-0.5226330858732176], [0.8410069675377281], [-1.4353255277540122], [1.541052869147432]]}, {"layer": "activation", "activation": "sigmoid", "activation_prime": "sigmoid_prime"}]}