{"generation": 49, "fitness": 175920.02913920814, "network": [{"layer": "dense", "input_size": 16, "output_size": 24, "weights": [[-0.7771083381751056, -0.6498669812519927, 3.1419225763391916, 0.6970717507814899, -0.3630510268322842, -0.3394804098556637, -1.1534373360774701, 0.2841752939631253, 1.9057850185200396, 0.48195187664553263, 0.4524962421728249, 1.7861614608745453, -0.431649316344816, 0.560173963275357, -1.1517467657645042, -0.20579399477692834], [-0.8898259680399039, -0.418151570243646, -1.5873412432424994, -0.3295997737801839, 1.107988015289212, 0.20588468616986544, -1.755852798563266, 3.427053157059431, -0.35111575126475425, 0.5269213804378954, 0.6296530499334216, -2.63941028580009, 2.6700690003025187, -1.1372170909340102, 1.462305342957319, -0.5257776600484335], [-0.2421113728362867, -0.8300949697645834, -3.4897218651934065, 0.8719302174119342, -0.9584345674951433, 3.223879153610855, 0.8213789816289471, 0.14044048756416716, -0.34426173044480046, -0.05275103887277788, -1.0092281372017529, -0.4279062143601676, -2.819116827045013, -0.41650846652912576, -0.842440796352152, 0.763723424757797], [2.171114110850143, 2.088527437183325, -0.5042071529887795, -0.5185933376742002, 4.350543819342605, 0.9534223151649444, 0.7625342609018746, -0.3947798901930717, 0.6885408919918826, -1.7802183058505692, 1.4131882859751868, -1.2961174639350326, -2.168368951766186, -0.3740497822167137, 2.086157995129009, 3.181199407615005], [-0.6701517841969415, 0.9680623301673036, 4.778311668805083, 2.3121115588530388, 0.4916676256617154, 1.7967189892192827, -1.8741861336885044, 0.5519476651894697, 1.5113655428897734, -0.023776268668153078, -0.931690096287694, 0.17226630610252597, -0.640552495608899, 0.12672665247934345, -1.2833548722175183, -1.678749527365955], [0.00882472424022751, 0.3667953086713085, -1.0062759428165102, 0.5488056435045242, 0.7416008526549414, 1.549787899733806, 1.1796618198310016, -4.787108724804509, -0.9250641912742072, -1.3121652427844972, 1.1529464698977416, -0.52893673443005, 0.14651116411962029, -0.3877489583562589, -0.760172981205615, -0.8425507045936126], [1.3196843423160052, 0.19095904564400934, -1.3255145153003693, -0.21450675677334408, 2.7647003521111473, 0.960163579368695, -0.42070588442714296, 2.0806704584706006, 1.366018714743666, -0.010807985002958098, -0.037155680800904145, 0.5086998162356493, 1.422767634195326, -1.7699612088054066, 2.675526876071218, 0.8263463274725288], [-0.6896085236881394, -3.748822493842865, 1.2245215540954624, -2.470026376669388, -1.448417425307499, 0.10661783337552833, -0.30155169878036125, -2.0959353857842418, 1.1523184656061025, -4.3296536657925495, 0.3224173158664698, 0.518111029371216, 0.3821322638517265, 1.4269639290606162, 0.6289500991910356, -0.1352499698679636], [-1.2918041604460808, -1.0348646062447182, 0.07183196921166518, -0.7293474063830929, 1.8560125861000007, -4.037545042590963, 2.1044555015876485, 1.6409667607180765, 0.026847593127397096, 1.0166551137710755, -0.5777583167880573, -2.1976177731490707, -1.8692698712262366, -1.4107941161103552, -0.7223108028837799, -1.1542530715336212], [0.9003091552736362, -0.2621310685347171, 1.6194616964372257, -3.579795411498131, -4.03283509681779, 0.08983273284013282, 2.3125934334619505, 0.9974877533769559, -0.20483191985652205, -2.92964872800374, -0.9561684760878235, 0.41073035719394624, -1.1838042342639028, 1.0936203562144247, 0.6525212856478377, -0.9297239763298039], [0.2813134867592396, 2.1057047447819266, -0.4664942793092677, 2.657787460837115, -2.1328951689955247, 0.26548300839880756, 3.172732347340836, -2.717248855272569, -0.9675438723155999, -0.6219276162089349, 1.691489097315681, 0.0284890027858698, 0.26062591842713534, 5.292416404137087, -1.5391345539661572, 0.02410342830189796], [1.579596352929173, -0.5378695559040321, -3.087429620646545, -1.29717676173012, 1.4881517666265969, -1.0611925915313034, -0.6635564043029789, 1.912022521913444, -0.9208865304485001, 1.3664590301438813, -0.13803671099199658, 0.9452104040414295, 0.9597464324784841, -0.6786819155385551, -1.1441633952744388, 4.25069969134157], [-0.833639445529257, -1.083931028764047, 0.04523928858431603, 0.4931792262319745, -0.01630848817316155, 0.22448866184573224, 1.8127982859286036, 1.8987734058168977, -2.7687247473517016, 1.2916576037256788, 2.090491463512655, 2.897960092179247, 1.5855407729732027, 2.6070862984261445, -1.4725335042915968, 1.5953813971370772], [-0.18251023308958914, -2.9482014978793476, 0.3417737689610925, -0.5394424896942491, 0.605696761327797, -0.009064382593161974, 0.06524906691032493, -0.09085004125970353, 0.5445115501049935, -0.21368974519021333, -2.8408778201716967, 0.6994626956995635, 0.07353562409013722, 0.17626696544402598, 0.9684946890434325, -0.2229291739840487], [-0.37844848556564714, 2.345355687046254, -1.4220031199925272, -0.4959177512056543, -0.2528288910925195, 2.2243153560452416, 0.02002677640065076, 0.7272831548141905, -0.7369273604375209, 1.6477103667208215, -4.267453190886409, 2.2270621670179827, 0.34349914871897735, -1.716129843520593, 0.11726410665516131, -0.6379144805027746], [0.9949534878602625, 0.40458401070270517, 0.05591760322377824, -2.2945245006403385, 0.12952031276815013, 2.3722489851511215, -0.2699260875405264, -1.3061199967426866, -0.8863850885918438, -0.47155069860448295, -1.2580112403590131, -0.5700137078144865, 4.7277220430745865, 0.646768812970943, 1.8643872481284927, -0.4001027645291242], [2.6873074887857182, -0.8351518877362417, 0.3491110866134851, -0.41744801981255764, -0.7212156211133719, -1.9274656910442614, 1.0379516806211726, 0.5985168556969627, -1.4498651674844858, 1.194004694485188, 1.4612868543566635, 0.2875096021006882, 0.45341500978876004, 0.6649697117133477, 0.6584403463414654, -0.562436352651141], [0.21860560015120323, -0.1145442641080372, 0.45179967828891554, 1.6178865633089088, 0.11276157940997633, -0.6981627531778627, 0.863279380413113, -6.454157734137116, -0.7074260085363712, 0.6073530522269905, 3.3793269967205832, 1.368882154450615, 1.9176495736855592, -0.5082979339928841, 1.1553343149329383, 2.1228859824166353], [-0.9143939464268052, 0.6552904622217004, -1.7446166579548903, 0.8437600201336519, -2.300209000690577, 1.3515216665657461, 0.7886512526554339, -3.929167543055931, -0.9439707023861136, -2.6183782780204368, -0.9162466124814423, -1.9684808180141729, -1.7781608084402951, 0.6135523407400081, 3.228913885769832, 0.6377145127494692], [2.3687753318254963, 0.8762720369557964, 0.29568940533931043, -2.528232307475999, -0.5812585340705921, 0.6882594694073179, -0.28140897506636176, 0.07695079579877634, 0.4086768391080051, 0.9266290076228636, -1.7020386515138786, 1.596250312148027, -0.08145495145743792, 0.24102163349943528, 0.2314516633768482, 0.5632663401272517], [2.314224904981322, 0.4840997180228504, -1.7891821312768208, -1.7479726017204194, 1.2398357944223801, 1.6925265237521685, -0.5754596186867692, 0.3127268216431594, 0.8669178029631566, 0.8793911578826947, -2.4316541350452776, -0.8829602003297021, 3.463479675137209, 2.107036518079737, 0.532006309037099, -0.5485358666333844], [-1.2768619941028616, 1.2982801570592888, 0.15003768096158243, 0.38651664733209157, -0.5039490563207509, -1.134749000045738, -0.13488690101957979, -2.26297914168054, 1.2753707331941342, -2.5399896340548973, 2.6041849540080104, 0.3717085374115411, -0.38873689769674513, 0.1715318962088301, 1.7721742797832547, 0.6043930894215792], [0.3373076101962271, 0.3646518227565967, -0.13895464160097237, -2.0338585224704975, 0.2762219183915958, 0.1642723216132982, 0.4268345785957356, 0.16586282319567203, 0.2518066177762903, 1.3129577421922398, -2.604107592957525, 1.6526539250759376, 2.9506531502288222, 1.337481017697945, -2.0220330435603366, 2.08624941210228], [0.5448729262057205, 0.15895339746885595, 0.039730303165558256, -1.5684370849440104, -0.2604855993942423, 3.713380327699429, -0.709877168287969, 0.007877801492808444, -0.4238181496289062, -0.3327097672797952, 1.0148342285485783, -1.456788518203402, -2.360907720340566, 0.21766180672939284, 1.7809643689293209, -0.4055092061217777]], "bias": [[-0.20382341975212812], [0.09866718903037952], [0.13578606165408336], [1.311538765501476], [-3.0254153523625815], [0.42156320826897886], [0.5699101732293841], [-0.2916049506008993], [0.4805901724618059], [0.2088834591723644], [0.6148235700390805], [-1.940055411823014], [0.06472207890520687], [-1.397173178499486], [-0.21676263949884955], [-0.47969798923996093], [0.29201113302506787], [0.8760070010720862], [2.6455396705900656], [0.4726604254060205], [-1.2190440885608638], [-0.6006507233823916], [-0.2748027334913159], [-2.7399657433680407]]}, {"layer": "activation", "activation": "tanh", "activation_prime": "tanh_prime"}, {"layer": "dense", "input_size": 24, "output_size": 4, "weights": [[-2.771963252588314, -0.6779790590626041, -1.3858289918168714, 3.3742243570406654, -0.2658634706016436, 2.1638123166791696, 1.5021989920895606, -0.07178554577469165, -1.6034134780799199, 0.8819277812131057, -0.18906342915664842, -1.195756417405359, -0.07210321039553391, -0.2627033171439449, -1.460634449965938, -1.6498634065519193, 1.9169014887246, -0.10784659962713805, -0.18789245430028934, 0.5380627597511616, 2.5625169961496104, -1.755344576033404, -1.0945080690103868, 1.012459465342472], [0.43925876233271466, 0.5825076762118153, -1.6683404299651021, 2.7096685652420804, 0.8188541033138427, -0.017969235788048765, 2.8823374891990543, 1.3757250450204777, -0.11708354981013483, 0.20410879491032607, -0.407868560466615, 0.14043013781672198, 0.315496062204337, 0.2701016772316719, 0.5580419824845916, -4.24455213854489, 0.2215239221505676, -5.025567832997249, 1.4728614308795647, -0.31858328704003347, 0.5894041159361585, 1.2180500571901798, 1.8386403607841322, -0.6876649285216518], [-2.341678513516481, 1.4765239049905738, -0.04143648548341661, -0.2735675390023582, -0.5448506144665988, -2.977659010370774, 0.5900077262340857, 1.9486809768056046, 0.4694573116578433, -1.183448396127051, -1.8798720461311236, -0.3465956202070357, 0.07363734626066665, 0.40116028494642236, -0.42174244759862933, 0.7585178201816234, 2.160341764099962, -0.049867864178947396, 0.6439018176445195, 1.9280034470774505, -1.1832651864456671, 0.1311151878040694, -0.45024664019519367, -1.3285219442743086], [-0.5324044965839602, -1.6676086961637258, 0.9566333888590162, -0.49223904042550626, -1.8866517401082696, -0.1973183950848697, -1.7366724765844423, -0.9098789732298805, 1.3910878963550934, -0.6015585542768024, -0.4166632443319216, 0.9904828633909362, 4.035798721236908, 1.3281220460527696, 0.8262084955359414, -0.49174982095183506, 0.39210323648327416, 4.0488940665108295, 0.9802668288728861, -1.5800813133321354, -0.23111043687695837, -0.20052637258515948, 0.0273330038435452, -0.023686168502949467]], "bias": [[-1.5099438231768785], [-0.32647564467913237], [0.05421392377520262], [0.674538411682689]]}, {"layer": "activation", "activation": "sigmoid", "activation_prime": "sigmoid_prime"}]}