{"generation": 50, "fitness": 1074346070.8762908, "network": [{"layer": "dense", "input_size": 16, "output_size": 24, "weights": [[1.635950680484143, 1.1529443337920307, -1.2467888136511944, -0.0014047268027538307, 2.5832305405821256, -2.074409551815164, 0.207591928000383, -2.212122152076027, -0.5419287475964809, 2.083045698278123, 0.27561776794463033, 0.3279319377846823, -0.40218779361582646, 3.585248362694432, -2.8383177735361125, 0.0934446757044789], [-0.9254018874133876, -2.8542709892001703, -0.21045873454463743, 0.10695566580163923, 1.5145001471856887, 1.868628240025895, -0.33356119279319496, -2.6060253746063187, -5.601889533605915, 0.44598794822243576, -3.88760720333202, 0.956527660580734, -1.2277979261221188, 1.7519601064491068, -1.781667417214834, 3.255766140226993], [2.738296972452544, 2.0955345054434407, 1.1040314206329533, -2.157379371251766, -1.0473234085243666, 3.345360896399207, -0.3011477022243296, -0.7687788204048487, 3.699544324285756, -0.04184103757798652, 2.3364581249333387, -0.22312025143462866, -1.000727463079607, 1.296570149800031, 1.7827736729232424, -0.3663516449131295], [1.3542788492780624, 2.9195190168165848, 2.495102241726491, 0.12326565575400955, -0.38064779791312714, -4.525420451791247, -0.2254649716718552, 0.7574350487221366, 1.5107231323727532, 0.608245589112954, -0.7156101567257201, -0.3454487136366531, -1.2234248049219272, -0.2262590763281631, -2.9443442597254457, -1.3387450329924993], [-0.6971788474579104, 0.5341077368472296, 1.0508016097217834, 2.5017398132848485, 2.818023531803662, -0.6200009070135616, 0.698174813945655, 0.6945750875099873, -0.22484613727997077, -2.061239948979879, 0.939725669205439, -0.34040848259952716, 0.597946751717897, 0.5010594893204865, -1.6694212823759722, -0.9274856684381176], [-0.9257532271761479, 2.462397684935638, 0.7619545215293413, -3.856425234875461, -0.7136044639875254, -1.999943496373875, 0.6993379050253321, -4.069733536545365, -2.279015119443458, 2.612596718148453, -3.07333251970356, -1.011796897825381, 0.08713707743585625, 1.4165938789974655, -1.858127885346387, 1.7258555110938816], [0.7853094119494362, -0.10455741625290726, 1.3222962722783533, -0.6844783225033484, 0.10722091344929074, -2.236297905339821, -3.716326516207533, -0.31896154909733265, -0.6666269812489465, -1.912742715811625, 2.8597100298820948, 1.0553357892690318, 1.2767137509781683, -1.9145940973084845, 0.5392342222745157, -4.415679837118417], [0.14664265740436444, -1.709654655524825, 0.8252891431609044, 0.5376855221405386, 1.191433792380653, -0.09078973905944698, 2.7683324259961877, -2.1174998333087207, -2.7734096390030234, 0.7814373339138638, 0.24748217323653687, 0.7714405396139041, 1.6821554012682471, -1.3213011646045107, 0.18011369105722544, 0.03396279271498037], [-2.623466364394332, 0.9732134454302348, 0.5022930577893874, -0.107263366358062, -0.22076500430354973, 0.6731482032201495, -1.3473997368891955, 0.6493652801304513, 2.4499008494728147, 0.1516182203992158, 0.3475722416777055, -3.5498586769624354, -0.1066124388379047, -1.73506057564456, 0.9694036780299302, -0.2633388154162236], [-0.1619726137481553, 0.15131287712805563, -0.2874339904193552, -0.02219750489703426, -3.3368191132082243, -0.1876666023839867, -0.3856422764827987, 2.045260954698451, 0.7984993246826337, -2.9676327004202094, -3.921862503916865, -1.8730264101651521, 1.0152706746045208, -4.271744494762295, 0.8499868758602334, 1.199755986053514], [-2.2926195110162038, 1.4231347714307314, 1.654790897155489, -3.323007000815193, 0.7263405087846979, 0.4771617577416661, 1.8403126116923771, -3.209369179255425, 0.796713577920681, -2.4096351470412216, -3.9851752647159895, 1.1900666137698903, 0.03169235930167735, -0.4782908045914959, -0.2622314390731229, -1.013130834894218], [-0.771660505224593, 3.2311822514011195, 1.7104735941771834, -0.5426338431538891, -1.0287724575991088, -1.278887488534928, 2.093722337653898, -1.3389555257469656, -0.10284900995879465, -0.4087321938876697, 2.8045910691423783, -0.35678363670491775, 2.1345253564063347, -2.054870049561377, 1.0074212134849851, 2.3535614724248255], [-0.3937003919334494, -2.92030414216382, 4.618177857749023, -0.9916293101125819, 2.8979544455235873, -0.6479795983068706, 0.7650671851906315, 0.3190997951435244, -0.8334059121131296, 0.5203744259221923, 0.34427669335853883, -0.11578896454631682, 0.708981683260745, 0.9587148619710979, -1.3481691269719034, -1.5378095308462423], [-0.7655606771711568, 0.6706562771296845, -1.8659172495077472, -2.148321734185161, 1.5707063282213518, 0.07814981475462113, 1.994157530547784, 2.1071034136777063, 0.34064622709183134, 4.330060214027236, -1.86939281258946, 0.7779865020162761, 0.9662425158338976, -0.1948294002403277, -2.6278759230139626, 2.6486168436538726], [-0.492207314556379, -0.0608085289366586, 1.1594846496727649, 0.5898668245890366, 0.68740714322084, -3.4080566507427137, 1.2193602609562815, -1.4184861972066256, -1.3993995072031897, 0.3603327135144615, 3.330629164630569, 0.8908357774321044, 0.7218070631772513, 1.0561035665104956, -2.3968331978662714, -1.019182809118695], [3.9099825943077393, -1.9714925125651424, -1.6688977118184032, -2.427057087815766, -2.5339678408296056, -3.9925763192430037, -2.0128631255131992, 0.810203286423171, -1.805173040598167, -0.1577129744348736, -0.5939836612762059, -3.3756135285018996, -5.560900902016094, 1.291329353158924, -0.7057525882871014, 2.708246922617206], [0.792247123941521, -0.8161550871364655, 3.180395847255009, 1.2516954030902585, -0.7423703790214478, 0.2845964170694293, -1.4376183505749462, -2.533359405299344, 3.7625578246440106, -1.9075077798972075, 1.078443134446105, 0.7464370273878539, 3.611505445246687, -1.6720960640986413, 1.3387502666720277, 2.498271351618717], [1.3976508661143252, 1.159483944731297, 1.4720760546552834, 2.7740907584017145, 0.4851939309512032, -0.7277795941814036, 2.0297138850412653, -0.31264659982566945, 1.463496502656417, -0.2576928089551993, -0.3074847154837151, 2.9487776287228766, -2.9113910738600204, -0.040490271698632174, 1.2941713588960195, 0.43149193382356765], [-1.3645587602074696, -1.4602072913803443, 1.1456019663852448, -2.556184840484422, 0.42679568554653, -0.4312863997568479, 0.22529329175173074, 2.0487647662609954, -0.8135568516433498, -0.9393265498529382, -0.10546260138105967, 2.3350924206287216, -0.5952735625622247, 1.5954854001909862, 2.062513468717275, -0.6213724356002504], [4.999897158195087, 2.213380029584039, -1.2887903736221733, 0.9908109653280393, 0.8543568728541272, 3.002251451551187, 2.1046730178168196, 2.1767256522264846, -5.724474670462568, -3.9646400257014562, -1.758467285640053, -0.7285198571078848, 3.9686547466245967, 0.04613419667976659, -1.5145744995939079, 1.1322219641916886], [0.14258902474975482, 2.2956853150715535, 0.1121963760366822, 0.006489859691141797, 2.033393439258468, 0.3108494336537647, -0.5671217915076752, -0.6907060637319371, 1.1656415893877283, 2.4663447748147282, -0.11044737527593197, -0.10832231116567725, 0.738099072295834, -1.335319938348632, -0.03512202767577699, -1.6514204366178973], [2.693482188311445, -2.892457484639532, -0.18815308500371924, 1.828352396097173, 0.5379308319493903, 2.4263829278698035, -0.0007987344786510864, 3.0885413969512987, -0.001033595889789074, 1.2556193659310637, 1.4016286859082898, -0.27030673713543285, -0.04891032027028325, -0.7437024310419805, -0.6730542909696399, 1.3104199037765063], [1.6851024268550368, -0.12221865856111624, 0.6315773596875611, 0.8543542670066446, -3.724830380260475, 2.075296329297719, -1.6352430468802874, 1.5916856027859987, 2.363408835988882, 2.461021528238121, 0.4214867141829549, -2.8847269377860414, 0.7197567641253162, 0.43591875353981413, -0.22599992795157964, -0.5148747242848182], [-1.6903670683508958, 0.14574473648653907, -0.7656906312043743, 1.6712780666753564, 1.6361220985335967, 0.24783560221227663, -0.6129837190545513, -2.8337707767413325, 1.9277843066662048, -0.9070404672113621, -0.4851421777775572, -0.8003497012356775, 1.0278259683529378, 0.8560356819930777, -0.017636511626591078, 0.3089533252169776]], "bias": [[-1.3098914476403132], [2.3351257574209203], [1.5464103177979098], [1.6682312326811035], [1.2318857418600768], [-0.835713177328086], [0.2519051937193093], [0.24226968509314667], [-0.9696253174956009], [-4.378212399778578], [0.13191608924182585], [0.20793161996254705], [-0.6898810723864146], [0.08080645375732387], [-1.0918402599000205], [-1.1966706350928387], [1.2560483606205828], [1.2569404096261612], [-0.3240529866059173], [0.7452603747287785], [0.436593562096962], [-2.3442319240211678], [-0.31947502800599437], [0.7428481984122337]]}, {"layer": "activation", "activation": "tanh", "activation_prime": "tanh_prime"}, {"layer": "dense", "input_size": 24, "output_size": 4, "weights": [[-0.6798874403134798, 1.6923897027726849, 0.47339772182657147, -0.776991459871561, 3.431554835447261, 0.8596655623658687, -0.15130248785770223, -1.2695548972502975, -0.09294446909266556, 0.17524610138390717, 1.5671702456457868, 0.48581845806915713, -0.9328054617570913, -0.8054953615702587, 0.9579750472363362, -2.1890811603444043, 1.3295949568348684, -1.1369715175778266, 1.2470128077367286, 0.29260536376279567, 0.20585631272069604, 0.39588300027637113, 1.2835302593247486, 2.5512992121977005], [1.3848711291822493, 2.463731034403863, -1.9172208287712902, -2.854499060991209, 0.7352573385842239, 0.601838347456515, 1.222846813191795, -1.1674949145907045, -1.1352815861520054, 0.2190242860613476, -1.4537076694566045, -3.2793140601023705, -0.6201572095480519, 1.078943700131027, 0.44522863836948523, 2.5833233863659806, 1.5100338580808315, 2.496911634203932, 1.704622817855664, 1.4308376576712958, -1.115508581513986, 1.9239833192605478, 0.006100172564194706, 0.592465972141407], [0.3040210066880403, 2.5524197652345233, -1.427562356491451, 1.2899061457921328, 2.9519944728310965, -0.7933278723540678, 2.147181692996025, 0.4991238776200772, 0.6358370645859859, 1.1169670338926392, 3.1841071751339287, -1.314795793294444, 1.7565800033897423, 1.6612285768079518, -0.46089695219202537, -0.007662678199334125, -0.40661404608186613, -0.3935060197150634, -0.2565154196475785, 1.0672023468147769, 0.6754138652257717, -0.9517253307093388, -0.5888193799420605, 1.6086579920824204], [0.848563904780089, -1.0487701912487752, -1.1444521115785486, -0.7329246983696445, 0.7435693748355658, 4.103592842483318, 0.390989175812034, -0.40345088911616694, 0.4459877312867109, -0.28589867357208454, -1.6806593179036762, -0.9619825973363402, -0.37408705963140265, 0.5327005471413477, 0.011415711921999527, -1.5336641332043381, -0.9087157985152896, 0.5011967282044925, -2.745225802515521, -1.5676683710465618, -1.779677454435621, 1.9200919645551826, 0.9921538451058223, -0.3685370941343451]], "bias": [[-1.5079858483161297], [-0.9399382251478776], [1.3042225956673936], [1.1312347192405663]]}, {"layer": "activation", "activation": "sigmoid", "activation_prime": "sigmoid_prime"}]}