{"generation": 62, "fitness": 760577.7371051966, "network": [{"layer": "dense", "input_size": 16, "output_size": 24, "weights": [[-1.0529085125723356, -0.10715877520422012, -0.3963258100665654, -0.20411402091209996, -1.8071059569960537, -0.2987762448582292, -1.307951843933275, 1.2111851345129883, 0.010296411212833145, 1.8051472890454012, -1.5366306251034003, 1.8541067067967065, -0.3648179370131941, -0.4049398999285355, -0.032314306851403574, -0.9957655020442644], [1.586753556343787, -2.4935130308699884, 0.04751278609956722, -0.3295997737801839, -2.5140453805718965, -1.1472382980209435, -0.8713652188370509, 4.331272944758221, 0.19584333722867614, 0.6989348491854483, 0.4548473048322063, -2.63941028580009, -0.003978032462171099, 0.9895796064660546, 2.8920696131332924, -2.165748796351078], [-2.0045988085476205, -0.7290214031209502, -3.4105010957418, 0.9509618802766433, -1.3022344835015822, 4.003385567784965, 0.949898875233856, -0.8301439246607349, -0.11176334953145817, 0.7848163369970385, -1.1831903822556766, -1.743332428080469, 2.143796760964805, 1.4646908911105507, 0.3931801089788204, 1.262477473704943], [1.1503107485668824, 1.9879266263573767, -0.009718919674170934, -2.7895990975922675, 4.362921332899148, 2.901494616915893, 2.075192042350128, -0.7830629959631032, -0.18164409025360184, -0.09649378140615342, 5.641383817302131, -1.1670430957829576, -2.532878909020928, 1.2111296927150546, -4.035418672628435, 0.5122353221534357], [-0.9638622858450676, 0.3728490096467266, 0.6204800848938568, 2.3800119993808564, -1.3490168634026327, 0.301884771168766, 0.5131878594220287, 1.38565028331758, -0.6799529140970851, -0.5857183613092594, 0.3014356114327581, 0.05425183634672412, 0.663858555680164, 0.6663581448362472, -1.197441389469121, -2.9321353586430563], [-0.019643294102606134, 0.04846193775927943, 0.618352746998835, -0.08028250529840608, 0.6938934210364608, 0.5827295857677539, 2.8928719962965888, -6.097989631855119, -0.7438135049834509, -2.0793061499530148, -0.32226637545327463, 2.898221768634321, 0.5989862896439325, -1.4150725394198407, 0.16522763501205817, 0.3253610395639607], [-0.2231020947139173, 0.4838919378168503, -0.4138709924994901, 0.3768425643943688, 1.6402961125433597, 1.2967328122585682, -0.42070588442714296, 2.3583409657809957, 3.0555042714635188, 0.9843712383615604, -1.758695086968602, 0.23891601792413913, 1.2026627320497714, -1.7699612088054066, 5.512508460138142, 0.7345124589585277], [-1.5295094945982313, -3.5186517889056557, -1.1859152050552595, -0.03929158254165854, -1.448417425307499, 0.06224204904274885, -0.9510830643391625, -1.2243169184442029, 0.14800613637500248, -1.0107621181401059, -0.4571402487503847, 0.7310844202403219, 0.3821322638517265, 0.023008759833758496, 2.2439926062417896, 1.7215638293262674], [0.3358436570698564, -1.590756578545613, -0.04263692310245848, -0.7293474063830929, 0.0017129852671561308, -3.8043414004353533, 2.1866061982061726, 3.301914874434904, -0.5044179802096761, -0.5245187593926408, -1.1508308817190347, 0.4141655827318167, -3.7559455947891296, -1.7315380557305196, -1.880778120753965, -1.1967243163302224], [-2.214189781968808, -1.945374359087033, 0.28912252748348966, -2.0162397828122174, -2.8213526281010504, -0.5659579624298867, 1.7391107500848162, -2.847523080427135, -3.8293674833379843, -0.7551167545428294, -0.8972392580320017, 0.3691298539365716, -0.7529031434325009, 0.9655118418529613, 0.6525212856478377, -0.9764352397934775], [0.34885078278482895, -1.8333598650515246, -1.0967518784569492, 3.2573475460620527, -1.2370055243697347, 1.4784636434083522, 0.12314444448754885, -2.865656678946358, 1.0219936678761434, -2.2104389305311827, -0.5637804268559155, 0.31038401154579587, 1.76126207285323, 2.273936526964147, -1.754287250577983, 0.9859511586261733], [1.579596352929173, 1.3103768089144505, -2.1016593576537406, -1.607992168658581, 3.0206104567815157, -0.0483111709183118, -2.966568450650433, 1.1817517121394028, 0.3881939622223771, 0.3185069432543348, -0.25388732984065016, 0.7836102004897009, 0.2881438366613518, -0.7284617223677672, -1.9131367691539447, 7.182054833837015], [-0.3826724090465898, -1.083931028764047, -4.1113856841403065, 0.8277504607867359, -1.5025113627908167, 4.105986389845921, 5.114702582113713, 2.6409053453394833, -0.6090080496600092, 1.3817180110816254, 2.090491463512655, 1.985009010316327, 0.23385314751449626, 4.084941796376537, 0.09136876790767468, 0.2975291330139438], [-0.9392088843615127, -1.8687225633139612, -0.6522276339091478, -6.84728761878722, 0.3896145173680259, -0.23054708734058182, 1.332435666594702, 3.06415752622781, 0.5445115501049935, -0.21368974519021333, -0.26904547554958547, 3.708714514658772, -2.1461277853597727, 0.17626696544402598, 0.257112099495722, -0.8646820268112608], [-1.4063798960168747, 2.516693725450976, -0.8053273592895165, -0.4959177512056543, -0.022669716076887447, 1.6072429405677298, 0.7515287806286235, 1.3957868878511868, -0.38098992239533525, 1.2233712503523473, -3.989022371803851, 1.9454443641837345, 0.07811977146027693, 2.855825439695896, 0.6290379608784105, -0.487242425822483], [1.9295537433097245, 2.59569714970748, -0.03774213850686507, -2.2945245006403385, 1.139346222164106, -0.33992467603141663, 1.9095387021461083, -0.7992045098363507, -0.8863850885918438, -0.62912784377691, 0.265581616587815, -0.8962644379011767, 1.2440305679021662, 0.8064364008727718, 0.9766227920438265, 1.007886540747432], [1.9788020539263287, -0.7938625695145313, 0.3491110866134851, 0.18963454738297358, -0.16864207669022446, -0.933441304800199, -0.05230906186339379, 0.18029555868108926, -0.5069927830922158, 0.7437341495829477, -1.712902691813764, 0.24513134400482328, -1.516675010022553, 0.7890302790964471, 1.281998255278375, -4.158391066581079], [-0.3706794782189604, 0.24606261113764183, -0.03387387143184588, 1.6178865633089088, -0.5286733466055099, 0.4577992692529018, 1.7725890737416687, -3.941050388997697, -0.7074260085363712, 0.37821517816783223, 3.3793269967205832, 0.7522261541600526, 1.9176495736855592, -0.034377288302090137, 1.5078547323513005, 0.7457999334946552], [-2.313679139701569, 2.031877133789229, -0.666995220011552, -0.34976293855675267, -1.6693517061937109, 3.667766149965294, 0.7886512526554339, -6.384569892287575, -2.682644070658309, -0.3278423361591627, 0.44603322208708823, -0.36955485797799037, -0.5057062093077309, 2.4519100925819077, 2.47938009572716, 0.6377145127494692], [2.3687753318254963, 0.14356676629796195, 0.8507550768347549, -2.7329236908278447, -1.2433483497912938, -1.1718691789999476, -0.28140897506636176, -1.1488202456928787, 0.7252878513961047, -0.08519511202721608, -0.3012904953821073, 0.6549271136096789, 0.5418935768441493, -2.136673981507679, 2.1088634179688617, 2.822409530558528], [3.4073410637521655, 0.5458604802141503, -0.6488614261788872, -2.0292982884776714, -1.3587158404923063, 0.06859348661260081, 1.9693638272605536, 0.08161977892127587, 1.4455293083424468, 0.4638002268190432, -2.6598652223856076, -2.825281612895753, 3.480282168823735, 4.5383051705409345, 0.9558797974843495, -0.7608104969478944], [-0.33366871746580373, -0.7663081021620524, -3.8385611599595726, 1.7102783316420136, -0.06548603528456887, 0.4929126763307796, -0.8270801552024456, -0.09677519238511667, -0.7968598870958065, 1.1364997902375757, 1.0204109980943865, -3.054878749737919, -2.6598632825411745, -0.39005286759069885, 1.315889657764206, 0.12252472066489369], [0.3168293135333757, -0.235037858458999, -0.13895464160097237, 0.8104810339843788, -0.9261600052189461, 0.1307845244783551, -0.9602120462264154, 1.1008716674500942, -0.8493539328787666, -0.7639615545587035, -3.2974821088991635, 1.6526539250759376, 0.8462814004724152, 0.581745714457925, -2.4095018455886104, 1.7199022016042675], [0.5448729262057205, -0.8904352119672765, 0.039730303165558256, -3.1094394708444826, 1.2070884156323003, 2.204551773578446, -1.3386329615994632, -0.8560058246376832, -0.4238181496289062, -0.24310421184115816, 2.050455785639816, -2.1951693805583936, -2.5796262886120047, 0.21766180672939284, 0.5051941663997586, 1.2188981371955234]], "bias": [[-0.0914986141744526], [-0.3701848214621132], [-0.6910315533859659], [0.6523590817498436], [-2.5888694111007755], [0.9664263614639191], [-0.04516837046159827], [-0.2916049506008993], [0.7584852725587006], [-0.13606540034917924], [1.1653078244998658], [-2.2304101390565623], [0.6147183820699684], [-1.2533237027540969], [0.21094133320344757], [-0.47969798923996093], [1.1898244598708247], [-0.22240623527179892], [2.0821677969894794], [-1.1620623840299107], [-1.2400001749309815], [-2.081872517900802], [-1.742959942452716], [-1.0930351135291871]]}, {"layer": "activation", "activation": "tanh", "activation_prime": "tanh_prime"}, {"layer": "dense", "input_size": 24, "output_size": 4, "weights": [[-1.6707751181938515, 0.4115346284592263, 0.46508981314695924, 2.273622575927467, -1.5266834712549051, 2.1638123166791696, 0.07424248812460243, -1.1526932776710466, 1.6853759186022967, -1.389039611793359, -0.18906342915664842, -0.6830761306535249, 0.38217599520164797, 1.9775541259263716, -1.3919935398174412, -0.07064368085618122, -0.5695797035406497, 0.23300850519658578, -0.14992269389075785, -0.292455762923436, 2.666524912876365, -0.9368821677486752, -0.9930877046677606, 3.491053760331017], [-0.48061484975488133, 0.06990030252520235, -2.5082505851041565, -0.09035794915987383, 1.326482107125833, -1.5371169549538921, 1.9714409782191327, 0.524505727101594, 1.0616465855301365, -0.4620847719664998, -2.639756714355057, -0.5661500175225953, 1.8817896749586356, 1.3390570351088684, 0.4858824935690033, -3.6235930589214007, 0.2215239221505676, -5.34412046867866, -0.2699183628410504, 1.1585012656373577, 1.6436312213964148, 0.5520393052914421, 1.5444291302398683, 1.3314473826570103], [-1.6873629295132, 0.07943333921000455, 0.6168881769961392, 1.2613088094673754, -1.0329540670310746, -3.811543854684631, -1.4523220400691015, 1.7859834198351885, -0.8736984169433709, -1.183448396127051, -2.9553381414285402, -0.6776480936609164, 3.2482961066928033, 0.8399191950864501, 2.1973704744644293, -0.5603094777027064, 1.606538535820865, 0.17483487787411411, 1.4180827720446758, 1.3226542792697131, 0.30183863217744555, 0.37938070362817483, 0.6099331183192302, -0.35827582615252007], [-2.321408709030874, -1.0391599772508993, 1.5987991507361, -0.9375249475285838, 0.701095549482539, 1.1200826297973001, -2.6768230809753244, 0.05498511798364297, 3.294975405420856, 1.5009119337214725, 1.0066918296300107, 1.1009805375188302, 2.76287529963415, -0.9263434091103754, 3.4794129231326525, -2.3756488142408245, -2.5140618420966203, 1.8639801420948723, 1.2757056219317757, -1.5800813133321354, -0.8757185028286845, 0.19949791935110883, 0.6304753601916571, -0.5771005843080477]], "bias": [[-0.5226330858732176], [0.8410069675377281], [-1.4353255277540122], [1.800099816979831]]}, {"layer": "activation", "activation": "sigmoid", "activation_prime": "sigmoid_prime"}]}