{"generation": 63, "fitness": 8590670983.970007, "network": [{"layer": "dense", "input_size": 16, "output_size": 24, "weights": [[1.7138829320007871, 2.61292089136643, -1.5152395941380101, -0.0014047268027538307, 2.744569168968647, -2.074409551815164, 0.207591928000383, -2.212122152076027, -0.5419287475964809, 2.083045698278123, 0.27561776794463033, 0.938190596225685, -0.5952045982634115, 3.2621234584416055, -2.54171235442164, 0.0934446757044789], [-0.9254018874133876, -2.8542709892001703, 1.9864315718049677, 0.10695566580163923, 1.3014586293371102, 1.9108300535614746, 0.8534179529464614, -3.8002913957887667, -5.601889533605915, 0.44598794822243576, -3.88760720333202, 1.2310110366225326, -0.5585700554308589, 0.4343318843864765, -1.781667417214834, 3.255766140226993], [2.499868332871588, 2.9102717718827615, -0.9560757591389366, -2.157379371251766, -1.0473234085243666, 3.345360896399207, 0.31028363512591006, -1.0537989014421325, 3.870970303855466, -0.04184103757798652, 2.3364581249333387, -0.22312025143462866, -2.1869307659282198, 1.8626815688188345, 2.901110811621736, -0.2295181060239911], [1.3542788492780624, 2.9195190168165848, 2.495102241726491, -1.4306623499867215, -0.12877655260926857, -4.525420451791247, -1.4481659673132858, 1.7834631882485248, 0.604310965854702, -0.5618420241013599, 1.4343732164248415, 0.1686554177110301, -3.638123118294066, -0.2262590763281631, -2.836754400579401, -0.5373923283406843], [-0.6971788474579104, 0.5341077368472296, 1.0508016097217834, 2.5017398132848485, 1.2829451047233862, -1.1850281845080355, 0.4190155145255653, 0.6945750875099873, -0.22484613727997077, -2.5883759615598043, 1.0507940689622495, -0.34040848259952716, -0.9473474683858749, 0.5010594893204865, -0.8952179464592365, -0.9274856684381176], [-0.9257532271761479, 2.462397684935638, 0.2729367196047142, -0.2497297273303205, 0.2519708944135499, -1.999943496373875, 0.7170824631492227, -3.6786046548542948, -2.279015119443458, 4.156270907843823, -3.499305782493885, -1.011796897825381, 0.08713707743585625, 1.5531296855765486, -1.858127885346387, 1.7258555110938816], [1.255823073957748, 0.8319910171588694, 1.3222962722783533, -0.6844783225033484, 1.1616356983349512, -1.0130110785528452, -4.4713782766819525, -0.31896154909733265, 0.15410809908287504, -1.912742715811625, 2.8597100298820948, 1.4809597936660583, 1.0121525350720115, -1.9145940973084845, 0.5392342222745157, -4.415679837118417], [0.14664265740436444, -1.709654655524825, 2.104701242835124, -0.11286802308022081, 1.191433792380653, -0.09078973905944698, 2.7683324259961877, -2.6756418234474104, -2.089984764010239, 1.954374549664568, 0.41000982086333543, 1.337175241435891, 0.10962412979070701, -1.3213011646045107, 0.18011369105722544, 0.03396279271498037], [-2.0742970940896566, 0.09691527839938663, 0.010796229627366816, -0.107263366358062, -0.7196133396411274, 0.6731482032201495, -1.3473997368891955, 0.6493652801304513, 2.335120721282467, 0.1516182203992158, 0.3475722416777055, -3.3036082189072706, -0.9266113857669773, -1.3238858746119253, 0.9694036780299302, -0.7199767702165542], [0.18383063307798286, 0.15131287712805563, -0.2874339904193552, -0.02219750489703426, -3.3368191132082243, -0.1876666023839867, -2.8203234446961574, 1.5562421304614542, 2.2577968611013626, -3.570727758785817, -5.060392323617042, -1.8730264101651521, 1.0152706746045208, -2.3347824032175137, 0.6508904919435692, 1.199755986053514], [-2.2926195110162038, 1.4231347714307314, 1.0026060747826737, -3.323007000815193, 0.7263405087846979, 0.4771617577416661, 1.8403126116923771, -1.9353733496395469, 0.796713577920681, -2.4096351470412216, -3.5677349768048203, 0.9684452268535476, -2.594523893072993, -0.4782908045914959, -0.2622314390731229, -1.013130834894218], [-0.771660505224593, 1.5155950521629982, 1.8505638456990114, -0.5426338431538891, -1.0287724575991088, -1.278887488534928, 2.3487863907026045, -0.2666076782166425, -0.10284900995879465, -0.4087321938876697, 3.4261989880115147, 1.4903731374839868, 1.4696845605577675, -2.054870049561377, 1.5143831995816446, 2.3698061276707887], [-0.3937003919334494, -6.272623918077777, 3.2807814915178524, -0.9916293101125819, 0.15350384400119288, -0.6479795983068706, 0.7650671851906315, 0.3190997951435244, -0.8334059121131296, 0.5203744259221923, 1.4488737176116553, -0.11578896454631682, 0.708981683260745, 0.9587148619710979, -1.3481691269719034, -0.6338311002797735], [-1.439535096153942, 0.6706562771296845, -1.8659172495077472, -2.7846168033714522, 1.3874786457361792, -0.15939875112504048, 1.994157530547784, 1.5205154502567715, 0.34064622709183134, 2.2728764710607, -4.09738862613583, 0.7779865020162761, 1.0791563160856499, -0.1948294002403277, -2.815965128890246, 2.6486168436538726], [-0.492207314556379, -0.0608085289366586, 0.7935369080269481, -0.6050100014651641, -0.6940083991041325, -4.2146487152035625, 2.544452322579902, -1.4184861972066256, 0.11806056018462008, 0.07245977529401543, 3.330629164630569, -0.3704817529677211, -0.6935142298697023, 0.30261342575384, -2.8044845290092173, -1.019182809118695], [3.9099825943077393, -2.222790642005544, -1.6688977118184032, -1.7711383275951462, -1.3338777554721304, -3.8254852158780497, -1.1303134906606696, 0.3883458512338157, -0.7085042056174944, 0.6518151901459697, -0.5939836612762059, -3.3756135285018996, -5.560900902016094, 1.291329353158924, -0.7057525882871014, 2.708246922617206], [1.5438136596774854, -0.9178174554648777, 3.180395847255009, 2.145933342037204, -0.0010540591993462023, 0.2845964170694293, -1.4376183505749462, -2.533359405299344, 4.935069590040671, -2.5227634798975194, 1.535697469998254, 0.7464370273878539, 3.7749903406600964, -1.6720960640986413, 1.3387502666720277, -0.2457625472555609], [2.0201681241817586, 2.2624119670493092, 3.438305288881889, 2.7740907584017145, 1.333141687122766, -1.454151798347544, 2.0297138850412653, -1.0729664061390158, 1.463496502656417, -0.5611506362193021, -0.16848251815851367, 2.9487776287228766, -2.9113910738600204, 0.15912444226393968, 0.11100642344088318, 1.014378723744973], [-2.3892021870393125, -2.0362411714009654, 1.1456019663852448, -1.18465139543728, 0.42679568554653, -0.1067303246804635, -1.6251508599426814, 2.0487647662609954, -0.8135568516433498, -0.9393265498529382, 1.9623860750388689, 2.3350924206287216, -0.5952735625622247, 1.5954854001909862, 1.2940406417248274, -0.6213724356002504], [6.6255466704924215, 2.684590257412616, -1.2887903736221733, 0.2767012320987696, 0.8543568728541272, 2.547082044904577, 2.1694908345707473, 2.1767256522264846, -5.724474670462568, -4.869282486735795, -1.758467285640053, 0.27995308901714777, 5.603714501772962, 0.8549364239479877, -3.798615768017906, 0.039373888255704426], [0.2457963863760209, 2.2956853150715535, 0.1121963760366822, -0.018356415728869546, 2.033393439258468, 2.5103954507904307, -0.5671217915076752, 0.4249903340968779, 1.1656415893877283, 2.4663447748147282, -0.11044737527593197, 0.3686205528223759, -0.254967137160083, -1.335319938348632, -0.03512202767577699, -4.228210114979776], [1.072307303301823, -3.2499691758865157, -0.3262249569676048, 1.5941936116931115, -0.3039048614684916, 2.0056666613243808, -0.0007987344786510864, 2.872305530972929, -0.001033595889789074, 1.2556193659310637, 1.4016286859082898, 1.2844679436099744, 0.5824809676486484, -0.7437024310419805, -0.6730542909696399, 2.9507764058456836], [1.6851024268550368, -0.12221865856111624, 0.6315773596875611, -0.7503316198917502, -3.724830380260475, 2.075296329297719, 0.05993286381960794, 1.5916856027859987, 2.363408835988882, 2.7064751915158305, 0.4214867141829549, -2.368854718321545, 0.7197567641253162, -0.4788634778229415, -0.22599992795157964, -0.5148747242848182], [-1.345946021647561, 1.6620244706566059, -0.38424670672532385, 1.6712780666753564, -0.10891978011359349, 1.8996320067912054, -0.6129837190545513, -2.8337707767413325, 1.9277843066662048, -0.9070404672113621, -0.4851421777775572, 0.9922776978695587, 1.0278259683529378, 0.8560356819930777, 0.001822099973102842, -0.029052930602996185]], "bias": [[-1.2597543363851478], [2.3351257574209203], [1.5464103177979098], [1.6682312326811035], [0.5203219828412845], [-0.835713177328086], [0.2519051937193093], [0.24226968509314667], [-1.3889172035633595], [-8.42704686713688], [0.13191608924182585], [0.44855405646375834], [-0.6898810723864146], [-0.02118708178226643], [-1.0918402599000205], [-1.1966706350928387], [1.2560483606205828], [-1.9233059156367793], [-0.3240529866059173], [0.7452603747287785], [-0.8225618693238614], [-2.3442319240211678], [-1.1392358778081682], [0.7809492857634632]]}, {"layer": "activation", "activation": "tanh", "activation_prime": "tanh_prime"}, {"layer": "dense", "input_size": 24, "output_size": 4, "weights": [[-0.6798874403134798, 1.5774535802993492, -0.1433227967719155, 0.2260162117378579, 3.431554835447261, 0.8596655623658687, 2.066643038050653, -1.2695548972502975, 0.45734817871457695, 0.17524610138390717, 1.5671702456457868, 0.48581845806915713, -1.1013292235905983, -1.9751788472793135, 0.9579750472363362, -2.394643556182447, 1.3295949568348684, -1.1369715175778266, 0.79643902651485, 0.9085338997368948, 0.20585631272069604, 0.39588300027637113, 1.2835302593247486, 2.760757318586657], [1.3848711291822493, 2.463731034403863, -0.39725351675000475, -2.854499060991209, 0.9668108111408776, 0.601838347456515, 1.222846813191795, -1.1674949145907045, -0.564591069901546, -0.5196146488582684, -1.4537076694566045, -4.771379541321963, -0.6201572095480519, 1.078943700131027, 0.44522863836948523, 2.5833233863659806, 1.5100338580808315, 0.8539458742601764, 2.250406029579304, 2.487066247558379, -2.1981487793308285, -0.004599176129681137, 0.006100172564194706, 0.592465972141407], [0.3040210066880403, 2.4626969074639815, -1.427562356491451, 1.2899061457921328, 3.347834456655341, -0.7933278723540678, 2.147181692996025, 2.1402022691872338, 0.5136302055706984, 1.1169670338926392, 3.1841071751339287, -1.314795793294444, 2.432040057407861, 1.6612285768079518, -0.46089695219202537, -0.007662678199334125, -0.40661404608186613, -0.3935060197150634, -0.2565154196475785, 1.4472278519723694, 1.9345397992196762, -0.9517253307093388, 0.7291128397766276, 1.6086579920824204], [0.848563904780089, -2.1712081236089196, -1.590832692592701, -0.16439099152337067, 0.7435693748355658, 4.103592842483318, 0.390989175812034, 0.8824928562070664, 1.8017424997049896, -0.025078269082028315, -0.9986104047287655, 1.1754496725743921, -0.37408705963140265, 1.9864346723920305, 2.26835965699803, -1.4013472811477596, -1.2642281817251073, 0.5011967282044925, -3.4064792942449245, -1.5676683710465618, -1.779677454435621, 1.9200919645551826, 0.9921538451058223, -0.3685370941343451]], "bias": [[-1.5079858483161297], [-0.9399382251478776], [3.0715679533265368], [1.1312347192405663]]}, {"layer": "activation", "activation": "sigmoid", "activation_prime": "sigmoid_prime"}]}