{"generation": 63, "fitness": 1310854.1762148854, "network": [{"layer": "dense", "input_size": 16, "output_size": 24, "weights": [[-2.25519145875834, -0.10715877520422012, -0.3963258100665654, -0.20411402091209996, -1.8071059569960537, -0.2987762448582292, -1.307951843933275, 1.2111851345129883, 0.010296411212833145, 1.8051472890454012, -1.5366306251034003, 1.8541067067967065, -0.431649316344816, -1.5362835017723164, -0.032314306851403574, -0.9957655020442644], [2.739699200467873, -2.4935130308699884, 0.04751278609956722, -0.3295997737801839, -2.5140453805718965, -1.1472382980209435, -1.755852798563266, 4.283158411184299, 0.19584333722867614, 0.6989348491854483, 1.0615189418643562, -2.63941028580009, 0.7859307810307549, 0.9895796064660546, 0.8804572303042475, -0.5257776600484335], [-1.2060333575049134, -0.7107643175954698, -3.4897218651934065, 0.9509618802766433, -1.3022344835015822, 2.66958077586733, 0.7267363803913306, -0.8301439246607349, -0.11176334953145817, 0.7848163369970385, -1.1831903822556766, 1.0318785370706172, 0.7759063885427038, 1.0679837542780375, 0.3931801089788204, 0.30386934222992723], [1.1503107485668824, 1.9879266263573767, -0.009718919674170934, -2.7895990975922675, 4.362921332899148, 2.901494616915893, 2.075192042350128, 1.9319898167220777, -0.18164409025360184, 0.15163117439341825, 5.157690555979759, -2.480177952885054, -2.532878909020928, 1.2111296927150546, -3.7394205569458747, 0.5122353221534357], [-0.9112520313256282, 0.3728490096467266, 0.6204800848938568, 3.5729291569660058, -1.3490168634026327, 1.7967189892192827, 0.5131878594220287, 1.38565028331758, -1.8619159501478015, -0.35164455578080034, 0.3014356114327581, 0.05425183634672412, -0.0012424398560472172, 0.6663581448362472, -1.197441389469121, -2.9321353586430563], [-0.019643294102606134, 0.5890545284210127, 0.618352746998835, -0.5310788652597419, 0.6938934210364608, 0.5827295857677539, 1.3293302724079696, -4.416907820876161, -0.7438135049834509, -2.0793061499530148, 2.39332397446233, 0.7784405909620523, 0.5989862896439325, 0.05582775515264782, 0.16522763501205817, -0.8425507045936126], [-0.2231020947139173, 0.19095904564400934, -0.4138709924994901, 0.3768425643943688, 1.6402961125433597, 1.2967328122585682, -0.42070588442714296, 1.864504813265197, 2.380408769325415, 1.2639986422364677, -1.758695086968602, 0.8890561394679937, 1.2026627320497714, -0.8598966902207981, 7.595424314949598, 0.7345124589585277], [-2.3246324420417634, -2.3028753386613707, -1.1859152050552595, -0.03929158254165854, -1.448417425307499, 0.5566326959334371, -0.30155169878036125, -2.7962646759296517, 0.451270947816526, -1.0107621181401059, 0.3282084572673062, 0.04662254680279715, 0.3821322638517265, 0.023008759833758496, 2.2439926062417896, 2.411016297016869], [0.35006009972010776, -1.590756578545613, -0.5952029211335719, -1.5095351835805704, -0.5735502248652024, -3.8043414004353533, 1.5305301045400832, 3.301914874434904, -0.5044179802096761, -0.5245187593926408, -1.1508308817190347, -0.35429689075963466, -3.3228648994815364, -2.4566080874196183, -1.4636019705149097, -0.9922210334966339], [0.1147477223778568, -1.945374359087033, 1.6903768305678168, -2.8280924334913804, -2.8213526281010504, -0.5659579624298867, 1.7391107500848162, -2.847523080427135, -3.8293674833379843, -0.7306722551116935, 0.21995292259276528, -0.3384927605582928, -0.7529031434325009, 0.9655118418529613, 0.6525212856478377, -0.9764352397934775], [1.6705791068091633, -1.637049289216319, -1.0967518784569492, 1.4652867442564683, -1.2370055243697347, 0.15853383733574633, -0.41413131846554735, -2.4822372521732134, 1.0219936678761434, -2.2104389305311827, -0.5637804268559155, -1.2660147278254825, 1.76126207285323, -0.7758094258064618, -1.8485908941336353, 2.1307325657898395], [1.579596352929173, 1.3103768089144505, -2.1016593576537406, -1.1155161365360975, 3.0206104567815157, -0.23044809240600783, -3.7009227754032388, 1.1817517121394028, 0.3881939622223771, 1.8071760970675603, -0.13803671099199658, 0.7836102004897009, 0.2881438366613518, -0.25917670271333726, -1.9131367691539447, 7.182054833837015], [-0.3826724090465898, -1.083931028764047, -3.3007988377260027, 0.8277504607867359, -1.5025113627908167, 4.105986389845921, 5.114702582113713, 2.6409053453394833, -0.26571384426186684, -1.4975621933949403, 2.090491463512655, 1.985009010316327, 0.9644417623110746, 4.084941796376537, 0.09136876790767468, 0.2975291330139438], [-0.9392088843615127, -1.8687225633139612, -0.6522276339091478, -4.877939339091155, 0.3896145173680259, -0.23054708734058182, 1.8697071058406216, 3.06415752622781, 0.5445115501049935, -0.21368974519021333, -0.8398725805956786, 4.284228997519265, -2.1461277853597727, 1.7655097796916732, 2.9406259280043616, -0.8646820268112608], [-1.4063798960168747, 2.0132713820958674, -0.4049039818793698, -0.4959177512056543, -0.45480033955984095, 1.4363275450594633, -0.4442476256381538, 1.3957868878511868, -0.2151393943021762, 1.5694636173701728, -3.989022371803851, 1.9454443641837345, 0.07811977146027693, 0.6949889601317394, 1.3396248355466205, -0.487242425822483], [2.1664983949186287, 2.39521304330764, -0.03774213850686507, -2.2945245006403385, 0.6540834443102231, -0.33992467603141663, 1.9095387021461083, -1.2383114554061943, -0.8863850885918438, -1.4576038068448087, -0.018473779962690895, -0.8962644379011767, 1.2440305679021662, 0.8064364008727718, 0.5598800227486126, 0.8966015803828594], [3.2659092409199606, 0.5234878063739504, 0.3491110866134851, 0.18963454738297358, -2.380960893627362, -1.4186299843794892, 0.18580963521473315, 0.18029555868108926, -0.5069927830922158, 1.194004694485188, 0.23366849857066488, 0.24513134400482328, -1.4475208460110256, -0.02082210195259493, 1.281998255278375, -1.6036846145593449], [-0.719741643850944, 0.7158833041437733, -0.22781177558078158, 1.6178865633089088, -0.5286733466055099, -0.6981627531778627, 2.1088474542646187, -4.286216620650958, -0.7074260085363712, 0.6073530522269905, 4.926810853978964, 0.7522261541600526, 1.9176495736855592, -0.034377288302090137, 2.8424078245401994, 1.1846739386164753], [-2.313679139701569, 2.649631806625483, -0.666995220011552, -1.548257510359256, -1.6693517061937109, 3.667766149965294, 0.7886512526554339, -5.942139657358617, -2.682644070658309, -0.8939699526206932, 0.44603322208708823, -0.36955485797799037, -0.5057062093077309, 0.6292817749143067, 2.47938009572716, 0.6377145127494692], [2.3687753318254963, 0.14356676629796195, 1.2627204595651533, -2.7329236908278447, -1.2433483497912938, -1.2602033223370415, -0.28140897506636176, -1.1488202456928787, 0.7252878513961047, 0.453643916646846, -0.847471114444283, -0.4202422548015311, -0.614926585072963, -1.1124932060424757, 1.5763380937311806, 3.5663567936633784], [3.4073410637521655, -0.7052272118172208, -1.7349841413660778, -2.2630752577564874, -1.6312800554671103, 0.29772175089961506, 2.1335371187714895, 0.08161977892127587, 2.1182042662481084, 0.4638002268190432, -2.6598652223856076, -0.9668956723492147, 3.28673280293036, 4.5383051705409345, 0.03859366162850364, 0.3400544223165811], [1.5071442872118264, 2.059250646589086, -3.8385611599595726, 1.0491632365865977, -0.06548603528456887, 0.4929126763307796, -0.8270801552024456, -0.09677519238511667, -0.23531713743041505, 0.6654012653659329, 1.0204109980943865, -3.054878749737919, -2.5337151479711806, -0.02632600131368079, 1.621376745211223, 0.12252472066489369], [0.3168293135333757, -0.235037858458999, 0.5629466168038763, 0.8104810339843788, 0.036289842577210574, 0.581558304298669, -0.9602120462264154, 0.004845037448748785, -0.8493539328787666, 1.3633894871639527, -3.634385447372162, 1.6526539250759376, 0.17226298077723934, 0.581745714457925, -2.4095018455886104, 1.7199022016042675], [0.5448729262057205, -0.8904352119672765, 0.039730303165558256, -3.1094394708444826, 1.2070884156323003, 2.204551773578446, -2.63228084285537, -0.1626825362205672, -0.4238181496289062, -1.0957780883108716, 2.606874377381497, -2.7793651405340407, -0.8418408929158316, 1.5755129512588084, 0.5051941663997586, 0.3408058186787689]], "bias": [[-0.0914986141744526], [-0.3701848214621132], [1.0529038486378868], [0.6523590817498436], [-1.7081888544622554], [0.9664263614639191], [-0.04516837046159827], [-2.783688238852436], [1.1491822353404708], [-0.13606540034917924], [1.1653078244998658], [-2.2304101390565623], [1.641453396202082], [-0.9076812980931697], [0.3988513877172204], [-0.47969798923996093], [1.1898244598708247], [-0.22240623527179892], [2.6455396705900656], [-1.3071347373910462], [-1.2400001749309815], [-3.181724020150668], [-1.7612612790918467], [-1.0930351135291871]]}, {"layer": "activation", "activation": "tanh", "activation_prime": "tanh_prime"}, {"layer": "dense", "input_size": 24, "output_size": 4, "weights": [[-1.6707751181938515, 0.4115346284592263, 0.46508981314695924, 3.3575446963770306, -1.9175460194817837, 2.1638123166791696, 0.07424248812460243, 0.3566148028724163, -1.0840667974026055, -1.389039611793359, -0.18906342915664842, -0.6830761306535249, 0.38217599520164797, 1.0485755295643564, -3.3376922392930903, -1.2972101942507823, -0.5695797035406497, -2.3419364499442477, -0.14992269389075785, -0.292455762923436, 2.4330944730742865, -0.9368821677486752, -0.9930877046677606, 1.9283405805554734], [-0.48061484975488133, 1.8760761984120504, 0.21992761007184947, -0.09035794915987383, 1.7211458803473427, 1.0454503853846537, 1.9714409782191327, 1.3757250450204777, 0.4467053714811196, -0.4620847719664998, -2.639756714355057, -0.5661500175225953, 2.8941470750646228, 1.3390570351088684, 0.9168055457731059, -2.7404914019882405, 0.2215239221505676, -5.34412046867866, -0.2699183628410504, 0.2981115604793498, 3.45349481263189, 0.5520393052914421, 1.3676647561759712, -0.6876649285216518], [-1.6873629295132, 1.3746616065434125, 0.6168881769961392, 0.7080956843264353, 0.10920256123685324, -1.511922781114087, 0.30504192490218324, 1.7859834198351885, -0.36399324287470547, -0.8243631615667137, -3.0870486083376085, -0.6776480936609164, 1.6622577956918891, 0.8399191950864501, 2.1973704744644293, -0.5603094777027064, 1.606538535820865, 0.17483487787411411, 1.4180827720446758, 1.0633456864207056, -0.13393386444454614, 0.37938070362817483, -0.1803907343853537, -1.0392709676096392], [-2.321408709030874, -0.5373692695891212, 1.5987991507361, -0.49223904042550626, 0.701095549482539, 2.4303412818989925, -2.6768230809753244, 1.5034458283275045, 3.2428132423723985, 0.6949325433974889, 0.694589199423743, 1.1009805375188302, 4.454563019357059, -0.9263434091103754, 2.469370791369404, -2.3756488142408245, -1.9559645801410397, 1.8639801420948723, 1.8778645061418688, -2.27057966024652, -0.8757185028286845, 0.19949791935110883, 0.6304753601916571, -0.5948074940692533]], "bias": [[-0.5226330858732176], [0.8410069675377281], [-1.4353255277540122], [2.058931230310356]]}, {"layer": "activation", "activation": "sigmoid", "activation_prime": "sigmoid_prime"}]}