{"generation": 6, "fitness": 9169.408691482031, "network": [{"layer": "dense", "input_size": 16, "output_size": 24, "weights": [[-0.7771083381751056, 0.41636690117599406, -1.9119861296498708, 0.6970717507814899, -0.8395693678765634, -2.130935938613672, -0.7034942790258101, -0.039779754075979556, 0.4337804850120115, 0.008550789419146332, -0.5457647004401955, 0.1736141123507493, -0.431649316344816, 0.3435260109699587, -0.032314306851403574, 0.02255637849380676], [0.47278338299015665, -1.0488242971678845, 0.04751278609956722, -0.3295997737801839, -0.21545143471945427, -0.36097227002045473, -1.241336142800766, 1.049533889044056, -0.012993204574549555, 0.5269213804378954, -0.32548592165599155, -0.885376603542519, -0.37045640196627483, 0.1335861989902971, 0.7714555061196532, 0.30281081357025363], [-0.7551435590816429, -0.8300949697645834, -0.3411584471720792, -1.2877984330636068, -0.8105090132304171, -0.16716589910809793, 0.9039555424834711, -0.954119089147935, 0.702565947952289, 0.4602787311833596, -1.8038639988767673, 0.1962898101551358, -0.3070960861674763, 0.48309709428772907, -0.3606112242251476, 0.21324826768972627], [0.5243199333097983, 1.0618272294040936, 0.07022104469458967, 0.6065373235502027, -0.2539005796332463, 0.9534223151649444, 1.4546276597663792, 0.6689514916277703, 0.06751119202503425, 0.14014257346860343, 0.7797854411749527, -0.2738510958941507, -0.3256965865005965, -0.3740497822167137, 0.8107725939007713, 0.27346706139742327], [-1.2140691087021238, 0.6077058352249158, 0.37691624860176764, 0.13287028961427483, 0.4916676256617154, -0.12981440361307817, 0.29709977600837445, 0.5519476651894697, -0.4197191328007732, 0.4246899620046094, 0.17532555525648055, 0.10961675403932869, 0.6384160163595816, 0.08580279058905727, 0.16355813489464266, -0.8625429267598188], [0.00882472424022751, -0.812559108360958, -1.8972548288774131, 0.4882067411151001, -0.6520368499776603, 0.6862224128430121, 0.49755061631221686, -0.18880259308000025, -0.9250641912742072, -0.4344383009297028, 0.3680733688817417, 1.724766769178724, -0.7406154901423174, -0.3683082036094536, 0.15364313053262435, 0.7301225317275042], [-1.2286154733239945, -0.8144322272422013, 0.42543317407229053, 0.7979701893266006, 0.6317837238766777, -0.11441518804700102, -0.42070588442714296, 0.7853921063435164, 0.1518560224867831, 0.32151543270549676, -0.033539959595536795, 0.6911432817977823, -0.19872104311822714, -0.34029804040597167, 2.3687546419658467, 0.31840037851420444], [-0.6896085236881394, 1.796917795968787, -0.3442062950008684, -0.7586558528874994, -0.9581503386620638, 0.29519494601608276, -0.9485218156002723, -0.22636295110670468, 0.451270947816526, -0.2603301650885589, 0.3224173158664698, -0.9549857354448863, 0.34437815800215277, 0.6627844841532049, 0.4431350375649592, -0.8301592407265534], [2.5233118831938572, -0.3712247547570957, -0.7262793322214103, 0.35769472808812175, 0.6078180083553979, 0.01666494513852479, 0.7066384702372699, -0.27616210387113305, -0.04735828114628937, -0.5245187593926408, -0.8536649506653742, 0.11204658140666535, -0.14325049563638848, -0.26816117165995235, -0.46781003791944786, 0.2217072614143829], [-0.8653840658524115, -0.2621310685347171, -0.42726303955726164, 0.6543048090896804, -1.461982027752391, -0.5915378706860082, 0.44320252204960053, -0.8006752829596158, -0.6575282324331764, -0.835950945667115, 0.6081657621812944, -0.417765840693001, 0.667775741953589, -0.18860266508874313, 0.3497846566721967, -1.6302570384725878], [-0.2172945873474117, 0.4715781333565259, -0.3888894775784719, -0.5636401072381904, -2.3340868838956723, 0.26548300839880756, 0.9812431803791455, -0.6338057986319552, -0.10739838902178514, 0.3564951339490201, -1.3992238034167621, -2.350584900051707, 0.9420661824926557, 2.188816140524904, -0.68553942331615, 0.5380599369515997], [0.7568314640023801, -0.3405533210079159, -0.3325846877901655, 0.1580505670837118, 0.5570908160611621, -0.10898770185517215, 0.8972623027261883, 0.711891558663708, 0.37492018608488664, -0.3826399918309922, 0.07379866112772948, 0.9452104040414295, -0.5615972289100144, -0.48564621442740585, -0.7274715795277111, 0.5778860227282685], [-0.02211888804545481, 0.36952728065151774, 0.07246641138783327, -0.8447752081766753, -1.4810746535520203, 1.8165029101095576, 0.6925831822264661, 0.016962232573145553, 0.6965286223222061, 1.7974680374217193, 0.5714142679910739, 0.2656764044526416, 1.6586974902350176, -0.3217438958312189, -0.9819499356619368, -0.005088484527552284], [-0.21836968507985755, -2.0540374980408354, -0.370880465082857, -0.5394424896942491, -0.12830339544244973, -0.2523342086455542, -0.8041662640971037, 0.8594087157038646, -0.7907255690806057, 0.6120890791706614, -0.26904547554958547, -0.8145591581915441, 0.8665181304595178, 0.32866610770731663, 1.2708951961201653, -0.5185669071365064], [-0.3235901577767617, 0.11717997724006968, -0.9445422427475418, 1.1499917323510156, 0.5396357564049687, 2.137326028098074, 0.02002677640065076, -0.6161778510959057, 0.669129188437226, 0.34127028760659806, -0.7069720825798629, 0.24454321555589775, -0.042748987386351744, -0.49632491708686044, 0.061164858367147135, 0.10495325687865836], [0.194817235527444, 0.20584526298374928, 0.036533427365163185, -0.9042586859777721, 0.8651494677005205, 0.8222543199497696, -0.37236631158395483, -3.2012540581870352, -0.8863850885918438, -0.5916968152873407, -0.19692150818017806, -0.24315476488601395, -0.2779997487887227, 0.33373616403401574, 0.7775923441759018, 0.11459592554755882], [-0.5261629884045974, 0.32903331328902574, 1.7784480341358009, 2.3362938648521796, -0.36266715844211683, -0.4242696131907999, 2.212359944344271, -0.20379487304426003, -0.8603116838004816, -0.1585552430991486, 0.9961350879822155, 1.1128790550275949, -0.37639469168995277, 0.2602229435264731, 0.6584403463414654, -0.34619377278771135], [-0.561943365043344, -0.6214807161488758, 0.45179967828891554, -0.32583908690875396, 0.11276157940997633, -0.5771653263402066, -0.15808326456732202, -0.6707374564776879, 0.8217311665888012, 0.6073530522269905, 0.9725401425541988, 0.42193056844558585, 0.3317265313026982, -0.5082979339928841, -0.4200776668648598, -0.2552250846664601], [-0.38784866103449445, 0.5583430692334443, -0.7189269253739243, -1.0558372204015787, -0.9661896789191846, 1.2562639970883847, -0.058849800332379854, -0.6638536747374015, -0.5329086074082765, 0.159725754901338, 0.9036320187477092, -0.36955485797799037, -0.7748120275196986, -0.4199845434252609, 0.9018000256005705, 0.6377145127494692], [0.6951950110863612, 0.2492795546454698, 0.29568940533931043, -1.0344802284835444, -0.2514200194477887, -0.11362255293753609, -0.28140897506636176, 0.5013658831401, -0.2805228088809031, 0.9266290076228636, 0.6086945280252585, 0.4375941460128734, 0.6022654122983305, -0.4952482187695143, -0.10120398876622105, 0.8507869041297937], [0.8528523391154748, 1.0575712316719064, -0.48400030321894016, -0.44292396997966876, -0.30420205755812035, -0.288885386038424, 0.4664685682405154, -0.152901120301298, -0.0562260079141248, -0.4398869121555884, 0.13183731394115616, -0.46937689823414286, 2.7530923318906946, 0.9589663342783072, 0.3418176354446001, -0.74795828322164], [-0.48896254770013803, 0.7556565767505186, -1.478197440710901, 0.32624314419632827, -0.5039490563207509, -1.2418662700716276, -0.6610669255754318, 0.10423622789428744, -0.3311829138235114, 1.163869859133526, 0.3364237789861295, -0.7469619324812804, -0.22558132735590908, -0.02632600131368079, 0.9702093303729906, 0.9946839480858809], [0.3373076101962271, 0.3646518227565967, -0.13895464160097237, 0.5924042090335215, -0.4905627512008601, -1.9692010193995122, 0.9230721982374095, -0.5309389329748255, 0.09362998654309918, -0.14063568378673064, -0.4731341941114737, 0.4514282935187366, 0.8803368775799425, 0.581745714457925, 0.9105973533129819, 0.8072699256007447], [0.4406198593275725, 0.5569067970724759, -0.9027476818752711, -0.7140998040690267, -0.8408646118603431, 1.2652639649504807, -0.9962835626563085, -1.9602312360266139, 0.6866061404341544, -0.3327097672797952, 0.39063027657868576, -0.020515090827645244, -0.700865416792108, 0.992816833625226, 0.20000380939968404, -0.962108900922465]], "bias": [[-0.674193220031359], [-0.4085483715836131], [2.424031155867908], [0.31365557908319686], [-2.6835846940188297], [0.568597030441452], [1.088520239792068], [-0.2916049506008993], [0.690189126522585], [-0.1223333507489972], [-0.25935461694255046], [-0.44665543011917785], [-0.5583558244698787], [0.3680113618684213], [0.3988513877172204], [-0.19871099705094286], [0.29201113302506787], [0.6276201048345266], [0.7444287433927821], [-0.6838720383837407], [0.44056367085910575], [-0.8454810025959707], [-0.2748027334913159], [0.3648186342009667]]}, {"layer": "activation", "activation": "tanh", "activation_prime": "tanh_prime"}, {"layer": "dense", "input_size": 24, "output_size": 4, "weights": [[0.38922777298572964, -0.22124037215682257, 0.13190254095947918, 0.9983019094257166, -0.6102965665600404, -0.41966235530647666, -0.4373406244362634, 0.13021692009862, -0.4815608479698059, 0.20898540644102703, 0.6246345574399437, -0.6830761306535249, -0.487848787951191, -0.39330055594896907, -0.6853462805936521, 0.775310657395119, 0.17824839184830754, 0.4613238838663891, 0.7743211776287495, 0.5380627597511616, 0.021061093644682227, -0.7997963737969636, -0.7603784062411809, 0.3947479560676139], [-0.7669344271520695, 2.077365067138707, -0.018885199328003033, -0.09035794915987383, -0.0641739729891112, -0.8211974962083772, -1.2294977301057406, 0.6809451860481344, 2.7014323831421914, -0.03968974498745226, -1.0752030272659645, 0.007650353930583775, 2.4557016316814595, -0.22639951530633895, -0.6244849345468131, -0.7832126134151274, -0.6071102629664055, -0.7243249980075963, 0.2396937522987701, 1.3597587705107161, 0.795244989022913, -0.7062725464892261, 0.721785062649642, -0.447991179102994], [-0.4271537248791304, 0.7810348877458271, -0.5605632439110761, -0.4143855461278865, 1.4365349569010197, -0.5984842092721954, 0.5900077262340857, 0.03910095697539351, 0.4694573116578433, 0.5843849643723344, -0.5319264966812591, -0.4625922392949049, 0.8637809310731746, -0.6711532385294752, 0.004541878742409855, 0.20991326810134314, 0.48525141451916265, 0.9874740674451843, -0.8197089594594428, -1.1022324653316402, 0.9649068488976761, 0.47893117869616464, 0.3971514353123974, -0.4366825084881687], [-0.39976342965457223, -0.7215144771048726, 0.16241477451582154, -0.6843118066848857, 0.701095549482539, 0.6005512169668876, 0.9759242667646297, 0.7441719151041213, 0.35375500891351286, -0.5444200410350624, 0.8852974251785235, -0.22460765642587388, 2.0496685628205027, 0.15728788675800454, 0.8262084955359414, -0.42437354604379207, -0.306650836772292, 1.7059663674206653, 0.3499602901453871, -0.049591205710095565, 0.017163691548206295, -0.07163033190255574, 0.4070183123067481, -0.34657115831402807]], "bias": [[-0.285352820982568], [0.7154584493262937], [0.478747511850077], [0.48845640426808656]]}, {"layer": "activation", "activation": "sigmoid", "activation_prime": "sigmoid_prime"}]}