{"generation": 76, "fitness": 8738366.791318094, "network": [{"layer": "dense", "input_size": 16, "output_size": 24, "weights": [[-0.042477560389472535, 0.3992068577189838, -0.7814743888637703, 0.25170032759211025, -1.473302417441818, -1.5684086315154833, -0.8970961656387941, 1.2111851345129883, 0.2782127046556222, 6.994209095788159, -3.8893798733586684, 0.62336776674237, -4.01257901456267, -4.972167148847072, -0.032314306851403574, -1.1960655644598788], [3.194588241378019, -2.151135047304855, 0.04751278609956722, 0.9399314009811901, -2.5140453805718965, -0.7327684630600101, -1.755852798563266, 4.963590867386404, 2.0879462586486546, -1.3973255080463678, -1.5894802140711577, -2.63941028580009, 0.24589375562433913, 0.9627280518580322, 1.3147123784217463, -1.1084942480359383], [-1.2060333575049134, -0.8300949697645834, -3.902354585922931, 0.80056525776551, -1.6867075196215837, 0.4304667059254923, 0.7267363803913306, 1.022210609258249, 0.17119820655601437, 0.7848163369970385, -1.0092281372017529, 1.0318785370706172, 0.7759063885427038, 0.24795059266565134, 0.7791258483335735, 0.8972150657977099], [1.1503107485668824, 1.8298828163292087, -1.5769696812667362, -1.8375986120261214, 4.362921332899148, 3.3295981223633717, 2.075192042350128, 0.15047840198457965, 0.2087095677608184, -0.5967917068576869, 3.9921545444105284, -3.1655530353883767, -3.2225732236620312, 1.3566934287539816, -0.7046638160816106, -1.1424925532454502], [0.0725846130885196, 2.573044414675679, 2.1743098502716687, 2.3800119993808564, -0.3337853899223673, 1.7967189892192827, -0.08200466978216471, 0.8384203601545408, -0.9258777115399298, 0.25624751076183194, 0.27864620490593073, 0.17226630610252597, -0.5548148248264982, 0.6496112438875346, -1.6811551282405042, -2.0758092918703266], [-0.019643294102606134, 3.7048389716866703, 1.7788249551164448, 0.7409597137738968, 0.8499783265799484, 0.9641736073044955, 0.859889024590953, -2.8694879564351705, -1.1703083596060235, -2.480384990873653, 1.1529464698977416, 0.5643029070721277, 0.5989862896439325, -6.200915364608777, -2.1067726110513503, -0.8425507045936126], [-1.114984107669687, -0.2236158851792001, 0.1610338699008359, -0.7109027686533742, 2.514729459809494, 3.970068757562891, -0.42070588442714296, 1.938912776258911, 3.0555042714635188, 0.8629361825222516, -3.446002189761183, 1.8227867509136078, -1.2492323463261088, -4.263965270587012, 5.849744881429158, 2.036161122132949], [-3.018489215809705, -0.6772858932478572, -0.48711166451699506, -1.9843588450401217, -0.3149677535538957, 0.06224204904274885, 1.0798115230442644, -2.317038891631856, 0.451270947816526, -0.39662000932577124, -0.4571402487503847, 0.04662254680279715, 0.3821322638517265, 0.023008759833758496, 2.2439926062417896, 1.7215638293262674], [0.9736110766613018, 0.6592952117205113, -2.970819187776035, -1.6222010143271137, -0.24915757765292898, -4.948443588610578, 0.00518191561757253, 2.6882970312629237, 0.23227339516067502, -0.5245187593926408, -1.1508308817190347, -1.143727485470049, -3.7559455947891296, 1.1128930120935892, -1.6835593458815075, -0.5567409941547754], [0.6657586275495421, -1.9707492961772413, 3.0190443223081718, -2.0162397828122174, -2.038392071107781, -0.5659579624298867, 1.65863458840246, 0.22179329178183127, -3.6593723113601078, -0.7551167545428294, 0.6473114531833113, -0.3384927605582928, -0.9501644164937455, 0.6930367348784323, 2.403270316051837, -1.1003750768740679], [1.9070658707089758, -0.03560074722523576, -1.0967518784569492, -0.3065439076791192, -2.133339512692938, 2.0375699225220782, 0.12314444448754885, -2.322575310183539, -0.5924623505338824, -2.2104389305311827, -2.597300718918323, -0.7264398358228381, 0.26062591842713534, 1.32177417962573, -2.1392749817864636, -0.259791644258227], [3.0314682039863947, -0.5887750823088616, -1.7930387150556764, 0.6797138090077499, 2.023362465648461, -1.6525981467529736, -3.1403336755628044, 1.490053531624866, -1.4334536381587188, 1.2089632087442288, -0.13803671099199658, 0.7836102004897009, 0.2881438366613518, -0.241031432423973, -1.9131367691539447, 8.074408046842668], [0.07820110254360646, -2.9075500844786135, -4.644141689881348, 2.1487247462522516, -0.9907873736155361, 3.028440112328986, 3.6348601843045136, 2.881440932357896, 0.10484567905269968, -1.6146893301911522, 3.1047712585902145, 1.8053068200071407, -1.7435324674126471, 4.272385257705097, -1.6510607799497725, 0.2975291330139438], [-0.387209419881695, -2.362342534516617, -0.6522276339091478, -6.106154544034394, 0.3896145173680259, -1.69839054890038, 4.201218114672894, 1.8865720113542397, 0.5445115501049935, 0.3677620217930688, -0.47345576923837474, 3.708714514658772, 0.5697666845051946, 1.7097154259300065, 0.29208674176641974, -0.15056736341590982], [0.5825000864053951, 4.4658497866571425, -3.025176222481975, -0.4959177512056543, 0.27073580288037696, 1.0603064360062713, 0.20170910172042172, 0.6996527329929273, 0.9182230677066356, 1.6477103667208215, -4.996256511673099, 0.3468746588451055, 2.1173438618480636, 0.2591897345954075, 1.3396248355466205, -0.48570280890305834], [1.6228567474999227, 0.755595059288283, -0.19471632978837794, -0.5387038611772483, 0.6540834443102231, 1.3766280729589515, 2.4049506296250325, -2.37589596225065, -1.1855206224107577, -0.07834046846566445, 0.265581616587815, 0.20611438780044372, 0.5090441437732047, 1.037080368451524, 0.9147506691552055, -0.4564425282744056], [4.242877910071144, -1.6708242006982919, 1.1269923860478614, -0.47674948193399336, -1.6025079297937512, -2.0937907024925972, -1.9545310169781245, 2.4173968034805604, -0.5069927830922158, 1.194004694485188, -2.711801575737079, 0.2875096021006882, -1.7422951325500082, -0.8051733684032265, -0.17614455337172208, -4.639000296111238], [-0.1328254665052644, 1.0408999927888263, 0.2576633239558812, 0.5404847058621891, 1.3080012831259875, -0.993498935313912, 0.036964472340555665, -2.15889045459205, 0.6201122553944652, 0.6073530522269905, 3.3793269967205832, -0.34253810741794366, 2.4804452725856576, -0.8018215264854137, 4.0234524729237435, 2.13989863988699], [-2.0896768666882455, -0.23718370443202907, -0.666995220011552, -0.5768667996561183, -1.6693517061937109, 4.262431634058066, 0.7886512526554339, -5.123719998703127, -1.8199232164742802, -0.4784792553812366, 0.44603322208708823, -0.36955485797799037, -0.5057062093077309, -1.0266943009948148, 1.460556122520322, 0.6377145127494692], [2.3687753318254963, 0.38259292231871056, -0.017275096848587412, -2.7329236908278447, -1.3696636815734808, -1.3133365480527663, 0.11023242935122396, -1.1488202456928787, 0.7252878513961047, 0.3786186352548303, 0.18444181397060677, -1.2018530407275028, 0.5418935768441493, -0.18582595988345313, 1.5912375774167293, 2.6340795596103614], [3.6570241725813046, -0.8760146256715052, -2.586564196353459, -2.6597876456838403, -0.5545991336910849, 0.06859348661260081, 0.7956910579567482, -0.3341009363494136, 1.4592388039526623, 0.3116533858544137, -3.638815193130863, -0.31605954173354955, 4.599347484122601, 4.220896821913153, 0.911570088070081, -2.164846527440266], [-0.94582460361134, -0.6617745848932588, -3.7309827228329215, 0.06344472546543159, -1.3115053903484961, 0.7345497670443046, -0.8270801552024456, -0.42238523151971474, -0.8127908752494969, 2.345881245201932, 1.1097509412323474, -3.054878749737919, 2.8243581096619126, -1.7190035432021213, 1.4913092919829147, 0.12252472066489369], [0.7180014756439559, -0.235037858458999, 0.5615979101355025, 0.8104810339843788, 0.7958303849469166, 0.1307845244783551, -0.9602120462264154, 0.004845037448748785, -0.2897970009976928, 0.837040285226958, -1.071882801596216, 0.9797341119385179, 0.8462814004724152, 1.7093863840837855, -2.5886767379164226, 3.503447109062293], [0.02361312459933229, 1.0066943451920423, 0.0038787604763075648, -3.2680876433450834, 1.2070884156323003, 1.9076374170927761, 1.3506156938052307, -2.218875252467182, 0.9510898420890552, -0.24310421184115816, 1.4971678219808777, -2.4459438422624955, -2.291180647061446, 0.21766180672939284, -0.8795181508823974, 0.5150056733232284]], "bias": [[-0.34745134905430336], [-4.039153245256102], [-0.6357224084023441], [0.6523590817498436], [-1.7442032715587774], [0.9664263614639191], [0.4896936450768786], [-1.7079385008147476], [1.1491822353404708], [-0.13606540034917924], [1.1940401349358658], [-2.2304101390565623], [0.06472207890520687], [-0.04078925651704479], [1.6397315482408068], [-0.47969798923996093], [0.04064649397648079], [-0.22240623527179892], [4.510458652983597], [-0.7008609406338546], [-1.2400001749309815], [-5.499463532362737], [0.03130211011919537], [-0.6110402824811871]]}, {"layer": "activation", "activation": "tanh", "activation_prime": "tanh_prime"}, {"layer": "dense", "input_size": 24, "output_size": 4, "weights": [[-2.6590572197253826, 0.4115346284592263, -0.179110305427372, 1.9067992483510476, -2.1893165663309944, 2.1638123166791696, 0.07424248812460243, -2.0053887928017233, -1.0033008723865744, 0.03509858542605335, -0.937898791413592, -0.8032958988154904, 0.38217599520164797, 0.6895554907946654, -1.0851090775395473, -0.07064368085618122, -1.1392749338110852, -2.735184456075839, -0.14992269389075785, -0.4855689942290713, 3.145592851427285, 0.11375631916880957, -0.4190265652496675, 3.5670387442100493], [-0.48061484975488133, 1.157845042807237, -3.986693922753907, -0.09035794915987383, 2.907041871798599, -1.414833002237988, 2.582438619905435, 1.3757250450204777, -0.388942435489975, -0.4620847719664998, -2.639756714355057, -0.28930713601508473, 3.5894377950130787, 0.7841758720066594, 2.5400933626100155, -4.450113401412441, -0.15314570511248266, -6.354193024424283, -0.3261089162159543, -1.0983930012117187, -0.014397312582408617, 0.2943866983496862, 1.5444291302398683, -0.6876649285216518], [-1.6873629295132, 1.9569696017846157, 0.4096158606613575, 1.0710735045687207, 0.500911828731432, -3.544529211050822, 0.312949009472381, 0.45803061945722123, 2.552280004627871, -1.183448396127051, -2.9553381414285402, -0.29873669053687263, 1.6555551245100029, 1.3175225379044218, 2.1973704744644293, 0.4182983529300569, 1.9773477998448366, 0.17483487787411411, 1.4180827720446758, 3.752042373988444, 0.3961375923156736, -0.041645520486366716, -1.6686571045750402, -1.0392709676096392], [-2.321408709030874, 0.253178301717924, 1.9057728938700735, -0.9871464288228193, 0.03143057804229765, 0.6170220142275514, -0.6079614881769397, 1.4638893677190965, 3.453382305993563, -0.2199226131922779, -0.3888017368452401, 1.3000927559599798, 4.035798721236908, -0.9263434091103754, 0.9907376204638743, -2.4137045015684366, -0.11483583074322024, 1.8639801420948723, 1.5765136631764327, -1.5800813133321354, -0.28416651446509456, -0.20052637258515948, 1.3181868313820273, 2.2333867493502586]], "bias": [[-0.5226330858732176], [0.25182301617709546], [-1.4353255277540122], [1.541052869147432]]}, {"layer": "activation", "activation": "sigmoid", "activation_prime": "sigmoid_prime"}]}