{"generation": 77, "fitness": 17180631130.30606, "network": [{"layer": "dense", "input_size": 16, "output_size": 24, "weights": [[1.7502604802324169, 2.61292089136643, -2.0588846362204487, 3.0280391426171755, 3.690051339355067, -2.2116102357818623, 1.041803271765943, -1.2159931506838086, -1.9700371849384388, 3.134394573611281, 0.27561776794463033, 1.06494679260852, -0.5952045982634115, 3.2621234584416055, -1.9938366445629914, 5.196480560862673], [-0.36208350591310756, -3.0659542028909597, 2.430208668232055, 0.10695566580163923, 1.4442335060432734, 1.9108300535614746, 0.8534179529464614, -3.8002913957887667, -5.601889533605915, 0.8519722396316034, -4.527250252288969, 1.2310110366225326, -1.089596314160994, 0.4343318843864765, -1.781667417214834, 4.292004285388909], [1.5039948506993284, 1.0589106370801478, -0.7362252893789392, -2.157379371251766, 0.051219328126600905, 3.345360896399207, -0.3308090662461196, -1.0537989014421325, 3.8686375633258865, -0.04184103757798652, 4.42561106102857, 0.8855899343625173, -3.666161148099957, 2.8205686205231197, 1.8907142741866223, -2.690044407775565], [1.3542788492780624, 0.7721731319546321, 2.495102241726491, -1.1020032650274136, -0.12877655260926857, -4.525420451791247, -0.8507057722662831, 1.7834631882485248, 1.433924976236515, -0.6688680939907545, 1.048127989904927, 0.41059527631208065, -3.473345844611006, -0.2262590763281631, -2.836754400579401, -0.5373923283406843], [-0.6971788474579104, 2.599311850287603, 1.0508016097217834, 4.346664767747364, 2.4766730587696473, 0.08798199609093538, 2.0564926059459654, -0.14042658947973297, -1.183515397005604, -1.9737425428733881, 1.0507940689622495, -0.34040848259952716, -0.9473474683858749, 0.5010594893204865, 0.4587709195334466, -0.9274856684381176], [-0.9257532271761479, 3.7450547941603007, 0.2729367196047142, -0.2736352059131545, 0.2519708944135499, -1.999943496373875, 0.33139787687561406, -3.841982125653348, -1.1931560011805467, 3.426998883284112, -3.499305782493885, -1.011796897825381, -0.11056605172931744, 1.4699067426323642, -1.858127885346387, 1.7258555110938816], [1.255823073957748, 0.9258110271009296, 1.3222962722783533, 0.05305666199708692, 1.1616356983349512, -1.0130110785528452, -2.853260579877877, -0.31896154909733265, 0.05662373978777102, -1.912742715811625, 4.050777499533708, 0.3880388124374057, 1.8945561446201875, -4.718995199688866, 0.5392342222745157, -4.415679837118417], [0.14664265740436444, -1.1669167967952137, 1.9278982990602274, -1.5608089937265819, 1.191433792380653, 1.2244547176771454, 2.7683324259961877, -4.639278413963232, -3.78240278534619, 2.3514918730866863, 0.41000982086333543, 0.2486626946652315, 1.0432134849550663, -1.6791188520780076, 2.116375133811033, 0.03396279271498037], [-2.0742970940896566, 0.09691527839938663, 0.010796229627366816, -0.107263366358062, -0.7829691732950688, 0.6731482032201495, -1.3473997368891955, 0.3518105000315357, 2.335120721282467, 0.1516182203992158, 1.5474368085827308, -3.5498586769624354, -0.1066124388379047, 0.2854594934281207, 0.9694036780299302, 1.6162047818696013], [-1.141680041180486, 0.47644620686178685, -0.2874339904193552, -0.7993206903427883, -3.682263072836281, -0.1876666023839867, -2.8203234446961574, 0.8283765881866278, 0.7984993246826337, -5.332788898201144, -5.060392323617042, 2.2373672691908535, 1.0152706746045208, -2.3347824032175137, -0.22556873747167672, -1.2107055267564168], [-2.2926195110162038, 1.0427003552941865, 1.0026060747826737, -3.3375298538332268, 0.7263405087846979, 0.4771617577416661, 1.8403126116923771, -1.024577309985307, -1.1992385954993383, -1.4852678439585052, -4.026136590812206, 0.9684452268535476, -1.4607658789540445, -0.4782908045914959, -0.2622314390731229, -3.526553970379506], [-1.1707801925958248, 1.4036575300298475, 0.8682327378965243, 0.14078773597880534, -0.8642785708998768, -2.4740737110213136, 1.8309255086183172, 0.5148680519937181, -0.10284900995879465, -0.4087321938876697, 3.0123056015685896, 1.4903731374839868, 1.4696845605577675, -2.054870049561377, 2.6588453979825357, 2.1770080412916397], [-0.21659787993883506, -1.8309298984411824, 4.910540439811811, -0.9916293101125819, 0.15350384400119288, 2.512414839108666, 0.7650671851906315, 0.3190997951435244, -0.8334059121131296, 1.160262043566033, 1.42217327304785, -0.19498397223055736, 0.46414222791635007, 1.9507626482351341, 0.627664826592206, -1.8838964415384585], [-1.439535096153942, 0.6706562771296845, 0.7237006878789447, -2.8045656371351666, 1.3874786457361792, -0.15939875112504048, 1.166486305661652, 1.5205154502567715, 0.34064622709183134, 2.2728764710607, -3.8475444092014603, 0.7779865020162761, -0.06982521524874286, -0.2854595452156948, -3.227249881306253, 2.6486168436538726], [-0.492207314556379, -0.740752945706078, 1.3072460125697418, -0.6050100014651641, -1.397428670443659, -4.2146487152035625, 1.4095747916528814, 0.646231934739568, 0.45753941123532627, -0.22571867492238773, 3.330629164630569, 0.18260079139166496, -0.6935142298697023, 0.30261342575384, -2.3968331978662714, -0.13111023529487842], [3.9099825943077393, -0.45199604886242795, -1.0178189017124781, -1.7711383275951462, -1.3338777554721304, -2.891408944052569, -1.1303134906606696, -1.0374822788235218, -0.34112198797594245, -0.9846767317968267, -1.3097083568666186, -3.3756135285018996, -5.560900902016094, 1.291329353158924, -0.7057525882871014, 2.708246922617206], [1.7936390283281909, -0.3823970011435433, 1.8962937948108158, 1.3584263063858475, -0.0010540591993462023, 0.2845964170694293, -2.45374690906488, -2.533359405299344, 2.8274499901274903, -2.6394716443761954, 2.4811553697182305, 0.7464370273878539, 3.7749903406600964, -1.6720960640986413, 2.3752603633712592, 0.46397910528749853], [2.0201681241817586, 3.9351728255997407, 1.544554072201093, 2.000640830693706, 1.333141687122766, -1.4031684956005694, 1.5737565688696344, -1.461279248844189, -2.036448895209613, 0.29581645190969263, -1.6335238761626165, 2.9487776287228766, -2.9113910738600204, -1.3767078506567434, 0.11100642344088318, 1.014378723744973], [-2.3892021870393125, -1.4602072913803443, 3.000029005443552, -1.18465139543728, 0.4209583700416206, -1.5540738958913596, -1.1803739869235903, 5.467063219200467, -0.8135568516433498, -0.5720220751975885, 1.629377603930094, 3.677787557296752, -0.5952735625622247, 0.264683433391351, 3.838594097892626, 1.9346667807423312], [4.9447725324057155, 2.959639468868837, -1.2887903736221733, 0.2767012320987696, 2.0848084603263564, 1.658159999459872, 2.1694908345707473, 2.617713053473448, -5.724474670462568, -6.008334421388646, -2.2743537959003173, 0.27995308901714777, 5.603714501772962, 1.0465455333307487, -3.798615768017906, -0.4512883754182667], [0.2457963863760209, 2.8367587813827773, 0.6815929057578118, -0.018356415728869546, 2.662961959754334, 2.5103954507904307, 0.026440585540524947, 1.2038441371593853, 2.213668243375614, 2.4663447748147282, -0.11044737527593197, 0.7270040620377138, -0.254967137160083, -0.47644991450899865, -1.1563060154671465, -0.18249474245584096], [1.173779318448827, -4.9027066621685105, 0.9957759140216433, 1.8211092497548784, -0.3039048614684916, 1.3153748625405886, 0.7840003062489072, -0.02810492773142892, -0.001033595889789074, 1.8928240036992925, 0.7124851412867885, 0.49750368086918373, 0.5824809676486484, -0.7437024310419805, -0.6730542909696399, 2.9507764058456836], [1.8190891615174032, -0.06819353534172024, 0.6315773596875611, 2.752770103618648, -3.834433880124413, 2.075296329297719, 0.05993286381960794, 1.5916856027859987, 1.963452217368596, 2.50217313610854, 0.8373856823021697, -2.368854718321545, -0.09392055155456419, -0.4788634778229415, -0.673720066579158, -0.5148747242848182], [-1.345946021647561, 1.6620244706566059, -0.9926076471138494, 0.9189226397585861, 1.6361220985335967, 0.24783560221227663, 0.8881887326994462, -2.8337707767413325, 1.9277843066662048, -0.9070404672113621, -0.3454643219987593, 0.9922776978695587, 1.935199049562678, 0.8560356819930777, 0.001822099973102842, -1.2157069554305164]], "bias": [[-1.3098914476403132], [2.3038867119816437], [1.5464103177979098], [1.6682312326811035], [1.3860579935307982], [-1.6010437993566988], [-0.19000063810639978], [0.7359205417850256], [-1.3889172035633595], [-8.42704686713688], [0.1390343216160831], [0.44855405646375834], [-0.6898810723864146], [0.08080645375732387], [-1.0918402599000205], [-1.1966706350928387], [1.2560483606205828], [-2.137179408077561], [-0.2895577749446742], [0.7452603747287785], [-1.1386120746871087], [-2.2062226859965794], [-1.1392358778081682], [1.7775397712616963]]}, {"layer": "activation", "activation": "tanh", "activation_prime": "tanh_prime"}, {"layer": "dense", "input_size": 24, "output_size": 4, "weights": [[-0.33276238028288035, 1.5774535802993492, -0.1433227967719155, 1.0365581717884185, 3.0661336131524184, 0.8596655623658687, 2.066643038050653, 0.513406290799866, 0.45734817871457695, 0.8813180521617533, -0.033773640037134456, 0.48581845806915713, -1.1013292235905983, -1.5689661797812304, 1.2113294811220185, -2.394643556182447, 1.7114160055863668, -1.1369715175778266, 0.79643902651485, 0.9085338997368948, -1.2691863646335892, 0.5430910358702823, 1.2835302593247486, 2.760757318586657], [1.7503931827196515, 2.597186861668569, 0.7220314080811138, -2.502843905176717, 0.9668108111408776, 0.601838347456515, 1.8395818228613867, -1.1674949145907045, -1.1986079901000157, -1.380488879109361, -1.4537076694566045, -6.0776158421038895, -0.6201572095480519, -0.12199451798212957, 0.44522863836948523, 4.041949906376298, 1.5100338580808315, 1.2470631879584428, 2.5587136314261536, 3.2820688032922463, -2.6191914664972833, -0.12694974930849964, -0.00848356176338705, 0.592465972141407], [-0.207358981257188, 1.4192102087156746, -0.22531346822665665, 2.6683013253094496, 2.867497268167436, -0.48038491711385856, 3.284394890120537, 2.644623991040253, 0.6358370645859859, 1.1169670338926392, 5.932958817460136, -0.6562384350786608, 1.7565800033897423, 1.4174255676033907, -0.46089695219202537, -0.007662678199334125, -0.40661404608186613, -0.3935060197150634, -0.2565154196475785, 0.21736146976794532, 0.06456695532456291, -0.5014022701156089, 0.7291128397766276, 2.1656718325067503], [0.4970257398776158, -2.1712081236089196, -1.590832692592701, -0.13734271153421024, 0.7435693748355658, 2.3628681767113324, -1.2764168591397256, -0.40345088911616694, 0.4459877312867109, -0.9481154447359923, 1.6530474323480335, 0.6968187065069821, -0.37408705963140265, 1.9864346723920305, 1.5182503932605376, -1.4013472811477596, -0.9461453827080055, -1.455142082113213, -1.8451564339450908, -1.5546650604866286, -1.713764358567686, 1.9200919645551826, 0.9921538451058223, -1.1044136196851684]], "bias": [[-1.5079858483161297], [-1.1470510415764363], [3.0715679533265368], [2.6038235429698413]]}, {"layer": "activation", "activation": "sigmoid", "activation_prime": "sigmoid_prime"}]}