{"generation": 85, "fitness": 17180642033.127903, "network": [{"layer": "dense", "input_size": 16, "output_size": 24, "weights": [[1.7502604802324169, 4.016081845087046, -2.269143261558228, 3.3704906137280854, 3.690051339355067, -0.3401307879931148, 1.041803271765943, -1.2159931506838086, -2.60091837284112, 3.8931407930764053, 1.1079557930158717, 1.06494679260852, -0.5952045982634115, 4.34430584505168, -1.9938366445629914, 5.196480560862673], [-0.5996297191337727, -2.944336592444113, 2.101608016544641, 0.33694418692278894, 2.61865952047217, 1.9108300535614746, 0.5783547325150424, -3.8002913957887667, -5.601889533605915, -1.1644142892168994, -2.3263000807995597, 2.165957910761951, -1.089596314160994, 0.4343318843864765, -2.7571519784801826, 4.292004285388909], [1.0583483026102962, 1.0589106370801478, -0.7362252893789392, -2.157379371251766, -0.6644466284529109, 3.345360896399207, -0.3308090662461196, -0.0644617986279522, 3.8686375633258865, -1.0421292605078099, 4.42561106102857, 1.100691343327289, -3.666161148099957, 1.6642897964140586, 3.134308525703411, -2.690044407775565], [0.8414350350195405, 1.314271173527159, 2.495102241726491, -1.4306623499867215, -0.12877655260926857, -4.380930235556948, -0.5468609473966385, 1.7834631882485248, 1.433924976236515, -0.3635902081873992, 0.21288651994765856, 0.1686554177110301, -3.473345844611006, -0.2262590763281631, -2.836754400579401, -0.5373923283406843], [-0.6971788474579104, 2.030120045835039, 1.0508016097217834, 2.51113106110824, 4.147883201570624, -1.1850281845080355, 2.5742635423716393, -0.14042658947973297, -0.9595834049706564, -1.9737425428733881, 1.0507940689622495, -0.34040848259952716, -0.9473474683858749, 0.5010594893204865, 0.4587709195334466, -0.9274856684381176], [-0.9257532271761479, 4.228498289505864, 0.2729367196047142, -0.2736352059131545, 0.2519708944135499, -2.299577817153592, 0.33139787687561406, -3.841982125653348, -1.1931560011805467, 3.426998883284112, -3.499305782493885, -1.011796897825381, -0.11056605172931744, 1.5531296855765486, -1.858127885346387, 3.3956643706364567], [1.255823073957748, 0.8319910171588694, 1.0094086299339993, 0.05305666199708692, 0.9672441434019978, -0.47710929851286643, -2.853260579877877, -2.350433978702232, -0.21401640975825426, -1.912742715811625, 4.050777499533708, 1.6349070795479024, 1.487262938688289, -4.718995199688866, 0.3488116151591101, -4.415679837118417], [0.14664265740436444, -1.1669167967952137, 0.9147600980141715, -1.5608089937265819, 1.191433792380653, 1.672651472111669, 0.05416088105062686, -4.639278413963232, -4.7880529038172925, 1.954374549664568, 2.5754333308025146, 2.4735721506510764, 1.0432134849550663, -1.6791188520780076, 0.18011369105722544, -0.6415456349794353], [-2.0742970940896566, -0.4446275301047623, 0.010796229627366816, -0.107263366358062, -1.0340295564769855, 1.087974946751119, -0.769696875588324, -0.1982145621852317, 2.367219551218856, 1.1939175102047461, 0.2465067154686907, -2.7062539309002367, 0.019730034657335027, 0.2854594934281207, 0.9694036780299302, 1.8071941101822777], [-1.141680041180486, 1.7113192106528405, 2.227849497462662, -0.7993206903427883, -3.91620564418201, 1.2634872526027094, -2.8203234446961574, 1.7576224843389383, 0.7984993246826337, -3.570727758785817, -6.170949800426131, 0.19725477626826637, 1.0152706746045208, -2.3347824032175137, 1.143826944656333, 0.7736395052539069], [-2.7436587712051197, 1.0427003552941865, 1.0026060747826737, -3.3375298538332268, 0.44628322217553207, 0.4771617577416661, 2.068518941842361, -1.024577309985307, -1.1992385954993383, 0.19850318512468523, -4.026136590812206, 0.9684452268535476, -2.2602546612174943, -0.4782908045914959, -0.2622314390731229, -6.59582911796076], [-1.1707801925958248, 1.8685637838295985, 2.32180280278432, -0.8788153592660768, -0.8642785708998768, -1.278887488534928, 2.3744210732688837, 0.7418067095176394, -0.10284900995879465, -0.4087321938876697, 3.0123056015685896, 1.4903731374839868, 2.3048390606589657, -2.054870049561377, 2.6588453979825357, 2.1770080412916397], [-1.1434585020028938, -1.3765306829544859, 4.618177857749023, -1.2379711875355737, -0.6800175274193083, 1.0442408850556155, 0.7650671851906315, 0.3190997951435244, -0.8334059121131296, 0.5203744259221923, 1.42217327304785, -0.9084321300973739, -1.2695573763914092, 1.9507626482351341, 0.627664826592206, -0.8938149493703356], [-2.0077855888891456, 0.6706562771296845, 0.7237006878789447, -2.6152897377626174, 1.3874786457361792, -0.15939875112504048, 1.166486305661652, 0.9813949944177912, 0.34064622709183134, 2.1533562285031116, -3.152021337441022, 0.521058315125547, -0.06982521524874286, -0.2854595452156948, -3.0096111907667553, 3.132060866569407], [-0.492207314556379, -0.740752945706078, 1.9342094186438037, -0.6050100014651641, -1.397428670443659, -4.2146487152035625, 1.4095747916528814, 0.646231934739568, 0.45753941123532627, -0.9198181894217574, 4.6222362012844975, 0.18260079139166496, -1.0528265982466039, 0.30261342575384, -2.3968331978662714, -2.853807625276034], [3.9099825943077393, 0.4552181969314253, -1.0178189017124781, -1.7711383275951462, -1.3338777554721304, -3.207584019556255, -1.1303134906606696, -1.0374822788235218, -0.45725460983509375, -0.3193621309823137, -1.1982351228992547, -3.340688537314072, -5.560900902016094, 1.291329353158924, 0.11670393835023174, 2.708246922617206], [2.3063298918615276, 0.3670931035540292, 1.865656613113573, 2.7555401368491883, -0.0010540591993462023, 1.603944490066013, -3.141653267612735, -2.533359405299344, 2.8274499901274903, -2.6394716443761954, 2.4811553697182305, 0.7464370273878539, 3.7749903406600964, -1.7879377696012813, 2.272150736904099, -0.2457625472555609], [2.0201681241817586, 4.34928191480541, 1.9516817770291475, 3.2239514649766985, 1.333141687122766, -2.6876170365765106, 1.778951047990236, -1.7063886119291758, -2.2035954554623274, -0.15811093486965122, -1.6335238761626165, 2.9487776287228766, -2.458902465854183, -1.3767078506567434, 0.11100642344088318, -0.5122292754374156], [-3.271579481725952, -0.3799266654337776, 2.359276680289491, -0.6010283063167566, -1.9740640997795635, -1.5540738958913596, -1.1803739869235903, 6.787410946748495, 0.4160404432798228, -0.5720220751975885, 3.085536446974006, 1.3174267635667842, -0.5952735625622247, 0.264683433391351, 2.062513468717275, 1.9346667807423312], [6.096387303162187, 2.959639468868837, -1.2887903736221733, 0.2767012320987696, 3.113109591285906, 1.658159999459872, 1.9786105969210588, 2.4689082510906233, -5.364790998520697, -6.198208405463678, -2.305795761659135, 1.4121309257001466, 4.448830865601529, 2.7188667617820443, -3.9105920505711182, -0.4512883754182667], [1.5583827352760966, 2.8367587813827773, 0.39496959876728593, 0.8995389305414575, 1.6978526363665432, 3.513734494934573, 1.16879244834558, 1.0555263134424029, 2.213668243375614, 2.4663447748147282, -0.39765493895673054, 0.7270040620377138, 0.32777086343209993, -0.47644991450899865, -1.67924670758311, -0.18249474245584096], [2.2982149048989693, -4.094591850866783, 0.9957759140216433, 1.4249483768854228, -0.3039048614684916, 2.0973240528987556, 0.7840003062489072, -0.02810492773142892, -0.001033595889789074, 2.066807500836219, 0.7124851412867885, 0.49750368086918373, -0.46557038144838625, -0.7437024310419805, -0.6730542909696399, 3.3647394317285677], [1.8190891615174032, -0.06819353534172024, 0.6315773596875611, 2.752770103618648, -4.231341374028034, 3.1917789515065076, 0.7042989844940403, 2.111352228762281, 1.8207342075148656, 2.50217313610854, 0.910759657836949, -2.368854718321545, -0.09392055155456419, -1.54535737978222, -0.673720066579158, -0.5148747242848182], [0.10850557714124354, 1.6620244706566059, -0.9926076471138494, 0.9172112787912858, 1.6361220985335967, 1.4759524183299217, -0.6442057989764224, -2.8337707767413325, 1.9277843066662048, -1.0897634608934799, -0.06923025905080162, -0.5789380910963287, 1.9936287111176154, 2.4384185791663207, 0.13269461042033281, -1.4581970180434125]], "bias": [[-1.3098914476403132], [2.3038867119816437], [1.5464103177979098], [1.6682312326811035], [1.3860579935307982], [-1.6010437993566988], [0.2519051937193093], [0.6388281915780223], [-1.3889172035633595], [-8.42704686713688], [0.1390343216160831], [0.44855405646375834], [-0.6898810723864146], [0.08080645375732387], [-1.0918402599000205], [-1.1966706350928387], [1.9189989679562223], [-1.2800798201692984], [-0.3349587207536459], [-0.37051158093978587], [-1.1386120746871087], [-2.2062226859965794], [-1.1392358778081682], [0.7809492857634632]]}, {"layer": "activation", "activation": "tanh", "activation_prime": "tanh_prime"}, {"layer": "dense", "input_size": 24, "output_size": 4, "weights": [[-0.6798874403134798, 1.5774535802993492, -0.1433227967719155, 0.02393715381757816, 2.939178815227011, 0.8596655623658687, 2.066643038050653, -1.2695548972502975, 0.45734817871457695, 0.8813180521617533, -0.08072296937841032, 0.48581845806915713, -1.1013292235905983, -2.455007951956217, 1.2113294811220185, -2.394643556182447, 1.6684799373615318, -1.1369715175778266, 0.13776094009663464, 0.9085338997368948, -2.2792883739532677, 0.5430910358702823, 1.9686449238050385, 2.760757318586657], [1.4052651528874436, 2.463731034403863, 0.7220314080811138, -2.502843905176717, 0.9668108111408776, 0.331721154216392, 0.9960441446240481, -0.5431479330605655, -1.1986079901000157, -0.7194103938870638, -2.703486603056075, -6.0776158421038895, -1.1852366670484984, 1.078943700131027, 0.44522863836948523, 4.041949906376298, 1.5100338580808315, 0.8539458742601764, 2.3389599064534523, 0.80948123321895, -2.6191914664972833, -0.6258320987361784, -0.00848356176338705, 0.592465972141407], [-0.207358981257188, 0.8850429622885772, -0.22531346822665665, 0.785242979223093, 2.867497268167436, -0.7933278723540678, 2.535094196225299, 1.9020052009278077, 0.6358370645859859, 0.19617921834400087, 5.932958817460136, -0.6562384350786608, 1.7565800033897423, 1.4174255676033907, -0.46089695219202537, -0.007662678199334125, -1.536448853961287, -0.3935060197150634, -0.2565154196475785, 0.21736146976794532, 0.3639460859420448, -0.830556172073371, 0.7291128397766276, 2.1656718325067503], [0.848563904780089, -2.1712081236089196, -1.590832692592701, -0.9790845124987884, 0.7112975679330831, 2.3628681767113324, 0.390989175812034, -0.40345088911616694, 0.4459877312867109, -0.9481154447359923, 3.598973270703913, 0.6968187065069821, 0.15020829904106914, 2.884075191964741, 1.5182503932605376, -1.4789497073576676, -0.11394369594295817, -1.1791492458474901, -0.9816289276152825, -1.5546650604866286, -1.078253403534024, 1.9200919645551826, 0.9921538451058223, -1.1044136196851684]], "bias": [[-1.5079858483161297], [-1.9438450171268682], [3.0715679533265368], [1.537401526644885]]}, {"layer": "activation", "activation": "sigmoid", "activation_prime": "sigmoid_prime"}]}