{"generation": 88, "fitness": 34360534987.13061, "network": [{"layer": "dense", "input_size": 16, "output_size": 24, "weights": [[1.7502604802324169, 2.61292089136643, -1.5833258424087326, 3.0280391426171755, 2.188014910133498, -1.1324405627422376, -0.21038106611199203, -1.2159931506838086, -0.9871590446805748, 3.134394573611281, 0.27561776794463033, 1.0126336527339972, -0.5952045982634115, 2.4185205010873765, -1.9938366445629914, 4.40795346454547], [-1.0362912787492742, -2.8542709892001703, 2.430208668232055, 0.10695566580163923, 1.4442335060432734, 1.0276535166549592, 0.8534179529464614, -3.8002913957887667, -5.601889533605915, 0.6436517339290642, -4.527250252288969, 1.2310110366225326, -1.089596314160994, 0.4343318843864765, -2.961229517860419, 4.292004285388909], [1.948356470997157, 0.11747588179418678, -0.7362252893789392, -1.6985082201237844, 0.051219328126600905, 3.345360896399207, 0.125315381606508, -2.4667811891756815, 3.8686375633258865, -1.5842088820351998, 5.162680863412774, -1.8440408225689355, -3.666161148099957, 1.8626815688188345, 1.5363973092592293, -2.690044407775565], [0.33952802070144705, 0.7721731319546321, 2.495102241726491, -1.4306623499867215, -0.12877655260926857, -4.943341946973094, 0.18332394291115628, 1.7834631882485248, 1.433924976236515, -0.6861057514271969, 0.19054502725023115, -1.0028220916403439, -3.473345844611006, -0.2262590763281631, -2.836754400579401, -1.6455130015533075], [-0.6971788474579104, 2.599311850287603, 2.832424259370539, 2.51113106110824, 2.818023531803662, -1.1850281845080355, 2.0564926059459654, -0.14042658947973297, -1.2143004549031575, -2.7426283506317497, 1.0507940689622495, 0.7609487667093601, -0.1564415411776039, 0.5010594893204865, 0.4587709195334466, -0.9274856684381176], [-0.9257532271761479, 5.133130695627279, 1.0988772895952537, 0.9810570653945677, 0.2519708944135499, -1.999943496373875, 0.33139787687561406, -3.841982125653348, -1.3515940322405684, 3.426998883284112, -3.5108856868876086, -1.4294498042387422, -0.6258366998014229, 1.5531296855765486, -1.7103195647853695, 1.8388181557367025], [-1.3740977852764737, 0.8319910171588694, 0.63792717110878, 0.2247881677151885, 1.1616356983349512, -0.9793225320849487, -2.853260579877877, -0.31896154909733265, -0.23655327396936665, -1.912742715811625, 4.050777499533708, 1.4809597936660583, 2.856412765234989, -4.3861996997328205, 0.5392342222745157, -4.928564380899749], [-0.08881622907443887, -2.998344766206728, 1.917151524755344, -1.5608089937265819, 1.191433792380653, 0.5766905969483742, 2.7686278114893854, -4.975695730592865, -4.854147336528485, 1.954374549664568, 0.41000982086333543, 3.281037498159833, 1.7953550715325781, -2.0574141263404435, -0.08134357235762896, -0.5904823647154405], [-2.0742970940896566, -1.0758154205151658, 0.010796229627366816, 0.14797696789272624, -2.048526213237569, -0.0030901109060695875, -2.9144977248950825, -0.1982145621852317, 3.3656918217289453, 0.1516182203992158, 0.2465067154686907, -3.5498586769624354, -0.6810609452449967, 2.326174285835643, 1.4617200845076004, 2.4456797798557797], [0.10540626138335663, 1.7113192106528405, 0.8169157688091875, -0.7164532838411906, -3.682263072836281, -0.1876666023839867, -4.180001585277756, 2.13155667307484, 0.7984993246826337, -2.3153150865543894, -7.036137659521711, -0.8967634453792306, 1.0152706746045208, -2.3347824032175137, 0.9340823210611411, -3.118542017021859], [-2.2926195110162038, 1.0427003552941865, 1.0026060747826737, -3.3375298538332268, -0.7364974050592172, 0.4771617577416661, 1.705634275083087, -1.024577309985307, -1.0437122861027555, 0.8021602428042988, -4.026136590812206, 0.9684452268535476, -2.8526466210119716, -0.4782908045914959, -1.1286439638899355, -6.59582911796076], [-1.1707801925958248, 1.8685637838295985, 1.094925992994408, -0.5426338431538891, -0.8642785708998768, -1.278887488534928, 1.8309255086183172, 1.1061852592637487, -0.10284900995879465, -0.8791955776366012, 3.0123056015685896, 1.4903731374839868, 1.4696845605577675, -2.054870049561377, 2.6588453979825357, 2.8122831154916854], [-1.1434585020028938, -1.8309298984411824, 4.6552777111471055, -0.9916293101125819, 1.322377729408677, 1.0442408850556155, 0.7650671851906315, 0.3190997951435244, -0.8334059121131296, 0.5203744259221923, 1.3002267616312877, -0.11578896454631682, 1.4496893993612376, 1.9507626482351341, 0.627664826592206, -1.8184846500397964], [-2.7831998892433965, 0.9028279601065076, 0.7237006878789447, -3.3482217763224544, 1.3874786457361792, -0.15939875112504048, 1.166486305661652, 1.5205154502567715, 0.34064622709183134, 3.15860175867062, -3.8475444092014603, 0.7779865020162761, -0.06982521524874286, -0.2854595452156948, -3.227249881306253, 2.994161543893205], [-0.492207314556379, -0.740752945706078, 1.6600065615466737, -0.6980065438238552, -1.397428670443659, -4.2146487152035625, 1.4095747916528814, 0.646231934739568, 0.7923131381931228, 0.880970639741986, 4.048930361824754, 0.2708665906872974, -0.6935142298697023, 0.15660096324138262, -1.4781609490172407, 0.6860610523526306], [3.9099825943077393, -0.5168187456644593, -1.0178189017124781, -1.7711383275951462, -1.3338777554721304, -2.891408944052569, -1.1303134906606696, -1.0374822788235218, -1.3869992393865975, -0.3193621309823137, -1.3097083568666186, -3.3756135285018996, -5.560900902016094, 1.291329353158924, -0.7057525882871014, 2.708246922617206], [4.169301304591224, 0.9431533031903724, 0.1807875836720103, 1.3584263063858475, -0.0010540591993462023, 0.3919804929146095, -2.45374690906488, -2.533359405299344, 2.8274499901274903, -2.4082206783622997, 2.4811553697182305, 0.7464370273878539, 4.225394382447876, -1.6720960640986413, 2.272150736904099, -0.2457625472555609], [3.753397050712448, 3.9351728255997407, 1.2913960631955583, 2.000640830693706, 1.333141687122766, -3.2475049118690538, 2.0297138850412653, -1.461279248844189, -0.6442138431397211, 0.29581645190969263, -1.611419944706001, 2.7816762340004066, -2.9113910738600204, -1.2925857756523969, 0.11100642344088318, 1.014378723744973], [-4.138013545651739, -1.4602072913803443, 3.000029005443552, -1.18465139543728, 0.49880147619267085, -0.19085292895768302, -0.6698845750927946, 5.416586957041529, -1.227072404136904, -0.5720220751975885, 3.085536446974006, 3.677787557296752, -0.9243608070301104, 0.264683433391351, 2.062513468717275, 1.9346667807423312], [6.38907258880663, 2.733918455508996, -1.2887903736221733, -0.736032164928818, 3.113109591285906, 1.612829597686204, 1.7234071651946943, 2.617713053473448, -6.28101788645551, -6.008334421388646, -1.077845907880759, -0.3988998926055086, 5.603714501772962, 1.0465455333307487, -3.9105920505711182, -0.4512883754182667], [0.804597002974568, 1.6314901176277408, 0.5495995196146949, 0.27717379514828633, 1.0018437979945587, 2.5103954507904307, -0.20986745371821558, 0.027514213161855317, 0.7932991843206392, 2.4663447748147282, -0.11044737527593197, 1.0842518685842644, -0.254967137160083, -0.47644991450899865, 0.4522403120043923, -0.18249474245584096], [0.6958463638138399, -4.094591850866783, -0.16883115769961682, 2.152949747669471, -0.3039048614684916, 2.0973240528987556, 0.8236959156224503, -0.02810492773142892, -0.001033595889789074, 1.8928240036992925, 0.7124851412867885, 0.7275963517888887, 0.2161721197755801, -0.7437024310419805, -0.6730542909696399, 4.111545210403771], [1.8190891615174032, -0.8172595174089954, 0.6315773596875611, 2.752770103618648, -5.517442231650018, 2.8490617759635493, 0.5901760374001177, 1.5916856027859987, 1.963452217368596, 2.9419275622117778, -0.17769626912259406, -1.9353253813332916, -0.9608375063671093, -1.54535737978222, -0.7017918932969563, -0.5148747242848182], [0.10850557714124354, 1.6620244706566059, -2.826112295113856, 1.0469406011076812, 0.8461794779198637, 0.24783560221227663, 1.4949264272822425, -2.8337707767413325, 1.9277843066662048, -0.7394770759474635, -0.3454643219987593, 2.1503422870420983, 1.935199049562678, 0.8560356819930777, 0.001822099973102842, -0.5782098927323049]], "bias": [[-1.3098914476403132], [2.3038867119816437], [1.6943475675760815], [1.6682312326811035], [0.4743160775077986], [-1.6010437993566988], [1.99417597694947], [0.7359205417850256], [-2.502672548123301], [-9.99004032955629], [0.1390343216160831], [0.44855405646375834], [-0.6898810723864146], [0.08080645375732387], [-1.0918402599000205], [-1.1966706350928387], [1.2560483606205828], [-0.17009680882555367], [0.315538175277422], [0.7452603747287785], [-0.7275630805627933], [-3.3374293397639665], [0.5497343026307948], [-0.2595133678100927]]}, {"layer": "activation", "activation": "tanh", "activation_prime": "tanh_prime"}, {"layer": "dense", "input_size": 24, "output_size": 4, "weights": [[-0.6798874403134798, 0.5596900675976364, -0.1433227967719155, 0.02393715381757816, 3.0661336131524184, 0.8596655623658687, 1.0457886280585558, -0.6162835738707075, -0.7717178153590483, -0.23383048292999725, -0.3411091947994489, 0.48581845806915713, -1.1013292235905983, -2.455007951956217, 1.2113294811220185, -2.755030958811784, 1.7114160055863668, -1.1369715175778266, 0.79643902651485, 0.7833430941620726, -1.2395727465403132, 0.5430910358702823, 0.6575683538045058, 2.2415236757250465], [1.3103731541918537, 2.463731034403863, 0.7220314080811138, -3.128217289163868, 1.1834290504655647, 0.601838347456515, 3.2231504392892747, -0.5431479330605655, -3.32095425570348, -1.380488879109361, -1.4537076694566045, -6.0776158421038895, -0.6201572095480519, 1.078943700131027, 0.2867060930836206, 3.6163208243700113, 1.5100338580808315, -0.2772702381455414, 2.872235462236389, 2.6463792354055444, -2.6191914664972833, -1.6562882293702135, 2.1322601805814143, 0.5860277783464136], [0.12754449138195478, 1.1554718427269894, -0.22531346822665665, 2.6683013253094496, 2.867497268167436, -1.4776623679955923, 3.284394890120537, 1.9020052009278077, 1.1777984906817114, 0.11367439086769715, 5.687334920483808, -0.22239832467583914, 1.7565800033897423, 0.6178114307007291, -0.46089695219202537, -1.1273752538742783, -0.07345634698473952, -1.1034316368539896, -0.2565154196475785, 0.21736146976794532, 0.06456695532456291, -0.5014022701156089, 1.2351966402610493, 2.1656718325067503], [0.265203681580343, -1.5042538694741139, -1.590832692592701, -1.683867927839918, 0.7435693748355658, 3.082260445005977, 0.390989175812034, -0.40345088911616694, 0.34692623335940864, -0.9481154447359923, 1.6530474323480335, 0.6968187065069821, -0.37408705963140265, 1.9864346723920305, 1.5182503932605376, -1.7811530323236138, -0.9461453827080055, -1.1791492458474901, -0.3465772845304045, -0.4214851943363247, -0.5556865928326957, 0.4991130137927835, 0.28810923030044866, -2.416529662555063]], "bias": [[-1.5079858483161297], [-2.1313568555752376], [1.5960680965049456], [2.6038235429698413]]}, {"layer": "activation", "activation": "sigmoid", "activation_prime": "sigmoid_prime"}]}