{"generation": 8, "fitness": 29499.26395806271, "network": [{"layer": "dense", "input_size": 16, "output_size": 24, "weights": [[-0.7771083381751056, 0.41636690117599406, -0.34967500809305574, 0.6970717507814899, -0.8395693678765634, 0.18597936004589566, -0.7034942790258101, -0.6329060082813704, 0.4337804850120115, 0.008550789419146332, -0.5457647004401955, 0.7253847671206284, -0.431649316344816, -0.4049398999285355, -0.032314306851403574, 0.02255637849380676], [1.2934010941339813, -0.418151570243646, 0.04751278609956722, -0.3295997737801839, 0.12181812371014633, -0.5507154966056899, -1.943110531598008, 1.8398675504862592, -0.012993204574549555, 0.5269213804378954, -0.32548592165599155, -0.885376603542519, -0.37045640196627483, 0.1335861989902971, 0.9360364670103594, 0.30281081357025363], [-0.7551435590816429, -0.8300949697645834, -2.8466931622083713, -0.7507705487807721, -0.8105090132304171, -0.9223354225376212, 0.9039555424834711, -0.954119089147935, 0.5975953259303296, 0.4602787311833596, -0.9267482833764222, 0.1962898101551358, -3.0971713038576096, 0.48309709428772907, 0.3298878512324205, 0.763723424757797], [0.5243199333097983, 0.33016777653576124, -0.3748520769385308, -1.230975855534325, 2.8976706496347298, 0.9534223151649444, 0.6812181430813202, 0.6689514916277703, 0.7111219674163745, 0.2778739308490168, 0.7797854411749527, -0.2738510958941507, -0.3256965865005965, -0.3740497822167137, 2.13949644503355, 0.27346706139742327], [-0.06109879494761583, 0.6077058352249158, 1.272365619741299, 1.2002142963925129, 0.4916676256617154, -0.12981440361307817, 0.29709977600837445, 0.5519476651894697, -1.355008785204906, 0.4246899620046094, 0.3014356114327581, 0.10961675403932869, -0.17049545265667687, -0.35563511536793097, -0.3081051147646741, -1.7560786041423155], [0.00882472424022751, -0.812559108360958, -1.0062759428165102, -0.6403175632827773, -1.093237822918558, 0.6862224128430121, -0.012355922173374223, -1.8326157598106685, -0.9250641912742072, -0.4344383009297028, 1.9963850215876089, 0.8855215084874344, 0.14651116411962029, -0.3683082036094536, 0.24711564261092533, 0.559914656961473], [-0.15242878293453627, -0.8144322272422013, -0.40175003845572876, 0.8894899589826638, 0.6317837238766777, -0.11441518804700102, -0.42070588442714296, 1.8360789611263573, 1.1697686613976872, -0.010807985002958098, -0.033539959595536795, 1.540026702345559, -0.5952348926726871, -0.34029804040597167, 2.3687546419658467, 0.31840037851420444], [-0.6896085236881394, 0.33883788160935535, 0.5855285634547571, 0.30424397759266375, -0.9581503386620638, 0.29519494601608276, -0.30155169878036125, -0.22636295110670468, 0.451270947816526, -0.8927248990006416, 0.3224173158664698, -0.5081192120117694, 0.45032640561656095, 0.6627844841532049, 0.4431350375649592, -0.5018088078646998], [0.7048195187881896, -0.7388949809029697, -0.7262793322214103, 0.35769472808812175, 0.3774898336901794, 0.01666494513852479, 0.7066384702372699, -0.27616210387113305, -0.04735828114628937, -0.5245187593926408, -0.8536649506653742, -0.2999024071862547, -1.7862087298060838, -0.26816117165995235, -0.46781003791944786, 0.2217072614143829], [-0.8653840658524115, -0.2621310685347171, -0.42726303955726164, -1.554109344415346, -1.5939843119187833, -0.5915378706860082, 2.3125934334619505, -0.8006752829596158, -0.6575282324331764, -0.49816515200108447, 1.1535932599747745, -0.9039781742036341, 0.667775741953589, 1.0936203562144247, 0.3497846566721967, -1.5893295684695392], [-0.2172945873474117, 0.4715781333565259, -0.3888894775784719, 0.27358367166658226, -0.5745294499656792, 0.26548300839880756, 0.15911692850400816, -0.724462055013507, -0.24822569812307993, -0.6219276162089349, -0.4348003022020541, -0.7361315083630513, 0.9420661824926557, 2.188816140524904, -0.68553942331615, 0.19691969911712398], [0.7568314640023801, 0.3443119178839096, -2.1016593576537406, 0.1580505670837118, 0.5570908160611621, -0.23044809240600783, -0.9677438638430504, 0.6332549475958024, -0.6240511259552224, -0.3826399918309922, 0.07379866112772948, 0.9452104040414295, -0.5615972289100144, -0.48564621442740585, -0.7274715795277111, 2.3136532251237947], [-0.02211888804545481, 0.36952728065151774, -0.8240797200856327, -0.8447752081766753, -0.4633588352580891, 0.736360934986056, 1.8127982859286036, 1.1746468117738287, 0.5614860827831063, 1.2916576037256788, 1.1804557834361473, 0.2656764044526416, 1.5855407729732027, -0.3217438958312189, -0.9819499356619368, 1.2209387487005863], [-0.21836968507985755, -0.9014534606192296, -0.370880465082857, -0.5394424896942491, -0.12830339544244973, -0.7963381384650534, -0.8041662640971037, 0.8594087157038646, 0.17163659710835577, -0.04503607396919028, -0.26904547554958547, 0.9660480786793686, 0.7227731012594488, 0.6767531310510071, 0.9684946890434325, -0.8646820268112608], [0.19772857069339755, 0.11717997724006968, -0.9445422427475418, -0.4959177512056543, 0.5396357564049687, 2.2435610076580996, 0.02002677640065076, 0.3439751373875056, -0.07598248295521315, 1.6477103667208215, -0.7069720825798629, 0.24454321555589775, -0.5507894612433322, -0.555560081580668, 0.08253124221880026, 0.5218168396477123], [0.194817235527444, 0.20584526298374928, 0.036533427365163185, 1.309049523578895, 0.8651494677005205, 0.8222543199497696, -0.37236631158395483, -1.3061199967426866, -0.8863850885918438, -0.5916968152873407, -0.19692150818017806, -0.24315476488601395, 2.347613521198679, 0.33373616403401574, 0.7775923441759018, 0.11459592554755882], [-0.5261629884045974, 0.32903331328902574, 0.91753811342108, 0.7348068647987227, -0.36266715844211683, -0.6096671098734763, 0.18580963521473315, -0.20379487304426003, -0.8603116838004816, -0.1788600082787113, 0.9961350879822155, 0.2875096021006882, -0.37639469168995277, 0.2602229435264731, 0.6584403463414654, -0.34619377278771135], [-0.9995864574432061, -0.6214807161488758, 0.45179967828891554, -0.32583908690875396, 0.11276157940997633, -0.03199327969447452, -0.3935640365306928, -1.7962467837703646, 0.23167308772076345, 0.6073530522269905, 0.9725401425541988, 1.4164179599383213, 0.6298981075674337, -0.5082979339928841, -0.4200776668648598, -0.30834205670760634], [-0.38784866103449445, -0.6584996863785575, -0.6661779562560876, -0.48471390498469047, -0.9661896789191846, 1.803594560964589, -0.30748774318588373, -3.1887152734412703, -0.6145483355032828, 0.159725754901338, 0.44603322208708823, -0.36955485797799037, -0.7748120275196986, 1.0193816312500679, 0.9010243229868216, 0.6377145127494692], [0.5600349072054006, -0.2502050131135354, 0.29568940533931043, -0.3236739675738667, -0.2514200194477887, -0.5754821673255064, -0.28140897506636176, 0.5013658831401, -0.2805228088809031, 0.9266290076228636, 0.6086945280252585, -1.302593165977915, 0.16019667093507928, 0.24102163349943528, 0.492997363160103, 0.35826922057264204], [0.876705265376563, 0.25959016690258796, 0.22548672256854307, -0.44292396997966876, -0.30420205755812035, -0.288885386038424, 0.5065632179260782, -0.152901120301298, 0.5948714722400276, -0.4398869121555884, -2.4411865622311266, -0.6218821370535723, 2.7530923318906946, 4.282801671776645, -1.4824585368191698, -1.0668882156199107], [-0.48896254770013803, 0.7556565767505186, -0.9279757931343915, 0.836403135059834, -0.5039490563207509, -0.7341639414760706, -0.6610669255754318, 0.10423622789428744, -0.3311829138235114, -1.1998129743156465, -0.5890814259575519, -0.317746451903744, -0.22558132735590908, -0.02632600131368079, 1.8250741309319265, 0.9946839480858809], [0.3373076101962271, 0.3646518227565967, -0.13895464160097237, 0.5924042090335215, -0.4905627512008601, -0.930678010329079, 0.9230721982374095, 0.4560467182652881, 0.09362998654309918, -0.10517881731896872, -0.4731341941114737, 0.4514282935187366, 0.8803368775799425, 0.581745714457925, 0.3426821688362873, 1.2978951974464905], [0.5448729262057205, 1.2917440058843201, 0.039730303165558256, -0.7140998040690267, -0.8408646118603431, 0.5158430164593883, -0.709877168287969, -0.24114035019844904, 0.6866061404341544, -0.3327097672797952, 0.39063027657868576, -0.020515090827645244, -0.700865416792108, 0.7712509854905063, 0.00880811589276731, -0.962108900922465]], "bias": [[-0.23650921478557752], [-0.4085483715836131], [-0.49095066902455553], [0.39646741899830773], [-0.8291740737464297], [-0.003366500589045973], [0.5699101732293841], [-0.2916049506008993], [-0.27088078721911657], [-0.1223333507489972], [-0.25935461694255046], [-0.44665543011917785], [0.06472207890520687], [0.3680113618684213], [0.3988513877172204], [-0.19871099705094286], [0.29201113302506787], [0.5825344777481998], [0.7444287433927821], [-1.1613645901253713], [0.2865456794821908], [-0.8454810025959707], [-0.2748027334913159], [0.3648186342009667]]}, {"layer": "activation", "activation": "tanh", "activation_prime": "tanh_prime"}, {"layer": "dense", "input_size": 24, "output_size": 4, "weights": [[-1.5114530473896501, -0.22124037215682257, 0.13190254095947918, 0.9983019094257166, -0.7867856641675111, 1.6350260808823474, -0.0816766432126883, -0.07178554577469165, -0.47980829914279177, 0.20898540644102703, -0.18906342915664842, -0.6830761306535249, 0.2376625908667619, -0.39330055594896907, -0.6853462805936521, 0.775310657395119, 0.17824839184830754, 0.4613238838663891, -1.2864533432984682, 0.5380627597511616, 0.5188718559602259, -0.7997963737969636, -2.121032803511686, 0.8332100520516657], [-0.7669344271520695, 0.930617092568724, -0.018885199328003033, -0.09035794915987383, 0.08722941779232929, -0.8211974962083772, -0.05493795947407665, 0.6809451860481344, 0.05660061045850662, -0.8341767480573411, -0.9716819021678293, -0.5661500175225953, 0.315496062204337, -0.22639951530633895, -0.6244849345468131, -2.2976369187022687, 0.2215239221505676, -0.8342188109389388, 0.2396937522987701, 0.34427804829806186, 0.795244989022913, -0.9749317583638124, -0.9454214335079549, -0.447991179102994], [-0.4271537248791304, 0.7810348877458271, 0.6168881769961392, 0.8974296222951739, -0.10208141779370883, -2.2671834822541808, 0.5900077262340857, 0.6880995896903404, 0.4694573116578433, 0.5843849643723344, -0.5319264966812591, 0.1729951109325074, 0.8637809310731746, -0.6711532385294752, 0.004541878742409855, 0.20991326810134314, 0.48525141451916265, 0.9874740674451843, -0.7220621460537902, 1.3226542792697131, -0.4251478695301105, -0.08398635040610936, 0.05827144858638844, -0.4366825084881687], [0.06757036875128208, -0.5373692695891212, 0.16241477451582154, -0.6843118066848857, 0.701095549482539, -0.24172230703525777, -1.8721454536878128, -0.21959537614616242, 0.35375500891351286, -0.5444200410350624, 0.8852974251785235, -0.22460765642587388, 2.180800033176727, 1.290708885116581, 0.8262084955359414, -0.42437354604379207, -1.206451666361362, 0.6515140054418354, 0.8843741766042188, -0.049591205710095565, 0.19106845334660527, 0.34449616237187675, 1.2015500541894237, -0.34657115831402807]], "bias": [[-0.5226330858732176], [0.7154584493262937], [0.478747511850077], [-0.7923703841687753]]}, {"layer": "activation", "activation": "sigmoid", "activation_prime": "sigmoid_prime"}]}