{"generation": 93, "fitness": 17180635133.91836, "network": [{"layer": "dense", "input_size": 16, "output_size": 24, "weights": [[0.4995144574958279, 1.7116926483183925, -2.139024685272502, 3.0280391426171755, 2.188014910133498, -2.2116102357818623, -1.1609073273041837, -1.1246114401181684, -1.9700371849384388, 3.134394573611281, 0.27561776794463033, 1.0126336527339972, -0.02874335108314563, 4.155697609292611, -1.9938366445629914, 4.40795346454547], [0.15293480313060281, -2.8542709892001703, 1.0729292195188525, 0.10695566580163923, 1.4442335060432734, 1.9108300535614746, -1.5623062908739997, -3.8002913957887667, -5.601889533605915, 0.8605701271785663, -4.527250252288969, 1.2310110366225326, -1.089596314160994, 1.3973086498684588, -2.961229517860419, 4.292004285388909], [1.5039948506993284, 0.053359160474347134, -0.7362252893789392, -1.7532887885106045, -0.9850112175965373, 3.345360896399207, 0.12269264070430363, -1.3699408604735683, 3.621621205758439, -1.0421292605078099, 5.162680863412774, 1.100691343327289, -3.666161148099957, 3.0211471578492404, 4.751167020968085, -2.690044407775565], [1.3542788492780624, 0.4812292959012405, 3.7033030981315287, -1.5815849649695246, 0.46664465932889676, -4.525420451791247, 0.18332394291115628, 1.7834631882485248, 1.7482953308190763, -0.3635902081873992, 2.16139387335947, -0.1811060012440524, -3.6851039923120075, -0.2262590763281631, -3.2888538858146945, -1.0300859365459547], [-1.3694993771772546, 2.599311850287603, 2.6574771570372313, 2.5235999485557534, 1.9856314065092726, -0.20265208721724737, 2.0564926059459654, -0.14042658947973297, -1.2143004549031575, -1.9737425428733881, 0.1813183002339075, 0.15349421280793063, -0.15828867236847333, -0.04411276017591692, -0.03236454721418297, -1.5926732820773561], [-0.9257532271761479, 2.2184544202385026, 0.5463423099387796, 0.9810570653945677, 0.028891622557844443, -2.880361518146557, -0.011127620567673246, -3.841982125653348, -1.1931560011805467, 3.426998883284112, -2.879469269637389, 0.4790198373872778, -0.4751694883414366, 1.5531296855765486, -0.08206691157929025, 1.7258555110938816], [1.8441730997195052, -0.21370957613530295, 0.63792717110878, -0.39490202244051875, 1.3105159822013452, -1.4606040667390556, -1.7734635687274132, -1.2573108105417559, -0.23655327396936665, -4.117964775843307, 4.050777499533708, 1.4809597936660583, 1.1601869678317667, -4.774104178593073, 1.9056110627053864, -4.415679837118417], [2.095541288586267, -1.1669167967952137, 2.262669359934601, -1.5608089937265819, 1.191433792380653, 1.2244547176771454, 2.3699932726429442, -2.8885240311878455, -5.737710899582336, 1.954374549664568, -0.45064736527158983, 3.281037498159833, -0.9786576897654256, -1.35918030774479, 0.3425553358828654, -0.4070861984179578], [-1.854850458882848, 0.09691527839938663, -0.8247393811452288, 0.22765162789389537, -0.7829691732950688, -0.0030901109060695875, -2.7312910211171917, -0.946670303198348, 1.5707661326105906, 0.1516182203992158, 0.2465067154686907, -3.913436935322139, -2.3306691969817304, 0.6148945571168162, 1.4617200845076004, 2.4456797798557797], [-1.0913677378088742, 1.7113192106528405, 0.5949956045847011, 0.757003351987072, -3.4864399129401327, -0.6889249812141488, -3.730283657680817, 2.13155667307484, -1.2104725271278287, -2.3153150865543894, -5.060392323617042, -0.8967634453792306, 1.1253903850522788, -2.2902001643985863, 0.3493734555440511, -0.47809195061940846], [-2.0742214773127188, 1.0427003552941865, 0.6598447599375903, -3.1627905295809864, -0.7364974050592172, 0.4771617577416661, 2.731955246011879, -0.6562317600389933, 0.15896900178936768, 0.8021602428042988, -4.026136590812206, 0.9684452268535476, -6.113371056864441, -0.4782908045914959, -1.1286439638899355, -6.59582911796076], [-3.375871076093873, 1.8685637838295985, 2.083238623656749, -0.5426338431538891, -0.022780837961263074, -1.278887488534928, 1.8309255086183172, 1.1061852592637487, -0.10284900995879465, -0.8791955776366012, 3.0123056015685896, 1.4903731374839868, 2.0978522852741577, -2.41647591079273, 2.6588453979825357, 2.8122831154916854], [-1.1434585020028938, -0.985091114074421, 6.651843093163082, -0.9916293101125819, 0.7377978133208839, -0.7814396506106367, 1.7039367815503446, 0.3190997951435244, -0.8334059121131296, 1.6777444557508427, 2.730779527430345, 2.2333178888396703, 0.46414222791635007, 1.9507626482351341, 0.627664826592206, -3.1754032072810476], [-1.5579410619585323, 0.6706562771296845, 0.7237006878789447, -3.3482217763224544, 1.7652679098066353, 0.05930164414080921, 1.166486305661652, 1.5205154502567715, 0.34064622709183134, 2.2716544490794623, -2.8744367553334587, 0.7779865020162761, -0.06982521524874286, -0.2854595452156948, -3.227249881306253, 3.020983958620764], [-0.3211694112009039, -0.740752945706078, 1.6600065615466737, -2.321215936248954, -1.397428670443659, -4.9244819051888316, 1.4095747916528814, 0.646231934739568, 0.6459227819229661, 0.880970639741986, 4.618296511131799, 0.18260079139166496, -1.0850049536431003, 1.478740513850868, -2.3968331978662714, 0.5609651867101731], [3.9099825943077393, -0.5168187456644593, -1.0178189017124781, -1.0812381439953438, -1.3338777554721304, -2.891408944052569, -1.1303134906606696, -1.0374822788235218, -0.34112198797594245, -2.126268495046155, -1.3097083568666186, -2.4616776037913852, -5.560900902016094, 1.291329353158924, -0.7057525882871014, 3.5378817253058825], [2.3063298918615276, 1.492977450032738, 0.5955722877671181, 1.3584263063858475, -0.0010540591993462023, 0.2845964170694293, -2.45374690906488, -3.630487548108034, 0.2243771751940189, -2.4082206783622997, 3.4164534868141887, 0.49558149823955083, 4.225394382447876, -2.0481663264571788, 2.5656597978951767, -0.2457625472555609], [5.68052157702269, 3.9351728255997407, 1.2913960631955583, 2.000640830693706, 1.333141687122766, -0.7667242953586137, 2.0297138850412653, -1.461279248844189, -1.7009081462313573, 0.3572520434742762, 0.679409344915352, 2.7816762340004066, -2.9113910738600204, -0.9331182369872701, -0.6451986469498237, 0.7339903940440944], [-3.271579481725952, 0.8098255271229373, 3.000029005443552, -1.18465139543728, 0.9793366212053507, -2.5731585190069874, -1.6631633536453378, 6.253546282559465, -0.8135568516433498, -0.5720220751975885, 3.9478230317314202, 4.486550219909604, -0.9243608070301104, 0.28383105531547004, 0.8107909967580857, 1.9346667807423312], [6.38907258880663, 2.733918455508996, -0.34235496593804615, 0.2767012320987696, 2.67577028035758, 2.8467092274841717, 2.4480598403230305, 2.617713053473448, -6.28101788645551, -6.008334421388646, -0.5224651098391219, 0.43285504715822865, 5.878497194471087, 1.0465455333307487, -3.9105920505711182, -0.2138281856341033], [0.1416477782403207, 2.095644952830245, 0.8769214700234645, 1.3407545092728799, 2.033393439258468, 3.0602482113741996, -1.0051852637667396, 0.027514213161855317, 2.0183679240412356, -0.6416405917166532, 2.2419707647612226, 1.9025038036095379, -1.0129526707407552, -0.47644991450899865, -0.9674612154796263, -0.18249474245584096], [1.4158982076508237, -4.094591850866783, 0.4972539258702671, 1.0820220629184345, -0.3039048614684916, 2.0973240528987556, 0.5968383568491484, 1.298994966187907, 0.6905887730199873, 0.5726514857594802, 0.7124851412867885, 0.49750368086918373, 0.12699305114213777, -0.7437024310419805, -0.5419930911020338, 2.9507764058456836], [1.8190891615174032, 1.613568253763702, 0.1197782335874602, 2.752770103618648, -4.231341374028034, 2.8490617759635493, 0.5901760374001177, 1.5916856027859987, 1.4602235780503547, 2.50217313610854, 0.8373856823021697, -2.0141363851158802, -0.9608375063671093, -3.8710911662751717, -0.9519524706990412, -0.5148747242848182], [0.10850557714124354, 1.6620244706566059, -2.131816942062898, -0.2977662790290079, 1.1798535317675927, 0.24783560221227663, 0.4086641573478528, -2.577496861918055, 1.9277843066662048, -0.7394770759474635, 0.0388255463562725, 0.9922776978695587, 1.935199049562678, 0.8560356819930777, 0.001822099973102842, -0.5782098927323049]], "bias": [[1.6655305928325688], [2.3038867119816437], [0.9014632210161875], [1.6682312326811035], [3.1836503708634325], [-1.6010437993566988], [1.99417597694947], [0.7359205417850256], [-1.3889172035633595], [-9.99004032955629], [0.1390343216160831], [0.44855405646375834], [-0.6898810723864146], [0.984744551437886], [-1.0137323276552026], [-1.1966706350928387], [1.2560483606205828], [-2.137179408077561], [-1.2040465469767747], [0.5678599414676582], [-0.5088116214089166], [-3.3374293397639665], [0.5497343026307948], [0.7809492857634632]]}, {"layer": "activation", "activation": "tanh", "activation_prime": "tanh_prime"}, {"layer": "dense", "input_size": 24, "output_size": 4, "weights": [[0.14660584564656332, 0.30959455066511027, -0.1433227967719155, 0.02393715381757816, 3.0661336131524184, 0.8596655623658687, 2.7350204478394144, -2.06781366231687, 0.45734817871457695, 0.8813180521617533, -0.033773640037134456, 0.48581845806915713, -1.1013292235905983, -2.455007951956217, 1.2113294811220185, -2.394643556182447, 1.7114160055863668, -1.1369715175778266, 0.79643902651485, 0.9085338997368948, -1.2691863646335892, -0.30110102405411654, 1.2835302593247486, 2.7945551926910737], [2.4956996709877886, 2.463731034403863, -0.67070326572381, -3.503745881861598, 1.864090442202861, 1.4352966488852643, 3.2231504392892747, -0.08335889405571484, -3.231803080145887, -0.7468588883422785, -0.07032738189302656, -6.0776158421038895, -0.6201572095480519, 1.270225901216938, 1.6273834528959288, 4.381719761059077, 1.7458887672139556, 1.2158186212150355, 1.929045579814464, 2.6463792354055444, -1.229137414545352, -0.9400656375273916, 0.4580577344684553, -0.03145566046502603], [0.39602987111843546, 0.8850429622885772, -0.22531346822665665, 2.6683013253094496, 2.867497268167436, -0.7933278723540678, 3.547584629116342, 1.9020052009278077, 1.2893515715695607, 1.148236353975098, 5.932958817460136, -0.22239832467583914, 1.7565800033897423, 0.3672279870691166, -1.0047274197061553, -0.007662678199334125, 0.18293522529047268, -2.2019343185890534, -0.02168581654916138, 0.21736146976794532, 0.06456695532456291, -0.5014022701156089, 0.7291128397766276, 2.36660693649082], [0.7776400974778431, -1.3599631151248768, -1.590832692592701, -1.683867927839918, 0.7435693748355658, 2.3628681767113324, 0.390989175812034, -0.40345088911616694, 0.38875901619901115, -0.0897981755624549, 1.1585368715666577, 0.7146319157510658, -0.37408705963140265, 1.9864346723920305, 2.0807009515672714, -2.31241381253985, -0.9461453827080055, -0.7524164405726255, -0.5071896352877179, -1.145604044979296, -1.713764358567686, 0.4991130137927835, 0.9921538451058223, -1.491146042326237]], "bias": [[-1.0687779193671085], [-3.2753497650142807], [2.2042416428696905], [2.6038235429698413]]}, {"layer": "activation", "activation": "sigmoid", "activation_prime": "sigmoid_prime"}]}