{"generation": 99, "fitness": 17180644051.326298, "network": [{"layer": "dense", "input_size": 16, "output_size": 24, "weights": [[3.0620580456385618, 2.0345773403676572, -1.4453525152758728, 3.0280391426171755, 0.31005301321617185, -2.2116102357818623, -1.1609073273041837, -1.1246114401181684, -1.97490932793199, 3.3604322011093175, 0.27561776794463033, 3.5828366037638193, -0.02874335108314563, 4.155697609292611, -2.474537273219477, 3.9617736088599482], [0.15293480313060281, -2.8542709892001703, 1.3108469192953935, -0.32400264625257735, 2.1224388280640603, 4.6751849418391505, -1.2075820475404764, -3.8002913957887667, -5.601889533605915, 0.8605701271785663, -4.527250252288969, 1.2310110366225326, -0.026712179644495126, 1.3973086498684588, -2.961229517860419, 4.292004285388909], [1.5039948506993284, 0.053359160474347134, -0.7362252893789392, -2.157379371251766, -0.9850112175965373, 3.0690343008098426, -0.264926373926503, 1.7557274098836209, 4.543200231142249, -1.0421292605078099, 5.162680863412774, 2.0230437794164304, -3.666161148099957, 1.8626815688188345, 4.751167020968085, -2.690044407775565], [1.3542788492780624, 0.4812292959012405, 2.495102241726491, -2.1222309738945, 0.46664465932889676, -4.525420451791247, 0.18332394291115628, 1.7834631882485248, 1.7482953308190763, -0.3635902081873992, 2.16139387335947, -0.1811060012440524, -3.6851039923120075, -0.2262590763281631, -3.2888538858146945, -1.2516031484287458], [-2.120541155936723, 2.599311850287603, 2.6574771570372313, 2.51113106110824, 1.9780182694936874, -0.20265208721724737, 2.5876269932755864, -0.14042658947973297, -1.2143004549031575, -1.9737425428733881, 1.1234470720920937, -0.054141581876172795, -1.217628494060652, -0.04411276017591692, 0.9391822373245129, -1.5926732820773561], [-0.9257532271761479, 2.4108252809889885, 0.2729367196047142, 0.9810570653945677, 0.2519708944135499, -2.880361518146557, 0.4664096734908221, -3.841982125653348, -1.1931560011805467, 3.426998883284112, -2.879469269637389, 1.6676400225037922, -0.6258366998014229, 1.5531296855765486, -0.19198421883717162, 0.855577884432819], [1.255823073957748, -0.21370957613530295, 0.63792717110878, 0.7920850189272365, 1.3105159822013452, -1.5546166463441553, -1.7734635687274132, -3.7601331126608404, -0.23655327396936665, -4.566100672642801, 4.050777499533708, 1.4809597936660583, -0.43863478874079465, -4.774104178593073, 1.9056110627053864, -4.415679837118417], [2.095541288586267, -1.1669167967952137, 2.837543768140199, -2.2305383588487855, 1.191433792380653, 1.2244547176771454, 2.3699932726429442, -2.5628829647583777, -5.737710899582336, 1.954374549664568, -0.45064736527158983, 3.281037498159833, -0.695719981478601, -1.1881996503726486, 0.3425553358828654, 0.91597433863029], [-2.8700156806437267, 0.09691527839938663, -1.4409227108686355, 0.22765162789389537, -0.7274177499256764, -0.5256882844600742, -2.7312910211171917, -0.1982145621852317, -0.3075263636962706, 0.1516182203992158, 0.2465067154686907, -3.913436935322139, -1.9515334583084079, 0.5772686327860502, -0.0014033569120202039, 1.8136619217189396], [0.10540626138335663, 2.585632550474996, 0.5949956045847011, 1.6434831672927084, -3.682263072836281, -0.6889249812141488, -2.804168913698452, 2.13155667307484, -1.2104725271278287, -2.3153150865543894, -4.378602439208721, -0.8967634453792306, 1.67049214997397, -2.6770091509322937, -0.903635686874539, -2.4662377967427735], [-2.0742214773127188, 1.0427003552941865, 1.0026060747826737, -4.205597826526267, -0.9605916439055395, 0.18133425017340615, 3.2025287611224655, -1.1969915138668612, 0.10993147448900378, 0.8021602428042988, -4.026136590812206, 0.9684452268535476, -6.113371056864441, -0.4782908045914959, -1.1286439638899355, -5.572863228707536], [-1.1707801925958248, 1.8685637838295985, 2.9473743758966746, -0.1961401760393242, -0.504606160636539, -1.472151563174721, 1.6090903144310666, 1.1061852592637487, -0.10284900995879465, -0.8791955776366012, 3.0123056015685896, 1.4903731374839868, 2.0978522852741577, -2.41647591079273, 2.6588453979825357, 2.8122831154916854], [-1.5869610679140334, -0.985091114074421, 6.651843093163082, -0.9916293101125819, 0.7377978133208839, -1.1521140351349968, -1.4864474169557589, 0.3190997951435244, -0.8334059121131296, 1.6777444557508427, 1.9745902243944051, 2.5405288084403224, 0.46414222791635007, 1.9507626482351341, -1.4339448496169824, -3.1754032072810476], [-1.439535096153942, 1.8652139417928901, 0.7237006878789447, -3.3482217763224544, 1.3874786457361792, -0.18477599557034732, 1.166486305661652, 1.5205154502567715, 0.48288905733903764, 2.2716544490794623, -5.919262343822885, 0.35253897341725493, -0.06982521524874286, -1.4780649123798781, -3.4812016960383945, 3.020983958620764], [-0.3211694112009039, 1.6542009567709246, 1.1140331631999583, -0.3342674009098623, -1.3675520051232535, -4.9244819051888316, 0.7695429403180117, 0.646231934739568, -0.9906911427446606, 0.880970639741986, 4.618296511131799, 0.18260079139166496, -1.0850049536431003, 0.5527221492452943, -3.935661349139845, -0.23709032902979643], [4.931290642414298, -0.5168187456644593, -1.0178189017124781, -0.09385063802446747, -1.3338777554721304, -2.891408944052569, -1.1303134906606696, -1.0374822788235218, -0.6909369154616378, -1.818527494721076, -1.3097083568666186, -2.4616776037913852, -6.402770866358288, 1.291329353158924, -0.7057525882871014, 2.9794308632631408], [2.3063298918615276, 2.709844462878813, 0.5955722877671181, 1.3584263063858475, -0.0010540591993462023, 0.2845964170694293, -2.45374690906488, -2.533359405299344, 0.2243771751940189, -3.5453320502385828, 2.6444851044196787, 0.49558149823955083, 3.1532424864212962, -1.6720960640986413, 2.5656597978951767, -0.2457625472555609], [6.313274202672441, 3.9351728255997407, 1.2913960631955583, 2.000640830693706, 1.333141687122766, -0.7667242953586137, 2.0297138850412653, -1.461279248844189, -2.036448895209613, 0.29581645190969263, 1.4692514244245278, 2.7816762340004066, -2.9113910738600204, -0.9331182369872701, -1.2192427836345137, 0.7339903940440944], [-3.271579481725952, -1.5055697210638908, 3.000029005443552, -1.18465139543728, 0.9793366212053507, -1.385573532916182, -1.397659827901633, 6.247781275882957, 0.2731690829262925, -0.9147450199667491, 1.7573890481058951, 4.195148797857973, -0.16928360228717487, -0.4681358302952622, 0.8107909967580857, 1.9346667807423312], [6.38907258880663, 2.733918455508996, -1.4504083870272868, 0.2767012320987696, 2.5999541741450454, 1.658159999459872, 2.500770616616599, 4.357449889068805, -4.3371360005470105, -6.567296499581273, 0.05249028257300603, 0.43285504715822865, 5.878497194471087, 1.0465455333307487, -3.9105920505711182, -0.4512883754182667], [0.1416477782403207, 2.095644952830245, 0.3381925437731549, 1.4509999982678767, 2.033393439258468, 0.4835049894317973, -1.0051852637667396, 0.46701011801414893, 2.0183679240412356, -0.6416405917166532, 2.2419707647612226, 1.9025038036095379, -0.254967137160083, -0.47644991450899865, -0.9674612154796263, -0.18249474245584096], [1.4158982076508237, -4.094591850866783, 3.9485040314968947, 1.0820220629184345, -0.3039048614684916, 2.0973240528987556, 1.054874092067345, 1.0095750558199215, -0.001033595889789074, 0.5726514857594802, 0.7124851412867885, -0.23414931702676178, -1.5295634840939132, -0.7437024310419805, -1.2673434295721575, 2.9507764058456836], [1.8190891615174032, 1.1507830193353432, 2.0967924926689827, 2.752770103618648, -4.231341374028034, 1.8569403247823835, 1.29995274797191, 1.5916856027859987, 1.963452217368596, 2.8188551921996736, 0.8373856823021697, -2.89083931435573, 0.7823457491173424, -1.54535737978222, -1.706381451888814, -0.5148747242848182], [0.10850557714124354, 1.6620244706566059, -2.131816942062898, 1.5401076058139347, 0.7588691140605996, 0.24783560221227663, 0.4086641573478528, -6.043489471203353, 1.4092008767527822, -2.504146844465869, -0.4356300709537445, 0.9922776978695587, 1.935199049562678, 0.8560356819930777, 0.001822099973102842, -0.5782098927323049]], "bias": [[0.007617851008028476], [0.12125579494720906], [1.2400458373942467], [1.6682312326811035], [1.6895694270400796], [-1.6010437993566988], [1.99417597694947], [0.7359205417850256], [-1.3889172035633595], [-11.96461737033167], [0.1390343216160831], [1.460380052805696], [1.1993989259474396], [0.984744551437886], [-1.0137323276552026], [-1.1966706350928387], [1.2560483606205828], [-2.137179408077561], [0.5807349591151165], [1.3541544222988209], [-0.5088116214089166], [-4.19376183094038], [0.7379951905905443], [-0.6312835665196896]]}, {"layer": "activation", "activation": "tanh", "activation_prime": "tanh_prime"}, {"layer": "dense", "input_size": 24, "output_size": 4, "weights": [[0.14660584564656332, 0.30959455066511027, -0.1433227967719155, -0.15655309244592877, 3.0661336131524184, 0.8596655623658687, 2.0704746503263682, -2.6021228888929393, 0.45734817871457695, -2.1099326545971295, -0.033773640037134456, 0.48581845806915713, -0.06747543401053946, -3.1073209320727715, 2.018599228848934, -2.6194541186121487, 1.7114160055863668, -2.220751181950487, 0.79643902651485, 0.37468794079389856, -1.2691863646335892, -0.30110102405411654, 1.2835302593247486, 2.7945551926910737], [2.585371410457813, 2.463731034403863, -0.67070326572381, -3.3373679372181924, 1.864090442202861, 1.4352966488852643, 3.2231504392892747, -2.3082955122383986, -2.0118118535748875, -1.3225448896282224, -1.4537076694566045, -7.406437396431082, -0.6201572095480519, 1.078943700131027, 0.44522863836948523, 4.381719761059077, 1.7458887672139556, 3.2241308963461233, 1.929045579814464, 1.6636033492168338, -1.375970128478196, -0.8532129361630024, 3.3853490466400196, -0.03145566046502603], [0.9806627671772178, 1.6465373627223712, -0.22531346822665665, 2.6683013253094496, 2.867497268167436, -0.7933278723540678, 3.547584629116342, 2.1878370865650134, 3.4154920372135953, 0.5576517501067003, 5.932958817460136, 0.9196114622101894, 1.7565800033897423, 0.4918422187741037, -0.9586384424080098, -0.007662678199334125, -0.13923516802771163, -2.2019343185890534, 0.3906984426468182, 0.21736146976794532, 0.06456695532456291, -0.5014022701156089, 0.7291128397766276, 2.36660693649082], [1.3564846163589768, -1.0852220913486819, -1.590832692592701, -1.683867927839918, 0.8220241806198298, 3.192518139372462, 0.390989175812034, -2.0229654354713067, 0.38875901619901115, -1.3894477714037077, 1.1585368715666577, 0.7146319157510658, -0.6037430389774018, 1.9864346723920305, 1.5182503932605376, -2.31241381253985, -0.9461453827080055, -0.7524164405726255, -0.5071896352877179, -1.4124526087719875, -1.713764358567686, 0.4991130137927835, 1.2201242446647786, -1.491146042326237]], "bias": [[-1.0687779193671085], [-3.2753497650142807], [3.0715679533265368], [2.6038235429698413]]}, {"layer": "activation", "activation": "sigmoid", "activation_prime": "sigmoid_prime"}]}