{"generation": 346, "board_size": 10, "snake_size": 3, "input_direction_count": 4, "apple_return_type": "distance", "segment_return_type": "distance", "distance_function": "chebyshev_distance", "network": [{"layer": "dense", "input_size": 16, "output_size": 24, "weights": [[-0.3365057989431667, 6.536066418196137, -0.75366841345463, 4.610590756298523, 0.20678693903597778, -9.055966504225243, -2.47589513415136, 3.083477923772649, -4.724397532655437, -3.66153597443692, 0.8280955648648615, -10.056132996544957, 2.410159938679862, -2.0835668289388853, -3.2921109602534417, 2.265425125457301], [-8.387327455246131, 4.460630134972684, -3.9779595016264997, -3.115847869579985, 1.3262796814457305, 0.7005473604271368, -2.895387309431331, -1.944809694510043, -5.213933278655565, -0.12589428518351187, -0.7412553475088983, -0.5616020952016458, 0.4571177433157074, -7.960239363098064, 1.3378165746387307, 6.995015466809017], [-0.44687888361241357, -0.24960500001024927, 1.063173733572729, -0.6722603430282723, 4.418275865539422, -1.897550082031172, 1.557009104216338, -2.783615497411423, -5.516390373367589, 1.6543747583255188, -0.39264108247697127, 2.9771748825565156, -6.217169836699225, -2.6982273436556916, -2.114354709824266, -1.7460854483237287], [-1.727136492196129, -7.939537908157064, -3.2589687450567233, -3.960595712487496, -3.013655040683146, -2.485382457304104, 3.7897540091509074, -0.8514172841612844, 3.9945263297319746, 0.7258455509877674, 4.313235430826601, -9.917690271607551, -0.00789611021001263, -0.5646252388940436, 1.9370600670814992, -3.1665586062785924], [-1.9263890638626955, -1.4420011535204158, 2.278987420689433, -0.6839680815681266, -3.5780354592164936, 0.6739155516895854, 9.661565704479294, -3.6833343995002985, -6.849343011260634, -3.5000884221432016, 2.0461177011388254, 2.0079389586947443, -6.836499153166298, -11.528745705722427, -2.5553611736939406, -6.655297778014472], [2.453883702339634, -3.9912900271264142, 1.611400100671862, 0.21170253734360833, 0.7625294728145361, -2.5319728721810533, -0.7382618406391392, 8.248496499873157, -3.2667009135953666, -0.19964567010711431, 0.4753972268186535, 4.137263071281281, 0.0019150973041993091, -1.577627525927646, 4.275258539901038, -0.29875783429455116], [-3.8757554319646625, 3.1806974200712497, 1.1209709463019983, 7.012259518922168, -3.043345274139994, -0.1384612580262572, -1.8513374088732237, -1.899675198035673, -1.1065063561589648, -4.496949657646275, 4.484558200673649, -6.128528670214589, -4.195343968622815, 1.6086890030637713, -0.8036213917060993, -0.05280475688613373], [5.206723102414812, -0.33569770967229734, 2.806348304631246, -3.875847835006752, -2.299412600214733, -3.9169778183397748, 14.585413610653942, -1.5135312911708645, 0.05971868725999809, 0.28059213416059176, 5.011562881680885, 0.22158369412425072, 1.2445566306105451, -1.3032388548858411, -2.002287712061375, -6.708409405682242], [2.2539401561745924, 8.085289713479948, 1.1585241025480264, -4.722026275692123, 5.000885644286255, -0.26669530622493004, 4.1498369409710945, -0.5298254559502122, 5.2048252732540465, -3.702933538925856, 1.6842845066938668, 0.934430085619079, -5.082091352406189, 0.9399849378807245, -2.078614262601736, 0.6743916122785816], [-1.2374045900353892, 1.9013565314235472, 3.707730876162798, -4.940377804383418, -5.304426734487814, 2.8025552123773028, -0.04746922223790917, -3.3129203332063457, -0.1593036102389416, 3.9522811622447866, -1.92279336848091, 1.4621696095118657, -4.6832511542323285, -0.5446937022886833, -3.1764676106720646, 3.0324698318717043], [-3.916669764391129, -7.079213849893165, -0.44457194473821127, -2.38970407384775, 1.3892755181228316, -11.93174459605885, 4.308942461522233, -1.8063865664015988, -8.491683687529669, -5.780162538288639, -4.7316337874039185, -0.15917644662808916, 3.5073313873439016, -3.8625172628741438, -1.6010040733754234, 4.189595435035963], [-4.368063479270324, -1.9489711397882363, -2.114276619235436, 2.1492546502607546, 4.2821262688493205, -0.31740066877557116, 1.8322047298454427, 3.1826601967975767, 3.68943521209407, -2.191308564226733, -6.018078775967879, 0.962500228375945, 0.04843809698913604, 0.9499271473762125, -4.7866560249066135, -3.100191556766665], [-1.6759158073138094, -4.108192599710339, 4.574416131667014, -0.8930988164349389, 1.0502132443534518, -0.7978491642012506, -4.503695190921749, 0.2865485647867725, -4.766558409348808, -1.6009846730243333, 0.5475414801672811, -5.759340341307787, -1.7991005740429358, -1.931783028935139, 3.7037689222010037, -1.774871337263501], [4.8757245847645025, -2.6026919132657964, -1.5088285242870232, -3.929981205725169, -1.0273660600219106, -0.1134190801713868, 3.6002201085926666, -7.437326630994134, 0.37286138542887015, 0.5656873742172821, 3.4993259251439177, -4.839699721373199, -2.852799160371121, 5.670629338637209, 0.07856564787502307, -2.42296341225908], [3.4555805007516023, 0.9544458195313639, -0.7191447896336558, -0.07152716145431781, -1.4359034848981076, 1.990428440620075, -1.6397825735620168, -5.002994015581227, 4.506554158878508, -5.106067442865855, 6.251731060189072, 4.126047075408396, -0.5589721611934841, -3.589476691488472, -3.6635910151900952, -2.222108286736668], [-4.7771531520103, -4.425861186039653, 0.9006027504869417, -5.5828376328789515, -0.4582763370204077, -4.307942980197655, -2.314592966123651, -2.51901419860122, 5.42106838756603, 0.651047418842952, -0.0993862191790914, 2.769163051895851, -0.9049002951898815, 0.6644937011655516, -5.029834969227605, -0.5123722737222889], [-1.562814168423286, 0.6316098824868899, 1.848864392142929, 0.3832993049232558, -5.049191156266874, -5.542094386246877, -1.92264391035387, 0.8431602974616983, -7.0799296460077725, 3.0051591021319597, 1.6519707701522288, 1.8305937723932644, 4.836479556927033, 4.7099934761342075, 3.739805336663516, 0.5895194184525483], [-0.20214197601449824, 1.4227504791496624, 0.341514291918906, 2.4082000234571668, -4.23680695267744, -3.5042129015622914, -9.91866205882388, -1.3766571231299318, 9.199313133134327, -1.7099035891923855, 0.8331011476973105, -2.440381087252155, 3.6007477719224275, -1.5500599693178243, 1.5844625926021496, -0.49798748788903735], [-0.2415048611282179, 6.939712946240287, 0.6198754324992939, 0.5303350517658826, -2.7343036503777087, -3.2338438786029347, 5.14023869772272, 0.9255193253538343, -0.811663841408467, 1.3776887856493927, -5.320558480105497, 1.2467417777393353, 3.253690341273388, -6.044907793894236, 0.3983435356065792, -2.644240639013712], [-1.3424211603559275, 0.2763398600791309, -1.964317640399163, -6.487740015134428, -3.239805341826888, -4.184529076025382, -0.32602801661105185, 3.9177001176663597, 1.0069261590355705, 4.4682818310942185, 0.9309827104150756, 1.6928352586361277, 4.310019837781148, -4.203926205426821, -4.209756768672077, 0.46567564591511135], [-0.9368941588701833, 5.328787241672379, -2.410153778523546, 0.6837397376022105, 1.4015107789073091, -1.8876172804129785, 2.94370017457456, -3.5372653142197334, -1.0793898142213554, 11.163192618417316, -2.9067789255634584, 4.121279424296942, -4.2112593959799725, -0.5517763741841402, 1.3771465500744549, 0.259001001189702], [8.056003856961425, 2.240550018769353, 4.491787461734722, 2.989719098638922, 0.48924600193033885, 4.618151919375027, -0.7555733246517976, 4.543573521700157, 0.19872001326629452, -3.7948541266748474, 1.7072740415823369, 2.721759513874984, -0.4510021780686455, -1.442829120353357, -1.6102126046379919, 0.7566797643635828], [-1.1558001668811293, 6.0990342811101375, 0.34793304113194656, 4.330857724198938, -1.8496795993797037, -4.883842505993281, 9.968884006641842, 1.9827135103091127, 0.17604948522100972, -4.964117737525748, -2.312689948685396, -7.323188414483047, -3.8907255068607416, -1.5813072286911412, -3.606819691047984, 0.9164734946134623], [-5.212730090177835, -2.81814067211915, -4.926476989385556, 6.16898082074291, -4.16822207722534, 0.4889102639323955, -2.0828607313350522, -1.621005801193694, -1.6076144468890494, -4.078845689125382, -0.9943930616708512, -0.4725896366546275, -5.453160882645547, 0.5904551174400043, -0.42547022139428825, -3.863419541216168]], "bias": [[0.9576370427704409], [-0.23690723473560982], [-4.614509363576095], [-3.4818181716664136], [0.8670619869432381], [2.4446837197198468], [0.2811567748446092], [3.481709925059828], [0.9343827540309277], [-0.04798448957363871], [1.7849701329927086], [-4.43751322083951], [-0.3444771570329528], [1.6939782744451062], [3.371335997470852], [-0.33868953556419823], [-4.406394681113839], [-5.399406890837042], [-6.469973702136325], [5.356546651135901], [-0.5312480659305296], [0.43911511943053716], [-0.17658413786059607], [-1.4778561291349657]]}, {"layer": "activation", "activation": "relu", "activation_prime": "relu"}, {"layer": "dense", "input_size": 24, "output_size": 4, "weights": [[-6.186938778573711, -0.09881435153731388, -0.9097243897148123, 5.568792530393917, -1.3940278157335442, -2.156872851946823, -1.8477544725934365, 1.1480624890964577, -1.218063907938353, 2.3993528495204646, 7.945480307525642, -3.0225310512799943, 0.9269421807235679, -4.234118765581463, 3.106547439833915, -3.202251904465247, -3.416287386933938, 7.533236243873374, 3.3665496214452957, -4.5514362168281535, 3.582195597548969, -1.4125119340565013, -3.121368624137214, -2.7864864699264764], [-5.1487811525110265, 7.117497166084048, 2.2662806544644747, -1.8580122749574262, -1.8391730006887492, -1.0834433629456173, -3.3900271356584075, 3.9739225033575507, 2.255389894401284, 4.210221247655635, 7.217128484413965, -2.0903750640739904, 3.069945143234116, -0.4098651487381977, 0.7202295656733283, 1.416146435106662, -5.91782106617944, -0.693919645854652, 0.3275137264225081, -6.960074393205242, -0.3843357708895012, -7.028047151238138, -1.7086360858257912, -4.05146989128359], [0.1808232309556789, 1.4611030692758722, 1.1458145538419027, -8.165010028860177, -8.21185998087133, 5.962082883061135, -3.230792007376639, -2.2240865843535884, -1.6490255447677575, -1.8342814284020381, 1.222120096867246, -0.6871394765998071, 2.782220901871275, 2.8086635906035977, -2.692664913716296, 0.8963751133105331, 3.3565152517520422, -2.689344848364574, -3.875264889723458, 2.344395083098655, -3.1568726649347183, 3.5441068043576944, -5.1090102630867555, -4.061824194449052], [0.7810966821390102, 0.24112342263169217, 5.024691643455704, -0.7956752096234269, 1.270152873852784, -3.4640547391955248, 3.429580747949443, -0.7667175547642626, 0.2706907803748316, 1.2889295605799607, -6.153141882670471, 5.725387071141, 0.758751188686163, -3.3528449784143652, 2.237792141520377, 1.6588280825619695, 2.1271656198657376, -1.598150628092165, -4.895419911381073, 1.300719828379544, -4.707074822546227, 2.7423098227582434, 3.254848582001179, 4.1142322282345605]], "bias": [[1.7674900945582246], [-1.0549540406624531], [-0.13871493173947552], [0.1945951016926375]]}, {"layer": "activation", "activation": "sigmoid", "activation_prime": "sigmoid"}]}