{"generation": 371, "fitness": 1.5845632502852868e+29, "board_size": 10, "snake_size": 3, "input_direction_count": 4, "vision_return_type": "boolean", "network": [{"layer": "dense", "input_size": 16, "output_size": 24, "weights": [[-1.5552562990315608, 2.3875878548596474, -2.2918451011881307, -2.0955753244707487, -4.272451860075007, 1.9081827239832383, 1.8937750894742855, 0.8051707519289746, 2.0825997656815747, 1.2027010764789328, -1.6828106075191869, 2.6100724747796598, 0.6769127953577587, -0.8675214679938548, -0.5117165285082292, 3.0464858079276063], [-2.8172767946087123, -1.7759505803419215, -0.834855123752668, -0.15822064028209448, 0.20627684604369145, -0.07225659042347754, 4.0850550292231995, -3.088451839522133, -2.0156398291308193, -3.0564336531738014, -3.324468345793001, -0.19931243078540928, -2.8350278493314534, -3.7059921963315645, 2.1878217041618195, -1.7206784047790893], [-1.2284263622491718, -0.7467725222846215, -4.327045887525833, 1.0286882454044242, 2.4182036083024103, 1.456356763056935, -1.4605247261494003, -1.0900179800354706, -2.231867065580264, -1.3356352603279102, 3.539842771914943, -1.8131980332549809, -0.07665826945175225, 3.094345403658159, 8.234088934475274, 3.0678460249096884], [2.7452890735582085, -1.7421780636130006, -0.20964913912491956, -1.9811536609404459, -0.7295206487004653, -1.1270268384279238, 3.0098336574681084, -6.217967420706721, 2.093370648611851, -1.917242878246129, -1.9903755100493101, -1.5531231197992765, 5.635524730618481, -2.875274549864856, 0.5052950781045114, -2.6569260298788655], [-5.065583025341391, -0.5464764047190351, -5.830582840628652, 0.6466538887388273, -0.10500030640972147, -1.7553926519564738, 3.124703188156921, -1.8321003677692544, -0.1773370322408051, 3.3095275674356612, 4.459540925024626, -4.621569178920576, 4.304339441352106, 4.073589893304188, -1.1436617840521512, -1.1513504846532752], [0.2068130353897688, -0.19467376364666328, -0.46962849504601056, -2.314035127342601, 0.941643092993651, 2.0760363860226843, -2.2946209125378596, -2.091680270646526, -3.126015044839678, -2.943134008004196, -0.13976190956304024, -1.2647249089362684, 0.07052172018947594, -1.5971051494691921, 1.851046712826002, 2.6215336859968543], [1.116744910686901, -3.664296594391339, -1.967678645730838, 1.2752834668203437, -6.49661272071291, -2.432591614302084, 0.16484664966463947, -3.2401799751884237, 1.7724397576450408, 2.935436491170183, -0.44810207545399194, -0.6018658296438466, 1.3647308247314167, -3.2557549707316396, -0.7856762823913053, -0.7506939576363985], [-0.992084647886065, -1.5544103091165191, 0.0733765247851288, -3.057432241791898, 1.7899854717472938, 0.6489101885189492, -3.457403841538594, -1.5974000887538424, -0.7726066554351905, -0.49411408527582346, -2.7714782744851867, 4.39424792271322, -3.1690125987210944, -0.3886000777393551, 2.017094634801886, -4.88571633627121], [2.2018145067199706, -1.8644038813871353, -2.471953986315677, -1.0398938535164715, 1.380716920151128, 1.82837735261941, 1.2961485470817533, -2.7709083354936173, -5.148527015820464, 3.9867141704838196, -3.4894100128282997, 0.32863461998605215, 1.0372445318051342, -5.253662393982664, 3.913560627816157, -0.4782801140525101], [0.2864217429684879, 4.05124432737984, -3.2037767578046283, 2.1316521252438196, 1.688228604672386, 2.3364287789529476, -1.5120564563657997, 1.9310171712196216, -2.7913533333788916, -1.0792352652347827, 5.775356921035103, -1.92929326759248, -5.6508070000915955, -3.882207353689139, -1.206338054688605, 0.46237898947890665], [-0.051442592472881576, -0.7643478162005809, -1.6108308027736133, -4.386934161194875, 2.0630973539046, -3.4766467064594946, 3.4676678959273097, -0.9561308034197153, 2.3511088522447823, -1.53188830827574, 0.059254452938182434, 2.115101425005073, -0.5309544115937636, 1.9753269891316303, 3.4562142449595243, 5.861457193565452], [-1.9280630254927131, 0.9767145805016952, 0.6860148801561746, 3.489444926956649, 1.780153420439921, 2.0465187365429625, 2.757926804813386, 0.08886618252562596, -0.27439867561589876, -3.1033337682071425, -2.770078715713038, 0.07306261983614193, 0.35391331139636684, -0.5309856803538597, -1.00501500474549, 0.9242763296519159], [-2.810316214958052, 2.333027323591071, -5.970504178037762, -0.8520501756637362, 0.87122581763921, -0.8314277874749083, -5.298420157711076, 1.6522861507988564, 0.3571009313408461, -0.5966028268964569, 4.235685089008897, -3.734254942397157, -2.4595816073509584, -1.323834799342368, 4.434896141678758, -0.06395520275047306], [-1.6482840938159993, -2.367663035013856, 0.06204472951808748, -2.453493722885263, -1.5347905288008172, 2.623696356410825, -0.693209082158696, -2.767003580444234, 2.786500203994791, -0.9072535296651922, -4.828677650950636, 1.4629623856805178, -2.981431466331415, 0.11773102820736425, -1.1885975347929238, 3.8159575694478924], [0.6268062410578122, 1.9019662845424234, 2.7119858706823887, -4.81493810248146, 3.3260365548776925, -3.5287811224493977, -1.0301186541545668, 0.510810229230412, 0.6336973424148311, -0.8947699989486374, 2.9528122187509074, -4.201151584112852, -1.699760336653058, 0.4477401083627958, -1.9631104438241853, -1.8695934885581682], [-3.55015786001904, -0.7452904119428818, -0.8478751489855642, 1.4172677719818687, -3.1117245634726003, -7.308827863121812, 1.5490925735046701, 3.621136232969019, -6.919964471850213, -3.515187461644372, 0.5265850739653342, -5.604168386384602, 1.129468050509372, -0.33694493107488, -2.1312715649128364, 0.7817126673600026], [-4.011705376126935, 0.2568716722362785, -0.47807735319288236, 3.183099719614249, -2.779656439404842, -1.4153473869541708, -0.6506680172129811, 0.6704765857721128, -0.6219443715543747, 0.6005024368025642, 0.9098715042178966, -0.18136731849807708, 5.874914464024551, -1.7781681241944984, -1.4381880373177711, 0.9540510748464611], [3.999039948724521, 1.6614164452914904, -1.7595232344431861, -5.0580739272265225, -0.6352657653202403, 3.4476080685735697, -0.5156303152783186, 2.1871652482606514, -4.751673490873003, -4.029406457917051, 3.0434751364160455, 2.300930350044376, 1.5746793879201395, -3.8891831336668075, -3.1803106333010245, -0.28500424519450124], [-1.5800984659577033, 4.478321686849542, -3.095919015438422, -2.4238940397271835, 1.1070468295263975, -0.8865159249376137, 2.128708036063987, 3.170080503899253, 1.676690632555125, 2.409271600670329, -3.7654274190612, -1.1839383510268997, 1.9221953068180975, -5.785710731665473, 2.8521248609897323, 5.5253872650632525], [-0.9996825546830271, 6.0660644403728305, 2.960913577314758, 4.7556957105579, -1.0508393481724405, -1.8426370920838075, 1.778986930996212, -0.6211569658560308, -0.6964392408103977, 3.295694361974341, -5.416378128037516, 0.04391605627900985, -0.950631834841804, -1.398188570566095, -2.7469865057435188, -0.055624388529340596], [2.935567794932642, 1.5976873286375386, 0.645697712855227, -0.30345421197584477, -0.7374866158003996, 0.21616972171477905, -3.0712744094657407, 0.6545539365431635, -5.9588276737189005, 1.3247278990340197, 1.794242956813358, -0.04423796022783133, -1.053873636827368, 1.7964209167066894, 0.8226230899014328, -6.707049305262101], [-0.9115527124171103, 3.1751634337101593, -1.307823280970033, -0.43371237801183, 4.340484817385642, -2.315903612976036, -2.5651563973477765, -2.903836763172075, -2.5981034904496307, -0.2779314244839548, 2.9281230448409907, -1.5417828262384705, -3.3169892289348812, -1.6716448784080258, 1.4720943074692208, -7.5333760852082445], [-1.6359339970407625, -1.0710477280620827, 1.5221614009173214, 0.059751011975234025, 2.5908736686270535, -1.9030889393933486, 2.075492288682263, -0.3530765160403706, -0.0835934583628758, 4.403666211046542, -1.8476307434151518, 2.1106480685524462, -0.8120407462551202, 2.7256229693323664, -4.317255713009917, -4.549509747157752], [0.07513278335173607, -5.648006045501985, -1.4997977793174022, -2.4380052347987773, 2.4488589413791173, -0.4764805049787645, -0.5563907306192847, -0.6313130341420587, -1.8834166565584678, -0.9338558177552291, -2.117579578144406, -3.172719468738552, -3.804428507702358, -5.028357921372304, -2.1750568978953053, -2.6020296618750813]], "bias": [[-0.892114779652416], [-3.612185577336767], [-0.4266195413959316], [2.393524200278409], [0.8758090688718332], [-1.0964254534549704], [-4.230283322084194], [-1.4087890511463181], [1.1225499803192056], [0.4470599572819738], [-2.18314437030477], [-0.33399838831452777], [-0.6753295325810122], [-3.5094744571865344], [2.1728957457947757], [3.1467985704147456], [-1.3082355013048108], [2.8748148265933047], [-3.1984807925075476], [1.4458383702935547], [-2.7887012786096737], [0.40075881322607776], [-0.8297522611750757], [-4.399677985819175]]}, {"layer": "activation", "activation": "relu", "activation_prime": "relu"}, {"layer": "dense", "input_size": 24, "output_size": 4, "weights": [[1.1620712525842651, -0.13728380460346012, -1.6361630718197395, -0.06030618065907356, -0.14179970332219238, -1.3578529595916002, 2.2909146463481647, -6.203182110654946, -1.019981295862244, -0.17301797633836946, -1.4067546843935088, 0.3632085441473916, -2.7548169267119595, 4.033380647781137, -3.4586760943420494, -6.565614760063711, 6.000187083411619, -0.645181713501081, 2.7578553005525412, 1.4322157922742376, -2.0473870338757325, -2.702299662865188, -3.421042560187656, -4.634605113265512], [-2.1124401251155263, -4.639391651131321, -4.071917649547612, 1.1875884935909546, -1.548867490521316, -8.167842370558981, -3.96818197867157, 0.417268905933585, -1.0917894706424898, 0.10215888475566659, 4.684502558316212, -1.1510784512747536, 3.2153860382405512, 5.394533555059316, 0.4354670263921688, -3.450332225447992, -6.64147932850471, -0.8437907629131945, -1.2198334037596887, 0.6307511447683886, -2.277271069298548, 0.8064306635606058, -1.1868756205245674, -2.585961084119226], [-1.3262848246649515, -0.9244043579308033, -1.4820029458417008, -0.0942214244763987, -0.17521248732006484, 0.19119140684342795, -2.464488762203319, 3.862450971431695, 1.1926104333943335, -1.396590139263661, -1.4662773615279907, -4.7701321041761435, 3.841286816701202, 3.1434837999327963, -4.8585352542747025, -3.4588530047099066, -2.584651539411965, 0.41911371736975134, 1.75254306277535, -3.8867956839971125, -0.39548660206723124, -1.8256930833603688, -5.078150588416216, -4.770541460850845], [-0.9426107158335706, 1.030580873681043, 3.6257002807002987, 0.914671755639526, 0.7694298763840276, -6.413280045213413, -2.6416142061014583, -5.5073856581425416, -1.4757417321396724, 3.004932291432902, -6.591562013267569, -0.7285651507386407, -1.3027674924685408, -5.193774236218104, -1.6387607634999122, -0.18509654902258355, 1.429900877627467, 0.02322595378927049, -0.3731292038872567, 1.1089883895120152, -1.234344199899761, -3.0842102008840944, -1.0900283186584532, -3.7430896153258657]], "bias": [[-0.4753697740660387], [2.116624630379077], [-2.4045515004130085], [1.593888284195915]]}, {"layer": "activation", "activation": "sigmoid", "activation_prime": "sigmoid"}]}