{"generation": 432, "board_size": 10, "snake_size": 3, "input_direction_count": 4, "apple_return_type": "distance", "segment_return_type": "distance", "network": [{"layer": "dense", "input_size": 14, "output_size": 18, "weights": [[-3.1872766272843616, 11.593453186438614, 0.4529592406177817, 1.5380350535509284, 0.8163151417222755, 1.0694927768132447, 2.7112275160382255, -7.301468375122681, 2.7267937246462806, 2.5117623815243597, -9.067685933277748, 2.8023234988264316, -0.22169970300328734, -0.6423987343146362], [1.980293704843435, 8.108795521186956, -0.5508864877809161, -4.740699333313312, 2.4206124566726106, -0.23974516412748959, 1.503228554921934, -0.9101926296764159, -1.6487496715882408, -9.513309201650184, -3.0659533395694787, -2.763007565879019, -0.827532968941707, 8.31011043167692], [-2.9273391584377353, -6.354051460748836, -2.3391202104570255, 2.2994519527655277, 0.35737198626342537, -0.40485936475397477, 3.112251736330752, -3.013041104457118, -1.2526521029787625, -3.040492780204696, 6.193129919437815, 4.142168435216364, 0.47806450349007634, 5.698886813070829], [-0.21693113952116927, 4.917194544780688, 2.846458640511133, 2.935184279738438, -4.770216468312841, 2.0846080733777583, -8.848638474857557, -0.2236895860909076, -6.64765594887264, 7.8348548295149465, -6.009994732836505, 4.193797065377408, -0.9053924863825021, -0.6806282211632955], [1.1174304596799094, -3.2205903008455916, 3.8289996898364214, -9.19005979330048, -1.6440518005455744, -2.4426076240469596, 1.4539901883526112, -0.8523555736214604, 4.738606114864194, 6.472114345667257, -3.7899580722096093, -4.335278992482195, 1.9292651322834828, 3.995495575384064], [-3.5520846981714644, 1.7364979767260695, -0.4242481436206762, 1.1643471671371213, -5.294361192304585, -0.5737817749289602, 8.83632347390107, -3.0413050349358333, 7.70123361960697, -5.115778988264924, 8.29514229002087, 0.4504266569367853, -1.4419107568837286, 1.9761153421763882], [-4.063204702340895, 3.067815429424811, -4.323946769639398, -1.294013336840607, -5.472188300353833, 2.6451078471244722, 2.032140625637442, 0.25961204532041343, -2.061755315938324, 3.902044335033438, -0.2703520535975914, -5.929450499385798, 1.860273719166844, -4.230050845517122], [2.8465111118895634, -7.321567184464154, 3.305805398925785, -2.6198609827516193, 2.801653729828939, 2.785752457314617, -3.788632201546202, -1.5708499379464707, -5.075712719333135, 1.2936698211424673, -5.698915100434555, -5.134365424871007, 2.493809433535975, -4.908162959191773], [-2.629368365203201, -8.214921678367292, 1.3984443520143057, 0.17548353676681186, -1.0851859716377774, -7.099556628153196, -2.83576556030287, 6.361336715005457, 0.48993054445008577, -6.282294181713094, -3.8410024209902986, 2.854792472507903, -3.1217810480733648, 0.853617639937344], [-0.7294703582478608, 7.029322633998687, -4.794247032731903, -3.904017061581116, 3.086735201481401, -2.7054311772975113, 2.5633428092542796, -9.746116550763427, -0.8408507730960972, 4.185683079021276, -1.6516353210617543, 1.089334207261321, 4.814477725433875, 0.8585600818442495], [4.9666361642200165, 0.025521248002196018, -1.1831062339898253, -0.028864661353947163, 1.2978353831658445, 0.35731494895735605, 2.5941745309740414, -2.8646477238886714, -2.865673664198045, -5.908363153714175, 3.2793708442812637, -5.913196870266283, -1.3149477650658385, 3.3289084251988115], [-3.145151051065743, -0.6301792911956475, 6.505224330802324, -3.0589082995189285, 3.866841704397454, 0.07625319929891505, 2.705334379416997, -2.9986844810958435, 1.4596853188010106, -2.5248090229546993, 2.7927188486071977, 1.0733757867235585, 4.72691766666467, 9.189188079056432], [4.286974330393703, 5.209179031937875, -3.147949523178123, 0.5147785561469388, 4.646893802849028, -4.274673105358234, -5.1794942883634665, 0.32275985293109816, 0.9947881687031115, 7.349803099715557, -0.6352520097374796, -0.21953438592465713, -1.928163097001776, -1.3222793243480322], [3.202354981288376, -6.961086972494938, 3.2142621415542263, 4.260478134929291, 1.6395547022498431, 2.492133152071999, -0.3699475912121891, -3.7197715731817618, -1.881804261115031, -10.199136107872732, 2.5323036680886526, -6.457150289039054, -4.578581771348452, 4.920336429008443], [2.3507677404260496, 0.7190519662609474, -6.988963851477343, -0.7115187108620051, 3.1386428825985546, -0.4730820026266969, -3.4333910880369123, -0.9102178633369582, -1.310192175890351, -1.5798230965965263, -4.041814456749746, -4.7619935300310505, 1.4164434152838294, -5.253714794390882], [-2.708486968233238, -1.385650044880048, -0.10325956064193181, 4.900349102151046, 1.6419380465398468, 0.8200259370877343, 4.944958181007879, -3.3821105566628447, 3.025492105652164, -5.9640488004157515, -3.4494397528995773, 4.763806281958582, -0.51814041074814, 5.152852739402801], [-5.182175418109939, 8.917767251519292, -4.021892884123595, -5.311619933109019, -0.14028538330545626, -2.093090691545425, -3.298732223142639, 7.03621579350862, -5.513695962339329, -0.6551924773600784, 2.9612103319468828, 2.0713518134112565, -2.635191790952508, 1.1716619471783454], [-8.602003385185702, 5.7430205251599515, -7.80153448459693, -2.240077701034283, 0.016409499013305212, -0.5680241853605452, -3.060015496065861, 6.900228893161644, 2.574159180288536, 14.719647219878695, -7.208834019091049, 3.337387636891873, -0.711169010139004, -0.980314620355517]], "bias": [[1.1921115181072182], [5.068614665627227], [-1.5234130737011595], [2.0553779565827144], [0.22024672800818523], [-0.5479550921710974], [-0.7822372748895949], [-4.875117465838943], [-7.325020991732501], [-1.523587633981929], [0.4072388829339908], [-0.28337256631436414], [-4.663347770141975], [6.107269992473555], [-0.7161937313152669], [-5.011312895220519], [-6.434139999610586], [2.8517219759709005]]}, {"layer": "activation", "activation": "relu", "activation_prime": "relu"}, {"layer": "dense", "input_size": 18, "output_size": 4, "weights": [[8.039586459607007, -2.3757626654298236, -1.9894133321511855, -9.618872812837195, -1.1427219818892982, 2.0561599242090374, 0.9030750128727355, 0.791687340439971, 2.6486210216479362, 0.9801995232288218, -1.1580711217649444, -1.6789673540628702, -7.819768049296613, -3.461511195774714, 3.6821607758614574, 4.364098879626616, -3.432371136088088, -1.41076040430052], [1.6954073833113532, -1.2544654527971637, 1.1593454322350183, -1.5020142950970967, 2.9540580934216543, -2.4664381094751824, -2.000653809917791, -0.07185896631808975, 8.399456139399248, 3.167806216881551, -2.245433117630259, -2.7741912149034156, -0.8389289921783349, -5.7840010257383385, -7.762796925063692, -3.5097502517818207, -1.628415996762129, -1.098230298587503], [3.5737117854566254, -1.0973138335618329, 0.9069343750860864, 2.4134571504993376, -11.623917999567144, -6.387275140349763, -0.8514044537386487, -3.300982780915942, -0.9260744115114061, -0.06634373431779694, -0.27994707647352374, -5.780453230625518, 0.13225145740934718, -1.595917178256066, 0.0438134331251121, -7.903016213945844, 4.616292230080599, 3.0274934437649437], [-7.403297756793249, 3.545400011336203, 4.145243381693511, -4.3407912469366945, -0.7386209105933118, 1.6112621759404906, -0.8509421245104105, 3.338099818632643, 1.754492276585788, -3.102087938043579, 2.9686427337890047, 1.0301332183051821, -8.46356936354629, 5.405525962048584, 3.3741954764087767, 3.6482186308888096, 0.5838157097523222, -11.885722375718853]], "bias": [[0.5231449631921679], [-8.891480872285149], [1.0183286353518788], [2.5078687886423072]]}, {"layer": "activation", "activation": "sigmoid", "activation_prime": "sigmoid"}]}