{"generation": 434, "board_size": 10, "snake_size": 3, "input_direction_count": 4, "apple_return_type": "distance", "segment_return_type": "distance", "network": [{"layer": "dense", "input_size": 14, "output_size": 18, "weights": [[-1.6589723195641115, 11.51858738821912, 1.2945282611024769, 2.255352582355457, -0.08644115355180151, -0.607543109645371, 1.4192771574544818, -7.301468375122681, 5.459208721675221, 1.31949268186372, -7.682635868060006, 1.1031663790845425, -2.5047251726299065, -3.0542929539390093], [1.0893986041615202, 6.220342937590137, 2.2371567619501556, -2.5405053642444364, 2.918004338935035, -3.0205391855061046, 3.7381558027822, -0.450638735268316, -0.7578564553924564, -8.20001568657948, 3.5401540411669536, 3.421504848357673, -1.0584019425500721, 7.694655014404161], [-4.126633145869851, -4.857523791385543, -0.6223898839805588, 3.387146292586192, 0.9359052120156132, -0.42487239342674976, 3.112251736330752, 2.0952655126737594, -0.7253304149527525, -3.040492780204696, 6.019420330674006, 4.142168435216364, 0.47806450349007634, 4.697687394972631], [-0.5137874187488072, 4.917194544780688, 6.131148886527669, 3.7559114845214148, -3.7789930125168913, 0.35423036837035154, -8.030420377188566, -0.6599575857462913, -2.9296302046556235, 6.950574941279124, -1.9291982504259728, 3.304674371202151, -1.423253444060871, -0.5225187861333208], [1.7715174959329612, -0.7593754263974503, 5.11749113558916, -12.088430203923826, -3.3532052699515664, -1.6784942073471267, 2.021721099879104, -0.27867469818938156, 3.296625919561817, 5.605921740180309, -3.1021806388635182, -4.1321833106635735, 2.2678649523195094, 9.179504505551833], [-3.984255848015339, 1.3815339652275667, -2.345793793598258, 0.0922160119792581, -7.47744330261161, -0.35304605140336287, 9.677260253783622, -2.20462766810416, 7.407803820912128, -4.757649409843629, 10.21797962496159, 1.7377980184111905, 2.030008627610741, 3.9807933462532565], [-0.5987106170002013, 3.4554015800273303, -3.1058219122076145, -3.170544404275871, -3.701236606038946, 1.4321136768043654, -0.2633921851737333, -0.4060637901909462, -1.5069619304116668, -1.0437696310670816, 0.2707461279818988, -1.0236763564605385, 0.019548584746117786, -2.6337546519258175], [3.2133267770882896, -4.116749853939302, -2.0007573487067063, -1.011571746323803, 0.2783464988094789, 2.2047858406579426, -2.52377280196959, -2.6897103841874115, 2.374558283533631, 3.59089554058219, -1.7570483334875329, -7.343491643210716, -0.6188062221315751, -1.6810845633426565], [-0.09380766593424239, -5.079578874121393, -0.7146856942425902, -1.8803002194955554, -2.002231737226753, -5.946658158851644, -3.7107383368351323, 7.584718028410078, -0.12459810069535507, -3.394834044660535, -3.1004310455770265, 2.303722757772682, -2.912749445505426, -0.020111257160411844], [-3.6299087627977267, 7.632834899996991, -4.482279469615743, -1.4324172289189283, 3.1547729770825654, -9.974566425822406, 0.9298107725180387, -8.95815345750518, 0.9432800132727511, 5.369238144042223, -1.0405172212187388, 1.683724115133084, 4.416505118307552, 3.2876884060889515], [1.3642760719127862, -2.6438466989154414, 5.591122006881899, -0.5927703001074208, -0.4363729820496246, 0.8107405708196133, 1.2127049722916976, 0.34319635533508774, 2.0081914744314195, -1.6553461912415368, 5.459356620042678, -4.126583249020991, -0.8434081048587048, 0.2908765129999762], [-4.811857809634641, -1.9613515882081172, 6.271839319834322, -4.245127586481413, 2.468520020325204, -1.7286917662205301, 7.538958984745537, -0.5469958199950407, -0.10649368716752133, -2.546807500936068, 1.127917471030341, 4.459452249370825, 5.17060357386022, 8.510015071324327], [2.58319859125814, 5.625619683575492, -3.7631764404276655, 2.32104561381901, 2.1186419591552266, -0.7470768938539822, -2.3067795337172248, 1.29218048507924, 0.7682347550027895, 9.9993431829199, -1.110091293538976, 0.30446106603147727, -2.399882255386219, -3.675235697831506], [6.081884307453235, -2.0798290593399678, 3.2682293564679754, 1.9741501520930673, -1.2533393081699218, 2.7613163946929826, -0.6584701494915132, -2.8120587304366618, -2.301007598825392, -9.79404963294557, 3.853358064545837, -7.296779751891447, -4.057684779416785, 4.079629195713478], [3.7312675983912156, -0.8734759096276362, -0.014227673144719177, -2.8220224738967286, -4.621064264734243, -0.4730820026266969, -3.4333910880369123, -0.9102178633369582, -0.14114791384804293, -1.1777214226485941, -4.168241875829291, -5.1612967174082325, 0.6182254242406253, -5.253714794390882], [-0.9298698536137947, 6.62143389381642e-05, 0.07520626393365493, 4.63770890762005, 1.6419380465398468, 1.7230728989830715, 5.989266369382065, -2.51299091649769, 2.641077570915893, -5.780086304748305, -1.3837553545536316, 4.86980766820112, -0.51814041074814, 2.9757013630295894], [-5.5763666158511835, 8.47284645566238, -5.170445181533335, -3.697522367414135, 0.4477377926083371, -2.7151836508547365, -2.574822666676874, 7.03621579350862, -5.513695962339329, -2.1748345955033606, 2.9612103319468828, 2.0713518134112565, -2.095812932599571, 0.4815242005607021], [-7.214771652568016, 5.7430205251599515, -7.97888568474268, -2.240077701034283, -0.5788229758155788, 1.5350304088276654, -3.060015496065861, 6.132692272471248, 2.574159180288536, 13.425948719708918, -7.208834019091049, 4.382106436173672, 1.8752694953223459, -1.7183256422310116]], "bias": [[1.1995616345734919], [1.9955770742016083], [-6.077841269399906], [1.000749407112406], [-0.4829568632021557], [-0.42933497523202424], [-5.131617229501427], [-3.8035197399227005], [-3.833371826442986], [-2.3813208887645], [2.605013596815949], [-0.28337256631436414], [-4.106893441738239], [3.7278502443790384], [-4.977781350913452], [-4.089195688692773], [-0.8184325249485396], [3.423918539697188]]}, {"layer": "activation", "activation": "relu", "activation_prime": "relu"}, {"layer": "dense", "input_size": 18, "output_size": 4, "weights": [[7.872742597420277, -2.110859605199974, -1.9894133321511855, -9.34905981526264, -2.881301805271214, 2.810811302611269, 0.9014450781707523, 1.7857226638913222, 2.525307340982824, 1.5695792695844455, -0.35708757239625644, -1.5544065650287753, -6.963595497270527, -4.574425939856294, 3.6821607758614574, 3.386916124014485, -3.130670203324211, -2.4214356879196988], [-4.18992418700181, -4.805117947467731, -0.17261008202208727, 0.8902242900543198, 2.9801774740696834, -7.011628972611765, -0.8176541820655849, -0.6413321323313471, 3.086211084212578, 3.283441527770659, -1.769740587139179, -3.6929968865777587, 0.5786510581444885, -5.850841307918987, -4.953303817079079, -2.655774099672496, -0.04839455764107989, -1.6187632130229002], [5.005851954283594, -1.4499524196637952, 0.6877464944911905, 3.5957636484284143, -10.792603529612688, -5.682784663017956, 1.1706636901044385, -3.5765860953267774, -2.7856596829129967, 0.06359352222025555, -2.025854921462421, -5.471176153809667, -1.0996296981628761, -1.5149545351787592, -1.1557817674416235, -4.817622382806745, 4.524847476480891, 1.9502414216057997], [-5.826635339388536, 1.3307361086710225, 1.8519516598993087, -6.681874211570954, -3.143229267225371, 4.505213508104529, -2.68686774973067, 0.5898276622401128, 1.2796082203851538, -4.620608078460915, 4.508490698971434, 1.6569822253737931, -1.2070572462401759, 5.1190516764781915, 2.6744948916905438, 8.203247810749538, -7.453113575211557, -14.479128272874458]], "bias": [[2.501998709267201], [-5.2230516535347356], [1.567762231908395], [2.874564312487209]]}, {"layer": "activation", "activation": "sigmoid", "activation_prime": "sigmoid"}]}