{"generation": 434, "board_size": 10, "snake_size": 3, "input_direction_count": 4, "apple_return_type": "distance", "segment_return_type": "distance", "network": [{"layer": "dense", "input_size": 14, "output_size": 18, "weights": [[-1.9501565468002386, 9.160046828767799, -1.927868551902833, 1.2971312836726152, -1.1260773644223518, -0.607543109645371, 1.9434965427626014, -7.301468375122681, 5.075144626539981, 1.31949268186372, -8.130818642936731, -0.3748356817794238, -2.545294882468102, -0.7382721517338036], [0.3140732658424765, 7.6129872870124276, 1.733073339681421, -1.0721275021170098, 0.9470970237577954, -1.0711709265149154, 1.0746690464411883, -2.4231295027319457, -1.8498466590493485, -8.005590921382188, 3.2046061940419213, -3.323400129850683, -1.1910897230516857, 7.904543136989817], [-2.7767982399960744, -6.97115779678474, -2.3062188396099956, 0.3714703167906952, 0.44742856045599355, -0.14049093715191235, 3.119533472018578, 1.1189135317964833, -2.4516375056108375, -1.851710573220119, 6.671066668997851, 3.0962227189880758, 0.036769397414233934, 5.698886813070829], [-2.0176846456020034, 3.1851040855648116, 4.807095115810632, 4.088091097023425, -3.9627490715895957, -0.11723267475332322, -8.50745305505415, -0.7770267236007553, -3.022751727890042, 6.950574941279124, -2.6476274094734986, 3.8223840531688626, -1.5368420607261712, -0.5225187861333208], [1.7715174959329612, -1.4619473635995297, 5.408919684330746, -11.274273779803703, -1.9119646714912866, -1.6784942073471267, 1.596917593823384, 0.3580168659352974, 1.7736227469291672, 4.987080266429359, -3.1021806388635182, -3.1926153471609457, 1.0948409341341878, 7.947583087077553], [-3.984255848015339, 2.455581060819969, -3.9427394069246513, 1.0231848942149633, -4.524559091892821, -1.699317058633239, 7.690468551229991, -3.725502373096619, 6.996039559147115, -5.429282526381115, 8.845454729142663, 2.795340031055909, -0.41293717197340374, 2.4191059614697377], [0.0725582494267697, -3.8410972360589355, -5.55839617600903, -8.091733155081004, -8.698321897459413, 1.3241930176659786, 1.0523933668273113, 4.460892250907675, -3.6360993907461996, -1.6153347798161934, 2.4868368361997355, 0.2775108897009284, -0.17243255272913416, -0.29429279599174096], [6.595992699618645, -5.758537462553209, 0.6647591467271456, -0.820905043686209, -1.0080030864082796, 4.341070626734094, -4.4727954306123126, 0.12601994778565132, -2.8976011134765507, -0.001363721972523102, -4.307272700409823, -5.858427047282055, 2.493809433535975, -4.633365549757177], [-1.5137614871195508, -4.549276407164682, 1.5672997322855906, -1.0868456708315444, -1.8634144050567298, -9.64671521178559, -3.1387456436718137, 6.339915098938148, 1.2890345385642037, -2.8295827615065043, -3.880055514547138, 3.6476728666122167, -2.912749445505426, -0.020111257160411844], [-3.6299087627977267, 7.624204772229497, -5.048341537328665, -1.3813985711586982, -0.31299983500423734, 0.5516842005771047, -0.9929685014842229, -10.796440652977068, -1.7225255315935009, 3.5958580086576184, 0.7214950593724982, 0.3801048212061006, 9.374306034502927, 3.888475797197149], [2.47322935285949, -3.025125312691319, 3.365803740456034, -2.2143565481078658, -2.8817402271148747, 0.0989730380147883, 4.187306716573457, -2.406557625020056, -3.1484410277823027, -5.550662181719439, 3.9358907420712446, -3.8168901053609066, 0.1576170991507208, 4.776859434675867], [-3.0405987285596763, 1.613415434209481, 9.591348683080922, -4.022951561132315, 0.35985507393621396, -0.8466352832993899, 9.710154711586055, -0.42891438961904926, 2.5885736503824166, -3.0358665594639307, 1.7549342264620167, 2.482350998007612, 5.824382600188822, 7.637474541174123], [4.789834999180172, 7.2968895311803585, -6.113221256369606, -4.199162027993708, 0.9470413383897065, -4.428866264240197, -2.9388864837794717, 0.25793164132892954, 2.3303131556408454, 8.838192524194222, -1.3566067499403642, 0.5895406238040042, -3.8742343268311124, -3.4897874630678585], [5.486157161924727, -4.40979915616298, 3.6424809759022003, 2.0798351244269138, -0.9755791939377443, 3.4393704391305095, -1.0000383863800497, -2.4517878964505893, -2.3510740450042715, -10.275454146315191, 2.89999882528985, -6.519099852025223, -2.394286496942457, 2.5330073654945675], [1.3617311761537785, 2.599408250809308, -0.8384332424551036, 3.5480184664342227, -4.621064264734243, 2.0829712080563985, -1.096782249716555, -4.373883996832495, -4.301991221575793, 4.5162875460124425, -4.94461576009038, -5.757679862868615, 0.000720487592388741, -0.13998654232108], [-0.22232991769695898, 0.9699056527210956, -4.278271342206594, 2.129395179363276, 0.8997738468337143, 0.6428865138946152, 8.037962090575942, -1.0782822174188518, -2.706265598446553, -4.59504813615227, -1.325053213672753, 4.763806281958582, 1.7571629133810784, 4.986294471366733], [-6.408167108768368, 4.305424937309359, -3.0876191389727774, -3.73101895073197, -1.7678195434579806, -2.713110019773385, -0.9545101952459072, 5.912476800544543, -1.8425865905236327, -2.759619490925055, 4.922459174037719, 3.639925498811646, -2.9689927721199916, 3.345368920721064], [-5.070344041063304, 3.3463067783839646, -2.5115185827073665, -1.1929798278628199, -1.3227213423964845, 2.838390597639271, -2.126256801741016, 5.572806945902683, 2.418487605922481, 9.346777665337065, -5.61417631823476, 4.572849459310099, 1.1511590539031187, -3.6343759332609715]], "bias": [[1.324479404484357], [6.409776519371569], [-1.6993824769949604], [2.256883790681436], [0.20633571037645754], [-0.9951990367869663], [-2.174379442420618], [0.5311307832904115], [-8.814285993228566], [-2.530907237297606], [0.8105323572228103], [-0.056127345335736156], [-5.106614645906375], [4.711932794023981], [-4.046281489243229], [0.2109094768465387], [-1.0853369802894195], [2.446284702471367]]}, {"layer": "activation", "activation": "relu", "activation_prime": "relu"}, {"layer": "dense", "input_size": 18, "output_size": 4, "weights": [[7.872742597420277, -1.0987954450043818, 0.1564967495220606, -9.182900095937061, -2.876140453859997, 0.8186388598386867, 1.7670090875208515, 0.8324724111961802, 3.995800644242231, 1.770031123211429, -0.2820095645011897, -0.5562187900577645, -2.763476010376276, -5.859504928486535, 2.8783878350294314, 2.811005442110254, -2.2675040643972504, -2.4214356879196988], [-2.7294127928591796, -5.043068604592138, 1.9873941638116956, -0.10991360330858818, 2.363950960913383, -5.408214125651192, 0.7693537934086531, 0.22728800052494358, 5.57739615821099, 4.619580249515831, 0.06968638765355054, -3.9048809788218395, 0.5786510581444885, -6.725742691400347, -4.412911693216244, -1.7752686148646712, -2.948936523437022, -0.5296417379690451], [2.7104374871180807, -1.4499524196637952, 0.988864161013189, 5.13136586127901, -10.729983031004448, -5.12655772104292, 0.5441570129453903, -2.874599703504161, -2.2642143200533793, 0.13785913017384288, -0.7168186293577624, -6.052053309030729, 1.0418257516542306, -1.3116604658432522, -2.8291468416623777, -5.625431607116877, 2.971003818722222, 1.080533666466204], [-5.922789758150075, 4.171151882219881, 1.0178789848525263, -0.9156116305092037, -1.80947834731283, 4.197399736658911, 0.4014435741163902, 0.9610361491195141, 2.596798850997211, -2.6249400228834614, 4.080511810818, -0.7461175076368047, -1.020086907329545, 6.792150095908097, 5.766604942369368, 6.012457546262894, 0.8223369699361095, -14.812641641906438]], "bias": [[1.1052589691293595], [-7.6314175348161015], [1.0126924685907364], [1.6896346555824837]]}, {"layer": "activation", "activation": "sigmoid", "activation_prime": "sigmoid"}]}