{"generation": 431, "board_size": 10, "snake_size": 3, "input_direction_count": 4, "apple_return_type": "distance", "segment_return_type": "distance", "network": [{"layer": "dense", "input_size": 14, "output_size": 18, "weights": [[-4.020151072598024, 10.213551279876057, -1.344813459175288, 1.1524304194653363, 1.2150477510515303, 0.36757038648924617, 3.6739694179816214, -9.121178914968663, 4.579713076599227, 3.3866504524638064, -8.13323163290849, 1.4584600125479552, -0.22169970300328734, -0.8122099024379767], [0.28144633500764893, 6.597479222170372, -0.10860722160602798, -3.327008977829201, 3.7258129890436518, 0.8392724235909109, 4.096328342258887, 0.4719624060110975, 0.42576500895242714, -8.260393660854666, 2.941703123375877, 1.8428760743854975, -1.4957608346784919, 5.07466790542271], [-5.700580055042524, -6.354051460748836, -2.6789801906921196, 3.262191927357258, -1.7387139165157173, 0.5439633547473435, 2.4742709717533917, -0.0617752221085206, -0.2561098930300151, -3.913311391200164, 6.155117832304862, 0.4039575398165539, 2.5328007326227207, 5.540443512147275], [1.6090068639421446, 3.1851040855648116, 4.986817011038227, 5.618655585909773, -1.4969218319812247, 2.4261031321018085, -8.69947801341279, -0.2781180717345644, -3.923755122857842, 6.458355350229488, -3.0345473121214255, 3.8223840531688626, -1.7009504725908906, -1.1338129155184262], [2.086666304410307, 0.06313159924515066, 5.900681923156796, -12.555439251854462, 1.36282449188912, -1.2881807980558289, 1.196926013231704, 0.026938466326493382, 2.763190743310303, 5.605921740180309, -2.3433527737200506, -7.246185804658699, 0.7836331927267801, 4.829111427824936], [-2.8983936655546403, 1.7364979767260695, 1.2928311725607593, -0.6338309529084163, -6.5446225779118254, -0.19177676777990338, 8.390287325428488, -2.270352851259758, 5.1074163874680885, -4.408360568697039, 6.068138441505299, 1.0754742674184472, -0.9926049540558082, 3.8349190080175264], [-1.1107106245292595, 2.098428381777034, -3.2649241431189324, -2.8738996906749246, -4.453028153679807, 2.481005643353794, -0.07942826077252133, 2.211869934769248, -2.7245582281308205, 2.7311222372724564, -0.8080412853279026, 0.1683091663303764, 1.5377311362370572, -6.7481056680529665], [3.1850698693653476, -8.752605361599963, 0.8892051793723361, -3.1497477629079746, -2.805618662353692, 5.193180476484819, -0.6012480362845252, -1.4324573311846696, -3.626690243574227, -0.5017315762409975, -5.353117270870459, -6.471293909487187, 4.453616617568308, -5.907921948423622], [-3.11982088786985, -7.140606238172771, 3.260273403233147, 0.049874204152912105, -0.2636883530273135, -4.797199742473436, -2.632322996142951, 5.915635299405658, 0.5128064696896251, -5.00150198847634, -3.172974298219217, -0.04537577944611737, -3.350684480330086, -0.8218058550208498], [-2.7084153075428734, 5.958501912849341, -2.6983918952466803, -3.7535636883527768, 4.007122688485531, -5.159439689941282, 0.9334760082627712, -7.703593278481504, -1.1933347010634814, 4.945535005047172, -0.8710476366790516, -1.0662711830750808, 7.119472857638184, 4.742579555446395], [6.621152739206436, 0.5430728024484369, 4.416803579633132, -1.273539344182201, -3.7031185253999177, -0.9503206576780493, 4.150793071558566, -0.33688874286539017, -2.886739588601454, -5.268346050151711, 5.677064119833297, -5.512182520793266, -0.13141015364926284, 1.77778183552144], [-2.3722023600839064, -0.0712265648786552, 5.189347313671458, -3.7841280843852814, 1.6516813294298345, 2.13650380803226, 6.339794953538415, 0.3409286798019573, 1.5260874525596768, -3.4802438408732055, 2.7916770343481736, 3.8407313203652143, 3.5975134556231265, 7.432069905734596], [3.110150911192472, 3.4565029749568987, -4.748367295732217, 2.5466499919239594, 1.8155072817982134, -2.860460049330317, -0.786307475749991, -1.631646416452578, 1.383813241170417, 10.200454280674006, -1.0640867469737143, -0.9316928897633888, 1.5593283911065448, -3.800948141999054], [2.2856281289135056, -5.942306783045073, 2.3041415125064186, 1.7932738190347122, 0.5766702026861186, 2.38799424237203, 1.9236196641948788, -2.0790116299619763, -1.0370759269929457, -11.53459295944945, 2.5323036680886526, -4.8978103277760665, -3.5489549597751933, 2.6805015979791937], [5.643081768427661, -1.1486170638973425, -6.570349670429309, -0.9864585389186301, -4.853235733217656, 1.2306672818633546, -3.6725507322148143, -4.373883996832495, -3.379632874739012, 4.5162875460124425, -3.964095099916832, -5.757679862868615, 0.000720487592388741, 0.4568445391266268], [0.5420200224058325, 1.4893658839254706, -4.278271342206594, 2.129395179363276, 0.8997738468337143, 0.7101779557542323, 8.384069020086816, -1.0782822174188518, -3.355811429666559, -5.653385800834419, -1.5749989371037987, 4.763806281958582, 1.7571629133810784, 4.986294471366733], [-6.408167108768368, 4.305424937309359, -1.7503130630482342, -1.7875905053894756, -1.7678195434579806, -2.713110019773385, -0.9545101952459072, 6.758501643105333, -1.7305657195427329, -3.0494446648935534, 4.461964872741964, 3.639925498811646, -2.8010165527014785, 3.345368920721064], [-5.809657603178048, 3.3463067783839646, -1.1790732909252644, -1.1929798278628199, -1.0891722162572386, 2.838390597639271, -2.126256801741016, 5.572806945902683, 2.418487605922481, 9.346777665337065, -5.205932074194969, 4.572849459310099, 1.1895471480952953, -3.101674787939027]], "bias": [[0.6511975489072099], [5.05889542033327], [-1.5234130737011595], [1.0401309364896887], [1.03769740107258], [-1.327827753650138], [-5.482436609514746], [-0.9314189103686478], [-6.413204703394403], [-0.16301294463828753], [-2.0189181513894088], [-1.2497522386660131], [-5.170010017786501], [6.2639621439569355], [-3.5077160264977914], [0.1421102547689181], [-0.847730413864168], [2.020511594512062]]}, {"layer": "activation", "activation": "relu", "activation_prime": "relu"}, {"layer": "dense", "input_size": 18, "output_size": 4, "weights": [[8.94658451114702, -1.2293926128810129, -1.9894133321511855, -8.333367051006041, -2.3856238840099175, 0.10072568536325943, 2.076687331226372, -0.17386126826343068, 0.8033514177881869, 0.14863648892396206, -0.5444417861998077, -1.6789673540628702, -6.439222492363821, -3.1488862654964485, -3.120047732683091, 3.2911086355025465, -0.7373368095809314, -2.509290814124512], [-2.3117916347404095, -8.34874685498513, -2.2580826294439924, 0.04051136292194876, 2.4776714776863615, -4.039460484569492, -1.3249506763887169, -0.07185896631808975, 6.000935005794455, 2.7484643928938954, -0.7749990940281561, -2.4201494093796145, 0.7424998878415519, -4.820934584725975, -4.412911693216244, -1.7752686148646712, -1.415707088120698, 0.053605102895138756], [2.7104374871180807, -3.2869368542792023, 3.768279739612439, 3.6007588976976863, -10.571289825763188, -4.524320670772246, -0.6436173440423507, -3.5765860953267774, -2.7856596829129967, 0.06359352222025555, -2.025854921462421, -6.551425730046012, 0.4924966349200983, -1.549401806941242, -3.5114604540842858, -5.34433255333994, 1.651480790750941, 2.881569349991679], [-7.062600269662588, 4.08308851466553, 5.255207637225301, -4.119908990719835, -3.0826944752411993, 4.8595539464610145, -3.4955716884579764, -0.15043300147224092, 0.7722879846370885, -0.5702095911385117, 4.221724962366605, -0.7461175076368047, -1.0329827367796305, 6.792150095908097, 5.766604942369368, 6.635574231737614, 0.7094444636228064, -14.812641641906438]], "bias": [[0.8909416040769029], [-5.9290551819966355], [1.9172688840807828], [1.6896346555824837]]}, {"layer": "activation", "activation": "sigmoid", "activation_prime": "sigmoid"}]}