{"generation": 434, "board_size": 10, "snake_size": 3, "input_direction_count": 4, "apple_return_type": "distance", "segment_return_type": "distance", "network": [{"layer": "dense", "input_size": 14, "output_size": 18, "weights": [[-2.6626959777027692, 9.42440108875428, -1.3453501910590262, 4.466449119763621, -0.6126515037489343, -0.7480582625718417, 4.653823769880566, -7.259463215544962, 4.185457838319546, 3.672901972689952, -8.130818642936731, 1.8050084222191047, -1.6674664778275357, -0.9898389742552892], [0.9862542285597181, 8.108795521186956, -0.10405879571380094, -2.7485601883132795, 2.4206124566726106, -0.01409368961070706, 2.713171814404332, -0.05116324071805045, -1.6487496715882408, -10.169626394947073, -2.670906914793348, -2.072821209922774, -2.5752527778420333, 7.694655014404161], [-3.958817829149585, -3.5908885751418858, -2.3391202104570255, 4.133848248232895, 1.7361642901375915, 1.9328434289117775, 3.545076337201107, -0.12725982049256968, -1.9115969938244006, -2.2083809105099017, 8.642093079327044, 2.9823845827483066, -2.930306582013429, 5.1538583819580515], [-0.20170563135470393, -0.40624849319451073, 6.585221559377539, 4.371514285068763, -3.8044485864548836, -1.976340489723299, -9.976205719017294, -0.4068563446082084, -3.3458173096069714, 7.674501253315636, -3.821691604582368, 3.150507513269254, -2.234169297560426, -2.7074798444834887], [0.2696036822609921, -1.248194959255415, 4.165343627424966, -9.387338515854003, -0.04335366744566882, -2.673261318854492, 2.08515439215613, -0.38030363113655785, 3.796347089295197, 6.798605957091065, -2.6331612277417387, -6.554840819457591, 0.1511025857511175, 5.376737954188577], [-3.998665997571983, 3.06885851975734, -0.7376338408909362, 0.9830770121767363, -5.541163595940979, 0.8877397657525599, 8.33432193031468, -3.8311217619746376, 7.645132464756845, -4.98873248218726, 8.845454729142663, -0.15274636162851285, 2.011575092719338, 2.4191059614697377], [0.9831394018180751, -2.992616959005037, -4.222563937853804, -8.091733155081004, -4.350451797695883, 0.8150165776797031, 0.7079578149733401, 0.666071993273016, -4.7758965323474865, 2.7858599630031744, 0.48229123204403423, -0.2936868739349189, 1.4397544473368606, -3.2758126284691835], [2.920698692304058, -4.602513455096726, 1.5851580103129947, -4.5999458424544, -2.104727937126503, 3.444964428916494, -3.7536331658386444, -0.5407446192054872, -5.180605681697457, -1.2036336739131561, -6.480128358680292, -7.343491643210716, -1.7495948066816664, -1.6810845633426565], [-0.09380766593424239, -3.3891234477175414, -0.8498121253645324, -5.25758909967051, 2.640654141481248, -1.6681679971126693, -0.679125143005118, 3.916968963744771, -3.124721366317428, -5.147742633928524, -2.3059877150357986, 3.4831827178209345, -1.9075182634673034, 0.6695269519391918], [-1.8349829117994105, 7.326328527877394, -3.0529233722461084, -4.625111741646012, -0.7319582512490819, -3.462011153609555, 1.729016741059295, -8.085189588505772, 0.3772933165977076, 8.3444376952463, -4.301021060010832, 5.780232129625231, 1.0531744214033034, 2.3415517717153884], [7.525003705913542, -1.736342981919914, 3.574119680320448, 0.4272044073191385, 0.22563166155304049, -2.817497823806504, 5.800116615060489, -1.6412209174098917, -0.24869210993951607, -6.7377945715080445, 4.611605222749257, -5.512182520793266, -0.3312381379594518, 0.10885100350200272], [-3.9194760246049585, -1.0735849456755222, 6.682250339471498, -2.0991483387223435, 0.683914400744889, -2.7375968624130818, 5.896518436474779, 0.5860715251064694, 0.951726190854131, -1.3134495933295673, 1.4381436617524195, -0.644407440281612, 4.783316118064098, 9.26750770372197], [4.678993369194685, 5.303239351141175, -1.0704398977169718, 1.623074061464438, 4.645690719502796, -4.666080758958687, -5.1794942883634665, 2.1488836702854615, 1.2679244638859273, 8.124409977423426, 0.45566202009227164, -0.47201905739315575, 0.5091743329541399, -2.5862257421779486], [1.542494040754576, -5.9974726221984955, 3.082242892659873, 2.971746342754582, -0.14303847114288226, 2.6017821812623283, -0.3699475912121891, 0.9942296210093091, -1.9490106573210717, -9.068633541703147, 2.779870265322108, -6.297266879287229, -4.283837206713121, 4.378785532383055], [2.0711661003237056, 0.7916328852331384, -7.158948362294208, -0.7115187108620051, 1.7619411540594982, 0.34427835867573403, -3.673226025632685, -0.9102178633369582, -0.14114791384804293, -1.4961000334502488, -4.168241875829291, -4.906092595771602, 1.5824705075243852, -5.253714794390882], [-1.2846388072321995, -0.5369028978572132, 0.07520626393365493, 6.166122441004023, 1.6419380465398468, 0.8386346987647643, 5.989266369382065, -1.9593771928342767, 2.641077570915893, -5.780086304748305, -1.9764030432282598, 4.351865317681962, -0.51814041074814, 3.178877494529301], [-5.363639280542613, 8.47284645566238, -5.045793252527326, -5.6794820545948435, 0.4477377926083371, -0.7002476214617976, -2.574822666676874, 7.391225783882043, -5.513695962339329, -2.1748345955033606, 2.0517453903718654, 1.2819111975821802, -2.095812932599571, 0.4815242005607021], [-8.202876641506009, 4.954178215693933, -7.80153448459693, -2.1966673681988462, -0.876548574953674, 1.5350304088276654, -3.060015496065861, 6.900228893161644, 2.574159180288536, 13.425948719708918, -7.208834019091049, 4.382106436173672, 0.7660324201154827, -2.8437737566392314]], "bias": [[0.8568535456179314], [3.452370642189286], [-1.8703185986239554], [0.8405955929675755], [0.821713669989474], [-2.2469514373519077], [-5.435754984346689], [-1.906915668203911], [-4.3283043597334885], [-1.6514756383090168], [1.984771121308536], [1.5864337676644964], [-3.65509190240725], [5.896542504633574], [-5.574830689369113], [-4.089195688692773], [-0.8184325249485396], [3.0754584208573266]]}, {"layer": "activation", "activation": "relu", "activation_prime": "relu"}, {"layer": "dense", "input_size": 18, "output_size": 4, "weights": [[6.391970138566837, -1.530251086520221, -1.4101545040509758, -6.390260263083749, -2.943458314491882, 1.996594135909683, -0.6143284735064841, 0.7479600059979549, -0.6242965878285716, -1.0058208649365796, -1.9643281235175902, -3.3968416964904034, -7.715165663618976, -4.16465687209364, 4.047432595760727, 4.632406770138585, 0.5322740385189376, -3.702064327298479], [-1.2058008949638421, -2.918920592645061, -1.3278913696265984, -0.05254247534235684, 2.1507098546328978, -3.1011850282443, -1.4900224142911782, -2.8310824388069147, 6.348712934453152, 3.281340081776677, -2.231475241289543, -3.481100643659719, 3.101660964823358, -6.488558138477908, -3.974698675287188, -2.038831590796946, 0.3400948285059555, -1.834479770955649], [4.321275140303409, -0.4650285911920269, 1.601662568965125, 3.6212934158699337, -10.505644229345, -6.637433026442025, 1.8461127449368304, -5.644606734038199, -7.581148813931172, 0.8122505610991249, -1.8551047068570252, -7.100381306114589, -0.7485915280414999, 1.65966454287893, -0.9820169638889764, -6.666309313701754, 0.03216387428726719, 1.3043159675601386], [-6.042027446753707, 2.420466673230518, 4.188677586078544, -5.810558095518669, -3.3242736514327778, 2.2091713367843684, -3.2504533721282636, 3.1657029178084177, -1.0428092025747242, -0.6800528119874026, 5.162690574339008, 1.6569822253737931, 0.6527708768007987, 5.1190516764781915, 1.9207012414779232, 8.203247810749538, -8.636668275738568, -14.479128272874458]], "bias": [[1.5163858358731965], [-8.262105108973776], [4.852086296206465], [2.874564312487209]]}, {"layer": "activation", "activation": "sigmoid", "activation_prime": "sigmoid"}]}