{"generation": 539, "board_size": 10, "snake_size": 3, "input_direction_count": 4, "apple_return_type": "boolean", "segment_return_type": "boolean", "network": [{"layer": "dense", "input_size": 14, "output_size": 18, "weights": [[-6.253843298348802, -0.12696547207723297, 1.899847737107741, 4.304293093667181, -1.7995518626774394, -0.5120208910867629, -2.3320255454017302, -1.4592697104631722, 0.202501216248114, 0.9206322006759949, 4.20997611604462, -0.6373144369339351, 0.5611578607896763, 3.888532058621497], [4.195269445520157, 3.501158663733718, -0.08141527317953312, 0.2266353498889049, 0.9525166317568147, 0.9053830797218496, -1.9003275874047123, -0.31648069070114404, 0.27446356396384664, 1.218707541006309, -1.5699524783862175, 1.043474665107821, 0.5217644587487141, -1.3878718437208355], [-1.659848207325949, 0.5289051075243028, 2.3231550223589004, 2.087566320336585, -1.4266230200408534, -6.018748555376914, 4.709105217809231, 0.08278526898114369, 2.361162771404272, 2.140206519219858, 3.951380793298435, -2.053983234822098, -3.2826377807280713, -1.9801919622804784], [-6.270242844076761, -3.5965148345689575, 0.5932751975954922, -4.026034411753347, -3.7613591666161965, -1.323440853936624, 4.376308722801457, 2.6233345513397346, 2.9685849607264094, -0.3939520390366852, 2.138028090601899, 0.6351160097779789, -2.9452085490825692, -4.62969950798558], [-2.874090712066512, -1.2274343431636032, -3.6691575079404544, 1.6696130643440923, 1.6717002980111229, 3.2369265362849173, 0.1348087792043473, 3.101107815244733, -3.815649470723699, 2.554211216887074, -0.6080787849831821, -0.07297831311403749, 1.1806940028108182, -0.11509026395372701], [-2.530231014784305, 7.034118794733966, -1.2390515175524468, 0.02842190740833206, -1.413253182837993, 3.483030123722773, -6.882695369699144, 0.4808843097830041, -0.0737727583118726, -3.149121622920189, 5.19227507898734, 2.0182405347468437, -0.31625012644179495, 0.08535724277431234], [-1.2787787070533752, -1.5171451853962916, -8.632719692937293, -0.510593510953567, 4.996930854854273, -1.1506737753933176, 5.610726860739906, -3.635679866669736, 2.4761942581172045, 4.731242415822592, -1.757116253968619, 3.081163832826693, 2.9613601785708035, 1.4455102437867375], [0.8044676125486626, -0.32173306667667034, -6.2671894634032705, -2.4569891968629274, 0.8616962461025728, -0.06045627748944517, -3.181008819496854, -1.413901180752695, -2.713940341519574, -3.2323176448165754, -6.857947222305728, -0.9027392260905376, -0.9518004647865896, -1.8171350438118832], [1.763526570633537, 5.367637199454207, -2.3629541949660355, -0.050870312245584026, 3.1814966692644724, -1.666991523271049, 2.4282008196617504, -5.253673892999456, 1.3929800564422234, -1.5850671718120806, -0.17546431302327026, 1.3085770503243241, -1.5765626684034975, 2.7316009231872225], [-3.1593288914281357, -2.3232150223986645, -8.731293070632727, 0.33035293517035136, -1.5363324911509877, -4.5469659012791634, -1.279599573608848, -1.8120946280348114, -0.31900517444848386, 4.522428828674435, 1.2268542276250394, -3.3751516045152448, -3.7600382372373975, 5.279958313238972], [-0.02176226773880649, -2.0568265130341556, 0.9376066920921848, -3.3507386338130183, 2.238970998658438, -4.68509586544596, 3.1346565761549923, -5.925719278442012, 2.994333060320404, 9.22309522950919, -3.923317943113842, 1.1280928895915254, 3.124810416075641, -7.182759737731114], [-5.120951452043708, 7.779527139372409, 0.3912842999330942, -2.175849725720931, -11.875012482717114, -0.35751482356790437, -3.3570108246198345, 3.0799285315590854, -0.8026240191582199, 0.08190845510392444, 4.429119432764105, 4.385628809722278, 0.44553421502953094, -1.0699092660276504], [-2.5638977109504193, -4.421282046472987, -4.024893302688206, -2.8229652941416665, 4.140571976500918, -6.078280645136629, -2.241618237899098, 3.7861986150851488, -0.897075610141018, -0.0010877406694330127, -2.3097982146461082, -0.8832957013831534, 2.8658797608100146, 0.6183268285529874], [0.6659158743460949, -0.2605188664522614, -3.5982199313683987, 7.043536539147767, 0.33816370164725473, 1.0733405188318523, -1.2802063362422562, 0.9514647563585872, 1.9404893529927632, -2.6901159168524624, -1.2678734525180315, 1.7029309955551277, -3.2335787022460956, -3.9312615735103584], [2.724964087377752, 1.907351291828847, 2.285221910719938, -0.44249947034836945, 4.733296348384407, -4.7945434408796945, -3.924130761509841, 6.272839059607223, -0.5149163680174581, 0.2835882842995733, 2.11531088378131, 0.42435894820284803, 0.5670032767459382, -0.1704497271437151], [-4.34606871306126, 1.8444580601997005, -3.7366863156910215, -5.496634719461162, 0.21438750148918606, 1.1863699604784135, -0.772836022183524, 0.5666091275999088, -2.7346597193456494, 0.9168888542890405, -3.7235817760274603, -2.9557998223939053, 2.109293050907233, -2.6128994205242275], [-1.2810275004850515, 4.130676287733724, -1.8275915318930873, 1.7723753946421705, -2.712498706353993, 3.072109239083711, -1.7488482965751406, 0.3217550248631189, -3.709335013413871, -4.735016413306596, 3.781383645078686, 0.41822020721395237, 1.5106455297729622, 1.9729771511405612], [-5.899760501256665, 4.719884256203959, 2.1056424623074665, 10.821313662483737, 0.3176586008041925, 1.6845961581449624, -1.3233670780889262, 1.7533354402498573, -1.3087567157053945, 0.05512331710475182, 1.9010789440069877, 0.7118601903646575, -2.4185940582287295, 1.625922315660341]], "bias": [[-1.2091161895178506], [2.606619663100315], [-7.179723313439076], [-1.6812412114864497], [-0.5031503497554932], [0.818907147553617], [-3.010128874575572], [-1.3412874957447871], [2.469144236516172], [2.479600567436207], [0.9996148657374955], [0.33884647712936034], [-0.5073923559401056], [7.007154808321443], [6.934735629184556], [1.9611033500850776], [-6.807706109108221], [0.9152715929532337]]}, {"layer": "activation", "activation": "relu", "activation_prime": "relu"}, {"layer": "dense", "input_size": 18, "output_size": 4, "weights": [[-6.320912965486599, -1.3447239184178823, 4.603050926472417, 1.6059640377579383, -2.083259687319591, 3.9860201420271775, 0.8748428755045201, -0.17169308028655728, 0.340005626668218, -1.201348084752661, 1.2567162727239656, 0.9140499167422598, -4.49123762804504, 1.1747346327859878, -3.430900512680337, 3.6983671860184835, -2.147894246401597, 2.8437405731256815], [-1.0985104035310314, 1.410995019229739, 2.6923703898886675, 1.8940637255561836, -0.3139525024128361, -3.693534717915546, -1.5427943005133882, -1.2697302068153569, 0.6895351063669546, -2.2784743085214503, 1.1839340065198125, 1.379209546865136, -3.9528384119307276, -1.2259050185525755, 0.8919193321785462, 2.1364876603607494, -0.6750378281720515, -1.3350214633217743], [2.626777160437726, -0.04183957299170449, -2.126592672809923, -1.5298494986169224, 0.01776755818717507, 1.7287945029739813, -6.269005609152302, -9.258659116014954, -1.5954325680149388, -1.0018126457309224, -1.092319946211709, -4.262552443493943, 0.8939780793520176, 2.4504330942768693, 0.16058761036844582, -1.4664219682587987, -2.4847894598882467, 0.8306834919449921], [1.7473141368051586, 0.43697138404647845, -3.536294396126372, 0.12821735532684908, -3.2387453922965235, 2.409315717265266, 1.0292419035449916, 1.5889754399482043, 1.0251679764140529, -2.390706418824869, -3.5369043192076024, -3.369706897809432, -0.9513907321877894, 1.216660582222994, 1.1582495305329523, -4.566593534257524, 2.576930798693924, -6.375218505815446]], "bias": [[1.9985533433740557], [2.8722425374436376], [-3.6976978819259285], [0.6122063053141603]]}, {"layer": "activation", "activation": "sigmoid", "activation_prime": "sigmoid"}]}