{"generation": 530, "board_size": 10, "snake_size": 3, "input_direction_count": 4, "apple_return_type": "boolean", "segment_return_type": "boolean", "network": [{"layer": "dense", "input_size": 14, "output_size": 18, "weights": [[-6.253843298348802, -1.422806655151546, 1.899847737107741, 4.029733508813106, -1.7995518626774394, -0.5120208910867629, -2.3320255454017302, -2.8020406208712743, -0.4867274174595264, 0.9206322006759949, 4.20997611604462, -0.6373144369339351, 0.5141788063552958, 2.9422219529230444], [4.449610429207304, 3.49258676412621, -0.08141527317953312, 0.2266353498889049, 0.751153011889709, -0.1800342100726659, -2.246795280619555, -0.31648069070114404, 0.27446356396384664, 0.3462488240696926, -1.5699524783862175, 1.043474665107821, 0.5217644587487141, -1.3878718437208355], [-1.659848207325949, 0.5289051075243028, -1.0193943329219286, 2.087566320336585, -2.1574034908509, -6.018748555376914, 3.12969677112011, 1.179554303995974, 1.660623852050211, 2.140206519219858, 4.166199374928312, -0.5760227926095172, -3.2826377807280713, -1.9801919622804784], [-6.270242844076761, -1.9335520809316828, 0.5932751975954922, -4.026034411753347, -3.7613591666161965, -2.1587219200410583, 4.376308722801457, 2.6233345513397346, 2.9685849607264094, -0.1005250747589852, 2.138028090601899, 0.6351160097779789, -3.3034353712871267, -4.62969950798558], [-2.874090712066512, -1.2274343431636032, -3.6691575079404544, 2.7472682599110585, 1.6717002980111229, 4.982200852658002, -0.9035610615909073, 3.101107815244733, -3.2758953818798555, 2.554211216887074, -0.9452389476807691, -0.07297831311403749, 2.4415993686138324, 1.5052265426212712], [-2.530231014784305, 7.034118794733966, -1.2390515175524468, 0.02842190740833206, -1.413253182837993, 2.9855660801251362, -6.898034495437682, 0.8906607108569248, -0.0737727583118726, -1.4104778791762598, 4.878311974969, 2.0182405347468437, -0.31625012644179495, 0.025249494063552258], [-0.35181648612570693, 0.19938510057572678, -8.632719692937293, -0.510593510953567, 3.5373592847535016, -2.2113420707405664, 5.610726860739906, -4.682150110948646, 2.4761942581172045, 4.39976963733038, -1.757116253968619, 3.081163832826693, 2.9613601785708035, 1.4455102437867375], [0.663804609291206, -1.782524361324275, -6.864875960795541, -3.9116941162564016, 0.8616962461025728, -0.06045627748944517, -3.4996177511797852, -1.413901180752695, -2.713940341519574, -2.4914228549000406, -6.857947222305728, -0.37435585406163496, -0.21329331651498695, -1.8171350438118832], [0.7981990516801277, 6.294481655837801, -1.2777428877003552, 0.44934962847074666, 3.2822967873519975, -1.666991523271049, 1.940967185108056, -3.7519672732098153, 1.1880477237230143, -1.0779864253901048, -0.17546431302327026, 1.1980684445775007, -1.5765626684034975, 1.2751067288571354], [-3.5042678621805, -3.3941551664847878, -8.829055425516346, 0.33035293517035136, 0.8543864859676764, -4.5469659012791634, -0.862779401682287, -1.8120946280348114, -0.31900517444848386, 3.6590976959868486, -0.061399817783518884, -5.76626228987625, -3.7600382372373975, 2.409961375602591], [-0.02176226773880649, -2.0568265130341556, 0.5986991902586207, -3.018337024976283, 2.238970998658438, -5.578203180367231, 2.279833436194976, -6.212348084824, 3.525031632878271, 8.693604415362831, -4.002912142213833, 1.1280928895915254, 3.124810416075641, -7.692252717691308], [-4.6618360084947765, 5.272046728967618, 0.4170397712439681, -2.4000104398129105, -11.679143437906061, -0.35751482356790437, -3.7443072159580817, 3.0799285315590854, -0.8026240191582199, 0.08190845510392444, 3.9065577170412054, 4.385628809722278, 0.6768822424096909, -1.0699092660276504], [-3.3539125295319963, -5.129204990106078, -1.0845622600610587, -2.8229652941416665, 3.172762141333509, -6.078280645136629, -1.93938667886068, 1.9207432566098683, -0.897075610141018, -1.160185506643593, -2.3097982146461082, 0.20474572863449653, 1.897241422341386, -1.1247492866541893], [0.6659158743460949, 1.6706240737694835, -3.5982199313683987, 4.5832402324168475, 0.33816370164725473, 1.8263125432148168, -2.2760179082239045, 0.9865307263517539, 1.1349648099038054, -2.6901159168524624, -2.295113660928057, 1.7029309955551277, -3.2335787022460956, -3.9312615735103584], [2.724964087377752, 2.246627370967651, 0.5296801698787748, -0.44249947034836945, 2.7506938364352496, -4.7945434408796945, -3.284330874682653, 6.9879434879188045, -0.5149163680174581, 0.2835882842995733, 1.7398256349774748, 1.5246777434494994, 0.8793964058352081, 1.299866448952278], [-4.34606871306126, 2.98999804266721, -3.930449543216221, -5.708530204740828, 0.5412034956958067, 0.1698825428661046, -0.17115998314815983, -0.7980125137465177, -1.8372680954169884, -0.9700666428070025, -1.7448528394258929, -2.253404739735464, 0.22809618073861815, -3.8219653816941017], [-0.030777305874556224, 3.3509162024282455, 0.7819338586704346, 1.8895089053518108, -3.119025912568916, 0.1791940776529657, 0.3429013357937065, 2.6876371777846217, -4.195319678370783, -5.039335232947171, 1.6117419324651676, 0.41822020721395237, 1.5106455297729622, 2.224792045181137], [-5.899760501256665, 5.423181442848652, 1.185253575167754, 10.549500119116162, -3.0531007387305102, 2.4731109155615787, 0.269916090732479, 1.5070801842692096, -1.2707148108944435, 1.8619978339699168, 0.18349380992256648, 0.7118601903646575, -1.7392027559404102, 2.6637016575746078]], "bias": [[-1.0538211412382206], [4.798598663535554], [-7.491026334172681], [-2.5519668461419336], [-0.5031503497554932], [0.9854454622065537], [-2.0969877274592124], [-3.246187573700296], [2.469144236516172], [1.4682577422292742], [0.466311799289623], [-0.046854110014239364], [-1.2074851828661033], [7.800612812676825], [6.934735629184556], [1.5607232932413828], [-6.081935957700654], [0.6326946510699911]]}, {"layer": "activation", "activation": "relu", "activation_prime": "relu"}, {"layer": "dense", "input_size": 18, "output_size": 4, "weights": [[-5.193047631876695, -1.358178374508958, 4.832857586096963, 1.1539398909243415, -2.083259687319591, 3.6240726340425073, 2.0895238161367535, -0.2741786715652119, 0.340005626668218, 0.09635479218832077, 1.2567162727239656, 0.9140499167422598, -3.6623938473102675, 1.1747346327859878, -3.1824348346487135, 3.6983671860184835, -2.9800042368021114, 2.8437405731256815], [-3.0388572219808068, 1.410995019229739, 2.43542999288092, 1.9041792502373656, -0.9146297686655046, -3.693534717915546, -1.5427943005133882, -0.31653853749065386, 0.6895351063669546, -2.4914797384081027, 1.1839340065198125, 0.5951661083125936, -5.32357755294232, -1.2259050185525755, 0.8919193321785462, 2.1364876603607494, -0.6750378281720515, -1.3350214633217743], [3.2081823872104684, 0.6320497918869066, -2.126592672809923, -1.5298494986169224, -0.015001719771259081, 1.183033852831861, -3.5571779414580664, -9.982578219693732, -1.4140881152877336, 0.6515095827570504, -1.092319946211709, -4.262552443493943, 0.8939780793520176, 1.8488150919310062, 0.16058761036844582, -0.30473029857358225, -2.4847894598882467, 0.8306834919449921], [-1.041059507911188, 0.640490116193752, 0.18052020811493774, -0.4760740260063583, -3.806179787281513, 2.946698214310824, 1.340437813099126, -0.2647208862896986, 1.4025135390442267, -1.5380007214043994, -4.93577546556732, -3.680116723327955, -0.9513907321877894, 1.216660582222994, 0.7809361835175191, -5.08983110405071, 2.576930798693924, -4.432861221103334]], "bias": [[1.9985533433740557], [2.8722425374436376], [-4.492535484746669], [1.985914283930631]]}, {"layer": "activation", "activation": "sigmoid", "activation_prime": "sigmoid"}]}