{"generation": 434, "board_size": 10, "snake_size": 3, "input_direction_count": 4, "apple_return_type": "boolean", "segment_return_type": "boolean", "distance_function": "chebyshev_distance", "network": [{"layer": "dense", "input_size": 14, "output_size": 16, "weights": [[1.0704074249770794, -1.7184630292706442, 2.1231729976307276, -1.9114412138208046, -0.34267751328066115, -2.1033097052691025, -0.8002475650998551, 1.648375261638197, -0.1933846059487622, 1.3695429867626476, 0.22955027327472743, 2.1910554859751965, 0.0390409740966553, -3.143971978932859], [-7.095429270894657, -1.159703820486962, -1.6639356988127125, 2.5704072208113447, 2.311056758853822, 3.521696578384734, -2.6687282309862583, -2.4215155148165013, 2.499502837706432, -2.8827100871540376, 1.4604816796446531, -0.5822703546500352, -4.294854102980458, 2.7854432002732157], [-3.490319407508871, 3.6829243355601164, -2.8191504046533105, -2.6312650828164856, 3.643689795712649, 3.1722277865261868, 0.34509881667298403, 0.9241691752570697, 0.648605337339502, 10.758833746360704, -0.2694995917440707, -7.305970146043985, -2.5761793888421876, 0.45825336029108976], [-0.07605188946905939, 2.598871114069148, -5.093404017436612, -1.530297233881123, 1.8893064894524336, 0.49882126386393766, 2.2069330866971515, -4.254616884883032, 1.638817846202551, 1.1431672441526965, -1.5142898510010063, -2.487326376188498, 2.2822379974746716, 2.4984376202993706], [2.456891189220583, 2.170198236689176, -0.8011991428926648, 0.7732942258787348, 0.3609511720894173, 0.27544263006179104, -5.769487260163892, 1.447394873913522, -1.0997771726545291, -2.917850815332063, 0.4721531735570943, -0.27244395664504206, -4.847983843311356, -3.9215078167233264], [1.3415270806962014, 1.282009743368968, 1.0107054355909275, 10.497726609419884, 0.5657007326313694, 2.4156079718409442, 1.1647179434501533, 0.8012249042040777, -0.34003469012732623, -4.02868283599513, 1.2252649124153583, -0.821531783910998, 0.08925318956862327, -0.4807490722656542], [-3.3441880544155813, 2.8538167655436477, 2.8049968849231854, 1.6025527653693388, 5.356290124049451, -3.1254479246272737, 1.2524004284082066, -0.15104560119879773, 0.8019388966665086, -4.186406395241829, -0.6097780044206889, -0.5498174029623223, -5.219899905424816, -1.4310630664107171], [-2.6510867901102855, 0.2627311506032233, 1.4787550368178275, -0.6271154438047375, 2.5084883818758703, 1.4395551612193662, 0.6942445421031425, -0.2367348693334883, 1.1946492280447754, -8.492438161806188, 0.24772122182139986, -1.5815653638666347, -7.6927999276278864, -2.670441046158192], [-1.6701489904961835, 11.577630039882084, 0.06851178926546275, -2.984311119262151, -0.742014450511844, -2.5187342550489635, -0.5401169846648975, -0.361738035038464, -1.2860009219607056, 0.024278813508205377, -0.5438969695346194, -0.29953794448273385, -3.5135009384551124, -0.4536435323077739], [2.9037461149962933, -3.39112738139432, 1.8683698197568517, -0.9940559141503815, 5.584149048071808, -0.463072394339604, 3.558456146475379, -2.01050111347861, -0.8477348105049445, -0.8300181616746645, -1.6914989075295916, -1.9502933250037862, 0.8924205163688078, 0.4685068358695849], [-1.0291181600438022, -1.1130868507945826, -4.697033633582596, 0.20136741371260508, 0.9003488851590741, -1.0385279342681708, -2.969640610796593, 1.1494001235707834, -1.3872104457501357, 0.7648692614168766, 0.31902724750090317, -3.8867192554246883, 1.7758614413304732, -3.7188895181350685], [1.8802939147714244, 3.0544990766845173, -0.6195190644374726, -2.24117481615934, -3.1872592499959707, -1.2653955899924336, 0.6989945303746943, -0.8508526843566901, 3.6867909373758296, -3.9736231532264648, 0.9130206928155147, 1.191571441891259, 2.4839032806161283, 0.22761181977497597], [-2.277076524124449, 0.7441420510809966, -1.6698412395995506, 0.15815027227120038, -1.0237215316127937, 3.6324278923171884, -2.0295619000523164, 0.8208313203943928, 1.4928332608287749, -2.513302049134807, -0.841667488791141, 0.5137503471612667, -0.03505239506978852, 1.540315946717244], [8.806569316539292, -4.53823994090914, -1.829840899022556, 1.2854394286054034, -0.0811218667471858, 3.3738973471266407, -3.366839631344501, 0.7379080033034294, 2.235857953502938, -2.0003432474066187, 1.5176077093041647, -2.1050533842516024, 3.9576779074973083, -2.0529369845166228], [-4.576241762018721, -6.014208060689001, 1.6513602704820634, 6.947215231272805, 1.708174530844663, 3.7267164363567766, -2.2481884949365947, 3.842024556763554, 7.171097143638314, 1.4234668012501852, -1.1992739576270584, 3.811779973541763, -1.601435442846102, 3.4643486034455417], [2.391051057652522, 1.6017111795839258, 2.008516955225362, 2.018341136640748, 1.8310380694015806, -5.622779322588727, 1.7247121076446317, -7.061112357833073, 3.5579810101022353, -2.396556753085913, 0.9961801499104533, 2.1383747553140946, -6.144261281518444, 6.8232218334394865]], "bias": [[-4.347636979130958], [4.075092937028305], [-2.1628452823697897], [1.644430662077402], [2.6991550039924146], [-2.4015939877384698], [-2.66244238185351], [0.741491813705266], [4.153508031628837], [3.833568535321412], [-1.9506842562083029], [1.3071577516596449], [-4.907930460406479], [3.2409975873552717], [-0.49515026220789604], [0.35456756707337733]]}, {"layer": "activation", "activation": "relu", "activation_prime": "relu"}, {"layer": "dense", "input_size": 16, "output_size": 4, "weights": [[-0.8763431032533067, 1.8733530427507987, 3.0913368182663437, -1.6754982816217596, 0.4282290219726026, 1.0374360415061452, 4.3343478818637085, 0.4040601674742559, 1.1874000941812903, -1.4988453705541882, 2.2958298095821936, -0.5546143843071006, 2.903146375120034, -3.7664569496332403, 1.3249378661786018, 0.521031960103942], [-3.413172074921804, -0.14828142514259746, 0.37392737536915666, -1.07551767719538, -1.3442307983018131, -0.8333947804492874, -0.14172571080702284, -0.009205376687846406, -2.8374632796303243, 2.751251193490129, 2.0469921630409624, 1.7259882918067722, -0.8484823014043472, 0.8476473436210814, 0.04285179702153924, 0.9673935511262235], [-0.9707594242828277, -5.119001325415018, 0.2653906812889713, 0.2906284544821165, 3.129910111384255, -2.6391706269892037, -2.5574097005829866, 1.757849447174848, 0.7701692712032145, 0.8276051338443913, -0.0958691876300423, -0.6420985262189336, -2.3403285213587854, 1.1085578721822027, -0.7419273039679986, 0.9681170912506059], [2.273731788219487, 0.1330665157113529, -1.8803329918143745, 3.0379237827031433, -0.20255483903905047, 3.726946918557784, -5.240874120328019, 3.56038451742027, 0.7106663151341941, -0.3528626511824697, -4.314903062237241, -0.07953794700746489, 1.0782588937208537, 0.1565125347714807, 0.8373455531038062, -0.9635687627851212]], "bias": [[2.6519495793850583], [3.0056985014236055], [-0.9355587661534783], [-0.09912343197303708]]}, {"layer": "activation", "activation": "sigmoid", "activation_prime": "sigmoid"}]}