{"generation": 627, "board_size": 10, "snake_size": 3, "input_direction_count": 4, "apple_return_type": "boolean", "segment_return_type": "distance", "network": [{"layer": "dense", "input_size": 14, "output_size": 18, "weights": [[9.716971567259774, 2.878436587579842, 1.1140176241453725, 2.989100548919663, -1.045121293347106, -1.2268001987221633, 1.1220587404518534, 2.531855666216961, -0.7832926088517673, -3.0863862130744435, 2.088285698564704, -0.8959899657026804, -3.288693381282283, 3.865132303362004], [4.074482951696948, 1.7710906517955538, -3.3402170955459285, -7.031664959870722, 3.506920780353751, 4.7613638353813155, -1.78489498894476, 3.1870084615440852, 1.0693745575641258, 0.44200039232267985, -8.28909321265593, 3.672898862571948, 4.134763850519388, -0.5675251846139532], [0.11563166685580961, -4.393848663793875, 0.16689161399572183, -2.5458851787795598, -2.7363162539915797, -4.921009912182072, 3.0039582241616447, 4.43568948314408, 1.108833554672822, 4.745241108455267, -5.158709803702104, -0.40471790616219067, -3.470509003028624, -0.49618229324568003], [-0.18251220944993019, -4.313175238870459, 3.3135141305475444, -7.584851161675855, 2.3631679213822627, -0.7583875988273477, -0.5753380859186926, 2.101871799065858, 0.8539055141865777, -0.05296324306516831, 1.3982744518310297, 2.352477315557004, 3.704153399944232, -2.013818196627897], [-4.9245954968957815, 5.19225279640129, -0.13581476862733594, 4.239445780345573, -1.0050000008494069, 3.0066173093804576, 3.2947935879072974, -6.154899466407335, 1.6288080579459403, -7.0409432114311254, 5.520559995152594, -0.2791979924182295, -2.757541650026791, -1.4524173124386697], [2.456326230735689, -0.5555580069677168, -0.010780060695437577, -5.875661622344349, 0.9415241281082183, 2.2778329215759565, 1.0876736594859011, -0.20215941232367696, -0.18365752326061452, -5.010430923672229, 1.3657199106939433, -4.988993652484915, -0.9663477414135417, 6.282671075124098], [-0.7313681076537132, 8.138868748631925, -2.0114318063636554, 3.7432777274272038, -2.364098398361726, -1.1593865724587844, -0.23304734578796105, 0.14064616245792955, 4.412432788469851, -1.4592715400719043, -3.6730448553504598, 0.7611212082881685, -3.626688991613746, 1.695392711187089], [-0.8960573353984304, -2.1282216921811816, -2.8981779808261763, -0.12731115311157232, 1.6943789309097246, -1.7899080983497322, 8.73259385561677, -7.815686564886959, 0.5907921989426612, 0.03257504763187047, -1.0922577764308206, 1.4622510897902967, 0.5815199914371972, -2.132828253146338], [-1.5345292333023974, 2.4776384962851887, 6.280227656177697, -5.421963456104732, -0.9070576480990831, 5.363712338046639, -1.5450444377030994, -1.9764953497269544, -2.8221423092611357, 5.29165778568993, -2.6379880035860492, -4.536179820631588, -4.524314859564856, -0.05611534257713058], [-1.8245940128403528, 3.499539878780406, -0.8635721380968773, -3.958138066304825, -0.03049066778219678, -7.950770338061224, -1.334793774102601, -2.353442682268369, 3.326451893254232, -2.0332823510735873, -0.1389566229869308, 1.072598623910535, -2.1090619930683174, -2.378797780572728], [-3.2770422017078236, 0.847692319990764, -1.7495064409928793, -5.7765703188909185, 0.5909386275242481, 6.314193329439435, -1.58588755382086, 4.947104790074076, -1.3419334731467671, -7.227326477804628, 0.622777394400313, 3.8772825783581206, 6.945389336017541, -1.4625841352352962], [-2.3028206934701982, -4.115569310415239, -2.8831224868055125, -4.2734191311015595, 0.4492880740782069, -4.718453823294517, -1.4630892561019413, -1.789870307116145, 7.888604001888765, 3.558625922876912, 0.4765640705960906, 3.227343672156103, -4.824529361827455, 2.3600078091454275], [-6.042053807322396, -3.212894831341476, -2.757165888826729, -3.5616523760991674, -0.04731174451717546, -2.8433764485652406, -1.8978894837356615, -3.408496165222361, 4.4115649860653745, -4.142611212265583, 1.2217232557444855, -6.813279841759908, 3.3388078300238577, -3.9681374242227196], [-7.89386227646088, -3.1777143467872557, 4.9426604847528415, -0.6017915551686268, -4.564515872051598, 4.696838544278534, -3.009643068221296, -1.39617215242168, -1.6291105981834297, 3.3481437881549496, 0.8108965504829906, 2.842767044953585, -7.25535390598229, -5.42528306052567], [-0.0888732690312466, -3.796943982443023, -3.6507216366932953, -4.089975695632061, 1.2683695804808897, 4.773967633426233, 6.87408852110884, 6.866068919477753, 1.6864533470687577, -3.6405587305563865, 2.699777211582163, 2.984380437055982, -2.5028099840114875, 1.454226238157075], [-1.5737898718236205, -3.066143362232856, -1.5605857787952955, 9.116568339789026, -0.23681583080917346, 5.898074983399154, 1.1234776852142732, 9.827600566737617, -4.159396030166106, 1.5038389047514178, 5.87579528338472, 5.6016414668990215, -0.022027654998749924, 6.599773678061036], [4.203840698684351, -0.39277453494511205, 5.342190071655823, 1.9250774224177882, -8.345076418638662, 4.132849751061445, 4.276132268228217, 0.48319038183288976, -2.5065895730654693, -3.3376478345515683, 0.35536332751470745, 2.2923485500111114, 0.44959463164097996, 3.3192342215609143], [6.910682059783022, -5.7300793387798015, -3.7291450010437455, 2.1404108443565844, 0.20403915872656808, 0.8382976755740565, -2.1364436167173264, 0.5197567650000317, -1.7434266395270666, 1.0897631518924682, -3.824822573698564, -0.8569729127644592, -1.4665185260638771, 1.7032318025769044]], "bias": [[-5.348567294106527], [-4.468130539321876], [1.3543430733872774], [0.6276161979852557], [0.8223257887967448], [-1.740234063490284], [-1.3662738170936368], [-2.8964311960076], [-0.7884909974339078], [3.8142782478567256], [0.5857298587697546], [1.3293104349391802], [1.9032418962371935], [-4.238250776624402], [-2.1059946481551606], [0.5731600774722658], [3.52686463987602], [-1.2516672995455496]]}, {"layer": "activation", "activation": "relu", "activation_prime": "relu"}, {"layer": "dense", "input_size": 18, "output_size": 4, "weights": [[0.29351213566745427, -1.0378851242965033, 1.0723597660226984, -2.996705695482711, 1.0288641397416927, -0.20042483800968114, 4.7587565594234595, 6.452829657441583, -2.6616009833007905, -1.546870094554496, -0.20623998147543626, -1.0650422384305622, 6.3808538714798235, 3.9284172221173073, 2.193378025276959, -2.0122714376637916, -1.8029996937538135, -2.541303784146781], [-0.46551877067145553, 1.563078569313607, 3.297029135449619, 2.303757019824761, -0.49129688786426695, 0.5929741534996233, -6.164232282090447, 0.0016937523318363845, -0.6912116562977388, 1.552970264787343, 6.560192579020644, 0.8276359590847515, 3.327633393816164, 0.5041230345820784, -1.0678342370282843, -3.198780846222759, 0.161742075489931, 0.16683691842600112], [1.2223709342140912, -0.876855758435838, 0.7501715497902989, -3.6446021267536333, -1.7946885949739015, -0.9425792208870909, -2.806342988684671, -6.220935667142808, 0.8454997959438736, 0.48077162055170697, 0.8839781131010838, -4.217087318235817, -2.833417291433552, 1.2562751151447058, -0.646285219292055, -0.07882762966333934, 2.14320487576414, 1.0407907478397576], [6.413867132112973, -1.5077783947441685, -6.58800834524476, -5.201986046383482, -3.096382443743828, 4.597455128249342, 2.680641893949285, -0.6282990400170245, -4.2551767707491095, 0.5290406327354634, 0.6895760617503762, -2.5476640193163216, -1.5207818023045827, -2.836058426478825, 1.8771021283947444, -3.0730947613872996, 1.0676128785565093, 3.5895871603099225]], "bias": [[2.48840514404335], [-0.5917422738516136], [-2.897099917750108], [1.583029996450226]]}, {"layer": "activation", "activation": "sigmoid", "activation_prime": "sigmoid"}]}