{"generation": 503, "board_size": 10, "snake_size": 3, "input_direction_count": 4, "apple_return_type": "boolean", "segment_return_type": "boolean", "distance_function": "chebyshev_distance", "network": [{"layer": "dense", "input_size": 16, "output_size": 24, "weights": [[0.5300796330859849, 1.0686441985582547, 0.7118052793025934, 2.589611214824394, 1.8015653047813704, -1.2090952519723313, -3.216411826725845, 3.8758021058015095, -1.3567855175361696, -3.301043484119527, -1.8918696645656325, -0.35330534663358915, 3.065794426881259, -3.357616596040217, 2.419673465471111, -2.381569719005914], [8.839363469123306, -2.4131906590093397, 3.547836215977513, 1.4454272023194212, 1.3451904140660353, 2.154003570916032, -0.13768976088640444, 11.215602525431065, -2.763322908561711, -0.5214384998298087, -0.048552680464401865, -0.9772890106432659, -1.12509406042015, -1.3810672357668006, 6.33638629817921, -1.9948608273192545], [0.7110136147726369, 0.4969477048624548, 1.7996401768762609, -6.664696599021553, -0.3959810472781544, -2.052403967864779, -0.5419962799245512, 2.7091041583458986, -1.7746587873556328, 0.3630872631651211, -7.391759695383491, 3.777764844963546, 6.159717294572897, 8.238014749219145, -2.0950463227085336, -6.0288275700608125], [-2.693118908098755, 3.946838217709239, -2.2558668092023124, 3.2113807840686386, -1.8314123933951172, 1.4223213687694378, -8.987770938366307, 1.7521023367419242, -7.168724389044448, -0.9541138780263767, -1.5843871162543677, 3.190780746438499, 3.957120230504321, 0.34577613415092123, 2.995872498831233, -4.5011304137955666], [-4.9205341695699145, 2.7521671707652215, 8.650184674556417, 1.0456475795585032, -3.395090017992135, 2.346399749855791, 1.2606326043446405, 5.216030059738385, -4.061081660150293, 4.291244618512921, 6.121674315203446, -3.09538531465652, -3.7233459433584475, -2.036408543084556, -7.2241498122275765, -3.4854461759321973], [-0.6559842465552647, 1.4382064580466742, 3.2069919170354964, -1.8959261260869258, 0.12701738027661577, -6.386675345403627, 5.141888240329505, 2.2994975150805375, -2.8269088480961977, 3.6901717361896287, -3.2940335962092546, 1.0119423225148256, 2.8035213644467927, 2.8641074577648036, -4.619129455069901, 5.0547930557367655], [-3.36358719092308, -1.5338931990071902, 3.9976545908236587, 2.040287074827762, -0.273713061123786, -2.032123248943466, 5.1244039747279935, -5.34247127847488, -2.6166250886128615, -9.856991597273206, 0.11479849632220121, -3.405782774878737, -3.922711973000905, -2.5433868793038084, 3.9509585201367488, -1.3520759005917156], [5.2534335349167565, 1.9076810483029032, -0.4178200524634291, 4.427412863522292, -0.9279629569181996, -2.897675803237882, -7.8722377542304915, 0.21569764923059953, -2.973726693983008, 1.0031447921731829, 0.3092817684245091, 3.771209932523542, -9.825531230677518, 1.259158026499379, 1.0697954294123622, -2.3671507550480118], [2.853466819560667, 6.473767261541598, -2.4041798059721033, 8.157845531577543, 0.23148519102185078, 7.49277893349246, 2.972345081172618, 2.412546964447382, -10.17545012580381, 2.0236380209865232, 3.509685136042286, -6.511143452721479, 0.11584864371911974, -2.100006390649903, 3.304167706953188, 2.504705477308174], [-3.688532637285989, -0.7889792626608629, -5.8676015197841, 0.18862346529102147, 1.3584533432198627, -2.5806002018532537, -2.268431852009427, 1.031630339555534, -5.733769340411553, -6.740348235262249, -1.5627913832160605, 1.7335249282084422, 0.8998544690576109, 3.1591618853782535, 3.1552244007070387, 4.959634461873591], [-1.3052063104203246, -4.043174335541265, -1.1947454507447108, -5.681571539577358, 0.10736002834605218, -0.8000143440662336, -8.420167338309945, 5.224026044315328, 1.9488008473434582, 2.0561419412644506, 6.151698673539182, -3.5113775745337534, 4.342218834128252, -0.9991880265493267, -0.9123124687156701, -1.5252790655606723], [5.446967231691156, 1.9828809525681514, 1.228551604273037, 2.8098291528526893, 3.107983028356059, 1.083038931666587, -0.9413720045098986, -0.842983323761978, -0.26531647367341815, -3.408323705335803, 5.36152188052698, 3.454080054357715, 0.26799428989799373, 1.1224326012196078, -1.244613590005542, -0.6737333874498549], [0.46653383261826004, -0.4989875662263318, 1.6984999183156306, 1.1015685831357533, -4.054884713730452, -4.794154188734958, -5.097709152545302, -7.379796258307739, 3.893007425570817, -1.7732120150978299, 0.6553453926157776, -2.3755214303115904, 1.0292862071599471, 1.4511408523667528, -4.287295692741845, 0.7222513420128699], [4.458943427926313, 0.4117109542930262, 3.683507482358047, 2.265160065843155, 2.44027625864907, 2.6814659459790273, 4.376765591462535, -3.8642282340944956, -0.007631020227087226, -10.032760862548825, 1.8127105656694136, -2.1364077590600816, 0.8481945251424066, 1.8852706072054386, -3.828499403387282, 5.912664366165867], [-0.9541549501901028, 0.4634861637688252, -6.217889651873302, 3.628076737480087, 3.5254785506693898, -1.9882450375573741, 7.2587079336457085, -0.400058472329851, -2.872854948574469, 1.6348149388248276, 3.2901218459811736, 3.530319965162754, 3.1946941712102523, 2.3717463614733028, 1.3421841219797055, -4.661061296503347], [7.347795435909149, 3.2618539369375346, 4.580990852964689, -5.970653494137833, -1.6641921174071133, -5.954520360803629, 0.5079383529733883, -3.7431248774269195, -2.3268749584019646, -1.2606362907255693, 3.689419886381489, 7.7916253419419474, 2.411070613098088, 3.087605108359815, -1.015592614468102, 7.144146047612597], [-2.6318592586341425, 4.311961011435364, -2.4732070935945716, 2.6877273696495316, -1.8632872180497966, 9.025447314255755, 2.3420401664803734, -2.4004590748546466, 6.1737457169752314, 2.72111616523405, -5.421741784503149, 4.639534111856149, -3.8520112178162824, -3.3086242992693466, 8.153905899501936, -1.9165074794705048], [-4.352781845995773, 6.025964321076465, 0.29348855560689, 5.324288304145668, 2.9522016433256595, -1.6102689581258054, 4.730542191410267, 0.0031648745058630023, 5.5651031228236985, -4.365798067066801, 2.86286087193385, -4.982651042719755, -1.7306245297396612, -0.8199953111795006, -1.3857195796168913, 0.5366895789159729], [0.44936946513078224, -8.269148094678448, 1.32717706520482, 0.7384642987331369, 0.9602390780119527, 1.6439998311965072, 1.1020169807321925, -7.889068590407025, 1.4319673699141395, 3.5731467190746766, -7.177844217204273, 0.3265032293461356, 0.5174940640250735, 5.578152281318578, -6.779516967415746, -0.7036235987645673], [-1.0765674796411644, 2.8742039996982407, 2.4552845344184853, -4.02064221303639, 6.048175320209242, 1.0117936977280995, -1.5320660876497447, -4.538820141633749, 1.3484186833461855, -4.356399938249672, 3.655887522050977, 1.5779330409627166, 5.139749065399117, 0.2541537565166394, -0.9016200583583068, -0.9108693867160849], [-7.234766177855789, 2.2922353073907726, 6.250777634780489, -0.3490831786491495, 4.323362222454207, 0.14788665914825105, -2.243665072014489, 5.980885483582538, 0.330376096391531, 3.9112831282464824, -3.029824943520116, -4.928569933807699, 0.35701345912973526, -6.588679443071861, 3.435571910520267, 0.016109547496790277], [2.077440870556757, -2.689760624693581, -2.4086144839942514, -5.34713394009058, -5.084425158557168, -3.883253651268427, 2.4386082576014863, -2.894357433551556, 1.7983150677616802, 4.942247585853266, -0.039942649466798485, -3.4661358821730417, -0.549144054497001, -2.6651778764871987, 1.9472888973684028, -2.9359461541375977], [-5.294870250175862, 1.0975832277673827, -5.250016548237239, 6.2721671208905585, 3.4186326261017768, 1.3634885030891817, -0.008181065278489497, -5.782796272490053, -0.6082093952920558, 1.3821865140969545, -5.950527290519401, -1.6329898376877099, -6.362020516249918, -7.020057880227056, 2.182213070705105, -6.8849788460963515], [4.59154794594197, 4.455594051210088, 3.6196254072051364, -9.429308591068615, 5.2135822159602405, -0.5945555619220555, -6.433750246472802, -0.7636456694096482, -5.578607949169768, 1.0759649811658072, -1.0190733034325397, 1.1637339484769598, -4.98883255392709, 6.420914415467434, -4.264776501341991, 1.2556625255211027]], "bias": [[-7.711397329054829], [-4.012218425504834], [1.1547632585665566], [3.6116220878607503], [-3.0088466945347503], [0.5477979554809179], [0.4152337446292851], [0.9360718385350296], [2.7878872647334254], [-4.73464660732171], [5.200988362702695], [0.705231363556145], [-3.063034844748816], [-0.1848818165132773], [-1.419981783825912], [1.3606432224154026], [4.794266028000365], [0.9776721017724068], [-8.139331806635383], [4.484260046459911], [-0.2172990532877912], [4.3604126130894665], [-6.36601602807602], [1.864221424948624]]}, {"layer": "activation", "activation": "relu", "activation_prime": "relu"}, {"layer": "dense", "input_size": 24, "output_size": 4, "weights": [[-7.149298029950291, -2.4014633566452073, 0.8119069936641415, -2.6708756209986753, -5.0671935341276715, -8.150514221975682, 9.730436149710197, 2.9575366530616165, 1.9479995695777168, 0.8264857570178259, -2.4306546915393916, -4.242495927846437, 3.2316926496050087, -2.790420306732533, 0.6569298062751245, -2.8777913205294854, 1.0212026987219414, 1.6640087399052625, 2.7476944486713455, -1.335731814194666, -5.296415902311301, -2.273248895706714, -1.993903145721979, -0.004559820063027853], [-0.39906308100218546, -1.0352805153526856, 6.077798192202259, -2.3827574215965757, -3.1086839815579275, 1.7898544742893527, -4.933963584024422, 0.39359393500411277, -7.496552306856108, 3.911363404465149, 2.5671545682118504, 2.442628248373189, -0.5042477884125165, -8.978612868426795, -2.3300136353675414, 2.823951577198293, -6.350107876786382, -5.434774895429374, 2.0643946345470816, -0.8013101265838036, 2.689825412732235, 2.7176481234630243, -1.7898604582991509, 1.0859317570946683], [-0.4607795982129318, 0.6832473588964325, -0.3071125131147058, 9.642157417890116, 1.697099898691595, -2.3602295862807945, 3.4144747545612413, 7.988995146872867, -0.31956960834212983, 5.392063557814243, 0.6752271420705002, -8.502618279816382, 5.385460094953146, -4.207543217740023, -2.697913949741458, -3.819901041021702, -0.09898559393261874, -4.493662648882969, 2.7671468472071536, 1.4244263571537623, -0.16336317819993007, -4.119204299118773, -0.9765575896175267, -0.7189154962834798], [-8.38063312589965, 0.956936536132401, 0.7996363678338023, -1.4755117870717391, -2.5504983728105834, -4.5077583689717295, 6.218451178418009, -6.179093298203025, 1.132597696174914, -4.452538849922023, 3.5043352373193346, 5.677512477790986, -2.4939664076320134, 6.573844495058829, -2.6077171306747378, 1.8753745142986538, -7.863789839074716, 3.580038632374352, -2.062736314398498, -3.5794460293449886, -1.3405702206388124, -0.5195489333791704, -1.5384178015925158, -7.066268079247107]], "bias": [[-5.035339323648664], [-1.5153408349137734], [-0.3851944792736939], [-5.205948496200943]]}, {"layer": "activation", "activation": "sigmoid", "activation_prime": "sigmoid"}]}