{"generation": 483, "board_size": 10, "snake_size": 3, "input_direction_count": 4, "apple_return_type": "boolean", "segment_return_type": "boolean", "distance_function": "chebyshev_distance", "network": [{"layer": "dense", "input_size": 16, "output_size": 24, "weights": [[-0.42151736171806153, 1.7753964075375597, 0.8113411093660271, 0.5115442758075406, 1.32826417564106, 0.6478196902210241, -3.216411826725845, 6.579734903622827, -1.2859375960510864, -2.54542579394841, -1.8918696645656325, -0.35330534663358915, 2.8923734031642336, -3.5858901369575573, 2.5715149421796926, -2.3157571460910207], [8.091741385177842, -0.598885969708324, 5.182829248546452, 0.2519870603132709, 1.7036175113429373, 2.154003570916032, 0.8334587377113751, 8.813568742081024, -2.4228975968383324, -0.2534090034932045, -0.048552680464401865, -2.1865298040094516, -2.712625928639599, -3.044115100933095, 6.309905755694125, -2.9804659907343365], [0.009073017935117056, 2.212462990146535, 1.6817282983242339, -3.1574300282896273, -1.1640738951796836, -2.052403967864779, -0.3284265532164288, 2.543713614156092, -1.9843095560803263, 1.51795236931023, -7.216807066466003, 0.5573392429506168, 5.107567427504248, 7.738359201351816, -3.2530210033064164, -4.727929521692502], [-2.038128659119357, 2.1700369154552166, -2.2558668092023124, 6.408196549074713, -1.154096923157698, 1.4223213687694378, -8.031766802051425, 0.7049843037303216, -7.168724389044448, -0.9541138780263767, -1.5843871162543677, 3.313862972305464, 4.170648151180812, 0.5780468560300001, 2.995872498831233, -3.756016610340733], [-5.57244123805974, 3.203236197939023, 8.840324353585606, 1.4323843716358937, -3.8848838854263774, 2.346399749855791, 2.3013088159939925, 5.216030059738385, -4.824999174118438, 4.645014838098916, 4.990309122435851, -3.2454465575133082, -3.7233459433584475, -2.484275594000528, -6.833466313966114, -0.5238647744589854], [-1.6430358913966026, -1.1068083778936262, 2.1067254468719017, -0.618862690972897, 0.3667521387020025, -6.481001872882458, 5.081198463670676, 3.627620024780636, -2.8269088480961977, 6.381142314112736, -3.2940335962092546, 0.3881442619753631, 1.6218475520534232, 2.105744498466305, -3.3489945906122855, 4.946278697400177], [-4.955274097488363, -0.43633254739611105, 2.9183383958807063, 0.6695885518009905, -0.21299358599552365, -0.20655588916238687, 5.1244039747279935, -3.0626237332827664, -1.4088523136444884, -9.856991597273206, -0.9224596967114839, -3.405782774878737, -3.359130480321914, -2.5433868793038084, 5.036651704196846, -0.1896314741165016], [5.2534335349167565, -0.2697004777436329, -0.4178200524634291, 8.488565155215404, 1.446305683985671, -2.622841031352869, -8.465869123726854, -1.9795040728184476, -3.494747427447246, 1.0031447921731829, 0.3092817684245091, 4.431412374580491, -7.825218109366521, 1.2061923983765745, 1.0697954294123622, -1.3801082719824977], [3.0928476797743802, 4.746443683628176, -0.6424340929394295, 8.157845531577543, 0.4342154804313974, 8.334338243149215, 2.094049864860205, 1.3796650469383822, -13.771538835402607, 2.0236380209865232, 3.8930832525817607, -8.740265104548378, 1.0321822021944091, -2.100006390649903, 2.779476611144319, 2.7855320821062053], [-2.3665498293637963, -2.297036667986262, -4.431462039170652, 0.18862346529102147, 1.3584533432198627, -2.206424201681126, -1.4144067226642525, 3.3496344279826684, -6.950469163635108, -7.446198199270951, -0.4386280449326098, 3.2315132622902736, 2.0532731979765044, 2.6074894802697584, 3.1552244007070387, 2.4821529296990574], [-1.9923094480942118, -2.61421066223524, -1.1947454507447108, -5.681571539577358, -0.49400102613212865, -2.8001573912601563, -3.4297280639994994, 5.41212133400132, 1.9488008473434582, 2.0561419412644506, 6.75902766971463, -3.5113775745337534, 3.6506129688541455, -0.0571304720477398, -1.0877046018391212, -0.6118586825753636], [2.9028462667996067, 1.9828809525681514, 1.228551604273037, 1.3448236297770069, 1.8524200447042969, 0.9404934703727053, -1.9333882362943424, -1.2246606916332556, -1.897991542377842, -3.8975288144229205, 4.5939479318673815, 2.6480648979739074, 0.0028460258389944038, 1.1224326012196078, -1.151946614892006, -1.1356202955033041], [0.7558368858990798, 1.5943806890207313, 1.2194939218700762, -0.9094322817001097, -6.6270043758265516, -5.060676248112581, -4.852187699626009, -8.507779659396935, 0.909299789201264, -1.7732120150978299, 2.7264770326852332, -2.3755214303115904, 1.7247230394194513, 2.4750260661389483, -3.9019360732094093, 2.483028817721805], [5.83517669909558, -1.3081625921708229, 2.9329848137978356, 2.265160065843155, 0.838654424682707, 3.6062797394045374, 3.662900641051335, -4.819047743369126, -0.007631020227087226, -7.207449221012811, 3.0550952837359118, -2.6846209620320134, -1.6290032523529767, 1.8852706072054386, -3.053530671654393, 5.349599615121122], [-0.9541549501901028, -1.1879812305825848, -5.4463392541409545, 3.628076737480087, 3.5465143817832314, -3.406942758496145, 7.977753602653454, -0.400058472329851, -2.872854948574469, 1.6348149388248276, 2.2013534280274105, 3.747799379429266, 3.1946941712102523, 4.057233587663304, 1.3421841219797055, -3.9810005668341275], [6.734532512083908, 3.547387514463656, 4.466855543548963, -4.622502738811037, 0.5025778686258516, -7.034827249034309, 0.5079383529733883, -3.3630857336054403, -2.029077026956378, -1.2606362907255693, 3.1409185680067555, 7.575636107765465, 2.767891077388967, 3.087605108359815, -1.3287393846147584, 8.180460616235019], [-2.044507386145469, 4.311961011435364, -1.9580897805217663, 2.7512313316133348, -0.30954190606831533, 9.025447314255755, -0.3878522852139443, -1.5717639992725159, 4.660384110004519, 2.5622235672030538, -3.2617303331966, 1.9824509279383147, -3.8520112178162824, -4.03234885233949, 6.564905744958593, -4.643833251769133], [-3.3100344673191766, 4.4983450340497075, 1.1530784484092593, 4.9354012918888195, 2.4877885533219377, -0.803612233756932, 3.5961775648500347, -1.05924888843285, 5.627172314097511, -5.181736526778616, 5.52375434519467, -3.9889837096427634, -0.7983973434634887, -0.8199953111795006, -2.007618025095931, 0.5366895789159729], [0.3083429350478213, -8.116540831639668, -1.354019572192089, 0.7384642987331369, 1.1898257180770382, 1.6439998311965072, 1.1020169807321925, -5.773517562302821, 2.0619011375951084, 3.5731467190746766, -5.954075114913239, 0.7523251618329878, 0.6375694586784422, 5.200737359436711, -7.065187551272296, -0.9450027866628212], [0.35826390210478487, 4.486206101643386, 1.0333504108073703, -3.087134491263347, 5.449104440139122, -0.05784911088825708, -1.5320660876497447, -1.354535003600863, 1.63262681595686, -3.746209164703552, 3.840746370329968, 1.7113133601614825, 6.075400583741777, 0.2541537565166394, -1.7109019108195942, 0.42447777857442437], [-7.102350821268275, 1.6227040667931787, 4.704591808403393, -0.14260771983950193, 4.323362222454207, -1.436911280953788, -2.8454069291220376, 5.619118329692621, -1.701023971021101, 3.3439898549446396, -3.029824943520116, -3.403329583034595, 1.1452136083564484, -4.786226830219913, 1.5714527603302135, -1.3254937623373753], [4.738634905530771, -2.5409917954258825, -2.300825946400205, -5.017152086044702, -5.4280676093539455, -2.9049915677020457, 2.565986999443103, -2.894357433551556, 0.6042525296742207, 3.6410252818468494, 0.7742593410553453, -2.6796706392956597, -0.035119249467821856, -2.6651778764871987, 0.386179354780529, -2.9359461541375977], [-3.2121746671226017, 1.356823610738135, -5.309902708517397, 5.437175875149851, 3.9814392630052127, 1.5932550651232447, 0.6740513668574648, -5.782796272490053, 0.31204684839280583, 3.5535498537390278, -1.910568752050423, -2.452193898767857, -4.573618569864398, -7.020057880227056, 0.3062284771305239, -4.030903687766376], [3.265919623586917, 3.7736985669166256, 1.6011559838623715, -9.901635295924368, 7.467806604955581, 1.2103197576229396, -4.699960693901714, -0.9598277744913299, -5.764037595610042, -0.19306462160325166, 0.7435154520669814, 2.0458177757517264, -4.842506857982908, 5.368849389059852, -2.1482293624411533, 1.2556625255211027]], "bias": [[-7.711397329054829], [-2.216377470034526], [1.1547632585665566], [1.9034196641642862], [-3.0088466945347503], [0.2868382891337031], [0.8111192669991043], [-1.1877289600740435], [2.1015417551077946], [-5.042978569382139], [5.479114748472821], [1.0468130140575218], [-3.063034844748816], [0.04757267894012135], [-1.419981783825912], [1.2428273473167146], [4.993665139579512], [-2.466224609870444], [-6.689664137168929], [4.484260046459911], [0.862315959359786], [3.0578203532363153], [-6.36601602807602], [-0.05873264827204783]]}, {"layer": "activation", "activation": "relu", "activation_prime": "relu"}, {"layer": "dense", "input_size": 24, "output_size": 4, "weights": [[-6.722480587155163, -4.215690700682733, -0.12340123778159956, -4.023317667014086, -6.035352310487732, -4.54028999791938, 7.840507246806068, 3.1325552909126184, 1.639827638516007, 1.9924111606442878, -2.136258754802791, -4.242495927846437, 2.270336252236269, -2.790420306732533, 0.6569298062751245, -2.626140838194642, 0.4408162394538909, 1.7865535665526382, 3.6636170451306738, -0.36355052318504966, -6.430434811272832, 0.03567780339572518, -1.993903145721979, -0.004559820063027853], [-1.5828227360074192, -2.9668603504942967, 5.202450901006563, -2.5619764880208806, -1.992719615371449, 0.3936603845778497, -5.831442481240116, -0.07187616111432124, -7.496552306856108, 1.0082893121479761, 1.0989363305077666, 1.8548501645202087, -0.5042477884125165, -9.926704667912427, 0.1668261790337544, 2.823951577198293, -7.024671330061167, -5.159960815305151, 4.1142751687417665, -0.4396749904785616, 1.2378482348526183, 2.7176481234630243, -1.0137097533891168, 1.8485456781690341], [-0.4607795982129318, 1.7977708421553176, -1.6561440295026992, 8.534486015291048, 1.1217384112579438, -4.689313423250732, 2.9843376323658095, 6.973536167161665, -0.31956960834212983, 5.392063557814243, -0.37325568268329534, -6.643262448170679, 5.385460094953146, -5.275559855024449, -6.919260127454255, -4.863649619831439, -0.7842157721300619, -2.383899572658132, 3.8428280320697303, 1.4244263571537623, 1.3609964368816787, -4.838099864908938, 0.6662311600979589, -2.014961000688726], [-4.826080192488343, 0.956936536132401, 0.7996363678338023, -1.1520442779310953, -2.0750996667210644, -6.19494813219857, 7.06597787525599, -6.179093298203025, 0.7830055994006053, -3.9555856621272882, 3.422708562664834, 5.465278584906478, -1.5427801512695092, 4.286426367543048, -3.077114041179243, 1.8753745142986538, -7.863789839074716, 1.4821825723127715, -3.374314855636741, -0.9417141560549731, -0.5598393546881352, -0.7013032017768911, -1.1384118024370091, -7.045035108582372]], "bias": [[-4.861140018008957], [-0.2288075856082118], [-1.0184945906865606], [-0.680680080291781]]}, {"layer": "activation", "activation": "sigmoid", "activation_prime": "sigmoid"}]}