{"generation": 489, "board_size": 10, "snake_size": 3, "input_direction_count": 4, "apple_return_type": "boolean", "segment_return_type": "boolean", "distance_function": "chebyshev_distance", "network": [{"layer": "dense", "input_size": 16, "output_size": 24, "weights": [[1.3549852911719886, 2.8000166593275213, 0.8113411093660271, 1.8908637050036674, 1.1583760288879237, -0.793072440593437, -3.4684026415018923, 6.268989332759752, 0.6703614958812958, -2.54542579394841, -1.572014779008833, -1.354984986442621, 2.8923734031642336, -2.0047095695599344, 3.797315232398655, -2.3157571460910207], [8.177294323797808, -2.8793124732116895, 5.182829248546452, 0.8200242409200666, 0.9724046443463187, 2.154003570916032, -1.1156136330151112, 10.41275633747466, -3.523559975906087, 1.3162527352614073, -0.15681412625985097, -1.664690270372154, -1.7763401934947762, -3.044115100933095, 5.634788925599931, -2.9804659907343365], [1.0736522599627971, 0.27813365894798703, 1.4996318550194319, -4.840950467713439, -1.2139687976109776, -0.7719458300978688, -0.11571134063276, 5.59451665068263, -0.7386552185667155, 0.6600454529114181, -6.542074289261645, 0.5573392429506168, 5.2920297800697345, 8.976075361050846, -2.96208073487454, -4.29973754236539], [-1.875332533902318, 3.2009159485527823, -2.2558668092023124, 7.625429825573007, -1.524392062829875, 1.9546132720262162, -9.17959939374706, 1.1860904195115758, -11.218587681315608, -0.9541138780263767, -1.5843871162543677, 3.1353957704508977, 3.6946290323413296, 1.6376520212793138, 2.995872498831233, -4.621936231960924], [-6.837044706274315, 2.852426869208312, 7.64062852038328, 0.984383733422936, -3.8848838854263774, 1.8576612310479912, 0.9191288402893205, 4.976292975195961, -4.386294134332334, 4.645014838098916, 4.242780130289411, -3.2454465575133082, -3.7233459433584475, -1.823475495954046, -7.909487396893294, -1.9140497466113964], [-0.4505798816784529, -0.6024422897144845, 2.5125913086833487, -0.7776023332964381, 0.3667521387020025, -4.876456431134176, 4.268892276099461, 3.627620024780636, -2.8269088480961977, 2.669278065851003, -3.2940335962092546, 0.3881442619753631, 1.4112888538864514, 2.105744498466305, -1.9705751652658003, 4.987428880510672], [-1.7848479304715426, -2.26043222658408, 3.9976545908236587, 0.3737849168041629, -0.7151995306741149, 0.6990568841587014, 3.1764876404680944, -2.8060350812371873, -1.644305690777858, -9.856991597273206, 0.11479849632220121, -3.357052071647074, -3.3186685597041112, -5.350433658898391, 4.133544005484499, 2.509063042665228], [5.212951824868474, -0.5535637268665152, -0.4178200524634291, 3.17377632786145, 0.24876161771666438, -3.8928735229726814, -8.074758657580643, -2.6349692990063125, -2.3190652157773393, 0.9307933915327691, 1.1066953135261435, 3.13442179565723, -7.969217795761684, 0.7785450403199917, 2.6982120658991016, -0.9567061153978842], [3.0928476797743802, 5.477079695607, -1.5132412728776194, 8.157845531577543, 0.4342154804313974, 10.567043051632972, 2.541105724802929, 4.456016986635343, -12.38047300139053, 3.0663607779485655, 4.609620033567073, -7.573852041708342, 0.37370347088328326, -3.7235052041832413, 1.8951994881226213, 2.883424163739411], [-1.9606272038100947, -2.297036667986262, -3.1810480981268983, 1.3359611975367487, 1.3584533432198627, -2.7111209008244925, -1.7956787568718755, 3.3369396876479707, -7.1327336529714715, -6.9782668604966, 0.05958109061770844, 1.574124803024319, 3.393337092607666, 2.6074894802697584, 3.5270365528031413, 2.4821529296990574], [-1.9146921707585416, -5.607099725692998, -1.1947454507447108, -5.7592065279497335, -2.3220503945075235, -2.8001573912601563, -5.780341036965887, 4.244325043132344, 0.7629609266955892, 2.0561419412644506, 7.9227130766870975, -2.513152193781219, 1.7047185876843425, 0.4977519606215639, -1.0877046018391212, -1.301072229630217], [4.507033907386173, 1.9828809525681514, 0.45181429365315473, 1.3448236297770069, -0.2983731088908723, 2.8297021641035816, -2.3091174518655038, -1.3162654716132727, -0.5876555383421651, -3.5857930087734298, 5.36152188052698, 2.6480648979739074, -3.0298419659884965, 1.4329429034995096, -1.3754280758430646, -1.238183385745731], [0.3055823625316852, 1.5943806890207313, 1.3507703704161709, -1.1071352052555468, -7.457079685028436, -4.480638104596684, -4.444629267419389, -8.552084533020816, 4.482615112416689, -0.14711783624934927, 1.8383137910323732, -4.35670445197216, 1.211672864954899, 2.4750260661389483, -4.771585847403109, 2.474177323961961], [5.83517669909558, -1.613773346662905, 3.68786903853866, 4.946235264062466, 0.25276808857850097, 3.130468298609304, 2.8764128939103166, -4.819047743369126, -0.007631020227087226, -8.410245989113013, 4.070217915110472, -5.4212577108350715, -1.6290032523529767, 0.33505731698640734, -3.053530671654393, 4.215399308476973], [-0.9541549501901028, -0.08418991656792074, -5.464878742448492, 3.628076737480087, 3.5465143817832314, -3.406942758496145, 6.332057110526983, -2.3479683528755095, -4.124446996829887, -0.6332137252591621, 1.8576829692786239, 4.695755084897088, 4.557225439832742, 1.497343946514229, 1.3421841219797055, -3.104770184215841], [8.920036948556714, 2.5459324094227798, 4.466855543548963, -4.622502738811037, 0.9249442108513553, -6.558860833366197, 0.5079383529733883, -3.8457898483740367, -0.7038106505876158, -0.9204471553737701, 2.979855581383335, 7.716802998523729, 2.9990282363086327, 4.9146009538965405, -1.3287393846147584, 8.246198588169172], [-4.0329086736102955, 4.056640246197645, -1.8403621293384407, 2.7512313316133348, -3.620156487335329, 9.025447314255755, -0.3878522852139443, -1.474676017258595, 4.660384110004519, 2.4951333465896313, -4.370433590097479, 1.9824509279383147, -4.679273459135297, -3.3086242992693466, 6.44691815075455, -3.063480684139488], [-2.2915781278455523, 3.1325763667781525, 1.4907041255929523, 4.9354012918888195, 0.8482449956969316, 1.2270818257714937, 5.751774458609956, 0.1817443019288455, 5.194237715482888, -3.8965427290933934, 5.824851574634852, -0.7451644485422546, -0.13936164434540843, -0.8199953111795006, -0.8145734164275903, -0.16432655653447437], [2.1224311279000414, -8.116540831639668, 1.8829412853091405, 0.7384642987331369, -0.7085083045057232, 1.6439998311965072, 0.8582531662452235, -5.773517562302821, -1.185180784033197, 3.6204836027970018, -4.7957959147932145, 0.933610125202495, 0.6375694586784422, 2.816446655888354, -6.885071088147935, -0.8612869492047731], [-1.312666507675959, 3.374799270661474, 1.832199721506944, -0.8980667806661944, 6.527665888283629, 0.35828911424373594, -3.283925556538656, -1.354535003600863, 1.63262681595686, -3.746209164703552, 3.840746370329968, 2.806410428596598, 4.358409317284551, 0.2541537565166394, -1.7109019108195942, 0.42447777857442437], [-5.856052098383874, 2.815479985451668, 2.0770738867430074, -1.144039872846886, 6.885616259791757, -1.0853542464149162, -2.243665072014489, 5.9766136562345, -1.2473295466565872, 3.2513060993959915, -2.556682443311154, -3.403329583034595, 0.7693975201081679, -6.180170538457521, 1.1039802811223582, -2.6125467214746347], [3.262487841561613, -2.3270112433389114, -2.023808974377897, -4.391363971100274, -5.4280676093539455, -2.7481106233828236, 2.106666978245194, -2.894357433551556, 0.8585171945656855, 2.5756293254975904, 1.1217592675163386, -2.6796706392956597, 0.044096968984196516, -3.1848037310601613, 0.386179354780529, -3.7645803071410326], [-2.453515758286041, 1.2740970348082308, -6.108392539236309, 1.8961204075578746, 3.260304541756236, 1.7669382061778558, 0.27933383529823413, -5.782796272490053, -1.4757815572609632, 0.7775290886497684, -1.910568752050423, -3.8434278270048137, -5.490148069628702, -8.455011745971204, 0.3062284771305239, -3.1469006571646885], [3.265919623586917, 3.3798833403839352, 3.469569731608652, -9.355418012846343, 6.090338880555631, 1.2103197576229396, -4.699960693901714, -1.1122245049063375, -6.051613214585486, -1.0225857322813947, 1.7882682782758028, 1.3727534595906323, -6.793207591056852, 6.694959600945749, -3.7122598858760973, 1.2102271890720926]], "bias": [[-7.711397329054829], [-3.5181940603058295], [3.6294031621077347], [3.425763485884276], [-3.5203999014101313], [0.09285452026949714], [-0.12631421836542478], [2.8314165152128967], [2.1015417551077946], [-6.642109544573431], [5.200988362702695], [0.9819862985664928], [-3.116397601291336], [0.013651801061206226], [-1.419981783825912], [2.372699401704051], [4.993665139579512], [-1.021069805253847], [-8.93259866228109], [2.4231112169356592], [-0.3395136531714926], [3.1292736435973114], [-7.611447593092925], [-0.09232110878687295]]}, {"layer": "activation", "activation": "relu", "activation_prime": "relu"}, {"layer": "dense", "input_size": 24, "output_size": 4, "weights": [[-3.942762808729686, -4.2826035500482895, -0.21098662553199263, -3.4448582980135427, -5.845180234918738, -4.54028999791938, 7.746192335066112, 3.426073911325971, 1.270817599532967, 0.8264857570178259, -0.9584203199541175, -3.6900078593363053, 2.785905827822635, -4.051067678843863, 0.6569298062751245, -2.626140838194642, 0.5461732068468524, 2.0156816850473285, 3.230303917294368, -1.12640831797626, -7.17120635899232, 0.03567780339572518, -1.3955468021906354, -0.004559820063027853], [-0.0696100575144909, -3.768001113896978, 6.6181501742341675, -2.2235743132794394, 0.7249636533629518, 2.115940817400991, -4.4927710907053955, -1.3394514154560735, -7.496552306856108, 0.7691531566494432, 1.0989363305077666, -0.23932517377839957, 0.17026956115415542, -8.83615979572729, 0.1668261790337544, 2.823951577198293, -7.773260033940705, -5.014990106027399, 1.8823452200316555, -0.4396749904785616, 1.0691965298449326, 2.7176481234630243, -0.9143941103012152, 1.8485456781690341], [0.8102578017496682, 0.6832473588964325, -1.6561440295026992, 8.68680777478355, 1.697099898691595, -2.8984562783970707, 1.8038094999821874, 7.45069859828426, -0.31956960834212983, 5.177800391094119, -0.09951781241743435, -6.120037824284492, 4.912699393991228, -6.349383335210408, -5.845750938764317, -6.444780544197994, -0.19029264413116653, -3.1278978466344194, 3.8428280320697303, 1.574907440439468, -9.093563923778802e-05, -2.274917640419054, 0.11721921040615657, 1.7070355456566555], [-2.283287403296737, 0.1567495065570188, 0.7996363678338023, -1.1078809342643088, -2.0750996667210644, -3.977745273726815, 4.800953458252509, -6.495174839695259, 0.9167877716970396, -3.9555856621272882, 4.3016068341275915, 5.328597928315144, -2.4474307046311745, 4.18367024324693, -3.606147956711569, 1.8753745142986538, -7.863789839074716, 2.125924182752359, -2.714096729397041, -2.3473772947280245, 3.1214867468347274, -3.659001510504638, -1.1384118024370091, -5.349128342008836]], "bias": [[-5.971598806320769], [-0.13016080378907058], [-1.0184945906865606], [-0.7211123440633342]]}, {"layer": "activation", "activation": "sigmoid", "activation_prime": "sigmoid"}]}