{"generation": 586, "board_size": 10, "snake_size": 3, "input_direction_count": 4, "apple_return_type": "boolean", "segment_return_type": "boolean", "network": [{"layer": "dense", "input_size": 14, "output_size": 18, "weights": [[-4.7798176011514855, -2.454283978849086, 10.756602277461548, 3.166623849850063, 2.339966413472335, -3.236649648740679, -3.637179063353717, 0.7446856700179696, 0.6240732920139476, -7.133706360138322, 4.999499516164401, -1.569624372956143, 2.774895827057557, -3.284791862268605], [0.43254450899921393, -5.253598080402384, -10.435746048118213, 2.104510618177359, -3.4237448770118246, -0.7067721787621233, 7.535115674178906, -2.430603062450346, 0.4184359437001408, -4.42423923353147, 5.227299117516267, -7.79159004739137, -2.5230380731181428, 3.6039267472059784], [-9.186746785159757, 5.690652508232553, -5.3892455680054105, 2.0383401724444337, -0.17983654348779954, -1.565029680364719, -2.2625727927167976, -0.8750890984894403, 1.773349892100669, 10.490648310626545, -8.503551876862813, 2.85375536978112, -6.106597069667977, 0.4417421136829777], [-0.018713969651987794, -0.6485434885341388, 5.362023929022953, -5.301450126400681, 1.233121383109093, -0.24354518822193655, 2.0515410311512667, 2.381294299497853, -4.021626657112825, -2.9698697059133092, 0.6980556163863787, 1.4472058631484495, 0.08968751940736852, 3.8948939489436905], [-5.337870765306577, 4.683705904017211, -0.43130243468464724, -3.6037226223717056, 4.318922539495109, -6.128119395949744, -1.7167739412967413, -2.7567923366068996, 9.646305943298593, 1.3476141106360084, 0.33824568880660955, -1.3104419992671468, -1.7362398338530691, 2.77341649273834], [1.3987485818385768, 0.04011198755459655, -6.19118209808273, 5.082818195122489, -5.031047921634148, 1.6084039088340327, -4.322410103910127, 3.371692546321218, -2.512147663195302, 0.5634972439013268, 5.1281191262781105, -6.507917852272849, -0.8146652180084366, 1.011653976811446], [3.4897683707400775, -1.147185067090685, 6.147533037000583, -12.026012388694351, 1.9468413523456443, -9.00534109486345, -0.4797929268943243, -2.4651255223147386, 5.991583175668307, -2.481296005824832, 1.1823562360056563, 0.12329945412684507, 2.133319369398441, 6.6794769466555275], [3.643722734558872, -8.292943613496575, -1.6696636898970056, 1.223410059840675, 3.4256837581749773, 2.671847044243072, 4.665175564778928, -1.1331620567266154, -0.44320294402016347, -1.1232198246936063, -9.759380678837248, 1.6653262951701122, -2.1728402471539616, 3.9076740304180486], [3.1710670872839963, -1.3300214181835437, 2.3971448511690387, -13.138373356287158, 10.231674749287615, -2.028158280682268, 2.8735399228679794, 0.8121302781465781, 0.2476985543360759, 1.4721990869623054, -2.672360870435996, -0.20747121185928968, 4.4972462999264025, -2.4122456414821647], [11.331971944408808, -4.951145736374876, -4.322664810125338, -3.402483453351665, -3.3028923114468807, 1.6497541442866168, 4.646652058077948, 3.082881961006429, 4.343081566600392, -6.231630131733736, 6.704282763824487, 0.34289383045458427, 0.002432229447070944, 4.107869391596188], [-4.6169792440988395, 4.231954474269696, -3.1357701292233084, -2.251783740193805, 0.7804100102160674, -0.6084038677726243, -0.29293857381072497, -3.9106886902027505, -4.664620582908264, -2.573863256622076, 6.7391798489930075, -2.1897946288809846, -1.929936619512874, -3.5600354404013563], [9.651270274131841, 2.385515102812677, -0.7173003484272702, -1.533815416592509, 0.6461838246147942, 3.259395764761878, -11.5398307112019, 3.0912409486571786, -3.270568906632987, 1.0964448650528364, -2.3566926628324927, 4.11737377455837, -0.45729172923970995, -3.8250728452670257], [-7.215631271574461, 5.659826294058093, -3.032268820437184, -3.1755953546944986, -2.2310259160977286, 5.762113958249497, 9.73397738258326, -1.7002268310302968, -1.271339551405835, -1.5200683111162483, 5.434289298091565, -0.024053696203831354, -1.2403463008291116, -0.8971304261675155], [-14.72257326981776, 6.822134479724106, -4.326073423915301, 5.036696696820446, -0.5112830671517676, -4.318964894054517, 1.1631181527782457, 4.073050884741405, 4.793996913043833, 5.737019397632377, -8.324277493738354, 3.1264471464325125, -7.777241389102306, 4.097189930582634], [-7.368842361051351, -2.575713500645849, 1.2805124873048073, 16.700867520950936, -0.12888967200089713, 8.140772992166246, 2.712681688220253, 1.7787438738111208, -0.6072917033650479, -6.313037881835142, -1.2313496992589203, 1.9107419817648028, -4.982097491033002, 5.450355029393009], [-0.027306479546939655, -6.139034501354649, 4.383438682604241, -11.96316749921477, 3.436163275731235, 2.9448456789813555, 4.476068399791335, 3.729710186210792, 2.021733952174433, -1.2333014484489069, -3.548138242146085, 3.4266470295087927, 3.834122259095122, 6.806434936249465], [-4.6246474065998795, -0.7762791501865677, 0.36247857411611784, 0.2467118585154826, 11.665426211821817, 0.33644246017904017, -5.191482383392224, 0.8323752346947574, -5.994255566151711, 5.623637064262931, 5.365815777910088, -3.2205685601770906, -0.8645443998094962, 1.079523545034869], [-5.731329953892812, 7.033877227778065, 3.0597930959266244, -2.3039779268297833, -2.184721651920939, 1.7861257998394762, 3.334540070421857, 1.515659869867612, -1.816211290314527, 3.291895229361535, 1.6525256511892412, 4.760610368565113, -6.60791197538409, 13.034480022629374]], "bias": [[-13.33689669585633], [1.9321233733427396], [1.0337542124245407], [-4.581533533391369], [-4.083122652680722], [-5.693862456072173], [2.9304474379485344], [-8.71561143499503], [2.4945648774082616], [0.8167945619060735], [-7.40999672074965], [-1.3589035746443003], [1.085481995828713], [0.18685650232684164], [1.9006504520326513], [2.626455009612735], [-1.836184667599206], [-1.7892708947012481]]}, {"layer": "activation", "activation": "relu", "activation_prime": "relu"}, {"layer": "dense", "input_size": 18, "output_size": 4, "weights": [[-6.2483128306512095, -9.944742951970689, 12.71949726630719, -3.1298481529910154, 1.833886704901204, -4.108095851146958, -1.1739178386005387, 1.2769759885826726, -2.51537520957627, -7.287778568990737, 4.8174304879781635, -8.895907050973964, 2.9858187546291717, 3.7348985219926547, 1.18805764876161, -4.60824879630077, 0.6027465156530625, 8.454687192424018], [0.8175852410475218, 1.2177789680269835, -5.034262556057104, -1.9008334666874938, 4.446272201417555, 0.7480139639367094, 4.722577415916238, 4.470339033345314, 4.184496324920703, 1.4746807423772674, 6.312695237254906, -7.084895821770582, 1.5988195144253057, -2.488669266894022, -6.7407240366158225, 8.203270853684892, -4.355970615174492, -0.08273745920584824], [-7.355369978065459, 0.24504796005664436, -2.092818298625569, -2.8530018337698966, -2.8436160071876344, -2.059194943385547, -3.6537140805477835, -1.1609683922584297, -1.5801484783257973, 4.267309723741495, -2.023130856097723, 7.5391706056815755, -10.55026556500258, -5.200847625076503, -4.974867280429983, -4.439313714326564, 2.8931121282189207, -4.554062145081925], [0.28716817038032594, -0.7330080420519689, 0.8029058662650462, -1.623185142976724, -6.263853940200539, 2.571087290572313, 5.034291394816609, -6.887972268490541, 0.039484375690436446, 1.913688803641051, 1.4140164767569334, -7.000341785067722, -3.4021068166138497, -2.04268713186548, 11.477479336055872, 2.119968289297414, 1.5154940159887065, 3.5231640046843955]], "bias": [[-3.382654216911452], [-1.893846974066168], [2.2936571470092346], [0.6210092732841315]]}, {"layer": "activation", "activation": "sigmoid", "activation_prime": "sigmoid"}]}