{"generation": 558, "board_size": 10, "snake_size": 3, "input_direction_count": 4, "apple_return_type": "boolean", "segment_return_type": "boolean", "network": [{"layer": "dense", "input_size": 14, "output_size": 18, "weights": [[-4.628435353839285, -3.31694822404573, 14.678093630155002, 1.363219180847053, 0.7956799440384891, 0.7100981965051495, -3.254421557934136, 2.6587379049111965, 0.623847714822267, -4.78639847821634, 4.9136831013226665, -0.5555161013471521, 5.5548036285606575, -2.9776115193463677], [1.9162372398140475, -4.730229641362753, -10.435746048118213, 2.104510618177359, -2.755023040975019, -1.335905288800801, 8.440844127629429, -1.7983132897160303, 2.679313501584142, -4.836080538820353, 4.804060832339003, -5.222601682945382, -4.034736767661967, 3.8648749446321418], [-9.186746785159757, 6.188783911597955, -4.073232749573935, 1.894611448071829, 0.7925967867419639, -2.1866702699607785, -4.792902449402879, 0.4756598997977769, 1.773349892100669, 10.490648310626545, -10.014450054257782, 4.590247020855927, -5.773492251559722, -0.9762441329776566], [1.1888286119216864, -1.021717890628164, 4.798529122166512, -4.335423507834525, 2.4246038515561703, -0.3786947041427484, 1.8281751004941107, 2.847646807120673, -3.2971767465903565, -2.594862303021797, -0.8759085629471791, -0.9585099134317666, 4.029655031013731, 3.251176540897917], [-6.197004351424432, 6.1457931895364695, -3.378439295744289, -0.6048470780202488, 5.339305561210265, -3.0096927013851387, -0.845527713147131, -3.5787110824465898, 10.06038070773535, 3.3818749291487507, -0.2302758532116429, 0.4012009387876031, -3.0130427658792107, 4.083048589022836], [1.947001655871964, 6.017460512145655, -6.421059823728129, 5.115737932940636, -5.4768174898719435, 0.7090210335917594, -6.813561777205108, -0.8230976067647819, -1.9288710420163129, -1.925412425397881, 2.3044983268850316, -6.722240712246144, 1.843819703087406, 2.754291510440907], [3.9029183174220625, -1.8266760920394367, 6.443873010100182, -9.946246126306493, 0.61292171280581, -10.532053672130013, -0.7192866150474176, -2.206201260502593, 6.872806836178796, -1.9814914077818064, 1.2183866096220013, -0.06473558692835113, 4.0887949424464844, 6.487007360458255], [3.643722734558872, -4.721067828369844, -1.6696636898970056, -0.7080390539178643, 0.9898586347623297, -1.2572517252315194, 3.7745936776987783, -1.1331620567266154, -1.107773390808433, 0.3606155477737303, -10.902410259884482, 0.3985576899793646, -2.7808409272382786, 3.9076740304180486], [2.8767522840378246, -2.205523576788599, -0.3048810078790775, -14.83105264190517, 8.770990794900282, -5.333228471020187, 2.7401236314708974, 3.2272860748870444, -0.24806638795948976, -0.5101844924520561, -4.57114981072089, 0.07701746401696674, 4.110872240404576, -1.253216343750095], [10.610046888449386, -5.948268101021149, -3.546880607386721, -3.491816897584077, -4.458356178148598, 4.195808802307747, 3.5936325456236444, 2.7791650882345054, 3.4225607077923854, -6.837983021783546, 4.168730270120289, -1.0192399636924516, 2.410632716142894, 5.963216750196836], [-4.810520639660911, 2.518931042341838, -4.870813674485028, 0.031371842449963105, 2.147413750370142, -4.406764033125582, 0.04986874757259646, -3.134208745361545, -7.643435362807093, -0.8620486900489448, 8.069884357288515, -1.304605001547098, -0.9747517206719134, -2.938301966142424], [7.663905057296697, -0.6692579252356331, 0.5430684417311415, -0.5457532930830684, 1.8141238484157785, 4.544535937900916, -12.06870645529833, 2.0559340719115378, -2.2725035948820493, 0.48244040447690395, -0.4172087829103128, 3.306879858137452, -1.102048790056494, -3.4638457511468994], [-6.203505178155888, 5.866139003240538, -1.9044581677214474, -4.788779620535652, 0.7849657456214795, 5.324222306879449, 10.06246345672274, -1.1839457944975897, 0.25008477888657077, -0.3298105295624303, 5.6048444107145565, -1.5175130722549373, -2.1390425790023464, -1.5156904281315495], [-14.526096600722308, 6.038478320997489, -3.641249719814843, 5.594060650446641, 0.6733176748595133, -2.966483528535765, 2.5684972150484624, 4.073050884741405, 4.793996913043833, 5.737019397632377, -6.267097147779946, 3.2297771152545836, -5.083794321025964, 1.9440160058230687], [-7.529211078831192, -2.575713500645849, 0.5634270594466368, 13.708821789197074, -2.4036596771001237, 7.916424967808857, 1.7761950601978151, 1.7302055695912506, -1.5039149867462003, -4.660808747331002, 1.6342612484690044, 2.073387405068844, -3.258416023394757, 6.975766440279192], [2.107377326988271, -0.41037836862283583, 6.303174220291758, -12.333140575041464, 0.9963111587779974, 1.0057456500473754, 5.589835521335879, 0.821247637492913, 1.5135355292231483, -7.014673131971617, -4.371522953797431, 3.5327031035085916, 4.178397074640527, 5.794178158888963], [-3.502199666462399, -3.10760569020343, -0.6209178714627451, -0.06749168808900387, 10.910048349027893, 0.7081026529132463, 0.6489684112180683, 1.9673261364436045, -2.6533876543846495, 7.230965543537631, 1.813463375304129, 0.14215741686031436, 0.10121011911240008, -3.1212707996539097], [-6.726744645631699, 6.678980669473401, 4.433900723227113, -1.4198499581702806, -3.9447558645182, 0.14372079057859988, -1.4473835328588287, 1.3484024268509698, -3.0673811481026148, 3.5747636760217847, 4.155570991599102, 5.175070815715291, -7.226531189149534, 13.104447331639037]], "bias": [[-12.505850803403089], [2.026085432221303], [-0.19287308060172215], [-2.9592231416746233], [-10.670305826559197], [-8.056089920134875], [3.2803124099868946], [-6.542272881876222], [5.239576935578571], [-1.8444564214610841], [-14.22493588923789], [0.11983501706136701], [1.533496091778674], [0.18685650232684164], [1.5503581372312882], [3.22616907276151], [-5.107415840800709], [-1.0724940746478215]]}, {"layer": "activation", "activation": "relu", "activation_prime": "relu"}, {"layer": "dense", "input_size": 18, "output_size": 4, "weights": [[-11.167313198498125, -9.470331877589398, 12.729967980700408, -2.8858116980734843, 1.5243926907706795, -2.1556787676794613, -1.47578151986239, 3.5875500880484688, -0.7942526259505676, -6.267361763487165, 1.878814169562164, -8.031488833265904, 3.5051931214573346, 5.038493553903966, 0.6459944336823801, -4.638551830208724, 2.4508496397050474, 7.958646080537227], [1.6959358726088372, -0.30987417736271927, -5.768152249017188, 0.2904473032785571, 3.317602041184039, 0.7480139639367094, 4.722577415916238, 3.8021811503521055, 4.184496324920703, 1.4746807423772674, 6.312695237254906, -7.269601397882916, 2.464594902239813, -0.017584933650761636, -7.344347997920994, 7.28746585746614, -0.9709083102718041, -1.1150987331017281], [0.7206037289917715, -0.9169145300547483, -2.092818298625569, -2.5786413262133148, -1.3436426214693071, 5.634049355111556, 0.36882828667657264, 0.9378437049885944, -2.463321542982513, 3.490042642822629, 5.315800829523574, 7.708863860821255, -10.458356999165254, 0.5653687468669546, -4.125350918972156, -4.658237981504232, 6.85822974587137, -6.31787110849308], [-2.2325267417269776, -2.763653730204554, 1.2635001564516062, -3.282069540947591, -3.0133961712324986, -0.26633674070027535, 6.1603427053071425, -8.199967303762229, -0.7177712473941853, 0.9529335143095983, -0.5930803885777332, -7.72529309971044, -1.3468089723410395, -4.248577871054211, 11.589451725702823, 3.092839915986954, -2.1167907462195026, 1.3635945483267986]], "bias": [[-5.957975428294041], [-1.3824584593219549], [-0.34598467105059993], [0.20351226556404312]]}, {"layer": "activation", "activation": "sigmoid", "activation_prime": "sigmoid"}]}