{"generation": 588, "board_size": 10, "snake_size": 3, "input_direction_count": 4, "apple_return_type": "boolean", "segment_return_type": "boolean", "network": [{"layer": "dense", "input_size": 14, "output_size": 18, "weights": [[-5.588590757897632, -6.220977741450675, 14.317190897530823, 2.179785729175964, 1.6745027414931284, -1.4299556319781206, -3.5025580128011047, -1.3936409872455071, 2.481481715678581, -7.277846800465386, 4.999499516164401, -3.012441922103137, 3.546805205217661, -2.620986436584466], [0.43254450899921393, -5.253598080402384, -10.435746048118213, 3.422235093019035, -2.755023040975019, -0.5897440567332048, 7.535115674178906, -3.125745799888666, 0.13811782892770336, -4.42423923353147, 5.227299117516267, -6.872246545145567, -4.034736767661967, 3.8648749446321418], [-9.186746785159757, 4.905042349804568, -5.3892455680054105, 1.894611448071829, 1.5033467091091874, -0.37826609778207265, -3.218529768649068, -1.5242628669092448, 1.773349892100669, 10.235907096468695, -8.58060510045356, 4.590247020855927, -5.773492251559722, -0.9762441329776566], [-0.30856175601025115, -0.6007350417185316, 4.798529122166512, -4.023360793244886, 3.0944578857970617, -1.7140620860304203, 1.514016590669118, 2.1813093862660944, -1.5393765272194464, -4.670106956083453, 0.47087381027697917, 3.97375899323443, 1.7951846134412546, 5.047073340213828], [-7.6852792561010315, 4.390557526445887, -0.7387895920160577, -3.6037226223717056, 5.403266744371285, -8.665750210921502, -0.6882714102218892, -1.778490460180889, 8.993430251213143, 3.434491371072335, -2.9451989849522175, -1.2887618348858725, -3.405820714562808, 1.8612576302093493], [3.4705787603364295, 1.0554412319397146, -6.684635491342068, 5.023886371414864, -2.5270480346845035, -3.6965545629677523, -7.545054298465457, -5.079718596609124, -0.22880974393815412, 2.49295414932529, -1.3791612782906397, -5.294754349202259, 2.7348792001111977, 5.064489161945612], [4.0395268541217515, -5.134534524537295, 6.993714979609392, -13.984288910364157, 0.6816141204314816, -7.88449063747296, 1.4934026627623398, -4.739547695360928, 7.942973404838767, -3.9945851473354237, 1.030639426675557, -1.3773383409510367, 1.850730691627549, 4.262502844458439], [-0.08638249882849819, -4.201782596036894, -0.4642312347020534, -2.52685039756627, 2.292301740956045, 2.283840069924291, 8.599263060476549, -1.593666728810052, -0.284652199462198, 0.31554664745223393, -9.640490732939732, -0.14399373641562518, -2.5606812971846997, 6.166372024300415], [2.30012125260682, 0.4729044106455601, -0.3048810078790775, -12.792542824165253, 7.596460478010364, -7.676295047995473, 3.1218490539708483, -4.90016457445655, -1.173898688951264, -2.179807986759256, -6.267894904275348, 1.3846451715057237, 6.736740554598267, -2.162527907939767], [7.350389994594282, -7.896017809565588, -5.055153928024134, -5.291957721215697, -4.664566464946715, 5.86117789936691, -2.5391547174647817, 1.6465658935420944, 5.626627332263575, -11.355416785095331, 7.763526578382346, 1.6172150454913798, 2.071672881123397, 6.767366272392681], [-2.4719707581397867, 4.002272886806823, -4.123126284855713, -2.251783740193805, 0.7804100102160674, -2.058337391593693, 0.6769002765072225, -4.493341298334814, -5.450057621644608, -2.621483808410764, 6.18377924674869, -2.1897946288809846, -1.2737580816280847, -3.661688213674816], [10.167997255901938, 2.64731034864219, 0.2300207874916206, -1.1148241576468612, 0.6461838246147942, 3.259395764761878, -11.268618932521909, 0.4526375839618233, -4.91491960197406, 1.0964448650528364, -2.4170993572674484, 4.667784613665212, -2.881449305459298, -5.438811353573222], [-10.129719920675205, 6.731994878603648, 2.0044290869429284, -4.452552992678711, -3.2030974022329515, 3.8279855841177057, 11.849942665882214, -2.4215455963391532, -3.149973092592047, -1.237356080690898, 4.039846517666128, 0.24674665699896092, -2.1163090928365094, -4.589302408441869], [-11.315478935772882, 2.21258520611656, -3.9024006915524576, 2.6078837940973303, 0.9113496786236035, -2.966483528535765, 3.6454224323081084, 2.709568767498513, 3.061195251219298, 7.034637022630937, -4.874562531589129, 1.644096091413811, -9.22788896908019, 2.4393202569412424], [-7.358875425496036, -1.4316787032115954, -0.6560270491155242, 13.910241699659109, 1.8465501337328818, 11.691844490644593, -1.8882451748608855, 4.419482430217312, 2.1347324597498973, -3.829375377890523, 0.5855184720043651, 2.048372283131082, -3.7841553149394396, 4.0533279684498655], [1.8638206148137992, -3.826263531301838, 4.735034422661334, -12.354763407954062, 0.10632806821379015, -2.1312058783726515, 6.391947089456273, -0.38448582108588747, 1.715070871900875, 0.5355611399387574, -2.1402835183938373, 5.287000079520745, 2.538282343019687, 7.246850934414626], [-3.5171421822868894, -2.8101277635993016, -1.3518799783790596, 3.5838451621844785, 7.293152508384709, 0.34631064870129724, -3.9441304663320276, 3.17744203330996, -5.229142374240888, 6.541551904962841, 3.3219739537572064, -0.23384523959806525, -1.9061193715796023, -1.022907329735945], [-6.764969393107334, 6.62722333449101, 3.116033299674925, -3.6000628960096233, -2.184721651920939, 0.43143561891278026, 4.4132358012675486, 1.442560344966421, -1.3932921090238617, 3.291895229361535, 1.0416655290236463, 4.754048415361229, -7.06955191244009, 12.72486203629942]], "bias": [[-12.904838248974894], [1.0035881367959867], [-0.6957223791696727], [-3.9211001963551486], [-2.929617422566007], [-10.091039277908148], [1.0329986493617482], [-8.454640973150942], [1.666144350551595], [0.12283099472088277], [-5.180916501856292], [-0.02524231200150423], [0.9920071034141439], [-0.11308950504125237], [1.22416840767408], [1.7261330815653033], [-1.360271530742379], [-1.7892708947012481]]}, {"layer": "activation", "activation": "relu", "activation_prime": "relu"}, {"layer": "dense", "input_size": 18, "output_size": 4, "weights": [[-10.39869749263057, -9.382045139129545, 11.067415856068193, -2.1857439715811258, 0.707944551486381, -3.951809865401193, -1.442569294311542, 0.6202008715094081, -3.6879528797857453, -6.5608950667325034, 3.377618035765781, -8.861490686926254, 2.7049187759798174, 5.640620910979788, 1.3534392176448067, -3.8440787944991106, -0.31832724439667837, 8.660269924324949], [-0.8098378944207318, -3.2249899010375667, -4.758740287975149, 0.7888878307442999, 3.3344685771378715, 1.0566156498254244, 5.7737649324306926, -0.2757345039047852, 6.407903567265361, 0.7348725062951862, 0.26602518001943376, -9.542529034080951, 0.6460907895063852, 0.84541045104908, -7.037054299321266, 6.57671163262773, -4.11890811806914, 1.1163253847052141], [-7.006860065528819, -3.962855722959942, -0.5173421527925646, -2.045285025174804, -3.579822386047703, -6.869568057075995, 0.975561406653906, -2.244819316075101, 1.2369107439301041, 7.070740441145839, 4.312171484129433, 6.522347249184746, -13.411977086717403, -3.0795754059630407, -4.44627478586989, -5.6939047647018155, 1.984384286090576, -2.909636028355119], [-2.2325267417269776, -0.9777398293134361, 0.40430588300785064, -3.282069540947591, -2.764176112088894, -0.26633674070027535, 6.1603427053071425, -7.342395044465901, 0.23768409457380654, 0.7212393553948375, 1.3087193659523892, -8.462433965708513, -1.4671652591477873, -3.4747881310413535, 10.57624524116893, 2.119968289297414, 1.5154940159887065, 3.5231640046843955]], "bias": [[-5.725128411264305], [2.0367105704048405], [-3.750206762025023], [-2.2036021439186877]]}, {"layer": "activation", "activation": "sigmoid", "activation_prime": "sigmoid"}]}