{"generation": 513, "board_size": 10, "snake_size": 3, "input_direction_count": 4, "apple_return_type": "boolean", "segment_return_type": "boolean", "network": [{"layer": "dense", "input_size": 14, "output_size": 18, "weights": [[-4.764616215312392, 6.817505061059811, 0.9844601623467695, 0.6441467247733873, -5.358210421812231, -0.15408030032056663, 3.2301867605122077, 0.35611524865791266, 0.2198660855579626, 11.336260585260971, -7.935056583925752, -0.5349692199333327, -1.3297340747912862, 2.866661107186331], [-2.3698702131853264, 4.105924608815827, 6.680500544352251, -16.088211730689846, 3.6463478136599106, -5.933679593423083, 1.0987770226170046, 0.509358039720215, 3.1373918189661496, 0.35459373645866177, 0.3306059391366608, 5.093163279325245, 7.011095845300942, -0.19830445062442265], [4.396386203366341, -9.36411937758423, -2.3497562074238107, -0.18251281381130735, -4.270391892436108, 0.11015846344796412, 4.83465020899623, -0.2988983412904578, 2.970691313266541, -6.94479495762647, 2.3704202264487786, -5.442203798643241, -3.8890908788919285, 2.0499290482946537], [-0.45538610314065464, -0.9762420249078381, 1.7414195135320074, 4.206266576155878, 1.165926878274676, 2.511224219058457, 9.669787123245637, -0.18798908617145393, 1.699318904454719, -2.179956331567752, 4.817168002433895, -5.516436500490468, 11.03348583821806, -2.8258728777678765], [9.93936913681839, -10.713734697825254, -3.0337517118729664, 5.5756165399787845, 2.0260341494289547, -0.007763561236494104, -6.467083859523684, -4.753043965975687, -9.307992250087217, 1.1983541381754625, 0.1786614037221167, -1.4519497685701968, 3.9883154483444443, 1.1849367051589184], [-4.421486415412854, -2.2079906080152654, -1.350657049728941, 2.559635779691213, 0.0996296730444226, 1.948321836733425, -7.56000473281315, -0.6610157047047256, -3.808905662608032, 4.879395489897075, 3.3026464601435865, 2.926829771168258, 1.2880077025089356, -5.008096809737884], [12.87655836298728, -2.912836103278811, -1.2555481990657897, -2.329779725077558, 2.3540074771984694, -1.7150883077766639, -8.386695011675654, -2.572753299479224, 0.39387136223097313, 2.404533829168575, -1.7146786087589134, 2.9316560195033983, 0.1680848996232809, -4.1642218907123185], [4.41862432750943, -5.418125583616016, -7.8017943892307, -2.3331953424651406, -2.9445582144454483, 0.2154490688518808, 0.9017568578218399, -0.07433591576654919, 1.0730046591180524, 1.304987975676326, -0.7656901075669272, 2.1665615894729324, 0.6647969126045334, -5.254543737192305], [-1.1465501709457293, -2.596881454862399, -5.677088823153943, 5.596232716937575, 0.04426947656097591, -0.9561481555550245, -4.3224660684556815, 1.7194837670293441, -0.14644018930905778, -4.114411096766531, -1.3695900967169983, -0.30086121494471385, 8.107382674707873, 1.9648083207985516], [12.349634847252263, -2.4804210527272184, 1.2810489183788658, -6.971039982425733, -0.8655074028292535, -2.8784511964389763, 1.2107214490378013, 0.329274410784942, 1.868401979309261, -1.642035201912328, -7.753925419843481, 0.5455130469110658, 2.0378352382464353, 4.274723271420503], [7.545911605904592, 4.885253907062357, 0.9420920813164323, -1.8725341874600343, 0.11563681213303509, 0.24883577310925498, -5.96910563444296, 6.6460873793040625, -1.1691103543540797, 3.5401242699318773, 2.8819838893306837, 1.3707240077213663, 1.410335178623217, -1.6619567558641717], [3.835245586975656, 4.4222374490531635, 3.075245220500275, 10.580224723391405, -2.417137755853786, 0.15269648059166507, -6.2816308131501675, 0.05607054655392807, -4.935724705613951, -0.03453205859838904, 1.7718068511548815, -0.5621054591184297, -2.364407112751431, -6.247460426757632], [-0.6011246007459488, -8.314472924313064, -3.053506877134568, -2.271043011292495, -0.42008144500136824, 2.3024157363840594, 9.798129199638627, -0.39858895678250383, 0.11740484626900316, 2.094392412658039, -0.9999721451488428, -3.65131890290694, 4.927319042767364, -3.8299319715842515], [1.3092472048709154, 5.572899375406077, -1.5834546851673097, -5.43811484009281, 3.291663162559413, -0.9459848564851063, 3.5956523840866135, 1.2906603142137683, -5.275176202141248, 1.7436013843137093, 8.359163952278717, -3.599192144222317, 3.062254492320151, -1.0864561948377935], [-10.589665644982258, 15.919943204491332, 0.611116681207283, 5.594884597732462, 4.746744115430669, 0.7529717901356334, 1.92350509348264, -3.2725469193538332, -1.5404031362615842, 3.2043839472193136, -5.162913148671239, 7.621819429863226, -4.060553279216174, 5.6279340734254095], [4.344343193469962, 0.47784452542136296, -1.3894986006365575, -4.397062800278973, -0.43963824823321795, -3.3515369354365125, 9.501776655301127, -3.9162910347062905, 2.417998434169601, -1.5235501058951537, 8.667052574462517, -1.229275386262402, 2.810709418792949, -4.856749124633356], [-1.1811095346691953, -0.03614576457270713, 10.698223965091552, 2.5150967159712794, -6.723190774741108, -3.3102377831751535, -6.341980604289513, -1.7602258333105611, -2.615220874629499, 7.643490700110081, 2.543493823612266, -2.7368739175414145, -0.8720130287685061, 6.444697377231828], [-1.0648626898520939, -0.1182148078068066, -10.138996965180857, -3.169998965683062, 5.442406969283313, -0.3810415901079343, -4.165790072037848, 3.6092364990313044, 2.0839963349758346, 6.299162981303666, -1.575984526276896, 0.38701212935493634, 1.5356043851248429, -2.422191850416705]], "bias": [[-6.629150314466526], [1.0722974387985338], [1.151017430760461], [-1.0269743238399593], [-7.6806176080866955], [-0.7594829725246451], [-2.1062835508212365], [-12.55856000744707], [-7.397277622146393], [0.8353011883821679], [-10.200268793178147], [2.713343125401853], [2.373162613563701], [-4.017420376546699], [4.126729214447215], [-1.9618853592510879], [-2.4768785618529874], [6.1641016105850515]]}, {"layer": "activation", "activation": "relu", "activation_prime": "relu"}, {"layer": "dense", "input_size": 18, "output_size": 4, "weights": [[7.566935844542152, -3.3362295403015105, -5.6946211456458675, -7.187491981713269, -0.16398992891447634, 1.114854640203214, -7.56505083030908, -3.2706658659701793, -0.6548715028208708, -4.286250900241697, -1.095508445221922, 0.08642499920507118, -2.9494027133578093, -1.3942736381476433, 6.492620561018134, 1.2414443462511369, 1.7913561872657204, 2.7588663517898557], [-2.9229477310713534, 6.310122309788064, 0.46907922687019865, 1.068090212541302, 2.1325113104806475, -5.525218908168452, -2.0714596195522725, 1.2981088970393566, -2.3862105691452458, 3.3530554469966485, -4.633578714638593, -13.813633595497565, 1.9639631834468165, -3.856019041538997, -0.8832904583882819, 3.09108394208035, 0.17326257327370587, -1.8305561397128758], [-1.7911083671809027, 5.4125568046227714, -3.3498769324975926, -5.844152038791522, 4.075322729887444, -2.0959992603319084, 7.865609764821204, -1.2748551279447444, -7.095673638758092, -1.3067044827404555, 10.497447127137045, -0.17249759257905173, -3.1158216440625877, -0.47448183505520136, -12.27753052704047, -6.127435975455416, 1.1771897320635172, -1.4001803005144473], [-3.172185296230534, -4.0814588136065195, 3.4716968845408798, 2.9613062714780836, 4.024729390017605, -3.2634040792593977, -6.73077598778524, 1.3483294826355845, 6.188667558156338, -4.2793269676106975, -9.225952192000797, 2.555008061693111, -4.652554958710181, 0.8118492856560924, 6.264523314473652, -3.6935555197627723, -2.496109420768072, -2.161587468145484]], "bias": [[-6.3447330261123005], [-2.0869116416213056], [5.149484003446278], [-0.08087574144016418]]}, {"layer": "activation", "activation": "sigmoid", "activation_prime": "sigmoid"}]}