{"generation": 516, "board_size": 10, "snake_size": 3, "input_direction_count": 4, "apple_return_type": "boolean", "segment_return_type": "boolean", "network": [{"layer": "dense", "input_size": 14, "output_size": 18, "weights": [[-5.987248121813296, 6.305222182628152, 0.9844601623467695, 1.2449758219275735, -5.951672963262095, -0.15408030032056663, 3.1211855921339584, 1.1151301748859261, 1.1756343459664136, 11.336260585260971, -6.649354912952397, -0.8121650820923315, -1.845861270892124, 2.483119337467305], [-2.3698702131853264, 4.105924608815827, 6.388628678843052, -15.450650835183085, 4.5897430263158565, -4.826787194255201, 1.6264920475729012, 0.7008421559365831, 3.765259836171406, 1.9852571704810262, -0.7803935891404624, 6.058386704033016, 7.113393904930285, -0.7967533783757561], [5.949946531965191, -11.164291489610237, -1.479479363198723, -1.4362290555252126, -5.469705215011837, -0.16159703569562514, 4.559785329713057, -0.5355094931249151, 2.970691313266541, -7.047027895758567, 2.1787250262580056, -4.617207429277584, -2.712091064791026, 2.2321229719488533], [1.5977314892920398, -2.8763142024129364, -0.11865559391044256, 2.3875269691282637, 2.6073108382459322, 0.915459661979956, 8.708433185085068, -1.221683459399508, 2.6491019416911765, -2.459487883315567, 6.588439908745984, -4.338278244188047, 9.375777118130179, -3.7230664534544635], [11.600998947490085, -12.01577948205012, -2.7165396154971813, 5.6961841624026, 1.9700935331593457, -0.060564130402598365, -7.312477065287471, -1.8207575639583071, -6.241392573108101, 2.7950806180927095, -0.8661822008945018, 1.1778288640497354, 2.609716083455654, -0.17818156702207277], [-1.635164846476605, -0.51589808796487, -2.9008120733095093, 2.356211472455427, -0.2527331838794997, -0.8563410239505255, -8.667002658075285, 0.9027613033813088, -4.058598015709111, 5.681506117964683, 0.7695253915207904, 2.926829771168258, -0.22215429606713133, -1.3012033320526317], [13.826411782431187, -5.192975619770971, 0.23044575360300623, 0.18605718710359306, 1.6313073243303546, -1.5001475812318175, -7.272844894598813, -3.224259441416433, 0.293824637451626, 0.35297332545637605, -2.879446530789992, 1.2367260818137984, 1.8683931244095635, -5.454548777379398], [1.7663132328225513, -4.547018107246712, -4.770477318886584, -1.05289273729293, -3.2960543980796553, 0.8795387868152738, 1.852983145561578, 0.9951430979641535, 2.0801929251655022, -0.11109090060660287, -2.9167684768635587, -0.18267102768274224, 0.1290611751558245, -7.585591637241595], [-1.1465501709457293, -1.4478089191078065, -5.44316801006013, 5.067965185654161, 0.5711275629417484, -0.5466784830578241, -4.811381269792886, 3.4442566309920095, -0.23783755490051584, -2.0535759582634645, -1.0371265286081484, -0.30086121494471385, 6.157179063902753, 0.6091951819895836], [12.244077539734159, -1.3622428678852112, 4.7785070574520025, -6.60210650600524, -0.543294684297829, -3.0210604582141825, 3.1884598128305672, -1.0095675472081131, 2.6033810196360236, -0.8973377162939966, -4.001316435707459, -1.7317740156724926, 2.9540427330689516, 2.745932405313855], [6.59747242757568, 4.116323357756988, -3.7152536880359266, 4.534356180165223, -0.5022813005204592, 0.24883577310925498, -7.37582803324019, 6.002896694340529, -0.3247852590794641, 3.5401242699318773, 2.8819838893306837, -1.3049726320911417, 1.3187462116258895, -1.4099436871212008], [3.933424758355253, 3.8631846150689992, 3.3984732026903584, 11.466845286556708, -2.417137755853786, 0.15269648059166507, -8.183026383670535, 0.05607054655392807, -3.7950983948371153, -2.1591474059068516, 2.9123109195128096, 0.3976107849304155, -2.364407112751431, -4.689925269674151], [3.4318862118373703, -7.344922665505885, -7.195480201010319, -2.202375747003086, 1.5341771586603714, 1.4726573548384234, 10.143267898882414, 3.819317478938633, -2.416785282824509, 1.1083573283380022, -2.9248770707239955, -5.3745039329847355, 0.417042241909781, -0.15469085106534974], [5.378651738899885, 7.067705396031279, 2.8102712528912726, -6.897452184603818, -1.2769401723073663, 0.2093799959125935, -3.7389838833268625, -0.5672524295428061, -3.712108215936226, 2.1025688493470067, 6.341732997986573, -5.344379245637071, -0.8173761536939337, -8.467342491154715], [-14.19613943839028, 11.454213055307251, 1.4260731346101194, 4.956539861915205, 3.030728990720443, 1.0685633195644693, 4.2307218520103556, -0.47761988297860425, 0.7228490393104632, 3.7153790699541043, -5.475289674140487, 7.656755169403476, -4.060553279216174, 3.214068044685682], [4.211573088840618, 3.3762198971195923, -0.8038642268357618, -6.648680760260362, 0.3733050885620668, -1.8005916772867776, 8.084210859770732, -3.3450092929565103, 4.325393568595748, -1.5235501058951537, 11.171278801133258, -0.2165674203063499, 4.414874888757487, -3.849799956106395], [-1.5756893604825093, -0.03614576457270713, 11.162101033092451, 2.2862453937622265, -6.258949455334667, -2.437283871527403, -5.126747845228947, 0.17257146730356454, -2.615220874629499, 7.148796924629996, 2.755033689110145, -4.812438747471649, -0.8720130287685061, 6.88134081673953], [-0.25752036562855274, 0.3513192194817859, -10.138996965180857, -3.169998965683062, 5.442406969283313, -0.13194436089723904, -3.8564476612695753, 3.2619743479183283, 2.0839963349758346, 6.504009040921479, 1.325440734170563, 0.48213860203057746, 1.5356043851248429, -1.262660327200158]], "bias": [[-5.510312598799785], [1.0722974387985338], [2.2424494741706584], [0.6365525666757743], [-8.545008665450815], [-3.1025896601717164], [-0.1373303337995262], [-15.01264197103408], [-8.18474729481748], [1.2497507216859285], [-10.112450581159038], [-0.018831328145722193], [-2.503570267794035], [-7.013438751969598], [4.4097181580185225], [-2.522352570688379], [-2.6534196465737057], [5.996764054402628]]}, {"layer": "activation", "activation": "relu", "activation_prime": "relu"}, {"layer": "dense", "input_size": 18, "output_size": 4, "weights": [[7.566935844542152, -3.3362295403015105, -5.6946211456458675, -6.7083027454678925, -0.16398992891447634, -1.5412133472695222, -8.399898943238695, -2.1438285013632776, 0.1225659983769507, -6.312696639817212, -1.4258723299305462, -0.5964612039408808, -3.033517522464673, -2.4205818440152056, 8.090398667835904, 0.5332107920965514, 1.2808843794338731, 1.470463144004666], [-3.074764990807486, 9.26504521283227, 1.8729588495887508, 0.36293007617249584, 3.2852454918339933, -7.741940832846591, -1.4616084264623646, 0.6571170682163507, -1.294115253736988, 3.159484852301541, -4.975813887751434, -15.19455204087151, 1.0741300456444745, -2.5943103036484745, -1.7355793570779476, 1.9839018339267263, -0.7876012952040516, -4.007837128037702], [-3.3681765509572217, 5.381331250172302, -3.3498769324975926, -5.844152038791522, 5.033684907102976, -1.4927108829305213, 7.865609764821204, -2.2481100575426183, -7.095673638758092, -1.3067044827404555, 10.497447127137045, 1.2651701151809702, -4.410814547207022, -1.7076246908559412, -12.662114352072953, -8.057814893623622, -2.3208649406094026, 0.9166701172188026], [-1.5091290897613532, -5.997769050155761, 2.7092814386767934, 3.1662215006695322, 8.590913810933348, 1.3667786698966868, -9.91248060483209, 1.505948433948622, 5.5983487543109955, -5.96859338976927, -8.801128122262519, 2.555008061693111, -3.317535977488342, 1.5755216765854536, 8.00378614928545, -4.153645218545417, -1.9013579752806335, -2.7789365250725364]], "bias": [[-8.557068553588287], [-2.118030655126172], [3.554426932270384], [2.151015865771582]]}, {"layer": "activation", "activation": "sigmoid", "activation_prime": "sigmoid"}]}