{"generation": 521, "board_size": 10, "snake_size": 3, "input_direction_count": 4, "apple_return_type": "boolean", "segment_return_type": "boolean", "network": [{"layer": "dense", "input_size": 14, "output_size": 18, "weights": [[-2.892253343075309, 6.922384353899647, -0.24517281964877619, 0.7888440448803077, -1.7105170850229474, -0.15408030032056663, 2.5718715726203696, 1.0742556402514707, 2.601225090810918, 13.114192032890246, -7.771862382851063, -3.8843397164760862, 2.797888237059961, 3.7677195301923248], [1.6507604025052338, 3.923897487579747, 6.66938719155012, -16.088211730689846, 4.216878278620609, -6.449084085774576, 1.0987770226170046, 2.094902444846145, 2.3313073717545993, 1.058476053917079, -1.4901333129697878, 5.856681560572606, 6.105052978757455, 0.9428422128621237], [4.396386203366341, -11.08425361112725, -2.3497562074238107, -0.05596653599183818, -3.9445227806027496, 1.2801362908497735, 2.997395417812721, -2.950355654397403, 2.970691313266541, -7.047027895758567, 2.1649262532539413, -4.347627560043803, -3.8890908788919285, 2.880157157773165], [1.8055336819515047, 0.21374134866014768, 1.104439551411387, 4.206266576155878, 2.8794031770117736, -2.0906751421772514, 9.46799161605839, 0.8830819194280948, 1.7281149227020234, -1.8370624546806695, 6.5561076440245545, -9.130445582348818, 9.568933504956336, -3.595284856516038], [8.91813056448671, -9.099041697585788, -2.261234965558658, 3.958268925787999, 2.96343448763899, 0.36812430190299106, -5.515079375441728, -1.6524339705129862, -6.704900153390968, -0.41109194867900223, 2.286018504030542, 1.1793096262595755, 4.3193687091175095, 3.1040440956042126], [-1.9485496863559117, -2.0102833159940703, -1.8501778308534917, 2.1603892696220157, -0.5864095988391211, -1.097189156513978, -6.179375471856923, -0.21172341010936946, -3.2040226620902654, 4.746622576653335, 0.996964064284332, 2.926829771168258, -0.22215429606713133, -2.8988510776413703], [14.19135345521129, -4.52703665490529, -0.6536713405813682, -1.40297311290564, 1.8196998187770976, -0.7673690833607041, -8.791155858109594, -3.224259441416433, 0.293824637451626, 1.27546616993542, -2.879446530789992, 4.333717024997519, -0.7412811968017659, -5.454548777379398], [1.4331280392982717, -3.2257339445459094, -4.770477318886584, -1.05289273729293, -3.2960543980796553, 1.1973320685742168, 1.852983145561578, 0.9951430979641535, 2.0801929251655022, -1.3310372643885415, -3.7840938153046277, -0.18267102768274224, 0.9919824965261274, -6.17612371793863], [-0.5727084322770599, -2.8034675100613407, -5.44316801006013, 5.272823973086851, 0.5711275629417484, -0.4126595108423592, -4.811381269792886, 4.117565521195979, -0.07902953087100806, -4.545426736458886, -0.4647696098009162, 1.1941171278423084, 8.107382674707873, 1.7236866521476506], [14.32358614504745, -2.6174029611643044, 1.2810489183788658, -5.20727376166382, -1.4461672219083557, -1.0662645218245626, 0.4813654290838188, -0.10515493214670146, 1.9883751943056562, -0.6879343833681824, -7.862951247460975, 1.107282221766663, 2.725643465587738, 3.24186782426856], [8.694401567179284, 4.885253907062357, 0.9420920813164323, -1.8725341874600343, 5.233320425151998, 0.09407232471841875, -9.301324618442596, -3.3325912459275666, 1.2708586823762986, 2.632696572386244, -0.6351239673657592, -1.9348185564177895, -1.8381548040591174, -3.6779179439666736], [4.210006611632492, 1.9471916116122996, 4.131492027777185, 9.260115577985196, -2.9370545169254725, 0.15269648059166507, -8.183026383670535, 0.10455380878407206, -2.1944612841494484, -2.1591474059068516, 3.008242327186399, -1.2859768754028607, -3.019739424806614, -5.494769998748265], [-5.168750213178622, -8.764018433058613, -2.406963751470709, -2.271043011292495, -1.2260807218128853, 2.3024157363840594, 10.077882989206966, 1.72258396918481, 1.7160057218549396, 2.7435215587342032, -3.3718392831600834, -5.141844151443708, 4.927319042767364, -2.6302445958698475], [2.461180209375267, 7.4991718340638664, -0.4049989723919096, -6.6884394583722315, -2.253652940538419, 0.2093799959125935, -3.7389838833268625, -0.384601307565577, -6.2905286397904945, 1.7848101320463396, 5.144169485790476, -3.384356375670243, 3.0049477044752297, -2.6922256122079036], [-13.698077631297274, 14.82222858117759, 1.7496191068352016, 8.427382577155868, 2.1034291878682585, 2.673087427138492, 0.3388856888721188, -0.6651452725023838, 2.092925496268232, 2.1322989395580465, -3.8437058237477824, 3.585341517712714, -7.102324685584423, 3.3866239761871317], [-1.0931410368946675, 3.9946872921171117, -0.8826580348287862, -2.836400059173168, 0.2801622340046528, 0.860949011204236, 8.519141485637286, -3.90981258062742, -2.4578998516197106, -4.313460374900402, 3.7344041818761595, -5.15132978146887, 0.776886114823293, -5.499726311568059], [0.965799896382496, 5.750631640984679, 0.04531009362176226, -0.13679892107152922, -4.072769385149611, -0.14664176486585334, -4.358358012196588, -1.2370939319093177, -1.8975938994789538, 7.169079279787393, -2.4830238290992717, -3.420068215640589, -4.007878416616916, 3.0975325706683656], [-0.5019412816128687, 5.171173585845439, -4.705441699532565, -3.7737353643938008, 7.193975125544303, -5.344338018999129, -7.211231099750495, -2.503360450033779, 1.7351710781867824, 7.163074001845537, -3.5387916829517527, 1.496273453788917, 1.5356043851248429, -2.077515434676596]], "bias": [[-7.0155121186261775], [2.590698025859168], [2.3777402688005878], [0.6926393993840914], [-4.034837336150441], [-0.7723751661068059], [-3.646432757735703], [-13.748467834464222], [-5.690881580671308], [-1.2051044436965543], [-7.15931576658455], [0.4481436400098232], [-1.5866729176916632], [-6.534749337958946], [2.941976429058384], [-2.269727412812062], [-2.4768785618529874], [5.996764054402628]]}, {"layer": "activation", "activation": "relu", "activation_prime": "relu"}, {"layer": "dense", "input_size": 18, "output_size": 4, "weights": [[8.585014439548193, -3.3362295403015105, -4.705317389851298, -6.7083027454678925, -0.16398992891447634, 1.0290157308783223, -6.987081832729224, -3.2706658659701793, -0.43312428127262637, -6.312696639817212, -1.5658304958862552, 0.9519383435686732, 3.2267245282033996, -1.3959778963851992, 7.973729298696251, -0.3318666900847802, -0.06620325020252316, 2.8031339541576816], [-1.8677826868932936, 6.023764265502552, 0.40159763975537804, 0.7441511116308799, 2.2175788581995586, -5.506271416108183, -2.0714596195522725, 0.11049634540111841, 1.6687813964373015, 3.3626822527932996, -5.520403703650728, -12.71424393459645, 2.0075853912553168, -2.727771133422249, -1.473794990633003, 3.5206550711346245, -1.3830767374869992, -3.635085225649613], [-3.800873047283308, -2.8154872596631684, -2.286348674867381, -6.777023304230943, 4.2226591176178285, -1.878097353886674, 9.176839542455863, -1.2748551279447444, -7.095673638758092, 0.03734927047447156, 10.497447127137045, -0.68131671151381, -1.4393538271849409, -1.055875647198665, -11.947923016375881, -7.752212283002853, -1.9556455812301177, 0.6615340534811504], [-3.1766938502975886, -5.660270808043305, 5.834654156947891, 1.5991337283732434, -1.810169045602922, 0.9792127149060876, -5.0793627616540435, -1.0653976111511838, -1.3204178201043795, -10.330571772059153, -9.450226543029547, 3.447143852304925, -2.770612152820035, 1.0124455704940265, 5.758676673181391, -3.6935555197627723, -2.496109420768072, -2.9238933142579673]], "bias": [[-6.2052429928354425], [-2.118030655126172], [-4.39757621636493], [2.151015865771582]]}, {"layer": "activation", "activation": "sigmoid", "activation_prime": "sigmoid"}]}