{"generation": 368, "board_size": 10, "snake_size": 3, "input_direction_count": 4, "apple_return_type": "boolean", "segment_return_type": "boolean", "network": [{"layer": "dense", "input_size": 14, "output_size": 18, "weights": [[-2.1354518263585924, -4.05240854265985, -0.787244427971302, 11.8635380327689, -2.2048176362279257, 8.323128281224848, -8.638953943988994, 5.049626691807024, -6.663926086467293, -0.3504485075992283, -2.8943765794510985, 3.026683011760417, 0.5792786398980397, 0.4470012634152385], [-2.5042915472701868, 6.850626277504787, -3.6732314195863087, 2.3547375615724215, -2.2166419165508073, -0.4159801819604192, 1.3230282769247137, -4.871177626315126, -3.211451862340568, 0.5945456639675945, 0.9865031451694666, -3.588165568302655, -1.0855982876582946, -2.3217973964516925], [-1.1573502580423256, 1.8238214278851108, 0.49549626467615093, -1.00914646108436, 1.4397228741754915, -4.284406114260891, -2.446063634673262, -4.281616359955695, 5.288487625881619, -0.88568632196746, -1.8513824461569246, 0.4049196756193371, -4.638463527295293, 1.9356748695440305], [-2.5169846850848874, -5.705377366485438, -2.8364323346102136, -4.343376126138765, 3.1468623236675306, -0.2964819549573712, -2.3642489637886284, 0.5381377277079433, 0.8254008104799937, 0.5057689537092196, 0.09900442374760532, -0.0805127530504611, 2.130090513483969, 0.053980491421363186], [0.22998453653025341, -6.671321009588136, 5.242000157803322, -8.44458930376814, -0.9581389905846993, -2.76310422515798, -4.565408551251993, -0.45104016396296026, -0.659744826960444, 0.21812922539091809, 0.7613509871869073, 4.432298481126632, 1.7538520110629559, -1.1231052287761567], [-8.944214212079906, 5.648534779867561, -0.6840118874502409, 5.391909788084977, 0.01670576525757783, -0.20141584820342529, 6.676574807918124, -2.506681534952633, 0.1431577779650013, 1.6914486094019026, 0.2790821502324806, 2.6473091094225816, -2.6598941093348274, 0.627856683421902], [-5.776367755181349, 1.655256077441868, 3.501045466854105, 1.0680170081153069, -0.41362822345937267, 1.8594205841522335, 2.606073597710649, 2.311121090512976, 2.5441492263953256, -6.221174305493363, 5.703526419256988, -0.30810117359779954, -5.6632712185971785, -2.2440432352309068], [2.005167639238591, 0.9028490841674446, 1.3472425241110488, -0.05123463748496748, -4.795653583463389, -1.8458594988959245, 0.22242497810100326, 2.2845410019931034, -0.7558097318751935, -1.897186826360703, 4.169116208976991, -4.44991206019914, -1.2541345191109743, -2.593520108869405], [-2.172832496847616, -3.204863657989551, 2.4670995491938568, -7.057805800509674, -4.232726505946422, 0.1702142148057335, 5.986486843083955, 0.7026484621116825, -0.4002912333298818, -4.658683009309652, 0.7389965210036994, -0.9649515442445309, -1.6803808980652313, -4.8932850150891385], [-6.28115186006649, 2.930473442610089, 1.1690446073916214, 8.148945324116365, -1.923118579801555, 3.6118143972002077, 1.1719812923057356, -4.6203082053942115, 3.142039076425445, 0.5512455349793622, -5.264236765060828, -1.8401386474080845, -4.632116087873757, 0.8710118002965533], [-3.67000601514637, 3.9956735902219482, 0.14102083795256304, 0.22666119817946423, -1.3956066897773305, -1.7168572950839507, -3.9302720718378508, -3.782907588155326, 1.4630653090759889, -2.8870418536918594, -1.0724626573252805, 1.1482362709085125, -1.8811214903558817, -3.5051177647722573], [2.465687662333317, 1.163710961920469, 1.1518501557928094, -6.902808741392275, -1.1647968411842469, -3.185830723707244, -5.1634258580783365, -1.7573112213303284, -2.522985900919979, 6.201520383809485, -2.2040300251868357, 3.437725278400207, 3.9628649065817854, -0.8264951335276647], [-1.539470997515444, 1.2688901958654992, 3.7380562127776704, -0.7004909058988857, -0.16806397422646846, 2.1590465182938248, 1.578812328402107, 0.9801685222156704, 3.5700292956378483, 2.35107204620648, -3.1796559602495433, 0.6047362047914961, -1.5588872295020213, -0.43500073356777436], [1.9731993521600306, -1.5473111911703537, 1.1447887302692528, -2.9347001331122815, -3.7497959893017994, -0.0677930343463895, 2.656269950339363, -9.115106896347575, 1.3018964009631957, 2.651475879100167, -4.458220388493022, -0.11542421382582263, -1.974489389028979, 3.959854581096303], [3.3361176005353377, 5.4733173356411, 1.8993584235361591, -3.036821881925676, 2.8773749147009164, -6.708742708390305, -2.217217323376036, 3.8702616527595604, 0.8026650830389567, -2.230993666163701, 0.36591681465791226, -4.000896984707976, -1.2472387913075087, 0.07388007116748663], [-4.692689147435868, 0.9322358974655537, -2.288855529053002, 0.30673856992042214, -1.4916419728407375, 5.112670907271201, 0.3285754326058079, 2.619793984494776, 2.9585329958691995, 1.5323488757121235, -1.329857482969644, -1.3618839577197117, 3.6045280459613536, -7.050686748350511], [-0.11092080545176619, -0.8372583416468296, -1.0661318095607681, -1.4744142339097637, -4.600937443925822, -0.927684830298781, -1.5502685523579767, 0.28531773614853384, 7.957405602499135, 0.8990765637881468, -5.6455026590802095, 1.8897414076942598, 4.080475973256428, -1.1364329261217117], [11.926157669747445, -8.554033415469997, -1.2604496709024953, 2.8014069330563958, -0.4084810759669561, 1.0116105721259456, -1.842195026012729, -8.647258362524525, 3.864110065417537, -11.50706546260248, 2.249454223831949, -0.7646064568629249, -0.32336953752911557, -2.47983266356066]], "bias": [[2.7174176503562673], [1.6898101383399273], [-4.369326987098001], [0.9082083023356569], [0.7018304534219078], [1.7184086244822423], [-1.2889482833908525], [-3.536026813745715], [-3.6236098481307306], [-3.0325137031140095], [-2.368089839501723], [3.0341783918150176], [-4.9721270317818265], [-0.23350535295984515], [-4.686740835583315], [0.041838781551919335], [-6.251552568161929], [-1.7611175468843525]]}, {"layer": "activation", "activation": "relu", "activation_prime": "relu"}, {"layer": "dense", "input_size": 18, "output_size": 4, "weights": [[-3.340452815516009, 0.5152669422688658, 4.038918732440097, -2.0986952033047697, -2.1016567080648674, 7.960228652069697, 2.227472741997506, -4.766845984052777, 1.6358714060357258, 2.730966943763632, 2.9141346431404194, -2.724619663182978, 1.7993373780231776, -3.985413831728862, 1.0023405601177533, -0.5791368122493359, 1.9923770796146205, -3.7561540512070057], [-1.2871459483362262, -8.848591318576476, -0.31698249723349026, 1.3330775631235414, 10.057550446897809, -4.784582908314273, -0.33509446064726534, -2.7875054087544253, 1.8913667687862348, -6.5795359047752, -1.4739133352974263, 4.735122277371091, 1.514276798107914, -0.74100690339513, 0.6839653833788708, 5.493903699122337, -1.2656344977171585, -1.9640961590600048], [4.1566893676385686, 6.67053664645861, 2.783376489488407, 0.2080408195802106, 0.181935730721847, 3.9816005238388943, 0.5541668201268681, 0.5041601286570656, -3.193857718354073, 1.7247861887006288, 4.627963499017876, 0.9613746870514859, 6.698880340328901, -5.404319388127378, 2.0413130232243146, -3.7869276689677727, -1.6745322600852508, -5.068230076125392], [-1.0352365696266566, -3.6968911683401475, -3.0725154685128, 0.4386056546453937, -3.438332967048776, -2.072845455820227, -6.56722839961055, 3.6572637160879258, 1.023388492626809, -0.2708394501219955, 0.8783721162846403, -3.336992427059625, -5.665951012173769, 1.5601467848522916, 1.0079337740514762, -5.5305961296935475, 2.032100043895392, 8.054485079128856]], "bias": [[-2.6466921744814265], [3.7378025145759146], [2.482112560496368], [-0.46216619391800584]]}, {"layer": "activation", "activation": "sigmoid", "activation_prime": "sigmoid"}]}