{"generation": 375, "board_size": 10, "snake_size": 3, "input_direction_count": 4, "apple_return_type": "boolean", "segment_return_type": "boolean", "network": [{"layer": "dense", "input_size": 14, "output_size": 18, "weights": [[-2.4453021538346427, -5.492098856496975, -1.0853895691902888, 9.608035982516022, -3.692032558131322, 6.1284202207776906, -8.627359231176872, 4.796449612885265, -5.475209834034363, 0.6454635276565623, -2.8943765794510985, 3.5926144950849555, -0.07977430118876216, -0.21802429598001205], [-3.64729063287796, 6.256997648887239, -2.9002761458382387, 3.8202956559350087, -3.727882348374691, 0.0756501097393148, 2.0728325162943952, -5.094237689916891, -2.5215322813598755, 0.5334043769910652, -0.8504167356568405, 0.2210230514729618, -1.227388126473738, -2.7404913146731396], [-3.0945275845087945, 1.7742925544819206, -2.4108227057190525, -1.00914646108436, -1.4558408670316214, -4.901306653676498, -2.6030592714227936, -3.288761448753385, 3.3901749140185276, -0.88568632196746, -1.8513824461569246, 0.4049196756193371, -4.149761529681546, 4.572499542508586], [-1.3901843607780786, -9.579858840704105, -1.336037585469993, -4.6444031045345096, -1.0566763375880104, -1.741959842232101, -0.9922992918280069, 2.8645836755650755, -0.5593109985114006, 1.7335336639280619, 0.09900442374760532, 1.7678619747134299, -0.5682247205578694, -0.9983236835335327], [-0.5550065184912581, -5.246825085975323, 5.242000157803322, -9.269507227973966, -0.9581389905846993, -2.76310422515798, -4.665455505574225, 0.07566847917794756, -0.659744826960444, 2.894536126402271, 2.344940885970438, 3.048306562541307, 0.8903266807517272, -1.3784216448740163], [-8.981654996089249, 5.156204377166343, -1.507302940992654, 5.141050115517471, -0.2803762401998733, 0.7033406569925245, 4.970846485527337, -1.198862515103154, 0.6394700015909297, 5.0353237695783015, -0.4567890111666977, 3.5733657552346405, -3.548871322776418, 0.627856683421902], [-3.898541983578958, 2.62601716688083, 5.2400502246103215, 3.01650123216067, 1.3083885168623075, -0.18778267175615304, 1.7470516002224423, 1.8337357141116106, 2.814041497408252, -3.924329625271767, 4.6081778504871655, 0.4687642617553449, -4.79793853515387, -1.8037915855938422], [1.9482945531488305, 1.2313363477867734, 3.1117755487627425, -0.05123463748496748, -5.144760272726155, -2.9609752638274873, 0.3841675044860766, 1.9169765836009567, -3.354723884311009, -1.3164911195999547, 1.9709806379710046, -2.4403741335112796, -3.7005520039740194, -1.8719897236108092], [-2.7281652766908584, -5.7615212655557775, 3.5451676798931953, -6.546359740037936, -0.9329268269968469, 0.18464439749621198, 6.090151633720178, 0.21209275113697207, -1.466764127498828, -4.93809333447158, 1.0298544368360811, -1.578976859094897, -1.606355978465458, -4.099915709114068], [-8.893924283818466, 2.088669836276192, 2.216276583195364, 4.925244708999802, -0.44020623643625495, 3.400978078201182, 2.904272448086452, -4.813682107166251, 0.23582312719438026, 0.8003559097922301, -1.6122840471433966, -1.3948690551731024, -5.650975948816264, -0.8587355159331926], [-7.0574043943794145, 6.29381529660027, -1.6840900350162602, 0.1787215360433505, -0.9059532050700843, 1.4996511645075938, -4.128502518737019, -3.782907588155326, 1.8403667673162292, -4.16666647218301, -1.2612178342178302, -2.201101616506772, -0.7523626805299914, -2.971048687145773], [1.7178061254019044, 1.502984925719294, 1.1518501557928094, -6.7392057047994545, -0.8739718176117701, -0.8961696959695131, -8.736684427250708, -1.7573112213303284, -0.9655979998000179, 6.169546536335609, -3.851050085990705, 3.2771489205024795, 6.16052831746088, -1.0479523289222594], [-0.998319787820777, -1.350934210072206, 3.0208558044360196, -1.617996794650951, -0.5953377561885878, 1.6742037941176537, -0.8070795082240378, 1.372695312824495, 4.692899836825809, 1.1044921746731722, -5.111867374612324, 0.6047362047914961, -2.357050842399561, 1.1904731074402455], [2.387122850380484, -2.270332586309863, 1.435543815223664, -4.229502410393071, -3.75493589732376, -0.5548835316735501, 2.3878870330738957, -7.714733080481178, 0.09136418970732296, 2.651475879100167, -3.534683658033474, -0.5380592406943823, -1.790894021969737, 5.872612883511576], [3.471112990946488, 4.589324422488261, 1.2530392681247056, -3.7885475419241597, 2.6582676714013798, -5.752002700030106, -2.217217323376036, 4.317922502850432, -4.242607593615192, -3.138171101918766, -2.582295003610695, -8.03561776390049, -1.639287053584026, 2.0345185331398157], [-2.7760618247572917, 2.6451606910325025, -3.328269475221945, -1.8062493347472939, -1.4916419728407375, 4.4801059076372, 3.2147487259657037, 1.217281493689871, 4.613070774867942, -0.05746337547445535, -3.5798110574566615, -1.2829982436099185, 3.7799171641008824, -6.768430989900205], [0.09263522226395249, -0.8230923108811692, -0.8376978150525741, -1.4744142339097637, -4.346605803858695, -2.8697207963451605, -2.7635290343438816, 0.28531773614853384, 5.8063750391715505, -1.5143567305883392, -5.784765950343448, 0.5194687667911617, 1.136580524784577, -1.0709653965577683], [10.13098578801479, -5.411132046557728, -2.743931267843153, 1.4537159167637324, -1.9335211629471019, 2.3654866546095743, -0.001695868312217254, -7.788418657546851, 4.877355528670129, -10.074759752974753, 2.8255227224408412, -0.37575054176563466, -0.7928347475390569, 0.9994111134311008]], "bias": [[2.5633668826681943], [0.4281214672568452], [-4.54701667551306], [0.011807189625618997], [2.4648647923589513], [1.3226450319205376], [-1.2889482833908525], [-2.3169196785382074], [-2.553190232476698], [-3.1177855746509486], [-0.7658371362552406], [5.1262494355596235], [-1.1130944840844528], [0.22641891142368253], [-7.417815815988164], [2.1407735772360996], [-7.505653317458554], [-1.8459314090765004]]}, {"layer": "activation", "activation": "relu", "activation_prime": "relu"}, {"layer": "dense", "input_size": 18, "output_size": 4, "weights": [[-3.9439796079720533, 1.5435764443005362, 2.2859966931312807, -3.041913590840101, -2.5585172566332988, 7.1158029444171795, 2.227472741997506, -3.538855182238719, 5.327423816459584, 3.1923157618235947, 3.568876000235885, -3.6942163804317163, 1.0599580473242105, -4.216324093701916, 1.0023405601177533, 0.4557025050577628, 0.7644413798820547, -3.3992906062246315], [-2.2827888048019576, -6.754261095599669, 1.1734132528518582, 1.3330775631235414, 10.086275741593486, -3.90965763929238, -0.019440277113982607, -3.1272594334253845, 2.2410803663698844, -7.259069938231213, -0.4527810566683139, 3.583925179186213, 0.6845254905710316, -1.1380683478567666, 0.2958445281383556, -0.05016052380314273, -2.808919702811021, -1.9640961590600048], [4.384478883227047, 6.627188819054386, -0.3201442532810144, 0.02596841339610978, -0.5589782235317371, 4.921351334166998, -0.9326982099083378, 3.3235983468234584, 0.051170948981680064, 1.7247861887006288, 4.627963499017876, 0.9613746870514859, 6.698880340328901, -4.832198353011915, 0.23735776254761998, -3.7869276689677727, 0.4158010489728676, -5.875744354849496], [-4.585795058977542, -4.027807276098796, -4.3608671134770685, 1.2058289111495366, -2.3908287448837275, -1.4108854565179876, -5.508386048393713, 3.9220686118911177, 2.368961465990264, -2.465431439620694, -0.38156897179422344, -1.7217149345656648, -5.540728617517944, -0.022800916052537867, 0.40965723407201127, -1.169512273781609, 3.363583856537039, 8.673130629641664]], "bias": [[-2.0388711277736196], [3.9649676113110415], [1.6823853749055457], [-5.501401546956549]]}, {"layer": "activation", "activation": "sigmoid", "activation_prime": "sigmoid"}]}