{"generation": 377, "board_size": 10, "snake_size": 3, "input_direction_count": 4, "apple_return_type": "boolean", "segment_return_type": "boolean", "network": [{"layer": "dense", "input_size": 14, "output_size": 18, "weights": [[-1.9088025648339693, -5.7158071542677575, -0.4162958238835751, 10.885908222258205, -2.396156484771087, 6.822182138591296, -8.188168956885523, 5.049626691807024, -6.905427997348202, 0.6454635276565623, -2.296495050985373, 4.15810878654438, 2.8065692907125652, 0.015312617038967247], [-3.64729063287796, 8.816880003577161, -3.371351055648455, 3.4723523890885097, -1.9409277662824251, 1.157244281318123, 1.3230282769247137, -5.819894959083909, -1.8836909467130472, 1.3303644394711076, 1.8278072558719791, -3.043904352454734, -1.0855982876582946, -1.0396566950422872], [-2.1171903194536648, 0.481137692626335, -0.2990142496243793, -0.02050821238508782, -1.4558408670316214, -0.04000271885364137, -2.723897478975492, -4.378098261334146, 2.6062140302473593, 0.513757789555777, -2.3826648054650104, 0.10629649040315581, -3.444199282755792, 3.326945414343687], [-1.6884836934288336, -7.635819934725294, -2.2725026779440816, -4.421502268020785, -0.9521362235953955, -1.103245712749516, -2.012814149584071, 2.193544480009987, 1.9670837079958632, 1.7335336639280619, 0.09900442374760532, -2.6284550856830617, -0.3458942999469519, 0.02915950248677618], [-0.9547694196199675, -5.433640505084876, 5.3003609518077655, -9.21048623001504, -0.3046413780315637, -2.597292760191623, -4.8196905406980655, 0.33249020156169556, -0.659744826960444, -0.4466464909079585, 3.096723293296762, 0.6077403506341839, 1.6711060663768122, -2.467073185541987], [-8.495889769614507, 3.920826165191105, -1.507302940992654, 6.303613373501433, 0.6500574304260565, -0.5258574647311793, 4.970846485527337, -1.5572881461823826, 0.6394700015909297, 2.865708468738011, 0.6722431885828388, 1.8198255645802197, -3.548871322776418, 0.5403633995831878], [-5.920949822992642, 0.34196027907204135, 4.291380047810112, 3.01650123216067, 0.26421142057212155, 1.450559765692544, 4.6211761547348384, 1.8337357141116106, 2.3609809829350192, -0.7821042836899776, 5.703526419256988, -0.30810117359779954, -5.407116537661496, -3.420918616499033], [2.005167639238591, 2.763629374549745, 3.1248349703259253, -0.05123463748496748, -5.144760272726155, -2.2089210874666603, 0.8286082463638295, 2.2890937396438518, -2.0664758320984316, 0.8812596883929432, 2.081141967450732, -4.44991206019914, -1.358062641678352, 1.7979265976840488], [0.22414099914364516, -4.095974025278644, 3.0947488070316505, -7.057805800509674, 1.2217645714623817, 0.16841058416484453, 6.040374622823576, -0.8872617224841497, -0.7344535422375071, -3.716704788413483, -0.5777879006051099, -1.654713764032563, -1.024607789406188, -4.099915709114068], [-6.03929038893097, -0.503532158974554, 1.4640763744872067, 10.059905221800717, 0.13681220586755588, 3.400978078201182, 2.904272448086452, -4.6203082053942115, 1.2009545633061736, 0.5512455349793622, -2.6832119595790203, -1.5941362610056744, -2.7969229710027337, -0.6231614843027625], [-4.938395899118236, 4.202622804485589, -0.524855575659294, 0.1787215360433505, 0.7571909270295812, 1.4996511645075938, -6.217704317864618, -3.782907588155326, 1.7924336290639247, -2.8870418536918594, -1.2612178342178302, -0.2926895795856601, -2.2459526858601135, -4.617061078606195], [-0.11971153686423164, 0.6932054242958876, 1.1072807790254215, -6.914613831715546, 1.1568036466767597, -2.1785371699397515, -5.341596575654573, -2.2298028142102635, -0.781412709292715, 7.61149399653735, -3.331772509919263, 2.429377066402817, 7.271016756046296, -1.0479523289222594], [-2.8066231442837433, -1.350934210072206, 3.6584979275841, -0.517773831163442, 0.528619477077152, 0.9570391555136062, -0.8070795082240378, 1.372695312824495, 5.511770455037692, 3.252918379676262, -4.434765812362229, -0.4513601418823916, -2.5235177805964013, -1.0627763663515077], [2.5008936379760462, -2.6506465852180434, -0.09302293819528784, -3.538719111768332, -3.794003068090215, -0.0677930343463895, 1.7721484771867853, -10.150486661582196, 0.09136418970732296, 2.855983741746888, -3.401686995678038, -0.3386896687543486, -1.819786055647966, 4.833266429652173], [3.3361176005353377, 4.906414168939738, 1.2530392681247056, -5.800574079888127, 2.5519630303579484, -7.92403791929439, -2.217217323376036, 4.023753832650207, -0.3731473956113256, -2.581058980039016, -4.1246993864773085, -6.574295418190109, 0.5224241816250984, 1.8349730972348361], [-3.393062118556055, 2.0361066836365738, -4.257226163042886, -0.7694586012802132, -0.43909818051856875, 3.9049100989091317, 2.0615482171913353, -0.9499344279522575, 1.0710418526523235, 1.3733009021159073, -1.329857482969644, -1.3282403499311641, 3.5053926256310897, -7.521547961092276], [-1.9148158772949815, -0.6646935405064869, -0.37934496840893006, -1.4744142339097637, -5.584845325011074, -0.6942056003083873, -3.9469159076281923, -0.4963532339118749, 6.605583976642055, 0.8355139369651974, -4.134237871196369, 2.4717865812939683, 3.1083843973359553, -0.9115456812203038], [10.13098578801479, -5.411132046557728, -0.7983267304039658, 4.086510564903162, 1.2403583299019008, 0.9062888086895102, 0.000612821731366231, -7.118055193597835, 4.932823862189858, -10.965552243039518, 3.024447181856934, -0.47719056175991803, -0.43819128864864204, -0.36592580971305594]], "bias": [[2.7174176503562673], [1.6898101383399273], [-6.284297645055912], [-0.9445071714050891], [2.296951905803126], [1.315888513867856], [-3.2776839765911276], [-2.899790102573251], [-4.344260740935711], [-2.712033161352665], [-2.4117922109464276], [4.985301889045556], [-3.1864261863675867], [-0.038838350412422645], [-2.1249750179661087], [-3.710061279483445], [-5.591122976746988], [-2.3290143133011463]]}, {"layer": "activation", "activation": "relu", "activation_prime": "relu"}, {"layer": "dense", "input_size": 18, "output_size": 4, "weights": [[-4.214443130903973, 1.2060398088129043, 2.161729396316857, -0.7001067293376073, -2.0203849327327457, 8.41552922052442, 2.3210182959293797, -4.111199830795907, 7.180028912554695, 2.025133238587381, 3.937335624702972, -2.724619663182978, 1.482440212016734, -4.019456042488271, -0.7206526547236438, -2.9104487027383565, 0.7644413798820547, -4.82975871583224], [-1.3989360866725953, -6.754261095599669, -0.7673881652541018, 2.528947232245395, 9.45981577330887, -3.7308086826799554, -1.3924641973014458, -2.342000178766008, 1.0967819685620757, -3.4187122548008073, -0.27606334495854246, 6.137529976504408, 1.8073985367768899, -0.6880240892539342, 0.917253691368417, 0.881048084664332, -2.6180283949977703, -5.5091968652685175], [5.93514170760206, 5.692714739139437, 3.5753443139303647, 1.4751215042958332, 0.006274661289605427, 2.955158216694536, 1.1081002787671002, 2.587996257709544, 1.1917864708044934, 1.9506550278711132, 3.5157473404557393, -0.12500111620066962, 7.032909505146186, -8.365412005063243, 2.4672095690048303, -6.6901155286426075, 1.654411105731151, -5.9775275005412585], [-3.3225892232850742, -3.0661584943152453, -1.6271365145588301, 2.3301691875587736, -1.0741904427105795, -1.2952936908340718, -7.4257733331440585, 5.113815413275087, 1.0611645007107373, -0.42492809153725497, 0.817651649274477, -2.439312668200551, -6.005729462343579, -1.7862078643082364, 0.16954193612510848, -5.8426315403351605, 4.6454197882662625, 11.243443127332887]], "bias": [[-1.1439530240964837], [3.167857863919272], [0.5931547016194418], [-4.376279857023779]]}, {"layer": "activation", "activation": "sigmoid", "activation_prime": "sigmoid"}]}