{"generation": 517, "board_size": 10, "snake_size": 3, "input_direction_count": 4, "apple_return_type": "boolean", "segment_return_type": "boolean", "network": [{"layer": "dense", "input_size": 14, "output_size": 18, "weights": [[-2.892253343075309, 6.817505061059811, -0.24517281964877619, 1.2449758219275735, -1.7105170850229474, -0.15408030032056663, 2.5718715726203696, 0.11951790340713825, 2.601225090810918, 13.114192032890246, -7.771862382851063, -2.16110047600986, 2.797888237059961, 3.7677195301923248], [1.6507604025052338, 3.923897487579747, 6.66938719155012, -16.088211730689846, 4.216878278620609, -6.449084085774576, 1.0987770226170046, 2.094902444846145, 2.3313073717545993, 1.058476053917079, -1.4901333129697878, 5.093163279325245, 6.105052978757455, 1.3533167614654298], [4.396386203366341, -11.08425361112725, -2.3497562074238107, -0.05596653599183818, -3.9445227806027496, 1.2801362908497735, 2.997395417812721, -2.950355654397403, 2.970691313266541, -9.291189903813185, 3.2287077752445716, -5.149824939980755, -4.2069515509212385, 1.1590025435911686], [1.5977314892920398, -1.5490270009886422, 1.104439551411387, 2.5755858441364463, 2.6073108382459322, -1.176041126937461, 10.406839431126441, 0.8830819194280948, 1.2216495243585632, -1.8585002903602603, 5.328656971241312, -6.216001701943823, 10.49837506671155, -2.8258728777678765], [9.93936913681839, -11.065579349562409, -2.7165396154971813, 4.499141845305059, 1.9700935331593457, 0.2411002366179552, -8.181962041609776, -1.8647792552466038, -7.125978959110245, -0.22870941529825362, 4.3383941576153, -1.092372563581608, 5.295255840798606, -0.018155645307021018], [0.49339540192877174, -1.8795276628055635, -1.350657049728941, 2.1603892696220157, -3.721173402617355, -0.9458156530966656, -8.019519979716375, -1.7107604420486733, -2.172739085368095, 4.629930554621371, -0.9269115542393072, 2.926829771168258, 1.9684723048208639, -3.7081798181994836], [13.826411782431187, -3.977718374870673, -0.6536713405813682, -0.8477505237465927, 2.5338970688861835, -0.7673690833607041, -7.314898719569017, -3.7740868526120512, 0.293824637451626, 2.510264335396778, -2.879446530789992, 4.603741457892354, 0.505744889161439, -5.124239799733281], [3.8482181511001294, -5.322356890953333, -4.378150614963331, -3.0522179961359717, -0.4320039909141433, -2.0291532443451112, 2.8997542867297375, 0.6082069659425922, -0.011059668603476291, 0.853622829817551, -0.5851446799676558, 0.14548328523353357, 2.2043552320902595, -3.0367832652889777], [-1.3499509257581312, -3.111224990053445, -5.020694831857441, 6.17075457508587, 1.0758402900635124, -1.0780902349360464, -3.4708255009598483, 2.775458749929232, -0.23783755490051584, -6.78622301920147, -3.426112359485896, -0.30086121494471385, 4.520725397505851, 3.366820891298324], [12.528773857318562, -1.2081259896486023, 1.2810489183788658, -6.875290769221924, -2.855371221838073, -2.211877137910198, 0.38178397939572245, 0.519678966742416, 2.2157841721717775, -2.652020638171446, -7.532199618487074, -0.4591301058281053, 3.4358603416196303, 6.035771464029385], [2.908420905640407, 8.754757808975082, -1.2914927804192664, 7.107966474208282, -0.20420400014548212, -1.1007631043021924, -3.884736003008834, 1.642145123585875, -0.3754941079982592, 4.0066462886942285, 3.0637583328827027, -0.6994698295949789, -3.1091511770557574, -6.694775915825795], [3.0737804296317472, 2.5942409540440345, 4.17787530609829, 15.15514261171124, -1.3465008292783938, 2.468647308794036, -7.3835508991707455, 2.018924639972846, -4.935724705613951, -1.752088386315633, -0.011235560795460842, -1.2264811727988705, -5.145162351992143, -2.169490918709058], [3.4128716224999742, -7.642449436238813, -5.290565338817472, -4.651067927003951, -0.3135706842011008, 2.3024157363840594, 8.510655945643098, 0.8105902377976567, -1.7470693047876567, 2.393160208163276, -3.03213055110919, -4.34580611981602, 6.532944495142325, -4.632295795809185], [2.934922244299859, 4.571907293753254, -0.972240214891726, -4.507209149573104, 1.8187961758261832, -2.279464795863615, 0.32767836974798437, -1.2321573399197967, -6.2905286397904945, 2.6905449299224755, 5.144169485790476, -3.384356375670243, 3.0049477044752297, -2.6922256122079036], [-13.698077631297274, 14.058709619059112, 1.7496191068352016, 8.427382577155868, 2.1034291878682585, 2.673087427138492, 0.3388856888721188, -0.6651452725023838, 1.6822157424969013, 2.1322989395580465, -3.8437058237477824, 3.585341517712714, -7.102324685584423, 4.109784860148802], [-1.0931410368946675, 3.9946872921171117, -1.151303481293593, -2.836400059173168, 0.2801622340046528, 0.860949011204236, 9.225154767443621, -3.325218433505339, -2.4578998516197106, -4.313460374900402, 3.7344041818761595, -5.15132978146887, 0.776886114823293, -6.124581853188729], [0.965799896382496, 5.750631640984679, 0.05419036283608536, -0.08592620324478784, -5.282175449390556, -0.14664176486585334, -4.358358012196588, -1.2370939319093177, -2.1212929521992807, 7.169079279787393, -2.4830238290992717, -3.420068215640589, -4.007878416616916, 3.0975325706683656], [-0.5019412816128687, 5.171173585845439, -4.705441699532565, -3.7737353643938008, 7.193975125544303, -5.344338018999129, -8.071023136500758, -2.503360450033779, 2.0839963349758346, 7.163074001845537, -3.5387916829517527, 1.8780990120662604, 1.5356043851248429, -3.0250743028198612]], "bias": [[-7.0155121186261775], [1.137743347051275], [-0.5075008278480254], [-0.2929215905653395], [-7.6806176080866955], [-2.9748997099797148], [-2.8204083477326503], [-16.44041666645021], [-7.397277622146393], [2.954229556664943], [-3.9265630696212814], [2.713343125401853], [-1.193845006754391], [-6.104699616106393], [4.702688285896919], [-2.269727412812062], [-2.4768785618529874], [5.996764054402628]]}, {"layer": "activation", "activation": "relu", "activation_prime": "relu"}, {"layer": "dense", "input_size": 18, "output_size": 4, "weights": [[8.585014439548193, -4.706598733737859, -5.6946211456458675, -10.45834963244724, -3.464699385286156, 0.032317656712705034, -7.779119514955788, -1.7934121505551748, -1.0180704377904637, -4.286250900241697, -1.095508445221922, 0.08642499920507118, -4.396768064011563, -0.7659015838915431, 6.283817770080016, 0.5193450017588707, 1.7913561872657204, 2.2043391808629513], [-3.5271900075995886, 7.333693118332659, 0.6915436328702098, 2.098133976201709, -3.5889630276045614, -4.801465439147665, -5.9701816749421415, 2.2568503803707203, -0.8933672665282198, 4.85232086590355, -5.277356116692996, -14.83930559091284, 2.8837677024646955, -1.6700529519823404, -2.1831441665798432, -0.2611896608919364, -0.9765296903923224, -1.909348362805664], [-3.157630731932249, -0.8244695155183864, -1.8817714130852534, -5.844152038791522, 5.033684907102976, 0.24355444235462032, 5.098220072756197, -1.8525511260340055, -8.693635267745389, -1.3067044827404555, 10.497447127137045, -0.17249759257905173, -3.646450839404243, -0.47448183505520136, -11.173473523093271, -10.238541664635378, -1.9556455812301177, 0.6615340534811504], [-2.2859291547558023, -4.7781683520491125, 5.399924591524306, 3.4270744731387586, 7.383812280670508, 2.376322720866056, -7.350214655755433, 2.3948465620074995, 6.274368608599705, -3.436010598507186, -10.274754468484925, 2.555008061693111, -3.317535977488342, 2.4435047658967126, 5.695152874437559, -3.6935555197627723, -2.496109420768072, -2.9238933142579673]], "bias": [[-7.4695448383797665], [-1.1587760175052568], [2.424417789065915], [2.151015865771582]]}, {"layer": "activation", "activation": "sigmoid", "activation_prime": "sigmoid"}]}