{"generation": 276, "board_size": 10, "snake_size": 3, "input_direction_count": 4, "apple_return_type": "distance", "segment_return_type": "distance", "network": [{"layer": "dense", "input_size": 14, "output_size": 18, "weights": [[-0.24549054782915858, 3.7315899533410524, 0.09724649939316793, 1.0140288559321184, 2.0020634452695965, 3.0934516966530503, 0.5671886824624399, -1.770761110658939, -2.9240179922270455, 0.8174970960912175, -1.5737367062182996, -2.3377467067647912, 0.4281879930495715, 4.200385476788101], [-1.382594804296999, -2.1656289999597327, -1.4932141524678677, 5.34672542376998, -4.6306348452003725, -3.0669868975991808, -1.3426440750056328, 0.999281049776363, 3.368184810816596, -2.5331771843578297, 6.134939789570078, 0.6855468594097527, 4.475350967416461, -0.9904839248036424], [0.35625038768658734, 3.265479551760058, 0.4267591296429206, -4.275649627834942, -2.478298990531138, 1.7139896137356847, 0.8876988250095631, 4.7585294975585395, 2.304697333309713, 4.337340200768239, -0.46461531811402307, 0.04966432309842106, -0.8232059778738743, 0.730893869633324], [1.4355642710705654, -3.127281272621642, 1.6611020141756871, 1.5407211503414755, 3.867055769098802, -1.2706765691203312, -3.99031825867579, 1.7322747324759395, -0.8539719519703771, 0.09069658723098883, 3.1515776421500075, 0.6032125881191767, -1.6775171011772485, -0.31938619864808276], [1.2291587633941663, -0.5418401319058548, 0.03349980961120769, -4.1142823302881455, 0.508452871718995, -0.5420211458107187, 0.9126982488911088, 4.527726376596816, -4.430439336130414, 0.6798890616447645, -1.6925703406791532, -1.4896104407508588, 0.6757439156100093, 1.5526692073282728], [-0.4226886737101392, 1.8145168669252612, 2.9646339180861454, -3.9581137562113184, 0.8595497115066774, -4.949352278975698, -1.681512457624509, -6.963394807031629, -1.012736630148574, -0.23573689924991803, 2.551111912236181, -2.5370979307374943, 2.565213908494825, 1.8152784864661848], [-0.5688906861832579, 2.0536451332458467, 2.0215108276350535, -3.3375244876176833, 0.23918324970359445, 3.552555793996818, -0.1847341057901175, 1.5556323436709436, 0.10350205554526994, -1.6055379273314574, 2.3894954693933297, -1.5617071330982468, -0.21924925428135417, 0.008099711436607315], [1.8152546109986192, -0.4350139378456186, -0.6094164648413741, 1.727402642167104, 1.1275944835912615, 1.6271695503996642, -2.608587578551931, -2.172879974259092, 2.7789143845878828, -4.473275027906793, 1.5316796189391608, 2.389916413806518, -5.733273876400179, -3.9487109462457326], [-2.431937451832191, 3.2267869474299444, 1.9825549730649743, -2.9435532172207846, 3.308874305090764, -3.7357618920695006, 3.957942905754157, 4.225535213302197, -0.11183322958128797, 3.168055027101579, -4.277960569813867, 0.6682339673399424, 0.37585602707174465, -0.9302277545082677], [-1.8808131202330456, 1.1032306751125924, 0.5897877395026031, -3.728685510861151, 0.1044978445365316, 2.5034007701896543, 1.836371016861065, 1.3234261330483799, 1.357618149499618, -5.135270508285881, 6.453863660801259, -1.7655651668813035, 2.3160519943568065, 3.562194673328499], [1.4125678471728158, 1.449546298970152, 6.014719014761097, -6.335834633689688, 1.5230024922784149, 0.23396113088460035, 1.162008814856024, -1.734851135517188, -1.1068363599503108, 0.4322734907760448, -0.8025814593041849, 3.7902157427731393, -5.642496554117452, -0.8368636988456015], [0.21209239123486096, 0.4962983214242204, 0.626167833771879, 1.2295755039213865, -0.3989060692112555, -0.4897677578667242, 4.639451028081313, -0.8017199409707305, 0.726940649844707, -2.780998639081178, 3.942625561995703, -0.25564128056106766, -0.45005938297118403, 1.049217146987695], [-4.085503564974488, 2.2664823175779554, -1.4467061011221016, -2.4065861690739134, 0.10667431594085774, 0.31307078803599225, 0.8656530397777006, 3.9101544234863077, 4.550619994054734, 1.0214336960808323, 3.800174390681627, 1.574970113498959, -2.9711970858806516, 0.3150769038450083], [1.2253441016839042, 1.4592403525677908, -1.3376741651430555, 0.3350836915474825, -0.9073229063886559, -0.5901070892236213, -2.097957820251596, -1.2039401002316632, 0.007899905577813948, -2.2730849401529563, 2.043069511604189, 4.935920782673836, 2.357830726690349, -0.7555643737919713], [0.8489392338276903, 3.0819199351518365, -0.9847131538428945, -2.3563080038388025, 2.8673436935767964, -4.611237396539781, 3.3433950793669625, -2.785267169058476, -1.3721347634086738, -3.359285050591784, -1.2916023535642227, -2.3427744614579944, -1.2232339016637506, 3.218502549813485], [-1.8666047243750477, 5.133245218731149, 1.603252180678355, -2.7973247051795376, -0.3706291641741839, 0.5398336646772599, 0.153934073354327, -0.8045233074280329, 0.7648717648121106, 0.5028145824013851, -4.054105279167592, 2.58365274976045, 2.6785419330671894, -0.8673812716852913], [-3.8585829589995733, 1.2306003057555923, 2.2014161137296684, 1.6350510480013383, -3.1772090552579337, 1.4898838752814483, 0.003291535708660129, -0.3911112117776743, -2.4609039657911493, -1.176517152861247, -2.759021901606456, 4.616048510026113, -0.4561463391296532, -2.0342335187807947], [2.7260367253538482, -1.4623616879274361, -0.5741151235166096, -0.6734196524607678, 5.760236774761466, -1.7421488469642505, 1.678890241727313, 1.8953134176699074, 2.6519987591322614, 0.42213586949628357, -1.1388793660932268, 0.5274991985398078, 0.23272125366548546, 1.3571318326144222]], "bias": [[-1.7526098148992553], [-0.9111409140993387], [1.171816889036984], [2.6334217585679673], [0.46122583912651494], [-0.10023315792065124], [0.2006073578225146], [-2.2680064703942433], [-3.9240919081281707], [1.9467342271393446], [-7.0486815685220074], [0.35973066512658425], [1.427251875349848], [-1.6856190051701314], [-0.4029912977411651], [1.7071385214598829], [-1.293518515356813], [1.5580048476046877]]}, {"layer": "activation", "activation": "relu", "activation_prime": "relu"}, {"layer": "dense", "input_size": 18, "output_size": 4, "weights": [[-0.18418436702622784, 0.41564370297736813, 0.6873337785333689, -2.247335622624288, -2.267736361509427, -1.800964539712373, 1.399825437296216, -0.8705471102986052, -4.854807876192682, -4.743646674382496, 2.37499836508136, 0.2084572141898796, 2.3157072842655797, -1.4162743544687615, -1.5156381819804943, -1.8126634651264824, 1.7894260632023031, -0.5870497751283548], [-2.3932100798954656, -1.0786212216549935, -0.9406255405573601, -0.648587647010649, -5.41718856383979, -1.7047448987094924, -0.6101047206056992, -1.7518972773234833, 1.0121251443036243, -2.6369607341691497, 1.6950796396446686, 0.4755442793547698, 0.3991805603518722, 0.28658127197341116, -0.17304425220575326, 1.6772587677122304, 1.4262396918944202, 1.978392239725897], [-5.88974847043763, -0.5232503857211512, 0.039956650782280556, 2.4792556026921533, 2.279677587638715, -0.9160459770066429, 2.971280046175232, 0.24871796666100965, 1.583890811474808, -1.0283083197012162, 1.292435352699499, -6.039856289426265, -2.428440384820126, -0.1971785072589688, -1.7253793177653074, 1.7889998013213682, 2.667934903862803, -0.8767646181783777], [2.513511447599744, 1.8660037809067576, -1.3952447835035615, 0.6658311241226569, -2.73702859885723, -5.8079279019529215, 2.2231173038440253, -2.170249535033859, 0.7811235128658773, 1.58963436055839, -0.1531776966073135, 3.309889762175685, -1.3690976714839695, -3.466621811280921, -4.173017113000085, 0.8433074502936075, -1.099215277953246, -1.3920725268301755]], "bias": [[-1.3800821553356253], [-1.4028311434383123], [-0.44607741333670803], [1.0788646242799689]]}, {"layer": "activation", "activation": "sigmoid", "activation_prime": "sigmoid"}]}