{"generation": 259, "board_size": 10, "snake_size": 3, "input_direction_count": 4, "apple_return_type": "distance", "segment_return_type": "distance", "network": [{"layer": "dense", "input_size": 14, "output_size": 18, "weights": [[-0.7033359024521384, 2.2306234436957113, 0.09724649939316793, 0.9086094603611101, 1.7048178316352727, 4.211036687947505, 0.26200450647629736, -1.5286900933486667, -2.9240179922270455, 0.27132321971966866, 0.2522950620900497, -2.3232270003313955, 0.7273383929740671, 4.200385476788101], [-0.7109678965146189, -1.6464382216157096, -1.9041759305918706, 3.139698186947483, -5.979806945339233, -1.7694128238798252, -5.060256112328951, 0.999281049776363, 1.2393498721468892, -1.4837035009000523, 5.5702625295213615, 1.0679264991799486, 4.043649279563367, -0.5877896773312977], [0.35625038768658734, 3.02773829562521, 1.3425825445834527, -4.297482103198308, -2.478298990531138, 0.6566439374295456, 0.8876988250095631, 2.844019939080411, 1.8332516454031185, 2.2129405117578003, -0.46461531811402307, 1.0948875774386266, -0.8232059778738743, 0.730893869633324], [1.4355642710705654, -1.4858192369111516, 1.6611020141756871, 1.5407211503414755, 4.215267163962858, -1.2706765691203312, -4.327549728225777, 1.7322747324759395, -0.9371611102299401, -0.14461534940452572, 3.6730884831487582, 0.6032125881191767, -1.6775171011772485, -0.7007198621387138], [2.034592353851462, 0.8478190138245825, 0.03349980961120769, -3.9237615554767347, 0.2901296281163696, -0.5420211458107187, 0.9126982488911088, 4.881140039790894, -2.5995148497773424, 0.052682494327525003, -1.6864709215514477, -1.4470584998670493, 0.6757439156100093, 0.21000414823889113], [-0.4226886737101392, 1.1324462011982066, 2.2376626368233072, -3.7893706688031616, 0.3780645638831477, -2.5566061578926402, -1.681512457624509, -5.772849265333452, -1.3697971289822872, -1.1350578567149565, 2.551111912236181, -1.2108074601797307, 2.5706794663905086, 1.8152784864661848], [0.1116204442292934, 2.0536451332458467, 1.763565750803753, -3.3375244876176833, 1.272077308220338, 3.4912220535659664, -0.1847341057901175, 2.1244441234614344, -0.23386836928873733, -2.8020735721542476, 2.8981218932884314, -1.5085898055873377, 0.31024859428332985, 0.802409840431348], [1.8152546109986192, -2.947518881769127, -0.6094164648413741, 2.0071783762335835, 1.0126644787669932, 2.1226556786413435, -3.527246513476765, -3.0360626408092544, 4.435636330416773, -4.473275027906793, 1.565749866300476, 2.389916413806518, -5.733273876400179, -3.4324714755169614], [-1.4643617065680987, 3.7261233859399487, 1.780548245033428, -2.544191524520748, 2.715404865615744, -2.7141555688441517, 2.166726341665398, 2.3592411863863973, -0.11183322958128797, 3.168055027101579, -4.277960569813867, -0.4533173490791389, 0.37585602707174465, -1.7329186927956395], [-1.193856101931357, -0.3774975663920098, 0.5897877395026031, -3.149324701850946, 0.6361275883853997, 2.5034007701896543, 1.5457080899715292, 0.9311027859482696, 1.357618149499618, -4.307107087218234, 6.180609818871675, -1.7655651668813035, 2.3160519943568065, 3.382195017178529], [1.4125678471728158, 1.449546298970152, 5.685569943613383, -2.233446064418575, 1.5230024922784149, 0.23396113088460035, 0.1840904381022665, -1.734851135517188, -1.514532516203647, -1.7519641153775252, -0.6655202135586558, 3.7902157427731393, -4.917214034940136, 0.6464579138336732], [0.21209239123486096, 0.4962983214242204, 0.626167833771879, 1.2295755039213865, -0.3989060692112555, -0.4897677578667242, 3.8860089137744276, -0.8017199409707305, 0.726940649844707, -2.780998639081178, 3.942625561995703, -0.25564128056106766, -0.5505066763133295, 1.049217146987695], [-4.085503564974488, 2.2664823175779554, -1.4467061011221016, -2.4065861690739134, 0.10667431594085774, -0.44128484331739476, 0.6305300986024872, 3.9101544234863077, 4.550619994054734, 1.0214336960808323, 3.800174390681627, 1.574970113498959, -3.0673671982028066, 0.3150769038450083], [0.47446621956178375, 3.372027761810341, -1.3376741651430555, 0.30070656774446713, -1.281409193299595, -1.0208633369194917, -2.4117810266152238, -1.2854000288888194, 0.007899905577813948, -2.0560751228370937, 2.043069511604189, 3.8037113226160897, 4.021949062400946, -0.7555643737919713], [1.1096417759240838, 3.0890513746775095, -0.9847131538428945, -2.3563080038388025, 5.212514548260319, -4.611237396539781, 3.3433950793669625, -2.785267169058476, -1.3721347634086738, -3.6527520687490354, -1.2916023535642227, -2.3427744614579944, -1.2232339016637506, 3.218502549813485], [-2.3893302455186687, 5.391831046090536, 1.603252180678355, -2.7973247051795376, -0.3706291641741839, 0.5398336646772599, 0.7972779754505537, -0.8045233074280329, 0.7648717648121106, 0.5028145824013851, -5.264090413192525, 2.58365274976045, 1.79330604021643, -0.9337112918261354], [-3.8585829589995733, 1.2306003057555923, 1.7651441422876681, 1.7340291409216568, -3.1772090552579337, 1.4898838752814483, 0.06044980024877189, -0.3911112117776743, -2.4609039657911493, -1.176517152861247, -2.759021901606456, 4.640088820383909, -0.4561463391296532, -2.0342335187807947], [2.854536539519352, -1.4623616879274361, -0.5741151235166096, -0.6734196524607678, 5.760236774761466, -1.2957491586942322, 1.678890241727313, 1.8953134176699074, 2.6519987591322614, 0.42213586949628357, -1.3992996104673099, 0.5373348560352311, 0.23272125366548546, 1.3571318326144222]], "bias": [[-2.064936888597516], [0.10895349103542218], [2.9913623056158647], [2.6334217585679673], [0.2651232522463214], [-0.10023315792065124], [8.545670001425254e-05], [-1.881692702721583], [-3.9240919081281707], [1.9467342271393446], [-7.0486815685220074], [0.8476881039050302], [2.5789793026253776], [-1.1857443009360957], [-0.4029912977411651], [1.0357846158457806], [-0.6133037186320222], [1.5580048476046877]]}, {"layer": "activation", "activation": "relu", "activation_prime": "relu"}, {"layer": "dense", "input_size": 18, "output_size": 4, "weights": [[-0.821356127535888, 1.0856049800241407, 1.1642066908247792, -2.247335622624288, -2.267736361509427, -2.8174809574163313, 1.399825437296216, -0.8705471102986052, -2.7950470313882114, -4.743646674382496, 3.466585946575378, 0.2084572141898796, 1.7289474086127778, 0.6909073443071874, -1.5156381819804943, -1.8126634651264824, 1.7894260632023031, -0.5870497751283548], [-2.3932100798954656, -1.0786212216549935, -0.9406255405573601, -0.648587647010649, -5.41718856383979, -1.7047448987094924, -1.3316856931071523, -1.225202655427676, 1.0121251443036243, -1.62546546117114, 0.5018540150893036, 0.6625641738544676, -0.2743748021356281, 0.28658127197341116, 1.0799835887196614, 1.6772587677122304, 2.202731148938842, 1.978392239725897], [-5.88974847043763, -0.5232503857211512, 0.18644449260563112, 2.4792556026921533, 2.4044074316788446, -0.3226333840734872, 1.8624626884977398, -0.03147267063952175, 1.064020146398834, -1.0283083197012162, 1.6583007828921899, -4.739931574513334, -2.428440384820126, -0.1971785072589688, -1.7253793177653074, 1.7889998013213682, 2.042475617703853, -0.19054555828177516], [2.513511447599744, 1.933784650186461, -1.2618316079783838, 0.6658311241226569, -2.73702859885723, -5.8079279019529215, 2.2231173038440253, -4.145734416388456, 0.9580489537762589, 1.9703891381186727, -0.12396817992122866, 3.1293411903998645, -1.3690976714839695, -3.466621811280921, -4.173017113000085, 0.8433074502936075, -1.099215277953246, -1.3920725268301755]], "bias": [[-1.833925573206052], [-1.4028311434383123], [-1.908117792741673], [1.0788646242799689]]}, {"layer": "activation", "activation": "sigmoid", "activation_prime": "sigmoid"}]}