{"generation": 452, "board_size": 10, "snake_size": 3, "input_direction_count": 4, "apple_return_type": "boolean", "segment_return_type": "boolean", "distance_function": "chebyshev_distance", "network": [{"layer": "dense", "input_size": 14, "output_size": 18, "weights": [[0.00403844018973798, 4.21288036450235, -1.0041631003278917, -0.9471611197786348, -4.032476835549145, 2.686864913607881, -1.383303839565282, 1.160556237634997, 1.1010434279319312, 9.729970550550565, -7.385068297453088, 6.249601272903621, -2.035731009879713, -0.8874631033198281], [3.563535891651499, 1.16347803330394, -0.5588768729597136, -3.176415659553649, 2.5203099436611405, 0.2904800209249364, -2.898581892709896, 1.874889533461554, 0.32931426664299634, 9.443213516051983, 5.565763078488398, -7.987561414706608, 0.07319529255890433, -3.94534831174072], [-0.45640118806862906, -2.455386505732533, 0.8592071334270455, 10.229406967796011, -5.104003152125079, 1.9577607897945848, 4.175777682152614, -3.270835194004284, 0.2479112133004987, -6.139407819274661, 6.901824787159067, 0.12139885984851118, -8.069841446020362, 3.7099669745437724], [-2.2457143079425212, 2.3540842346186306, 0.4477732758453792, -1.3151876889218972, 0.49768099568750723, 1.0165260749667735, -6.057012486929325, 3.0760894420028793, -1.2708491671446782, 6.242011272690824, -4.335144167236096, 0.7555758338436858, 1.863426682502639, -1.3284385356084565], [-1.745673686681305, 3.393887416384463, 1.8558414254488638, -2.454412395687314, -1.7617218551538585, -0.4237842843859176, -2.002956539835583, -0.5957609504282249, -5.290762835229453, -4.007116539990854, -2.5482828909013127, -0.9182412735496857, -1.381421374271345, -0.9135422830966642], [2.3545598278495836, -0.3722869912503986, -0.6075696440006308, -0.9258743817872914, -2.0614710151960423, -0.06237138766370087, 1.8171903471509543, -4.160343114300523, 0.8235598923985108, -3.8800742610537275, -1.3772011189718434, 1.2382454511631529, 5.857631784081497, 3.090437228609566], [1.6928862143981476, 1.3607478674099525, 1.9133351418186022, 0.7129223140682348, -3.4089015559269784, 0.1645197011953412, 10.327579314028078, -2.983840858935519, 1.2998757611353178, -2.2484866916679795, 1.4944149787122516, -1.001952042340024, -1.7041289106205926, 4.25909534109033], [-1.6990752399744469, -0.7985098592499309, 0.3693947758473377, -4.283940152752133, -1.0517605571073834, 2.287004979775814, -3.005179976155773, -0.677125245310465, -4.370191939191718, -0.28102722094573784, -0.7521546713167284, -1.6199740841965895, 2.3089373581363795, 1.5132787433318582], [3.188714273050608, -0.33511505122880547, -1.4267029199135022, -2.8087568612371783, 0.19412641564973177, 3.287350028633903, -2.9896902809392687, 3.598552753083632, 1.4139881607542821, 1.6483562661907334, 2.5015106037481702, -2.2118566220026628, 5.270651153627526, -4.706234307938104], [0.6045501871143637, 5.214258301679441, -3.7731471313424043, 4.613660412616538, -0.9093924387050056, -1.4173315491504324, -2.0861219410090337, -1.274886054589523, -2.010880251307266, 0.6928470174442116, 2.371885919563039, 1.0489421694966277, 6.106803382100565, 1.4689494662749973], [1.5206821350464321, -6.6059782392920905, -5.313195052183668, -3.4501437502181345, 3.35020012266514, 0.42302582076120776, 2.3523660997998195, 3.963063303982727, 0.9041753064601391, -1.9331578449380562, -0.1435494542388196, -0.15161305144500753, -1.5460907099115133, 1.0145058166056842], [-1.7125985506067807, 0.2003972151068102, 4.176670110880106, -3.2580362393152287, 0.33207740843356837, 0.7763145309825793, -5.236577857579096, 1.3824120296621776, 1.0091087105531922, -4.850271547719844, 0.7445976717287262, 2.92072821252309, 3.933346701999867, -0.8936414694444442], [-2.0785770095074136, 2.4131880083077757, -7.672730664482372, -0.2191755996364512, -3.6804297020325873, 0.6621927580813678, 0.391662829896568, -1.8253631085801825, -0.7699597666309577, 1.6932039699604458, 2.692496181062094, -0.6328457475791918, -0.56360216549813, -0.8115797061212053], [-1.0166263347242739, 3.2260824008760025, -1.5865682183422802, -5.162321674740761, 4.651367755998768, 0.48978524792193734, -3.6338921966552333, -3.7201460811625062, -4.868342658715693, -1.3200495254443052, -0.3071876689823503, -2.4135969175031704, 1.6558739335573072, 0.9734425977711993], [3.9081665777923247, 0.8654298343878728, 1.315386607757412, 7.906560654400936, 0.5370559590529831, -0.27250156237848144, -0.16158370295083374, 2.582834056404658, -3.6420388722773294, -1.4343171100700145, 0.3788207216914512, 1.1954148710019787, -0.0810587078537015, -3.1372746597123533], [2.070338785889729, 1.0729741300537035, 4.594288060606974, 0.6742146148957693, -1.023957791289209, 1.5287711374140818, -2.473898833161262, -2.7316938859094675, -1.6154803557007162, -6.167812584199776, -8.918640688719574, 0.8704018397120925, -1.8842846797177468, 2.487217014240602], [-2.34848578273063, 1.045216985905474, -0.4807376449790839, 3.1620414072007357, 6.419041395815578, -1.5544291199320213, 3.108082213058063, -1.673275371888627, 0.26583878035157893, -4.672555000702249, -0.5830812038853904, -1.7737533626960167, 0.3073668889234874, -4.804670402123184], [1.4676243730735101, 6.052634058255645, 3.215968217967989, -0.7541053106098566, 4.7689758275109915, 4.195662264137434, 0.5585648523130904, -1.1213928873820231, -2.909362795321323, -5.763885985780439, -0.3398394198729493, 1.6538896323152767, -6.444186309194079, 2.200448427261418]], "bias": [[3.9546492254048227], [0.22271732477135475], [-4.3530860054111], [2.4164890936755272], [-3.146614053091758], [-2.0796253700596523], [0.2989823400356112], [0.015728880618666313], [-0.7894218851646995], [-2.039241750885104], [-0.7181069386126404], [-5.081222865139708], [2.0252819242365527], [-4.80209315214448], [-0.6822601737649857], [3.481178878374739], [-0.5496936816155789], [2.8811174414616767]]}, {"layer": "activation", "activation": "relu", "activation_prime": "relu"}, {"layer": "dense", "input_size": 18, "output_size": 4, "weights": [[0.882081560679411, -1.6901138033537595, -1.251255878828538, -5.527244946023657, 1.157001128352993, -2.915008919270975, 0.5122270482081783, 8.035095733270733, 1.5227309888071228, -1.8951307984842094, -4.939342391108157, -0.912357274248407, -1.677674099485778, 4.403314203058756, -3.732628507723749, -1.7425317293264864, 3.940527743427928, 1.5373732243780873], [-0.6677295531847358, 2.053960371853484, -0.614585964253689, 2.443641589365402, 0.553467911818271, -1.9951270230257823, -3.9583921618958517, -1.8699034896286149, -3.139379055432702, -1.5020904320795618, -0.30785224871893035, 0.37486451616731825, 2.00785660693721, 1.824879396153049, -7.2831895425855695, -0.4086243859477325, -1.8327751671656247, -1.5137129672582057], [-0.33987196162560285, -2.55817022792032, 1.6847052866120031, -0.8469206864015708, 3.003019089663786, -0.3139863116546937, -6.1976827882698124, 4.953347487021412, -0.5094375477678186, -0.5366614636290068, -1.8970237671902408, -1.0271926226564743, -1.1395011701005744, -4.382136531833861, -0.532095576778992, -0.09952244692000133, -1.2107630613620575, 2.564261848738247], [-2.6471963805411534, -1.4673340761485805, 0.6174049748678216, -5.8046782980384455, -4.134650242170537, 4.629142904298739, 1.4862856789972847, -0.39214988421939134, 0.09753281836352923, -0.7820352932076587, 3.6885290532369215, 0.9708023908626007, -2.922863646429546, 2.1560095765913925, -0.9439181941959897, 0.08317878243250199, -7.749420981139047, 3.5965372631649117]], "bias": [[-0.6812963372268064], [0.4677035720472491], [0.8621236186893337], [-1.3084562150282675]]}, {"layer": "activation", "activation": "sigmoid", "activation_prime": "sigmoid"}]}