{"generation": 428, "board_size": 10, "snake_size": 3, "input_direction_count": 4, "apple_return_type": "boolean", "segment_return_type": "boolean", "distance_function": "chebyshev_distance", "network": [{"layer": "dense", "input_size": 14, "output_size": 18, "weights": [[0.1439112920170763, 4.21288036450235, -0.6377161200331243, -0.9471611197786348, -2.495825128187958, 2.686864913607881, -1.383303839565282, 1.160556237634997, 0.3662890179330351, 9.729970550550565, -7.385068297453088, 6.249601272903621, -2.035731009879713, -0.8874631033198281], [3.96740728668732, 1.5452267050236734, -0.5588768729597136, -3.176415659553649, 2.5203099436611405, -2.888313678462837, -2.2972020914335642, 1.0098470984626415, 0.9583847377071244, 8.120822172901372, 5.565763078488398, -8.500837292294724, 0.07319529255890433, -3.492447819886079], [-0.4461507543285017, -1.421044606580947, 1.3977539778414805, 10.229406967796011, -5.104003152125079, 1.9577607897945848, 4.175777682152614, -1.999597314460368, 0.2479112133004987, -6.139407819274661, 5.657976656781473, 0.12139885984851118, -8.069841446020362, 3.7099669745437724], [-1.0922154370012402, -0.0629596361991927, 0.4477732758453792, -1.780876088216025, 0.49768099568750723, 2.1019208877431295, -6.208606719555807, 3.0760894420028793, -1.2708491671446782, 6.085834592156404, -4.335144167236096, 0.7555758338436858, 0.9269358146897079, -1.333315147099058], [-3.5435321111084304, 3.393887416384463, 3.7959737489075938, -2.454412395687314, -2.4437398045509053, -0.09284253407892917, -2.314994477793184, -0.9126475980974302, -5.290762835229453, -4.007116539990854, -0.7037987791515748, -0.9182412735496857, -1.381421374271345, -0.9135422830966642], [2.3545598278495836, -0.3722869912503986, -0.6075696440006308, -0.9258743817872914, -2.0614710151960423, 0.48707157972446846, 0.5914781173061561, -4.160343114300523, 1.6347980705286795, -3.8785594476063983, -0.25635145669649056, 1.2382454511631529, 5.857631784081497, 3.090437228609566], [1.6928862143981476, 1.3607478674099525, 2.358687002670277, 2.4920282141610164, -2.8840770059265095, 0.07620408278416105, 9.027290237936077, -2.983840858935519, 1.2998757611353178, -2.2484866916679795, 1.4944149787122516, -1.001952042340024, -1.7041289106205926, 4.25909534109033], [-1.6990752399744469, -0.7985098592499309, 0.3693947758473377, -4.283940152752133, -1.5517342733320945, 1.5114739000684723, -3.220191289731676, -0.677125245310465, -3.4346726116626156, -0.28102722094573784, -0.7521546713167284, -1.5352169153070636, 2.559433805469801, 3.9198652392733955], [3.188714273050608, -1.7879864314255702, -1.4267029199135022, -2.8087568612371783, 0.19412641564973177, 3.287350028633903, -2.5690663161177874, 3.5934091342107424, 1.0580846433850701, 1.964485288028281, 3.2034725235592267, -2.2118566220026628, 5.270651153627526, -3.4712953125042225], [0.6045501871143637, 5.214258301679441, -3.7731471313424043, 4.526437152414938, -0.9093924387050056, -1.4173315491504324, -3.8130312636134573, -1.274886054589523, -2.010880251307266, 0.6928470174442116, 4.314294604181003, 1.0489421694966277, 6.106803382100565, 1.3777200735475048], [1.5206821350464321, -6.6059782392920905, -5.313195052183668, -2.7051733150391004, 3.5353899695856943, 0.021816136477726636, 2.3523660997998195, 3.963063303982727, 0.9041753064601391, -1.9331578449380562, 0.43984768952949194, 0.2953374813191347, -2.773499819322603, 1.0145058166056842], [-1.7125985506067807, 0.2003972151068102, 3.7735229842267373, -3.2580362393152287, -0.7784541767712921, 0.953528555863427, -5.236577857579096, 1.3824120296621776, 1.0091087105531922, -5.094850933797903, 0.7445976717287262, 3.076607821376882, 3.933346701999867, -0.8936414694444442], [-2.0785770095074136, 2.4131880083077757, -7.672730664482372, -0.2191755996364512, -3.6804297020325873, 0.536274095125769, 1.0001280347525072, -2.7667612489300293, 0.048752534172720796, 1.6932039699604458, 2.0333827049905753, -0.6328457475791918, -1.4079662555134758, -0.8115797061212053], [-2.8125910044103444, 3.2260824008760025, -1.5865682183422802, -2.6086800769918717, 4.651367755998768, 0.48978524792193734, -4.96987776948858, -3.7201460811625062, -4.7045286957213905, -1.3200495254443052, -0.3071876689823503, -1.389212207046104, 1.6558739335573072, 0.9734425977711993], [4.173345917184285, 2.389239047739461, 1.315386607757412, 7.906560654400936, -0.5255872732213318, -0.27250156237848144, -0.16158370295083374, 2.582834056404658, -3.6420388722773294, -1.4343171100700145, 0.3788207216914512, 1.1954148710019787, -0.0810587078537015, -3.1372746597123533], [2.070338785889729, 1.0729741300537035, 3.341013732478044, 0.6742146148957693, -1.0457800608419832, 0.4222908383235101, -2.473898833161262, -1.9905282689553316, -1.6154803557007162, -4.577070140631372, -7.6973477510327415, 0.04479232660606214, -1.8842846797177468, 2.487217014240602], [-2.34848578273063, 1.045216985905474, -1.3006396150740454, 3.898151466458919, 5.292003109340029, -1.5544291199320213, 3.9194488410874957, -2.2672406496577255, 2.3822137235491865, -4.451933192557582, 0.19250142166360373, -1.2822726251445142, 1.7456179854448415, -4.804670402123184], [1.9032820031590028, 6.052634058255645, 2.088781684498385, -0.7541053106098566, 4.7689758275109915, 3.8098116883983812, 0.5585648523130904, -1.1213928873820231, -2.909362795321323, -4.860932500010951, -0.3398394198729493, 1.6538896323152767, -5.643894578711231, 1.4627316849480274]], "bias": [[1.7125423207253705], [0.22271732477135475], [-4.975064117123371], [0.41290256960880845], [-3.146614053091758], [-2.0796253700596523], [0.11922069278725211], [0.17134735959460068], [-1.086520225263901], [-2.38934322075443], [-1.4438451079676355], [-4.749384662034599], [0.8413287839868243], [-3.774587115219709], [0.32489390622515696], [3.838995250851296], [-0.45638350962778373], [3.7201097645533907]]}, {"layer": "activation", "activation": "relu", "activation_prime": "relu"}, {"layer": "dense", "input_size": 18, "output_size": 4, "weights": [[0.6916204516495266, -3.349533222728457, -1.251255878828538, -4.0532847469412525, -0.5874115636342585, -3.8296505965289027, 0.8483011973983379, 8.035095733270733, 2.0635696035488404, -1.80076230286895, -4.939342391108157, -0.912357274248407, -1.677674099485778, 4.403314203058756, -3.732628507723749, -1.1082452659472823, 3.940527743427928, 1.426337795216787], [-0.6677295531847358, 2.053960371853484, -0.6330123775088892, 2.443641589365402, -0.3346070198308119, -1.9951270230257823, -3.9583921618958517, -0.8573329609419093, -1.9096469545994357, -1.5020904320795618, 1.2470997565143696, 0.7823800701783059, 1.3496124944470256, 1.4050162838435847, -6.817801311250431, -0.4086243859477325, -1.4464215957019426, -0.6403405066588782], [-0.1937115841710686, -2.0314362362937985, 1.6847052866120031, -2.0866363106642627, 1.8202382145457432, -1.027092718783598, -6.1976827882698124, 3.6520307894148, -0.5094375477678186, -0.5366614636290068, -1.6109040461580335, -0.24453294979135337, 1.801279431742948, -2.5002670026322695, 0.05788129302476164, -0.03167799350186028, -1.5649935759140177, 2.4710927323088487], [-2.75216272376394, -1.1912138841906263, 0.3879590873345207, -5.405116805972876, -1.3518395993964938, 2.491945616448224, 1.4862856789972847, 0.1374869345859031, 0.09753281836352923, -0.7820352932076587, 3.6885290532369215, 0.7817299047904193, -2.922863646429546, 0.8775617105798252, -0.2320962511387037, 0.08317878243250199, -7.749420981139047, 3.5965372631649117]], "bias": [[2.9116600193436737], [1.0742995851801616], [2.125587015660884], [-1.3084562150282675]]}, {"layer": "activation", "activation": "sigmoid", "activation_prime": "sigmoid"}]}