{"generation": 336, "board_size": 10, "snake_size": 3, "input_direction_count": 4, "apple_return_type": "boolean", "segment_return_type": "boolean", "distance_function": "chebyshev_distance", "network": [{"layer": "dense", "input_size": 16, "output_size": 24, "weights": [[-0.2942392442357753, 5.156584827442767, 0.1984116134630678, 0.46573477805402375, 4.163764452343543, -0.4206035326556909, -2.576007181609309, -3.480144756107227, -0.9113746613583156, -2.54635555001472, -2.3324321561794052, 3.2514375917693696, 2.3622190247940127, 1.604892239266337, -4.29252816858684, 3.972799076050691], [7.342615153006162, -4.48776162889855, 0.44144219685984215, 1.3309753476747281, 0.8185114136443881, 2.816957769459774, -1.0839306644011646, 2.105125028799944, -1.0075397949143217, -8.425903647077032, -2.917338249943987, -1.8179283633743932, 0.9236094773613344, 2.0272736560312112, 2.247501418146853, -2.9640459687095206], [-1.6210676455409572, 0.7932284220032964, -2.00357427422232, 2.2433183798732665, 5.4774772832018614, -2.9926435120790984, 0.6850103593008174, 2.869697011362288, 6.790446011108783, 5.4612828325558915, 5.3658026303056205, 0.39183024920216436, 2.581046520484948, 3.76564980371695, 1.3105335080554879, -1.5812800246343959], [-0.9828903612509006, 5.551030008681025, -1.1302005097074832, 1.290780956538602, -5.668835571250788, -0.6567371260599506, -0.7357532278486355, -5.426388033407725, -1.3686920465448968, 3.68076197582178, 1.2284204580276155, -2.993465839190878, 0.6680374860701909, -1.3603483392407205, -2.304313645829599, 2.7631437990443084], [0.13976148039461833, -3.750147702897399, 1.8556607893894823, 6.318229062501547, 0.06386645403040547, -4.7804442864994385, 1.2672425503945, 0.698120713034133, -5.234501411760694, 3.4055592012708464, 2.5629703483512922, 4.392124839680727, 6.508972389680729, -3.33332595503036, -1.4986155534314993, -3.9903424575085955], [-5.83213784715036, 1.8677900418865339, -0.02753466888653422, 8.122901248239913, -0.22859612650465197, 1.8328832702791262, -3.6493235758955525, -4.111708407938245, 4.878605850141513, -3.1841639735673763, 1.166003773104132, -2.3908714517189247, 3.128184062433756, -0.8615430311994927, 0.021220765640459716, -3.0497629097323284], [8.95607017064139, -1.2826785627725341, 1.195031718760976, 7.30149708704608, 0.17054577381794045, 2.3804614198088667, -1.843351167231869, -1.670246860818489, 8.968318057048664, -0.8021419596072232, 0.6203343623621241, -0.678609139486085, 0.7832178920584005, -2.251684501456776, 0.2973608187686059, 5.528670590039751], [-1.052845988073619, 1.7411680403095238, 2.7201711631451024, -0.1376899391642787, 5.143447400547993, -0.2104816115438619, 2.7333585078713236, 4.584691361581929, -0.2535594134815974, -4.1442538159809805, -2.937961151193024, -0.044219606759032026, 3.2794589123957616, -3.841940213291461, 3.9173898617759737, 0.11989575594135571], [-0.2660384316111502, 0.1479894940005141, -2.591156167100572, -3.549077119913641, 0.014522026348026351, -0.9382076206164525, 2.0666554764010643, -1.6589262847447692, 6.376702292991853, 4.9318341373896155, -0.5155765463251075, 1.4979772859300429, -0.882018440772304, 9.126226145308904, 4.388557221342218, -1.6053710010883164], [-5.041466904162188, 0.19813853162468242, 3.98218100171741, 3.443210757443442, -0.9812797614542479, 1.8106782740054364, 3.646633540103329, -3.8560295854454787, -1.5236590586031775, -4.572961139370939, 2.016997203546604, -9.434037711201851, 0.19959461500258702, -2.212052080427687, -3.2702153487934833, 2.836232221504158], [-2.4486886186472914, 5.285371745539014, 0.551591824859772, -6.217844831790722, 1.8741519835500051, 2.7770242147080104, -11.475619052296343, -0.9400711138202734, 1.3510857197624484, -0.5584511497785882, 0.551792294540333, -1.6501413835372112, 0.040838756386617825, -2.6508347061052953, -0.8697369779507271, 0.10317895377554986], [1.5117514982684264, 0.8557209284475388, -5.02500957887537, -0.995104590855227, 0.8280809782057291, -8.042291041236158, 1.5193292825455789, -0.019043790496720114, 0.08812530750061798, 5.8379562190677365, -1.6858050197331795, 0.2284818127877255, 2.3334088165407527, -1.8432624517665088, -2.1819593073952204, 0.09393107542791035], [-1.4729316905101113, 1.6446626584320445, -2.568720258131411, -4.5793593887844395, -3.9684027003621813, -5.8131485509084, -0.17151121194703395, -1.3947542946401723, -4.109094283751053, 2.5715651547152647, -7.628133047648343, 1.1326733162599183, 2.4855869743217185, -0.8130067203293523, 3.679541667397142, 2.751389110035214], [3.1865343174246465, -3.6366309472207945, 4.871243472870885, -1.1262142370460102, -1.281557975553743, 2.968679527271784, -3.3195227465176194, -1.1163982307293665, 0.21070620064991918, 3.5582616446600666, 2.737775365813774, 1.0269381473860124, 0.4366353832573865, -2.024567328221334, -0.3381629043467268, -0.96462503353654], [-0.8579854449937954, 0.4293662425998164, 0.5289942128172326, 9.360601530486424, 0.9391401811297508, 2.7899115490693482, -0.06161618436954042, -1.4029131619856146, 0.4910366001826336, 1.1439571918115676, 0.035602194072351434, -0.9686160018818808, 6.321521178224263, -2.275314660648135, -3.563035868747872, -2.6763757881677135], [-0.03623419488753843, 0.8981103788398179, 0.7751531214136422, -4.925319249867841, 1.0904360985280162, -1.7777477952953418, 1.6051151384895426, 2.0971199056921725, 2.322948536444453, 0.33039263551256115, 2.954421705480788, 1.078521095662056, -1.3417392738681588, 0.22633021113388907, 1.9134889389355985, 4.094720686938608], [-1.6676290524303856, -1.0932628462548033, 3.3755007156686974, -3.1662413695415155, 0.3314951507412994, 0.6490068716811465, -0.9824885791802827, -5.06026977484831, -0.6441049275127146, -0.43245206273936965, 0.4820594962750371, -1.6122824698464768, -2.335164700170666, -2.690833575889871, 5.881302094358902, -2.0714590308479948], [-0.3339250960651832, 6.612496497620377, 0.2819843350301333, 5.943071384691645, 1.1492117528391144, 2.37507510995182, 10.268279351358975, -4.200041552973997, 1.6712338124548305, -4.938588709737726, 2.00628295907036, -3.057777102223561, 5.080244673026774, -12.593676386941324, 0.7560065302344631, 2.722928648766495], [-0.9570811193009168, -0.4222063367185296, 5.625903684428573, 0.7215629430518783, 3.1824353085040684, -4.286443199731824, 0.608660134261146, 2.7228891229849106, -2.785983280205799, -3.844808023855901, -2.923468438230873, -4.5574825472412765, -3.5392315577501536, 1.1425475084138323, -2.063905607918166, -0.7811231800268188], [7.8165838489220185, 1.0507622819994462, 1.8986253982104884, -5.706676508991567, 1.8642369573232007, 1.3888812990535828, -2.78062165263717, -3.359159917814517, 1.6748833782166903, -2.0064462112177495, 0.46606716841702256, -2.3087944036882426, -2.170064878094758, 2.6866081388272196, -0.3275015683691771, 0.7023691369817843], [-3.574905678412591, 1.022542763905918, 1.2862126234868856, 5.324088844012432, -8.283524914609941, -1.6310624948003827, -2.25249444576482, -2.8039828483580846, -1.0380501534980284, 3.8996661879377603, -4.946567300163172, 2.976684770948621, -0.07205007483018777, 1.2392424297026596, -1.5455049782657426, -3.095842303435222], [2.6992637069553, -1.0151635765142557, -3.8184981639229547, 0.5202521616122491, 1.3883240228949334, -0.14428644791912326, -4.183379707174964, -1.785964027869241, -1.3353064267230583, -3.0674473808405267, 6.658823680008792, 0.1780535470262785, -1.9342265098904368, 2.6321603608032724, 1.235518239582264, 0.907908886387351], [-0.3310583691833129, -0.8958892819861388, 2.5817696073658936, 1.0107309235468351, 1.3110993585682094, 0.7587544296437979, -5.531773255549913, -0.29061771018398513, 0.10160081811291453, 6.29521523387556, -2.8754007327582305, 2.3707197911063935, 3.0605656489165947, 3.6060728229053, 1.6353710759056952, 2.9399396139089804], [1.605767337492027, -0.5471213515854663, 5.146419193820274, 5.039282527895086, 0.9569516154175051, -4.337753969536042, -1.595477486856983, 5.117874449198863, 3.2268790625015913, -7.16024500147663, 8.032631315270908, -10.093054145494094, -0.6364163612933502, -0.10650340797787561, 5.412007371241724, -0.6109994138266508]], "bias": [[0.8118213654978133], [-1.4930041007666066], [-1.982434480420116], [-1.5541068589956628], [0.12468899526462285], [4.6974614900348355], [1.2880217434656145], [4.7946480114286185], [0.46027520016719914], [-2.2369493053636087], [-5.561883911561764], [-4.5320750598539705], [-1.6610223964728021], [0.3412433119159509], [-1.3365179117657195], [-3.457766068605777], [1.7408410512843129], [3.1108200594936966], [-1.169171195037595], [3.9041970392551675], [0.3953602639453557], [-5.025799330504409], [-1.2747847805266987], [-4.192940168862766]]}, {"layer": "activation", "activation": "relu", "activation_prime": "relu"}, {"layer": "dense", "input_size": 24, "output_size": 4, "weights": [[4.876724583869457, -4.290254540632581, 1.5109253205529096, 1.6804640356667868, -3.1309029776728563, 2.118862340920659, -0.03498233296149489, -0.33688361738494654, 0.10135486728524434, -0.26542282139810425, 1.1347294476679568, -1.6837865860765113, 1.2162873825796288, 1.1772695390752175, 0.7066514587689738, 1.267537007953525, 4.659138599289179, 4.668262853711818, 2.5000394158877803, -8.548274030142306, -1.6835711942807012, -2.046867090785201, 0.0047674862045874455, -5.461748424734129], [-0.3505544964043392, -5.725379428790879, 1.22617599531891, 4.269382466850073, 1.0707587443437634, -3.3665563531807665, -1.9654930683663787, 0.5528883695851032, 6.010555909463531, 1.1374615517268123, -0.9717462888321486, 4.901422276579547, -4.490500230564634, 3.8676608214430725, -5.989529633192748, -2.001466910233287, 0.7499128662513634, -4.346428660949595, 0.6937153418148647, 1.6909984704913537, -2.2867427061430776, -1.2275171964993608, 2.7532666872127636, -2.2510358790345784], [3.3295979117761294, -0.19777507248692028, -0.7793866742216548, 0.37844518270687755, 4.786445705942887, 1.005820621259572, -0.5476547259015122, 0.03951445721294072, -1.5778531912110771, -0.9245256418026919, -1.7481164503977324, 0.41403509419216133, -3.2587446508859963, -0.0428649614849923, 4.2678893102832784, -0.9590997997334954, 0.9751933540868671, -3.9053780695095814, -0.7941162368836795, 0.044422137417464105, 2.787682577324216, 2.393987683410967, 4.6793088334911985, 1.694814340860575], [2.49023563261495, 6.225110330892498, 2.2199602762297657, -5.322053136925441, 2.9070468811280907, -7.702209605061727, 3.297497375342511, -5.269378009703261, -0.819837669605807, 5.574949364280187, 0.31238574965731813, 1.418319846091183, 0.4671026087003458, -1.410392452444441, -0.0016207315280332146, -2.6425036797724317, -0.056281681841648, 0.9048126763929532, 3.2447672024365675, 0.7194307979290142, 2.5924908945898593, -1.1400490303906032, -0.9395223505617347, 3.8918498327768485]], "bias": [[-0.3568049815256692], [1.5883189226308796], [8.980883024383818], [-4.508252100910564]]}, {"layer": "activation", "activation": "sigmoid", "activation_prime": "sigmoid"}]}